\data\
ngram 1=536
ngram 2=963
ngram 3=864

\1-grams:
-3.2923 फ्रेंड्स -0.4669
-3.2923 खरबूजे -0.5103
-2.9912 जूते -0.4669
-3.2923 न -0.5227
-3.2923 वायरलेस -0.5227
-3.2923 स्मरण -0.5222
-2.0370 बिजली -0.4983
-3.2923 शेक -0.4669
-3.2923 बुढ़ापा -0.5227
-3.2923 देखा -0.5213
-3.2923 लो -0.5227
-3.2923 रश्मिरथी -0.4669
-3.2923 विकास -0.5222
-2.9912 ऑफर -0.4669
-3.2923 बोर्ड -0.5103
-2.4472 कि -0.5202
-3.2923 रेबन -0.4669
-3.2923 लायी -0.5227
-3.2923 रिपीटर -0.4669
-2.9912 परामर्श -0.4669
-3.2923 पैड -0.4669
-2.5933 हैं -0.4669
-3.2923 भरपूर -0.5224
-3.2923 फ़ास्ट -0.5227
-2.9912 बन -0.5224
-3.2923 दार्शनिक -0.5227
-3.2923 द्वारा -0.5227
-2.8151 बनाने -0.5103
-3.2923 साधारण -0.5227
-3.2923 सेफ -0.4669
-3.2923 शनि -0.5227
-3.2923 दौड़ने -0.5103
-2.9912 उत्पादन -0.5222
-3.2923 एल -0.5227
-3.2923 वगैरह -0.4669
-3.2923 बस -0.5224
-2.9912 फैंसी -0.4664
-3.2923 थर्मामीटर -0.4669
-3.2923 पोषण -0.4669
-3.2923 सैंडल -0.4669
-3.2923 अनारकली -0.4669
-3.2923 होता -0.5224
-3.2923 हैरान -0.5227
-3.2923 नया -0.5227
-3.2923 तथा -0.5227
-3.2923 सलवार -0.5227
-3.2923 हर -0.5227
-2.9912 वॉटर -0.5222
-3.2923 पचास -0.5222
-2.9912 बाटा -0.5103
-2.9912 कार -0.5222
-3.2923 कैनन -0.5227
-2.9912 टी -0.5222
-2.5933 पीछे -0.4654
-3.2923 कैंची -0.4669
-3.2923 कीमत -0.5224
-3.2923 लक्षण -0.5224
-2.9912 हनुमान -0.5224
-3.2923 चिपकने -0.5227
-3.2923 ई -0.5227
-2.2509 से -0.4616
-2.9912 सामग्री -0.4669
-3.2923 कठिन -0.5227
-3.2923 अलावा -0.5227
-3.2923 इस्त्री -0.5189
-3.2923 शरबत -0.5184
-3.2923 काला -0.5227
-3.2923 घटाने -0.5103
-3.2923 लाख -0.5213
-3.2923 फर -0.5103
-3.2923 फर्नीचर -0.4669
-2.9912 बी -0.4667
-3.2923 प्रतिस्पर्धात्मक -0.5227
-3.2923 संध्या -0.4669
-3.2923 पेनड्राइव -0.4669
-3.2923 सीखने -0.5103
-2.5141 नहीं -0.5157
-3.2923 घड़ी -0.4669
-2.9912 पैनासोनिक -0.5220
-3.2923 टेबलेट -0.4669
-3.2923 बल्ब -0.4669
-3.2923 ना -0.5227
-2.9912 बताइए -0.4669
-3.2923 चालीसा -0.4669
-3.2923 बॉलपेन -0.4669
-3.2923 करें -0.4669
-3.2923 मोज़े -0.4669
-2.8151 थी -0.4651
-3.2923 इडली -0.5222
-3.2923 चलता -0.5213
-3.2923 पिस्ता -0.5227
-3.2923 बाद -0.5213
-3.2923 सॉस -0.4669
-2.9912 काम -0.5220
-3.2923 प्राइस -0.4669
-3.2923 थे -0.4669
-3.2923 वरदान -0.5218
-3.2923 टुकड़ों -0.5213
-3.2923 लोग -0.4669
-3.2923 सूट -0.4669
-3.2923 निकला -0.4669
-2.8151 बहुत -0.5218
-2.9912 इसलिए -0.5200
-3.2923 वस्तुएं -0.4669
-3.2923 गोल्डन -0.5227
-2.9912 आई -0.5220
-3.2923 कढ़ाई -0.4669
-3.2923 सिस्टम -0.4669
-3.2923 स्क्रीन -0.5227
-3.2923 पूजा -0.5224
-3.2923 इसी -0.5103
-3.2923 दुर्गा -0.5227
-2.6902 करने -0.5041
-3.2923 हमारे -0.5227
-3.2923 मनबहलाव -0.5103
-3.2923 चटनी -0.5222
-3.2923 प्राप्ति -0.5218
-3.2923 करिए -0.4669
-3.2923 लेनोवो -0.5227
-2.9912 वॉच -0.4669
-3.2923 चिपके -0.5227
-2.5933 आगे -0.4654
-3.2923 रोशनी -0.5184
-3.2923 दूल्हे -0.5103
-3.2923 मोटरगाड़ी -0.4669
-3.2923 खासीयत -0.4669
-2.9912 प्रोटीन -0.5224
-2.9912 अपने -0.5224
-3.2923 फैशन -0.4669
-3.2923 ट्रैक -0.4669
-3.2923 जाता -0.5213
-3.2923 ए -0.5227
-2.5933 भी -0.4600
-3.2923 सिक्सटी -0.5227
-3.2923 यूनानी -0.5227
-3.2923 ऋतू -0.4669
-3.2923 बिस्कुट्स -0.4669
-3.2923 किशमिश -0.4669
-3.2923 विदेश -0.5227
-3.2923 ट्यूबलैस -0.5227
-3.2923 सोलह -0.5218
-2.8151 पहले -0.5198
-3.2923 कूलर -0.5222
-3.2923 छह -0.5218
-3.2923 मेवा -0.4669
-3.2923 प्रयोग -0.5227
-2.1461 की -0.5184
-3.2923 स्पेशल -0.5224
-2.9912 हमारा -0.5220
-3.2923 प्रोसेसर -0.4669
-2.8151 एम्बर -0.5075
-3.2923 वाहन -0.4669
-3.2923 वस्तु -0.5213
-3.2923 पदार्थ -0.4669
-3.2923 कैमरा -0.5227
-3.2923 मेटल -0.5224
-2.9912 जी -0.5222
-3.2923 परीक्षाओं -0.5103
-3.2923 स्टील -0.5224
-2.9912 जानकारी -0.5211
-2.9912 विद्युत -0.5220
-2.4472 था -0.4669
-3.2923 बादाम -0.4669
-3.2923 गया -0.5218
-2.8151 लहंगा -0.4664
-3.2923 थिंक -0.5227
-3.2923 वह -0.5227
-3.2923 गार्ड्स -0.4669
-3.2923 टू -0.5227
-3.2923 किचन -0.5227
-3.2923 केवल -0.5227
-3.2923 पहुँच -0.5224
-3.2923 गैजेट्स -0.4669
-3.2923 मशीनें -0.5227
-2.9912 चलते -0.5215
-2.9912 दुल्हन -0.5200
-2.9912 सामान -0.4669
-3.2923 गोल्ड -0.5227
-2.9912 प्लेयर -0.4669
-3.2923 ट्राम -0.5227
-3.2923 विन -0.5227
-3.2923 पास -0.5227
-3.2923 गर्मी -0.5213
-3.2923 किया -0.5227
-3.2923 मुनक्का -0.4669
-3.2923 पूर्व -0.5218
-3.2923 लेकर -0.5224
-3.2923 शूज -0.4669
-2.9912 बॉक्स -0.4669
-3.2923 बिस्कुट -0.4669
-3.2923 ड्रैस -0.5227
-3.2923 प्रयोगों -0.5224
-3.2923 गाइड -0.4669
-3.2923 कथा -0.5227
-3.2923 टायर -0.4669
-3.2923 अविष्कार -0.5213
-2.5933 कम -0.4629
-3.2923 जाइए -0.4669
-3.2923 मिलेगा -0.4669
-3.2923 उम्र -0.5103
-3.2923 बैग -0.5103
-3.2923 अनेक -0.5227
-3.2923 डोसा -0.5222
-3.2923 वन -0.5224
-2.9912 ऐस -0.4667
-3.2923 खींचने -0.5198
-3.2923 तीस -0.5224
-2.9912 कागज़ -0.5103
-3.2923 आदमी -0.5103
-3.2923 सिलाई -0.5213
-3.2923 कसरत -0.5103
-3.2923 बीमा -0.4669
-3.2923 मनोरंजन -0.5224
-3.2923 टेलीविज़न -0.5218
-2.6902 सस्ती -0.4613
-2.9912 माइक्रोमैक्स -0.5224
-2.4472 ही -0.4641
-3.2923 गयी -0.5227
-2.9912 डायनामो -0.4667
-3.2923 पर्दे -0.4669
-3.2923 बल्कि -0.5224
-3.2923 आयबॉल -0.5227
-3.2923 तिजोरी -0.4669
-3.2923 मुफ्त -0.5227
-3.2923 चोली -0.4669
-3.2923 चीज़ -0.5224
-3.2923 मधुमेह -0.5103
-3.2923 होती -0.5218
-2.9912 गोदान -0.4659
-3.2923 देखभाल -0.5103
-3.2923 बजेट -0.5224
-3.2923 ने -0.5227
-3.2923 आगमन -0.4669
-2.9912 अन्य -0.5220
-3.2923 चश्मे -0.4669
-3.2923 कमीज़ -0.4669
-2.6902 ज्यादा -0.4626
-3.2923 चनिया -0.5227
-3.2923 किये -0.4669
-3.2923 दो -0.5218
-3.2923 लाइट्स -0.4669
-2.9912 निर्मला -0.4659
-3.2923 तंदूर -0.4669
-3.2923 नौ -0.5224
-3.2923 ज़ोलो -0.5222
-3.2923 पर्स -0.4669
-2.4472 साथ -0.4641
-3.2923 टेलीग्राफ -0.5227
-3.2923 अति -0.5227
-3.2923 व्यक्तियों -0.5103
-3.2923 हम -0.5227
-3.2923 बड़े -0.5227
-3.2923 फिलिप्स -0.4669
-3.2923 बैटरी -0.4669
-3.2923 नोकिया -0.5227
-3.2923 उपहार -0.4669
-3.2923 थोड़ी -0.5227
-2.8151 लोगों -0.5184
-3.2923 बर्फी -0.4669
-3.2923 कॉटन -0.5227
-2.9912 तो -0.5220
-3.2923 उठा -0.5227
-3.2923 इस्तेमाल -0.5198
-3.2923 कैबिनेट -0.4669
-3.2923 याददाश्त -0.5222
-3.2923 डिलीवरी -0.4669
-3.2923 इंटेक्स -0.4669
-3.2923 नापने -0.5103
-2.8151 सूती -0.5218
-3.2923 आज -0.5198
-3.2923 कामायनी -0.4669
-3.2923 व्यापारिक -0.5227
-2.9912 प्रसाद -0.4634
-3.2923 वैज्ञानिक -0.5227
-3.2923 वाटर -0.5227
-3.2923 विविध -0.5224
-2.9912 रगड़ने -0.5218
-3.2923 टेलीफोन -0.5227
-3.2923 होगा -0.4669
-3.2923 सुरक्षित -0.5227
-3.2923 उछल -0.5222
-3.2923 यन्त्र -0.4669
-2.9912 उसने -0.5224
-3.2923 होने -0.5103
-3.2923 चलायी -0.5224
-2.8151 कर -0.5215
-3.2923 गंधक -0.5227
-3.2923 वी -0.4669
-2.8151 वर्ष -0.5195
-3.2923 अथर्वशीर्ष -0.4669
-3.2923 थैले -0.5103
-3.2923 चॉपर -0.4669
-3.2923 रहते -0.4669
-3.2923 दैनिक -0.5227
-3.2923 एम -0.4669
-3.2923 जब -0.5189
-3.2923 चलती -0.5218
-3.2923 विचित्र -0.5227
-3.2923 सप्तशती -0.4669
-3.2923 मॉनिटर -0.4669
-3.2923 वरन -0.5227
-3.2923 फाइव -0.5227
-2.5933 है -0.4669
-3.2923 किताबें -0.4669
-3.2923 काले -0.5220
-3.2923 इंटेल -0.4669
-3.2923 डीलिंक -0.5227
-3.2923 साधन -0.4669
-3.2923 दस -0.5222
-3.2923 लिक -0.5224
-3.2923 सेल्फी -0.5227
-3.2923 दिल्ली -0.5227
-3.2923 लाभ -0.5218
-3.2923 जन्मदिन -0.5200
-3.2923 भोजन -0.4669
-3.2923 सब्जी -0.5227
-2.9912 जाते -0.5173
-3.2923 मल्टीमीडिया -0.5227
-2.9912 आदि -0.5202
-3.2923 शारीरिक -0.5227
-3.2923 माइक्रोवेव -0.5227
-3.2923 निराला -0.4669
-3.2923 रोगियों -0.5103
-3.2923 एंड -0.5227
-3.2923 अध्ययन -0.5222
-3.2923 चूल्हे -0.5189
-3.2923 लेकिन -0.5222
-3.2923 टोस्टर -0.5189
-3.2923 डी -0.5227
-2.4472 में -0.4629
-3.2923 चर्बी -0.5218
-3.2923 जेनरेटर -0.5103
-3.2923 पक्षियों -0.5103
-3.2923 चाक़ू -0.4669
-3.2923 चॉकलेट -0.5227
-3.2923 घरों -0.5213
-3.2923 विलियम -0.5227
-3.2923 बढ़ाएं -0.4669
-3.2923 आदमियों -0.5103
-3.2923 रस -0.5222
-3.2923 नाश्ता -0.4669
-2.9912 रुपये -0.5195
-3.2923 ग्राइंडिंग -0.5213
-2.9912 छोटे -0.5220
-3.2923 लंच -0.5224
-3.2923 दुग्ध -0.5227
-3.2923 लम्बे -0.5227
-3.2923 रत्न -0.5224
-2.6902 तक -0.4611
-2.5933 पर -0.4654
-3.2923 छत -0.5103
-3.2923 इस -0.5227
-3.2923 बूटेदार -0.5222
-3.2923 प्रेशर -0.5227
-3.2923 ज़ेरॉक्स -0.4669
-3.2923 प्राप्त -0.5227
-3.2923 उंचाई -0.5224
-1.9912 और -0.5112
-3.2923 म्यूजिक -0.5227
-2.6902 प्रेमचंद -0.4636
-3.2923 लैंप -0.4669
-3.2923 रिंग -0.4669
-3.2923 भर -0.5103
-3.2923 करते -0.5227
-2.9912 रेशम -0.5211
-3.2923 रात्रि -0.5227
-3.2923 पुर्जे -0.4669
-3.2923 रक्षा -0.5224
-3.2923 औज़ार -0.4669
-3.2923 सुखमय -0.5224
-3.2923 हुआ -0.4669
-3.2923 बनाईये -0.4669
-3.2923 ग्रो -0.5227
-2.6902 इससे -0.5211
-3.2923 कुर्ते -0.4669
-3.2923 फलालैन -0.5184
-2.9912 आय -0.5218
-3.2923 किसी -0.5218
-2.9912 पदार्थों -0.5087
-3.2923 मात्रा -0.5213
-3.2923 बिना -0.5213
-3.2923 बड़ा -0.5227
-3.2923 बताइये -0.4669
-3.2923 उपयोग -0.5198
-3.2923 पांच -0.5218
-3.2923 ब्लड -0.5227
-2.9912 महँगी -0.4669
-3.2923 साहित्य -0.4669
-3.2923 पता -0.5227
-2.9912 सिर्फ -0.5215
-2.9912 डीवीडी -0.4664
-2.9912 इसकी -0.5224
-0.9175 </s> -0.5229
-3.2923 शर्करा -0.5227
-3.2923 खोज -0.5204
-3.2923 मोटापा -0.5227
-3.2923 वॉलेट -0.4669
-3.2923 ओमरौन -0.5222
-2.8151 उपकरण -0.4669
-2.9912 जीवन -0.5224
-2.8151 तवा -0.4618
-3.2923 ज्योतिष -0.5224
-2.9912 शीतल -0.5224
-3.2923 लैंस -0.4669
-3.2923 कुछ -0.5224
-3.2923 टुकड़े -0.5222
-3.2923 पुस्तकें -0.4669
-3.2923 सील -0.5227
-2.5933 एक -0.5209
-2.8151 कैसे -0.5222
-2.9912 रहा -0.5211
-2.4472 को -0.5169
-2.9912 आ -0.5222
-2.6902 तब -0.5207
-3.2923 बैड -0.4669
-3.2923 नकद -0.5227
-3.2923 महंगा -0.5218
-3.2923 या -0.5224
-3.2923 कतरनें -0.5227
-3.2923 काटने -0.5103
-3.2923 हाउ -0.5227
-3.2923 काँटा -0.4669
-0.9175 <s> -0.4478
-3.2923 यों -0.5213
-3.2923 रह -0.5224
-3.2923 कफ़न -0.4669
-3.2923 गिलबर्ट -0.4669
-3.2923 सोलर -0.5227
-3.2923 आसान -0.5184
-3.2923 भजन -0.5227
-3.2923 आविष्कार -0.5103
-3.2923 मिल्टन -0.5227
-3.2923 काँच -0.5184
-3.2923 लगाया -0.5213
-2.9912 अधिक -0.5218
-3.2923 लेता -0.5213
-2.9912 धोने -0.5198
-3.2923 उससे -0.5227
-3.2923 स्कूली -0.5222
-3.2923 बीज -0.4669
-3.2923 एक्यूप्रैशर -0.5200
-3.2923 नैवीगेशन -0.5222
-3.2923 ठोस -0.5227
-3.2923 मटीरियल -0.4669
-2.8151 फ़ोन -0.4669
-3.2923 नए -0.5227
-3.2923 स्लिपर -0.4669
-2.9912 क्या -0.5215
-3.2923 इन्श्यूरैंस -0.4669
-3.2923 घंटी -0.4669
-2.5933 सौ -0.5198
-3.2923 फैक्ट्रियों -0.5213
-1.5441 के -0.5078
-3.2923 ट्रेन -0.5184
-3.2923 बाल -0.5227
-3.2923 लगाने -0.5198
-3.2923 रोकने -0.5103
-3.2923 उस्तरे -0.5224
-2.8151 कपड़े -0.4664
-3.2923 जूता -0.4669
-3.2923 सिल्क -0.5227
-2.9912 बढ़ाने -0.5103
-3.2923 ग्रीष्म -0.5227
-3.2923 चलाना -0.5227
-2.8151 कपड़े -0.5066
-2.8151 पी -0.5220
-3.2923 सकी -0.4669
-3.2923 ईसा -0.5204
-3.2923 रिच -0.4669
-3.2923 बिल -0.5227
-2.9912 बढ़िये -0.4669
-3.2923 हल्की -0.5227
-2.9912 जाती -0.5207
-3.2923 डिस्काउंट -0.5227
-3.2923 प्रूफ -0.5227
-3.2923 पड़ता -0.5213
-3.2923 देश -0.5103
-3.2923 कोई -0.5227
-3.2923 इसका -0.5224
-3.2923 भुगतान -0.4669
-3.2923 बॉटल -0.4669
-3.2923 कॉस्ट -0.5224
-3.2923 श्रृंगार -0.4669
-2.9912 हज़ार -0.5215
-3.2923 ऐम -0.5222
-2.9912 यंत्र -0.4664
-3.2923 लेमन -0.5227
-3.2923 पेय -0.4669
-3.2923 साड़ियाँ -0.4669
-3.2923 काजू -0.4669
-3.2923 पारिवारिक -0.5227
-2.8151 रीबोक -0.4523
-3.2923 जे -0.5224
-3.2923 व्यक्ति -0.5227
-2.8151 बच्चों -0.5073
-3.2923 स्टिक -0.4669
-2.9912 समय -0.5207
-3.2923 स्पार्क -0.5227
-2.9912 प्रूफ़ -0.4669
-3.2923 रेडियो -0.5184
-3.2923 राऊटर्स -0.4669
-3.2923 सुबह -0.5200
-3.2923 हार्ड -0.5227
-3.2923 घोड़ा -0.4669
-2.4472 मशीन -0.4618
-3.2923 वाशिंग -0.5213
-2.8151 वज़न -0.5215
-3.2923 वाला -0.5222
-3.2923 लखानी -0.4669
-3.2923 गणित -0.5103
-2.8151 शक्ति -0.4631
-3.2923 गणेश -0.5227
-3.2923 सूखे -0.5227
-3.2923 डिस्क -0.5227
-3.2923 मॉडल -0.5103
-2.9912 मोबाइल -0.4667
-2.1783 का -0.5198
-2.9912 थ्री -0.4664
-3.2923 अंक -0.5227
-3.2923 शिक्षा -0.4669
-3.2923 जैसे -0.5213
-3.2923 किराए -0.5198
-3.2923 कटलरी -0.4669
-3.2923 चेकआउट -0.5227
-3.2923 वॉरंटी -0.5184
-3.2923 सोच -0.5222
-3.2923 रक्त -0.5227
-3.2923 गाड़ियाँ -0.4669
-3.2923 मोबाइल्स -0.4669
-3.2923 घागरा -0.4669
-3.2923 नतीजा -0.5215
-3.2923 श्री -0.5227
-1.8943 लिए -0.4554
-3.2923 फ़ूड -0.5227
-3.2923 इतने -0.5224
-3.2923 चीजें -0.5218

\2-grams:
-0.1549 बनाने के -0.3602
-0.1549 प्रयोग किये -0.0000
-0.4559 इसलिए कि -0.4260
-0.4559 चलते पुर्जे -0.0000
-2.5297 <s> कसरत -0.0000
-1.9031 के उपकरण -0.0000
-1.5528 लिए डीवीडी -0.3358
-0.1549 वगैरह </s> -0.5229
-0.7570 तब इसका -0.0000
-0.1549 बिल बनाईये -0.0000
-1.2688 का फर्नीचर -0.0000
-1.1963 से ज्यादा -0.4393
-0.7570 सस्ती बताइए -0.0000
-0.1549 पेय </s> -0.5229
-0.8539 एक सौ -0.4574
-2.5297 <s> चेकआउट -0.0000
-0.1549 इडली बनाने -0.0000
-1.5528 लिए यन्त्र -0.0000
-0.6990 कि तब -0.3358
-0.4559 सिर्फ वैज्ञानिक -0.0000
-0.8539 सौ तीस -0.0000
-0.4559 आ जाती -0.3358
-2.5297 <s> स्लिपर -0.0000
-2.5297 <s> सोलर -0.0000
-0.4559 उसने विविध -0.0000
-0.1549 नैवीगेशन उपकरण -0.0000
-0.4559 हज़ार रुपये -0.3358
-0.1549 आविष्कार के -0.5174
-1.0000 कि रेशम -0.3358
-2.5297 <s> बूटेदार -0.0000
-2.5297 <s> गणेश -0.0000
-0.1549 लैंप </s> -0.5229
-2.5297 <s> नया -0.0000
-0.1549 चीज़ बन -0.3358
-2.5297 <s> स्मरण -0.0000
-2.5297 <s> गोल्ड -0.0000
-1.9031 के कपड़े -0.2499
-0.1549 रिपीटर </s> -0.5229
-0.1549 जेनरेटर के -0.5174
-0.6320 कैसे करें -0.0000
-0.1549 घागरा </s> -0.5229
-0.1549 एल ई -0.0000
-2.5297 <s> कॉटन -0.0000
-0.1549 बड़े प्रयोग -0.0000
-0.7570 इससे न -0.0000
-0.1549 ईसा से -0.4943
-0.1549 याददाश्त कैसे -0.4075
-0.9678 का सामान -0.0000
-0.1549 श्रृंगार </s> -0.5229
-0.1549 नोकिया दो -0.0000
-1.9031 के टोस्टर -0.0000
-1.4559 और बताइये -0.0000
-2.5297 <s> बाल -0.0000
-0.4559 जाती है -0.0000
-0.6320 लोगों का -0.4988
-1.0000 ही </s> -0.5229
-0.1549 लेता था -0.0000
-0.1549 काटने के -0.3602
-2.5297 <s> ओमरौन -0.0000
-1.0000 को कपड़े -0.4075
-0.1549 टेबलेट </s> -0.5229
-1.3010 की कामायनी -0.0000
-0.1549 ज़ेरॉक्स </s> -0.5229
-0.1549 बाल काले -0.0000
-2.5297 <s> थिंक -0.0000
-0.1549 उपहार </s> -0.5229
-0.1549 फर के -0.4890
-0.4559 पैनासोनिक डीवीडी -0.3358
-0.1549 ओमरौन वज़न -0.2499
-0.1549 पदार्थ </s> -0.5229
-0.4559 निर्मला प्रेमचंद -0.1996
-1.3010 की लाख -0.0000
-1.0000 कि हम -0.0000
-1.5528 लिए बिजली -0.4877
-0.1549 घोड़ा </s> -0.5229
-0.1549 कैंची </s> -0.5229
-0.1549 साधन </s> -0.5229
-2.5297 <s> ज़ोलो -0.0000
-0.8539 भी </s> -0.5229
-2.5297 <s> पूजा -0.0000
-0.1549 ई डी -0.0000
-0.1549 पारिवारिक पोषण -0.0000
-0.1549 काँच और -0.5074
-0.1549 यों ही -0.4771
-2.5297 <s> तवा -0.4075
-0.1549 काँटा </s> -0.5229
-0.1549 वस्तु को -0.4771
-2.5297 <s> ट्यूबलैस -0.0000
-2.5297 <s> कागज़ -0.0000
-0.1549 किताबें </s> -0.5229
-0.1549 सोलर लाइट्स -0.0000
-0.5528 आगे </s> -0.5229
-0.6320 वर्ष पहले -0.4075
-0.4559 जाते हैं -0.0000
-0.3310 लहंगा </s> -0.5229
-0.4559 तो होता -0.0000
-0.1549 एम </s> -0.5229
-0.1549 लखानी </s> -0.5229
-0.4559 बन सकी -0.0000
-0.1549 औज़ार </s> -0.5229
-0.1549 थिंक एंड -0.0000
-0.4559 रहा था -0.0000
-0.1549 फ़ोन </s> -0.5229
-0.1549 उंचाई बढ़ाने -0.0000
-0.1549 हल्की वस्तु -0.0000
-0.8539 पीछे पीछे -0.2863
-1.5528 लिए मशीन -0.1249
-2.5297 <s> ज्यादा -0.4393
-0.1549 गाइड </s> -0.5229
-2.5297 <s> काजू -0.0000
-0.1549 लाभ हैं -0.0000
-2.5297 <s> मोटापा -0.0000
-0.1549 कठिन होने -0.0000
-0.1549 हुआ </s> -0.5229
-2.5297 <s> रत्न -0.0000
-0.1549 सोलह सौ -0.4574
-0.1549 ना चिपकने -0.0000
-2.5297 <s> सोलह -0.0000
-0.1549 लेकिन बहुत -0.2499
-0.1549 नए मॉडल -0.0000
-2.5297 <s> इंटेक्स -0.0000
-0.1549 बैटरी </s> -0.5229
-2.5297 <s> लेकिन -0.0000
-0.1549 ग्राइंडिंग मशीन -0.1249
-0.4559 निर्मला </s> -0.5229
-0.1549 पिस्ता बर्फी -0.0000
-0.1549 दैनिक उपयोग -0.0000
-2.5297 <s> किसी -0.0000
-2.5297 <s> सिलाई -0.0000
-0.7570 तब लोगों -0.2499
-0.1549 फिलिप्स </s> -0.5229
-0.1549 कूलर कपड़े -0.4075
-1.4102 बिजली साधारण -0.0000
-0.1549 रोकने के -0.3602
-0.1549 रह जाते -0.3358
-0.1549 हैं </s> -0.5229
-2.5297 <s> फ़ूड -0.0000
-2.0525 <s> कि -0.3680
-0.4559 डायनामो या -0.0000
-0.1549 भरपूर विद्युत -0.3358
-0.1549 सीखने के -0.3602
-0.1549 छत के -0.5174
-1.4559 और उससे -0.0000
-0.6320 सूती कपड़े -0.2499
-2.5297 <s> रश्मिरथी -0.0000
-0.1549 किचन कैबिनेट -0.0000
-0.4559 डायनामो </s> -0.5229
-0.1549 टोस्टर बिजली -0.3610
-0.1549 वी </s> -0.5229
-0.1549 स्मरण शक्ति -0.4075
-0.9331 बिजली की -0.4523
-0.1549 मिलेगा </s> -0.5229
-0.1549 सॉस </s> -0.5229
-1.0000 साथ बड़े -0.0000
-1.2688 का कफ़न -0.0000
-1.1091 बिजली से -0.4309
-2.5297 <s> पेनड्राइव -0.0000
-0.1549 ब्लड प्रेशर -0.0000
-1.0000 साथ साथ -0.4771
-0.1549 न केवल -0.0000
-0.1549 रेडियो और -0.5074
-1.0000 को इस्त्री -0.0000
-2.5297 <s> दस -0.0000
-0.1549 बल्कि इसलिए -0.3358
-0.1549 हैरान रह -0.0000
-2.2286 <s> इसकी -0.0000
-0.1549 प्लेयर </s> -0.5229
-0.1549 ऋतू </s> -0.5229
-2.5297 <s> स्क्रीन -0.0000
-0.1549 देश के -0.3602
-0.5528 कम </s> -0.5229
-2.5297 <s> ग्रीष्म -0.0000
-0.1549 चलाना पड़ता -0.0000
-2.5297 <s> बॉलपेन -0.0000
-0.1549 तिजोरी </s> -0.5229
-1.0000 ही ट्रेन -0.0000
-1.9031 के द्वारा -0.0000
-0.1549 इन्श्यूरैंस </s> -0.5229
-2.5297 <s> किराए -0.0000
-0.1549 व्यापारिक वाहन -0.0000
-2.5297 <s> व्यापारिक -0.0000
-0.1549 स्क्रीन गार्ड्स -0.0000
-2.5297 <s> लिक -0.0000
-0.1549 था </s> -0.5229
-0.4559 वॉटर बॉटल -0.0000
-0.4559 गोदान </s> -0.5229
-1.9031 के बीज -0.0000
-0.1549 काले करने -0.3358
-0.1549 प्रूफ घड़ी -0.0000
-1.0000 कि जब -0.0000
-0.4559 हनुमान शनि -0.0000
-0.7570 ज्यादा महँगी -0.0000
-0.4559 बी एम -0.0000
-0.1549 सिल्क ड्रैस -0.0000
-0.1549 कॉटन सिल्क -0.0000
-0.1549 यन्त्र </s> -0.5229
-0.7570 तब तक -0.4393
-2.5297 <s> टेलीग्राफ -0.0000
-0.1549 घरों में -0.4771
-0.4559 कार जी -0.0000
-0.1549 मुनक्का </s> -0.5229
-1.0000 को उठा -0.0000
-0.1549 करते थे -0.0000
-0.1549 बैग के -0.4890
-0.1549 विकास कैसे -0.4075
-0.4559 सस्ती </s> -0.5229
-0.1549 चिपके रहते -0.0000
-0.1549 कटलरी </s> -0.5229
-2.5297 <s> स्कूली -0.0000
-0.1549 पचास वर्ष -0.4075
-0.4559 पदार्थों में -0.4771
-0.4559 जानकारी नहीं -0.4075
-0.1549 दुल्हन का -0.4464
-1.0000 ही चलते -0.3358
-0.1549 बनाईये </s> -0.5229
-2.5297 <s> चर्बी -0.0000
-1.1963 से छह -0.0000
-0.1549 मुफ्त डिलीवरी -0.0000
-0.4559 शीतल फैशन -0.0000
-0.4559 जाती हैं -0.0000
-0.1549 इसी के -0.5174
-0.7570 ज्यादा से -0.4638
-0.6320 शक्ति आ -0.3358
-1.9031 के ऑफर -0.0000
-0.1549 जाइए </s> -0.5229
-0.6320 थी </s> -0.5229
-0.1549 ग्रो रिच -0.0000
-0.1549 इंटेल </s> -0.5229
-0.1549 पोषण </s> -0.5229
-0.1549 नापने के -0.3602
-0.6320 सूती कमीज़ -0.0000
-0.3310 लोगों को -0.4260
-2.5297 <s> ब्लड -0.0000
-0.1549 विचित्र लक्षण -0.0000
-2.5297 <s> उछल -0.0000
-0.1549 सूखे मेवा -0.0000
-0.1549 वन टी -0.3358
-0.8539 पर नकद -0.0000
-0.1549 होने के -0.4890
-0.1549 छह सौ -0.4574
-0.1549 बोर्ड के -0.3602
-0.1549 चीजें भी -0.4574
-2.0525 <s> रीबोक -0.0000
-0.1549 मॉनिटर </s> -0.5229
-1.4559 और भरपूर -0.0000
-2.5297 <s> अंक -0.0000
-0.1549 इस्त्री बिजली -0.3610
-2.5297 <s> कपड़े -0.4075
-0.1549 ग्रीष्म ऋतू -0.0000
-0.1549 लक्षण आ -0.3358
-1.9031 के रोगियों -0.0000
-0.4559 काम कैसे -0.4075
-0.4559 उत्पादन कठिन -0.0000
-2.2286 <s> आय -0.0000
-2.5297 <s> कथा -0.0000
-0.1549 वैज्ञानिक लोग -0.0000
-0.4559 डीवीडी प्लेयर -0.0000
-2.5297 <s> सब्जी -0.0000
-2.2286 <s> बाटा -0.0000
-0.1549 यूनानी दार्शनिक -0.0000
-2.5297 <s> खरबूजे -0.0000
-1.9031 के अविष्कार -0.0000
-2.5297 <s> जैसे -0.0000
-0.1549 जूता </s> -0.5229
-1.4559 और बिजली -0.3610
-2.5297 <s> जीवन -0.3358
-0.1549 नकद भुगतान -0.0000
-0.1549 चालीसा </s> -0.5229
-0.7570 इससे महँगी -0.0000
-0.1549 पैड </s> -0.5229
-2.2286 <s> डायनामो -0.0000
-0.4559 प्रसाद </s> -0.5229
-0.4559 आय फ़ोन -0.0000
-0.8539 भी देश -0.0000
-2.5297 <s> घागरा -0.0000
-2.5297 <s> याददाश्त -0.0000
-2.5297 <s> थैले -0.0000
-0.8539 सौ पचास -0.0000
-0.7192 से ही -0.3680
-2.5297 <s> पर्दे -0.0000
-0.6990 साथ रगड़ने -0.0000
-2.5297 <s> रात्रि -0.0000
-2.5297 <s> पर्स -0.0000
-0.1549 कोई ठोस -0.0000
-2.5297 <s> बिल -0.0000
-0.6320 वर्ष से -0.4638
-0.1549 वाटर प्रूफ -0.0000
-0.1549 गंधक काँच -0.0000
-0.4559 विद्युत शक्ति -0.4075
-0.1549 नतीजा नहीं -0.4690
-0.4559 फैंसी वॉच -0.0000
-0.1549 कुछ अन्य -0.3358
-0.1549 होती है -0.0000
-1.9031 के टुकड़े -0.0000
-2.5297 <s> इडली -0.0000
-2.5297 <s> मुफ्त -0.0000
-2.5297 <s> प्राप्ति -0.0000
-0.1549 गैजेट्स </s> -0.5229
-0.4559 विद्युत जेनरेटर -0.0000
-1.0000 मशीन और -0.5074
-0.1549 गार्ड्स </s> -0.5229
-0.1549 प्रेशर मॉनिटर -0.0000
-1.0000 में इससे -0.4393
-0.1549 आगमन </s> -0.5229
-2.5297 <s> कैनन -0.0000
-0.1549 बॉटल </s> -0.5229
-0.1549 बताइये </s> -0.5229
-2.2286 <s> आगे -0.3802
-0.6320 शक्ति </s> -0.5229
-2.2286 <s> गोदान -0.0000
-0.1549 स्पेशल ऑफर -0.0000
-0.1549 फ्रेंड्स </s> -0.5229
-0.1549 सुबह का -0.4988
-0.4559 माइक्रोमैक्स ए -0.0000
-0.4559 अपने प्रयोगों -0.0000
-0.1549 मेटल बॉक्स -0.0000
-0.4559 हनुमान चालीसा -0.0000
-0.1549 व्यक्ति विलियम -0.0000
-2.5297 <s> आयबॉल -0.0000
-2.5297 <s> औज़ार -0.0000
-2.5297 <s> माइक्रोवेव -0.0000
-2.5297 <s> चॉकलेट -0.0000
-0.1549 लाख में -0.4771
-0.1549 उपयोग की -0.5006
-0.6320 रीबोक शूज -0.0000
-0.1549 मल्टीमीडिया सीखने -0.0000
-2.5297 <s> आज -0.0000
-0.1549 पता लगाया -0.0000
-0.4559 यंत्र सामग्री -0.0000
-0.1549 हमारे दैनिक -0.0000
-0.4559 आई पैड -0.0000
-0.1549 तंदूर </s> -0.5229
-0.4559 इसकी कॉस्ट -0.0000
-0.1549 दुर्गा सप्तशती -0.0000
-0.1549 सामग्री </s> -0.5229
-0.1549 फैशन </s> -0.5229
-0.1549 चेकआउट करिए -0.0000
-0.1549 थर्मामीटर </s> -0.5229
-0.1549 फर्नीचर </s> -0.5229
-0.6320 एम्बर के -0.5174
-0.2798 प्रेमचंद </s> -0.5229
-1.3010 की गाड़ियाँ -0.0000
-0.1549 गोल्डन स्टील -0.0000
-1.5528 लिए गाइड -0.0000
-2.5297 <s> थर्मामीटर -0.0000
-0.1549 लगाने की -0.5006
-0.6320 कर हैरान -0.0000
-2.5297 <s> शारीरिक -0.0000
-0.1549 बढ़ाएं </s> -0.5229
-0.5051 के लिए 0.0000
-2.5297 <s> सूखे -0.0000
-2.5297 <s> आदमियों -0.0000
-2.5297 <s> ग्राइंडिंग -0.0000
-0.1549 घंटी </s> -0.5229
-2.2286 <s> वज़न -0.0000
-0.1549 पूजा सामग्री -0.0000
-0.1549 ठोस नतीजा -0.0000
-0.4559 आ जाता -0.0000
-0.4559 छोटे छोटे -0.3358
-1.5528 लिए पुस्तकें -0.0000
-0.8539 भी बिजली -0.4877
-0.1549 शरबत और -0.5074
-0.6990 को बिजली -0.2804
-2.5297 <s> इसलिए -0.3358
-0.1549 अलावा कुछ -0.0000
-0.1549 हार्ड डिस्क -0.0000
-0.8539 कम उम्र -0.0000
-0.1549 जन्मदिन का -0.4988
-0.7570 करने की -0.4523
-0.1549 लोग </s> -0.5229
-0.1549 डोसा तवा -0.2499
-0.1549 वरन इसी -0.0000
-0.1549 किराए की -0.5006
-2.5297 <s> दौड़ने -0.0000
-0.1549 रगड़ने पर -0.3802
-2.5297 <s> मेटल -0.0000
-0.1549 पर्दे </s> -0.5229
-0.7570 ज्यादा </s> -0.5229
-0.1549 डिस्काउंट मिलेगा -0.0000
-0.1549 गणित के -0.3602
-2.5297 <s> डोसा -0.0000
-0.4559 करने के -0.3602
-0.1549 शारीरिक देखभाल -0.0000
-1.2688 का श्रृंगार -0.0000
-2.5297 <s> मुनक्का -0.0000
-0.4559 उसने देखा -0.0000
-0.6320 रीबोक के -0.5174
-0.7570 करने का -0.4988
-0.1549 लैंस </s> -0.5229
-0.1549 तथा फैक्ट्रियों -0.0000
-0.4559 तक </s> -0.5229
-0.8539 सौ में -0.4260
-0.1549 प्राप्ति पर -0.4574
-0.1549 मोज़े </s> -0.5229
-0.1549 आदमी के -0.5174
-0.1549 रिच </s> -0.5229
-0.1549 डी बल्ब -0.0000
-1.9031 के आविष्कार -0.0000
-2.5297 <s> निराला -0.0000
-0.1549 स्टील वॉच -0.0000
-2.5297 <s> नए -0.0000
-0.1549 उम्र के -0.3602
-2.5297 <s> किशमिश -0.0000
-2.5297 <s> इंटेल -0.0000
-2.5297 <s> कम -0.4574
-0.8539 कम से -0.4943
-0.1549 चॉपर </s> -0.5229
-0.7570 इससे सस्ती -0.4393
-0.1549 चॉकलेट सॉस -0.0000
-0.1549 मटीरियल </s> -0.5229
-1.0000 को बहुत -0.2499
-0.6320 कपड़े की -0.5006
-0.3310 पहले से -0.3565
-0.1549 मात्रा में -0.4771
-0.6320 पी थ्री -0.3358
-0.1549 तीस मोबाइल -0.3358
-0.1549 मोबाइल्स </s> -0.5229
-0.1549 कफ़न </s> -0.5229
-1.1963 से लेकर -0.0000
-0.1549 लगाया था -0.0000
-2.5297 <s> सिर्फ -0.3358
-0.7570 तक बिजली -0.4877
-0.1549 बादाम </s> -0.5229
-2.5297 <s> लम्बे -0.0000
-0.1549 इस्तेमाल की -0.5006
-1.9031 के इस्तेमाल -0.0000
-0.1549 निकला </s> -0.5229
-0.1549 फ़ूड प्रोसेसर -0.0000
-0.1549 बाटा के -0.5119
-0.4559 गोदान प्रेमचंद -0.1996
-1.0000 में </s> -0.5229
-0.1549 खरबूजे के -0.5174
-1.0000 कि एम्बर -0.4075
-0.6320 थी बहुत -0.4075
-0.4559 थ्री </s> -0.5229
-0.6320 एम्बर पर -0.4574
-0.1549 टायर </s> -0.5229
-1.4559 और पीछे -0.2863
-0.1549 व्यक्तियों के -0.3602
-2.5297 <s> तंदूर -0.0000
-1.9031 के बाद -0.0000
-1.9031 के अलावा -0.0000
-2.5297 <s> लेमन -0.0000
-2.0525 <s> पीछे -0.0000
-0.4559 प्रसाद की -0.5006
-2.5297 <s> जी -0.0000
-0.1549 पुस्तकें </s> -0.5229
-2.5297 <s> घोड़ा -0.0000
-1.0000 साथ महंगा -0.0000
-1.0000 को खींचने -0.0000
-0.7570 तब हमारा -0.3358
-0.1549 दुग्ध पदार्थ -0.0000
-0.1549 कतरनें पक्षियों -0.0000
-1.5528 लिए एक -0.4574
-0.4559 हज़ार तक -0.3358
-0.1549 मेवा </s> -0.5229
-2.5297 <s> ना -0.0000
-2.5297 <s> ऐम -0.0000
-0.1549 चिपकने वाला -0.0000
-0.3310 बहुत समय -0.0000
-0.4559 माइक्रोमैक्स स्पार्क -0.0000
-2.5297 <s> मिल्टन -0.0000
-2.5297 <s> बिस्कुट -0.0000
-0.1549 दिल्ली बोर्ड -0.0000
-0.6320 बहुत पहले -0.2499
-0.1549 विदेश शिक्षा -0.0000
-0.1549 उछल कर -0.4075
-0.1549 सुखमय बन -0.3358
-0.1549 पुर्जे </s> -0.5229
-0.9331 नहीं हुआ -0.0000
-0.1549 चूल्हे बिजली -0.4690
-0.4559 शीतल पेय -0.0000
-2.2286 <s> उसने -0.0000
-0.1549 वॉरंटी और -0.5074
-0.4559 अधिक सस्ती -0.3358
-2.5297 <s> छोटे -0.3358
-0.1549 लेनोवो मोबाइल्स -0.0000
-1.9031 के चूल्हे -0.0000
-2.2286 <s> पैनासोनिक -0.0000
-0.1549 श्री कुर्ते -0.0000
-0.1549 वस्तुएं </s> -0.5229
-2.5297 <s> क्या -0.3358
-0.1549 महंगा भी -0.4574
-2.5297 <s> रेबन -0.0000
-0.1549 या विद्युत -0.3358
-0.1549 इसका उत्पादन -0.3358
-2.5297 <s> अनारकली -0.0000
-0.1549 बॉलपेन </s> -0.5229
-1.4102 बिजली को -0.4771
-0.1549 बिस्कुट </s> -0.5229
-0.1549 ए सिक्सटी -0.0000
-0.4559 रुपये से -0.4943
-0.1549 टू विन -0.0000
-0.1549 रात्रि भोजन -0.0000
-0.1549 देखा कि -0.4771
-1.4559 और अधिक -0.3358
-0.1549 फैक्ट्रियों में -0.4771
-0.1549 लम्बे व्यक्तियों -0.0000
-0.1549 महँगी </s> -0.5229
-1.2688 का विकास -0.0000
-0.5071 बिजली के -0.4771
-0.1549 गिलबर्ट </s> -0.5229
-0.1549 दो सौ -0.4574
-1.6846 <s> और -0.3802
-0.1549 प्रयोगों आदि -0.3358
-2.2286 <s> प्रसाद -0.0000
-0.1549 द्वारा हमारे -0.0000
-0.1549 सप्तशती </s> -0.5229
-0.8539 भी चलती -0.0000
-0.1549 हर हल्की -0.0000
-0.1549 मधुमेह के -0.5174
-1.0000 ही प्राप्त -0.0000
-0.4559 अन्य शीतल -0.3358
-0.1549 पक्षियों के -0.5174
-0.1549 शिक्षा </s> -0.5229
-0.1549 परामर्श </s> -0.5229
-0.1549 ने पता -0.0000
-0.6320 वज़न बढ़ाने -0.0000
-0.1549 उससे चिपके -0.0000
-0.8539 पर </s> -0.5229
-0.4559 टी बी -0.3358
-1.5528 लिए वस्तुएं -0.0000
-2.5297 <s> हार्ड -0.0000
-0.1549 किसी भी -0.4574
-0.1549 रश्मिरथी </s> -0.5229
-0.1549 गयी हर -0.0000
-0.1549 चाक़ू </s> -0.5229
-0.1549 नया आगमन -0.0000
-0.1549 जैसे कि -0.4771
-0.1549 कथा साहित्य -0.0000
-0.6320 कपड़े धोने -0.0000
-0.1549 चलता था -0.0000
-0.6320 कैसे चलता -0.0000
-0.1549 बस अपने -0.3358
-0.1549 भोजन </s> -0.5229
-2.5297 <s> एल -0.0000
-0.1549 शनि रक्षा -0.0000
-2.5297 <s> कैंची -0.0000
-1.3010 की चीज़ -0.0000
-0.1549 पेनड्राइव </s> -0.5229
-0.1549 उपकरण </s> -0.5229
-2.5297 <s> चटनी -0.0000
-2.5297 <s> चनिया -0.0000
-0.3310 कपड़े </s> -0.5229
-0.1549 बीमा </s> -0.5229
-0.1549 पहुँच जाते -0.3358
-1.9031 के कूलर -0.0000
-0.1549 घटाने के -0.3602
-0.1549 ट्रैक </s> -0.5229
-1.3010 की खासीयत -0.0000
-0.6320 सूती साड़ियाँ -0.0000
-2.5297 <s> फ़ास्ट -0.0000
-0.1549 किये </s> -0.5229
-0.1549 थैले के -0.4890
-0.1549 सेफ </s> -0.5229
-0.1549 वॉच </s> -0.5229
-0.1549 डिलीवरी </s> -0.5229
-2.5297 <s> प्रतिस्पर्धात्मक -0.0000
-1.9031 के साधन -0.0000
-0.1549 उठा लेता -0.0000
-1.9031 के टुकड़ों -0.0000
-0.1549 मोटरगाड़ी </s> -0.5229
-2.5297 <s> वाशिंग -0.0000
-0.1549 बढ़िये </s> -0.5229
-0.4559 समय तक -0.4393
-2.5297 <s> शीतल -0.3358
-2.5297 <s> लखानी -0.0000
-0.1549 खोज से -0.4943
-2.5297 <s> वह -0.0000
-0.1549 जूते </s> -0.5229
-0.4559 कार म्यूजिक -0.0000
-0.4559 डीवीडी </s> -0.5229
-2.5297 <s> उंचाई -0.0000
-0.8539 एक बड़ा -0.0000
-0.8539 एक यूनानी -0.0000
-0.1549 बिना ही -0.4771
-0.1549 बताइए </s> -0.5229
-1.9031 के पर -0.4574
-0.1549 स्कूली बच्चों -0.4075
-0.4559 सिर्फ एक -0.4574
-1.2688 का उत्पादन -0.3358
-0.4559 छोटे कागज़ -0.0000
-0.1549 शेक </s> -0.5229
-0.3768 पीछे </s> -0.5229
-2.5297 <s> बुढ़ापा -0.0000
-0.1549 लायी गयी -0.0000
-0.1549 पड़ता था -0.0000
-2.5297 <s> अति -0.0000
-0.8539 एक व्यक्ति -0.0000
-0.4559 रहा होगा -0.0000
-0.4559 हमारा काम -0.3358
-0.6320 रीबोक </s> -0.5229
-0.6320 नहीं थी -0.2499
-2.5297 <s> रेशम -0.3358
-0.1549 कॉस्ट बताइए -0.0000
-1.0000 में बस -0.0000
-1.9031 के इतने -0.0000
-0.1549 मनोरंजन तो -0.3358
-0.1549 ड्रैस मटीरियल -0.0000
-2.5297 <s> हाउ -0.0000
-0.1549 वायरलेस रिपीटर -0.0000
-0.4559 जानकारी तो -0.3358
-0.1549 हाउ टू -0.0000
-0.1549 गणेश अथर्वशीर्ष -0.0000
-0.1549 रोशनी और -0.5074
-0.1549 लो प्राइस -0.0000
-1.5528 लिए चाक़ू -0.0000
-0.1549 इस खोज -0.0000
-1.3010 की अनेक -0.0000
-1.5528 लिए किताबें -0.0000
-0.6320 पहले लोगों -0.2499
-1.0000 की जानकारी -0.0000
-0.8539 एक विचित्र -0.0000
-0.1549 बिस्कुट्स </s> -0.5229
-0.1549 इतने अधिक -0.3358
-1.9031 के उस्तरे -0.0000
-0.1549 नौ हज़ार -0.3358
-2.5297 <s> मधुमेह -0.0000
-0.1549 खासीयत </s> -0.5229
-0.1549 है </s> -0.5229
-0.1549 बुढ़ापा रोकने -0.0000
-2.5297 <s> शरबत -0.0000
-1.9031 के बिना -0.0000
-0.4559 यंत्र </s> -0.5229
-0.1549 कैनन कैमरा -0.0000
-0.4559 बी </s> -0.5229
-0.1549 सुरक्षित तिजोरी -0.0000
-0.1549 सकी </s> -0.5229
-0.1549 कसरत के -0.5174
-2.5297 <s> सेल्फी -0.0000
-0.1549 दूल्हे के -0.5174
-0.1549 सूट </s> -0.5229
-0.4559 रेशम फलालैन -0.0000
-2.5297 <s> फिलिप्स -0.0000
-2.5297 <s> लेनोवो -0.0000
-2.5297 <s> मोटरगाड़ी -0.0000
-0.1549 कागज़ के -0.5119
-0.1549 गाड़ियाँ </s> -0.5229
-0.4559 मोबाइल </s> -0.5229
-2.5297 <s> नहीं -0.4690
-0.2218 मशीन </s> -0.5229
-0.1549 होगा </s> -0.5229
-2.2286 <s> दुल्हन -0.0000
-0.1549 ट्रेन और -0.5074
-0.4559 तो पहले -0.2499
-0.4559 ऐस नैवीगेशन -0.0000
-0.1549 चनिया चोली -0.0000
-0.1549 जाता था -0.0000
-0.1549 अविष्कार को -0.4771
-0.1549 बूटेदार लहंगा -0.2499
-1.0000 ही थी -0.4075
-2.5297 <s> भजन -0.0000
-1.0000 ही काम -0.3358
-2.2286 <s> आई -0.0000
-0.1549 अध्ययन कर -0.4075
-0.4559 टी वी -0.0000
-1.1091 बिजली का -0.4734
-0.1549 मशीनें चलायी -0.0000
-0.8539 कम करने -0.3358
-1.4559 और ट्राम -0.0000
-0.1549 साड़ियाँ </s> -0.5229
-0.1549 लिक प्रूफ़ -0.0000
-0.1549 स्लिपर </s> -0.5229
-0.4559 इसलिए नहीं -0.4690
-0.8539 पर वगैरह -0.0000
-2.5297 <s> वायरलेस -0.0000
-1.4559 और सील -0.0000
-0.9331 नहीं और -0.4914
-0.1549 घड़ी </s> -0.5229
-2.5297 <s> डीलिंक -0.0000
-2.5297 <s> कटलरी -0.0000
-0.9331 नहीं निकला -0.0000
-0.1549 दार्शनिक ने -0.0000
-0.1549 वाशिंग मशीन -0.1249
-0.1549 संध्या </s> -0.5229
-0.1549 केवल रोशनी -0.0000
-0.9331 नहीं कि -0.4260
-2.5297 <s> यों -0.0000
-2.2286 <s> प्रोटीन -0.0000
-0.4559 आदि से -0.4638
-2.2286 <s> इससे -0.3358
-0.1549 सामान </s> -0.5229
-0.1549 बड़ा वरदान -0.0000
-0.1549 शूज </s> -0.5229
-0.1549 वाला तवा -0.2499
-0.1549 मिल्टन लंच -0.0000
-0.1549 इंटेक्स </s> -0.5229
-0.1549 म्यूजिक सिस्टम -0.0000
-2.5297 <s> चलते -0.3358
-2.5297 <s> दूल्हे -0.0000
-2.2286 <s> निर्मला -0.0000
-1.0000 में मशीनें -0.0000
-0.1549 लेकर हज़ार -0.3358
-2.5297 <s> छत -0.0000
-0.1549 ऑफर </s> -0.5229
-0.1549 गया है -0.0000
-0.1549 प्रतिस्पर्धात्मक परीक्षाओं -0.0000
-2.2286 <s> बच्चों -0.2499
-0.1549 बॉक्स </s> -0.5229
-2.2286 <s> लहंगा -0.0000
-0.6320 कर एम्बर -0.4075
-2.5297 <s> नोकिया -0.0000
-2.2286 <s> वॉटर -0.0000
-0.7570 सस्ती और -0.5074
-0.1549 सेल्फी स्टिक -0.0000
-0.1549 करिए </s> -0.5229
-0.1549 सील लगाने -0.0000
-0.6320 कपड़े धोने -0.0000
-0.4559 थ्री प्लेयर -0.0000
-0.1549 दौड़ने के -0.3602
-1.0000 में भी -0.4574
-0.1549 किया करते -0.0000
-1.4559 और गर्मी -0.0000
-0.1549 अंक गणित -0.0000
-0.1549 बजेट मोबाइल -0.3358
-0.1549 शर्करा नापने -0.0000
-2.2286 <s> कार -0.0000
-1.2688 का अध्ययन -0.0000
-2.5297 <s> काला -0.0000
-0.1549 खींचने की -0.5006
-0.1549 सिलाई मशीन -0.1249
-0.3310 तवा </s> -0.5229
-0.1549 टेलीफोन रेडियो -0.0000
-0.1549 अथर्वशीर्ष </s> -0.5229
-0.6320 कर रहा -0.3358
-0.1549 वॉलेट </s> -0.5229
-0.6320 थी तब -0.4393
-2.5297 <s> रक्त -0.0000
-0.1549 सैंडल </s> -0.5229
-2.5297 <s> किचन -0.0000
-0.4559 चलते हैं -0.0000
-0.1549 टेलीविज़न भी -0.4574
-0.1549 जब बिजली -0.5057
-2.5297 <s> दुग्ध -0.0000
-0.4559 जीवन बीमा -0.0000
-2.5297 <s> सस्ती -0.4393
-0.1549 बल्ब </s> -0.5229
-0.1549 भर के -0.3602
-2.5297 <s> एक्यूप्रैशर -0.0000
-2.2286 <s> हनुमान -0.0000
-0.4559 ऐस </s> -0.5229
-0.1549 कढ़ाई </s> -0.5229
-2.2286 <s> प्रेमचंद -0.0000
-0.6320 कैसे बढ़ाएं -0.0000
-0.6320 लहंगा फैंसी -0.3358
-2.5297 <s> विदेश -0.0000
-0.1549 चटनी बनाने -0.0000
-0.1549 करें </s> -0.5229
-2.5297 <s> वाटर -0.0000
-0.1549 उस्तरे आदि -0.3358
-0.1549 ट्यूबलैस टायर -0.0000
-0.1549 विविध पदार्थों -0.3358
-2.5297 <s> घरों -0.0000
-0.1549 चलती हैं -0.0000
-0.1549 रस बनाने -0.0000
-0.4559 क्या डिस्काउंट -0.0000
-1.9031 के स्पेशल -0.0000
-0.4559 हमारा जीवन -0.3358
-0.1549 निराला </s> -0.5229
-0.7570 इससे कोई -0.0000
-0.1549 सिक्सटी फाइव -0.0000
-0.1549 रेबन </s> -0.5229
-1.3010 की शक्ति -0.4075
-0.1549 कैबिनेट </s> -0.5229
-0.7570 प्रेमचंद का -0.4988
-0.1549 टुकड़े कपड़े -0.4075
-0.1549 आयबॉल गैजेट्स -0.0000
-1.2688 का बैड -0.0000
-0.1549 थे </s> -0.5229
-0.1549 वरदान है -0.0000
-0.1549 विलियम गिलबर्ट -0.0000
-0.8953 से </s> -0.5229
-0.1549 ट्राम तथा -0.0000
-2.5297 <s> ईसा -0.0000
-0.1549 जी पी -0.2499
-1.4559 और कम -0.3802
-0.4559 जीवन आसान -0.0000
-0.1549 कामायनी </s> -0.5229
-0.1549 रत्न परामर्श -0.0000
-0.4559 समय नहीं -0.4690
-0.1549 फलालैन और -0.5074
-1.2688 का मनोरंजन -0.0000
-0.8539 सौ वर्ष -0.4075
-0.1549 मोटापा घटाने -0.0000
-0.1549 राऊटर्स </s> -0.5229
-0.1549 दस वर्ष -0.4075
-0.1549 भुगतान </s> -0.5229
-0.4559 अन्य पदार्थों -0.3358
-1.4102 बिजली नहीं -0.4075
-1.4559 और टेलीविज़न -0.0000
-1.4559 और कढ़ाई -0.0000
-0.8539 पर एम्बर -0.4075
-0.4559 वॉटर प्रूफ़ -0.0000
-1.9031 के चश्मे -0.0000
-0.4559 आदि भर -0.0000
-0.1549 अति सुरक्षित -0.0000
-0.1549 भजन संध्या -0.0000
-0.3310 वज़न करने -0.3358
-0.1549 पर्स </s> -0.5229
-0.7570 तक आगे -0.4574
-0.1549 पांच सौ -0.4574
-1.2688 का नाश्ता -0.0000
-0.4559 अपने मनबहलाव -0.0000
-2.5297 <s> ज्योतिष -0.0000
-0.5114 लिए </s> -0.5229
-0.6320 कपड़े के -0.4890
-2.5297 <s> गोल्डन -0.0000
-0.5528 आगे बढ़िये -0.0000
-0.1549 माइक्रोवेव सेफ -0.0000
-0.1549 सलवार सूट -0.0000
-0.1549 वाहन </s> -0.5229
-0.1549 गोल्ड रिंग -0.0000
-2.5297 <s> रस -0.0000
-0.1549 सिस्टम </s> -0.5229
-2.5297 <s> बल्कि -0.0000
-2.5297 <s> चॉपर -0.0000
-2.5297 <s> ज़ेरॉक्स -0.0000
-0.1549 प्राप्त होती -0.0000
-0.6990 में एक -0.3802
-0.4559 मोबाइल नौ -0.0000
-0.1549 ज्योतिष परामर्श -0.0000
-0.1549 सब्जी काटने -0.0000
-0.1549 चश्मे </s> -0.5229
-0.1549 लंच बॉक्स -0.0000
-1.4559 और इन्श्यूरैंस -0.0000
-0.1549 साहित्य </s> -0.5229
-1.2688 का उपहार -0.0000
-0.4559 फैंसी </s> -0.5229
-0.4559 पैनासोनिक टी -0.3358
-0.1549 विन फ्रेंड्स -0.0000
-0.1549 लेमन टेबलेट -0.0000
-0.8239 की मशीन -0.0000
-0.4559 प्रोटीन बिस्कुट्स -0.0000
-0.8539 भी था -0.0000
-0.1549 टुकड़ों को -0.4771
-0.1549 काला जूता -0.0000
-2.0525 <s> सूती -0.0000
-1.3010 की कतरनें -0.0000
-2.5297 <s> यंत्र -0.3358
-0.4559 प्रोटीन शेक -0.0000
-0.1549 साधारण आदमी -0.0000
-0.1549 देखभाल के -0.3602
-0.6990 साथ </s> -0.5229
-2.5297 <s> इस -0.0000
-0.1549 बाद ही -0.4771
-0.1549 डीलिंक राऊटर्स -0.0000
-0.1549 डिस्क वन -0.0000
-0.4559 रेशम को -0.4771
-0.1549 पूर्व एक -0.4574
-0.6320 एम्बर में -0.4260
-2.5297 <s> मल्टीमीडिया -0.0000
-0.4559 अधिक लाभ -0.0000
-2.5297 <s> बजेट -0.0000
-0.1549 किशमिश </s> -0.5229
-0.4559 उत्पादन सिर्फ -0.3358
-0.1549 चलायी जाती -0.3358
-0.1549 चर्बी कम -0.4574
-2.5297 <s> श्री -0.0000
-0.1549 रोगियों के -0.3602
-1.5528 लिए मोज़े -0.0000
-0.8539 सौ रुपये -0.3358
-0.1549 आदमियों के -0.3602
-2.5297 <s> बैग -0.0000
-0.6320 तवा और -0.5074
-0.1549 स्पार्क जे -0.0000
-0.8539 पीछे जाइए -0.0000
-0.1549 ऐम पी -0.4075
-2.2286 <s> माइक्रोमैक्स -0.0000
-2.5297 <s> बादाम -0.0000
-2.5297 <s> लो -0.0000
-0.1549 नाश्ता </s> -0.5229
-0.3310 पी ऐस -0.0000
-0.1549 बीज </s> -0.5229
-2.5297 <s> हमारा -0.3358
-0.1549 गर्मी ही -0.4771
-0.1549 रिंग </s> -0.5229
-1.1963 से लोगों -0.4075
-0.1549 ज़ोलो फ़ोन -0.0000
-0.1549 एक्यूप्रैशर का -0.4734
-2.5297 <s> सैंडल -0.0000
-0.8539 पर पहुँच -0.0000
-1.4559 और अन्य -0.3358
-0.1549 पास लायी -0.0000
-2.5297 <s> वॉरंटी -0.0000
-0.8539 आगे इससे -0.4393
-0.1549 लाइट्स </s> -0.5229
-0.1549 थोड़ी मात्रा -0.0000
-1.4559 और फर -0.0000
-0.1549 कमीज़ </s> -0.5229
-2.5297 <s> पांच -0.0000
-0.1549 प्राइस </s> -0.5229
-0.4559 क्या है -0.0000
-1.6266 <s> बिजली -0.1427
-1.1549 और ज्यादा -0.3358
-0.1549 फ़ास्ट ट्रैक -0.0000
-0.4559 काम चलाना -0.0000
-1.9031 के जूते -0.0000
-1.1549 और आगे -0.3802
-0.4559 आय बी -0.3358
-1.3010 की घंटी -0.0000
-2.5297 <s> सलवार -0.0000
-0.1549 चोली </s> -0.5229
-0.1549 काजू </s> -0.5229
-0.1549 एंड ग्रो -0.0000
-0.4559 बन गया -0.0000
-0.1549 टेलीग्राफ टेलीफोन -0.0000
-0.6320 वर्ष पूर्व -0.0000
-0.1549 रहते </s> -0.5229
-0.1549 बढ़ाने के -0.3602
-0.6320 बच्चों के -0.3602
-1.5528 लिए जूते -0.0000
-0.4559 पदार्थों के -0.4890
-0.1549 बैड </s> -0.5229
-1.2688 का काँटा -0.0000
-0.1549 आज की -0.5006
-0.4559 इसकी कीमत -0.0000
-0.1549 कैमरा लैंस -0.0000
-0.7570 ज्यादा सस्ती -0.3358
-0.1549 प्रूफ़ </s> -0.5229
-0.1549 फाइव बैटरी -0.0000
-1.9031 के लैंप -0.0000
-0.1549 आसान और -0.5074
-2.5297 <s> फैंसी -0.3358
-0.8953 से कम -0.2863
-0.3310 बच्चों का -0.4734
-1.5528 लिए किया -0.0000
-2.5297 <s> पिस्ता -0.0000
-1.4559 और सुखमय -0.0000
-1.0000 कि गंधक -0.0000
-0.1549 मॉडल के -0.5174
-0.4559 रुपये तक -0.3358
-2.5297 <s> तब -0.4393
-0.1549 रक्त शर्करा -0.0000
-2.5297 <s> दुर्गा -0.0000
-1.5528 लिए उपकरण -0.0000
-0.1549 परीक्षाओं के -0.3602
-0.1549 अनारकली </s> -0.5229
-0.1549 स्टिक </s> -0.5229
-2.5297 <s> पारिवारिक -0.0000
-0.1549 प्रोसेसर </s> -0.5229
-0.1549 कीमत क्या -0.3358
-0.1549 अनेक चीजें -0.0000
-0.1549 बर्फी </s> -0.5229
-0.1549 जे थ्री -0.3358
-2.5297 <s> थोड़ी -0.0000
-0.1549 वह पास -0.0000
-0.4559 आई फ़ोन -0.0000
-0.6320 शक्ति का -0.4988
-0.1549 धोने की -0.4523
-0.1549 कुर्ते </s> -0.5229
-0.1549 मनबहलाव के -0.3602
-0.1549 रक्षा यंत्र -0.3358
-0.1549 होता रहा -0.3358
-0.1549 हम सोच -0.0000
-1.0000 ही अपने -0.3358
-0.4559 जाते और -0.5074
-2.5297 <s> वॉलेट -0.0000
-2.5297 <s> सुबह -0.0000
-2.5297 <s> वरन -0.0000
-2.5297 <s> दिल्ली -0.0000
-2.5297 <s> जन्मदिन -0.0000
-0.1549 सोच कर -0.4075
-1.1249 के साथ -0.1249

\3-grams:
-0.1549 रोशनी और गर्मी
-0.1549 के आविष्कार के
-0.1549 <s> फैंसी वॉच
-0.1549 <s> हार्ड डिस्क
-0.1549 हैरान रह जाते
-0.1549 लाख में </s>
-0.1549 <s> प्राप्ति पर
-0.4559 बाटा के स्पेशल
-0.1549 ही अपने मनबहलाव
-0.1549 साथ रगड़ने पर
-0.1549 <s> बच्चों का
-0.1549 लिक प्रूफ़ </s>
-0.1549 होती है </s>
-0.1549 कठिन होने के
-0.1549 तो होता रहा
-0.1549 डीलिंक राऊटर्स </s>
-0.4559 <s> बिजली के
-0.4559 <s> इसकी कॉस्ट
-0.1549 के इस्तेमाल की
-0.1549 ट्यूबलैस टायर </s>
-0.1549 <s> पर्स </s>
-0.4559 पी ऐस नैवीगेशन
-0.6320 <s> सूती साड़ियाँ
-0.1549 नकद भुगतान </s>
-0.1549 की अनेक चीजें
-0.1549 पीछे पीछे </s>
-0.1549 वॉरंटी और इन्श्यूरैंस
-0.1549 कॉटन सिल्क ड्रैस
-1.5528 के लिए उपकरण
-0.1549 दुग्ध पदार्थ </s>
-0.1549 तब तक बिजली
-0.1549 का विकास कैसे
-0.1549 कार जी पी
-0.1549 <s> पिस्ता बर्फी
-0.1549 <s> किसी भी
-0.1549 रोगियों के लिए
-0.1549 कर हैरान रह
-0.1549 और टेलीविज़न भी
-0.1549 दिल्ली बोर्ड के
-0.1549 <s> वरन इसी
-0.1549 वरन इसी के
-0.1549 <s> जैसे कि
-0.1549 इस्तेमाल की चीज़
-0.1549 चिपकने वाला तवा
-0.1549 और अधिक सस्ती
-0.1549 बिल बनाईये </s>
-0.1549 जी पी ऐस
-0.1549 <s> मुफ्त डिलीवरी
-0.1549 <s> क्या डिस्काउंट
-0.1549 ग्राइंडिंग मशीन </s>
-0.1549 फैंसी वॉच </s>
-0.1549 काँच और सील
-0.1549 <s> हाउ टू
-0.1549 की शक्ति आ
-0.1549 ज्यादा सस्ती </s>
-0.1549 को इस्त्री बिजली
-0.1549 <s> ग्रीष्म ऋतू
-0.1549 <s> खरबूजे के
-0.1549 <s> रश्मिरथी </s>
-0.1549 के ऑफर </s>
-0.1549 दूल्हे के कपड़े
-0.1549 स्पार्क जे थ्री
-0.1549 वरदान है </s>
-0.1549 किया करते थे
-0.1549 इडली बनाने के
-0.1549 वर्ष पूर्व एक
-0.1549 कर एम्बर पर
-0.1549 और ट्राम तथा
-0.1549 उत्पादन कठिन होने
-0.1549 रेडियो और टेलीविज़न
-0.4559 <s> हनुमान शनि
-0.1549 मधुमेह के रोगियों
-0.1549 विविध पदार्थों के
-0.1549 अपने प्रयोगों आदि
-1.5528 के लिए बिजली
-0.1549 भर के लिए
-0.1549 <s> मोटापा घटाने
-0.1549 <s> लिक प्रूफ़
-0.1549 <s> लो प्राइस
-0.1549 मिल्टन लंच बॉक्स
-0.1549 में भी </s>
-0.1549 और सुखमय बन
-0.1549 कॉस्ट बताइए </s>
-0.1549 तीस मोबाइल </s>
-0.1549 विचित्र लक्षण आ
-0.1549 किराए की गाड़ियाँ
-0.1549 नहीं और आगे
-0.1549 के पर वगैरह
-0.1549 कैनन कैमरा लैंस
-0.4559 <s> डायनामो या
-0.1549 हल्की वस्तु को
-0.4559 <s> निर्मला </s>
-0.1549 आगे इससे कोई
-0.1549 <s> शरबत और
-0.4559 की जानकारी नहीं
-0.1549 <s> कसरत के
-0.1549 के इतने अधिक
-0.1549 में इससे न
-0.1549 के अविष्कार को
-0.1549 कि जब बिजली
-0.1549 काम चलाना पड़ता
-0.1549 श्री कुर्ते </s>
-0.1549 के बाद ही
-0.1549 <s> चॉपर </s>
-0.1549 रीबोक के जूते
-0.1549 टू विन फ्रेंड्स
-0.1549 लाभ हैं </s>
-0.1549 <s> माइक्रोवेव सेफ
-0.1549 करने का काँटा
-1.0000 <s> और कम
-0.1549 और फर के
-0.1549 उठा लेता था
-0.4559 रगड़ने पर एम्बर
-0.1549 के कूलर कपड़े
-0.1549 सौ तीस मोबाइल
-0.1549 सिर्फ वैज्ञानिक लोग
-0.1549 रह जाते हैं
-0.4559 दुल्हन का सामान
-0.1549 <s> स्लिपर </s>
-0.1549 कूलर कपड़े धोने
-1.5528 के लिए यन्त्र
-0.1549 अध्ययन कर रहा
-0.1549 द्वारा हमारे दैनिक
-0.4559 <s> लहंगा फैंसी
-0.1549 लगाया था </s>
-0.1549 बड़े प्रयोग किये
-0.1549 पर वगैरह </s>
-0.1549 गंधक काँच और
-0.1549 सुरक्षित तिजोरी </s>
-1.0580 बिजली के कूलर
-0.1549 देश के लिए
-0.1549 <s> फिलिप्स </s>
-0.1549 <s> भजन संध्या
-0.1549 के साधन </s>
-0.1549 का मनोरंजन तो
-0.1549 साथ महंगा भी
-0.1549 प्रयोगों आदि भर
-0.1549 और बताइये </s>
-0.1549 दो सौ तीस
-0.1549 पचास वर्ष पहले
-0.1549 की खासीयत </s>
-0.1549 म्यूजिक सिस्टम </s>
-0.1549 भी देश के
-1.0580 बिजली के इतने
-0.1549 के रोगियों के
-0.1549 ट्रेन और ट्राम
-0.1549 खोज से लोगों
-0.1549 की लाख में
-0.1549 सीखने के लिए
-0.1549 <s> बजेट मोबाइल
-0.1549 कतरनें पक्षियों के
-0.1549 <s> दुल्हन का
-0.1549 <s> आदमियों के
-0.1549 <s> रेबन </s>
-0.1549 की कतरनें पक्षियों
-0.4559 बिजली का अध्ययन
-0.1549 जाते हैं </s>
-0.4559 वज़न करने का
-1.0580 <s> बिजली को
-0.1549 उस्तरे आदि से
-0.1549 डिस्क वन टी
-0.1549 जाती हैं </s>
-0.1549 याददाश्त कैसे बढ़ाएं
-0.4559 <s> इससे महँगी
-1.0580 बिजली के उस्तरे
-0.1549 को कपड़े के
-0.1549 <s> बूटेदार लहंगा
-0.1549 माइक्रोमैक्स स्पार्क जे
-0.1549 की कामायनी </s>
-1.0580 बिजली के बिना
-0.1549 <s> टेलीग्राफ टेलीफोन
-0.1549 और गर्मी ही
-0.1549 पता लगाया था
-0.4559 नहीं थी तब
-0.1549 ने पता लगाया
-0.1549 <s> मल्टीमीडिया सीखने
-1.0580 बिजली के टोस्टर
-0.1549 इससे न केवल
-0.1549 <s> वाशिंग मशीन
-0.4559 <s> प्रेमचंद </s>
-0.1549 सोच कर हैरान
-0.1549 सूती कमीज़ </s>
-0.1549 <s> दुर्गा सप्तशती
-0.1549 <s> थोड़ी मात्रा
-0.4559 <s> आय फ़ोन
-0.1549 <s> तंदूर </s>
-1.5528 के लिए चाक़ू
-0.1549 गोदान प्रेमचंद </s>
-1.0000 <s> और बताइये
-0.6320 के साथ रगड़ने
-0.1549 के अलावा कुछ
-0.4559 <s> पैनासोनिक टी
-0.4559 कागज़ के टुकड़ों
-0.1549 <s> काजू </s>
-0.1549 <s> सुबह का
-0.1549 तब हमारा काम
-0.1549 खरबूजे के बीज
-0.1549 समय तक आगे
-0.1549 कि रेशम को
-0.1549 कीमत क्या है
-0.1549 चटनी बनाने के
-0.1549 हनुमान चालीसा </s>
-0.1549 <s> कॉटन सिल्क
-0.1549 सस्ती बताइए </s>
-0.6320 <s> पीछे </s>
-0.1549 भी चलती हैं
-0.1549 हज़ार रुपये तक
-0.1549 भी बिजली से
-0.1549 ब्लड प्रेशर मॉनिटर
-0.1549 तक आगे इससे
-0.1549 इसकी कीमत क्या
-0.1549 एम्बर में एक
-0.1549 <s> लेमन टेबलेट
-0.1549 रस बनाने के
-0.6990 <s> और ज्यादा
-0.1549 के द्वारा हमारे
-0.1549 कोई ठोस नतीजा
-0.1549 चिपके रहते </s>
-0.1549 कथा साहित्य </s>
-0.4559 <s> उसने देखा
-0.1549 कैसे चलता था
-1.0580 बिजली के चूल्हे
-0.6320 <s> सूती कमीज़
-0.1549 बन गया है
-0.1549 पड़ता था </s>
-0.1549 प्रसाद की कामायनी
-0.1549 <s> कागज़ के
-0.1549 उससे चिपके रहते
-0.1549 ओमरौन वज़न करने
-1.0000 <s> और अधिक
-0.1549 आगे बढ़िये </s>
-0.1549 गणेश अथर्वशीर्ष </s>
-0.1549 एम्बर के अलावा
-0.1549 पक्षियों के पर
-0.1549 <s> सिर्फ एक
-0.1549 कर रहा था
-0.1549 हार्ड डिस्क वन
-0.1549 वन टी बी
-0.1549 <s> चर्बी कम
-0.1549 फ़ास्ट ट्रैक </s>
-0.1549 <s> बिल बनाईये
-0.4559 में एक विचित्र
-0.1549 सोलह सौ में
-0.1549 ज्योतिष परामर्श </s>
-0.1549 यों ही अपने
-1.5528 के लिए वस्तुएं
-0.1549 खींचने की शक्ति
-0.1549 थिंक एंड ग्रो
-0.1549 <s> किचन कैबिनेट
-0.1549 से छह सौ
-0.1549 <s> दिल्ली बोर्ड
-0.1549 सिक्सटी फाइव बैटरी
-0.1549 <s> शीतल फैशन
-0.1549 और अन्य शीतल
-0.1549 के उपकरण </s>
-0.1549 बिजली को इस्त्री
-0.1549 मोबाइल नौ हज़ार
-0.1549 तथा फैक्ट्रियों में
-0.6320 <s> रीबोक शूज
-0.1549 उसने देखा कि
-0.1549 किसी भी देश
-0.1549 <s> दुग्ध पदार्थ
-0.1549 धोने की मशीन
-0.1549 <s> घरों में
-0.1549 <s> जन्मदिन का
-0.4559 बिजली का उत्पादन
-0.1549 पर पहुँच जाते
-0.4559 <s> आई पैड
-0.1549 <s> निराला </s>
-0.1549 वॉटर बॉटल </s>
-0.1549 और आगे </s>
-0.1549 इसलिए नहीं कि
-0.1549 <s> कैंची </s>
-0.4559 <s> प्रसाद की
-0.1549 उछल कर एम्बर
-0.1549 अन्य पदार्थों में
-0.1549 ज़ोलो फ़ोन </s>
-0.1549 तो पहले से
-0.1549 के टुकड़े कपड़े
-0.1549 में मशीनें चलायी
-0.1549 बहुत पहले से
-0.1549 <s> यंत्र सामग्री
-0.1549 रेशम फलालैन और
-0.1549 का फर्नीचर </s>
-0.1549 <s> इस खोज
-0.4559 वज़न करने की
-1.5528 के लिए गाइड
-0.1549 <s> सोलह सौ
-0.1549 लो प्राइस </s>
-0.1549 सील लगाने की
-0.1549 कैमरा लैंस </s>
-0.1549 <s> सैंडल </s>
-0.1549 लिए पुस्तकें </s>
-0.4559 दुल्हन का श्रृंगार
-0.4559 <s> आय बी
-0.1549 लहंगा फैंसी </s>
-0.1549 बढ़ाने के लिए
-0.1549 <s> प्रतिस्पर्धात्मक परीक्षाओं
-0.1549 उंचाई बढ़ाने के
-0.1549 पांच सौ रुपये
-0.1549 वर्ष से कम
-0.1549 बिजली से ही
-0.4559 कागज़ के टुकड़े
-0.6320 <s> कि जब
-0.1549 बिजली नहीं थी
-0.1549 सब्जी काटने के
-0.1549 लिए जूते </s>
-0.1549 मॉडल के चश्मे
-0.4559 <s> प्रेमचंद का
-0.1549 <s> मेटल बॉक्स
-0.1549 ग्रीष्म ऋतू </s>
-0.1549 <s> किशमिश </s>
-0.1549 विन फ्रेंड्स </s>
-0.1549 <s> इसलिए नहीं
-0.4559 <s> प्रोटीन बिस्कुट्स
-0.1549 रत्न परामर्श </s>
-0.1549 छह सौ वर्ष
-0.1549 साधारण आदमी के
-0.1549 सिलाई मशीन </s>
-0.1549 आय फ़ोन </s>
-0.1549 लिए मोज़े </s>
-0.1549 वह पास लायी
-0.1549 छोटे कागज़ के
-0.1549 के बिना ही
-0.1549 ही ट्रेन और
-0.1549 रुपये तक </s>
-0.1549 बिजली साधारण आदमी
-0.1549 विकास कैसे करें
-0.1549 <s> वाटर प्रूफ
-0.1549 अलावा कुछ अन्य
-0.1549 लोगों का मनोरंजन
-0.1549 ट्राम तथा फैक्ट्रियों
-0.1549 इसलिए कि तब
-0.1549 पारिवारिक पोषण </s>
-0.1549 छत के लैंप
-0.1549 काम कैसे चलता
-0.1549 प्रतिस्पर्धात्मक परीक्षाओं के
-0.6320 <s> सूती कपड़े
-0.1549 नहीं कि तब
-0.1549 लिए बिजली का
-0.1549 दौड़ने के लिए
-0.1549 गया है </s>
-0.1549 चीजें भी चलती
-0.4559 <s> निर्मला प्रेमचंद
-0.1549 न केवल रोशनी
-0.1549 लिए किया करते
-0.1549 स्पेशल ऑफर </s>
-0.4559 कि तब लोगों
-0.1549 के टुकड़ों को
-0.3310 की मशीन </s>
-0.1549 के उस्तरे आदि
-0.1549 <s> स्क्रीन गार्ड्स
-0.1549 साथ साथ महंगा
-0.1549 <s> उछल कर
-0.1549 सस्ती और भरपूर
-0.1549 शर्करा नापने के
-0.1549 लेकर हज़ार रुपये
-0.1549 <s> उंचाई बढ़ाने
-0.1549 हज़ार तक </s>
-0.1549 वैज्ञानिक लोग </s>
-0.1549 को बहुत समय
-0.1549 सौ रुपये से
-0.9331 के साथ साथ
-0.1549 मात्रा में बस
-0.1549 सेल्फी स्टिक </s>
-0.1549 एम्बर पर पहुँच
-0.1549 भजन संध्या </s>
-0.1549 गोल्ड रिंग </s>
-0.1549 क्या है </s>
-0.4559 बहुत समय तक
-0.1549 होने के साथ
-0.1549 उत्पादन सिर्फ वैज्ञानिक
-0.1549 लिए वस्तुएं </s>
-0.1549 ही प्राप्त होती
-0.1549 <s> इंटेल </s>
-0.1549 लिए किताबें </s>
-0.1549 घटाने के लिए
-0.1549 शारीरिक देखभाल के
-0.1549 <s> बुढ़ापा रोकने
-0.1549 <s> डोसा तवा
-0.9331 के साथ बड़े
-1.5528 के लिए डीवीडी
-0.1549 रहा होगा </s>
-0.1549 स्क्रीन गार्ड्स </s>
-0.1549 <s> बाटा के
-0.1549 के जूते </s>
-0.1549 प्रेशर मॉनिटर </s>
-0.4559 <s> वज़न बढ़ाने
-0.1549 एक व्यक्ति विलियम
-0.1549 <s> मोटरगाड़ी </s>
-0.1549 <s> नहीं और
-0.1549 <s> स्कूली बच्चों
-0.4559 <s> इससे सस्ती
-0.1549 सूती कपड़े </s>
-0.1549 <s> कैनन कैमरा
-0.3310 बिजली की जानकारी
-0.1549 मेटल बॉक्स </s>
-0.1549 जीवन आसान और
-0.1549 आविष्कार के बाद
-0.1549 काला जूता </s>
-0.1549 कपड़े की कतरनें
-0.1549 नोकिया दो सौ
-0.1549 डीवीडी प्लेयर </s>
-0.1549 रक्षा यंत्र </s>
-0.1549 <s> ओमरौन वज़न
-0.1549 बनाने के लिए
-0.1549 बस अपने प्रयोगों
-0.1549 यूनानी दार्शनिक ने
-0.1549 आदि भर के
-0.1549 दैनिक उपयोग की
-0.1549 शक्ति आ जाती
-0.1549 <s> चलते पुर्जे
-0.4559 बच्चों का फर्नीचर
-0.1549 <s> बॉलपेन </s>
-0.1549 दस वर्ष से
-0.1549 <s> लखानी </s>
-0.1549 <s> तवा और
-0.1549 ही थी बहुत
-0.1549 लिए गाइड </s>
-0.1549 <s> रस बनाने
-0.1549 कम उम्र के
-0.1549 <s> लम्बे व्यक्तियों
-0.1549 करते थे </s>
-0.1549 करने की मशीन
-0.1549 <s> घागरा </s>
-0.1549 <s> नया आगमन
-0.1549 मुफ्त डिलीवरी </s>
-0.1549 <s> गोल्डन स्टील
-0.4559 से कम उम्र
-0.1549 नौ हज़ार तक
-0.1549 <s> अनारकली </s>
-0.1549 लिए एक बड़ा
-0.1549 कैसे बढ़ाएं </s>
-0.1549 <s> दौड़ने के
-0.1549 <s> किराए की
-0.1549 नए मॉडल के
-0.1549 जे थ्री </s>
-0.1549 एल ई डी
-0.1549 प्रयोग किये </s>
-0.1549 चेकआउट करिए </s>
-0.1549 <s> ज़ोलो फ़ोन
-0.1549 नहीं निकला </s>
-0.1549 चर्बी कम करने
-0.1549 आयबॉल गैजेट्स </s>
-0.4559 बाटा के ऑफर
-0.1549 <s> ऐम पी
-0.4559 और ज्यादा महँगी
-0.1549 टी वी </s>
-0.1549 के स्पेशल ऑफर
-0.1549 कुछ अन्य पदार्थों
-0.1549 <s> छत के
-0.4559 को बिजली के
-0.1549 अधिक सस्ती </s>
-0.1549 और कढ़ाई </s>
-0.1549 <s> सोलर लाइट्स
-0.1549 का बैड </s>
-0.1549 क्या डिस्काउंट मिलेगा
-0.4559 <s> लहंगा </s>
-0.1549 मल्टीमीडिया सीखने के
-0.1549 डी बल्ब </s>
-0.4559 <s> इसकी कीमत
-0.1549 <s> मुनक्का </s>
-0.1549 ए सिक्सटी फाइव
-0.1549 जैसे कि गंधक
-0.1549 और बिजली के
-0.1549 <s> शारीरिक देखभाल
-0.1549 <s> अंक गणित
-0.1549 <s> जीवन बीमा
-0.1549 काटने के लिए
-0.1549 और सील लगाने
-0.1549 का श्रृंगार </s>
-0.1549 <s> ट्यूबलैस टायर
-0.1549 <s> फ़ास्ट ट्रैक
-0.1549 <s> फ़ूड प्रोसेसर
-0.1549 कार म्यूजिक सिस्टम
-0.1549 ईसा से छह
-0.4559 <s> उसने विविध
-0.1549 के चश्मे </s>
-0.1549 आदमी के इस्तेमाल
-0.1549 बूटेदार लहंगा </s>
-0.1549 चूल्हे बिजली की
-0.1549 अंक गणित के
-0.1549 से लेकर हज़ार
-0.1549 सिल्क ड्रैस मटीरियल
-0.1549 ऐस नैवीगेशन उपकरण
-0.1549 सोलर लाइट्स </s>
-0.1549 <s> नए मॉडल
-0.1549 केवल रोशनी और
-0.1549 तब लोगों को
-0.1549 <s> जी पी
-0.1549 <s> दस वर्ष
-0.1549 अति सुरक्षित तिजोरी
-0.1549 <s> गणेश अथर्वशीर्ष
-0.4559 बहुत समय नहीं
-0.1549 स्टील वॉच </s>
-0.4559 <s> वज़न करने
-0.1549 <s> डीलिंक राऊटर्स
-0.4559 <s> माइक्रोमैक्स स्पार्क
-0.1549 इस खोज से
-0.1549 वॉटर प्रूफ़ </s>
-0.1549 टी बी </s>
-0.1549 और कम </s>
-0.1549 इसका उत्पादन सिर्फ
-0.1549 <s> पर्दे </s>
-0.1549 रहा था </s>
-0.1549 को उठा लेता
-0.6320 के साथ </s>
-0.1549 प्रोटीन शेक </s>
-0.1549 का सामान </s>
-0.1549 पूजा सामग्री </s>
-0.1549 टुकड़े कपड़े की
-1.5528 के लिए मशीन
-0.1549 <s> बादाम </s>
-0.1549 <s> विदेश शिक्षा
-0.1549 <s> रेशम फलालैन
-0.1549 ड्रैस मटीरियल </s>
-0.1549 नहीं हुआ </s>
-0.1549 शरबत और अन्य
-0.1549 ऐम पी थ्री
-0.6320 से ही ट्रेन
-0.1549 उपयोग की अनेक
-0.1549 <s> चेकआउट करिए
-0.1549 <s> श्री कुर्ते
-0.1549 माइक्रोमैक्स ए सिक्सटी
-0.4559 बच्चों का बैड
-0.4559 <s> प्रोटीन शेक
-0.1549 भी था </s>
-0.1549 थैले के साथ
-0.1549 लिए यन्त्र </s>
-0.1549 पहले लोगों को
-0.1549 पदार्थों में भी
-0.1549 एक विचित्र लक्षण
-0.1549 सौ में एक
-0.4559 में एक व्यक्ति
-0.1549 <s> बैग के
-0.1549 इसी के द्वारा
-0.1549 लेता था </s>
-0.1549 की गाड़ियाँ </s>
-0.1549 की चीज़ बन
-0.1549 गणित के लिए
-0.1549 <s> एल ई
-0.1549 वस्तु को उठा
-0.1549 व्यक्तियों के लिए
-0.1549 <s> वह पास
-0.1549 में बस अपने
-0.1549 लायी गयी हर
-0.1549 लिए उपकरण </s>
-0.1549 पी थ्री प्लेयर
-0.1549 और इन्श्यूरैंस </s>
-0.1549 वज़न बढ़ाने के
-0.6320 बिजली की घंटी
-0.1549 <s> औज़ार </s>
-0.4559 <s> पैनासोनिक डीवीडी
-0.1549 <s> सस्ती और
-0.6320 <s> रीबोक के
-0.1549 फ़ूड प्रोसेसर </s>
-0.1549 <s> रक्त शर्करा
-0.1549 चलती हैं </s>
-0.1549 जीवन बीमा </s>
-0.1549 <s> चनिया चोली
-0.1549 और भरपूर विद्युत
-0.1549 <s> सलवार सूट
-0.1549 टोस्टर बिजली के
-0.1549 कि गंधक काँच
-0.1549 कपड़े धोने की
-0.4559 कि तब तक
-1.0580 <s> बिजली से
-0.1549 डोसा तवा </s>
-0.1549 जानकारी नहीं थी
-0.1549 अन्य शीतल पेय
-0.1549 लगाने की लाख
-0.4559 <s> आई फ़ोन
-0.1549 बाद ही </s>
-0.4559 <s> डायनामो </s>
-0.1549 वर्ष पहले लोगों
-0.1549 मशीनें चलायी जाती
-0.1549 जाती है </s>
-0.1549 का उत्पादन कठिन
-0.1549 तक बिजली का
-0.1549 फाइव बैटरी </s>
-0.1549 <s> एक्यूप्रैशर का
-0.1549 से ज्यादा </s>
-0.1549 <s> पेनड्राइव </s>
-0.1549 आदमियों के लिए
-0.1549 निर्मला प्रेमचंद </s>
-0.1549 <s> घोड़ा </s>
-0.1549 कि हम सोच
-0.1549 बच्चों के लिए
-0.1549 काले करने के
-0.1549 विद्युत जेनरेटर के
-0.1549 वाशिंग मशीन </s>
-0.1549 सौ पचास वर्ष
-0.6320 <s> रीबोक </s>
-0.1549 पर नकद भुगतान
-0.1549 तब इसका उत्पादन
-0.1549 लंच बॉक्स </s>
-0.1549 उसने विविध पदार्थों
-0.4559 <s> वॉटर प्रूफ़
-0.1549 थी तब हमारा
-0.1549 व्यक्ति विलियम गिलबर्ट
-0.1549 का अध्ययन कर
-0.1549 <s> इडली बनाने
-0.1549 नया आगमन </s>
-1.0000 <s> और आगे
-0.1549 <s> सब्जी काटने
-0.1549 फर के साथ
-0.1549 थी बहुत पहले
-0.1549 गोल्डन स्टील वॉच
-0.1549 रेशम को कपड़े
-0.1549 <s> ज्यादा से
-0.1549 पिस्ता बर्फी </s>
-0.1549 सलवार सूट </s>
-0.1549 किचन कैबिनेट </s>
-0.1549 अधिक लाभ हैं
-0.1549 हमारा जीवन आसान
-0.1549 नतीजा नहीं निकला
-0.1549 पैनासोनिक टी वी
-0.1549 को खींचने की
-0.1549 <s> थैले के
-0.1549 <s> तब इसका
-0.1549 हर हल्की वस्तु
-0.1549 आई पैड </s>
-0.1549 <s> थर्मामीटर </s>
-0.1549 पूर्व एक यूनानी
-0.1549 और उससे चिपके
-0.1549 इससे सस्ती बताइए
-0.6320 <s> पीछे जाइए
-0.1549 बैग के साथ
-0.1549 इससे कोई ठोस
-0.1549 सूती साड़ियाँ </s>
-0.1549 चॉकलेट सॉस </s>
-0.4559 पी ऐस </s>
-0.1549 <s> यों ही
-0.1549 थोड़ी मात्रा में
-0.1549 लिए चाक़ू </s>
-0.4559 <s> कार म्यूजिक
-0.1549 शीतल पेय </s>
-0.6320 से ही थी
-0.1549 प्रोटीन बिस्कुट्स </s>
-0.1549 प्राप्त होती है
-0.1549 हाउ टू विन
-0.1549 पास लायी गयी
-0.1549 आ जाता था
-0.1549 यंत्र सामग्री </s>
-0.1549 डिस्काउंट मिलेगा </s>
-0.1549 जाता था </s>
-0.1549 के चूल्हे बिजली
-1.5528 के लिए जूते
-0.1549 हमारे दैनिक उपयोग
-0.1549 हनुमान शनि रक्षा
-0.4559 <s> हनुमान चालीसा
-0.4559 की जानकारी तो
-0.1549 का काँटा </s>
-0.1549 वाटर प्रूफ घड़ी
-0.1549 ज्यादा से कम
-0.1549 <s> आयबॉल गैजेट्स
-0.1549 <s> वॉलेट </s>
-0.1549 <s> कटलरी </s>
-0.1549 रुपये से लेकर
-0.1549 लक्षण आ जाता
-0.1549 होता रहा होगा
-0.1549 छोटे छोटे कागज़
-0.4559 से कम </s>
-0.1549 जेनरेटर के आविष्कार
-0.1549 कसरत के साधन
-0.1549 <s> ब्लड प्रेशर
-0.1549 अविष्कार को बहुत
-0.1549 लेनोवो मोबाइल्स </s>
-0.1549 प्रूफ घड़ी </s>
-0.1549 ठोस नतीजा नहीं
-0.1549 जब बिजली नहीं
-0.1549 <s> लेनोवो मोबाइल्स
-0.1549 ई डी बल्ब
-0.1549 जाते और उससे
-0.1549 उम्र के लिए
-0.1549 जानकारी तो पहले
-0.1549 माइक्रोवेव सेफ </s>
-0.1549 <s> मिल्टन लंच
-0.1549 टुकड़ों को खींचने
-0.4559 <s> वॉटर बॉटल
-0.4559 पहले से </s>
-0.1549 पीछे जाइए </s>
-0.1549 <s> स्मरण शक्ति
-0.1549 नैवीगेशन उपकरण </s>
-0.1549 के कपड़े </s>
-0.1549 कपड़े के साथ
-1.0580 बिजली के उपकरण
-0.1549 <s> इंटेक्स </s>
-0.1549 कम से ज्यादा
-0.6320 <s> कि हम
-0.1549 महंगा भी था
-1.0580 <s> बिजली की
-0.1549 लेमन टेबलेट </s>
-0.1549 चनिया चोली </s>
-0.1549 चलते हैं </s>
-1.5528 के लिए किताबें
-0.1549 टेलीविज़न भी बिजली
-0.1549 आय बी एम
-0.1549 <s> पांच सौ
-0.1549 भरपूर विद्युत शक्ति
-0.1549 शनि रक्षा यंत्र
-0.1549 लिए डीवीडी </s>
-0.1549 के लैंप </s>
-0.1549 शक्ति का विकास
-0.1549 फलालैन और फर
-0.1549 स्कूली बच्चों के
-0.1549 इससे महँगी </s>
-0.1549 चीज़ बन सकी
-0.1549 <s> कम से
-0.1549 इस्त्री बिजली के
-0.1549 <s> बल्कि इसलिए
-1.0580 <s> बिजली साधारण
-1.5528 के लिए एक
-0.1549 ग्रो रिच </s>
-0.6320 की मशीन और
-0.1549 बन सकी </s>
-1.5528 के लिए किया
-0.1549 चलते पुर्जे </s>
-0.1549 विद्युत शक्ति </s>
-0.1549 एक बड़ा वरदान
-0.4559 को बिजली की
-0.6320 <s> कि रेशम
-0.1549 <s> आगे बढ़िये
-0.1549 आज की खासीयत
-0.1549 बुढ़ापा रोकने के
-0.1549 <s> वॉरंटी और
-0.1549 <s> याददाश्त कैसे
-0.1549 ही काम चलाना
-0.1549 हम सोच कर
-0.1549 व्यापारिक वाहन </s>
-0.1549 <s> बिस्कुट </s>
-0.1549 <s> दूल्हे के
-0.1549 के टोस्टर बिजली
-0.1549 दुर्गा सप्तशती </s>
-0.1549 घरों में इससे
-0.1549 विदेश शिक्षा </s>
-0.1549 और पीछे </s>
-0.1549 पैनासोनिक डीवीडी प्लेयर
-0.1549 मनबहलाव के लिए
-0.1549 आई फ़ोन </s>
-1.5528 के लिए पुस्तकें
-0.4559 नहीं थी </s>
-0.1549 लोगों को बिजली
-0.1549 हमारा काम कैसे
-0.1549 करने के लिए
-0.1549 ही चलते हैं
-0.1549 चलाना पड़ता था
-0.6320 से ही चलते
-0.1549 <s> पूजा सामग्री
-0.1549 रक्त शर्करा नापने
-0.1549 कपड़े धोने की
-0.1549 <s> छोटे छोटे
-0.1549 <s> ग्राइंडिंग मशीन
-0.4559 <s> गोदान </s>
-0.1549 प्राप्ति पर नकद
-0.1549 <s> ज्योतिष परामर्श
-0.1549 <s> वायरलेस रिपीटर
-0.1549 सुखमय बन गया
-0.1549 <s> सिलाई मशीन
-0.1549 कम करने के
-0.1549 बोर्ड के लिए
-0.1549 कैसे करें </s>
-0.1549 <s> गोल्ड रिंग
-0.1549 बी एम </s>
-0.1549 चलता था </s>
-0.4559 पहले से ही
-0.1549 <s> लेकिन बहुत
-0.1549 एंड ग्रो रिच
-0.1549 डायनामो या विद्युत
-0.6320 <s> पीछे पीछे
-0.1549 लेकिन बहुत समय
-0.1549 वाला तवा </s>
-0.1549 <s> काला जूता
-0.1549 या विद्युत जेनरेटर
-0.1549 से लोगों का
-0.1549 लम्बे व्यक्तियों के
-0.1549 <s> बाल काले
-0.4559 <s> माइक्रोमैक्स ए
-0.1549 सूखे मेवा </s>
-0.1549 टेलीग्राफ टेलीफोन रेडियो
-0.1549 देखा कि एम्बर
-0.1549 टेलीफोन रेडियो और
-0.4559 <s> गोदान प्रेमचंद
-1.0580 बिजली के अविष्कार
-0.1549 <s> रात्रि भोजन
-0.1549 एक्यूप्रैशर का सामान
-0.1549 लिए मशीन </s>
-0.1549 <s> अति सुरक्षित
-0.1549 <s> ज़ेरॉक्स </s>
-0.1549 नापने के लिए
-0.1549 मशीन और बिजली
-0.1549 अनेक चीजें भी
-0.1549 पर एम्बर में
-0.1549 <s> हमारा जीवन
-0.4559 <s> कार जी
-0.4559 और ज्यादा सस्ती
-0.1549 आदि से </s>
-0.1549 विलियम गिलबर्ट </s>
-0.1549 <s> थिंक एंड
-0.1549 <s> नोकिया दो
-0.1549 का कफ़न </s>
-0.1549 <s> ईसा से
-0.1549 एक सौ पचास
-0.1549 शीतल फैशन </s>
-0.1549 एक यूनानी दार्शनिक
-0.1549 सिर्फ एक सौ
-0.1549 चलायी जाती हैं
-0.1549 बिना ही काम
-0.1549 गयी हर हल्की
-0.1549 मनोरंजन तो होता
-1.5528 के लिए मोज़े
-0.1549 का नाश्ता </s>
-0.1549 बाल काले करने
-0.1549 अपने मनबहलाव के
-0.1549 दार्शनिक ने पता
-0.1549 साथ बड़े प्रयोग
-0.1549 रात्रि भोजन </s>
-0.1549 पहुँच जाते और
-0.1549 <s> चटनी बनाने
-0.1549 इतने अधिक लाभ
-1.0000 <s> और पीछे
-0.1549 समय नहीं हुआ
-0.1549 स्मरण शक्ति का
-0.1549 <s> ना चिपकने
-0.1549 कि एम्बर के
-0.1549 देखभाल के लिए
-0.1549 फैक्ट्रियों में मशीनें
-0.1549 <s> चॉकलेट सॉस
-0.1549 बल्कि इसलिए कि
-0.1549 ना चिपकने वाला
-0.1549 पदार्थों के साथ
-0.1549 का उपहार </s>
-0.1549 थ्री प्लेयर </s>
-0.1549 आसान और सुखमय
-0.1549 की घंटी </s>
-0.1549 रोकने के लिए
-0.1549 सौ वर्ष पूर्व
-0.1549 आ जाती है
-0.1549 <s> मधुमेह के
-0.1549 <s> व्यापारिक वाहन
-0.1549 बड़ा वरदान है
-0.1549 तवा और कढ़ाई
-0.1549 <s> सेल्फी स्टिक
-0.1549 वायरलेस रिपीटर </s>
-0.1549 <s> सूखे मेवा
-0.1549 <s> कपड़े धोने
-0.5114 के लिए </s>
-0.1549 <s> आज की
-0.1549 रीबोक शूज </s>
-0.4559 <s> प्रसाद </s>
-0.1549 ज्यादा महँगी </s>
-0.1549 <s> कथा साहित्य
-0.1549 मोटापा घटाने के
-0.1549 बजेट मोबाइल नौ
-0.1549 <s> पारिवारिक पोषण
-0.1549 इसकी कॉस्ट बताइए
-0.1549 गर्मी ही प्राप्त
-0.1549 के बीज </s>
-0.1549 प्रेमचंद का कफ़न
-0.1549 जन्मदिन का उपहार
-0.1549 <s> रत्न परामर्श
-0.1549 सुबह का नाश्ता
-0.4559 रगड़ने पर </s>
-0.1549 परीक्षाओं के लिए

\end\
