\data\
ngram 1=586
ngram 2=1005
ngram 3=827

\1-grams:
-3.0244 बढ़ाने -0.5119
-3.3255 रोज़मर्रा -0.5198
-2.8483 डीवीडी -0.4558
-3.3255 वायरलेस -0.5227
-2.4804 टी -0.5198
-3.0244 ब्ल्यूटूथ -0.5223
-3.3255 विंडोज़ -0.5227
-3.3255 चोली -0.4562
-3.0244 डोर -0.4562
-3.3255 बीमा -0.4562
-3.3255 फुटबॉल -0.4562
-3.3255 दवा -0.4562
-3.3255 साबुन -0.4562
-3.0244 दिवाली -0.5087
-3.3255 दो -0.5223
-3.3255 बंगाली -0.5225
-3.0244 हेयर -0.5225
-3.3255 मॉनिटर -0.4562
-3.3255 बिस्कुट्स -0.4562
-3.3255 छतरी -0.4562
-3.3255 रक्त -0.5227
-3.3255 रैकेट -0.4562
-3.3255 ट्रिमर्स -0.4562
-3.3255 चालीसा -0.4562
-3.3255 डिस्क -0.5225
-3.3255 छीलने -0.5119
-3.3255 केशकांति -0.5227
-3.0244 शू -0.5225
-3.3255 देखभाल -0.5119
-3.3255 मिटटी -0.5119
-3.3255 पारिवारिक -0.5227
-3.3255 मदरबोर्ड -0.4562
-3.0244 शीतल -0.5225
-3.0244 हार्ड -0.5225
-3.3255 मच्छरदानी -0.4562
-3.3255 सेफ -0.4562
-3.3255 इडली -0.5221
-3.0244 में -0.5221
-3.3255 फ़ूड -0.5227
-3.3255 ऑफर -0.4562
-3.3255 डिस्क्स -0.4562
-2.6265 से -0.5212
-2.7234 कम -0.4531
-2.8483 कॉटन -0.5219
-3.3255 एक्सप्रेस -0.4562
-3.3255 प्रोसेसर -0.4562
-3.3255 मोटरगाड़ी -0.4562
-3.3255 जलेबी -0.4562
-3.3255 चनिया -0.5227
-2.8483 तेल -0.4562
-3.3255 जे -0.5225
-3.3255 साइज़ -0.4562
-3.3255 चप्पलों -0.5119
-3.3255 बढ़िये -0.4562
-2.8483 तवा -0.4550
-3.0244 एच -0.5219
-3.3255 माइक्रोवेव -0.5227
-3.3255 भजन -0.5227
-3.0244 कैसे -0.5225
-3.3255 ड्युअल -0.5227
-3.3255 राकेश -0.5119
-3.3255 खेल -0.5227
-3.3255 लड़कों -0.5119
-3.0244 वॉटर -0.5223
-3.3255 ऐडवांस्ड -0.5227
-3.3255 हैडसैट -0.4562
-3.3255 डोसा -0.5223
-3.3255 नापने -0.5119
-3.3255 एस -0.5212
-3.3255 सुरक्षित -0.5227
-3.3255 टाइमैक्स -0.5225
-3.3255 कौन -0.5227
-3.3255 बनाइये -0.4562
-2.7234 कपड़े -0.4558
-3.3255 नैवीगेशन -0.5223
-3.3255 साज -0.5227
-3.3255 स्टैपलर -0.4562
-3.3255 खिलोने -0.4562
-3.3255 भुगतान -0.4562
-3.3255 कूलर -0.5227
-1.6012 के -0.4404
-3.3255 सौ -0.5223
-2.8483 ऐल -0.4558
-3.3255 लैपटॉप -0.5227
-3.3255 डिस्काउंट -0.5227
-3.3255 एक्यूप्रैशर -0.5190
-3.3255 हैदराबाद -0.5225
-3.3255 एट -0.5214
-3.3255 लैपटॉप्स -0.4562
-3.3255 शंकर -0.5227
-3.3255 अरिहंत -0.5227
-3.0244 कार -0.5212
-3.0244 लिनोवो -0.5119
-3.3255 ब्लाउज़ -0.4562
-3.3255 पाक -0.4562
-3.3255 वृत्तान्त -0.4562
-3.3255 सुगन्धित -0.5216
-3.0244 पांच -0.5223
-3.3255 औषधियाँ -0.4562
-3.3255 मधुमेह -0.5119
-3.3255 बढ़ाएं -0.4562
-3.3255 घटाने -0.5119
-3.3255 रियल -0.5225
-3.3255 आउट -0.5227
-3.3255 लिक -0.5225
-3.3255 पार्वती -0.5198
-3.3255 रोकने -0.5119
-3.3255 किराया -0.5227
-3.3255 लैम्प्स -0.4562
-2.8483 रुपये -0.4543
-3.3255 पिलो -0.5225
-3.3255 लौरियल -0.4562
-3.3255 बूटेदार -0.5227
-3.3255 ऐक्शन -0.5227
-2.8483 कुर्ता -0.4560
-3.3255 ना -0.5227
-3.3255 तनिष्क -0.5227
-2.6265 सैमसंग -0.5104
-3.3255 कितनी -0.5225
-3.3255 पुर्जे -0.4562
-3.3255 फ़िल्मों -0.5198
-3.3255 सोलार -0.5227
-3.3255 डिलीवरी -0.4562
-3.3255 झूमर -0.4562
-3.3255 पाउडर -0.4562
-3.3255 प्रसाधन -0.4562
-2.8483 बर्तन -0.4562
-3.3255 इनफोकस -0.5227
-2.4804 जी -0.5200
-3.3255 वॉशिंग -0.5227
-3.3255 हवा -0.5227
-3.3255 बरसाती -0.5221
-3.3255 वस्तुएं -0.4562
-3.3255 पिक्चरें -0.4562
-3.3255 फुल -0.5225
-3.3255 ड्रैस -0.5227
-3.3255 बच्चन -0.5198
-3.3255 रफ़ी -0.5119
-3.3255 सर्विसेज़ -0.4562
-3.3255 पॉवर -0.5227
-3.3255 जन्मदिन -0.5190
-3.3255 ट्वीटर्स -0.4562
-3.3255 सिक्सटीन -0.5214
-3.0244 लीटर -0.4434
-3.3255 कथा -0.5225
-3.0244 परामर्श -0.4562
-3.3255 बम्बई -0.5223
-3.3255 सुबह -0.5190
-3.3255 ऋतू -0.4562
-3.3255 टच -0.5225
-3.3255 गुलाब -0.5227
-3.0244 हज़ार -0.5216
-3.0244 कुकर -0.4562
-2.6265 ऐस -0.4529
-3.3255 कितना -0.5227
-3.0244 साथ -0.4562
-3.3255 बाकरवड़ी -0.4562
-3.3255 शनि -0.5227
-3.3255 बेडशीट्स -0.4562
-3.0244 स्टील -0.5114
-3.3255 क्रिकेट -0.5227
-3.3255 ब्रिफ -0.5227
-3.3255 रबर -0.4562
-3.3255 ऐक्सक्ल्यूज़िव -0.5227
-3.3255 कैमरा -0.4562
-3.0244 बच्चों -0.5119
-3.3255 चलते -0.5227
-2.8483 ड्राइव -0.4560
-3.3255 मोटरसाइकिल -0.4562
-3.3255 सलवार -0.5223
-3.3255 तंदूर -0.4562
-3.3255 काले -0.5216
-3.3255 पुणे -0.5227
-3.3255 तस्वीरें -0.4562
-3.0244 स्क्रीन -0.5219
-3.3255 प्रेमचंद -0.5119
-3.3255 नोटबुक्स -0.4562
-3.3255 विंटर -0.5227
-3.3255 मोटापा -0.5227
-3.3255 ब्लॉसम -0.4562
-3.3255 गहने -0.4562
-3.3255 मेवा -0.4562
-3.0244 मिठाई -0.4562
-3.3255 नया -0.5227
-3.3255 उंचाई -0.5225
-3.3255 बैट -0.4562
-3.3255 स्पार्क -0.5227
-3.3255 ओके -0.5227
-3.3255 ग्रीष्म -0.5227
-3.3255 रंगीन -0.5227
-3.3255 क्लोदिंग -0.4562
-3.3255 बिंगो -0.5227
-3.3255 बजेट -0.5221
-3.3255 शरबत -0.5219
-3.3255 बेंगलूरू -0.4562
-2.7234 बनाने -0.5087
-3.3255 साबरमती -0.5227
-3.3255 मैमोरी -0.5223
-3.3255 पावती -0.5225
-3.3255 बत्तीस -0.4562
-3.3255 मिल्टन -0.5227
-3.3255 करना -0.5225
-3.3255 गणेश -0.5227
-3.3255 बॉटल -0.4562
-3.3255 गणित -0.5119
-3.3255 सप्लाई -0.5227
-3.3255 इक्कीस -0.5227
-2.8483 यू -0.5216
-3.3255 चक्की -0.4562
-3.3255 अखबार -0.4562
-2.8483 उपकरण -0.4562
-2.8483 शर्ट्स -0.4562
-3.3255 ट्यूबलैस -0.5227
-3.3255 बिजली -0.5119
-3.3255 फेस -0.5227
-3.3255 माइक्रोमैक्स -0.5227
-3.3255 चाक़ू -0.4562
-3.3255 यन्त्र -0.4562
-3.3255 इंग्लैंड -0.5223
-3.3255 पीटर -0.5227
-3.3255 आगे -0.5227
-3.0244 ज्यादा -0.4550
-3.0244 बाल -0.5225
-3.3255 वॉचेस -0.4562
-3.3255 बल्ब -0.5227
-3.3255 शारीरिक -0.5227
-3.3255 गोल्डन -0.5225
-3.0244 प्रेशर -0.5223
-3.3255 गिलास -0.4562
-3.3255 काँटा -0.4562
-3.3255 प्रोटीन -0.5227
-3.3255 सैट -0.4562
-3.3255 कांजीवरम -0.5223
-3.3255 फ़ोन -0.4562
-3.0244 पैनासोनिक -0.5208
-3.3255 लिव -0.5225
-3.0244 डबल -0.5223
-3.0244 बादाम -0.5119
-3.3255 शादी -0.5119
-3.3255 पिस्ता -0.5225
-3.3255 पूजा -0.5225
-3.3255 घरेलू -0.5225
-3.3255 मकान -0.4562
-3.3255 स्पोर्ट्स -0.5225
-3.3255 पैन -0.5223
-3.3255 पॉलिश -0.4562
-3.3255 चार्जिंग -0.5227
-3.3255 आत्मकथा -0.4562
-3.3255 लाख -0.4562
-3.3255 चैरी -0.5227
-3.3255 दौड़ने -0.5119
-3.3255 बालों -0.5190
-3.3255 दुग्ध -0.5227
-3.3255 दुर्गा -0.5227
-3.3255 मुरब्बा -0.4562
-3.0244 आदमियों -0.5119
-3.3255 ट्राउज़र्स -0.4562
-3.3255 मोज़े -0.4562
-3.3255 एक -0.5227
-3.3255 सर्दियों -0.5119
-3.3255 गीत -0.4562
-3.3255 पटाखे -0.4562
-3.0244 इस्टेट -0.5223
-3.3255 फिलिप्स -0.5227
-3.3255 फॉर -0.5227
-3.3255 केस -0.4562
-3.3255 गार्ड्स -0.4562
-3.3255 ओमरौन -0.5223
-3.3255 डाटा -0.5223
-3.0244 यंत्र -0.4558
-3.3255 रैक -0.4562
-2.8483 पेन -0.5216
-3.3255 निरमा -0.5227
-3.3255 बुढ़ापा -0.5227
-3.3255 मटीरियल -0.4562
-3.3255 लॉजीटैक -0.5225
-3.3255 नकद -0.5227
-3.3255 आटा -0.5227
-3.3255 आम -0.5190
-3.3255 पायजामा -0.5219
-3.3255 ऑर्डर -0.5227
-3.3255 शैम्पू -0.4562
-3.3255 रेड -0.5227
-3.0244 कवर -0.4562
-2.8483 स्टैंड -0.4562
-3.0244 किराए -0.5158
-2.8483 वज़न -0.5212
-3.3255 आठ -0.4562
-3.3255 शेरवानी -0.4562
-3.3255 ज़ोलो -0.5227
-3.0244 लड्डू -0.4562
-3.3255 चॉपर -0.4562
-3.0244 पुस्तकें -0.4562
-2.8483 साड़ी -0.4562
-3.3255 बनेगा -0.5227
-0.8469 </s> -0.5229
-3.3255 दही -0.5227
-3.3255 सब्जी -0.5227
-3.3255 पोषण -0.4562
-3.3255 गैजेट्स -0.4562
-3.3255 बारह -0.5225
-3.0244 उपन्यास -0.4560
-3.3255 दस -0.5227
-2.8483 स्मार्टफ़ोन -0.4562
-3.3255 सूखे -0.5227
-3.3255 करोड़पति -0.4562
-3.3255 सत्य -0.5119
-3.3255 बैग -0.5119
-3.3255 इंची -0.5214
-3.3255 होल्डर -0.4562
-2.7234 मोबाइल -0.4558
-3.3255 ड्रायर -0.4562
-2.7234 जूते -0.4560
-3.3255 उपहार -0.4562
-3.3255 ओरियल -0.5227
-3.3255 श्रृंगार -0.4562
-3.0244 गैलैक्सी -0.5225
-3.3255 लम्बे -0.5227
-3.3255 गर्ल्स -0.4562
-3.3255 साल -0.4562
-3.3255 अथर्वशीर्ष -0.4562
-3.3255 कॉस्मेटिक्स -0.4562
-3.3255 बेबी -0.5225
-3.0244 जीन्स -0.4560
-2.6265 और -0.5216
-3.3255 गाइड -0.4562
-3.3255 व्हर्लपूल -0.5227
-3.3255 ट्वैल्व -0.5227
-3.3255 यात्रा -0.5227
-2.5473 करने -0.5046
-3.0244 साहित्य -0.4562
-3.3255 चिपकने -0.5227
-3.3255 वर्ष -0.5219
-3.3255 प्राप्ति -0.5227
-3.3255 डिज़ाइनर -0.5227
-3.3255 किचन -0.5227
-3.3255 पैस्ट्रीज़ -0.5227
-3.3255 मूंगफली -0.5190
-3.0244 थ्री -0.4558
-3.0244 शूज़ -0.4562
-3.3255 पल्सर -0.5227
-3.0244 करिए -0.4562
-3.3255 ट्वैंटी -0.5225
-3.3255 ट्रैवल -0.5225
-3.3255 जैतून -0.5190
-3.3255 आगमन -0.4562
-3.3255 बिलोने -0.5198
-3.0244 इन्श्यूरैंस -0.4562
-3.3255 दर्शन -0.4562
-3.3255 रैम -0.4562
-2.0467 का -0.5179
-3.3255 डाबर -0.5227
-3.3255 फ़्लिप -0.5225
-3.3255 ट्रैक -0.5227
-3.3255 आबो -0.5227
-3.0244 वॉच -0.4562
-3.3255 दूरी -0.5227
-3.3255 कोलगेट -0.5227
-3.3255 कांच -0.5119
-3.0244 बुक -0.4555
-3.3255 मच्छर -0.5227
-3.3255 एयरलाइन्स -0.4562
-3.3255 रस -0.5221
-3.3255 बाबा -0.4562
-3.3255 बनारसी -0.5223
-3.3255 प्रतिस्पर्धात्मक -0.5227
-3.3255 बोर्ड -0.5119
-3.3255 ऑइल -0.4562
-3.3255 चैकआउट -0.5225
-3.0244 बर्फी -0.4562
-3.3255 भगाने -0.5198
-3.3255 तिजोरी -0.4562
-3.3255 लड़की -0.5119
-3.0244 नोट -0.5223
-3.3255 राऊटर्स -0.4562
-3.3255 हॉकिन्स -0.5227
-3.3255 लैहेंगा -0.4562
-3.3255 लखानी -0.5225
-3.3255 आईएएस -0.5190
-3.3255 स्मरण -0.5227
-3.3255 पंद्रह -0.5227
-3.3255 बजाज -0.5227
-3.0244 किताबें -0.4562
-3.3255 खासीयत -0.4562
-3.0244 आज -0.5158
-3.3255 चीनी -0.5227
-3.3255 मसक्युटो -0.5227
-3.3255 चॉकलेट -0.5227
-3.3255 ब्लड -0.5225
-3.3255 करें -0.4562
-3.3255 ओलिव -0.5227
-3.0244 है -0.4562
-3.3255 सॉफ्टवेयर -0.4562
-3.3255 गाड़ियाँ -0.4562
-3.3255 वाहन -0.4562
-3.3255 लेडीज़ -0.5227
-3.3255 चर्बी -0.5221
-3.0244 केयर -0.4562
-3.3255 डिजिटल -0.5227
-3.3255 वाला -0.5223
-3.3255 जौर्जेट -0.5223
-2.8483 तक -0.4526
-3.3255 मैसूर -0.5227
-3.3255 लेकर -0.5225
-3.3255 सप्तशती -0.4562
-3.3255 स्टाइलिश -0.5227
-3.0244 बॉक्स -0.4562
-3.3255 शर्करा -0.5227
-3.3255 बीज -0.4562
-3.3255 वॉट -0.4562
-3.3255 प्रकाशन -0.5198
-3.3255 यूनिफॉर्म -0.4562
-3.3255 बिल -0.5227
-2.6265 डी -0.5200
-3.3255 लैक्मे -0.5227
-3.3255 शिक्षा -0.4562
-3.3255 ऑल -0.5227
-3.3255 इत्र -0.4562
-2.5473 मशीन -0.4562
-3.3255 दुल्हन -0.5190
-3.3255 अंक -0.5227
-3.3255 मोहन -0.5227
-3.0244 प्लेयर -0.4562
-2.8483 सामान -0.4562
-3.3255 आयुर्वेदिक -0.5227
-3.3255 अमिताभ -0.5227
-3.3255 पूना -0.5219
-3.3255 इंडियन -0.5227
-3.3255 मोहम्मद -0.5227
-3.0244 खाना -0.4560
-3.3255 मेकर -0.4562
-3.3255 ट्रीमर -0.4562
-3.3255 थर्टी -0.5223
-3.3255 अनारकली -0.4562
-3.3255 टेबल -0.5227
-3.0244 प्रूफ़ -0.4562
-3.3255 जाइए -0.4562
-3.3255 औज़ार -0.4562
-3.3255 पदार्थ -0.4562
-3.3255 भोजन -0.4562
-3.3255 डीलिंक -0.5227
-1.8941 लिए -0.4473
-3.3255 कंडीशनर -0.4562
-3.3255 रोटी -0.5221
-3.3255 रेफ्रीजिरेटर -0.4562
-3.3255 क्लोद्स -0.4562
-3.3255 अति -0.5227
-2.8483 कार्ड -0.4562
-3.3255 पर -0.5227
-3.3255 अन्य -0.5225
-3.0244 गोदरेज -0.5223
-3.3255 आयबॉल -0.5227
-3.3255 घर -0.5190
-3.3255 याददाश्त -0.5225
-3.3255 नौ -0.5225
-3.3255 अमेरिकन -0.5227
-3.3255 खरबूजे -0.5119
-3.3255 फिटिंग्स -0.4562
-3.3255 वृत्त -0.4562
-3.3255 थैले -0.5119
-3.0244 फर्नीचर -0.4562
-3.3255 एक्सटेंडेड -0.5225
-3.0244 जीवन -0.5225
-3.3255 स्क्रब्स -0.4562
-3.3255 रैडी -0.5223
-3.3255 सोलह -0.5214
-3.3255 होटल -0.5190
-3.3255 रात्रि -0.5227
-3.3255 मसाले -0.4562
-0.8469 <s> -0.4473
-3.3255 केबल -0.4562
-3.3255 सॉस -0.4562
-3.3255 गरम -0.5227
-3.3255 पकाने -0.5119
-3.3255 इंच -0.5225
-3.3255 रीयल -0.5225
-3.0244 अडैप्टर -0.4562
-3.3255 दिल्ली -0.5227
-3.0244 इन -0.5221
-3.3255 सिल्क -0.5227
-3.3255 पेय -0.4562
-3.3255 ऐक्सट्रा -0.5227
-3.3255 लक्ष्मीनारायण -0.5227
-3.3255 ऐक्सटर्नल -0.5225
-3.3255 काटने -0.5119
-3.3255 लार्ज -0.5227
-2.8483 पी -0.5214
-3.3255 लंच -0.5225
-3.3255 टायर -0.4562
-3.3255 हिंदी -0.5227
-3.3255 टूरिस्टर -0.4562
-3.3255 फाइनेंशियल -0.5227
-3.0244 सामग्री -0.4562
-3.3255 स्किन -0.5225
-3.0244 बैग्स -0.4560
-3.3255 लक्ज़ूरी -0.5227
-3.3255 खादी -0.5190
-3.3255 कढ़ाई -0.4562
-3.3255 प्रैशर -0.5225
-3.0244 ई -0.5219
-3.3255 रिपीलेंट -0.4562
-3.3255 टोपी -0.4562
-3.3255 पीछे -0.5227
-3.3255 फ्लिपकार्ट -0.5225
-3.0244 हनुमान -0.5225
-3.3255 रत्न -0.5225
-3.3255 बहत्तर -0.5227
-3.3255 सफ़ारी -0.4562
-3.3255 सैंडविच -0.5227
-3.3255 सिम -0.5223
-2.8483 टू -0.4543
-2.7234 वी -0.4562
-3.3255 मिलेगा -0.4562
-3.3255 साड़ियाँ -0.4562
-3.3255 शार्पनर -0.4562
-3.3255 परीक्षाओं -0.5119
-3.3255 शक्ति -0.5190
-3.3255 विदेश -0.5227
-3.3255 फैशन -0.4562
-3.3255 नाश्ता -0.4562
-3.0244 उम्र -0.5117
-3.3255 पाठ्यक्रम -0.4562
-3.3255 चटनी -0.5221
-3.3255 ज़ैब्रोनिक्स -0.5225
-3.3255 मल्टीमीडिया -0.5227
-3.3255 वॉरंटी -0.5219
-3.3255 स्कूल -0.5227
-3.3255 डाइनिंग -0.5227
-2.1494 की -0.5183
-3.3255 चीज़ें -0.4562
-2.4224 बी -0.4548
-3.3255 पैनल्स -0.4562
-3.3255 टमी -0.5227
-3.0244 पैंसिल -0.5225
-3.3255 सौंदर्य -0.5227
-3.3255 सीखने -0.5119
-3.3255 रोगियों -0.5119
-3.3255 वर्ल्ड -0.4562
-3.3255 पंचिंग -0.5216
-3.3255 इंग्लिश -0.5198
-3.3255 संध्या -0.4562
-3.3255 व्यापारिक -0.5227
-2.8483 ऐंड -0.5219
-3.3255 च्यवनप्राश -0.4562
-3.3255 ज्योतिष -0.5225
-3.3255 जोड़ा -0.4562
-3.3255 पाठ्यपुस्तकें -0.4562
-3.3255 माइक्रोफोन -0.4562
-3.3255 टूथपेस्ट -0.4562
-3.3255 ओशो -0.5190
-3.3255 पैंटीन -0.5227
-3.3255 ऐम -0.5223
-3.3255 रामदेव -0.5227
-3.3255 टैब्लेट्स -0.4562
-3.0244 वन -0.4546
-3.3255 वॉश -0.5219
-3.3255 स्पीकर्ज़ -0.5223
-3.3255 विकास -0.5225
-3.3255 रिपीटर -0.4562
-3.3255 सिंगल -0.5225
-3.3255 सीधे -0.5216
-3.3255 बैडमिंटन -0.5227
-3.3255 दैनिक -0.5227
-3.3255 मेटल -0.5225
-3.3255 महाराजा -0.5221
-3.3255 प्लास्टिक -0.5225
-3.3255 लस्सी -0.4562
-3.3255 पतंजलि -0.5227
-3.3255 मुफ्त -0.5227
-3.3255 व्यक्तियों -0.5119
-2.8483 प्रॉपर्टीज़ -0.4562
-3.3255 चितले -0.5227
-3.3255 रक्षा -0.5225
-3.3255 कैनवास -0.5119
-3.3255 ऐक्स -0.5223
-3.0244 कंप्यूटर -0.5225
-3.3255 प्रयोग -0.4562
-3.3255 मीडियम -0.4562
-3.3255 जामुन -0.4562
-3.3255 फोर -0.5214
-3.3255 कूद -0.5190
-3.3255 योग -0.5227
-3.3255 थर्मामीटर -0.4562
-3.3255 चिवड़ा -0.4562
-3.3255 स्कूली -0.5225
-3.3255 आवश्यकताओं -0.5190

\2-grams:
-0.1549 कवर </s> -0.5229
-0.4559 किराए का -0.5066
-0.1549 बंगाली मिठाई -0.0000
-2.6335 <s> स्टील -0.3358
-0.1549 मिटटी के -0.5053
-0.1549 लिनोवो के -0.5113
-0.1549 मॉनिटर </s> -0.5229
-0.1549 नैवीगेशन उपकरण -0.0000
-1.0580 बी अडैप्टर -0.0000
-2.6335 <s> व्हर्लपूल -0.0000
-0.1549 सामान </s> -0.5229
-0.3590 बी </s> -0.5229
-0.4559 शीतल फैशन -0.0000
-0.1549 गरम मसाले -0.0000
-0.1549 पारिवारिक पोषण -0.0000
-0.1549 भगाने की -0.5021
-2.6335 <s> आटा -0.0000
-0.1549 टूरिस्टर </s> -0.5229
-2.6335 <s> आगे -0.0000
-0.1549 दर्शन </s> -0.5229
-2.6335 <s> क्रिकेट -0.0000
-2.6335 <s> थैले -0.0000
-0.1549 लैम्प्स </s> -0.5229
-0.1549 सॉफ्टवेयर </s> -0.5229
-0.4559 ब्ल्यूटूथ हैडसैट -0.0000
-0.1549 अमेरिकन टूरिस्टर -0.0000
-0.6320 रुपये से -0.4574
-0.1549 सर्दियों के -0.5053
-0.3310 तवा </s> -0.5229
-0.1549 आगे बढ़िये -0.0000
-0.6320 करने की -0.4331
-0.4559 उपन्यास </s> -0.5229
-2.3324 <s> हनुमान -0.0000
-0.4559 डबल ऐक्स -0.0000
-2.6335 <s> पूना -0.0000
-1.3310 की किताबें -0.0000
-0.4559 स्क्रीन मोबाइल -0.3358
-2.6335 <s> स्कूली -0.0000
-2.6335 <s> जलेबी -0.0000
-2.6335 <s> ओलिव -0.0000
-0.1549 मिठाई </s> -0.5229
-0.1549 अति सुरक्षित -0.0000
-0.1549 महाराजा जूते -0.1996
-0.1549 दैनिक आवश्यकताओं -0.0000
-2.6335 <s> लिव -0.0000
-0.1549 परामर्श </s> -0.5229
-0.1549 मोहम्मद रफ़ी -0.0000
-0.1549 दो रुपये -0.4075
-1.8792 के प्रयोग -0.0000
-0.1549 मधुमेह के -0.5171
-2.6335 <s> तनिष्क -0.0000
-2.6335 <s> घरेलू -0.0000
-2.3324 <s> बादाम -0.0000
-2.6335 <s> कम -0.4393
-2.6335 <s> अनारकली -0.0000
-2.6335 <s> बर्फी -0.0000
-0.1549 इंची टी -0.3010
-0.1549 पदार्थ </s> -0.5229
-0.4559 हनुमान शनि -0.0000
-2.6335 <s> डीलिंक -0.0000
-2.6335 <s> सर्दियों -0.0000
-2.6335 <s> एक्सटेंडेड -0.0000
-0.6990 टी शर्ट्स -0.0000
-0.1549 रिपीटर </s> -0.5229
-0.1549 तनिष्क गहने -0.0000
-2.6335 <s> ज्यादा -0.3358
-0.1549 बजेट मोबाइल -0.4393
-0.1549 रैकेट </s> -0.5229
-0.3310 ड्राइव </s> -0.5229
-0.1549 आटा चक्की -0.0000
-2.6335 <s> वॉरंटी -0.0000
-0.1549 दुग्ध पदार्थ -0.0000
-0.1549 वृत्तान्त </s> -0.5229
-0.8539 और कढ़ाई -0.0000
-2.6335 <s> एक -0.0000
-0.1549 गोल्डन स्टील -0.3358
-2.6335 <s> दुर्गा -0.0000
-0.7570 कम करने -0.3358
-2.6335 <s> ट्यूबलैस -0.0000
-1.4021 के कपड़े -0.0000
-2.6335 <s> कुर्ता -0.4075
-2.6335 <s> रोज़मर्रा -0.0000
-0.1549 एक्यूप्रैशर का -0.4720
-0.8539 से ज्यादा -0.3358
-0.4559 शू पॉलिश -0.0000
-0.1549 कोलगेट टूथपेस्ट -0.0000
-2.6335 <s> अंक -0.0000
-2.6335 <s> होटल -0.0000
-1.8792 के उपकरण -0.0000
-2.6335 <s> बेबी -0.0000
-0.1549 गणेश अथर्वशीर्ष -0.0000
-1.5863 लिए इत्र -0.0000
-2.6335 <s> आत्मकथा -0.0000
-0.1549 मिल्टन लंच -0.0000
-0.1549 पिलो कवर -0.0000
-0.1549 साहित्य </s> -0.5229
-0.1549 ज्योतिष परामर्श -0.0000
-0.1549 फाइनेंशियल सर्विसेज़ -0.0000
-0.1549 स्कूल यूनिफॉर्म -0.0000
-0.1549 सुबह का -0.5066
-0.6320 पी थ्री -0.3358
-0.1549 बेडशीट्स </s> -0.5229
-0.1549 सिक्सटीन जी -0.3010
-2.6335 <s> दिल्ली -0.0000
-0.1549 एट जी -0.3010
-0.1549 मीडियम </s> -0.5229
-0.1549 लड़कों के -0.3314
-0.1549 फिटिंग्स </s> -0.5229
-0.1549 प्रॉपर्टीज़ </s> -0.5229
-2.6335 <s> ज़ैब्रोनिक्स -0.0000
-0.8539 डी कार्ड -0.0000
-0.1549 मेकर </s> -0.5229
-0.1549 शिक्षा </s> -0.5229
-0.1549 चनिया चोली -0.0000
-2.6335 <s> इक्कीस -0.0000
-0.1549 डाबर च्यवनप्राश -0.0000
-0.1549 राकेश के -0.5171
-0.4559 प्रेशर कुकर -0.0000
-2.6335 <s> झूमर -0.0000
-2.6335 <s> विंडोज़ -0.0000
-0.1549 पैस्ट्रीज़ सैंडविच -0.0000
-0.1549 प्लास्टिक बैग्स -0.3358
-0.1549 केयर </s> -0.5229
-2.6335 <s> सौंदर्य -0.0000
-0.1549 इंग्लिश की -0.5021
-0.1549 चार्जिंग केबल -0.0000
-0.1549 दुल्हन का -0.5066
-1.3310 की चीज़ें -0.0000
-0.1549 निरमा वॉशिंग -0.0000
-1.4337 का फर्नीचर -0.0000
-1.8792 के </s> -0.5229
-0.1549 परीक्षाओं के -0.3314
-0.8539 ऐस </s> -0.5229
-2.6335 <s> खरबूजे -0.0000
-0.1549 बरसाती कपड़े -0.1996
-0.1549 मूंगफली का -0.4720
-0.8539 सैमसंग मोबाइल -0.4393
-0.1549 पेय </s> -0.5229
-2.3324 <s> वॉटर -0.0000
-2.6335 <s> आयुर्वेदिक -0.0000
-1.3310 की दूरी -0.0000
-0.1549 लैक्मे कॉस्मेटिक्स -0.0000
-0.1549 बिजली के -0.5171
-2.6335 <s> ऐक्सटर्नल -0.0000
-0.4559 इन करिए -0.0000
-0.4559 लीटर </s> -0.5229
-0.1549 जैतून का -0.4720
-0.1549 पावती बुक -0.3358
-2.6335 <s> डाटा -0.0000
-1.5863 लिए पुस्तकें -0.0000
-0.1549 ज़ोलो फ़ोन -0.0000
-2.6335 <s> बिजली -0.0000
-2.6335 <s> ऐक्सट्रा -0.0000
-0.4559 वॉटर बॉटल -0.0000
-0.1549 सौंदर्य प्रसाधन -0.0000
-0.4559 आज का -0.5066
-0.1549 ऐक्सटर्नल हार्ड -0.3358
-2.6335 <s> कौन -0.0000
-0.6320 टू </s> -0.5229
-2.6335 <s> माइक्रोफोन -0.0000
-2.6335 <s> मल्टीमीडिया -0.0000
-0.1549 लार्ज साइज़ -0.0000
-0.1549 पल्सर मोटरसाइकिल -0.0000
-1.5863 लिए चाक़ू -0.0000
-0.1549 लेकर हज़ार -0.3358
-0.1549 नापने के -0.3314
-0.1549 मैसूर पाक -0.0000
-0.4559 लीटर के -0.5171
-2.6335 <s> प्रोटीन -0.0000
-2.6335 <s> शंकर -0.0000
-1.4337 का मकान -0.0000
-0.1549 ज़ैब्रोनिक्स ब्ल्यूटूथ -0.3358
-2.3324 <s> आज -0.0000
-0.1549 किचन फिटिंग्स -0.0000
-2.6335 <s> मेटल -0.0000
-2.6335 <s> निरमा -0.0000
-0.1549 इत्र </s> -0.5229
-0.8539 और अन्य -0.0000
-2.6335 <s> मीडियम -0.0000
-2.6335 <s> कूलर -0.0000
-2.6335 <s> साज -0.0000
-0.1549 ट्रीमर </s> -0.5229
-0.1549 वर्ष से -0.3802
-1.4337 का उपहार -0.0000
-2.6335 <s> माइक्रोवेव -0.0000
-0.1549 शक्ति का -0.5066
-0.3310 वज़न करने -0.3358
-0.1549 डिस्काउंट मिलेगा -0.0000
-0.1549 एस बी -0.4831
-0.5528 डी टी -0.3010
-0.6990 जी पी -0.2499
-0.1549 करना है -0.0000
-0.1549 वॉश और -0.4574
-0.1549 बच्चन की -0.5021
-2.6335 <s> स्टाइलिश -0.0000
-0.1549 नया आगमन -0.0000
-2.3324 <s> लिनोवो -0.0000
-2.6335 <s> ऐस -0.4574
-0.1549 पंचिंग मशीन -0.0000
-0.4559 वन टी -0.4771
-0.3310 पेन ड्राइव -0.0000
-0.1549 हिंदी फ़िल्मों -0.0000
-0.6320 ऐंड ट्वीटर्स -0.0000
-0.1549 ग्रीष्म ऋतू -0.0000
-0.1549 सुगन्धित करने -0.3358
-0.1549 केस </s> -0.5229
-0.1549 स्टैंड </s> -0.5229
-0.1549 हैदराबाद में -0.3358
-0.1549 वॉचेस </s> -0.5229
-0.1549 पैनल्स </s> -0.5229
-0.1549 टच स्क्रीन -0.3358
-0.1549 करिए </s> -0.5229
-0.1549 माइक्रोफोन </s> -0.5229
-0.1549 बल्ब होल्डर -0.0000
-0.1549 स्क्रब्स </s> -0.5229
-2.6335 <s> बजेट -0.0000
-0.1549 खेल कूद -0.0000
-0.1549 छीलने के -0.3314
-0.1549 काँटा </s> -0.5229
-0.1549 बिलोने की -0.4331
-1.0580 बी पेन -0.2499
-0.1549 ट्रैक करना -0.0000
-0.1549 अरिहंत प्रकाशन -0.0000
-0.1549 शूज़ </s> -0.5229
-2.6335 <s> लिक -0.0000
-2.3324 <s> डबल -0.0000
-1.8792 के गीत -0.0000
-2.6335 <s> गणेश -0.0000
-0.1549 इंच एच -0.0000
-0.1549 विकास कैसे -0.3358
-0.1549 बारह लीटर -0.3358
-0.1549 ट्वीटर्स </s> -0.5229
-0.1549 एक्सप्रेस </s> -0.5229
-2.3324 <s> पैंसिल -0.0000
-0.1549 औज़ार </s> -0.5229
-2.6335 <s> दुल्हन -0.0000
-2.6335 <s> चटनी -0.0000
-2.6335 <s> लखानी -0.0000
-0.1549 बढ़ाएं </s> -0.5229
-0.1549 साबुन </s> -0.5229
-2.3324 <s> पेन -0.0000
-2.6335 <s> पारिवारिक -0.0000
-0.6320 पेन स्टैंड -0.0000
-0.1549 ऐक्शन स्पोर्ट्स -0.0000
-2.6335 <s> जैतून -0.0000
-2.3324 <s> कॉटन -0.2499
-0.1549 रस बनाने -0.1996
-2.6335 <s> स्टैपलर -0.0000
-2.6335 <s> फोर -0.0000
-0.4559 खाना पकाने -0.0000
-2.6335 <s> दुग्ध -0.0000
-0.1549 वाहन </s> -0.5229
-0.1549 काले करने -0.3358
-0.1549 करें </s> -0.5229
-0.4478 के लिए -0.0000
-0.1549 बहत्तर इंच -0.0000
-0.1549 फुटबॉल </s> -0.5229
-0.1549 स्कूली बच्चों -0.0000
-0.1549 वस्तुएं </s> -0.5229
-0.1549 डिस्क वन -0.3358
-0.1549 पूजा सामग्री -0.0000
-0.1549 सीखने के -0.3314
-2.6335 <s> ब्लड -0.0000
-0.1549 ऐक्सट्रा लार्ज -0.0000
-2.6335 <s> खादी -0.0000
-2.6335 <s> किराया -0.0000
-0.1549 पिक्चरें </s> -0.5229
-0.1549 बर्फी </s> -0.5229
-0.1549 पिस्ता बर्फी -0.0000
-1.4337 का साहित्य -0.0000
-0.1549 लड़की के -0.5053
-2.3324 <s> दिवाली -0.0000
-2.6335 <s> मैमोरी -0.0000
-0.1549 चप्पलों के -0.3314
-0.9331 करने का -0.5066
-0.1549 खादी का -0.5066
-2.3324 <s> जीवन -0.0000
-0.4559 थ्री </s> -0.5229
-0.1549 ब्रिफ केस -0.0000
-0.1549 विंटर क्लोदिंग -0.0000
-2.6335 <s> मैसूर -0.0000
-0.4559 कैसे करें -0.0000
-2.6335 <s> रामदेव -0.0000
-0.4559 ज्यादा से -0.3802
-2.6335 <s> मच्छरदानी -0.0000
-2.6335 <s> मुफ्त -0.0000
-0.1549 सफ़ारी </s> -0.5229
-0.1549 प्रयोग </s> -0.5229
-1.4337 का मुरब्बा -0.0000
-0.1549 वी </s> -0.5229
-0.1549 वृत्त </s> -0.5229
-0.9565 का सामान -0.0000
-0.1549 विदेश शिक्षा -0.0000
-2.6335 <s> टोपी -0.0000
-2.6335 <s> पिलो -0.0000
-2.6335 <s> दही -0.0000
-0.1549 बेबी केयर -0.0000
-2.6335 <s> अमिताभ -0.0000
-0.1549 लेडीज़ ब्लाउज़ -0.0000
-0.1549 उपकरण </s> -0.5229
-0.1549 ड्रायर </s> -0.5229
-0.1549 रेफ्रीजिरेटर </s> -0.5229
-2.6335 <s> बूटेदार -0.0000
-0.1549 चीज़ें </s> -0.5229
-2.6335 <s> टाइमैक्स -0.0000
-0.1549 शंकर पार्वती -0.0000
-0.1549 सैंडविच मेकर -0.0000
-0.4559 उम्र पंद्रह -0.0000
-0.1549 रत्न परामर्श -0.0000
-2.6335 <s> बुढ़ापा -0.0000
-2.6335 <s> भजन -0.0000
-0.1549 बजाज पल्सर -0.0000
-0.1549 फैशन </s> -0.5229
-0.1549 मशीन </s> -0.5229
-0.1549 कूलर बारह -0.0000
-0.1549 कार्ड </s> -0.5229
-0.1549 टमी ट्रिमर्स -0.0000
-0.1549 कितनी है -0.0000
-2.6335 <s> लस्सी -0.0000
-0.6320 कुर्ता पायजामा -0.0000
-2.6335 <s> अरिहंत -0.0000
-0.1549 पॉवर सप्लाई -0.0000
-0.1549 ऑइल </s> -0.5229
-1.8792 के बीज -0.0000
-2.6335 <s> ऐक्शन -0.0000
-0.1549 सिम स्मार्टफ़ोन -0.0000
-0.4559 जीवन बीमा -0.0000
-0.1549 क्रिकेट बैट -0.0000
-0.4559 कंप्यूटर वर्ल्ड -0.0000
-0.1549 वाला तवा -0.2499
-2.6335 <s> स्मरण -0.0000
-0.1549 बनेगा करोड़पति -0.0000
-0.1549 सौ रुपये -0.4075
-2.6335 <s> लड़की -0.0000
-0.1549 गोदरेज प्रॉपर्टीज़ -0.0000
-0.1549 झूमर </s> -0.5229
-0.7570 कपड़े उम्र -0.3358
-0.1549 इस्टेट ऐंड -0.2499
-0.1549 चोली </s> -0.5229
-0.1549 ड्युअल सिम -0.0000
-0.1549 घटाने के -0.3314
-1.0000 जी स्मार्टफ़ोन -0.0000
-2.6335 <s> पूजा -0.0000
-2.3324 <s> आदमियों -0.0000
-0.1549 पाक </s> -0.5229
-0.1549 रियल इस्टेट -0.0000
-2.3324 <s> शू -0.0000
-2.6335 <s> प्रतिस्पर्धात्मक -0.0000
-2.6335 <s> तंदूर -0.0000
-0.1549 पायजामा और -0.4574
-2.6335 <s> वायरलेस -0.0000
-1.4337 का पाठ्यक्रम -0.0000
-2.6335 <s> टमी -0.0000
-2.6335 <s> कितना -0.0000
-0.1549 लॉजीटैक ब्ल्यूटूथ -0.3358
-0.1549 मोटापा घटाने -0.0000
-2.6335 <s> मूंगफली -0.0000
-0.1549 आउट मसक्युटो -0.0000
-0.8539 और शेरवानी -0.0000
-0.6320 टू फ़्लिप -0.0000
-2.6335 <s> सिक्सटीन -0.0000
-0.1549 सिल्क ड्रैस -0.0000
-0.1549 खिलोने </s> -0.5229
-0.1549 आगमन </s> -0.5229
-0.1549 उपहार </s> -0.5229
-0.1549 हैडसैट </s> -0.5229
-2.6335 <s> बिल -0.0000
-0.4559 बाल सीधे -0.0000
-0.1549 उंचाई बढ़ाने -0.0000
-0.6320 ऐंड प्रॉपर्टीज़ -0.0000
-1.8792 के गिलास -0.0000
-0.4559 किराए की -0.5021
-0.1549 ऐक्स ऐल -0.4075
-0.1549 मुरब्बा </s> -0.5229
-0.4559 स्टील के -0.5053
-0.1549 गार्ड्स </s> -0.5229
-0.1549 शर्करा नापने -0.0000
-2.6335 <s> पंचिंग -0.0000
-1.5863 लिए यन्त्र -0.0000
-0.1549 ब्लाउज़ </s> -0.5229
-0.4559 यंत्र </s> -0.5229
-0.7570 मोबाइल चार्जिंग -0.0000
-1.8792 के टैब्लेट्स -0.0000
-0.1549 लिक प्रूफ़ -0.0000
-0.1549 स्पीकर्ज़ ऐंड -0.4075
-1.8792 के प्रेशर -0.3358
-0.1549 भुगतान </s> -0.5229
-1.3310 की मिठाई -0.0000
-2.6335 <s> टच -0.0000
-0.1549 ट्वैंटी वन -0.3358
-0.7570 जूते चप्पलों -0.0000
-0.1549 बीमा </s> -0.5229
-0.8539 सैमसंग गैलैक्सी -0.0000
-0.1549 ट्रिमर्स </s> -0.5229
-0.1549 पुर्जे </s> -0.5229
-0.1549 राऊटर्स </s> -0.5229
-0.1549 चिवड़ा </s> -0.5229
-0.7570 बनाने की -0.4331
-0.1549 साबरमती एक्सप्रेस -0.0000
-0.5528 ऐस बी -0.4393
-2.6335 <s> थर्मामीटर -0.0000
-2.6335 <s> दस -0.0000
-2.6335 <s> डाइनिंग -0.0000
-0.1549 ऑफर </s> -0.5229
-0.1549 रोगियों के -0.3314
-0.1549 प्रसाधन </s> -0.5229
-0.4559 पैंसिल छीलने -0.0000
-0.1549 च्यवनप्राश </s> -0.5229
-0.4559 हज़ार रुपये -0.4075
-0.1549 इन्श्यूरैंस </s> -0.5229
-2.6335 <s> उपन्यास -0.3358
-2.6335 <s> गरम -0.0000
-1.3310 की डीवीडी -0.2499
-0.4559 बुक स्टैंड -0.0000
-0.1549 फ्लिपकार्ट में -0.3358
-0.1549 लैपटॉप रैम -0.0000
-2.6335 <s> चैरी -0.0000
-0.1549 बोर्ड के -0.3314
-2.6335 <s> पैस्ट्रीज़ -0.0000
-0.1549 ब्लड प्रेशर -0.3358
-0.4559 पांच सौ -0.0000
-0.1549 नाश्ता </s> -0.5229
-0.1549 प्राप्ति पर -0.0000
-2.3324 <s> पांच -0.0000
-0.1549 पंद्रह साल -0.0000
-0.4559 ब्ल्यूटूथ अडैप्टर -0.0000
-0.1549 ऐक्सक्ल्यूज़िव ऑफर -0.0000
-0.6320 ऐंड फाइनेंशियल -0.0000
-1.4021 के बर्तन -0.0000
-0.1549 सामग्री </s> -0.5229
-2.6335 <s> आबो -0.0000
-0.1549 मोहन राकेश -0.0000
-0.1549 पतंजलि केशकांति -0.0000
-1.5781 के साथ -0.0000
-0.1549 स्पोर्ट्स शूज़ -0.0000
-2.6335 <s> लम्बे -0.0000
-0.1549 प्रैशर कुकर -0.0000
-0.1549 स्टाइलिश साड़ियाँ -0.0000
-2.6335 <s> दौड़ने -0.0000
-0.1549 नौ हज़ार -0.3358
-0.1549 किराया पावती -0.0000
-2.6335 <s> गुलाब -0.0000
-2.6335 <s> तवा -0.4075
-0.1549 मुफ्त डिलीवरी -0.0000
-0.1549 सत्य के -0.5171
-0.1549 सूखे मेवा -0.0000
-0.4559 में किराए -0.3358
-0.1549 वॉशिंग पाउडर -0.0000
-0.1549 टैब्लेट्स </s> -0.5229
-0.4559 पैनासोनिक टी -0.3010
-0.4559 कार स्पीकर्ज़ -0.0000
-0.1549 पकाने के -0.5053
-0.1549 गहने </s> -0.5229
-0.3979 जी बी -0.2730
-0.1549 ट्रैवल बैग्स -0.3358
-2.3324 <s> गोदरेज -0.0000
-2.6335 <s> आयबॉल -0.0000
-0.4559 डबल डोर -0.0000
-1.4337 का खाना -0.3358
-0.1549 बालों का -0.4720
-2.6335 <s> बुक -0.3358
-0.1549 बम्बई तक -0.4075
-0.1549 आयबॉल गैजेट्स -0.0000
-0.1549 अडैप्टर </s> -0.5229
-0.6320 तवा और -0.4574
-0.8539 से लेकर -0.0000
-0.1549 फ़ोन </s> -0.5229
-0.1549 औषधियाँ </s> -0.5229
-2.6335 <s> रक्त -0.0000
-0.1549 रोज़मर्रा की -0.5021
-0.1549 मेटल बॉक्स -0.0000
-2.6335 <s> ऐम -0.0000
-0.1549 विंडोज़ सॉफ्टवेयर -0.0000
-0.1549 चितले बाकरवड़ी -0.0000
-0.6320 रुपये </s> -0.5229
-1.0580 बी पैन -0.0000
-0.1549 थर्मामीटर </s> -0.5229
-2.6335 <s> टेबल -0.0000
-0.1549 लिव इन -0.3358
-0.1549 प्रोटीन बिस्कुट्स -0.0000
-0.1549 कांच के -0.5171
-0.1549 लम्बे व्यक्तियों -0.0000
-1.5863 लिए किताबें -0.0000
-0.4559 हेयर कंडीशनर -0.0000
-2.6335 <s> स्कूल -0.0000
-2.6335 <s> लेडीज़ -0.0000
-2.3324 <s> वज़न -0.0000
-2.6335 <s> हैदराबाद -0.0000
-0.1549 ई डी -0.3802
-1.3310 की खासीयत -0.0000
-0.3310 डीवीडी </s> -0.5229
-0.1549 केबल </s> -0.5229
-2.6335 <s> रस -0.0000
-0.1549 रिपीलेंट </s> -0.5229
-0.1549 पुस्तकें </s> -0.5229
-2.6335 <s> सिंगल -0.0000
-0.3310 तक </s> -0.5229
-0.1549 कॉस्मेटिक्स </s> -0.5229
-0.1549 लक्ज़ूरी वॉचेस -0.0000
-1.3310 की तस्वीरें -0.0000
-0.8539 से बम्बई -0.0000
-0.1549 तिजोरी </s> -0.5229
-2.6335 <s> इनफोकस -0.0000
-0.1549 योग दर्शन -0.0000
-0.6320 टू जी -0.3010
-0.1549 कंडीशनर </s> -0.5229
-0.1549 मच्छर भगाने -0.0000
-1.5863 लिए गाइड -0.0000
-2.6335 <s> साबरमती -0.0000
-2.6335 <s> हिंदी -0.0000
-0.1549 बादाम के -0.5113
-0.1549 चटनी बनाने -0.1996
-0.1549 डीलिंक राऊटर्स -0.0000
-0.4559 शीतल पेय -0.0000
-1.5863 लिए शार्पनर -0.0000
-0.1549 प्रकाशन की -0.5021
-0.1549 ओरियल स्किन -0.0000
-0.1549 रबर </s> -0.5229
-0.8539 ऐस नैवीगेशन -0.0000
-0.1549 डाटा कार्ड -0.0000
-2.6335 <s> जौर्जेट -0.0000
-0.1549 बेंगलूरू </s> -0.5229
-1.5863 लिए डीवीडी -0.2499
-0.1549 सैट </s> -0.5229
-0.1549 ना चिपकने -0.0000
-0.5528 सैमसंग के -0.5113
-0.1549 दवा </s> -0.5229
-0.4559 मोबाइल </s> -0.5229
-0.1549 चलते पुर्जे -0.0000
-0.4559 वॉटर प्रूफ़ -0.0000
-0.1549 सप्लाई ट्वैल्व -0.0000
-0.1549 सेफ </s> -0.5229
-0.4559 हनुमान चालीसा -0.0000
-2.6335 <s> जी -0.4260
-0.1549 साइज़ </s> -0.5229
-0.1549 फुल एच -0.0000
-0.1549 पार्वती की -0.5021
-0.1549 एक लाख -0.0000
-0.1549 पूना से -0.4574
-0.8539 डी ऐल -0.2499
-0.7570 मोबाइल नौ -0.0000
-0.7570 कम उम्र -0.3358
-0.1549 पैन ड्राइव -0.2499
-0.1549 ऑल आउट -0.0000
-0.6320 कॉटन ट्राउज़र्स -0.0000
-0.1549 घरेलू फर्नीचर -0.0000
-2.6335 <s> डोसा -0.0000
-0.4559 इन जीन्स -0.3358
-2.6335 <s> चॉकलेट -0.0000
-2.6335 <s> रात्रि -0.0000
-0.1549 तंदूर </s> -0.5229
-0.1549 बिस्कुट्स </s> -0.5229
-2.6335 <s> सलवार -0.0000
-2.6335 <s> सुबह -0.0000
-2.6335 <s> दो -0.0000
-0.8539 और स्क्रब्स -0.0000
-2.6335 <s> कोलगेट -0.0000
-2.6335 <s> पैंटीन -0.0000
-2.6335 <s> सफ़ारी -0.0000
-0.1549 साड़ियाँ </s> -0.5229
-0.1549 पीटर इंग्लैंड -0.0000
-2.6335 <s> शादी -0.0000
-0.1549 दस वर्ष -0.0000
-0.1549 डोर </s> -0.5229
-0.4559 जीन्स फॉर -0.0000
-0.1549 सर्विसेज़ </s> -0.5229
-2.6335 <s> कांजीवरम -0.0000
-2.6335 <s> कांच -0.0000
-0.1549 रक्षा यंत्र -0.3358
-0.1549 आईएएस का -0.5066
-0.1549 देखभाल के -0.3314
-0.4559 बाल काले -0.0000
-0.4559 पांच लीटर -0.3358
-2.6335 <s> फ्लिपकार्ट -0.0000
-0.1549 वर्ल्ड </s> -0.5229
-2.6335 <s> पुणे -0.0000
-0.1549 ओलिव ऑइल -0.0000
-0.1549 बिंगो ट्वैंटी -0.0000
-2.6335 <s> डिजिटल -0.0000
-2.6335 <s> यंत्र -0.3358
-0.1549 बॉटल </s> -0.5229
-0.1549 टायर </s> -0.5229
-0.1549 मसक्युटो रिपीलेंट -0.0000
-0.1549 बैडमिंटन रैकेट -0.0000
-0.1549 आम का -0.5066
-2.6335 <s> सोलह -0.0000
-2.6335 <s> योग -0.0000
-0.1549 डाइनिंग सैट -0.0000
-2.1563 <s> यू -0.0000
-0.1549 रफ़ी के -0.5171
-2.6335 <s> बैडमिंटन -0.0000
-0.4559 जीवन वृत्तान्त -0.0000
-0.5528 से कम -0.3358
-0.1549 लैहेंगा </s> -0.5229
-0.1549 सप्तशती </s> -0.5229
-2.6335 <s> रेड -0.0000
-0.1549 गैलैक्सी नोट -0.0000
-2.6335 <s> रीयल -0.0000
-0.1549 क्लोदिंग </s> -0.5229
-0.1549 सॉस </s> -0.5229
-2.6335 <s> मच्छर -0.0000
-0.1549 गर्ल्स </s> -0.5229
-0.1549 अन्य शीतल -0.3358
-2.6335 <s> आम -0.0000
-2.6335 <s> बहत्तर -0.0000
-0.1549 दिल्ली बोर्ड -0.0000
-0.1549 सुरक्षित तिजोरी -0.0000
-2.6335 <s> ज़ोलो -0.0000
-0.1549 दही बिलोने -0.0000
-0.1549 टेबल लैम्प्स -0.0000
-2.6335 <s> रोटी -0.0000
-2.6335 <s> बजाज -0.0000
-2.6335 <s> शारीरिक -0.0000
-0.1549 एच डी -0.3802
-2.6335 <s> ओमरौन -0.0000
-2.6335 <s> लैपटॉप -0.0000
-2.6335 <s> ओरियल -0.0000
-0.1549 थर्टी टू -0.4075
-0.1549 बीज </s> -0.5229
-2.6335 <s> रंगीन -0.0000
-0.1549 किताबें </s> -0.5229
-0.1549 ओके साबुन -0.0000
-0.1549 मोज़े </s> -0.5229
-0.1549 श्रृंगार </s> -0.5229
-2.6335 <s> औज़ार -0.0000
-2.6335 <s> बेंगलूरू -0.0000
-2.6335 <s> बनारसी -0.0000
-0.1549 शर्ट्स </s> -0.5229
-2.6335 <s> चैकआउट -0.0000
-2.6335 <s> प्लास्टिक -0.0000
-0.1549 पैंटीन शैम्पू -0.0000
-0.1549 गाइड </s> -0.5229
-0.1549 शनि रक्षा -0.0000
-0.1549 एक्सटेंडेड इन्श्यूरैंस -0.0000
-2.6335 <s> नया -0.0000
-0.1549 सब्जी काटने -0.0000
-0.1549 मच्छरदानी </s> -0.5229
-0.6320 कॉटन शर्ट्स -0.0000
-0.1549 माइक्रोमैक्स स्पार्क -0.0000
-2.6335 <s> दैनिक -0.0000
-0.1549 तस्वीरें </s> -0.5229
-0.1549 हॉकिन्स प्रैशर -0.0000
-0.1549 ट्यूबलैस टायर -0.0000
-0.5449 लिए </s> -0.5229
-0.1549 चॉकलेट सॉस -0.0000
-0.1549 बढ़ाने के -0.3314
-0.4559 में इन -0.3358
-0.7570 कम </s> -0.5229
-0.1549 यात्रा वृत्त -0.0000
-0.2798 बनाने के -0.3314
-0.1549 ऐडवांस्ड ट्रीमर -0.0000
-0.1549 बाबा </s> -0.5229
-0.1549 कुकर </s> -0.5229
-2.6335 <s> चॉपर -0.0000
-0.1549 कांजीवरम साड़ी -0.0000
-0.1549 कैनवास के -0.5171
-0.1549 जलेबी </s> -0.5229
-0.4559 स्क्रीन गार्ड्स -0.0000
-0.1549 आठ </s> -0.5229
-0.1549 दूरी कितनी -0.0000
-2.6335 <s> व्यापारिक -0.0000
-2.6335 <s> लक्ष्मीनारायण -0.0000
-2.6335 <s> जन्मदिन -0.0000
-0.1549 नोट टू -0.2499
-2.6335 <s> खाना -0.3358
-0.1549 भोजन </s> -0.5229
-0.1549 शारीरिक देखभाल -0.0000
-1.5863 लिए उपकरण -0.0000
-0.1549 फ़ूड प्रोसेसर -0.0000
-0.1549 साज श्रृंगार -0.0000
-2.6335 <s> कथा -0.0000
-0.1549 पाउडर </s> -0.5229
-0.8539 सैमसंग फुल -0.0000
-0.4559 उपन्यास मोहन -0.0000
-2.6335 <s> पिस्ता -0.0000
-0.4559 हेयर ड्रायर -0.0000
-0.1549 बैग के -0.5113
-0.1549 बिल बनाइये -0.0000
-0.1549 स्मार्टफ़ोन </s> -0.5229
-2.6335 <s> ओशो -0.0000
-2.6335 <s> गोल्डन -0.0000
-0.1549 बर्तन </s> -0.5229
-0.4559 हार्ड डिस्क्स -0.0000
-2.6335 <s> ओके -0.0000
-2.6335 <s> लड़कों -0.0000
-0.4559 कंप्यूटर मदरबोर्ड -0.0000
-2.6335 <s> स्क्रीन -0.3358
-0.1549 गैजेट्स </s> -0.5229
-0.1549 दौड़ने के -0.3314
-1.4337 का कुर्ता -0.2499
-0.1549 रंगीन छतरी -0.0000
-1.8792 के पटाखे -0.0000
-0.1549 पुणे रियल -0.0000
-0.4559 कार जी -0.4260
-0.1549 गिलास </s> -0.5229
-0.1549 आबो हवा -0.0000
-2.6335 <s> चर्बी -0.0000
-0.1549 टूथपेस्ट </s> -0.5229
-0.1549 डिजिटल कैमरा -0.0000
-2.6335 <s> पीछे -0.0000
-0.1549 जोड़ा </s> -0.5229
-0.7570 कम से -0.4574
-0.4559 बुक </s> -0.5229
-2.6335 <s> नोटबुक्स -0.0000
-2.6335 <s> बल्ब -0.0000
-0.1549 ओशो का -0.5066
-0.1549 मोटरसाइकिल </s> -0.5229
-0.4559 आज की -0.5021
-2.6335 <s> गैलैक्सी -0.0000
-0.4559 दिवाली के -0.5171
-0.8539 और इन्श्यूरैंस -0.0000
-0.1549 शेरवानी </s> -0.5229
-1.3310 की पुस्तकें -0.0000
-2.6335 <s> ड्युअल -0.0000
-2.6335 <s> फ़ूड -0.0000
-2.6335 <s> मोटापा -0.0000
-1.4337 का काँटा -0.0000
-0.1549 बत्तीस </s> -0.5229
-2.6335 <s> किराए -0.3358
-0.4559 ज्यादा </s> -0.5229
-2.6335 <s> लॉजीटैक -0.0000
-2.6335 <s> घर -0.0000
-2.3324 <s> पैनासोनिक -0.0000
-0.1549 तेल </s> -0.5229
-0.1549 केशकांति बालों -0.0000
-0.1549 फर्नीचर </s> -0.5229
-0.4559 शू रैक -0.0000
-0.1549 पोषण </s> -0.5229
-0.6320 यू एस -0.0000
-0.1549 पर नकद -0.0000
-0.1549 प्रूफ़ </s> -0.5229
-0.1549 प्लेयर </s> -0.5229
-0.1549 मदरबोर्ड </s> -0.5229
-0.1549 होल्डर </s> -0.5229
-0.1549 ऑर्डर ट्रैक -0.0000
-2.6335 <s> पॉवर -0.0000
-2.6335 <s> शीतल -0.3358
-0.1549 कढ़ाई </s> -0.5229
-1.8792 के स्मार्टफ़ोन -0.0000
-1.8792 के लैपटॉप्स -0.0000
-0.1549 चर्बी कम -0.4393
-0.1549 डिलीवरी </s> -0.5229
-2.6335 <s> कैनवास -0.0000
-0.1549 इक्कीस इंची -0.0000
-0.1549 याददाश्त कैसे -0.3358
-0.1549 आत्मकथा </s> -0.5229
-0.1549 फ़्लिप कवर -0.0000
-2.6335 <s> लक्ज़ूरी -0.0000
-0.1549 मकान </s> -0.5229
-0.1549 वॉच </s> -0.5229
-2.6335 <s> ट्रैवल -0.0000
-1.9345 <s> सैमसंग -0.0000
-0.3979 टी वी -0.0000
-2.6335 <s> शरबत -0.0000
-0.1549 बच्चों के -0.3223
-0.1549 जामुन </s> -0.5229
-0.4559 यंत्र सामग्री -0.0000
-0.1549 स्किन केयर -0.0000
-0.1549 अनारकली </s> -0.5229
-0.4559 करने के -0.3314
-1.5863 लिए स्टैंड -0.0000
-1.3310 की दवा -0.0000
-0.1549 ब्लॉसम </s> -0.5229
-0.1549 आयुर्वेदिक औषधियाँ -0.0000
-1.4337 का नाश्ता -0.0000
-0.1549 बनाइये </s> -0.5229
-2.6335 <s> लैक्मे -0.0000
-1.0000 टी बी -0.2730
-0.1549 नकद भुगतान -0.0000
-0.7289 की मशीन -0.0000
-2.6335 <s> विदेश -0.0000
-0.1549 शैम्पू </s> -0.5229
-0.1549 डोसा तवा -0.2499
-1.5863 लिए वस्तुएं -0.0000
-2.6335 <s> ऐक्सक्ल्यूज़िव -0.0000
-0.1549 मिलेगा </s> -0.5229
-2.6335 <s> याददाश्त -0.0000
-0.1549 बूटेदार लैहेंगा -0.0000
-0.1549 लड्डू </s> -0.5229
-0.1549 होटल का -0.5066
-0.1549 संध्या </s> -0.5229
-2.6335 <s> जीन्स -0.3358
-2.6335 <s> किचन -0.0000
-0.1549 फिलिप्स ऐडवांस्ड -0.0000
-2.6335 <s> डाबर -0.0000
-0.4559 हार्ड डिस्क -0.0000
-0.1549 काटने के -0.3314
-0.1549 कूद का -0.4720
-0.1549 चैरी ब्लॉसम -0.0000
-0.1549 सोलार पैनल्स -0.0000
-0.1549 बनारसी साड़ी -0.0000
-0.1549 थैले के -0.5113
-2.6335 <s> सब्जी -0.0000
-0.1549 स्पार्क जे -0.0000
-0.1549 शरबत और -0.4574
-0.4559 कैसे बढ़ाएं -0.0000
-0.1549 इंग्लैंड कॉटन -0.4075
-0.1549 नोटबुक्स </s> -0.5229
-0.4559 पैनासोनिक डीवीडी -0.4075
-0.1549 वॉट </s> -0.5229
-0.1549 जाइए </s> -0.5229
-0.4559 दिवाली की -0.5021
-1.5863 लिए मोज़े -0.0000
-0.1549 ऋतू </s> -0.5229
-0.1549 बुढ़ापा रोकने -0.0000
-0.4559 थ्री प्लेयर -0.0000
-2.6335 <s> बत्तीस -0.0000
-0.1549 लैपटॉप्स </s> -0.5229
-1.2852 लिए टी -0.4260
-0.1549 फेस वॉश -0.0000
-2.6335 <s> आठ -0.0000
-0.1549 शार्पनर </s> -0.5229
-0.1549 रैक </s> -0.5229
-0.9565 का तेल -0.0000
-0.1549 बाकरवड़ी </s> -0.5229
-1.8792 के जूते -0.1996
-0.1549 सलवार कुर्ता -0.2499
-0.1549 बढ़िये </s> -0.5229
-2.6335 <s> सत्य -0.0000
-0.1549 कौन बनेगा -0.0000
-0.1549 रात्रि भोजन -0.0000
-0.1549 चाक़ू </s> -0.5229
-0.4559 बैग्स अमेरिकन -0.0000
-2.3324 <s> कार -0.0000
-0.1549 ड्रैस मटीरियल -0.0000
-0.1549 अथर्वशीर्ष </s> -0.5229
-0.1549 यन्त्र </s> -0.5229
-0.1549 सोलह जी -0.3010
-0.1549 चिपकने वाला -0.0000
-0.1549 पाठ्यपुस्तकें </s> -0.5229
-0.1549 बैट </s> -0.5229
-2.6335 <s> पाठ्यपुस्तकें -0.0000
-2.6335 <s> सूखे -0.0000
-0.1549 रैडी ऐल -0.2499
-1.8792 के मोबाइल -0.3358
-2.6335 <s> प्राप्ति -0.0000
-2.6335 <s> माइक्रोमैक्स -0.0000
-0.1549 प्रेमचंद के -0.5171
-0.1549 गीत </s> -0.5229
-0.1549 कैमरा </s> -0.5229
-0.1549 जे थ्री -0.3358
-0.1549 भजन संध्या -0.0000
-0.1549 इनफोकस बिंगो -0.0000
-0.2798 जूते </s> -0.5229
-0.1549 गणित के -0.3314
-2.6335 <s> पतंजलि -0.0000
-1.8792 के उपन्यास -0.3358
-2.6335 <s> चनिया -0.0000
-0.4559 पैंसिल रबर -0.0000
-0.1549 साथ </s> -0.5229
-0.1549 फोर जी -0.4771
-0.6320 तक की -0.5021
-0.1549 पॉलिश </s> -0.5229
-0.1549 मल्टीमीडिया सीखने -0.0000
-0.1549 सिंगल डोर -0.0000
-0.1549 प्रोसेसर </s> -0.5229
-0.4559 स्टील वॉच -0.0000
-2.6335 <s> चलते -0.0000
-0.1549 जौर्जेट साड़ी -0.0000
-0.1549 आदमियों के -0.3314
-0.1549 क्लोद्स </s> -0.5229
-1.4337 का अखबार -0.0000
-0.1549 स्मरण शक्ति -0.0000
-0.4559 वन </s> -0.5229
-2.6335 <s> इंग्लिश -0.0000
-0.1549 रेड बेडशीट्स -0.0000
-2.6335 <s> बरसाती -0.0000
-2.6335 <s> यात्रा -0.0000
-0.1549 करोड़पति </s> -0.5229
-2.6335 <s> एक्यूप्रैशर -0.0000
-2.6335 <s> हॉकिन्स -0.0000
-0.4559 खाना </s> -0.5229
-2.6335 <s> फिलिप्स -0.0000
-0.1549 टोपी </s> -0.5229
-0.1549 कितना डिस्काउंट -0.0000
-2.6335 <s> उंचाई -0.0000
-2.3324 <s> कंप्यूटर -0.0000
-0.1549 एयरलाइन्स </s> -0.5229
-0.4559 जीन्स </s> -0.5229
-1.5863 लिए मशीन -0.0000
-2.6335 <s> ना -0.0000
-1.4337 का जोड़ा -0.0000
-0.4559 हज़ार तक -0.2499
-0.1549 यूनिफॉर्म </s> -0.5229
-2.6335 <s> आईएएस -0.0000
-0.1549 अंक गणित -0.0000
-0.2798 कपड़े </s> -0.5229
-2.6335 <s> ब्रिफ -0.0000
-0.1549 रीयल इस्टेट -0.0000
-0.1549 चालीसा </s> -0.5229
-0.1549 खासीयत </s> -0.5229
-2.6335 <s> इडली -0.0000
-2.6335 <s> बैग -0.0000
-0.1549 लाख </s> -0.5229
-0.1549 डिज़ाइनर क्लोद्स -0.0000
-0.4559 बैग्स </s> -0.5229
-0.1549 मटीरियल </s> -0.5229
-2.3324 <s> हेयर -0.0000
-2.6335 <s> ऑल -0.0000
-0.1549 हवा सुगन्धित -0.0000
-1.8792 के रोगियों -0.0000
-0.3310 कुर्ता </s> -0.5229
-0.1549 मेवा </s> -0.5229
-0.6320 ऐल </s> -0.5229
-0.1549 साड़ी </s> -0.5229
-0.6320 वज़न बढ़ाने -0.0000
-2.6335 <s> एट -0.0000
-2.6335 <s> लौरियल -0.0000
-2.6335 <s> प्रेमचंद -0.0000
-0.1549 रोकने के -0.3314
-0.8539 डी रैडी -0.0000
-0.1549 इंडियन एयरलाइन्स -0.0000
-0.1549 इडली बनाने -0.1996
-0.1549 खरबूजे के -0.5171
-2.6335 <s> जूते -0.4393
-2.6335 <s> चीनी -0.0000
-0.6320 ड्राइव थर्टी -0.0000
-0.1549 डिस्क्स </s> -0.5229
-0.1549 बॉक्स </s> -0.5229
-0.1549 रामदेव बाबा -0.0000
-2.6335 <s> ग्रीष्म -0.0000
-0.1549 है </s> -0.5229
-0.1549 लक्ष्मीनारायण चिवड़ा -0.0000
-0.1549 लस्सी </s> -0.5229
-0.1549 साल </s> -0.5229
-0.1549 मोटरगाड़ी </s> -0.5229
-0.4559 प्रेशर मॉनिटर -0.0000
-0.1549 चक्की </s> -0.5229
-0.1549 वायरलेस रिपीटर -0.0000
-0.1549 आवश्यकताओं का -0.4720
-0.1549 दुर्गा सप्तशती -0.0000
-0.1549 फॉर गर्ल्स -0.0000
-0.6320 कॉटन सिल्क -0.0000
-1.3310 की पिक्चरें -0.0000
-2.6335 <s> पीटर -0.0000
-0.1549 फ़िल्मों की -0.5021
-0.8539 ऐस डी -0.4574
-0.3310 पी ऐस -0.3802
-2.6335 <s> हार्ड -0.3358
-0.1549 जन्मदिन का -0.5066
-2.6335 <s> महाराजा -0.0000
-0.4559 उम्र के -0.3314
-0.1549 ओमरौन वज़न -0.2499
-0.1549 ट्वैल्व वॉट -0.0000
-2.6335 <s> इंडियन -0.0000
-0.1549 ट्राउज़र्स </s> -0.5229
-0.1549 मैमोरी कार्ड -0.0000
-2.6335 <s> अति -0.0000
-1.8792 के खिलोने -0.0000
-0.1549 गाड़ियाँ </s> -0.5229
-0.1549 चॉपर </s> -0.5229
-0.1549 अमिताभ बच्चन -0.0000
-0.1549 कथा साहित्य -0.0000
-1.5781 के लड्डू -0.0000
-0.6320 डीवीडी प्लेयर -0.0000
-0.1549 चीनी मिटटी -0.0000
-0.3310 ऐल ई -0.0000
-0.1549 मसाले </s> -0.5229
-0.1549 रक्त शर्करा -0.0000
-0.1549 व्हर्लपूल रेफ्रीजिरेटर -0.0000
-0.1549 ऐम पी -0.4075
-0.1549 वॉरंटी और -0.4574
-2.6335 <s> विंटर -0.0000
-2.6335 <s> चितले -0.0000
-0.1549 स्टैपलर </s> -0.5229
-0.6320 रुपये तक -0.2499
-2.6335 <s> खेल -0.0000
-0.1549 घर का -0.5066
-0.1549 पाठ्यक्रम </s> -0.5229
-0.1549 चैकआउट करिए -0.0000
-2.6335 <s> सोलार -0.0000
-2.3324 <s> बाल -0.0000
-0.1549 गुलाब जामुन -0.0000
-0.1549 माइक्रोवेव सेफ -0.0000
-1.3310 की गाड़ियाँ -0.0000
-2.6335 <s> मोहम्मद -0.0000
-2.6335 <s> फुटबॉल -0.0000
-0.1549 अखबार </s> -0.5229
-0.1549 शादी के -0.5053
-0.1549 लंच बॉक्स -0.0000
-0.1549 लखानी शूज़ -0.0000
-2.6335 <s> बंगाली -0.0000
-0.1549 व्यापारिक वाहन -0.0000
-2.6335 <s> फेस -0.0000
-0.1549 रोटी बनाने -0.4393
-0.1549 रैम </s> -0.5229
-0.1549 सीधे करने -0.4075
-2.6335 <s> मधुमेह -0.0000
-0.1549 पटाखे </s> -0.5229
-0.3310 यू ऐस -0.3802
-2.6335 <s> बच्चों -0.0000
-1.5863 लिए जूते -0.1996
-0.1549 व्यक्तियों के -0.3314
-1.4337 का विकास -0.0000
-0.1549 प्रतिस्पर्धात्मक परीक्षाओं -0.0000
-0.1549 लौरियल </s> -0.5229
-2.6335 <s> ऑर्डर -0.0000
-2.6335 <s> मिल्टन -0.0000
-0.1549 पीछे जाइए -0.0000
-0.1549 टाइमैक्स वॉच -0.0000
-2.6335 <s> मोटरगाड़ी -0.0000
-2.6335 <s> रत्न -0.0000
-2.6335 <s> ज्योतिष -0.0000
-0.1549 छतरी </s> -0.5229
-2.6335 <s> डिज़ाइनर -0.0000

\3-grams:
-0.1549 बच्चन की पिक्चरें
-0.1549 लीटर के प्रेशर
-0.1549 ऑल आउट मसक्युटो
-0.1549 टू जी बी
-0.1549 <s> दुर्गा सप्तशती
-0.1549 का सामान </s>
-0.1549 <s> आम का
-0.4559 <s> कंप्यूटर वर्ल्ड
-0.1549 पी थ्री प्लेयर
-0.1549 एक लाख </s>
-0.4559 <s> वॉटर बॉटल
-0.4559 ऐस बी अडैप्टर
-0.1549 की खासीयत </s>
-0.1549 <s> स्टाइलिश साड़ियाँ
-0.4559 बच्चों के खिलोने
-0.1549 <s> जूते चप्पलों
-0.1549 ना चिपकने वाला
-0.1549 किराए का मकान
-0.1549 ब्लड प्रेशर मॉनिटर
-0.1549 <s> मैमोरी कार्ड
-0.1549 के प्रयोग </s>
-0.1549 और इन्श्यूरैंस </s>
-0.1549 <s> बादाम के
-0.1549 <s> मल्टीमीडिया सीखने
-0.3310 <s> यू ऐस
-0.1549 <s> साबरमती एक्सप्रेस
-0.4559 <s> हेयर ड्रायर
-0.1549 यू एस बी
-0.1549 <s> बंगाली मिठाई
-0.1549 लड़कों के लिए
-0.1549 मल्टीमीडिया सीखने के
-0.4559 से कम उम्र
-0.1549 ओके साबुन </s>
-0.1549 कैनवास के जूते
-0.4559 <s> पेन ड्राइव
-0.4559 <s> कार स्पीकर्ज़
-0.1549 <s> गैलैक्सी नोट
-0.1549 अति सुरक्षित तिजोरी
-0.1549 <s> प्रोटीन बिस्कुट्स
-0.4559 नोट टू </s>
-0.1549 हार्ड डिस्क वन
-0.1549 लैपटॉप रैम </s>
-0.1549 हवा सुगन्धित करने
-0.1549 <s> पिलो कवर
-0.4559 <s> वॉटर प्रूफ़
-0.1549 <s> योग दर्शन
-0.1549 ब्रिफ केस </s>
-0.1549 लिए टी शर्ट्स
-0.1549 कपड़े उम्र पंद्रह
-0.1549 शक्ति का विकास
-0.1549 ज्यादा से कम
-0.1549 फ़िल्मों की डीवीडी
-0.1549 गोल्डन स्टील वॉच
-0.1549 <s> सिंगल डोर
-0.1549 दौड़ने के लिए
-0.1549 पैन ड्राइव </s>
-0.1549 नौ हज़ार तक
-0.1549 <s> डाटा कार्ड
-0.1549 <s> लिक प्रूफ़
-0.1549 <s> पैस्ट्रीज़ सैंडविच
-0.1549 <s> एट जी
-0.1549 <s> बेबी केयर
-0.1549 गणित के लिए
-0.1549 लिए शार्पनर </s>
-0.1549 <s> यात्रा वृत्त
-0.1549 ऐस नैवीगेशन उपकरण
-0.1549 वाला तवा </s>
-0.1549 <s> तवा और
-0.1549 खरबूजे के बीज
-0.1549 स्मरण शक्ति का
-0.1549 मूंगफली का तेल
-0.1549 <s> चनिया चोली
-0.4559 <s> डबल डोर
-0.1549 दुग्ध पदार्थ </s>
-0.1549 <s> स्कूली बच्चों
-0.1549 रक्त शर्करा नापने
-0.1549 एक्यूप्रैशर का सामान
-0.1549 पूना से बम्बई
-0.1549 साबरमती एक्सप्रेस </s>
-0.1549 <s> बर्फी </s>
-0.1549 पेन स्टैंड </s>
-0.1549 सैमसंग मोबाइल चार्जिंग
-0.1549 घटाने के लिए
-0.1549 रुपये तक </s>
-0.1549 पीटर इंग्लैंड कॉटन
-0.1549 <s> कूलर बारह
-0.1549 का मकान </s>
-0.1549 <s> सोलह जी
-0.1549 के लड्डू </s>
-0.1549 फेस वॉश और
-0.4559 इस्टेट ऐंड फाइनेंशियल
-1.5863 के लिए चाक़ू
-0.1549 और शेरवानी </s>
-0.1549 लिए वस्तुएं </s>
-0.1549 तक की दूरी
-0.1549 <s> रंगीन छतरी
-0.1549 रक्षा यंत्र </s>
-0.1549 सर्दियों के कपड़े
-0.1549 कार जी पी
-0.1549 इंग्लैंड कॉटन ट्राउज़र्स
-0.1549 <s> मोटरगाड़ी </s>
-0.1549 <s> पॉवर सप्लाई
-0.1549 चितले बाकरवड़ी </s>
-0.4559 नोट टू फ़्लिप
-0.1549 <s> लखानी शूज़
-0.1549 मेटल बॉक्स </s>
-0.1549 <s> चटनी बनाने
-1.5863 के लिए मशीन
-0.1549 <s> चर्बी कम
-0.1549 घरेलू फर्नीचर </s>
-0.1549 दूरी कितनी है
-0.1549 हैदराबाद में किराए
-0.1549 कैसे करें </s>
-0.1549 <s> औज़ार </s>
-0.1549 कम से ज्यादा
-0.1549 सिक्सटीन जी बी
-0.1549 <s> ऐक्सट्रा लार्ज
-0.1549 <s> सलवार कुर्ता
-0.1549 काटने के लिए
-0.1549 आदमियों के लिए
-0.1549 <s> उंचाई बढ़ाने
-0.1549 बनाने के लिए
-0.1549 मुफ्त डिलीवरी </s>
-0.1549 डी रैडी ऐल
-0.1549 डिस्काउंट मिलेगा </s>
-0.1549 कांजीवरम साड़ी </s>
-0.1549 इडली बनाने के
-0.1549 कैसे बढ़ाएं </s>
-0.1549 वायरलेस रिपीटर </s>
-0.1549 इनफोकस बिंगो ट्वैंटी
-0.1549 <s> शादी के
-0.1549 <s> अंक गणित
-0.1549 ऑर्डर ट्रैक करना
-0.1549 यंत्र सामग्री </s>
-0.1549 शीतल पेय </s>
-0.1549 प्रेशर मॉनिटर </s>
-0.1549 रात्रि भोजन </s>
-0.3310 के कपड़े </s>
-0.1549 <s> ज़ैब्रोनिक्स ब्ल्यूटूथ
-0.1549 <s> शंकर पार्वती
-0.1549 लिए उपकरण </s>
-0.1549 <s> डाबर च्यवनप्राश
-0.1549 व्यक्तियों के लिए
-1.5863 के लिए वस्तुएं
-0.1549 कॉटन शर्ट्स </s>
-0.1549 का अखबार </s>
-0.1549 लंच बॉक्स </s>
-0.1549 का खाना </s>
-0.1549 <s> रेड बेडशीट्स
-0.1549 <s> इंग्लिश की
-0.1549 बजाज पल्सर मोटरसाइकिल
-0.1549 <s> बैग के
-0.1549 विंटर क्लोदिंग </s>
-0.1549 के खिलोने </s>
-0.1549 बनेगा करोड़पति </s>
-0.1549 <s> पंचिंग मशीन
-0.1549 <s> लड़की के
-0.1549 <s> हॉकिन्स प्रैशर
-0.1549 <s> बुढ़ापा रोकने
-0.1549 फ़ूड प्रोसेसर </s>
-0.1549 <s> लड़कों के
-0.1549 <s> मैसूर पाक
-0.1549 <s> किराया पावती
-0.1549 <s> फेस वॉश
-0.1549 कोलगेट टूथपेस्ट </s>
-0.1549 ऐक्सट्रा लार्ज साइज़
-0.1549 इन जीन्स </s>
-0.1549 <s> फ़ूड प्रोसेसर
-0.1549 <s> मोहम्मद रफ़ी
-0.1549 शादी के कपड़े
-0.1549 कंप्यूटर वर्ल्ड </s>
-0.1549 लम्बे व्यक्तियों के
-0.1549 ड्राइव थर्टी टू
-0.4559 सैमसंग के स्मार्टफ़ोन
-0.1549 <s> टोपी </s>
-0.1549 आज की खासीयत
-1.5863 के लिए मोज़े
-0.4559 लिनोवो के टैब्लेट्स
-0.1549 से लेकर हज़ार
-0.1549 पर नकद भुगतान
-0.1549 <s> वायरलेस रिपीटर
-0.4559 <s> जीवन बीमा
-0.1549 और स्क्रब्स </s>
-0.1549 जन्मदिन का उपहार
-0.4559 <s> पैनासोनिक डीवीडी
-0.1549 <s> कांजीवरम साड़ी
-0.1549 इंच एच डी
-0.1549 महाराजा जूते </s>
-0.1549 इक्कीस इंची टी
-0.4559 पेन ड्राइव थर्टी
-0.1549 की गाड़ियाँ </s>
-0.1549 ज़ोलो फ़ोन </s>
-0.1549 स्टाइलिश साड़ियाँ </s>
-0.1549 उम्र पंद्रह साल
-0.1549 के टैब्लेट्स </s>
-0.1549 बिल बनाइये </s>
-0.1549 <s> घरेलू फर्नीचर
-0.1549 <s> जी पी
-0.4559 <s> हेयर कंडीशनर
-0.1549 ऐम पी थ्री
-0.1549 के जूते </s>
-0.1549 इंडियन एयरलाइन्स </s>
-0.1549 बैग के साथ
-0.1549 <s> मिल्टन लंच
-0.1549 ऐस डी कार्ड
-0.1549 जैतून का तेल
-0.1549 के बीज </s>
-0.1549 के रोगियों के
-0.1549 और अन्य शीतल
-0.1549 <s> प्रेमचंद के
-0.1549 कूलर बारह लीटर
-0.1549 चार्जिंग केबल </s>
-0.1549 <s> टाइमैक्स वॉच
-0.1549 स्पोर्ट्स शूज़ </s>
-0.4559 वज़न करने की
-0.1549 सोलार पैनल्स </s>
-0.1549 परीक्षाओं के लिए
-0.1549 याददाश्त कैसे बढ़ाएं
-0.1549 रुपये से लेकर
-0.1549 <s> ओरियल स्किन
-0.4559 <s> पांच लीटर
-0.1549 मोहम्मद रफ़ी के
-0.1549 नापने के लिए
-0.1549 की डीवीडी </s>
-0.1549 कंप्यूटर मदरबोर्ड </s>
-0.1549 <s> कुर्ता पायजामा
-0.1549 <s> बूटेदार लैहेंगा
-0.1549 <s> पीटर इंग्लैंड
-0.1549 <s> चैरी ब्लॉसम
-0.1549 गुलाब जामुन </s>
-0.1549 रियल इस्टेट ऐंड
-0.1549 <s> किराए की
-0.1549 बिजली के उपकरण
-0.1549 बोर्ड के लिए
-0.1549 लक्ष्मीनारायण चिवड़ा </s>
-0.1549 दुल्हन का जोड़ा
-0.1549 तवा और कढ़ाई
-0.1549 बैग्स अमेरिकन टूरिस्टर
-0.1549 खाना पकाने के
-0.1549 यात्रा वृत्त </s>
-0.1549 बुढ़ापा रोकने के
-0.1549 गोदरेज प्रॉपर्टीज़ </s>
-0.4559 <s> कॉटन शर्ट्स
-0.1549 नैवीगेशन उपकरण </s>
-0.1549 में किराए का
-1.5863 के लिए यन्त्र
-0.1549 <s> डीलिंक राऊटर्स
-1.5863 के लिए पुस्तकें
-0.1549 <s> भजन संध्या
-0.1549 ई डी टी
-0.1549 कितनी है </s>
-0.1549 आबो हवा सुगन्धित
-0.1549 पैनासोनिक डीवीडी प्लेयर
-0.1549 ट्रैवल बैग्स अमेरिकन
-0.1549 <s> बत्तीस </s>
-0.1549 ज्योतिष परामर्श </s>
-0.1549 रत्न परामर्श </s>
-0.1549 शारीरिक देखभाल के
-0.1549 सीधे करने की
-0.1549 ट्रैक करना है
-0.1549 <s> बच्चों के
-0.1549 ब्ल्यूटूथ हैडसैट </s>
-0.1549 टमी ट्रिमर्स </s>
-0.1549 और कढ़ाई </s>
-0.1549 स्क्रीन गार्ड्स </s>
-0.1549 ग्रीष्म ऋतू </s>
-0.1549 <s> स्क्रीन गार्ड्स
-0.1549 पंचिंग मशीन </s>
-0.1549 <s> रोज़मर्रा की
-0.1549 <s> मेटल बॉक्स
-0.4559 <s> शू रैक
-0.1549 <s> आगे बढ़िये
-0.1549 टी शर्ट्स </s>
-0.1549 एस बी पेन
-0.1549 सत्य के प्रयोग
-0.1549 डिज़ाइनर क्लोद्स </s>
-0.1549 हनुमान शनि रक्षा
-0.1549 <s> टेबल लैम्प्स
-0.1549 अन्य शीतल पेय
-0.1549 मोटापा घटाने के
-0.1549 पावती बुक </s>
-0.1549 पिलो कवर </s>
-0.1549 बी पैन ड्राइव
-0.1549 प्राप्ति पर नकद
-0.1549 पतंजलि केशकांति बालों
-0.1549 तनिष्क गहने </s>
-0.1549 स्कूली बच्चों के
-0.1549 <s> आईएएस का
-0.1549 डी टी वी
-0.1549 <s> कोलगेट टूथपेस्ट
-0.1549 सौंदर्य प्रसाधन </s>
-0.1549 का जोड़ा </s>
-0.1549 फुल एच डी
-0.1549 <s> मुफ्त डिलीवरी
-0.1549 <s> मूंगफली का
-0.1549 <s> बैडमिंटन रैकेट
-0.1549 चटनी बनाने के
-0.1549 की दवा </s>
-0.1549 हिंदी फ़िल्मों की
-0.4559 पी ऐस नैवीगेशन
-0.1549 इन करिए </s>
-0.1549 बुक स्टैंड </s>
-0.1549 शर्करा नापने के
-0.1549 डिजिटल कैमरा </s>
-0.1549 पैंसिल छीलने के
-0.1549 ऐक्स ऐल </s>
-0.1549 <s> आबो हवा
-0.1549 पैंटीन शैम्पू </s>
-0.1549 वॉरंटी और इन्श्यूरैंस
-0.1549 चनिया चोली </s>
-0.1549 कितना डिस्काउंट मिलेगा
-0.1549 <s> आदमियों के
-0.1549 लिए यन्त्र </s>
-0.1549 <s> सोलार पैनल्स
-0.1549 सिल्क ड्रैस मटीरियल
-1.5863 के लिए गाइड
-0.1549 टी वी </s>
-0.1549 <s> फ्लिपकार्ट में
-0.1549 चीनी मिटटी के
-0.4559 पी ऐस </s>
-0.1549 सप्लाई ट्वैल्व वॉट
-0.1549 के साथ </s>
-0.1549 बूटेदार लैहेंगा </s>
-0.1549 ऐक्सटर्नल हार्ड डिस्क्स
-0.1549 माइक्रोवेव सेफ </s>
-0.1549 ज़ैब्रोनिक्स ब्ल्यूटूथ अडैप्टर
-0.1549 <s> क्रिकेट बैट
-0.1549 स्किन केयर </s>
-0.1549 <s> बहत्तर इंच
-0.1549 से बम्बई तक
-0.1549 टेबल लैम्प्स </s>
-0.1549 <s> डिजिटल कैमरा
-0.1549 <s> स्कूल यूनिफॉर्म
-0.1549 आवश्यकताओं का सामान
-0.1549 जीवन बीमा </s>
-1.5863 के लिए स्टैंड
-0.1549 कार स्पीकर्ज़ ऐंड
-0.1549 <s> ज़ोलो फ़ोन
-0.6320 के कपड़े उम्र
-0.1549 <s> स्टैपलर </s>
-0.1549 लिए चाक़ू </s>
-0.1549 लिए जूते </s>
-0.1549 सूखे मेवा </s>
-0.4559 <s> जीवन वृत्तान्त
-0.1549 उपन्यास मोहन राकेश
-0.1549 <s> जन्मदिन का
-0.1549 कम उम्र के
-0.1549 आउट मसक्युटो रिपीलेंट
-0.1549 <s> नोटबुक्स </s>
-0.1549 पैस्ट्रीज़ सैंडविच मेकर
-0.4559 <s> आज की
-0.1549 कुर्ता पायजामा और
-0.1549 थ्री प्लेयर </s>
-0.1549 शरबत और अन्य
-0.1549 रंगीन छतरी </s>
-0.1549 <s> सिक्सटीन जी
-0.1549 <s> स्मरण शक्ति
-0.1549 डिस्क वन टी
-0.1549 <s> लॉजीटैक ब्ल्यूटूथ
-0.1549 शनि रक्षा यंत्र
-0.1549 <s> महाराजा जूते
-0.1549 <s> दस वर्ष
-0.1549 <s> मीडियम </s>
-0.1549 <s> गोल्डन स्टील
-0.1549 में इन करिए
-0.1549 बैडमिंटन रैकेट </s>
-0.1549 जी बी </s>
-0.1549 रफ़ी के गीत
-0.1549 कूद का सामान
-0.1549 कॉटन सिल्क ड्रैस
-0.1549 <s> ज्योतिष परामर्श
-0.1549 की पुस्तकें </s>
-0.1549 डीवीडी प्लेयर </s>
-0.1549 आगे बढ़िये </s>
-0.1549 <s> सफ़ारी </s>
-0.1549 बालों का तेल
-0.1549 लक्ज़ूरी वॉचेस </s>
-0.1549 केशकांति बालों का
-0.1549 <s> चलते पुर्जे
-0.1549 <s> तनिष्क गहने
-0.1549 ऐक्शन स्पोर्ट्स शूज़
-0.1549 शीतल फैशन </s>
-0.1549 <s> बजाज पल्सर
-0.1549 <s> थर्मामीटर </s>
-0.1549 <s> आठ </s>
-0.1549 मोबाइल चार्जिंग केबल
-0.1549 <s> तंदूर </s>
-0.1549 <s> दिल्ली बोर्ड
-0.1549 रोज़मर्रा की चीज़ें
-0.1549 <s> उपन्यास मोहन
-0.1549 के गिलास </s>
-0.1549 का तेल </s>
-0.1549 फ्लिपकार्ट में इन
-0.1549 निरमा वॉशिंग पाउडर
-0.1549 सौ रुपये से
-0.1549 बढ़ाने के लिए
-0.1549 लार्ज साइज़ </s>
-0.1549 मिल्टन लंच बॉक्स
-0.1549 लड़की के कपड़े
-0.1549 लेडीज़ ब्लाउज़ </s>
-0.4559 वज़न करने का
-0.1549 अमेरिकन टूरिस्टर </s>
-0.1549 <s> गणेश अथर्वशीर्ष
-0.1549 <s> जीन्स फॉर
-0.1549 <s> वॉरंटी और
-0.1549 <s> हैदराबाद में
-0.1549 <s> चॉकलेट सॉस
-0.1549 <s> इनफोकस बिंगो
-0.1549 <s> हार्ड डिस्क
-0.1549 कौन बनेगा करोड़पति
-0.1549 स्टील के बर्तन
-0.4559 <s> पेन स्टैंड
-0.1549 का मुरब्बा </s>
-0.1549 दिवाली के पटाखे
-0.1549 <s> ऑर्डर ट्रैक
-0.1549 के बर्तन </s>
-0.1549 पल्सर मोटरसाइकिल </s>
-0.1549 स्पीकर्ज़ ऐंड ट्वीटर्स
-0.1549 वॉटर प्रूफ़ </s>
-0.1549 <s> रोटी बनाने
-0.1549 माइक्रोमैक्स स्पार्क जे
-0.1549 रोटी बनाने की
-0.1549 लिए इत्र </s>
-0.5528 <s> सैमसंग के
-0.1549 डबल डोर </s>
-0.1549 टी बी </s>
-0.1549 ड्युअल सिम स्मार्टफ़ोन
-0.1549 <s> टमी ट्रिमर्स
-0.1549 कांच के गिलास
-0.1549 सैमसंग फुल एच
-0.1549 <s> ऐक्शन स्पोर्ट्स
-0.1549 <s> पैंटीन शैम्पू
-0.1549 बिलोने की मशीन
-0.1549 <s> मच्छर भगाने
-0.1549 कॉटन ट्राउज़र्स </s>
-0.1549 <s> आयुर्वेदिक औषधियाँ
-0.1549 <s> सर्दियों के
-1.2852 के लिए टी
-0.1549 <s> नया आगमन
-0.1549 पकाने के बर्तन
-0.1549 बादाम के लड्डू
-0.1549 <s> सत्य के
-0.1549 करने के लिए
-0.4559 <s> कॉटन सिल्क
-0.1549 घर का फर्नीचर
-0.1549 <s> आटा चक्की
-0.1549 रैडी ऐल ई
-0.1549 <s> ओके साबुन
-0.1549 विकास कैसे करें
-0.1549 नया आगमन </s>
-0.1549 बी अडैप्टर </s>
-0.1549 प्रेशर कुकर </s>
-0.1549 हज़ार रुपये तक
-0.1549 की पिक्चरें </s>
-0.1549 की मिठाई </s>
-0.1549 <s> पुणे रियल
-0.1549 <s> याददाश्त कैसे
-0.1549 जी स्मार्टफ़ोन </s>
-0.1549 बारह लीटर </s>
-0.1549 अमिताभ बच्चन की
-0.1549 से ज्यादा </s>
-0.1549 <s> लक्ष्मीनारायण चिवड़ा
-0.1549 हेयर कंडीशनर </s>
-0.1549 <s> अमिताभ बच्चन
-0.1549 आयुर्वेदिक औषधियाँ </s>
-1.5863 के लिए उपकरण
-0.1549 <s> ज्यादा से
-0.1549 जौर्जेट साड़ी </s>
-0.1549 <s> इडली बनाने
-0.1549 बनारसी साड़ी </s>
-0.1549 ड्रैस मटीरियल </s>
-0.4559 <s> दिवाली की
-0.1549 दैनिक आवश्यकताओं का
-0.1549 ओमरौन वज़न करने
-0.1549 <s> कम से
-0.4559 से कम </s>
-0.1549 <s> घर का
-0.1549 मच्छर भगाने की
-0.1549 <s> लैक्मे कॉस्मेटिक्स
-0.1549 वॉटर बॉटल </s>
-0.1549 पायजामा और शेरवानी
-0.1549 खादी का कुर्ता
-0.1549 चप्पलों के लिए
-0.4559 एच डी ऐल
-0.4559 <s> वज़न करने
-0.1549 <s> प्लास्टिक बैग्स
-0.1549 दिवाली की मिठाई
-0.1549 के प्रेशर कुकर
-0.1549 पंद्रह साल </s>
-0.1549 अंक गणित के
-0.1549 <s> चीनी मिटटी
-0.1549 फॉर गर्ल्स </s>
-0.1549 प्रतिस्पर्धात्मक परीक्षाओं के
-0.1549 वन टी बी
-0.1549 टच स्क्रीन मोबाइल
-0.1549 सीखने के लिए
-0.1549 छीलने के लिए
-0.1549 करने का काँटा
-0.1549 <s> डाइनिंग सैट
-0.1549 सोलह जी बी
-0.1549 <s> हिंदी फ़िल्मों
-0.4559 लिनोवो के मोबाइल
-0.1549 सलवार कुर्ता </s>
-0.1549 चैरी ब्लॉसम </s>
-0.4559 <s> कंप्यूटर मदरबोर्ड
-0.1549 बंगाली मिठाई </s>
-0.1549 क्रिकेट बैट </s>
-0.1549 <s> पिस्ता बर्फी
-0.4559 एच डी रैडी
-0.1549 <s> मच्छरदानी </s>
-0.1549 <s> विदेश शिक्षा
-0.1549 <s> ओशो का
-0.1549 प्रकाशन की पुस्तकें
-0.1549 करने की मशीन
-0.1549 आम का मुरब्बा
-0.1549 बी पेन ड्राइव
-0.1549 दस वर्ष से
-0.1549 <s> आत्मकथा </s>
-0.1549 लिए मशीन </s>
-0.4559 <s> हनुमान शनि
-0.1549 <s> जैतून का
-0.1549 <s> लिव इन
-0.1549 <s> लेडीज़ ब्लाउज़
-0.1549 <s> आयबॉल गैजेट्स
-0.1549 <s> निरमा वॉशिंग
-0.1549 <s> पूजा सामग्री
-0.1549 करना है </s>
-0.1549 लिक प्रूफ़ </s>
-0.1549 के लैपटॉप्स </s>
-0.1549 <s> रस बनाने
-0.1549 <s> व्हर्लपूल रेफ्रीजिरेटर
-0.1549 होटल का खाना
-0.1549 <s> ड्युअल सिम
-0.1549 डी कार्ड </s>
-0.1549 रोकने के लिए
-0.1549 <s> डिज़ाइनर क्लोद्स
-0.1549 <s> चैकआउट करिए
-0.1549 लखानी शूज़ </s>
-0.1549 का साहित्य </s>
-0.1549 <s> गरम मसाले
-0.1549 लॉजीटैक ब्ल्यूटूथ हैडसैट
-1.5863 के लिए किताबें
-0.1549 <s> रात्रि भोजन
-0.4559 बच्चों के लिए
-0.1549 आटा चक्की </s>
-0.1549 पैंसिल रबर </s>
-0.1549 <s> लम्बे व्यक्तियों
-0.4559 <s> शू पॉलिश
-0.1549 <s> बनारसी साड़ी
-0.1549 <s> एक लाख
-0.1549 <s> ट्रैवल बैग्स
-0.1549 मोहन राकेश के
-0.1549 <s> लस्सी </s>
-0.1549 स्क्रीन मोबाइल </s>
-0.1549 वॉशिंग पाउडर </s>
-0.1549 मैमोरी कार्ड </s>
-0.1549 <s> सुबह का
-0.1549 एट जी बी
-0.1549 <s> फोर जी
-0.1549 थर्टी टू जी
-0.1549 <s> बरसाती कपड़े
-0.1549 सुबह का नाश्ता
-0.8539 <s> सैमसंग मोबाइल
-0.1549 पॉवर सप्लाई ट्वैल्व
-0.1549 खेल कूद का
-0.1549 भगाने की दवा
-0.1549 विंडोज़ सॉफ्टवेयर </s>
-0.1549 किराया पावती बुक
-0.1549 गैलैक्सी नोट टू
-0.1549 <s> दुल्हन का
-0.1549 बाल सीधे करने
-0.8539 <s> सैमसंग फुल
-0.1549 <s> बिजली के
-0.4559 <s> आज का
-0.1549 लेकर हज़ार रुपये
-0.1549 <s> व्यापारिक वाहन
-0.1549 <s> गोदरेज प्रॉपर्टीज़
-0.1549 की मशीन </s>
-0.1549 मोबाइल नौ हज़ार
-0.1549 का फर्नीचर </s>
-0.1549 बरसाती कपड़े </s>
-0.1549 <s> दो रुपये
-0.1549 फिलिप्स ऐडवांस्ड ट्रीमर
-0.1549 ओलिव ऑइल </s>
-0.1549 सैंडविच मेकर </s>
-0.1549 चर्बी कम करने
-0.1549 की किताबें </s>
-0.1549 लिए मोज़े </s>
-0.1549 <s> माइक्रोमैक्स स्पार्क
-0.1549 <s> प्रतिस्पर्धात्मक परीक्षाओं
-0.1549 ऐक्सक्ल्यूज़िव ऑफर </s>
-0.1549 <s> खरबूजे के
-0.1549 <s> जौर्जेट साड़ी
-0.4559 सैमसंग के लैपटॉप्स
-0.1549 पांच लीटर के
-0.1549 बहत्तर इंच एच
-0.1549 ब्ल्यूटूथ अडैप्टर </s>
-0.1549 <s> स्टील के
-0.1549 लिए किताबें </s>
-0.1549 <s> लैपटॉप रैम
-0.1549 <s> इक्कीस इंची
-0.1549 आज का अखबार
-0.1549 <s> डोसा तवा
-0.1549 <s> किचन फिटिंग्स
-0.1549 थैले के साथ
-0.1549 पूजा सामग्री </s>
-0.1549 चॉकलेट सॉस </s>
-0.1549 पैनासोनिक टी वी
-0.1549 <s> झूमर </s>
-0.1549 <s> ऐम पी
-0.1549 <s> सूखे मेवा
-0.4559 <s> बाल सीधे
-0.1549 <s> अति सुरक्षित
-0.1549 के स्मार्टफ़ोन </s>
-0.1549 का नाश्ता </s>
-0.1549 रीयल इस्टेट ऐंड
-0.1549 <s> माइक्रोफोन </s>
-0.5449 के लिए </s>
-0.1549 व्यापारिक वाहन </s>
-0.1549 <s> ग्रीष्म ऋतू
-0.1549 <s> रामदेव बाबा
-0.4559 पेन ड्राइव </s>
-0.1549 बिंगो ट्वैंटी वन
-0.1549 लिए स्टैंड </s>
-0.1549 <s> चितले बाकरवड़ी
-0.1549 <s> विंटर क्लोदिंग
-0.4559 <s> पांच सौ
-0.1549 <s> पतंजलि केशकांति
-0.1549 की दूरी कितनी
-0.1549 दो रुपये </s>
-0.1549 <s> अरिहंत प्रकाशन
-0.1549 व्हर्लपूल रेफ्रीजिरेटर </s>
-0.1549 सिम स्मार्टफ़ोन </s>
-0.1549 <s> साज श्रृंगार
-0.1549 स्टील वॉच </s>
-0.1549 <s> बजेट मोबाइल
-0.1549 बाल काले करने
-0.1549 का पाठ्यक्रम </s>
-0.1549 <s> प्राप्ति पर
-0.1549 बल्ब होल्डर </s>
-0.1549 <s> ऐक्सक्ल्यूज़िव ऑफर
-0.1549 हॉकिन्स प्रैशर कुकर
-0.1549 यू ऐस बी
-0.1549 शंकर पार्वती की
-0.1549 हार्ड डिस्क्स </s>
-0.1549 <s> माइक्रोवेव सेफ
-0.1549 <s> इंडियन एयरलाइन्स
-0.1549 <s> शारीरिक देखभाल
-0.1549 हनुमान चालीसा </s>
-0.1549 रस बनाने के
-0.1549 इंची टी वी
-0.1549 डाटा कार्ड </s>
-0.1549 वर्ष से कम
-0.1549 प्लास्टिक बैग्स </s>
-0.1549 जीन्स फॉर गर्ल्स
-0.1549 काले करने के
-0.1549 <s> लिनोवो के
-0.1549 <s> लक्ज़ूरी वॉचेस
-0.1549 <s> बुक स्टैंड
-0.1549 <s> पीछे जाइए
-0.1549 <s> कौन बनेगा
-0.4559 <s> दिवाली के
-0.1549 ट्वैंटी वन </s>
-0.1549 के पटाखे </s>
-0.1549 ट्वैल्व वॉट </s>
-0.1549 रोगियों के लिए
-0.1549 शू पॉलिश </s>
-0.1549 <s> शीतल फैशन
-0.1549 <s> ऐस डी
-0.1549 दही बिलोने की
-0.1549 स्पार्क जे थ्री
-0.1549 मधुमेह के रोगियों
-0.1549 इंग्लिश की किताबें
-0.4559 <s> पैंसिल छीलने
-0.1549 बनाने की मशीन
-0.6320 <s> यू एस
-0.1549 का उपहार </s>
-0.1549 प्रैशर कुकर </s>
-0.1549 <s> बल्ब होल्डर
-0.1549 <s> पारिवारिक पोषण
-0.1549 विदेश शिक्षा </s>
-0.1549 भजन संध्या </s>
-0.1549 किराए की गाड़ियाँ
-0.1549 <s> बिल बनाइये
-0.1549 डाबर च्यवनप्राश </s>
-0.1549 लिए गाइड </s>
-0.1549 सिंगल डोर </s>
-0.1549 लैक्मे कॉस्मेटिक्स </s>
-0.1549 जी पी ऐस
-0.1549 <s> रक्त शर्करा
-0.1549 <s> एक्सटेंडेड इन्श्यूरैंस
-0.1549 <s> फुटबॉल </s>
-0.1549 वॉश और स्क्रब्स
-0.4559 <s> वज़न बढ़ाने
-0.1549 <s> लौरियल </s>
-0.1549 <s> बेंगलूरू </s>
-0.1549 उंचाई बढ़ाने के
-0.1549 का कुर्ता </s>
-0.1549 स्कूल यूनिफॉर्म </s>
-0.1549 ऐडवांस्ड ट्रीमर </s>
-0.1549 गरम मसाले </s>
-0.1549 बजेट मोबाइल नौ
-0.1549 <s> ब्लड प्रेशर
-0.1549 ओशो का साहित्य
-0.1549 जे थ्री </s>
-0.1549 नकद भुगतान </s>
-0.1549 <s> अनारकली </s>
-0.1549 बम्बई तक की
-0.1549 मैसूर पाक </s>
-0.1549 <s> गुलाब जामुन
-0.4559 <s> बाल काले
-0.1549 दिल्ली बोर्ड के
-0.1549 <s> दौड़ने के
-0.1549 जूते चप्पलों के
-0.4559 <s> कार जी
-0.1549 गणेश अथर्वशीर्ष </s>
-0.4559 <s> हनुमान चालीसा
-0.1549 की तस्वीरें </s>
-0.1549 <s> कांच के
-0.1549 चलते पुर्जे </s>
-0.1549 पीछे जाइए </s>
-0.1549 डी ऐल ई
-0.1549 देखभाल के लिए
-0.1549 <s> कथा साहित्य
-0.1549 सुरक्षित तिजोरी </s>
-0.1549 <s> रीयल इस्टेट
-0.1549 <s> खाना पकाने
-0.1549 उम्र के लिए
-0.1549 का काँटा </s>
-0.1549 कथा साहित्य </s>
-0.1549 ट्यूबलैस टायर </s>
-0.1549 पिस्ता बर्फी </s>
-0.1549 फोर जी स्मार्टफ़ोन
-0.1549 ऐंड ट्वीटर्स </s>
-0.1549 फाइनेंशियल सर्विसेज़ </s>
-0.1549 ऐंड फाइनेंशियल सर्विसेज़
-0.1549 <s> ऑल आउट
-0.1549 लिए डीवीडी </s>
-1.5863 के लिए शार्पनर
-1.5863 के लिए डीवीडी
-0.1549 <s> मोटापा घटाने
-0.1549 सब्जी काटने के
-0.1549 लिव इन जीन्स
-0.1549 <s> दुग्ध पदार्थ
-0.1549 जीवन वृत्तान्त </s>
-0.1549 <s> कितना डिस्काउंट
-0.1549 <s> सौंदर्य प्रसाधन
-0.1549 <s> ना चिपकने
-0.1549 मिटटी के बर्तन
-0.1549 एक्सटेंडेड इन्श्यूरैंस </s>
-0.1549 <s> पूना से
-0.1549 रामदेव बाबा </s>
-0.1549 सैमसंग गैलैक्सी नोट
-0.1549 <s> ब्रिफ केस
-0.1549 <s> यंत्र सामग्री
-0.1549 साज श्रृंगार </s>
-0.1549 मसक्युटो रिपीलेंट </s>
-0.1549 ऐल ई डी
-0.4559 <s> डबल ऐक्स
-0.1549 डबल ऐक्स ऐल
-0.1549 आईएएस का पाठ्यक्रम
-0.1549 पांच सौ रुपये
-0.1549 डाइनिंग सैट </s>
-1.5863 के लिए जूते
-0.1549 प्रोटीन बिस्कुट्स </s>
-0.1549 के उपन्यास </s>
-0.1549 चिपकने वाला तवा
-0.1549 <s> जलेबी </s>
-0.1549 <s> ट्यूबलैस टायर
-0.1549 रेड बेडशीट्स </s>
-0.1549 <s> खादी का
-0.1549 योग दर्शन </s>
-0.1549 टाइमैक्स वॉच </s>
-0.4559 <s> पैंसिल रबर
-0.1549 <s> रत्न परामर्श
-0.1549 बेबी केयर </s>
-0.1549 के गीत </s>
-0.1549 किचन फिटिंग्स </s>
-0.1549 की चीज़ें </s>
-0.1549 दुर्गा सप्तशती </s>
-0.1549 <s> खेल कूद
-0.1549 सुगन्धित करने के
-0.1549 <s> फिलिप्स ऐडवांस्ड
-0.1549 <s> पाठ्यपुस्तकें </s>
-0.1549 टू फ़्लिप कवर
-0.1549 पार्वती की तस्वीरें
-0.1549 <s> ओमरौन वज़न
-0.4559 <s> पैनासोनिक टी
-0.1549 <s> दैनिक आवश्यकताओं
-0.1549 <s> ऐक्सटर्नल हार्ड
-0.1549 <s> चॉपर </s>
-0.1549 ऐंड प्रॉपर्टीज़ </s>
-0.1549 <s> विंडोज़ सॉफ्टवेयर
-0.1549 पारिवारिक पोषण </s>
-0.1549 <s> टच स्क्रीन
-0.1549 प्रेमचंद के उपन्यास
-0.1549 <s> ओलिव ऑइल
-0.1549 लिए पुस्तकें </s>
-0.1549 के मोबाइल </s>
-0.1549 आयबॉल गैजेट्स </s>
-0.1549 <s> दही बिलोने
-0.1549 वज़न बढ़ाने के
-0.1549 शू रैक </s>
-0.4559 ऐस बी पैन
-0.1549 फ़्लिप कवर </s>
-0.1549 ओरियल स्किन केयर
-0.1549 हज़ार तक </s>
-0.1549 चैकआउट करिए </s>
-0.1549 कम करने के
-0.1549 <s> होटल का
-0.1549 अरिहंत प्रकाशन की
-0.8539 <s> सैमसंग गैलैक्सी
-0.1549 डीलिंक राऊटर्स </s>
-0.1549 का विकास कैसे
-0.1549 <s> थैले के
-0.1549 <s> कैनवास के
-0.1549 <s> मधुमेह के
-0.4559 इस्टेट ऐंड प्रॉपर्टीज़
-0.1549 राकेश के </s>
-0.1549 <s> एक्यूप्रैशर का
-0.1549 <s> शरबत और
-0.1549 के उपकरण </s>
-1.5863 के लिए इत्र
-0.1549 डोसा तवा </s>
-0.1549 पुणे रियल इस्टेट
-0.1549 हेयर ड्रायर </s>
-0.1549 <s> सब्जी काटने

\end\
