\data\
ngram 1=1358
ngram 2=1766
ngram 3=1620

\1-grams:
-1.1299 <s> -0.5537
-3.4309 ಇವರಲ್ಲಿ -0.6019
-3.4309 ಬೇಟೆ -0.6019
-3.4309 ಪಶುಪಾಲನೆ -0.5998
-2.2848 ಮತ್ತು -0.5995
-3.4309 ಕೃಷಿ -0.6019
-3.4309 ವೃತ್ತಿಗಳು -0.6019
-3.4309 ಜೀವಂತವಾಗಿವೆ -0.5686
-1.1299 </s> -0.6021
-3.1299 ಪ್ರಾಚೀನ -0.6017
-3.4309 ಕಾಲದಿಂದ -0.6016
-2.9538 ನಾಟಕ -0.5681
-3.1299 ಸಾಹಿತ್ಯದ -0.6017
-3.4309 ಉಲ್ಲೇಖಗಳಿರುವಂತೆ -0.5686
-3.4309 ಯಾಕೆಂದರೆ -0.6016
-2.9538 ಯಾವುದೇ -0.6016
-3.4309 ಅಭಿವೃದ್ದಿ -0.6019
-3.4309 ನಡೆಸಿಕೊಂಡು -0.6019
-3.4309 ಹೋಗಬೇಕಾದರೆ -0.6019
-3.4309 ಬಂಡವಾಳದ -0.6017
-3.1299 ಅವಶ್ಯಕತೆ -0.6016
-3.1299 ಇದ್ದೇ -0.6016
-3.1299 ಇದೆ -0.5686
-3.4309 ಟಿಎ -0.6019
-3.4309 ಇನ್ನೊಂದು -0.6019
-3.4309 ಭಾಗವಾಗಿದ್ದು -0.6019
-3.4309 ದಕ್ಷಿಣದ -0.6019
-3.4309 ಲ್ಯಾಟಿನ್ -0.6019
-3.4309 ಅಮೆರಿಕದೊಳಗೆ -0.6017
-3.1299 ವಿಸ್ತರಿಸಲು -0.6017
-3.4309 ಪ್ರಯತ್ನಿಸುತ್ತಿದೆ -0.5686
-3.1299 ಸಾಕಷ್ಟು -0.6016
-3.4309 ಬಿಡಿ -0.6019
-3.4309 ಕಥೆಗಳು -0.6019
-3.4309 ತುಳುವಲ್ಲಿ -0.6019
-3.4309 ಪ್ರಕಟವಾದರೂ -0.6019
-3.4309 ಪುಸ್ತಕರೂಪದಲ್ಲಿ -0.6019
-3.4309 ಬಂದುದು -0.6019
-3.4309 ಕಡಿಮೆ -0.5686
-3.1299 ಚಿತ್ರದುರ್ಗ -0.6016
-2.9538 ಜಿಲ್ಲೆಯ -0.6016
-3.4309 ಮೈಲಾರಪುರದ -0.6017
-3.1299 ಮೈಲಾರನ -0.6017
-3.4309 ದೇವಸ್ಥಾನದಲ್ಲಿ -0.6019
-3.4309 ಜಟಾಧಾರಿ -0.6019
-3.4309 ತಪಸ್ವಿಯ -0.6019
-3.4309 ರೂಪದಲ್ಲಿ -0.6019
-3.4309 ಹೆಗ್ಗಪ್ಪ -0.6019
-3.4309 ಪೂಜೆಗೊಳ್ಳುತ್ತಿರುವದು -0.6019
-3.4309 ಕುತೂಹಲಕರವಾಗಿದೆ -0.5686
-3.4309 ಮೈಲಾರಪುರದಲ್ಲಿ -0.6019
-3.4309 ಷಣ್ಮುಖನ -0.6019
-3.4309 ವಿಗ್ರಹದೊಂದಿಗೆ -0.6019
-3.4309 ಗಣಪತಿಯ -0.6019
-3.4309 ವಿಗ್ರಹವೂ -0.6019
-3.4309 ಇದೆಯೆಂದು -0.6019
-3.4309 ತಿಳಿದುಬರುತ್ತದೆ -0.5686
-3.4309 ಸಮಸ್ತ -0.6019
-3.4309 ಪರಿವಾರದ -0.6019
-3.4309 ಸಮಗ್ರ -0.6019
-3.4309 ಪರಿಚಯ -0.6013
-2.7320 ಇಲ್ಲಿ -0.5966
-3.4309 ನಡೆದಿಲ್ಲ -0.5686
-3.4309 ವಾಣಿಜ್ಯ -0.6017
-3.1299 ಬೆಳೆಗಳಿಗೆ -0.6017
-3.4309 ನೀಡಲಾದ -0.6019
-3.4309 ಅತಿಯಾದ -0.6019
-3.4309 ಪ್ರೋತ್ಸಾಹ -0.6017
-3.1299 ಅನೇಕ -0.6017
-3.4309 ಬಡ -0.6019
-3.4309 ರೈತರಿಗೆ -0.6000
-2.3170 ಹಾಗೂ -0.5987
-3.4309 ಜೀವನಾವಶ್ಯಕ -0.6017
-3.4309 ಮಾರಣಾಂತಿಕವಾಗಿತ್ತು -0.5686
-3.4309 ಇತಿಹಾಸಕಾರರು -0.6011
-2.6528 ಇದನ್ನು -0.6008
-2.9538 ರಾಜ್ಯದ -0.6013
-2.9538 ಅತ್ಯಂತ -0.6011
-3.1299 ಬೃಹತ್ -0.6017
-3.4309 ದಾಖಲೆಯೆಂದು -0.6019
-3.4309 ಪರಿಗಣಿಸಿದ್ದಾರೆ -0.5686
-2.8289 ಆದರೆ -0.6009
-3.4309 ಅನಕ್ಷರಸ್ಥ -0.6019
-3.4309 ಕರಿಯರು -0.6019
-3.4309 ಮತ -0.6019
-3.4309 ಹಾಕುವಂತಿರಲಿಲ್ಲ -0.5686
-2.8289 ಅಮೆರಿಕಾ -0.6014
-3.4309 ಸರಕಾರವು -0.6019
-3.4309 ಪ್ರಾರಂಭದಿಂದಲೂ -0.6019
-3.4309 ವರ್ಣಭೇದ -0.6019
-3.4309 ನೀತಿಯನ್ನು -0.6019
-3.4309 ಅನುಸರಿಸಲು -0.6019
-3.4309 ಕಾನೂನುನೀತಿಗಳನ್ನು -0.6019
-3.4309 ಮಾಡುತಿತ್ತು -0.5686
-3.4309 ಪುನಾರಚನೆಯ -0.6019
-3.4309 ಸಮಯದಲ್ಲಿ -0.6014
-3.4309 ಸೇನೆಯು -0.6019
-3.4309 ಅಮಾಯಕ -0.6019
-3.4309 ಕರಿಯರನ್ನು -0.6019
-3.4309 ಕೊಲ್ಲುವುದನ್ನು -0.6017
-3.1299 ಮಾತ್ರ -0.6017
-3.4309 ತಪ್ಪಿಸಿತು -0.5686
-3.4309 ಹಿಂದೂ -0.6019
-3.4309 ದ್ವೇಷಿಯೆಂದು -0.6019
-3.4309 ಹೆಸರಾದ -0.6019
-3.4309 ಔರಂಗಜೇಬನು -0.6017
-3.1299 ಕೂಡ -0.5972
-1.9685 ಈ -0.5961
-3.1299 ಮಠಕ್ಕೆ -0.6017
-3.4309 ಸನದು -0.6019
-3.4309 ಹಾಕಿಕೊಟ್ಟಿರುವುದೊಂದು -0.6019
-3.4309 ವಿಶೇಷ -0.5686
-3.1299 ಕಾಡಸಿದ್ಧೇಶ -0.6004
-2.8289 ತಾನು -0.6013
-3.4309 ಪರ್ವತೇಶನ -0.6019
-3.4309 ಅಂಗೈಯೊಳೊಗೆದಾತ -0.6019
-3.4309 ಭಕ್ತರಣುಗ -0.6017
-2.6528 ಎಂದು -0.6011
-3.4309 ಹೇಳಿಕೊಂಡಿರುವುದರಿಂದ -0.6019
-3.4309 ಈತ -0.6019
-3.4309 ಕ್ರಿ -0.5686
-3.4309 ಅಂಶ -0.6017
-3.1299 ಅವರಿಗೆ -0.6017
-3.4309 ಪೂರ್ಣ -0.6019
-3.4309 ಮನವರಿಕೆ -0.6019
-3.4309 ಯಾಗಿತ್ತು -0.5686
-3.4309 ಸವಾಯಿ -0.6019
-3.4309 ಮಲ್ಲಸರ್ಜನನ್ನು -0.6019
-3.4309 ಬ್ರಿಟೀಶರು -0.6019
-3.4309 ಶೋಧಿಸಲು -0.6019
-3.4309 ಸುರು -0.6019
-3.4309 ಮಾಡಿದ್ದರು -0.5686
-3.1299 ಅಲ್ಲದೆ -0.5972
-3.4309 ವೇಳೆಗಾಗಲೇ -0.6019
-3.4309 ಮರಾಠಿಗರ -0.6019
-3.4309 ಆಕ್ರಮಣಕಾರಿ -0.6019
-3.4309 ಪ್ರವೃತ್ತಿಗಳು -0.6019
-3.4309 ಹೆಚ್ಚಾಗತೊಡಗಿದ್ದವು -0.5686
-3.4309 ಸಮಿತಿಯು -0.6019
-3.4309 ವರದಿ -0.6019
-3.4309 ಸಿದ್ಧತೆಗೆ -0.6019
-3.4309 ನಾಡಿನಾದ್ಯಂತ -0.6019
-3.4309 ಕೈಗೊಂಡ -0.6019
-3.4309 ಪ್ರವಾಸಕ್ಕೆ -0.6019
-3.4309 ಪ್ರತಿರೋಧಗಳು -0.6019
-3.4309 ಕಂಡುಬಂದವು -0.5686
-3.4309 ಪ್ರಕಟಣೆಯು -0.6017
-3.1299 ಸಾಂಸ್ಕೃತಿಕ -0.6017
-3.4309 ಬಂಧುತ್ವದ -0.6019
-3.4309 ಹೆಜ್ಜೆಗುರುತಾಗಿದೆ -0.5686
-3.1299 ಕಾರಣ -0.5684
-3.4309 ಸಂಸ್ಕೃತಿ -0.6016
-2.9538 ಜನರ -0.6016
-3.4309 ಜೀವನದ -0.6019
-3.4309 ಉಸಿರಾಗಿದೆ -0.5686
-3.4309 ಮೇಲ್ಮಟ್ಟ -0.6019
-3.4309 ನಾಗರಿಕತೆಯ -0.6019
-3.4309 ಉನ್ನತ -0.6019
-3.4309 ವರ್ಗದ -0.6013
-2.7320 ಜನರು -0.6013
-3.4309 ವೈವಿಧ್ಯಮಯ -0.6019
-3.4309 ಉಡುಪುಗಳನ್ನು -0.6019
-3.4309 ಧರಿಸುತ್ತಿದ್ದರು -0.5686
-3.4309 ಪುರಾಣಶಾಸ್ತ್ರಗಳು -0.5998
-3.4309 ನೀತಿಕಥೆಗಳಲ್ಲಿ -0.6019
-3.4309 ಒಳ್ಳೆಯ -0.6019
-3.4309 ಕಾರ್ಯ -0.6019
-3.4309 ಮಾಡಿದವರಿಗೆ -0.6019
-3.4309 ಒಳ್ಳೆಯದಾಗುತ್ತದೆ -0.5686
-3.4309 ಪರಿಸ್ಥಿತಿಯು -0.6019
-3.4309 ಹಿಂಸಾತ್ಮಕ -0.6019
-3.4309 ರೂಪ -0.6019
-3.4309 ಪಡೆದು -0.6019
-3.4309 ಪೊಲೀಸರಿಂದ -0.6019
-3.4309 ಲಾಠಿ -0.6019
-3.4309 ಚಾರ್ಜು -0.6019
-3.4309 ಆಯಿತು -0.5686
-3.4309 ಉತ್ತರ -0.6016
-2.9538 ಕನ್ನಡ -0.6013
-3.4309 ಜಿಲ್ಲೆಯಲ್ಲಿ -0.6011
-2.6528 ಹೆಚ್ಚು -0.6003
-3.4309 ಚರ್ಚೆಗೆ -0.6019
-3.4309 ಒಳಗಾಗಿರುವ -0.6019
-3.4309 ಯೋಜನೆಗಳಲ್ಲಿ -0.6019
-3.4309 ಕೈಗಾ -0.6019
-3.4309 ಅಣುಸ್ಥಾವರವೂ -0.6008
-2.5278 ಒಂದು -0.5672
-3.4309 ಯೋಜನೆಯ -0.6019
-3.4309 ರೂವಾರಿ -0.6019
-3.4309 ಅಡ್ಮಿರಲ್ -0.6019
-3.4309 ಆಸ್ಕರ್ -0.6019
-3.4309 ಸ್ಟಾನ್ಲಿ -0.6019
-3.4309 ದಾವ್ಸನ್ -0.5686
-3.4309 ಕಾಗೆಗೆ -0.6019
-3.4309 ಆಹಾರ -0.6019
-3.4309 ಸಿಕ್ಕಿದರೆ -0.6019
-3.4309 ಸರಿ -0.6019
-3.4309 ಕೋಣನ -0.6019
-3.4309 ವೇದನೆ -0.6014
-2.8289 ಅದಕ್ಕೆ -0.6014
-3.4309 ತಿಳಿಯುವುದಿಲ್ಲ -0.5686
-3.4309 ಸ್ವಿಡ್ಜರ್ಲೆಂಡ್ನಲ್ಲಿ -0.6014
-3.4309 ನಡೆಸಿದ -0.6019
-3.4309 ಕ್ರಾಂತಿಕಾರಕ -0.6019
-3.4309 ಚಟುವಟಿಕೆಗಳಿಗಾಗಿ -0.6019
-3.4309 ಬಂಧಿತನಾದನು -0.5686
-3.4309 ಶೈಲಿಯನ್ನೂ -0.6019
-3.4309 ಕ್ರಮವನ್ನೂ -0.6019
-3.4309 ಅನುಸರಿಸಿಕೊಂಡು -0.6019
-3.4309 ಬೆಳವಣಿಗೆಯ -0.6019
-3.4309 ಹಂತದಲ್ಲಿದ್ದ -0.6019
-3.4309 ಆಡುಮಾತೊಂದನ್ನು -0.6019
-3.4309 ತಂದಾಗ -0.6019
-3.4309 ಉಂಟಾಗುವ -0.6019
-3.4309 ಸ್ಥಿತ್ಯಂತರವೇ -0.6019
-3.4309 ಸಾಕು -0.5686
-2.6528 ಬೇರೆ -0.5670
-3.4309 ಮೂಲದ -0.6019
-3.4309 ಕತೆಗಳನ್ನು -0.6017
-3.1299 ತುಳುವಿನಲ್ಲಿ -0.6017
-3.4309 ಬರೆಯಬಹುದು -0.5686
-3.4309 ಇರುವುದೆಲ್ಲಾ -0.6019
-3.4309 ಇರುವಂತೆಯೇ -0.6017
-3.1299 ಇರುವ -0.6017
-3.4309 ರೀತಿಯಲ್ಲೇ -0.6019
-3.4309 ಇರುವಲ್ಲೇ -0.6016
-2.9538 ಇವೆ -0.5686
-3.4309 ಉಡುಪಿಯ -0.6019
-3.4309 ಕಡೆಯಲ್ಲಿ -0.6019
-3.4309 ಇವರನ್ನು -0.6019
-3.4309 ಶೇರೆಗಾರರು -0.6011
-3.1299 ಕರೆಯುತ್ತಾರೆ -0.5686
-2.6528 ಇವರು -0.6009
-3.4309 ಶೈಕ್ಷಣಿಕವಾಗಿ -0.6017
-3.1299 ಆರ್ಥಿಕವಾಗಿ -0.6017
-3.4309 ಹಿಂದುಳಿದ್ದಿದ್ದಾರೆ -0.5686
-2.9538 ಏಕೆಂದರೆ -0.6014
-3.1299 ಇವರ -0.6014
-3.4309 ವೃತ್ತಿ -0.6019
-3.4309 ತಾಳೆ -0.6019
-3.4309 ಮರಗಳಿಂದ -0.6019
-3.4309 ಭಟ್ಟಿ -0.6019
-3.4309 ಇಳಿಸುವುದಾಗಿತ್ತು -0.5686
-3.4309 ಮದುವೆಯ -0.6019
-3.4309 ಕಾರ್ಯಗಳೆಲ್ಲಾ -0.6019
-3.4309 ವಧುವಿನ -0.6019
-3.4309 ಮನೆಯಲ್ಲಿಯೇ -0.6019
-3.4309 ನಡೆಯುತ್ತವೆ -0.5686
-3.4309 ನಿಜಾಮರಿಗೆ -0.6017
-3.4309 ಇರುವವರೆಗೆ -0.6019
-3.4309 ಹಿಂತಿರುಗಬಾರದೆಂದು -0.5974
-3.4309 ಸೈನಿಕರಿಗೆ -0.6019
-3.4309 ಆದೇಶ -0.6019
-3.4309 ನೀಡಲಾಯಿತು -0.5686
-3.1299 ಈಗ -0.6009
-3.4309 ಮೃತ -0.6019
-3.4309 ಶವಗಳನ್ನು -0.6019
-3.4309 ಹೊತ್ತೊಯ್ಯುವುದನ್ನು -0.6019
-3.4309 ನಿಲ್ಲಿಸಿದ್ದಾರೆ -0.5686
-2.9538 ಮದುವೆಗೆ -0.6009
-3.4309 ತಂದೆಯ -0.6019
-3.4309 ಸಹೋದರಿಯ -0.6019
-3.4309 ಮಗಳು -0.6019
-3.4309 ತಾಯಿಯ -0.6019
-3.4309 ಸಹೋದರನ -0.6019
-3.4309 ಮಗಳ -0.6017
-3.1299 ಸಂಬಂಧ -0.6017
-3.4309 ಸಾಧ್ಯವಿದೆ -0.5686
-3.4309 ವಿಧವೆ -0.6019
-3.4309 ವಿಧುರ -0.6000
-3.4309 ವಿಚ್ಛೇದಿತರ -0.6019
-3.4309 ವಿವಾಹಕ್ಕೆ -0.6019
-3.4309 ಅವಕಾಶವಿದೆ -0.5686
-3.4309 ರಂಗಸ್ವಾಮಿ -0.6019
-3.4309 ವೆಂಕಟರಮಣ -0.6019
-3.4309 ಸೂಗೂರೇಶ್ವರ -0.6019
-3.4309 ಎಲ್ಲಮ್ಮ -0.6019
-3.4309 ಇತ್ಯಾದಿ -0.6019
-3.4309 ದೇವರುಗಳನ್ನು -0.6011
-3.4309 ಪೂಜಿಸುತ್ತಾರೆ -0.5686
-3.4309 ಅವು -0.6019
-3.4309 ಬ್ರಿಟಿಶ್ -0.6019
-3.4309 ಸರ್ಕಾರಕ್ಕೆ -0.6019
-3.4309 ವ್ಯಾಪಾರ -0.6000
-3.4309 ಮಿಲಿಟರಿ -0.6017
-3.1299 ಉದ್ದೇಶಗಳಿಗೆ -0.6017
-3.4309 ಅನಿವಾರ್ಯವಾಗಿದ್ದವು -0.5686
-3.4309 ಉದಾಹರಣೆಗೆ -0.6019
-3.4309 ಕ್ಯಾಲ್ಸಿಯಂ -0.6019
-3.4309 ಮೆಗ್ನೀಷಿಯಂ -0.6019
-3.4309 ನೈಟ್ರೇಟ್ -0.6019
-3.4309 ಸಲ್ಫೇಟ್ -0.5998
-3.4309 ಸೋಡಿಯಂ -0.5686
-3.4309 ಸಾಮುದಾಯಿಕ -0.6019
-3.4309 ಉತ್ಪಾದನೆ -0.6000
-3.4309 ವೈಯಕ್ತಿಕ -0.6019
-3.4309 ಮಾಲಿಕತ್ವಗಳ -0.6019
-3.4309 ನಡುವಿನ -0.6019
-3.4309 ತಿಕ್ಕಾಟ -0.6017
-3.1299 ಪರಿಸರ -0.6009
-3.4309 ಚಳವಳಿಗಳ -0.6019
-3.4309 ನಿರ್ಧಾರಕ -0.6019
-3.4309 ಅಂಶವೂ -0.6017
-3.1299 ಆಗಿದೆ -0.5686
-3.4309 ಬಂಗೇರ -0.6019
-3.4309 ಮೂಡಬಿದಿರೆ -0.6016
-2.9538 ಅವರ -0.6016
-3.4309 ಕಥಾಸಂಕಲನ -0.5686
-3.4309 ಸಪ್ತವರ್ಷಗಳ -0.6019
-3.4309 ಸಮರವು -0.6019
-3.4309 ಆರಂಭವಾಗುವುದಕ್ಕೆ -0.6019
-3.4309 ಮೊದಲೇ -0.6019
-3.4309 ಅತ್ತ -0.6019
-3.4309 ಕಾಳಗದ -0.6019
-3.4309 ಕದ -0.6019
-3.4309 ತೆರೆದವು -0.5686
-3.4309 ಕೆನಡಿಯನ್ನರೊಡನೆ -0.6019
-3.4309 ವ್ಯವಹರಿಸುವಲ್ಲಿ -0.6011
-3.4309 ವಸ್ತುನಿಷ್ಠವಾದ -0.6019
-3.4309 ನೀತಿಗಳನ್ನು -0.6019
-3.4309 ಜಾರಿಗೆ -0.6019
-3.4309 ತಂದಿತು -0.5686
-3.4309 ಇವರಿಂದ -0.6019
-3.4309 ಪ್ರಾರಂಭವಾದ -0.6019
-3.4309 ಲ್ಯಾಟಿನ್ನರ -0.6017
-3.1299 ಪ್ರಮುಖ -0.6017
-3.4309 ನಗರವಾದ -0.6019
-3.4309 ರೋಂ -0.6019
-3.4309 ಮೊದಲು -0.6017
-3.1299 ನಗರ -0.6017
-3.4309 ರಾಷ್ಟ್ರವಾಗಿದ್ದಿತು -0.5686
-3.4309 ಅವರಲ್ಲಿ -0.6019
-3.4309 ಜಗಳವಾಗಿ -0.6019
-3.4309 ಭೂಮಿ -0.6017
-3.1299 ದೇವರ -0.6017
-3.4309 ಆಸ್ತಿಯನ್ನೆಲ್ಲ -0.6019
-3.4309 ತೆಗೆದು -0.6019
-3.4309 ಕೊಂಡು -0.6019
-3.4309 ಕೆಳಗೆ -0.6019
-3.4309 ಬಂದಳು -0.5686
-3.4309 ಒಬ್ಬನು -0.6019
-3.4309 ಮಾಡುವ -0.6019
-3.4309 ಅನ್ಯಾಯದಲ್ಲಿಯೂ -0.6019
-3.4309 ಯಾವುದೋ -0.6008
-3.4309 ತತ್ತ್ವವಿರಬಹುದು -0.5686
-3.4309 ಪತ್ನಿಯಾದವಳು -0.6019
-3.4309 ಕೆಟ್ಟು -0.6019
-3.4309 ಹೋದರೆ -0.6019
-3.4309 ಕೆಟ್ಟ -0.6019
-3.4309 ನಡತೆಯವಳಾದರೆ -0.6019
-3.4309 ಬಾಳೇ -0.6019
-3.4309 ಕೆಟ್ಟೀತು -0.5686
-2.4767 ಆ -0.5998
-3.4309 ಮರದ -0.6019
-3.4309 ನೆರಳಿನಿಂದಾಗಿ -0.6019
-3.4309 ಅದರಡಿಯ -0.6019
-3.4309 ಗಿಡಗಳು -0.6019
-3.4309 ಬೆಳಕು -0.6019
-3.4309 ಸಾರಗಳಿಲ್ಲದೆ -0.6019
-3.4309 ಸಾಯುತ್ತವೆ -0.5686
-3.4309 ಕುರಿಕೆಯೇ -0.6019
-3.4309 ಹಂದಿಯಾಗಿ -0.6019
-3.4309 ಕಾಣುವುದಕ್ಕೆ -0.6019
-3.4309 ಭಯವೇ -0.6017
-3.4309 ವಾಸೆಕೊಯ್ಯುವ -0.6017
-3.1299 ಪದ್ಧತಿ -0.6014
-3.1299 ಇದ್ದು -0.6017
-3.4309 ಕರಿಯಮ್ಮ -0.6013
-2.7320 ಎಂಬ -0.6009
-3.1299 ಸ್ತ್ರೀ -0.6017
-3.4309 ದೇವತೆಗೆ -0.6019
-3.4309 ನಡೆದುಕೊಳ್ಳುತ್ತಾರೆ -0.5686
-3.1299 ಹಿಂದೆ -0.6017
-3.4309 ತಿಳಿಸಿದಂತೆ -0.6019
-3.4309 ಪಾಮುಡ್ಲಾರು -0.6019
-3.4309 ವೀರನೊಬ್ಬ -0.6019
-3.4309 ಹೋರಾಡಿ -0.6019
-3.4309 ಮಡಿದ -0.6017
-3.1299 ಸ್ಮಾರಕ -0.6013
-3.4309 ಅದಾಗಿದೆ -0.5686
-3.4309 ದೇವರಾಗುವ -0.6019
-3.4309 ದಿನಗಳು -0.6019
-3.4309 ಶನಿವಾರ -0.5998
-3.4309 ಭಾನುವಾರ -0.5686
-2.9538 ನಂತರ -0.6011
-2.8289 ಬಂದ -0.6006
-3.4309 ನವ್ಯ -0.6019
-3.4309 ಸಾಹಿತಿಗಳು -0.6019
-3.4309 ಕಲಾಪ್ರಜ್ಞೆಯ -0.6019
-3.4309 ಕೊರತೆಯಿಂದ -0.6019
-3.4309 ನರಳಿದ -0.6019
-3.4309 ಸಾಹಿತ್ಯವಾಗಿ -0.6019
-3.4309 ಪ್ರಗತಿಶೀಲರನ್ನು -0.6019
-3.4309 ಗುರುತಿಸಿದ್ದಾರೆ -0.5686
-3.4309 ಇಂಗ್ಲೆಂಡ್ -0.6019
-3.4309 ಪ್ರವಾಸ -0.6014
-3.4309 ತಕ್ಕ -0.6019
-3.4309 ಭೂಮಿಕೆಯನ್ನು -0.6019
-3.4309 ಸಿದ್ಧಪಡಿಸಿತು -0.5686
-3.4309 ಬದಲಾಗಿ -0.6019
-3.4309 ಮೊದಲನೇ -0.6019
-3.4309 ಬೀರರಸನು -0.6019
-3.4309 ಅಂಧಾಸುರದ -0.6019
-3.4309 ಅಗ್ರಹಾರದ -0.6011
-2.6528 ಮೇಲೆ -0.6011
-3.4309 ಧಾಳಿಮಾಡಿದ -0.6019
-3.4309 ಉಲ್ಲೇಖ -0.6017
-3.4309 ಇಂದಿನ -0.6019
-3.4309 ಕಾರ್ಗಲ್ಲಿನ -0.6019
-3.4309 ಸಮೀಪದ -0.6019
-3.4309 ಬಿದಿರೂರು -0.6008
-3.4309 ಸ್ಥಾನಿಕ -0.6019
-3.4309 ಆಳ್ವಿಕೆಯ -0.6019
-3.4309 ಕೇಂದ್ರವಾಗಿತ್ತು -0.5686
-3.4309 ಕಾಣಿಸಿಕೊಳ್ಳದ -0.6019
-3.4309 ಎರಡು -0.6019
-3.4309 ವರ್ಗಗಳೆಂದರೆ -0.6019
-3.4309 ಮಹಾಜನರ -0.6000
-3.4309 ವರ್ತಕರು -0.5686
-3.4309 ಕಲಿಸೆಯ -0.6019
-3.4309 ಸೋಮನಾಥ -0.6019
-3.4309 ದೇವಾಲಯವನ್ನು -0.6019
-3.4309 ಬಿಟ್ಟರೆ -0.6019
-3.4309 ಉಳಿದವಕ್ಕೆ -0.6019
-3.4309 ಶಾಸನಾಧಾರಗಳಿಲ್ಲ -0.5686
-3.4309 ಹುಂಚದ -0.6019
-3.4309 ಕಮಟೇಶ್ವರ -0.6019
-3.4309 ದೇವಾಲಯಕ್ಕೆ -0.6019
-3.4309 ಈತನು -0.6017
-3.1299 ದಾನ -0.6017
-3.4309 ನೀಡಿದ್ದನು -0.5686
-3.4309 ಧೂಳಿ -0.6019
-3.4309 ಭತ್ತತೆರಿಗೆ -0.6011
-3.4309 ಕರೆಯಲಾಯಿತು -0.5686
-3.4309 ಪಾಲಪರೆ -0.6019
-3.4309 ಯುದ್ದದಿಂದಾಗಿ -0.6019
-3.4309 ಕೊಡಗಿನ -0.6019
-3.4309 ಅರಸನಿಗೆ -0.6011
-2.6528 ತನ್ನ -0.6011
-3.4309 ಅಧಿಕಾರವನ್ನು -0.6017
-3.4309 ಸಾಧ್ಯವಾಯಿತು -0.5686
-3.1299 ಸಣ್ಣ -0.6017
-3.4309 ಪುಟ್ಟ -0.6019
-3.4309 ಪಾಳೇಗಾರರನ್ನೂ -0.6019
-3.4309 ಸುಲಭವಾಗಿ -0.6019
-3.4309 ಸೋಲಿಸಿದ -0.6019
-3.4309 ಹೈದರ್ -0.6017
-3.1299 ಕೊನೆಗೆ -0.5972
-3.4309 ಇಕ್ಕೇರಿ -0.6019
-3.4309 ಸಂಸ್ಥಾನವನ್ನು -0.6019
-3.4309 ವಶಪಡಿಸಿಕೊಳ್ಳುವನು -0.5686
-3.4309 ದೊಂಬರ -0.6019
-3.4309 ಕಣಿಯನದು -0.6019
-3.4309 ಮಂದಾರರು -0.6019
-3.4309 ಸೃಷ್ಟಿಸಿದ -0.6019
-3.4309 ವಿಶಿಷ್ಟ -0.6017
-3.1299 ಪಾತ್ರ -0.5684
-3.4309 ವೇದವ್ಯಾಸೆರೆ -0.6019
-3.4309 ಪಾತೆರೊ -0.6017
-3.1299 ಹೀಗೆ -0.6016
-3.4309 ಅಭಿವ್ಯಕ್ತಗೊಂಡ -0.6019
-3.4309 ತಾತ್ತ್ವಿಕ -0.6019
-3.4309 ಗೀತೆಗಳು -0.6019
-3.4309 ಬೇರೆಯೇ -0.6019
-3.4309 ಆದ -0.6019
-3.4309 ಭಾವಲೋಕವೊಂದನ್ನು -0.6019
-3.4309 ಕಟ್ಟಿಕೊಡುತ್ತವೆ -0.5686
-3.4309 ರತ್ನವರ್ಮ -0.6019
-3.4309 ಹೆಗ್ಗಡೆ -0.6017
-2.8289 ತುಳು -0.6008
-3.4309 ರಚನಾ -0.6019
-3.4309 ಸ್ಪರ್ಧೆಯಲ್ಲಿ -0.6019
-3.4309 ಪ್ರಶಸ್ತಿ -0.6019
-3.4309 ಪಡೆದ -0.6014
-2.9538 ಸಾಮಾಜಿಕ -0.6013
-3.4309 ಸಾಹಿತ್ಯ -0.6019
-3.4309 ಅಕಾಡೆಮಿ -0.6019
-3.4309 ಮಂಗಳೂರು -0.6019
-3.4309 ಡೆ -0.5686
-3.4309 ತಮ್ಮಲರ -0.6019
-3.4309 ಅರ್ವತ್ತನ -0.6019
-3.4309 ಕೋಲದಂತಹ -0.6019
-3.4309 ನಾಟಕಗಳಲ್ಲಿ -0.6019
-3.4309 ಭೂತಕೋಲ -0.6019
-3.4309 ಅಳಿಯಕಟ್ಟು -0.6019
-3.4309 ಇತ್ಯಾದಿಗಳು -0.6019
-3.4309 ಬರುತ್ತವೆ -0.5686
-3.4309 ಜಾತೀಯತೆಯ -0.6017
-3.1299 ವಿರುದ್ಧ -0.6017
-3.4309 ನಿಲ್ಲುವವರು -0.6019
-3.4309 ಮೇಲ್ಜಾತಿಯ -0.6019
-3.4309 ಜನರೇ -0.6019
-3.4309 ಆಗಿರುವುದು -0.6019
-3.4309 ಕೃತಿಕಾರನ -0.6016
-3.4309 ಹಿನ್ನೆಲೆಯಿಂದ -0.6019
-3.4309 ಪ್ರಭಾವಿತವಾದ -0.6019
-3.4309 ವಿಚಾರವಾಗಿದೆ -0.5686
-3.4309 ಬಂಡವಾಳಶಾಹಿಯ -0.6019
-3.4309 ಪ್ರವೇಶದಿಂದ -0.6013
-3.4309 ಶ್ರೀಮಂತಿಕೆಗೆ -0.6011
-3.4309 ಬೆಲೆಕೊಟ್ಟು -0.6019
-3.4309 ತಮ್ಮ -0.6019
-3.4309 ಅಂತಸ್ತನ್ನು -0.6019
-3.4309 ಅಳೆಯತೊಡಗಿದರು -0.5686
-3.4309 ಮನಸಿನಿಂದೆರಗಿರುವನೆನಲೊ -0.6019
-3.4309 ಪಾತಕಿ -0.6019
-3.4309 ಬಂದು -0.6019
-3.4309 ಪಾವನನ -0.6019
-3.4309 ಚರಣಗಳಿಗೆ -0.5686
-3.4309 ಆನೆಗೊಂದಿ -0.6017
-3.1299 ನದಿಯ -0.6017
-3.4309 ಆಚೆಯ -0.6019
-3.4309 ಭಾಗದಲ್ಲಿ -0.6019
-3.4309 ನಮ್ಮ -0.6019
-3.4309 ಕಡೆಯಿಂದ -0.6019
-3.4309 ಆಚೆಗೆ -0.6019
-3.4309 ಹರಿಗೋಲುಗಳಲ್ಲಿ -0.6019
-3.4309 ದಾಟಿಹೋಗಬೇಕು -0.5686
-3.4309 ಹಳೆ -0.6000
-3.1299 ಹೊಸ -0.6016
-3.4309 ಒಡಂಬಡಿಕೆಗಳಲ್ಲಿಯೂ -0.6016
-2.9538 ಇದು -0.6014
-3.4309 ಧರ್ಮ -0.6019
-3.4309 ಎಂದೇ -0.6019
-3.4309 ವರ್ಣಿಸಲ್ಪಟ್ಟಿದೆ -0.5686
-3.4309 ಯೇಸು -0.6019
-3.4309 ಮಾನವಪ್ರೇಮ -0.6000
-3.4309 ತ್ಯಾಗಗಳ -0.6019
-3.4309 ಅಮರತತ್ವಗಳನ್ನು -0.6019
-3.4309 ಜಗತ್ತಿಗೆ -0.6019
-3.4309 ಬೋಧಿಸಿದನು -0.5686
-2.9538 ಕೇವಲ -0.6004
-3.1299 ಶತಮಾನದ -0.6017
-3.4309 ಅವಧಿಯಲ್ಲಿ -0.6017
-3.1299 ಅರಬ್ -0.6016
-3.4309 ಆಡಳಿತಗಾರರು -0.6019
-3.4309 ಸಂಘಟಿತರಾಗಿ -0.6019
-3.4309 ಸುಭದ್ರ -0.6019
-3.4309 ಸಾಮ್ರಾಜ್ಯ -0.6019
-3.4309 ಕಟ್ಟಿದರು -0.5686
-3.4309 ಸಮಾಜಮುಖಿ -0.6019
-3.4309 ಚಿಂತನೆಗಳ -0.6019
-3.4309 ವ್ಯಾಪಕ -0.6019
-3.4309 ಅಧ್ಯಯನ -0.6019
-3.4309 ಬದುಕಿನ -0.6019
-3.4309 ಸಂಕೀರ್ಣ -0.6019
-3.4309 ಲಕ್ಷಣಗಳ -0.6019
-3.4309 ಸ್ವರೂಪವನ್ನು -0.6016
-3.4309 ಪರಿಚಯಿಸುತ್ತದೆ -0.5686
-3.4309 ಬೆಳೆಸುವ -0.6019
-3.4309 ರಾಷ್ಟ್ರವು -0.6019
-3.4309 ಕೆಲವೊಂದು -0.6019
-3.4309 ಷರತ್ತುಗಳನ್ನು -0.6019
-3.4309 ಪಾಲಿಸಬೇಕು -0.5686
-3.4309 ಜೊತೆಗೆ -0.6011
-3.4309 ದೇಶದ -0.6019
-3.4309 ಹೆಚ್ಚುವರಿ -0.6019
-3.4309 ಜನಸಂಖ್ಯೆಗೆ -0.6019
-3.4309 ಉದ್ಯೋಗ -0.5998
-3.4309 ವಸ್ತು -0.6019
-3.4309 ಸೌಕರ್ಯವನ್ನು -0.6019
-3.4309 ಒದಗಿಸಲು -0.6019
-3.4309 ಸುಲಭವಾಗುತ್ತದೆ -0.5686
-3.4309 ಅದೇ -0.6019
-3.4309 ಕಾರಣಕ್ಕೆ -0.6017
-3.1299 ಪ್ರದೇಶಗಳ -0.6017
-3.4309 ಆಕ್ರಮಣಕ್ಕೆ -0.6019
-3.4309 ಅವಕಾಶಕ್ಕಾಗಿ -0.6019
-3.4309 ಇಸ್ರೇಲ್ -0.6019
-3.4309 ಸರಕಾರ -0.6019
-3.4309 ನಿರೀಕ್ಷಿಸುತ್ತಿತ್ತು -0.5686
-3.4309 ಕಾನೂನಿನಂತೆ -0.6019
-3.4309 ಉಲೇಮಾಗಳು -0.6016
-3.4309 ನ್ಯಾಯಾಲಯಕ್ಕೆ -0.6019
-3.4309 ನ್ಯಾಯಾಧೀಶರಾಗಿ -0.6019
-3.4309 ನೇಮಕಗೊಳ್ಳುವ -0.6019
-3.4309 ಸಾಧ್ಯತೆಯನ್ನು -0.6019
-3.4309 ತಡೆಯಲಾಯಿತು -0.5686
-3.4309 ಅಮೆರಿಕಾದ -0.6019
-3.4309 ಆಡಳಿತಕ್ಕೆ -0.6019
-3.4309 ಇದೊಂದು -0.6019
-3.4309 ಗಂಭೀರವಾದ -0.6019
-3.4309 ದೊಡ್ಡ -0.6019
-3.4309 ಪಿಡುಗಾಗಿತ್ತು -0.5686
-3.4309 ಕೃತ್ಯಗಳನ್ನು -0.6019
-3.4309 ತಡೆಗಟ್ಟಲೇಬೇಕೆಂಬ -0.6019
-3.4309 ಇಚ್ಛೆಯೊಂದಿಗೆ -0.6019
-3.4309 ಏಕಾಂಗಿಯಾಗಿ -0.6014
-3.4309 ಬಾಂಬರ್ -0.6019
-3.4309 ದಾಳಿಗೆ -0.6019
-3.4309 ಇಳಿಯಿತು -0.5686
-3.1299 ಕಾಲುವೆ -0.6017
-3.4309 ನಿಮಾರ್ಣವಾದ -0.6016
-3.4309 ಅದರಿಂದ -0.6017
-3.1299 ಬರುವ -0.6017
-3.4309 ಲಾಭ -0.6019
-3.4309 ಯಾರಿಗೆ -0.6019
-3.4309 ಸೇರಬೇಕಾದ್ದು -0.6013
-3.4309 ಕುತೂಹಲ -0.6019
-3.4309 ಹುಟ್ಟಿಕೊಂಡಿತು -0.5686
-3.4309 ನೀತಿಗಳಿಂದ -0.6019
-3.4309 ಅಮೆರಿಕಾವನ್ನು -0.6019
-3.4309 ಸಶಕ್ತ -0.6019
-3.4309 ರಾಷ್ಟ್ರವನ್ನಾಗಿ -0.6019
-3.4309 ಮಾಡಿದ -0.6019
-3.4309 ಮೆಕಿನ್ಲೆ -0.6019
-3.4309 ಸಹಜವಾಗಿ -0.6019
-3.4309 ಹೆಚ್ಚಿನ -0.6019
-3.4309 ಮತಗಳಿಂದ -0.6019
-3.4309 ವಿಜಯಗಳಿಸಿದನು -0.5686
-3.4309 ವ್ಯಾಪಾರದ -0.6019
-3.4309 ಲೆಕ್ಕ -0.6019
-3.4309 ಪತ್ರ -0.5998
-3.4309 ಜಮಾ -0.6019
-3.4309 ಖರ್ಚಿನ -0.6019
-3.4309 ವ್ಯವಹಾರವನ್ನು -0.6019
-3.4309 ಇಡುವುದರಲ್ಲಿ -0.6019
-3.4309 ಈಜಿಪ್ಟಿನ -0.6013
-3.4309 ಪ್ರಗತಿಯನ್ನು -0.6019
-3.4309 ಸಾಧಿಸಿದ್ದರು -0.5686
-3.1299 ಭೌಗೋಳಿಕವಾಗಿ -0.5998
-3.4309 ಎಲ್ಲ -0.6017
-3.1299 ಲಕ್ಷಣಗಳು -0.6008
-3.1299 ಯುರೋಪಿನ -0.6017
-3.4309 ರಾಷ್ಟ್ರಗಳಿಗೆ -0.6019
-3.4309 ಸಹಕಾರಿಯಾಗಿಯೇ -0.6019
-3.4309 ಇದ್ದುವು -0.5686
-3.1299 ಸತ್ತ -0.5684
-3.4309 ವ್ಯಕ್ತಿಯನ್ನು -0.6019
-3.4309 ರಾವಲುಕುಂಟೆಯಿಂದ -0.6019
-3.4309 ಬುಕ್ಕಂಬೂದಿ -0.6019
-3.4309 ಕೆರೆಯ -0.6019
-3.4309 ಅಂಗಳದಲ್ಲಿ -0.6019
-3.4309 ಹೂತು -0.6019
-3.4309 ಸಮಾಧಿಮಾಡಿದ್ದಾರೆ -0.5686
-3.1299 ಅಧಿಕಾರ -0.6000
-3.1299 ಸವಲತ್ತುಗಳ -0.6017
-3.4309 ಪ್ರಶ್ನೆಯೇ -0.6019
-3.4309 ಭೂಮಾಲೀಕ -0.6019
-3.4309 ಸಮಾಜದಲ್ಲಿ -0.6019
-3.4309 ಮುಖ್ಯವಾಗಿರುತ್ತದೆಯೇ -0.6017
-3.1299 ಹೊರತು -0.6017
-3.4309 ಭಾವನಾತ್ಮಕ -0.6019
-3.4309 ವಿಚಾರಗಳಲ್ಲ -0.5686
-3.1299 ಜನಪದ -0.6017
-3.4309 ಸಾಹಿತ್ಯವನ್ನು -0.6019
-3.4309 ಮಹಾಕಾವ್ಯಗಳಾಗಿ -0.6019
-3.4309 ನೋಡುವ -0.6019
-3.4309 ಪ್ರಯತ್ನಗಳೂ -0.6019
-3.4309 ನಡೆದಿವೆ -0.5686
-3.4309 ಏನೆಂದರೂ -0.6019
-3.4309 ಕರಿಯನೆ -0.6019
-3.4309 ಆಗಿದ್ದ -0.6019
-3.4309 ರಾಜನನ್ನು -0.6017
-3.1299 ಅವನು -0.6017
-3.4309 ಇಡಲ್ಕಾವ್ -0.6019
-3.4309 ನಂಬಕೂಡದೆಂದು -0.6019
-3.4309 ತನಗೆ -0.6019
-3.4309 ಅನಿಸುತ್ತದೆಂದ -0.5686
-3.4309 ಅಕ್ಕಪಕ್ಕ -0.6019
-3.4309 ಬಹು -0.6019
-3.4309 ಸುಂದರವಾಗಿದೆ -0.5686
-3.4309 ಭದ್ರತೆ -0.6019
-3.4309 ವಿಚಾರವಾಗಿ -0.6019
-3.4309 ಬೆದರಿಕೆ -0.6019
-3.4309 ಬಂದರೆ -0.6017
-3.1299 ಸೈನ್ಯ -0.6017
-3.4309 ಸಮೇತ -0.6019
-3.4309 ವಾಪಸ್ಸು -0.6017
-3.4309 ಹಕ್ಕನ್ನು -0.6019
-3.4309 ಬ್ರಿಟಿಷರು -0.6019
-3.4309 ಕಾಯ್ದಿರಿಸಿದರು -0.5686
-3.4309 ಹೀಗಾಗಿ -0.6019
-3.4309 ಈತನಿಗೆ -0.6019
-3.4309 ಇಂಗ್ಲೆಂಡ್ನ -0.6019
-3.4309 ಹಿತಾಸಕ್ತಿಗಳು -0.6019
-3.4309 ಪ್ರಮುಖವೆನಿಸಿದವೇ -0.6017
-3.4309 ನೂರಾರು -0.6019
-3.4309 ವರ್ಷಗಳಿಂದ -0.6014
-3.4309 ಪ್ರದೇಶಗಳಲ್ಲಿದ್ದ -0.6017
-3.4309 ಬಂಧುಗಳಲ್ಲ -0.5686
-3.4309 ವಿರೋಧಿಸಲು -0.6019
-3.4309 ಸ್ವಾತಂತ್ರ್ಯ -0.6019
-3.4309 ಕುವರರು -0.6019
-3.4309 ಹೋರಾಟಕ್ಕಿಳಿದರು -0.5686
-3.4309 ಪರಿವರ್ತನೆ -0.6019
-3.4309 ಕೆಲಸ -0.6017
-3.1299 ಯಶಸ್ವಿಯಾಗಿ -0.6017
-3.4309 ನಡೆಯಿತು -0.5686
-3.4309 ಮೊದಲ -0.6019
-3.4309 ಹಂತದ -0.5974
-3.4309 ಸಮಾಜವಾದಿಗಳಲ್ಲಿ -0.6019
-3.4309 ಮುಖ್ಯನಾದವನು -0.6019
-3.4309 ರಾಬರ್ಟ್ -0.6019
-3.4309 ಓವೆನ್ -0.5686
-3.4309 ಜನಸಾಮಾನ್ಯರ -0.6019
-3.4309 ಸ್ವತಂತ್ರ್ಯವನ್ನು -0.6019
-3.4309 ರಕ್ಷಿಸುವ -0.6019
-3.4309 ಯಾವ -0.6019
-3.4309 ಮಾರ್ಗಗಳೂ -0.6019
-3.4309 ಅಲ್ಲಿರಲಿಲ್ಲ -0.5686
-3.4309 ರಾಜಸ್ಥಾನವು -0.6017
-3.4309 ಸಚಿವರ -0.6019
-3.4309 ಸಮೂಹ -0.6019
-3.4309 ಇರುತ್ತಿತ್ತು -0.5686
-3.4309 ತೆರಿಗೆಗೆ -0.6019
-3.4309 ಸಂಬಂಧಪಟ್ಟ -0.6019
-3.4309 ಕ್ರಮ -0.6019
-3.4309 ಗಳಾದರಂತೂ -0.5974
-3.4309 ಇತ್ತು -0.5686
-3.4309 ಜತೆ -0.6019
-3.4309 ಬಟ್ಟೆಯಲ್ಲಿ -0.6019
-3.4309 ಓದು -0.6019
-3.4309 ಮುಗಿಸಿದವರಿದ್ದಾರೆ -0.5686
-3.4309 ದೇಹ -0.6019
-3.4309 ಸ್ಥೂಲವಾಗುತ್ತಿದ್ದಂತೆಯೇ -0.6019
-3.4309 ರಕ್ತದ -0.6019
-3.4309 ಒತ್ತಡ -0.6019
-3.4309 ಸಮಸ್ಯೆ -0.6019
-3.4309 ಕಂಡುಬರುವುದು -0.5686
-3.4309 ಅಮ್ಮನನ್ನು -0.6019
-3.4309 ಏಕೆ -0.6019
-3.4309 ನೋಯಿಸಬೇಕೆಂದು -0.6019
-3.4309 ನಾನು -0.6017
-3.1299 ಎಷ್ಟು -0.6016
-3.4309 ಸಾಧ್ಯವೋ -0.6019
-3.4309 ಅಷ್ಟು -0.6016
-2.9538 ಅವರು -0.6011
-3.4309 ಹೇಳಿದಂತೆ -0.6019
-3.4309 ನಡೆದುಕೊಂಡು -0.6019
-3.4309 ಬಿಡುತ್ತೇನೆ -0.5686
-3.4309 ಹೋದ -0.6019
-3.4309 ಮಗ -0.6019
-3.4309 ರಾತ್ರಿಯಾದರೂ -0.6019
-3.4309 ಬರಲಿಲ್ಲವೆಂದು -0.6019
-3.4309 ಕೋರ್ಲಮಲ್ಲಿನಾಯಕನಿಗೆ -0.6019
-3.4309 ಆತಂಕವಾಯಿತು -0.5686
-3.4309 ವೇಳೆ -0.6019
-3.4309 ಅಕಸ್ಮಾತ್ತಾಗಿ -0.6006
-3.4309 ದೇಶ -0.6016
-3.4309 ಕೈ -0.6019
-3.4309 ತಪ್ಪಿ -0.6019
-3.4309 ಹೋದರೂ -0.5686
-2.7320 ಇದೇ -0.6006
-3.1299 ಪೂರ್ವ -0.6017
-3.4309 ಏಷ್ಯಾದ -0.6016
-2.9538 ಆಧುನಿಕ -0.6013
-3.4309 ಇತಿಹಾಸ -0.6000
-3.1299 ಅದರ -0.6017
-3.4309 ಭವಿಷ್ಯವನ್ನು -0.6019
-3.4309 ತಿದ್ದುವಂಥದ್ದು -0.5686
-3.4309 ಶಿಕ್ಷಣ -0.6000
-3.4309 ಇತರೆ -0.6016
-3.4309 ವ್ಯವಸ್ಥೆಗಳ -0.6019
-3.4309 ಸೌಲಭ್ಯಗಳನ್ನು -0.6019
-3.4309 ಪಡೇದುಕೊಂಡು -0.6019
-3.4309 ಅಭಿವೃದ್ಧಿ -0.6019
-3.4309 ಸಾಧಿಸಬೇಕಾಗಿದೆ -0.5686
-3.4309 ಸಮುದಾಯದಲ್ಲಿ -0.6019
-3.4309 ಬರಿ -0.6019
-3.4309 ಎನ್ನುವ -0.6019
-3.4309 ಹೊರಬಾಂಧವ್ಯ -0.6019
-3.4309 ಬೆಡಗುಗಳು -0.6016
-3.4309 ಕುದುರೆಯೇರಿ -0.6019
-3.4309 ಉಳಿದಿದ್ದ -0.6017
-3.4309 ವಿಭಾಗಗಳೊಂದಿಗೆ -0.6019
-3.4309 ಮುನ್ನುಗ್ಗುತ್ತ -0.6019
-3.4309 ಓಡಿಬಂದಿದ್ದ -0.6019
-3.4309 ಪ್ರತಿಯೊಬ್ಬನನ್ನೂ -0.6019
-3.4309 ಕರುಣೆಯಿಲ್ಲದೆ -0.6019
-3.4309 ಕೊಲ್ಲಲು -0.6019
-3.4309 ಆಜ್ಞಾಪಿಸಿದ -0.5686
-3.4309 ಇವೆಲ್ಲ -0.6019
-3.4309 ಸುತ್ತಗಟ್ಟುಳ್ಳ -0.6017
-3.4309 ನಡುವೆ -0.6019
-3.4309 ಭತ್ತ -0.6019
-3.4309 ಬೆಳೆಯುವ -0.6019
-3.4309 ಬಯಲುಗಳು -0.5998
-3.4309 ಕಣಿವೆಗಳಿವೆ -0.5686
-3.4309 ಕೂಡಲೆ -0.6019
-3.4309 ಅವನಿಗೆ -0.6019
-3.4309 ಸಲಾಮು -0.6017
-3.1299 ಮಾಡಿ -0.6013
-3.4309 ಅವನಿಂದ -0.6019
-3.4309 ದೂರ -0.6019
-3.4309 ಗೋಡೆಗುಂಟ -0.6019
-3.4309 ನಿಲ್ಲುತ್ತಾರೆ -0.5686
-3.1299 ಅವನ -0.6016
-3.4309 ಪ್ರಕಾರ -0.6019
-3.4309 ಸ್ವಾಭಾವಿಕ -0.6019
-3.4309 ಆಯ್ಕೆಯ -0.6019
-3.4309 ರೂಪಾಂತರಕ್ಕೆ -0.6016
-3.4309 ಮಾಧ್ಯಮ -0.5686
-3.4309 ತದನಂತರ -0.6019
-3.4309 ಪೆಟ್ರೊಮ್ಯಾಕ್ಸ -0.6019
-3.4309 ಬಳಕೆ -0.6019
-3.4309 ಆರಂಭವಾಯಿತುಸಂಸ್ಕೃತಿ -0.5998
-3.1299 ಪಾಶ್ಚಾತ್ಯ -0.6017
-3.4309 ರಂಗಭೂಮಿಯ -0.6019
-3.4309 ನಾಟಕಗಳು -0.6019
-3.4309 ಕನ್ನಡಕ್ಕೆ -0.6019
-3.4309 ಅನುವಾದಗೊಂಡವು -0.5686
-3.4309 ಅವುಗಳಲ್ಲಿ -0.6019
-3.4309 ಪ್ರಚಲಿತವಿರುವ -0.6019
-3.4309 ದೇವಸ್ಥಾನವೆಂದರೆ -0.6019
-3.4309 ಹಂಪೆಯ -0.6019
-3.4309 ವಿರೂಪಾಕ್ಷ -0.5998
-3.4309 ಬೇಲೂರಿನ -0.6019
-3.4309 ಚೆನ್ನಕೇಶವ -0.6019
-3.4309 ದೇವಸ್ಥಾನ -0.6019
-3.4309 ಚಿತ್ರಗಳು -0.5686
-3.4309 ವೃತ್ತಿಯಲ್ಲಿ -0.6019
-3.4309 ಉಪನ್ಯಾಸಕರಾಗಿರುವ -0.6011
-3.4309 ಗ್ರಾಮದ -0.6019
-3.4309 ಕೆರೆ -0.6019
-3.4309 ಚಟುವಟಿಕೆಗಳು -0.6016
-3.4309 ನಡೆಯಲು -0.6011
-3.4309 ಕಾಳಜಿ -0.6019
-3.4309 ವಹಿಸಿದ್ದಾರೆ -0.5686
-3.4309 ಒಟ್ಟಾರೆ -0.6019
-3.4309 ಜೀವಿಯ -0.6019
-3.4309 ಅಳಿವುಉಳಿವು -0.6019
-3.4309 ಅರ್ಧ -0.6019
-3.4309 ಅಡಿ -0.6019
-3.4309 ಮಣ್ಣಿನ -0.6011
-3.4309 ನಿಂತಿದೆ -0.5686
-3.4309 ದೇವರಿಗೆ -0.6019
-3.4309 ಸೇರಿದ -0.6019
-3.4309 ನಾಯಕನಹಟ್ಟಿಯ -0.6019
-3.4309 ಶ್ರೀಮತಿ -0.6019
-3.4309 ಕಾಟಮ್ಮ -0.6019
-3.4309 ದಿ -0.5686
-3.4309 ಬೇರ್ -0.6019
-3.4309 ಪೊಯ್ಯೆಗ್ -0.6019
-3.4309 ಪೋತುಂಡು -0.6019
-3.4309 ಮರ -0.6019
-3.4309 ಕಡಲ್ಗ್ -0.6019
-3.4309 ದೆಂಗ್ದ್ಂಡ್ -0.5686
-3.4309 ಕಾಲದ -0.6019
-3.4309 ಬಗ್ಗೆ -0.6019
-3.4309 ಸರಿಯಾದ -0.6019
-3.4309 ತಿಳುವಳಿಕೆಯನ್ನು -0.6019
-3.4309 ಹೊಂದಲು -0.6019
-3.4309 ಯುರೋಪ್ -0.6019
-3.4309 ಖಂಡ -0.6019
-3.4309 ವನ್ನು -0.6019
-3.4309 ನಾಲ್ಕು -0.6019
-3.4309 ವಿಭಾಗಗಳಾಗಿ -0.6019
-3.4309 ವಿಂಗಡಿಸಬಹುದು -0.5686
-3.4309 ಹಿಂದಿನಂತೆ -0.6017
-3.1299 ಇದಕ್ಕೆ -0.6017
-3.4309 ತೊಡಕಾಗಿದ್ದ -0.6019
-3.4309 ನಿಯಂತ್ರಣ -0.6019
-3.4309 ವ್ಯವಸ್ತೆಯನ್ನು -0.6019
-3.4309 ನಿವಾರಿಸಲಾಗಿದೆ -0.5686
-3.4309 ಅಂತಹ -0.6019
-3.4309 ಸಂಶೋಧನೆಗೆ -0.6017
-3.4309 ಪ್ರಮಾಣದ -0.6017
-3.1299 ಆರ್ಥಿಕ -0.6017
-3.4309 ಸಹಾಯದ -0.6019
-3.4309 ಅಗತ್ಯವಿದ್ದು -0.6017
-3.1299 ಅದನ್ನು -0.6017
-3.4309 ಉದ್ಯಮರಂಗ -0.6019
-3.4309 ನೀಡಲು -0.6019
-3.4309 ಶಕ್ತವಾಗಿದೆ -0.5686
-3.4309 ಉದ್ಯೋಗದ -0.6019
-3.4309 ಸ್ವರೂಪ -0.5998
-3.4309 ಪ್ರಮಾಣದಲ್ಲಿಯೂ -0.6019
-3.4309 ಬಹಳಷ್ಟು -0.6019
-3.4309 ಬದಲಾವಣೆಗಳು -0.6019
-3.4309 ಆಗುತ್ತಿವೆ -0.5686
-3.4309 ಅಪಾರ -0.6017
-3.1299 ಹಣ -0.6017
-3.4309 ಗಳಿಸಿರುವ -0.6019
-3.4309 ಕಾರಣದಿಂದ -0.6019
-3.4309 ರಾಜ್ಯಗಳಿಗೆ -0.6017
-3.1299 ಅಥವಾ -0.6017
-3.4309 ದೇಶಕ್ಕೆ -0.6019
-3.4309 ಮುಖ್ಯವಾಗಿವೆ -0.5686
-3.4309 ಚೀನಾವು -0.6019
-3.4309 ಪ್ರಪಂಚದ -0.6019
-3.4309 ಕಾಲು -0.6019
-3.4309 ಭಾಗದ -0.6019
-3.4309 ಜನಸಂಖ್ಯೆಯನ್ನು -0.6017
-3.1299 ಹೊಂದಿರುವ -0.6017
-3.4309 ದೇಶವಾಗಿದೆ -0.5686
-3.4309 ಸುಧಾರಣೆ -0.6019
-3.4309 ಪರಿಪೂರ್ಣವಾದ -0.6019
-3.4309 ಫಲಿತಾಂಶ -0.6017
-3.1299 ಪಡೆಯಲು -0.6017
-3.4309 ಅಶಕ್ತ -0.6019
-3.4309 ವಾಯಿತು -0.5686
-3.4309 ಜಪಾನಿನ -0.6017
-3.4309 ಚಟುವಟಿಕೆಗಳಲ್ಲಿ -0.6011
-3.4309 ನಿಪುಣರಾಗಿದ್ದು -0.6019
-3.4309 ಹಣಕಾಸಿನಲ್ಲಿ -0.6019
-3.4309 ಶ್ರೀಮಂತರಾಗಿದ್ದರು -0.5686
-3.4309 ಜಪಾನೀಯರು -0.6019
-3.4309 ಅರಿಸ್ಟ್ರೋಕ್ರೇಟಿಕ್ -0.6019
-3.4309 ಚಳವಳಿ -0.6011
-3.4309 ಸಮಕಾಲೀನ -0.6019
-3.4309 ಐರೋಪ್ಯ -0.6019
-3.4309 ರಾಷ್ಟ್ರಗಳೊಂದಿಗೆ -0.6019
-3.4309 ಸ್ನೇಹ -0.6019
-3.4309 ಒಪ್ಪಂದಗಳನ್ನು -0.6019
-3.4309 ಏರ್ಪಡಿಸಿಕೊಂಡು -0.6019
-3.4309 ಜಪಾನ್ -0.6017
-3.4309 ಮಾದರಿಯ -0.6019
-3.4309 ಸರಕಾರದ -0.6019
-3.4309 ಪುನಾರಚನೆ -0.6019
-3.4309 ಮಾಡಿತು -0.5686
-3.4309 ಗ್ರಾಮ -0.6019
-3.4309 ಗುಡ್ಡಗಾಡು -0.6019
-3.4309 ಎಲ್ಲೆಡೆಗಳಲ್ಲಿಯೂ -0.6019
-3.4309 ವೈದ್ಯರಿದ್ದು -0.6016
-3.4309 ಆರೋಗ್ಯ -0.6017
-3.1299 ರಕ್ಷಣೆ -0.6017
-3.4309 ಮಾಡುತ್ತಿದ್ದಾರೆ -0.5686
-3.4309 ಎಲ್ಲಾ -0.6019
-3.4309 ಭೂಪ್ರದೇಶಗಳ -0.6013
-3.4309 ಸಾವಿರಾರು -0.6019
-3.4309 ವರ್ಷಗಳ -0.6017
-3.4309 ಸಮುದಾಯ -0.6017
-3.4309 ಪರಂಪರೆಯನ್ನು -0.6019
-3.4309 ಹೊಂದಿದ್ದರು -0.5686
-3.4309 ಜಾನಪದ -0.6017
-3.4309 ಎಲ್ಲೆಡೆ -0.6013
-3.4309 ಮಟ್ಟದ -0.6019
-3.4309 ಕಲ್ಪಕತೆಯನ್ನು -0.6019
-3.4309 ಬಯಸುವುದು -0.6019
-3.4309 ಸಮಂಜಸವೂ -0.6019
-3.4309 ಅಲ್ಲ -0.5686
-3.4309 ಮೈಸೂರು -0.6019
-3.4309 ಸಂಸ್ಥಾನ -0.6019
-3.4309 ಕೃಷಿಯಲ್ಲಿ -0.6019
-3.4309 ಅಳವಡಿಸಿದ -0.6019
-3.4309 ಬಂಡವಾಳಶಾಹಿ -0.6017
-3.4309 ಪರಿಪೂರ್ಣವಾಗಿರಲಿಲ್ಲ -0.6014
-2.8289 ಅದು -0.6006
-3.4309 ಅಲ್ಲಲ್ಲಿ -0.6019
-3.4309 ಚದುರಿತ್ತು -0.5686
-3.4309 ಮಧ್ಯರಾತ್ರಿ -0.6019
-3.4309 ಯಿಂದ -0.6019
-3.4309 ಹಿಡಿದು -0.6019
-3.4309 ಬೆಳಗಾದವರೆಗೆ -0.6019
-3.4309 ಬಳ್ಳಾರಿ -0.6017
-3.4309 ಉತ್ಸಾಹದ -0.6019
-3.4309 ಕಡಲಿನಲ್ಲಿ -0.6019
-3.4309 ಮುಳುಗಿದ್ದಿತು -0.5686
-3.4309 ಅದೆಲ್ಲಾ -0.6019
-3.4309 ನಾಗರಿಕ -0.6019
-3.4309 ಜನರಿಗೆ -0.6019
-3.4309 ಕಾಡುಕೋಳಿ -0.6019
-3.4309 ಅಂತ -0.6019
-3.4309 ಸಾಂಕೇತಿಕವಾಗಿ -0.6019
-3.4309 ಹೇಳಿರುವುದು -0.6019
-3.4309 ಕಾಡು -0.6019
-3.4309 ಜನರನ್ನು -0.5686
-3.4309 ಒಬ್ಬ -0.6017
-3.4309 ರೈತನ -0.6019
-3.4309 ಗದ್ದೆಯಲ್ಲಿ -0.6019
-3.4309 ಉತ್ತಮ -0.6019
-3.4309 ಬೆಳೆಯಾಗಿದೆ -0.5686
-3.4309 ಶ್ರಾವಣ -0.6019
-3.4309 ಆರಂಭವಾಗುವ -0.6019
-3.4309 ಸಂಕ್ರಮಣದಂದು -0.6019
-3.4309 ಬಾಗಿಲು -0.6019
-3.4309 ತೆರೆಯಬೇಕು -0.5686
-3.4309 ಆಧಾರ -0.6019
-3.4309 ಪ್ರಚಲಿತ -0.6019
-3.4309 ಗಾದೆ -0.5998
-3.4309 ಹಿಂದಿರುವ -0.6019
-3.4309 ಐತಿಹ್ಯ -0.5686
-3.4309 ದೊರೆತಿರುವ -0.6019
-3.4309 ಉದಾಹರಣೆಗಳಲ್ಲಿ -0.6019
-3.4309 ಹೆಚ್ಚಿನವು -0.6019
-3.4309 ಶಾಸನ -0.5998
-3.4309 ಲಕ್ಷಣಗ್ರಂಥಗಳಲ್ಲಿ -0.6019
-3.4309 ಉಪಲಬ್ಧವಾಗಿರುವಂತಹವು -0.5686
-3.4309 ಹಿರಿಯರು -0.6019
-3.4309 ನೆಂಟರು -0.6019
-3.4309 ಆತ್ಮೀಯರು -0.6019
-3.4309 ಉಡುಗೊರೆ -0.6019
-3.4309 ಕೊಟ್ಟು -0.6019
-3.4309 ಅಕ್ಷತೆ -0.6019
-3.4309 ಹಾಕಿ -0.6019
-3.4309 ಆಶೀರ್ವದಿಸುವರು -0.5686
-3.4309 ನಾಲ್ಕನೆಯ -0.6017
-3.4309 ಹೊತ್ತಿಗೆ -0.6016
-3.4309 ಎಂಟು -0.6017
-3.4309 ಒಂಬತ್ತು -0.6019
-3.4309 ರಾಜ್ಯಗಳು -0.6019
-3.4309 ಸ್ಪರ್ಧಿಗಳಾಗಿ -0.6019
-3.4309 ಉಳಿದವು -0.5686
-3.4309 ವಿರೋಧಿಸುವ -0.6019
-3.4309 ಧೋರಣೆಯೂ -0.6006
-3.4309 ದಿನಗಳಲ್ಲೇ -0.6019
-3.4309 ಕಾಣಿಸಿಕೊಂಡವು -0.5686
-3.4309 ಸ್ಥಳೀಯ -0.6019
-3.4309 ನಿವಾಸಿಗಳು -0.6017
-3.1299 ಹೋರಾಟ -0.6017
-3.4309 ನಡೆಸಿದರೂ -0.6014
-3.4309 ವೇದಿಕೆಯಾಯಿತು -0.5686
-3.4309 ಉಡುಕಿ -0.6016
-3.4309 ಬಾಂಧವರಿಗೆಲ್ಲ -0.6019
-3.4309 ಕುಡಿತ -0.6019
-3.4309 ಉಟೋಪಚಾರವನ್ನು -0.6019
-3.4309 ಮದುವೆಯಾಗುವ -0.6019
-3.4309 ಗಂಡ -0.6019
-3.4309 ಭರಿಸುತ್ತಾನೆ -0.5686
-3.4309 ದೇವರನ್ನು -0.6019
-3.4309 ಪೂಜಿಸಲು -0.6019
-3.4309 ವಿಶೇಷವಾದ -0.6019
-3.4309 ಸೇವಕರುಗಳನ್ನು -0.6019
-3.4309 ಗೊತ್ತು -0.6019
-3.4309 ಮಾಡಲಾಗಿತ್ತು -0.5686
-3.4309 ಪ್ರಯತ್ನದಿಂದ -0.6019
-3.4309 ರೋಮ್ -0.6019
-3.4309 ನಗರವು -0.6019
-3.4309 ಮೆಡಿಟರೇನಿಯನ್ -0.6019
-3.4309 ಸಮುದ್ರದ -0.6017
-3.4309 ಪ್ರದೇಶಗಳಲ್ಲಿ -0.6011
-3.4309 ಚಕ್ರಾಧಿಪತ್ಯವನ್ನು -0.6019
-3.4309 ವಿಸ್ತರಿಸಿತು -0.5686
-3.4309 ಆಗ -0.6019
-3.4309 ನಗಾರೆ -0.6019
-3.4309 ಬಾರಿಸಿ -0.6019
-3.4309 ಸೂರ್ಯನನ್ನು -0.6019
-3.4309 ಹೆದರಿಸಿ -0.6019
-3.4309 ವಿನಂತಿಸಿ -0.6019
-3.4309 ಚಂದ್ರನನ್ನು -0.6019
-3.4309 ಬಿಟ್ಟುಬಿಡುವಂತೆ -0.6019
-3.4309 ಮಾಡುತ್ತಾರೆ -0.5686
-3.4309 ಆಕಾಶದಿಂದ -0.6017
-3.4309 ಇಲ್ಲಿಗೆ -0.6019
-3.4309 ತಂದದ್ದು -0.6008
-3.4309 ಸಂಚಿಕಾರ -0.6019
-3.4309 ಹುಳ -0.5686
-3.4309 ಒಬ್ಬಳು -0.6019
-3.4309 ಅನಾಥೆ -0.6011
-3.4309 ಗಂಡನನ್ನು -0.6019
-3.4309 ಮಕ್ಕಳನ್ನು -0.6019
-3.4309 ಕಳೆದುಕೊಂಡವಳು -0.6019
-3.4309 ದುಃಖಿಸುತ್ತಾ -0.6019
-3.4309 ಪರಮಾತ್ಮನನ್ನು -0.6019
-3.4309 ಕಾಣಲಿಕ್ಕೆಂದು -0.6019
-3.4309 ಹೊರಡುತ್ತಾಳೆ -0.5686
-3.4309 ಎರಡನೆಯ -0.6019
-3.4309 ದ್ವಾರ -0.6019
-3.4309 ದಾಟಿದರೆ -0.6019
-3.4309 ಕಲ್ಲಿನ -0.6019
-3.4309 ಕಂಬಗಳ -0.6011
-3.4309 ಸುತ್ತಲೂ -0.6017
-3.4309 ಮೊಗಸಾಲೆಗಳುಳ್ಳ -0.6019
-3.4309 ವಿಶಾಲ -0.6019
-3.4309 ಅಂಗಳವಿದೆ -0.5686
-3.4309 ಒಬ್ಬರ -0.6019
-3.4309 ಮುಂದೊಬ್ಬರಂತೆ -0.6019
-3.4309 ನಿಯಮಿತ -0.6019
-3.4309 ಕ್ರಮದಲ್ಲಿ -0.6019
-3.4309 ಬರುತ್ತಾರೆ -0.5686
-3.4309 ಇಂದು -0.5974
-3.4309 ಕೋಟೆ -0.6016
-3.4309 ರೀತಿಯ -0.6017
-3.4309 ಇಲ್ಲದೆ -0.6019
-3.4309 ಅವನತಿಯ -0.6019
-3.4309 ಅಂಚಿನಲ್ಲಿದೆ -0.5686
-3.4309 ಸನ್ಯಾಸಪ್ಪನ -0.6017
-3.4309 ಹೋಗಿ -0.6014
-3.4309 ಹಬ್ಬಜಾತ್ರೆಗಳಾಗಿವೆ -0.5686
-3.4309 ಕಮಲಾಪುರದಲ್ಲಿರುವ -0.6017
-3.1299 ಮಾರಮ್ಮ -0.6017
-3.4309 ದೇವತೆಯ -0.6017
-3.1299 ಪೂಜಾರಿ -0.5970
-3.4309 ಎಂಬುವರು -0.5686
-3.4309 ಮನೆಯಲ್ಲಿ -0.6019
-3.4309 ತೆಲುಗು -0.6019
-3.4309 ಹೊರಗಡೆ -0.6016
-3.4309 ಮಾತನಾಡುವ -0.6011
-3.4309 ತೀರಾ -0.6019
-3.4309 ಹಿಂದುಳಿದಿದ್ದಾರೆ -0.5686
-3.4309 ಅವನವು -0.6019
-3.4309 ಆರೆಂಟು -0.6019
-3.4309 ಬೆಡಗಿನ -0.6019
-3.4309 ವಚನಗಳೇನೋ -0.6016
-3.1299 ಕ್ರಮೇಣ -0.6011
-3.4309 ಶುಷ್ಕವಾಗುತ್ತ -0.6019
-3.4309 ಹೋಗುತ್ತದೆ -0.5686
-3.4309 ಅದಕ್ಕಾಗಿ -0.6019
-3.4309 ಮರಳುಬೇಲಿ -0.6019
-3.4309 ಅರ್ಥಾತ್ -0.6019
-3.4309 ಮರಳಿನದೇ -0.6019
-3.4309 ಸಾಲುದಿಬ್ಬಗಳನ್ನು -0.6019
-3.4309 ರಚಿಸಬೇಕು -0.5686
-3.4309 ಆತ -0.6019
-3.4309 ನನ್ನನ್ನು -0.6019
-3.4309 ಕೆಕ್ಕರಿಸಿ -0.6019
-3.4309 ನೋಡುತ್ತಾ -0.6019
-3.4309 ನಿನಗೆ -0.6017
-3.1299 ಬೇಕು -0.6011
-3.4309 ಸರಿಯಾಗಿ -0.6019
-3.4309 ತಮಿಳಿನಲ್ಲಿ -0.6019
-3.4309 ಹೇಳು -0.5686
-3.4309 ನನಗೆ -0.6016
-3.4309 ಬಾಳೆಹಣ್ಣೇ -0.6017
-3.4309 ಸಿಡಿಮಿಡಿಗೊಳ್ಳದೇ -0.6019
-3.4309 ಹೇಳಿದೆ -0.5686
-3.4309 ಕೈಯಲ್ಲಿ -0.6019
-3.4309 ಹಣವಿಲ್ಲ -0.6017
-3.4309 ಬಳಸದೇ -0.6019
-3.4309 ಬದುಕುವ -0.6019
-3.4309 ಕಲೆ -0.6019
-3.4309 ಕಲಿತಿದ್ದರು -0.5686
-3.4309 ವೆನೀಸ್ನಲ್ಲಿ -0.6016
-3.1299 ಹೊರಟ -0.6017
-3.4309 ಹೆಣ್ಣಿನ -0.6019
-3.4309 ಮೆರವಣಿಗೆಯಂತೆ -0.5686
-3.4309 ಕಾಲಿಗೆ -0.6019
-3.4309 ಅಸ್ಪರ್ಫ್ -0.6013
-3.4309 ಎತ್ತರವಾದ -0.6019
-3.4309 ಪಾದರಕ್ಷೆಗಳನ್ನೂ -0.6019
-3.4309 ಕಿವಿಗಳಿಗೆ -0.6019
-3.4309 ತೂಕವಾದ -0.6019
-3.4309 ಚಿನ್ನದ -0.6019
-3.4309 ಆಭರಣಗಳನ್ನೂ -0.6019
-3.4309 ಧರಿಸುತ್ತಾರೆ -0.5686
-3.4309 ತನರೀಸ್ -0.6019
-3.4309 ನಾಡಿನ -0.6019
-3.4309 ದ್ವೀಪದಿಂದ -0.6019
-3.4309 ಆರಂಭಿಸಿ -0.6019
-3.4309 ಮಿರ್ಜಾನ್ -0.6019
-3.4309 ಭಟ್ಕಲ್ -0.6019
-3.4309 ಮುಂತಾದ -0.6019
-3.4309 ಸ್ಥಳಗಳ -0.6017
-3.1299 ಬಗೆಗೆ -0.6017
-3.4309 ತಿಳಿಸಿದ್ದಾನೆ -0.5686
-3.4309 ಅಲ್ಲಿ -0.6019
-3.4309 ರಾಜನ -0.6019
-3.4309 ಸೆರೆಮನೆಯಲ್ಲಿ -0.6017
-3.4309 ದಾಬುಲ್ -0.6019
-3.4309 ಪಟ್ಟಣದಿಂದ -0.6019
-3.4309 ಸೈದ್ -0.6019
-3.4309 ಓಡಿಹೋದ -0.6017
-3.4309 ಹೆಚ್ಚಿಗೆ -0.6019
-3.4309 ಏನೂ -0.6017
-3.4309 ತಿಳಿದಿರಲಿಲ್ಲ -0.5686
-3.4309 ಅಧಿಪತಿಯ -0.6019
-3.4309 ಆಶ್ರಯದಲ್ಲಿ -0.6019
-3.4309 ಇಬ್ಬರು -0.6019
-3.4309 ಕಡಲುಗಳ್ಳ -0.6019
-3.4309 ನಾಯಕರಿದ್ದರು -0.5686
-3.4309 ಮೂರರೂ -0.6019
-3.4309 ಜೆಂಟೈಲರೂ -0.6013
-3.4309 ನೆಲೆಸಿದ್ದಾರೆ -0.5686
-3.4309 ನಾಣ್ಯಕ್ಕೂ -0.6019
-3.4309 ಪಾತ್ರೆಗಳನ್ನು -0.6019
-3.4309 ಮಾಡುವುದಕ್ಕೂ -0.6019
-3.4309 ಒಳನಾಡಿಗೆ -0.6019
-3.4309 ಸಾಗಿಸುತ್ತಾರೆ -0.5686
-3.4309 ಬತ್ತವನ್ನು -0.6019
-3.4309 ಕುಟ್ಟಿ -0.6019
-3.4309 ಕೇರಿ -0.6019
-3.4309 ಬತ್ತದ -0.6019
-3.4309 ಹುಲ್ಲಿನಲ್ಲಿ -0.6019
-3.4309 ಫನೆಗಾ -0.6013
-3.4309 ಮೂಡೆ -0.6019
-3.4309 ಕಟ್ಟಿ -0.6019
-3.4309 ಮಲಬಾರಿಗೆ -0.6019
-3.4309 ಕಳುಹಿಸುತ್ತಾರೆ -0.5686
-3.4309 ಮೆಚ್ಚಿದ -0.6019
-3.4309 ನಲ್ಲನು -0.6019
-3.4309 ತನ್ನನ್ನು -0.6019
-3.4309 ಮದುವೆಯಾಗುವುದಾದರೆ -0.6019
-3.4309 ಇಂತಹ -0.6019
-3.4309 ಸೇವನೆಯನ್ನು -0.6019
-3.4309 ಮಾಡುವೆನೆಂದು -0.6019
-3.4309 ದೇವರಲ್ಲಿ -0.6019
-3.4309 ಹರಕೆ -0.6019
-3.4309 ಮಾಡಿಕೊಳ್ಳುತ್ತಾಳೆ -0.5686
-3.4309 ಏತದಿಂದ -0.6019
-3.4309 ನೇತಾಡುವ -0.6019
-3.4309 ಆಕೆಯ -0.6019
-3.4309 ಸೊಂಟದಿಂದ -0.6017
-3.4309 ರಕ್ತ -0.6019
-3.4309 ಕಾಲುಗಳ -0.6011
-3.4309 ಹರಿದು -0.6019
-3.4309 ತೊಟ್ಟಿಕ್ಕುತ್ತಿರುತ್ತದೆ -0.5686
-3.4309 ಆರಂಭವಾದ -0.6017
-3.1299 ಅಮೆರಿಕದ -0.6016
-3.1299 ಸಾಮ್ರಾಜ್ಯಶಾಹಿ -0.6016
-3.4309 ಧೋರಣೆ -0.6017
-3.1299 ಸೌದಿ -0.6017
-3.4309 ಅರೇಬಿಯಾದಲ್ಲಿ -0.6016
-3.4309 ತೈಲ -0.6019
-3.4309 ಸಂಪತ್ತಿಗೆ -0.6017
-3.4309 ಸೀಮಿತವಾಗಿರಲಿಲ್ಲ -0.5686
-3.1299 ಶಕ್ತಿಗಳ -0.6016
-3.4309 ಒಮ್ಮತದ -0.6017
-3.4309 ಸಂಘಟಿಸುವ -0.6019
-3.4309 ಗುರಿ -0.5686
-3.4309 ಅರಸೊತ್ತಿಗೆಯ -0.6019
-3.4309 ವಿದೇಶಾಂಗ -0.6019
-3.4309 ನೀತಿ -0.6019
-3.4309 ನಿರ್ಣಾಯಕ -0.6017
-3.4309 ವಹಿಸುತ್ತದೆ -0.5686
-3.4309 ಮಧ್ಯಪೂರ್ವ -0.6019
-3.4309 ಪ್ರದೇಶದ -0.6019
-3.4309 ಅನೆಯಕ -0.6019
-3.4309 ದೇಶಗಳಿಗೆ -0.6019
-3.4309 ಸೌದಿಗಳ -0.6019
-3.4309 ಗ್ರಹಿಕೆಯಂತೆ -0.6017
-3.4309 ಧೋರಣೆಯ -0.6019
-3.4309 ಕುರಿತು -0.6019
-3.4309 ಅಸಮಾಧಾನವಿದೆ -0.5686
-3.4309 ಪ್ರಣವದ -0.6019
-3.4309 ಕುಂಡಲಾಕಾರದಲ್ಲಿ -0.6019
-3.4309 ತೇಜವೆಂಬ -0.6019
-3.4309 ಮಹಾಭೂತವಡಗಿತ್ತು -0.5686
-3.4309 ಸೋದೆಯ -0.6019
-3.4309 ಮೊದಲನೆಯ -0.6019
-3.4309 ರಘುನಾಥರಾಯನ -0.6019
-3.4309 ಕಾಲ -0.6017
-3.1299 ಕ್ರಿಶ -0.5686
-3.4309 ಜರಿಮಲೆ -0.6019
-3.4309 ಕಡೆ -0.6017
-3.4309 ಬೇಟೆಗೆ -0.6019
-3.4309 ಬರುತ್ತಿದ್ದರೂ -0.6017
-3.4309 ಇಲ್ಲ -0.5686
-3.4309 ಓಬಳದೇವರೆಇಗೆ -0.6019
-3.4309 ವಾಸೆ -0.6019
-3.4309 ಕೊಯ್ಯುತ್ತಿದ್ದು -0.6019
-3.4309 ದಡ್ಲುಮಾರಮ್ಮನನ್ನು -0.6017
-3.4309 ದೇವತೆಯಾಗಿ -0.6019
-3.4309 ಪೂಜಿಸುವರು -0.5686
-3.4309 ದ್ರಾವಿಡ -0.6019
-3.4309 ಭಾಷೆಗಳ -0.6019
-3.4309 ಲಿಪಿಗಳ -0.6019
-3.4309 ಬೆಳವಣಿಗೆಯಲ್ಲಿ -0.6016
-2.9538 ಹಲವಾರು -0.6016
-3.4309 ಮಾರ್ಪಾಟಾಗಿರುವುದು -0.6017
-3.1299 ಕಂಡುಬರುತ್ತದೆ -0.5686
-3.4309 ಸಮಾಜದ -0.6019
-3.4309 ಕೆಳಸಮುದಾಯಗಳ -0.6019
-3.4309 ಅಸಹಾಯಕತೆ -0.6000
-3.4309 ಕಾರಣವಾದ -0.6017
-3.4309 ವಿರುದ್ಧದ -0.6019
-3.4309 ಆಕ್ರೋಶ -0.6019
-3.4309 ಬಹುತೇಕ -0.6019
-3.4309 ಪಾಡ್ದನಗಳಲ್ಲಿ -0.6017
-3.4309 ಅರಸಕೇಂದ್ರಿತ -0.6019
-3.4309 ಚರಿತ್ರೆ -0.6017
-3.4309 ನೆಲೆಯಿಂದ -0.6019
-3.4309 ನಿರ್ಮಾಣಗೊಂಡಿರುವಂತದ್ದು -0.5686
-3.4309 ಕಾರ್ಟರ್ನ -0.6019
-3.4309 ಆಡಳಿತದ -0.6019
-3.4309 ವೈಫಲ್ಯವೆಂದು -0.6019
-3.4309 ಅಭಿಪ್ರಾಯಿಸ -0.6019
-3.4309 ಲಾಗಿದೆ -0.5686
-3.4309 ಓಬಯ್ಯ -0.6013
-3.4309 ದೇವಾಲಯದ -0.6019
-3.4309 ಪ್ರತಿಯೊಂದು -0.6019
-3.4309 ಜವಾಬ್ದಾರಿಯನ್ನು -0.6019
-3.4309 ಕೈಗೊಂಡಿದ್ದಾರೆ -0.5686
-3.4309 ವೀರಗಲ್ಲಿನ -0.6019
-3.4309 ಪೂರ್ವಕ್ಕೆ -0.6019
-3.4309 ಕೋನ -0.6019
-3.4309 ಸಾಗರದ -0.6019
-3.4309 ಬೆಟ್ಟದ -0.6019
-3.4309 ಸಾಲಿನ -0.6019
-3.4309 ತಿಮ್ಮಪ್ಪನ -0.6019
-3.4309 ಗುಡ್ಡವಿದೆ -0.5686
-3.4309 ವೀರನ -0.6019
-3.4309 ಸ್ಮರಣಾರ್ಥ -0.6019
-3.4309 ಇಂದಿಗೂ -0.6019
-3.4309 ರೂಢಿ -0.6019
-3.4309 ಸಂಪ್ರದಾಯಗಳನ್ನು -0.6019
-3.4309 ಉಳಿಸಿಕೊಂಡು -0.6019
-3.4309 ಬಂದಿದ್ದಾನೆ -0.5686
-3.4309 ಮುಕ್ತಿ -0.6017
-3.4309 ಮದುವೆ -0.6019
-3.4309 ಮಕ್ಕಳಾಗಬೇಕು -0.6019
-3.4309 ವಿದ್ಯಾಭ್ಯಾಸ -0.6019
-3.4309 ಪೂಜೆ -0.6017
-3.4309 ನೀತಿಗಳು -0.6019
-3.4309 ಅವಶ್ಯಕತೆವೆನಿಸಿವೆ -0.5686
-3.4309 ಆದಿಯಲ್ಲಿ -0.6011
-3.4309 ಧರ್ಮಕೇಂದ್ರಿತ -0.6017
-3.1299 ನೆಲೆಯಲ್ಲಿ -0.6017
-3.4309 ಗ್ರಹಿಸಿದ್ದರಿಂದ -0.6017
-3.4309 ಅಧ್ಯಾತ್ಮಿಕ -0.6019
-3.4309 ಸ್ವರೂಪಕ್ಕೆ -0.6019
-3.4309 ಬಂದಿತು -0.5686
-3.4309 ಇವುಗಳಲ್ಲಿ -0.6019
-3.4309 ಪುನಃಜೈನ -0.5998
-3.4309 ಹಿಂದೂಧರ್ಮಗಳ -0.6017
-3.4309 ಹಂಪಿಯಲ್ಲಿ -0.6019
-3.4309 ದೇವಾಂಗಮಠ -0.6019
-3.4309 ರಾಜಹಳ್ಳಿಯಲ್ಲಿ -0.6019
-3.4309 ವಾಲ್ಮೀಕಿ -0.6019
-3.4309 ಮಠಗಳಂತೆ -0.6019
-3.4309 ಲಂಬಾಣಿಗರ -0.6019
-3.4309 ಸೇವಾಲಾಲ್ -0.6019
-3.4309 ಮಠಗಳಿವೆ -0.5686
-3.4309 ಕರಾವಳಿ -0.6019
-3.4309 ಕರ್ನಾಟಕವು -0.6017
-3.4309 ಸಾಂಸ್ಕೃತಿಕವಾಗಿ -0.6016
-3.4309 ಬಗೆಯ -0.6019
-3.4309 ವೈಶಿಷ್ಟ್ಯತೆಗಳನ್ನು -0.6017
-3.4309 ಭೂಪ್ರದೇಶವಾಗಿದೆ -0.5686
-3.4309 ಲೌರಿ -0.6017
-3.1299 ಹಾಂಕೊ -0.5996
-3.4309 ಚಿನ್ನಪ್ಪಗೌಡ -0.6019
-3.4309 ಕೆ -0.6019
-3.4309 ಅನೆಲಿ -0.6017
-3.4309 ವಿವೇಕ -0.6019
-3.4309 ರೈ -0.6019
-3.4309 ಬಿಎ -0.5686
-3.4309 ಅಂಶವನ್ನು -0.6014
-3.4309 ಸಾಹಿತ್ಯದಲ್ಲಿ -0.6019
-3.4309 ಸ್ಪಷ್ಟವಾಗಿ -0.6019
-3.4309 ಗುರುತಿಸಬಹುದಾಗಿದೆ -0.5686
-3.4309 ಬದಲಾಗುತ್ತಿರುವ -0.6019
-3.4309 ಸಂದರ್ಭಗಳಲ್ಲೂ -0.6019
-3.4309 ಭೂತಾರಾಧನೆ -0.6019
-3.4309 ಮತ್ತೊಮ್ಮೆ -0.6019
-3.4309 ಪುನರುತ್ಥಾನದ -0.6017
-3.4309 ಮರುಜೀವ -0.6019
-3.4309 ಪಡೆಯುತ್ತಿದೆ -0.5686
-3.4309 ರೀತಿಯಾಗಿ -0.6019
-3.4309 ಬಂಗಾಡಿ -0.6019
-3.4309 ಪೇಟೆಯಲ್ಲಿ -0.6016
-3.4309 ಶ್ರೀಮಂತರ -0.6019
-3.4309 ನಿವಾಸಗಳಿರುವ -0.6019
-3.4309 ಬೀದಿಗಳಿವೆ -0.5686
-3.4309 ತುರುವೆಕರೆ -0.6019
-3.4309 ತಾಲೂಕಿನ -0.6019
-3.4309 ಸೂಳೆಕೆರೆ -0.6019
-3.4309 ಎಂಬಲ್ಲಿ -0.6019
-3.4309 ಸಿಕ್ಕಿರುವ -0.6017
-3.4309 ಸಾಮ್ರಾಜ್ಯದ -0.5974
-3.4309 ಭೂಭಾಗಕ್ಕೆ -0.6019
-3.4309 ಆತನನ್ನೇ -0.6019
-3.4309 ಒಡೆಯನನ್ನಾಗಿ -0.6019
-3.4309 ನೇಮಿಸಿದನು -0.5686
-3.4309 ಗುರ್ಚಿ -0.6019
-3.4309 ಆಚರಣೆಯಲ್ಲಿ -0.6019
-3.4309 ತೊಪ್ಪೆಯ -0.6019
-3.4309 ಉಂಡೆ -0.6017
-3.4309 ಗರುಕೆಯನ್ನು -0.6019
-3.4309 ಸಿಕ್ಕಿಸಿದಾಗ -0.6014
-3.4309 ಮಳೆರಾಯನ -0.6019
-3.4309 ಪ್ರತೀಕವಾಗುತ್ತದೆ -0.5686
-3.4309 ಮಳೆರಾಜನ -0.6019
-3.4309 ಕುಣಿತದ -0.6019
-3.4309 ಹಾಡು -0.6019
-3.4309 ನೇರವಾಗಿ -0.6019
-3.4309 ಮೇಘರಾಜನ -0.6019
-3.4309 ಪ್ರಾರ್ಥನೆಯೇ -0.6017

\2-grams:
-2.4260 <s> ಇವರಲ್ಲಿ 0.0000
-0.1249 ಇವರಲ್ಲಿ ಬೇಟೆ 0.0000
-0.1249 ಬೇಟೆ ಪಶುಪಾಲನೆ 0.0000
-0.1249 ಪಶುಪಾಲನೆ ಮತ್ತು -0.5781
-1.2711 ಮತ್ತು ಕೃಷಿ 0.0000
-0.1249 ಕೃಷಿ ವೃತ್ತಿಗಳು 0.0000
-0.1249 ವೃತ್ತಿಗಳು ಜೀವಂತವಾಗಿವೆ 0.0000
-0.1249 ಜೀವಂತವಾಗಿವೆ </s> -0.6021
-2.4260 <s> ಪ್ರಾಚೀನ -0.3979
-0.4260 ಪ್ರಾಚೀನ ಕಾಲದಿಂದ 0.0000
-0.1249 ಕಾಲದಿಂದ ನಾಟಕ -0.4771
-0.6021 ನಾಟಕ ಸಾಹಿತ್ಯದ -0.3979
-0.4260 ಸಾಹಿತ್ಯದ ಉಲ್ಲೇಖಗಳಿರುವಂತೆ 0.0000
-0.1249 ಉಲ್ಲೇಖಗಳಿರುವಂತೆ </s> -0.6021
-2.4260 <s> ಯಾಕೆಂದರೆ 0.0000
-0.1249 ಯಾಕೆಂದರೆ ಯಾವುದೇ -0.4771
-0.6021 ಯಾವುದೇ ಅಭಿವೃದ್ದಿ 0.0000
-0.1249 ಅಭಿವೃದ್ದಿ ನಡೆಸಿಕೊಂಡು 0.0000
-0.1249 ನಡೆಸಿಕೊಂಡು ಹೋಗಬೇಕಾದರೆ 0.0000
-0.1249 ಹೋಗಬೇಕಾದರೆ ಬಂಡವಾಳದ 0.0000
-0.1249 ಬಂಡವಾಳದ ಅವಶ್ಯಕತೆ -0.3979
-0.4260 ಅವಶ್ಯಕತೆ ಇದ್ದೇ -0.3979
-0.4260 ಇದ್ದೇ ಇದೆ 0.0000
-0.1249 ಇದೆ </s> -0.6021
-2.4260 <s> ಟಿಎ 0.0000
-0.1249 ಟಿಎ ಇನ್ನೊಂದು 0.0000
-0.1249 ಇನ್ನೊಂದು ಭಾಗವಾಗಿದ್ದು 0.0000
-0.1249 ಭಾಗವಾಗಿದ್ದು ದಕ್ಷಿಣದ 0.0000
-0.1249 ದಕ್ಷಿಣದ ಲ್ಯಾಟಿನ್ 0.0000
-0.1249 ಲ್ಯಾಟಿನ್ ಅಮೆರಿಕದೊಳಗೆ 0.0000
-0.1249 ಅಮೆರಿಕದೊಳಗೆ ವಿಸ್ತರಿಸಲು -0.3979
-0.4260 ವಿಸ್ತರಿಸಲು ಪ್ರಯತ್ನಿಸುತ್ತಿದೆ 0.0000
-0.1249 ಪ್ರಯತ್ನಿಸುತ್ತಿದೆ </s> -0.6021
-2.4260 <s> ಸಾಕಷ್ಟು -0.3979
-0.4260 ಸಾಕಷ್ಟು ಬಿಡಿ 0.0000
-0.1249 ಬಿಡಿ ಕಥೆಗಳು 0.0000
-0.1249 ಕಥೆಗಳು ತುಳುವಲ್ಲಿ 0.0000
-0.1249 ತುಳುವಲ್ಲಿ ಪ್ರಕಟವಾದರೂ 0.0000
-0.1249 ಪ್ರಕಟವಾದರೂ ಪುಸ್ತಕರೂಪದಲ್ಲಿ 0.0000
-0.1249 ಪುಸ್ತಕರೂಪದಲ್ಲಿ ಬಂದುದು 0.0000
-0.1249 ಬಂದುದು ಕಡಿಮೆ 0.0000
-0.1249 ಕಡಿಮೆ </s> -0.6021
-2.1249 <s> ಚಿತ್ರದುರ್ಗ 0.0000
-0.1249 ಚಿತ್ರದುರ್ಗ ಜಿಲ್ಲೆಯ -0.3010
-0.6021 ಜಿಲ್ಲೆಯ ಮೈಲಾರಪುರದ 0.0000
-0.1249 ಮೈಲಾರಪುರದ ಮೈಲಾರನ -0.3979
-0.4260 ಮೈಲಾರನ ದೇವಸ್ಥಾನದಲ್ಲಿ 0.0000
-0.1249 ದೇವಸ್ಥಾನದಲ್ಲಿ ಜಟಾಧಾರಿ 0.0000
-0.1249 ಜಟಾಧಾರಿ ತಪಸ್ವಿಯ 0.0000
-0.1249 ತಪಸ್ವಿಯ ರೂಪದಲ್ಲಿ 0.0000
-0.1249 ರೂಪದಲ್ಲಿ ಹೆಗ್ಗಪ್ಪ 0.0000
-0.1249 ಹೆಗ್ಗಪ್ಪ ಪೂಜೆಗೊಳ್ಳುತ್ತಿರುವದು 0.0000
-0.1249 ಪೂಜೆಗೊಳ್ಳುತ್ತಿರುವದು ಕುತೂಹಲಕರವಾಗಿದೆ 0.0000
-0.1249 ಕುತೂಹಲಕರವಾಗಿದೆ </s> -0.6021
-0.6021 ಜಿಲ್ಲೆಯ ಮೈಲಾರಪುರದಲ್ಲಿ 0.0000
-0.1249 ಮೈಲಾರಪುರದಲ್ಲಿ ಷಣ್ಮುಖನ 0.0000
-0.1249 ಷಣ್ಮುಖನ ವಿಗ್ರಹದೊಂದಿಗೆ 0.0000
-0.1249 ವಿಗ್ರಹದೊಂದಿಗೆ ಗಣಪತಿಯ 0.0000
-0.1249 ಗಣಪತಿಯ ವಿಗ್ರಹವೂ 0.0000
-0.1249 ವಿಗ್ರಹವೂ ಇದೆಯೆಂದು 0.0000
-0.1249 ಇದೆಯೆಂದು ತಿಳಿದುಬರುತ್ತದೆ 0.0000
-0.1249 ತಿಳಿದುಬರುತ್ತದೆ </s> -0.6021
-2.4260 <s> ಮೈಲಾರನ -0.3979
-0.4260 ಮೈಲಾರನ ಸಮಸ್ತ 0.0000
-0.1249 ಸಮಸ್ತ ಪರಿವಾರದ 0.0000
-0.1249 ಪರಿವಾರದ ಸಮಗ್ರ 0.0000
-0.1249 ಸಮಗ್ರ ಪರಿಚಯ 0.0000
-0.1249 ಪರಿಚಯ ಇಲ್ಲಿ -0.5315
-0.8239 ಇಲ್ಲಿ ನಡೆದಿಲ್ಲ 0.0000
-0.1249 ನಡೆದಿಲ್ಲ </s> -0.6021
-2.4260 <s> ವಾಣಿಜ್ಯ 0.0000
-0.1249 ವಾಣಿಜ್ಯ ಬೆಳೆಗಳಿಗೆ -0.3979
-0.4260 ಬೆಳೆಗಳಿಗೆ ನೀಡಲಾದ 0.0000
-0.1249 ನೀಡಲಾದ ಅತಿಯಾದ 0.0000
-0.1249 ಅತಿಯಾದ ಪ್ರೋತ್ಸಾಹ 0.0000
-0.1249 ಪ್ರೋತ್ಸಾಹ ಅನೇಕ -0.3979
-0.4260 ಅನೇಕ ಬಡ 0.0000
-0.1249 ಬಡ ರೈತರಿಗೆ 0.0000
-0.1249 ರೈತರಿಗೆ ಹಾಗೂ -0.5763
-1.2389 ಹಾಗೂ ಜೀವನಾವಶ್ಯಕ 0.0000
-0.1249 ಜೀವನಾವಶ್ಯಕ ಬೆಳೆಗಳಿಗೆ -0.3979
-0.4260 ಬೆಳೆಗಳಿಗೆ ಮಾರಣಾಂತಿಕವಾಗಿತ್ತು 0.0000
-0.1249 ಮಾರಣಾಂತಿಕವಾಗಿತ್ತು </s> -0.6021
-2.4260 <s> ಇತಿಹಾಸಕಾರರು 0.0000
-0.1249 ಇತಿಹಾಸಕಾರರು ಇದನ್ನು -0.5441
-0.9031 ಇದನ್ನು ರಾಜ್ಯದ -0.4771
-0.6021 ರಾಜ್ಯದ ಅತ್ಯಂತ -0.4771
-0.6021 ಅತ್ಯಂತ ಬೃಹತ್ -0.3979
-0.4260 ಬೃಹತ್ ದಾಖಲೆಯೆಂದು 0.0000
-0.1249 ದಾಖಲೆಯೆಂದು ಪರಿಗಣಿಸಿದ್ದಾರೆ 0.0000
-0.1249 ಪರಿಗಣಿಸಿದ್ದಾರೆ </s> -0.6021
-1.8239 <s> ಆದರೆ 0.0000
-0.7270 ಆದರೆ ಅನಕ್ಷರಸ್ಥ 0.0000
-0.1249 ಅನಕ್ಷರಸ್ಥ ಕರಿಯರು 0.0000
-0.1249 ಕರಿಯರು ಮತ 0.0000
-0.1249 ಮತ ಹಾಕುವಂತಿರಲಿಲ್ಲ 0.0000
-0.1249 ಹಾಕುವಂತಿರಲಿಲ್ಲ </s> -0.6021
-2.4260 <s> ಅಮೆರಿಕಾ -0.5119
-0.7270 ಅಮೆರಿಕಾ ಸರಕಾರವು 0.0000
-0.1249 ಸರಕಾರವು ಪ್ರಾರಂಭದಿಂದಲೂ 0.0000
-0.1249 ಪ್ರಾರಂಭದಿಂದಲೂ ವರ್ಣಭೇದ 0.0000
-0.1249 ವರ್ಣಭೇದ ನೀತಿಯನ್ನು 0.0000
-0.1249 ನೀತಿಯನ್ನು ಅನುಸರಿಸಲು 0.0000
-0.1249 ಅನುಸರಿಸಲು ಕಾನೂನುನೀತಿಗಳನ್ನು 0.0000
-0.1249 ಕಾನೂನುನೀತಿಗಳನ್ನು ಮಾಡುತಿತ್ತು 0.0000
-0.1249 ಮಾಡುತಿತ್ತು </s> -0.6021
-2.4260 <s> ಪುನಾರಚನೆಯ 0.0000
-0.1249 ಪುನಾರಚನೆಯ ಸಮಯದಲ್ಲಿ 0.0000
-0.1249 ಸಮಯದಲ್ಲಿ ಅಮೆರಿಕಾ -0.5119
-0.7270 ಅಮೆರಿಕಾ ಸೇನೆಯು 0.0000
-0.1249 ಸೇನೆಯು ಅಮಾಯಕ 0.0000
-0.1249 ಅಮಾಯಕ ಕರಿಯರನ್ನು 0.0000
-0.1249 ಕರಿಯರನ್ನು ಕೊಲ್ಲುವುದನ್ನು 0.0000
-0.1249 ಕೊಲ್ಲುವುದನ್ನು ಮಾತ್ರ -0.3979
-0.4260 ಮಾತ್ರ ತಪ್ಪಿಸಿತು 0.0000
-0.1249 ತಪ್ಪಿಸಿತು </s> -0.6021
-2.4260 <s> ಹಿಂದೂ 0.0000
-0.1249 ಹಿಂದೂ ದ್ವೇಷಿಯೆಂದು 0.0000
-0.1249 ದ್ವೇಷಿಯೆಂದು ಹೆಸರಾದ 0.0000
-0.1249 ಹೆಸರಾದ ಔರಂಗಜೇಬನು 0.0000
-0.1249 ಔರಂಗಜೇಬನು ಕೂಡ -0.3979
-0.4260 ಕೂಡ ಈ -0.5907
-1.5873 ಈ ಮಠಕ್ಕೆ -0.3979
-0.4260 ಮಠಕ್ಕೆ ಸನದು 0.0000
-0.1249 ಸನದು ಹಾಕಿಕೊಟ್ಟಿರುವುದೊಂದು 0.0000
-0.1249 ಹಾಕಿಕೊಟ್ಟಿರುವುದೊಂದು ವಿಶೇಷ 0.0000
-0.1249 ವಿಶೇಷ </s> -0.6021
-1.1472 <s> ಈ -0.3085
-1.5873 ಈ ಕಾಡಸಿದ್ಧೇಶ -0.3979
-0.4260 ಕಾಡಸಿದ್ಧೇಶ ತಾನು -0.5119
-0.7270 ತಾನು ಪರ್ವತೇಶನ 0.0000
-0.1249 ಪರ್ವತೇಶನ ಅಂಗೈಯೊಳೊಗೆದಾತ 0.0000
-0.1249 ಅಂಗೈಯೊಳೊಗೆದಾತ ಭಕ್ತರಣುಗ 0.0000
-0.1249 ಭಕ್ತರಣುಗ ಕಾಡಸಿದ್ಧೇಶ -0.3979
-0.4260 ಕಾಡಸಿದ್ಧೇಶ ಎಂದು -0.5441
-0.9031 ಎಂದು ಹೇಳಿಕೊಂಡಿರುವುದರಿಂದ 0.0000
-0.1249 ಹೇಳಿಕೊಂಡಿರುವುದರಿಂದ ಈತ 0.0000
-0.1249 ಈತ ಕ್ರಿ 0.0000
-0.1249 ಕ್ರಿ </s> -0.6021
-1.5873 ಈ ಅಂಶ 0.0000
-0.1249 ಅಂಶ ಅವರಿಗೆ -0.3979
-0.4260 ಅವರಿಗೆ ಪೂರ್ಣ 0.0000
-0.1249 ಪೂರ್ಣ ಮನವರಿಕೆ 0.0000
-0.1249 ಮನವರಿಕೆ ಯಾಗಿತ್ತು 0.0000
-0.1249 ಯಾಗಿತ್ತು </s> -0.6021
-2.4260 <s> ಸವಾಯಿ 0.0000
-0.1249 ಸವಾಯಿ ಮಲ್ಲಸರ್ಜನನ್ನು 0.0000
-0.1249 ಮಲ್ಲಸರ್ಜನನ್ನು ಬ್ರಿಟೀಶರು 0.0000
-0.1249 ಬ್ರಿಟೀಶರು ಶೋಧಿಸಲು 0.0000
-0.1249 ಶೋಧಿಸಲು ಸುರು 0.0000
-0.1249 ಸುರು ಮಾಡಿದ್ದರು 0.0000
-0.1249 ಮಾಡಿದ್ದರು </s> -0.6021
-2.1249 <s> ಅಲ್ಲದೆ 0.0000
-0.4260 ಅಲ್ಲದೆ ಈ -0.5907
-1.5873 ಈ ವೇಳೆಗಾಗಲೇ 0.0000
-0.1249 ವೇಳೆಗಾಗಲೇ ಮರಾಠಿಗರ 0.0000
-0.1249 ಮರಾಠಿಗರ ಆಕ್ರಮಣಕಾರಿ 0.0000
-0.1249 ಆಕ್ರಮಣಕಾರಿ ಪ್ರವೃತ್ತಿಗಳು 0.0000
-0.1249 ಪ್ರವೃತ್ತಿಗಳು ಹೆಚ್ಚಾಗತೊಡಗಿದ್ದವು 0.0000
-0.1249 ಹೆಚ್ಚಾಗತೊಡಗಿದ್ದವು </s> -0.6021
-1.5873 ಈ ಸಮಿತಿಯು 0.0000
-0.1249 ಸಮಿತಿಯು ವರದಿ 0.0000
-0.1249 ವರದಿ ಸಿದ್ಧತೆಗೆ 0.0000
-0.1249 ಸಿದ್ಧತೆಗೆ ನಾಡಿನಾದ್ಯಂತ 0.0000
-0.1249 ನಾಡಿನಾದ್ಯಂತ ಕೈಗೊಂಡ 0.0000
-0.1249 ಕೈಗೊಂಡ ಪ್ರವಾಸಕ್ಕೆ 0.0000
-0.1249 ಪ್ರವಾಸಕ್ಕೆ ಪ್ರತಿರೋಧಗಳು 0.0000
-0.1249 ಪ್ರತಿರೋಧಗಳು ಕಂಡುಬಂದವು 0.0000
-0.1249 ಕಂಡುಬಂದವು </s> -0.6021
-1.5873 ಈ ಪ್ರಕಟಣೆಯು 0.0000
-0.1249 ಪ್ರಕಟಣೆಯು ಸಾಂಸ್ಕೃತಿಕ -0.3979
-0.4260 ಸಾಂಸ್ಕೃತಿಕ ಬಂಧುತ್ವದ 0.0000
-0.1249 ಬಂಧುತ್ವದ ಹೆಜ್ಜೆಗುರುತಾಗಿದೆ 0.0000
-0.1249 ಹೆಜ್ಜೆಗುರುತಾಗಿದೆ </s> -0.6021
-2.4260 <s> ಕಾರಣ -0.3979
-0.4260 ಕಾರಣ ಸಂಸ್ಕೃತಿ 0.0000
-0.1249 ಸಂಸ್ಕೃತಿ ಜನರ -0.4771
-0.6021 ಜನರ ಜೀವನದ 0.0000
-0.1249 ಜೀವನದ ಉಸಿರಾಗಿದೆ 0.0000
-0.1249 ಉಸಿರಾಗಿದೆ </s> -0.6021
-2.4260 <s> ಮೇಲ್ಮಟ್ಟ 0.0000
-0.1249 ಮೇಲ್ಮಟ್ಟ ನಾಗರಿಕತೆಯ 0.0000
-0.1249 ನಾಗರಿಕತೆಯ ಉನ್ನತ 0.0000
-0.1249 ಉನ್ನತ ವರ್ಗದ 0.0000
-0.1249 ವರ್ಗದ ಜನರು -0.5315
-0.8239 ಜನರು ವೈವಿಧ್ಯಮಯ 0.0000
-0.1249 ವೈವಿಧ್ಯಮಯ ಉಡುಪುಗಳನ್ನು 0.0000
-0.1249 ಉಡುಪುಗಳನ್ನು ಧರಿಸುತ್ತಿದ್ದರು 0.0000
-0.1249 ಧರಿಸುತ್ತಿದ್ದರು </s> -0.6021
-2.4260 <s> ಪುರಾಣಶಾಸ್ತ್ರಗಳು 0.0000
-0.1249 ಪುರಾಣಶಾಸ್ತ್ರಗಳು ಮತ್ತು -0.5781
-1.2711 ಮತ್ತು ನೀತಿಕಥೆಗಳಲ್ಲಿ 0.0000
-0.1249 ನೀತಿಕಥೆಗಳಲ್ಲಿ ಒಳ್ಳೆಯ 0.0000
-0.1249 ಒಳ್ಳೆಯ ಕಾರ್ಯ 0.0000
-0.1249 ಕಾರ್ಯ ಮಾಡಿದವರಿಗೆ 0.0000
-0.1249 ಮಾಡಿದವರಿಗೆ ಒಳ್ಳೆಯದಾಗುತ್ತದೆ 0.0000
-0.1249 ಒಳ್ಳೆಯದಾಗುತ್ತದೆ </s> -0.6021
-2.4260 <s> ಪರಿಸ್ಥಿತಿಯು 0.0000
-0.1249 ಪರಿಸ್ಥಿತಿಯು ಹಿಂಸಾತ್ಮಕ 0.0000
-0.1249 ಹಿಂಸಾತ್ಮಕ ರೂಪ 0.0000
-0.1249 ರೂಪ ಪಡೆದು 0.0000
-0.1249 ಪಡೆದು ಪೊಲೀಸರಿಂದ 0.0000
-0.1249 ಪೊಲೀಸರಿಂದ ಲಾಠಿ 0.0000
-0.1249 ಲಾಠಿ ಚಾರ್ಜು 0.0000
-0.1249 ಚಾರ್ಜು ಆಯಿತು 0.0000
-0.1249 ಆಯಿತು </s> -0.6021
-2.4260 <s> ಉತ್ತರ 0.0000
-0.1249 ಉತ್ತರ ಕನ್ನಡ -0.4771
-0.6021 ಕನ್ನಡ ಜಿಲ್ಲೆಯಲ್ಲಿ 0.0000
-0.1249 ಜಿಲ್ಲೆಯಲ್ಲಿ ಹೆಚ್ಚು -0.5441
-0.9031 ಹೆಚ್ಚು ಚರ್ಚೆಗೆ 0.0000
-0.1249 ಚರ್ಚೆಗೆ ಒಳಗಾಗಿರುವ 0.0000
-0.1249 ಒಳಗಾಗಿರುವ ಯೋಜನೆಗಳಲ್ಲಿ 0.0000
-0.1249 ಯೋಜನೆಗಳಲ್ಲಿ ಕೈಗಾ 0.0000
-0.1249 ಕೈಗಾ ಅಣುಸ್ಥಾವರವೂ 0.0000
-0.1249 ಅಣುಸ್ಥಾವರವೂ ಒಂದು -0.5593
-1.0280 ಒಂದು </s> -0.6021
-1.5873 ಈ ಯೋಜನೆಯ 0.0000
-0.1249 ಯೋಜನೆಯ ರೂವಾರಿ 0.0000
-0.1249 ರೂವಾರಿ ಅಡ್ಮಿರಲ್ 0.0000
-0.1249 ಅಡ್ಮಿರಲ್ ಆಸ್ಕರ್ 0.0000
-0.1249 ಆಸ್ಕರ್ ಸ್ಟಾನ್ಲಿ 0.0000
-0.1249 ಸ್ಟಾನ್ಲಿ ದಾವ್ಸನ್ 0.0000
-0.1249 ದಾವ್ಸನ್ </s> -0.6021
-2.4260 <s> ಕಾಗೆಗೆ 0.0000
-0.1249 ಕಾಗೆಗೆ ಆಹಾರ 0.0000
-0.1249 ಆಹಾರ ಸಿಕ್ಕಿದರೆ 0.0000
-0.1249 ಸಿಕ್ಕಿದರೆ ಸರಿ 0.0000
-0.1249 ಸರಿ ಕೋಣನ 0.0000
-0.1249 ಕೋಣನ ವೇದನೆ 0.0000
-0.1249 ವೇದನೆ ಅದಕ್ಕೆ -0.5119
-0.7270 ಅದಕ್ಕೆ ತಿಳಿಯುವುದಿಲ್ಲ 0.0000
-0.1249 ತಿಳಿಯುವುದಿಲ್ಲ </s> -0.6021
-2.4260 <s> ಸ್ವಿಡ್ಜರ್ಲೆಂಡ್ನಲ್ಲಿ 0.0000
-0.1249 ಸ್ವಿಡ್ಜರ್ಲೆಂಡ್ನಲ್ಲಿ ತಾನು -0.5119
-0.7270 ತಾನು ನಡೆಸಿದ 0.0000
-0.1249 ನಡೆಸಿದ ಕ್ರಾಂತಿಕಾರಕ 0.0000
-0.1249 ಕ್ರಾಂತಿಕಾರಕ ಚಟುವಟಿಕೆಗಳಿಗಾಗಿ 0.0000
-0.1249 ಚಟುವಟಿಕೆಗಳಿಗಾಗಿ ಬಂಧಿತನಾದನು 0.0000
-0.1249 ಬಂಧಿತನಾದನು </s> -0.6021
-1.9488 <s> ಒಂದು -0.4586
-1.0280 ಒಂದು ಶೈಲಿಯನ್ನೂ 0.0000
-0.1249 ಶೈಲಿಯನ್ನೂ ಕ್ರಮವನ್ನೂ 0.0000
-0.1249 ಕ್ರಮವನ್ನೂ ಅನುಸರಿಸಿಕೊಂಡು 0.0000
-0.1249 ಅನುಸರಿಸಿಕೊಂಡು ಬೆಳವಣಿಗೆಯ 0.0000
-0.1249 ಬೆಳವಣಿಗೆಯ ಹಂತದಲ್ಲಿದ್ದ 0.0000
-0.1249 ಹಂತದಲ್ಲಿದ್ದ ಆಡುಮಾತೊಂದನ್ನು 0.0000
-0.1249 ಆಡುಮಾತೊಂದನ್ನು ತಂದಾಗ 0.0000
-0.1249 ತಂದಾಗ ಉಂಟಾಗುವ 0.0000
-0.1249 ಉಂಟಾಗುವ ಸ್ಥಿತ್ಯಂತರವೇ 0.0000
-0.1249 ಸ್ಥಿತ್ಯಂತರವೇ ಸಾಕು 0.0000
-0.1249 ಸಾಕು </s> -0.6021
-2.4260 <s> ಬೇರೆ -0.3979
-0.4260 ಬೇರೆ ಬೇರೆ -0.3979
-0.9031 ಬೇರೆ ಮೂಲದ 0.0000
-0.1249 ಮೂಲದ ಕತೆಗಳನ್ನು 0.0000
-0.1249 ಕತೆಗಳನ್ನು ತುಳುವಿನಲ್ಲಿ -0.3979
-0.4260 ತುಳುವಿನಲ್ಲಿ ಬರೆಯಬಹುದು 0.0000
-0.1249 ಬರೆಯಬಹುದು </s> -0.6021
-2.4260 <s> ಇರುವುದೆಲ್ಲಾ 0.0000
-0.1249 ಇರುವುದೆಲ್ಲಾ ಇರುವಂತೆಯೇ 0.0000
-0.1249 ಇರುವಂತೆಯೇ ಇರುವ -0.3979
-0.4260 ಇರುವ ರೀತಿಯಲ್ಲೇ 0.0000
-0.1249 ರೀತಿಯಲ್ಲೇ ಇರುವಲ್ಲೇ 0.0000
-0.1249 ಇರುವಲ್ಲೇ ಇವೆ 0.0000
-0.1249 ಇವೆ </s> -0.6021
-2.4260 <s> ಉಡುಪಿಯ 0.0000
-0.1249 ಉಡುಪಿಯ ಕಡೆಯಲ್ಲಿ 0.0000
-0.1249 ಕಡೆಯಲ್ಲಿ ಇವರನ್ನು 0.0000
-0.1249 ಇವರನ್ನು ಶೇರೆಗಾರರು 0.0000
-0.1249 ಶೇರೆಗಾರರು ಎಂದು -0.4771
-0.6021 ಎಂದು ಕರೆಯುತ್ತಾರೆ 0.0000
-0.1249 ಕರೆಯುತ್ತಾರೆ </s> -0.6021
-2.4260 <s> ಇವರು -0.5441
-0.9031 ಇವರು ಶೈಕ್ಷಣಿಕವಾಗಿ 0.0000
-0.1249 ಶೈಕ್ಷಣಿಕವಾಗಿ ಆರ್ಥಿಕವಾಗಿ -0.3979
-0.4260 ಆರ್ಥಿಕವಾಗಿ ಹಿಂದುಳಿದ್ದಿದ್ದಾರೆ 0.0000
-0.1249 ಹಿಂದುಳಿದ್ದಿದ್ದಾರೆ </s> -0.6021
-1.9488 <s> ಏಕೆಂದರೆ 0.0000
-0.6021 ಏಕೆಂದರೆ ಇವರ -0.3979
-0.4260 ಇವರ ವೃತ್ತಿ 0.0000
-0.1249 ವೃತ್ತಿ ತಾಳೆ 0.0000
-0.1249 ತಾಳೆ ಮರಗಳಿಂದ 0.0000
-0.1249 ಮರಗಳಿಂದ ಭಟ್ಟಿ 0.0000
-0.1249 ಭಟ್ಟಿ ಇಳಿಸುವುದಾಗಿತ್ತು 0.0000
-0.1249 ಇಳಿಸುವುದಾಗಿತ್ತು </s> -0.6021
-2.4260 <s> ಮದುವೆಯ 0.0000
-0.1249 ಮದುವೆಯ ಕಾರ್ಯಗಳೆಲ್ಲಾ 0.0000
-0.1249 ಕಾರ್ಯಗಳೆಲ್ಲಾ ವಧುವಿನ 0.0000
-0.1249 ವಧುವಿನ ಮನೆಯಲ್ಲಿಯೇ 0.0000
-0.1249 ಮನೆಯಲ್ಲಿಯೇ ನಡೆಯುತ್ತವೆ 0.0000
-0.1249 ನಡೆಯುತ್ತವೆ </s> -0.6021
-2.4260 <s> ನಿಜಾಮರಿಗೆ 0.0000
-0.1249 ನಿಜಾಮರಿಗೆ ಅವಶ್ಯಕತೆ -0.3979
-0.4260 ಅವಶ್ಯಕತೆ ಇರುವವರೆಗೆ 0.0000
-0.1249 ಇರುವವರೆಗೆ ಹಿಂತಿರುಗಬಾರದೆಂದು 0.0000
-0.1249 ಹಿಂತಿರುಗಬಾರದೆಂದು ಈ -0.5907
-1.5873 ಈ ಸೈನಿಕರಿಗೆ 0.0000
-0.1249 ಸೈನಿಕರಿಗೆ ಆದೇಶ 0.0000
-0.1249 ಆದೇಶ ನೀಡಲಾಯಿತು 0.0000
-0.1249 ನೀಡಲಾಯಿತು </s> -0.6021
-2.4260 <s> ಈಗ -0.3979
-0.4260 ಈಗ ಇವರು -0.5441
-0.9031 ಇವರು ಮೃತ 0.0000
-0.1249 ಮೃತ ಶವಗಳನ್ನು 0.0000
-0.1249 ಶವಗಳನ್ನು ಹೊತ್ತೊಯ್ಯುವುದನ್ನು 0.0000
-0.1249 ಹೊತ್ತೊಯ್ಯುವುದನ್ನು ನಿಲ್ಲಿಸಿದ್ದಾರೆ 0.0000
-0.1249 ನಿಲ್ಲಿಸಿದ್ದಾರೆ </s> -0.6021
-2.4260 <s> ಮದುವೆಗೆ -0.4771
-0.6021 ಮದುವೆಗೆ ತಂದೆಯ 0.0000
-0.1249 ತಂದೆಯ ಸಹೋದರಿಯ 0.0000
-0.1249 ಸಹೋದರಿಯ ಮಗಳು 0.0000
-0.1249 ಮಗಳು ತಾಯಿಯ 0.0000
-0.1249 ತಾಯಿಯ ಸಹೋದರನ 0.0000
-0.1249 ಸಹೋದರನ ಮಗಳ 0.0000
-0.1249 ಮಗಳ ಸಂಬಂಧ -0.3979
-0.4260 ಸಂಬಂಧ ಸಾಧ್ಯವಿದೆ 0.0000
-0.1249 ಸಾಧ್ಯವಿದೆ </s> -0.6021
-2.4260 <s> ವಿಧವೆ 0.0000
-0.1249 ವಿಧವೆ ವಿಧುರ 0.0000
-0.1249 ವಿಧುರ ಹಾಗೂ -0.5763
-1.2389 ಹಾಗೂ ವಿಚ್ಛೇದಿತರ 0.0000
-0.1249 ವಿಚ್ಛೇದಿತರ ವಿವಾಹಕ್ಕೆ 0.0000
-0.1249 ವಿವಾಹಕ್ಕೆ ಅವಕಾಶವಿದೆ 0.0000
-0.1249 ಅವಕಾಶವಿದೆ </s> -0.6021
-2.4260 <s> ರಂಗಸ್ವಾಮಿ 0.0000
-0.1249 ರಂಗಸ್ವಾಮಿ ವೆಂಕಟರಮಣ 0.0000
-0.1249 ವೆಂಕಟರಮಣ ಸೂಗೂರೇಶ್ವರ 0.0000
-0.1249 ಸೂಗೂರೇಶ್ವರ ಎಲ್ಲಮ್ಮ 0.0000
-0.1249 ಎಲ್ಲಮ್ಮ ಇತ್ಯಾದಿ 0.0000
-0.1249 ಇತ್ಯಾದಿ ದೇವರುಗಳನ್ನು 0.0000
-0.1249 ದೇವರುಗಳನ್ನು ಇವರು -0.5441
-0.9031 ಇವರು ಪೂಜಿಸುತ್ತಾರೆ 0.0000
-0.1249 ಪೂಜಿಸುತ್ತಾರೆ </s> -0.6021
-0.6021 ಏಕೆಂದರೆ ಅವು 0.0000
-0.1249 ಅವು ಬ್ರಿಟಿಶ್ 0.0000
-0.1249 ಬ್ರಿಟಿಶ್ ಸರ್ಕಾರಕ್ಕೆ 0.0000
-0.1249 ಸರ್ಕಾರಕ್ಕೆ ವ್ಯಾಪಾರ 0.0000
-0.1249 ವ್ಯಾಪಾರ ಹಾಗೂ -0.5763
-1.2389 ಹಾಗೂ ಮಿಲಿಟರಿ 0.0000
-0.1249 ಮಿಲಿಟರಿ ಉದ್ದೇಶಗಳಿಗೆ -0.3979
-0.4260 ಉದ್ದೇಶಗಳಿಗೆ ಅನಿವಾರ್ಯವಾಗಿದ್ದವು 0.0000
-0.1249 ಅನಿವಾರ್ಯವಾಗಿದ್ದವು </s> -0.6021
-2.4260 <s> ಉದಾಹರಣೆಗೆ 0.0000
-0.1249 ಉದಾಹರಣೆಗೆ ಕ್ಯಾಲ್ಸಿಯಂ 0.0000
-0.1249 ಕ್ಯಾಲ್ಸಿಯಂ ಮೆಗ್ನೀಷಿಯಂ 0.0000
-0.1249 ಮೆಗ್ನೀಷಿಯಂ ನೈಟ್ರೇಟ್ 0.0000
-0.1249 ನೈಟ್ರೇಟ್ ಸಲ್ಫೇಟ್ 0.0000
-0.1249 ಸಲ್ಫೇಟ್ ಮತ್ತು -0.5781
-1.2711 ಮತ್ತು ಸೋಡಿಯಂ 0.0000
-0.1249 ಸೋಡಿಯಂ </s> -0.6021
-2.4260 <s> ಸಾಮುದಾಯಿಕ 0.0000
-0.1249 ಸಾಮುದಾಯಿಕ ಉತ್ಪಾದನೆ 0.0000
-0.1249 ಉತ್ಪಾದನೆ ಹಾಗೂ -0.5763
-1.2389 ಹಾಗೂ ವೈಯಕ್ತಿಕ 0.0000
-0.1249 ವೈಯಕ್ತಿಕ ಮಾಲಿಕತ್ವಗಳ 0.0000
-0.1249 ಮಾಲಿಕತ್ವಗಳ ನಡುವಿನ 0.0000
-0.1249 ನಡುವಿನ ತಿಕ್ಕಾಟ 0.0000
-0.1249 ತಿಕ್ಕಾಟ ಪರಿಸರ -0.3979
-0.4260 ಪರಿಸರ ಚಳವಳಿಗಳ 0.0000
-0.1249 ಚಳವಳಿಗಳ ನಿರ್ಧಾರಕ 0.0000
-0.1249 ನಿರ್ಧಾರಕ ಅಂಶವೂ 0.0000
-0.1249 ಅಂಶವೂ ಆಗಿದೆ 0.0000
-0.1249 ಆಗಿದೆ </s> -0.6021
-2.4260 <s> ಬಂಗೇರ 0.0000
-0.1249 ಬಂಗೇರ ಮೂಡಬಿದಿರೆ 0.0000
-0.1249 ಮೂಡಬಿದಿರೆ ಅವರ -0.4771
-0.6021 ಅವರ ಕಥಾಸಂಕಲನ 0.0000
-0.1249 ಕಥಾಸಂಕಲನ </s> -0.6021
-2.4260 <s> ಸಪ್ತವರ್ಷಗಳ 0.0000
-0.1249 ಸಪ್ತವರ್ಷಗಳ ಸಮರವು 0.0000
-0.1249 ಸಮರವು ಆರಂಭವಾಗುವುದಕ್ಕೆ 0.0000
-0.1249 ಆರಂಭವಾಗುವುದಕ್ಕೆ ಮೊದಲೇ 0.0000
-0.1249 ಮೊದಲೇ ಅತ್ತ 0.0000
-0.1249 ಅತ್ತ ಕಾಳಗದ 0.0000
-0.1249 ಕಾಳಗದ ಕದ 0.0000
-0.1249 ಕದ ತೆರೆದವು 0.0000
-0.1249 ತೆರೆದವು </s> -0.6021
-2.4260 <s> ಕೆನಡಿಯನ್ನರೊಡನೆ 0.0000
-0.1249 ಕೆನಡಿಯನ್ನರೊಡನೆ ವ್ಯವಹರಿಸುವಲ್ಲಿ 0.0000
-0.1249 ವ್ಯವಹರಿಸುವಲ್ಲಿ ಹೆಚ್ಚು -0.5441
-0.9031 ಹೆಚ್ಚು ವಸ್ತುನಿಷ್ಠವಾದ 0.0000
-0.1249 ವಸ್ತುನಿಷ್ಠವಾದ ನೀತಿಗಳನ್ನು 0.0000
-0.1249 ನೀತಿಗಳನ್ನು ಜಾರಿಗೆ 0.0000
-0.1249 ಜಾರಿಗೆ ತಂದಿತು 0.0000
-0.1249 ತಂದಿತು </s> -0.6021
-2.4260 <s> ಇವರಿಂದ 0.0000
-0.1249 ಇವರಿಂದ ಪ್ರಾರಂಭವಾದ 0.0000
-0.1249 ಪ್ರಾರಂಭವಾದ ಲ್ಯಾಟಿನ್ನರ 0.0000
-0.1249 ಲ್ಯಾಟಿನ್ನರ ಪ್ರಮುಖ -0.3979
-0.4260 ಪ್ರಮುಖ ನಗರವಾದ 0.0000
-0.1249 ನಗರವಾದ ರೋಂ 0.0000
-0.1249 ರೋಂ ಮೊದಲು 0.0000
-0.1249 ಮೊದಲು ನಗರ -0.3979
-0.4260 ನಗರ ರಾಷ್ಟ್ರವಾಗಿದ್ದಿತು 0.0000
-0.1249 ರಾಷ್ಟ್ರವಾಗಿದ್ದಿತು </s> -0.6021
-2.4260 <s> ಅವರಲ್ಲಿ 0.0000
-0.1249 ಅವರಲ್ಲಿ ಜಗಳವಾಗಿ 0.0000
-0.1249 ಜಗಳವಾಗಿ ಭೂಮಿ 0.0000
-0.1249 ಭೂಮಿ ದೇವರ -0.3979
-0.4260 ದೇವರ ಆಸ್ತಿಯನ್ನೆಲ್ಲ 0.0000
-0.1249 ಆಸ್ತಿಯನ್ನೆಲ್ಲ ತೆಗೆದು 0.0000
-0.1249 ತೆಗೆದು ಕೊಂಡು 0.0000
-0.1249 ಕೊಂಡು ಕೆಳಗೆ 0.0000
-0.1249 ಕೆಳಗೆ ಬಂದಳು 0.0000
-0.1249 ಬಂದಳು </s> -0.6021
-2.4260 <s> ಒಬ್ಬನು 0.0000
-0.1249 ಒಬ್ಬನು ಮಾಡುವ 0.0000
-0.1249 ಮಾಡುವ ಅನ್ಯಾಯದಲ್ಲಿಯೂ 0.0000
-0.1249 ಅನ್ಯಾಯದಲ್ಲಿಯೂ ಯಾವುದೋ 0.0000
-0.1249 ಯಾವುದೋ ಒಂದು -0.5593
-1.0280 ಒಂದು ತತ್ತ್ವವಿರಬಹುದು 0.0000
-0.1249 ತತ್ತ್ವವಿರಬಹುದು </s> -0.6021
-0.7270 ಆದರೆ ಪತ್ನಿಯಾದವಳು 0.0000
-0.1249 ಪತ್ನಿಯಾದವಳು ಕೆಟ್ಟು 0.0000
-0.1249 ಕೆಟ್ಟು ಹೋದರೆ 0.0000
-0.1249 ಹೋದರೆ ಕೆಟ್ಟ 0.0000
-0.1249 ಕೆಟ್ಟ ನಡತೆಯವಳಾದರೆ 0.0000
-0.1249 ನಡತೆಯವಳಾದರೆ ಬಾಳೇ 0.0000
-0.1249 ಬಾಳೇ ಕೆಟ್ಟೀತು 0.0000
-0.1249 ಕೆಟ್ಟೀತು </s> -0.6021
-1.5809 <s> ಆ -0.2218
-1.0792 ಆ ಮರದ 0.0000
-0.1249 ಮರದ ನೆರಳಿನಿಂದಾಗಿ 0.0000
-0.1249 ನೆರಳಿನಿಂದಾಗಿ ಅದರಡಿಯ 0.0000
-0.1249 ಅದರಡಿಯ ಗಿಡಗಳು 0.0000
-0.1249 ಗಿಡಗಳು ಬೆಳಕು 0.0000
-0.1249 ಬೆಳಕು ಸಾರಗಳಿಲ್ಲದೆ 0.0000
-0.1249 ಸಾರಗಳಿಲ್ಲದೆ ಸಾಯುತ್ತವೆ 0.0000
-0.1249 ಸಾಯುತ್ತವೆ </s> -0.6021
-1.0792 ಆ ಕುರಿಕೆಯೇ 0.0000
-0.1249 ಕುರಿಕೆಯೇ ಹಂದಿಯಾಗಿ 0.0000
-0.1249 ಹಂದಿಯಾಗಿ ಕಾಣುವುದಕ್ಕೆ 0.0000
-0.1249 ಕಾಣುವುದಕ್ಕೆ ಭಯವೇ 0.0000
-0.1249 ಭಯವೇ ಕಾರಣ -0.3979
-0.4260 ಕಾರಣ </s> -0.6021
-2.4260 <s> ವಾಸೆಕೊಯ್ಯುವ 0.0000
-0.1249 ವಾಸೆಕೊಯ್ಯುವ ಪದ್ಧತಿ -0.3979
-0.4260 ಪದ್ಧತಿ ಇದ್ದು -0.3979
-0.4260 ಇದ್ದು ಕರಿಯಮ್ಮ 0.0000
-0.1249 ಕರಿಯಮ್ಮ ಎಂಬ -0.5315
-0.8239 ಎಂಬ ಸ್ತ್ರೀ -0.3979
-0.4260 ಸ್ತ್ರೀ ದೇವತೆಗೆ 0.0000
-0.1249 ದೇವತೆಗೆ ನಡೆದುಕೊಳ್ಳುತ್ತಾರೆ 0.0000
-0.1249 ನಡೆದುಕೊಳ್ಳುತ್ತಾರೆ </s> -0.6021
-1.5873 ಈ ಹಿಂದೆ -0.3979
-0.4260 ಹಿಂದೆ ತಿಳಿಸಿದಂತೆ 0.0000
-0.1249 ತಿಳಿಸಿದಂತೆ ಪಾಮುಡ್ಲಾರು 0.0000
-0.1249 ಪಾಮುಡ್ಲಾರು ವೀರನೊಬ್ಬ 0.0000
-0.1249 ವೀರನೊಬ್ಬ ಹೋರಾಡಿ 0.0000
-0.1249 ಹೋರಾಡಿ ಮಡಿದ 0.0000
-0.1249 ಮಡಿದ ಸ್ಮಾರಕ -0.3979
-0.4260 ಸ್ಮಾರಕ ಅದಾಗಿದೆ 0.0000
-0.1249 ಅದಾಗಿದೆ </s> -0.6021
-1.5873 ಈ ದೇವರಾಗುವ 0.0000
-0.1249 ದೇವರಾಗುವ ದಿನಗಳು 0.0000
-0.1249 ದಿನಗಳು ಶನಿವಾರ 0.0000
-0.1249 ಶನಿವಾರ ಮತ್ತು -0.5781
-1.2711 ಮತ್ತು ಭಾನುವಾರ 0.0000
-0.1249 ಭಾನುವಾರ </s> -0.6021
-2.4260 <s> ಇವರ -0.3979
-0.4260 ಇವರ ನಂತರ -0.4771
-0.6021 ನಂತರ ಬಂದ -0.5119
-0.7270 ಬಂದ ನವ್ಯ 0.0000
-0.1249 ನವ್ಯ ಸಾಹಿತಿಗಳು 0.0000
-0.1249 ಸಾಹಿತಿಗಳು ಕಲಾಪ್ರಜ್ಞೆಯ 0.0000
-0.1249 ಕಲಾಪ್ರಜ್ಞೆಯ ಕೊರತೆಯಿಂದ 0.0000
-0.1249 ಕೊರತೆಯಿಂದ ನರಳಿದ 0.0000
-0.1249 ನರಳಿದ ಸಾಹಿತ್ಯವಾಗಿ 0.0000
-0.1249 ಸಾಹಿತ್ಯವಾಗಿ ಪ್ರಗತಿಶೀಲರನ್ನು 0.0000
-0.1249 ಪ್ರಗತಿಶೀಲರನ್ನು ಗುರುತಿಸಿದ್ದಾರೆ 0.0000
-0.1249 ಗುರುತಿಸಿದ್ದಾರೆ </s> -0.6021
-2.4260 <s> ಅವರ -0.4771
-0.6021 ಅವರ ಇಂಗ್ಲೆಂಡ್ 0.0000
-0.1249 ಇಂಗ್ಲೆಂಡ್ ಪ್ರವಾಸ 0.0000
-0.1249 ಪ್ರವಾಸ ಅದಕ್ಕೆ -0.5119
-0.7270 ಅದಕ್ಕೆ ತಕ್ಕ 0.0000
-0.1249 ತಕ್ಕ ಭೂಮಿಕೆಯನ್ನು 0.0000
-0.1249 ಭೂಮಿಕೆಯನ್ನು ಸಿದ್ಧಪಡಿಸಿತು 0.0000
-0.1249 ಸಿದ್ಧಪಡಿಸಿತು </s> -0.6021
-2.4260 <s> ಬದಲಾಗಿ 0.0000
-0.1249 ಬದಲಾಗಿ ಮೊದಲನೇ 0.0000
-0.1249 ಮೊದಲನೇ ಬೀರರಸನು 0.0000
-0.1249 ಬೀರರಸನು ಅಂಧಾಸುರದ 0.0000
-0.1249 ಅಂಧಾಸುರದ ಅಗ್ರಹಾರದ 0.0000
-0.1249 ಅಗ್ರಹಾರದ ಮೇಲೆ -0.5441
-0.9031 ಮೇಲೆ ಧಾಳಿಮಾಡಿದ 0.0000
-0.1249 ಧಾಳಿಮಾಡಿದ ಉಲ್ಲೇಖ 0.0000
-0.1249 ಉಲ್ಲೇಖ ಇದೆ 0.0000
-2.4260 <s> ಇಂದಿನ 0.0000
-0.1249 ಇಂದಿನ ಕಾರ್ಗಲ್ಲಿನ 0.0000
-0.1249 ಕಾರ್ಗಲ್ಲಿನ ಸಮೀಪದ 0.0000
-0.1249 ಸಮೀಪದ ಬಿದಿರೂರು 0.0000
-0.1249 ಬಿದಿರೂರು ಒಂದು -0.5593
-1.0280 ಒಂದು ಸ್ಥಾನಿಕ 0.0000
-0.1249 ಸ್ಥಾನಿಕ ಆಳ್ವಿಕೆಯ 0.0000
-0.1249 ಆಳ್ವಿಕೆಯ ಕೇಂದ್ರವಾಗಿತ್ತು 0.0000
-0.1249 ಕೇಂದ್ರವಾಗಿತ್ತು </s> -0.6021
-1.9488 <s> ಇಲ್ಲಿ -0.3424
-0.8239 ಇಲ್ಲಿ ಕಾಣಿಸಿಕೊಳ್ಳದ 0.0000
-0.1249 ಕಾಣಿಸಿಕೊಳ್ಳದ ಎರಡು 0.0000
-0.1249 ಎರಡು ವರ್ಗಗಳೆಂದರೆ 0.0000
-0.1249 ವರ್ಗಗಳೆಂದರೆ ಮಹಾಜನರ 0.0000
-0.1249 ಮಹಾಜನರ ಹಾಗೂ -0.5763
-1.2389 ಹಾಗೂ ವರ್ತಕರು 0.0000
-0.1249 ವರ್ತಕರು </s> -0.6021
-2.4260 <s> ಕಲಿಸೆಯ 0.0000
-0.1249 ಕಲಿಸೆಯ ಸೋಮನಾಥ 0.0000
-0.1249 ಸೋಮನಾಥ ದೇವಾಲಯವನ್ನು 0.0000
-0.1249 ದೇವಾಲಯವನ್ನು ಬಿಟ್ಟರೆ 0.0000
-0.1249 ಬಿಟ್ಟರೆ ಉಳಿದವಕ್ಕೆ 0.0000
-0.1249 ಉಳಿದವಕ್ಕೆ ಶಾಸನಾಧಾರಗಳಿಲ್ಲ 0.0000
-0.1249 ಶಾಸನಾಧಾರಗಳಿಲ್ಲ </s> -0.6021
-2.4260 <s> ಹುಂಚದ 0.0000
-0.1249 ಹುಂಚದ ಕಮಟೇಶ್ವರ 0.0000
-0.1249 ಕಮಟೇಶ್ವರ ದೇವಾಲಯಕ್ಕೆ 0.0000
-0.1249 ದೇವಾಲಯಕ್ಕೆ ಈತನು 0.0000
-0.1249 ಈತನು ದಾನ -0.3979
-0.4260 ದಾನ ನೀಡಿದ್ದನು 0.0000
-0.1249 ನೀಡಿದ್ದನು </s> -0.6021
-1.8239 <s> ಇದನ್ನು -0.3010
-0.9031 ಇದನ್ನು ಧೂಳಿ 0.0000
-0.1249 ಧೂಳಿ ಭತ್ತತೆರಿಗೆ 0.0000
-0.1249 ಭತ್ತತೆರಿಗೆ ಎಂದು -0.5441
-0.9031 ಎಂದು ಕರೆಯಲಾಯಿತು 0.0000
-0.1249 ಕರೆಯಲಾಯಿತು </s> -0.6021
-2.4260 <s> ಪಾಲಪರೆ 0.0000
-0.1249 ಪಾಲಪರೆ ಯುದ್ದದಿಂದಾಗಿ 0.0000
-0.1249 ಯುದ್ದದಿಂದಾಗಿ ಕೊಡಗಿನ 0.0000
-0.1249 ಕೊಡಗಿನ ಅರಸನಿಗೆ 0.0000
-0.1249 ಅರಸನಿಗೆ ತನ್ನ -0.5441
-0.9031 ತನ್ನ ಅಧಿಕಾರವನ್ನು 0.0000
-0.1249 ಅಧಿಕಾರವನ್ನು ವಿಸ್ತರಿಸಲು -0.3979
-0.4260 ವಿಸ್ತರಿಸಲು ಸಾಧ್ಯವಾಯಿತು 0.0000
-0.1249 ಸಾಧ್ಯವಾಯಿತು </s> -0.6021
-2.4260 <s> ಸಣ್ಣ -0.3979
-0.4260 ಸಣ್ಣ ಪುಟ್ಟ 0.0000
-0.1249 ಪುಟ್ಟ ಪಾಳೇಗಾರರನ್ನೂ 0.0000
-0.1249 ಪಾಳೇಗಾರರನ್ನೂ ಸುಲಭವಾಗಿ 0.0000
-0.1249 ಸುಲಭವಾಗಿ ಸೋಲಿಸಿದ 0.0000
-0.1249 ಸೋಲಿಸಿದ ಹೈದರ್ 0.0000
-0.1249 ಹೈದರ್ ಕೊನೆಗೆ -0.3979
-0.4260 ಕೊನೆಗೆ ಇಕ್ಕೇರಿ 0.0000
-0.1249 ಇಕ್ಕೇರಿ ಸಂಸ್ಥಾನವನ್ನು 0.0000
-0.1249 ಸಂಸ್ಥಾನವನ್ನು ವಶಪಡಿಸಿಕೊಳ್ಳುವನು 0.0000
-0.1249 ವಶಪಡಿಸಿಕೊಳ್ಳುವನು </s> -0.6021
-2.4260 <s> ದೊಂಬರ 0.0000
-0.1249 ದೊಂಬರ ಕಣಿಯನದು 0.0000
-0.1249 ಕಣಿಯನದು ಮಂದಾರರು 0.0000
-0.1249 ಮಂದಾರರು ಸೃಷ್ಟಿಸಿದ 0.0000
-0.1249 ಸೃಷ್ಟಿಸಿದ ವಿಶಿಷ್ಟ 0.0000
-0.1249 ವಿಶಿಷ್ಟ ಪಾತ್ರ -0.3979
-0.4260 ಪಾತ್ರ </s> -0.6021
-2.4260 <s> ವೇದವ್ಯಾಸೆರೆ 0.0000
-0.1249 ವೇದವ್ಯಾಸೆರೆ ಪಾತೆರೊ 0.0000
-0.1249 ಪಾತೆರೊ ಹೀಗೆ -0.3979
-0.4260 ಹೀಗೆ ತುಳುವಿನಲ್ಲಿ -0.3979
-0.4260 ತುಳುವಿನಲ್ಲಿ ಅಭಿವ್ಯಕ್ತಗೊಂಡ 0.0000
-0.1249 ಅಭಿವ್ಯಕ್ತಗೊಂಡ ತಾತ್ತ್ವಿಕ 0.0000
-0.1249 ತಾತ್ತ್ವಿಕ ಗೀತೆಗಳು 0.0000
-0.1249 ಗೀತೆಗಳು ಬೇರೆಯೇ 0.0000
-0.1249 ಬೇರೆಯೇ ಆದ 0.0000
-0.1249 ಆದ ಭಾವಲೋಕವೊಂದನ್ನು 0.0000
-0.1249 ಭಾವಲೋಕವೊಂದನ್ನು ಕಟ್ಟಿಕೊಡುತ್ತವೆ 0.0000
-0.1249 ಕಟ್ಟಿಕೊಡುತ್ತವೆ </s> -0.6021
-2.4260 <s> ರತ್ನವರ್ಮ 0.0000
-0.1249 ರತ್ನವರ್ಮ ಹೆಗ್ಗಡೆ 0.0000
-0.1249 ಹೆಗ್ಗಡೆ ಸ್ಮಾರಕ -0.3979
-0.4260 ಸ್ಮಾರಕ ತುಳು -0.5119
-0.7270 ತುಳು ನಾಟಕ -0.4771
-0.6021 ನಾಟಕ ರಚನಾ 0.0000
-0.1249 ರಚನಾ ಸ್ಪರ್ಧೆಯಲ್ಲಿ 0.0000
-0.1249 ಸ್ಪರ್ಧೆಯಲ್ಲಿ ಪ್ರಶಸ್ತಿ 0.0000
-0.1249 ಪ್ರಶಸ್ತಿ ಪಡೆದ 0.0000
-0.1249 ಪಡೆದ ತುಳು -0.5119
-0.7270 ತುಳು ಸಾಮಾಜಿಕ -0.4771
-0.6021 ಸಾಮಾಜಿಕ ನಾಟಕ -0.4771
-0.6021 ನಾಟಕ </s> -0.6021
-2.4260 <s> ಸಾಹಿತ್ಯ 0.0000
-0.1249 ಸಾಹಿತ್ಯ ಅಕಾಡೆಮಿ 0.0000
-0.1249 ಅಕಾಡೆಮಿ ಮಂಗಳೂರು 0.0000
-0.1249 ಮಂಗಳೂರು ಡೆ 0.0000
-0.1249 ಡೆ </s> -0.6021
-2.4260 <s> ತಮ್ಮಲರ 0.0000
-0.1249 ತಮ್ಮಲರ ಅರ್ವತ್ತನ 0.0000
-0.1249 ಅರ್ವತ್ತನ ಕೋಲದಂತಹ 0.0000
-0.1249 ಕೋಲದಂತಹ ನಾಟಕಗಳಲ್ಲಿ 0.0000
-0.1249 ನಾಟಕಗಳಲ್ಲಿ ಭೂತಕೋಲ 0.0000
-0.1249 ಭೂತಕೋಲ ಅಳಿಯಕಟ್ಟು 0.0000
-0.1249 ಅಳಿಯಕಟ್ಟು ಇತ್ಯಾದಿಗಳು 0.0000
-0.1249 ಇತ್ಯಾದಿಗಳು ಬರುತ್ತವೆ 0.0000
-0.1249 ಬರುತ್ತವೆ </s> -0.6021
-2.4260 <s> ಜಾತೀಯತೆಯ 0.0000
-0.1249 ಜಾತೀಯತೆಯ ವಿರುದ್ಧ -0.3979
-0.4260 ವಿರುದ್ಧ ನಿಲ್ಲುವವರು 0.0000
-0.1249 ನಿಲ್ಲುವವರು ಮೇಲ್ಜಾತಿಯ 0.0000
-0.1249 ಮೇಲ್ಜಾತಿಯ ಜನರೇ 0.0000
-0.1249 ಜನರೇ ಆಗಿರುವುದು 0.0000
-0.1249 ಆಗಿರುವುದು ಕೃತಿಕಾರನ 0.0000
-0.1249 ಕೃತಿಕಾರನ ಸಾಮಾಜಿಕ -0.4771
-0.6021 ಸಾಮಾಜಿಕ ಹಿನ್ನೆಲೆಯಿಂದ 0.0000
-0.1249 ಹಿನ್ನೆಲೆಯಿಂದ ಪ್ರಭಾವಿತವಾದ 0.0000
-0.1249 ಪ್ರಭಾವಿತವಾದ ವಿಚಾರವಾಗಿದೆ 0.0000
-0.1249 ವಿಚಾರವಾಗಿದೆ </s> -0.6021
-2.4260 <s> ಬಂಡವಾಳಶಾಹಿಯ 0.0000
-0.1249 ಬಂಡವಾಳಶಾಹಿಯ ಪ್ರವೇಶದಿಂದ 0.0000
-0.1249 ಪ್ರವೇಶದಿಂದ ಜನರು -0.5315
-0.8239 ಜನರು ಶ್ರೀಮಂತಿಕೆಗೆ 0.0000
-0.1249 ಶ್ರೀಮಂತಿಕೆಗೆ ಹೆಚ್ಚು -0.5441
-0.9031 ಹೆಚ್ಚು ಬೆಲೆಕೊಟ್ಟು 0.0000
-0.1249 ಬೆಲೆಕೊಟ್ಟು ತಮ್ಮ 0.0000
-0.1249 ತಮ್ಮ ಅಂತಸ್ತನ್ನು 0.0000
-0.1249 ಅಂತಸ್ತನ್ನು ಅಳೆಯತೊಡಗಿದರು 0.0000
-0.1249 ಅಳೆಯತೊಡಗಿದರು </s> -0.6021
-2.4260 <s> ಮನಸಿನಿಂದೆರಗಿರುವನೆನಲೊ 0.0000
-0.1249 ಮನಸಿನಿಂದೆರಗಿರುವನೆನಲೊ ಪಾತಕಿ 0.0000
-0.1249 ಪಾತಕಿ ಬಂದು 0.0000
-0.1249 ಬಂದು ಪಾವನನ 0.0000
-0.1249 ಪಾವನನ ಚರಣಗಳಿಗೆ 0.0000
-0.1249 ಚರಣಗಳಿಗೆ </s> -0.6021
-2.4260 <s> ಆನೆಗೊಂದಿ 0.0000
-0.1249 ಆನೆಗೊಂದಿ ನದಿಯ -0.3979
-0.4260 ನದಿಯ ಆಚೆಯ 0.0000
-0.1249 ಆಚೆಯ ಭಾಗದಲ್ಲಿ 0.0000
-0.1249 ಭಾಗದಲ್ಲಿ ನಮ್ಮ 0.0000
-0.1249 ನಮ್ಮ ಕಡೆಯಿಂದ 0.0000
-0.1249 ಕಡೆಯಿಂದ ಆಚೆಗೆ 0.0000
-0.1249 ಆಚೆಗೆ ಹರಿಗೋಲುಗಳಲ್ಲಿ 0.0000
-0.1249 ಹರಿಗೋಲುಗಳಲ್ಲಿ ದಾಟಿಹೋಗಬೇಕು 0.0000
-0.1249 ದಾಟಿಹೋಗಬೇಕು </s> -0.6021
-2.4260 <s> ಹಳೆ 0.0000
-0.1249 ಹಳೆ ಹಾಗೂ -0.5763
-1.2389 ಹಾಗೂ ಹೊಸ -0.3979
-0.4260 ಹೊಸ ಒಡಂಬಡಿಕೆಗಳಲ್ಲಿಯೂ 0.0000
-0.1249 ಒಡಂಬಡಿಕೆಗಳಲ್ಲಿಯೂ ಇದು -0.4771
-0.6021 ಇದು ದೇವರ -0.3979
-0.4260 ದೇವರ ಧರ್ಮ 0.0000
-0.1249 ಧರ್ಮ ಎಂದೇ 0.0000
-0.1249 ಎಂದೇ ವರ್ಣಿಸಲ್ಪಟ್ಟಿದೆ 0.0000
-0.1249 ವರ್ಣಿಸಲ್ಪಟ್ಟಿದೆ </s> -0.6021
-2.4260 <s> ಯೇಸು 0.0000
-0.1249 ಯೇಸು ಮಾನವಪ್ರೇಮ 0.0000
-0.1249 ಮಾನವಪ್ರೇಮ ಹಾಗೂ -0.5763
-1.2389 ಹಾಗೂ ತ್ಯಾಗಗಳ 0.0000
-0.1249 ತ್ಯಾಗಗಳ ಅಮರತತ್ವಗಳನ್ನು 0.0000
-0.1249 ಅಮರತತ್ವಗಳನ್ನು ಜಗತ್ತಿಗೆ 0.0000
-0.1249 ಜಗತ್ತಿಗೆ ಬೋಧಿಸಿದನು 0.0000
-0.1249 ಬೋಧಿಸಿದನು </s> -0.6021
-2.4260 <s> ಕೇವಲ -0.4771
-0.6021 ಕೇವಲ ಒಂದು -0.5593
-1.0280 ಒಂದು ಶತಮಾನದ -0.3979
-0.4260 ಶತಮಾನದ ಅವಧಿಯಲ್ಲಿ 0.0000
-0.1249 ಅವಧಿಯಲ್ಲಿ ಅರಬ್ -0.3979
-0.4260 ಅರಬ್ ಆಡಳಿತಗಾರರು 0.0000
-0.1249 ಆಡಳಿತಗಾರರು ಸಂಘಟಿತರಾಗಿ 0.0000
-0.1249 ಸಂಘಟಿತರಾಗಿ ಸುಭದ್ರ 0.0000
-0.1249 ಸುಭದ್ರ ಸಾಮ್ರಾಜ್ಯ 0.0000
-0.1249 ಸಾಮ್ರಾಜ್ಯ ಕಟ್ಟಿದರು 0.0000
-0.1249 ಕಟ್ಟಿದರು </s> -0.6021
-2.4260 <s> ಸಮಾಜಮುಖಿ 0.0000
-0.1249 ಸಮಾಜಮುಖಿ ಚಿಂತನೆಗಳ 0.0000
-0.1249 ಚಿಂತನೆಗಳ ವ್ಯಾಪಕ 0.0000
-0.1249 ವ್ಯಾಪಕ ಅಧ್ಯಯನ 0.0000
-0.1249 ಅಧ್ಯಯನ ಬದುಕಿನ 0.0000
-0.1249 ಬದುಕಿನ ಸಂಕೀರ್ಣ 0.0000
-0.1249 ಸಂಕೀರ್ಣ ಲಕ್ಷಣಗಳ 0.0000
-0.1249 ಲಕ್ಷಣಗಳ ಸ್ವರೂಪವನ್ನು 0.0000
-0.1249 ಸ್ವರೂಪವನ್ನು ಇದು -0.4771
-0.6021 ಇದು ಪರಿಚಯಿಸುತ್ತದೆ 0.0000
-0.1249 ಪರಿಚಯಿಸುತ್ತದೆ </s> -0.6021
-0.7270 ಆದರೆ ತಾನು -0.5119
-0.7270 ತಾನು ಸಂಬಂಧ -0.3979
-0.4260 ಸಂಬಂಧ ಬೆಳೆಸುವ 0.0000
-0.1249 ಬೆಳೆಸುವ ರಾಷ್ಟ್ರವು 0.0000
-0.1249 ರಾಷ್ಟ್ರವು ಕೆಲವೊಂದು 0.0000
-0.1249 ಕೆಲವೊಂದು ಷರತ್ತುಗಳನ್ನು 0.0000
-0.1249 ಷರತ್ತುಗಳನ್ನು ಪಾಲಿಸಬೇಕು 0.0000
-0.1249 ಪಾಲಿಸಬೇಕು </s> -0.6021
-2.4260 <s> ಜೊತೆಗೆ 0.0000
-0.1249 ಜೊತೆಗೆ ತನ್ನ -0.5441
-0.9031 ತನ್ನ ದೇಶದ 0.0000
-0.1249 ದೇಶದ ಹೆಚ್ಚುವರಿ 0.0000
-0.1249 ಹೆಚ್ಚುವರಿ ಜನಸಂಖ್ಯೆಗೆ 0.0000
-0.1249 ಜನಸಂಖ್ಯೆಗೆ ಉದ್ಯೋಗ 0.0000
-0.1249 ಉದ್ಯೋಗ ಮತ್ತು -0.5781
-1.2711 ಮತ್ತು ವಸ್ತು 0.0000
-0.1249 ವಸ್ತು ಸೌಕರ್ಯವನ್ನು 0.0000
-0.1249 ಸೌಕರ್ಯವನ್ನು ಒದಗಿಸಲು 0.0000
-0.1249 ಒದಗಿಸಲು ಸುಲಭವಾಗುತ್ತದೆ 0.0000
-0.1249 ಸುಲಭವಾಗುತ್ತದೆ </s> -0.6021
-2.4260 <s> ಅದೇ 0.0000
-0.1249 ಅದೇ ಕಾರಣಕ್ಕೆ 0.0000
-0.1249 ಕಾರಣಕ್ಕೆ ಹೊಸ -0.3979
-0.4260 ಹೊಸ ಪ್ರದೇಶಗಳ -0.3979
-0.4260 ಪ್ರದೇಶಗಳ ಆಕ್ರಮಣಕ್ಕೆ 0.0000
-0.1249 ಆಕ್ರಮಣಕ್ಕೆ ಅವಕಾಶಕ್ಕಾಗಿ 0.0000
-0.1249 ಅವಕಾಶಕ್ಕಾಗಿ ಇಸ್ರೇಲ್ 0.0000
-0.1249 ಇಸ್ರೇಲ್ ಸರಕಾರ 0.0000
-0.1249 ಸರಕಾರ ನಿರೀಕ್ಷಿಸುತ್ತಿತ್ತು 0.0000
-0.1249 ನಿರೀಕ್ಷಿಸುತ್ತಿತ್ತು </s> -0.6021
-1.5873 ಈ ಕಾನೂನಿನಂತೆ 0.0000
-0.1249 ಕಾನೂನಿನಂತೆ ಉಲೇಮಾಗಳು 0.0000
-0.1249 ಉಲೇಮಾಗಳು ಯಾವುದೇ -0.4771
-0.6021 ಯಾವುದೇ ನ್ಯಾಯಾಲಯಕ್ಕೆ 0.0000
-0.1249 ನ್ಯಾಯಾಲಯಕ್ಕೆ ನ್ಯಾಯಾಧೀಶರಾಗಿ 0.0000
-0.1249 ನ್ಯಾಯಾಧೀಶರಾಗಿ ನೇಮಕಗೊಳ್ಳುವ 0.0000
-0.1249 ನೇಮಕಗೊಳ್ಳುವ ಸಾಧ್ಯತೆಯನ್ನು 0.0000
-0.1249 ಸಾಧ್ಯತೆಯನ್ನು ತಡೆಯಲಾಯಿತು 0.0000
-0.1249 ತಡೆಯಲಾಯಿತು </s> -0.6021
-2.4260 <s> ಅಮೆರಿಕಾದ 0.0000
-0.1249 ಅಮೆರಿಕಾದ ಆಡಳಿತಕ್ಕೆ 0.0000
-0.1249 ಆಡಳಿತಕ್ಕೆ ಇದೊಂದು 0.0000
-0.1249 ಇದೊಂದು ಗಂಭೀರವಾದ 0.0000
-0.1249 ಗಂಭೀರವಾದ ದೊಡ್ಡ 0.0000
-0.1249 ದೊಡ್ಡ ಪಿಡುಗಾಗಿತ್ತು 0.0000
-0.1249 ಪಿಡುಗಾಗಿತ್ತು </s> -0.6021
-2.4260 <s> ಕೊನೆಗೆ -0.3979
-0.4260 ಕೊನೆಗೆ ಈ -0.5907
-1.5873 ಈ ಕೃತ್ಯಗಳನ್ನು 0.0000
-0.1249 ಕೃತ್ಯಗಳನ್ನು ತಡೆಗಟ್ಟಲೇಬೇಕೆಂಬ 0.0000
-0.1249 ತಡೆಗಟ್ಟಲೇಬೇಕೆಂಬ ಇಚ್ಛೆಯೊಂದಿಗೆ 0.0000
-0.1249 ಇಚ್ಛೆಯೊಂದಿಗೆ ಏಕಾಂಗಿಯಾಗಿ 0.0000
-0.1249 ಏಕಾಂಗಿಯಾಗಿ ಅಮೆರಿಕಾ -0.5119
-0.7270 ಅಮೆರಿಕಾ ಬಾಂಬರ್ 0.0000
-0.1249 ಬಾಂಬರ್ ದಾಳಿಗೆ 0.0000
-0.1249 ದಾಳಿಗೆ ಇಳಿಯಿತು 0.0000
-0.1249 ಇಳಿಯಿತು </s> -0.6021
-1.5873 ಈ ಕಾಲುವೆ -0.3979
-0.4260 ಕಾಲುವೆ ನಿಮಾರ್ಣವಾದ 0.0000
-0.1249 ನಿಮಾರ್ಣವಾದ ನಂತರ -0.4771
-0.6021 ನಂತರ ಅದರಿಂದ 0.0000
-0.1249 ಅದರಿಂದ ಬರುವ -0.3979
-0.4260 ಬರುವ ಲಾಭ 0.0000
-0.1249 ಲಾಭ ಯಾರಿಗೆ 0.0000
-0.1249 ಯಾರಿಗೆ ಸೇರಬೇಕಾದ್ದು 0.0000
-0.1249 ಸೇರಬೇಕಾದ್ದು ಎಂಬ -0.5315
-0.8239 ಎಂಬ ಕುತೂಹಲ 0.0000
-0.1249 ಕುತೂಹಲ ಹುಟ್ಟಿಕೊಂಡಿತು 0.0000
-0.1249 ಹುಟ್ಟಿಕೊಂಡಿತು </s> -0.6021
-2.1249 <s> ತನ್ನ -0.4771
-0.9031 ತನ್ನ ನೀತಿಗಳಿಂದ 0.0000
-0.1249 ನೀತಿಗಳಿಂದ ಅಮೆರಿಕಾವನ್ನು 0.0000
-0.1249 ಅಮೆರಿಕಾವನ್ನು ಸಶಕ್ತ 0.0000
-0.1249 ಸಶಕ್ತ ರಾಷ್ಟ್ರವನ್ನಾಗಿ 0.0000
-0.1249 ರಾಷ್ಟ್ರವನ್ನಾಗಿ ಮಾಡಿದ 0.0000
-0.1249 ಮಾಡಿದ ಮೆಕಿನ್ಲೆ 0.0000
-0.1249 ಮೆಕಿನ್ಲೆ ಸಹಜವಾಗಿ 0.0000
-0.1249 ಸಹಜವಾಗಿ ಹೆಚ್ಚಿನ 0.0000
-0.1249 ಹೆಚ್ಚಿನ ಮತಗಳಿಂದ 0.0000
-0.1249 ಮತಗಳಿಂದ ವಿಜಯಗಳಿಸಿದನು 0.0000
-0.1249 ವಿಜಯಗಳಿಸಿದನು </s> -0.6021
-2.4260 <s> ವ್ಯಾಪಾರದ 0.0000
-0.1249 ವ್ಯಾಪಾರದ ಲೆಕ್ಕ 0.0000
-0.1249 ಲೆಕ್ಕ ಪತ್ರ 0.0000
-0.1249 ಪತ್ರ ಮತ್ತು -0.5781
-1.2711 ಮತ್ತು ಜಮಾ 0.0000
-0.1249 ಜಮಾ ಖರ್ಚಿನ 0.0000
-0.1249 ಖರ್ಚಿನ ವ್ಯವಹಾರವನ್ನು 0.0000
-0.1249 ವ್ಯವಹಾರವನ್ನು ಇಡುವುದರಲ್ಲಿ 0.0000
-0.1249 ಇಡುವುದರಲ್ಲಿ ಈಜಿಪ್ಟಿನ 0.0000
-0.1249 ಈಜಿಪ್ಟಿನ ಜನರು -0.5315
-0.8239 ಜನರು ಪ್ರಗತಿಯನ್ನು 0.0000
-0.1249 ಪ್ರಗತಿಯನ್ನು ಸಾಧಿಸಿದ್ದರು 0.0000
-0.1249 ಸಾಧಿಸಿದ್ದರು </s> -0.6021
-2.4260 <s> ಭೌಗೋಳಿಕವಾಗಿ -0.3979
-0.4260 ಭೌಗೋಳಿಕವಾಗಿ ಎಲ್ಲ 0.0000
-0.1249 ಎಲ್ಲ ಲಕ್ಷಣಗಳು -0.3979
-0.4260 ಲಕ್ಷಣಗಳು ಯುರೋಪಿನ -0.3979
-0.4260 ಯುರೋಪಿನ ರಾಷ್ಟ್ರಗಳಿಗೆ 0.0000
-0.1249 ರಾಷ್ಟ್ರಗಳಿಗೆ ಸಹಕಾರಿಯಾಗಿಯೇ 0.0000
-0.1249 ಸಹಕಾರಿಯಾಗಿಯೇ ಇದ್ದುವು 0.0000
-0.1249 ಇದ್ದುವು </s> -0.6021
-2.4260 <s> ಸತ್ತ -0.3979
-0.4260 ಸತ್ತ ವ್ಯಕ್ತಿಯನ್ನು 0.0000
-0.1249 ವ್ಯಕ್ತಿಯನ್ನು ರಾವಲುಕುಂಟೆಯಿಂದ 0.0000
-0.1249 ರಾವಲುಕುಂಟೆಯಿಂದ ಬುಕ್ಕಂಬೂದಿ 0.0000
-0.1249 ಬುಕ್ಕಂಬೂದಿ ಕೆರೆಯ 0.0000
-0.1249 ಕೆರೆಯ ಅಂಗಳದಲ್ಲಿ 0.0000
-0.1249 ಅಂಗಳದಲ್ಲಿ ಹೂತು 0.0000
-0.1249 ಹೂತು ಸಮಾಧಿಮಾಡಿದ್ದಾರೆ 0.0000
-0.1249 ಸಮಾಧಿಮಾಡಿದ್ದಾರೆ </s> -0.6021
-2.4260 <s> ಅಧಿಕಾರ 0.0000
-0.1249 ಅಧಿಕಾರ ಹಾಗೂ -0.5488
-0.9379 ಹಾಗೂ ಸವಲತ್ತುಗಳ 0.0000
-0.4260 ಸವಲತ್ತುಗಳ ಪ್ರಶ್ನೆಯೇ 0.0000
-0.1249 ಪ್ರಶ್ನೆಯೇ ಭೂಮಾಲೀಕ 0.0000
-0.1249 ಭೂಮಾಲೀಕ ಸಮಾಜದಲ್ಲಿ 0.0000
-0.1249 ಸಮಾಜದಲ್ಲಿ ಮುಖ್ಯವಾಗಿರುತ್ತದೆಯೇ 0.0000
-0.1249 ಮುಖ್ಯವಾಗಿರುತ್ತದೆಯೇ ಹೊರತು -0.3979
-0.4260 ಹೊರತು ಭಾವನಾತ್ಮಕ 0.0000
-0.1249 ಭಾವನಾತ್ಮಕ ವಿಚಾರಗಳಲ್ಲ 0.0000
-0.1249 ವಿಚಾರಗಳಲ್ಲ </s> -0.6021
-2.4260 <s> ತುಳು -0.3979
-0.4260 ತುಳು ಜನಪದ 0.0000
-0.4260 ಜನಪದ ಸಾಹಿತ್ಯವನ್ನು 0.0000
-0.1249 ಸಾಹಿತ್ಯವನ್ನು ಮಹಾಕಾವ್ಯಗಳಾಗಿ 0.0000
-0.1249 ಮಹಾಕಾವ್ಯಗಳಾಗಿ ನೋಡುವ 0.0000
-0.1249 ನೋಡುವ ಪ್ರಯತ್ನಗಳೂ 0.0000
-0.1249 ಪ್ರಯತ್ನಗಳೂ ನಡೆದಿವೆ 0.0000
-0.1249 ನಡೆದಿವೆ </s> -0.6021
-2.4260 <s> ಏನೆಂದರೂ 0.0000
-0.1249 ಏನೆಂದರೂ ಕರಿಯನೆ 0.0000
-0.1249 ಕರಿಯನೆ ಆಗಿದ್ದ 0.0000
-0.1249 ಆಗಿದ್ದ ರಾಜನನ್ನು 0.0000
-0.1249 ರಾಜನನ್ನು ಅವನು -0.3979
-0.4260 ಅವನು ಇಡಲ್ಕಾವ್ 0.0000
-0.1249 ಇಡಲ್ಕಾವ್ ನಂಬಕೂಡದೆಂದು 0.0000
-0.1249 ನಂಬಕೂಡದೆಂದು ತನಗೆ 0.0000
-0.1249 ತನಗೆ ಅನಿಸುತ್ತದೆಂದ 0.0000
-0.1249 ಅನಿಸುತ್ತದೆಂದ </s> -0.6021
-1.5873 ಈ ನದಿಯ -0.3979
-0.4260 ನದಿಯ ಅಕ್ಕಪಕ್ಕ 0.0000
-0.1249 ಅಕ್ಕಪಕ್ಕ ಬಹು 0.0000
-0.1249 ಬಹು ಸುಂದರವಾಗಿದೆ 0.0000
-0.1249 ಸುಂದರವಾಗಿದೆ </s> -0.6021
-2.4260 <s> ಕಾಲುವೆ -0.3979
-0.4260 ಕಾಲುವೆ ಭದ್ರತೆ 0.0000
-0.1249 ಭದ್ರತೆ ವಿಚಾರವಾಗಿ 0.0000
-0.1249 ವಿಚಾರವಾಗಿ ಬೆದರಿಕೆ 0.0000
-0.1249 ಬೆದರಿಕೆ ಬಂದರೆ 0.0000
-0.1249 ಬಂದರೆ ಸೈನ್ಯ -0.3979
-0.4260 ಸೈನ್ಯ ಸಮೇತ 0.0000
-0.1249 ಸಮೇತ ವಾಪಸ್ಸು 0.0000
-0.1249 ವಾಪಸ್ಸು ಬರುವ -0.3979
-0.4260 ಬರುವ ಹಕ್ಕನ್ನು 0.0000
-0.1249 ಹಕ್ಕನ್ನು ಬ್ರಿಟಿಷರು 0.0000
-0.1249 ಬ್ರಿಟಿಷರು ಕಾಯ್ದಿರಿಸಿದರು 0.0000
-0.1249 ಕಾಯ್ದಿರಿಸಿದರು </s> -0.6021
-2.4260 <s> ಹೀಗಾಗಿ 0.0000
-0.1249 ಹೀಗಾಗಿ ಈತನಿಗೆ 0.0000
-0.1249 ಈತನಿಗೆ ಇಂಗ್ಲೆಂಡ್ನ 0.0000
-0.1249 ಇಂಗ್ಲೆಂಡ್ನ ಹಿತಾಸಕ್ತಿಗಳು 0.0000
-0.1249 ಹಿತಾಸಕ್ತಿಗಳು ಪ್ರಮುಖವೆನಿಸಿದವೇ 0.0000
-0.1249 ಪ್ರಮುಖವೆನಿಸಿದವೇ ಹೊರತು -0.3979
-0.4260 ಹೊರತು ನೂರಾರು 0.0000
-0.1249 ನೂರಾರು ವರ್ಷಗಳಿಂದ 0.0000
-0.1249 ವರ್ಷಗಳಿಂದ ಅಮೆರಿಕಾ -0.5119
-0.7270 ಅಮೆರಿಕಾ ಪ್ರದೇಶಗಳಲ್ಲಿದ್ದ 0.0000
-0.1249 ಪ್ರದೇಶಗಳಲ್ಲಿದ್ದ ಯುರೋಪಿನ -0.3979
-0.4260 ಯುರೋಪಿನ ಬಂಧುಗಳಲ್ಲ 0.0000
-0.1249 ಬಂಧುಗಳಲ್ಲ </s> -0.6021
-0.9031 ಇದನ್ನು ವಿರೋಧಿಸಲು 0.0000
-0.1249 ವಿರೋಧಿಸಲು ಸ್ವಾತಂತ್ರ್ಯ 0.0000
-0.1249 ಸ್ವಾತಂತ್ರ್ಯ ಕುವರರು 0.0000
-0.1249 ಕುವರರು ಹೋರಾಟಕ್ಕಿಳಿದರು 0.0000
-0.1249 ಹೋರಾಟಕ್ಕಿಳಿದರು </s> -0.6021
-2.4260 <s> ಪರಿವರ್ತನೆ 0.0000
-0.1249 ಪರಿವರ್ತನೆ ಕೆಲಸ 0.0000
-0.1249 ಕೆಲಸ ಸಾಕಷ್ಟು -0.3979
-0.4260 ಸಾಕಷ್ಟು ಯಶಸ್ವಿಯಾಗಿ -0.3979
-0.4260 ಯಶಸ್ವಿಯಾಗಿ ನಡೆಯಿತು 0.0000
-0.1249 ನಡೆಯಿತು </s> -0.6021
-2.4260 <s> ಮೊದಲ 0.0000
-0.1249 ಮೊದಲ ಹಂತದ 0.0000
-0.1249 ಹಂತದ ಈ -0.5907
-1.5873 ಈ ಸಮಾಜವಾದಿಗಳಲ್ಲಿ 0.0000
-0.1249 ಸಮಾಜವಾದಿಗಳಲ್ಲಿ ಮುಖ್ಯನಾದವನು 0.0000
-0.1249 ಮುಖ್ಯನಾದವನು ರಾಬರ್ಟ್ 0.0000
-0.1249 ರಾಬರ್ಟ್ ಓವೆನ್ 0.0000
-0.1249 ಓವೆನ್ </s> -0.6021
-2.4260 <s> ಜನಸಾಮಾನ್ಯರ 0.0000
-0.1249 ಜನಸಾಮಾನ್ಯರ ಸ್ವತಂತ್ರ್ಯವನ್ನು 0.0000
-0.1249 ಸ್ವತಂತ್ರ್ಯವನ್ನು ರಕ್ಷಿಸುವ 0.0000
-0.1249 ರಕ್ಷಿಸುವ ಯಾವ 0.0000
-0.1249 ಯಾವ ಮಾರ್ಗಗಳೂ 0.0000
-0.1249 ಮಾರ್ಗಗಳೂ ಅಲ್ಲಿರಲಿಲ್ಲ 0.0000
-0.1249 ಅಲ್ಲಿರಲಿಲ್ಲ </s> -0.6021
-2.4260 <s> ರಾಜಸ್ಥಾನವು 0.0000
-0.1249 ರಾಜಸ್ಥಾನವು ಇದ್ದು -0.3979
-0.4260 ಇದ್ದು ಸಚಿವರ 0.0000
-0.1249 ಸಚಿವರ ಸಮೂಹ 0.0000
-0.1249 ಸಮೂಹ ಇರುತ್ತಿತ್ತು 0.0000
-0.1249 ಇರುತ್ತಿತ್ತು </s> -0.6021
-2.4260 <s> ತೆರಿಗೆಗೆ 0.0000
-0.1249 ತೆರಿಗೆಗೆ ಸಂಬಂಧಪಟ್ಟ 0.0000
-0.1249 ಸಂಬಂಧಪಟ್ಟ ಕ್ರಮ 0.0000
-0.1249 ಕ್ರಮ ಗಳಾದರಂತೂ 0.0000
-0.1249 ಗಳಾದರಂತೂ ಈ -0.5907
-1.5873 ಈ ಪದ್ಧತಿ -0.3979
-0.4260 ಪದ್ಧತಿ ಇದ್ದೇ -0.3979
-0.4260 ಇದ್ದೇ ಇತ್ತು 0.0000
-0.1249 ಇತ್ತು </s> -0.6021
-1.0280 ಒಂದು ಜತೆ 0.0000
-0.1249 ಜತೆ ಬಟ್ಟೆಯಲ್ಲಿ 0.0000
-0.1249 ಬಟ್ಟೆಯಲ್ಲಿ ಓದು 0.0000
-0.1249 ಓದು ಮುಗಿಸಿದವರಿದ್ದಾರೆ 0.0000
-0.1249 ಮುಗಿಸಿದವರಿದ್ದಾರೆ </s> -0.6021
-2.4260 <s> ದೇಹ 0.0000
-0.1249 ದೇಹ ಸ್ಥೂಲವಾಗುತ್ತಿದ್ದಂತೆಯೇ 0.0000
-0.1249 ಸ್ಥೂಲವಾಗುತ್ತಿದ್ದಂತೆಯೇ ರಕ್ತದ 0.0000
-0.1249 ರಕ್ತದ ಒತ್ತಡ 0.0000
-0.1249 ಒತ್ತಡ ಸಮಸ್ಯೆ 0.0000
-0.1249 ಸಮಸ್ಯೆ ಕಂಡುಬರುವುದು 0.0000
-0.1249 ಕಂಡುಬರುವುದು </s> -0.6021
-2.4260 <s> ಅಮ್ಮನನ್ನು 0.0000
-0.1249 ಅಮ್ಮನನ್ನು ಏಕೆ 0.0000
-0.1249 ಏಕೆ ನೋಯಿಸಬೇಕೆಂದು 0.0000
-0.1249 ನೋಯಿಸಬೇಕೆಂದು ನಾನು 0.0000
-0.1249 ನಾನು ಎಷ್ಟು -0.3979
-0.4260 ಎಷ್ಟು ಸಾಧ್ಯವೋ 0.0000
-0.1249 ಸಾಧ್ಯವೋ ಅಷ್ಟು 0.0000
-0.1249 ಅಷ್ಟು ಅವರು -0.4771
-0.6021 ಅವರು ಹೇಳಿದಂತೆ 0.0000
-0.1249 ಹೇಳಿದಂತೆ ನಡೆದುಕೊಂಡು 0.0000
-0.1249 ನಡೆದುಕೊಂಡು ಬಿಡುತ್ತೇನೆ 0.0000
-0.1249 ಬಿಡುತ್ತೇನೆ </s> -0.6021
-2.4260 <s> ಹೋದ 0.0000
-0.1249 ಹೋದ ಮಗ 0.0000
-0.1249 ಮಗ ರಾತ್ರಿಯಾದರೂ 0.0000
-0.1249 ರಾತ್ರಿಯಾದರೂ ಬರಲಿಲ್ಲವೆಂದು 0.0000
-0.1249 ಬರಲಿಲ್ಲವೆಂದು ಕೋರ್ಲಮಲ್ಲಿನಾಯಕನಿಗೆ 0.0000
-0.1249 ಕೋರ್ಲಮಲ್ಲಿನಾಯಕನಿಗೆ ಆತಂಕವಾಯಿತು 0.0000
-0.1249 ಆತಂಕವಾಯಿತು </s> -0.6021
-1.0280 ಒಂದು ವೇಳೆ 0.0000
-0.1249 ವೇಳೆ ಅಕಸ್ಮಾತ್ತಾಗಿ 0.0000
-0.1249 ಅಕಸ್ಮಾತ್ತಾಗಿ ಆ -0.5643
-1.0792 ಆ ದೇಶ 0.0000
-0.1249 ದೇಶ ಅವರ -0.4771
-0.6021 ಅವರ ಕೈ 0.0000
-0.1249 ಕೈ ತಪ್ಪಿ 0.0000
-0.1249 ತಪ್ಪಿ ಹೋದರೂ 0.0000
-0.1249 ಹೋದರೂ </s> -0.6021
-1.9488 <s> ಇದೇ -0.3424
-0.8239 ಇದೇ ಪೂರ್ವ -0.3979
-0.4260 ಪೂರ್ವ ಏಷ್ಯಾದ 0.0000
-0.1249 ಏಷ್ಯಾದ ಆಧುನಿಕ -0.4771
-0.6021 ಆಧುನಿಕ ಇತಿಹಾಸ 0.0000
-0.1249 ಇತಿಹಾಸ ಹಾಗೂ -0.5763
-1.2389 ಹಾಗೂ ಇದೇ -0.5315
-0.8239 ಇದೇ ಅದರ -0.3979
-0.4260 ಅದರ ಭವಿಷ್ಯವನ್ನು 0.0000
-0.1249 ಭವಿಷ್ಯವನ್ನು ತಿದ್ದುವಂಥದ್ದು 0.0000
-0.1249 ತಿದ್ದುವಂಥದ್ದು </s> -0.6021
-2.4260 <s> ಆಧುನಿಕ -0.4771
-0.6021 ಆಧುನಿಕ ಶಿಕ್ಷಣ 0.0000
-0.1249 ಶಿಕ್ಷಣ ಹಾಗೂ -0.5763
-1.2389 ಹಾಗೂ ಇತರೆ 0.0000
-0.1249 ಇತರೆ ಆಧುನಿಕ -0.4771
-0.6021 ಆಧುನಿಕ ಸಾಮಾಜಿಕ -0.4771
-0.6021 ಸಾಮಾಜಿಕ ವ್ಯವಸ್ಥೆಗಳ 0.0000
-0.1249 ವ್ಯವಸ್ಥೆಗಳ ಸೌಲಭ್ಯಗಳನ್ನು 0.0000
-0.1249 ಸೌಲಭ್ಯಗಳನ್ನು ಪಡೇದುಕೊಂಡು 0.0000
-0.1249 ಪಡೇದುಕೊಂಡು ಅಭಿವೃದ್ಧಿ 0.0000
-0.1249 ಅಭಿವೃದ್ಧಿ ಸಾಧಿಸಬೇಕಾಗಿದೆ 0.0000
-0.1249 ಸಾಧಿಸಬೇಕಾಗಿದೆ </s> -0.6021
-1.5873 ಈ ಸಮುದಾಯದಲ್ಲಿ 0.0000
-0.1249 ಸಮುದಾಯದಲ್ಲಿ ಬರಿ 0.0000
-0.1249 ಬರಿ ಎನ್ನುವ 0.0000
-0.1249 ಎನ್ನುವ ಹೊರಬಾಂಧವ್ಯ 0.0000
-0.1249 ಹೊರಬಾಂಧವ್ಯ ಬೆಡಗುಗಳು 0.0000
-0.1249 ಬೆಡಗುಗಳು ಇವೆ 0.0000
-1.0792 ಆ ಮೇಲೆ -0.5441
-0.9031 ಮೇಲೆ ಕುದುರೆಯೇರಿ 0.0000
-0.1249 ಕುದುರೆಯೇರಿ ಉಳಿದಿದ್ದ 0.0000
-0.1249 ಉಳಿದಿದ್ದ ಸೈನ್ಯ -0.3979
-0.4260 ಸೈನ್ಯ ವಿಭಾಗಗಳೊಂದಿಗೆ 0.0000
-0.1249 ವಿಭಾಗಗಳೊಂದಿಗೆ ಮುನ್ನುಗ್ಗುತ್ತ 0.0000
-0.1249 ಮುನ್ನುಗ್ಗುತ್ತ ಓಡಿಬಂದಿದ್ದ 0.0000
-0.1249 ಓಡಿಬಂದಿದ್ದ ಪ್ರತಿಯೊಬ್ಬನನ್ನೂ 0.0000
-0.1249 ಪ್ರತಿಯೊಬ್ಬನನ್ನೂ ಕರುಣೆಯಿಲ್ಲದೆ 0.0000
-0.1249 ಕರುಣೆಯಿಲ್ಲದೆ ಕೊಲ್ಲಲು 0.0000
-0.1249 ಕೊಲ್ಲಲು ಆಜ್ಞಾಪಿಸಿದ 0.0000
-0.1249 ಆಜ್ಞಾಪಿಸಿದ </s> -0.6021
-2.4260 <s> ಇವೆಲ್ಲ 0.0000
-0.1249 ಇವೆಲ್ಲ ಸುತ್ತಗಟ್ಟುಳ್ಳ 0.0000
-0.1249 ಸುತ್ತಗಟ್ಟುಳ್ಳ ಪ್ರದೇಶಗಳ -0.3979
-0.4260 ಪ್ರದೇಶಗಳ ನಡುವೆ 0.0000
-0.1249 ನಡುವೆ ಭತ್ತ 0.0000
-0.1249 ಭತ್ತ ಬೆಳೆಯುವ 0.0000
-0.1249 ಬೆಳೆಯುವ ಬಯಲುಗಳು 0.0000
-0.1249 ಬಯಲುಗಳು ಮತ್ತು -0.5781
-1.2711 ಮತ್ತು ಕಣಿವೆಗಳಿವೆ 0.0000
-0.1249 ಕಣಿವೆಗಳಿವೆ </s> -0.6021
-2.1249 <s> ಅವರು -0.3010
-0.6021 ಅವರು ಬಂದ -0.5119
-0.7270 ಬಂದ ಕೂಡಲೆ 0.0000
-0.1249 ಕೂಡಲೆ ಅವನಿಗೆ 0.0000
-0.1249 ಅವನಿಗೆ ಸಲಾಮು 0.0000
-0.1249 ಸಲಾಮು ಮಾಡಿ -0.3979
-0.4260 ಮಾಡಿ ಅವನಿಂದ 0.0000
-0.1249 ಅವನಿಂದ ದೂರ 0.0000
-0.1249 ದೂರ ಗೋಡೆಗುಂಟ 0.0000
-0.1249 ಗೋಡೆಗುಂಟ ನಿಲ್ಲುತ್ತಾರೆ 0.0000
-0.1249 ನಿಲ್ಲುತ್ತಾರೆ </s> -0.6021
-2.4260 <s> ಅವನ -0.3979
-0.4260 ಅವನ ಪ್ರಕಾರ 0.0000
-0.1249 ಪ್ರಕಾರ ಸ್ವಾಭಾವಿಕ 0.0000
-0.1249 ಸ್ವಾಭಾವಿಕ ಆಯ್ಕೆಯ 0.0000
-0.1249 ಆಯ್ಕೆಯ ರೂಪಾಂತರಕ್ಕೆ 0.0000
-0.1249 ರೂಪಾಂತರಕ್ಕೆ ಅತ್ಯಂತ -0.4771
-0.6021 ಅತ್ಯಂತ ಪ್ರಮುಖ -0.3979
-0.4260 ಪ್ರಮುಖ ಮಾಧ್ಯಮ 0.0000
-0.1249 ಮಾಧ್ಯಮ </s> -0.6021
-2.4260 <s> ತದನಂತರ 0.0000
-0.1249 ತದನಂತರ ಪೆಟ್ರೊಮ್ಯಾಕ್ಸ 0.0000
-0.1249 ಪೆಟ್ರೊಮ್ಯಾಕ್ಸ ಬಳಕೆ 0.0000
-0.1249 ಬಳಕೆ ಆರಂಭವಾಯಿತುಸಂಸ್ಕೃತಿ 0.0000
-0.1249 ಆರಂಭವಾಯಿತುಸಂಸ್ಕೃತಿ ಮತ್ತು -0.5781
-1.2711 ಮತ್ತು ಪಾಶ್ಚಾತ್ಯ -0.3979
-0.4260 ಪಾಶ್ಚಾತ್ಯ ರಂಗಭೂಮಿಯ 0.0000
-0.1249 ರಂಗಭೂಮಿಯ ನಾಟಕಗಳು 0.0000
-0.1249 ನಾಟಕಗಳು ಕನ್ನಡಕ್ಕೆ 0.0000
-0.1249 ಕನ್ನಡಕ್ಕೆ ಅನುವಾದಗೊಂಡವು 0.0000
-0.1249 ಅನುವಾದಗೊಂಡವು </s> -0.6021
-2.4260 <s> ಅವುಗಳಲ್ಲಿ 0.0000
-0.1249 ಅವುಗಳಲ್ಲಿ ಪ್ರಚಲಿತವಿರುವ 0.0000
-0.1249 ಪ್ರಚಲಿತವಿರುವ ದೇವಸ್ಥಾನವೆಂದರೆ 0.0000
-0.1249 ದೇವಸ್ಥಾನವೆಂದರೆ ಹಂಪೆಯ 0.0000
-0.1249 ಹಂಪೆಯ ವಿರೂಪಾಕ್ಷ 0.0000
-0.1249 ವಿರೂಪಾಕ್ಷ ಮತ್ತು -0.5781
-1.2711 ಮತ್ತು ಬೇಲೂರಿನ 0.0000
-0.1249 ಬೇಲೂರಿನ ಚೆನ್ನಕೇಶವ 0.0000
-0.1249 ಚೆನ್ನಕೇಶವ ದೇವಸ್ಥಾನ 0.0000
-0.1249 ದೇವಸ್ಥಾನ ಚಿತ್ರಗಳು 0.0000
-0.1249 ಚಿತ್ರಗಳು </s> -0.6021
-2.4260 <s> ವೃತ್ತಿಯಲ್ಲಿ 0.0000
-0.1249 ವೃತ್ತಿಯಲ್ಲಿ ಉಪನ್ಯಾಸಕರಾಗಿರುವ 0.0000
-0.1249 ಉಪನ್ಯಾಸಕರಾಗಿರುವ ಇವರು -0.5441
-0.9031 ಇವರು ಗ್ರಾಮದ 0.0000
-0.1249 ಗ್ರಾಮದ ಕೆರೆ 0.0000
-0.1249 ಕೆರೆ ಚಟುವಟಿಕೆಗಳು 0.0000
-0.1249 ಚಟುವಟಿಕೆಗಳು ಅತ್ಯಂತ -0.4771
-0.6021 ಅತ್ಯಂತ ಯಶಸ್ವಿಯಾಗಿ -0.3979
-0.4260 ಯಶಸ್ವಿಯಾಗಿ ನಡೆಯಲು 0.0000
-0.1249 ನಡೆಯಲು ಹೆಚ್ಚು -0.5441
-0.9031 ಹೆಚ್ಚು ಕಾಳಜಿ 0.0000
-0.1249 ಕಾಳಜಿ ವಹಿಸಿದ್ದಾರೆ 0.0000
-0.1249 ವಹಿಸಿದ್ದಾರೆ </s> -0.6021
-2.4260 <s> ಒಟ್ಟಾರೆ 0.0000
-0.1249 ಒಟ್ಟಾರೆ ಜೀವಿಯ 0.0000
-0.1249 ಜೀವಿಯ ಅಳಿವುಉಳಿವು 0.0000
-0.1249 ಅಳಿವುಉಳಿವು ಅರ್ಧ 0.0000
-0.1249 ಅರ್ಧ ಅಡಿ 0.0000
-0.1249 ಅಡಿ ಮಣ್ಣಿನ 0.0000
-0.1249 ಮಣ್ಣಿನ ಮೇಲೆ -0.5441
-0.9031 ಮೇಲೆ ನಿಂತಿದೆ 0.0000
-0.1249 ನಿಂತಿದೆ </s> -0.6021
-0.8239 ಇದೇ ದೇವರಿಗೆ 0.0000
-0.1249 ದೇವರಿಗೆ ಸೇರಿದ 0.0000
-0.1249 ಸೇರಿದ ನಾಯಕನಹಟ್ಟಿಯ 0.0000
-0.1249 ನಾಯಕನಹಟ್ಟಿಯ ಶ್ರೀಮತಿ 0.0000
-0.1249 ಶ್ರೀಮತಿ ಕಾಟಮ್ಮ 0.0000
-0.1249 ಕಾಟಮ್ಮ ದಿ 0.0000
-0.1249 ದಿ </s> -0.6021
-2.4260 <s> ಬೇರ್ 0.0000
-0.1249 ಬೇರ್ ಪೊಯ್ಯೆಗ್ 0.0000
-0.1249 ಪೊಯ್ಯೆಗ್ ಪೋತುಂಡು 0.0000
-0.1249 ಪೋತುಂಡು ಮರ 0.0000
-0.1249 ಮರ ಕಡಲ್ಗ್ 0.0000
-0.1249 ಕಡಲ್ಗ್ ದೆಂಗ್ದ್ಂಡ್ 0.0000
-0.1249 ದೆಂಗ್ದ್ಂಡ್ </s> -0.6021
-1.0792 ಆ ಕಾಲದ 0.0000
-0.1249 ಕಾಲದ ಬಗ್ಗೆ 0.0000
-0.1249 ಬಗ್ಗೆ ಸರಿಯಾದ 0.0000
-0.1249 ಸರಿಯಾದ ತಿಳುವಳಿಕೆಯನ್ನು 0.0000
-0.1249 ತಿಳುವಳಿಕೆಯನ್ನು ಹೊಂದಲು 0.0000
-0.1249 ಹೊಂದಲು ಯುರೋಪ್ 0.0000
-0.1249 ಯುರೋಪ್ ಖಂಡ 0.0000
-0.1249 ಖಂಡ ವನ್ನು 0.0000
-0.1249 ವನ್ನು ನಾಲ್ಕು 0.0000
-0.1249 ನಾಲ್ಕು ವಿಭಾಗಗಳಾಗಿ 0.0000
-0.1249 ವಿಭಾಗಗಳಾಗಿ ವಿಂಗಡಿಸಬಹುದು 0.0000
-0.1249 ವಿಂಗಡಿಸಬಹುದು </s> -0.6021
-1.5873 ಈ ಹಿಂದಿನಂತೆ 0.0000
-0.1249 ಹಿಂದಿನಂತೆ ಇದಕ್ಕೆ -0.3979
-0.4260 ಇದಕ್ಕೆ ತೊಡಕಾಗಿದ್ದ 0.0000
-0.1249 ತೊಡಕಾಗಿದ್ದ ನಿಯಂತ್ರಣ 0.0000
-0.1249 ನಿಯಂತ್ರಣ ವ್ಯವಸ್ತೆಯನ್ನು 0.0000
-0.1249 ವ್ಯವಸ್ತೆಯನ್ನು ನಿವಾರಿಸಲಾಗಿದೆ 0.0000
-0.1249 ನಿವಾರಿಸಲಾಗಿದೆ </s> -0.6021
-2.4260 <s> ಅಂತಹ 0.0000
-0.1249 ಅಂತಹ ಸಂಶೋಧನೆಗೆ 0.0000
-0.1249 ಸಂಶೋಧನೆಗೆ ಬೃಹತ್ -0.3979
-0.4260 ಬೃಹತ್ ಪ್ರಮಾಣದ 0.0000
-0.1249 ಪ್ರಮಾಣದ ಆರ್ಥಿಕ -0.3979
-0.4260 ಆರ್ಥಿಕ ಸಹಾಯದ 0.0000
-0.1249 ಸಹಾಯದ ಅಗತ್ಯವಿದ್ದು 0.0000
-0.1249 ಅಗತ್ಯವಿದ್ದು ಅದನ್ನು -0.3979
-0.4260 ಅದನ್ನು ಉದ್ಯಮರಂಗ 0.0000
-0.1249 ಉದ್ಯಮರಂಗ ನೀಡಲು 0.0000
-0.1249 ನೀಡಲು ಶಕ್ತವಾಗಿದೆ 0.0000
-0.1249 ಶಕ್ತವಾಗಿದೆ </s> -0.6021
-2.4260 <s> ಉದ್ಯೋಗದ 0.0000
-0.1249 ಉದ್ಯೋಗದ ಸ್ವರೂಪ 0.0000
-0.1249 ಸ್ವರೂಪ ಮತ್ತು -0.5781
-1.2711 ಮತ್ತು ಪ್ರಮಾಣದಲ್ಲಿಯೂ 0.0000
-0.1249 ಪ್ರಮಾಣದಲ್ಲಿಯೂ ಬಹಳಷ್ಟು 0.0000
-0.1249 ಬಹಳಷ್ಟು ಬದಲಾವಣೆಗಳು 0.0000
-0.1249 ಬದಲಾವಣೆಗಳು ಆಗುತ್ತಿವೆ 0.0000
-0.1249 ಆಗುತ್ತಿವೆ </s> -0.6021
-2.4260 <s> ಅಪಾರ 0.0000
-0.1249 ಅಪಾರ ಹಣ -0.3979
-0.4260 ಹಣ ಗಳಿಸಿರುವ 0.0000
-0.1249 ಗಳಿಸಿರುವ ಕಾರಣದಿಂದ 0.0000
-0.1249 ಕಾರಣದಿಂದ ರಾಜ್ಯಗಳಿಗೆ 0.0000
-0.1249 ರಾಜ್ಯಗಳಿಗೆ ಅಥವಾ -0.3979
-0.4260 ಅಥವಾ ದೇಶಕ್ಕೆ 0.0000
-0.1249 ದೇಶಕ್ಕೆ ಮುಖ್ಯವಾಗಿವೆ 0.0000
-0.1249 ಮುಖ್ಯವಾಗಿವೆ </s> -0.6021
-2.4260 <s> ಚೀನಾವು 0.0000
-0.1249 ಚೀನಾವು ಪ್ರಪಂಚದ 0.0000
-0.1249 ಪ್ರಪಂಚದ ಕಾಲು 0.0000
-0.1249 ಕಾಲು ಭಾಗದ 0.0000
-0.1249 ಭಾಗದ ಜನಸಂಖ್ಯೆಯನ್ನು 0.0000
-0.1249 ಜನಸಂಖ್ಯೆಯನ್ನು ಹೊಂದಿರುವ -0.3979
-0.4260 ಹೊಂದಿರುವ ದೇಶವಾಗಿದೆ 0.0000
-0.1249 ದೇಶವಾಗಿದೆ </s> -0.6021
-1.5873 ಈ ಸುಧಾರಣೆ 0.0000
-0.1249 ಸುಧಾರಣೆ ಪರಿಪೂರ್ಣವಾದ 0.0000
-0.1249 ಪರಿಪೂರ್ಣವಾದ ಫಲಿತಾಂಶ 0.0000
-0.1249 ಫಲಿತಾಂಶ ಪಡೆಯಲು -0.3979
-0.4260 ಪಡೆಯಲು ಅಶಕ್ತ 0.0000
-0.1249 ಅಶಕ್ತ ವಾಯಿತು 0.0000
-0.1249 ವಾಯಿತು </s> -0.6021
-2.4260 <s> ಜಪಾನಿನ 0.0000
-0.1249 ಜಪಾನಿನ ಆರ್ಥಿಕ -0.3979
-0.4260 ಆರ್ಥಿಕ ಚಟುವಟಿಕೆಗಳಲ್ಲಿ 0.0000
-0.1249 ಚಟುವಟಿಕೆಗಳಲ್ಲಿ ಇವರು -0.5441
-0.9031 ಇವರು ನಿಪುಣರಾಗಿದ್ದು 0.0000
-0.1249 ನಿಪುಣರಾಗಿದ್ದು ಹಣಕಾಸಿನಲ್ಲಿ 0.0000
-0.1249 ಹಣಕಾಸಿನಲ್ಲಿ ಶ್ರೀಮಂತರಾಗಿದ್ದರು 0.0000
-0.1249 ಶ್ರೀಮಂತರಾಗಿದ್ದರು </s> -0.6021
-2.4260 <s> ಇದಕ್ಕೆ -0.3979
-0.4260 ಇದಕ್ಕೆ ಜಪಾನೀಯರು 0.0000
-0.1249 ಜಪಾನೀಯರು ಅರಿಸ್ಟ್ರೋಕ್ರೇಟಿಕ್ 0.0000
-0.1249 ಅರಿಸ್ಟ್ರೋಕ್ರೇಟಿಕ್ ಚಳವಳಿ 0.0000
-0.1249 ಚಳವಳಿ ಎಂದು -0.4771
-2.4260 <s> ಸಮಕಾಲೀನ 0.0000
-0.1249 ಸಮಕಾಲೀನ ಐರೋಪ್ಯ 0.0000
-0.1249 ಐರೋಪ್ಯ ರಾಷ್ಟ್ರಗಳೊಂದಿಗೆ 0.0000
-0.1249 ರಾಷ್ಟ್ರಗಳೊಂದಿಗೆ ಸ್ನೇಹ 0.0000
-0.1249 ಸ್ನೇಹ ಒಪ್ಪಂದಗಳನ್ನು 0.0000
-0.1249 ಒಪ್ಪಂದಗಳನ್ನು ಏರ್ಪಡಿಸಿಕೊಂಡು 0.0000
-0.1249 ಏರ್ಪಡಿಸಿಕೊಂಡು ಜಪಾನ್ 0.0000
-0.1249 ಜಪಾನ್ ಪಾಶ್ಚಾತ್ಯ -0.3979
-0.4260 ಪಾಶ್ಚಾತ್ಯ ಮಾದರಿಯ 0.0000
-0.1249 ಮಾದರಿಯ ಸರಕಾರದ 0.0000
-0.1249 ಸರಕಾರದ ಪುನಾರಚನೆ 0.0000
-0.1249 ಪುನಾರಚನೆ ಮಾಡಿತು 0.0000
-0.1249 ಮಾಡಿತು </s> -0.6021
-2.4260 <s> ಗ್ರಾಮ 0.0000
-0.1249 ಗ್ರಾಮ ಗುಡ್ಡಗಾಡು 0.0000
-0.1249 ಗುಡ್ಡಗಾಡು ಎಲ್ಲೆಡೆಗಳಲ್ಲಿಯೂ 0.0000
-0.1249 ಎಲ್ಲೆಡೆಗಳಲ್ಲಿಯೂ ವೈದ್ಯರಿದ್ದು 0.0000
-0.1249 ವೈದ್ಯರಿದ್ದು ಜನರ -0.4771
-0.6021 ಜನರ ಆರೋಗ್ಯ 0.0000
-0.1249 ಆರೋಗ್ಯ ರಕ್ಷಣೆ -0.3979
-0.4260 ರಕ್ಷಣೆ ಮಾಡುತ್ತಿದ್ದಾರೆ 0.0000
-0.1249 ಮಾಡುತ್ತಿದ್ದಾರೆ </s> -0.6021
-1.5873 ಈ ಎಲ್ಲಾ 0.0000
-0.1249 ಎಲ್ಲಾ ಭೂಪ್ರದೇಶಗಳ 0.0000
-0.1249 ಭೂಪ್ರದೇಶಗಳ ಜನರು -0.5315
-0.8239 ಜನರು ಸಾವಿರಾರು 0.0000
-0.1249 ಸಾವಿರಾರು ವರ್ಷಗಳ 0.0000
-0.1249 ವರ್ಷಗಳ ಪ್ರಾಚೀನ -0.3979
-0.4260 ಪ್ರಾಚೀನ ಸಮುದಾಯ 0.0000
-0.1249 ಸಮುದಾಯ ಸಾಂಸ್ಕೃತಿಕ -0.3979
-0.4260 ಸಾಂಸ್ಕೃತಿಕ ಪರಂಪರೆಯನ್ನು 0.0000
-0.1249 ಪರಂಪರೆಯನ್ನು ಹೊಂದಿದ್ದರು 0.0000
-0.1249 ಹೊಂದಿದ್ದರು </s> -0.6021
-0.7270 ಆದರೆ ಜಾನಪದ 0.0000
-0.1249 ಜಾನಪದ ಸಾಹಿತ್ಯದ -0.3979
-0.4260 ಸಾಹಿತ್ಯದ ಎಲ್ಲೆಡೆ 0.0000
-0.1249 ಎಲ್ಲೆಡೆ ಇದೇ -0.5315
-0.8239 ಇದೇ ಮಟ್ಟದ 0.0000
-0.1249 ಮಟ್ಟದ ಕಲ್ಪಕತೆಯನ್ನು 0.0000
-0.1249 ಕಲ್ಪಕತೆಯನ್ನು ಬಯಸುವುದು 0.0000
-0.1249 ಬಯಸುವುದು ಸಮಂಜಸವೂ 0.0000
-0.1249 ಸಮಂಜಸವೂ ಅಲ್ಲ 0.0000
-0.1249 ಅಲ್ಲ </s> -0.6021
-0.4260 ಅಲ್ಲದೆ ಮೈಸೂರು 0.0000
-0.1249 ಮೈಸೂರು ಸಂಸ್ಥಾನ 0.0000
-0.1249 ಸಂಸ್ಥಾನ ಕೃಷಿಯಲ್ಲಿ 0.0000
-0.1249 ಕೃಷಿಯಲ್ಲಿ ಅಳವಡಿಸಿದ 0.0000
-0.1249 ಅಳವಡಿಸಿದ ಬಂಡವಾಳಶಾಹಿ 0.0000
-0.1249 ಬಂಡವಾಳಶಾಹಿ ಕೂಡ -0.3979
-0.4260 ಕೂಡ ಪರಿಪೂರ್ಣವಾಗಿರಲಿಲ್ಲ 0.0000
-0.1249 ಪರಿಪೂರ್ಣವಾಗಿರಲಿಲ್ಲ ಅದು -0.5119
-0.7270 ಅದು ಅಲ್ಲಲ್ಲಿ 0.0000
-0.1249 ಅಲ್ಲಲ್ಲಿ ಚದುರಿತ್ತು 0.0000
-0.1249 ಚದುರಿತ್ತು </s> -0.6021
-2.4260 <s> ಮಧ್ಯರಾತ್ರಿ 0.0000
-0.1249 ಮಧ್ಯರಾತ್ರಿ ಯಿಂದ 0.0000
-0.1249 ಯಿಂದ ಹಿಡಿದು 0.0000
-0.1249 ಹಿಡಿದು ಬೆಳಗಾದವರೆಗೆ 0.0000
-0.1249 ಬೆಳಗಾದವರೆಗೆ ಬಳ್ಳಾರಿ 0.0000
-0.1249 ಬಳ್ಳಾರಿ ನಗರ -0.3979
-0.4260 ನಗರ ಉತ್ಸಾಹದ 0.0000
-0.1249 ಉತ್ಸಾಹದ ಕಡಲಿನಲ್ಲಿ 0.0000
-0.1249 ಕಡಲಿನಲ್ಲಿ ಮುಳುಗಿದ್ದಿತು 0.0000
-0.1249 ಮುಳುಗಿದ್ದಿತು </s> -0.6021
-2.4260 <s> ಅದೆಲ್ಲಾ 0.0000
-0.1249 ಅದೆಲ್ಲಾ ನಾಗರಿಕ 0.0000
-0.1249 ನಾಗರಿಕ ಜನರಿಗೆ 0.0000
-0.1249 ಜನರಿಗೆ ಕಾಡುಕೋಳಿ 0.0000
-0.1249 ಕಾಡುಕೋಳಿ ಅಂತ 0.0000
-0.1249 ಅಂತ ಸಾಂಕೇತಿಕವಾಗಿ 0.0000
-0.1249 ಸಾಂಕೇತಿಕವಾಗಿ ಹೇಳಿರುವುದು 0.0000
-0.1249 ಹೇಳಿರುವುದು ಕಾಡು 0.0000
-0.1249 ಕಾಡು ಜನರನ್ನು 0.0000
-0.1249 ಜನರನ್ನು </s> -0.6021
-2.4260 <s> ಒಬ್ಬ 0.0000
-0.1249 ಒಬ್ಬ ಸಣ್ಣ -0.3979
-0.4260 ಸಣ್ಣ ರೈತನ 0.0000
-0.1249 ರೈತನ ಗದ್ದೆಯಲ್ಲಿ 0.0000
-0.1249 ಗದ್ದೆಯಲ್ಲಿ ಉತ್ತಮ 0.0000
-0.1249 ಉತ್ತಮ ಬೆಳೆಯಾಗಿದೆ 0.0000
-0.1249 ಬೆಳೆಯಾಗಿದೆ </s> -0.6021
-2.4260 <s> ಶ್ರಾವಣ 0.0000
-0.1249 ಶ್ರಾವಣ ಆರಂಭವಾಗುವ 0.0000
-0.1249 ಆರಂಭವಾಗುವ ಸಂಕ್ರಮಣದಂದು 0.0000
-0.1249 ಸಂಕ್ರಮಣದಂದು ಬಾಗಿಲು 0.0000
-0.1249 ಬಾಗಿಲು ತೆರೆಯಬೇಕು 0.0000
-0.1249 ತೆರೆಯಬೇಕು </s> -0.6021
-2.4260 <s> ಆಧಾರ 0.0000
-0.1249 ಆಧಾರ ಪ್ರಚಲಿತ 0.0000
-0.1249 ಪ್ರಚಲಿತ ಗಾದೆ 0.0000
-0.1249 ಗಾದೆ ಮತ್ತು -0.5781
-1.2711 ಮತ್ತು ಅದರ -0.3979
-0.4260 ಅದರ ಹಿಂದಿರುವ 0.0000
-0.1249 ಹಿಂದಿರುವ ಐತಿಹ್ಯ 0.0000
-0.1249 ಐತಿಹ್ಯ </s> -0.6021
-2.4260 <s> ದೊರೆತಿರುವ 0.0000
-0.1249 ದೊರೆತಿರುವ ಉದಾಹರಣೆಗಳಲ್ಲಿ 0.0000
-0.1249 ಉದಾಹರಣೆಗಳಲ್ಲಿ ಹೆಚ್ಚಿನವು 0.0000
-0.1249 ಹೆಚ್ಚಿನವು ಶಾಸನ 0.0000
-0.1249 ಶಾಸನ ಮತ್ತು -0.5781
-1.2711 ಮತ್ತು ಲಕ್ಷಣಗ್ರಂಥಗಳಲ್ಲಿ 0.0000
-0.1249 ಲಕ್ಷಣಗ್ರಂಥಗಳಲ್ಲಿ ಉಪಲಬ್ಧವಾಗಿರುವಂತಹವು 0.0000
-0.1249 ಉಪಲಬ್ಧವಾಗಿರುವಂತಹವು </s> -0.6021
-2.4260 <s> ಹಿರಿಯರು 0.0000
-0.1249 ಹಿರಿಯರು ನೆಂಟರು 0.0000
-0.1249 ನೆಂಟರು ಆತ್ಮೀಯರು 0.0000
-0.1249 ಆತ್ಮೀಯರು ಉಡುಗೊರೆ 0.0000
-0.1249 ಉಡುಗೊರೆ ಕೊಟ್ಟು 0.0000
-0.1249 ಕೊಟ್ಟು ಅಕ್ಷತೆ 0.0000
-0.1249 ಅಕ್ಷತೆ ಹಾಕಿ 0.0000
-0.1249 ಹಾಕಿ ಆಶೀರ್ವದಿಸುವರು 0.0000
-0.1249 ಆಶೀರ್ವದಿಸುವರು </s> -0.6021
-2.4260 <s> ನಾಲ್ಕನೆಯ 0.0000
-0.1249 ನಾಲ್ಕನೆಯ ಶತಮಾನದ -0.3979
-0.4260 ಶತಮಾನದ ಹೊತ್ತಿಗೆ 0.0000
-0.1249 ಹೊತ್ತಿಗೆ ಕೇವಲ -0.4771
-0.6021 ಕೇವಲ ಎಂಟು 0.0000
-0.1249 ಎಂಟು ಅಥವಾ -0.3979
-0.4260 ಅಥವಾ ಒಂಬತ್ತು 0.0000
-0.1249 ಒಂಬತ್ತು ರಾಜ್ಯಗಳು 0.0000
-0.1249 ರಾಜ್ಯಗಳು ಸ್ಪರ್ಧಿಗಳಾಗಿ 0.0000
-0.1249 ಸ್ಪರ್ಧಿಗಳಾಗಿ ಉಳಿದವು 0.0000
-0.1249 ಉಳಿದವು </s> -0.6021
-0.9031 ಇದನ್ನು ವಿರೋಧಿಸುವ 0.0000
-0.1249 ವಿರೋಧಿಸುವ ಧೋರಣೆಯೂ 0.0000
-0.1249 ಧೋರಣೆಯೂ ಆ -0.5643
-1.0792 ಆ ದಿನಗಳಲ್ಲೇ 0.0000
-0.1249 ದಿನಗಳಲ್ಲೇ ಕಾಣಿಸಿಕೊಂಡವು 0.0000
-0.1249 ಕಾಣಿಸಿಕೊಂಡವು </s> -0.6021
-2.4260 <s> ಸ್ಥಳೀಯ 0.0000
-0.1249 ಸ್ಥಳೀಯ ನಿವಾಸಿಗಳು 0.0000
-0.1249 ನಿವಾಸಿಗಳು ಹೋರಾಟ -0.3979
-0.4260 ಹೋರಾಟ ನಡೆಸಿದರೂ 0.0000
-0.1249 ನಡೆಸಿದರೂ ಅದು -0.5119
-0.7270 ಅದು ಬೇರೆ -0.3979
-0.9031 ಬೇರೆ ಉದ್ದೇಶಗಳಿಗೆ -0.3979
-0.4260 ಉದ್ದೇಶಗಳಿಗೆ ವೇದಿಕೆಯಾಯಿತು 0.0000
-0.1249 ವೇದಿಕೆಯಾಯಿತು </s> -0.6021
-2.4260 <s> ಉಡುಕಿ 0.0000
-0.1249 ಉಡುಕಿ ಮದುವೆಗೆ -0.4771
-0.6021 ಮದುವೆಗೆ ಬಂದ -0.5119
-0.7270 ಬಂದ ಬಾಂಧವರಿಗೆಲ್ಲ 0.0000
-0.1249 ಬಾಂಧವರಿಗೆಲ್ಲ ಕುಡಿತ 0.0000
-0.1249 ಕುಡಿತ ಉಟೋಪಚಾರವನ್ನು 0.0000
-0.1249 ಉಟೋಪಚಾರವನ್ನು ಮದುವೆಯಾಗುವ 0.0000
-0.1249 ಮದುವೆಯಾಗುವ ಗಂಡ 0.0000
-0.1249 ಗಂಡ ಭರಿಸುತ್ತಾನೆ 0.0000
-0.1249 ಭರಿಸುತ್ತಾನೆ </s> -0.6021
-2.4260 <s> ದೇವರನ್ನು 0.0000
-0.1249 ದೇವರನ್ನು ಪೂಜಿಸಲು 0.0000
-0.1249 ಪೂಜಿಸಲು ವಿಶೇಷವಾದ 0.0000
-0.1249 ವಿಶೇಷವಾದ ಸೇವಕರುಗಳನ್ನು 0.0000
-0.1249 ಸೇವಕರುಗಳನ್ನು ಗೊತ್ತು 0.0000
-0.1249 ಗೊತ್ತು ಮಾಡಲಾಗಿತ್ತು 0.0000
-0.1249 ಮಾಡಲಾಗಿತ್ತು </s> -0.6021
-1.0792 ಆ ಪ್ರಯತ್ನದಿಂದ 0.0000
-0.1249 ಪ್ರಯತ್ನದಿಂದ ರೋಮ್ 0.0000
-0.1249 ರೋಮ್ ನಗರವು 0.0000
-0.1249 ನಗರವು ಮೆಡಿಟರೇನಿಯನ್ 0.0000
-0.1249 ಮೆಡಿಟರೇನಿಯನ್ ಸಮುದ್ರದ 0.0000
-0.1249 ಸಮುದ್ರದ ಪೂರ್ವ -0.3979
-0.4260 ಪೂರ್ವ ಪ್ರದೇಶಗಳಲ್ಲಿ 0.0000
-0.1249 ಪ್ರದೇಶಗಳಲ್ಲಿ ತನ್ನ -0.5441
-0.9031 ತನ್ನ ಚಕ್ರಾಧಿಪತ್ಯವನ್ನು 0.0000
-0.1249 ಚಕ್ರಾಧಿಪತ್ಯವನ್ನು ವಿಸ್ತರಿಸಿತು 0.0000
-0.1249 ವಿಸ್ತರಿಸಿತು </s> -0.6021
-2.4260 <s> ಜನರು -0.5315
-0.8239 ಜನರು ಆಗ 0.0000
-0.1249 ಆಗ ನಗಾರೆ 0.0000
-0.1249 ನಗಾರೆ ಬಾರಿಸಿ 0.0000
-0.1249 ಬಾರಿಸಿ ಸೂರ್ಯನನ್ನು 0.0000
-0.1249 ಸೂರ್ಯನನ್ನು ಹೆದರಿಸಿ 0.0000
-0.1249 ಹೆದರಿಸಿ ವಿನಂತಿಸಿ 0.0000
-0.1249 ವಿನಂತಿಸಿ ಚಂದ್ರನನ್ನು 0.0000
-0.1249 ಚಂದ್ರನನ್ನು ಬಿಟ್ಟುಬಿಡುವಂತೆ 0.0000
-0.1249 ಬಿಟ್ಟುಬಿಡುವಂತೆ ಮಾಡುತ್ತಾರೆ 0.0000
-0.1249 ಮಾಡುತ್ತಾರೆ </s> -0.6021
-2.4260 <s> ಆಕಾಶದಿಂದ 0.0000
-0.1249 ಆಕಾಶದಿಂದ ಅದನ್ನು -0.3979
-0.4260 ಅದನ್ನು ಇಲ್ಲಿಗೆ 0.0000
-0.1249 ಇಲ್ಲಿಗೆ ತಂದದ್ದು 0.0000
-0.1249 ತಂದದ್ದು ಒಂದು -0.5593
-1.0280 ಒಂದು ಸಂಚಿಕಾರ 0.0000
-0.1249 ಸಂಚಿಕಾರ ಹುಳ 0.0000
-0.1249 ಹುಳ </s> -0.6021
-2.4260 <s> ಒಬ್ಬಳು 0.0000
-0.1249 ಒಬ್ಬಳು ಅನಾಥೆ 0.0000
-0.1249 ಅನಾಥೆ ತನ್ನ -0.5441
-0.9031 ತನ್ನ ಗಂಡನನ್ನು 0.0000
-0.1249 ಗಂಡನನ್ನು ಮಕ್ಕಳನ್ನು 0.0000
-0.1249 ಮಕ್ಕಳನ್ನು ಕಳೆದುಕೊಂಡವಳು 0.0000
-0.1249 ಕಳೆದುಕೊಂಡವಳು ದುಃಖಿಸುತ್ತಾ 0.0000
-0.1249 ದುಃಖಿಸುತ್ತಾ ಪರಮಾತ್ಮನನ್ನು 0.0000
-0.1249 ಪರಮಾತ್ಮನನ್ನು ಕಾಣಲಿಕ್ಕೆಂದು 0.0000
-0.1249 ಕಾಣಲಿಕ್ಕೆಂದು ಹೊರಡುತ್ತಾಳೆ 0.0000
-0.1249 ಹೊರಡುತ್ತಾಳೆ </s> -0.6021
-1.5873 ಈ ಎರಡನೆಯ 0.0000
-0.1249 ಎರಡನೆಯ ದ್ವಾರ 0.0000
-0.1249 ದ್ವಾರ ದಾಟಿದರೆ 0.0000
-0.1249 ದಾಟಿದರೆ ಕಲ್ಲಿನ 0.0000
-0.1249 ಕಲ್ಲಿನ ಕಂಬಗಳ 0.0000
-0.1249 ಕಂಬಗಳ ಮೇಲೆ -0.5441
-0.9031 ಮೇಲೆ ಸುತ್ತಲೂ 0.0000
-0.1249 ಸುತ್ತಲೂ ಇರುವ -0.3979
-0.4260 ಇರುವ ಮೊಗಸಾಲೆಗಳುಳ್ಳ 0.0000
-0.1249 ಮೊಗಸಾಲೆಗಳುಳ್ಳ ವಿಶಾಲ 0.0000
-0.1249 ವಿಶಾಲ ಅಂಗಳವಿದೆ 0.0000
-0.1249 ಅಂಗಳವಿದೆ </s> -0.6021
-0.6021 ಅವರು ಒಬ್ಬರ 0.0000
-0.1249 ಒಬ್ಬರ ಮುಂದೊಬ್ಬರಂತೆ 0.0000
-0.1249 ಮುಂದೊಬ್ಬರಂತೆ ನಿಯಮಿತ 0.0000
-0.1249 ನಿಯಮಿತ ಕ್ರಮದಲ್ಲಿ 0.0000
-0.1249 ಕ್ರಮದಲ್ಲಿ ಬರುತ್ತಾರೆ 0.0000
-0.1249 ಬರುತ್ತಾರೆ </s> -0.6021
-2.4260 <s> ಇಂದು 0.0000
-0.1249 ಇಂದು ಈ -0.5907
-1.5873 ಈ ಕೋಟೆ 0.0000
-0.1249 ಕೋಟೆ ಯಾವುದೇ -0.4771
-0.6021 ಯಾವುದೇ ರೀತಿಯ 0.0000
-0.1249 ರೀತಿಯ ರಕ್ಷಣೆ -0.3979
-0.4260 ರಕ್ಷಣೆ ಇಲ್ಲದೆ 0.0000
-0.1249 ಇಲ್ಲದೆ ಅವನತಿಯ 0.0000
-0.1249 ಅವನತಿಯ ಅಂಚಿನಲ್ಲಿದೆ 0.0000
-0.1249 ಅಂಚಿನಲ್ಲಿದೆ </s> -0.6021
-2.4260 <s> ಸನ್ಯಾಸಪ್ಪನ 0.0000
-0.1249 ಸನ್ಯಾಸಪ್ಪನ ಮಠಕ್ಕೆ -0.3979
-0.4260 ಮಠಕ್ಕೆ ಹೋಗಿ 0.0000
-0.1249 ಹೋಗಿ ಬಂದ -0.5119
-0.7270 ಬಂದ ಮೇಲೆ -0.5441
-0.9031 ಮೇಲೆ ಹಬ್ಬಜಾತ್ರೆಗಳಾಗಿವೆ 0.0000
-0.1249 ಹಬ್ಬಜಾತ್ರೆಗಳಾಗಿವೆ </s> -0.6021
-2.4260 <s> ಕಮಲಾಪುರದಲ್ಲಿರುವ 0.0000
-0.1249 ಕಮಲಾಪುರದಲ್ಲಿರುವ ಮಾರಮ್ಮ -0.3979
-0.4260 ಮಾರಮ್ಮ ದೇವತೆಯ 0.0000
-0.1249 ದೇವತೆಯ ಪೂಜಾರಿ -0.3979
-0.4260 ಪೂಜಾರಿ ಮಾರಮ್ಮ -0.3979
-0.4260 ಮಾರಮ್ಮ ಎಂಬುವರು 0.0000
-0.1249 ಎಂಬುವರು </s> -0.6021
-2.4260 <s> ಮನೆಯಲ್ಲಿ 0.0000
-0.1249 ಮನೆಯಲ್ಲಿ ತೆಲುಗು 0.0000
-0.1249 ತೆಲುಗು ಹೊರಗಡೆ 0.0000
-0.1249 ಹೊರಗಡೆ ಕನ್ನಡ -0.4771
-0.6021 ಕನ್ನಡ ಮಾತನಾಡುವ 0.0000
-0.1249 ಮಾತನಾಡುವ ಇವರು -0.5441
-0.9031 ಇವರು ಆರ್ಥಿಕವಾಗಿ -0.3979
-0.4260 ಆರ್ಥಿಕವಾಗಿ ತೀರಾ 0.0000
-0.1249 ತೀರಾ ಹಿಂದುಳಿದಿದ್ದಾರೆ 0.0000
-0.1249 ಹಿಂದುಳಿದಿದ್ದಾರೆ </s> -0.6021
-2.4260 <s> ಅವನವು 0.0000
-0.1249 ಅವನವು ಆರೆಂಟು 0.0000
-0.1249 ಆರೆಂಟು ಬೆಡಗಿನ 0.0000
-0.1249 ಬೆಡಗಿನ ವಚನಗಳೇನೋ 0.0000
-0.1249 ವಚನಗಳೇನೋ ಇವೆ 0.0000
-2.4260 <s> ಕ್ರಮೇಣ -0.3979
-0.4260 ಕ್ರಮೇಣ ಪರಿಸರ -0.3979
-0.4260 ಪರಿಸರ ಹೆಚ್ಚು -0.5441
-0.9031 ಹೆಚ್ಚು ಹೆಚ್ಚು -0.5441
-0.9031 ಹೆಚ್ಚು ಶುಷ್ಕವಾಗುತ್ತ 0.0000
-0.1249 ಶುಷ್ಕವಾಗುತ್ತ ಹೋಗುತ್ತದೆ 0.0000
-0.1249 ಹೋಗುತ್ತದೆ </s> -0.6021
-2.4260 <s> ಅದಕ್ಕಾಗಿ 0.0000
-0.1249 ಅದಕ್ಕಾಗಿ ಮರಳುಬೇಲಿ 0.0000
-0.1249 ಮರಳುಬೇಲಿ ಅರ್ಥಾತ್ 0.0000
-0.1249 ಅರ್ಥಾತ್ ಮರಳಿನದೇ 0.0000
-0.1249 ಮರಳಿನದೇ ಸಾಲುದಿಬ್ಬಗಳನ್ನು 0.0000
-0.1249 ಸಾಲುದಿಬ್ಬಗಳನ್ನು ರಚಿಸಬೇಕು 0.0000
-0.1249 ರಚಿಸಬೇಕು </s> -0.6021
-2.4260 <s> ಆತ 0.0000
-0.1249 ಆತ ನನ್ನನ್ನು 0.0000
-0.1249 ನನ್ನನ್ನು ಕೆಕ್ಕರಿಸಿ 0.0000
-0.1249 ಕೆಕ್ಕರಿಸಿ ನೋಡುತ್ತಾ 0.0000
-0.1249 ನೋಡುತ್ತಾ ನಿನಗೆ 0.0000
-0.1249 ನಿನಗೆ ಎಷ್ಟು -0.3979
-0.4260 ಎಷ್ಟು ಬೇಕು 0.0000
-0.1249 ಬೇಕು ಎಂದು -0.4771
-0.9031 ಎಂದು ಸರಿಯಾಗಿ 0.0000
-0.1249 ಸರಿಯಾಗಿ ತಮಿಳಿನಲ್ಲಿ 0.0000
-0.1249 ತಮಿಳಿನಲ್ಲಿ ಹೇಳು 0.0000
-0.1249 ಹೇಳು </s> -0.6021
-2.4260 <s> ನನಗೆ 0.0000
-0.1249 ನನಗೆ ಕನ್ನಡ -0.4771
-0.6021 ಕನ್ನಡ ರಾಜ್ಯದ -0.4771
-0.6021 ರಾಜ್ಯದ ಬಾಳೆಹಣ್ಣೇ 0.0000
-0.1249 ಬಾಳೆಹಣ್ಣೇ ಬೇಕು 0.0000
-0.9031 ಎಂದು ಸಿಡಿಮಿಡಿಗೊಳ್ಳದೇ 0.0000
-0.1249 ಸಿಡಿಮಿಡಿಗೊಳ್ಳದೇ ಹೇಳಿದೆ 0.0000
-0.1249 ಹೇಳಿದೆ </s> -0.6021
-2.4260 <s> ಜನರ -0.4771
-0.6021 ಜನರ ಕೈಯಲ್ಲಿ 0.0000
-0.1249 ಕೈಯಲ್ಲಿ ಹಣವಿಲ್ಲ 0.0000
-0.1249 ಹಣವಿಲ್ಲ ಹಣ -0.3979
-0.4260 ಹಣ ಬಳಸದೇ 0.0000
-0.1249 ಬಳಸದೇ ಬದುಕುವ 0.0000
-0.1249 ಬದುಕುವ ಕಲೆ 0.0000
-0.1249 ಕಲೆ ಕಲಿತಿದ್ದರು 0.0000
-0.1249 ಕಲಿತಿದ್ದರು </s> -0.6021
-2.4260 <s> ವೆನೀಸ್ನಲ್ಲಿ 0.0000
-0.1249 ವೆನೀಸ್ನಲ್ಲಿ ಮದುವೆಗೆ -0.4771
-0.6021 ಮದುವೆಗೆ ಹೊರಟ -0.3979
-0.4260 ಹೊರಟ ಹೆಣ್ಣಿನ 0.0000
-0.1249 ಹೆಣ್ಣಿನ ಮೆರವಣಿಗೆಯಂತೆ 0.0000
-0.1249 ಮೆರವಣಿಗೆಯಂತೆ </s> -0.6021
-2.4260 <s> ಕಾಲಿಗೆ 0.0000
-0.1249 ಕಾಲಿಗೆ ಅಸ್ಪರ್ಫ್ 0.0000
-0.1249 ಅಸ್ಪರ್ಫ್ ಎಂಬ -0.5315
-0.8239 ಎಂಬ ಎತ್ತರವಾದ 0.0000
-0.1249 ಎತ್ತರವಾದ ಪಾದರಕ್ಷೆಗಳನ್ನೂ 0.0000
-0.1249 ಪಾದರಕ್ಷೆಗಳನ್ನೂ ಕಿವಿಗಳಿಗೆ 0.0000
-0.1249 ಕಿವಿಗಳಿಗೆ ತೂಕವಾದ 0.0000
-0.1249 ತೂಕವಾದ ಚಿನ್ನದ 0.0000
-0.1249 ಚಿನ್ನದ ಆಭರಣಗಳನ್ನೂ 0.0000
-0.1249 ಆಭರಣಗಳನ್ನೂ ಧರಿಸುತ್ತಾರೆ 0.0000
-0.1249 ಧರಿಸುತ್ತಾರೆ </s> -0.6021
-2.4260 <s> ನಂತರ -0.4771
-0.6021 ನಂತರ ತನರೀಸ್ 0.0000
-0.1249 ತನರೀಸ್ ನಾಡಿನ 0.0000
-0.1249 ನಾಡಿನ ದ್ವೀಪದಿಂದ 0.0000
-0.1249 ದ್ವೀಪದಿಂದ ಆರಂಭಿಸಿ 0.0000
-0.1249 ಆರಂಭಿಸಿ ಮಿರ್ಜಾನ್ 0.0000
-0.1249 ಮಿರ್ಜಾನ್ ಭಟ್ಕಲ್ 0.0000
-0.1249 ಭಟ್ಕಲ್ ಮುಂತಾದ 0.0000
-0.1249 ಮುಂತಾದ ಸ್ಥಳಗಳ 0.0000
-0.1249 ಸ್ಥಳಗಳ ಬಗೆಗೆ -0.3979
-0.4260 ಬಗೆಗೆ ತಿಳಿಸಿದ್ದಾನೆ 0.0000
-0.1249 ತಿಳಿಸಿದ್ದಾನೆ </s> -0.6021
-2.4260 <s> ಅವನು -0.3979
-0.4260 ಅವನು ಅಲ್ಲಿ 0.0000
-0.1249 ಅಲ್ಲಿ ರಾಜನ 0.0000
-0.1249 ರಾಜನ ಸೆರೆಮನೆಯಲ್ಲಿ 0.0000
-0.1249 ಸೆರೆಮನೆಯಲ್ಲಿ ಸತ್ತ -0.3979
-0.4260 ಸತ್ತ </s> -0.6021
-1.0792 ಆ ದಾಬುಲ್ 0.0000
-0.1249 ದಾಬುಲ್ ಪಟ್ಟಣದಿಂದ 0.0000
-0.1249 ಪಟ್ಟಣದಿಂದ ಸೈದ್ 0.0000
-0.1249 ಸೈದ್ ಓಡಿಹೋದ 0.0000
-0.1249 ಓಡಿಹೋದ ಅವನ -0.3979
-0.4260 ಅವನ ಬಗೆಗೆ -0.3979
-0.4260 ಬಗೆಗೆ ಹೆಚ್ಚಿಗೆ 0.0000
-0.1249 ಹೆಚ್ಚಿಗೆ ಏನೂ 0.0000
-0.1249 ಏನೂ ಅವರಿಗೆ -0.3979
-0.4260 ಅವರಿಗೆ ತಿಳಿದಿರಲಿಲ್ಲ 0.0000
-0.1249 ತಿಳಿದಿರಲಿಲ್ಲ </s> -0.6021
-0.8239 ಇಲ್ಲಿ ಈ -0.5907
-1.5873 ಈ ರಾಜ್ಯದ -0.4771
-0.6021 ರಾಜ್ಯದ ಅಧಿಪತಿಯ 0.0000
-0.1249 ಅಧಿಪತಿಯ ಆಶ್ರಯದಲ್ಲಿ 0.0000
-0.1249 ಆಶ್ರಯದಲ್ಲಿ ಇಬ್ಬರು 0.0000
-0.1249 ಇಬ್ಬರು ಕಡಲುಗಳ್ಳ 0.0000
-0.1249 ಕಡಲುಗಳ್ಳ ನಾಯಕರಿದ್ದರು 0.0000
-0.1249 ನಾಯಕರಿದ್ದರು </s> -0.6021
-2.4260 <s> ಅನೇಕ -0.3979
-0.4260 ಅನೇಕ ಮೂರರೂ 0.0000
-0.1249 ಮೂರರೂ ಜೆಂಟೈಲರೂ 0.0000
-0.1249 ಜೆಂಟೈಲರೂ ಇಲ್ಲಿ -0.5315
-0.8239 ಇಲ್ಲಿ ನೆಲೆಸಿದ್ದಾರೆ 0.0000
-0.1249 ನೆಲೆಸಿದ್ದಾರೆ </s> -0.6021
-0.9031 ಇದನ್ನು ನಾಣ್ಯಕ್ಕೂ 0.0000
-0.1249 ನಾಣ್ಯಕ್ಕೂ ಪಾತ್ರೆಗಳನ್ನು 0.0000
-0.1249 ಪಾತ್ರೆಗಳನ್ನು ಮಾಡುವುದಕ್ಕೂ 0.0000
-0.1249 ಮಾಡುವುದಕ್ಕೂ ಒಳನಾಡಿಗೆ 0.0000
-0.1249 ಒಳನಾಡಿಗೆ ಸಾಗಿಸುತ್ತಾರೆ 0.0000
-0.1249 ಸಾಗಿಸುತ್ತಾರೆ </s> -0.6021
-2.4260 <s> ಬತ್ತವನ್ನು 0.0000
-0.1249 ಬತ್ತವನ್ನು ಕುಟ್ಟಿ 0.0000
-0.1249 ಕುಟ್ಟಿ ಕೇರಿ 0.0000
-0.1249 ಕೇರಿ ಬತ್ತದ 0.0000
-0.1249 ಬತ್ತದ ಹುಲ್ಲಿನಲ್ಲಿ 0.0000
-0.1249 ಹುಲ್ಲಿನಲ್ಲಿ ಫನೆಗಾ 0.0000
-0.1249 ಫನೆಗಾ ಎಂಬ -0.5315
-0.8239 ಎಂಬ ಮೂಡೆ 0.0000
-0.1249 ಮೂಡೆ ಕಟ್ಟಿ 0.0000
-0.1249 ಕಟ್ಟಿ ಮಲಬಾರಿಗೆ 0.0000
-0.1249 ಮಲಬಾರಿಗೆ ಕಳುಹಿಸುತ್ತಾರೆ 0.0000
-0.1249 ಕಳುಹಿಸುತ್ತಾರೆ </s> -0.6021
-2.4260 <s> ತಾನು -0.5119
-0.7270 ತಾನು ಮೆಚ್ಚಿದ 0.0000
-0.1249 ಮೆಚ್ಚಿದ ನಲ್ಲನು 0.0000
-0.1249 ನಲ್ಲನು ತನ್ನನ್ನು 0.0000
-0.1249 ತನ್ನನ್ನು ಮದುವೆಯಾಗುವುದಾದರೆ 0.0000
-0.1249 ಮದುವೆಯಾಗುವುದಾದರೆ ಇಂತಹ 0.0000
-0.1249 ಇಂತಹ ಸೇವನೆಯನ್ನು 0.0000
-0.1249 ಸೇವನೆಯನ್ನು ಮಾಡುವೆನೆಂದು 0.0000
-0.1249 ಮಾಡುವೆನೆಂದು ದೇವರಲ್ಲಿ 0.0000
-0.1249 ದೇವರಲ್ಲಿ ಹರಕೆ 0.0000
-0.1249 ಹರಕೆ ಮಾಡಿಕೊಳ್ಳುತ್ತಾಳೆ 0.0000
-0.1249 ಮಾಡಿಕೊಳ್ಳುತ್ತಾಳೆ </s> -0.6021
-2.4260 <s> ಏತದಿಂದ 0.0000
-0.1249 ಏತದಿಂದ ನೇತಾಡುವ 0.0000
-0.1249 ನೇತಾಡುವ ಆಕೆಯ 0.0000
-0.1249 ಆಕೆಯ ಸೊಂಟದಿಂದ 0.0000
-0.1249 ಸೊಂಟದಿಂದ ಹೊರಟ -0.3979
-0.4260 ಹೊರಟ ರಕ್ತ 0.0000
-0.1249 ರಕ್ತ ಕಾಲುಗಳ 0.0000
-0.1249 ಕಾಲುಗಳ ಮೇಲೆ -0.5441
-0.9031 ಮೇಲೆ ಹರಿದು 0.0000
-0.1249 ಹರಿದು ತೊಟ್ಟಿಕ್ಕುತ್ತಿರುತ್ತದೆ 0.0000
-0.1249 ತೊಟ್ಟಿಕ್ಕುತ್ತಿರುತ್ತದೆ </s> -0.6021
-2.4260 <s> ಹೀಗೆ -0.3979
-0.4260 ಹೀಗೆ ಆರಂಭವಾದ 0.0000
-0.1249 ಆರಂಭವಾದ ಅಮೆರಿಕದ -0.3979
-0.4260 ಅಮೆರಿಕದ ಸಾಮ್ರಾಜ್ಯಶಾಹಿ -0.3979
-0.4260 ಸಾಮ್ರಾಜ್ಯಶಾಹಿ ಧೋರಣೆ 0.0000
-0.1249 ಧೋರಣೆ ಸೌದಿ -0.3979
-0.4260 ಸೌದಿ ಅರೇಬಿಯಾದಲ್ಲಿ 0.0000
-0.1249 ಅರೇಬಿಯಾದಲ್ಲಿ ಕೇವಲ -0.4771
-0.6021 ಕೇವಲ ತೈಲ 0.0000
-0.1249 ತೈಲ ಸಂಪತ್ತಿಗೆ 0.0000
-0.1249 ಸಂಪತ್ತಿಗೆ ಮಾತ್ರ -0.3979
-0.4260 ಮಾತ್ರ ಸೀಮಿತವಾಗಿರಲಿಲ್ಲ 0.0000
-0.1249 ಸೀಮಿತವಾಗಿರಲಿಲ್ಲ </s> -0.6021
-2.4260 <s> ಸಾಮ್ರಾಜ್ಯಶಾಹಿ -0.3979
-0.4260 ಸಾಮ್ರಾಜ್ಯಶಾಹಿ ಶಕ್ತಿಗಳ -0.3979
-0.4260 ಶಕ್ತಿಗಳ ವಿರುದ್ಧ -0.3979
-0.4260 ವಿರುದ್ಧ ಒಮ್ಮತದ 0.0000
-0.1249 ಒಮ್ಮತದ ಅರಬ್ -0.3979
-0.4260 ಅರಬ್ ಹೋರಾಟ -0.3979
-0.4260 ಹೋರಾಟ ಸಂಘಟಿಸುವ 0.0000
-0.1249 ಸಂಘಟಿಸುವ ಗುರಿ 0.0000
-0.1249 ಗುರಿ </s> -0.6021
-0.8239 ಇಲ್ಲಿ ಸೌದಿ -0.3979
-0.4260 ಸೌದಿ ಅರಸೊತ್ತಿಗೆಯ 0.0000
-0.1249 ಅರಸೊತ್ತಿಗೆಯ ವಿದೇಶಾಂಗ 0.0000
-0.1249 ವಿದೇಶಾಂಗ ನೀತಿ 0.0000
-0.1249 ನೀತಿ ನಿರ್ಣಾಯಕ 0.0000
-0.1249 ನಿರ್ಣಾಯಕ ಪಾತ್ರ -0.3979
-0.4260 ಪಾತ್ರ ವಹಿಸುತ್ತದೆ 0.0000
-0.1249 ವಹಿಸುತ್ತದೆ </s> -0.6021
-2.4260 <s> ಮಧ್ಯಪೂರ್ವ 0.0000
-0.1249 ಮಧ್ಯಪೂರ್ವ ಪ್ರದೇಶದ 0.0000
-0.1249 ಪ್ರದೇಶದ ಅನೆಯಕ 0.0000
-0.1249 ಅನೆಯಕ ದೇಶಗಳಿಗೆ 0.0000
-0.1249 ದೇಶಗಳಿಗೆ ಸೌದಿಗಳ 0.0000
-0.1249 ಸೌದಿಗಳ ಗ್ರಹಿಕೆಯಂತೆ 0.0000
-0.1249 ಗ್ರಹಿಕೆಯಂತೆ ಅಮೆರಿಕದ -0.3979
-0.4260 ಅಮೆರಿಕದ ಧೋರಣೆಯ 0.0000
-0.1249 ಧೋರಣೆಯ ಕುರಿತು 0.0000
-0.1249 ಕುರಿತು ಅಸಮಾಧಾನವಿದೆ 0.0000
-0.1249 ಅಸಮಾಧಾನವಿದೆ </s> -0.6021
-1.0792 ಆ ಪ್ರಣವದ 0.0000
-0.1249 ಪ್ರಣವದ ಕುಂಡಲಾಕಾರದಲ್ಲಿ 0.0000
-0.1249 ಕುಂಡಲಾಕಾರದಲ್ಲಿ ತೇಜವೆಂಬ 0.0000
-0.1249 ತೇಜವೆಂಬ ಮಹಾಭೂತವಡಗಿತ್ತು 0.0000
-0.1249 ಮಹಾಭೂತವಡಗಿತ್ತು </s> -0.6021
-2.4260 <s> ಸೋದೆಯ 0.0000
-0.1249 ಸೋದೆಯ ಮೊದಲನೆಯ 0.0000
-0.1249 ಮೊದಲನೆಯ ರಘುನಾಥರಾಯನ 0.0000
-0.1249 ರಘುನಾಥರಾಯನ ಕಾಲ 0.0000
-0.1249 ಕಾಲ ಕ್ರಿಶ 0.0000
-0.1249 ಕ್ರಿಶ </s> -0.6021
-2.4260 <s> ಜರಿಮಲೆ 0.0000
-0.1249 ಜರಿಮಲೆ ಕಡೆ 0.0000
-0.1249 ಕಡೆ ಹಿಂದೆ -0.3979
-0.4260 ಹಿಂದೆ ಬೇಟೆಗೆ 0.0000
-0.1249 ಬೇಟೆಗೆ ಬರುತ್ತಿದ್ದರೂ 0.0000
-0.1249 ಬರುತ್ತಿದ್ದರೂ ಈಗ -0.3979
-0.4260 ಈಗ ಇಲ್ಲ 0.0000
-0.1249 ಇಲ್ಲ </s> -0.6021
-2.4260 <s> ಓಬಳದೇವರೆಇಗೆ 0.0000
-0.1249 ಓಬಳದೇವರೆಇಗೆ ವಾಸೆ 0.0000
-0.1249 ವಾಸೆ ಕೊಯ್ಯುತ್ತಿದ್ದು 0.0000
-0.1249 ಕೊಯ್ಯುತ್ತಿದ್ದು ದಡ್ಲುಮಾರಮ್ಮನನ್ನು 0.0000
-0.1249 ದಡ್ಲುಮಾರಮ್ಮನನ್ನು ಸ್ತ್ರೀ -0.3979
-0.4260 ಸ್ತ್ರೀ ದೇವತೆಯಾಗಿ 0.0000
-0.1249 ದೇವತೆಯಾಗಿ ಪೂಜಿಸುವರು 0.0000
-0.1249 ಪೂಜಿಸುವರು </s> -0.6021
-1.5873 ಈ ದ್ರಾವಿಡ 0.0000
-0.1249 ದ್ರಾವಿಡ ಭಾಷೆಗಳ 0.0000
-0.1249 ಭಾಷೆಗಳ ಲಿಪಿಗಳ 0.0000
-0.1249 ಲಿಪಿಗಳ ಬೆಳವಣಿಗೆಯಲ್ಲಿ 0.0000
-0.1249 ಬೆಳವಣಿಗೆಯಲ್ಲಿ ಹಲವಾರು -0.4771
-0.6021 ಹಲವಾರು ಮಾರ್ಪಾಟಾಗಿರುವುದು 0.0000
-0.1249 ಮಾರ್ಪಾಟಾಗಿರುವುದು ಕಂಡುಬರುತ್ತದೆ 0.0000
-0.1249 ಕಂಡುಬರುತ್ತದೆ </s> -0.6021
-2.4260 <s> ಸಮಾಜದ 0.0000
-0.1249 ಸಮಾಜದ ಕೆಳಸಮುದಾಯಗಳ 0.0000
-0.1249 ಕೆಳಸಮುದಾಯಗಳ ಅಸಹಾಯಕತೆ 0.0000
-0.1249 ಅಸಹಾಯಕತೆ ಹಾಗೂ -0.5763
-1.2389 ಹಾಗೂ ಅದಕ್ಕೆ -0.5119
-0.7270 ಅದಕ್ಕೆ ಕಾರಣವಾದ 0.0000
-0.1249 ಕಾರಣವಾದ ಶಕ್ತಿಗಳ -0.3979
-0.4260 ಶಕ್ತಿಗಳ ವಿರುದ್ಧದ 0.0000
-0.1249 ವಿರುದ್ಧದ ಆಕ್ರೋಶ 0.0000
-0.1249 ಆಕ್ರೋಶ ಬಹುತೇಕ 0.0000
-0.1249 ಬಹುತೇಕ ಪಾಡ್ದನಗಳಲ್ಲಿ 0.0000
-0.1249 ಪಾಡ್ದನಗಳಲ್ಲಿ ಕಂಡುಬರುತ್ತದೆ 0.0000
-0.6021 ಏಕೆಂದರೆ ಅರಸಕೇಂದ್ರಿತ 0.0000
-0.1249 ಅರಸಕೇಂದ್ರಿತ ಚರಿತ್ರೆ 0.0000
-0.1249 ಚರಿತ್ರೆ ಅಧಿಕಾರ 0.0000
-0.4260 ಸವಲತ್ತುಗಳ ನೆಲೆಯಿಂದ 0.0000
-0.1249 ನೆಲೆಯಿಂದ ನಿರ್ಮಾಣಗೊಂಡಿರುವಂತದ್ದು 0.0000
-0.1249 ನಿರ್ಮಾಣಗೊಂಡಿರುವಂತದ್ದು </s> -0.6021
-2.4260 <s> ಇದು -0.4771
-0.6021 ಇದು ಕಾರ್ಟರ್ನ 0.0000
-0.1249 ಕಾರ್ಟರ್ನ ಆಡಳಿತದ 0.0000
-0.1249 ಆಡಳಿತದ ವೈಫಲ್ಯವೆಂದು 0.0000
-0.1249 ವೈಫಲ್ಯವೆಂದು ಅಭಿಪ್ರಾಯಿಸ 0.0000
-0.1249 ಅಭಿಪ್ರಾಯಿಸ ಲಾಗಿದೆ 0.0000
-0.1249 ಲಾಗಿದೆ </s> -0.6021
-2.4260 <s> ಓಬಯ್ಯ 0.0000
-0.1249 ಓಬಯ್ಯ ಎಂಬ -0.5315
-0.8239 ಎಂಬ ಪೂಜಾರಿ -0.3979
-0.4260 ಪೂಜಾರಿ ಈ -0.5907
-1.5873 ಈ ದೇವಾಲಯದ 0.0000
-0.1249 ದೇವಾಲಯದ ಪ್ರತಿಯೊಂದು 0.0000
-0.1249 ಪ್ರತಿಯೊಂದು ಜವಾಬ್ದಾರಿಯನ್ನು 0.0000
-0.1249 ಜವಾಬ್ದಾರಿಯನ್ನು ಕೈಗೊಂಡಿದ್ದಾರೆ 0.0000
-0.1249 ಕೈಗೊಂಡಿದ್ದಾರೆ </s> -0.6021
-2.4260 <s> ವೀರಗಲ್ಲಿನ 0.0000
-0.1249 ವೀರಗಲ್ಲಿನ ಪೂರ್ವಕ್ಕೆ 0.0000
-0.1249 ಪೂರ್ವಕ್ಕೆ ಕೋನ 0.0000
-0.1249 ಕೋನ ಸಾಗರದ 0.0000
-0.1249 ಸಾಗರದ ಬೆಟ್ಟದ 0.0000
-0.1249 ಬೆಟ್ಟದ ಸಾಲಿನ 0.0000
-0.1249 ಸಾಲಿನ ತಿಮ್ಮಪ್ಪನ 0.0000
-0.1249 ತಿಮ್ಮಪ್ಪನ ಗುಡ್ಡವಿದೆ 0.0000
-0.1249 ಗುಡ್ಡವಿದೆ </s> -0.6021
-1.5873 ಈ ವೀರನ 0.0000
-0.1249 ವೀರನ ಸ್ಮರಣಾರ್ಥ 0.0000
-0.1249 ಸ್ಮರಣಾರ್ಥ ಇಂದಿಗೂ 0.0000
-0.1249 ಇಂದಿಗೂ ರೂಢಿ 0.0000
-0.1249 ರೂಢಿ ಸಂಪ್ರದಾಯಗಳನ್ನು 0.0000
-0.1249 ಸಂಪ್ರದಾಯಗಳನ್ನು ಉಳಿಸಿಕೊಂಡು 0.0000
-0.1249 ಉಳಿಸಿಕೊಂಡು ಬಂದಿದ್ದಾನೆ 0.0000
-0.1249 ಬಂದಿದ್ದಾನೆ </s> -0.6021
-2.4260 <s> ಮುಕ್ತಿ 0.0000
-0.1249 ಮುಕ್ತಿ ಪಡೆಯಲು -0.3979
-0.4260 ಪಡೆಯಲು ಮದುವೆ 0.0000
-0.1249 ಮದುವೆ ಮಕ್ಕಳಾಗಬೇಕು 0.0000
-0.1249 ಮಕ್ಕಳಾಗಬೇಕು ವಿದ್ಯಾಭ್ಯಾಸ 0.0000
-0.1249 ವಿದ್ಯಾಭ್ಯಾಸ ಪೂಜೆ 0.0000
-0.1249 ಪೂಜೆ ದಾನ -0.3979
-0.4260 ದಾನ ನೀತಿಗಳು 0.0000
-0.1249 ನೀತಿಗಳು ಅವಶ್ಯಕತೆವೆನಿಸಿವೆ 0.0000
-0.1249 ಅವಶ್ಯಕತೆವೆನಿಸಿವೆ </s> -0.6021
-2.4260 <s> ಆದಿಯಲ್ಲಿ 0.0000
-0.1249 ಆದಿಯಲ್ಲಿ ಇದನ್ನು -0.5441
-0.9031 ಇದನ್ನು ಧರ್ಮಕೇಂದ್ರಿತ 0.0000
-0.1249 ಧರ್ಮಕೇಂದ್ರಿತ ನೆಲೆಯಲ್ಲಿ -0.3979
-0.4260 ನೆಲೆಯಲ್ಲಿ ಗ್ರಹಿಸಿದ್ದರಿಂದ 0.0000
-0.1249 ಗ್ರಹಿಸಿದ್ದರಿಂದ ಕ್ರಮೇಣ -0.3979
-0.4260 ಕ್ರಮೇಣ ಅದು -0.5119
-0.7270 ಅದು ಅಧ್ಯಾತ್ಮಿಕ 0.0000
-0.1249 ಅಧ್ಯಾತ್ಮಿಕ ಸ್ವರೂಪಕ್ಕೆ 0.0000
-0.1249 ಸ್ವರೂಪಕ್ಕೆ ಬಂದಿತು 0.0000
-0.1249 ಬಂದಿತು </s> -0.6021
-2.4260 <s> ಇವುಗಳಲ್ಲಿ 0.0000
-0.1249 ಇವುಗಳಲ್ಲಿ ಪುನಃಜೈನ 0.0000
-0.1249 ಪುನಃಜೈನ ಮತ್ತು -0.5781
-1.2711 ಮತ್ತು ಹಿಂದೂಧರ್ಮಗಳ 0.0000
-0.1249 ಹಿಂದೂಧರ್ಮಗಳ ಲಕ್ಷಣಗಳು -0.3979
-0.4260 ಲಕ್ಷಣಗಳು ಬೇರೆ -0.3979
-0.9031 ಬೇರೆ </s> -0.6021
-2.4260 <s> ಹಂಪಿಯಲ್ಲಿ 0.0000
-0.1249 ಹಂಪಿಯಲ್ಲಿ ದೇವಾಂಗಮಠ 0.0000
-0.1249 ದೇವಾಂಗಮಠ ರಾಜಹಳ್ಳಿಯಲ್ಲಿ 0.0000
-0.1249 ರಾಜಹಳ್ಳಿಯಲ್ಲಿ ವಾಲ್ಮೀಕಿ 0.0000
-0.1249 ವಾಲ್ಮೀಕಿ ಮಠಗಳಂತೆ 0.0000
-0.1249 ಮಠಗಳಂತೆ ಲಂಬಾಣಿಗರ 0.0000
-0.1249 ಲಂಬಾಣಿಗರ ಸೇವಾಲಾಲ್ 0.0000
-0.1249 ಸೇವಾಲಾಲ್ ಮಠಗಳಿವೆ 0.0000
-0.1249 ಮಠಗಳಿವೆ </s> -0.6021
-2.4260 <s> ಕರಾವಳಿ 0.0000
-0.1249 ಕರಾವಳಿ ಕರ್ನಾಟಕವು 0.0000
-0.1249 ಕರ್ನಾಟಕವು ಭೌಗೋಳಿಕವಾಗಿ -0.3979
-0.4260 ಭೌಗೋಳಿಕವಾಗಿ ಹಾಗೂ -0.5763
-1.2389 ಹಾಗೂ ಸಾಂಸ್ಕೃತಿಕವಾಗಿ 0.0000
-0.1249 ಸಾಂಸ್ಕೃತಿಕವಾಗಿ ಹಲವಾರು -0.4771
-0.6021 ಹಲವಾರು ಬಗೆಯ 0.0000
-0.1249 ಬಗೆಯ ವೈಶಿಷ್ಟ್ಯತೆಗಳನ್ನು 0.0000
-0.1249 ವೈಶಿಷ್ಟ್ಯತೆಗಳನ್ನು ಹೊಂದಿರುವ -0.3979
-0.4260 ಹೊಂದಿರುವ ಭೂಪ್ರದೇಶವಾಗಿದೆ 0.0000
-0.1249 ಭೂಪ್ರದೇಶವಾಗಿದೆ </s> -0.6021
-2.4260 <s> ಲೌರಿ 0.0000
-0.1249 ಲೌರಿ ಹಾಂಕೊ -0.3979
-0.4260 ಹಾಂಕೊ ಚಿನ್ನಪ್ಪಗೌಡ 0.0000
-0.1249 ಚಿನ್ನಪ್ಪಗೌಡ ಕೆ 0.0000
-0.1249 ಕೆ ಅನೆಲಿ 0.0000
-0.1249 ಅನೆಲಿ ಹಾಂಕೊ -0.3979
-0.4260 ಹಾಂಕೊ ಮತ್ತು -0.5781
-1.2711 ಮತ್ತು ವಿವೇಕ 0.0000
-0.1249 ವಿವೇಕ ರೈ 0.0000
-0.1249 ರೈ ಬಿಎ 0.0000
-0.1249 ಬಿಎ </s> -0.6021
-1.5873 ಈ ಅಂಶವನ್ನು 0.0000
-0.1249 ಅಂಶವನ್ನು ತುಳು -0.3979
-0.4260 ಜನಪದ ಸಾಹಿತ್ಯದಲ್ಲಿ 0.0000
-0.1249 ಸಾಹಿತ್ಯದಲ್ಲಿ ಸ್ಪಷ್ಟವಾಗಿ 0.0000
-0.1249 ಸ್ಪಷ್ಟವಾಗಿ ಗುರುತಿಸಬಹುದಾಗಿದೆ 0.0000
-0.1249 ಗುರುತಿಸಬಹುದಾಗಿದೆ </s> -0.6021
-2.4260 <s> ಬದಲಾಗುತ್ತಿರುವ 0.0000
-0.1249 ಬದಲಾಗುತ್ತಿರುವ ಸಂದರ್ಭಗಳಲ್ಲೂ 0.0000
-0.1249 ಸಂದರ್ಭಗಳಲ್ಲೂ ಭೂತಾರಾಧನೆ 0.0000
-0.1249 ಭೂತಾರಾಧನೆ ಮತ್ತೊಮ್ಮೆ 0.0000
-0.1249 ಮತ್ತೊಮ್ಮೆ ಪುನರುತ್ಥಾನದ 0.0000
-0.1249 ಪುನರುತ್ಥಾನದ ನೆಲೆಯಲ್ಲಿ -0.3979
-0.4260 ನೆಲೆಯಲ್ಲಿ ಮರುಜೀವ 0.0000
-0.1249 ಮರುಜೀವ ಪಡೆಯುತ್ತಿದೆ 0.0000
-0.1249 ಪಡೆಯುತ್ತಿದೆ </s> -0.6021
-1.5873 ಈ ರೀತಿಯಾಗಿ 0.0000
-0.1249 ರೀತಿಯಾಗಿ ಬಂಗಾಡಿ 0.0000
-0.1249 ಬಂಗಾಡಿ ಪೇಟೆಯಲ್ಲಿ 0.0000
-0.1249 ಪೇಟೆಯಲ್ಲಿ ಹಲವಾರು -0.4771
-0.6021 ಹಲವಾರು ಶ್ರೀಮಂತರ 0.0000
-0.1249 ಶ್ರೀಮಂತರ ನಿವಾಸಗಳಿರುವ 0.0000
-0.1249 ನಿವಾಸಗಳಿರುವ ಬೀದಿಗಳಿವೆ 0.0000
-0.1249 ಬೀದಿಗಳಿವೆ </s> -0.6021
-0.8239 ಇದೇ ಜಿಲ್ಲೆಯ -0.4771
-0.6021 ಜಿಲ್ಲೆಯ ತುರುವೆಕರೆ 0.0000
-0.1249 ತುರುವೆಕರೆ ತಾಲೂಕಿನ 0.0000
-0.1249 ತಾಲೂಕಿನ ಸೂಳೆಕೆರೆ 0.0000
-0.1249 ಸೂಳೆಕೆರೆ ಎಂಬಲ್ಲಿ 0.0000
-0.1249 ಎಂಬಲ್ಲಿ ಸಿಕ್ಕಿರುವ 0.0000
-0.1249 ಸಿಕ್ಕಿರುವ ಕ್ರಿಶ 0.0000
-0.9031 ತನ್ನ ಸಾಮ್ರಾಜ್ಯದ 0.0000
-0.1249 ಸಾಮ್ರಾಜ್ಯದ ಈ -0.5907
-1.5873 ಈ ಭೂಭಾಗಕ್ಕೆ 0.0000
-0.1249 ಭೂಭಾಗಕ್ಕೆ ಆತನನ್ನೇ 0.0000
-0.1249 ಆತನನ್ನೇ ಒಡೆಯನನ್ನಾಗಿ 0.0000
-0.1249 ಒಡೆಯನನ್ನಾಗಿ ನೇಮಿಸಿದನು 0.0000
-0.1249 ನೇಮಿಸಿದನು </s> -0.6021
-2.4260 <s> ಗುರ್ಚಿ 0.0000
-0.1249 ಗುರ್ಚಿ ಆಚರಣೆಯಲ್ಲಿ 0.0000
-0.1249 ಆಚರಣೆಯಲ್ಲಿ ತೊಪ್ಪೆಯ 0.0000
-0.1249 ತೊಪ್ಪೆಯ ಉಂಡೆ 0.0000
-0.1249 ಉಂಡೆ ಮಾಡಿ -0.3979
-0.4260 ಮಾಡಿ ಅದಕ್ಕೆ -0.5119
-0.7270 ಅದಕ್ಕೆ ಗರುಕೆಯನ್ನು 0.0000
-0.1249 ಗರುಕೆಯನ್ನು ಸಿಕ್ಕಿಸಿದಾಗ 0.0000
-0.1249 ಸಿಕ್ಕಿಸಿದಾಗ ಅದು -0.5119
-0.7270 ಅದು ಮಳೆರಾಯನ 0.0000
-0.1249 ಮಳೆರಾಯನ ಪ್ರತೀಕವಾಗುತ್ತದೆ 0.0000
-0.1249 ಪ್ರತೀಕವಾಗುತ್ತದೆ </s> -0.6021
-2.4260 <s> ಮಳೆರಾಜನ 0.0000
-0.1249 ಮಳೆರಾಜನ ಕುಣಿತದ 0.0000
-0.1249 ಕುಣಿತದ ಹಾಡು 0.0000
-0.1249 ಹಾಡು ನೇರವಾಗಿ 0.0000
-0.1249 ನೇರವಾಗಿ ಮೇಘರಾಜನ 0.0000
-0.1249 ಮೇಘರಾಜನ ಪ್ರಾರ್ಥನೆಯೇ 0.0000
-0.1249 ಪ್ರಾರ್ಥನೆಯೇ ಆಗಿದೆ 0.0000

\3-grams:
-0.1249 <s> ಇವರಲ್ಲಿ ಬೇಟೆ
-0.1249 ಇವರಲ್ಲಿ ಬೇಟೆ ಪಶುಪಾಲನೆ
-0.1249 ಬೇಟೆ ಪಶುಪಾಲನೆ ಮತ್ತು
-0.1249 ಪಶುಪಾಲನೆ ಮತ್ತು ಕೃಷಿ
-0.1249 ಮತ್ತು ಕೃಷಿ ವೃತ್ತಿಗಳು
-0.1249 ಕೃಷಿ ವೃತ್ತಿಗಳು ಜೀವಂತವಾಗಿವೆ
-0.1249 ವೃತ್ತಿಗಳು ಜೀವಂತವಾಗಿವೆ </s>
-0.1249 <s> ಪ್ರಾಚೀನ ಕಾಲದಿಂದ
-0.1249 ಪ್ರಾಚೀನ ಕಾಲದಿಂದ ನಾಟಕ
-0.1249 ಕಾಲದಿಂದ ನಾಟಕ ಸಾಹಿತ್ಯದ
-0.1249 ನಾಟಕ ಸಾಹಿತ್ಯದ ಉಲ್ಲೇಖಗಳಿರುವಂತೆ
-0.1249 ಸಾಹಿತ್ಯದ ಉಲ್ಲೇಖಗಳಿರುವಂತೆ </s>
-0.1249 <s> ಯಾಕೆಂದರೆ ಯಾವುದೇ
-0.1249 ಯಾಕೆಂದರೆ ಯಾವುದೇ ಅಭಿವೃದ್ದಿ
-0.1249 ಯಾವುದೇ ಅಭಿವೃದ್ದಿ ನಡೆಸಿಕೊಂಡು
-0.1249 ಅಭಿವೃದ್ದಿ ನಡೆಸಿಕೊಂಡು ಹೋಗಬೇಕಾದರೆ
-0.1249 ನಡೆಸಿಕೊಂಡು ಹೋಗಬೇಕಾದರೆ ಬಂಡವಾಳದ
-0.1249 ಹೋಗಬೇಕಾದರೆ ಬಂಡವಾಳದ ಅವಶ್ಯಕತೆ
-0.1249 ಬಂಡವಾಳದ ಅವಶ್ಯಕತೆ ಇದ್ದೇ
-0.1249 ಅವಶ್ಯಕತೆ ಇದ್ದೇ ಇದೆ
-0.1249 ಇದ್ದೇ ಇದೆ </s>
-0.1249 <s> ಟಿಎ ಇನ್ನೊಂದು
-0.1249 ಟಿಎ ಇನ್ನೊಂದು ಭಾಗವಾಗಿದ್ದು
-0.1249 ಇನ್ನೊಂದು ಭಾಗವಾಗಿದ್ದು ದಕ್ಷಿಣದ
-0.1249 ಭಾಗವಾಗಿದ್ದು ದಕ್ಷಿಣದ ಲ್ಯಾಟಿನ್
-0.1249 ದಕ್ಷಿಣದ ಲ್ಯಾಟಿನ್ ಅಮೆರಿಕದೊಳಗೆ
-0.1249 ಲ್ಯಾಟಿನ್ ಅಮೆರಿಕದೊಳಗೆ ವಿಸ್ತರಿಸಲು
-0.1249 ಅಮೆರಿಕದೊಳಗೆ ವಿಸ್ತರಿಸಲು ಪ್ರಯತ್ನಿಸುತ್ತಿದೆ
-0.1249 ವಿಸ್ತರಿಸಲು ಪ್ರಯತ್ನಿಸುತ್ತಿದೆ </s>
-0.1249 <s> ಸಾಕಷ್ಟು ಬಿಡಿ
-0.1249 ಸಾಕಷ್ಟು ಬಿಡಿ ಕಥೆಗಳು
-0.1249 ಬಿಡಿ ಕಥೆಗಳು ತುಳುವಲ್ಲಿ
-0.1249 ಕಥೆಗಳು ತುಳುವಲ್ಲಿ ಪ್ರಕಟವಾದರೂ
-0.1249 ತುಳುವಲ್ಲಿ ಪ್ರಕಟವಾದರೂ ಪುಸ್ತಕರೂಪದಲ್ಲಿ
-0.1249 ಪ್ರಕಟವಾದರೂ ಪುಸ್ತಕರೂಪದಲ್ಲಿ ಬಂದುದು
-0.1249 ಪುಸ್ತಕರೂಪದಲ್ಲಿ ಬಂದುದು ಕಡಿಮೆ
-0.1249 ಬಂದುದು ಕಡಿಮೆ </s>
-0.1249 <s> ಚಿತ್ರದುರ್ಗ ಜಿಲ್ಲೆಯ
-0.4260 ಚಿತ್ರದುರ್ಗ ಜಿಲ್ಲೆಯ ಮೈಲಾರಪುರದ
-0.1249 ಜಿಲ್ಲೆಯ ಮೈಲಾರಪುರದ ಮೈಲಾರನ
-0.1249 ಮೈಲಾರಪುರದ ಮೈಲಾರನ ದೇವಸ್ಥಾನದಲ್ಲಿ
-0.1249 ಮೈಲಾರನ ದೇವಸ್ಥಾನದಲ್ಲಿ ಜಟಾಧಾರಿ
-0.1249 ದೇವಸ್ಥಾನದಲ್ಲಿ ಜಟಾಧಾರಿ ತಪಸ್ವಿಯ
-0.1249 ಜಟಾಧಾರಿ ತಪಸ್ವಿಯ ರೂಪದಲ್ಲಿ
-0.1249 ತಪಸ್ವಿಯ ರೂಪದಲ್ಲಿ ಹೆಗ್ಗಪ್ಪ
-0.1249 ರೂಪದಲ್ಲಿ ಹೆಗ್ಗಪ್ಪ ಪೂಜೆಗೊಳ್ಳುತ್ತಿರುವದು
-0.1249 ಹೆಗ್ಗಪ್ಪ ಪೂಜೆಗೊಳ್ಳುತ್ತಿರುವದು ಕುತೂಹಲಕರವಾಗಿದೆ
-0.1249 ಪೂಜೆಗೊಳ್ಳುತ್ತಿರುವದು ಕುತೂಹಲಕರವಾಗಿದೆ </s>
-0.4260 ಚಿತ್ರದುರ್ಗ ಜಿಲ್ಲೆಯ ಮೈಲಾರಪುರದಲ್ಲಿ
-0.1249 ಜಿಲ್ಲೆಯ ಮೈಲಾರಪುರದಲ್ಲಿ ಷಣ್ಮುಖನ
-0.1249 ಮೈಲಾರಪುರದಲ್ಲಿ ಷಣ್ಮುಖನ ವಿಗ್ರಹದೊಂದಿಗೆ
-0.1249 ಷಣ್ಮುಖನ ವಿಗ್ರಹದೊಂದಿಗೆ ಗಣಪತಿಯ
-0.1249 ವಿಗ್ರಹದೊಂದಿಗೆ ಗಣಪತಿಯ ವಿಗ್ರಹವೂ
-0.1249 ಗಣಪತಿಯ ವಿಗ್ರಹವೂ ಇದೆಯೆಂದು
-0.1249 ವಿಗ್ರಹವೂ ಇದೆಯೆಂದು ತಿಳಿದುಬರುತ್ತದೆ
-0.1249 ಇದೆಯೆಂದು ತಿಳಿದುಬರುತ್ತದೆ </s>
-0.1249 <s> ಮೈಲಾರನ ಸಮಸ್ತ
-0.1249 ಮೈಲಾರನ ಸಮಸ್ತ ಪರಿವಾರದ
-0.1249 ಸಮಸ್ತ ಪರಿವಾರದ ಸಮಗ್ರ
-0.1249 ಪರಿವಾರದ ಸಮಗ್ರ ಪರಿಚಯ
-0.1249 ಸಮಗ್ರ ಪರಿಚಯ ಇಲ್ಲಿ
-0.1249 ಪರಿಚಯ ಇಲ್ಲಿ ನಡೆದಿಲ್ಲ
-0.1249 ಇಲ್ಲಿ ನಡೆದಿಲ್ಲ </s>
-0.1249 <s> ವಾಣಿಜ್ಯ ಬೆಳೆಗಳಿಗೆ
-0.1249 ವಾಣಿಜ್ಯ ಬೆಳೆಗಳಿಗೆ ನೀಡಲಾದ
-0.1249 ಬೆಳೆಗಳಿಗೆ ನೀಡಲಾದ ಅತಿಯಾದ
-0.1249 ನೀಡಲಾದ ಅತಿಯಾದ ಪ್ರೋತ್ಸಾಹ
-0.1249 ಅತಿಯಾದ ಪ್ರೋತ್ಸಾಹ ಅನೇಕ
-0.1249 ಪ್ರೋತ್ಸಾಹ ಅನೇಕ ಬಡ
-0.1249 ಅನೇಕ ಬಡ ರೈತರಿಗೆ
-0.1249 ಬಡ ರೈತರಿಗೆ ಹಾಗೂ
-0.1249 ರೈತರಿಗೆ ಹಾಗೂ ಜೀವನಾವಶ್ಯಕ
-0.1249 ಹಾಗೂ ಜೀವನಾವಶ್ಯಕ ಬೆಳೆಗಳಿಗೆ
-0.1249 ಜೀವನಾವಶ್ಯಕ ಬೆಳೆಗಳಿಗೆ ಮಾರಣಾಂತಿಕವಾಗಿತ್ತು
-0.1249 ಬೆಳೆಗಳಿಗೆ ಮಾರಣಾಂತಿಕವಾಗಿತ್ತು </s>
-0.1249 <s> ಇತಿಹಾಸಕಾರರು ಇದನ್ನು
-0.1249 ಇತಿಹಾಸಕಾರರು ಇದನ್ನು ರಾಜ್ಯದ
-0.1249 ಇದನ್ನು ರಾಜ್ಯದ ಅತ್ಯಂತ
-0.1249 ರಾಜ್ಯದ ಅತ್ಯಂತ ಬೃಹತ್
-0.1249 ಅತ್ಯಂತ ಬೃಹತ್ ದಾಖಲೆಯೆಂದು
-0.1249 ಬೃಹತ್ ದಾಖಲೆಯೆಂದು ಪರಿಗಣಿಸಿದ್ದಾರೆ
-0.1249 ದಾಖಲೆಯೆಂದು ಪರಿಗಣಿಸಿದ್ದಾರೆ </s>
-0.7270 <s> ಆದರೆ ಅನಕ್ಷರಸ್ಥ
-0.1249 ಆದರೆ ಅನಕ್ಷರಸ್ಥ ಕರಿಯರು
-0.1249 ಅನಕ್ಷರಸ್ಥ ಕರಿಯರು ಮತ
-0.1249 ಕರಿಯರು ಮತ ಹಾಕುವಂತಿರಲಿಲ್ಲ
-0.1249 ಮತ ಹಾಕುವಂತಿರಲಿಲ್ಲ </s>
-0.1249 <s> ಅಮೆರಿಕಾ ಸರಕಾರವು
-0.1249 ಅಮೆರಿಕಾ ಸರಕಾರವು ಪ್ರಾರಂಭದಿಂದಲೂ
-0.1249 ಸರಕಾರವು ಪ್ರಾರಂಭದಿಂದಲೂ ವರ್ಣಭೇದ
-0.1249 ಪ್ರಾರಂಭದಿಂದಲೂ ವರ್ಣಭೇದ ನೀತಿಯನ್ನು
-0.1249 ವರ್ಣಭೇದ ನೀತಿಯನ್ನು ಅನುಸರಿಸಲು
-0.1249 ನೀತಿಯನ್ನು ಅನುಸರಿಸಲು ಕಾನೂನುನೀತಿಗಳನ್ನು
-0.1249 ಅನುಸರಿಸಲು ಕಾನೂನುನೀತಿಗಳನ್ನು ಮಾಡುತಿತ್ತು
-0.1249 ಕಾನೂನುನೀತಿಗಳನ್ನು ಮಾಡುತಿತ್ತು </s>
-0.1249 <s> ಪುನಾರಚನೆಯ ಸಮಯದಲ್ಲಿ
-0.1249 ಪುನಾರಚನೆಯ ಸಮಯದಲ್ಲಿ ಅಮೆರಿಕಾ
-0.1249 ಸಮಯದಲ್ಲಿ ಅಮೆರಿಕಾ ಸೇನೆಯು
-0.1249 ಅಮೆರಿಕಾ ಸೇನೆಯು ಅಮಾಯಕ
-0.1249 ಸೇನೆಯು ಅಮಾಯಕ ಕರಿಯರನ್ನು
-0.1249 ಅಮಾಯಕ ಕರಿಯರನ್ನು ಕೊಲ್ಲುವುದನ್ನು
-0.1249 ಕರಿಯರನ್ನು ಕೊಲ್ಲುವುದನ್ನು ಮಾತ್ರ
-0.1249 ಕೊಲ್ಲುವುದನ್ನು ಮಾತ್ರ ತಪ್ಪಿಸಿತು
-0.1249 ಮಾತ್ರ ತಪ್ಪಿಸಿತು </s>
-0.1249 <s> ಹಿಂದೂ ದ್ವೇಷಿಯೆಂದು
-0.1249 ಹಿಂದೂ ದ್ವೇಷಿಯೆಂದು ಹೆಸರಾದ
-0.1249 ದ್ವೇಷಿಯೆಂದು ಹೆಸರಾದ ಔರಂಗಜೇಬನು
-0.1249 ಹೆಸರಾದ ಔರಂಗಜೇಬನು ಕೂಡ
-0.1249 ಔರಂಗಜೇಬನು ಕೂಡ ಈ
-0.1249 ಕೂಡ ಈ ಮಠಕ್ಕೆ
-0.1249 ಈ ಮಠಕ್ಕೆ ಸನದು
-0.1249 ಮಠಕ್ಕೆ ಸನದು ಹಾಕಿಕೊಟ್ಟಿರುವುದೊಂದು
-0.1249 ಸನದು ಹಾಕಿಕೊಟ್ಟಿರುವುದೊಂದು ವಿಶೇಷ
-0.1249 ಹಾಕಿಕೊಟ್ಟಿರುವುದೊಂದು ವಿಶೇಷ </s>
-1.4037 <s> ಈ ಕಾಡಸಿದ್ಧೇಶ
-0.1249 ಈ ಕಾಡಸಿದ್ಧೇಶ ತಾನು
-0.1249 ಕಾಡಸಿದ್ಧೇಶ ತಾನು ಪರ್ವತೇಶನ
-0.1249 ತಾನು ಪರ್ವತೇಶನ ಅಂಗೈಯೊಳೊಗೆದಾತ
-0.1249 ಪರ್ವತೇಶನ ಅಂಗೈಯೊಳೊಗೆದಾತ ಭಕ್ತರಣುಗ
-0.1249 ಅಂಗೈಯೊಳೊಗೆದಾತ ಭಕ್ತರಣುಗ ಕಾಡಸಿದ್ಧೇಶ
-0.1249 ಭಕ್ತರಣುಗ ಕಾಡಸಿದ್ಧೇಶ ಎಂದು
-0.1249 ಕಾಡಸಿದ್ಧೇಶ ಎಂದು ಹೇಳಿಕೊಂಡಿರುವುದರಿಂದ
-0.1249 ಎಂದು ಹೇಳಿಕೊಂಡಿರುವುದರಿಂದ ಈತ
-0.1249 ಹೇಳಿಕೊಂಡಿರುವುದರಿಂದ ಈತ ಕ್ರಿ
-0.1249 ಈತ ಕ್ರಿ </s>
-1.4037 <s> ಈ ಅಂಶ
-0.1249 ಈ ಅಂಶ ಅವರಿಗೆ
-0.1249 ಅಂಶ ಅವರಿಗೆ ಪೂರ್ಣ
-0.1249 ಅವರಿಗೆ ಪೂರ್ಣ ಮನವರಿಕೆ
-0.1249 ಪೂರ್ಣ ಮನವರಿಕೆ ಯಾಗಿತ್ತು
-0.1249 ಮನವರಿಕೆ ಯಾಗಿತ್ತು </s>
-0.1249 <s> ಸವಾಯಿ ಮಲ್ಲಸರ್ಜನನ್ನು
-0.1249 ಸವಾಯಿ ಮಲ್ಲಸರ್ಜನನ್ನು ಬ್ರಿಟೀಶರು
-0.1249 ಮಲ್ಲಸರ್ಜನನ್ನು ಬ್ರಿಟೀಶರು ಶೋಧಿಸಲು
-0.1249 ಬ್ರಿಟೀಶರು ಶೋಧಿಸಲು ಸುರು
-0.1249 ಶೋಧಿಸಲು ಸುರು ಮಾಡಿದ್ದರು
-0.1249 ಸುರು ಮಾಡಿದ್ದರು </s>
-0.4260 <s> ಅಲ್ಲದೆ ಈ
-0.1249 ಅಲ್ಲದೆ ಈ ವೇಳೆಗಾಗಲೇ
-0.1249 ಈ ವೇಳೆಗಾಗಲೇ ಮರಾಠಿಗರ
-0.1249 ವೇಳೆಗಾಗಲೇ ಮರಾಠಿಗರ ಆಕ್ರಮಣಕಾರಿ
-0.1249 ಮರಾಠಿಗರ ಆಕ್ರಮಣಕಾರಿ ಪ್ರವೃತ್ತಿಗಳು
-0.1249 ಆಕ್ರಮಣಕಾರಿ ಪ್ರವೃತ್ತಿಗಳು ಹೆಚ್ಚಾಗತೊಡಗಿದ್ದವು
-0.1249 ಪ್ರವೃತ್ತಿಗಳು ಹೆಚ್ಚಾಗತೊಡಗಿದ್ದವು </s>
-1.4037 <s> ಈ ಸಮಿತಿಯು
-0.1249 ಈ ಸಮಿತಿಯು ವರದಿ
-0.1249 ಸಮಿತಿಯು ವರದಿ ಸಿದ್ಧತೆಗೆ
-0.1249 ವರದಿ ಸಿದ್ಧತೆಗೆ ನಾಡಿನಾದ್ಯಂತ
-0.1249 ಸಿದ್ಧತೆಗೆ ನಾಡಿನಾದ್ಯಂತ ಕೈಗೊಂಡ
-0.1249 ನಾಡಿನಾದ್ಯಂತ ಕೈಗೊಂಡ ಪ್ರವಾಸಕ್ಕೆ
-0.1249 ಕೈಗೊಂಡ ಪ್ರವಾಸಕ್ಕೆ ಪ್ರತಿರೋಧಗಳು
-0.1249 ಪ್ರವಾಸಕ್ಕೆ ಪ್ರತಿರೋಧಗಳು ಕಂಡುಬಂದವು
-0.1249 ಪ್ರತಿರೋಧಗಳು ಕಂಡುಬಂದವು </s>
-1.4037 <s> ಈ ಪ್ರಕಟಣೆಯು
-0.1249 ಈ ಪ್ರಕಟಣೆಯು ಸಾಂಸ್ಕೃತಿಕ
-0.1249 ಪ್ರಕಟಣೆಯು ಸಾಂಸ್ಕೃತಿಕ ಬಂಧುತ್ವದ
-0.1249 ಸಾಂಸ್ಕೃತಿಕ ಬಂಧುತ್ವದ ಹೆಜ್ಜೆಗುರುತಾಗಿದೆ
-0.1249 ಬಂಧುತ್ವದ ಹೆಜ್ಜೆಗುರುತಾಗಿದೆ </s>
-0.1249 <s> ಕಾರಣ ಸಂಸ್ಕೃತಿ
-0.1249 ಕಾರಣ ಸಂಸ್ಕೃತಿ ಜನರ
-0.1249 ಸಂಸ್ಕೃತಿ ಜನರ ಜೀವನದ
-0.1249 ಜನರ ಜೀವನದ ಉಸಿರಾಗಿದೆ
-0.1249 ಜೀವನದ ಉಸಿರಾಗಿದೆ </s>
-0.1249 <s> ಮೇಲ್ಮಟ್ಟ ನಾಗರಿಕತೆಯ
-0.1249 ಮೇಲ್ಮಟ್ಟ ನಾಗರಿಕತೆಯ ಉನ್ನತ
-0.1249 ನಾಗರಿಕತೆಯ ಉನ್ನತ ವರ್ಗದ
-0.1249 ಉನ್ನತ ವರ್ಗದ ಜನರು
-0.1249 ವರ್ಗದ ಜನರು ವೈವಿಧ್ಯಮಯ
-0.1249 ಜನರು ವೈವಿಧ್ಯಮಯ ಉಡುಪುಗಳನ್ನು
-0.1249 ವೈವಿಧ್ಯಮಯ ಉಡುಪುಗಳನ್ನು ಧರಿಸುತ್ತಿದ್ದರು
-0.1249 ಉಡುಪುಗಳನ್ನು ಧರಿಸುತ್ತಿದ್ದರು </s>
-0.1249 <s> ಪುರಾಣಶಾಸ್ತ್ರಗಳು ಮತ್ತು
-0.1249 ಪುರಾಣಶಾಸ್ತ್ರಗಳು ಮತ್ತು ನೀತಿಕಥೆಗಳಲ್ಲಿ
-0.1249 ಮತ್ತು ನೀತಿಕಥೆಗಳಲ್ಲಿ ಒಳ್ಳೆಯ
-0.1249 ನೀತಿಕಥೆಗಳಲ್ಲಿ ಒಳ್ಳೆಯ ಕಾರ್ಯ
-0.1249 ಒಳ್ಳೆಯ ಕಾರ್ಯ ಮಾಡಿದವರಿಗೆ
-0.1249 ಕಾರ್ಯ ಮಾಡಿದವರಿಗೆ ಒಳ್ಳೆಯದಾಗುತ್ತದೆ
-0.1249 ಮಾಡಿದವರಿಗೆ ಒಳ್ಳೆಯದಾಗುತ್ತದೆ </s>
-0.1249 <s> ಪರಿಸ್ಥಿತಿಯು ಹಿಂಸಾತ್ಮಕ
-0.1249 ಪರಿಸ್ಥಿತಿಯು ಹಿಂಸಾತ್ಮಕ ರೂಪ
-0.1249 ಹಿಂಸಾತ್ಮಕ ರೂಪ ಪಡೆದು
-0.1249 ರೂಪ ಪಡೆದು ಪೊಲೀಸರಿಂದ
-0.1249 ಪಡೆದು ಪೊಲೀಸರಿಂದ ಲಾಠಿ
-0.1249 ಪೊಲೀಸರಿಂದ ಲಾಠಿ ಚಾರ್ಜು
-0.1249 ಲಾಠಿ ಚಾರ್ಜು ಆಯಿತು
-0.1249 ಚಾರ್ಜು ಆಯಿತು </s>
-0.1249 <s> ಉತ್ತರ ಕನ್ನಡ
-0.1249 ಉತ್ತರ ಕನ್ನಡ ಜಿಲ್ಲೆಯಲ್ಲಿ
-0.1249 ಕನ್ನಡ ಜಿಲ್ಲೆಯಲ್ಲಿ ಹೆಚ್ಚು
-0.1249 ಜಿಲ್ಲೆಯಲ್ಲಿ ಹೆಚ್ಚು ಚರ್ಚೆಗೆ
-0.1249 ಹೆಚ್ಚು ಚರ್ಚೆಗೆ ಒಳಗಾಗಿರುವ
-0.1249 ಚರ್ಚೆಗೆ ಒಳಗಾಗಿರುವ ಯೋಜನೆಗಳಲ್ಲಿ
-0.1249 ಒಳಗಾಗಿರುವ ಯೋಜನೆಗಳಲ್ಲಿ ಕೈಗಾ
-0.1249 ಯೋಜನೆಗಳಲ್ಲಿ ಕೈಗಾ ಅಣುಸ್ಥಾವರವೂ
-0.1249 ಕೈಗಾ ಅಣುಸ್ಥಾವರವೂ ಒಂದು
-0.1249 ಅಣುಸ್ಥಾವರವೂ ಒಂದು </s>
-1.4037 <s> ಈ ಯೋಜನೆಯ
-0.1249 ಈ ಯೋಜನೆಯ ರೂವಾರಿ
-0.1249 ಯೋಜನೆಯ ರೂವಾರಿ ಅಡ್ಮಿರಲ್
-0.1249 ರೂವಾರಿ ಅಡ್ಮಿರಲ್ ಆಸ್ಕರ್
-0.1249 ಅಡ್ಮಿರಲ್ ಆಸ್ಕರ್ ಸ್ಟಾನ್ಲಿ
-0.1249 ಆಸ್ಕರ್ ಸ್ಟಾನ್ಲಿ ದಾವ್ಸನ್
-0.1249 ಸ್ಟಾನ್ಲಿ ದಾವ್ಸನ್ </s>
-0.1249 <s> ಕಾಗೆಗೆ ಆಹಾರ
-0.1249 ಕಾಗೆಗೆ ಆಹಾರ ಸಿಕ್ಕಿದರೆ
-0.1249 ಆಹಾರ ಸಿಕ್ಕಿದರೆ ಸರಿ
-0.1249 ಸಿಕ್ಕಿದರೆ ಸರಿ ಕೋಣನ
-0.1249 ಸರಿ ಕೋಣನ ವೇದನೆ
-0.1249 ಕೋಣನ ವೇದನೆ ಅದಕ್ಕೆ
-0.1249 ವೇದನೆ ಅದಕ್ಕೆ ತಿಳಿಯುವುದಿಲ್ಲ
-0.1249 ಅದಕ್ಕೆ ತಿಳಿಯುವುದಿಲ್ಲ </s>
-0.1249 <s> ಸ್ವಿಡ್ಜರ್ಲೆಂಡ್ನಲ್ಲಿ ತಾನು
-0.1249 ಸ್ವಿಡ್ಜರ್ಲೆಂಡ್ನಲ್ಲಿ ತಾನು ನಡೆಸಿದ
-0.1249 ತಾನು ನಡೆಸಿದ ಕ್ರಾಂತಿಕಾರಕ
-0.1249 ನಡೆಸಿದ ಕ್ರಾಂತಿಕಾರಕ ಚಟುವಟಿಕೆಗಳಿಗಾಗಿ
-0.1249 ಕ್ರಾಂತಿಕಾರಕ ಚಟುವಟಿಕೆಗಳಿಗಾಗಿ ಬಂಧಿತನಾದನು
-0.1249 ಚಟುವಟಿಕೆಗಳಿಗಾಗಿ ಬಂಧಿತನಾದನು </s>
-0.6021 <s> ಒಂದು ಶೈಲಿಯನ್ನೂ
-0.1249 ಒಂದು ಶೈಲಿಯನ್ನೂ ಕ್ರಮವನ್ನೂ
-0.1249 ಶೈಲಿಯನ್ನೂ ಕ್ರಮವನ್ನೂ ಅನುಸರಿಸಿಕೊಂಡು
-0.1249 ಕ್ರಮವನ್ನೂ ಅನುಸರಿಸಿಕೊಂಡು ಬೆಳವಣಿಗೆಯ
-0.1249 ಅನುಸರಿಸಿಕೊಂಡು ಬೆಳವಣಿಗೆಯ ಹಂತದಲ್ಲಿದ್ದ
-0.1249 ಬೆಳವಣಿಗೆಯ ಹಂತದಲ್ಲಿದ್ದ ಆಡುಮಾತೊಂದನ್ನು
-0.1249 ಹಂತದಲ್ಲಿದ್ದ ಆಡುಮಾತೊಂದನ್ನು ತಂದಾಗ
-0.1249 ಆಡುಮಾತೊಂದನ್ನು ತಂದಾಗ ಉಂಟಾಗುವ
-0.1249 ತಂದಾಗ ಉಂಟಾಗುವ ಸ್ಥಿತ್ಯಂತರವೇ
-0.1249 ಉಂಟಾಗುವ ಸ್ಥಿತ್ಯಂತರವೇ ಸಾಕು
-0.1249 ಸ್ಥಿತ್ಯಂತರವೇ ಸಾಕು </s>
-0.1249 <s> ಬೇರೆ ಬೇರೆ
-0.6021 ಬೇರೆ ಬೇರೆ ಮೂಲದ
-0.1249 ಬೇರೆ ಮೂಲದ ಕತೆಗಳನ್ನು
-0.1249 ಮೂಲದ ಕತೆಗಳನ್ನು ತುಳುವಿನಲ್ಲಿ
-0.1249 ಕತೆಗಳನ್ನು ತುಳುವಿನಲ್ಲಿ ಬರೆಯಬಹುದು
-0.1249 ತುಳುವಿನಲ್ಲಿ ಬರೆಯಬಹುದು </s>
-0.1249 <s> ಇರುವುದೆಲ್ಲಾ ಇರುವಂತೆಯೇ
-0.1249 ಇರುವುದೆಲ್ಲಾ ಇರುವಂತೆಯೇ ಇರುವ
-0.1249 ಇರುವಂತೆಯೇ ಇರುವ ರೀತಿಯಲ್ಲೇ
-0.1249 ಇರುವ ರೀತಿಯಲ್ಲೇ ಇರುವಲ್ಲೇ
-0.1249 ರೀತಿಯಲ್ಲೇ ಇರುವಲ್ಲೇ ಇವೆ
-0.1249 ಇರುವಲ್ಲೇ ಇವೆ </s>
-0.1249 <s> ಉಡುಪಿಯ ಕಡೆಯಲ್ಲಿ
-0.1249 ಉಡುಪಿಯ ಕಡೆಯಲ್ಲಿ ಇವರನ್ನು
-0.1249 ಕಡೆಯಲ್ಲಿ ಇವರನ್ನು ಶೇರೆಗಾರರು
-0.1249 ಇವರನ್ನು ಶೇರೆಗಾರರು ಎಂದು
-0.1249 ಶೇರೆಗಾರರು ಎಂದು ಕರೆಯುತ್ತಾರೆ
-0.1249 ಎಂದು ಕರೆಯುತ್ತಾರೆ </s>
-0.1249 <s> ಇವರು ಶೈಕ್ಷಣಿಕವಾಗಿ
-0.1249 ಇವರು ಶೈಕ್ಷಣಿಕವಾಗಿ ಆರ್ಥಿಕವಾಗಿ
-0.1249 ಶೈಕ್ಷಣಿಕವಾಗಿ ಆರ್ಥಿಕವಾಗಿ ಹಿಂದುಳಿದ್ದಿದ್ದಾರೆ
-0.1249 ಆರ್ಥಿಕವಾಗಿ ಹಿಂದುಳಿದ್ದಿದ್ದಾರೆ </s>
-0.6021 <s> ಏಕೆಂದರೆ ಇವರ
-0.1249 ಏಕೆಂದರೆ ಇವರ ವೃತ್ತಿ
-0.1249 ಇವರ ವೃತ್ತಿ ತಾಳೆ
-0.1249 ವೃತ್ತಿ ತಾಳೆ ಮರಗಳಿಂದ
-0.1249 ತಾಳೆ ಮರಗಳಿಂದ ಭಟ್ಟಿ
-0.1249 ಮರಗಳಿಂದ ಭಟ್ಟಿ ಇಳಿಸುವುದಾಗಿತ್ತು
-0.1249 ಭಟ್ಟಿ ಇಳಿಸುವುದಾಗಿತ್ತು </s>
-0.1249 <s> ಮದುವೆಯ ಕಾರ್ಯಗಳೆಲ್ಲಾ
-0.1249 ಮದುವೆಯ ಕಾರ್ಯಗಳೆಲ್ಲಾ ವಧುವಿನ
-0.1249 ಕಾರ್ಯಗಳೆಲ್ಲಾ ವಧುವಿನ ಮನೆಯಲ್ಲಿಯೇ
-0.1249 ವಧುವಿನ ಮನೆಯಲ್ಲಿಯೇ ನಡೆಯುತ್ತವೆ
-0.1249 ಮನೆಯಲ್ಲಿಯೇ ನಡೆಯುತ್ತವೆ </s>
-0.1249 <s> ನಿಜಾಮರಿಗೆ ಅವಶ್ಯಕತೆ
-0.1249 ನಿಜಾಮರಿಗೆ ಅವಶ್ಯಕತೆ ಇರುವವರೆಗೆ
-0.1249 ಅವಶ್ಯಕತೆ ಇರುವವರೆಗೆ ಹಿಂತಿರುಗಬಾರದೆಂದು
-0.1249 ಇರುವವರೆಗೆ ಹಿಂತಿರುಗಬಾರದೆಂದು ಈ
-0.1249 ಹಿಂತಿರುಗಬಾರದೆಂದು ಈ ಸೈನಿಕರಿಗೆ
-0.1249 ಈ ಸೈನಿಕರಿಗೆ ಆದೇಶ
-0.1249 ಸೈನಿಕರಿಗೆ ಆದೇಶ ನೀಡಲಾಯಿತು
-0.1249 ಆದೇಶ ನೀಡಲಾಯಿತು </s>
-0.1249 <s> ಈಗ ಇವರು
-0.1249 ಈಗ ಇವರು ಮೃತ
-0.1249 ಇವರು ಮೃತ ಶವಗಳನ್ನು
-0.1249 ಮೃತ ಶವಗಳನ್ನು ಹೊತ್ತೊಯ್ಯುವುದನ್ನು
-0.1249 ಶವಗಳನ್ನು ಹೊತ್ತೊಯ್ಯುವುದನ್ನು ನಿಲ್ಲಿಸಿದ್ದಾರೆ
-0.1249 ಹೊತ್ತೊಯ್ಯುವುದನ್ನು ನಿಲ್ಲಿಸಿದ್ದಾರೆ </s>
-0.1249 <s> ಮದುವೆಗೆ ತಂದೆಯ
-0.1249 ಮದುವೆಗೆ ತಂದೆಯ ಸಹೋದರಿಯ
-0.1249 ತಂದೆಯ ಸಹೋದರಿಯ ಮಗಳು
-0.1249 ಸಹೋದರಿಯ ಮಗಳು ತಾಯಿಯ
-0.1249 ಮಗಳು ತಾಯಿಯ ಸಹೋದರನ
-0.1249 ತಾಯಿಯ ಸಹೋದರನ ಮಗಳ
-0.1249 ಸಹೋದರನ ಮಗಳ ಸಂಬಂಧ
-0.1249 ಮಗಳ ಸಂಬಂಧ ಸಾಧ್ಯವಿದೆ
-0.1249 ಸಂಬಂಧ ಸಾಧ್ಯವಿದೆ </s>
-0.1249 <s> ವಿಧವೆ ವಿಧುರ
-0.1249 ವಿಧವೆ ವಿಧುರ ಹಾಗೂ
-0.1249 ವಿಧುರ ಹಾಗೂ ವಿಚ್ಛೇದಿತರ
-0.1249 ಹಾಗೂ ವಿಚ್ಛೇದಿತರ ವಿವಾಹಕ್ಕೆ
-0.1249 ವಿಚ್ಛೇದಿತರ ವಿವಾಹಕ್ಕೆ ಅವಕಾಶವಿದೆ
-0.1249 ವಿವಾಹಕ್ಕೆ ಅವಕಾಶವಿದೆ </s>
-0.1249 <s> ರಂಗಸ್ವಾಮಿ ವೆಂಕಟರಮಣ
-0.1249 ರಂಗಸ್ವಾಮಿ ವೆಂಕಟರಮಣ ಸೂಗೂರೇಶ್ವರ
-0.1249 ವೆಂಕಟರಮಣ ಸೂಗೂರೇಶ್ವರ ಎಲ್ಲಮ್ಮ
-0.1249 ಸೂಗೂರೇಶ್ವರ ಎಲ್ಲಮ್ಮ ಇತ್ಯಾದಿ
-0.1249 ಎಲ್ಲಮ್ಮ ಇತ್ಯಾದಿ ದೇವರುಗಳನ್ನು
-0.1249 ಇತ್ಯಾದಿ ದೇವರುಗಳನ್ನು ಇವರು
-0.1249 ದೇವರುಗಳನ್ನು ಇವರು ಪೂಜಿಸುತ್ತಾರೆ
-0.1249 ಇವರು ಪೂಜಿಸುತ್ತಾರೆ </s>
-0.6021 <s> ಏಕೆಂದರೆ ಅವು
-0.1249 ಏಕೆಂದರೆ ಅವು ಬ್ರಿಟಿಶ್
-0.1249 ಅವು ಬ್ರಿಟಿಶ್ ಸರ್ಕಾರಕ್ಕೆ
-0.1249 ಬ್ರಿಟಿಶ್ ಸರ್ಕಾರಕ್ಕೆ ವ್ಯಾಪಾರ
-0.1249 ಸರ್ಕಾರಕ್ಕೆ ವ್ಯಾಪಾರ ಹಾಗೂ
-0.1249 ವ್ಯಾಪಾರ ಹಾಗೂ ಮಿಲಿಟರಿ
-0.1249 ಹಾಗೂ ಮಿಲಿಟರಿ ಉದ್ದೇಶಗಳಿಗೆ
-0.1249 ಮಿಲಿಟರಿ ಉದ್ದೇಶಗಳಿಗೆ ಅನಿವಾರ್ಯವಾಗಿದ್ದವು
