\data\
ngram 1=81
ngram 2=98
ngram 3=84

\1-grams:
-1.0280 <s> -0.5496
-2.1742 ಬಹುತೇಕ -0.5991
-2.1742 ರಾಜಕಾರಣಗಳು -0.5991
-2.1742 ಇದಕ್ಕೆ -0.5991
-2.1742 ಹೊರತಲ್ಲವಾದರೂ -0.5991
-2.1742 ಅರಸರು -0.5903
-1.5721 ಈ -0.5903
-2.1742 ಗುಂಪಿನಲ್ಲಿ -0.5991
-2.1742 ಎದ್ದು -0.5991
-2.1742 ಕಾಣುವ -0.5991
-2.1742 ವ್ಯಕ್ತಿ -0.5593
-1.0280 </s> -0.6021
-2.1742 ಎಚ್ಚೆತ್ತ -0.5991
-2.1742 ರೈತಪ್ರಜ್ಞೆ -0.5991
-2.1742 ಚಳವಳಿಯ -0.5991
-2.1742 ಹಾದಿ -0.5991
-2.1742 ಹಿಡಿಯಿತು -0.5593
-2.1742 ಶ್ರೀ -0.5991
-2.1742 ರಾಮಕೃಷ್ಣ -0.5991
-2.1742 ಹೆಗಡೆ -0.5991
-2.1742 ಬೊಮ್ಮಾಯಿಯವರು -0.5903
-2.1742 ಅವಧಿಯಲ್ಲಿ -0.5991
-2.1742 ಮುಖ್ಯಮಂತ್ರಿಗಳಾದರು -0.5593
-2.1742 ಅದಕ್ಕಾಗಿ -0.5991
-2.1742 ಅಪಾರ -0.5991
-2.1742 ರಿಯಾಯಿತಿ -0.5991
-2.1742 ಸೌಲಭ್ಯಗಳನ್ನು -0.5991
-2.1742 ಕಲ್ಪಿಸಲಾಯಿತು -0.5593
-2.1742 ಒಟ್ಟಾರೆ -0.5991
-2.1742 ರಾಜ್ಯದಲ್ಲಿ -0.5991
-2.1742 ಈಗ -0.5991
-2.1742 ಹಲವಾರು -0.5991
-2.1742 ದಲಿತ -0.5991
-2.1742 ಸಂಘಟನೆಗಳಿವೆ -0.5593
-2.1742 ಗ್ರಾಮೀಣ -0.5991
-2.1742 ಪ್ರದೇಶದಲ್ಲಿ -0.5991
-2.1742 ಇದರ -0.5991
-2.1742 ಒತ್ತಡ -0.5991
-2.1742 ಇನ್ನೂ -0.5991
-2.1742 ಹೆಚ್ಚಾಗುವ -0.5991
-2.1742 ಸಂಭವವಿದೆ -0.5593
-2.1742 ಕೆಲವು -0.5991
-2.1742 ಕಡೆ -0.5991
-2.1742 ಕಾಂಗ್ರೆಸ್ಸಿಗರು -0.5991
-2.1742 ಇದನ್ನು -0.5991
-2.1742 ವಿರೋಧಿಸಿದರು -0.5593
-2.1742 ವಿಷಯಗಳನ್ನು -0.5991
-2.1742 ಕಾರ್ಯರೂಪಕ್ಕೆ -0.5991
-2.1742 ತಂದಿದ್ದು -0.5991
-2.1742 ಬರಿ -0.5991
-2.1742 ಹಾಳೆಯ -0.5991
-2.1742 ಮೇಲೆ -0.5991
-2.1742 ಮಾತ್ರ -0.5593
-2.1742 ಹಾಗೆಯೇ -0.5991
-2.1742 ಅವು -0.5962
-1.8731 ಪರಿಹಾರದ -0.5962
-2.1742 ಮೊತ್ತವನ್ನೂ -0.5991
-2.1742 ನಿಗದಿಪಡಿಸಬೇಕಿತ್ತು -0.5593
-2.1742 ಸಾಮಾನ್ಯವಾಗಿ -0.5962
-2.1742 ಮೊತ್ತ -0.5962
-1.8731 ಕಡಿಮೆ -0.5962
-2.1742 ಆಗಿರುತ್ತಿತ್ತು -0.5593
-2.1742 ನಂತರ -0.5903
-2.1742 ಜವಾಬ್ದಾರಿಯನ್ನು -0.5991
-2.1742 ಸಂಬಂಧಪಟ್ಟ -0.5991
-2.1742 ಜಿಲ್ಲಾಧಿಕಾರಿಗೆ -0.5991
-2.1742 ವಹಿಸಲಾಯಿತು -0.5593
-2.1742 ಅಲ್ಲಿ -0.5991
-2.1742 ಕಳೆದುಕೊಳ್ಳುವಂಥದ್ದು -0.5991
-2.1742 ಬಹಳ -0.5962
-2.1742 ಇತ್ತು -0.5593
-2.1742 ಏಕೀಕರಣ -0.5991
-2.1742 ಚಳುವಳಿಯ -0.5991
-2.1742 ಮೂಲಕ -0.5991
-2.1742 ಕರ್ನಾಟಕವು -0.5991
-2.1742 ಉದಯಿಸಿತು -0.5593
-2.1742 ಏಕೀಕರಣದ -0.5991
-2.1742 ಸಂದರ್ಭದಲ್ಲಿ -0.5991
-2.1742 ಇವು -0.5991
-2.1742 ಕರ್ನಾಟಕದಲ್ಲಿ -0.5991
-2.1742 ವಿಲೀನಗೊಂಡವು -0.5593

\2-grams:
-1.2711 <s> ಬಹುತೇಕ 0.0000
-0.1249 ಬಹುತೇಕ ರಾಜಕಾರಣಗಳು 0.0000
-0.1249 ರಾಜಕಾರಣಗಳು ಇದಕ್ಕೆ 0.0000
-0.1249 ಇದಕ್ಕೆ ಹೊರತಲ್ಲವಾದರೂ 0.0000
-0.1249 ಹೊರತಲ್ಲವಾದರೂ ಅರಸರು 0.0000
-0.1249 ಅರಸರು ಈ -0.5119
-0.7270 ಈ ಗುಂಪಿನಲ್ಲಿ 0.0000
-0.1249 ಗುಂಪಿನಲ್ಲಿ ಎದ್ದು 0.0000
-0.1249 ಎದ್ದು ಕಾಣುವ 0.0000
-0.1249 ಕಾಣುವ ವ್ಯಕ್ತಿ 0.0000
-0.1249 ವ್ಯಕ್ತಿ </s> -0.6021
-1.2711 <s> ಎಚ್ಚೆತ್ತ 0.0000
-0.1249 ಎಚ್ಚೆತ್ತ ರೈತಪ್ರಜ್ಞೆ 0.0000
-0.1249 ರೈತಪ್ರಜ್ಞೆ ಚಳವಳಿಯ 0.0000
-0.1249 ಚಳವಳಿಯ ಹಾದಿ 0.0000
-0.1249 ಹಾದಿ ಹಿಡಿಯಿತು 0.0000
-0.1249 ಹಿಡಿಯಿತು </s> -0.6021
-1.2711 <s> ಶ್ರೀ 0.0000
-0.1249 ಶ್ರೀ ರಾಮಕೃಷ್ಣ 0.0000
-0.1249 ರಾಮಕೃಷ್ಣ ಹೆಗಡೆ 0.0000
-0.1249 ಹೆಗಡೆ ಬೊಮ್ಮಾಯಿಯವರು 0.0000
-0.1249 ಬೊಮ್ಮಾಯಿಯವರು ಈ -0.5119
-0.7270 ಈ ಅವಧಿಯಲ್ಲಿ 0.0000
-0.1249 ಅವಧಿಯಲ್ಲಿ ಮುಖ್ಯಮಂತ್ರಿಗಳಾದರು 0.0000
-0.1249 ಮುಖ್ಯಮಂತ್ರಿಗಳಾದರು </s> -0.6021
-1.2711 <s> ಅದಕ್ಕಾಗಿ 0.0000
-0.1249 ಅದಕ್ಕಾಗಿ ಅಪಾರ 0.0000
-0.1249 ಅಪಾರ ರಿಯಾಯಿತಿ 0.0000
-0.1249 ರಿಯಾಯಿತಿ ಸೌಲಭ್ಯಗಳನ್ನು 0.0000
-0.1249 ಸೌಲಭ್ಯಗಳನ್ನು ಕಲ್ಪಿಸಲಾಯಿತು 0.0000
-0.1249 ಕಲ್ಪಿಸಲಾಯಿತು </s> -0.6021
-1.2711 <s> ಒಟ್ಟಾರೆ 0.0000
-0.1249 ಒಟ್ಟಾರೆ ರಾಜ್ಯದಲ್ಲಿ 0.0000
-0.1249 ರಾಜ್ಯದಲ್ಲಿ ಈಗ 0.0000
-0.1249 ಈಗ ಹಲವಾರು 0.0000
-0.1249 ಹಲವಾರು ದಲಿತ 0.0000
-0.1249 ದಲಿತ ಸಂಘಟನೆಗಳಿವೆ 0.0000
-0.1249 ಸಂಘಟನೆಗಳಿವೆ </s> -0.6021
-1.2711 <s> ಗ್ರಾಮೀಣ 0.0000
-0.1249 ಗ್ರಾಮೀಣ ಪ್ರದೇಶದಲ್ಲಿ 0.0000
-0.1249 ಪ್ರದೇಶದಲ್ಲಿ ಇದರ 0.0000
-0.1249 ಇದರ ಒತ್ತಡ 0.0000
-0.1249 ಒತ್ತಡ ಇನ್ನೂ 0.0000
-0.1249 ಇನ್ನೂ ಹೆಚ್ಚಾಗುವ 0.0000
-0.1249 ಹೆಚ್ಚಾಗುವ ಸಂಭವವಿದೆ 0.0000
-0.1249 ಸಂಭವವಿದೆ </s> -0.6021
-1.2711 <s> ಕೆಲವು 0.0000
-0.1249 ಕೆಲವು ಕಡೆ 0.0000
-0.1249 ಕಡೆ ಕಾಂಗ್ರೆಸ್ಸಿಗರು 0.0000
-0.1249 ಕಾಂಗ್ರೆಸ್ಸಿಗರು ಇದನ್ನು 0.0000
-0.1249 ಇದನ್ನು ವಿರೋಧಿಸಿದರು 0.0000
-0.1249 ವಿರೋಧಿಸಿದರು </s> -0.6021
-1.2711 <s> ಈ -0.5119
-0.7270 ಈ ವಿಷಯಗಳನ್ನು 0.0000
-0.1249 ವಿಷಯಗಳನ್ನು ಕಾರ್ಯರೂಪಕ್ಕೆ 0.0000
-0.1249 ಕಾರ್ಯರೂಪಕ್ಕೆ ತಂದಿದ್ದು 0.0000
-0.1249 ತಂದಿದ್ದು ಬರಿ 0.0000
-0.1249 ಬರಿ ಹಾಳೆಯ 0.0000
-0.1249 ಹಾಳೆಯ ಮೇಲೆ 0.0000
-0.1249 ಮೇಲೆ ಮಾತ್ರ 0.0000
-0.1249 ಮಾತ್ರ </s> -0.6021
-1.2711 <s> ಹಾಗೆಯೇ 0.0000
-0.1249 ಹಾಗೆಯೇ ಅವು 0.0000
-0.1249 ಅವು ಪರಿಹಾರದ -0.3979
-0.4260 ಪರಿಹಾರದ ಮೊತ್ತವನ್ನೂ 0.0000
-0.1249 ಮೊತ್ತವನ್ನೂ ನಿಗದಿಪಡಿಸಬೇಕಿತ್ತು 0.0000
-0.1249 ನಿಗದಿಪಡಿಸಬೇಕಿತ್ತು </s> -0.6021
-1.2711 <s> ಸಾಮಾನ್ಯವಾಗಿ 0.0000
-0.1249 ಸಾಮಾನ್ಯವಾಗಿ ಪರಿಹಾರದ -0.3979
-0.4260 ಪರಿಹಾರದ ಮೊತ್ತ 0.0000
-0.1249 ಮೊತ್ತ ಕಡಿಮೆ -0.3979
-0.4260 ಕಡಿಮೆ ಆಗಿರುತ್ತಿತ್ತು 0.0000
-0.1249 ಆಗಿರುತ್ತಿತ್ತು </s> -0.6021
-1.2711 <s> ನಂತರ 0.0000
-0.1249 ನಂತರ ಈ -0.5119
-0.7270 ಈ ಜವಾಬ್ದಾರಿಯನ್ನು 0.0000
-0.1249 ಜವಾಬ್ದಾರಿಯನ್ನು ಸಂಬಂಧಪಟ್ಟ 0.0000
-0.1249 ಸಂಬಂಧಪಟ್ಟ ಜಿಲ್ಲಾಧಿಕಾರಿಗೆ 0.0000
-0.1249 ಜಿಲ್ಲಾಧಿಕಾರಿಗೆ ವಹಿಸಲಾಯಿತು 0.0000
-0.1249 ವಹಿಸಲಾಯಿತು </s> -0.6021
-1.2711 <s> ಅಲ್ಲಿ 0.0000
-0.1249 ಅಲ್ಲಿ ಕಳೆದುಕೊಳ್ಳುವಂಥದ್ದು 0.0000
-0.1249 ಕಳೆದುಕೊಳ್ಳುವಂಥದ್ದು ಬಹಳ 0.0000
-0.1249 ಬಹಳ ಕಡಿಮೆ -0.3979
-0.4260 ಕಡಿಮೆ ಇತ್ತು 0.0000
-0.1249 ಇತ್ತು </s> -0.6021
-1.2711 <s> ಏಕೀಕರಣ 0.0000
-0.1249 ಏಕೀಕರಣ ಚಳುವಳಿಯ 0.0000
-0.1249 ಚಳುವಳಿಯ ಮೂಲಕ 0.0000
-0.1249 ಮೂಲಕ ಕರ್ನಾಟಕವು 0.0000
-0.1249 ಕರ್ನಾಟಕವು ಉದಯಿಸಿತು 0.0000
-0.1249 ಉದಯಿಸಿತು </s> -0.6021
-1.2711 <s> ಏಕೀಕರಣದ 0.0000
-0.1249 ಏಕೀಕರಣದ ಸಂದರ್ಭದಲ್ಲಿ 0.0000
-0.1249 ಸಂದರ್ಭದಲ್ಲಿ ಇವು 0.0000
-0.1249 ಇವು ಕರ್ನಾಟಕದಲ್ಲಿ 0.0000
-0.1249 ಕರ್ನಾಟಕದಲ್ಲಿ ವಿಲೀನಗೊಂಡವು 0.0000
-0.1249 ವಿಲೀನಗೊಂಡವು </s> -0.6021

\3-grams:
-0.1249 <s> ಬಹುತೇಕ ರಾಜಕಾರಣಗಳು
-0.1249 ಬಹುತೇಕ ರಾಜಕಾರಣಗಳು ಇದಕ್ಕೆ
-0.1249 ರಾಜಕಾರಣಗಳು ಇದಕ್ಕೆ ಹೊರತಲ್ಲವಾದರೂ
-0.1249 ಇದಕ್ಕೆ ಹೊರತಲ್ಲವಾದರೂ ಅರಸರು
-0.1249 ಹೊರತಲ್ಲವಾದರೂ ಅರಸರು ಈ
-0.1249 ಅರಸರು ಈ ಗುಂಪಿನಲ್ಲಿ
-0.1249 ಈ ಗುಂಪಿನಲ್ಲಿ ಎದ್ದು
-0.1249 ಗುಂಪಿನಲ್ಲಿ ಎದ್ದು ಕಾಣುವ
-0.1249 ಎದ್ದು ಕಾಣುವ ವ್ಯಕ್ತಿ
-0.1249 ಕಾಣುವ ವ್ಯಕ್ತಿ </s>
-0.1249 <s> ಎಚ್ಚೆತ್ತ ರೈತಪ್ರಜ್ಞೆ
-0.1249 ಎಚ್ಚೆತ್ತ ರೈತಪ್ರಜ್ಞೆ ಚಳವಳಿಯ
-0.1249 ರೈತಪ್ರಜ್ಞೆ ಚಳವಳಿಯ ಹಾದಿ
-0.1249 ಚಳವಳಿಯ ಹಾದಿ ಹಿಡಿಯಿತು
-0.1249 ಹಾದಿ ಹಿಡಿಯಿತು </s>
-0.1249 <s> ಶ್ರೀ ರಾಮಕೃಷ್ಣ
-0.1249 ಶ್ರೀ ರಾಮಕೃಷ್ಣ ಹೆಗಡೆ
-0.1249 ರಾಮಕೃಷ್ಣ ಹೆಗಡೆ ಬೊಮ್ಮಾಯಿಯವರು
-0.1249 ಹೆಗಡೆ ಬೊಮ್ಮಾಯಿಯವರು ಈ
-0.1249 ಬೊಮ್ಮಾಯಿಯವರು ಈ ಅವಧಿಯಲ್ಲಿ
-0.1249 ಈ ಅವಧಿಯಲ್ಲಿ ಮುಖ್ಯಮಂತ್ರಿಗಳಾದರು
-0.1249 ಅವಧಿಯಲ್ಲಿ ಮುಖ್ಯಮಂತ್ರಿಗಳಾದರು </s>
-0.1249 <s> ಅದಕ್ಕಾಗಿ ಅಪಾರ
-0.1249 ಅದಕ್ಕಾಗಿ ಅಪಾರ ರಿಯಾಯಿತಿ
-0.1249 ಅಪಾರ ರಿಯಾಯಿತಿ ಸೌಲಭ್ಯಗಳನ್ನು
-0.1249 ರಿಯಾಯಿತಿ ಸೌಲಭ್ಯಗಳನ್ನು ಕಲ್ಪಿಸಲಾಯಿತು
-0.1249 ಸೌಲಭ್ಯಗಳನ್ನು ಕಲ್ಪಿಸಲಾಯಿತು </s>
-0.1249 <s> ಒಟ್ಟಾರೆ ರಾಜ್ಯದಲ್ಲಿ
-0.1249 ಒಟ್ಟಾರೆ ರಾಜ್ಯದಲ್ಲಿ ಈಗ
-0.1249 ರಾಜ್ಯದಲ್ಲಿ ಈಗ ಹಲವಾರು
-0.1249 ಈಗ ಹಲವಾರು ದಲಿತ
-0.1249 ಹಲವಾರು ದಲಿತ ಸಂಘಟನೆಗಳಿವೆ
-0.1249 ದಲಿತ ಸಂಘಟನೆಗಳಿವೆ </s>
-0.1249 <s> ಗ್ರಾಮೀಣ ಪ್ರದೇಶದಲ್ಲಿ
-0.1249 ಗ್ರಾಮೀಣ ಪ್ರದೇಶದಲ್ಲಿ ಇದರ
-0.1249 ಪ್ರದೇಶದಲ್ಲಿ ಇದರ ಒತ್ತಡ
-0.1249 ಇದರ ಒತ್ತಡ ಇನ್ನೂ
-0.1249 ಒತ್ತಡ ಇನ್ನೂ ಹೆಚ್ಚಾಗುವ
-0.1249 ಇನ್ನೂ ಹೆಚ್ಚಾಗುವ ಸಂಭವವಿದೆ
-0.1249 ಹೆಚ್ಚಾಗುವ ಸಂಭವವಿದೆ </s>
-0.1249 <s> ಕೆಲವು ಕಡೆ
-0.1249 ಕೆಲವು ಕಡೆ ಕಾಂಗ್ರೆಸ್ಸಿಗರು
-0.1249 ಕಡೆ ಕಾಂಗ್ರೆಸ್ಸಿಗರು ಇದನ್ನು
-0.1249 ಕಾಂಗ್ರೆಸ್ಸಿಗರು ಇದನ್ನು ವಿರೋಧಿಸಿದರು
-0.1249 ಇದನ್ನು ವಿರೋಧಿಸಿದರು </s>
-0.1249 <s> ಈ ವಿಷಯಗಳನ್ನು
-0.1249 ಈ ವಿಷಯಗಳನ್ನು ಕಾರ್ಯರೂಪಕ್ಕೆ
-0.1249 ವಿಷಯಗಳನ್ನು ಕಾರ್ಯರೂಪಕ್ಕೆ ತಂದಿದ್ದು
-0.1249 ಕಾರ್ಯರೂಪಕ್ಕೆ ತಂದಿದ್ದು ಬರಿ
-0.1249 ತಂದಿದ್ದು ಬರಿ ಹಾಳೆಯ
-0.1249 ಬರಿ ಹಾಳೆಯ ಮೇಲೆ
-0.1249 ಹಾಳೆಯ ಮೇಲೆ ಮಾತ್ರ
-0.1249 ಮೇಲೆ ಮಾತ್ರ </s>
-0.1249 <s> ಹಾಗೆಯೇ ಅವು
-0.1249 ಹಾಗೆಯೇ ಅವು ಪರಿಹಾರದ
-0.1249 ಅವು ಪರಿಹಾರದ ಮೊತ್ತವನ್ನೂ
-0.1249 ಪರಿಹಾರದ ಮೊತ್ತವನ್ನೂ ನಿಗದಿಪಡಿಸಬೇಕಿತ್ತು
-0.1249 ಮೊತ್ತವನ್ನೂ ನಿಗದಿಪಡಿಸಬೇಕಿತ್ತು </s>
-0.1249 <s> ಸಾಮಾನ್ಯವಾಗಿ ಪರಿಹಾರದ
-0.1249 ಸಾಮಾನ್ಯವಾಗಿ ಪರಿಹಾರದ ಮೊತ್ತ
-0.1249 ಪರಿಹಾರದ ಮೊತ್ತ ಕಡಿಮೆ
-0.1249 ಮೊತ್ತ ಕಡಿಮೆ ಆಗಿರುತ್ತಿತ್ತು
-0.1249 ಕಡಿಮೆ ಆಗಿರುತ್ತಿತ್ತು </s>
-0.1249 <s> ನಂತರ ಈ
-0.1249 ನಂತರ ಈ ಜವಾಬ್ದಾರಿಯನ್ನು
-0.1249 ಈ ಜವಾಬ್ದಾರಿಯನ್ನು ಸಂಬಂಧಪಟ್ಟ
-0.1249 ಜವಾಬ್ದಾರಿಯನ್ನು ಸಂಬಂಧಪಟ್ಟ ಜಿಲ್ಲಾಧಿಕಾರಿಗೆ
-0.1249 ಸಂಬಂಧಪಟ್ಟ ಜಿಲ್ಲಾಧಿಕಾರಿಗೆ ವಹಿಸಲಾಯಿತು
-0.1249 ಜಿಲ್ಲಾಧಿಕಾರಿಗೆ ವಹಿಸಲಾಯಿತು </s>
-0.1249 <s> ಅಲ್ಲಿ ಕಳೆದುಕೊಳ್ಳುವಂಥದ್ದು
-0.1249 ಅಲ್ಲಿ ಕಳೆದುಕೊಳ್ಳುವಂಥದ್ದು ಬಹಳ
-0.1249 ಕಳೆದುಕೊಳ್ಳುವಂಥದ್ದು ಬಹಳ ಕಡಿಮೆ
-0.1249 ಬಹಳ ಕಡಿಮೆ ಇತ್ತು
-0.1249 ಕಡಿಮೆ ಇತ್ತು </s>
-0.1249 <s> ಏಕೀಕರಣ ಚಳುವಳಿಯ
-0.1249 ಏಕೀಕರಣ ಚಳುವಳಿಯ ಮೂಲಕ
-0.1249 ಚಳುವಳಿಯ ಮೂಲಕ ಕರ್ನಾಟಕವು
-0.1249 ಮೂಲಕ ಕರ್ನಾಟಕವು ಉದಯಿಸಿತು
-0.1249 ಕರ್ನಾಟಕವು ಉದಯಿಸಿತು </s>
-0.1249 <s> ಏಕೀಕರಣದ ಸಂದರ್ಭದಲ್ಲಿ
-0.1249 ಏಕೀಕರಣದ ಸಂದರ್ಭದಲ್ಲಿ ಇವು
-0.1249 ಸಂದರ್ಭದಲ್ಲಿ ಇವು ಕರ್ನಾಟಕದಲ್ಲಿ
-0.1249 ಇವು ಕರ್ನಾಟಕದಲ್ಲಿ ವಿಲೀನಗೊಂಡವು
-0.1249 ಕರ್ನಾಟಕದಲ್ಲಿ ವಿಲೀನಗೊಂಡವು </s>

\end\
