\data\
ngram 1=199
ngram 2=236
ngram 3=209

\1-grams:
-1.0761 <s> -0.5614
-2.5674 ﻿ಆದ್ದರಿಂದ -0.5997
-2.2664 ಹೇಗಾದರೂ -0.5997
-2.2664 ಮಾಡಿ -0.5985
-2.0903 ಈ -0.5985
-2.2664 ಮಗುವನ್ನು -0.5997
-2.2664 ಕಾಡುಜನರಾಗಿದ್ದರಿಂದ -0.5997
-2.2664 ತೊಲಗಿಸಬೇಕೆಂದು -0.5997
-2.2664 ಯೋಚಿಸಿದ -0.5640
-1.0761 </s> -0.6021
-2.5674 ಇವನೊಂದಿಗೆ -0.6009
-2.5674 ಹೋರಾಡಿದ -0.6009
-2.5674 ಹುಲಿಗಳೆರಡು -0.6009
-2.5674 ಮೀಂಚೇರಿಹಳ್ಳದ -0.6009
-2.5674 ದಂಡೆಯಲ್ಲಿ -0.6009
-2.5674 ಸತ್ತುಬಿದ್ದವು -0.5640
-2.5674 ಏನೋ -0.6009
-2.5674 ಅನಾಹುತ -0.6009
-2.5674 ನಡೆದಿದೆ -0.5997
-2.2664 ಎಂದು -0.5997
-2.5674 ಪರಿಪರಿ -0.6009
-2.5674 ಚಿಂತಿಸತೊಡಗಿದರು -0.5640
-2.5674 ಅಕ್ಕ -0.6009
-2.5674 ತಂಗಿಯರಿಗೆ -0.6009
-2.5674 ಆಕಾಶವೇ -0.6009
-2.5674 ಕಳಚಿ -0.6009
-2.5674 ಬಿದ್ದಂತಾಯಿತು -0.5640
-2.5674 ಇದಕ್ಕೆ -0.6009
-2.5674 ಅನೇಕ -0.6009
-2.5674 ಅರಸರು -0.6009
-2.5674 ಕಾಣಿಕೆ -0.6009
-2.5674 ಸಲ್ಲಿಸಿ -0.6009
-2.5674 ದೇವಾಲಯವನ್ನು -0.6009
-2.5674 ಕಟ್ಟಿಸಿದ್ದಾರೆ -0.5640
-2.5674 ಪಾಪನಾಯಕ -0.6009
-2.5674 ಒಬ್ಬ -0.6009
-2.5674 ಪಶುಪಾಲಕನಾಗಿ -0.6009
-2.5674 ತನ್ನ -0.6009
-2.5674 ಸಾಂಸ್ಕೃತಿಕ -0.6009
-2.5674 ಬದುಕಿನೊಂದಿಗೆ -0.6009
-2.5674 ಆಧ್ಯಾತ್ಮಿಕ -0.6009
-2.5674 ರಂಗವನ್ನು -0.6009
-2.5674 ಪ್ರವೇಶಿಸಿದ -0.6009
-2.5674 ಮಹಾವೀರ -0.5640
-2.5674 ಇಲ್ಲಿ -0.6009
-2.5674 ವಾಸಿಸುವವರಿಗೆ -0.6009
-2.5674 ನಡುಗಡ್ಡೆ -0.6009
-2.5674 ನಾಯಕರೆಂದು -0.6009
-2.5674 ದೊರೆಗಳೆಂದು -0.6009
-2.5674 ಕರೆಯುವರು -0.5640
-2.5674 ಕಲಿಯುಗದ -0.6009
-2.5674 ಶುಕ್ಲಮಲ್ಲಿನಾಯಕನ -0.6009
-2.5674 ಗೋತ್ರದಲ್ಲಿ -0.6009
-2.5674 ಯರಮಂಚಿನಾಯಕ -0.6009
-2.5674 ಜನಿಸಿದ -0.5640
-2.2664 ಆ -0.5997
-2.5674 ನೀರಿನಲ್ಲಿ -0.6009
-2.5674 ಕಾಲುಗಳನ್ನು -0.6009
-2.5674 ಚಾಚಿಕೊಂಡು -0.6009
-2.5674 ಆಟವಾಡುತ್ತಾ -0.6009
-2.5674 ಕೊಡಕ್ಕೆ -0.5997
-2.2664 ನೀರು -0.5985
-2.2664 ತುಂಬುತ್ತಿದ್ದಳು -0.5640
-2.5674 ಎಲ್ಲಿಯೂ -0.6009
-2.5674 ಕಾಣಲಿಲ್ಲ -0.5997
-2.2664 ಎಂದಾಗ -0.5997
-2.5674 ಇನ್ನೇನು -0.6009
-2.5674 ಹಿಂತಿರುಗಬೇಕು -0.6009
-2.5674 ಆಗ -0.6009
-2.5674 ದಡದಲ್ಲಿ -0.6009
-2.5674 ಒಡೆದು -0.6009
-2.5674 ಬಿದ್ದಿದ್ದ -0.6009
-2.5674 ಕೊಡದ -0.6009
-2.5674 ಚೂರುಗಳು -0.6009
-2.5674 ಕಂಡವು -0.5640
-2.5674 ಹೀಗೆ -0.6009
-2.5674 ಇರುವಾಗ -0.6009
-2.5674 ಬಾಳೆದಪಟ್ಟಮ್ಮ -0.6009
-2.5674 ಗರ್ಭವತಿಯಾಗಿದ್ದು -0.6009
-2.5674 ಗಂಡನಿಗೆ -0.6009
-2.5674 ಚೇತನವನ್ನು -0.5997
-2.5674 ನಿಮ್ಮಲ್ಲಿಗೆ -0.6009
-2.5674 ಬಂದರೆ -0.6009
-2.5674 ಏನಾದರೂ -0.5997
-2.2664 ತೊಂದರೆ -0.5997
-2.5674 ಆಗಬಹುದು -0.5997
-2.5674 ತಿರಸ್ಕರಿಸಿದ -0.5640
-2.5674 ಕ್ಯಾಸನೋನನ್ನು -0.6009
-2.5674 ನಾನಾ -0.6009
-2.5674 ವಿಧವಾಗಿ -0.6009
-2.5674 ಬೇಡಿಕೊಂಡರೂ -0.6009
-2.5674 ಕೋರ‍್ಲಮಲ್ಲಿನಾಯಕನಿಗೆ -0.6009
-2.5674 ಫಲ -0.6009
-2.5674 ಸಿಗಲಿಲ್ಲ -0.5640
-2.5674 ಅತ್ತಿಗೆಗೆ -0.6009
-2.5674 ಹೆರಿಗೆಯಾದಗ -0.6009
-2.5674 ಮನೆಯ -0.6009
-2.5674 ಕೆಲಸವನ್ನು -0.6009
-2.5674 ಇವಳೇ -0.6009
-2.5674 ನಿರ್ವಹಿಸಬೇಕಾಗುತ್ತದೆ -0.5640
-2.5674 ಆಗಲಿ -0.6009
-2.5674 ನಿನ್ನ -0.6009
-2.5674 ಹೆಂಡತಿಗೆ -0.5997
-2.5674 ಸಂಭವಿಸಿದರೆ -0.6009
-2.5674 ಅದಕ್ಕೆ -0.6009
-2.5674 ಗಳಗಂಟನಾದ -0.6009
-2.5674 ಶೆಟ್ಟಿಯು -0.6009
-2.5674 ನಾನೇ -0.6009
-2.5674 ಹೊಣೆಗಾರನೆಂದು -0.6009
-2.5674 ಒಪ್ಪಿಕೊಂಡನು -0.5640
-2.5674 ಅವನ -0.6009
-2.5674 ಶಕ್ತಿ -0.6009
-2.5674 ಧೈರ್ಯ -0.6009
-2.5674 ಪರಾಕ್ರಮವನ್ನು -0.6009
-2.5674 ಆಗಲೇ -0.6009
-2.5674 ನಿರ್ಧರಿಸಿಕೊಂಡಳು -0.5640
-2.5674 ಆದ್ದರಿಂದ -0.5997
-2.5674 ಮನೆಮಠಗಳೆಲ್ಲಿ -0.6009
-2.5674 ಪಶು -0.6009
-2.5674 ಪ್ರಾಣಿಗಳೂ -0.6009
-2.5674 ಕಾಣುತ್ತಿರಲಿಲ್ಲ -0.5640
-2.5674 ಲೋಕಕಲ್ಯಾಣವಾಗಿ -0.6009
-2.5674 ಭಕ್ತಿಬಾಂದವನೆಂಬ -0.6009
-2.5674 ಬಿರುದಿನಿಂದ -0.6009
-2.5674 ಪ್ರಸಿದ್ಧ -0.6009
-2.5674 ಪವಾಡ -0.6009
-2.5674 ಪುರುಷನಾಗುತ್ತಾನೆಂದು -0.6009
-2.5674 ಹೇಳಿದನು -0.5640
-2.5674 ಶಿವನ -0.5985
-2.5674 ಮಾತಿಗೆ -0.6009
-2.5674 ಪಾರ್ವತಿ -0.6009
-2.5674 ಒಪ್ಪಿದಳು -0.5640
-2.5674 ಅಂದು -0.6009
-2.5674 ಚಳ್ಳಕೆರೆ -0.6009
-2.5674 ಸ್ಥಳದ -0.6009
-2.5674 ಹೆಸರು -0.6009
-2.5674 ಇದ್ದಂತಿರಲಿಲ್ಲ -0.5640
-2.5674 ಹುತ್ತದ -0.6009
-2.5674 ಮೇಲೆ -0.5997
-2.2664 ಒಂದು -0.5997
-2.5674 ಮಂಗಾರೆ -0.6009
-2.5674 ಗಿಡ -0.6009
-2.5674 ಬೆಳೆದಿತ್ತು -0.5640
-2.5674 ಅವುಗಳನ್ನು -0.6009
-2.5674 ಒಂದೆಡೆ -0.6009
-2.5674 ಕೂಡಲು -0.6009
-2.5674 ಕೋಲಿನ -0.6009
-2.5674 ಅಗತ್ಯವಿತ್ತು -0.5640
-2.5674 ಸಂತೋಷಗೊಂಡ -0.6009
-2.5674 ಹಾವು -0.6009
-2.5674 ಏಳೆಡೆ -0.6009
-2.5674 ಬಿಚ್ಚಿ -0.6009
-2.5674 ಹಾರಾಡುತ್ತಿತ್ತು -0.5640
-2.5674 ಅವರಿಗೆ -0.6009
-2.5674 ಬಾಯಾರಿಕೆಯಾಗಿದ್ದರಿಂದ -0.5997
-2.5674 ಕುಡಿಯಲು -0.6009
-2.5674 ಬಂದರು -0.5640
-2.5674 ಊರಿನೊಳಕ್ಕೆ -0.6009
-2.5674 ಹೋಗಿ -0.5997
-2.5674 ದುಗ್ಗಾಣಿ -0.6009
-2.5674 ಕೊಟ್ಟು -0.6009
-2.5674 ಮಂಗಾರಕಾಯಿ -0.6009
-2.5674 ಬುಡ್ಡಿಯಲ್ಲಿ -0.6009
-2.5674 ಎಣ್ಣೆ -0.6009
-2.5674 ತುಂಬಿಸಿಕೊಂಡನು -0.5640
-2.5674 ಪವಾಡದಂತೆ -0.6009
-2.5674 ಕುಳಿತ -0.6009
-2.5674 ಬಂಡೆ -0.6009
-2.5674 ಮೇಲಕ್ಕೆ -0.6009
-2.5674 ಬೆಳೆಯುತ್ತಾ -0.6009
-2.5674 ಹೋಯಿತು -0.5640
-2.2664 ಇವನನ್ನು -0.5997
-2.2664 ಹುಚ್ಚನೆಂದು -0.5997
-2.5674 ಬಗೆದು -0.6009
-2.5674 ಜನರು -0.6009
-2.5674 ಹೊಂಡಕ್ಕೆ -0.6009
-2.5674 ಬಿಡಲಿಲ್ಲ -0.5640
-2.5674 ಜನರ -0.6009
-2.5674 ಸಾಲಿಗೆ -0.6009
-2.5674 ಸೇರಲು -0.6009
-2.5674 ಹೋದಾಗ -0.5997
-2.5674 ಹಿಂದೆ -0.6009
-2.5674 ತಳ್ಳಿದರು -0.5640
-2.5674 ಶ್ರೀಮನ್ನಾರಾಯಣನು -0.6009
-2.5674 ಗರ್ಭಗುಡಿಯಿಂದ -0.6009
-2.5674 ಹೊರಟು -0.6009
-2.5674 ಶಂಖ -0.6009
-2.5674 ಚಕ್ರಧಾರಿಯಾಗಿ -0.5997
-2.2664 ಬಂದು -0.5997
-2.5674 ಪಾಪಿನಾಯಕನ -0.6009
-2.5674 ಎದುರಿನಲ್ಲಿ -0.6009
-2.5674 ನಿಂತನು -0.5640
-2.5674 ಕೊನೆಗೆ -0.6009
-2.5674 ಕ್ಯಾಸಪುರ -0.6009
-2.5674 ಸುತ್ತ -0.6009
-2.5674 ಮುತ್ತ -0.5997
-2.5674 ವಿಚಾರಿಸಿದಾಗ -0.6009
-2.5674 ಸುಳಿವು -0.6009
-2.5674 ಸಿಕ್ಕಿತು -0.5640

\2-grams:
-1.6163 <s> ﻿ಆದ್ದರಿಂದ 0.0000
-0.1249 ﻿ಆದ್ದರಿಂದ ಹೇಗಾದರೂ 0.0000
-0.1249 ಹೇಗಾದರೂ ಮಾಡಿ 0.0000
-0.1249 ಮಾಡಿ ಈ -0.3010
-0.3010 ಈ ಮಗುವನ್ನು 0.0000
-0.1249 ಮಗುವನ್ನು ಕಾಡುಜನರಾಗಿದ್ದರಿಂದ 0.0000
-0.1249 ಕಾಡುಜನರಾಗಿದ್ದರಿಂದ ತೊಲಗಿಸಬೇಕೆಂದು 0.0000
-0.1249 ತೊಲಗಿಸಬೇಕೆಂದು ಯೋಚಿಸಿದ 0.0000
-0.1249 ಯೋಚಿಸಿದ </s> -0.6021
-1.6163 <s> ಇವನೊಂದಿಗೆ 0.0000
-0.1249 ಇವನೊಂದಿಗೆ ಹೋರಾಡಿದ 0.0000
-0.1249 ಹೋರಾಡಿದ ಹುಲಿಗಳೆರಡು 0.0000
-0.1249 ಹುಲಿಗಳೆರಡು ಮೀಂಚೇರಿಹಳ್ಳದ 0.0000
-0.1249 ಮೀಂಚೇರಿಹಳ್ಳದ ದಂಡೆಯಲ್ಲಿ 0.0000
-0.1249 ದಂಡೆಯಲ್ಲಿ ಸತ್ತುಬಿದ್ದವು 0.0000
-0.1249 ಸತ್ತುಬಿದ್ದವು </s> -0.6021
-1.6163 <s> ಏನೋ 0.0000
-0.1249 ಏನೋ ಅನಾಹುತ 0.0000
-0.1249 ಅನಾಹುತ ನಡೆದಿದೆ 0.0000
-0.1249 ನಡೆದಿದೆ ಎಂದು -0.3979
-0.4260 ಎಂದು ಪರಿಪರಿ 0.0000
-0.1249 ಪರಿಪರಿ ಚಿಂತಿಸತೊಡಗಿದರು 0.0000
-0.1249 ಚಿಂತಿಸತೊಡಗಿದರು </s> -0.6021
-1.6163 <s> ಅಕ್ಕ 0.0000
-0.1249 ಅಕ್ಕ ತಂಗಿಯರಿಗೆ 0.0000
-0.1249 ತಂಗಿಯರಿಗೆ ಆಕಾಶವೇ 0.0000
-0.1249 ಆಕಾಶವೇ ಕಳಚಿ 0.0000
-0.1249 ಕಳಚಿ ಬಿದ್ದಂತಾಯಿತು 0.0000
-0.1249 ಬಿದ್ದಂತಾಯಿತು </s> -0.6021
-1.6163 <s> ಇದಕ್ಕೆ 0.0000
-0.1249 ಇದಕ್ಕೆ ಅನೇಕ 0.0000
-0.1249 ಅನೇಕ ಅರಸರು 0.0000
-0.1249 ಅರಸರು ಕಾಣಿಕೆ 0.0000
-0.1249 ಕಾಣಿಕೆ ಸಲ್ಲಿಸಿ 0.0000
-0.1249 ಸಲ್ಲಿಸಿ ದೇವಾಲಯವನ್ನು 0.0000
-0.1249 ದೇವಾಲಯವನ್ನು ಕಟ್ಟಿಸಿದ್ದಾರೆ 0.0000
-0.1249 ಕಟ್ಟಿಸಿದ್ದಾರೆ </s> -0.6021
-1.6163 <s> ಪಾಪನಾಯಕ 0.0000
-0.1249 ಪಾಪನಾಯಕ ಒಬ್ಬ 0.0000
-0.1249 ಒಬ್ಬ ಪಶುಪಾಲಕನಾಗಿ 0.0000
-0.1249 ಪಶುಪಾಲಕನಾಗಿ ತನ್ನ 0.0000
-0.1249 ತನ್ನ ಸಾಂಸ್ಕೃತಿಕ 0.0000
-0.1249 ಸಾಂಸ್ಕೃತಿಕ ಬದುಕಿನೊಂದಿಗೆ 0.0000
-0.1249 ಬದುಕಿನೊಂದಿಗೆ ಆಧ್ಯಾತ್ಮಿಕ 0.0000
-0.1249 ಆಧ್ಯಾತ್ಮಿಕ ರಂಗವನ್ನು 0.0000
-0.1249 ರಂಗವನ್ನು ಪ್ರವೇಶಿಸಿದ 0.0000
-0.1249 ಪ್ರವೇಶಿಸಿದ ಮಹಾವೀರ 0.0000
-0.1249 ಮಹಾವೀರ </s> -0.6021
-1.6163 <s> ಇಲ್ಲಿ 0.0000
-0.1249 ಇಲ್ಲಿ ವಾಸಿಸುವವರಿಗೆ 0.0000
-0.1249 ವಾಸಿಸುವವರಿಗೆ ನಡುಗಡ್ಡೆ 0.0000
-0.1249 ನಡುಗಡ್ಡೆ ನಾಯಕರೆಂದು 0.0000
-0.1249 ನಾಯಕರೆಂದು ದೊರೆಗಳೆಂದು 0.0000
-0.1249 ದೊರೆಗಳೆಂದು ಕರೆಯುವರು 0.0000
-0.1249 ಕರೆಯುವರು </s> -0.6021
-1.6163 <s> ಕಲಿಯುಗದ 0.0000
-0.1249 ಕಲಿಯುಗದ ಶುಕ್ಲಮಲ್ಲಿನಾಯಕನ 0.0000
-0.1249 ಶುಕ್ಲಮಲ್ಲಿನಾಯಕನ ಗೋತ್ರದಲ್ಲಿ 0.0000
-0.1249 ಗೋತ್ರದಲ್ಲಿ ಯರಮಂಚಿನಾಯಕ 0.0000
-0.1249 ಯರಮಂಚಿನಾಯಕ ಜನಿಸಿದ 0.0000
-0.1249 ಜನಿಸಿದ </s> -0.6021
-1.3153 <s> ಆ 0.0000
-0.4260 ಆ ನೀರಿನಲ್ಲಿ 0.0000
-0.1249 ನೀರಿನಲ್ಲಿ ಕಾಲುಗಳನ್ನು 0.0000
-0.1249 ಕಾಲುಗಳನ್ನು ಚಾಚಿಕೊಂಡು 0.0000
-0.1249 ಚಾಚಿಕೊಂಡು ಆಟವಾಡುತ್ತಾ 0.0000
-0.1249 ಆಟವಾಡುತ್ತಾ ಕೊಡಕ್ಕೆ 0.0000
-0.1249 ಕೊಡಕ್ಕೆ ನೀರು -0.3979
-0.4260 ನೀರು ತುಂಬುತ್ತಿದ್ದಳು 0.0000
-0.1249 ತುಂಬುತ್ತಿದ್ದಳು </s> -0.6021
-1.6163 <s> ಎಲ್ಲಿಯೂ 0.0000
-0.1249 ಎಲ್ಲಿಯೂ ಕಾಣಲಿಲ್ಲ 0.0000
-0.1249 ಕಾಣಲಿಲ್ಲ ಎಂದಾಗ -0.3979
-0.4260 ಎಂದಾಗ ಇನ್ನೇನು 0.0000
-0.1249 ಇನ್ನೇನು ಹಿಂತಿರುಗಬೇಕು 0.0000
-0.1249 ಹಿಂತಿರುಗಬೇಕು ಆಗ 0.0000
-0.1249 ಆಗ ದಡದಲ್ಲಿ 0.0000
-0.1249 ದಡದಲ್ಲಿ ಒಡೆದು 0.0000
-0.1249 ಒಡೆದು ಬಿದ್ದಿದ್ದ 0.0000
-0.1249 ಬಿದ್ದಿದ್ದ ಕೊಡದ 0.0000
-0.1249 ಕೊಡದ ಚೂರುಗಳು 0.0000
-0.1249 ಚೂರುಗಳು ಕಂಡವು 0.0000
-0.1249 ಕಂಡವು </s> -0.6021
-1.6163 <s> ಹೀಗೆ 0.0000
-0.1249 ಹೀಗೆ ಇರುವಾಗ 0.0000
-0.1249 ಇರುವಾಗ ಬಾಳೆದಪಟ್ಟಮ್ಮ 0.0000
-0.1249 ಬಾಳೆದಪಟ್ಟಮ್ಮ ಗರ್ಭವತಿಯಾಗಿದ್ದು 0.0000
-0.1249 ಗರ್ಭವತಿಯಾಗಿದ್ದು ಗಂಡನಿಗೆ 0.0000
-0.1249 ಗಂಡನಿಗೆ ಚೇತನವನ್ನು 0.0000
-0.1249 ಚೇತನವನ್ನು ತುಂಬುತ್ತಿದ್ದಳು 0.0000
-1.6163 <s> ನಿಮ್ಮಲ್ಲಿಗೆ 0.0000
-0.1249 ನಿಮ್ಮಲ್ಲಿಗೆ ಬಂದರೆ 0.0000
-0.1249 ಬಂದರೆ ಏನಾದರೂ 0.0000
-0.1249 ಏನಾದರೂ ತೊಂದರೆ -0.3979
-0.4260 ತೊಂದರೆ ಆಗಬಹುದು 0.0000
-0.1249 ಆಗಬಹುದು ಎಂದು -0.3979
-0.4260 ಎಂದು ತಿರಸ್ಕರಿಸಿದ 0.0000
-0.1249 ತಿರಸ್ಕರಿಸಿದ </s> -0.6021
-1.6163 <s> ಕ್ಯಾಸನೋನನ್ನು 0.0000
-0.1249 ಕ್ಯಾಸನೋನನ್ನು ನಾನಾ 0.0000
-0.1249 ನಾನಾ ವಿಧವಾಗಿ 0.0000
-0.1249 ವಿಧವಾಗಿ ಬೇಡಿಕೊಂಡರೂ 0.0000
-0.1249 ಬೇಡಿಕೊಂಡರೂ ಕೋರ‍್ಲಮಲ್ಲಿನಾಯಕನಿಗೆ 0.0000
-0.1249 ಕೋರ‍್ಲಮಲ್ಲಿನಾಯಕನಿಗೆ ಫಲ 0.0000
-0.1249 ಫಲ ಸಿಗಲಿಲ್ಲ 0.0000
-0.1249 ಸಿಗಲಿಲ್ಲ </s> -0.6021
-1.6163 <s> ಅತ್ತಿಗೆಗೆ 0.0000
-0.1249 ಅತ್ತಿಗೆಗೆ ಹೆರಿಗೆಯಾದಗ 0.0000
-0.1249 ಹೆರಿಗೆಯಾದಗ ಮನೆಯ 0.0000
-0.1249 ಮನೆಯ ಕೆಲಸವನ್ನು 0.0000
-0.1249 ಕೆಲಸವನ್ನು ಇವಳೇ 0.0000
-0.1249 ಇವಳೇ ನಿರ್ವಹಿಸಬೇಕಾಗುತ್ತದೆ 0.0000
-0.1249 ನಿರ್ವಹಿಸಬೇಕಾಗುತ್ತದೆ </s> -0.6021
-1.6163 <s> ಆಗಲಿ 0.0000
-0.1249 ಆಗಲಿ ನಿನ್ನ 0.0000
-0.1249 ನಿನ್ನ ಹೆಂಡತಿಗೆ 0.0000
-0.1249 ಹೆಂಡತಿಗೆ ತೊಂದರೆ -0.3979
-0.4260 ತೊಂದರೆ ಸಂಭವಿಸಿದರೆ 0.0000
-0.1249 ಸಂಭವಿಸಿದರೆ ಅದಕ್ಕೆ 0.0000
-0.1249 ಅದಕ್ಕೆ ಗಳಗಂಟನಾದ 0.0000
-0.1249 ಗಳಗಂಟನಾದ ಶೆಟ್ಟಿಯು 0.0000
-0.1249 ಶೆಟ್ಟಿಯು ನಾನೇ 0.0000
-0.1249 ನಾನೇ ಹೊಣೆಗಾರನೆಂದು 0.0000
-0.1249 ಹೊಣೆಗಾರನೆಂದು ಒಪ್ಪಿಕೊಂಡನು 0.0000
-0.1249 ಒಪ್ಪಿಕೊಂಡನು </s> -0.6021
-1.6163 <s> ಅವನ 0.0000
-0.1249 ಅವನ ಶಕ್ತಿ 0.0000
-0.1249 ಶಕ್ತಿ ಧೈರ್ಯ 0.0000
-0.1249 ಧೈರ್ಯ ಪರಾಕ್ರಮವನ್ನು 0.0000
-0.1249 ಪರಾಕ್ರಮವನ್ನು ಆಗಲೇ 0.0000
-0.1249 ಆಗಲೇ ನಿರ್ಧರಿಸಿಕೊಂಡಳು 0.0000
-0.1249 ನಿರ್ಧರಿಸಿಕೊಂಡಳು </s> -0.6021
-1.6163 <s> ಆದ್ದರಿಂದ 0.0000
-0.1249 ಆದ್ದರಿಂದ ಹೇಗಾದರೂ 0.0000
-1.6163 <s> ಎಂದಾಗ -0.3979
-0.4260 ಎಂದಾಗ ಮನೆಮಠಗಳೆಲ್ಲಿ 0.0000
-0.1249 ಮನೆಮಠಗಳೆಲ್ಲಿ ಪಶು 0.0000
-0.1249 ಪಶು ಪ್ರಾಣಿಗಳೂ 0.0000
-0.1249 ಪ್ರಾಣಿಗಳೂ ಕಾಣುತ್ತಿರಲಿಲ್ಲ 0.0000
-0.1249 ಕಾಣುತ್ತಿರಲಿಲ್ಲ </s> -0.6021
-1.6163 <s> ಲೋಕಕಲ್ಯಾಣವಾಗಿ 0.0000
-0.1249 ಲೋಕಕಲ್ಯಾಣವಾಗಿ ಭಕ್ತಿಬಾಂದವನೆಂಬ 0.0000
-0.1249 ಭಕ್ತಿಬಾಂದವನೆಂಬ ಬಿರುದಿನಿಂದ 0.0000
-0.1249 ಬಿರುದಿನಿಂದ ಪ್ರಸಿದ್ಧ 0.0000
-0.1249 ಪ್ರಸಿದ್ಧ ಪವಾಡ 0.0000
-0.1249 ಪವಾಡ ಪುರುಷನಾಗುತ್ತಾನೆಂದು 0.0000
-0.1249 ಪುರುಷನಾಗುತ್ತಾನೆಂದು ಹೇಳಿದನು 0.0000
-0.1249 ಹೇಳಿದನು </s> -0.6021
-1.6163 <s> ಶಿವನ 0.0000
-0.1249 ಶಿವನ ಈ -0.4771
-0.6021 ಈ ಮಾತಿಗೆ 0.0000
-0.1249 ಮಾತಿಗೆ ಪಾರ್ವತಿ 0.0000
-0.1249 ಪಾರ್ವತಿ ಒಪ್ಪಿದಳು 0.0000
-0.1249 ಒಪ್ಪಿದಳು </s> -0.6021
-1.6163 <s> ಅಂದು 0.0000
-0.1249 ಅಂದು ಚಳ್ಳಕೆರೆ 0.0000
-0.1249 ಚಳ್ಳಕೆರೆ ಸ್ಥಳದ 0.0000
-0.1249 ಸ್ಥಳದ ಹೆಸರು 0.0000
-0.1249 ಹೆಸರು ಇದ್ದಂತಿರಲಿಲ್ಲ 0.0000
-0.1249 ಇದ್ದಂತಿರಲಿಲ್ಲ </s> -0.6021
-0.4260 ಆ ಹುತ್ತದ 0.0000
-0.1249 ಹುತ್ತದ ಮೇಲೆ 0.0000
-0.1249 ಮೇಲೆ ಒಂದು -0.3979
-0.4260 ಒಂದು ಮಂಗಾರೆ 0.0000
-0.1249 ಮಂಗಾರೆ ಗಿಡ 0.0000
-0.1249 ಗಿಡ ಬೆಳೆದಿತ್ತು 0.0000
-0.1249 ಬೆಳೆದಿತ್ತು </s> -0.6021
-1.6163 <s> ಅವುಗಳನ್ನು 0.0000
-0.1249 ಅವುಗಳನ್ನು ಒಂದೆಡೆ 0.0000
-0.1249 ಒಂದೆಡೆ ಕೂಡಲು 0.0000
-0.1249 ಕೂಡಲು ಕೋಲಿನ 0.0000
-0.1249 ಕೋಲಿನ ಅಗತ್ಯವಿತ್ತು 0.0000
-0.1249 ಅಗತ್ಯವಿತ್ತು </s> -0.6021
-1.6163 <s> ಸಂತೋಷಗೊಂಡ 0.0000
-0.1249 ಸಂತೋಷಗೊಂಡ ಹಾವು 0.0000
-0.1249 ಹಾವು ಏಳೆಡೆ 0.0000
-0.1249 ಏಳೆಡೆ ಬಿಚ್ಚಿ 0.0000
-0.1249 ಬಿಚ್ಚಿ ಹಾರಾಡುತ್ತಿತ್ತು 0.0000
-0.1249 ಹಾರಾಡುತ್ತಿತ್ತು </s> -0.6021
-1.6163 <s> ಅವರಿಗೆ 0.0000
-0.1249 ಅವರಿಗೆ ಬಾಯಾರಿಕೆಯಾಗಿದ್ದರಿಂದ 0.0000
-0.1249 ಬಾಯಾರಿಕೆಯಾಗಿದ್ದರಿಂದ ನೀರು -0.3979
-0.4260 ನೀರು ಕುಡಿಯಲು 0.0000
-0.1249 ಕುಡಿಯಲು ಬಂದರು 0.0000
-0.1249 ಬಂದರು </s> -0.6021
-1.6163 <s> ಊರಿನೊಳಕ್ಕೆ 0.0000
-0.1249 ಊರಿನೊಳಕ್ಕೆ ಹೋಗಿ 0.0000
-0.1249 ಹೋಗಿ ಒಂದು -0.3979
-0.4260 ಒಂದು ದುಗ್ಗಾಣಿ 0.0000
-0.1249 ದುಗ್ಗಾಣಿ ಕೊಟ್ಟು 0.0000
-0.1249 ಕೊಟ್ಟು ಮಂಗಾರಕಾಯಿ 0.0000
-0.1249 ಮಂಗಾರಕಾಯಿ ಬುಡ್ಡಿಯಲ್ಲಿ 0.0000
-0.1249 ಬುಡ್ಡಿಯಲ್ಲಿ ಎಣ್ಣೆ 0.0000
-0.1249 ಎಣ್ಣೆ ತುಂಬಿಸಿಕೊಂಡನು 0.0000
-0.1249 ತುಂಬಿಸಿಕೊಂಡನು </s> -0.6021
-1.6163 <s> ಪವಾಡದಂತೆ 0.0000
-0.1249 ಪವಾಡದಂತೆ ಕುಳಿತ 0.0000
-0.1249 ಕುಳಿತ ಬಂಡೆ 0.0000
-0.1249 ಬಂಡೆ ಮೇಲಕ್ಕೆ 0.0000
-0.1249 ಮೇಲಕ್ಕೆ ಬೆಳೆಯುತ್ತಾ 0.0000
-0.1249 ಬೆಳೆಯುತ್ತಾ ಹೋಯಿತು 0.0000
-0.1249 ಹೋಯಿತು </s> -0.6021
-1.6163 <s> ಇವನನ್ನು 0.0000
-0.1249 ಇವನನ್ನು ಹುಚ್ಚನೆಂದು 0.0000
-0.4260 ಹುಚ್ಚನೆಂದು ಬಗೆದು 0.0000
-0.1249 ಬಗೆದು ಜನರು 0.0000
-0.1249 ಜನರು ಹೊಂಡಕ್ಕೆ 0.0000
-0.1249 ಹೊಂಡಕ್ಕೆ ಬಿಡಲಿಲ್ಲ 0.0000
-0.1249 ಬಿಡಲಿಲ್ಲ </s> -0.6021
-1.6163 <s> ಜನರ 0.0000
-0.1249 ಜನರ ಸಾಲಿಗೆ 0.0000
-0.1249 ಸಾಲಿಗೆ ಸೇರಲು 0.0000
-0.1249 ಸೇರಲು ಹೋದಾಗ 0.0000
-0.1249 ಹೋದಾಗ ಇವನನ್ನು 0.0000
-0.4260 ಹುಚ್ಚನೆಂದು ಹಿಂದೆ 0.0000
-0.1249 ಹಿಂದೆ ತಳ್ಳಿದರು 0.0000
-0.1249 ತಳ್ಳಿದರು </s> -0.6021
-1.6163 <s> ಶ್ರೀಮನ್ನಾರಾಯಣನು 0.0000
-0.1249 ಶ್ರೀಮನ್ನಾರಾಯಣನು ಗರ್ಭಗುಡಿಯಿಂದ 0.0000
-0.1249 ಗರ್ಭಗುಡಿಯಿಂದ ಹೊರಟು 0.0000
-0.1249 ಹೊರಟು ಶಂಖ 0.0000
-0.1249 ಶಂಖ ಚಕ್ರಧಾರಿಯಾಗಿ 0.0000
-0.1249 ಚಕ್ರಧಾರಿಯಾಗಿ ಬಂದು -0.3979
-0.4260 ಬಂದು ಪಾಪಿನಾಯಕನ 0.0000
-0.1249 ಪಾಪಿನಾಯಕನ ಎದುರಿನಲ್ಲಿ 0.0000
-0.1249 ಎದುರಿನಲ್ಲಿ ನಿಂತನು 0.0000
-0.1249 ನಿಂತನು </s> -0.6021
-1.6163 <s> ಕೊನೆಗೆ 0.0000
-0.1249 ಕೊನೆಗೆ ಕ್ಯಾಸಪುರ 0.0000
-0.1249 ಕ್ಯಾಸಪುರ ಸುತ್ತ 0.0000
-0.1249 ಸುತ್ತ ಮುತ್ತ 0.0000
-0.1249 ಮುತ್ತ ಬಂದು -0.3979
-0.4260 ಬಂದು ವಿಚಾರಿಸಿದಾಗ 0.0000
-0.1249 ವಿಚಾರಿಸಿದಾಗ ಸುಳಿವು 0.0000
-0.1249 ಸುಳಿವು ಸಿಕ್ಕಿತು 0.0000
-0.1249 ಸಿಕ್ಕಿತು </s> -0.6021

\3-grams:
-0.1249 <s> ﻿ಆದ್ದರಿಂದ ಹೇಗಾದರೂ
-0.1249 ﻿ಆದ್ದರಿಂದ ಹೇಗಾದರೂ ಮಾಡಿ
-0.1249 ಹೇಗಾದರೂ ಮಾಡಿ ಈ
-0.1249 ಮಾಡಿ ಈ ಮಗುವನ್ನು
-0.1249 ಈ ಮಗುವನ್ನು ಕಾಡುಜನರಾಗಿದ್ದರಿಂದ
-0.1249 ಮಗುವನ್ನು ಕಾಡುಜನರಾಗಿದ್ದರಿಂದ ತೊಲಗಿಸಬೇಕೆಂದು
-0.1249 ಕಾಡುಜನರಾಗಿದ್ದರಿಂದ ತೊಲಗಿಸಬೇಕೆಂದು ಯೋಚಿಸಿದ
-0.1249 ತೊಲಗಿಸಬೇಕೆಂದು ಯೋಚಿಸಿದ </s>
-0.1249 <s> ಇವನೊಂದಿಗೆ ಹೋರಾಡಿದ
-0.1249 ಇವನೊಂದಿಗೆ ಹೋರಾಡಿದ ಹುಲಿಗಳೆರಡು
-0.1249 ಹೋರಾಡಿದ ಹುಲಿಗಳೆರಡು ಮೀಂಚೇರಿಹಳ್ಳದ
-0.1249 ಹುಲಿಗಳೆರಡು ಮೀಂಚೇರಿಹಳ್ಳದ ದಂಡೆಯಲ್ಲಿ
-0.1249 ಮೀಂಚೇರಿಹಳ್ಳದ ದಂಡೆಯಲ್ಲಿ ಸತ್ತುಬಿದ್ದವು
-0.1249 ದಂಡೆಯಲ್ಲಿ ಸತ್ತುಬಿದ್ದವು </s>
-0.1249 <s> ಏನೋ ಅನಾಹುತ
-0.1249 ಏನೋ ಅನಾಹುತ ನಡೆದಿದೆ
-0.1249 ಅನಾಹುತ ನಡೆದಿದೆ ಎಂದು
-0.1249 ನಡೆದಿದೆ ಎಂದು ಪರಿಪರಿ
-0.1249 ಎಂದು ಪರಿಪರಿ ಚಿಂತಿಸತೊಡಗಿದರು
-0.1249 ಪರಿಪರಿ ಚಿಂತಿಸತೊಡಗಿದರು </s>
-0.1249 <s> ಅಕ್ಕ ತಂಗಿಯರಿಗೆ
-0.1249 ಅಕ್ಕ ತಂಗಿಯರಿಗೆ ಆಕಾಶವೇ
-0.1249 ತಂಗಿಯರಿಗೆ ಆಕಾಶವೇ ಕಳಚಿ
-0.1249 ಆಕಾಶವೇ ಕಳಚಿ ಬಿದ್ದಂತಾಯಿತು
-0.1249 ಕಳಚಿ ಬಿದ್ದಂತಾಯಿತು </s>
-0.1249 <s> ಇದಕ್ಕೆ ಅನೇಕ
-0.1249 ಇದಕ್ಕೆ ಅನೇಕ ಅರಸರು
-0.1249 ಅನೇಕ ಅರಸರು ಕಾಣಿಕೆ
-0.1249 ಅರಸರು ಕಾಣಿಕೆ ಸಲ್ಲಿಸಿ
-0.1249 ಕಾಣಿಕೆ ಸಲ್ಲಿಸಿ ದೇವಾಲಯವನ್ನು
-0.1249 ಸಲ್ಲಿಸಿ ದೇವಾಲಯವನ್ನು ಕಟ್ಟಿಸಿದ್ದಾರೆ
-0.1249 ದೇವಾಲಯವನ್ನು ಕಟ್ಟಿಸಿದ್ದಾರೆ </s>
-0.1249 <s> ಪಾಪನಾಯಕ ಒಬ್ಬ
-0.1249 ಪಾಪನಾಯಕ ಒಬ್ಬ ಪಶುಪಾಲಕನಾಗಿ
-0.1249 ಒಬ್ಬ ಪಶುಪಾಲಕನಾಗಿ ತನ್ನ
-0.1249 ಪಶುಪಾಲಕನಾಗಿ ತನ್ನ ಸಾಂಸ್ಕೃತಿಕ
-0.1249 ತನ್ನ ಸಾಂಸ್ಕೃತಿಕ ಬದುಕಿನೊಂದಿಗೆ
-0.1249 ಸಾಂಸ್ಕೃತಿಕ ಬದುಕಿನೊಂದಿಗೆ ಆಧ್ಯಾತ್ಮಿಕ
-0.1249 ಬದುಕಿನೊಂದಿಗೆ ಆಧ್ಯಾತ್ಮಿಕ ರಂಗವನ್ನು
-0.1249 ಆಧ್ಯಾತ್ಮಿಕ ರಂಗವನ್ನು ಪ್ರವೇಶಿಸಿದ
-0.1249 ರಂಗವನ್ನು ಪ್ರವೇಶಿಸಿದ ಮಹಾವೀರ
-0.1249 ಪ್ರವೇಶಿಸಿದ ಮಹಾವೀರ </s>
-0.1249 <s> ಇಲ್ಲಿ ವಾಸಿಸುವವರಿಗೆ
-0.1249 ಇಲ್ಲಿ ವಾಸಿಸುವವರಿಗೆ ನಡುಗಡ್ಡೆ
-0.1249 ವಾಸಿಸುವವರಿಗೆ ನಡುಗಡ್ಡೆ ನಾಯಕರೆಂದು
-0.1249 ನಡುಗಡ್ಡೆ ನಾಯಕರೆಂದು ದೊರೆಗಳೆಂದು
-0.1249 ನಾಯಕರೆಂದು ದೊರೆಗಳೆಂದು ಕರೆಯುವರು
-0.1249 ದೊರೆಗಳೆಂದು ಕರೆಯುವರು </s>
-0.1249 <s> ಕಲಿಯುಗದ ಶುಕ್ಲಮಲ್ಲಿನಾಯಕನ
-0.1249 ಕಲಿಯುಗದ ಶುಕ್ಲಮಲ್ಲಿನಾಯಕನ ಗೋತ್ರದಲ್ಲಿ
-0.1249 ಶುಕ್ಲಮಲ್ಲಿನಾಯಕನ ಗೋತ್ರದಲ್ಲಿ ಯರಮಂಚಿನಾಯಕ
-0.1249 ಗೋತ್ರದಲ್ಲಿ ಯರಮಂಚಿನಾಯಕ ಜನಿಸಿದ
-0.1249 ಯರಮಂಚಿನಾಯಕ ಜನಿಸಿದ </s>
-0.4260 <s> ಆ ನೀರಿನಲ್ಲಿ
-0.1249 ಆ ನೀರಿನಲ್ಲಿ ಕಾಲುಗಳನ್ನು
-0.1249 ನೀರಿನಲ್ಲಿ ಕಾಲುಗಳನ್ನು ಚಾಚಿಕೊಂಡು
-0.1249 ಕಾಲುಗಳನ್ನು ಚಾಚಿಕೊಂಡು ಆಟವಾಡುತ್ತಾ
-0.1249 ಚಾಚಿಕೊಂಡು ಆಟವಾಡುತ್ತಾ ಕೊಡಕ್ಕೆ
-0.1249 ಆಟವಾಡುತ್ತಾ ಕೊಡಕ್ಕೆ ನೀರು
-0.1249 ಕೊಡಕ್ಕೆ ನೀರು ತುಂಬುತ್ತಿದ್ದಳು
-0.1249 ನೀರು ತುಂಬುತ್ತಿದ್ದಳು </s>
-0.1249 <s> ಎಲ್ಲಿಯೂ ಕಾಣಲಿಲ್ಲ
-0.1249 ಎಲ್ಲಿಯೂ ಕಾಣಲಿಲ್ಲ ಎಂದಾಗ
-0.1249 ಕಾಣಲಿಲ್ಲ ಎಂದಾಗ ಇನ್ನೇನು
-0.1249 ಎಂದಾಗ ಇನ್ನೇನು ಹಿಂತಿರುಗಬೇಕು
-0.1249 ಇನ್ನೇನು ಹಿಂತಿರುಗಬೇಕು ಆಗ
-0.1249 ಹಿಂತಿರುಗಬೇಕು ಆಗ ದಡದಲ್ಲಿ
-0.1249 ಆಗ ದಡದಲ್ಲಿ ಒಡೆದು
-0.1249 ದಡದಲ್ಲಿ ಒಡೆದು ಬಿದ್ದಿದ್ದ
-0.1249 ಒಡೆದು ಬಿದ್ದಿದ್ದ ಕೊಡದ
-0.1249 ಬಿದ್ದಿದ್ದ ಕೊಡದ ಚೂರುಗಳು
-0.1249 ಕೊಡದ ಚೂರುಗಳು ಕಂಡವು
-0.1249 ಚೂರುಗಳು ಕಂಡವು </s>
-0.1249 <s> ಹೀಗೆ ಇರುವಾಗ
-0.1249 ಹೀಗೆ ಇರುವಾಗ ಬಾಳೆದಪಟ್ಟಮ್ಮ
-0.1249 ಇರುವಾಗ ಬಾಳೆದಪಟ್ಟಮ್ಮ ಗರ್ಭವತಿಯಾಗಿದ್ದು
-0.1249 ಬಾಳೆದಪಟ್ಟಮ್ಮ ಗರ್ಭವತಿಯಾಗಿದ್ದು ಗಂಡನಿಗೆ
-0.1249 ಗರ್ಭವತಿಯಾಗಿದ್ದು ಗಂಡನಿಗೆ ಚೇತನವನ್ನು
-0.1249 ಗಂಡನಿಗೆ ಚೇತನವನ್ನು ತುಂಬುತ್ತಿದ್ದಳು
-0.1249 ಚೇತನವನ್ನು ತುಂಬುತ್ತಿದ್ದಳು </s>
-0.1249 <s> ನಿಮ್ಮಲ್ಲಿಗೆ ಬಂದರೆ
-0.1249 ನಿಮ್ಮಲ್ಲಿಗೆ ಬಂದರೆ ಏನಾದರೂ
-0.1249 ಬಂದರೆ ಏನಾದರೂ ತೊಂದರೆ
-0.1249 ಏನಾದರೂ ತೊಂದರೆ ಆಗಬಹುದು
-0.1249 ತೊಂದರೆ ಆಗಬಹುದು ಎಂದು
-0.1249 ಆಗಬಹುದು ಎಂದು ತಿರಸ್ಕರಿಸಿದ
-0.1249 ಎಂದು ತಿರಸ್ಕರಿಸಿದ </s>
-0.1249 <s> ಕ್ಯಾಸನೋನನ್ನು ನಾನಾ
-0.1249 ಕ್ಯಾಸನೋನನ್ನು ನಾನಾ ವಿಧವಾಗಿ
-0.1249 ನಾನಾ ವಿಧವಾಗಿ ಬೇಡಿಕೊಂಡರೂ
-0.1249 ವಿಧವಾಗಿ ಬೇಡಿಕೊಂಡರೂ ಕೋರ‍್ಲಮಲ್ಲಿನಾಯಕನಿಗೆ
-0.1249 ಬೇಡಿಕೊಂಡರೂ ಕೋರ‍್ಲಮಲ್ಲಿನಾಯಕನಿಗೆ ಫಲ
-0.1249 ಕೋರ‍್ಲಮಲ್ಲಿನಾಯಕನಿಗೆ ಫಲ ಸಿಗಲಿಲ್ಲ
-0.1249 ಫಲ ಸಿಗಲಿಲ್ಲ </s>
-0.1249 <s> ಅತ್ತಿಗೆಗೆ ಹೆರಿಗೆಯಾದಗ
-0.1249 ಅತ್ತಿಗೆಗೆ ಹೆರಿಗೆಯಾದಗ ಮನೆಯ
-0.1249 ಹೆರಿಗೆಯಾದಗ ಮನೆಯ ಕೆಲಸವನ್ನು
-0.1249 ಮನೆಯ ಕೆಲಸವನ್ನು ಇವಳೇ
-0.1249 ಕೆಲಸವನ್ನು ಇವಳೇ ನಿರ್ವಹಿಸಬೇಕಾಗುತ್ತದೆ
-0.1249 ಇವಳೇ ನಿರ್ವಹಿಸಬೇಕಾಗುತ್ತದೆ </s>
-0.1249 <s> ಆಗಲಿ ನಿನ್ನ
-0.1249 ಆಗಲಿ ನಿನ್ನ ಹೆಂಡತಿಗೆ
-0.1249 ನಿನ್ನ ಹೆಂಡತಿಗೆ ತೊಂದರೆ
-0.1249 ಹೆಂಡತಿಗೆ ತೊಂದರೆ ಸಂಭವಿಸಿದರೆ
-0.1249 ತೊಂದರೆ ಸಂಭವಿಸಿದರೆ ಅದಕ್ಕೆ
-0.1249 ಸಂಭವಿಸಿದರೆ ಅದಕ್ಕೆ ಗಳಗಂಟನಾದ
-0.1249 ಅದಕ್ಕೆ ಗಳಗಂಟನಾದ ಶೆಟ್ಟಿಯು
-0.1249 ಗಳಗಂಟನಾದ ಶೆಟ್ಟಿಯು ನಾನೇ
-0.1249 ಶೆಟ್ಟಿಯು ನಾನೇ ಹೊಣೆಗಾರನೆಂದು
-0.1249 ನಾನೇ ಹೊಣೆಗಾರನೆಂದು ಒಪ್ಪಿಕೊಂಡನು
-0.1249 ಹೊಣೆಗಾರನೆಂದು ಒಪ್ಪಿಕೊಂಡನು </s>
-0.1249 <s> ಅವನ ಶಕ್ತಿ
-0.1249 ಅವನ ಶಕ್ತಿ ಧೈರ್ಯ
-0.1249 ಶಕ್ತಿ ಧೈರ್ಯ ಪರಾಕ್ರಮವನ್ನು
-0.1249 ಧೈರ್ಯ ಪರಾಕ್ರಮವನ್ನು ಆಗಲೇ
-0.1249 ಪರಾಕ್ರಮವನ್ನು ಆಗಲೇ ನಿರ್ಧರಿಸಿಕೊಂಡಳು
-0.1249 ಆಗಲೇ ನಿರ್ಧರಿಸಿಕೊಂಡಳು </s>
-0.1249 <s> ಆದ್ದರಿಂದ ಹೇಗಾದರೂ
-0.1249 ಆದ್ದರಿಂದ ಹೇಗಾದರೂ ಮಾಡಿ
-0.1249 <s> ಎಂದಾಗ ಮನೆಮಠಗಳೆಲ್ಲಿ
-0.1249 ಎಂದಾಗ ಮನೆಮಠಗಳೆಲ್ಲಿ ಪಶು
-0.1249 ಮನೆಮಠಗಳೆಲ್ಲಿ ಪಶು ಪ್ರಾಣಿಗಳೂ
-0.1249 ಪಶು ಪ್ರಾಣಿಗಳೂ ಕಾಣುತ್ತಿರಲಿಲ್ಲ
-0.1249 ಪ್ರಾಣಿಗಳೂ ಕಾಣುತ್ತಿರಲಿಲ್ಲ </s>
-0.1249 <s> ಲೋಕಕಲ್ಯಾಣವಾಗಿ ಭಕ್ತಿಬಾಂದವನೆಂಬ
-0.1249 ಲೋಕಕಲ್ಯಾಣವಾಗಿ ಭಕ್ತಿಬಾಂದವನೆಂಬ ಬಿರುದಿನಿಂದ
-0.1249 ಭಕ್ತಿಬಾಂದವನೆಂಬ ಬಿರುದಿನಿಂದ ಪ್ರಸಿದ್ಧ
-0.1249 ಬಿರುದಿನಿಂದ ಪ್ರಸಿದ್ಧ ಪವಾಡ
-0.1249 ಪ್ರಸಿದ್ಧ ಪವಾಡ ಪುರುಷನಾಗುತ್ತಾನೆಂದು
-0.1249 ಪವಾಡ ಪುರುಷನಾಗುತ್ತಾನೆಂದು ಹೇಳಿದನು
-0.1249 ಪುರುಷನಾಗುತ್ತಾನೆಂದು ಹೇಳಿದನು </s>
-0.1249 <s> ಶಿವನ ಈ
-0.1249 ಶಿವನ ಈ ಮಾತಿಗೆ
-0.1249 ಈ ಮಾತಿಗೆ ಪಾರ್ವತಿ
-0.1249 ಮಾತಿಗೆ ಪಾರ್ವತಿ ಒಪ್ಪಿದಳು
-0.1249 ಪಾರ್ವತಿ ಒಪ್ಪಿದಳು </s>
-0.1249 <s> ಅಂದು ಚಳ್ಳಕೆರೆ
-0.1249 ಅಂದು ಚಳ್ಳಕೆರೆ ಸ್ಥಳದ
-0.1249 ಚಳ್ಳಕೆರೆ ಸ್ಥಳದ ಹೆಸರು
-0.1249 ಸ್ಥಳದ ಹೆಸರು ಇದ್ದಂತಿರಲಿಲ್ಲ
-0.1249 ಹೆಸರು ಇದ್ದಂತಿರಲಿಲ್ಲ </s>
-0.4260 <s> ಆ ಹುತ್ತದ
-0.1249 ಆ ಹುತ್ತದ ಮೇಲೆ
-0.1249 ಹುತ್ತದ ಮೇಲೆ ಒಂದು
-0.1249 ಮೇಲೆ ಒಂದು ಮಂಗಾರೆ
-0.1249 ಒಂದು ಮಂಗಾರೆ ಗಿಡ
-0.1249 ಮಂಗಾರೆ ಗಿಡ ಬೆಳೆದಿತ್ತು
-0.1249 ಗಿಡ ಬೆಳೆದಿತ್ತು </s>
-0.1249 <s> ಅವುಗಳನ್ನು ಒಂದೆಡೆ
-0.1249 ಅವುಗಳನ್ನು ಒಂದೆಡೆ ಕೂಡಲು
-0.1249 ಒಂದೆಡೆ ಕೂಡಲು ಕೋಲಿನ
-0.1249 ಕೂಡಲು ಕೋಲಿನ ಅಗತ್ಯವಿತ್ತು
-0.1249 ಕೋಲಿನ ಅಗತ್ಯವಿತ್ತು </s>
-0.1249 <s> ಸಂತೋಷಗೊಂಡ ಹಾವು
-0.1249 ಸಂತೋಷಗೊಂಡ ಹಾವು ಏಳೆಡೆ
-0.1249 ಹಾವು ಏಳೆಡೆ ಬಿಚ್ಚಿ
-0.1249 ಏಳೆಡೆ ಬಿಚ್ಚಿ ಹಾರಾಡುತ್ತಿತ್ತು
-0.1249 ಬಿಚ್ಚಿ ಹಾರಾಡುತ್ತಿತ್ತು </s>
-0.1249 <s> ಅವರಿಗೆ ಬಾಯಾರಿಕೆಯಾಗಿದ್ದರಿಂದ
-0.1249 ಅವರಿಗೆ ಬಾಯಾರಿಕೆಯಾಗಿದ್ದರಿಂದ ನೀರು
-0.1249 ಬಾಯಾರಿಕೆಯಾಗಿದ್ದರಿಂದ ನೀರು ಕುಡಿಯಲು
-0.1249 ನೀರು ಕುಡಿಯಲು ಬಂದರು
-0.1249 ಕುಡಿಯಲು ಬಂದರು </s>
-0.1249 <s> ಊರಿನೊಳಕ್ಕೆ ಹೋಗಿ
-0.1249 ಊರಿನೊಳಕ್ಕೆ ಹೋಗಿ ಒಂದು
-0.1249 ಹೋಗಿ ಒಂದು ದುಗ್ಗಾಣಿ
-0.1249 ಒಂದು ದುಗ್ಗಾಣಿ ಕೊಟ್ಟು
-0.1249 ದುಗ್ಗಾಣಿ ಕೊಟ್ಟು ಮಂಗಾರಕಾಯಿ
-0.1249 ಕೊಟ್ಟು ಮಂಗಾರಕಾಯಿ ಬುಡ್ಡಿಯಲ್ಲಿ
-0.1249 ಮಂಗಾರಕಾಯಿ ಬುಡ್ಡಿಯಲ್ಲಿ ಎಣ್ಣೆ
-0.1249 ಬುಡ್ಡಿಯಲ್ಲಿ ಎಣ್ಣೆ ತುಂಬಿಸಿಕೊಂಡನು
-0.1249 ಎಣ್ಣೆ ತುಂಬಿಸಿಕೊಂಡನು </s>
-0.1249 <s> ಪವಾಡದಂತೆ ಕುಳಿತ
-0.1249 ಪವಾಡದಂತೆ ಕುಳಿತ ಬಂಡೆ
-0.1249 ಕುಳಿತ ಬಂಡೆ ಮೇಲಕ್ಕೆ
-0.1249 ಬಂಡೆ ಮೇಲಕ್ಕೆ ಬೆಳೆಯುತ್ತಾ
-0.1249 ಮೇಲಕ್ಕೆ ಬೆಳೆಯುತ್ತಾ ಹೋಯಿತು
-0.1249 ಬೆಳೆಯುತ್ತಾ ಹೋಯಿತು </s>
-0.1249 <s> ಇವನನ್ನು ಹುಚ್ಚನೆಂದು
-0.4260 ಇವನನ್ನು ಹುಚ್ಚನೆಂದು ಬಗೆದು
-0.1249 ಹುಚ್ಚನೆಂದು ಬಗೆದು ಜನರು
-0.1249 ಬಗೆದು ಜನರು ಹೊಂಡಕ್ಕೆ
-0.1249 ಜನರು ಹೊಂಡಕ್ಕೆ ಬಿಡಲಿಲ್ಲ
-0.1249 ಹೊಂಡಕ್ಕೆ ಬಿಡಲಿಲ್ಲ </s>
-0.1249 <s> ಜನರ ಸಾಲಿಗೆ
-0.1249 ಜನರ ಸಾಲಿಗೆ ಸೇರಲು
-0.1249 ಸಾಲಿಗೆ ಸೇರಲು ಹೋದಾಗ
-0.1249 ಸೇರಲು ಹೋದಾಗ ಇವನನ್ನು
-0.1249 ಹೋದಾಗ ಇವನನ್ನು ಹುಚ್ಚನೆಂದು
-0.4260 ಇವನನ್ನು ಹುಚ್ಚನೆಂದು ಹಿಂದೆ
-0.1249 ಹುಚ್ಚನೆಂದು ಹಿಂದೆ ತಳ್ಳಿದರು
-0.1249 ಹಿಂದೆ ತಳ್ಳಿದರು </s>
-0.1249 <s> ಶ್ರೀಮನ್ನಾರಾಯಣನು ಗರ್ಭಗುಡಿಯಿಂದ
-0.1249 ಶ್ರೀಮನ್ನಾರಾಯಣನು ಗರ್ಭಗುಡಿಯಿಂದ ಹೊರಟು
-0.1249 ಗರ್ಭಗುಡಿಯಿಂದ ಹೊರಟು ಶಂಖ
-0.1249 ಹೊರಟು ಶಂಖ ಚಕ್ರಧಾರಿಯಾಗಿ
-0.1249 ಶಂಖ ಚಕ್ರಧಾರಿಯಾಗಿ ಬಂದು
-0.1249 ಚಕ್ರಧಾರಿಯಾಗಿ ಬಂದು ಪಾಪಿನಾಯಕನ
-0.1249 ಬಂದು ಪಾಪಿನಾಯಕನ ಎದುರಿನಲ್ಲಿ
-0.1249 ಪಾಪಿನಾಯಕನ ಎದುರಿನಲ್ಲಿ ನಿಂತನು
-0.1249 ಎದುರಿನಲ್ಲಿ ನಿಂತನು </s>
-0.1249 <s> ಕೊನೆಗೆ ಕ್ಯಾಸಪುರ
-0.1249 ಕೊನೆಗೆ ಕ್ಯಾಸಪುರ ಸುತ್ತ
-0.1249 ಕ್ಯಾಸಪುರ ಸುತ್ತ ಮುತ್ತ
-0.1249 ಸುತ್ತ ಮುತ್ತ ಬಂದು
-0.1249 ಮುತ್ತ ಬಂದು ವಿಚಾರಿಸಿದಾಗ
-0.1249 ಬಂದು ವಿಚಾರಿಸಿದಾಗ ಸುಳಿವು
-0.1249 ವಿಚಾರಿಸಿದಾಗ ಸುಳಿವು ಸಿಕ್ಕಿತು
-0.1249 ಸುಳಿವು ಸಿಕ್ಕಿತು </s>

\end\
