\data\
ngram 1=220
ngram 2=360
ngram 3=298

\1-grams:
-2.8676 बीमा -0.4589
-2.8676 संध्या -0.4589
-2.8676 आदमियों -0.5067
-2.8676 चाक़ू -0.4589
-2.8676 अति -0.5223
-2.5665 पैनासोनिक -0.5211
-2.8676 उपहार -0.4589
-2.8676 खासीयत -0.4589
-2.5665 बॉक्स -0.4589
-2.2655 कम -0.4527
-2.8676 कथा -0.5223
-0.8632 </s> -0.5229
-2.3904 बनाने -0.5067
-2.8676 वॉच -0.4589
-2.8676 स्पार्क -0.5223
-2.8676 उम्र -0.5067
-2.8676 वायरलेस -0.5223
-2.8676 आज -0.5211
-2.8676 रात्रि -0.5223
-2.8676 मोटरगाड़ी -0.4589
-2.8676 रोकने -0.5067
-2.8676 सुबह -0.5199
-2.8676 किराए -0.5211
-2.8676 प्रोटीन -0.5223
-2.8676 रिपीटर -0.4589
-2.8676 ब्लड -0.5223
-2.8676 यन्त्र -0.4589
-2.8676 किताबें -0.4589
-2.5665 तक -0.4589
-2.8676 नापने -0.5067
-2.8676 जाइए -0.4589
-2.8676 भजन -0.5223
-2.8676 गणेश -0.5223
-2.8676 सुरक्षित -0.5223
-2.8676 मेटल -0.5217
-2.8676 थर्मामीटर -0.4589
-2.8676 मिल्टन -0.5223
-2.8676 शर्करा -0.5223
-2.8676 अनारकली -0.4589
-2.8676 काँटा -0.4589
-2.8676 चर्बी -0.5205
-2.5665 हज़ार -0.5205
-2.8676 ऐम -0.5211
-2.8676 शरबत -0.5211
-2.5665 डीवीडी -0.4575
-2.3904 उपकरण -0.4589
-2.5665 कैसे -0.5217
-2.8676 पुर्जे -0.4589
-2.8676 टी -0.5223
-2.8676 सौ -0.5217
-2.8676 चटनी -0.5211
-2.8676 फ़ूड -0.5223
-2.8676 लिक -0.5217
-2.3904 और -0.5211
-2.8676 पर -0.5223
-2.8676 दौड़ने -0.5067
-2.8676 कार -0.5217
-2.8676 ड्रैस -0.5223
-2.8676 गैजेट्स -0.4589
-2.8676 स्मरण -0.5223
-0.8632 <s> -0.4520
-2.8676 ज़ोलो -0.5223
-2.8676 मधुमेह -0.5067
-2.8676 सिल्क -0.5223
-2.8676 दिल्ली -0.5223
-1.4362 के -0.5054
-2.8676 गाड़ियाँ -0.4589
-2.8676 स्क्रीन -0.5223
-2.8676 लंच -0.5217
-2.8676 सीखने -0.5067
-2.8676 लेकर -0.5217
-2.8676 काले -0.5205
-2.5665 शीतल -0.5217
-2.8676 बीज -0.4589
-2.8676 चॉपर -0.4589
-2.8676 सब्जी -0.5223
-2.2655 करने -0.5018
-2.8676 जीवन -0.5223
-2.5665 यंत्र -0.4575
-2.8676 कढ़ाई -0.4589
-2.8676 आगमन -0.4589
-2.8676 माइक्रोमैक्स -0.5223
-2.5665 परामर्श -0.4589
-2.3904 वज़न -0.5193
-2.8676 मुफ्त -0.5223
-2.8676 चालीसा -0.4589
-2.8676 कॉटन -0.5223
-2.8676 टायर -0.4589
-2.8676 चलते -0.5223
-2.8676 ओमरौन -0.5211
-2.5665 हनुमान -0.5217
-2.8676 बैग -0.5067
-2.8676 बुढ़ापा -0.5223
-2.8676 खरबूजे -0.5067
-2.8676 शिक्षा -0.4589
-2.8676 शारीरिक -0.5223
-2.8676 मटीरियल -0.4589
-2.8676 रक्त -0.5223
-2.8676 मोज़े -0.4589
-2.8676 अथर्वशीर्ष -0.4589
-2.8676 डोसा -0.5211
-2.8676 गाइड -0.4589
-2.5665 प्लेयर -0.4589
-2.8676 ज्योतिष -0.5217
-1.5251 लिए -0.4485
-2.8676 गार्ड्स -0.4589
-2.2655 से -0.5187
-2.8676 मॉनिटर -0.4589
-2.8676 सामान -0.4589
-2.8676 नौ -0.5217
-2.8676 प्रोसेसर -0.4589
-2.8676 बजेट -0.5223
-2.8676 रस -0.5211
-2.8676 स्कूली -0.5223
-2.5665 ज्यादा -0.4561
-2.8676 काटने -0.5067
-2.8676 शक्ति -0.5199
-2.8676 विकास -0.5217
-2.5665 साथ -0.4589
-2.8676 अन्य -0.5217
-2.8676 मोटापा -0.5223
-2.8676 नाश्ता -0.4589
-2.8676 पारिवारिक -0.5223
-2.8676 रत्न -0.5217
-2.8676 जन्मदिन -0.5199
-2.8676 ना -0.5223
-2.8676 ऋतू -0.4589
-2.8676 बच्चों -0.5067
-2.8676 प्रेशर -0.5223
-2.8676 रोगियों -0.5067
-2.8676 जूते -0.4589
-2.8676 आगे -0.5223
-2.8676 स्टील -0.5223
-2.8676 दुर्गा -0.5223
-2.8676 ग्रीष्म -0.5223
-2.8676 बढ़ाएं -0.4589
-2.8676 तंदूर -0.4589
-2.8676 उंचाई -0.5217
-2.8676 वाहन -0.4589
-2.8676 बॉटल -0.4589
-2.1686 का -0.5199
-2.8676 पुस्तकें -0.4589
-2.8676 गोल्डन -0.5223
-2.5665 रुपये -0.5193
-2.5665 प्रूफ़ -0.4589
-2.8676 बिजली -0.5067
-2.8676 वस्तुएं -0.4589
-2.8676 डीलिंक -0.5223
-2.8676 घटाने -0.5067
-2.8676 चिपकने -0.5223
-2.8676 नैवीगेशन -0.5211
-2.8676 पेय -0.4589
-2.5665 जी -0.5211
-2.8676 राऊटर्स -0.4589
-2.8676 करें -0.4589
-2.8676 इन्श्यूरैंस -0.4589
-2.8676 वॉरंटी -0.5211
-2.8676 देखभाल -0.5067
-2.8676 व्यक्तियों -0.5067
-2.8676 शनि -0.5223
-2.5665 ऐस -0.4582
-2.8676 दुग्ध -0.5223
-2.8676 फ़ोन -0.4589
-2.8676 माइक्रोवेव -0.5223
-2.8676 तिजोरी -0.4589
-2.8676 बोर्ड -0.5067
-2.8676 याददाश्त -0.5217
-2.8676 मल्टीमीडिया -0.5223
-2.8676 एक्यूप्रैशर -0.5199
-2.8676 वी -0.4589
-2.8676 विदेश -0.5223
-2.8676 सप्तशती -0.4589
-2.8676 अंक -0.5223
-2.8676 बाल -0.5223
-2.8676 व्यापारिक -0.5223
-2.8676 साहित्य -0.4589
-2.8676 वाला -0.5211
-2.8676 बर्फी -0.4589
-2.8676 लम्बे -0.5223
-2.8676 पांच -0.5223
-2.8676 चोली -0.4589
-2.8676 नकद -0.5223
-2.8676 भुगतान -0.4589
-2.8676 चॉकलेट -0.5223
-2.8676 पदार्थ -0.4589
-2.8676 प्रतिस्पर्धात्मक -0.5223
-2.3904 पी -0.5205
-2.8676 पूजा -0.5217
-2.8676 ट्यूबलैस -0.5223
-2.5665 थ्री -0.4575
-2.8676 सॉस -0.4589
-2.8676 इडली -0.5211
-2.8676 दस -0.5223
-2.8676 चनिया -0.5223
-2.8676 पोषण -0.4589
-2.3904 तवा -0.4568
-2.5665 बढ़ाने -0.5067
-2.8676 वर्ष -0.5205
-2.8676 बिस्कुट्स -0.4589
-2.8676 प्राप्ति -0.5223
-2.8676 परीक्षाओं -0.5067
-2.8676 भोजन -0.4589
-2.5665 वॉटर -0.5211
-2.5665 सामग्री -0.4589
-2.8676 सेफ -0.4589
-2.8676 रक्षा -0.5217
-2.8676 डिलीवरी -0.4589
-2.8676 पीछे -0.5223
-2.8676 थैले -0.5067
-2.8676 पिस्ता -0.5223
-2.8676 जे -0.5217
-2.5665 मशीन -0.4589
-2.8676 बढ़िये -0.4589
-2.8676 फैशन -0.4589
-2.8676 नया -0.5223
-2.8676 आयबॉल -0.5223
-2.8676 मोबाइल -0.5223
-2.8676 गणित -0.5067
-2.3904 की -0.5205
-2.8676 औज़ार -0.4589

\2-grams:
-0.1549 चाक़ू </s> -0.5229
-2.1592 <s> पूजा -0.0000
-0.1549 लंच बॉक्स -0.0000
-0.4559 लिए </s> -0.5229
-0.1549 नाश्ता </s> -0.5229
-0.4559 कैसे बढ़ाएं -0.0000
-0.1549 चॉकलेट सॉस -0.0000
-0.1549 बढ़िये </s> -0.5229
-2.1592 <s> दुर्गा -0.0000
-0.1549 पारिवारिक पोषण -0.0000
-0.1549 इडली बनाने -0.0000
-0.1549 साहित्य </s> -0.5229
-0.1549 बच्चों के -0.1560
-2.1592 <s> बैग -0.0000
-0.1549 बढ़ाएं </s> -0.5229
-2.1592 <s> मल्टीमीडिया -0.0000
-1.4973 लिए मोज़े -0.0000
-0.1549 जूते </s> -0.5229
-0.1549 आज की -0.4075
-2.1592 <s> उंचाई -0.0000
-2.1592 <s> वायरलेस -0.0000
-2.1592 <s> ज्योतिष -0.0000
-0.1549 गोल्डन स्टील -0.0000
-0.1549 कथा साहित्य -0.0000
-0.1549 ना चिपकने -0.0000
-0.4559 शीतल फैशन -0.0000
-0.1549 सुबह का -0.4574
-0.1549 लिक प्रूफ़ -0.0000
-2.1592 <s> जीवन -0.0000
-0.1549 प्लेयर </s> -0.5229
-0.4559 यंत्र </s> -0.5229
-0.1549 सॉस </s> -0.5229
-2.1592 <s> चटनी -0.0000
-1.5863 के बीज -0.0000
-0.1549 पदार्थ </s> -0.5229
-0.1549 उपहार </s> -0.5229
-2.1592 <s> रस -0.0000
-0.3310 पी ऐस -0.0000
-0.1549 रक्त शर्करा -0.0000
-0.1549 खासीयत </s> -0.5229
-0.3310 वज़न करने -0.3358
-0.4559 ऐस नैवीगेशन -0.0000
-0.1549 जी पी -0.2499
-0.1549 बिस्कुट्स </s> -0.5229
-2.1592 <s> ज़ोलो -0.0000
-0.1549 औज़ार </s> -0.5229
-0.1549 परामर्श </s> -0.5229
-0.1549 सामान </s> -0.5229
-0.1549 टी वी -0.0000
-2.1592 <s> पांच -0.0000
-0.1549 कॉटन सिल्क -0.0000
-0.1549 इन्श्यूरैंस </s> -0.5229
-0.1549 डीलिंक राऊटर्स -0.0000
-0.1549 सुरक्षित तिजोरी -0.0000
-0.1549 खरबूजे के -0.5115
-0.1549 याददाश्त कैसे -0.3358
-0.1549 जे थ्री -0.3358
-0.1549 ट्यूबलैस टायर -0.0000
-0.7570 कम से -0.4393
-0.1549 चॉपर </s> -0.5229
-2.1592 <s> माइक्रोमैक्स -0.0000
-0.1549 बीमा </s> -0.5229
-0.1549 डिलीवरी </s> -0.5229
-0.1549 सब्जी काटने -0.0000
-0.1549 डोसा तवा -0.2499
-0.6320 की गाड़ियाँ -0.0000
-0.1549 थैले के -0.4998
-0.4559 करने के -0.1560
-0.1549 गाइड </s> -0.5229
-0.4559 वॉटर बॉटल -0.0000
-2.1592 <s> स्मरण -0.0000
-0.6320 तवा और -0.4075
-0.7570 से लेकर -0.0000
-0.1549 तिजोरी </s> -0.5229
-0.4559 रुपये तक -0.0000
-0.1549 प्रतिस्पर्धात्मक परीक्षाओं -0.0000
-0.1549 किताबें </s> -0.5229
-0.1549 टायर </s> -0.5229
-0.1549 फ़ूड प्रोसेसर -0.0000
-0.1549 मोज़े </s> -0.5229
-0.1549 काले करने -0.3358
-0.1549 शनि रक्षा -0.0000
-0.1549 सीखने के -0.1560
-0.1549 तंदूर </s> -0.5229
-2.1592 <s> ऐम -0.0000
-0.1549 वॉरंटी और -0.4075
-0.1549 चनिया चोली -0.0000
-2.1592 <s> प्राप्ति -0.0000
-0.7570 कम करने -0.3358
-2.1592 <s> आयबॉल -0.0000
-0.1549 बजेट मोबाइल -0.0000
-2.1592 <s> एक्यूप्रैशर -0.0000
-2.1592 <s> डोसा -0.0000
-2.1592 <s> ज्यादा -0.3358
-2.1592 <s> विदेश -0.0000
-0.4559 हनुमान शनि -0.0000
-0.1549 किराए की -0.4075
-2.1592 <s> आगे -0.0000
-0.1549 काटने के -0.1560
-1.4973 लिए यन्त्र -0.0000
-1.4973 लिए वस्तुएं -0.0000
-0.1549 बॉटल </s> -0.5229
-2.1592 <s> बुढ़ापा -0.0000
-0.1549 पिस्ता बर्फी -0.0000
-2.1592 <s> चर्बी -0.0000
-0.1549 प्राप्ति पर -0.0000
-1.4973 लिए चाक़ू -0.0000
-0.1549 बॉक्स </s> -0.5229
-2.1592 <s> दस -0.0000
-1.8582 <s> वज़न -0.0000
-1.4973 लिए उपकरण -0.0000
-0.1549 रिपीटर </s> -0.5229
-0.6320 की मशीन -0.0000
-0.1549 वस्तुएं </s> -0.5229
-0.4559 यंत्र सामग्री -0.0000
-0.4559 ऐस </s> -0.5229
-0.1549 जाइए </s> -0.5229
-0.1549 बुढ़ापा रोकने -0.0000
-2.1592 <s> दिल्ली -0.0000
-0.1549 रत्न परामर्श -0.0000
-1.8582 <s> पैनासोनिक -0.0000
-0.1549 बाल काले -0.0000
-0.1549 माइक्रोमैक्स स्पार्क -0.0000
-0.1549 मोबाइल नौ -0.0000
-0.1549 आदमियों के -0.1560
-0.1549 सप्तशती </s> -0.5229
-0.1549 चटनी बनाने -0.0000
-0.1549 विकास कैसे -0.3358
-2.1592 <s> अंक -0.0000
-0.1549 चिपकने वाला -0.0000
-0.1549 शरबत और -0.4075
-2.1592 <s> खरबूजे -0.0000
-0.1549 काँटा </s> -0.5229
-0.1549 संध्या </s> -0.5229
-0.7570 करने की -0.4075
-0.1549 शर्करा नापने -0.0000
-0.1549 करें </s> -0.5229
-0.1549 थर्मामीटर </s> -0.5229
-0.2438 के लिए -0.0000
-0.1549 बर्फी </s> -0.5229
-1.4973 लिए किताबें -0.0000
-0.4559 थ्री प्लेयर -0.0000
-1.4973 लिए गाइड -0.0000
-0.1549 मशीन </s> -0.5229
-0.1549 गाड़ियाँ </s> -0.5229
-0.1549 प्रूफ़ </s> -0.5229
-0.6320 वज़न बढ़ाने -0.0000
-0.1549 रात्रि भोजन -0.0000
-2.1592 <s> दुग्ध -0.0000
-2.1592 <s> ग्रीष्म -0.0000
-0.1549 स्टील वॉच -0.0000
-0.1549 रस बनाने -0.0000
-0.1549 वाहन </s> -0.5229
-0.1549 आयबॉल गैजेट्स -0.0000
-0.1549 रोकने के -0.1560
-0.1549 वाला तवा -0.2499
-0.1549 ब्लड प्रेशर -0.0000
-0.1549 भोजन </s> -0.5229
-0.1549 प्रोसेसर </s> -0.5229
-0.1549 नया आगमन -0.0000
-0.1549 मेटल बॉक्स -0.0000
-2.1592 <s> लिक -0.0000
-0.1549 आगमन </s> -0.5229
-0.1549 पोषण </s> -0.5229
-2.1592 <s> प्रोटीन -0.0000
-0.1549 सिल्क ड्रैस -0.0000
-0.1549 रोगियों के -0.1560
-0.1549 बोर्ड के -0.1560
-0.4559 हनुमान चालीसा -0.0000
-2.1592 <s> कथा -0.0000
-0.1549 ज़ोलो फ़ोन -0.0000
-0.1549 पांच सौ -0.0000
-2.1592 <s> मुफ्त -0.0000
-2.1592 <s> चनिया -0.0000
-0.1549 चालीसा </s> -0.5229
-0.1549 पुस्तकें </s> -0.5229
-0.1549 कढ़ाई </s> -0.5229
-0.1549 स्पार्क जे -0.0000
-0.1549 बनाने के -0.1560
-0.1549 बढ़ाने के -0.1560
-0.1549 बैग के -0.4998
-2.1592 <s> बाल -0.0000
-2.1592 <s> तंदूर -0.0000
-0.1549 दिल्ली बोर्ड -0.0000
-0.1549 शारीरिक देखभाल -0.0000
-0.1549 नकद भुगतान -0.0000
-0.1549 यन्त्र </s> -0.5229
-0.1549 मॉनिटर </s> -0.5229
-0.4559 डीवीडी प्लेयर -0.0000
-1.4973 लिए पुस्तकें -0.0000
-2.1592 <s> रक्त -0.0000
-0.6320 और अन्य -0.0000
-1.4973 लिए मशीन -0.0000
-0.1549 नैवीगेशन उपकरण -0.0000
-2.1592 <s> गोल्डन -0.0000
-0.1549 अथर्वशीर्ष </s> -0.5229
-0.1549 माइक्रोवेव सेफ -0.0000
-2.1592 <s> कॉटन -0.0000
-0.1549 ऋतू </s> -0.5229
-0.1549 दस वर्ष -0.0000
-2.1592 <s> सुबह -0.0000
-0.1549 रक्षा यंत्र -0.3358
-0.1549 सेफ </s> -0.5229
-0.1549 फ़ोन </s> -0.5229
-0.1549 अति सुरक्षित -0.0000
-2.1592 <s> अति -0.0000
-0.6320 और इन्श्यूरैंस -0.0000
-0.4559 पैनासोनिक टी -0.0000
-2.1592 <s> शरबत -0.0000
-0.1549 स्कूली बच्चों -0.0000
-0.1549 स्मरण शक्ति -0.0000
-0.1549 सौ रुपये -0.3358
-2.1592 <s> मधुमेह -0.0000
-2.1592 <s> लम्बे -0.0000
-0.1549 लेकर हज़ार -0.3358
-0.1549 गणित के -0.1560
-2.1592 <s> नया -0.0000
-0.1549 भजन संध्या -0.0000
-0.8539 का नाश्ता -0.0000
-2.1592 <s> पीछे -0.0000
-0.1549 घटाने के -0.1560
-2.1592 <s> रात्रि -0.0000
-2.1592 <s> अनारकली -0.0000
-2.1592 <s> मोटापा -0.0000
-0.1549 अनारकली </s> -0.5229
-2.1592 <s> तवा -0.4075
-0.1549 उम्र के -0.1560
-2.1592 <s> चॉपर -0.0000
-0.1549 परीक्षाओं के -0.1560
-2.1592 <s> कार -0.0000
-0.1549 फैशन </s> -0.5229
-0.1549 मोटरगाड़ी </s> -0.5229
-0.1549 वी </s> -0.5229
-1.4973 लिए जूते -0.0000
-2.1592 <s> शीतल -0.3358
-0.1549 तक </s> -0.5229
-0.1549 चोली </s> -0.5229
-0.1549 अंक गणित -0.0000
-2.1592 <s> आदमियों -0.0000
-0.1549 बीज </s> -0.5229
-0.1549 जन्मदिन का -0.4574
-2.1592 <s> औज़ार -0.0000
-0.1549 मिल्टन लंच -0.0000
-0.1549 साथ </s> -0.5229
-0.1549 उंचाई बढ़ाने -0.0000
-0.4559 हज़ार रुपये -0.3358
-2.1592 <s> प्रतिस्पर्धात्मक -0.0000
-0.1549 शिक्षा </s> -0.5229
-2.1592 <s> सब्जी -0.0000
-0.4559 कैसे करें -0.0000
-0.1549 प्रोटीन बिस्कुट्स -0.0000
-0.1549 दौड़ने के -0.1560
-2.1592 <s> माइक्रोवेव -0.0000
-0.1549 देखभाल के -0.1560
-0.4559 शीतल पेय -0.0000
-2.1592 <s> फ़ूड -0.0000
-2.1592 <s> थैले -0.0000
-0.7570 करने का -0.4574
-0.1549 जीवन बीमा -0.0000
-0.1549 उपकरण </s> -0.5229
-0.1549 मल्टीमीडिया सीखने -0.0000
-0.6320 और कढ़ाई -0.0000
-0.1549 कार जी -0.0000
-0.1549 पुर्जे </s> -0.5229
-0.1549 गणेश अथर्वशीर्ष -0.0000
-0.1549 बिजली के -0.5115
-0.1549 दुर्गा सप्तशती -0.0000
-0.8539 का विकास -0.0000
-0.1549 प्रेशर मॉनिटर -0.0000
-0.1549 ग्रीष्म ऋतू -0.0000
-0.1549 पर नकद -0.0000
-0.1549 आगे बढ़िये -0.0000
-2.1592 <s> मोटरगाड़ी -0.0000
-0.1549 ऐम पी -0.4075
-0.1549 वायरलेस रिपीटर -0.0000
-2.1592 <s> भजन -0.0000
-2.1592 <s> ओमरौन -0.0000
-2.1592 <s> बजेट -0.0000
-2.1592 <s> याददाश्त -0.0000
-2.1592 <s> जन्मदिन -0.0000
-0.1549 विदेश शिक्षा -0.0000
-2.1592 <s> ब्लड -0.0000
-0.6320 पी थ्री -0.3358
-2.1592 <s> स्कूली -0.0000
-2.1592 <s> यंत्र -0.3358
-0.4559 पैनासोनिक डीवीडी -0.3358
-2.1592 <s> मेटल -0.0000
-2.1592 <s> आज -0.0000
-1.2852 के साथ -0.0000
-2.1592 <s> थर्मामीटर -0.0000
-0.1549 पीछे जाइए -0.0000
-2.1592 <s> ट्यूबलैस -0.0000
-0.1549 चलते पुर्जे -0.0000
-0.1549 लम्बे व्यक्तियों -0.0000
-2.1592 <s> पारिवारिक -0.0000
-2.1592 <s> गणेश -0.0000
-0.4559 ज्यादा </s> -0.5229
-0.8539 का काँटा -0.0000
-0.1549 वर्ष से -0.3358
-0.7570 से ज्यादा -0.3358
-0.4559 हज़ार तक -0.0000
-0.6320 की खासीयत -0.0000
-0.1549 भुगतान </s> -0.5229
-0.1549 गैजेट्स </s> -0.5229
-2.1592 <s> शारीरिक -0.0000
-2.1592 <s> वॉरंटी -0.0000
-0.3310 तवा </s> -0.5229
-0.1549 व्यक्तियों के -0.1560
-0.1549 मुफ्त डिलीवरी -0.0000
-0.1549 व्यापारिक वाहन -0.0000
-2.1592 <s> व्यापारिक -0.0000
-2.1592 <s> इडली -0.0000
-0.4559 से कम -0.3358
-0.1549 दुग्ध पदार्थ -0.0000
-1.8582 <s> वॉटर -0.0000
-0.1549 ड्रैस मटीरियल -0.0000
-2.1592 <s> कम -0.4393
-0.1549 एक्यूप्रैशर का -0.4574
-0.1549 वॉच </s> -0.5229
-0.4559 ज्यादा से -0.3358
-0.1549 नापने के -0.1560
-0.4559 वॉटर प्रूफ़ -0.0000
-0.1549 ओमरौन वज़न -0.2499
-0.1549 ज्योतिष परामर्श -0.0000
-1.8582 <s> हनुमान -0.0000
-0.1549 चर्बी कम -0.4393
-1.5863 के उपकरण -0.0000
-0.1549 मटीरियल </s> -0.5229
-2.1592 <s> स्क्रीन -0.0000
-0.4559 रुपये से -0.4393
-2.1592 <s> डीलिंक -0.0000
-2.1592 <s> मिल्टन -0.0000
-0.1549 अन्य शीतल -0.3358
-0.7570 कम उम्र -0.0000
-2.1592 <s> बिजली -0.0000
-2.1592 <s> ना -0.0000
-0.1549 राऊटर्स </s> -0.5229
-0.1549 पूजा सामग्री -0.0000
-0.1549 सामग्री </s> -0.5229
-0.1549 स्क्रीन गार्ड्स -0.0000
-0.1549 मधुमेह के -0.5115
-2.1592 <s> चलते -0.0000
-2.1592 <s> पिस्ता -0.0000
-0.1549 गार्ड्स </s> -0.5229
-2.1592 <s> रत्न -0.0000
-0.8539 का उपहार -0.0000
-0.1549 मोटापा घटाने -0.0000
-0.7570 कम </s> -0.5229
-0.4559 डीवीडी </s> -0.5229
-0.4559 थ्री </s> -0.5229
-0.8539 का सामान -0.0000
-1.4973 लिए डीवीडी -0.3358
-2.1592 <s> किराए -0.0000
-1.5863 के रोगियों -0.0000
-2.1592 <s> दौड़ने -0.0000
-2.1592 <s> चॉकलेट -0.0000
-0.1549 नौ हज़ार -0.3358
-0.1549 शक्ति का -0.4574
-2.1592 <s> जी -0.0000
-0.1549 पेय </s> -0.5229

\3-grams:
-0.1549 आदमियों के लिए
-0.1549 प्राप्ति पर नकद
-0.1549 <s> पांच सौ
-0.1549 <s> मेटल बॉक्स
-0.1549 लिए डीवीडी </s>
-0.1549 <s> ज्यादा से
-0.1549 <s> प्रोटीन बिस्कुट्स
-0.1549 आज की खासीयत
-0.1549 रक्षा यंत्र </s>
-0.1549 <s> यंत्र सामग्री
-0.1549 दिल्ली बोर्ड के
-0.1549 रुपये से लेकर
-0.1549 वॉटर बॉटल </s>
-0.1549 व्यक्तियों के लिए
-0.1549 सीखने के लिए
-0.1549 <s> ग्रीष्म ऋतू
-0.1549 शनि रक्षा यंत्र
-0.4559 <s> पैनासोनिक टी
-0.4559 <s> वज़न करने
-1.4973 के लिए गाइड
-0.1549 कम करने के
-0.4559 से कम उम्र
-0.1549 <s> कॉटन सिल्क
-0.1549 <s> मुफ्त डिलीवरी
-0.1549 स्कूली बच्चों के
-0.1549 बिजली के उपकरण
-0.1549 <s> पिस्ता बर्फी
-0.1549 गोल्डन स्टील वॉच
-1.4973 के लिए जूते
-0.1549 बढ़ाने के लिए
-0.1549 बोर्ड के लिए
-0.1549 डीवीडी प्लेयर </s>
-0.1549 <s> दस वर्ष
-0.1549 <s> वॉरंटी और
-0.1549 बनाने के लिए
-1.4973 के लिए मशीन
-0.1549 <s> शारीरिक देखभाल
-0.1549 बैग के साथ
-0.1549 का सामान </s>
-0.1549 पीछे जाइए </s>
-0.1549 <s> आगे बढ़िये
-0.1549 <s> सब्जी काटने
-0.1549 <s> गणेश अथर्वशीर्ष
-0.1549 <s> रत्न परामर्श
-0.1549 नैवीगेशन उपकरण </s>
-0.4559 <s> वॉटर बॉटल
-0.1549 <s> चॉकलेट सॉस
-0.1549 <s> नया आगमन
-0.1549 <s> पूजा सामग्री
-0.1549 <s> बजेट मोबाइल
-0.1549 जे थ्री </s>
-0.1549 कॉटन सिल्क ड्रैस
-0.1549 बुढ़ापा रोकने के
-1.4973 के लिए मोज़े
-0.1549 <s> सुबह का
-0.1549 <s> किराए की
-0.1549 तवा और कढ़ाई
-0.1549 चॉकलेट सॉस </s>
-0.1549 कैसे बढ़ाएं </s>
-0.1549 <s> उंचाई बढ़ाने
-0.1549 <s> प्राप्ति पर
-0.1549 लिए जूते </s>
-0.1549 <s> चटनी बनाने
-0.1549 <s> ऐम पी
-0.1549 कम उम्र के
-1.4973 के लिए उपकरण
-0.1549 वाला तवा </s>
-0.1549 ज़ोलो फ़ोन </s>
-0.1549 <s> इडली बनाने
-0.1549 पारिवारिक पोषण </s>
-1.4973 के लिए पुस्तकें
-0.1549 शारीरिक देखभाल के
-0.1549 <s> अति सुरक्षित
-0.1549 <s> स्कूली बच्चों
-0.1549 गणेश अथर्वशीर्ष </s>
-0.1549 लिए पुस्तकें </s>
-0.1549 करने का काँटा
-0.1549 पर नकद भुगतान
-0.1549 खरबूजे के बीज
-1.4973 के लिए डीवीडी
-0.1549 <s> विदेश शिक्षा
-0.1549 ऐस नैवीगेशन उपकरण
-0.1549 <s> जन्मदिन का
-0.1549 भजन संध्या </s>
-0.1549 <s> चलते पुर्जे
-0.1549 <s> पारिवारिक पोषण
-0.1549 <s> व्यापारिक वाहन
-0.1549 <s> गोल्डन स्टील
-0.1549 <s> कम से
-0.1549 <s> शरबत और
-0.1549 मुफ्त डिलीवरी </s>
-0.1549 लिए यन्त्र </s>
-0.1549 की खासीयत </s>
-0.1549 विदेश शिक्षा </s>
-0.1549 लेकर हज़ार रुपये
-0.1549 <s> बुढ़ापा रोकने
-0.1549 स्पार्क जे थ्री
-0.1549 <s> दौड़ने के
-0.1549 परीक्षाओं के लिए
-0.1549 <s> तंदूर </s>
-0.1549 अन्य शीतल पेय
-0.1549 <s> लिक प्रूफ़
-0.1549 <s> बैग के
-0.1549 <s> माइक्रोवेव सेफ
-0.4559 <s> वज़न बढ़ाने
-0.4559 पी ऐस नैवीगेशन
-0.1549 लिए गाइड </s>
-0.1549 <s> पीछे जाइए
-0.1549 ज्यादा से कम
-0.1549 <s> आयबॉल गैजेट्स
-0.1549 रुपये तक </s>
-0.1549 कथा साहित्य </s>
-0.1549 <s> दुर्गा सप्तशती
-0.4559 <s> हनुमान चालीसा
-0.1549 एक्यूप्रैशर का सामान
-0.1549 की गाड़ियाँ </s>
-0.1549 करने की मशीन
-0.1549 के उपकरण </s>
-0.1549 <s> याददाश्त कैसे
-0.1549 <s> तवा और
-0.1549 <s> स्मरण शक्ति
-0.1549 जीवन बीमा </s>
-0.1549 पी थ्री प्लेयर
-0.1549 <s> ज़ोलो फ़ोन
-0.1549 <s> थैले के
-0.1549 दुर्गा सप्तशती </s>
-0.1549 दुग्ध पदार्थ </s>
-0.1549 फ़ूड प्रोसेसर </s>
-0.1549 <s> ओमरौन वज़न
-0.1549 लिए वस्तुएं </s>
-0.1549 <s> दुग्ध पदार्थ
-0.1549 वायरलेस रिपीटर </s>
-0.1549 <s> जी पी
-0.1549 किराए की गाड़ियाँ
-0.1549 <s> रात्रि भोजन
-0.4559 वज़न करने का
-0.1549 <s> भजन संध्या
-0.1549 बजेट मोबाइल नौ
-0.1549 <s> चॉपर </s>
-0.1549 आयबॉल गैजेट्स </s>
-0.4559 से कम </s>
-0.1549 चिपकने वाला तवा
-0.1549 पूजा सामग्री </s>
-0.1549 <s> माइक्रोमैक्स स्पार्क
-0.1549 <s> चर्बी कम
-0.1549 <s> डोसा तवा
-0.1549 और अन्य शीतल
-0.1549 <s> मोटापा घटाने
-0.1549 <s> एक्यूप्रैशर का
-1.4973 के लिए वस्तुएं
-0.1549 <s> डीलिंक राऊटर्स
-0.1549 माइक्रोवेव सेफ </s>
-0.1549 लंच बॉक्स </s>
-0.1549 नया आगमन </s>
-0.1549 <s> ज्योतिष परामर्श
-0.1549 रत्न परामर्श </s>
-0.1549 <s> औज़ार </s>
-1.4973 के लिए चाक़ू
-0.1549 हनुमान शनि रक्षा
-0.4559 <s> हनुमान शनि
-0.1549 से लेकर हज़ार
-0.1549 टी वी </s>
-0.1549 नापने के लिए
-0.1549 लिए मोज़े </s>
-0.1549 सिल्क ड्रैस मटीरियल
-0.1549 प्रतिस्पर्धात्मक परीक्षाओं के
-0.1549 का काँटा </s>
-0.1549 कम से ज्यादा
-0.1549 लिए उपकरण </s>
-0.1549 रात्रि भोजन </s>
-0.1549 <s> मिल्टन लंच
-0.1549 जी पी ऐस
-0.1549 डीलिंक राऊटर्स </s>
-0.1549 <s> प्रतिस्पर्धात्मक परीक्षाओं
-0.1549 <s> दिल्ली बोर्ड
-0.1549 का विकास कैसे
-0.1549 नकद भुगतान </s>
-0.1549 <s> आदमियों के
-0.1549 उम्र के लिए
-0.1549 दौड़ने के लिए
-0.1549 का उपहार </s>
-0.1549 मल्टीमीडिया सीखने के
-0.1549 जन्मदिन का उपहार
-0.1549 शीतल फैशन </s>
-0.1549 लिक प्रूफ़ </s>
-0.1549 प्रोटीन बिस्कुट्स </s>
-0.1549 <s> वायरलेस रिपीटर
-0.1549 <s> मधुमेह के
-0.1549 चटनी बनाने के
-0.1549 से ज्यादा </s>
-0.1549 स्मरण शक्ति का
-0.1549 देखभाल के लिए
-0.1549 मोटापा घटाने के
-0.1549 पांच सौ रुपये
-0.1549 <s> स्क्रीन गार्ड्स
-0.1549 मिल्टन लंच बॉक्स
-0.1549 उंचाई बढ़ाने के
-0.1549 मधुमेह के रोगियों
-0.1549 <s> अंक गणित
-0.1549 <s> मोटरगाड़ी </s>
-0.1549 लिए मशीन </s>
-0.1549 वॉरंटी और इन्श्यूरैंस
-0.1549 यंत्र सामग्री </s>
-0.1549 कार जी पी
-0.1549 के बीज </s>
-0.1549 शरबत और अन्य
-0.1549 घटाने के लिए
-0.1549 रक्त शर्करा नापने
-0.1549 हनुमान चालीसा </s>
-0.1549 प्रेशर मॉनिटर </s>
-0.1549 पिस्ता बर्फी </s>
-0.1549 काटने के लिए
-0.1549 करने के लिए
-0.1549 ना चिपकने वाला
-0.1549 <s> फ़ूड प्रोसेसर
-0.1549 ड्रैस मटीरियल </s>
-0.1549 ओमरौन वज़न करने
-0.1549 शीतल पेय </s>
-0.1549 गणित के लिए
-0.1549 वज़न बढ़ाने के
-0.1549 <s> कथा साहित्य
-0.4559 पी ऐस </s>
-0.1549 माइक्रोमैक्स स्पार्क जे
-0.1549 के रोगियों के
-0.1549 <s> शीतल फैशन
-0.1549 नौ हज़ार तक
-0.1549 ग्रीष्म ऋतू </s>
-0.1549 शर्करा नापने के
-0.4559 के लिए </s>
-0.1549 और इन्श्यूरैंस </s>
-0.1549 रोगियों के लिए
-0.1549 पैनासोनिक डीवीडी प्लेयर
-0.1549 विकास कैसे करें
-0.1549 का नाश्ता </s>
-0.1549 <s> थर्मामीटर </s>
-0.1549 <s> ना चिपकने
-0.1549 <s> बाल काले
-1.4973 के लिए किताबें
-0.1549 चर्बी कम करने
-0.1549 ट्यूबलैस टायर </s>
-0.1549 <s> रक्त शर्करा
-0.1549 बच्चों के लिए
-0.1549 चलते पुर्जे </s>
-0.1549 <s> लम्बे व्यक्तियों
-0.1549 आगे बढ़िये </s>
-0.1549 हज़ार रुपये तक
-0.1549 वॉटर प्रूफ़ </s>
-0.1549 लम्बे व्यक्तियों के
-0.1549 लिए किताबें </s>
-0.1549 डोसा तवा </s>
-0.4559 <s> पैनासोनिक डीवीडी
-0.1549 <s> कार जी
-0.1549 व्यापारिक वाहन </s>
-0.1549 <s> ट्यूबलैस टायर
-0.1549 <s> आज की
-0.1549 काले करने के
-0.1549 स्टील वॉच </s>
-0.1549 <s> ब्लड प्रेशर
-0.1549 <s> खरबूजे के
-0.1549 दस वर्ष से
-1.4973 के लिए यन्त्र
-0.1549 रस बनाने के
-0.1549 <s> चनिया चोली
-0.1549 रोकने के लिए
-0.1549 और कढ़ाई </s>
-0.1549 की मशीन </s>
-0.4559 <s> वॉटर प्रूफ़
-0.1549 सुबह का नाश्ता
-0.1549 ऐम पी थ्री
-0.1549 इडली बनाने के
-0.1549 सुरक्षित तिजोरी </s>
-0.1549 अति सुरक्षित तिजोरी
-0.1549 अंक गणित के
-0.1549 कैसे करें </s>
-0.1549 ज्योतिष परामर्श </s>
-0.1549 सब्जी काटने के
-0.1549 चनिया चोली </s>
-0.1549 <s> अनारकली </s>
-0.1549 के साथ </s>
-0.4559 वज़न करने की
-0.1549 स्क्रीन गार्ड्स </s>
-0.1549 हज़ार तक </s>
-0.1549 पैनासोनिक टी वी
-0.1549 सौ रुपये से
-0.1549 <s> बिजली के
-0.1549 वर्ष से कम
-0.1549 याददाश्त कैसे बढ़ाएं
-0.1549 थैले के साथ
-0.1549 <s> जीवन बीमा
-0.1549 थ्री प्लेयर </s>
-0.1549 बाल काले करने
-0.1549 ब्लड प्रेशर मॉनिटर
-0.1549 मोबाइल नौ हज़ार
-0.1549 मेटल बॉक्स </s>
-0.1549 शक्ति का विकास
-0.1549 लिए चाक़ू </s>
-0.1549 <s> रस बनाने
-0.1549 <s> मल्टीमीडिया सीखने

\end\
