\data\
ngram 1=636
ngram 2=845
ngram 3=767

\1-grams:
-1.1245 <s> -0.5476
-3.1245 ಯುಫ್ರೆಟಿಸ್ -0.5948
-1.7821 ಮತ್ತು -0.5925
-3.1245 ಟ್ರೈಗ್ರಿಸ್ -0.6017
-3.1245 ನದಿಗಳ -0.6017
-3.1245 ಸಂಗಮದ -0.6017
-3.1245 ಕಿರಿದಾದ -0.6017
-3.1245 ಸ್ಥಳದಲ್ಲಿ -0.6017
-3.1245 ದುರ್ಕುರಿಗಲ್ಜು -0.6008
-2.5224 ಎನ್ನುವ -0.6004
-3.1245 ನಗರವೊಂದನ್ನು -0.6014
-2.8235 ಕಸ್ಸೈಟರು -0.6011
-3.1245 ನಿರ್ಮಿಸಿದರು -0.5682
-1.1245 </s> -0.6021
-3.1245 ಆದುದರಿಂದಲೇ -0.6011
-2.6474 ಮುಂದಿನ -0.6011
-3.1245 ದಿನಗಳಲ್ಲಿ -0.6017
-3.1245 ಕ್ರಾಂತಿಯ -0.6017
-3.1245 ರಕ್ಷಣೆಗೆ -0.6014
-2.8235 ಅವರು -0.6014
-3.1245 ಕಂಕಣಬದ್ಧರಾದರು -0.5682
-2.8235 ಮೆಸಪಟೋಮಿಯ -0.6011
-2.8235 ಎಂಬ -0.6014
-3.1245 ಶಬ್ದವನ್ನು -0.6014
-2.8235 ಪುರಾತನ -0.6011
-3.1245 ಗ್ರೀಕರು -0.6017
-3.1245 ಸೃಷ್ಟಿಸಿರುತ್ತಾರೆ -0.5682
-3.1245 ಸ್ವತಂತ್ರವಾಗಿ -0.6017
-3.1245 ಸಮಾನತೆಯ -0.6017
-3.1245 ಬಾಳ್ವೆಯ -0.6017
-3.1245 ಹಳ್ಳಿ -0.6014
-2.8235 ಜೀವನದ -0.6014
-3.1245 ಕಾಲದಿಂದ -0.6017
-3.1245 ಸಾಮಾಜಿಕವಾಗಿ -0.6017
-3.1245 ಶ್ರೇಣೀಕರಿಸಿದ -0.6011
-2.6474 ನಗರ -0.6008
-3.1245 ರಾಜಕೀಯ -0.6017
-3.1245 ಜೀವನವು -0.6017
-3.1245 ಉಗಮವಾಯಿತು -0.5682
-1.8941 ಈ -0.5912
-3.1245 ಕಾರಣಕ್ಕಾಗಿ -0.6017
-3.1245 ಉತ್ತರದ -0.6014
-2.8235 ಭಾಗದಲ್ಲಿ -0.6014
-3.1245 ವಾಸವಾಗಿದ್ದ -0.6017
-3.1245 ಎಲಮೈಟರನ್ನು -0.6017
-3.1245 ಹೊಡೆದು -0.6017
-3.1245 ಓಡಿಸಿದನು -0.5682
-2.6474 ಮೆಸಪಟೋಮಿಯಾದ -0.6011
-3.1245 ನಾಗರಿಕತೆಯನ್ನು -0.6017
-3.1245 ಅರ್ಥ -0.6017
-3.1245 ಮಾಡಿಕೊಳ್ಳಲು -0.6011
-2.6474 ನಮಗೆ -0.6008
-3.1245 ಪ್ರಾಚ್ಯವಸ್ತು -0.6017
-3.1245 ಆಕರಗಳ -0.5948
-2.8235 ಬರವಣಿಗೆಯ -0.6011
-3.1245 ಪ್ರಕಾರದ -0.6014
-2.8235 ಆಧಾರಗಳು -0.6008
-3.1245 ಸಿಗುತ್ತವೆ -0.5682
-2.8235 ಶುಲ್ಗಿಯು -0.6011
-2.8235 ರಾಜ್ಯವನ್ನು -0.6014
-3.1245 ಕೇಂದ್ರೀಕೃತ -0.6017
-3.1245 ಆಡಳಿತಶಾಹಿಯನ್ನಾಗಿ -0.6017
-3.1245 ಪರಿವರ್ತಿಸಿದನು -0.5682
-3.1245 ಇವೆಲ್ಲ -0.6017
-3.1245 ಸಮಸ್ಯೆಗಳ -0.6017
-3.1245 ನಡುವೆಯೂ -0.6017
-3.1245 ಮೆಸಪಟೋಮಿಯದಲ್ಲಿ -0.6014
-2.8235 ಪ್ರಪಂಚದ -0.6004
-2.6474 ಅತಿ -0.6008
-2.8235 ಹಳೆಯ -0.6008
-3.1245 ನಾಗರಿಕತೆ -0.6017
-3.1245 ಹುಟ್ಟಿಕೊಂಡಿತು -0.5682
-2.3464 ಆದರೆ -0.5991
-3.1245 ಅದು -0.6014
-2.8235 ಅವರ -0.6014
-3.1245 ಉದ್ದೇಶವಾಗಿರಲಿಲ್ಲ -0.5682
-3.1245 ಆಧುನಿಕ -0.6017
-3.1245 ಇರಾಕ್ -0.6017
-3.1245 ದೇಶಕ್ಕೆ -0.6017
-3.1245 ಈಗ -0.6017
-3.1245 ಇರುವಂತೆಯೇ -0.6017
-3.1245 ಗಡಿಯ -0.6014
-2.8235 ಪ್ರದೇಶವು -0.6011
-2.8235 ಅಂದಿನ -0.6004
-3.1245 ದೇಶಕ್ಕೂ -0.6017
-3.1245 ಇತ್ತು -0.5682
-2.5224 ಮುಖ್ಯ -0.6004
-2.8235 ನದಿಯ -0.6014
-3.1245 ಅಂಚಿನಲ್ಲಿಯೇ -0.6011
-3.1245 ಪ್ರಾಚೀನ -0.6017
-3.1245 ಮಹಾನಗರಗಳು -0.6017
-3.1245 ಹುಟ್ಟಿಕೊಂಡದ್ದು -0.5682
-2.5224 ನಗರದ -0.6004
-3.1245 ಸಾಮಾಜಿಕ -0.6017
-3.1245 ಬೆಳವಣಿಗೆಯು -0.6014
-2.8235 ಅಧಿಕಾರ -0.6017
-3.1245 ಆಸ್ತಿ -0.5948
-3.1245 ಸಂಪತ್ತಿನ -0.6017
-3.1245 ಮೂಲಗಳನ್ನು -0.6017
-3.1245 ಅವಲಂಬಿಸಿತ್ತು -0.5682
-2.6474 ಸುಮಾರು -0.5988
-3.1245 ಸಾವಿರ -0.6017
-3.1245 ವರ್ಷಗಳ -0.6014
-2.8235 ಮೊದಲ -0.6004
-3.1245 ಫಲವತ್ತಾದ -0.6017
-3.1245 ಪ್ರದೇಶಗಳಲ್ಲಿ -0.6017
-3.1245 ಮಾನವನು -0.6017
-3.1245 ಮೊದಲು -0.6017
-3.1245 ನೆಲಸಿದ್ದನೆಂದು -0.6017
-3.1245 ಅಂದಾಜು -0.6017
-3.1245 ಮಾಡಲಾಗಿದೆ -0.5682
-3.1245 ಇವರ -0.6011
-2.6474 ಕಾಲದಲ್ಲಿ -0.6001
-3.1245 ನಿಪ್ಪೂರ್ -0.6014
-2.8235 ನಗರವು -0.6014
-3.1245 ಅಧಿಕವಾಗಿ -0.6017
-3.1245 ಅಭಿವೃದ್ದಿಗೊಂಡು -0.6014
-2.8235 ರಾಜ್ಯದ -0.5991
-2.4255 ಒಂದು -0.5994
-3.1245 ನಗರವಾಗಿ -0.6017
-3.1245 ಬೆಳೆಯಿತು -0.5682
-3.1245 ಉರ್ನಮ್ಮು -0.6017
-3.1245 ಅಥವಾ -0.6017
-3.1245 ಶುಲ್ಗಿ -0.6021
-3.1245 ಇಬ್ಬರಲ್ಲಿ -0.6017
-3.1245 ಒಬ್ಬನು -0.6017
-3.1245 ಮೊದಲಿಗೆ -0.6017
-3.1245 ಕಾನೂನುಗಳ -0.6017
-3.1245 ಪಟ್ಟಿ -0.6017
-3.1245 ಮಾಡಿಸಿದನು -0.5682
-2.8235 ಆ -0.6014
-3.1245 ಕಾವ್ಯರೂಪ -0.6021
-3.1245 ಬೆದಂಡೆಯನ್ನು -0.6017
-3.1245 ಪ್ರತಿಯೊಬ್ಬ -0.6017
-3.1245 ಕನ್ನಡಿಗನೂ -0.6017
-3.1245 ಸಾಹಿತ್ಯದೃಷ್ಟಿಯಿಂದ -0.6017
-3.1245 ಅರಿಯಬೇಕಾದುದು -0.6017
-3.1245 ಅಗತ್ಯ -0.5682
-3.1245 ಅವುಗಳಲ್ಲಿ -0.6017
-3.1245 ಪ್ರಮುಖವಾದುವುಗಳೆಂದರೆ -0.6017
-3.1245 ಇಸಿನ್ -0.6021
-3.1245 ಲಾಸಕ -0.6021
-2.8235 ಉರುಕ್ -0.5935
-2.8235 ಬೆಬಿಲೋನಿಯ -0.5603
-3.1245 ಹವಾಗುಣ -0.6014
-2.8235 ಮಾತ್ರ -0.5948
-3.1245 ಪ್ರದೇಶದಿಂದ -0.6014
-2.8235 ಮತ್ತೊಂದು -0.6014
-3.1245 ಪ್ರದೇಶಕ್ಕೆ -0.6017
-3.1245 ಭಿನ್ನವಾಗಿತ್ತು -0.5682
-3.1245 ಅವರಿಂದ -0.6017
-3.1245 ಶಸ್ತ್ರಾಸ್ತ್ರಗಳನ್ನು -0.6017
-3.1245 ಕಸಿದುಕೊಂಡು -0.6017
-3.1245 ಕ್ರಾಂತಿಸೈನ್ಯಕ್ಕೆ -0.6017
-3.1245 ಜಮಾಯಿಸುತ್ತಿದ್ದರು -0.5682
-2.5224 ಇವನ -0.6001
-2.6474 ಆಳ್ವಿಕೆಯ -0.6004
-3.1245 ಅಂತಿಮ -0.6011
-2.6474 ಕಾಲಕ್ಕೆ -0.5985
-3.1245 ಸಾಮ್ರಾಜ್ಯವನ್ನೇ -0.6017
-3.1245 ಕಟ್ಟಿದ್ದನು -0.5682
-2.4255 ನಂತರ -0.5991
-3.1245 ಚಿಕ್ಕ -0.6014
-2.8235 ತಮ್ಮ -0.6014
-3.1245 ಶೂಶಿನ್ -0.5998
-2.2794 ಕ್ರಿ -0.5682
-3.1245 ಇದರಿಂದಾಗಿ -0.6014
-2.8235 ಉರ್ -0.6008
-3.1245 ಮೂರನೆಯ -0.6017
-3.1245 ಮುಖ್ಯನಗರವೊಂದು -0.6017
-3.1245 ಅಸ್ತಿತ್ವಕ್ಕೆ -0.6014
-2.8235 ಬಂತು -0.5682
-3.1245 ಇರಾನಿನ -0.6017
-3.1245 ಸುಸ -0.6017
-3.1245 ಎಂಬುವಲ್ಲಿ -0.6017
-3.1245 ಪಾಳು -0.6017
-3.1245 ಬಿದ್ದಿದ್ದ -0.6017
-3.1245 ಅವಶೇಷದಲ್ಲಿ -0.6014
-2.8235 ಇದು -0.6014
-3.1245 ಸಿಕ್ಕಿದೆ -0.5682
-3.1245 ಅಸ್ಸಿರಿಯ -0.6017
-3.1245 ದಾಖಲೆಗಳಲ್ಲಿ -0.6017
-3.1245 ದೊರೆಯುತ್ತವೆ -0.5682
-2.8235 ರೀತಿಯ -0.6014
-3.1245 ಉತ್ಪಾದನೆ -0.6021
-3.1245 ಬೆಳೆಯುತ್ತಿದ್ದ -0.6011
-3.1245 ಜನಸಂಖ್ಯೆಗೆ -0.6017
-3.1245 ಆಹಾರ -0.6017
-3.1245 ಒದಗಿಸಲು -0.6017
-3.1245 ತುಂಬಾ -0.6017
-3.1245 ಅವಶ್ಯಕವಾಗಿತ್ತು -0.5682
-3.1245 ಸುಮೇರಿಯನ್ -0.6017
-3.1245 ಇತಿಹಾಸದಲ್ಲಿ -0.6017
-3.1245 ಪ್ರಮುಖವಾದ -0.6017
-3.1245 ನಗರವಾಗಿರುತ್ತದೆ -0.5682
-3.1245 ವಿದೇಶಿ -0.6017
-3.1245 ಸಂಬಂಧಗಳಿಗೆ -0.6017
-3.1245 ಸಂಬಂಧಿಸಿದಂತೆ -0.6017
-3.1245 ಹೇಳುವುದಾದರೆ -0.6014
-3.1245 ಮೊದಲಿನ -0.6017
-3.1245 ರಾಜರುಗಳಿಗಿಂತ -0.6014
-2.8235 ಇನ್ನೂ -0.6014
-3.1245 ವಿಸ್ತಾರವಾದ -0.6017
-3.1245 ಜಗತ್ತಿನಲ್ಲಿ -0.6017
-3.1245 ವ್ಯವಹರಿಸುತ್ತಿದ್ದರು -0.5682
-3.1245 ಕ್ರಾಂತಿಕಾರರನ್ನು -0.6014
-2.8235 ಹೆಚ್ಚು -0.6011
-3.1245 ಬೆಂಬಲಿಸತೊಡಗಿದರು -0.5682
-3.1245 ಆರ್ಥಿಕ -0.6017
-3.1245 ವ್ಯವಸ್ಥೆಗೆ -0.6017
-3.1245 ಸಂಬಂಧಿಸಿದ -0.6017
-3.1245 ಎಲ್ಲ -0.6014
-3.1245 ಕಡತಗಳನ್ನು -0.6017
-3.1245 ಕರಾರುವಕ್ಕಾಗಿ -0.6017
-3.1245 ಉಳಿಸಿಕೊಂಡು -0.6017
-3.1245 ಬಂದಿದ್ದನು -0.5682
-3.1245 ಕೃತಿಯ -0.6014
-2.8235 ವಸ್ತು -0.6014
-3.1245 ಹಳೆಯದು -0.6014
-2.6474 ಕಾಲದ -0.5998
-3.1245 ವಿಚಾರಧಾರೆ -0.6017
-3.1245 ಅದರಲ್ಲಿದ್ದುದು -0.5682
-3.1245 ಸಂಸ್ಕಾರದ -0.6017
-3.1245 ಬಲದಿಂದ -0.6017
-3.1245 ಪ್ರತಿಭಾಶಾಲಿಯಾದ -0.6017
-3.1245 ಹಳ್ಳಿಗ -0.6017
-3.1245 ಹಾಡುಕಟ್ಟಿದ್ದಾನೆ -0.5682
-3.1245 ಸಶಸ್ತ್ರ -0.6017
-3.1245 ಬಂಡಾಯಕ್ಕೆ -0.6004
-3.1245 ಸ್ಪಷ್ಟ -0.6017
-3.1245 ಯೋಜನೆ -0.6017
-3.1245 ರೂಪಿಸಿದರು -0.5682
-2.8235 ರಾಜರು -0.6011
-2.8235 ಸುಮೇರ್ -0.6004
-3.1245 ನಗರರಾಜ್ಯವನ್ನು -0.6017
-3.1245 ಆಳಿದರು -0.5682
-3.1245 ದಂಗೆಗಳು -0.6014
-2.8235 ಪದೇ -0.6011
-3.1245 ಏಳಲು -0.6017
-3.1245 ಆರಂಭವಾದುವು -0.5682
-2.6474 ರಷ್ಯಾದ -0.6011
-3.1245 ಎಲ್ಲಾ -0.6001
-2.3464 ಜನರಿಗೆ -0.5988
-3.1245 ಸಮಾನತೆ -0.5948
-3.1245 ಸಾರ್ವಭೌಮತೆ -0.5682
-3.1245 ದುಃಸ್ಥಿತಿಗಳಿಂದ -0.6017
-3.1245 ಜನರು -0.6008
-2.5224 ತಾತ್ಕಾಲಿಕ -0.6008
-3.1245 ಸರಕಾರದಿಂದಲೇ -0.6017
-3.1245 ಬಹಳ -0.6017
-3.1245 ದೂರ -0.6017
-3.1245 ಸರಿಯುವಂತಾಯಿತು -0.5682
-3.1245 ವ್ಯವಸಾಯದಿಂದ -0.6017
-3.1245 ಹೆಚ್ಚಿನ -0.6017
-3.1245 ಆದಾಯವು -0.6008
-2.8235 ಆಳುವ -0.6014
-3.1245 ವರ್ಗದವರನ್ನು -0.6017
-3.1245 ಶ್ರೀಮಂತರ -0.6017
-3.1245 ನ್ನಾಗಿ -0.6017
-3.1245 ಮಾಡಿತು -0.5682
-3.1245 ಪ್ರಧಾನಿ -0.6017
-3.1245 ಕೆರೆನ್ಸ್ಕಿ -0.6017
-3.1245 ಹೆಣ್ಣುವೇಷ -0.6017
-3.1245 ಧರಿಸಿ -0.6017
-3.1245 ತಲೆತಪ್ಪಿಸಿಕೊಂಡು -0.6017
-3.1245 ಹೋದರು -0.5682
-3.1245 ದೇಹಕ್ಕೆ -0.6017
-3.1245 ಆದ -0.6017
-3.1245 ಗಾಯ -0.5948
-3.1245 ನೋವುಗಳಿಗೆ -0.6017
-3.1245 ಹಣಕಾಸಿನ -0.6017
-3.1245 ಪರಿಹಾರ -0.6017
-3.1245 ನೀಡಲಾಗುತ್ತಿತ್ತು -0.5682
-3.1245 ಎತ್ತರವಾಗಿದ್ದು -0.6017
-3.1245 ರಾಜ್ಯವನ್ನೆಲ್ಲ -0.6017
-3.1245 ಒಂದುಗೂಡಿಸಿದ -0.6004
-3.1245 ಬೆಬಿಲೋನಿಯದಲ್ಲಿ -0.6017
-3.1245 ಕೆತ್ತಿಸಲಾಗಿದೆ -0.5682
-2.8235 ಜನರ -0.6014
-3.1245 ಕಮಿಸಾರರ -0.6017
-3.1245 ಮಂಡಳಿ -0.6017
-3.1245 ಯನ್ನು -0.6017
-3.1245 ಸ್ಥಾಪಿಸಲಾಯಿತು -0.5682
-3.1245 ಸೂರ್ಯನ -0.6017
-3.1245 ಬೆಳಕಿನಲ್ಲಿ -0.6017
-3.1245 ಒಣಗಿಸಿದ -0.6017
-3.1245 ಇಟ್ಟಿಗೆಗಳಿಗೆ -0.6017
-3.1245 ಬದಲಾಗಿ -0.6017
-3.1245 ಬೇಯಿಸಿದ -0.6017
-3.1245 ಇಟ್ಟಿಗೆಗಳನ್ನು -0.6017
-3.1245 ಬಳಸಿದರು -0.5682
-3.1245 ವ್ಯವಸಾಯ -0.6017
-3.1245 ಪದ್ಧತಿಯು -0.6017
-3.1245 ಇನ್ನು -0.6017
-3.1245 ಸುಧಾರಿಸಿತು -0.5948
-3.1245 ಧಾನ್ಯದ -0.6017
-3.1245 ಇಳುವರಿಯಲ್ಲಿ -0.6017
-3.1245 ಗಣನೀಯವಾಗಿ -0.6017
-3.1245 ಆದಾಯ -0.6017
-3.1245 ಹೆಚ್ಚಾಗಿತ್ತು -0.5682
-3.1245 ಸಹಾಯಕ -0.6017
-3.1245 ಸಂಶೋಧಕರ -0.6017
-3.1245 ಸಹಾಯ -0.6011
-3.1245 ಇದ್ದೇ -0.6017
-3.1245 ಇದೆ -0.5682
-3.1245 ಪಶ್ಚಿಮದಿಂದ -0.6017
-3.1245 ಬರುತ್ತಿದ್ದ -0.6014
-2.8235 ಅಲೆಮಾರಿ -0.6014
-3.1245 ಬುಡಕಟ್ಟು -0.6017
-3.1245 ಜನರಿಂದ -0.6014
-3.1245 ಕಷ್ಟವನ್ನು -0.6017
-3.1245 ಅನುಭವಿಸಬೇಕಾಗಿ -0.6014
-3.1245 ಏಕೆಂದರೆ -0.6017
-3.1245 ನಿಧಾನವಾಗಿ -0.6017
-3.1245 ಹರಿಯುವ -0.5965
-3.1245 ನೀರನ್ನು -0.6017
-3.1245 ವ್ಯವಸಾಯಕ್ಕೆ -0.6017
-3.1245 ಬಳಸಿಕೊಳ್ಳಬಹುದಿತ್ತು -0.5682
-3.1245 ಇವುಗಳಲ್ಲಿ -0.6017
-3.1245 ಆಮದು -0.6017
-3.1245 ಮಾಡಿಕೊಂಡ -0.6017
-3.1245 ಹರಳುಗಳು -0.6017
-3.1245 ಕೂಡ -0.6017
-3.1245 ಇವೆ -0.5682
-3.1245 ಸರಕಾರವು -0.6017
-3.1245 ಸೇತುವೆಗಳನ್ನು -0.6017
-3.1245 ಉರುಳಿಸಲು -0.6017
-3.1245 ಪ್ರಯತ್ನಿಸಿತು -0.5682
-3.1245 ಅರಮನೆ -0.5948
-3.1245 ದೇವಸ್ಥಾನಗಳನ್ನು -0.6017
-3.1245 ವಿಸ್ತರಿಸಿದರು -0.5682
-3.1245 ಅದನ್ನು -0.6017
-3.1245 ಕ್ರಾಂತಿಕಾರಿ -0.6017
-3.1245 ಮಿಲಿಟರಿ -0.6017
-3.1245 ಕೇಂದ್ರ -0.6017
-3.1245 ಸಮಿತಿ -0.6017
-3.1245 ಅಂಗೀಕರಿಸಿತು -0.5682
-3.1245 ಎಲಾಮ್ -0.6014
-2.8235 ದೇಶದ -0.6014
-3.1245 ಶುತ್ರುಕ್ನಹ್ಹುಂತೆ -0.6017
-3.1245 ಎಂಬುವವನು -0.6011
-3.1245 ಪ್ರತಿಕ್ರಾಂತಿಕಾರಿಗಳ -0.6017
-3.1245 ಅಧಿಕಾರವನ್ನು -0.6017
-3.1245 ಸ್ತಬ್ಧಗೊಳಿಸುವುದಷ್ಟೆ -0.6014
-3.1245 ಗುರಿಯಾಗಿತ್ತು -0.5682
-3.1245 ಕೈಗೆಕಾರ್ಮಿಕರಿಗೆ -0.5948
-3.1245 ರೈತರಿಗೆ -0.6014
-3.1245 ಬಂದಿದೆ -0.5682
-3.1245 ಅನಂತರ -0.6008
-3.1245 ಕಿರಿಯ -0.6017
-3.1245 ಮಗ -0.6017
-3.1245 ಇಬ್ಬಿಸಿನ್ -0.5998
-3.1245 ಇದರ -0.6008
-3.1245 ಭಾಗವೊಂದು -0.6014
-2.8235 ಅದರ -0.6014
-3.1245 ಇಂದಿನ -0.6017
-3.1245 ಮಾರ್ಗದಂತೆ -0.6017
-3.1245 ಸಮತಟ್ಟಾದ -0.6017
-3.1245 ಭೂಮಿಯ -0.6017
-3.1245 ಮಧ್ಯಭಾಗದಲ್ಲಿ -0.6017
-3.1245 ಹಾದು -0.6017
-3.1245 ಹೋಗಿತ್ತು -0.5682
-2.6474 ಉಬೈದ್ -0.6011
-2.6474 ಒ -0.5991
-2.5224 ಕಾಲವು -0.6004
-3.1245 ವ್ಯವಸಾಯವನ್ನಾಧರಿಸಿದ -0.6017
-3.1245 ಹಳ್ಳಿಗಳ -0.6014
-2.8235 ಕಾಲವನ್ನು -0.6014
-3.1245 ಪ್ರತಿನಿಧಿಸುತ್ತದೆ -0.5682
-3.1245 ಜನಾಂಗಕ್ಕೆ -0.6017
-3.1245 ಸೇರಿದವರಾಗಿದ್ದ -0.6017
-3.1245 ಅಕ್ಕಡಿಯನ್ನರು -0.6017
-3.1245 ಸುಮೇರಿಯನ್ನರ -0.6017
-3.1245 ಸಂಸ್ಕೃತಿಯನ್ನೇ -0.6017
-3.1245 ಸ್ವೀಕರಿಸಿ -0.6021
-3.1245 ಬೆಳೆಸಿದರು -0.5682
-3.1245 ರಷ್ಯಾದಲ್ಲಿ -0.6017
-3.1245 ನೆಲೆ -0.6017
-3.1245 ನಿಂತಿರುವ -0.6017
-3.1245 ರಾಷ್ಟ್ರೀಯ -0.6017
-3.1245 ಅಲ್ಪಸಂಖ್ಯಾತರ -0.5948
-3.1245 ಜನಾಂಗೀಯ -0.6017
-3.1245 ಗುಂಪುಗಳಿಗೆ -0.6017
-3.1245 ಅಭಿವೃದ್ದಿಗೆ -0.6017
-3.1245 ಮುಕ್ತ -0.6017
-3.1245 ಅವಕಾಶ -0.5682
-3.1245 ಇವೆಲ್ಲವುಗಳಿಂದ -0.6017
-3.1245 ಸೋವಿಯತ್ -0.6014
-2.8235 ಪ್ರಭುತ್ವ -0.6011
-3.1245 ಜನರಕಾರ್ಮಿಕರ -0.5948
-3.1245 ರೈತರ -0.6014
-2.8235 ಎಂದು -0.5998
-3.1245 ವಿಶ್ವಾಸ -0.6017
-3.1245 ಬಂದಿತು -0.5682
-2.4255 ದಕ್ಷಿಣ -0.5932
-3.1245 ಬೃಹತ್ತಾದ -0.5948
-3.1245 ತುಂಬ -0.6017
-3.1245 ಮುಖ್ಯವಾದ -0.6017
-3.1245 ನಗರವಾಗಿತ್ತು -0.5682
-3.1245 ಮೊಮ್ಮಗನಾದ -0.6017
-3.1245 ನೊರಮ್ಸಿನ್ನನ -0.6011
-3.1245 ದಂಗೆಗಳನ್ನು -0.6017
-3.1245 ಹತ್ತಿಕ್ಕಲು -0.6017
-3.1245 ಸಾಧ್ಯವಾಯಿತು -0.5682
-3.1245 ಅವುಗಳನ್ನು -0.6017
-3.1245 ಯಾರೂ -0.6017
-3.1245 ಬದಲು -0.6017
-3.1245 ಮಾಡಲಾರರೆಂದು -0.6017
-3.1245 ಆಶ್ವಾಸನೆ -0.5682
-3.1245 ಪ್ರಾಚ್ಯವಸ್ತುಶಾಸ್ತ್ರದ -0.6017
-3.1245 ಪರಿಭಾಷೆಯಲ್ಲಿ -0.6011
-3.1245 ಕರೆಯುತ್ತಾರೆ -0.5682
-3.1245 ಪ್ರಾಂತ್ಯಕ್ಕೆ -0.6014
-3.1245 ಹೆಸರಿತ್ತು -0.5682
-2.8235 ಹೀಗೆ -0.5948
-3.1245 ನಗರರಾಜ್ಯಗಳು -0.6017
-3.1245 ಬೆಳವಣಿಗೆಯನ್ನು -0.6017
-3.1245 ಮುಂದು -0.6017
-3.1245 ವರೆಸಿದವು -0.5682
-2.8235 ಸರಕಾರದ -0.6014
-3.1245 ಗುಣಲಕ್ಷಣಗಳು -0.6017
-3.1245 ಇನ್ನಷ್ಟು -0.6017
-3.1245 ಸ್ಪಷ್ಟವಾದವು -0.5682
-3.1245 ಆರಂಭದ -0.6017
-3.1245 ಶಾಸನ -0.6014
-2.8235 ಸಂಹಿತೆಗಳು -0.6011
-3.1245 ಐಸಿನ್ -0.5948
-3.1245 ಎಶ್ನುನ್ನ -0.6014
-3.1245 ರಾಜ್ಯಗಳಿಂದ -0.6017
-3.1245 ಬಂದಿದ್ದವು -0.5682
-3.1245 ಇದೇ -0.6011
-3.1245 ಸರಿಯಾಗಿ -0.6017
-3.1245 ಅಮ್ಮೋರೈಟ್ರ -0.6017
-3.1245 ಒಂದನೆಯ -0.6017
-3.1245 ಶಂಸಿ -0.6017
-3.1245 ಆದಬನು -0.5998
-3.1245 ಬರಹಗಳು -0.6017
-3.1245 ಉಮ್ಮಾ -0.6008
-3.1245 ನಗರರಾಜ್ಯದೊಡನೆ -0.6017
-3.1245 ನಡೆಯುತ್ತಿದ್ದ -0.6017
-3.1245 ಗಡಿ -0.6017
-3.1245 ವಿವಾದದ -0.6008
-2.5224 ಬಗ್ಗೆ -0.5938
-3.1245 ತಿಳಿಸುತ್ತದೆ -0.5682
-3.1245 ತುಳಿತಕ್ಕೆ -0.6017
-3.1245 ಒಳಗಾದ -0.6011
-3.1245 ವಿವಿಧ -0.6017
-3.1245 ರಾಷ್ಟ್ರೀಯತೆಗಳ -0.6001
-2.8235 ಹೊಸ -0.6014
-3.1245 ಗರಿ -0.6017
-3.1245 ಬಂದಂತಾಯಿತು -0.5682
-3.1245 ಮತ್ತೊಮ್ಮೆ -0.6017
-3.1245 ಅದೇ -0.6008
-3.1245 ಮೇಲೆ -0.6017
-3.1245 ದಾಳಿ -0.6017
-3.1245 ಮಾಡಿ -0.5998
-3.1245 ಇರಿನ್ಲಾರ್ಸನ -0.6011
-3.1245 ಮೊದಲನೆಯ -0.6017
-3.1245 ಹಂತವಾಗಿತ್ತು -0.5682
-2.8235 ಇವನು -0.6014
-3.1245 ಸುಮೇರನ್ನು -0.6017
-3.1245 ಆಳಿದ -0.6017
-3.1245 ಕಟ್ಟ -0.6017
-3.1245 ಕಡೆಯವರಲ್ಲಿ -0.6011
-3.1245 ಪ್ರಮುಖನಾಗಿದ್ದಾನೆ -0.5682
-3.1245 ಭೂ -0.6017
-3.1245 ಶೋಧನೆಯಿಂದ -0.6017
-3.1245 ಹೊರ -0.6017
-3.1245 ತೆಗೆಯಲಾಗಿರುವ -0.6017
-3.1245 ವಸ್ತುಗಳು -0.6017
-3.1245 ಕಲೆಯಲ್ಲಿ -0.6017
-3.1245 ಸಾಧಿಸಲಾಗಿರುವ -0.6017
-3.1245 ಪರಿಣತಿಯನ್ನು -0.6017
-3.1245 ಸ್ಪಷ್ಟಪಡಿಸುತ್ತವೆ -0.5682
-3.1245 ಗೋಡೆಯು -0.6017
-3.1245 ಬಹುರೀತಿಯಾಗಿ -0.6001
-3.1245 ತಿಳಿದಿದ್ದು -0.6021
-3.1245 ಬೆಟ್ಟಗಳ -0.6011
-3.1245 ಗೋಡೆಯೆಂದು -0.6017
-3.1245 ಪ್ರಸಿದ್ಧವಾಗಿತ್ತು -0.5682
-3.1245 ಹಲವು -0.6017
-3.1245 ಪ್ರಾಂತಗಳನ್ನಾಗಿ -0.6017
-3.1245 ವಿಂಗಡಿಸಿ -0.6021
-3.1245 ಸ್ಥಳೀಯ -0.6014
-3.1245 ಮನೆತನಗಳ -0.6017
-3.1245 ಜನರನ್ನು -0.6017
-3.1245 ರಾಜ್ಯಪಾಲರನ್ನಾಗಿ -0.6017
-3.1245 ನೆಯಮಿಸಿದನು -0.5682
-3.1245 ಕಾರಣವೆಂದರೆ -0.6017
-3.1245 ಅಸ್ಸಿರಿಯನ್ನರಿಗೆ -0.6004
-3.1245 ಮೆಸಪಟೋಮಿ -0.6017
-3.1245 ಯಾದ -0.6017
-3.1245 ಸಂಸ್ಕೃತಿಯ -0.6008
-3.1245 ದೇವರುಗಳ -0.6008
-3.1245 ಅಪಾರವಾದ -0.6017
-3.1245 ಗೌರವವಿತ್ತು -0.5682
-3.1245 ಹನಿಗೆ -0.6017
-3.1245 ಹನಿ -0.6014
-2.8235 ಕೂಡಿದರೆ -0.6014
-3.1245 ಹಳ್ಳವಾಗುವುದು -0.6021
-3.1245 ತೆನಿಗೆ -0.6017
-3.1245 ತೆನಿ -0.6014
-3.1245 ರಾಶಿಯಾಗುವುದು -0.5682
-3.1245 ಯಾವುದೇ -0.6017
-3.1245 ಪ್ರದೇಶದ -0.6001
-3.1245 ಸ್ವಯಂ -0.6017
-3.1245 ನಿರ್ಧಾರದ -0.6017
-3.1245 ಹಕ್ಕು -0.5682
-3.1245 ಹುಟ್ಟನ್ನು -0.6014
-2.8235 ಕಂಡಿತು -0.5682
-3.1245 ಅರಾಜಕತೆ -0.6017
-3.1245 ಉಂಟಾಗಿ -0.6017
-3.1245 ಕೊಲೆ -0.6017
-3.1245 ದರೋಡೆಗಳು -0.6017
-3.1245 ಹೆಚ್ಚಾದವು -0.5682
-3.1245 ನಗರದಲ್ಲಿ -0.6014
-3.1245 ತಮಗೆ -0.6017
-3.1245 ಬೇಕಾದಂತೆ -0.6017
-3.1245 ಕಿಶ್ -0.6014
-3.1245 ರಾಜನೆಂದು -0.6017
-3.1245 ಬಿರುದುಗಳನ್ನು -0.6017
-3.1245 ಪಡೆದುಕೊಳ್ಳುತ್ತಿದ್ದರು -0.5682
-3.1245 ಗುದಿಯನ್ನು -0.6017
-3.1245 ಲಗಾಶನು -0.6017
-3.1245 ಆಳುತ್ತಿದ್ದಾಗ -0.6021
-3.1245 ಉರುಕ್ನ -0.6017
-3.1245 ಉತುಹೆಗಲ್ -0.5998
-3.1245 ಕ್ರಾಂತಿಕಾರಿಗಳು -0.6017
-3.1245 ಮನಸ್ಸು -0.6017
-3.1245 ಮಾಡಿದ್ದರೆ -0.6017
-3.1245 ಅರಮನೆಯನ್ನು -0.5948
-3.1245 ಅಲ್ಲಿದ್ದವರನ್ನೆಲ್ಲಾ -0.6017
-3.1245 ಸುಟ್ಟು -0.6017
-3.1245 ಬೂದಿ -0.6017
-3.1245 ಮಾಡಬಹುದಿತ್ತು -0.5682
-3.1245 ಗಂಗಿಗೌರೀ -0.6017
-3.1245 ಸಂವಾದದ -0.6017
-3.1245 ಮೂರು -0.6017
-3.1245 ಪ್ರತಿಗಳು -0.6017
-3.1245 ನಮ್ಮ -0.6017
-3.1245 ಹಸ್ತಪ್ರತಿ -0.6017
-3.1245 ಭಂಡಾರದಲ್ಲಿದ್ದು -0.6017
-3.1245 ಒಂದಕ್ಕೊಂದು -0.6017
-3.1245 ತಾಳಮೇಳ -0.6017
-3.1245 ಇಲ್ಲದಂತಿವೆ -0.5682
-3.1245 ಅರಮನೆಯಲ್ಲಿ -0.6017
-3.1245 ಅಧಿಕಾರಿಗಳನ್ನು -0.5948
-3.1245 ಸೈನಿಕರನ್ನು -0.6017
-3.1245 ನಿಶ್ಯಸ್ತ್ರೀಕರಿಸಿ -0.6017
-3.1245 ಬಿಟ್ಟುಬಿಡಲಾಯಿತು -0.5682
-3.1245 ಕಾರ್ಮಿಕರು -0.6017
-3.1245 ಕೈಗಾರಿಕೆಗಳ -0.6017
-3.1245 ಆಡಳಿತದವರನ್ನು -0.6017
-3.1245 ಕಿತ್ತು -0.6014
-2.8235 ಹಾಕಿ -0.6017
-3.1245 ತಾವೇ -0.6017
-3.1245 ವಹಿಸಿಕೊಂಡರು -0.5682
-3.1245 ಭೌತಿಕವಾದ -0.6014
-3.1245 ಸಂಸ್ಕೃತಿ -0.6017
-3.1245 ಗಣನೀಯವಾದ -0.6017
-3.1245 ಬದಲಾವಣೆಯನ್ನು -0.6014
-3.1245 ತೆರನಾದ -0.6014
-3.1245 ದಿನನಿತ್ಯದ -0.6017
-3.1245 ನ್ಯಾಯಪಾಲನೆಗಿಂತ -0.6017
-3.1245 ಮಿಗಿಲಾಗಿ -0.6004
-3.1245 ಆದರ್ಶಪ್ರಾಯವಾದ -0.6017
-3.1245 ಸಮಾಜದ -0.6017
-3.1245 ಕೈಗನ್ನಡಿಯಂತಿವೆ -0.5682
-3.1245 ಹಮುರಾಬಿ -0.6017
-3.1245 ಶಾಸನದ -0.6017
-3.1245 ಪ್ರತಿಗಳನ್ನು -0.6014
-3.1245 ನಗರಗಳಲ್ಲಿ -0.6017
-3.1245 ಇಡಲಾಗಿತ್ತು -0.5682
-3.1245 ಉತ್ತರ -0.5948
-3.1245 ಪೂರ್ವದಲ್ಲಿ -0.6017
-3.1245 ಬೆಟ್ಟಗಳಿಂದಲೂ -0.5948
-3.1245 ಪಶ್ಚಿಮಕ್ಕೆ -0.6017
-3.1245 ಮರಳುಗಾಡಿನಿಂದಲೂ -0.6017
-3.1245 ಆವೃತ್ತವಾಗಿದೆ -0.5682
-3.1245 ತನ್ನ -0.6017
-3.1245 ಬುದ್ಧಿಗೆ -0.6017
-3.1245 ನಿಲುಕುವ -0.6017
-3.1245 ಸವಾಲುಗಳನ್ನು -0.6014
-3.1245 ಅವನ್ನು -0.6017
-3.1245 ಬಿಡಿಸಿ -0.6017
-3.1245 ಆನಂದಪಟ್ಟಿದ್ದಾನೆ -0.5682
-3.1245 ಅಕ್ಕಡ್ -0.6017
-3.1245 ಎನ್ನುವುದೇ -0.6014
-3.1245 ರಾಜಧಾನಿಯೂ -0.6017
-3.1245 ಆಗಿತ್ತು -0.5682
-3.1245 ಬೆಬಿಲೋನಿಯಾ -0.6017
-3.1245 ಸಾಮ್ರಾಜ್ಯದ -0.6017
-3.1245 ಬೇರೆ -0.6017
-3.1245 ಭಾಗಗಳಲ್ಲಿ -0.6014
-3.1245 ನಡೆಸಿದ -0.6017
-3.1245 ಯುದ್ಧಗಳ -0.6008
-3.1245 ಹೆಚ್ಚಿನದೇನೂ -0.6017
-3.1245 ತಿಳಿದುಬಂದಿಲ್ಲ -0.5682
-3.1245 ಸೇನೆ -0.6017
-3.1245 ಪೆಟ್ರೋಗ್ರಾಡ್ಗೆ -0.6017
-3.1245 ಬರದಿರುವಂತೆ -0.6017
-3.1245 ತಡೆಯಲು -0.6017
-3.1245 ಕ್ರಾಂತಿಕಾರಿಗಳನ್ನು -0.6017
-3.1245 ಸಜ್ಜುಗೊಳಿಸಿದರು -0.5682
-3.1245 ಜೋರಿನ -0.6017
-3.1245 ಜೂರಿ -0.6017
-3.1245 ಇದ್ದಾಗಲೇ -0.6017
-3.1245 ಜೋಕಾಲಿ -0.6017
-3.1245 ತೀವ್ರವಾಗಿ -0.6017
-3.1245 ಏರಬಲ್ಲದು -0.6021
-3.1245 ಇಳಿಯಬಲ್ಲದು -0.5682
-3.1245 ಚೆನ್ನಚೆರಿಬನ -0.6017
-3.1245 ಮಗನಾದ -0.6017
-3.1245 ಈಸರ್ಹದನ್ -0.5998
-3.1245 ರಕ್ಷಣಾ -0.6017
-3.1245 ವ್ಯವಸ್ಥೆಯ -0.6017
-3.1245 ಅಂಗವಾಗಿ -0.6017
-3.1245 ನಿರ್ಮಿಸಲಾದ -0.6017
-3.1245 ಕೋಟೆಯ -0.6017
-3.1245 ವ್ಯವಸ್ಥೆಯನ್ನು -0.6014
-3.1245 ಒಳಗೊಂಡಿತ್ತು -0.5682
-3.1245 ಪೆಟ್ರೋಗ್ರಾಡ್ನ -0.6017
-3.1245 ರಸ್ತೆಗಳಲ್ಲಿ -0.6017
-3.1245 ಎರಡು -0.6017
-3.1245 ಜಗತ್ತುಗಳ -0.6017
-3.1245 ಬಂಡವಾಳಶಾಹಿ -0.5948
-3.1245 ಕಾರ್ಮಿಕ -0.6017
-3.1245 ವರ್ಗಗಳ -0.6017
-3.1245 ನಡುವೆ -0.6017
-3.1245 ನೇರ -0.6017
-3.1245 ಸಂಘರ್ಷಗಳು -0.6017
-3.1245 ಪ್ರಾರಂಭಗೊಂಡವು -0.5682
-3.1245 ಆರಂಭವಾಯಿತೆಂಬುದು -0.6017
-3.1245 ಸ್ಪಷ್ಟವಾಗಿ -0.6014
-3.1245 ತೀರ್ಮಾನವಾಗದ -0.6017
-3.1245 ವಿಷಯವಾಗಿದೆ -0.5682

\2-grams:
-2.1249 <s> ಯುಫ್ರೆಟಿಸ್ 0.0000
-0.1249 ಯುಫ್ರೆಟಿಸ್ ಮತ್ತು -0.5870
-1.4674 ಮತ್ತು ಟ್ರೈಗ್ರಿಸ್ 0.0000
-0.1249 ಟ್ರೈಗ್ರಿಸ್ ನದಿಗಳ 0.0000
-0.1249 ನದಿಗಳ ಸಂಗಮದ 0.0000
-0.1249 ಸಂಗಮದ ಕಿರಿದಾದ 0.0000
-0.1249 ಕಿರಿದಾದ ಸ್ಥಳದಲ್ಲಿ 0.0000
-0.1249 ಸ್ಥಳದಲ್ಲಿ ದುರ್ಕುರಿಗಲ್ಜು 0.0000
-0.1249 ದುರ್ಕುರಿಗಲ್ಜು ಎನ್ನುವ -0.5119
-0.7270 ಎನ್ನುವ ನಗರವೊಂದನ್ನು 0.0000
-0.1249 ನಗರವೊಂದನ್ನು ಕಸ್ಸೈಟರು -0.3979
-0.4260 ಕಸ್ಸೈಟರು ನಿರ್ಮಿಸಿದರು 0.0000
-0.1249 ನಿರ್ಮಿಸಿದರು </s> -0.6021
-2.1249 <s> ಆದುದರಿಂದಲೇ 0.0000
-0.1249 ಆದುದರಿಂದಲೇ ಮುಂದಿನ -0.4771
-0.6021 ಮುಂದಿನ ದಿನಗಳಲ್ಲಿ 0.0000
-0.1249 ದಿನಗಳಲ್ಲಿ ಕ್ರಾಂತಿಯ 0.0000
-0.1249 ಕ್ರಾಂತಿಯ ರಕ್ಷಣೆಗೆ 0.0000
-0.1249 ರಕ್ಷಣೆಗೆ ಅವರು -0.3979
-0.4260 ಅವರು ಕಂಕಣಬದ್ಧರಾದರು 0.0000
-0.1249 ಕಂಕಣಬದ್ಧರಾದರು </s> -0.6021
-2.1249 <s> ಮೆಸಪಟೋಮಿಯ -0.3979
-0.4260 ಮೆಸಪಟೋಮಿಯ ಎಂಬ -0.3979
-0.4260 ಎಂಬ ಶಬ್ದವನ್ನು 0.0000
-0.1249 ಶಬ್ದವನ್ನು ಪುರಾತನ -0.3979
-0.4260 ಪುರಾತನ ಗ್ರೀಕರು 0.0000
-0.1249 ಗ್ರೀಕರು ಸೃಷ್ಟಿಸಿರುತ್ತಾರೆ 0.0000
-0.1249 ಸೃಷ್ಟಿಸಿರುತ್ತಾರೆ </s> -0.6021
-2.1249 <s> ಸ್ವತಂತ್ರವಾಗಿ 0.0000
-0.1249 ಸ್ವತಂತ್ರವಾಗಿ ಸಮಾನತೆಯ 0.0000
-0.1249 ಸಮಾನತೆಯ ಬಾಳ್ವೆಯ 0.0000
-0.1249 ಬಾಳ್ವೆಯ ಹಳ್ಳಿ 0.0000
-0.1249 ಹಳ್ಳಿ ಜೀವನದ -0.3979
-0.4260 ಜೀವನದ ಕಾಲದಿಂದ 0.0000
-0.1249 ಕಾಲದಿಂದ ಸಾಮಾಜಿಕವಾಗಿ 0.0000
-0.1249 ಸಾಮಾಜಿಕವಾಗಿ ಶ್ರೇಣೀಕರಿಸಿದ 0.0000
-0.1249 ಶ್ರೇಣೀಕರಿಸಿದ ನಗರ -0.4771
-0.6021 ನಗರ ರಾಜಕೀಯ 0.0000
-0.1249 ರಾಜಕೀಯ ಜೀವನವು 0.0000
-0.1249 ಜೀವನವು ಉಗಮವಾಯಿತು 0.0000
-0.1249 ಉಗಮವಾಯಿತು </s> -0.6021
-0.9788 <s> ಈ -0.1313
-1.3554 ಈ ಕಾರಣಕ್ಕಾಗಿ 0.0000
-0.1249 ಕಾರಣಕ್ಕಾಗಿ ಉತ್ತರದ 0.0000
-0.1249 ಉತ್ತರದ ಭಾಗದಲ್ಲಿ -0.3979
-0.4260 ಭಾಗದಲ್ಲಿ ವಾಸವಾಗಿದ್ದ 0.0000
-0.1249 ವಾಸವಾಗಿದ್ದ ಎಲಮೈಟರನ್ನು 0.0000
-0.1249 ಎಲಮೈಟರನ್ನು ಹೊಡೆದು 0.0000
-0.1249 ಹೊಡೆದು ಓಡಿಸಿದನು 0.0000
-0.1249 ಓಡಿಸಿದನು </s> -0.6021
-2.1249 <s> ಮೆಸಪಟೋಮಿಯಾದ -0.4771
-0.6021 ಮೆಸಪಟೋಮಿಯಾದ ನಾಗರಿಕತೆಯನ್ನು 0.0000
-0.1249 ನಾಗರಿಕತೆಯನ್ನು ಅರ್ಥ 0.0000
-0.1249 ಅರ್ಥ ಮಾಡಿಕೊಳ್ಳಲು 0.0000
-0.1249 ಮಾಡಿಕೊಳ್ಳಲು ನಮಗೆ -0.4771
-0.6021 ನಮಗೆ ಪ್ರಾಚ್ಯವಸ್ತು 0.0000
-0.1249 ಪ್ರಾಚ್ಯವಸ್ತು ಆಕರಗಳ 0.0000
-0.1249 ಆಕರಗಳ ಮತ್ತು -0.5870
-1.4674 ಮತ್ತು ಬರವಣಿಗೆಯ -0.3979
-0.4260 ಬರವಣಿಗೆಯ ಪ್ರಕಾರದ 0.0000
-0.1249 ಪ್ರಕಾರದ ಆಧಾರಗಳು -0.3979
-0.4260 ಆಧಾರಗಳು ಸಿಗುತ್ತವೆ 0.0000
-0.1249 ಸಿಗುತ್ತವೆ </s> -0.6021
-2.1249 <s> ಶುಲ್ಗಿಯು -0.3979
-0.4260 ಶುಲ್ಗಿಯು ರಾಜ್ಯವನ್ನು -0.3979
-0.4260 ರಾಜ್ಯವನ್ನು ಕೇಂದ್ರೀಕೃತ 0.0000
-0.1249 ಕೇಂದ್ರೀಕೃತ ಆಡಳಿತಶಾಹಿಯನ್ನಾಗಿ 0.0000
-0.1249 ಆಡಳಿತಶಾಹಿಯನ್ನಾಗಿ ಪರಿವರ್ತಿಸಿದನು 0.0000
-0.1249 ಪರಿವರ್ತಿಸಿದನು </s> -0.6021
-2.1249 <s> ಇವೆಲ್ಲ 0.0000
-0.1249 ಇವೆಲ್ಲ ಸಮಸ್ಯೆಗಳ 0.0000
-0.1249 ಸಮಸ್ಯೆಗಳ ನಡುವೆಯೂ 0.0000
-0.1249 ನಡುವೆಯೂ ಮೆಸಪಟೋಮಿಯದಲ್ಲಿ 0.0000
-0.1249 ಮೆಸಪಟೋಮಿಯದಲ್ಲಿ ಪ್ರಪಂಚದ -0.3979
-0.4260 ಪ್ರಪಂಚದ ಅತಿ -0.4771
-0.6021 ಅತಿ ಹಳೆಯ -0.3979
-0.4260 ಹಳೆಯ ನಾಗರಿಕತೆ 0.0000
-0.1249 ನಾಗರಿಕತೆ ಹುಟ್ಟಿಕೊಂಡಿತು 0.0000
-0.1249 ಹುಟ್ಟಿಕೊಂಡಿತು </s> -0.6021
-1.3468 <s> ಆದರೆ -0.3010
-0.1249 ಅದು ಅವರ -0.3979
-0.4260 ಅವರ ಉದ್ದೇಶವಾಗಿರಲಿಲ್ಲ 0.0000
-0.1249 ಉದ್ದೇಶವಾಗಿರಲಿಲ್ಲ </s> -0.6021
-2.1249 <s> ಆಧುನಿಕ 0.0000
-0.1249 ಆಧುನಿಕ ಇರಾಕ್ 0.0000
-0.1249 ಇರಾಕ್ ದೇಶಕ್ಕೆ 0.0000
-0.1249 ದೇಶಕ್ಕೆ ಈಗ 0.0000
-0.1249 ಈಗ ಇರುವಂತೆಯೇ 0.0000
-0.1249 ಇರುವಂತೆಯೇ ಗಡಿಯ 0.0000
-0.1249 ಗಡಿಯ ಪ್ರದೇಶವು -0.3979
-0.4260 ಪ್ರದೇಶವು ಅಂದಿನ -0.3979
-0.4260 ಅಂದಿನ ಮೆಸಪಟೋಮಿಯ -0.3979
-0.4260 ಮೆಸಪಟೋಮಿಯ ದೇಶಕ್ಕೂ 0.0000
-0.1249 ದೇಶಕ್ಕೂ ಇತ್ತು 0.0000
-0.1249 ಇತ್ತು </s> -0.6021
-1.3554 ಈ ಮುಖ್ಯ -0.5119
-0.7270 ಮುಖ್ಯ ನದಿಯ -0.3979
-0.4260 ನದಿಯ ಅಂಚಿನಲ್ಲಿಯೇ 0.0000
-0.1249 ಅಂಚಿನಲ್ಲಿಯೇ ಅತಿ -0.4771
-0.6021 ಅತಿ ಪ್ರಾಚೀನ 0.0000
-0.1249 ಪ್ರಾಚೀನ ಮಹಾನಗರಗಳು 0.0000
-0.1249 ಮಹಾನಗರಗಳು ಹುಟ್ಟಿಕೊಂಡದ್ದು 0.0000
-0.1249 ಹುಟ್ಟಿಕೊಂಡದ್ದು </s> -0.6021
-1.3554 ಈ ನಗರದ -0.5119
-0.7270 ನಗರದ ಸಾಮಾಜಿಕ 0.0000
-0.1249 ಸಾಮಾಜಿಕ ಬೆಳವಣಿಗೆಯು 0.0000
-0.1249 ಬೆಳವಣಿಗೆಯು ಅಧಿಕಾರ -0.6021
-0.1249 ಆಸ್ತಿ ಮತ್ತು -0.5870
-1.4674 ಮತ್ತು ಸಂಪತ್ತಿನ 0.0000
-0.1249 ಸಂಪತ್ತಿನ ಮೂಲಗಳನ್ನು 0.0000
-0.1249 ಮೂಲಗಳನ್ನು ಅವಲಂಬಿಸಿತ್ತು 0.0000
-0.1249 ಅವಲಂಬಿಸಿತ್ತು </s> -0.6021
-2.1249 <s> ಸುಮಾರು -0.4771
-0.6021 ಸುಮಾರು ಸಾವಿರ 0.0000
-0.1249 ಸಾವಿರ ವರ್ಷಗಳ 0.0000
-0.1249 ವರ್ಷಗಳ ಮೊದಲ -0.3979
-0.4260 ಮೊದಲ ಭಾಗದಲ್ಲಿ -0.3979
-0.4260 ಭಾಗದಲ್ಲಿ ಫಲವತ್ತಾದ 0.0000
-0.1249 ಫಲವತ್ತಾದ ಪ್ರದೇಶಗಳಲ್ಲಿ 0.0000
-0.1249 ಪ್ರದೇಶಗಳಲ್ಲಿ ಮಾನವನು 0.0000
-0.1249 ಮಾನವನು ಮೊದಲು 0.0000
-0.1249 ಮೊದಲು ನೆಲಸಿದ್ದನೆಂದು 0.0000
-0.1249 ನೆಲಸಿದ್ದನೆಂದು ಅಂದಾಜು 0.0000
-0.1249 ಅಂದಾಜು ಮಾಡಲಾಗಿದೆ 0.0000
-0.1249 ಮಾಡಲಾಗಿದೆ </s> -0.6021
-2.1249 <s> ಇವರ 0.0000
-0.1249 ಇವರ ಕಾಲದಲ್ಲಿ -0.4771
-0.6021 ಕಾಲದಲ್ಲಿ ನಿಪ್ಪೂರ್ 0.0000
-0.1249 ನಿಪ್ಪೂರ್ ನಗರವು -0.3979
-0.4260 ನಗರವು ಅಧಿಕವಾಗಿ 0.0000
-0.1249 ಅಧಿಕವಾಗಿ ಅಭಿವೃದ್ದಿಗೊಂಡು 0.0000
-0.1249 ಅಭಿವೃದ್ದಿಗೊಂಡು ರಾಜ್ಯದ -0.3979
-0.4260 ರಾಜ್ಯದ ಒಂದು -0.5315
-0.8239 ಒಂದು ಮುಖ್ಯ -0.5119
-0.7270 ಮುಖ್ಯ ನಗರವಾಗಿ 0.0000
-0.1249 ನಗರವಾಗಿ ಬೆಳೆಯಿತು 0.0000
-0.1249 ಬೆಳೆಯಿತು </s> -0.6021
-2.1249 <s> ಉರ್ನಮ್ಮು 0.0000
-0.1249 ಉರ್ನಮ್ಮು ಅಥವಾ 0.0000
-0.1249 ಅಥವಾ ಶುಲ್ಗಿ -0.6021
-0.1249 ಇಬ್ಬರಲ್ಲಿ ಒಬ್ಬನು 0.0000
-0.1249 ಒಬ್ಬನು ಮೊದಲಿಗೆ 0.0000
-0.1249 ಮೊದಲಿಗೆ ಕಾನೂನುಗಳ 0.0000
-0.1249 ಕಾನೂನುಗಳ ಪಟ್ಟಿ 0.0000
-0.1249 ಪಟ್ಟಿ ಮಾಡಿಸಿದನು 0.0000
-0.1249 ಮಾಡಿಸಿದನು </s> -0.6021
-0.9031 ಆದರೆ ಆ -0.3979
-0.4260 ಆ ಕಾವ್ಯರೂಪ -0.6021
-0.1249 ಬೆದಂಡೆಯನ್ನು ಪ್ರತಿಯೊಬ್ಬ 0.0000
-0.1249 ಪ್ರತಿಯೊಬ್ಬ ಕನ್ನಡಿಗನೂ 0.0000
-0.1249 ಕನ್ನಡಿಗನೂ ಸಾಹಿತ್ಯದೃಷ್ಟಿಯಿಂದ 0.0000
-0.1249 ಸಾಹಿತ್ಯದೃಷ್ಟಿಯಿಂದ ಅರಿಯಬೇಕಾದುದು 0.0000
-0.1249 ಅರಿಯಬೇಕಾದುದು ಅಗತ್ಯ 0.0000
-0.1249 ಅಗತ್ಯ </s> -0.6021
-2.1249 <s> ಅವುಗಳಲ್ಲಿ 0.0000
-0.1249 ಅವುಗಳಲ್ಲಿ ಪ್ರಮುಖವಾದುವುಗಳೆಂದರೆ 0.0000
-0.1249 ಪ್ರಮುಖವಾದುವುಗಳೆಂದರೆ ಇಸಿನ್ -0.6021
-0.4260 ಉರುಕ್ ಮತ್ತು -0.5870
-1.4674 ಮತ್ತು ಬೆಬಿಲೋನಿಯ -0.3979
-0.4260 ಬೆಬಿಲೋನಿಯ </s> -0.6021
-0.9031 ಆದರೆ ಹವಾಗುಣ 0.0000
-0.1249 ಹವಾಗುಣ ಮಾತ್ರ -0.3979
-0.4260 ಮಾತ್ರ ಒಂದು -0.5315
-0.8239 ಒಂದು ಪ್ರದೇಶದಿಂದ 0.0000
-0.1249 ಪ್ರದೇಶದಿಂದ ಮತ್ತೊಂದು -0.3979
-0.4260 ಮತ್ತೊಂದು ಪ್ರದೇಶಕ್ಕೆ 0.0000
-0.1249 ಪ್ರದೇಶಕ್ಕೆ ಭಿನ್ನವಾಗಿತ್ತು 0.0000
-0.1249 ಭಿನ್ನವಾಗಿತ್ತು </s> -0.6021
-2.1249 <s> ಅವರಿಂದ 0.0000
-0.1249 ಅವರಿಂದ ಶಸ್ತ್ರಾಸ್ತ್ರಗಳನ್ನು 0.0000
-0.1249 ಶಸ್ತ್ರಾಸ್ತ್ರಗಳನ್ನು ಕಸಿದುಕೊಂಡು 0.0000
-0.1249 ಕಸಿದುಕೊಂಡು ಕ್ರಾಂತಿಸೈನ್ಯಕ್ಕೆ 0.0000
-0.1249 ಕ್ರಾಂತಿಸೈನ್ಯಕ್ಕೆ ಜಮಾಯಿಸುತ್ತಿದ್ದರು 0.0000
-0.1249 ಜಮಾಯಿಸುತ್ತಿದ್ದರು </s> -0.6021
-1.8239 <s> ಇವನ -0.3979
-0.7270 ಇವನ ಆಳ್ವಿಕೆಯ -0.4771
-0.6021 ಆಳ್ವಿಕೆಯ ಅಂತಿಮ 0.0000
-0.1249 ಅಂತಿಮ ಕಾಲಕ್ಕೆ -0.4771
-0.6021 ಕಾಲಕ್ಕೆ ಒಂದು -0.5315
-0.8239 ಒಂದು ಸಾಮ್ರಾಜ್ಯವನ್ನೇ 0.0000
-0.1249 ಸಾಮ್ರಾಜ್ಯವನ್ನೇ ಕಟ್ಟಿದ್ದನು 0.0000
-0.1249 ಕಟ್ಟಿದ್ದನು </s> -0.6021
-1.8239 <s> ನಂತರ -0.4472
-0.8239 ನಂತರ ಇವನ -0.5119
-0.7270 ಇವನ ಚಿಕ್ಕ 0.0000
-0.1249 ಚಿಕ್ಕ ತಮ್ಮ -0.3979
-0.4260 ತಮ್ಮ ಶೂಶಿನ್ 0.0000
-0.1249 ಶೂಶಿನ್ ಕ್ರಿ 0.0000
-0.1249 ಕ್ರಿ </s> -0.6021
-2.1249 <s> ಇದರಿಂದಾಗಿ 0.0000
-0.1249 ಇದರಿಂದಾಗಿ ಉರ್ -0.3979
-0.4260 ಉರ್ ಎನ್ನುವ -0.5119
-0.7270 ಎನ್ನುವ ಮೂರನೆಯ 0.0000
-0.1249 ಮೂರನೆಯ ಮುಖ್ಯನಗರವೊಂದು 0.0000
-0.1249 ಮುಖ್ಯನಗರವೊಂದು ಅಸ್ತಿತ್ವಕ್ಕೆ 0.0000
-0.1249 ಅಸ್ತಿತ್ವಕ್ಕೆ ಬಂತು 0.0000
-0.1249 ಬಂತು </s> -0.6021
-2.1249 <s> ಇರಾನಿನ 0.0000
-0.1249 ಇರಾನಿನ ಸುಸ 0.0000
-0.1249 ಸುಸ ಎಂಬುವಲ್ಲಿ 0.0000
-0.1249 ಎಂಬುವಲ್ಲಿ ಪಾಳು 0.0000
-0.1249 ಪಾಳು ಬಿದ್ದಿದ್ದ 0.0000
-0.1249 ಬಿದ್ದಿದ್ದ ಅವಶೇಷದಲ್ಲಿ 0.0000
-0.1249 ಅವಶೇಷದಲ್ಲಿ ಇದು -0.3979
-0.4260 ಇದು ಸಿಕ್ಕಿದೆ 0.0000
-0.1249 ಸಿಕ್ಕಿದೆ </s> -0.6021
-2.1249 <s> ಬರವಣಿಗೆಯ -0.3979
-0.4260 ಬರವಣಿಗೆಯ ಆಧಾರಗಳು -0.3979
-0.4260 ಆಧಾರಗಳು ನಮಗೆ -0.4771
-0.6021 ನಮಗೆ ಪುರಾತನ -0.3979
-0.4260 ಪುರಾತನ ಬೆಬಿಲೋನಿಯ -0.3979
-0.4260 ಬೆಬಿಲೋನಿಯ ಮತ್ತು -0.5870
-1.4674 ಮತ್ತು ಅಸ್ಸಿರಿಯ 0.0000
-0.1249 ಅಸ್ಸಿರಿಯ ದಾಖಲೆಗಳಲ್ಲಿ 0.0000
-0.1249 ದಾಖಲೆಗಳಲ್ಲಿ ದೊರೆಯುತ್ತವೆ 0.0000
-0.1249 ದೊರೆಯುತ್ತವೆ </s> -0.6021
-1.3554 ಈ ರೀತಿಯ -0.3979
-0.4260 ರೀತಿಯ ಉತ್ಪಾದನೆ -0.6021
-0.1249 ಬೆಳೆಯುತ್ತಿದ್ದ ನಗರ -0.4771
-0.6021 ನಗರ ಜನಸಂಖ್ಯೆಗೆ 0.0000
-0.1249 ಜನಸಂಖ್ಯೆಗೆ ಆಹಾರ 0.0000
-0.1249 ಆಹಾರ ಒದಗಿಸಲು 0.0000
-0.1249 ಒದಗಿಸಲು ತುಂಬಾ 0.0000
-0.1249 ತುಂಬಾ ಅವಶ್ಯಕವಾಗಿತ್ತು 0.0000
-0.1249 ಅವಶ್ಯಕವಾಗಿತ್ತು </s> -0.6021
-2.1249 <s> ಇದು -0.3979
-0.4260 ಇದು ಸುಮೇರಿಯನ್ 0.0000
-0.1249 ಸುಮೇರಿಯನ್ ಇತಿಹಾಸದಲ್ಲಿ 0.0000
-0.1249 ಇತಿಹಾಸದಲ್ಲಿ ಪ್ರಮುಖವಾದ 0.0000
-0.1249 ಪ್ರಮುಖವಾದ ನಗರವಾಗಿರುತ್ತದೆ 0.0000
-0.1249 ನಗರವಾಗಿರುತ್ತದೆ </s> -0.6021
-2.1249 <s> ವಿದೇಶಿ 0.0000
-0.1249 ವಿದೇಶಿ ಸಂಬಂಧಗಳಿಗೆ 0.0000
-0.1249 ಸಂಬಂಧಗಳಿಗೆ ಸಂಬಂಧಿಸಿದಂತೆ 0.0000
-0.1249 ಸಂಬಂಧಿಸಿದಂತೆ ಹೇಳುವುದಾದರೆ 0.0000
-0.1249 ಹೇಳುವುದಾದರೆ ತಮ್ಮ -0.3979
-0.4260 ತಮ್ಮ ಮೊದಲಿನ 0.0000
-0.1249 ಮೊದಲಿನ ರಾಜರುಗಳಿಗಿಂತ 0.0000
-0.1249 ರಾಜರುಗಳಿಗಿಂತ ಕಸ್ಸೈಟರು -0.3979
-0.4260 ಕಸ್ಸೈಟರು ಇನ್ನೂ -0.3979
-0.4260 ಇನ್ನೂ ವಿಸ್ತಾರವಾದ 0.0000
-0.1249 ವಿಸ್ತಾರವಾದ ಜಗತ್ತಿನಲ್ಲಿ 0.0000
-0.1249 ಜಗತ್ತಿನಲ್ಲಿ ವ್ಯವಹರಿಸುತ್ತಿದ್ದರು 0.0000
-0.1249 ವ್ಯವಹರಿಸುತ್ತಿದ್ದರು </s> -0.6021
-2.1249 <s> ಅವರು -0.3979
-0.4260 ಅವರು ಕ್ರಾಂತಿಕಾರರನ್ನು 0.0000
-0.1249 ಕ್ರಾಂತಿಕಾರರನ್ನು ಹೆಚ್ಚು -0.3979
-0.4260 ಹೆಚ್ಚು ಹೆಚ್ಚು -0.3979
-0.4260 ಹೆಚ್ಚು ಬೆಂಬಲಿಸತೊಡಗಿದರು 0.0000
-0.1249 ಬೆಂಬಲಿಸತೊಡಗಿದರು </s> -0.6021
-2.1249 <s> ಆರ್ಥಿಕ 0.0000
-0.1249 ಆರ್ಥಿಕ ವ್ಯವಸ್ಥೆಗೆ 0.0000
-0.1249 ವ್ಯವಸ್ಥೆಗೆ ಸಂಬಂಧಿಸಿದ 0.0000
-0.1249 ಸಂಬಂಧಿಸಿದ ಎಲ್ಲ 0.0000
-0.1249 ಎಲ್ಲ ರೀತಿಯ -0.3979
-0.4260 ರೀತಿಯ ಕಡತಗಳನ್ನು 0.0000
-0.1249 ಕಡತಗಳನ್ನು ಕರಾರುವಕ್ಕಾಗಿ 0.0000
-0.1249 ಕರಾರುವಕ್ಕಾಗಿ ಉಳಿಸಿಕೊಂಡು 0.0000
-0.1249 ಉಳಿಸಿಕೊಂಡು ಬಂದಿದ್ದನು 0.0000
-0.1249 ಬಂದಿದ್ದನು </s> -0.6021
-1.3554 ಈ ಕೃತಿಯ 0.0000
-0.1249 ಕೃತಿಯ ವಸ್ತು -0.3979
-0.4260 ವಸ್ತು ಹಳೆಯದು 0.0000
-0.1249 ಹಳೆಯದು ಹಳೆಯ -0.3979
-0.4260 ಹಳೆಯ ಕಾಲದ -0.4771
-0.6021 ಕಾಲದ ವಿಚಾರಧಾರೆ 0.0000
-0.1249 ವಿಚಾರಧಾರೆ ಅದರಲ್ಲಿದ್ದುದು 0.0000
-0.1249 ಅದರಲ್ಲಿದ್ದುದು </s> -0.6021
-2.1249 <s> ಆ -0.3979
-0.4260 ಆ ಸಂಸ್ಕಾರದ 0.0000
-0.1249 ಸಂಸ್ಕಾರದ ಬಲದಿಂದ 0.0000
-0.1249 ಬಲದಿಂದ ಪ್ರತಿಭಾಶಾಲಿಯಾದ 0.0000
-0.1249 ಪ್ರತಿಭಾಶಾಲಿಯಾದ ಹಳ್ಳಿಗ 0.0000
-0.1249 ಹಳ್ಳಿಗ ಹಾಡುಕಟ್ಟಿದ್ದಾನೆ 0.0000
-0.1249 ಹಾಡುಕಟ್ಟಿದ್ದಾನೆ </s> -0.6021
-2.1249 <s> ಮುಂದಿನ -0.4771
-0.6021 ಮುಂದಿನ ಸಶಸ್ತ್ರ 0.0000
-0.1249 ಸಶಸ್ತ್ರ ಬಂಡಾಯಕ್ಕೆ 0.0000
-0.1249 ಬಂಡಾಯಕ್ಕೆ ಒಂದು -0.5315
-0.8239 ಒಂದು ಸ್ಪಷ್ಟ 0.0000
-0.1249 ಸ್ಪಷ್ಟ ಯೋಜನೆ 0.0000
-0.1249 ಯೋಜನೆ ರೂಪಿಸಿದರು 0.0000
-0.1249 ರೂಪಿಸಿದರು </s> -0.6021
-1.3554 ಈ ಕಾಲದಲ್ಲಿ -0.4771
-0.6021 ಕಾಲದಲ್ಲಿ ಸುಮಾರು -0.4771
-0.6021 ಸುಮಾರು ರಾಜರು -0.3979
-0.4260 ರಾಜರು ಸುಮೇರ್ -0.3979
-0.4260 ಸುಮೇರ್ ನಗರರಾಜ್ಯವನ್ನು 0.0000
-0.1249 ನಗರರಾಜ್ಯವನ್ನು ಆಳಿದರು 0.0000
-0.1249 ಆಳಿದರು </s> -0.6021
-2.1249 <s> ದಂಗೆಗಳು 0.0000
-0.1249 ದಂಗೆಗಳು ಪದೇ -0.3979
-0.4260 ಪದೇ ಪದೇ -0.3979
-0.4260 ಪದೇ ಏಳಲು 0.0000
-0.1249 ಏಳಲು ಆರಂಭವಾದುವು 0.0000
-0.1249 ಆರಂಭವಾದುವು </s> -0.6021
-1.8239 <s> ರಷ್ಯಾದ -0.3010
-0.6021 ರಷ್ಯಾದ ಎಲ್ಲಾ 0.0000
-0.1249 ಎಲ್ಲಾ ಜನರಿಗೆ -0.5441
-0.9031 ಜನರಿಗೆ ಸಮಾನತೆ 0.0000
-0.1249 ಸಮಾನತೆ ಮತ್ತು -0.5870
-1.4674 ಮತ್ತು ಸಾರ್ವಭೌಮತೆ 0.0000
-0.1249 ಸಾರ್ವಭೌಮತೆ </s> -0.6021
-0.1249 ದುಃಸ್ಥಿತಿಗಳಿಂದ ಜನರು 0.0000
-0.1249 ಜನರು ತಾತ್ಕಾಲಿಕ -0.5119
-0.7270 ತಾತ್ಕಾಲಿಕ ಸರಕಾರದಿಂದಲೇ 0.0000
-0.1249 ಸರಕಾರದಿಂದಲೇ ಬಹಳ 0.0000
-0.1249 ಬಹಳ ದೂರ 0.0000
-0.1249 ದೂರ ಸರಿಯುವಂತಾಯಿತು 0.0000
-0.1249 ಸರಿಯುವಂತಾಯಿತು </s> -0.6021
-2.1249 <s> ವ್ಯವಸಾಯದಿಂದ 0.0000
-0.1249 ವ್ಯವಸಾಯದಿಂದ ಹೆಚ್ಚಿನ 0.0000
-0.1249 ಹೆಚ್ಚಿನ ಆದಾಯವು 0.0000
-0.1249 ಆದಾಯವು ನಗರದ -0.5119
-0.7270 ನಗರದ ಆಳುವ -0.3979
-0.4260 ಆಳುವ ವರ್ಗದವರನ್ನು 0.0000
-0.1249 ವರ್ಗದವರನ್ನು ಶ್ರೀಮಂತರ 0.0000
-0.1249 ಶ್ರೀಮಂತರ ನ್ನಾಗಿ 0.0000
-0.1249 ನ್ನಾಗಿ ಮಾಡಿತು 0.0000
-0.1249 ಮಾಡಿತು </s> -0.6021
-2.1249 <s> ಪ್ರಧಾನಿ 0.0000
-0.1249 ಪ್ರಧಾನಿ ಕೆರೆನ್ಸ್ಕಿ 0.0000
-0.1249 ಕೆರೆನ್ಸ್ಕಿ ಹೆಣ್ಣುವೇಷ 0.0000
-0.1249 ಹೆಣ್ಣುವೇಷ ಧರಿಸಿ 0.0000
-0.1249 ಧರಿಸಿ ತಲೆತಪ್ಪಿಸಿಕೊಂಡು 0.0000
-0.1249 ತಲೆತಪ್ಪಿಸಿಕೊಂಡು ಹೋದರು 0.0000
-0.1249 ಹೋದರು </s> -0.6021
-2.1249 <s> ದೇಹಕ್ಕೆ 0.0000
-0.1249 ದೇಹಕ್ಕೆ ಆದ 0.0000
-0.1249 ಆದ ಗಾಯ 0.0000
-0.1249 ಗಾಯ ಮತ್ತು -0.5870
-1.4674 ಮತ್ತು ನೋವುಗಳಿಗೆ 0.0000
-0.1249 ನೋವುಗಳಿಗೆ ಹಣಕಾಸಿನ 0.0000
-0.1249 ಹಣಕಾಸಿನ ಪರಿಹಾರ 0.0000
-0.1249 ಪರಿಹಾರ ನೀಡಲಾಗುತ್ತಿತ್ತು 0.0000
-0.1249 ನೀಡಲಾಗುತ್ತಿತ್ತು </s> -0.6021
-2.1249 <s> ಎತ್ತರವಾಗಿದ್ದು 0.0000
-0.1249 ಎತ್ತರವಾಗಿದ್ದು ರಾಜ್ಯವನ್ನೆಲ್ಲ 0.0000
-0.1249 ರಾಜ್ಯವನ್ನೆಲ್ಲ ಒಂದುಗೂಡಿಸಿದ 0.0000
-0.1249 ಒಂದುಗೂಡಿಸಿದ ನಂತರ -0.5315
-0.8239 ನಂತರ ಬೆಬಿಲೋನಿಯದಲ್ಲಿ 0.0000
-0.1249 ಬೆಬಿಲೋನಿಯದಲ್ಲಿ ಕೆತ್ತಿಸಲಾಗಿದೆ 0.0000
-0.1249 ಕೆತ್ತಿಸಲಾಗಿದೆ </s> -0.6021
-1.8239 <s> ಜನರ 0.0000
-0.4260 ಜನರ ಕಮಿಸಾರರ 0.0000
-0.1249 ಕಮಿಸಾರರ ಮಂಡಳಿ 0.0000
-0.1249 ಮಂಡಳಿ ಯನ್ನು 0.0000
-0.1249 ಯನ್ನು ಸ್ಥಾಪಿಸಲಾಯಿತು 0.0000
-0.1249 ಸ್ಥಾಪಿಸಲಾಯಿತು </s> -0.6021
-2.1249 <s> ಸೂರ್ಯನ 0.0000
-0.1249 ಸೂರ್ಯನ ಬೆಳಕಿನಲ್ಲಿ 0.0000
-0.1249 ಬೆಳಕಿನಲ್ಲಿ ಒಣಗಿಸಿದ 0.0000
-0.1249 ಒಣಗಿಸಿದ ಇಟ್ಟಿಗೆಗಳಿಗೆ 0.0000
-0.1249 ಇಟ್ಟಿಗೆಗಳಿಗೆ ಬದಲಾಗಿ 0.0000
-0.1249 ಬದಲಾಗಿ ಬೇಯಿಸಿದ 0.0000
-0.1249 ಬೇಯಿಸಿದ ಇಟ್ಟಿಗೆಗಳನ್ನು 0.0000
-0.1249 ಇಟ್ಟಿಗೆಗಳನ್ನು ಬಳಸಿದರು 0.0000
-0.1249 ಬಳಸಿದರು </s> -0.6021
-2.1249 <s> ವ್ಯವಸಾಯ 0.0000
-0.1249 ವ್ಯವಸಾಯ ಪದ್ಧತಿಯು 0.0000
-0.1249 ಪದ್ಧತಿಯು ಇನ್ನು 0.0000
-0.1249 ಇನ್ನು ಸುಧಾರಿಸಿತು 0.0000
-0.1249 ಸುಧಾರಿಸಿತು ಮತ್ತು -0.5870
-1.4674 ಮತ್ತು ಧಾನ್ಯದ 0.0000
-0.1249 ಧಾನ್ಯದ ಇಳುವರಿಯಲ್ಲಿ 0.0000
-0.1249 ಇಳುವರಿಯಲ್ಲಿ ಗಣನೀಯವಾಗಿ 0.0000
-0.1249 ಗಣನೀಯವಾಗಿ ಆದಾಯ 0.0000
-0.1249 ಆದಾಯ ಹೆಚ್ಚಾಗಿತ್ತು 0.0000
-0.1249 ಹೆಚ್ಚಾಗಿತ್ತು </s> -0.6021
-2.1249 <s> ಸಹಾಯಕ 0.0000
-0.1249 ಸಹಾಯಕ ಸಂಶೋಧಕರ 0.0000
-0.1249 ಸಂಶೋಧಕರ ಸಹಾಯ 0.0000
-0.1249 ಸಹಾಯ ನಮಗೆ -0.4771
-0.6021 ನಮಗೆ ಇದ್ದೇ 0.0000
-0.1249 ಇದ್ದೇ ಇದೆ 0.0000
-0.1249 ಇದೆ </s> -0.6021
-2.1249 <s> ಪಶ್ಚಿಮದಿಂದ 0.0000
-0.1249 ಪಶ್ಚಿಮದಿಂದ ಬರುತ್ತಿದ್ದ 0.0000
-0.1249 ಬರುತ್ತಿದ್ದ ಅಲೆಮಾರಿ -0.3979
-0.4260 ಅಲೆಮಾರಿ ಬುಡಕಟ್ಟು 0.0000
-0.1249 ಬುಡಕಟ್ಟು ಜನರಿಂದ 0.0000
-0.1249 ಜನರಿಂದ ಶುಲ್ಗಿಯು -0.3979
-0.4260 ಶುಲ್ಗಿಯು ಕಷ್ಟವನ್ನು 0.0000
-0.1249 ಕಷ್ಟವನ್ನು ಅನುಭವಿಸಬೇಕಾಗಿ 0.0000
-0.1249 ಅನುಭವಿಸಬೇಕಾಗಿ ಬಂತು 0.0000
-2.1249 <s> ಏಕೆಂದರೆ 0.0000
-0.1249 ಏಕೆಂದರೆ ನಿಧಾನವಾಗಿ 0.0000
-0.1249 ನಿಧಾನವಾಗಿ ಹರಿಯುವ 0.0000
-0.1249 ಹರಿಯುವ ಈ -0.5825
-1.3554 ಈ ನದಿಯ -0.3979
-0.4260 ನದಿಯ ನೀರನ್ನು 0.0000
-0.1249 ನೀರನ್ನು ವ್ಯವಸಾಯಕ್ಕೆ 0.0000
-0.1249 ವ್ಯವಸಾಯಕ್ಕೆ ಬಳಸಿಕೊಳ್ಳಬಹುದಿತ್ತು 0.0000
-0.1249 ಬಳಸಿಕೊಳ್ಳಬಹುದಿತ್ತು </s> -0.6021
-2.1249 <s> ಇವುಗಳಲ್ಲಿ 0.0000
-0.1249 ಇವುಗಳಲ್ಲಿ ಆಮದು 0.0000
-0.1249 ಆಮದು ಮಾಡಿಕೊಂಡ 0.0000
-0.1249 ಮಾಡಿಕೊಂಡ ಹರಳುಗಳು 0.0000
-0.1249 ಹರಳುಗಳು ಕೂಡ 0.0000
-0.1249 ಕೂಡ ಇವೆ 0.0000
-0.1249 ಇವೆ </s> -0.6021
-1.8239 <s> ತಾತ್ಕಾಲಿಕ -0.2430
-0.7270 ತಾತ್ಕಾಲಿಕ ಸರಕಾರವು 0.0000
-0.1249 ಸರಕಾರವು ಸೇತುವೆಗಳನ್ನು 0.0000
-0.1249 ಸೇತುವೆಗಳನ್ನು ಉರುಳಿಸಲು 0.0000
-0.1249 ಉರುಳಿಸಲು ಪ್ರಯತ್ನಿಸಿತು 0.0000
-0.1249 ಪ್ರಯತ್ನಿಸಿತು </s> -0.6021
-2.1249 <s> ನಗರದ -0.5119
-0.7270 ನಗರದ ಅರಮನೆ 0.0000
-0.1249 ಅರಮನೆ ಮತ್ತು -0.5870
-1.4674 ಮತ್ತು ದೇವಸ್ಥಾನಗಳನ್ನು 0.0000
-0.1249 ದೇವಸ್ಥಾನಗಳನ್ನು ವಿಸ್ತರಿಸಿದರು 0.0000
-0.1249 ವಿಸ್ತರಿಸಿದರು </s> -0.6021
-2.1249 <s> ಅದನ್ನು 0.0000
-0.1249 ಅದನ್ನು ಕ್ರಾಂತಿಕಾರಿ 0.0000
-0.1249 ಕ್ರಾಂತಿಕಾರಿ ಮಿಲಿಟರಿ 0.0000
-0.1249 ಮಿಲಿಟರಿ ಕೇಂದ್ರ 0.0000
-0.1249 ಕೇಂದ್ರ ಸಮಿತಿ 0.0000
-0.1249 ಸಮಿತಿ ಅಂಗೀಕರಿಸಿತು 0.0000
-0.1249 ಅಂಗೀಕರಿಸಿತು </s> -0.6021
-2.1249 <s> ಎಲಾಮ್ 0.0000
-0.1249 ಎಲಾಮ್ ದೇಶದ -0.3979
-0.4260 ದೇಶದ ಶುತ್ರುಕ್ನಹ್ಹುಂತೆ 0.0000
-0.1249 ಶುತ್ರುಕ್ನಹ್ಹುಂತೆ ಎಂಬುವವನು 0.0000
-0.1249 ಎಂಬುವವನು ಸುಮಾರು -0.4771
-0.6021 ಸುಮಾರು ಕ್ರಿ 0.0000
-2.1249 <s> ಪ್ರತಿಕ್ರಾಂತಿಕಾರಿಗಳ 0.0000
-0.1249 ಪ್ರತಿಕ್ರಾಂತಿಕಾರಿಗಳ ಅಧಿಕಾರವನ್ನು 0.0000
-0.1249 ಅಧಿಕಾರವನ್ನು ಸ್ತಬ್ಧಗೊಳಿಸುವುದಷ್ಟೆ 0.0000
-0.1249 ಸ್ತಬ್ಧಗೊಳಿಸುವುದಷ್ಟೆ ಅವರ -0.3979
-0.4260 ಅವರ ಗುರಿಯಾಗಿತ್ತು 0.0000
-0.1249 ಗುರಿಯಾಗಿತ್ತು </s> -0.6021
-0.4260 ಜನರ ಕೈಗೆಕಾರ್ಮಿಕರಿಗೆ 0.0000
-0.1249 ಕೈಗೆಕಾರ್ಮಿಕರಿಗೆ ಮತ್ತು -0.5870
-1.4674 ಮತ್ತು ರೈತರಿಗೆ 0.0000
-0.1249 ರೈತರಿಗೆ ಅಧಿಕಾರ -0.3979
-0.4260 ಅಧಿಕಾರ ಬಂದಿದೆ 0.0000
-0.1249 ಬಂದಿದೆ </s> -0.6021
-2.1249 <s> ಅನಂತರ 0.0000
-0.1249 ಅನಂತರ ಇವನ -0.5119
-0.7270 ಇವನ ಕಿರಿಯ 0.0000
-0.1249 ಕಿರಿಯ ಮಗ 0.0000
-0.1249 ಮಗ ಇಬ್ಬಿಸಿನ್ 0.0000
-0.1249 ಇಬ್ಬಿಸಿನ್ ಕ್ರಿ 0.0000
-2.1249 <s> ಇದರ 0.0000
-0.1249 ಇದರ ಮುಖ್ಯ -0.5119
-0.7270 ಮುಖ್ಯ ಭಾಗವೊಂದು 0.0000
-0.1249 ಭಾಗವೊಂದು ಅದರ -0.3979
-0.4260 ಅದರ ಇಂದಿನ 0.0000
-0.1249 ಇಂದಿನ ಮಾರ್ಗದಂತೆ 0.0000
-0.1249 ಮಾರ್ಗದಂತೆ ಸಮತಟ್ಟಾದ 0.0000
-0.1249 ಸಮತಟ್ಟಾದ ಭೂಮಿಯ 0.0000
-0.1249 ಭೂಮಿಯ ಮಧ್ಯಭಾಗದಲ್ಲಿ 0.0000
-0.1249 ಮಧ್ಯಭಾಗದಲ್ಲಿ ಹಾದು 0.0000
-0.1249 ಹಾದು ಹೋಗಿತ್ತು 0.0000
-0.1249 ಹೋಗಿತ್ತು </s> -0.6021
-1.8239 <s> ಉಬೈದ್ 0.0000
-0.1249 ಉಬೈದ್ ಒ 0.0000
-0.6021 ಒ ಕಾಲವು -0.5119
-0.7270 ಕಾಲವು ವ್ಯವಸಾಯವನ್ನಾಧರಿಸಿದ 0.0000
-0.1249 ವ್ಯವಸಾಯವನ್ನಾಧರಿಸಿದ ಹಳ್ಳಿಗಳ 0.0000
-0.1249 ಹಳ್ಳಿಗಳ ಕಾಲವನ್ನು -0.3979
-0.4260 ಕಾಲವನ್ನು ಪ್ರತಿನಿಧಿಸುತ್ತದೆ 0.0000
-0.1249 ಪ್ರತಿನಿಧಿಸುತ್ತದೆ </s> -0.6021
-2.1249 <s> ಅಲೆಮಾರಿ -0.3979
-0.4260 ಅಲೆಮಾರಿ ಜನಾಂಗಕ್ಕೆ 0.0000
-0.1249 ಜನಾಂಗಕ್ಕೆ ಸೇರಿದವರಾಗಿದ್ದ 0.0000
-0.1249 ಸೇರಿದವರಾಗಿದ್ದ ಅಕ್ಕಡಿಯನ್ನರು 0.0000
-0.1249 ಅಕ್ಕಡಿಯನ್ನರು ಸುಮೇರಿಯನ್ನರ 0.0000
-0.1249 ಸುಮೇರಿಯನ್ನರ ಸಂಸ್ಕೃತಿಯನ್ನೇ 0.0000
-0.1249 ಸಂಸ್ಕೃತಿಯನ್ನೇ ಸ್ವೀಕರಿಸಿ -0.6021
-0.8239 ನಂತರ ಬೆಳೆಸಿದರು 0.0000
-0.1249 ಬೆಳೆಸಿದರು </s> -0.6021
-2.1249 <s> ರಷ್ಯಾದಲ್ಲಿ 0.0000
-0.1249 ರಷ್ಯಾದಲ್ಲಿ ನೆಲೆ 0.0000
-0.1249 ನೆಲೆ ನಿಂತಿರುವ 0.0000
-0.1249 ನಿಂತಿರುವ ರಾಷ್ಟ್ರೀಯ 0.0000
-0.1249 ರಾಷ್ಟ್ರೀಯ ಅಲ್ಪಸಂಖ್ಯಾತರ 0.0000
-0.1249 ಅಲ್ಪಸಂಖ್ಯಾತರ ಮತ್ತು -0.5870
-1.4674 ಮತ್ತು ಜನಾಂಗೀಯ 0.0000
-0.1249 ಜನಾಂಗೀಯ ಗುಂಪುಗಳಿಗೆ 0.0000
-0.1249 ಗುಂಪುಗಳಿಗೆ ಅಭಿವೃದ್ದಿಗೆ 0.0000
-0.1249 ಅಭಿವೃದ್ದಿಗೆ ಮುಕ್ತ 0.0000
-0.1249 ಮುಕ್ತ ಅವಕಾಶ 0.0000
-0.1249 ಅವಕಾಶ </s> -0.6021
-2.1249 <s> ಇವೆಲ್ಲವುಗಳಿಂದ 0.0000
-0.1249 ಇವೆಲ್ಲವುಗಳಿಂದ ಸೋವಿಯತ್ 0.0000
-0.1249 ಸೋವಿಯತ್ ಪ್ರಭುತ್ವ -0.3979
-0.4260 ಪ್ರಭುತ್ವ ಜನರಕಾರ್ಮಿಕರ 0.0000
-0.1249 ಜನರಕಾರ್ಮಿಕರ ಮತ್ತು -0.5870
-1.4674 ಮತ್ತು ರೈತರ 0.0000
-0.1249 ರೈತರ ಪ್ರಭುತ್ವ -0.3979
-0.4260 ಪ್ರಭುತ್ವ ಎಂದು -0.3979
-0.4260 ಎಂದು ಜನರಿಗೆ -0.5441
-0.9031 ಜನರಿಗೆ ವಿಶ್ವಾಸ 0.0000
-0.1249 ವಿಶ್ವಾಸ ಬಂದಿತು 0.0000
-0.1249 ಬಂದಿತು </s> -0.6021
-2.1249 <s> ಮತ್ತು -0.5870
-1.4674 ಮತ್ತು ಅಂದಿನ -0.3979
-0.4260 ಅಂದಿನ ಕಾಲಕ್ಕೆ -0.4771
-0.6021 ಕಾಲಕ್ಕೆ ದಕ್ಷಿಣ -0.4472
-0.5229 ದಕ್ಷಿಣ ಮೆಸಪಟೋಮಿಯಾದ -0.3010
-0.6021 ಮೆಸಪಟೋಮಿಯಾದ ಬೃಹತ್ತಾದ 0.0000
-0.1249 ಬೃಹತ್ತಾದ ಮತ್ತು -0.5870
-1.4674 ಮತ್ತು ತುಂಬ 0.0000
-0.1249 ತುಂಬ ಮುಖ್ಯವಾದ 0.0000
-0.1249 ಮುಖ್ಯವಾದ ನಗರವಾಗಿತ್ತು 0.0000
-0.1249 ನಗರವಾಗಿತ್ತು </s> -0.6021
-0.7270 ಇವನ ಮೊಮ್ಮಗನಾದ 0.0000
-0.1249 ಮೊಮ್ಮಗನಾದ ನೊರಮ್ಸಿನ್ನನ 0.0000
-0.1249 ನೊರಮ್ಸಿನ್ನನ ಆಳ್ವಿಕೆಯ -0.4771
-0.6021 ಆಳ್ವಿಕೆಯ ಕಾಲದಲ್ಲಿ -0.4771
-0.6021 ಕಾಲದಲ್ಲಿ ಮಾತ್ರ -0.3979
-0.4260 ಮಾತ್ರ ಈ -0.5825
-1.3554 ಈ ದಂಗೆಗಳನ್ನು 0.0000
-0.1249 ದಂಗೆಗಳನ್ನು ಹತ್ತಿಕ್ಕಲು 0.0000
-0.1249 ಹತ್ತಿಕ್ಕಲು ಸಾಧ್ಯವಾಯಿತು 0.0000
-0.1249 ಸಾಧ್ಯವಾಯಿತು </s> -0.6021
-2.1249 <s> ಅವುಗಳನ್ನು 0.0000
-0.1249 ಅವುಗಳನ್ನು ಯಾರೂ 0.0000
-0.1249 ಯಾರೂ ಬದಲು 0.0000
-0.1249 ಬದಲು ಮಾಡಲಾರರೆಂದು 0.0000
-0.1249 ಮಾಡಲಾರರೆಂದು ಆಶ್ವಾಸನೆ 0.0000
-0.1249 ಆಶ್ವಾಸನೆ </s> -0.6021
-1.3554 ಈ ಕಾಲವನ್ನು -0.3979
-0.4260 ಕಾಲವನ್ನು ಪ್ರಾಚ್ಯವಸ್ತುಶಾಸ್ತ್ರದ 0.0000
-0.1249 ಪ್ರಾಚ್ಯವಸ್ತುಶಾಸ್ತ್ರದ ಪರಿಭಾಷೆಯಲ್ಲಿ 0.0000
-0.1249 ಪರಿಭಾಷೆಯಲ್ಲಿ ಉಬೈದ್ 0.0000
-0.6021 ಒ ಎಂದು -0.3979
-0.4260 ಎಂದು ಕರೆಯುತ್ತಾರೆ 0.0000
-0.1249 ಕರೆಯುತ್ತಾರೆ </s> -0.6021
-0.9031 ಆದರೆ ದಕ್ಷಿಣ -0.5315
-0.8239 ದಕ್ಷಿಣ ಪ್ರಾಂತ್ಯಕ್ಕೆ 0.0000
-0.1249 ಪ್ರಾಂತ್ಯಕ್ಕೆ ಸುಮೇರ್ -0.3979
-0.4260 ಸುಮೇರ್ ಎನ್ನುವ -0.5119
-0.7270 ಎನ್ನುವ ಹೆಸರಿತ್ತು 0.0000
-0.1249 ಹೆಸರಿತ್ತು </s> -0.6021
-1.8239 <s> ಹೀಗೆ 0.0000
-0.4260 ಹೀಗೆ ದಕ್ಷಿಣ -0.4472
-0.6021 ಮೆಸಪಟೋಮಿಯಾದ ನಗರರಾಜ್ಯಗಳು 0.0000
-0.1249 ನಗರರಾಜ್ಯಗಳು ಬೆಳವಣಿಗೆಯನ್ನು 0.0000
-0.1249 ಬೆಳವಣಿಗೆಯನ್ನು ಮುಂದು 0.0000
-0.1249 ಮುಂದು ವರೆಸಿದವು 0.0000
-0.1249 ವರೆಸಿದವು </s> -0.6021
-2.1249 <s> ಜನರಿಗೆ -0.5441
-0.9031 ಜನರಿಗೆ ತಾತ್ಕಾಲಿಕ -0.3979
-0.4260 ತಾತ್ಕಾಲಿಕ ಸರಕಾರದ 0.0000
-0.4260 ಸರಕಾರದ ಗುಣಲಕ್ಷಣಗಳು 0.0000
-0.1249 ಗುಣಲಕ್ಷಣಗಳು ಇನ್ನಷ್ಟು 0.0000
-0.1249 ಇನ್ನಷ್ಟು ಸ್ಪಷ್ಟವಾದವು 0.0000
-0.1249 ಸ್ಪಷ್ಟವಾದವು </s> -0.6021
-2.1249 <s> ಆರಂಭದ 0.0000
-0.1249 ಆರಂಭದ ಶಾಸನ 0.0000
-0.1249 ಶಾಸನ ಸಂಹಿತೆಗಳು -0.3979
-0.4260 ಸಂಹಿತೆಗಳು ಉರ್ -0.6021
-0.1249 ಐಸಿನ್ ಮತ್ತು -0.5870
-1.4674 ಮತ್ತು ಎಶ್ನುನ್ನ 0.0000
-0.1249 ಎಶ್ನುನ್ನ ಎಂಬ -0.3979
-0.4260 ಎಂಬ ರಾಜ್ಯಗಳಿಂದ 0.0000
-0.1249 ರಾಜ್ಯಗಳಿಂದ ಬಂದಿದ್ದವು 0.0000
-0.1249 ಬಂದಿದ್ದವು </s> -0.6021
-2.1249 <s> ಇದೇ 0.0000
-0.1249 ಇದೇ ಕಾಲಕ್ಕೆ -0.4771
-0.6021 ಕಾಲಕ್ಕೆ ಸರಿಯಾಗಿ 0.0000
-0.1249 ಸರಿಯಾಗಿ ಅಮ್ಮೋರೈಟ್ರ 0.0000
-0.1249 ಅಮ್ಮೋರೈಟ್ರ ಒಂದನೆಯ 0.0000
-0.1249 ಒಂದನೆಯ ಶಂಸಿ 0.0000
-0.1249 ಶಂಸಿ ಆದಬನು 0.0000
-0.1249 ಆದಬನು ಕ್ರಿ 0.0000
-1.3554 ಈ ಬರಹಗಳು 0.0000
-0.1249 ಬರಹಗಳು ಉಮ್ಮಾ 0.0000
-0.1249 ಉಮ್ಮಾ ಎನ್ನುವ -0.5119
-0.7270 ಎನ್ನುವ ಮತ್ತೊಂದು -0.3979
-0.4260 ಮತ್ತೊಂದು ನಗರರಾಜ್ಯದೊಡನೆ 0.0000
-0.1249 ನಗರರಾಜ್ಯದೊಡನೆ ನಡೆಯುತ್ತಿದ್ದ 0.0000
-0.1249 ನಡೆಯುತ್ತಿದ್ದ ಗಡಿ 0.0000
-0.1249 ಗಡಿ ವಿವಾದದ 0.0000
-0.1249 ವಿವಾದದ ಬಗ್ಗೆ -0.5119
-0.7270 ಬಗ್ಗೆ ತಿಳಿಸುತ್ತದೆ 0.0000
-0.1249 ತಿಳಿಸುತ್ತದೆ </s> -0.6021
-2.1249 <s> ತುಳಿತಕ್ಕೆ 0.0000
-0.1249 ತುಳಿತಕ್ಕೆ ಒಳಗಾದ 0.0000
-0.1249 ಒಳಗಾದ ರಷ್ಯಾದ -0.4771
-0.6021 ರಷ್ಯಾದ ವಿವಿಧ 0.0000
-0.1249 ವಿವಿಧ ರಾಷ್ಟ್ರೀಯತೆಗಳ 0.0000
-0.1249 ರಾಷ್ಟ್ರೀಯತೆಗಳ ಜನರಿಗೆ -0.5441
-0.9031 ಜನರಿಗೆ ಹೊಸ -0.3979
-0.4260 ಹೊಸ ಗರಿ 0.0000
-0.1249 ಗರಿ ಬಂದಂತಾಯಿತು 0.0000
-0.1249 ಬಂದಂತಾಯಿತು </s> -0.6021
-0.8239 ನಂತರ ಮತ್ತೊಮ್ಮೆ 0.0000
-0.1249 ಮತ್ತೊಮ್ಮೆ ಅದೇ 0.0000
-0.1249 ಅದೇ ನಗರದ -0.5119
-0.7270 ನಗರದ ಮೇಲೆ 0.0000
-0.1249 ಮೇಲೆ ದಾಳಿ 0.0000
-0.1249 ದಾಳಿ ಮಾಡಿ 0.0000
-0.1249 ಮಾಡಿ ಕ್ರಿ 0.0000
-1.0544 ಈ ಕಾಲವು -0.3979
-0.7270 ಕಾಲವು ಇರಿನ್ಲಾರ್ಸನ 0.0000
-0.1249 ಇರಿನ್ಲಾರ್ಸನ ಆಳ್ವಿಕೆಯ -0.4771
-0.6021 ಆಳ್ವಿಕೆಯ ಮೊದಲನೆಯ 0.0000
-0.1249 ಮೊದಲನೆಯ ಹಂತವಾಗಿತ್ತು 0.0000
-0.1249 ಹಂತವಾಗಿತ್ತು </s> -0.6021
-2.1249 <s> ಇವನು -0.3979
-0.4260 ಇವನು ಸುಮೇರನ್ನು 0.0000
-0.1249 ಸುಮೇರನ್ನು ಆಳಿದ 0.0000
-0.1249 ಆಳಿದ ಕಟ್ಟ 0.0000
-0.1249 ಕಟ್ಟ ಕಡೆಯವರಲ್ಲಿ 0.0000
-0.1249 ಕಡೆಯವರಲ್ಲಿ ಅತಿ -0.4771
-0.6021 ಅತಿ ಪ್ರಮುಖನಾಗಿದ್ದಾನೆ 0.0000
-0.1249 ಪ್ರಮುಖನಾಗಿದ್ದಾನೆ </s> -0.6021
-2.1249 <s> ಭೂ 0.0000
-0.1249 ಭೂ ಶೋಧನೆಯಿಂದ 0.0000
-0.1249 ಶೋಧನೆಯಿಂದ ಹೊರ 0.0000
-0.1249 ಹೊರ ತೆಗೆಯಲಾಗಿರುವ 0.0000
-0.1249 ತೆಗೆಯಲಾಗಿರುವ ವಸ್ತುಗಳು 0.0000
-0.1249 ವಸ್ತುಗಳು ಕಲೆಯಲ್ಲಿ 0.0000
-0.1249 ಕಲೆಯಲ್ಲಿ ಸಾಧಿಸಲಾಗಿರುವ 0.0000
-0.1249 ಸಾಧಿಸಲಾಗಿರುವ ಪರಿಣತಿಯನ್ನು 0.0000
-0.1249 ಪರಿಣತಿಯನ್ನು ಸ್ಪಷ್ಟಪಡಿಸುತ್ತವೆ 0.0000
-0.1249 ಸ್ಪಷ್ಟಪಡಿಸುತ್ತವೆ </s> -0.6021
-1.3554 ಈ ಗೋಡೆಯು 0.0000
-0.1249 ಗೋಡೆಯು ಬಹುರೀತಿಯಾಗಿ 0.0000
-0.1249 ಬಹುರೀತಿಯಾಗಿ ಜನರಿಗೆ -0.5441
-0.9031 ಜನರಿಗೆ ತಿಳಿದಿದ್ದು -0.6021
-0.1249 ಬೆಟ್ಟಗಳ ಮುಂದಿನ -0.4771
-0.6021 ಮುಂದಿನ ಗೋಡೆಯೆಂದು 0.0000
-0.1249 ಗೋಡೆಯೆಂದು ಪ್ರಸಿದ್ಧವಾಗಿತ್ತು 0.0000
-0.1249 ಪ್ರಸಿದ್ಧವಾಗಿತ್ತು </s> -0.6021
-2.1249 <s> ರಾಜ್ಯವನ್ನು -0.3979
-0.4260 ರಾಜ್ಯವನ್ನು ಹಲವು 0.0000
-0.1249 ಹಲವು ಪ್ರಾಂತಗಳನ್ನಾಗಿ 0.0000
-0.1249 ಪ್ರಾಂತಗಳನ್ನಾಗಿ ವಿಂಗಡಿಸಿ -0.6021
-0.1249 ಸ್ಥಳೀಯ ಆಳುವ -0.3979
-0.4260 ಆಳುವ ಮನೆತನಗಳ 0.0000
-0.1249 ಮನೆತನಗಳ ಜನರನ್ನು 0.0000
-0.1249 ಜನರನ್ನು ರಾಜ್ಯಪಾಲರನ್ನಾಗಿ 0.0000
-0.1249 ರಾಜ್ಯಪಾಲರನ್ನಾಗಿ ನೆಯಮಿಸಿದನು 0.0000
-0.1249 ನೆಯಮಿಸಿದನು </s> -0.6021
-2.1249 <s> ಕಾರಣವೆಂದರೆ 0.0000
-0.1249 ಕಾರಣವೆಂದರೆ ಅಸ್ಸಿರಿಯನ್ನರಿಗೆ 0.0000
-0.1249 ಅಸ್ಸಿರಿಯನ್ನರಿಗೆ ದಕ್ಷಿಣ -0.5315
-0.8239 ದಕ್ಷಿಣ ಮೆಸಪಟೋಮಿ 0.0000
-0.1249 ಮೆಸಪಟೋಮಿ ಯಾದ 0.0000
-0.1249 ಯಾದ ಸಂಸ್ಕೃತಿಯ 0.0000
-0.1249 ಸಂಸ್ಕೃತಿಯ ಬಗ್ಗೆ -0.5119
-0.7270 ಬಗ್ಗೆ ಮತ್ತು -0.5870
-1.4674 ಮತ್ತು ದೇವರುಗಳ 0.0000
-0.1249 ದೇವರುಗಳ ಬಗ್ಗೆ -0.5119
-0.7270 ಬಗ್ಗೆ ಅಪಾರವಾದ 0.0000
-0.1249 ಅಪಾರವಾದ ಗೌರವವಿತ್ತು 0.0000
-0.1249 ಗೌರವವಿತ್ತು </s> -0.6021
-2.1249 <s> ಹನಿಗೆ 0.0000
-0.1249 ಹನಿಗೆ ಹನಿ 0.0000
-0.1249 ಹನಿ ಕೂಡಿದರೆ -0.3979
-0.4260 ಕೂಡಿದರೆ ಹಳ್ಳವಾಗುವುದು -0.6021
-0.1249 ತೆನಿಗೆ ತೆನಿ 0.0000
-0.1249 ತೆನಿ ಕೂಡಿದರೆ -0.3979
-0.4260 ಕೂಡಿದರೆ ರಾಶಿಯಾಗುವುದು 0.0000
-0.1249 ರಾಶಿಯಾಗುವುದು </s> -0.6021
-0.6021 ರಷ್ಯಾದ ಯಾವುದೇ 0.0000
-0.1249 ಯಾವುದೇ ಪ್ರದೇಶದ 0.0000
-0.1249 ಪ್ರದೇಶದ ಜನರಿಗೆ -0.5441
-0.9031 ಜನರಿಗೆ ಸ್ವಯಂ 0.0000
-0.1249 ಸ್ವಯಂ ನಿರ್ಧಾರದ 0.0000
-0.1249 ನಿರ್ಧಾರದ ಹಕ್ಕು 0.0000
-0.1249 ಹಕ್ಕು </s> -0.6021
-0.4260 ಹೀಗೆ ಈ -0.5619
-0.7270 ಕಾಲವು ಪ್ರಪಂಚದ -0.3979
-0.4260 ಪ್ರಪಂಚದ ಮೊದಲ -0.3979
-0.4260 ಮೊದಲ ನಗರ -0.4771
-0.6021 ನಗರ ಜೀವನದ -0.3979
-0.4260 ಜೀವನದ ಹುಟ್ಟನ್ನು 0.0000
-0.1249 ಹುಟ್ಟನ್ನು ಕಂಡಿತು 0.0000
-0.1249 ಕಂಡಿತು </s> -0.6021
-2.1249 <s> ಅರಾಜಕತೆ 0.0000
-0.1249 ಅರಾಜಕತೆ ಉಂಟಾಗಿ 0.0000
-0.1249 ಉಂಟಾಗಿ ಕೊಲೆ 0.0000
-0.1249 ಕೊಲೆ ದರೋಡೆಗಳು 0.0000
-0.1249 ದರೋಡೆಗಳು ಹೆಚ್ಚಾದವು 0.0000
-0.1249 ಹೆಚ್ಚಾದವು </s> -0.6021
-1.3554 ಈ ನಗರದಲ್ಲಿ 0.0000
-0.1249 ನಗರದಲ್ಲಿ ರಾಜರು -0.3979
-0.4260 ರಾಜರು ತಮಗೆ 0.0000
-0.1249 ತಮಗೆ ಬೇಕಾದಂತೆ 0.0000
-0.1249 ಬೇಕಾದಂತೆ ಕಿಶ್ 0.0000
-0.1249 ಕಿಶ್ ದೇಶದ -0.3979
-0.4260 ದೇಶದ ರಾಜನೆಂದು 0.0000
-0.1249 ರಾಜನೆಂದು ಬಿರುದುಗಳನ್ನು 0.0000
-0.1249 ಬಿರುದುಗಳನ್ನು ಪಡೆದುಕೊಳ್ಳುತ್ತಿದ್ದರು 0.0000
-0.1249 ಪಡೆದುಕೊಳ್ಳುತ್ತಿದ್ದರು </s> -0.6021
-2.1249 <s> ಗುದಿಯನ್ನು 0.0000
-0.1249 ಗುದಿಯನ್ನು ಲಗಾಶನು 0.0000
-0.1249 ಲಗಾಶನು ಆಳುತ್ತಿದ್ದಾಗ -0.6021
-0.1249 ಉರುಕ್ನ ಉತುಹೆಗಲ್ 0.0000
-0.1249 ಉತುಹೆಗಲ್ ಕ್ರಿ 0.0000
-2.1249 <s> ಕ್ರಾಂತಿಕಾರಿಗಳು 0.0000
-0.1249 ಕ್ರಾಂತಿಕಾರಿಗಳು ಮನಸ್ಸು 0.0000
-0.1249 ಮನಸ್ಸು ಮಾಡಿದ್ದರೆ 0.0000
-0.1249 ಮಾಡಿದ್ದರೆ ಅರಮನೆಯನ್ನು 0.0000
-0.1249 ಅರಮನೆಯನ್ನು ಮತ್ತು -0.5870
-1.4674 ಮತ್ತು ಅಲ್ಲಿದ್ದವರನ್ನೆಲ್ಲಾ 0.0000
-0.1249 ಅಲ್ಲಿದ್ದವರನ್ನೆಲ್ಲಾ ಸುಟ್ಟು 0.0000
-0.1249 ಸುಟ್ಟು ಬೂದಿ 0.0000
-0.1249 ಬೂದಿ ಮಾಡಬಹುದಿತ್ತು 0.0000
-0.1249 ಮಾಡಬಹುದಿತ್ತು </s> -0.6021
-2.1249 <s> ಗಂಗಿಗೌರೀ 0.0000
-0.1249 ಗಂಗಿಗೌರೀ ಸಂವಾದದ 0.0000
-0.1249 ಸಂವಾದದ ಮೂರು 0.0000
-0.1249 ಮೂರು ಪ್ರತಿಗಳು 0.0000
-0.1249 ಪ್ರತಿಗಳು ನಮ್ಮ 0.0000
-0.1249 ನಮ್ಮ ಹಸ್ತಪ್ರತಿ 0.0000
-0.1249 ಹಸ್ತಪ್ರತಿ ಭಂಡಾರದಲ್ಲಿದ್ದು 0.0000
-0.1249 ಭಂಡಾರದಲ್ಲಿದ್ದು ಒಂದಕ್ಕೊಂದು 0.0000
-0.1249 ಒಂದಕ್ಕೊಂದು ತಾಳಮೇಳ 0.0000
-0.1249 ತಾಳಮೇಳ ಇಲ್ಲದಂತಿವೆ 0.0000
-0.1249 ಇಲ್ಲದಂತಿವೆ </s> -0.6021
-2.1249 <s> ಅರಮನೆಯಲ್ಲಿ 0.0000
-0.1249 ಅರಮನೆಯಲ್ಲಿ ಅಧಿಕಾರಿಗಳನ್ನು 0.0000
-0.1249 ಅಧಿಕಾರಿಗಳನ್ನು ಮತ್ತು -0.5870
-1.4674 ಮತ್ತು ಸೈನಿಕರನ್ನು 0.0000
-0.1249 ಸೈನಿಕರನ್ನು ನಿಶ್ಯಸ್ತ್ರೀಕರಿಸಿ 0.0000
-0.1249 ನಿಶ್ಯಸ್ತ್ರೀಕರಿಸಿ ಬಿಟ್ಟುಬಿಡಲಾಯಿತು 0.0000
-0.1249 ಬಿಟ್ಟುಬಿಡಲಾಯಿತು </s> -0.6021
-2.1249 <s> ಕಾರ್ಮಿಕರು 0.0000
-0.1249 ಕಾರ್ಮಿಕರು ಕೈಗಾರಿಕೆಗಳ 0.0000
-0.1249 ಕೈಗಾರಿಕೆಗಳ ಆಡಳಿತದವರನ್ನು 0.0000
-0.1249 ಆಡಳಿತದವರನ್ನು ಕಿತ್ತು 0.0000
-0.1249 ಕಿತ್ತು ಹಾಕಿ -0.3979
-0.4260 ಹಾಕಿ ತಾವೇ 0.0000
-0.1249 ತಾವೇ ವಹಿಸಿಕೊಂಡರು 0.0000
-0.1249 ವಹಿಸಿಕೊಂಡರು </s> -0.6021
-1.3554 ಈ ಕಾಲದ -0.4771
-0.6021 ಕಾಲದ ಭೌತಿಕವಾದ 0.0000
-0.1249 ಭೌತಿಕವಾದ ವಸ್ತು -0.3979
-0.4260 ವಸ್ತು ಸಂಸ್ಕೃತಿ 0.0000
-0.1249 ಸಂಸ್ಕೃತಿ ಗಣನೀಯವಾದ 0.0000
-0.1249 ಗಣನೀಯವಾದ ಬದಲಾವಣೆಯನ್ನು 0.0000
-0.1249 ಬದಲಾವಣೆಯನ್ನು ಕಂಡಿತು 0.0000
-1.3554 ಈ ತೆರನಾದ 0.0000
-0.1249 ತೆರನಾದ ಸಂಹಿತೆಗಳು -0.3979
-0.4260 ಸಂಹಿತೆಗಳು ದಿನನಿತ್ಯದ 0.0000
-0.1249 ದಿನನಿತ್ಯದ ನ್ಯಾಯಪಾಲನೆಗಿಂತ 0.0000
-0.1249 ನ್ಯಾಯಪಾಲನೆಗಿಂತ ಮಿಗಿಲಾಗಿ 0.0000
-0.1249 ಮಿಗಿಲಾಗಿ ಒಂದು -0.5315
-0.8239 ಒಂದು ಆದರ್ಶಪ್ರಾಯವಾದ 0.0000
-0.1249 ಆದರ್ಶಪ್ರಾಯವಾದ ಸಮಾಜದ 0.0000
-0.1249 ಸಮಾಜದ ಕೈಗನ್ನಡಿಯಂತಿವೆ 0.0000
-0.1249 ಕೈಗನ್ನಡಿಯಂತಿವೆ </s> -0.6021
-2.1249 <s> ಹಮುರಾಬಿ 0.0000
-0.1249 ಹಮುರಾಬಿ ಶಾಸನದ 0.0000
-0.1249 ಶಾಸನದ ಪ್ರತಿಗಳನ್ನು 0.0000
-0.1249 ಪ್ರತಿಗಳನ್ನು ರಾಜ್ಯದ -0.3979
-0.4260 ರಾಜ್ಯದ ಮುಖ್ಯ -0.5119
-0.7270 ಮುಖ್ಯ ನಗರಗಳಲ್ಲಿ 0.0000
-0.1249 ನಗರಗಳಲ್ಲಿ ಇಡಲಾಗಿತ್ತು 0.0000
-0.1249 ಇಡಲಾಗಿತ್ತು </s> -0.6021
-1.3554 ಈ ಪ್ರದೇಶವು -0.3979
-0.4260 ಪ್ರದೇಶವು ಉತ್ತರ 0.0000
-0.1249 ಉತ್ತರ ಮತ್ತು -0.5870
-1.4674 ಮತ್ತು ಪೂರ್ವದಲ್ಲಿ 0.0000
-0.1249 ಪೂರ್ವದಲ್ಲಿ ಬೆಟ್ಟಗಳಿಂದಲೂ 0.0000
-0.1249 ಬೆಟ್ಟಗಳಿಂದಲೂ ಮತ್ತು -0.5870
-1.4674 ಮತ್ತು ದಕ್ಷಿಣ -0.5315
-0.8239 ದಕ್ಷಿಣ ಮತ್ತು -0.5870
-1.4674 ಮತ್ತು ಪಶ್ಚಿಮಕ್ಕೆ 0.0000
-0.1249 ಪಶ್ಚಿಮಕ್ಕೆ ಮರಳುಗಾಡಿನಿಂದಲೂ 0.0000
-0.1249 ಮರಳುಗಾಡಿನಿಂದಲೂ ಆವೃತ್ತವಾಗಿದೆ 0.0000
-0.1249 ಆವೃತ್ತವಾಗಿದೆ </s> -0.6021
-2.1249 <s> ತನ್ನ 0.0000
-0.1249 ತನ್ನ ಬುದ್ಧಿಗೆ 0.0000
-0.1249 ಬುದ್ಧಿಗೆ ನಿಲುಕುವ 0.0000
-0.1249 ನಿಲುಕುವ ಸವಾಲುಗಳನ್ನು 0.0000
-0.1249 ಸವಾಲುಗಳನ್ನು ಹಾಕಿ -0.6021
-0.1249 ಅವನ್ನು ಬಿಡಿಸಿ 0.0000
-0.1249 ಬಿಡಿಸಿ ಆನಂದಪಟ್ಟಿದ್ದಾನೆ 0.0000
-0.1249 ಆನಂದಪಟ್ಟಿದ್ದಾನೆ </s> -0.6021
-2.1249 <s> ಅಕ್ಕಡ್ 0.0000
-0.1249 ಅಕ್ಕಡ್ ಎನ್ನುವುದೇ 0.0000
-0.1249 ಎನ್ನುವುದೇ ಅದರ -0.3979
-0.4260 ಅದರ ರಾಜಧಾನಿಯೂ 0.0000
-0.1249 ರಾಜಧಾನಿಯೂ ಆಗಿತ್ತು 0.0000
-0.1249 ಆಗಿತ್ತು </s> -0.6021
-2.1249 <s> ಹೊಸ -0.3979
-0.4260 ಹೊಸ ಬೆಬಿಲೋನಿಯಾ 0.0000
-0.1249 ಬೆಬಿಲೋನಿಯಾ ಸಾಮ್ರಾಜ್ಯದ 0.0000
-0.1249 ಸಾಮ್ರಾಜ್ಯದ ಬೇರೆ 0.0000
-0.1249 ಬೇರೆ ಭಾಗಗಳಲ್ಲಿ 0.0000
-0.1249 ಭಾಗಗಳಲ್ಲಿ ಇವನು -0.3979
-0.4260 ಇವನು ನಡೆಸಿದ 0.0000
-0.1249 ನಡೆಸಿದ ಯುದ್ಧಗಳ 0.0000
-0.1249 ಯುದ್ಧಗಳ ಬಗ್ಗೆ -0.5119
-0.7270 ಬಗ್ಗೆ ಹೆಚ್ಚಿನದೇನೂ 0.0000
-0.1249 ಹೆಚ್ಚಿನದೇನೂ ತಿಳಿದುಬಂದಿಲ್ಲ 0.0000
-0.1249 ತಿಳಿದುಬಂದಿಲ್ಲ </s> -0.6021
-0.4260 ಸರಕಾರದ ಸೇನೆ 0.0000
-0.1249 ಸೇನೆ ಪೆಟ್ರೋಗ್ರಾಡ್ಗೆ 0.0000
-0.1249 ಪೆಟ್ರೋಗ್ರಾಡ್ಗೆ ಬರದಿರುವಂತೆ 0.0000
-0.1249 ಬರದಿರುವಂತೆ ತಡೆಯಲು 0.0000
-0.1249 ತಡೆಯಲು ಕ್ರಾಂತಿಕಾರಿಗಳನ್ನು 0.0000
-0.1249 ಕ್ರಾಂತಿಕಾರಿಗಳನ್ನು ಸಜ್ಜುಗೊಳಿಸಿದರು 0.0000
-0.1249 ಸಜ್ಜುಗೊಳಿಸಿದರು </s> -0.6021
-2.1249 <s> ಜೋರಿನ 0.0000
-0.1249 ಜೋರಿನ ಜೂರಿ 0.0000
-0.1249 ಜೂರಿ ಇದ್ದಾಗಲೇ 0.0000
-0.1249 ಇದ್ದಾಗಲೇ ಜೋಕಾಲಿ 0.0000
-0.1249 ಜೋಕಾಲಿ ತೀವ್ರವಾಗಿ 0.0000
-0.1249 ತೀವ್ರವಾಗಿ ಏರಬಲ್ಲದು -0.6021
-0.1249 ಇಳಿಯಬಲ್ಲದು </s> -0.6021
-0.9031 ಆದರೆ ಚೆನ್ನಚೆರಿಬನ 0.0000
-0.1249 ಚೆನ್ನಚೆರಿಬನ ಮಗನಾದ 0.0000
-0.1249 ಮಗನಾದ ಈಸರ್ಹದನ್ 0.0000
-0.1249 ಈಸರ್ಹದನ್ ಕ್ರಿ 0.0000
-2.1249 <s> ರಕ್ಷಣಾ 0.0000
-0.1249 ರಕ್ಷಣಾ ವ್ಯವಸ್ಥೆಯ 0.0000
-0.1249 ವ್ಯವಸ್ಥೆಯ ಅಂಗವಾಗಿ 0.0000
-0.1249 ಅಂಗವಾಗಿ ನಿರ್ಮಿಸಲಾದ 0.0000
-0.1249 ನಿರ್ಮಿಸಲಾದ ಕೋಟೆಯ 0.0000
-0.1249 ಕೋಟೆಯ ವ್ಯವಸ್ಥೆಯನ್ನು 0.0000
-0.1249 ವ್ಯವಸ್ಥೆಯನ್ನು ನಗರವು -0.3979
-0.4260 ನಗರವು ಒಳಗೊಂಡಿತ್ತು 0.0000
-0.1249 ಒಳಗೊಂಡಿತ್ತು </s> -0.6021
-2.1249 <s> ಪೆಟ್ರೋಗ್ರಾಡ್ನ 0.0000
-0.1249 ಪೆಟ್ರೋಗ್ರಾಡ್ನ ರಸ್ತೆಗಳಲ್ಲಿ 0.0000
-0.1249 ರಸ್ತೆಗಳಲ್ಲಿ ಎರಡು 0.0000
-0.1249 ಎರಡು ಜಗತ್ತುಗಳ 0.0000
-0.1249 ಜಗತ್ತುಗಳ ಬಂಡವಾಳಶಾಹಿ 0.0000
-0.1249 ಬಂಡವಾಳಶಾಹಿ ಮತ್ತು -0.5870
-1.4674 ಮತ್ತು ಕಾರ್ಮಿಕ 0.0000
-0.1249 ಕಾರ್ಮಿಕ ವರ್ಗಗಳ 0.0000
-0.1249 ವರ್ಗಗಳ ನಡುವೆ 0.0000
-0.1249 ನಡುವೆ ನೇರ 0.0000
-0.1249 ನೇರ ಸಂಘರ್ಷಗಳು 0.0000
-0.1249 ಸಂಘರ್ಷಗಳು ಪ್ರಾರಂಭಗೊಂಡವು 0.0000
-0.1249 ಪ್ರಾರಂಭಗೊಂಡವು </s> -0.6021
-0.6021 ಒ ಕಾಲದ -0.4771
-0.6021 ಕಾಲದ ನಂತರ -0.5315
-0.8239 ನಂತರ ಉರುಕ್ -0.3979
-0.4260 ಉರುಕ್ ಕಾಲವು -0.5119
-0.7270 ಕಾಲವು ಆರಂಭವಾಯಿತೆಂಬುದು 0.0000
-0.1249 ಆರಂಭವಾಯಿತೆಂಬುದು ಸ್ಪಷ್ಟವಾಗಿ 0.0000
-0.1249 ಸ್ಪಷ್ಟವಾಗಿ ಇನ್ನೂ -0.3979
-0.4260 ಇನ್ನೂ ತೀರ್ಮಾನವಾಗದ 0.0000
-0.1249 ತೀರ್ಮಾನವಾಗದ ವಿಷಯವಾಗಿದೆ 0.0000
-0.1249 ವಿಷಯವಾಗಿದೆ </s> -0.6021

\3-grams:
-0.1249 <s> ಯುಫ್ರೆಟಿಸ್ ಮತ್ತು
-0.1249 ಯುಫ್ರೆಟಿಸ್ ಮತ್ತು ಟ್ರೈಗ್ರಿಸ್
-0.1249 ಮತ್ತು ಟ್ರೈಗ್ರಿಸ್ ನದಿಗಳ
-0.1249 ಟ್ರೈಗ್ರಿಸ್ ನದಿಗಳ ಸಂಗಮದ
-0.1249 ನದಿಗಳ ಸಂಗಮದ ಕಿರಿದಾದ
-0.1249 ಸಂಗಮದ ಕಿರಿದಾದ ಸ್ಥಳದಲ್ಲಿ
-0.1249 ಕಿರಿದಾದ ಸ್ಥಳದಲ್ಲಿ ದುರ್ಕುರಿಗಲ್ಜು
-0.1249 ಸ್ಥಳದಲ್ಲಿ ದುರ್ಕುರಿಗಲ್ಜು ಎನ್ನುವ
-0.1249 ದುರ್ಕುರಿಗಲ್ಜು ಎನ್ನುವ ನಗರವೊಂದನ್ನು
-0.1249 ಎನ್ನುವ ನಗರವೊಂದನ್ನು ಕಸ್ಸೈಟರು
-0.1249 ನಗರವೊಂದನ್ನು ಕಸ್ಸೈಟರು ನಿರ್ಮಿಸಿದರು
-0.1249 ಕಸ್ಸೈಟರು ನಿರ್ಮಿಸಿದರು </s>
-0.1249 <s> ಆದುದರಿಂದಲೇ ಮುಂದಿನ
-0.1249 ಆದುದರಿಂದಲೇ ಮುಂದಿನ ದಿನಗಳಲ್ಲಿ
-0.1249 ಮುಂದಿನ ದಿನಗಳಲ್ಲಿ ಕ್ರಾಂತಿಯ
-0.1249 ದಿನಗಳಲ್ಲಿ ಕ್ರಾಂತಿಯ ರಕ್ಷಣೆಗೆ
-0.1249 ಕ್ರಾಂತಿಯ ರಕ್ಷಣೆಗೆ ಅವರು
-0.1249 ರಕ್ಷಣೆಗೆ ಅವರು ಕಂಕಣಬದ್ಧರಾದರು
-0.1249 ಅವರು ಕಂಕಣಬದ್ಧರಾದರು </s>
-0.1249 <s> ಮೆಸಪಟೋಮಿಯ ಎಂಬ
-0.1249 ಮೆಸಪಟೋಮಿಯ ಎಂಬ ಶಬ್ದವನ್ನು
-0.1249 ಎಂಬ ಶಬ್ದವನ್ನು ಪುರಾತನ
-0.1249 ಶಬ್ದವನ್ನು ಪುರಾತನ ಗ್ರೀಕರು
-0.1249 ಪುರಾತನ ಗ್ರೀಕರು ಸೃಷ್ಟಿಸಿರುತ್ತಾರೆ
-0.1249 ಗ್ರೀಕರು ಸೃಷ್ಟಿಸಿರುತ್ತಾರೆ </s>
-0.1249 <s> ಸ್ವತಂತ್ರವಾಗಿ ಸಮಾನತೆಯ
-0.1249 ಸ್ವತಂತ್ರವಾಗಿ ಸಮಾನತೆಯ ಬಾಳ್ವೆಯ
-0.1249 ಸಮಾನತೆಯ ಬಾಳ್ವೆಯ ಹಳ್ಳಿ
-0.1249 ಬಾಳ್ವೆಯ ಹಳ್ಳಿ ಜೀವನದ
-0.1249 ಹಳ್ಳಿ ಜೀವನದ ಕಾಲದಿಂದ
-0.1249 ಜೀವನದ ಕಾಲದಿಂದ ಸಾಮಾಜಿಕವಾಗಿ
-0.1249 ಕಾಲದಿಂದ ಸಾಮಾಜಿಕವಾಗಿ ಶ್ರೇಣೀಕರಿಸಿದ
-0.1249 ಸಾಮಾಜಿಕವಾಗಿ ಶ್ರೇಣೀಕರಿಸಿದ ನಗರ
-0.1249 ಶ್ರೇಣೀಕರಿಸಿದ ನಗರ ರಾಜಕೀಯ
-0.1249 ನಗರ ರಾಜಕೀಯ ಜೀವನವು
-0.1249 ರಾಜಕೀಯ ಜೀವನವು ಉಗಮವಾಯಿತು
-0.1249 ಜೀವನವು ಉಗಮವಾಯಿತು </s>
-1.2711 <s> ಈ ಕಾರಣಕ್ಕಾಗಿ
-0.1249 ಈ ಕಾರಣಕ್ಕಾಗಿ ಉತ್ತರದ
-0.1249 ಕಾರಣಕ್ಕಾಗಿ ಉತ್ತರದ ಭಾಗದಲ್ಲಿ
-0.1249 ಉತ್ತರದ ಭಾಗದಲ್ಲಿ ವಾಸವಾಗಿದ್ದ
-0.1249 ಭಾಗದಲ್ಲಿ ವಾಸವಾಗಿದ್ದ ಎಲಮೈಟರನ್ನು
-0.1249 ವಾಸವಾಗಿದ್ದ ಎಲಮೈಟರನ್ನು ಹೊಡೆದು
-0.1249 ಎಲಮೈಟರನ್ನು ಹೊಡೆದು ಓಡಿಸಿದನು
-0.1249 ಹೊಡೆದು ಓಡಿಸಿದನು </s>
-0.1249 <s> ಮೆಸಪಟೋಮಿಯಾದ ನಾಗರಿಕತೆಯನ್ನು
-0.1249 ಮೆಸಪಟೋಮಿಯಾದ ನಾಗರಿಕತೆಯನ್ನು ಅರ್ಥ
-0.1249 ನಾಗರಿಕತೆಯನ್ನು ಅರ್ಥ ಮಾಡಿಕೊಳ್ಳಲು
-0.1249 ಅರ್ಥ ಮಾಡಿಕೊಳ್ಳಲು ನಮಗೆ
-0.1249 ಮಾಡಿಕೊಳ್ಳಲು ನಮಗೆ ಪ್ರಾಚ್ಯವಸ್ತು
-0.1249 ನಮಗೆ ಪ್ರಾಚ್ಯವಸ್ತು ಆಕರಗಳ
-0.1249 ಪ್ರಾಚ್ಯವಸ್ತು ಆಕರಗಳ ಮತ್ತು
-0.1249 ಆಕರಗಳ ಮತ್ತು ಬರವಣಿಗೆಯ
-0.1249 ಮತ್ತು ಬರವಣಿಗೆಯ ಪ್ರಕಾರದ
-0.1249 ಬರವಣಿಗೆಯ ಪ್ರಕಾರದ ಆಧಾರಗಳು
-0.1249 ಪ್ರಕಾರದ ಆಧಾರಗಳು ಸಿಗುತ್ತವೆ
-0.1249 ಆಧಾರಗಳು ಸಿಗುತ್ತವೆ </s>
-0.1249 <s> ಶುಲ್ಗಿಯು ರಾಜ್ಯವನ್ನು
-0.1249 ಶುಲ್ಗಿಯು ರಾಜ್ಯವನ್ನು ಕೇಂದ್ರೀಕೃತ
-0.1249 ರಾಜ್ಯವನ್ನು ಕೇಂದ್ರೀಕೃತ ಆಡಳಿತಶಾಹಿಯನ್ನಾಗಿ
-0.1249 ಕೇಂದ್ರೀಕೃತ ಆಡಳಿತಶಾಹಿಯನ್ನಾಗಿ ಪರಿವರ್ತಿಸಿದನು
-0.1249 ಆಡಳಿತಶಾಹಿಯನ್ನಾಗಿ ಪರಿವರ್ತಿಸಿದನು </s>
-0.1249 <s> ಇವೆಲ್ಲ ಸಮಸ್ಯೆಗಳ
-0.1249 ಇವೆಲ್ಲ ಸಮಸ್ಯೆಗಳ ನಡುವೆಯೂ
-0.1249 ಸಮಸ್ಯೆಗಳ ನಡುವೆಯೂ ಮೆಸಪಟೋಮಿಯದಲ್ಲಿ
-0.1249 ನಡುವೆಯೂ ಮೆಸಪಟೋಮಿಯದಲ್ಲಿ ಪ್ರಪಂಚದ
-0.1249 ಮೆಸಪಟೋಮಿಯದಲ್ಲಿ ಪ್ರಪಂಚದ ಅತಿ
-0.1249 ಪ್ರಪಂಚದ ಅತಿ ಹಳೆಯ
-0.1249 ಅತಿ ಹಳೆಯ ನಾಗರಿಕತೆ
-0.1249 ಹಳೆಯ ನಾಗರಿಕತೆ ಹುಟ್ಟಿಕೊಂಡಿತು
-0.1249 ನಾಗರಿಕತೆ ಹುಟ್ಟಿಕೊಂಡಿತು </s>
-0.1249 ಅದು ಅವರ ಉದ್ದೇಶವಾಗಿರಲಿಲ್ಲ
-0.1249 ಅವರ ಉದ್ದೇಶವಾಗಿರಲಿಲ್ಲ </s>
-0.1249 <s> ಆಧುನಿಕ ಇರಾಕ್
-0.1249 ಆಧುನಿಕ ಇರಾಕ್ ದೇಶಕ್ಕೆ
-0.1249 ಇರಾಕ್ ದೇಶಕ್ಕೆ ಈಗ
-0.1249 ದೇಶಕ್ಕೆ ಈಗ ಇರುವಂತೆಯೇ
-0.1249 ಈಗ ಇರುವಂತೆಯೇ ಗಡಿಯ
-0.1249 ಇರುವಂತೆಯೇ ಗಡಿಯ ಪ್ರದೇಶವು
-0.1249 ಗಡಿಯ ಪ್ರದೇಶವು ಅಂದಿನ
-0.1249 ಪ್ರದೇಶವು ಅಂದಿನ ಮೆಸಪಟೋಮಿಯ
-0.1249 ಅಂದಿನ ಮೆಸಪಟೋಮಿಯ ದೇಶಕ್ಕೂ
-0.1249 ಮೆಸಪಟೋಮಿಯ ದೇಶಕ್ಕೂ ಇತ್ತು
-0.1249 ದೇಶಕ್ಕೂ ಇತ್ತು </s>
-1.2711 <s> ಈ ಮುಖ್ಯ
-0.1249 ಈ ಮುಖ್ಯ ನದಿಯ
-0.1249 ಮುಖ್ಯ ನದಿಯ ಅಂಚಿನಲ್ಲಿಯೇ
-0.1249 ನದಿಯ ಅಂಚಿನಲ್ಲಿಯೇ ಅತಿ
-0.1249 ಅಂಚಿನಲ್ಲಿಯೇ ಅತಿ ಪ್ರಾಚೀನ
-0.1249 ಅತಿ ಪ್ರಾಚೀನ ಮಹಾನಗರಗಳು
-0.1249 ಪ್ರಾಚೀನ ಮಹಾನಗರಗಳು ಹುಟ್ಟಿಕೊಂಡದ್ದು
-0.1249 ಮಹಾನಗರಗಳು ಹುಟ್ಟಿಕೊಂಡದ್ದು </s>
-1.2711 <s> ಈ ನಗರದ
-0.1249 ಈ ನಗರದ ಸಾಮಾಜಿಕ
-0.1249 ನಗರದ ಸಾಮಾಜಿಕ ಬೆಳವಣಿಗೆಯು
-0.1249 ಸಾಮಾಜಿಕ ಬೆಳವಣಿಗೆಯು ಅಧಿಕಾರ
-0.1249 ಆಸ್ತಿ ಮತ್ತು ಸಂಪತ್ತಿನ
-0.1249 ಮತ್ತು ಸಂಪತ್ತಿನ ಮೂಲಗಳನ್ನು
-0.1249 ಸಂಪತ್ತಿನ ಮೂಲಗಳನ್ನು ಅವಲಂಬಿಸಿತ್ತು
-0.1249 ಮೂಲಗಳನ್ನು ಅವಲಂಬಿಸಿತ್ತು </s>
-0.1249 <s> ಸುಮಾರು ಸಾವಿರ
-0.1249 ಸುಮಾರು ಸಾವಿರ ವರ್ಷಗಳ
-0.1249 ಸಾವಿರ ವರ್ಷಗಳ ಮೊದಲ
-0.1249 ವರ್ಷಗಳ ಮೊದಲ ಭಾಗದಲ್ಲಿ
-0.1249 ಮೊದಲ ಭಾಗದಲ್ಲಿ ಫಲವತ್ತಾದ
-0.1249 ಭಾಗದಲ್ಲಿ ಫಲವತ್ತಾದ ಪ್ರದೇಶಗಳಲ್ಲಿ
-0.1249 ಫಲವತ್ತಾದ ಪ್ರದೇಶಗಳಲ್ಲಿ ಮಾನವನು
-0.1249 ಪ್ರದೇಶಗಳಲ್ಲಿ ಮಾನವನು ಮೊದಲು
-0.1249 ಮಾನವನು ಮೊದಲು ನೆಲಸಿದ್ದನೆಂದು
-0.1249 ಮೊದಲು ನೆಲಸಿದ್ದನೆಂದು ಅಂದಾಜು
-0.1249 ನೆಲಸಿದ್ದನೆಂದು ಅಂದಾಜು ಮಾಡಲಾಗಿದೆ
-0.1249 ಅಂದಾಜು ಮಾಡಲಾಗಿದೆ </s>
-0.1249 <s> ಇವರ ಕಾಲದಲ್ಲಿ
-0.1249 ಇವರ ಕಾಲದಲ್ಲಿ ನಿಪ್ಪೂರ್
-0.1249 ಕಾಲದಲ್ಲಿ ನಿಪ್ಪೂರ್ ನಗರವು
-0.1249 ನಿಪ್ಪೂರ್ ನಗರವು ಅಧಿಕವಾಗಿ
-0.1249 ನಗರವು ಅಧಿಕವಾಗಿ ಅಭಿವೃದ್ದಿಗೊಂಡು
-0.1249 ಅಧಿಕವಾಗಿ ಅಭಿವೃದ್ದಿಗೊಂಡು ರಾಜ್ಯದ
-0.1249 ಅಭಿವೃದ್ದಿಗೊಂಡು ರಾಜ್ಯದ ಒಂದು
-0.1249 ರಾಜ್ಯದ ಒಂದು ಮುಖ್ಯ
-0.1249 ಒಂದು ಮುಖ್ಯ ನಗರವಾಗಿ
-0.1249 ಮುಖ್ಯ ನಗರವಾಗಿ ಬೆಳೆಯಿತು
-0.1249 ನಗರವಾಗಿ ಬೆಳೆಯಿತು </s>
-0.1249 <s> ಉರ್ನಮ್ಮು ಅಥವಾ
-0.1249 ಉರ್ನಮ್ಮು ಅಥವಾ ಶುಲ್ಗಿ
-0.1249 ಇಬ್ಬರಲ್ಲಿ ಒಬ್ಬನು ಮೊದಲಿಗೆ
-0.1249 ಒಬ್ಬನು ಮೊದಲಿಗೆ ಕಾನೂನುಗಳ
-0.1249 ಮೊದಲಿಗೆ ಕಾನೂನುಗಳ ಪಟ್ಟಿ
-0.1249 ಕಾನೂನುಗಳ ಪಟ್ಟಿ ಮಾಡಿಸಿದನು
-0.1249 ಪಟ್ಟಿ ಮಾಡಿಸಿದನು </s>
-0.9031 <s> ಆದರೆ ಆ
-0.1249 ಆದರೆ ಆ ಕಾವ್ಯರೂಪ
-0.1249 ಬೆದಂಡೆಯನ್ನು ಪ್ರತಿಯೊಬ್ಬ ಕನ್ನಡಿಗನೂ
-0.1249 ಪ್ರತಿಯೊಬ್ಬ ಕನ್ನಡಿಗನೂ ಸಾಹಿತ್ಯದೃಷ್ಟಿಯಿಂದ
-0.1249 ಕನ್ನಡಿಗನೂ ಸಾಹಿತ್ಯದೃಷ್ಟಿಯಿಂದ ಅರಿಯಬೇಕಾದುದು
-0.1249 ಸಾಹಿತ್ಯದೃಷ್ಟಿಯಿಂದ ಅರಿಯಬೇಕಾದುದು ಅಗತ್ಯ
-0.1249 ಅರಿಯಬೇಕಾದುದು ಅಗತ್ಯ </s>
-0.1249 <s> ಅವುಗಳಲ್ಲಿ ಪ್ರಮುಖವಾದುವುಗಳೆಂದರೆ
-0.1249 ಅವುಗಳಲ್ಲಿ ಪ್ರಮುಖವಾದುವುಗಳೆಂದರೆ ಇಸಿನ್
-0.1249 ಉರುಕ್ ಮತ್ತು ಬೆಬಿಲೋನಿಯ
-0.1249 ಮತ್ತು ಬೆಬಿಲೋನಿಯ </s>
-0.9031 <s> ಆದರೆ ಹವಾಗುಣ
-0.1249 ಆದರೆ ಹವಾಗುಣ ಮಾತ್ರ
-0.1249 ಹವಾಗುಣ ಮಾತ್ರ ಒಂದು
-0.1249 ಮಾತ್ರ ಒಂದು ಪ್ರದೇಶದಿಂದ
-0.1249 ಒಂದು ಪ್ರದೇಶದಿಂದ ಮತ್ತೊಂದು
-0.1249 ಪ್ರದೇಶದಿಂದ ಮತ್ತೊಂದು ಪ್ರದೇಶಕ್ಕೆ
-0.1249 ಮತ್ತೊಂದು ಪ್ರದೇಶಕ್ಕೆ ಭಿನ್ನವಾಗಿತ್ತು
-0.1249 ಪ್ರದೇಶಕ್ಕೆ ಭಿನ್ನವಾಗಿತ್ತು </s>
-0.1249 <s> ಅವರಿಂದ ಶಸ್ತ್ರಾಸ್ತ್ರಗಳನ್ನು
-0.1249 ಅವರಿಂದ ಶಸ್ತ್ರಾಸ್ತ್ರಗಳನ್ನು ಕಸಿದುಕೊಂಡು
-0.1249 ಶಸ್ತ್ರಾಸ್ತ್ರಗಳನ್ನು ಕಸಿದುಕೊಂಡು ಕ್ರಾಂತಿಸೈನ್ಯಕ್ಕೆ
-0.1249 ಕಸಿದುಕೊಂಡು ಕ್ರಾಂತಿಸೈನ್ಯಕ್ಕೆ ಜಮಾಯಿಸುತ್ತಿದ್ದರು
-0.1249 ಕ್ರಾಂತಿಸೈನ್ಯಕ್ಕೆ ಜಮಾಯಿಸುತ್ತಿದ್ದರು </s>
-0.4260 <s> ಇವನ ಆಳ್ವಿಕೆಯ
-0.1249 ಇವನ ಆಳ್ವಿಕೆಯ ಅಂತಿಮ
-0.1249 ಆಳ್ವಿಕೆಯ ಅಂತಿಮ ಕಾಲಕ್ಕೆ
-0.1249 ಅಂತಿಮ ಕಾಲಕ್ಕೆ ಒಂದು
-0.1249 ಕಾಲಕ್ಕೆ ಒಂದು ಸಾಮ್ರಾಜ್ಯವನ್ನೇ
-0.1249 ಒಂದು ಸಾಮ್ರಾಜ್ಯವನ್ನೇ ಕಟ್ಟಿದ್ದನು
-0.1249 ಸಾಮ್ರಾಜ್ಯವನ್ನೇ ಕಟ್ಟಿದ್ದನು </s>
-0.4260 <s> ನಂತರ ಇವನ
-0.1249 ನಂತರ ಇವನ ಚಿಕ್ಕ
-0.1249 ಇವನ ಚಿಕ್ಕ ತಮ್ಮ
-0.1249 ಚಿಕ್ಕ ತಮ್ಮ ಶೂಶಿನ್
-0.1249 ತಮ್ಮ ಶೂಶಿನ್ ಕ್ರಿ
-0.1249 ಶೂಶಿನ್ ಕ್ರಿ </s>
-0.1249 <s> ಇದರಿಂದಾಗಿ ಉರ್
-0.1249 ಇದರಿಂದಾಗಿ ಉರ್ ಎನ್ನುವ
-0.1249 ಉರ್ ಎನ್ನುವ ಮೂರನೆಯ
-0.1249 ಎನ್ನುವ ಮೂರನೆಯ ಮುಖ್ಯನಗರವೊಂದು
-0.1249 ಮೂರನೆಯ ಮುಖ್ಯನಗರವೊಂದು ಅಸ್ತಿತ್ವಕ್ಕೆ
-0.1249 ಮುಖ್ಯನಗರವೊಂದು ಅಸ್ತಿತ್ವಕ್ಕೆ ಬಂತು
-0.1249 ಅಸ್ತಿತ್ವಕ್ಕೆ ಬಂತು </s>
-0.1249 <s> ಇರಾನಿನ ಸುಸ
-0.1249 ಇರಾನಿನ ಸುಸ ಎಂಬುವಲ್ಲಿ
-0.1249 ಸುಸ ಎಂಬುವಲ್ಲಿ ಪಾಳು
-0.1249 ಎಂಬುವಲ್ಲಿ ಪಾಳು ಬಿದ್ದಿದ್ದ
-0.1249 ಪಾಳು ಬಿದ್ದಿದ್ದ ಅವಶೇಷದಲ್ಲಿ
-0.1249 ಬಿದ್ದಿದ್ದ ಅವಶೇಷದಲ್ಲಿ ಇದು
-0.1249 ಅವಶೇಷದಲ್ಲಿ ಇದು ಸಿಕ್ಕಿದೆ
-0.1249 ಇದು ಸಿಕ್ಕಿದೆ </s>
-0.1249 <s> ಬರವಣಿಗೆಯ ಆಧಾರಗಳು
-0.1249 ಬರವಣಿಗೆಯ ಆಧಾರಗಳು ನಮಗೆ
-0.1249 ಆಧಾರಗಳು ನಮಗೆ ಪುರಾತನ
-0.1249 ನಮಗೆ ಪುರಾತನ ಬೆಬಿಲೋನಿಯ
-0.1249 ಪುರಾತನ ಬೆಬಿಲೋನಿಯ ಮತ್ತು
-0.1249 ಬೆಬಿಲೋನಿಯ ಮತ್ತು ಅಸ್ಸಿರಿಯ
-0.1249 ಮತ್ತು ಅಸ್ಸಿರಿಯ ದಾಖಲೆಗಳಲ್ಲಿ
-0.1249 ಅಸ್ಸಿರಿಯ ದಾಖಲೆಗಳಲ್ಲಿ ದೊರೆಯುತ್ತವೆ
-0.1249 ದಾಖಲೆಗಳಲ್ಲಿ ದೊರೆಯುತ್ತವೆ </s>
-1.2711 <s> ಈ ರೀತಿಯ
-0.1249 ಈ ರೀತಿಯ ಉತ್ಪಾದನೆ
-0.1249 ಬೆಳೆಯುತ್ತಿದ್ದ ನಗರ ಜನಸಂಖ್ಯೆಗೆ
-0.1249 ನಗರ ಜನಸಂಖ್ಯೆಗೆ ಆಹಾರ
-0.1249 ಜನಸಂಖ್ಯೆಗೆ ಆಹಾರ ಒದಗಿಸಲು
-0.1249 ಆಹಾರ ಒದಗಿಸಲು ತುಂಬಾ
-0.1249 ಒದಗಿಸಲು ತುಂಬಾ ಅವಶ್ಯಕವಾಗಿತ್ತು
-0.1249 ತುಂಬಾ ಅವಶ್ಯಕವಾಗಿತ್ತು </s>
-0.1249 <s> ಇದು ಸುಮೇರಿಯನ್
-0.1249 ಇದು ಸುಮೇರಿಯನ್ ಇತಿಹಾಸದಲ್ಲಿ
-0.1249 ಸುಮೇರಿಯನ್ ಇತಿಹಾಸದಲ್ಲಿ ಪ್ರಮುಖವಾದ
-0.1249 ಇತಿಹಾಸದಲ್ಲಿ ಪ್ರಮುಖವಾದ ನಗರವಾಗಿರುತ್ತದೆ
-0.1249 ಪ್ರಮುಖವಾದ ನಗರವಾಗಿರುತ್ತದೆ </s>
-0.1249 <s> ವಿದೇಶಿ ಸಂಬಂಧಗಳಿಗೆ
-0.1249 ವಿದೇಶಿ ಸಂಬಂಧಗಳಿಗೆ ಸಂಬಂಧಿಸಿದಂತೆ
-0.1249 ಸಂಬಂಧಗಳಿಗೆ ಸಂಬಂಧಿಸಿದಂತೆ ಹೇಳುವುದಾದರೆ
-0.1249 ಸಂಬಂಧಿಸಿದಂತೆ ಹೇಳುವುದಾದರೆ ತಮ್ಮ
-0.1249 ಹೇಳುವುದಾದರೆ ತಮ್ಮ ಮೊದಲಿನ
-0.1249 ತಮ್ಮ ಮೊದಲಿನ ರಾಜರುಗಳಿಗಿಂತ
-0.1249 ಮೊದಲಿನ ರಾಜರುಗಳಿಗಿಂತ ಕಸ್ಸೈಟರು
-0.1249 ರಾಜರುಗಳಿಗಿಂತ ಕಸ್ಸೈಟರು ಇನ್ನೂ
-0.1249 ಕಸ್ಸೈಟರು ಇನ್ನೂ ವಿಸ್ತಾರವಾದ
-0.1249 ಇನ್ನೂ ವಿಸ್ತಾರವಾದ ಜಗತ್ತಿನಲ್ಲಿ
-0.1249 ವಿಸ್ತಾರವಾದ ಜಗತ್ತಿನಲ್ಲಿ ವ್ಯವಹರಿಸುತ್ತಿದ್ದರು
-0.1249 ಜಗತ್ತಿನಲ್ಲಿ ವ್ಯವಹರಿಸುತ್ತಿದ್ದರು </s>
-0.1249 <s> ಅವರು ಕ್ರಾಂತಿಕಾರರನ್ನು
-0.1249 ಅವರು ಕ್ರಾಂತಿಕಾರರನ್ನು ಹೆಚ್ಚು
-0.1249 ಕ್ರಾಂತಿಕಾರರನ್ನು ಹೆಚ್ಚು ಹೆಚ್ಚು
-0.1249 ಹೆಚ್ಚು ಹೆಚ್ಚು ಬೆಂಬಲಿಸತೊಡಗಿದರು
-0.1249 ಹೆಚ್ಚು ಬೆಂಬಲಿಸತೊಡಗಿದರು </s>
-0.1249 <s> ಆರ್ಥಿಕ ವ್ಯವಸ್ಥೆಗೆ
-0.1249 ಆರ್ಥಿಕ ವ್ಯವಸ್ಥೆಗೆ ಸಂಬಂಧಿಸಿದ
-0.1249 ವ್ಯವಸ್ಥೆಗೆ ಸಂಬಂಧಿಸಿದ ಎಲ್ಲ
-0.1249 ಸಂಬಂಧಿಸಿದ ಎಲ್ಲ ರೀತಿಯ
-0.1249 ಎಲ್ಲ ರೀತಿಯ ಕಡತಗಳನ್ನು
-0.1249 ರೀತಿಯ ಕಡತಗಳನ್ನು ಕರಾರುವಕ್ಕಾಗಿ
-0.1249 ಕಡತಗಳನ್ನು ಕರಾರುವಕ್ಕಾಗಿ ಉಳಿಸಿಕೊಂಡು
-0.1249 ಕರಾರುವಕ್ಕಾಗಿ ಉಳಿಸಿಕೊಂಡು ಬಂದಿದ್ದನು
-0.1249 ಉಳಿಸಿಕೊಂಡು ಬಂದಿದ್ದನು </s>
-1.2711 <s> ಈ ಕೃತಿಯ
-0.1249 ಈ ಕೃತಿಯ ವಸ್ತು
-0.1249 ಕೃತಿಯ ವಸ್ತು ಹಳೆಯದು
-0.1249 ವಸ್ತು ಹಳೆಯದು ಹಳೆಯ
-0.1249 ಹಳೆಯದು ಹಳೆಯ ಕಾಲದ
-0.1249 ಹಳೆಯ ಕಾಲದ ವಿಚಾರಧಾರೆ
-0.1249 ಕಾಲದ ವಿಚಾರಧಾರೆ ಅದರಲ್ಲಿದ್ದುದು
-0.1249 ವಿಚಾರಧಾರೆ ಅದರಲ್ಲಿದ್ದುದು </s>
-0.1249 <s> ಆ ಸಂಸ್ಕಾರದ
-0.1249 ಆ ಸಂಸ್ಕಾರದ ಬಲದಿಂದ
-0.1249 ಸಂಸ್ಕಾರದ ಬಲದಿಂದ ಪ್ರತಿಭಾಶಾಲಿಯಾದ
-0.1249 ಬಲದಿಂದ ಪ್ರತಿಭಾಶಾಲಿಯಾದ ಹಳ್ಳಿಗ
-0.1249 ಪ್ರತಿಭಾಶಾಲಿಯಾದ ಹಳ್ಳಿಗ ಹಾಡುಕಟ್ಟಿದ್ದಾನೆ
-0.1249 ಹಳ್ಳಿಗ ಹಾಡುಕಟ್ಟಿದ್ದಾನೆ </s>
-0.1249 <s> ಮುಂದಿನ ಸಶಸ್ತ್ರ
-0.1249 ಮುಂದಿನ ಸಶಸ್ತ್ರ ಬಂಡಾಯಕ್ಕೆ
-0.1249 ಸಶಸ್ತ್ರ ಬಂಡಾಯಕ್ಕೆ ಒಂದು
-0.1249 ಬಂಡಾಯಕ್ಕೆ ಒಂದು ಸ್ಪಷ್ಟ
-0.1249 ಒಂದು ಸ್ಪಷ್ಟ ಯೋಜನೆ
-0.1249 ಸ್ಪಷ್ಟ ಯೋಜನೆ ರೂಪಿಸಿದರು
-0.1249 ಯೋಜನೆ ರೂಪಿಸಿದರು </s>
-1.2711 <s> ಈ ಕಾಲದಲ್ಲಿ
-0.1249 ಈ ಕಾಲದಲ್ಲಿ ಸುಮಾರು
-0.1249 ಕಾಲದಲ್ಲಿ ಸುಮಾರು ರಾಜರು
-0.1249 ಸುಮಾರು ರಾಜರು ಸುಮೇರ್
-0.1249 ರಾಜರು ಸುಮೇರ್ ನಗರರಾಜ್ಯವನ್ನು
-0.1249 ಸುಮೇರ್ ನಗರರಾಜ್ಯವನ್ನು ಆಳಿದರು
-0.1249 ನಗರರಾಜ್ಯವನ್ನು ಆಳಿದರು </s>
-0.1249 <s> ದಂಗೆಗಳು ಪದೇ
-0.1249 ದಂಗೆಗಳು ಪದೇ ಪದೇ
-0.1249 ಪದೇ ಪದೇ ಏಳಲು
-0.1249 ಪದೇ ಏಳಲು ಆರಂಭವಾದುವು
-0.1249 ಏಳಲು ಆರಂಭವಾದುವು </s>
-0.4260 <s> ರಷ್ಯಾದ ಎಲ್ಲಾ
-0.1249 ರಷ್ಯಾದ ಎಲ್ಲಾ ಜನರಿಗೆ
-0.1249 ಎಲ್ಲಾ ಜನರಿಗೆ ಸಮಾನತೆ
-0.1249 ಜನರಿಗೆ ಸಮಾನತೆ ಮತ್ತು
-0.1249 ಸಮಾನತೆ ಮತ್ತು ಸಾರ್ವಭೌಮತೆ
-0.1249 ಮತ್ತು ಸಾರ್ವಭೌಮತೆ </s>
-0.1249 ದುಃಸ್ಥಿತಿಗಳಿಂದ ಜನರು ತಾತ್ಕಾಲಿಕ
-0.1249 ಜನರು ತಾತ್ಕಾಲಿಕ ಸರಕಾರದಿಂದಲೇ
-0.1249 ತಾತ್ಕಾಲಿಕ ಸರಕಾರದಿಂದಲೇ ಬಹಳ
-0.1249 ಸರಕಾರದಿಂದಲೇ ಬಹಳ ದೂರ
-0.1249 ಬಹಳ ದೂರ ಸರಿಯುವಂತಾಯಿತು
-0.1249 ದೂರ ಸರಿಯುವಂತಾಯಿತು </s>
-0.1249 <s> ವ್ಯವಸಾಯದಿಂದ ಹೆಚ್ಚಿನ
-0.1249 ವ್ಯವಸಾಯದಿಂದ ಹೆಚ್ಚಿನ ಆದಾಯವು
-0.1249 ಹೆಚ್ಚಿನ ಆದಾಯವು ನಗರದ
-0.1249 ಆದಾಯವು ನಗರದ ಆಳುವ
-0.1249 ನಗರದ ಆಳುವ ವರ್ಗದವರನ್ನು
-0.1249 ಆಳುವ ವರ್ಗದವರನ್ನು ಶ್ರೀಮಂತರ
-0.1249 ವರ್ಗದವರನ್ನು ಶ್ರೀಮಂತರ ನ್ನಾಗಿ
-0.1249 ಶ್ರೀಮಂತರ ನ್ನಾಗಿ ಮಾಡಿತು
-0.1249 ನ್ನಾಗಿ ಮಾಡಿತು </s>
-0.1249 <s> ಪ್ರಧಾನಿ ಕೆರೆನ್ಸ್ಕಿ
-0.1249 ಪ್ರಧಾನಿ ಕೆರೆನ್ಸ್ಕಿ ಹೆಣ್ಣುವೇಷ
-0.1249 ಕೆರೆನ್ಸ್ಕಿ ಹೆಣ್ಣುವೇಷ ಧರಿಸಿ
-0.1249 ಹೆಣ್ಣುವೇಷ ಧರಿಸಿ ತಲೆತಪ್ಪಿಸಿಕೊಂಡು
-0.1249 ಧರಿಸಿ ತಲೆತಪ್ಪಿಸಿಕೊಂಡು ಹೋದರು
-0.1249 ತಲೆತಪ್ಪಿಸಿಕೊಂಡು ಹೋದರು </s>
-0.1249 <s> ದೇಹಕ್ಕೆ ಆದ
-0.1249 ದೇಹಕ್ಕೆ ಆದ ಗಾಯ
-0.1249 ಆದ ಗಾಯ ಮತ್ತು
-0.1249 ಗಾಯ ಮತ್ತು ನೋವುಗಳಿಗೆ
-0.1249 ಮತ್ತು ನೋವುಗಳಿಗೆ ಹಣಕಾಸಿನ
-0.1249 ನೋವುಗಳಿಗೆ ಹಣಕಾಸಿನ ಪರಿಹಾರ
-0.1249 ಹಣಕಾಸಿನ ಪರಿಹಾರ ನೀಡಲಾಗುತ್ತಿತ್ತು
-0.1249 ಪರಿಹಾರ ನೀಡಲಾಗುತ್ತಿತ್ತು </s>
-0.1249 <s> ಎತ್ತರವಾಗಿದ್ದು ರಾಜ್ಯವನ್ನೆಲ್ಲ
-0.1249 ಎತ್ತರವಾಗಿದ್ದು ರಾಜ್ಯವನ್ನೆಲ್ಲ ಒಂದುಗೂಡಿಸಿದ
-0.1249 ರಾಜ್ಯವನ್ನೆಲ್ಲ ಒಂದುಗೂಡಿಸಿದ ನಂತರ
-0.1249 ಒಂದುಗೂಡಿಸಿದ ನಂತರ ಬೆಬಿಲೋನಿಯದಲ್ಲಿ
-0.1249 ನಂತರ ಬೆಬಿಲೋನಿಯದಲ್ಲಿ ಕೆತ್ತಿಸಲಾಗಿದೆ
-0.1249 ಬೆಬಿಲೋನಿಯದಲ್ಲಿ ಕೆತ್ತಿಸಲಾಗಿದೆ </s>
-0.4260 <s> ಜನರ ಕಮಿಸಾರರ
-0.1249 ಜನರ ಕಮಿಸಾರರ ಮಂಡಳಿ
-0.1249 ಕಮಿಸಾರರ ಮಂಡಳಿ ಯನ್ನು
-0.1249 ಮಂಡಳಿ ಯನ್ನು ಸ್ಥಾಪಿಸಲಾಯಿತು
-0.1249 ಯನ್ನು ಸ್ಥಾಪಿಸಲಾಯಿತು </s>
-0.1249 <s> ಸೂರ್ಯನ ಬೆಳಕಿನಲ್ಲಿ
-0.1249 ಸೂರ್ಯನ ಬೆಳಕಿನಲ್ಲಿ ಒಣಗಿಸಿದ
-0.1249 ಬೆಳಕಿನಲ್ಲಿ ಒಣಗಿಸಿದ ಇಟ್ಟಿಗೆಗಳಿಗೆ
-0.1249 ಒಣಗಿಸಿದ ಇಟ್ಟಿಗೆಗಳಿಗೆ ಬದಲಾಗಿ
-0.1249 ಇಟ್ಟಿಗೆಗಳಿಗೆ ಬದಲಾಗಿ ಬೇಯಿಸಿದ
-0.1249 ಬದಲಾಗಿ ಬೇಯಿಸಿದ ಇಟ್ಟಿಗೆಗಳನ್ನು
-0.1249 ಬೇಯಿಸಿದ ಇಟ್ಟಿಗೆಗಳನ್ನು ಬಳಸಿದರು
-0.1249 ಇಟ್ಟಿಗೆಗಳನ್ನು ಬಳಸಿದರು </s>
-0.1249 <s> ವ್ಯವಸಾಯ ಪದ್ಧತಿಯು
-0.1249 ವ್ಯವಸಾಯ ಪದ್ಧತಿಯು ಇನ್ನು
-0.1249 ಪದ್ಧತಿಯು ಇನ್ನು ಸುಧಾರಿಸಿತು
-0.1249 ಇನ್ನು ಸುಧಾರಿಸಿತು ಮತ್ತು
-0.1249 ಸುಧಾರಿಸಿತು ಮತ್ತು ಧಾನ್ಯದ
-0.1249 ಮತ್ತು ಧಾನ್ಯದ ಇಳುವರಿಯಲ್ಲಿ
-0.1249 ಧಾನ್ಯದ ಇಳುವರಿಯಲ್ಲಿ ಗಣನೀಯವಾಗಿ
-0.1249 ಇಳುವರಿಯಲ್ಲಿ ಗಣನೀಯವಾಗಿ ಆದಾಯ
-0.1249 ಗಣನೀಯವಾಗಿ ಆದಾಯ ಹೆಚ್ಚಾಗಿತ್ತು
-0.1249 ಆದಾಯ ಹೆಚ್ಚಾಗಿತ್ತು </s>
-0.1249 <s> ಸಹಾಯಕ ಸಂಶೋಧಕರ
-0.1249 ಸಹಾಯಕ ಸಂಶೋಧಕರ ಸಹಾಯ
-0.1249 ಸಂಶೋಧಕರ ಸಹಾಯ ನಮಗೆ
-0.1249 ಸಹಾಯ ನಮಗೆ ಇದ್ದೇ
-0.1249 ನಮಗೆ ಇದ್ದೇ ಇದೆ
-0.1249 ಇದ್ದೇ ಇದೆ </s>
-0.1249 <s> ಪಶ್ಚಿಮದಿಂದ ಬರುತ್ತಿದ್ದ
-0.1249 ಪಶ್ಚಿಮದಿಂದ ಬರುತ್ತಿದ್ದ ಅಲೆಮಾರಿ
-0.1249 ಬರುತ್ತಿದ್ದ ಅಲೆಮಾರಿ ಬುಡಕಟ್ಟು
-0.1249 ಅಲೆಮಾರಿ ಬುಡಕಟ್ಟು ಜನರಿಂದ
-0.1249 ಬುಡಕಟ್ಟು ಜನರಿಂದ ಶುಲ್ಗಿಯು
-0.1249 ಜನರಿಂದ ಶುಲ್ಗಿಯು ಕಷ್ಟವನ್ನು
-0.1249 ಶುಲ್ಗಿಯು ಕಷ್ಟವನ್ನು ಅನುಭವಿಸಬೇಕಾಗಿ
-0.1249 ಕಷ್ಟವನ್ನು ಅನುಭವಿಸಬೇಕಾಗಿ ಬಂತು
-0.1249 ಅನುಭವಿಸಬೇಕಾಗಿ ಬಂತು </s>
-0.1249 <s> ಏಕೆಂದರೆ ನಿಧಾನವಾಗಿ
-0.1249 ಏಕೆಂದರೆ ನಿಧಾನವಾಗಿ ಹರಿಯುವ
-0.1249 ನಿಧಾನವಾಗಿ ಹರಿಯುವ ಈ
-0.1249 ಹರಿಯುವ ಈ ನದಿಯ
-0.1249 ಈ ನದಿಯ ನೀರನ್ನು
-0.1249 ನದಿಯ ನೀರನ್ನು ವ್ಯವಸಾಯಕ್ಕೆ
-0.1249 ನೀರನ್ನು ವ್ಯವಸಾಯಕ್ಕೆ ಬಳಸಿಕೊಳ್ಳಬಹುದಿತ್ತು
-0.1249 ವ್ಯವಸಾಯಕ್ಕೆ ಬಳಸಿಕೊಳ್ಳಬಹುದಿತ್ತು </s>
-0.1249 <s> ಇವುಗಳಲ್ಲಿ ಆಮದು
-0.1249 ಇವುಗಳಲ್ಲಿ ಆಮದು ಮಾಡಿಕೊಂಡ
-0.1249 ಆಮದು ಮಾಡಿಕೊಂಡ ಹರಳುಗಳು
-0.1249 ಮಾಡಿಕೊಂಡ ಹರಳುಗಳು ಕೂಡ
-0.1249 ಹರಳುಗಳು ಕೂಡ ಇವೆ
-0.1249 ಕೂಡ ಇವೆ </s>
-0.4260 <s> ತಾತ್ಕಾಲಿಕ ಸರಕಾರವು
-0.1249 ತಾತ್ಕಾಲಿಕ ಸರಕಾರವು ಸೇತುವೆಗಳನ್ನು
-0.1249 ಸರಕಾರವು ಸೇತುವೆಗಳನ್ನು ಉರುಳಿಸಲು
-0.1249 ಸೇತುವೆಗಳನ್ನು ಉರುಳಿಸಲು ಪ್ರಯತ್ನಿಸಿತು
-0.1249 ಉರುಳಿಸಲು ಪ್ರಯತ್ನಿಸಿತು </s>
-0.1249 <s> ನಗರದ ಅರಮನೆ
-0.1249 ನಗರದ ಅರಮನೆ ಮತ್ತು
-0.1249 ಅರಮನೆ ಮತ್ತು ದೇವಸ್ಥಾನಗಳನ್ನು
-0.1249 ಮತ್ತು ದೇವಸ್ಥಾನಗಳನ್ನು ವಿಸ್ತರಿಸಿದರು
-0.1249 ದೇವಸ್ಥಾನಗಳನ್ನು ವಿಸ್ತರಿಸಿದರು </s>
-0.1249 <s> ಅದನ್ನು ಕ್ರಾಂತಿಕಾರಿ
-0.1249 ಅದನ್ನು ಕ್ರಾಂತಿಕಾರಿ ಮಿಲಿಟರಿ
-0.1249 ಕ್ರಾಂತಿಕಾರಿ ಮಿಲಿಟರಿ ಕೇಂದ್ರ
-0.1249 ಮಿಲಿಟರಿ ಕೇಂದ್ರ ಸಮಿತಿ
-0.1249 ಕೇಂದ್ರ ಸಮಿತಿ ಅಂಗೀಕರಿಸಿತು
-0.1249 ಸಮಿತಿ ಅಂಗೀಕರಿಸಿತು </s>
-0.1249 <s> ಎಲಾಮ್ ದೇಶದ
-0.1249 ಎಲಾಮ್ ದೇಶದ ಶುತ್ರುಕ್ನಹ್ಹುಂತೆ
-0.1249 ದೇಶದ ಶುತ್ರುಕ್ನಹ್ಹುಂತೆ ಎಂಬುವವನು
-0.1249 ಶುತ್ರುಕ್ನಹ್ಹುಂತೆ ಎಂಬುವವನು ಸುಮಾರು
-0.1249 ಎಂಬುವವನು ಸುಮಾರು ಕ್ರಿ
-0.1249 ಸುಮಾರು ಕ್ರಿ </s>
-0.1249 <s> ಪ್ರತಿಕ್ರಾಂತಿಕಾರಿಗಳ ಅಧಿಕಾರವನ್ನು
-0.1249 ಪ್ರತಿಕ್ರಾಂತಿಕಾರಿಗಳ ಅಧಿಕಾರವನ್ನು ಸ್ತಬ್ಧಗೊಳಿಸುವುದಷ್ಟೆ
-0.1249 ಅಧಿಕಾರವನ್ನು ಸ್ತಬ್ಧಗೊಳಿಸುವುದಷ್ಟೆ ಅವರ
-0.1249 ಸ್ತಬ್ಧಗೊಳಿಸುವುದಷ್ಟೆ ಅವರ ಗುರಿಯಾಗಿತ್ತು
-0.1249 ಅವರ ಗುರಿಯಾಗಿತ್ತು </s>
-0.4260 <s> ಜನರ ಕೈಗೆಕಾರ್ಮಿಕರಿಗೆ
-0.1249 ಜನರ ಕೈಗೆಕಾರ್ಮಿಕರಿಗೆ ಮತ್ತು
-0.1249 ಕೈಗೆಕಾರ್ಮಿಕರಿಗೆ ಮತ್ತು ರೈತರಿಗೆ
-0.1249 ಮತ್ತು ರೈತರಿಗೆ ಅಧಿಕಾರ
-0.1249 ರೈತರಿಗೆ ಅಧಿಕಾರ ಬಂದಿದೆ
-0.1249 ಅಧಿಕಾರ ಬಂದಿದೆ </s>
-0.1249 <s> ಅನಂತರ ಇವನ
-0.1249 ಅನಂತರ ಇವನ ಕಿರಿಯ
-0.1249 ಇವನ ಕಿರಿಯ ಮಗ
-0.1249 ಕಿರಿಯ ಮಗ ಇಬ್ಬಿಸಿನ್
-0.1249 ಮಗ ಇಬ್ಬಿಸಿನ್ ಕ್ರಿ
-0.1249 ಇಬ್ಬಿಸಿನ್ ಕ್ರಿ </s>
-0.1249 <s> ಇದರ ಮುಖ್ಯ
-0.1249 ಇದರ ಮುಖ್ಯ ಭಾಗವೊಂದು
-0.1249 ಮುಖ್ಯ ಭಾಗವೊಂದು ಅದರ
-0.1249 ಭಾಗವೊಂದು ಅದರ ಇಂದಿನ
-0.1249 ಅದರ ಇಂದಿನ ಮಾರ್ಗದಂತೆ
-0.1249 ಇಂದಿನ ಮಾರ್ಗದಂತೆ ಸಮತಟ್ಟಾದ
-0.1249 ಮಾರ್ಗದಂತೆ ಸಮತಟ್ಟಾದ ಭೂಮಿಯ
-0.1249 ಸಮತಟ್ಟಾದ ಭೂಮಿಯ ಮಧ್ಯಭಾಗದಲ್ಲಿ
-0.1249 ಭೂಮಿಯ ಮಧ್ಯಭಾಗದಲ್ಲಿ ಹಾದು
-0.1249 ಮಧ್ಯಭಾಗದಲ್ಲಿ ಹಾದು ಹೋಗಿತ್ತು
-0.1249 ಹಾದು ಹೋಗಿತ್ತು </s>
-0.1249 <s> ಉಬೈದ್ ಒ
-0.6021 ಉಬೈದ್ ಒ ಕಾಲವು
-0.1249 ಒ ಕಾಲವು ವ್ಯವಸಾಯವನ್ನಾಧರಿಸಿದ
-0.1249 ಕಾಲವು ವ್ಯವಸಾಯವನ್ನಾಧರಿಸಿದ ಹಳ್ಳಿಗಳ
-0.1249 ವ್ಯವಸಾಯವನ್ನಾಧರಿಸಿದ ಹಳ್ಳಿಗಳ ಕಾಲವನ್ನು
-0.1249 ಹಳ್ಳಿಗಳ ಕಾಲವನ್ನು ಪ್ರತಿನಿಧಿಸುತ್ತದೆ
-0.1249 ಕಾಲವನ್ನು ಪ್ರತಿನಿಧಿಸುತ್ತದೆ </s>
-0.1249 <s> ಅಲೆಮಾರಿ ಜನಾಂಗಕ್ಕೆ
-0.1249 ಅಲೆಮಾರಿ ಜನಾಂಗಕ್ಕೆ ಸೇರಿದವರಾಗಿದ್ದ
-0.1249 ಜನಾಂಗಕ್ಕೆ ಸೇರಿದವರಾಗಿದ್ದ ಅಕ್ಕಡಿಯನ್ನರು
-0.1249 ಸೇರಿದವರಾಗಿದ್ದ ಅಕ್ಕಡಿಯನ್ನರು ಸುಮೇರಿಯನ್ನರ
-0.1249 ಅಕ್ಕಡಿಯನ್ನರು ಸುಮೇರಿಯನ್ನರ ಸಂಸ್ಕೃತಿಯನ್ನೇ
-0.1249 ಸುಮೇರಿಯನ್ನರ ಸಂಸ್ಕೃತಿಯನ್ನೇ ಸ್ವೀಕರಿಸಿ
-0.1249 ನಂತರ ಬೆಳೆಸಿದರು </s>
-0.1249 <s> ರಷ್ಯಾದಲ್ಲಿ ನೆಲೆ
-0.1249 ರಷ್ಯಾದಲ್ಲಿ ನೆಲೆ ನಿಂತಿರುವ
-0.1249 ನೆಲೆ ನಿಂತಿರುವ ರಾಷ್ಟ್ರೀಯ
-0.1249 ನಿಂತಿರುವ ರಾಷ್ಟ್ರೀಯ ಅಲ್ಪಸಂಖ್ಯಾತರ
-0.1249 ರಾಷ್ಟ್ರೀಯ ಅಲ್ಪಸಂಖ್ಯಾತರ ಮತ್ತು
-0.1249 ಅಲ್ಪಸಂಖ್ಯಾತರ ಮತ್ತು ಜನಾಂಗೀಯ
-0.1249 ಮತ್ತು ಜನಾಂಗೀಯ ಗುಂಪುಗಳಿಗೆ
-0.1249 ಜನಾಂಗೀಯ ಗುಂಪುಗಳಿಗೆ ಅಭಿವೃದ್ದಿಗೆ
-0.1249 ಗುಂಪುಗಳಿಗೆ ಅಭಿವೃದ್ದಿಗೆ ಮುಕ್ತ
-0.1249 ಅಭಿವೃದ್ದಿಗೆ ಮುಕ್ತ ಅವಕಾಶ
-0.1249 ಮುಕ್ತ ಅವಕಾಶ </s>
-0.1249 <s> ಇವೆಲ್ಲವುಗಳಿಂದ ಸೋವಿಯತ್
-0.1249 ಇವೆಲ್ಲವುಗಳಿಂದ ಸೋವಿಯತ್ ಪ್ರಭುತ್ವ
-0.1249 ಸೋವಿಯತ್ ಪ್ರಭುತ್ವ ಜನರಕಾರ್ಮಿಕರ
-0.1249 ಪ್ರಭುತ್ವ ಜನರಕಾರ್ಮಿಕರ ಮತ್ತು
-0.1249 ಜನರಕಾರ್ಮಿಕರ ಮತ್ತು ರೈತರ
-0.1249 ಮತ್ತು ರೈತರ ಪ್ರಭುತ್ವ
-0.1249 ರೈತರ ಪ್ರಭುತ್ವ ಎಂದು
-0.1249 ಪ್ರಭುತ್ವ ಎಂದು ಜನರಿಗೆ
-0.1249 ಎಂದು ಜನರಿಗೆ ವಿಶ್ವಾಸ
-0.1249 ಜನರಿಗೆ ವಿಶ್ವಾಸ ಬಂದಿತು
-0.1249 ವಿಶ್ವಾಸ ಬಂದಿತು </s>
-0.1249 <s> ಮತ್ತು ಅಂದಿನ
-0.1249 ಮತ್ತು ಅಂದಿನ ಕಾಲಕ್ಕೆ
-0.1249 ಅಂದಿನ ಕಾಲಕ್ಕೆ ದಕ್ಷಿಣ
-0.1249 ಕಾಲಕ್ಕೆ ದಕ್ಷಿಣ ಮೆಸಪಟೋಮಿಯಾದ
-0.4260 ದಕ್ಷಿಣ ಮೆಸಪಟೋಮಿಯಾದ ಬೃಹತ್ತಾದ
-0.1249 ಮೆಸಪಟೋಮಿಯಾದ ಬೃಹತ್ತಾದ ಮತ್ತು
-0.1249 ಬೃಹತ್ತಾದ ಮತ್ತು ತುಂಬ
-0.1249 ಮತ್ತು ತುಂಬ ಮುಖ್ಯವಾದ
-0.1249 ತುಂಬ ಮುಖ್ಯವಾದ ನಗರವಾಗಿತ್ತು
-0.1249 ಮುಖ್ಯವಾದ ನಗರವಾಗಿತ್ತು </s>
-0.4260 <s> ಇವನ ಮೊಮ್ಮಗನಾದ
-0.1249 ಇವನ ಮೊಮ್ಮಗನಾದ ನೊರಮ್ಸಿನ್ನನ
-0.1249 ಮೊಮ್ಮಗನಾದ ನೊರಮ್ಸಿನ್ನನ ಆಳ್ವಿಕೆಯ
-0.1249 ನೊರಮ್ಸಿನ್ನನ ಆಳ್ವಿಕೆಯ ಕಾಲದಲ್ಲಿ
-0.1249 ಆಳ್ವಿಕೆಯ ಕಾಲದಲ್ಲಿ ಮಾತ್ರ
-0.1249 ಕಾಲದಲ್ಲಿ ಮಾತ್ರ ಈ
-0.1249 ಮಾತ್ರ ಈ ದಂಗೆಗಳನ್ನು
-0.1249 ಈ ದಂಗೆಗಳನ್ನು ಹತ್ತಿಕ್ಕಲು
-0.1249 ದಂಗೆಗಳನ್ನು ಹತ್ತಿಕ್ಕಲು ಸಾಧ್ಯವಾಯಿತು
-0.1249 ಹತ್ತಿಕ್ಕಲು ಸಾಧ್ಯವಾಯಿತು </s>
-0.1249 <s> ಅವುಗಳನ್ನು ಯಾರೂ
-0.1249 ಅವುಗಳನ್ನು ಯಾರೂ ಬದಲು
-0.1249 ಯಾರೂ ಬದಲು ಮಾಡಲಾರರೆಂದು
-0.1249 ಬದಲು ಮಾಡಲಾರರೆಂದು ಆಶ್ವಾಸನೆ
-0.1249 ಮಾಡಲಾರರೆಂದು ಆಶ್ವಾಸನೆ </s>
-1.2711 <s> ಈ ಕಾಲವನ್ನು
-0.1249 ಈ ಕಾಲವನ್ನು ಪ್ರಾಚ್ಯವಸ್ತುಶಾಸ್ತ್ರದ
-0.1249 ಕಾಲವನ್ನು ಪ್ರಾಚ್ಯವಸ್ತುಶಾಸ್ತ್ರದ ಪರಿಭಾಷೆಯಲ್ಲಿ
-0.1249 ಪ್ರಾಚ್ಯವಸ್ತುಶಾಸ್ತ್ರದ ಪರಿಭಾಷೆಯಲ್ಲಿ ಉಬೈದ್
-0.1249 ಪರಿಭಾಷೆಯಲ್ಲಿ ಉಬೈದ್ ಒ
-0.6021 ಉಬೈದ್ ಒ ಎಂದು
-0.1249 ಒ ಎಂದು ಕರೆಯುತ್ತಾರೆ
-0.1249 ಎಂದು ಕರೆಯುತ್ತಾರೆ </s>
-0.9031 <s> ಆದರೆ ದಕ್ಷಿಣ
-0.1249 ಆದರೆ ದಕ್ಷಿಣ ಪ್ರಾಂತ್ಯಕ್ಕೆ
-0.1249 ದಕ್ಷಿಣ ಪ್ರಾಂತ್ಯಕ್ಕೆ ಸುಮೇರ್
-0.1249 ಪ್ರಾಂತ್ಯಕ್ಕೆ ಸುಮೇರ್ ಎನ್ನುವ
-0.1249 ಸುಮೇರ್ ಎನ್ನುವ ಹೆಸರಿತ್ತು
-0.1249 ಎನ್ನುವ ಹೆಸರಿತ್ತು </s>
-0.4260 <s> ಹೀಗೆ ದಕ್ಷಿಣ
-0.1249 ಹೀಗೆ ದಕ್ಷಿಣ ಮೆಸಪಟೋಮಿಯಾದ
-0.4260 ದಕ್ಷಿಣ ಮೆಸಪಟೋಮಿಯಾದ ನಗರರಾಜ್ಯಗಳು
-0.1249 ಮೆಸಪಟೋಮಿಯಾದ ನಗರರಾಜ್ಯಗಳು ಬೆಳವಣಿಗೆಯನ್ನು
-0.1249 ನಗರರಾಜ್ಯಗಳು ಬೆಳವಣಿಗೆಯನ್ನು ಮುಂದು
-0.1249 ಬೆಳವಣಿಗೆಯನ್ನು ಮುಂದು ವರೆಸಿದವು
-0.1249 ಮುಂದು ವರೆಸಿದವು </s>
-0.1249 <s> ಜನರಿಗೆ ತಾತ್ಕಾಲಿಕ
-0.1249 ಜನರಿಗೆ ತಾತ್ಕಾಲಿಕ ಸರಕಾರದ
-0.4260 ತಾತ್ಕಾಲಿಕ ಸರಕಾರದ ಗುಣಲಕ್ಷಣಗಳು
-0.1249 ಸರಕಾರದ ಗುಣಲಕ್ಷಣಗಳು ಇನ್ನಷ್ಟು
-0.1249 ಗುಣಲಕ್ಷಣಗಳು ಇನ್ನಷ್ಟು ಸ್ಪಷ್ಟವಾದವು
-0.1249 ಇನ್ನಷ್ಟು ಸ್ಪಷ್ಟವಾದವು </s>
-0.1249 <s> ಆರಂಭದ ಶಾಸನ
-0.1249 ಆರಂಭದ ಶಾಸನ ಸಂಹಿತೆಗಳು
-0.1249 ಶಾಸನ ಸಂಹಿತೆಗಳು ಉರ್
-0.1249 ಐಸಿನ್ ಮತ್ತು ಎಶ್ನುನ್ನ
-0.1249 ಮತ್ತು ಎಶ್ನುನ್ನ ಎಂಬ
-0.1249 ಎಶ್ನುನ್ನ ಎಂಬ ರಾಜ್ಯಗಳಿಂದ
-0.1249 ಎಂಬ ರಾಜ್ಯಗಳಿಂದ ಬಂದಿದ್ದವು
-0.1249 ರಾಜ್ಯಗಳಿಂದ ಬಂದಿದ್ದವು </s>
-0.1249 <s> ಇದೇ ಕಾಲಕ್ಕೆ
-0.1249 ಇದೇ ಕಾಲಕ್ಕೆ ಸರಿಯಾಗಿ
-0.1249 ಕಾಲಕ್ಕೆ ಸರಿಯಾಗಿ ಅಮ್ಮೋರೈಟ್ರ
-0.1249 ಸರಿಯಾಗಿ ಅಮ್ಮೋರೈಟ್ರ ಒಂದನೆಯ
-0.1249 ಅಮ್ಮೋರೈಟ್ರ ಒಂದನೆಯ ಶಂಸಿ
-0.1249 ಒಂದನೆಯ ಶಂಸಿ ಆದಬನು
-0.1249 ಶಂಸಿ ಆದಬನು ಕ್ರಿ
-0.1249 ಆದಬನು ಕ್ರಿ </s>
-1.2711 <s> ಈ ಬರಹಗಳು
-0.1249 ಈ ಬರಹಗಳು ಉಮ್ಮಾ
-0.1249 ಬರಹಗಳು ಉಮ್ಮಾ ಎನ್ನುವ
-0.1249 ಉಮ್ಮಾ ಎನ್ನುವ ಮತ್ತೊಂದು
-0.1249 ಎನ್ನುವ ಮತ್ತೊಂದು ನಗರರಾಜ್ಯದೊಡನೆ
-0.1249 ಮತ್ತೊಂದು ನಗರರಾಜ್ಯದೊಡನೆ ನಡೆಯುತ್ತಿದ್ದ
-0.1249 ನಗರರಾಜ್ಯದೊಡನೆ ನಡೆಯುತ್ತಿದ್ದ ಗಡಿ
-0.1249 ನಡೆಯುತ್ತಿದ್ದ ಗಡಿ ವಿವಾದದ
-0.1249 ಗಡಿ ವಿವಾದದ ಬಗ್ಗೆ
-0.1249 ವಿವಾದದ ಬಗ್ಗೆ ತಿಳಿಸುತ್ತದೆ
-0.1249 ಬಗ್ಗೆ ತಿಳಿಸುತ್ತದೆ </s>
-0.1249 <s> ತುಳಿತಕ್ಕೆ ಒಳಗಾದ
-0.1249 ತುಳಿತಕ್ಕೆ ಒಳಗಾದ ರಷ್ಯಾದ
-0.1249 ಒಳಗಾದ ರಷ್ಯಾದ ವಿವಿಧ
-0.1249 ರಷ್ಯಾದ ವಿವಿಧ ರಾಷ್ಟ್ರೀಯತೆಗಳ
-0.1249 ವಿವಿಧ ರಾಷ್ಟ್ರೀಯತೆಗಳ ಜನರಿಗೆ
-0.1249 ರಾಷ್ಟ್ರೀಯತೆಗಳ ಜನರಿಗೆ ಹೊಸ
-0.1249 ಜನರಿಗೆ ಹೊಸ ಗರಿ
-0.1249 ಹೊಸ ಗರಿ ಬಂದಂತಾಯಿತು
-0.1249 ಗರಿ ಬಂದಂತಾಯಿತು </s>
-0.4260 <s> ನಂತರ ಮತ್ತೊಮ್ಮೆ
-0.1249 ನಂತರ ಮತ್ತೊಮ್ಮೆ ಅದೇ
-0.1249 ಮತ್ತೊಮ್ಮೆ ಅದೇ ನಗರದ
-0.1249 ಅದೇ ನಗರದ ಮೇಲೆ
-0.1249 ನಗರದ ಮೇಲೆ ದಾಳಿ
-0.1249 ಮೇಲೆ ದಾಳಿ ಮಾಡಿ
-0.1249 ದಾಳಿ ಮಾಡಿ ಕ್ರಿ
-0.1249 ಮಾಡಿ ಕ್ರಿ </s>
-1.2711 <s> ಈ ಕಾಲವು
-0.4260 ಈ ಕಾಲವು ಇರಿನ್ಲಾರ್ಸನ
-0.1249 ಕಾಲವು ಇರಿನ್ಲಾರ್ಸನ ಆಳ್ವಿಕೆಯ
-0.1249 ಇರಿನ್ಲಾರ್ಸನ ಆಳ್ವಿಕೆಯ ಮೊದಲನೆಯ
-0.1249 ಆಳ್ವಿಕೆಯ ಮೊದಲನೆಯ ಹಂತವಾಗಿತ್ತು
-0.1249 ಮೊದಲನೆಯ ಹಂತವಾಗಿತ್ತು </s>
-0.1249 <s> ಇವನು ಸುಮೇರನ್ನು
-0.1249 ಇವನು ಸುಮೇರನ್ನು ಆಳಿದ
-0.1249 ಸುಮೇರನ್ನು ಆಳಿದ ಕಟ್ಟ
-0.1249 ಆಳಿದ ಕಟ್ಟ ಕಡೆಯವರಲ್ಲಿ
-0.1249 ಕಟ್ಟ ಕಡೆಯವರಲ್ಲಿ ಅತಿ
-0.1249 ಕಡೆಯವರಲ್ಲಿ ಅತಿ ಪ್ರಮುಖನಾಗಿದ್ದಾನೆ
-0.1249 ಅತಿ ಪ್ರಮುಖನಾಗಿದ್ದಾನೆ </s>
-0.1249 <s> ಭೂ ಶೋಧನೆಯಿಂದ
-0.1249 ಭೂ ಶೋಧನೆಯಿಂದ ಹೊರ
-0.1249 ಶೋಧನೆಯಿಂದ ಹೊರ ತೆಗೆಯಲಾಗಿರುವ
-0.1249 ಹೊರ ತೆಗೆಯಲಾಗಿರುವ ವಸ್ತುಗಳು
-0.1249 ತೆಗೆಯಲಾಗಿರುವ ವಸ್ತುಗಳು ಕಲೆಯಲ್ಲಿ
-0.1249 ವಸ್ತುಗಳು ಕಲೆಯಲ್ಲಿ ಸಾಧಿಸಲಾಗಿರುವ
-0.1249 ಕಲೆಯಲ್ಲಿ ಸಾಧಿಸಲಾಗಿರುವ ಪರಿಣತಿಯನ್ನು
-0.1249 ಸಾಧಿಸಲಾಗಿರುವ ಪರಿಣತಿಯನ್ನು ಸ್ಪಷ್ಟಪಡಿಸುತ್ತವೆ
-0.1249 ಪರಿಣತಿಯನ್ನು ಸ್ಪಷ್ಟಪಡಿಸುತ್ತವೆ </s>
-1.2711 <s> ಈ ಗೋಡೆಯು
-0.1249 ಈ ಗೋಡೆಯು ಬಹುರೀತಿಯಾಗಿ
-0.1249 ಗೋಡೆಯು ಬಹುರೀತಿಯಾಗಿ ಜನರಿಗೆ
-0.1249 ಬಹುರೀತಿಯಾಗಿ ಜನರಿಗೆ ತಿಳಿದಿದ್ದು
-0.1249 ಬೆಟ್ಟಗಳ ಮುಂದಿನ ಗೋಡೆಯೆಂದು
-0.1249 ಮುಂದಿನ ಗೋಡೆಯೆಂದು ಪ್ರಸಿದ್ಧವಾಗಿತ್ತು
-0.1249 ಗೋಡೆಯೆಂದು ಪ್ರಸಿದ್ಧವಾಗಿತ್ತು </s>
-0.1249 <s> ರಾಜ್ಯವನ್ನು ಹಲವು
-0.1249 ರಾಜ್ಯವನ್ನು ಹಲವು ಪ್ರಾಂತಗಳನ್ನಾಗಿ
-0.1249 ಹಲವು ಪ್ರಾಂತಗಳನ್ನಾಗಿ ವಿಂಗಡಿಸಿ
-0.1249 ಸ್ಥಳೀಯ ಆಳುವ ಮನೆತನಗಳ
-0.1249 ಆಳುವ ಮನೆತನಗಳ ಜನರನ್ನು
-0.1249 ಮನೆತನಗಳ ಜನರನ್ನು ರಾಜ್ಯಪಾಲರನ್ನಾಗಿ
-0.1249 ಜನರನ್ನು ರಾಜ್ಯಪಾಲರನ್ನಾಗಿ ನೆಯಮಿಸಿದನು
-0.1249 ರಾಜ್ಯಪಾಲರನ್ನಾಗಿ ನೆಯಮಿಸಿದನು </s>
-0.1249 <s> ಕಾರಣವೆಂದರೆ ಅಸ್ಸಿರಿಯನ್ನರಿಗೆ
-0.1249 ಕಾರಣವೆಂದರೆ ಅಸ್ಸಿರಿಯನ್ನರಿಗೆ ದಕ್ಷಿಣ
-0.1249 ಅಸ್ಸಿರಿಯನ್ನರಿಗೆ ದಕ್ಷಿಣ ಮೆಸಪಟೋಮಿ
-0.1249 ದಕ್ಷಿಣ ಮೆಸಪಟೋಮಿ ಯಾದ
-0.1249 ಮೆಸಪಟೋಮಿ ಯಾದ ಸಂಸ್ಕೃತಿಯ
-0.1249 ಯಾದ ಸಂಸ್ಕೃತಿಯ ಬಗ್ಗೆ
-0.1249 ಸಂಸ್ಕೃತಿಯ ಬಗ್ಗೆ ಮತ್ತು
-0.1249 ಬಗ್ಗೆ ಮತ್ತು ದೇವರುಗಳ
-0.1249 ಮತ್ತು ದೇವರುಗಳ ಬಗ್ಗೆ
-0.1249 ದೇವರುಗಳ ಬಗ್ಗೆ ಅಪಾರವಾದ
-0.1249 ಬಗ್ಗೆ ಅಪಾರವಾದ ಗೌರವವಿತ್ತು
-0.1249 ಅಪಾರವಾದ ಗೌರವವಿತ್ತು </s>
-0.1249 <s> ಹನಿಗೆ ಹನಿ
-0.1249 ಹನಿಗೆ ಹನಿ ಕೂಡಿದರೆ
-0.1249 ಹನಿ ಕೂಡಿದರೆ ಹಳ್ಳವಾಗುವುದು
-0.1249 ತೆನಿಗೆ ತೆನಿ ಕೂಡಿದರೆ
-0.1249 ತೆನಿ ಕೂಡಿದರೆ ರಾಶಿಯಾಗುವುದು
-0.1249 ಕೂಡಿದರೆ ರಾಶಿಯಾಗುವುದು </s>
-0.4260 <s> ರಷ್ಯಾದ ಯಾವುದೇ
-0.1249 ರಷ್ಯಾದ ಯಾವುದೇ ಪ್ರದೇಶದ
-0.1249 ಯಾವುದೇ ಪ್ರದೇಶದ ಜನರಿಗೆ
-0.1249 ಪ್ರದೇಶದ ಜನರಿಗೆ ಸ್ವಯಂ
-0.1249 ಜನರಿಗೆ ಸ್ವಯಂ ನಿರ್ಧಾರದ
-0.1249 ಸ್ವಯಂ ನಿರ್ಧಾರದ ಹಕ್ಕು
-0.1249 ನಿರ್ಧಾರದ ಹಕ್ಕು </s>
-0.4260 <s> ಹೀಗೆ ಈ
-0.1249 ಹೀಗೆ ಈ ಕಾಲವು
-0.4260 ಈ ಕಾಲವು ಪ್ರಪಂಚದ
-0.1249 ಕಾಲವು ಪ್ರಪಂಚದ ಮೊದಲ
-0.1249 ಪ್ರಪಂಚದ ಮೊದಲ ನಗರ
-0.1249 ಮೊದಲ ನಗರ ಜೀವನದ
-0.1249 ನಗರ ಜೀವನದ ಹುಟ್ಟನ್ನು
-0.1249 ಜೀವನದ ಹುಟ್ಟನ್ನು ಕಂಡಿತು
-0.1249 ಹುಟ್ಟನ್ನು ಕಂಡಿತು </s>
-0.1249 <s> ಅರಾಜಕತೆ ಉಂಟಾಗಿ
-0.1249 ಅರಾಜಕತೆ ಉಂಟಾಗಿ ಕೊಲೆ
-0.1249 ಉಂಟಾಗಿ ಕೊಲೆ ದರೋಡೆಗಳು
-0.1249 ಕೊಲೆ ದರೋಡೆಗಳು ಹೆಚ್ಚಾದವು
-0.1249 ದರೋಡೆಗಳು ಹೆಚ್ಚಾದವು </s>
-1.2711 <s> ಈ ನಗರದಲ್ಲಿ
-0.1249 ಈ ನಗರದಲ್ಲಿ ರಾಜರು
-0.1249 ನಗರದಲ್ಲಿ ರಾಜರು ತಮಗೆ
-0.1249 ರಾಜರು ತಮಗೆ ಬೇಕಾದಂತೆ
-0.1249 ತಮಗೆ ಬೇಕಾದಂತೆ ಕಿಶ್
-0.1249 ಬೇಕಾದಂತೆ ಕಿಶ್ ದೇಶದ
-0.1249 ಕಿಶ್ ದೇಶದ ರಾಜನೆಂದು
-0.1249 ದೇಶದ ರಾಜನೆಂದು ಬಿರುದುಗಳನ್ನು
-0.1249 ರಾಜನೆಂದು ಬಿರುದುಗಳನ್ನು ಪಡೆದುಕೊಳ್ಳುತ್ತಿದ್ದರು
-0.1249 ಬಿರುದುಗಳನ್ನು ಪಡೆದುಕೊಳ್ಳುತ್ತಿದ್ದರು </s>
-0.1249 <s> ಗುದಿಯನ್ನು ಲಗಾಶನು
-0.1249 ಗುದಿಯನ್ನು ಲಗಾಶನು ಆಳುತ್ತಿದ್ದಾಗ
-0.1249 ಉರುಕ್ನ ಉತುಹೆಗಲ್ ಕ್ರಿ
-0.1249 ಉತುಹೆಗಲ್ ಕ್ರಿ </s>
-0.1249 <s> ಕ್ರಾಂತಿಕಾರಿಗಳು ಮನಸ್ಸು
-0.1249 ಕ್ರಾಂತಿಕಾರಿಗಳು ಮನಸ್ಸು ಮಾಡಿದ್ದರೆ
-0.1249 ಮನಸ್ಸು ಮಾಡಿದ್ದರೆ ಅರಮನೆಯನ್ನು
-0.1249 ಮಾಡಿದ್ದರೆ ಅರಮನೆಯನ್ನು ಮತ್ತು
-0.1249 ಅರಮನೆಯನ್ನು ಮತ್ತು ಅಲ್ಲಿದ್ದವರನ್ನೆಲ್ಲಾ
-0.1249 ಮತ್ತು ಅಲ್ಲಿದ್ದವರನ್ನೆಲ್ಲಾ ಸುಟ್ಟು
-0.1249 ಅಲ್ಲಿದ್ದವರನ್ನೆಲ್ಲಾ ಸುಟ್ಟು ಬೂದಿ
-0.1249 ಸುಟ್ಟು ಬೂದಿ ಮಾಡಬಹುದಿತ್ತು
-0.1249 ಬೂದಿ ಮಾಡಬಹುದಿತ್ತು </s>
-0.1249 <s> ಗಂಗಿಗೌರೀ ಸಂವಾದದ
-0.1249 ಗಂಗಿಗೌರೀ ಸಂವಾದದ ಮೂರು
-0.1249 ಸಂವಾದದ ಮೂರು ಪ್ರತಿಗಳು
-0.1249 ಮೂರು ಪ್ರತಿಗಳು ನಮ್ಮ
-0.1249 ಪ್ರತಿಗಳು ನಮ್ಮ ಹಸ್ತಪ್ರತಿ
-0.1249 ನಮ್ಮ ಹಸ್ತಪ್ರತಿ ಭಂಡಾರದಲ್ಲಿದ್ದು
-0.1249 ಹಸ್ತಪ್ರತಿ ಭಂಡಾರದಲ್ಲಿದ್ದು ಒಂದಕ್ಕೊಂದು
-0.1249 ಭಂಡಾರದಲ್ಲಿದ್ದು ಒಂದಕ್ಕೊಂದು ತಾಳಮೇಳ
-0.1249 ಒಂದಕ್ಕೊಂದು ತಾಳಮೇಳ ಇಲ್ಲದಂತಿವೆ
-0.1249 ತಾಳಮೇಳ ಇಲ್ಲದಂತಿವೆ </s>
-0.1249 <s> ಅರಮನೆಯಲ್ಲಿ ಅಧಿಕಾರಿಗಳನ್ನು
-0.1249 ಅರಮನೆಯಲ್ಲಿ ಅಧಿಕಾರಿಗಳನ್ನು ಮತ್ತು
-0.1249 ಅಧಿಕಾರಿಗಳನ್ನು ಮತ್ತು ಸೈನಿಕರನ್ನು
-0.1249 ಮತ್ತು ಸೈನಿಕರನ್ನು ನಿಶ್ಯಸ್ತ್ರೀಕರಿಸಿ
-0.1249 ಸೈನಿಕರನ್ನು ನಿಶ್ಯಸ್ತ್ರೀಕರಿಸಿ ಬಿಟ್ಟುಬಿಡಲಾಯಿತು
-0.1249 ನಿಶ್ಯಸ್ತ್ರೀಕರಿಸಿ ಬಿಟ್ಟುಬಿಡಲಾಯಿತು </s>
-0.1249 <s> ಕಾರ್ಮಿಕರು ಕೈಗಾರಿಕೆಗಳ
-0.1249 ಕಾರ್ಮಿಕರು ಕೈಗಾರಿಕೆಗಳ ಆಡಳಿತದವರನ್ನು
-0.1249 ಕೈಗಾರಿಕೆಗಳ ಆಡಳಿತದವರನ್ನು ಕಿತ್ತು
-0.1249 ಆಡಳಿತದವರನ್ನು ಕಿತ್ತು ಹಾಕಿ
-0.1249 ಕಿತ್ತು ಹಾಕಿ ತಾವೇ
-0.1249 ಹಾಕಿ ತಾವೇ ವಹಿಸಿಕೊಂಡರು
-0.1249 ತಾವೇ ವಹಿಸಿಕೊಂಡರು </s>
-1.2711 <s> ಈ ಕಾಲದ
-0.1249 ಈ ಕಾಲದ ಭೌತಿಕವಾದ
-0.1249 ಕಾಲದ ಭೌತಿಕವಾದ ವಸ್ತು
-0.1249 ಭೌತಿಕವಾದ ವಸ್ತು ಸಂಸ್ಕೃತಿ
-0.1249 ವಸ್ತು ಸಂಸ್ಕೃತಿ ಗಣನೀಯವಾದ
-0.1249 ಸಂಸ್ಕೃತಿ ಗಣನೀಯವಾದ ಬದಲಾವಣೆಯನ್ನು
-0.1249 ಗಣನೀಯವಾದ ಬದಲಾವಣೆಯನ್ನು ಕಂಡಿತು
-0.1249 ಬದಲಾವಣೆಯನ್ನು ಕಂಡಿತು </s>
-1.2711 <s> ಈ ತೆರನಾದ
-0.1249 ಈ ತೆರನಾದ ಸಂಹಿತೆಗಳು
-0.1249 ತೆರನಾದ ಸಂಹಿತೆಗಳು ದಿನನಿತ್ಯದ
-0.1249 ಸಂಹಿತೆಗಳು ದಿನನಿತ್ಯದ ನ್ಯಾಯಪಾಲನೆಗಿಂತ
-0.1249 ದಿನನಿತ್ಯದ ನ್ಯಾಯಪಾಲನೆಗಿಂತ ಮಿಗಿಲಾಗಿ
-0.1249 ನ್ಯಾಯಪಾಲನೆಗಿಂತ ಮಿಗಿಲಾಗಿ ಒಂದು
-0.1249 ಮಿಗಿಲಾಗಿ ಒಂದು ಆದರ್ಶಪ್ರಾಯವಾದ
-0.1249 ಒಂದು ಆದರ್ಶಪ್ರಾಯವಾದ ಸಮಾಜದ
-0.1249 ಆದರ್ಶಪ್ರಾಯವಾದ ಸಮಾಜದ ಕೈಗನ್ನಡಿಯಂತಿವೆ
-0.1249 ಸಮಾಜದ ಕೈಗನ್ನಡಿಯಂತಿವೆ </s>
-0.1249 <s> ಹಮುರಾಬಿ ಶಾಸನದ
-0.1249 ಹಮುರಾಬಿ ಶಾಸನದ ಪ್ರತಿಗಳನ್ನು
-0.1249 ಶಾಸನದ ಪ್ರತಿಗಳನ್ನು ರಾಜ್ಯದ
-0.1249 ಪ್ರತಿಗಳನ್ನು ರಾಜ್ಯದ ಮುಖ್ಯ
-0.1249 ರಾಜ್ಯದ ಮುಖ್ಯ ನಗರಗಳಲ್ಲಿ
-0.1249 ಮುಖ್ಯ ನಗರಗಳಲ್ಲಿ ಇಡಲಾಗಿತ್ತು
-0.1249 ನಗರಗಳಲ್ಲಿ ಇಡಲಾಗಿತ್ತು </s>
-1.2711 <s> ಈ ಪ್ರದೇಶವು
-0.1249 ಈ ಪ್ರದೇಶವು ಉತ್ತರ
-0.1249 ಪ್ರದೇಶವು ಉತ್ತರ ಮತ್ತು
-0.1249 ಉತ್ತರ ಮತ್ತು ಪೂರ್ವದಲ್ಲಿ
-0.1249 ಮತ್ತು ಪೂರ್ವದಲ್ಲಿ ಬೆಟ್ಟಗಳಿಂದಲೂ
-0.1249 ಪೂರ್ವದಲ್ಲಿ ಬೆಟ್ಟಗಳಿಂದಲೂ ಮತ್ತು
-0.1249 ಬೆಟ್ಟಗಳಿಂದಲೂ ಮತ್ತು ದಕ್ಷಿಣ
-0.1249 ಮತ್ತು ದಕ್ಷಿಣ ಮತ್ತು
-0.1249 ದಕ್ಷಿಣ ಮತ್ತು ಪಶ್ಚಿಮಕ್ಕೆ
-0.1249 ಮತ್ತು ಪಶ್ಚಿಮಕ್ಕೆ ಮರಳುಗಾಡಿನಿಂದಲೂ
-0.1249 ಪಶ್ಚಿಮಕ್ಕೆ ಮರಳುಗಾಡಿನಿಂದಲೂ ಆವೃತ್ತವಾಗಿದೆ
-0.1249 ಮರಳುಗಾಡಿನಿಂದಲೂ ಆವೃತ್ತವಾಗಿದೆ </s>
-0.1249 <s> ತನ್ನ ಬುದ್ಧಿಗೆ
-0.1249 ತನ್ನ ಬುದ್ಧಿಗೆ ನಿಲುಕುವ
-0.1249 ಬುದ್ಧಿಗೆ ನಿಲುಕುವ ಸವಾಲುಗಳನ್ನು
-0.1249 ನಿಲುಕುವ ಸವಾಲುಗಳನ್ನು ಹಾಕಿ
-0.1249 ಅವನ್ನು ಬಿಡಿಸಿ ಆನಂದಪಟ್ಟಿದ್ದಾನೆ
-0.1249 ಬಿಡಿಸಿ ಆನಂದಪಟ್ಟಿದ್ದಾನೆ </s>
-0.1249 <s> ಅಕ್ಕಡ್ ಎನ್ನುವುದೇ
-0.1249 ಅಕ್ಕಡ್ ಎನ್ನುವುದೇ ಅದರ
-0.1249 ಎನ್ನುವುದೇ ಅದರ ರಾಜಧಾನಿಯೂ
-0.1249 ಅದರ ರಾಜಧಾನಿಯೂ ಆಗಿತ್ತು
-0.1249 ರಾಜಧಾನಿಯೂ ಆಗಿತ್ತು </s>
-0.1249 <s> ಹೊಸ ಬೆಬಿಲೋನಿಯಾ
-0.1249 ಹೊಸ ಬೆಬಿಲೋನಿಯಾ ಸಾಮ್ರಾಜ್ಯದ
-0.1249 ಬೆಬಿಲೋನಿಯಾ ಸಾಮ್ರಾಜ್ಯದ ಬೇರೆ
-0.1249 ಸಾಮ್ರಾಜ್ಯದ ಬೇರೆ ಭಾಗಗಳಲ್ಲಿ
-0.1249 ಬೇರೆ ಭಾಗಗಳಲ್ಲಿ ಇವನು
-0.1249 ಭಾಗಗಳಲ್ಲಿ ಇವನು ನಡೆಸಿದ
-0.1249 ಇವನು ನಡೆಸಿದ ಯುದ್ಧಗಳ
-0.1249 ನಡೆಸಿದ ಯುದ್ಧಗಳ ಬಗ್ಗೆ
-0.1249 ಯುದ್ಧಗಳ ಬಗ್ಗೆ ಹೆಚ್ಚಿನದೇನೂ
-0.1249 ಬಗ್ಗೆ ಹೆಚ್ಚಿನದೇನೂ ತಿಳಿದುಬಂದಿಲ್ಲ
-0.1249 ಹೆಚ್ಚಿನದೇನೂ ತಿಳಿದುಬಂದಿಲ್ಲ </s>
-0.4260 <s> ತಾತ್ಕಾಲಿಕ ಸರಕಾರದ
-0.4260 ತಾತ್ಕಾಲಿಕ ಸರಕಾರದ ಸೇನೆ
-0.1249 ಸರಕಾರದ ಸೇನೆ ಪೆಟ್ರೋಗ್ರಾಡ್ಗೆ
-0.1249 ಸೇನೆ ಪೆಟ್ರೋಗ್ರಾಡ್ಗೆ ಬರದಿರುವಂತೆ
-0.1249 ಪೆಟ್ರೋಗ್ರಾಡ್ಗೆ ಬರದಿರುವಂತೆ ತಡೆಯಲು
-0.1249 ಬರದಿರುವಂತೆ ತಡೆಯಲು ಕ್ರಾಂತಿಕಾರಿಗಳನ್ನು
-0.1249 ತಡೆಯಲು ಕ್ರಾಂತಿಕಾರಿಗಳನ್ನು ಸಜ್ಜುಗೊಳಿಸಿದರು
-0.1249 ಕ್ರಾಂತಿಕಾರಿಗಳನ್ನು ಸಜ್ಜುಗೊಳಿಸಿದರು </s>
-0.1249 <s> ಜೋರಿನ ಜೂರಿ
-0.1249 ಜೋರಿನ ಜೂರಿ ಇದ್ದಾಗಲೇ
-0.1249 ಜೂರಿ ಇದ್ದಾಗಲೇ ಜೋಕಾಲಿ
-0.1249 ಇದ್ದಾಗಲೇ ಜೋಕಾಲಿ ತೀವ್ರವಾಗಿ
-0.1249 ಜೋಕಾಲಿ ತೀವ್ರವಾಗಿ ಏರಬಲ್ಲದು
-0.9031 <s> ಆದರೆ ಚೆನ್ನಚೆರಿಬನ
-0.1249 ಆದರೆ ಚೆನ್ನಚೆರಿಬನ ಮಗನಾದ
-0.1249 ಚೆನ್ನಚೆರಿಬನ ಮಗನಾದ ಈಸರ್ಹದನ್
-0.1249 ಮಗನಾದ ಈಸರ್ಹದನ್ ಕ್ರಿ
-0.1249 ಈಸರ್ಹದನ್ ಕ್ರಿ </s>
-0.1249 <s> ರಕ್ಷಣಾ ವ್ಯವಸ್ಥೆಯ
-0.1249 ರಕ್ಷಣಾ ವ್ಯವಸ್ಥೆಯ ಅಂಗವಾಗಿ
-0.1249 ವ್ಯವಸ್ಥೆಯ ಅಂಗವಾಗಿ ನಿರ್ಮಿಸಲಾದ
-0.1249 ಅಂಗವಾಗಿ ನಿರ್ಮಿಸಲಾದ ಕೋಟೆಯ
-0.1249 ನಿರ್ಮಿಸಲಾದ ಕೋಟೆಯ ವ್ಯವಸ್ಥೆಯನ್ನು
-0.1249 ಕೋಟೆಯ ವ್ಯವಸ್ಥೆಯನ್ನು ನಗರವು
-0.1249 ವ್ಯವಸ್ಥೆಯನ್ನು ನಗರವು ಒಳಗೊಂಡಿತ್ತು
-0.1249 ನಗರವು ಒಳಗೊಂಡಿತ್ತು </s>
-0.1249 <s> ಪೆಟ್ರೋಗ್ರಾಡ್ನ ರಸ್ತೆಗಳಲ್ಲಿ
-0.1249 ಪೆಟ್ರೋಗ್ರಾಡ್ನ ರಸ್ತೆಗಳಲ್ಲಿ ಎರಡು
-0.1249 ರಸ್ತೆಗಳಲ್ಲಿ ಎರಡು ಜಗತ್ತುಗಳ
-0.1249 ಎರಡು ಜಗತ್ತುಗಳ ಬಂಡವಾಳಶಾಹಿ
-0.1249 ಜಗತ್ತುಗಳ ಬಂಡವಾಳಶಾಹಿ ಮತ್ತು
-0.1249 ಬಂಡವಾಳಶಾಹಿ ಮತ್ತು ಕಾರ್ಮಿಕ
-0.1249 ಮತ್ತು ಕಾರ್ಮಿಕ ವರ್ಗಗಳ
-0.1249 ಕಾರ್ಮಿಕ ವರ್ಗಗಳ ನಡುವೆ
-0.1249 ವರ್ಗಗಳ ನಡುವೆ ನೇರ
-0.1249 ನಡುವೆ ನೇರ ಸಂಘರ್ಷಗಳು
-0.1249 ನೇರ ಸಂಘರ್ಷಗಳು ಪ್ರಾರಂಭಗೊಂಡವು
-0.1249 ಸಂಘರ್ಷಗಳು ಪ್ರಾರಂಭಗೊಂಡವು </s>
-0.6021 ಉಬೈದ್ ಒ ಕಾಲದ
-0.1249 ಒ ಕಾಲದ ನಂತರ
-0.1249 ಕಾಲದ ನಂತರ ಉರುಕ್
-0.1249 ನಂತರ ಉರುಕ್ ಕಾಲವು
-0.1249 ಉರುಕ್ ಕಾಲವು ಆರಂಭವಾಯಿತೆಂಬುದು
-0.1249 ಕಾಲವು ಆರಂಭವಾಯಿತೆಂಬುದು ಸ್ಪಷ್ಟವಾಗಿ
-0.1249 ಆರಂಭವಾಯಿತೆಂಬುದು ಸ್ಪಷ್ಟವಾಗಿ ಇನ್ನೂ
-0.1249 ಸ್ಪಷ್ಟವಾಗಿ ಇನ್ನೂ ತೀರ್ಮಾನವಾಗದ
-0.1249 ಇನ್ನೂ ತೀರ್ಮಾನವಾಗದ ವಿಷಯವಾಗಿದೆ
-0.1249 ತೀರ್ಮಾನವಾಗದ ವಿಷಯವಾಗಿದೆ </s>

\end\
