\data\
ngram 1=278
ngram 2=501
ngram 3=507

\1-grams:
-2.8451 जीवन -0.9994
-2.8451 कतरनें -0.9994
-2.8451 उपयोग -0.9925
-2.8451 बड़ा -0.9994
-2.8451 फैक्ट्रियों -0.9938
-2.8451 लेवल -0.9981
-1.8451 में -0.9395
-2.1461 हम -0.9604
-2.8451 आदमी -0.9861
-2.8451 दो -0.9994
-2.8451 चलते -0.9919
-2.5441 जानकारी -0.9938
-2.3680 सौ -0.9919
-2.0000 नहीं -0.9829
-2.8451 चलती -0.9919
-2.8451 द्वारा -0.9988
-2.8451 अविष्कार -0.9956
-2.8451 प्रयोग -0.9994
-2.8451 वगैरह -0.9638
-2.5441 वर्ष -0.9975
-2.8451 फर -0.9861
-2.8451 चलाना -0.9994
-2.8451 इसका -0.9988
-2.8451 हल्की -0.9994
-2.8451 बल्कि -0.9988
-2.8451 हैरान -0.9994
-2.8451 भरपूर -0.9988
-2.8451 स्टूडेंट -0.9919
-2.8451 बोला -0.9975
-2.8451 किया -0.9994
-2.8451 ईसा -0.9950
-2.8451 पहली -0.9994
-2.3680 ये -0.9919
-2.3680 बहुत -0.9969
-2.5441 इस -0.9988
-2.8451 किये -0.9638
-2.3680 जाते -0.9848
-2.8451 वह -0.9994
-2.8451 कैसे -0.9994
-2.5441 सिर्फ -0.9963
-2.5441 यहाँ -0.9963
-2.5441 रेशम -0.9950
-2.5441 प्रोब्लेम्स -0.9919
-2.8451 जब -0.9893
-2.8451 यूनानी -0.9994
-2.8451 सोच -0.9981
-2.8451 कठिन -0.9988
-2.8451 माय -0.9981
-2.8451 गर्मी -0.9950
-2.8451 ऑप्शन -0.9950
-2.8451 अनजाने -0.9638
-2.8451 टेलीग्राफ -0.9994
-2.8451 लक्षण -0.9988
-2.8451 सबको -0.9988
-2.8451 इस्तेमाल -0.9925
-2.8451 करने -0.9994
-2.3680 अपने -0.9975
-2.8451 चिपके -0.9994
-2.8451 कूलर -0.9981
-2.8451 गंधक -0.9994
-2.8451 टुकड़ों -0.9956
-2.8451 अध्ययन -0.9981
-2.8451 जस्ट -0.9994
-2.8451 देखा -0.9938
-2.8451 अभी -0.9994
-2.8451 खींचने -0.9925
-2.5441 किसी -0.9956
-2.8451 मनोरंजन -0.9981
-2.8451 पूर्व -0.9969
-2.8451 जाता -0.9956
-2.8451 अगर -0.9969
-2.8451 नॉट -0.9994
-2.5441 पता -0.9925
-2.5441 इससे -0.9981
-1.0969 </s> -1.0000
-2.8451 लगाया -0.9956
-2.8451 होता -0.9981
-2.8451 जैसे -0.9938
-2.5441 इट -0.9975
-2.8451 पचास -0.9988
-2.8451 सही -0.9981
-2.3680 पे -0.9631
-2.8451 ज़रूरी -0.9975
-2.8451 बिना -0.9950
-2.8451 पोस्टग्रेजुएट -0.9994
-2.8451 ट्राम -0.9994
-2.8451 सस्ती -0.9931
-1.5027 के -0.9816
-2.8451 वाले -0.9919
-2.8451 रिलेटेड -0.9638
-2.8451 विविध -0.9988
-2.5441 उसने -0.9988
-2.8451 टॉपिक -0.9988
-2.8451 अलावा -0.9994
-2.8451 विलियम -0.9994
-2.8451 सील -0.9994
-2.2430 लिए -0.9848
-2.8451 ऐसी -0.9988
-2.5441 डायनामो -0.9618
-2.8451 पड़ता -0.9956
-2.8451 जितनी -0.9963
-2.8451 आविष्कार -0.9861
-2.8451 सोलह -0.9981
-2.0669 भी -0.9445
-2.8451 कुछ -0.9994
-2.3680 का -0.9975
-2.8451 सुखमय -0.9988
-2.8451 खोज -0.9950
-2.8451 थे -0.9638
-2.5441 होने -0.9855
-2.8451 लेकिन -0.9981
-2.8451 उठा -0.9994
-2.8451 बस -0.9981
-2.8451 ना -0.9638
-2.3680 रहा -0.9944
-2.8451 वस्तु -0.9956
-2.8451 द -0.9994
-2.8451 मोस्ट -0.9994
-2.5441 रगड़ने -0.9963
-2.8451 जेनरेटर -0.9861
-1.9420 ही -0.9515
-2.8451 ने -0.9988
-2.8451 ट्रेन -0.9931
-2.8451 पढ़ाई -0.9994
-2.8451 चलने -0.9994
-2.8451 प्राप्त -0.9994
-2.8451 नतीजा -0.9956
-2.5441 छोटे -0.9975
-1.8037 है -0.9536
-2.8451 रहते -0.9638
-2.8451 फॉर -0.9994
-1.8037 और -0.9823
-2.8451 चलायी -0.9988
-1.7312 हैं -0.9577
-2.8451 बाद -0.9950
-2.8451 हर -0.9994
-2.2430 आज -0.9938
-2.8451 करते -0.9994
-2.8451 उछल -0.9981
-2.8451 इस्त्री -0.9893
-2.8451 स्कूल -0.9938
-2.8451 टोस्टर -0.9893
-2.8451 यों -0.9950
-2.8451 वरन -0.9994
-2.5441 हमारे -0.9969
-2.8451 कॉलेज -0.9938
-2.8451 केवल -0.9994
-2.8451 होती -0.9931
-2.8451 मैं -0.9981
-2.8451 लाख -0.9938
-2.8451 घरों -0.9938
-2.8451 दार्शनिक -0.9994
-2.8451 रेडियो -0.9931
-2.8451 सकी -0.9638
-2.5441 शक्ति -0.9624
-2.2430 क्या -0.9925
-2.8451 व्यक्ति -0.9994
-2.5441 इसलिए -0.9893
-2.8451 चलता -0.9956
-2.5441 ऑफ़ -0.9988
-2.8451 अधिक -0.9994
-2.8451 तथा -0.9994
-2.8451 पक्षियों -0.9861
-2.1461 एक -0.9956
-2.8451 जिसको -0.9975
-2.8451 चूल्हे -0.9893
-1.7659 की -0.9549
-2.8451 फलालैन -0.9931
-2.8451 गयी -0.9994
-2.5441 उत्पादन -0.9981
-2.8451 निकला -0.9638
-2.8451 धोने -0.9925
-1.0969 <s> -0.9309
-2.5441 काम -0.9988
-2.8451 बड़े -0.9994
-2.8451 वन -0.9988
-2.8451 न -0.9994
-2.8451 हुआ -0.9638
-2.8451 भर -0.9861
-2.8451 जाने -0.9981
-2.8451 साधारण -0.9994
-2.8451 उससे -0.9994
-2.5441 कोई -0.9988
-2.5441 समय -0.9938
-2.8451 सेशन -0.9938
-2.8451 लाभ -0.9919
-2.8451 मीन -0.9988
-2.8451 इज -0.9994
-2.8451 बोल -0.9981
-2.8451 हूँ -0.9638
-2.8451 दैनिक -0.9994
-2.3680 या -0.9975
-2.8451 गिलबर्ट -0.9638
-2.8451 कितने -0.9975
-2.8451 सबसे -0.9994
-2.5441 आदि -0.9944
-2.3680 लोगों -0.9938
-2.8451 होगा -0.9638
-2.8451 उस्तरे -0.9988
-2.8451 मेरे -0.9994
-2.8451 वैज्ञानिक -0.9994
-2.5441 गलत -0.9981
-2.8451 मशीन -0.9931
-2.8451 वरदान -0.9931
-2.2430 तब -0.9944
-2.8451 छह -0.9981
-2.8451 लायी -0.9994
-2.8451 मशीनें -0.9994
-2.8451 अकौर्डिंग -0.9994
-2.8451 टेलीविज़न -0.9963
-2.8451 दि -0.9975
-2.8451 मात्रा -0.9938
-2.8451 चीज़ -0.9988
-2.3680 तो -0.9963
-1.8451 कि -0.9887
-2.5441 गया -0.9919
-2.8451 लग -0.9981
-2.8451 अन्य -0.9988
-2.8451 टॉपिक्स -0.9988
-2.8451 वाला -0.9931
-2.5441 हमारा -0.9981
-2.8451 पास -0.9994
-2.8451 एंड -0.9994
-2.0000 था -0.9638
-2.2430 स्टूडेंट्स -0.9466
-2.5441 विद्युत -0.9981
-2.8451 टुकड़े -0.9981
-2.5441 पदार्थों -0.9797
-2.5441 कागज़ -0.9861
-2.8451 चीजें -0.9963
-2.8451 देश -0.9861
-2.5441 बन -0.9981
-1.6146 बिजली -0.9611
-2.0669 पर -0.9584
-2.8451 ठोस -0.9994
-2.8451 आय -0.9994
-2.5441 आ -0.9981
-2.0000 को -0.9836
-2.8451 रह -0.9981
-2.8451 लोग -0.9638
-2.3680 तक -0.9861
-2.8451 पहुँच -0.9981
-1.9420 से -0.9549
-2.8451 रोशनी -0.9931
-2.3680 एम्बर -0.9758
-2.8451 आप -0.9975
-2.8451 इम्पोर्टेन्ट -0.9994
-2.8451 हो -0.9988
-2.8451 करोगे -0.9638
-2.5441 वो -0.9944
-2.8451 थोड़ी -0.9994
-2.8451 आसान -0.9931
-2.8451 मनबहलाव -0.9861
-2.8451 आगे -0.9988
-2.5441 जाती -0.9848
-2.8451 काँच -0.9931
-2.8451 टेलीफोन -0.9994
-2.3680 थी -0.9590
-2.8451 पॉइंट -0.9981
-2.3680 पहले -0.9931
-2.1461 साथ -0.9944
-2.8451 लेता -0.9956
-2.8451 विचित्र -0.9994
-2.8451 इतने -0.9994
-2.3680 ट्रैक -0.9590
-2.8451 प्रयोगों -0.9988
-2.8451 अनेक -0.9994
-2.3680 कपड़े -0.9777
-2.8451 प्रॉब्लम -0.9981
-2.5441 जो -0.9912
-2.8451 इसी -0.9861
-2.8451 करना -0.9638
-2.8451 लगाने -0.9925
-2.3680 लाइफ -0.9501
-2.5441 टच -0.9981
-2.8451 घंटी -0.9638
-2.3680 कर -0.9956
-2.8451 महंगा -0.9963

\2-grams:
-0.0458 जेनरेटर के -0.9819
-0.0458 यों ही -0.9482
-0.9488 से लोगों -0.8451
-0.0458 अभी आप 0.0000
-0.0458 सबसे ज़रूरी 0.0000
-0.0458 ना </s> -1.0000
-1.7939 <s> जाने 0.0000
-0.3468 काम कैसे 0.0000
-0.6478 क्या करोगे 0.0000
-0.0458 मोस्ट इम्पोर्टेन्ट 0.0000
-0.0458 वस्तु को -0.9402
-0.0458 वैज्ञानिक लोग 0.0000
-1.7939 <s> छोटे -0.7404
-0.0458 सस्ती और -0.9629
-0.5229 सौ में -0.9138
-0.0458 कतरनें पक्षियों 0.0000
-0.0458 होगा </s> -1.0000
-0.0458 गंधक काँच 0.0000
-0.7447 एक सौ -0.8451
-0.7447 हम स्टूडेंट 0.0000
-0.3468 ऑफ़ माय 0.0000
-0.0458 फर के -0.9224
-0.3468 जो कि -0.9590
-0.3468 जो आज -0.8893
-0.0458 पास लायी 0.0000
-0.2218 जाते हैं -0.5763
-1.7939 <s> तब -0.8893
-1.4929 <s> यहाँ 0.0000
-0.0458 उठा लेता 0.0000
-0.0458 टॉपिक्स ऑफ़ -0.7404
-0.0458 हर हल्की 0.0000
-1.0458 कि अगर 0.0000
-0.3468 गया है -0.6307
-0.5229 रहा हूँ 0.0000
-0.0458 पढ़ाई करना 0.0000
-0.3468 स्टूडेंट्स की -0.9294
-0.5229 का अध्ययन 0.0000
-0.8239 पर </s> -1.0000
-0.0458 सुखमय बन -0.7404
-0.9488 से छह 0.0000
-1.4929 <s> और -0.9224
-0.3468 इससे कोई -0.7404
-1.7939 <s> थोड़ी 0.0000
-1.7939 <s> उछल 0.0000
-0.0458 छह सौ -0.8451
-0.0458 करना </s> -1.0000
-0.0458 घंटी </s> -1.0000
-0.3468 ऑफ़ द 0.0000
-0.0458 मात्रा में -0.9590
-0.0458 टेलीविज़न भी -0.9294
-0.5229 रहा था 0.0000
-0.5229 सौ वर्ष -0.7404
-1.7939 <s> घरों 0.0000
-0.6478 आज हम -0.9138
-0.3468 इस खोज 0.0000
-1.3882 के उस्तरे 0.0000
-0.0458 सही ट्रैक -0.8451
-0.1707 क्या है -0.8777
-0.3468 टच होने -0.7404
-0.9752 बिजली का -0.6021
-0.0458 आविष्कार के -0.9819
-0.0458 महंगा भी -0.9294
-0.7447 एक बड़ा 0.0000
-0.0458 वरन इसी 0.0000
-0.0458 वाला है -0.6307
-0.0458 स्टूडेंट हैं -0.5763
-0.0458 फॉर दि 0.0000
-1.7939 <s> पढ़ाई 0.0000
-0.5229 थी </s> -1.0000
-0.8909 नहीं है -0.9629
-0.0458 अकौर्डिंग जितनी 0.0000
-0.0458 किया करते 0.0000
-1.3882 के टोस्टर 0.0000
-0.3468 पदार्थों में -0.9590
-0.0458 खींचने की -0.9661
-0.0458 सोच कर -0.8451
-0.0458 अन्य पदार्थों -0.7404
-0.8909 को खींचने 0.0000
-0.3468 उसने देखा 0.0000
-0.5229 एम्बर में -0.9138
-1.7939 <s> वो -0.7404
-0.8239 भी </s> -1.0000
-0.3468 जानकारी तो -0.8451
-0.0458 टोस्टर बिजली -0.7989
-0.0458 आय मीन 0.0000
-0.5229 लोगों का -0.8451
-0.7447 साथ बड़े 0.0000
-0.0458 लेता था 0.0000
-0.0458 कितने स्टूडेंट्स -0.8893
-0.3468 पदार्थों के -0.9224
-0.3468 कोई ठोस 0.0000
-0.0458 वगैरह </s> -1.0000
-1.0872 और सुखमय 0.0000
-0.3468 गया गलत 0.0000
-0.0458 मशीनें चलायी 0.0000
-0.0458 कैसे चलता 0.0000
-1.3882 के कूलर 0.0000
-0.0458 आगे इससे -0.7404
-0.5229 रहा होगा 0.0000
-0.5229 लाइफ से -0.9482
-0.8909 नहीं हुआ 0.0000
-0.9488 ही ट्रेन 0.0000
-0.0458 मनोरंजन तो -0.8451
-0.0458 चीजें भी -0.9294
-1.7939 <s> दो 0.0000
-0.0458 इतने अधिक 0.0000
-0.0458 करने वाले 0.0000
-1.3882 के पर -0.9294
-0.5229 पहले लोगों -0.6021
-1.7939 <s> वह 0.0000
-0.0458 लग जाते -0.6021
-0.0458 अनेक चीजें 0.0000
-0.5229 ट्रैक </s> -1.0000
-0.2421 है </s> -1.0000
-0.9488 ही थी -0.8451
-0.2218 पे </s> -1.0000
-1.7939 <s> सोलह 0.0000
-0.3468 आ जाता 0.0000
-1.1597 हैं स्टूडेंट्स -0.7404
-0.0458 साधारण आदमी 0.0000
-0.9488 ही चलते 0.0000
-0.0458 वाले हैं -0.5763
-0.0458 लक्षण आ -0.7404
-0.0458 जब बिजली -0.9764
-1.1249 की लाख 0.0000
-0.3468 विद्युत शक्ति -0.7404
-0.5229 अपने प्रयोगों 0.0000
-0.0458 ने पता -0.7404
-1.3882 के इतने 0.0000
-0.7447 एक व्यक्ति 0.0000
-0.5229 कर हैरान 0.0000
-0.0458 कागज़ के -0.9629
-0.0458 चलाना पड़ता 0.0000
-0.0458 तथा फैक्ट्रियों 0.0000
-1.1249 की मशीन 0.0000
-1.7939 <s> बल्कि 0.0000
-0.0458 न केवल 0.0000
-0.8239 भी बिजली -0.9514
-0.6478 स्टूडेंट्स </s> -1.0000
-1.0458 कि गंधक 0.0000
-1.7939 <s> वरन 0.0000
-1.0872 है ना 0.0000
-0.6478 आज टॉपिक 0.0000
-0.0458 उपयोग की -0.9661
-0.3468 हमारा जीवन 0.0000
-0.7447 साथ महंगा 0.0000
-0.0458 वह पास 0.0000
-0.3468 वो हम -0.9138
-0.6478 लिए बिजली -0.9514
-0.0458 बाद ही -0.9482
-1.1597 हैं कॉलेज 0.0000
-0.0458 थोड़ी मात्रा 0.0000
-0.0458 जस्ट फॉर 0.0000
-0.0458 आदमी के -0.9819
-1.3882 के बाद 0.0000
-0.0458 मैं अपने -0.8451
-0.4311 बिजली के -0.8535
-0.8239 भी देश 0.0000
-1.0458 में नहीं -0.9402
-1.0872 और फर 0.0000
-0.0458 पक्षियों के -0.9819
-1.7939 <s> लेकिन 0.0000
-1.7939 <s> पहली 0.0000
-0.0458 रहते </s> -1.0000
-0.5229 कपड़े के -0.9224
-0.0458 ऑप्शन ही -0.9482
-1.7939 <s> हमारा -0.7404
-0.0458 फलालैन और -0.9629
-0.0458 कूलर कपड़े -0.8451
-0.0458 अविष्कार को -0.9402
-0.9488 ही प्राप्त 0.0000
-1.7939 <s> इट -0.7404
-1.7939 <s> ये -0.8451
-0.0458 प्राप्त होती 0.0000
-1.2762 बिजली को -0.9402
-0.0458 जीवन आसान 0.0000
-0.0458 प्रॉब्लम ये -0.8451
-0.3468 पता है -0.6307
-0.0458 गर्मी ही -0.9482
-0.3468 रेशम फलालैन 0.0000
-1.7939 <s> कागज़ 0.0000
-0.6478 तब तक -0.8451
-0.9488 <s> बिजली -0.4130
-0.0458 पहली प्रॉब्लम 0.0000
-0.0458 इसी के -0.9819
-0.0458 हैरान रह 0.0000
-0.8239 भी चलती 0.0000
-0.0458 चलता था 0.0000
-0.0458 था </s> -1.0000
-0.5229 एम्बर के -0.9819
-0.0458 होती है -0.6307
-1.3882 के इस्तेमाल 0.0000
-0.0458 उस्तरे आदि -0.7404
-0.0458 रेडियो और -0.9629
-1.7939 <s> किसी -0.7404
-0.0458 अनजाने </s> -1.0000
-1.7939 <s> रेशम -0.7404
-0.0458 दार्शनिक ने 0.0000
-0.0458 पहुँच जाते -0.8451
-0.3468 इट इज 0.0000
-0.0458 टेलीग्राफ टेलीफोन 0.0000
-0.9488 ही अपने -0.8451
-1.0872 और बिजली -0.7989
-1.1249 की </s> -1.0000
-0.0458 चिपके रहते 0.0000
-1.0872 है इस -0.7404
-0.5229 का मनोरंजन 0.0000
-0.0458 कठिन होने -0.7404
-0.0458 पचास वर्ष -0.7404
-0.3468 वर्ष पूर्व 0.0000
-0.0458 हुआ </s> -1.0000
-0.0458 इज वन 0.0000
-0.5229 तक आज -0.8893
-0.8239 भी प्रोब्लेम्स 0.0000
-0.9488 ही काम -0.7404
-0.3468 पता लगाया 0.0000
-1.0458 कि जब 0.0000
-0.8239 की लाइफ -0.6021
-0.0458 प्रोब्लेम्स हैं -0.9353
-1.7939 <s> इसलिए -0.7404
-0.0458 प्रयोगों आदि -0.7404
-1.0458 में भी -0.9294
-0.3468 काम चलाना 0.0000
-0.0458 सोलह सौ -0.8451
-0.0458 लोग </s> -1.0000
-0.5229 तक आगे 0.0000
-1.3882 के आविष्कार 0.0000
-0.8239 पर वगैरह 0.0000
-0.5229 कर रहा -0.8451
-0.3468 किसी सेशन 0.0000
-0.0458 बड़ा वरदान 0.0000
-0.0458 मशीन और -0.9629
-0.3468 होने वाला 0.0000
-0.0458 गिलबर्ट </s> -1.0000
-0.3468 हमारे लिए -0.8893
-0.0458 चलायी जाती -0.7404
-0.0458 लगाने की -0.9661
-0.7447 कि तब -0.7404
-0.5898 नहीं थी -0.6021
-0.5229 ये हो 0.0000
-1.0872 है वो -0.7404
-0.8909 को बहुत -0.6021
-0.5229 कपड़े की -0.9661
-1.1249 की शक्ति -0.7404
-0.0458 लेकिन बहुत -0.6021
-0.7447 हम टच -0.7404
-0.9488 से रिलेटेड 0.0000
-0.5229 का उत्पादन -0.7404
-0.0458 अधिक लाभ 0.0000
-0.0458 चूल्हे बिजली -0.9249
-0.0458 काँच और -0.9629
-0.0458 अध्ययन कर -0.8451
-0.0458 टुकड़ों को -0.9402
-0.5229 तो पहले -0.6021
-0.3468 इसलिए कि -0.9138
-0.5229 या अनजाने 0.0000
-0.5229 ये है -0.6307
-0.0458 बोला आज -0.8893
-0.0458 नतीजा नहीं -0.9402
-0.3468 शक्ति आ -0.7404
-0.3468 कोई ऑप्शन 0.0000
-0.6478 लिए किया 0.0000
-0.5229 कपड़े धोने 0.0000
-0.0458 उससे चिपके 0.0000
-0.0458 किये </s> -1.0000
-0.0458 दो ऐसी 0.0000
-0.0458 ट्रेन और -0.9629
-0.0458 रगड़ने पर -0.8451
-0.0458 बल्कि इसलिए -0.7404
-0.3468 हमारा काम -0.7404
-0.0458 जितनी भी -0.9294
-0.0458 रोशनी और -0.9629
-0.0458 पॉइंट पे -0.6021
-0.2218 बहुत समय 0.0000
-0.6478 तब इसका 0.0000
-1.7939 <s> स्टूडेंट्स -0.7404
-0.0458 जाता था 0.0000
-1.0458 कि रेशम -0.7404
-0.0458 यूनानी दार्शनिक 0.0000
-0.7861 के साथ -0.4472
-0.3468 समय तक -0.8451
-0.3468 वो क्या -0.5119
-0.6478 लिए सबसे 0.0000
-1.0872 और कोई -0.7404
-0.0458 चलती हैं -0.5763
-1.7939 <s> इस -0.7404
-1.7939 <s> सस्ती 0.0000
-1.3882 के टुकड़ों 0.0000
-1.7939 <s> ईसा 0.0000
-0.3468 उत्पादन कठिन 0.0000
-0.0458 गलत ट्रैक -0.6021
-1.4929 <s> डायनामो 0.0000
-0.0458 फैक्ट्रियों में -0.9590
-0.0458 सेशन में -0.9590
-0.2218 लोगों को -0.8709
-0.0458 सबको पता -0.7404
-0.0458 टुकड़े कपड़े -0.8451
-1.7939 <s> सही 0.0000
-0.0458 केवल रोशनी 0.0000
-0.0458 यहाँ पर -0.8451
-0.0458 चलते हैं -0.5763
-0.3468 डायनामो या -0.8451
-0.6478 स्टूडेंट्स हैं -0.5763
-0.5229 लाइफ की -0.9661
-1.1249 की घंटी 0.0000
-0.3468 इट ये -0.8451
-0.5229 कर एम्बर -0.8451
-0.0458 जैसे कि -0.9590
-1.0872 है कि -0.9590
-0.0458 हल्की वस्तु 0.0000
-0.3468 उत्पादन सिर्फ -0.7404
-0.3468 छोटे छोटे -0.7404
-0.0458 ऐसी प्रोब्लेम्स 0.0000
-0.3468 जाती है -0.6307
-0.5229 तो हमारे -0.7404
-1.0458 में मशीनें 0.0000
-0.3468 किसी भी -0.9294
-0.0458 रिलेटेड </s> -1.0000
-0.6478 आज बोल 0.0000
-1.7939 <s> जो -0.7404
-0.0458 हूँ </s> -1.0000
-0.7447 हम सबको 0.0000
-0.4717 से ही -0.8212
-0.0458 पड़ता था 0.0000
-1.7939 <s> नॉट 0.0000
-0.6478 तब लोगों -0.6021
-1.7939 <s> तो -0.8451
-0.0458 बड़े प्रयोग 0.0000
-0.6478 आज तक -0.8451
-0.0458 करोगे </s> -1.0000
-0.0458 रह जाते -0.6021
-0.7447 में हैं -0.9353
-0.3468 बन गया -0.7404
-1.3882 के अलावा 0.0000
-0.5229 लाइफ </s> -1.0000
-0.0458 कॉलेज में -0.9138
-0.9111 के लिए -0.5119
-1.0458 में </s> -1.0000
-0.8909 को इस्त्री 0.0000
-1.7939 <s> यों 0.0000
-0.3468 आ जाती -0.7404
-0.0458 धोने की -0.9661
-1.1919 <s> कि -0.8062
-0.0458 वन ऑफ़ -0.7404
-0.3468 विद्युत जेनरेटर 0.0000
-0.0458 मेरे अकौर्डिंग 0.0000
-1.0872 और भरपूर 0.0000
-0.0458 उछल कर -0.8451
-0.0458 इसका उत्पादन -0.7404
-0.0458 नॉट जस्ट 0.0000
-0.0458 बिना ही -0.9482
-0.3468 इससे न 0.0000
-1.7939 <s> जैसे 0.0000
-0.3468 हमारे दैनिक 0.0000
-1.2762 बिजली नहीं -0.8709
-0.6478 से </s> -1.0000
-0.0458 इस्त्री बिजली -0.7989
-0.3468 जानकारी नहीं -0.8709
-0.0458 सकी </s> -1.0000
-0.3468 सिर्फ वैज्ञानिक 0.0000
-0.5229 अपने मनबहलाव 0.0000
-0.7447 साथ साथ -0.9138
-0.0458 इम्पोर्टेन्ट टॉपिक्स 0.0000
-0.0458 भर के -0.9431
-0.0458 मनबहलाव के -0.9431
-0.0458 चलने लग 0.0000
-1.1597 हैं जिसको 0.0000
-0.0458 अलावा कुछ 0.0000
-0.6478 तब हमारा -0.7404
-1.0872 और गर्मी 0.0000
-0.0458 ठोस नतीजा 0.0000
-0.0458 माय लाइफ -0.8451
-0.7447 हम </s> -1.0000
-0.5229 ये मैं 0.0000
-0.5229 पे चलने 0.0000
-0.5229 अपने किसी -0.7404
-0.0458 व्यक्ति विलियम 0.0000
-0.0458 देश के -0.9431
-0.3468 इसलिए नहीं -0.9402
-0.0458 ईसा से -0.9482
-0.8909 नहीं बोला 0.0000
-0.8239 पर कितने 0.0000
-1.7939 <s> गलत 0.0000
-0.2218 पहले से -0.6410
-0.0458 लाख में -0.9590
-0.3468 रेशम को -0.9402
-0.3468 आदि भर 0.0000
-0.0458 प्रयोग किये 0.0000
-0.3468 डायनामो </s> -1.0000
-0.0458 गयी हर 0.0000
-1.7939 <s> सिर्फ -0.7404
-0.5229 जाते और -0.9629
-0.3468 समय नहीं -0.9402
-0.8239 पर एम्बर -0.8451
-0.5229 या पोस्टग्रेजुएट 0.0000
-1.0872 और मेरे 0.0000
-0.5898 को बिजली -0.6726
-0.3468 आदि से -0.8893
-0.0458 जिसको आज -0.8893
-1.1597 हैं या -0.8451
-1.0872 और सील 0.0000
-0.0458 विविध पदार्थों -0.7404
-0.2055 हैं </s> -1.0000
-0.0458 लगाया था 0.0000
-0.0458 लायी गयी 0.0000
-0.3468 होने के -0.9224
-0.7447 एक यूनानी 0.0000
-0.3468 टच करने 0.0000
-0.5229 ट्रैक क्या -0.5119
-0.0458 चीज़ बन -0.7404
-0.7447 एक विचित्र 0.0000
-0.7447 हम सोच 0.0000
-0.9752 बिजली से -0.8212
-1.0458 में बस 0.0000
-0.5229 तक बिजली -0.9514
-0.0458 होता रहा -0.8451
-0.0458 द मोस्ट 0.0000
-1.7939 <s> अभी 0.0000
-0.0458 पोस्टग्रेजुएट लेवल 0.0000
-0.0458 आप क्या -0.8893
-1.1249 की चीज़ 0.0000
-1.0872 और टेलीविज़न 0.0000
-0.0458 टेलीफोन रेडियो 0.0000
-0.0458 वरदान है -0.6307
-0.0458 हो गया -0.7404
-0.0458 विचित्र लक्षण 0.0000
-0.8909 को उठा 0.0000
-0.8909 को कपड़े -0.8451
-0.0458 कुछ अन्य 0.0000
-0.5229 थी तब -0.8893
-0.5229 बहुत पहले -0.6021
-0.0458 आसान और -0.9629
-0.7447 कि हम -0.8062
-1.1249 की अनेक 0.0000
-0.0458 घरों में -0.9590
-1.0872 और उससे 0.0000
-0.6478 लिए एक -0.9138
-1.7939 <s> टेलीग्राफ 0.0000
-0.0458 देखा कि -0.9590
-0.0458 करते थे 0.0000
-0.0458 मीन इट -0.7404
-1.3882 के बिना 0.0000
-0.8909 नहीं निकला 0.0000
-1.3882 के टुकड़े 0.0000
-0.0458 द्वारा हमारे -0.7404
-0.0458 लेवल पे -0.6021
-0.0458 भरपूर विद्युत -0.7404
-0.8909 नहीं कि -0.9138
-0.0458 दैनिक उपयोग 0.0000
-1.2762 बिजली साधारण 0.0000
-1.0458 में इससे -0.7404
-1.1249 की कतरनें 0.0000
-0.0458 एंड आय 0.0000
-0.5229 या विद्युत -0.7404
-0.8239 पर पहुँच 0.0000
-0.3468 शक्ति </s> -1.0000
-0.0458 अगर हम -0.9138
-0.0458 इस्तेमाल की -0.9661
-0.0458 बस अपने -0.8451
-0.8239 की जानकारी 0.0000
-1.3882 के अविष्कार 0.0000
-0.0458 दि स्टूडेंट्स -0.8893
-0.0458 टॉपिक टच -0.7404
-1.7939 <s> एंड 0.0000
-0.0458 निकला </s> -1.0000
-0.9488 ही </s> -1.0000
-1.4929 <s> उसने 0.0000
-0.3468 उसने विविध 0.0000
-0.0458 थे </s> -1.0000
-0.0458 विलियम गिलबर्ट 0.0000
-0.4437 साथ रगड़ने 0.0000
-0.0458 बोल रहा -0.8451
-0.8239 भी था 0.0000
-0.5229 थी बहुत -0.8451
-0.0458 पूर्व एक -0.9138
-0.3468 इस पॉइंट 0.0000
-0.5229 तो होता 0.0000
-0.3468 बन सकी 0.0000
-0.0458 लाभ हैं -0.5763
-0.5229 एम्बर पर -0.9294
-1.0458 कि स्कूल 0.0000
-0.3468 जाती हैं -0.5763
-0.9488 ही नहीं -0.9402
-0.0458 खोज से -0.9482
-1.0872 और ट्राम 0.0000
-0.3468 सिर्फ एक -0.9138
-0.0458 ट्राम तथा 0.0000
-0.7447 में एक -0.8062
-0.7991 बिजली की -0.8893
-0.0458 ज़रूरी क्या -0.5119
-0.3468 छोटे कागज़ 0.0000
-1.0458 कि एम्बर -0.8451
-1.3882 के द्वारा 0.0000
-1.3882 के चूल्हे 0.0000
-0.8239 पर जो -0.7404
-0.5229 ट्रैक पे -0.8451
-0.0458 सील लगाने 0.0000
-0.0458 जाने या -0.8451
-0.0458 स्कूल में -0.9138
-0.3468 वर्ष पहले -0.8451
-0.5229 सौ पचास 0.0000

\3-grams:
-0.0458 भी बिजली से
-0.0458 जाते हैं </s>
-0.3468 में एक व्यक्ति
-0.3468 कागज़ के टुकड़े
-0.0458 अविष्कार को बहुत
-0.0458 <s> किसी भी
-0.0458 लोगों को बिजली
-0.3468 यहाँ पर कितने
-0.0458 वस्तु को उठा
-0.0458 सौ पचास वर्ष
-0.0458 न केवल रोशनी
-0.0458 धोने की मशीन
-0.0458 आज टॉपिक टच
-0.3468 की जानकारी नहीं
-0.0458 मोस्ट इम्पोर्टेन्ट टॉपिक्स
-0.0458 काम कैसे चलता
-0.5229 के लिए एक
-0.0458 कि जब बिजली
-0.0458 की शक्ति आ
-0.0458 हल्की वस्तु को
-0.0458 हमारे लिए सबसे
-0.0458 वरन इसी के
-0.3468 बहुत समय नहीं
-0.0458 बन गया है
-0.0458 तब हमारा काम
-0.0458 रहा था </s>
-0.0458 तक आगे इससे
-0.0458 स्टूडेंट्स की लाइफ
-0.5229 क्या है इस
-0.0458 केवल रोशनी और
-0.0458 इससे न केवल
-0.3468 गलत ट्रैक पे
-0.0458 चीजें भी चलती
-0.0458 छोटे छोटे कागज़
-0.3468 <s> और मेरे
-0.0458 डायनामो या विद्युत
-0.0458 पढ़ाई करना </s>
-0.5229 से ही चलते
-0.6478 के साथ बड़े
-0.0458 लक्षण आ जाता
-0.8909 <s> बिजली की
-0.0458 बोल रहा हूँ
-0.0458 इट ये मैं
-0.0458 कर एम्बर पर
-0.0458 देखा कि एम्बर
-0.0458 सबको पता है
-0.0458 व्यक्ति विलियम गिलबर्ट
-0.0458 <s> इसलिए नहीं
-0.0458 बिजली नहीं थी
-0.5229 क्या है कि
-0.0458 हम टच करने
-0.3468 कागज़ के टुकड़ों
-0.0458 <s> स्टूडेंट्स की
-0.0458 पहले लोगों को
-0.0458 के आविष्कार के
-0.0458 <s> हमारा जीवन
-0.0458 के कूलर कपड़े
-0.0458 वर्ष पहले लोगों
-0.0458 <s> सस्ती और
-0.0458 भी प्रोब्लेम्स हैं
-0.0458 की चीज़ बन
-0.0458 होने के साथ
-0.4137 <s> बिजली के
-0.0458 लोगों का मनोरंजन
-0.0458 गयी हर हल्की
-0.0458 ट्रेन और ट्राम
-0.0458 किया करते थे
-0.0458 होने वाला है
-0.0458 से छह सौ
-0.0458 नहीं कि तब
-0.0458 <s> जाने या
-0.0458 लाइफ से रिलेटेड
-0.0458 वन ऑफ़ द
-0.0458 कि रेशम को
-0.0458 <s> बल्कि इसलिए
-0.0458 काम चलाना पड़ता
-0.6478 के साथ साथ
-0.0458 देश के लिए
-0.0458 जेनरेटर के आविष्कार
-0.0458 जानकारी तो पहले
-0.0458 पदार्थों में भी
-0.0458 चलते हैं </s>
-0.0458 आज हम टच
-0.0458 को खींचने की
-0.0458 टच करने वाले
-0.0458 कितने स्टूडेंट्स हैं
-0.0458 वरदान है </s>
-0.3468 नहीं थी तब
-0.0458 कठिन होने के
-0.0458 के द्वारा हमारे
-0.0458 कि स्कूल में
-0.0458 के पर वगैरह
-0.0458 आदि से </s>
-0.0458 मशीनें चलायी जाती
-0.0458 थी बहुत पहले
-0.0458 रेशम फलालैन और
-0.0458 स्कूल में हैं
-0.0458 <s> थोड़ी मात्रा
-0.0458 पर पहुँच जाते
-0.0458 <s> वरन इसी
-0.0458 बस अपने प्रयोगों
-0.0458 है वो हम
-0.0458 पहुँच जाते और
-0.3468 कि हम </s>
-0.0458 वह पास लायी
-0.0458 इट इज वन
-0.0458 और मेरे अकौर्डिंग
-0.0458 या विद्युत जेनरेटर
-0.0458 और सुखमय बन
-0.3468 गलत ट्रैक </s>
-0.0458 बिजली से ही
-0.8909 <s> बिजली साधारण
-0.5229 के लिए बिजली
-0.0458 तब लोगों को
-0.0458 जो कि स्कूल
-0.0458 टुकड़ों को खींचने
-0.0458 आय मीन इट
-0.0458 कपड़े धोने की
-0.0458 एक विचित्र लक्षण
-0.0458 उसने देखा कि
-0.0458 करते थे </s>
-0.0458 घरों में इससे
-0.0458 पता है </s>
-0.0458 अधिक लाभ हैं
-0.0458 कोई ऑप्शन ही
-0.3468 बिजली का अध्ययन
-0.0458 जाता था </s>
-0.0458 वो हम सबको
-0.3468 <s> डायनामो या
-0.5229 क्या है वो
-0.3468 में हैं कॉलेज
-0.0458 इस खोज से
-0.0458 ऑफ़ माय लाइफ
-0.0458 मनबहलाव के लिए
-0.0458 पड़ता था </s>
-0.0458 होता रहा होगा
-0.0458 बिना ही काम
-0.0458 ऑफ़ द मोस्ट
-0.0458 एक सौ पचास
-0.0458 लिए सबसे ज़रूरी
-0.0458 एक व्यक्ति विलियम
-0.3468 की लाइफ की
-0.3468 बहुत समय तक
-0.0458 ईसा से छह
-0.0458 भर के लिए
-0.0458 द मोस्ट इम्पोर्टेन्ट
-0.0458 अलावा कुछ अन्य
-0.0458 तो होता रहा
-0.0458 <s> जैसे कि
-0.0458 टोस्टर बिजली के
-0.0458 दो ऐसी प्रोब्लेम्स
-0.0458 <s> एंड आय
-0.0458 मेरे अकौर्डिंग जितनी
-0.0458 यूनानी दार्शनिक ने
-0.0458 का अध्ययन कर
-0.0458 और ट्राम तथा
-0.0458 मात्रा में बस
-0.0458 फर के साथ
-0.0458 या पोस्टग्रेजुएट लेवल
-0.0458 में मशीनें चलायी
-0.0458 का मनोरंजन तो
-0.0458 उससे चिपके रहते
-0.0458 के अलावा कुछ
-0.0458 पास लायी गयी
-0.0458 <s> पढ़ाई करना
-0.0458 गंधक काँच और
-0.0458 नहीं बोला आज
-0.0458 के अविष्कार को
-0.0458 <s> गलत ट्रैक
-0.0458 क्या करोगे </s>
-0.0458 उत्पादन सिर्फ वैज्ञानिक
-0.0458 की लाख में
-0.0458 गर्मी ही प्राप्त
-0.0458 <s> उछल कर
-0.0458 ही चलते हैं
-0.0458 रहा होगा </s>
-0.0458 विद्युत शक्ति </s>
-0.0458 बड़े प्रयोग किये
-0.0458 <s> दो ऐसी
-0.0458 है कि अगर
-0.0458 पोस्टग्रेजुएट लेवल पे
-0.0458 कपड़े के साथ
-0.0458 चलने लग जाते
-0.0458 और उससे चिपके
-0.0458 <s> टेलीग्राफ टेलीफोन
-0.8909 बिजली के बिना
-0.0458 काँच और सील
-0.0458 <s> तब इसका
-0.0458 को उठा लेता
-0.0458 में भी </s>
-0.0458 माय लाइफ </s>
-0.0458 <s> कागज़ के
-0.0458 अभी आप क्या
-0.0458 सेशन में नहीं
-0.0458 ठोस नतीजा नहीं
-0.0458 पर वगैरह </s>
-0.0458 एम्बर के अलावा
-0.0458 साथ बड़े प्रयोग
-0.0458 सोच कर हैरान
-0.0458 आ जाती है
-0.0458 हैं जिसको आज
-0.0458 सोलह सौ में
-0.0458 चलती हैं </s>
-0.0458 के बिना ही
-0.0458 सौ में एक
-0.0458 अकौर्डिंग जितनी भी
-0.0458 के टुकड़े कपड़े
-0.0458 हर हल्की वस्तु
-0.0458 आज बोल रहा
-0.0458 साथ साथ महंगा
-0.0458 <s> वह पास
-0.0458 यों ही अपने
-0.0458 दि स्टूडेंट्स </s>
-0.0458 स्टूडेंट हैं </s>
-0.0458 भी देश के
-0.0458 अपने मनबहलाव के
-0.0458 की कतरनें पक्षियों
-0.0458 कैसे चलता था
-0.5229 से ही ट्रेन
-0.0458 से रिलेटेड </s>
-0.0458 इससे कोई ठोस
-0.3468 रगड़ने पर एम्बर
-0.0458 रह जाते हैं
-0.0458 टेलीविज़न भी बिजली
-0.0458 जिसको आज हम
-0.8909 बिजली के चूल्हे
-0.0458 अगर हम स्टूडेंट
-0.0458 जैसे कि गंधक
-0.0458 गया है </s>
-0.0458 तब इसका उत्पादन
-0.0458 महंगा भी था
-0.0458 <s> सोलह सौ
-0.6478 <s> कि रेशम
-0.0458 खींचने की शक्ति
-0.0458 के चूल्हे बिजली
-0.0458 साधारण आदमी के
-0.0458 और गर्मी ही
-0.0458 पक्षियों के पर
-0.3468 पहले से ही
-0.3468 <s> उसने विविध
-0.0458 आदमी के इस्तेमाल
-0.0458 लाख में </s>
-0.3468 में हैं या
-0.0458 वैज्ञानिक लोग </s>
-0.0458 सही ट्रैक क्या
-0.0458 जाती हैं </s>
-0.0458 बिजली को इस्त्री
-0.0458 विविध पदार्थों के
-0.0458 बहुत पहले से
-0.0458 उपयोग की अनेक
-0.0458 और कोई ऑप्शन
-0.0458 इसी के द्वारा
-0.0458 द्वारा हमारे दैनिक
-0.0458 आविष्कार के बाद
-0.3468 को बिजली की
-0.0458 मीन इट ये
-0.0458 पॉइंट पे </s>
-0.0458 टुकड़े कपड़े की
-0.0458 चलता था </s>
-0.3468 कि तब तक
-0.0458 उठा लेता था
-0.0458 बल्कि इसलिए कि
-0.0458 मनोरंजन तो होता
-0.0458 टॉपिक्स ऑफ़ माय
-0.0458 के बाद ही
-0.0458 पे चलने लग
-0.0458 पर जो आज
-0.0458 वर्ष पूर्व एक
-0.0458 रहा हूँ </s>
-0.0458 विद्युत जेनरेटर के
-0.0458 कूलर कपड़े धोने
-0.0458 <s> जो कि
-0.0458 आगे इससे कोई
-0.0458 पता लगाया था
-0.0458 और बिजली के
-0.0458 कतरनें पक्षियों के
-0.3468 के साथ रगड़ने
-0.0458 इसलिए कि तब
-0.0458 एम्बर में एक
-0.0458 में इससे न
-0.0458 के इतने अधिक
-0.0458 वाले हैं </s>
-0.8909 बिजली के उस्तरे
-0.0458 मशीन और बिजली
-0.0458 नहीं है ना
-0.0458 खोज से लोगों
-0.0458 वो क्या है
-0.0458 <s> नॉट जस्ट
-0.0458 तक बिजली का
-0.0458 या अनजाने </s>
-0.0458 आप क्या करोगे
-0.0458 ही अपने मनबहलाव
-0.0458 विचित्र लक्षण आ
-0.0458 तब तक बिजली
-0.0458 मैं अपने किसी
-0.0458 के इस्तेमाल की
-0.3468 कि हम सोच
-0.0458 सस्ती और भरपूर
-0.0458 <s> लेकिन बहुत
-0.0458 टेलीग्राफ टेलीफोन रेडियो
-0.3468 यहाँ पर जो
-0.0458 स्टूडेंट्स हैं </s>
-0.0458 रेशम को कपड़े
-0.0458 कोई ठोस नतीजा
-0.0458 हो गया गलत
-0.0458 टॉपिक टच होने
-0.0458 एक बड़ा वरदान
-0.0458 के उस्तरे आदि
-0.0458 प्रयोग किये </s>
-0.5229 के लिए किया
-0.0458 अनेक चीजें भी
-0.8909 <s> बिजली से
-0.0458 के टुकड़ों को
-0.0458 इज वन ऑफ़
-0.0458 कि एम्बर के
-0.3468 <s> उसने देखा
-0.3468 की लाइफ से
-0.0458 को इस्त्री बिजली
-0.0458 जस्ट फॉर दि
-0.0458 अन्य पदार्थों में
-0.0458 बोला आज तक
-0.0458 थोड़ी मात्रा में
-0.0458 लगाने की लाख
-0.0458 उस्तरे आदि से
-0.0458 प्रयोगों आदि भर
-0.0458 छोटे कागज़ के
-0.0458 आसान और सुखमय
-0.0458 होती है </s>
-0.0458 ही ट्रेन और
-0.0458 फलालैन और फर
-0.8909 बिजली के अविष्कार
-0.0458 कर रहा था
-0.0458 है इस पॉइंट
-0.0458 नतीजा नहीं निकला
-0.0458 कर हैरान रह
-0.0458 लगाया था </s>
-0.0458 और फर के
-0.0458 प्राप्त होती है
-0.0458 अपने प्रयोगों आदि
-0.0458 ये मैं अपने
-0.0458 कुछ अन्य पदार्थों
-0.0458 <s> सही ट्रैक
-0.3468 <s> डायनामो </s>
-0.0458 लेकिन बहुत समय
-0.0458 ही काम चलाना
-0.0458 सुखमय बन गया
-0.0458 और टेलीविज़न भी
-0.0458 की अनेक चीजें
-0.0458 <s> यहाँ पर
-0.0458 हमारा काम कैसे
-0.0458 लेवल पे </s>
-0.0458 ये हो गया
-0.0458 पचास वर्ष पहले
-0.0458 ट्राम तथा फैक्ट्रियों
-0.0458 उछल कर एम्बर
-0.0458 लायी गयी हर
-0.0458 सिर्फ वैज्ञानिक लोग
-0.0458 ऑप्शन ही नहीं
-0.0458 साथ रगड़ने पर
-0.0458 किसी सेशन में
-0.0458 तो हमारे लिए
-0.0458 ऐसी प्रोब्लेम्स हैं
-0.0458 करने वाले हैं
-0.0458 <s> रेशम फलालैन
-0.0458 वाला है </s>
-0.0458 हम सोच कर
-0.0458 कपड़े की कतरनें
-0.0458 लाभ हैं </s>
-0.8909 <s> बिजली को
-0.0458 <s> यों ही
-0.0458 जितनी भी प्रोब्लेम्स
-0.8909 बिजली के इतने
-0.0458 पहली प्रॉब्लम ये
-0.0458 जाते और उससे
-0.0458 को बहुत समय
-0.0458 इसका उत्पादन सिर्फ
-0.0458 चलायी जाती हैं
-0.0458 शक्ति आ जाती
-0.0458 <s> इस खोज
-0.0458 हैं कॉलेज में
-0.0458 दैनिक उपयोग की
-0.0458 लाइफ की </s>
-0.0458 जानकारी नहीं थी
-0.0458 बन सकी </s>
-0.8909 बिजली के कूलर
-0.5229 से ही थी
-0.0458 रोशनी और गर्मी
-0.0458 की मशीन और
-0.0458 ही थी बहुत
-0.3468 <s> कि हम
-0.0458 भी चलती हैं
-0.0458 <s> ये हो
-0.3468 की जानकारी तो
-0.0458 के टोस्टर बिजली
-0.0458 टच होने वाला
-0.0458 सौ वर्ष पूर्व
-0.0458 ज़रूरी क्या है
-0.0458 इस्तेमाल की चीज़
-0.0458 की घंटी </s>
-0.0458 चिपके रहते </s>
-0.0458 इम्पोर्टेन्ट टॉपिक्स ऑफ़
-0.0458 उसने विविध पदार्थों
-0.0458 आ जाता था
-0.0458 प्रॉब्लम ये है
-0.0458 हमारा जीवन आसान
-0.0458 अध्ययन कर रहा
-0.0458 इस्त्री बिजली के
-0.0458 लिए एक बड़ा
-0.0458 <s> ईसा से
-0.0458 हैरान रह जाते
-0.0458 <s> पहली प्रॉब्लम
-0.0458 हम स्टूडेंट हैं
-0.0458 चीज़ बन सकी
-0.0458 विलियम गिलबर्ट </s>
-0.0458 उत्पादन कठिन होने
-0.0458 <s> इट इज
-0.3468 रगड़ने पर </s>
-0.0458 जाने या अनजाने
-0.0458 का उत्पादन कठिन
-0.0458 जीवन आसान और
-0.0458 ट्रैक पे चलने
-0.0458 <s> घरों में
-0.0458 कि गंधक काँच
-0.0458 हैं या पोस्टग्रेजुएट
-0.0458 चूल्हे बिजली की
-0.0458 भी था </s>
-0.0458 लिए किया करते
-0.0458 समय तक आगे
-0.0458 एक यूनानी दार्शनिक
-0.3468 को बिजली के
-0.0458 है ना </s>
-0.0458 और सील लगाने
-0.0458 किसी भी देश
-0.2218 बिजली की जानकारी
-0.0458 कॉलेज में हैं
-0.0458 ये है </s>
-0.0458 नहीं निकला </s>
-0.0458 जाती है </s>
-0.0458 समय नहीं हुआ
-0.0458 दार्शनिक ने पता
-0.5229 बिजली की घंटी
-0.0458 <s> छोटे छोटे
-0.0458 जब बिजली नहीं
-0.0458 हैं स्टूडेंट्स की
-0.0458 रेडियो और टेलीविज़न
-0.0458 नॉट जस्ट फॉर
-0.3468 में एक विचित्र
-0.0458 तक आज बोल
-0.0458 ट्रैक क्या है
-0.0458 ही नहीं है
-0.0458 अपने किसी सेशन
-0.0458 और भरपूर विद्युत
-0.0458 बिजली साधारण आदमी
-0.0458 लेता था </s>
-0.0458 जो आज टॉपिक
-0.0458 फॉर दि स्टूडेंट्स
-0.0458 पर कितने स्टूडेंट्स
-0.0458 इतने अधिक लाभ
-0.0458 थी तब हमारा
-0.0458 <s> वो क्या
-0.0458 इसलिए नहीं कि
-0.0458 टेलीफोन रेडियो और
-0.0458 फैक्ट्रियों में मशीनें
-0.0458 सिर्फ एक सौ
-0.0458 आदि भर के
-0.0458 <s> सिर्फ एक
-0.0458 तो पहले से
-0.0458 पदार्थों के साथ
-0.6478 <s> कि जब
-0.0458 में नहीं बोला
-0.0458 में बस अपने
-0.0458 कि अगर हम
-0.0458 बाद ही </s>
-0.0458 भरपूर विद्युत शक्ति
-0.0458 <s> तो हमारे
-0.3468 बिजली का उत्पादन
-0.0458 <s> अभी आप
-0.0458 पर एम्बर में
-0.0458 से लोगों का
-0.3468 कि तब लोगों
-0.8909 बिजली के टोस्टर
-0.0458 हम सबको पता
-0.3468 प्रोब्लेम्स हैं स्टूडेंट्स
-0.0458 साथ महंगा भी
-0.3468 प्रोब्लेम्स हैं जिसको
-0.3468 पहले से </s>
-0.0458 ने पता लगाया
-0.0458 नहीं हुआ </s>
-0.0458 बड़ा वरदान है
-0.0458 सील लगाने की
-0.3468 <s> और कोई
-0.3468 नहीं थी </s>
-0.0458 लग जाते हैं
-0.0458 चलाना पड़ता था
-0.0458 हमारे दैनिक उपयोग
-0.0458 एम्बर पर पहुँच
-0.0458 आज तक आज
-0.0458 सबसे ज़रूरी क्या
-0.0458 इस पॉइंट पे
-0.0458 को कपड़े के
-0.0458 गया गलत ट्रैक
-0.0458 एंड आय मीन
-0.0458 छह सौ वर्ष
-0.0458 तथा फैक्ट्रियों में
-0.0458 ही प्राप्त होती
-0.0458 पूर्व एक यूनानी
-0.0458 लिए बिजली का

\end\
