\data\
ngram 1=819
ngram 2=1483
ngram 3=1510

\1-grams:
-1.9648 हैं -0.5788
-3.3627 सिंगापुर -0.5939
-3.3627 रह -0.6009
-3.3627 कल्पना -0.6017
-3.3627 निर्देशों -0.5981
-3.3627 बारिश -0.5969
-3.3627 खडा -0.6015
-3.3627 मन्नत -0.6019
-3.3627 अतीत -0.5971
-3.3627 वाहक -0.5908
-3.3627 बढ -0.6009
-3.3627 लाइफ -0.6019
-3.3627 बल्कि -0.6019
-3.3627 मानक -0.6019
-3.0617 होने -0.5979
-3.3627 अमेरिकी -0.6019
-2.6638 थे -0.5826
-3.3627 गरम -0.6013
-3.3627 पहुंच -0.6015
-3.3627 यकीन -0.6019
-3.3627 आम -0.5908
-3.3627 विकट -0.6019
-3.3627 अँधेरे -0.5939
-3.0617 यही -0.5988
-3.3627 चेहरों -0.5939
-3.3627 चिकित्सा -0.6011
-3.3627 सत्यों -0.5971
-3.3627 हमेशा -0.6019
-2.8856 पता -0.5985
-3.0617 हूँ -0.5975
-1.6385 है -0.5641
-3.3627 कपडों -0.5971
-3.3627 करा -0.6019
-3.3627 लगभग -0.6019
-3.3627 घटाने -0.5908
-3.3627 वाला -0.6019
-3.3627 मन्त्र -0.5971
-3.3627 अमन -0.6017
-2.8856 प्रकार -0.5906
-3.3627 चाय -0.6019
-3.3627 चित्त -0.6019
-3.3627 प्रत्यक्ष -0.5996
-3.3627 औरउदासीन -0.6015
-3.3627 आओगे -0.5994
-3.3627 विद्यालय -0.5971
-3.3627 इंतजाम -0.5994
-3.3627 मुल्क -0.5939
-3.0617 मे -0.6017
-3.3627 दौरान -0.6009
-3.3627 रोगों -0.5908
-3.3627 दर्ज -0.5994
-3.3627 लकडा -0.6017
-3.3627 अनायास -0.6006
-3.3627 काट -0.5998
-3.3627 महिला -0.6019
-3.0617 तब -0.6011
-3.3627 मगर -0.6006
-3.3627 उपयोगी -0.5920
-3.3627 हरभजन -0.5971
-3.3627 शेर -0.5994
-3.3627 अवकाश -0.5990
-3.3627 चाहि -0.6019
-3.3627 ऑफिस -0.6017
-3.3627 राजनीतिज्ञ -0.5971
-3.3627 गेंद -0.5981
-3.3627 आकर्षित -0.5998
-2.8856 उसके -0.6015
-3.3627 कराह -0.6009
-3.3627 गति -0.5939
-3.3627 मीडिया -0.5971
-3.3627 वजह -0.5920
-3.3627 हरिऔध -0.5908
-2.8856 उन्हें -0.6015
-3.3627 वजन -0.5981
-3.0617 उतर -0.6011
-3.3627 भूरा -0.6017
-3.3627 गुणे -0.6019
-2.5846 साथ -0.5983
-3.3627 थीं -0.5828
-3.3627 उद्योग -0.6019
-3.3627 पैन -0.5939
-3.3627 सप्ताहांत -0.5939
-3.3627 सिक् -0.6019
-3.3627 जुडे -0.6019
-3.3627 डाल -0.6019
-3.3627 ब्लॉगर -0.6017
-3.3627 दोनों -0.6017
-3.3627 ए -0.5828
-3.3627 कामरान -0.5969
-3.3627 बराक -0.6019
-3.3627 होती -0.5920
-3.3627 ढूँढते -0.5973
-3.3627 शिक्षक -0.6019
-3.3627 स्टाइल -0.5971
-3.0617 दिखाया -0.5918
-3.3627 मोर्चे -0.5981
-3.3627 चाबी -0.6019
-3.0617 सबके -0.5998
-2.6638 मैं -0.5979
-3.3627 अंग्रेजी -0.6019
-3.3627 ऑफलाइन -0.6019
-3.3627 नरेश -0.5979
-2.8856 करते -0.5973
-3.3627 रूकवाट -0.6017
-2.8856 सभी -0.5964
-3.3627 कैबिनेट -0.5939
-3.3627 क्योंकि -0.6011
-3.3627 सटीक -0.6019
-2.6638 होते -0.5863
-3.3627 उसमें -0.6017
-3.0617 पास -0.5887
-2.8856 पाया -0.5988
-3.3627 प्राप्त -0.6019
-3.0617 लेते -0.5964
-3.3627 बोली -0.5979
-3.3627 मजबूर -0.5994
-3.3627 उच्च -0.6017
-2.0203 का -0.5716
-3.3627 गाने -0.5994
-3.3627 सदस्य -0.6019
-3.3627 प्रदर्शित -0.6019
-3.3627 औरमुझे -0.6011
-3.3627 सहारनपुर -0.6019
-3.3627 रात -0.6019
-3.0617 आतंकवाद -0.5855
-3.3627 अवस्था -0.5939
-3.3627 संतान -0.6017
-3.3627 भगत -0.6019
-3.3627 चॉप -0.6013
-2.7607 ले -0.6006
-3.3627 ऐश -0.5990
-3.0617 ट्यूमर -0.6011
-3.3627 मांगी -0.5828
-3.3627 देख -0.5828
-2.8856 कैसे -0.6011
-3.3627 ताजे -0.6019
-3.3627 रखना -0.6013
-3.3627 शब्द -0.5939
-3.3627 यदि -0.6019
-3.3627 विलासिता -0.5908
-3.3627 मरीजों -0.5939
-3.3627 गीत -0.6019
-3.3627 उससे -0.6017
-2.8856 थी -0.5810
-3.3627 दहेज -0.6019
-1.9478 की -0.5881
-3.3627 शुरू -0.5971
-3.3627 नृत्य -0.6017
-3.3627 देखना -0.6019
-3.3627 धर्म -0.5908
-3.3627 तक -0.6019
-3.0617 गई -0.5918
-3.3627 असन्तोष -0.5908
-3.3627 बेचा -0.6013
-3.3627 जरूरी -0.5973
-3.3627 पहना -0.6009
-3.3627 मर -0.6017
-3.3627 टिप -0.6019
-3.3627 खरीद -0.6017
-3.3627 नेता -0.6015
-3.3627 सारी -0.6019
-3.3627 पोजीशन -0.6013
-2.3627 कि -0.5994
-3.3627 पढकर -0.6019
-3.3627 पश्चिमी -0.6019
-3.3627 करती -0.5920
-3.3627 ज्ञान -0.5908
-3.3627 पढ -0.6019
-3.3627 आपके -0.6019
-3.3627 समेटता -0.6015
-3.3627 जून -0.5908
-3.3627 माओवादी -0.6017
-1.9478 को -0.5956
-3.3627 बंदूको -0.5908
-3.3627 भाली -0.6019
-3.3627 घटना -0.5971
-3.3627 इशारे -0.5969
-2.8856 दो -0.6013
-3.3627 जनता -0.6017
-3.3627 नहाना -0.6019
-3.3627 भविष्य -0.5996
-2.3213 ही -0.5966
-3.3627 सामंजस्य -0.5994
-2.7607 देता -0.5920
-3.3627 प्रिय -0.6019
-3.0617 इतनी -0.6017
-2.7607 भगवान -0.5956
-3.3627 देना -0.6019
-3.3627 क्या -0.6015
-2.2836 ने -0.5950
-3.3627 सत्ता -0.5971
-3.3627 अपना -0.6019
-3.3627 साधु -0.6019
-3.0617 बैठा -0.5968
-3.3627 कैसी -0.6015
-3.3627 अन्दर -0.6017
-3.3627 तस्वीरों -0.5981
-3.3627 मान -0.6013
-3.3627 सामने -0.6011
-3.3627 सलाहकार -0.5908
-3.3627 उसी -0.6019
-3.3627 थोडे -0.6011
-3.3627 झेल -0.6015
-2.8856 हुआ -0.5784
-3.3627 नौटियाल -0.6019
-1.3627 </s> -0.6021
-3.3627 शांति -0.6019
-3.3627 कोमिलाकर -0.6015
-3.3627 कौशलजौहर -0.5828
-3.3627 स्थानीय -0.6019
-2.8856 इसके -0.6011
-2.7607 फिर -0.5968
-3.3627 इसका -0.6019
-3.3627 जांच -0.5939
-3.3627 आनेके -0.6017
-3.3627 राजा -0.6019
-3.0617 दूसरे -0.5966
-3.3627 भोली -0.6019
-3.3627 बने -0.5828
-3.3627 कहकर -0.6006
-3.3627 निस्तारण -0.6017
-3.0617 प् -0.6017
-3.3627 हेलीकॉप्टर -0.5971
-2.8856 ये -0.6015
-3.3627 दिनों -0.5939
-3.3627 मनाया -0.6015
-3.3627 मुकदमे -0.6019
-3.3627 जानेवाली -0.6017
-3.3627 बीमार -0.6017
-2.7607 अपनी -0.6011
-3.0617 शादी -0.5948
-3.3627 व्यक्ति -0.6000
-3.3627 बखूबी -0.6019
-3.0617 विकास -0.5945
-3.3627 लगाने -0.5979
-3.3627 स्काइप -0.5908
-3.3627 मलाला -0.5908
-3.0617 वाले -0.6009
-3.3627 अथाह -0.6019
-3.3627 समाज -0.5971
-3.3627 शॉट -0.5908
-3.3627 प्रवास -0.5971
-3.0617 सुविधा -0.6011
-3.3627 पडेगा -0.5828
-3.3627 सबसे -0.6019
-3.3627 विवाद -0.5939
-3.3627 पत्र -0.6019
-3.3627 हमें -0.6019
-3.3627 अकेला -0.6019
-3.0617 अलावा -0.6004
-2.7607 उस -0.5908
-2.5176 तो -0.5962
-3.3627 प्रणाली -0.6019
-2.7607 गया -0.5722
-3.0617 उपवास -0.5966
-3.3627 दर्शक -0.6019
-3.3627 भैया -0.6015
-3.3627 मना -0.5998
-2.8856 होता -0.5920
-3.3627 खानापूर्ति -0.6019
-3.3627 धन्य -0.5994
-3.3627 देखते -0.6013
-3.3627 तीसरे -0.6019
-3.3627 धोनी -0.5971
-2.8856 लेता -0.5916
-2.6638 ऐसे -0.5985
-2.7607 करें -0.5773
-3.3627 थोडा -0.6011
-3.3627 घोटाला -0.6011
-3.3627 जाने -0.5981
-3.3627 संक्रमण -0.6019
-3.3627 सार्वजनिक -0.6019
-3.3627 द्वारा -0.6015
-2.8856 पहले -0.5969
-2.7607 रूप -0.5881
-3.3627 हम -0.6015
-3.3627 अत्याचार -0.6019
-3.3627 बनवासमें -0.6019
-3.0617 ग्रेड -0.5908
-3.0617 मंत्री -0.5996
-3.3627 चोट -0.6019
-3.3627 दुविधाग्रस्त -0.6009
-3.3627 परिणाम -0.6019
-3.3627 खडी -0.6019
-3.3627 बनाते -0.5973
-3.3627 स्वस्थ -0.6019
-2.6638 वे -0.5988
-3.3627 ब्लॉग -0.6019
-3.0617 काम -0.5977
-3.3627 चाहते -0.5973
-2.7607 रहे -0.5776
-3.3627 लफ्ज -0.5939
-2.4596 इस -0.6002
-3.3627 किताबों -0.5979
-3.3627 दिया -0.5828
-3.3627 साइकिल -0.6013
-3.3627 कुर्सी -0.5971
-3.3627 ईमेल -0.5908
-3.3627 दरअसल -0.6015
-3.3627 फूल -0.6019
-3.0617 घर -0.5973
-3.3627 बाधा -0.6017
-3.3627 बाजार -0.5908
-3.0617 स्थान -0.5889
-3.3627 बच्चे -0.6006
-3.3627 पत्थर -0.6019
-3.3627 विधायक -0.6019
-3.3627 पूछ्ताछ -0.5971
-3.3627 तीर्थस्थल -0.5990
-3.3627 हमले -0.5908
-3.0617 व -0.6017
-3.3627 पौधे -0.6019
-3.3627 ज्यादातर -0.6015
-3.3627 नाना -0.6015
-3.3627 पत्नी -0.5971
-3.3627 मछली -0.5908
-3.3627 ढंग -0.5971
-3.3627 टिकप -0.6019
-3.3627 सुभाषचन्द्र -0.6019
-3.3627 बनो -0.5828
-3.3627 अभिभाषक -0.6015
-2.6638 करने -0.5854
-3.0617 पेश -0.5990
-3.3627 वरिष्ठ -0.6019
-3.3627 जवान -0.6019
-3.3627 मरने -0.6017
-3.3627 जादुई -0.6019
-3.3627 बैठे -0.6013
-3.3627 पूर्व -0.6019
-3.3627 जोतनेवाले -0.5971
-3.3627 छाल -0.5971
-3.0617 मदद -0.5988
-3.3627 पहला -0.6019
-2.7607 गये -0.5912
-3.3627 मजार -0.6019
-3.3627 पोथियाँ -0.6019
-3.3627 क्षेत्र -0.5971
-3.3627 फेसबुक -0.5971
-3.3627 जबर्दस्ती -0.6017
-3.3627 डे -0.6019
-3.3627 सहूलियत -0.5981
-3.3627 मैने -0.6015
-3.3627 माधुर्य -0.5920
-3.3627 बरसती -0.5920
-3.3627 कारगर -0.6019
-3.3627 नयी -0.6017
-3.3627 सूखे -0.6019
-3.3627 रहते -0.5973
-3.3627 वहीं -0.6019
-3.3627 धन्धों -0.5979
-3.3627 व्यवहारिकता -0.5939
-2.7607 उन्होंने -0.6007
-3.3627 बनाना -0.6017
-3.3627 दे -0.5998
-3.0617 लेकर -0.6011
-3.3627 प्लास्टिकों -0.5979
-3.3627 भयंकर -0.6019
-3.3627 भीतर -0.6017
-3.3627 दें -0.6007
-3.3627 गैरजरूरी -0.6019
-3.3627 तकनीकी -0.6019
-3.3627 लेकिन -0.5996
-3.3627 विरोध -0.5969
-3.3627 प्रभावित -0.5994
-3.3627 शत्रु -0.6019
-3.3627 तोड -0.6019
-3.3627 भ्रष्टाचार -0.5908
-3.3627 देखिए -0.6019
-3.3627 रकम -0.5828
-3.0617 उत्पन्न -0.6011
-3.3627 संभव -0.5920
-3.3627 पाने -0.5971
-3.3627 कैच -0.6019
-3.3627 पकड -0.5990
-3.3627 तुलना -0.5939
-3.3627 दलितों -0.5981
-3.3627 खास -0.6015
-3.3627 आकर्षण -0.5969
-3.3627 नही -0.6015
-3.3627 उमर -0.5971
-2.4596 वह -0.5968
-3.3627 विचित्र -0.6019
-3.3627 बांध -0.5971
-3.0617 लिया -0.5920
-3.3627 मैट -0.5998
-3.3627 दिलाया -0.5828
-3.3627 राहुल -0.6019
-3.3627 उगीझाडियों -0.6017
-3.3627 तरह -0.6015
-3.3627 बजाज -0.6011
-3.3627 विदेश -0.6017
-3.3627 पति -0.5971
-3.3627 पहली -0.6017
-2.7607 कम -0.5987
-3.3627 व्यवसाय -0.6019
-3.3627 लगातार -0.5969
-3.3627 देखा -0.5920
-3.3627 होनेके -0.6002
-3.3627 विधवाएँपुनः -0.6017
-3.3627 पारिवारिक -0.6019
-3.3627 खडका -0.6000
-3.3627 नजराना -0.6017
-3.3627 सिर -0.5908
-3.3627 देने -0.5908
-3.3627 चीज -0.6019
-3.0617 इसलिए -0.6013
-3.3627 चुनावों -0.5939
-3.3627 अकमल -0.6019
-3.3627 असंतुलित -0.6017
-3.3627 पाए -0.6013
-3.0617 रजनीकांत -0.5969
-3.3627 तेजी -0.5971
-3.0617 जाकर -0.6011
-3.3627 सहयोग -0.5971
-3.3627 देखकर -0.6019
-3.0617 अनुभूति -0.5988
-3.3627 चुकी -0.5920
-2.4596 अपने -0.5987
-3.3627 जिस -0.5981
-3.3627 तरीके -0.5828
-3.3627 सुमन -0.6019
-3.3627 प्रकाशित -0.6011
-3.3627 राम -0.5998
-3.3627 लगा -0.6002
-3.0617 अब -0.6009
-3.3627 अंजाम -0.6019
-3.3627 बौघ -0.6019
-3.3627 प्रदूषण -0.5969
-3.3627 फैशन -0.5969
-2.7607 जो -0.5998
-3.0617 आए -0.5971
-3.3627 करेंगे -0.5828
-3.3627 आशावान -0.5920
-3.0617 माना -0.6006
-3.3627 बिकना -0.6019
-3.3627 उन्हीं -0.5979
-3.3627 फेरबदल -0.5971
-3.3627 सिसौदिया -0.6019
-3.3627 वालों -0.5971
-3.3627 कल्पनाओं -0.5939
-3.3627 नियंत्रण -0.6007
-3.3627 अशक्त -0.5969
-3.3627 घायल -0.6019
-2.6638 बाद -0.5898
-3.3627 बजाय -0.6019
-3.3627 हेलमेट -0.5994
-3.3627 मौके -0.5981
-3.0617 कह -0.6006
-3.3627 सुविसाख -0.5998
-3.3627 अनशन -0.6019
-3.3627 चलते -0.5973
-3.3627 मार -0.6019
-3.3627 गुणों -0.5908
-3.3627 संश्लिष्ट -0.6019
-3.3627 किशोर -0.5939
-2.7607 जा -0.5987
-3.3627 आसान -0.5920
-3.3627 वीराने -0.5939
-3.3627 शामिल -0.6013
-3.3627 ली -0.6015
-3.3627 दादा -0.5908
-3.3627 जवाब -0.5939
-3.3627 मेवे -0.6019
-3.3627 उम्र -0.6019
-3.3627 सेक्स -0.5908
-3.3627 तस्करों -0.5971
-3.3627 सीमा -0.5920
-3.3627 आयोजन -0.5939
-3.3627 हवाई -0.6019
-2.8856 आप -0.5925
-3.3627 प्रथाविवाह -0.6019
-3.0617 या -0.5988
-3.3627 अच्छी -0.6019
-3.3627 स्थापित -0.5990
-3.3627 सिद्दीकी -0.5998
-3.3627 देखने -0.5971
-3.3627 राजधानी -0.5939
-3.3627 अफसाना -0.6017
-3.3627 अभी -0.5994
-2.8856 उनके -0.6007
-3.3627 अयोध्यासिंह -0.6019
-3.0617 प्यार -0.5952
-3.3627 ﻿लडाई -0.5908
-2.8856 यह -0.6011
-3.0617 वक्त -0.5906
-2.8856 कहा -0.5952
-3.0617 हुई -0.5916
-2.3627 लिए -0.5977
-3.3627 पालन -0.5971
-3.3627 भाव -0.5971
-3.3627 भावार्थ -0.6019
-3.3627 खाने -0.5971
-3.3627 करे -0.6013
-3.3627 बोला -0.5828
-2.6638 बहुत -0.6011
-3.3627 लड -0.6009
-3.3627 शौकिया -0.6019
-3.3627 सवाल -0.5908
-2.2166 हो -0.5763
-3.3627 अलग -0.6019
-3.3627 देहरादून -0.5971
-3.3627 जुलूस -0.5979
-3.3627 रुद्रदमन -0.5908
-3.3627 मंत्रमुग्ध -0.5994
-3.3627 समझदार -0.6017
-3.3627 दुनिया -0.6019
-3.3627 रोमाभों -0.5971
-3.3627 करना -0.6019
-3.0617 उन -0.6011
-3.3627 हमारे -0.6019
-3.3627 हिन्दू -0.6019
-3.3627 दिए -0.6015
-3.3627 गुच्छ -0.6017
-2.6638 सकता -0.5920
-3.3627 गरीबी -0.5908
-3.3627 नौसेना -0.5998
-3.3627 काशी -0.6017
-3.3627 वहां -0.5908
-3.3627 साबित -0.6017
-2.6638 ना -0.5954
-3.3627 सजावटी -0.6019
-3.3627 भाषाओं -0.5908
-3.3627 खिलाफ -0.6017
-2.8856 दिन -0.6002
-3.3627 गर्मी -0.6019
-3.3627 अवमानना -0.5908
-3.0617 मैंने -0.6011
-3.3627 महाकाव्य -0.6017
-3.3627 सिंधिया -0.6017
-3.0617 याज -0.5971
-3.3627 सामर्थ्य -0.6019
-3.0617 वो -0.6017
-3.3627 चाहिये -0.6019
-3.3627 दामाद -0.5971
-3.3627 अगर -0.6011
-3.3627 आवश्यक -0.5920
-3.3627 फिल्म -0.5939
-3.0617 न -0.5983
-3.3627 जैसे -0.6019
-2.5846 कुछ -0.5979
-3.3627 एवंमानसिक -0.6019
-3.0617 सौ -0.6017
-3.0617 लोक -0.5931
-3.3627 बडा -0.6019
-3.3627 कला -0.6019
-2.5846 रहा -0.5894
-3.3627 किम -0.5939
-3.3627 बेटी -0.5969
-3.3627 व्यवहार -0.6019
-3.3627 सीधे -0.6017
-3.3627 विवेक -0.5979
-2.5846 था -0.5826
-3.3627 मूल -0.5939
-3.3627 रख -0.6013
-3.3627 बनाए -0.6011
-3.3627 गश्त -0.5998
-2.8856 किसी -0.6011
-3.3627 होकर -0.6019
-3.3627 गाते -0.6019
-2.1586 नहीं -0.5637
-3.0617 अनेक -0.6017
-3.3627 दूर -0.6006
-3.3627 पेड -0.6019
-3.3627 जगह -0.6015
-3.3627 कृपा -0.6019
-3.3627 बर्फानी -0.6019
-3.3627 प्राचार्य -0.6015
-3.3627 जाएंगे -0.5828
-1.9478 से -0.5855
-3.3627 बेचारा -0.6013
-3.3627 फंसी -0.5920
-3.3627 पण्डित -0.5990
-3.3627 कांग्रेस -0.5908
-3.3627 आपसी -0.6019
-3.3627 सुपरबग -0.5908
-3.3627 मजाक -0.5908
-3.3627 इंग्लैंड -0.5939
-2.7607 किया -0.5757
-3.3627 कारणों -0.5939
-3.3627 पहचानते -0.5973
-3.3627 भारत -0.5939
-3.3627 क्रिया -0.5979
-3.3627 भाईचारे -0.5971
-3.3627 कर्ज -0.5994
-3.0617 बचाव -0.5908
-3.3627 तासीर -0.5920
-3.3627 मिलते -0.5973
-3.3627 रेस्तरां -0.5971
-3.3627 आलू -0.5969
-3.0617 समय -0.5969
-3.3627 मित्र -0.6019
-2.4596 कोई -0.6000
-3.3627 जरिए -0.5994
-3.3627 प्रक्षेपास्त्र -0.6019
-3.0617 ओर -0.6011
-3.0617 यहां -0.6011
-2.8856 करके -0.5987
-3.3627 अस्पतालों -0.5939
-3.3627 लडकियों -0.5971
-3.3627 अतिरिक्त -0.5969
-3.3627 वाणी -0.6017
-3.3627 पहनते -0.5828
-3.3627 लगाओ -0.6013
-3.3627 समुदायों -0.5908
-3.3627 उपाध्याय -0.6019
-3.3627 जारी -0.6019
-3.3627 मेहनत -0.6015
-2.8856 उनकी -0.6013
-3.3627 मुँह -0.5908
-1.3627 <s> -0.5539
-3.3627 इत्ती -0.6019
-3.0617 केवल -0.6013
-3.0617 लोगों -0.5857
-3.3627 उनका -0.6019
-2.8856 लोग -0.6015
-3.3627 तरफ -0.6019
-3.0617 बार -0.6013
-3.3627 जितनी -0.6019
-2.8856 कई -0.6013
-3.3627 बनाने -0.5979
-3.3627 राजनीतिक -0.6019
-3.3627 क्षीर -0.6019
-3.3627 आनन्दानुभुति -0.6015
-2.8856 आ -0.6004
-3.3627 ऊर्जा -0.6019
-3.3627 तने -0.5971
-3.0617 आगे -0.5960
-2.7607 जब -0.5968
-3.3627 एक्यूप्रेशर -0.6019
-3.3627 सस्ते -0.6019
-3.3627 सकती -0.5828
-1.5919 के -0.5855
-2.8856 जाती -0.5867
-3.3627 सद्भवाव -0.5971
-3.3627 लडकी -0.5998
-3.3627 परिवर्तन -0.6011
-3.3627 कोशिश -0.6019
-3.3627 तरीका -0.6011
-3.3627 आस्थावानों -0.5979
-2.8856 सब -0.6002
-3.3627 वैसे -0.6019
-3.0617 इन -0.6017
-3.3627 ललकारा -0.5828
-3.3627 व्याकरणिक -0.6019
-3.3627 लेट -0.6013
-3.3627 आशंका -0.5920
-3.3627 फुटेज -0.6019
-3.0617 वही -0.6011
-3.3627 दिखाने -0.5979
-3.3627 उसकी -0.6019
-3.3627 बेकारी -0.6017
-3.3627 तलाश -0.5996
-3.3627 तुम -0.6017
-3.3627 अलगाववाद -0.5971
-3.3627 प्रथम -0.6019
-3.3627 बिस्तर -0.5981
-3.3627 रवि -0.6011
-3.3627 घबडाता -0.5973
-3.3627 टीम -0.6019
-3.3627 नीतीश -0.5998
-3.3627 पांच -0.6019
-3.3627 खाए -0.6011
-3.3627 सफल -0.6019
-3.3627 उपलब्ध -0.6019
-3.0617 आपको -0.6013
-3.3627 लेती -0.5973
-3.3627 सबकुछ -0.6006
-3.3627 सहजता -0.5971
-3.3627 कुण्डी -0.6019
-3.3627 पल्लव -0.6017
-3.3627 जाते -0.5973
-3.3627 फ्राई -0.6013
-3.3627 नारियल -0.6017
-2.8856 गए -0.5755
-2.0405 पर -0.5759
-3.3627 तेल -0.6019
-3.3627 शारीरिक -0.6019
-3.3627 पुथल -0.5969
-3.3627 बोझ -0.6019
-3.3627 स्वयं -0.6017
-3.3627 देगा -0.5828
-3.3627 बातें -0.6011
-2.7607 जीवन -0.5896
-3.3627 भेजा -0.6013
-1.7293 में -0.5792
-3.3627 रहने -0.6017
-2.2836 कर -0.5975
-3.3627 सैकडों -0.6019
-3.3627 नकल -0.5908
-3.3627 अपवाद -0.6019
-3.3627 समान -0.6017
-3.3627 कहां -0.6019
-3.3627 बेहतरीन -0.6019
-3.3627 प्रकरण -0.5973
-3.3627 मजबूती -0.5908
-3.3627 मानता -0.6002
-3.3627 दिवस -0.6019
-3.3627 करी -0.6013
-2.2488 एक -0.5867
-3.3627 सहेजकर -0.6019
-3.3627 कॉर्नर -0.6019
-3.3627 निर्देश -0.6019
-3.3627 चित्रण -0.6019
-3.3627 सिह -0.6019
-3.3627 गलत -0.6019
-3.3627 यातायात -0.5939
-3.3627 जोधपुर -0.6019
-2.8856 श्री -0.6013
-3.3627 पसंद -0.5973
-3.3627 उथल -0.6019
-3.3627 पूरे -0.6019
-3.3627 बचा -0.6017
-3.3627 ज्यादा -0.6019
-3.3627 उत्पाद -0.6019
-3.3627 शरीफ -0.5981
-3.3627 घनीभूत -0.6019
-3.3627 रन -0.6000
-3.3627 चन्द्रशेखर -0.6019
-3.3627 अधिक -0.6019
-3.3627 छोड -0.6019
-3.3627 श्रीकृष्णकी -0.6017
-3.3627 प्रोजेक्ट -0.5939
-3.3627 धर्मकी -0.5828
-3.3627 एवं -0.6019
-3.3627 क्लिक -0.6015
-3.3627 चाहिए -0.5828
-3.3627 पढने -0.5908
-3.3627 उच्चश्रेणी -0.5908
-3.3627 ज्योतिरादित्य -0.6019
-3.3627 छोडी -0.5828
-3.3627 प्रेक्षण -0.5939
-3.3627 खेल -0.5971
-3.3627 आकार -0.5979
-3.3627 किए -0.6019
-3.3627 गुंजाइश -0.5994
-3.3627 प्रकाश -0.6019
-3.3627 फैसला -0.6013
-3.3627 अच्छा -0.6011
-3.3627 सोना -0.5969
-3.3627 एकहै -0.5828
-3.3627 बारे -0.5939
-3.3627 चलता -0.6009
-3.3627 लौट -0.5998
-3.3627 अकीदत -0.5979
-3.3627 रंगत -0.5969
-3.3627 दृष्टि -0.5939
-3.3627 पाले -0.5971
-3.3627 रविवार -0.5971
-3.3627 बंधुओं -0.6019
-3.3627 तत्काल -0.6011
-3.3627 सुनहरीमछली -0.6015
-3.3627 प्रगति -0.6017
-3.3627 जवानों -0.5971
-3.3627 आशय -0.5920
-3.0617 सूख -0.5994
-3.3627 स्वतंत्र -0.6019
-3.0617 मेरे -0.6015
-3.3627 थमा -0.6019
-3.3627 लगे -0.5828
-3.3627 समस्या -0.6019
-2.2166 भी -0.5916
-3.3627 खर्च -0.6017
-3.0617 सडक -0.5867
-2.8856 रही -0.5824
-3.3627 शायद -0.6017
-3.3627 गयी -0.5920
-3.0617 उठ -0.6015
-3.3627 रुपये -0.6019
-3.3627 ब्रेन -0.6017
-3.3627 मौसम -0.5979
-1.9314 और -0.5937
-3.3627 पचास -0.6019
-3.3627 चारों -0.6019
-3.3627 बोस -0.6019
-3.3627 कट -0.6013
-3.3627 गंभीर -0.6013
-3.0617 बढने -0.5857
-3.3627 हिंदी -0.6019
-3.3627 जी -0.6019
-3.3627 रूपया -0.6019
-3.3627 काफी -0.6015
-3.3627 शुष्क -0.6019
-3.3627 छिपकर -0.6019
-3.3627 मँहगाई -0.5971
-3.3627 नीर -0.6019
-3.3627 पार्टी -0.5979
-3.3627 दुश्मन -0.5971
-3.3627 जमीन -0.6019
-3.3627 सीख -0.6017
-3.3627 प्रकट -0.6015
-3.3627 राजनैतिक -0.6019
-3.3627 आजादी -0.5908
-3.3627 मोहित -0.5994
-3.3627 बढावा -0.6019
-3.3627 संभवतः -0.6015
-3.3627 ऐनक -0.6019
-3.3627 मांग -0.6015
-3.3627 फादर्स -0.6019
-3.3627 शैक्षणिक -0.6019
-3.3627 जानते -0.5969
-3.3627 गुणगान -0.6011
-3.3627 जिसमें -0.6019
-3.3627 पलक -0.5998
-3.3627 सेना -0.5908
-2.7607 हुए -0.5992
-3.3627 आस -0.6017
-2.8856 जाता -0.5920
-3.3627 डीपीएस -0.6019
-3.3627 लिंग -0.5908
-3.0617 पाकिस्तान -0.5996
-3.3627 ऑतकवादी -0.6011
-3.3627 बन -0.6019
-3.0617 पैदा -0.6009
-3.3627 सूक्ष्म -0.6019
-3.3627 शिक्षिकाओं -0.5998
-3.3627 कव्वाली -0.6019
-3.0617 होना -0.6017
-3.0617 कारण -0.5990
-3.3627 शायर -0.5920

\2-grams:
-0.7270 जब उन्होंने -0.5119
-0.4260 सौ रुपये 0.0000
-2.1249 <s> कैसे -0.4771
-0.1249 बिस्तर पर -0.5863
-0.4260 रहे हैं -0.2355
-0.1249 विद्यालय की -0.5893
-0.6021 यह सब -0.4771
-0.4260 लोक में -0.5944
-0.6021 इसके स्थान -0.3979
-0.1249 समान होना -0.3979
-0.7270 गया </s> -0.6021
-0.4260 व पूर्व 0.0000
-1.0280 अपने दुश्मन 0.0000
-0.1249 संभवतः उसके -0.4771
-0.4260 मदद नहीं -0.5812
-0.1249 मैने ये -0.4771
-0.1249 गेंद पर -0.5863
-0.4260 ओर उगीझाडियों 0.0000
-0.1249 पहना था -0.1761
-0.1249 अवमानना के -0.5965
-1.7584 में अपवाद 0.0000
-0.1249 मजबूर हो -0.5781
-0.1249 जनता सूख -0.3979
-1.1249 कि यदि 0.0000
-2.1249 <s> डीपीएस 0.0000
-0.1249 काफी पहले -0.3010
-1.4472 पर किया -0.5119
-0.1249 छोड दें 0.0000
-1.5399 की गति 0.0000
-0.1249 पचास कोमिलाकर 0.0000
-0.1249 अच्छा करने -0.4472
-0.8239 बहुत उपयोगी 0.0000
-0.6021 हुआ पर -0.5863
-0.1249 अंग्रेजी किताबों 0.0000
-0.1249 मौसम का -0.5870
-0.1249 सबकुछ अपने -0.5593
-1.4674 का बोझ 0.0000
-0.7270 जब वह -0.5593
-1.1663 ही तीर्थस्थल 0.0000
-0.6021 उसके तने 0.0000
-0.1249 घटना को -0.5893
-0.7270 उस से -0.5893
-0.1249 पूर्व प्राचार्य 0.0000
-0.4260 अनेक कारणों 0.0000
-1.0280 वह अपनी -0.5119
-0.1249 मित्र औरउदासीन 0.0000
-1.5399 को मिलते 0.0000
-1.5399 की तस्वीरों 0.0000
-0.4260 दिखाया अपना 0.0000
-0.1249 थोडे बहुत -0.5315
-0.3579 है </s> -0.6021
-0.3010 प्रकार के -0.5493
-1.2711 भी कह -0.3979
-2.1249 <s> एक्यूप्रेशर 0.0000
-0.1249 अफसाना प्यार -0.3979
-0.7270 हुए तो -0.5528
-0.1249 अथाह ज्ञान 0.0000
-2.1249 <s> तरीका 0.0000
-0.1249 बेटी और -0.5898
-0.1249 जांच में -0.5944
-1.5399 को कॉर्नर 0.0000
-0.7270 भगवान तो -0.5528
-2.1249 <s> पाकिस्तान -0.3979
-1.1249 लिए मन्नत 0.0000
-0.1249 फंसी है -0.3513
-0.7270 हुए देखना 0.0000
-0.1249 आकर्षित कर -0.5740
-0.1249 विवाद में -0.5944
-1.0280 इस छाल 0.0000
-2.1249 <s> रजनीकांत -0.3979
-0.1249 गाने भी -0.5781
-0.1249 प्रकरण हैं -0.5888
-1.7584 में फुटेज 0.0000
-0.1249 नरेश का -0.5870
-0.4260 आतंकवाद और -0.5898
-1.0280 वह जादुई 0.0000
-1.7584 में सभी -0.4771
-0.1249 अभी भी -0.5781
-1.1663 ही घनीभूत 0.0000
-0.1249 मौके पर -0.5863
-1.5399 की चीज 0.0000
-0.1249 दलितों पर -0.5863
-0.1249 जैसे गाने 0.0000
-0.1249 अभिभाषक श्री -0.4771
-0.1249 जानते और -0.5898
-0.6021 सब अपने -0.5593
-0.4260 होने तक 0.0000
-0.4260 कह सकता 0.0000
-0.1249 सवाल के -0.5965
-0.7270 फिर पांच 0.0000
-0.1249 ऐनक पाने 0.0000
-0.1249 अधिक बेकारी 0.0000
-2.1249 <s> जिसमें 0.0000
-0.7270 फिर उसी 0.0000
-1.0280 इस सप्ताहांत 0.0000
-0.1249 शुरू की -0.5893
-0.1249 इशारे और -0.5898
-0.8239 करने की -0.5893
-0.7270 किया था -0.1761
-0.1249 व्यवहारिकता में -0.5944
-0.6021 गए </s> -0.6021
-1.7584 में तेजी 0.0000
-1.0280 वह तब -0.3979
-0.1249 अपवाद छोड 0.0000
-0.1249 उत्पाद प्रदर्शित 0.0000
-1.8958 के अतिरिक्त 0.0000
-0.4260 यही वजह 0.0000
-0.1249 फिल्म में -0.5944
-2.1249 <s> मलाला 0.0000
-0.1249 अत्याचार दलितों 0.0000
-0.1249 सिसौदिया सलाहकार 0.0000
-0.8239 बहुत बिकना 0.0000
-1.5399 को लेकर -0.3979
-2.1249 <s> आलू 0.0000
-0.1249 अकमल बंधुओं 0.0000
-1.5399 को कैच 0.0000
-0.6021 यह पत्र 0.0000
-0.4260 मैंने देखा 0.0000
-0.7270 भगवान का -0.5870
-0.1249 लगभग रोगों 0.0000
-0.4260 उठ बैठा -0.3979
-0.1249 प्रोजेक्ट में -0.5787
-0.1249 एवं स्थानीय 0.0000
-0.4260 दिखाया है -0.3513
-1.4472 पर मुँह 0.0000
-0.1249 पति की -0.5893
-0.6021 कई अस्पतालों 0.0000
-0.1249 मोहित हो -0.5781
-0.4260 हूँ पर -0.5863
-0.1249 शिक्षिकाओं ने -0.5740
-0.1249 दिलाया </s> -0.6021
-0.1249 लगाने का -0.5870
-1.5399 से शुरू 0.0000
-0.1249 देता है -0.2670
-1.0280 अपने ब्लॉग 0.0000
-0.7270 करें और -0.5898
-0.1249 भयंकर परिणाम 0.0000
-0.8239 ना हो -0.4973
-0.1249 नेता करते 0.0000
-0.6021 थी इस -0.5593
-0.1249 मँहगाई की -0.5893
-1.7584 में समान 0.0000
-0.1249 बनाना सबके -0.3979
-2.1249 <s> उस -0.5119
-0.1249 जरूरी हैं -0.5888
-0.4260 मे समेटता 0.0000
-0.1249 भोली भाली 0.0000
-1.2711 भी बनवासमें 0.0000
-0.4260 वो ज्यादा 0.0000
-0.8239 ऐसे ढंग 0.0000
-0.1249 स्थानीय भाषाओं 0.0000
-0.1249 दादा के -0.5909
-0.1249 मजबूती के -0.5555
-0.1249 फेसबुक की -0.5893
-0.1249 डे जून 0.0000
-1.5399 से सहारनपुर 0.0000
-0.1249 लगाओ फिर -0.5119
-0.1249 बोस भगत 0.0000
-0.1249 पहली बार -0.3979
-0.4260 जाकर पूछ्ताछ 0.0000
-0.1249 धोनी को -0.5893
-0.1249 ज्ञान के -0.5852
-1.2389 एक सूखे 0.0000
-1.5399 की सीमा 0.0000
-0.1249 सीमा है -0.5959
-0.1249 अवकाश नहीं -0.5362
-0.1249 गश्त कर -0.5740
-0.1249 देने के -0.5852
-1.1663 ही धर्मकी 0.0000
-0.1249 प्रिय प्रवास 0.0000
-0.1249 आशंका है -0.3513
-0.1249 डीपीएस विद्यालय 0.0000
-0.1249 देखना चाहते 0.0000
-1.5399 की सुभाषचन्द्र 0.0000
-0.4260 मैंने अपनी -0.5119
-0.1249 घायल चारों 0.0000
-0.1249 पाले से -0.5893
-0.4260 पैदा करती 0.0000
-0.4260 उन कम -0.5119
-0.1249 शत्रु मित्र 0.0000
-0.1249 नजराना पेश -0.3979
-0.1249 अन्दर जाकर -0.3979
-0.1249 साइकिल ले -0.3979
-0.1249 दिया </s> -0.6021
-0.1249 बेचा जा -0.5119
-0.1249 द्वारा किसी -0.4771
-1.5399 से पाए 0.0000
-0.1249 अनायास वह -0.5593
-0.1249 कहकर वह -0.5593
-0.1249 क्रिया का -0.5870
-0.1249 बचा लेते -0.3979
-0.1249 आनन्दानुभुति लेता -0.3010
-0.2499 गया है -0.3402
-1.4674 का चित्रण 0.0000
-1.0280 इस वीराने 0.0000
-0.4260 बार बीमार 0.0000
-0.1249 जाते हैं -0.5888
-0.6021 कैसे सत्यों 0.0000
-0.6021 प्रकार रोमाभों 0.0000
-0.1249 करी जा -0.5119
-0.1249 चाय बनाना 0.0000
-0.1249 रन ही -0.5714
-2.1249 <s> अन्दर 0.0000
-0.1249 दर्शक मंत्रमुग्ध 0.0000
-0.1249 गति में -0.5944
-2.1249 <s> ﻿लडाई 0.0000
-1.7584 में गरीबी 0.0000
-0.1249 बोझ घटाने 0.0000
-0.1249 अवस्था में -0.5944
-0.1249 बौघ हरभजन 0.0000
-0.7270 उन्होंने केवल -0.3979
-0.3010 पहले से -0.5763
-0.1249 एवंमानसिक परिवर्तन 0.0000
-1.4674 का फैसला 0.0000
-0.1249 आलू और -0.5898
-1.8958 के बजाय 0.0000
-0.1249 मीडिया को -0.5893
-2.1249 <s> वैसे 0.0000
-0.4260 पेश किया -0.5119
-0.1249 उमर को -0.5893
-1.5482 है इसलिए 0.0000
-0.7270 गये हैं -0.2355
-0.1249 तत्काल बाद -0.5315
-1.5399 की ये -0.4771
-0.1249 चाबी कांग्रेस 0.0000
-0.1249 वजन पर -0.5863
-0.9700 तो सत्ता 0.0000
-0.1249 जुडे विलासिता 0.0000
-0.1249 स्वयं मे -0.3979
-0.1249 रुपये कर्ज 0.0000
-0.1249 मानक वाहक 0.0000
-2.1249 <s> सिंगापुर 0.0000
-0.1249 सत्यों को -0.5893
-1.8492 है शौकिया 0.0000
-0.8239 वे जबर्दस्ती 0.0000
-0.1249 लडकियों को -0.5893
-1.7584 में पाया -0.4771
-0.7270 उन्होंने तस्करों 0.0000
-0.7270 किया </s> -0.6021
-0.1249 मना कर -0.5740
-0.1249 विवेक का -0.5870
-0.7270 भगवान भगवान -0.5119
-0.1249 नीतीश ने -0.5740
-0.1249 पलक ने -0.5740
-1.5399 से जोधपुर 0.0000
-0.1249 सुनहरीमछली सब -0.4771
-0.1249 हरिऔध के -0.5965
-0.1249 खरीद लिया 0.0000
-0.1249 सत्ता की -0.5893
-0.1249 शरीफ पर -0.5863
-0.1249 होकर मन्त्र 0.0000
-0.1249 तेल गरम 0.0000
-0.1249 दोनों ओर -0.3979
-0.4260 हुई है -0.3513
-0.1249 मान रहे -0.3979
-0.8239 बहुत शेर 0.0000
-1.4674 का यहां -0.3979
-0.7270 उस ने -0.5740
-1.8958 के रेस्तरां 0.0000
-1.1249 कि यातायात 0.0000
-1.2041 ने दो -0.4771
-0.1249 पल्लव मंत्री -0.3979
-2.1249 <s> मजार 0.0000
-0.1249 भीतर उतर -0.3979
-0.1249 बढावा देना 0.0000
-0.1249 सूखे मेवे 0.0000
-0.7270 हुए जब -0.5119
-1.1249 कि पाकिस्तान -0.3979
-0.4260 वही जो -0.5119
-1.5399 को इतनी -0.3979
-0.7270 कम हो -0.5781
-0.1249 प्रणाली लगाने 0.0000
-0.6021 कहा की -0.5893
-0.1249 उसी विचित्र 0.0000
-0.7270 रहे जवान 0.0000
-0.6021 पता नहीं -0.5812
-0.7270 कम उम्र 0.0000
-0.6021 पहले पेड 0.0000
-0.9700 तो भगवान -0.5119
-0.1249 अच्छी साइकिल 0.0000
-0.1249 दुविधाग्रस्त था -0.1761
-0.1249 चाहिये अनायास 0.0000
-0.1249 प् याज 0.0000
-0.6021 दो रन 0.0000
-0.1249 शारीरिक एवंमानसिक 0.0000
-0.1249 लगातार और -0.5898
-0.9031 साथ ही -0.5714
-0.1249 निर्देशों पर -0.5863
-0.4260 या नहीं -0.5593
-0.6021 सब सजावटी 0.0000
-1.2041 कर पार्टी 0.0000
-1.2041 ने सीख 0.0000
-0.1249 सफल बनाते 0.0000
-0.1249 बीमार तब -0.3979
-1.3291 नहीं होती 0.0000
-1.4472 पर लेट 0.0000
-0.1249 पढ पढकर 0.0000
-0.1249 पकड नहीं -0.5812
-1.8958 के भयंकर 0.0000
-1.2041 कर रहे -0.5119
-0.7270 अपनी बेटी 0.0000
-1.2041 कर शिक्षिकाओं 0.0000
-0.1249 जिस पर -0.5863
-0.1249 कोशिश करेंगे 0.0000
-2.1249 <s> रवि 0.0000
-0.1249 बनो </s> -0.6021
-1.4674 का नजराना 0.0000
-1.2389 एक कट 0.0000
-0.1249 छिपकर पोजीशन 0.0000
-0.1249 घटाने के -0.5965
-0.1249 पारिवारिक शांति 0.0000
-0.1249 गुंजाइश हो -0.4973
-0.4260 सूख कर -0.5740
-1.4472 पर आम 0.0000
-0.4260 केवल दो -0.4771
-0.1249 सामंजस्य भी -0.5781
-1.3291 नहीं छोडी 0.0000
-0.4260 प्यार हो -0.5781
-0.1249 रहने वाले -0.3979
-1.5399 की तरह 0.0000
-0.1249 समुदायों के -0.5965
-0.1249 तस्करों को -0.5893
-0.1249 नही कहा -0.4771
-0.1249 टीम अकमल 0.0000
-1.0280 वह विधायक 0.0000
-0.1249 तकनीकी प्रगति 0.0000
-0.6021 करके नहीं -0.5812
-1.1663 ही रही -0.4771
-0.1249 गयी है -0.3513
-0.1249 सैकडों मरीजों 0.0000
-0.1249 नकल के -0.5965
-1.4472 पर उतर -0.3979
-0.1249 टिप बारिश 0.0000
-0.7270 कोई ना -0.4472
-0.1249 उगीझाडियों मे -0.3979
-0.1249 खानापूर्ति मान 0.0000
-1.5399 से करने -0.4472
-1.5399 को बढावा 0.0000
-1.5563 और असन्तोष 0.0000
-0.4260 अनेक समझदार 0.0000
-0.1249 देना चाहि 0.0000
-1.8958 के कारण -0.3979
-0.4260 विकास को -0.5893
-0.6021 थी </s> -0.6021
-0.1249 तीर्थस्थल नहीं -0.5362
-1.5563 और उमर 0.0000
-0.1249 खर्च हुई -0.3979
-0.8239 थे औरमुझे 0.0000
-0.4260 अब मैं -0.5315
-0.1249 संश्लिष्ट प्लास्टिकों 0.0000
-1.3721 है जो -0.2430
-0.1249 दुश्मन की -0.5893
-0.1249 जरिए भी -0.5781
-0.1249 पहचानते हैं -0.2355
-0.1249 ली थी -0.4771
-1.2389 एक दूसरे -0.3979
-1.5399 को सेक्स 0.0000
-0.1249 क्योंकि वे -0.5315
-0.6690 हो </s> -0.6021
-0.1249 नारियल लेकर -0.3979
-0.4260 तब करे 0.0000
-0.1249 घबडाता हैं -0.2355
-0.1249 अस्पतालों में -0.5944
-2.1249 <s> इसका 0.0000
-2.1249 <s> वक्त -0.3979
-0.1249 गुणगान करने -0.5315
-0.1249 विदेश मंत्री -0.3979
-0.1249 बारे में -0.5944
-0.1249 पैन में -0.5944
-1.8239 <s> इन 0.0000
-0.1249 खेल से -0.5893
-0.1249 ईमेल के -0.5965
-0.1249 स्वस्थ रहने 0.0000
-1.2711 भी अपने -0.5593
-2.1249 <s> आगे -0.3979
-1.3291 नहीं कर -0.5740
-0.1249 नौसेना ने -0.5740
-1.5399 को अंजाम 0.0000
-0.1249 चॉप करें -0.5119
-0.1249 बनाए थे -0.2041
-0.1249 निर्देश दिए 0.0000
-0.1249 भ्रष्टाचार के -0.5965
-0.1249 विधवाएँपुनः शादी -0.3979
-1.2041 ने पूरे 0.0000
-0.9700 तो बडा 0.0000
-0.1249 दौरान कुछ -0.5441
-0.1249 गलत जगह 0.0000
-0.1249 बेहतरीन उत्पाद 0.0000
-1.4674 का इंतजाम 0.0000
-2.1249 <s> शायद 0.0000
-0.1249 रुद्रदमन के -0.5965
-0.4260 ले लेता 0.0000
-1.7584 में माना -0.3979
-0.6021 सभी समुदायों 0.0000
-1.0280 कोई कुण्डी 0.0000
-0.8239 बाद प्रकट 0.0000
-0.4260 रजनीकांत की -0.5763
-0.1249 दुनिया मर 0.0000
-0.4260 कारण वे -0.5315
-1.5399 की संतान 0.0000
-0.4260 दूसरे दिन -0.4771
-0.1249 बने </s> -0.6021
-0.1249 व्यवहार बढ 0.0000
-0.1249 आस पास -0.3979
-1.5399 को ललकारा 0.0000
-0.1249 तरह श्री -0.4771
-1.2041 कर लेती 0.0000
-0.1249 मुकदमे दर्ज 0.0000
-0.1249 लेट गये -0.5119
-0.1249 धर्म के -0.5965
-2.1249 <s> साथ -0.5441
-0.1249 गरम करें -0.5119
-0.1249 हिंदी एवं 0.0000
-0.1249 पूछ्ताछ की -0.5893
-1.2553 और वे -0.4472
-0.1249 तुलना में -0.5944
-1.1249 कि यहां -0.3979
-1.8958 के पास -0.3979
-0.1249 मूल में -0.5944
-1.5399 को फिर -0.3979
-0.1249 प्लास्टिकों का -0.5870
-1.8958 के सहयोग 0.0000
-1.2711 हो कर -0.5740
-0.1249 आपके सवाल 0.0000
-1.2711 भी मैं -0.5315
-1.5563 और दामाद 0.0000
-1.5399 से हो -0.5528
-0.1249 उच्चश्रेणी के -0.5965
-0.1249 गुच्छ पैदा -0.3979
-0.1249 सामने मैं -0.5315
-0.1249 किशोर में -0.5944
-0.1249 करा देगा 0.0000
-0.4260 सुविधा देता 0.0000
-0.7270 कम ग्रेड 0.0000
-0.1249 चुकी है -0.3513
-0.1249 इत्ती दूर 0.0000
-0.1249 ऐश नहीं -0.5362
-0.1249 नहाना पडेगा 0.0000
-0.4260 पास ही -0.5714
-0.1249 आयोजन में -0.5944
-0.4260 सबके काम -0.3979
-0.1249 जुलूस का -0.5870
-0.1249 मुँह के -0.5965
-0.1249 फुटेज दिखाने 0.0000
-0.1249 जी तोड 0.0000
-1.2472 है कि -0.4472
-0.1249 राम ने -0.5740
-0.1249 पहला महाकाव्य 0.0000
-0.1249 आजादी के -0.5852
-0.1249 लेकिन एक -0.5763
-2.1249 <s> कोई -0.5119
-1.2389 एक स्वतंत्र 0.0000
-0.6021 सब उपलब्ध 0.0000
-0.4260 इन पचास 0.0000
-1.1663 ही कर -0.5740
-0.1249 मंत्रमुग्ध हो -0.5781
-0.5229 ना कोई -0.5119
-0.4260 सडक के -0.5965
-1.0280 कोई पण्डित 0.0000
-0.1249 हमें हिंदी 0.0000
-2.1249 <s> आतंकवाद -0.3979
-1.7584 में फंसी 0.0000
-1.7584 में शामिल 0.0000
-0.2499 जीवन में -0.5624
-1.5563 और उसमें 0.0000
-0.1249 ज्यादा जरूरी 0.0000
-1.4472 पर लौट 0.0000
-1.0280 वह उठ -0.3979
-0.1249 अँधेरे में -0.5944
-0.1249 खडा हुआ -0.4771
-2.1249 <s> सारी 0.0000
-0.1249 वालों की -0.5893
-0.4260 लोक जीवन -0.5119
-1.0280 अपने क्षेत्र 0.0000
-1.5563 और पत्थर 0.0000
-0.1249 शायद यही -0.3979
-0.1249 अलगाववाद से -0.5893
-1.8958 के आकार 0.0000
-0.6021 गए कि -0.5682
-0.1249 वैसे आपके 0.0000
-0.6021 पाया लडकी 0.0000
-0.1249 संक्रमण काफी 0.0000
-1.5399 को खानापूर्ति 0.0000
-1.7584 में सैकडों 0.0000
-1.2711 हो जाता 0.0000
-0.4260 अनुभूति नहीं -0.5812
-0.8239 होते हुए -0.5119
-0.4260 न हो -0.4973
-1.5399 को खडी 0.0000
-1.7584 में ऐसे -0.5315
-0.1249 मर गई -0.3979
-0.1249 यकीन दिलाया 0.0000
-0.1249 रात बंदूको 0.0000
-1.8958 के कुछ -0.5441
-1.1663 ही उन्हें -0.4771
-0.1249 कैसी थी -0.4771
-0.1249 मन्त्र को -0.5893
-0.1249 जोतनेवाले की -0.5893
-0.1249 औरउदासीन सभी -0.4771
-0.1249 प्रकट होता 0.0000
-1.5399 से आपको -0.3979
-0.4260 हूँ आप -0.4771
-1.5399 को गीत 0.0000
-0.4260 बार कैसे -0.4771
-0.9700 हो गया 0.0000
-1.2711 भी ऐसे -0.5315
-0.4260 उपवास का -0.5870
-1.2041 ने अपनी -0.5119
-1.2041 ने आतंकवाद -0.3979
-0.4260 आतंकवाद के -0.5965
-1.2041 ने किया -0.5119
-0.1249 आओगे भी -0.5781
-1.5563 और अधिक 0.0000
-1.5563 और मेरे -0.3979
-0.1249 सिंगापुर में -0.5944
-0.1249 तने से -0.5893
-0.1249 अनशन राजनैतिक 0.0000
-0.4260 उन राजनीतिक 0.0000
-0.4260 प्यार का -0.5870
-0.1249 सस्ते संश्लिष्ट 0.0000
-1.4472 पर पलक 0.0000
-0.1249 मानता कि -0.5682
-0.1249 लाइफ स्टाइल 0.0000
-2.1249 <s> गंभीर 0.0000
-1.5399 की सुविधा -0.3979
-2.1249 <s> बैठा -0.3979
-0.4260 इसलिए उनकी -0.4771
-0.1249 लडकी ने -0.5740
-2.1249 <s> बांध 0.0000
-1.2711 भी आशावान 0.0000
-2.1249 <s> भावार्थ 0.0000
-1.2389 एक दिन -0.4771
-0.4260 करें </s> -0.6021
-1.5399 को बचा 0.0000
-0.1249 प्रथम पति 0.0000
-0.1249 होता है -0.3051
-0.1249 हमले के -0.5965
-0.1249 प्राप्त होनेके 0.0000
-0.7270 जा रहे -0.3979
-0.1249 शॉट के -0.5965
-0.8239 मैं जी 0.0000
-1.5399 की चाबी 0.0000
-1.2041 कर आओगे 0.0000
-1.0280 इस अँधेरे 0.0000
-0.9031 रहा तो -0.5528
-1.7584 में मैंने -0.3979
-1.0280 कोई घोटाला 0.0000
-0.1249 राजनीतिज्ञ को -0.5893
-1.4674 का उन्हें -0.4771
-0.1249 सिह चन्द्रशेखर 0.0000
-0.4260 रजनीकांत वाणी 0.0000
-1.5229 हैं फूल 0.0000
-1.7584 में राहुल 0.0000
-0.1249 चीज रख 0.0000
-1.0280 कोई आकर्षण 0.0000
-0.1249 रवि मैं -0.5315
-1.4472 पर सटीक 0.0000
-0.6021 लेता हूँ -0.3979
-0.1249 पसंद हैं -0.2355
-1.2041 कर पाया -0.4771
-0.9927 के लिए -0.2041
-0.6021 यह कहकर 0.0000
-0.1249 ऊर्जा गुच्छ 0.0000
-1.5563 और लाइफ 0.0000
-1.5563 और प् 0.0000
-1.7584 में ढूँढते 0.0000
-0.1249 वरिष्ठ राजनीतिज्ञ 0.0000
-0.1249 लौट कर -0.5740
-0.1249 सिर के -0.5965
-0.9031 कुछ नहीं -0.5593
-0.1249 मैट ने -0.5740
-0.1249 हेलीकॉप्टर से -0.5893
-0.1249 मनाया जाता 0.0000
-1.7584 में दिन -0.4771
-0.9031 साथ देता 0.0000
-1.5229 हैं एक -0.5763
-0.1249 अशक्त और -0.5898
-1.8958 के कई -0.4771
-0.9700 तो एक -0.5763
-0.1249 वहां के -0.5965
-1.5948 के रूप -0.3979
-1.0280 इस अवस्था 0.0000
-0.7270 गये और -0.5898
-0.4260 सूख सूख -0.3979
-0.1249 वहीं बिस्तर 0.0000
-0.1249 अकीदत का -0.5870
-0.7270 अपनी ओर -0.3979
-2.1249 <s> प्रेक्षण 0.0000
-0.4260 शादी कर -0.5740
-0.1249 प्राचार्य श्री -0.4771
-0.1249 मछली के -0.5965
-0.1249 कारणों में -0.5866
-0.1249 जवानों को -0.5893
-0.6021 सभी को -0.5893
-0.1249 अतिरिक्त और -0.5898
-0.1249 समाज की -0.5763
-0.1249 करते हैं -0.1703
-0.1249 सजावटी मछली 0.0000
-0.8239 बहुत अकेला 0.0000
-1.5399 की गुंजाइश 0.0000
-0.1249 बढ रहा -0.3979
-0.1249 ढंग से -0.5893
-0.4260 ओर फिर -0.5119
-0.6021 थी जमीन 0.0000
-0.1249 मांगी </s> -0.6021
-1.2041 कर लकडा 0.0000
-1.5399 को सेना 0.0000
-0.6021 उसके निर्देशों 0.0000
-0.4260 इतनी सहजता 0.0000
-0.1249 उच्च ग्रेड 0.0000
-1.4472 पर क्लिक 0.0000
-0.1249 जबर्दस्ती घर -0.3979
-0.1249 सुविसाख ने -0.5740
-0.1249 देहरादून से -0.5893
-0.4260 वो अभी 0.0000
-0.4260 ट्यूमर होता 0.0000
-1.5563 और उनकी -0.4771
-0.1249 फैसला किया -0.5119
-0.1249 लड रहा -0.4771
-0.4260 पास के -0.5909
-0.1249 व्यवसाय ऑफलाइन 0.0000
-0.6021 दो दिनों 0.0000
-1.5563 और उन्होंने -0.5119
-0.1249 माधुर्य है -0.5896
-1.8492 है ना -0.5315
-1.7584 में सामंजस्य 0.0000
-0.1249 राजनैतिक नेता 0.0000
-2.1249 <s> वहां 0.0000
-0.8239 मैं कुर्सी 0.0000
-2.1249 <s> घटना 0.0000
-0.7270 जा सकता 0.0000
-2.1249 <s> अमेरिकी 0.0000
-1.5399 से पारिवारिक 0.0000
-1.5229 हैं उपवास -0.3979
-1.5399 की मार 0.0000
-1.4472 पर </s> -0.6021
-0.4260 सौ गुणे 0.0000
-1.1663 ही मँहगाई 0.0000
-0.4260 गये थे 0.0000
-0.1249 दर्ज भी -0.5781
-0.6021 दिन रात 0.0000
-0.1249 उपलब्ध करा 0.0000
-0.1249 पाने की -0.5893
-0.4260 होना आवश्यक 0.0000
-0.6021 करके देखिए 0.0000
-0.1249 मुल्क में -0.5944
-1.1249 लिए करते 0.0000
-0.3010 कहा कि -0.5315
-1.8492 है लेकिन 0.0000
-0.9031 साथ रह 0.0000
-0.1249 कव्वाली नृत्य 0.0000
-0.1249 विलासिता के -0.5965
-0.1249 एक्यूप्रेशर चिकित्सा 0.0000
-0.1249 कर्ज हो -0.5528
-1.4472 पर धोनी 0.0000
-0.4260 आए हैं -0.2355
-1.8958 के संक्रमण 0.0000
-0.4260 रहा है -0.3402
-0.1249 रह रहा -0.3979
-1.8958 के लोग -0.4771
-0.1249 चित्त व्यक्ति 0.0000
-0.1249 तलाश एक -0.5763
-0.6021 हुआ बोला 0.0000
-1.8958 के सभी -0.4771
-0.1249 भैया आ -0.3010
-1.0280 कोई चोट 0.0000
-0.1249 रूपया दे 0.0000
-1.6478 <s> उनके 0.0000
-0.4260 मदद प्रकाश 0.0000
-0.6021 उन्हें ब्रेन 0.0000
-0.7270 जो वक्त -0.3979
-1.1249 लिए नौसेना 0.0000
-0.1249 मरने वाले -0.3979
-0.1249 होनेके लिए -0.5682
-1.2711 हो गए -0.4771
-0.1249 सूक्ष्म ऊर्जा 0.0000
-0.1249 देखकर दर्शक 0.0000
-0.1249 पण्डित नहीं -0.5812
-0.4260 यही नहीं -0.5812
-0.7270 जीवन का -0.5870
-0.1249 मार झेल 0.0000
-0.1249 बंदूको के -0.5794
-1.5563 और अनुभूति -0.3979
-0.1249 लफ्ज में -0.5944
-0.1249 कराह रहा -0.4771
-0.9700 तो वह -0.5593
-0.1249 सबसे अच्छा 0.0000
-0.1249 सेना के -0.5965
-0.9031 साथ चलते 0.0000
-1.8958 के पल्लव 0.0000
-0.1249 तीसरे रविवार 0.0000
-0.7270 उन्होंने कहा -0.3010
-1.5399 की कोशिश 0.0000
-0.1249 अगर ऐसे -0.5315
-1.2041 कर लेते -0.3979
-0.1249 यदि भ्रष्टाचार 0.0000
-0.1249 वाला नारियल 0.0000
-1.5399 की मदद -0.3979
-0.8239 करने वालों 0.0000
-2.1249 <s> वही -0.3979
-0.1249 नियंत्रण तो -0.5528
-1.8958 के अनेक -0.3979
-1.0280 वह धन्य 0.0000
-1.8958 के आस्थावानों 0.0000
-0.1249 बोली का -0.5870
-0.1249 ए </s> -0.6021
-1.6478 <s> इसके 0.0000
-0.7270 जब उसके -0.4771
-0.4260 पाकिस्तान ने -0.5740
-0.6021 जाती है -0.3513
-0.1249 पांच रूपया 0.0000
-0.9031 कुछ खाने 0.0000
-0.1249 देखा है -0.5768
-1.1249 कि गलत 0.0000
-0.1249 बेकारी पैदा -0.3979
-0.6021 लोग कैबिनेट 0.0000
-0.1249 परिणाम देखने 0.0000
-0.8239 बाद माओवादी 0.0000
-0.1249 ज्यादातर लोग -0.4771
-0.6021 ये गर्मी 0.0000
-1.8239 <s> आप -0.3010
-0.1249 रोमाभों की -0.5893
-2.1249 <s> मैने 0.0000
-0.8239 ऐसे कई -0.4771
-0.1249 जादुई तासीर 0.0000
-0.1249 दिए गए -0.4771
-0.2041 था </s> -0.6021
-1.4674 का </s> -0.6021
-1.2041 कर उसके -0.4771
-0.4260 वाले होते -0.3424
-1.5948 के जीवन -0.2430
-0.1249 रखना उस -0.5119
-0.1249 असन्तोष के -0.5965
-0.1249 बन चुकी 0.0000
-0.1249 घनीभूत होकर 0.0000
-0.1249 किए जाएंगे 0.0000
-0.1249 चाहिए </s> -0.6021
-1.7584 में फादर्स 0.0000
-0.1249 भाईचारे की -0.5893
-0.6021 रही थीं 0.0000
-0.1249 रकम </s> -0.6021
-0.1249 इंतजाम भी -0.5781
-1.5399 को चॉप 0.0000
-0.1249 फैशन और -0.5898
-0.1249 चलते हैं -0.2355
-1.5399 से कम -0.5119
-0.1249 आवश्यक है -0.3513
-0.1249 घोटाला ना -0.5315
-2.1249 <s> ज्योतिरादित्य 0.0000
-0.8239 ना ही -0.5714
-0.1249 मोर्चे पर -0.5863
-1.8492 है अपने -0.5593
-0.4260 माना गया -0.2430
-0.1249 दें तो -0.5528
-1.2711 हो जाने 0.0000
-1.4674 का एक -0.5763
-0.1249 कारगर साबित 0.0000
-1.1249 लिए हेलमेट 0.0000
-0.1249 परिवर्तन होते -0.3424
-0.6021 उनकी अवमानना 0.0000
-0.1249 मगर कोई -0.5593
-0.1249 सहारनपुर जानेवाली 0.0000
-0.1249 भारत में -0.5944
-1.3291 नहीं हो -0.5781
-0.8239 मैं नहीं -0.5812
-2.1249 <s> हमेशा 0.0000
-0.1249 आपसी सद्भवाव 0.0000
-0.1249 जोधपुर भेजा 0.0000
-0.4260 इन गुणों 0.0000
-1.5563 और कुछ -0.5441
-0.1249 लकडा गई -0.3979
-1.5399 से देखते 0.0000
-1.8958 के मानक 0.0000
-1.0280 इस शादी -0.3979
-1.8958 के मूल 0.0000
-0.1249 कैबिनेट में -0.5944
-0.1249 आकर्षण और -0.5898
-1.4472 पर भविष्य 0.0000
-0.4260 रूप में -0.5866
-0.6021 उन्हें क्या 0.0000
-0.1249 नाना प्रकार -0.3010
-0.4260 शादी की -0.5893
-0.7270 भगवान श्रीकृष्णकी 0.0000
-2.1249 <s> सबसे 0.0000
-1.5399 की तलाश 0.0000
-0.1249 तुम घर -0.3979
-1.7584 में फैशन 0.0000
-1.5399 की हो -0.4973
-0.1249 यातायात में -0.5787
-1.4674 का साथ -0.5441
-0.1249 सहेजकर रखना 0.0000
-0.1249 धन्य हो -0.5781
-0.1249 रंगत और -0.5898
-0.1249 आस्थावानों का -0.5870
-1.5563 और बातें 0.0000
-1.2041 ने दिखाया -0.3979
-0.1249 लगा कि -0.5682
-1.5399 को बखूबी 0.0000
-0.1249 सोना और -0.5898
-0.1249 हम सब -0.4771
-0.2218 थे </s> -0.6021
-0.1249 बैठे जब -0.5119
-0.1249 प्रक्षेपास्त्र प्रणाली 0.0000
-0.1249 शैक्षणिक अत्याचार 0.0000
-0.1249 महिला शब्द 0.0000
-0.1249 क्लिक करके -0.4771
-2.1249 <s> राजधानी 0.0000
-0.1249 स्थापित नहीं -0.5812
-1.2711 भी उत्पन्न -0.3979
-0.1249 हमारे समाज 0.0000
-2.1249 <s> बर्फानी 0.0000
-0.1249 प्रगति सबके -0.3979
-0.6021 किसी प्रकार -0.4771
-0.7270 ले गये -0.3979
-0.6021 आप की -0.5893
-1.5399 की तो -0.5528
-1.5399 की रंगत 0.0000
-1.8958 के हेलीकॉप्टर 0.0000
-0.4260 तब हुए -0.5119
-0.1249 पत्र पढने 0.0000
-1.1249 कि हमें 0.0000
-0.6021 जाती हैं -0.5888
-0.7270 जब एक -0.5763
-0.8239 ऐसे ही -0.5714
-0.1249 नयी सुविधा -0.3979
-1.2389 की एक -0.5488
-0.1249 ﻿लडाई के -0.5965
-2.1249 <s> अगर 0.0000
-1.4472 पर ये -0.4771
-0.4260 उत्पन्न होता 0.0000
-2.1249 <s> दूसरे -0.3979
-0.1249 देख </s> -0.6021
-0.1249 बारिश और -0.5898
-0.1249 कल्पना लोक -0.3979
-0.6021 पाया कि -0.5682
-0.1249 कॉर्नर शॉट 0.0000
-0.1249 कपडों की -0.5893
-0.1249 ज्योतिरादित्य सिंधिया 0.0000
-0.1249 पाए जा -0.5119
-2.1249 <s> दहेज 0.0000
-0.1249 चारों जवानों 0.0000
-1.2711 भी भारत 0.0000
-0.1249 काशी केवल -0.3979
-0.6021 सभी प्रकार -0.3010
-1.8239 <s> उन्होंने -0.3979
-0.1249 बनाने का -0.5870
-0.1249 पत्थर शत्रु 0.0000
-0.6021 कैसे कराह 0.0000
-0.1249 पहनते </s> -0.6021
-0.4260 वही मांग 0.0000
-0.1249 बोला </s> -0.6021
-1.1663 ही देता 0.0000
-0.4260 हुई इतनी -0.3979
-0.6021 श्री सिसौदिया 0.0000
-1.5399 को भूरा 0.0000
-0.1249 रूकवाट या -0.3979
-1.5399 की गयी 0.0000
-0.4260 उस पर -0.5699
-1.0280 कोई रूकवाट 0.0000
-1.7584 में उन्हें -0.4771
-0.6021 दिन भैया 0.0000
-2.1249 <s> जुलूस 0.0000
-0.7270 कम ऐश 0.0000
-0.4260 कारण ही -0.5714
-1.1249 लिए ना -0.5315
-1.5399 को स्वयं 0.0000
-2.1249 <s> अयोध्यासिंह 0.0000
-0.1249 जगह आ -0.3010
-0.1249 प्रत्यक्ष एक -0.5763
-0.1249 चित्रण कल्पना 0.0000
-0.1249 आशावान है -0.3513
-1.5229 हैं मोहित 0.0000
-1.8958 के खेल 0.0000
-0.1249 पूरे मीडिया 0.0000
-0.1249 अमन व -0.3979
-0.1249 उद्योग धन्धों 0.0000
-0.1249 ग्रेड के -0.5794
-0.1249 दिखाने का -0.5870
-0.1249 सहूलियत पर -0.5863
-0.1249 धर्मकी </s> -0.6021
-1.5563 और नीर 0.0000
-0.1249 फेरबदल को -0.5893
-1.4472 पर होते -0.5315
-0.1249 जिसमें अभिभाषक 0.0000
-2.1249 <s> नियंत्रण 0.0000
-1.1249 लिए बेचा 0.0000
-0.6021 आ सकता 0.0000
-0.1249 कामरान और -0.5898
-0.4260 सडक पर -0.5863
-0.4260 अलावा शैक्षणिक 0.0000
-2.1249 <s> पता -0.4771
-1.8492 है पर -0.5863
-1.8239 <s> ऐसे -0.4472
-0.1249 फादर्स डे 0.0000
-1.4674 का असंतुलित 0.0000
-0.4260 पेश कर -0.5740
-0.4260 अब सस्ते 0.0000
-0.6021 दो सौ -0.3979
-0.1249 करती है -0.3513
-2.1249 <s> सुनहरीमछली 0.0000
-0.4260 आगे की -0.5893
-0.1249 अपना कला 0.0000
-0.8239 ना स्थान -0.3979
-2.1249 <s> मैंने -0.3979
-0.8239 बाद गश्त 0.0000
-2.1249 <s> क्योंकि 0.0000
-0.1249 करेंगे </s> -0.6021
-0.4260 यहां थोडा 0.0000
-1.3291 नहीं करते 0.0000
-0.1249 भाली जनता 0.0000
-0.9700 तो उनका 0.0000
-0.1249 विरोध और -0.5898
-0.4260 सुविधा स्काइप 0.0000
-0.1249 शामिल रहे -0.5119
-0.1249 खडी बोली 0.0000
-0.4260 स्थान में -0.5944
-0.1249 लगे </s> -0.6021
-0.1249 राहुल बजाज 0.0000
-0.1249 ऑतकवादी थे -0.2041
-0.1249 आकार का -0.5870
-0.1249 कुण्डी खडका 0.0000
-1.5399 से रहते 0.0000
-0.4260 जाकर फिर -0.3979
-1.3291 नहीं यह -0.4771
-0.1249 हिन्दू धर्म 0.0000
-0.6021 उनके विरोध 0.0000
-1.8492 है थोडे 0.0000
-1.3291 नहीं पहनते 0.0000
-0.3010 लेता है -0.3402
-0.6021 कई ताजे 0.0000
-0.6021 पाया था -0.1761
-0.4260 बढने के -0.5555
-0.4260 इतनी रकम 0.0000
-0.1249 तस्वीरों पर -0.5863
-0.1249 रख देता 0.0000
-0.1249 हवाई हमले 0.0000
-0.1249 करना चाहिये 0.0000
-0.1249 बजाय लगातार 0.0000
-1.5563 और कहां 0.0000
-1.7584 में नाना 0.0000
-1.7584 में अमन 0.0000
-1.8958 के जरिए 0.0000
-0.1249 कल्पनाओं में -0.5944
-0.1249 उन्हीं का -0.5870
-0.4260 फिर से -0.5763
-1.0280 अपने जीवन -0.2430
-1.5399 से जुडे 0.0000
-0.4260 उतर आए -0.3979
-0.1249 बातें करने -0.5315
-0.1249 ब्लॉग प्रकाशित 0.0000
-2.1249 <s> इत्ती 0.0000
-0.1249 तेजी से -0.5893
-0.1249 छोडी </s> -0.6021
-0.1249 सहयोग से -0.5893
-0.6021 किसी उच्चश्रेणी 0.0000
-0.1249 झेल रही -0.4771
-0.1249 दृष्टि में -0.5944
-1.3291 नहीं ब्लॉगर 0.0000
-0.1249 गरीबी के -0.5965
-0.1249 प्रवास को -0.5893
-1.5399 से एकहै 0.0000
-0.1249 शायर है -0.5959
-2.1249 <s> को -0.5893
-1.5399 की आशंका 0.0000
-0.1249 पेड लगाओ 0.0000
-0.7270 उन्होंने देहरादून 0.0000
-1.2711 भी नहीं -0.5812
-1.5229 हैं बल्कि 0.0000
-0.1249 सिक् किम 0.0000
-0.1249 बनवासमें पहना 0.0000
-1.8958 के जवाब 0.0000
-1.1249 लिए अपने -0.5593
-1.8492 है वह -0.5593
-0.4260 व भाईचारे 0.0000
-1.2711 हो जाते 0.0000
-0.1249 प्रदूषण और -0.5898
-0.1249 आनेके समय -0.3979
-1.8958 के लफ्ज 0.0000
-0.1249 बनाते हैं -0.2355
-0.1249 उसकी दृष्टि 0.0000
-1.4674 का सामर्थ्य 0.0000
-1.5399 से नहाना 0.0000
-0.1249 गंभीर रूप -0.5119
-0.1249 समझदार लोगों -0.3979
-1.7584 में प्रत्यक्ष 0.0000
-0.1249 ढूँढते हैं -0.2355
-0.8239 मैं सुमन 0.0000
-0.6021 उनकी कृपा 0.0000
-0.6021 उन्हें टिकप 0.0000
-0.1249 कांग्रेस के -0.5965
-1.5563 और दुविधाग्रस्त 0.0000
-0.4260 पाकिस्तान टीम 0.0000
-0.7270 जो अपने -0.5593
-0.1249 बाधा उत्पन्न -0.3979
-0.1249 कोमिलाकर दो -0.4771
-0.1249 बच्चे अपने -0.5593
-0.1249 उपयोगी है -0.5768
-1.8239 <s> पहले 0.0000
-1.4187 के बाद -0.3424
-0.1249 शिक्षक दिवस 0.0000
-1.2389 एक डाल 0.0000
-0.8239 वे ही -0.5714
-0.9031 कुछ न -0.3979
-1.2711 भी हुए -0.5119
-0.1249 भावार्थ पोथियाँ 0.0000
-0.4260 घर पर -0.5863
-0.4260 गई है -0.3513
-2.1249 <s> वो -0.3979
-2.1249 <s> हवाई 0.0000
-0.1249 वाहक के -0.5909
-0.1249 बराक प्रक्षेपास्त्र 0.0000
-1.5563 और लगभग 0.0000
-0.4260 बैठा और -0.5898
-2.1249 <s> काशी 0.0000
-0.4260 वाले नौटियाल 0.0000
-0.1249 बाजार के -0.5965
-0.1249 बखूबी जानते 0.0000
-0.8239 मैं उनकी -0.4771
-0.1249 बांध को -0.5893
-1.5399 से प्यार -0.3979
-0.1249 शब्द में -0.5944
-1.5399 को मनाया 0.0000
-0.4260 बैठा कल्पनाओं 0.0000
-0.1249 देखते हुए -0.5119
-0.1249 देखने को -0.5893
-1.8958 के बेहतरीन 0.0000
-0.1249 बजाज बहुत -0.5315
-1.1663 ही चलता 0.0000
-0.8239 होते है -0.5768
-0.1249 पढकर दुनिया 0.0000
-0.1249 सीख लिया 0.0000
-0.1249 राजनीतिक चेहरों 0.0000
-0.6021 कई बार -0.3979
-0.8239 ऐसे लोग -0.4771
-1.0280 अपने इशारे 0.0000
-0.1249 पडेगा </s> -0.6021
-0.7270 रहे </s> -0.6021
-0.1249 मिलते हैं -0.2355
-1.1249 लिए तुम 0.0000
-0.6021 उनकी मदद -0.3979
-1.2041 ने बराक 0.0000
-0.1249 श्रीकृष्णकी अनुभूति -0.3979
-0.1249 चाहि ए 0.0000
-1.2711 भी कम -0.5119
-1.8958 के दोनों 0.0000
-0.4260 यहां कम -0.5119
-0.1249 राजधानी में -0.5944
-0.4260 अलावा कोई -0.5593
-0.4260 काम का -0.5870
-0.1249 मांग थी -0.4771
-0.9031 कुछ बच्चे 0.0000
-0.1249 कहां खर्च 0.0000
-0.1249 देगा </s> -0.6021
-0.4260 लेकर उस -0.3979
-0.8239 ऐसे सुपरबग 0.0000
-1.5399 से उठ -0.3979
-0.1249 रविवार को -0.5893
-0.1249 सामर्थ्य अथाह 0.0000
-1.8958 के तरीके 0.0000
-2.1249 <s> सोना 0.0000
-1.0280 अपने अपने -0.5593
-1.0280 इस कारण -0.3979
-0.7270 जो सीधे 0.0000
-0.1249 भेजा गया -0.2430
-0.1249 पत्नी को -0.5893
-0.6021 रही </s> -0.6021
-1.2389 एक फिल्म 0.0000
-0.1249 रोगों के -0.5965
-0.4260 दूसरे से -0.5893
-0.1249 नीर क्षीर 0.0000
-1.5563 और मुल्क 0.0000
-1.7584 में व्याकरणिक 0.0000
-0.7270 जा रही -0.4771
-0.1249 कैच थमा 0.0000
-0.1249 व्यक्ति ही -0.5714
-0.8239 वे अनेक -0.3979
-0.2441 हैं </s> -0.6021
-0.1249 सदस्य बनो 0.0000
-0.1249 ताजे प्रकरण 0.0000
-1.5563 और बढने -0.3979
-0.8519 नहीं है -0.3513
-0.1249 अकेला अशक्त 0.0000
-0.7270 जो करना 0.0000
-1.2041 ने मजबूर 0.0000
-0.1249 बचाव के -0.5555
-0.1249 सुभाषचन्द्र बोस 0.0000
-0.1249 रहते हैं -0.2355
-1.5399 को सहेजकर 0.0000
-0.1249 आशय है -0.5768
-0.4260 आपको यह -0.4771
-0.1249 ऑफलाइन बाजार 0.0000
-0.1249 मरीजों में -0.5944
-1.4472 पर विधवाएँपुनः 0.0000
-0.1249 साधु चित्त 0.0000
-0.1249 विधायक बने 0.0000
-1.5399 की मजबूती 0.0000
-1.4674 का ही -0.5714
-0.1249 पोजीशन ले -0.5119
-2.1249 <s> दरअसल 0.0000
-0.1249 विचित्र भाव 0.0000
-0.1249 पोथियाँ पढ 0.0000
-0.6021 आप पर -0.5863
-0.1249 होती है -0.3513
-2.1249 <s> यही -0.3979
-0.1249 किम में -0.5944
-1.4574 में से -0.5763
-0.1249 दरअसल यह -0.4771
-0.1249 भविष्य एक -0.5763
-0.1249 मजाक के -0.5965
-0.1249 दामाद को -0.5893
-2.1249 <s> हम 0.0000
-0.1249 पौधे पाले 0.0000
-0.1249 क्षेत्र को -0.5893
-1.5399 की भी -0.5781
-1.7584 में प्रदूषण 0.0000
-0.4260 सबके लिए -0.5682
-0.1249 भाव से -0.5893
-0.1249 छाल को -0.5893
-1.5399 से सूक्ष्म 0.0000
-1.2711 भी आ -0.4771
-0.1249 उम्र लडकियों 0.0000
-2.1249 <s> वरिष्ठ 0.0000
-0.6021 ये नयी 0.0000
-0.8239 बाद के -0.5965
-2.1249 <s> उद्योग 0.0000
-0.1249 सुमन वहीं 0.0000
-0.1249 कौशलजौहर </s> -0.6021
-1.0280 अपने व्यवसाय 0.0000
-0.1249 सार्वजनिक अवकाश 0.0000
-2.1249 <s> अंग्रेजी 0.0000
-0.4260 इसलिए चाय 0.0000
-0.1249 चुनावों में -0.5944
-1.2041 ने जांच 0.0000
-1.0280 अपने सिर 0.0000
-0.6021 इसके तत्काल 0.0000
-0.1249 सेक्स के -0.5555
-0.6021 श्री राम 0.0000
-1.7584 में उससे 0.0000
-0.1249 पार्टी का -0.5870
-0.7270 जा रहा -0.3979
-0.4260 उत्पन्न न -0.3979
-0.7270 हुए पाया -0.4771
-0.1249 लिंग के -0.5965
-0.4260 माना जा -0.5119
-0.1249 खास करके -0.4771
-1.8958 के बचाव 0.0000
-1.2711 भी या -0.3979
-0.4260 बढने की -0.5893
-1.2389 एक सार्वजनिक 0.0000
-0.1249 मजार शरीफ 0.0000
-0.1249 संभव है -0.3513
-2.1249 <s> इंग्लैंड 0.0000
-0.7270 रूप ले -0.3979
-0.8239 बाद आए -0.3979
-0.1249 व्याकरणिक लिंग 0.0000
-0.4260 उतर जाती -0.4771
-0.1249 समेटता हुआ -0.4771
-0.1249 सीधे लोगों -0.3979
-1.4260 <s> इस -0.3274
-1.1663 ही आजादी 0.0000
-0.1249 क्या पता -0.4771
-0.1249 बल्कि आस 0.0000
-0.1249 मन्नत मांगी 0.0000
-1.0280 वह किसी -0.4771
-0.6021 गए और -0.5898
-0.1249 औरमुझे वे -0.5315
-0.4260 आपको ईमेल 0.0000
-0.4260 घर ले -0.5119
-0.1249 चन्द्रशेखर ऑतकवादी 0.0000
-0.1249 जाता है -0.3402
-0.1249 पालन की -0.5893
-0.1249 शुष्क मौसम 0.0000
-0.8239 करने लगे 0.0000
-0.1249 ऑफिस जाकर -0.3979
-0.1249 चेहरों में -0.5866
-1.1249 कि ज्यादातर 0.0000
-0.7270 करें पैन 0.0000
-0.1249 मेहनत करके -0.4771
-0.6021 करके लड 0.0000
-0.6021 कैसे कैसे -0.4771
-0.1249 पुथल और -0.5898
-0.6021 ये नही 0.0000
-1.5399 से घायल 0.0000
-2.1249 <s> एक -0.5763
-0.4260 मेरे सामने 0.0000
-0.1249 कृपा जिस 0.0000
-1.5563 और अलगाववाद 0.0000
-1.2711 हो जाती -0.4771
-1.7584 में तेल 0.0000
-1.2389 एक है -0.5832
-0.1249 प्रकाशित करने -0.5315
-2.1249 <s> मैं -0.5315
-1.3291 नहीं मानता 0.0000
-0.1249 भाषाओं के -0.5965
-0.9031 साथ तुलना 0.0000
-0.6021 इसके अलावा -0.3979
-0.1249 आसान है -0.5896
-1.8958 के खिलाफ 0.0000
-0.1249 मलाला के -0.5965
-0.8239 बहुत आसान 0.0000
-0.1249 महाकाव्य माना -0.3979
-0.1249 तोड मेहनत 0.0000
-0.1249 खाए होते -0.3424
-0.1249 जाएंगे </s> -0.6021
-0.1249 स्वतंत्र क्रिया 0.0000
-2.1249 <s> अतीत 0.0000
-0.4260 लेते हैं -0.2355
-0.1249 जितनी आनन्दानुभुति 0.0000
-1.2711 हो सकती 0.0000
-1.2041 कर दिया 0.0000
-0.1249 नृत्य पेश -0.3979
-0.4260 समय से -0.5893
-0.1249 असंतुलित विकास -0.3979
-0.1249 हेलमेट भी -0.5781
-1.5399 को उसकी 0.0000
-0.1249 आम के -0.5965
-0.1249 चलता रहा -0.5441
-1.8958 के तीसरे 0.0000
-1.5399 से अलग 0.0000
-1.7584 में जितनी 0.0000
-0.1249 विकट समस्या 0.0000
-1.8958 के पौधे 0.0000
-0.1249 पढने के -0.5555
-0.1249 जून के -0.5965
-0.1249 जाने पर -0.5863
-0.4260 अनुभूति प्राप्त 0.0000
-1.2711 भी पसंद 0.0000
-0.1249 डाल काट 0.0000
-1.2389 एक अच्छी 0.0000
-0.4260 उपवास तो -0.5528
-2.1249 <s> और -0.5898
-0.1249 मेवे वाला 0.0000
-0.1249 इसका आशय 0.0000
-1.8958 के भीतर 0.0000
-0.1249 वीराने में -0.5944
-1.5399 को सफल 0.0000
-0.1249 गुणों के -0.5965
-0.8239 वे लोक -0.3979
-1.8958 के निर्देश 0.0000
-1.2389 एक बारे 0.0000
-0.6021 लोग सबकुछ 0.0000
-0.1249 प्रथाविवाह हमारे 0.0000
-1.5399 से भी -0.5781
-0.1249 संतान होने -0.3979
-1.5229 हैं मेरे -0.3979
-0.1249 भगत सिह 0.0000
-0.1249 दहेज प्रथाविवाह 0.0000
-1.7584 में फेरबदल 0.0000
-0.1249 शेर भी -0.5781
-0.1249 नौटियाल पहली 0.0000
-1.7584 में वह -0.5593
-0.1249 थोडा बहुत -0.5315
-0.4260 मंत्री सुविसाख 0.0000
-2.1249 <s> अनशन 0.0000
-1.4472 पर बरसती 0.0000
-0.7270 रूप से -0.5893
-1.1249 कि किसी -0.4771
-2.1249 <s> अब -0.3979
-0.1249 शौकिया शायर 0.0000
-1.5563 और पहचानते 0.0000
-0.3468 होते हैं -0.2355
-2.1249 <s> मैट 0.0000
-0.1249 वजह है -0.5768
-0.1249 अलग करी 0.0000
-0.4260 स्थान की -0.5893
-0.1249 उपाध्याय हरिऔध 0.0000
-0.4260 समय शुष्क 0.0000
-0.7270 किया जाता 0.0000
-1.0280 नहीं </s> -0.6021
-0.8239 वे मरने 0.0000
-1.4674 का काम -0.3979
-0.6021 दिन वह -0.5593
-0.1249 गीत गाते 0.0000
-0.1249 हरभजन की -0.5893
-0.1249 तरफ आकर्षित 0.0000
-1.8958 के अलावा -0.3979
-0.7270 किया और -0.5898
-0.4260 वक्त के -0.5794
-1.5563 और अफसाना 0.0000
-0.7270 अपनी तरफ 0.0000
-1.5399 से कह -0.3979
-0.1249 गैरजरूरी विवाद 0.0000
-1.5399 को कपडों 0.0000
-0.1249 सारी उथल 0.0000
-0.1249 भूरा होने -0.3979
-0.1249 उथल पुथल 0.0000
-0.1249 अयोध्यासिंह उपाध्याय 0.0000
-1.2472 है और -0.5509
-0.6021 उसके द्वारा 0.0000
-1.3291 नहीं दिखाया -0.3979
-2.1249 <s> से -0.5893
-0.4260 पैदा होते -0.5315
-1.7584 में इस -0.5593
-0.1249 पश्चिमी नकल 0.0000
-0.1249 जमीन जोतनेवाले 0.0000
-1.5399 की शिक्षक 0.0000
-1.2813 में कोई -0.3979
-0.1249 खडका ही -0.5714
-1.5399 से बनाने 0.0000
-0.1249 चिकित्सा बहुत -0.5315
-1.8958 के मुकदमे 0.0000
-1.8958 के शारीरिक 0.0000
-1.4674 का व्यवहार 0.0000
-0.1249 राजा रुद्रदमन 0.0000
-0.1249 जानेवाली सडक -0.3979
-0.1249 सुपरबग के -0.5965
-0.1249 सलाहकार के -0.5909
-0.4260 ट्यूमर उन -0.3979
-0.5229 करने के -0.5493
-0.1249 फूल आनेके 0.0000
-0.1249 तक फ्राई 0.0000
-2.1249 <s> सिक् 0.0000
-0.4260 लोगों के -0.5965
-0.1249 सटीक ऐनक 0.0000
-0.1249 ललकारा </s> -0.6021
-0.6021 किसी प्रोजेक्ट 0.0000
-0.1249 उसमें प् 0.0000
-1.5399 से एक -0.5763
-1.4472 पर कुछ -0.5441
-1.1249 कि प्रथम 0.0000
-1.5399 से प्रभावित 0.0000
-0.1249 प्रभावित हो -0.5781
-0.1249 प्रदर्शित किए 0.0000
-0.1249 जवान मौके 0.0000
-0.6021 रहा था 0.0000
-0.1249 हमेशा स्वस्थ 0.0000
-0.1249 दिनों में -0.5944
-0.6021 उनके बाद -0.5315
-0.1249 निस्तारण समय -0.3979
-0.1249 लेती हैं -0.2355
-1.7584 में किशोर 0.0000
-0.6021 उनके मजाक 0.0000
-2.1249 <s> फेसबुक 0.0000
-1.2041 कर सकता 0.0000
-1.2041 कर मना 0.0000
-0.1249 बरसती है -0.5959
-0.1249 बंधुओं कामरान 0.0000
-0.1249 स्टाइल से -0.5893
-0.1249 अतीत को -0.5893
-1.8958 के विकास -0.3979
-0.1249 उससे सौ -0.3979
-0.1249 बेचारा जब -0.5119
-0.1249 दिवस कव्वाली 0.0000
-0.1249 क्षीर विवेक 0.0000
-0.1249 समस्या बन 0.0000
-0.1249 लिया है -0.3402
-0.1249 कट करें -0.3979
-0.1249 टिकप टिप 0.0000
-0.1249 सिंधिया उन -0.3979
-0.1249 किताबों का -0.5870
-0.1249 प्रकाश देख 0.0000
-1.4674 का गुणगान 0.0000
-0.4260 वक्त उन्हीं 0.0000
-1.7584 में वही -0.3979
-0.1249 स्काइप के -0.5965
-1.4674 का रूप -0.5119
-0.1249 करे जब -0.5119
-1.2389 एक विकट 0.0000
-1.7584 में माधुर्य 0.0000
-1.8239 <s> भगवान -0.3979
-1.8492 है व्यवहारिकता 0.0000
-0.1249 प्रेक्षण में -0.5944
-0.1249 सहजता से -0.5893
-0.6021 पता उपवास -0.3979
-0.1249 चाहते हैं -0.2355
-0.1249 ब्रेन ट्यूमर -0.3979
-1.2711 हो सकता 0.0000
-0.1249 सद्भवाव से -0.5893
-0.1249 धन्धों का -0.5870
-1.4472 पर नरेश 0.0000
-0.1249 खिलाफ बचाव 0.0000
-0.1249 माओवादी सडक -0.3979
-0.6021 रही भोली 0.0000
-0.4260 लेकर जारी 0.0000
-1.4472 पर अकीदत 0.0000
-0.4260 आगे कुछ -0.5441
-1.1663 ही बनाए 0.0000
-1.7584 में अब -0.3979
-0.1249 बिकना पश्चिमी 0.0000
-0.1249 फ्राई करें -0.3979
-1.5563 और पत्नी 0.0000
-1.4472 पर पहुंच 0.0000
-0.1249 कला कौशलजौहर 0.0000
-0.4260 विकास भी -0.5781
-1.0280 वह भी -0.5781
-0.4260 काम राजा 0.0000
-1.7584 में वो -0.3979
-1.5399 की गेंद 0.0000
-0.1249 थीं </s> -0.6021
-1.2041 ने भी -0.5781
-1.1249 लिए संभव 0.0000
-0.4260 होने पर -0.5863
-0.1249 जारी गैरजरूरी 0.0000
-0.1249 सकता है -0.2928
-0.4260 कह जाती -0.4771
-0.1249 तासीर है -0.5832
-0.1249 सकती </s> -0.6021
-0.1249 चोट खाए 0.0000
-0.1249 अंजाम देने 0.0000
-0.1249 बर्फानी दादा 0.0000
-1.2389 एक एक -0.5763
-0.1249 काट कर -0.5740
-1.8958 के मोर्चे 0.0000
-1.4674 का पहला 0.0000
-0.1249 थमा बैठे 0.0000
-1.2937 के साथ -0.3010
-0.4260 मंत्री ने -0.5740
-0.1249 गर्मी ऑफिस 0.0000
-1.2041 ने कहा -0.3010
-1.8492 है उस -0.3979
-0.6021 जाती हूँ -0.3979
-0.1249 गुणे घबडाता 0.0000
-0.1249 जवाब में -0.5944
-0.4260 लेते थे -0.2041
-0.4260 गई मगर 0.0000
-0.4260 लोगों को -0.5893
-0.1249 साबित हुई -0.3979
-0.1249 अमेरिकी विदेश 0.0000
-2.1249 <s> वह -0.5593
-1.5399 से बढने -0.3979
-0.6021 हुआ </s> -0.6021
-0.1249 तरीके </s> -0.6021
-1.5563 और सहूलियत 0.0000
-2.1249 <s> संभवतः 0.0000
-1.3291 नहीं हुआ -0.4771
-0.6021 आप कई -0.4771
-0.9700 तो पता -0.4771
-0.4260 या बाधा 0.0000
-0.1249 गाते देखकर 0.0000
-1.4674 का जैसे 0.0000
-0.9031 कुछ खास 0.0000
-0.4260 मेरे आगे -0.3979
-1.5399 को अपनी -0.5119
-0.1249 दूर इस -0.5593
-0.1249 रेस्तरां से -0.5893
-0.4260 न कुछ -0.5441
-1.4674 का सदस्य 0.0000
-1.4674 का यकीन 0.0000
-0.1249 एकहै </s> -0.6021
-1.8958 के प्रिय 0.0000
-0.4260 होना चाहिए 0.0000
-0.1249 सिद्दीकी ने -0.5740
-0.1249 देखिए कैसी 0.0000
-1.8958 के वजन 0.0000
-1.1249 कि नीतीश 0.0000
-1.7584 में सिद्दीकी 0.0000
-0.4260 मे छिपकर 0.0000
-0.1249 याज को -0.5763
-0.1249 पहुंच गए -0.4771
-0.9031 कुछ चुनावों 0.0000
-0.7270 ले ली 0.0000
-0.1249 सप्ताहांत में -0.5944
-0.4260 उठ खडा 0.0000
-1.4674 का होना -0.3979
-0.4260 केवल हिन्दू 0.0000
-0.6021 पता लगा 0.0000
-0.6021 लोग आपसी 0.0000
-0.1249 ब्लॉगर आपको -0.3979
-0.1249 बडा साधु 0.0000
-1.1249 लिए कारगर 0.0000
-1.4472 पर पालन 0.0000
-0.3010 आ गये -0.2430
-1.5399 को खरीद 0.0000
-1.5399 से ही -0.5714
-0.1249 शांति स्थापित 0.0000
-0.9031 था बेचारा 0.0000
-0.1249 वाणी व -0.3979
-0.1249 उनका निस्तारण 0.0000
-0.6021 श्री रजनीकांत -0.3979
-0.1249 दे कर -0.5740
-0.4260 आए बौघ 0.0000
-2.1249 <s> तकनीकी 0.0000
-0.1249 खाने की -0.5893
-1.7584 में नहीं -0.5812
-0.1249 तरीका बहुत -0.5315
-0.1249 इंग्लैंड में -0.5944
-0.7270 अपनी पकड 0.0000
-1.8958 के दौरान 0.0000
-2.1249 <s> महिला 0.0000
-2.1249 <s> उच्च 0.0000
-0.1249 कुर्सी से -0.5893
-1.0280 इस आयोजन 0.0000
-0.9031 साथ ट्यूमर -0.3979

\3-grams:
-0.1249 <s> सिक् किम
-0.1249 <s> वैसे आपके
-0.1249 का व्यवहार बढ
-0.1249 जाने पर आम
-0.1249 से ही मँहगाई
-0.1249 अस्पतालों में सैकडों
-0.1249 देखने को मिलते
-0.1249 और नीर क्षीर
-0.1249 को कपडों की
-0.1249 के खिलाफ बचाव
-0.1249 लेती हैं </s>
-0.1249 में अब सस्ते
-0.1249 हुए जब वह
-0.1249 में ऐसे सुपरबग
-0.1249 रूप से घायल
-0.1249 के सभी प्रकार
-0.1249 होने पर विधवाएँपुनः
-0.1249 <s> मैंने अपनी
-0.1249 ये गर्मी ऑफिस
-0.1249 पर पलक ने
-0.1249 अपने सिर के
-0.1249 है शौकिया शायर
-0.1249 सुविधा देता है
-0.1249 ने पूरे मीडिया
-0.1249 आलू और प्
-1.0280 के लिए बेचा
-0.6021 है जो वक्त
-0.1249 को चॉप करें
-0.1249 एक विकट समस्या
-0.1249 बोली का पहला
-0.1249 को बचा लेते
-0.1249 जानते और पहचानते
-0.1249 केवल दो रन
-0.1249 बारे में वो
-0.1249 करा देगा </s>
-0.1249 फिर पांच रूपया
-0.4260 आ गये थे
-0.1249 पल्लव मंत्री सुविसाख
-0.1249 रजनीकांत वाणी व
-0.1249 रजनीकांत की एक
-0.1249 उतर जाती है
-0.1249 भी ऐसे ढंग
-0.1249 सभी समुदायों के
-0.1249 <s> वह किसी
-0.1249 बरसती है वह
-0.1249 ना स्थान की
-0.1249 हूँ आप पर
-0.1249 होते हैं </s>
-1.0280 के लिए कारगर
-0.1249 इस छाल को
-0.1249 दहेज प्रथाविवाह हमारे
-0.1249 मरीजों में ऐसे
-0.1249 पोथियाँ पढ पढकर
-0.1249 प्रकाशित करने की
-0.1249 उसके द्वारा किसी
-0.1249 <s> अतीत को
-0.1249 आनेके समय शुष्क
-0.1249 वे ही घनीभूत
-0.1249 प्यार का जैसे
-0.1249 उमर को लेकर
-0.1249 पलक ने अपनी
-0.1249 के भीतर उतर
-0.1249 उत्पन्न न हो
-0.1249 जाते हैं फूल
-0.1249 शत्रु मित्र औरउदासीन
-0.1249 कह जाती हैं
-0.1249 हमारे समाज की
-0.1249 से शुरू की
-0.1249 <s> एक सूखे
-0.1249 भी मैं जी
-0.1249 हुए पाया था
-0.1249 अन्दर जाकर पूछ्ताछ
-0.1249 <s> इत्ती दूर
-0.1249 ओर फिर उसी
-0.1249 में वही मांग
-0.1249 वहीं बिस्तर पर
-0.1249 उठ खडा हुआ
-0.1249 औरमुझे वे जबर्दस्ती
-0.1249 उन राजनीतिक चेहरों
-0.1249 मजार शरीफ पर
-0.1249 फेसबुक की ये
-0.1249 <s> रजनीकांत की
-0.1249 मछली के मानक
-0.1249 लकडा गई है
-0.4260 रहा था बेचारा
-0.1249 वह भी आ
-0.4260 याज को चॉप
-0.1249 मंत्री ने कहा
-0.1249 हैं मोहित हो
-0.1249 स्थानीय भाषाओं के
-0.1249 लेकिन एक सार्वजनिक
-0.1249 सेक्स के लिए
-0.1249 ली थी </s>
-0.6021 जीवन में कोई
-0.1249 शिक्षक दिवस कव्वाली
-0.1249 पहले पेड लगाओ
-0.1249 से पारिवारिक शांति
-0.1249 करें और उसमें
-0.1249 साधु चित्त व्यक्ति
-0.1249 है ना ही
-0.1249 करी जा रही
-0.1249 सबके लिए संभव
-0.1249 हो जाने पर
-0.1249 में तेल गरम
-0.1249 से जुडे विलासिता
-0.7270 के साथ रह
-0.1249 फिर उसी विचित्र
-0.1249 का उन्हें क्या
-0.1249 कर पार्टी का
-0.1249 टीम अकमल बंधुओं
-0.1249 तरह श्री राम
-0.1249 पत्नी को स्वयं
-0.1249 सीधे लोगों के
-0.1249 तो वह तब
-0.1249 सहजता से कह
-0.1249 घर ले गये
-0.1249 शायद यही वजह
-0.1249 मन्त्र को सफल
-0.1249 बराक प्रक्षेपास्त्र प्रणाली
-0.1249 <s> जिसमें अभिभाषक
-0.1249 लिए करते हैं
-0.1249 संभवतः उसके द्वारा
-0.1249 गैरजरूरी विवाद में
-0.1249 आपको यह सब
-0.1249 की तो पता
-0.1249 अकीदत का नजराना
-0.1249 <s> भावार्थ पोथियाँ
-0.1249 हम सब अपने
-0.1249 कर लकडा गई
-0.1249 ये नही कहा
-0.1249 में अपवाद छोड
-0.1249 अनुभूति प्राप्त होनेके
-0.6021 के बाद प्रकट
-0.1249 ने जांच में
-0.1249 को अंजाम देने
-0.1249 पाकिस्तान टीम अकमल
-0.1249 इस कारण ही
-0.1249 है वह धन्य
-0.1249 मोहित हो जाती
-0.1249 गाने भी पसंद
-0.1249 को बढावा देना
-0.1249 समय से हो
-0.1249 सिर के बचाव
-0.1249 बनाए थे </s>
-0.1249 प्रभावित हो जाते
-0.1249 उन कम ग्रेड
-0.4260 करने के निर्देश
-0.1249 कर शिक्षिकाओं ने
-0.1249 मुकदमे दर्ज भी
-0.1249 आम के पौधे
-0.1249 ज्ञान के बाद
-0.1249 होना आवश्यक है
-0.1249 जोधपुर भेजा गया
-0.1249 सिसौदिया सलाहकार के
-0.1249 गंभीर रूप से
-0.1249 उन्हें क्या पता
-0.1249 हैं मेरे सामने
-0.1249 <s> उद्योग धन्धों
-0.1249 से बनाने का
-0.1249 लोगों को अपनी
-0.1249 पांच रूपया दे
-0.1249 इस सप्ताहांत में
-0.1249 सामने मैं उनकी
-0.1249 और उसमें प्
-0.1249 बन चुकी है
-0.1249 छिपकर पोजीशन ले
-0.1249 आशंका है </s>
-0.1249 उनकी मदद नहीं
-0.6021 में कोई ना
-0.1249 लिए कारगर साबित
-0.1249 बनाते हैं </s>
-0.1249 सिंधिया उन राजनीतिक
-0.1249 नजराना पेश किया
-0.1249 दो दिनों में
-0.1249 के विकास को
-0.4260 आ गये हैं
-0.1249 अवमानना के भयंकर
-0.1249 <s> मजार शरीफ
-0.1249 कि यातायात में
-0.1249 मैं कुर्सी से
-0.1249 रंगत और कहां
-0.1249 बढने की आशंका
-0.1249 कहकर वह अपनी
-0.1249 पर मुँह के
-0.1249 का सामर्थ्य अथाह
-0.1249 कुछ न कुछ
-0.1249 ना ही धर्मकी
-0.1249 से आपको यह
-0.1249 भयंकर परिणाम देखने
-0.1249 राहुल बजाज बहुत
-0.1249 दलितों पर किया
-0.1249 हरभजन की गेंद
-0.1249 अलावा शैक्षणिक अत्याचार
-0.1249 कर लेते थे
-0.1249 सस्ते संश्लिष्ट प्लास्टिकों
-0.4260 हो गया है
-0.1249 बनवासमें पहना था
-0.1249 का नजराना पेश
-0.1249 जी तोड मेहनत
-0.1249 लडकी ने मजबूर
-0.1249 अपने दुश्मन की
-0.7270 है कि किसी
-0.1249 चाहते हैं </s>
-0.1249 वह अपनी बेटी
-0.1249 धन्य हो जाता
-0.1249 सौ गुणे घबडाता
-0.1249 लेट गये और
-0.1249 वो ज्यादा जरूरी
-0.1249 के हेलीकॉप्टर से
-0.1249 रखना उस ने
-0.1249 लिए मन्नत मांगी
-0.1249 कॉर्नर शॉट के
-0.1249 में सभी समुदायों
-0.1249 मे समेटता हुआ
-0.1249 इसके स्थान में
-0.1249 घटना को अंजाम
-0.1249 प्रथम पति की
-0.1249 आए बौघ हरभजन
-0.1249 घटाने के बजाय
-0.1249 कर मना कर
-0.1249 श्री सिसौदिया सलाहकार
-0.1249 ऐसे सुपरबग के
-0.4260 ना कोई चोट
-0.1249 से घायल चारों
-0.1249 किया जाता है
-0.1249 देखते हुए पाया
-0.1249 अफसाना प्यार का
-0.1249 जब एक एक
-0.1249 को लेकर जारी
-0.1249 रवि मैं सुमन
-0.1249 विधवाएँपुनः शादी कर
-0.1249 महाकाव्य माना गया
-0.1249 काफी पहले से
-0.1249 जाकर फिर से
-0.1249 से देखते हुए
-0.1249 की भी कम
-0.1249 सीख लिया है
-0.1249 पूरे मीडिया को
-0.1249 के सहयोग से
-0.4260 फिर से नहाना
-0.4260 की एक विकट
-0.1249 अँधेरे में राहुल
-0.1249 बिस्तर पर लेट
-0.1249 भी नहीं पहनते
-0.1249 अभी भी आशावान
-0.1249 अतीत को सहेजकर
-0.1249 दूसरे दिन भैया
-0.1249 हो जाता है
-0.1249 कुण्डी खडका ही
-0.1249 देखा है कि
-0.1249 व्यवहारिकता में उससे
-0.1249 में दिन रात
-0.1249 फेरबदल को खानापूर्ति
-0.1249 की सीमा है
-0.1249 कैच थमा बैठे
-0.1249 के मूल में
-0.1249 और दामाद को
-0.1249 सिंगापुर में फादर्स
-0.1249 इस वीराने में
-0.1249 उन्हें ब्रेन ट्यूमर
-0.1249 मेरे आगे कुछ
-0.4260 प्रकार के लिए
-0.1249 आपके सवाल के
-0.1249 भूरा होने तक
-0.1249 नयी सुविधा स्काइप
-0.4260 <s> उन्होंने देहरादून
-0.8239 <s> इस आयोजन
-0.1249 ही बनाए थे
-0.1249 नियंत्रण तो वह
-0.1249 लिए नौसेना ने
-0.1249 के भयंकर परिणाम
-0.1249 वीराने में दिन
-0.1249 भगत सिह चन्द्रशेखर
-0.1249 से सहारनपुर जानेवाली
-0.1249 के लोग आपसी
-0.1249 वैसे आपके सवाल
-0.1249 पत्र पढने के
-0.1249 उसकी दृष्टि में
-0.1249 घबडाता हैं </s>
-0.1249 पेश किया और
-0.1249 ना हो </s>
-0.1249 अभिभाषक श्री रजनीकांत
-0.1249 गुणे घबडाता हैं
-0.1249 यह पत्र पढने
-0.4260 कहा कि हमें
-0.1249 से भी मैं
-0.1249 एक फिल्म में
-0.1249 ही देता है
-0.1249 और बातें करने
-0.1249 भारत में गरीबी
-0.1249 को कैच थमा
-0.7270 के साथ तुलना
-0.1249 में सामंजस्य भी
-0.1249 अतिरिक्त और कुछ
-0.1249 की मजबूती के
-0.1249 अवस्था में किशोर
-0.4260 है इसलिए चाय
-0.1249 में फादर्स डे
-0.1249 का चित्रण कल्पना
-0.1249 को गीत गाते
-0.1249 धोनी को कैच
-0.1249 मदद नहीं कर
-0.1249 खरीद लिया है
-0.1249 की गयी है
-0.1249 से सूक्ष्म ऊर्जा
-0.1249 देने के बाद
-0.4260 <s> ऐसे कई
-0.1249 तने से अलग
-0.1249 उनके विरोध और
-0.1249 उन्होंने तस्करों को
-0.1249 लिए हेलमेट भी
-0.6021 <s> इसके स्थान
-0.1249 आजादी के बाद
-0.1249 ने दिखाया अपना
-0.1249 के खेल से
-0.8239 <s> इस अँधेरे
-0.1249 प्रगति सबके काम
-0.1249 अगर ऐसे ही
-0.1249 श्रीकृष्णकी अनुभूति प्राप्त
-0.1249 तस्वीरों पर क्लिक
-0.1249 <s> घटना को
-0.1249 <s> उस से
-0.1249 बेचा जा रहा
-0.1249 ऑफलाइन बाजार के
-0.1249 गई मगर कोई
-0.1249 अपने व्यवसाय ऑफलाइन
-0.1249 तो बडा साधु
-0.1249 ही उन्हें टिकप
-0.1249 निर्देशों पर पालन
-0.1249 <s> तरीका बहुत
-0.1249 लगा कि गलत
-0.3010 गया है </s>
-0.1249 <s> तकनीकी प्रगति
-0.1249 वही मांग थी
-0.1249 कम ग्रेड के
-0.1249 वरिष्ठ राजनीतिज्ञ को
-0.1249 या नहीं </s>
-0.1249 फिल्म में उन्हें
-0.1249 फैशन और लाइफ
-0.1249 करना चाहिये अनायास
-0.1249 <s> से कम
-0.1249 बंदूको के साथ
-0.1249 <s> सबसे अच्छा
-0.1249 की शिक्षक दिवस
-0.1249 सत्ता की चाबी
-0.1249 दामाद को बचा
-0.1249 लिए बेचा जा
-0.1249 आशावान है </s>
-0.1249 शारीरिक एवंमानसिक परिवर्तन
-0.1249 मंत्री सुविसाख ने
-0.1249 सौ रुपये कर्ज
-0.1249 और लाइफ स्टाइल
-0.1249 किए जाएंगे </s>
-0.1249 फुटेज दिखाने का
-0.8239 सकता है कि
-0.1249 शुष्क मौसम का
-0.7270 देता है जो
-0.1249 मेहनत करके लड
-0.1249 जाती हूँ आप
-0.1249 पास ही रही
-0.1249 प्रोजेक्ट में कोई
-0.1249 सिक् किम में
-0.1249 पाकिस्तान ने आतंकवाद
-0.1249 साबित हुई है
-0.1249 गाते देखकर दर्शक
-0.1249 के मानक वाहक
-0.1249 उथल पुथल और
-0.1249 स्वयं मे समेटता
-0.1249 श्री रजनीकांत वाणी
-0.1249 छोड दें तो
-0.1249 के दोनों ओर
-0.1249 करें पैन में
-1.0280 के लिए हेलमेट
-0.1249 <s> वही जो
-0.1249 भगवान भगवान का
-0.1249 कि ज्यादातर लोग
-0.4260 <s> आप कई
-0.1249 जांच में पाया
-0.1249 वह उठ बैठा
-0.1249 प्लास्टिकों का व्यवहार
-0.1249 शौकिया शायर है
-0.1249 जून के तीसरे
-0.1249 बांध को फिर
-0.1249 व्यवहार बढ रहा
-0.1249 इसलिए उनकी कृपा
-0.1249 विकास को बढावा
-0.1249 शादी कर लेती
-0.1249 लिए तुम घर
-0.1249 इतनी रकम </s>
-0.1249 किया और मुल्क
-0.1249 वही जो करना
-0.1249 एवं स्थानीय भाषाओं
-0.1249 सलाहकार के रूप
-0.1249 <s> को कॉर्नर
-0.7270 है कि ज्यादातर
-0.1249 उपाध्याय हरिऔध के
-0.1249 रह रहा है
-0.6021 के बाद माओवादी
-0.1249 यातायात में कोई
-0.1249 भेजा गया है
-0.1249 समुदायों के लोग
-0.1249 सवाल के जवाब
-0.1249 तब हुए जब
-0.1249 जब वह विधायक
-0.1249 भी अपने ब्लॉग
-0.1249 भावार्थ पोथियाँ पढ
-0.1249 महिला शब्द में
-0.4260 पहले से पाए
-0.1249 विचित्र भाव से
-0.1249 उन्होंने केवल दो
-0.1249 सुविधा स्काइप के
-0.1249 ब्लॉग प्रकाशित करने
-0.1249 सूखे मेवे वाला
-0.1249 मीडिया को खरीद
-0.1249 नही कहा की
-0.1249 आतंकवाद और अलगाववाद
-0.1249 लेकर जारी गैरजरूरी
-0.1249 पाले से प्रभावित
-0.1249 से प्यार हो
-0.1249 कट करें </s>
-0.1249 <s> मलाला के
-0.1249 उतर आए हैं
-0.1249 <s> वो ज्यादा
-0.1249 जिस पर बरसती
-0.1249 पैदा करती है
-0.1249 ने मजबूर हो
-0.1249 <s> राजधानी में
-0.1249 डे जून के
-0.1249 <s> पता नहीं
-0.1249 विद्यालय की शिक्षक
-0.1249 भी आशावान है
-0.1249 जबर्दस्ती घर ले
-0.6021 करते हैं </s>
-0.1249 को खडी बोली
-0.1249 के शारीरिक एवंमानसिक
-0.1249 मलाला के लफ्ज
-0.1249 यहां कम उम्र
-0.1249 ऐनक पाने की
-0.1249 बीमार तब हुए
-0.1249 साइकिल ले लेता
-0.1249 जाती हैं मोहित
-0.1249 जो सीधे लोगों
-0.1249 आओगे भी या
-0.1249 ऑतकवादी थे </s>
-0.1249 किसी प्रोजेक्ट में
-0.1249 व्याकरणिक लिंग के
-0.1249 कि यदि भ्रष्टाचार
-0.1249 चुकी है </s>
-0.1249 दरअसल यह कहकर
-0.4260 <s> ऐसे लोग
-0.1249 <s> प्रेक्षण में
-0.1249 सुपरबग के संक्रमण
-0.1249 <s> दहेज प्रथाविवाह
-0.1249 पाया लडकी ने
-0.1249 कम हो जाने
-0.1249 कैबिनेट में फेरबदल
-0.1249 ढूँढते हैं </s>
-0.1249 चुनावों में अपवाद
-0.1249 कर सकता है
-0.1249 चाय बनाना सबके
-0.1249 रूकवाट या बाधा
-0.1249 प्रक्षेपास्त्र प्रणाली लगाने
-0.1249 किम में सभी
-0.1249 स्थापित नहीं हो
-0.1249 खिलाफ बचाव के
-0.1249 अकमल बंधुओं कामरान
-0.1249 पर होते हुए
-0.7270 देता है और
-0.1249 समान होना चाहिए
-0.1249 मैं नहीं मानता
-0.1249 कोई चोट खाए
-0.1249 लोग आपसी सद्भवाव
-0.1249 की तरह श्री
-0.1249 उन्हीं का साथ
-0.1249 मैं सुमन वहीं
-1.0280 के लिए नौसेना
-0.1249 सद्भवाव से रहते
-0.1249 कल्पनाओं में जितनी
-0.1249 मांग थी जमीन
-0.1249 आपसी सद्भवाव से
-0.1249 तो एक दिन
-0.1249 विधायक बने </s>
-0.1249 को सहेजकर रखना
-0.1249 यहां थोडा बहुत
-0.1249 जवान मौके पर
-0.1249 रख देता है
-0.1249 लडकियों को सेक्स
-0.1249 जमीन जोतनेवाले की
-0.1249 जा रही थीं
-0.1249 के वजन पर
-0.1249 के तरीके </s>
-0.1249 भगवान श्रीकृष्णकी अनुभूति
-0.1249 अधिक बेकारी पैदा
-0.1249 सार्वजनिक अवकाश नहीं
-0.1249 को ललकारा </s>
-0.1249 और सहूलियत पर
-0.1249 लिंग के अलावा
-0.1249 ऑफिस जाकर फिर
-0.1249 अपनी पकड नहीं
-0.1249 शेर भी कह
-0.1249 बढावा देना चाहि
-0.1249 एक अच्छी साइकिल
-0.1249 कि यहां कम
-0.1249 स्थान में अब
-0.1249 कैसे कराह रहा
-0.1249 तलाश एक दूसरे
-0.1249 से करने के
-0.1249 रही थीं </s>
-0.1249 उन्होंने कहा कि
-0.1249 घनीभूत होकर मन्त्र
-0.1249 पूछ्ताछ की तो
-0.1249 दृष्टि में समान
-0.1249 में शामिल रहे
-0.1249 उत्पाद प्रदर्शित किए
-0.1249 पर ये गर्मी
-0.1249 मूल में वही
-0.1249 <s> सिंगापुर में
-0.1249 वजह है कि
-0.1249 की गेंद पर
-0.1249 यही वजह है
-0.1249 बौघ हरभजन की
-0.1249 कैसे सत्यों को
-0.1249 में अमन व
-0.1249 मौके पर पहुंच
-0.1249 के पल्लव मंत्री
-0.1249 बेचारा जब एक
-0.1249 ओर उगीझाडियों मे
-0.1249 दिन भैया आ
-0.1249 किसी उच्चश्रेणी के
-0.4260 और वे ही
-0.1249 रूप ले लेता
-0.1249 सबसे अच्छा करने
-0.1249 चाहिये अनायास वह
-0.1249 बिकना पश्चिमी नकल
-0.1249 जो अपने क्षेत्र
-0.1249 <s> अगर ऐसे
-0.1249 स्थान की सीमा
-0.1249 भविष्य एक बारे
-0.1249 की चीज रख
-0.1249 तत्काल बाद गश्त
-0.1249 गुणगान करने वालों
-0.1249 कुर्सी से उठ
-0.1249 एक स्वतंत्र क्रिया
-0.1249 की रंगत और
-0.1249 कि गलत जगह
-0.1249 आसान है इसलिए
-0.1249 के संक्रमण काफी
-0.1249 और उन्होंने तस्करों
-0.1249 में सैकडों मरीजों
-0.1249 आगे कुछ न
-0.1249 अपना कला कौशलजौहर
-0.1249 होती है </s>
-0.1249 पचास कोमिलाकर दो
-0.1249 में गरीबी के
-0.1249 या बाधा उत्पन्न
-0.1249 कर दिया </s>
-0.1249 में प्रत्यक्ष एक
-0.1249 रही भोली भाली
-0.1249 कोमिलाकर दो सौ
-0.1249 बखूबी जानते और
-0.1249 पर लौट कर
-0.1249 ट्यूमर उन कम
-0.1249 अपने क्षेत्र को
-0.1249 थोडा बहुत बिकना
-0.1249 काशी केवल हिन्दू
-0.1249 सभी को उसकी
-0.1249 और मुल्क में
-0.1249 दौरान कुछ बच्चे
-0.1249 बजाय लगातार और
-0.1249 पुथल और असन्तोष
-0.1249 <s> कोई ना
-0.1249 मन्नत मांगी </s>
-0.4260 <s> पहले से
-0.1249 हमें हिंदी एवं
-0.6021 करते हैं उपवास
-0.1249 मनाया जाता है
-0.1249 सजावटी मछली के
-0.1249 से एक है
-0.1249 और लगभग रोगों
-0.1249 ने कहा कि
-0.1249 घर पर लौट
-0.1249 ने बराक प्रक्षेपास्त्र
-0.8239 <s> इस कारण
-0.1249 वजन पर सटीक
-0.1249 थी इस शादी
-0.1249 करने वालों की
-0.1249 एक कट करें
-0.1249 विकट समस्या बन
-0.1249 हुए देखना चाहते
-0.1249 माधुर्य है इसलिए
-0.1249 कोई कुण्डी खडका
-0.1249 दुविधाग्रस्त था </s>
-0.1249 ब्रेन ट्यूमर होता
-0.1249 से प्रभावित हो
-0.1249 चिकित्सा बहुत उपयोगी
-0.1249 बार कैसे कैसे
-0.1249 और अनुभूति नहीं
-0.1249 बेकारी पैदा करती
-0.1249 इतनी सहजता से
-0.1249 हुए तो उनका
-0.1249 बहुत आसान है
-0.1249 हरिऔध के प्रिय
-0.1249 को सेना के
-0.1249 जाती है </s>
-0.1249 दिनों में फुटेज
-0.1249 लिए संभव है
-0.1249 उसी विचित्र भाव
-0.1249 <s> अन्दर जाकर
-0.1249 को खानापूर्ति मान
-0.1249 मैं उनकी मदद
-0.1249 के अतिरिक्त और
-0.1249 आप पर </s>
-0.1249 सदस्य बनो </s>
-0.1249 इन पचास कोमिलाकर
-0.1249 को फिर से
-0.1249 में राहुल बजाज
-0.1249 सप्ताहांत में प्रदूषण
-0.1249 गति में सामंजस्य
-0.1249 सुविसाख ने किया
-0.1249 बोझ घटाने के
-0.1249 सहारनपुर जानेवाली सडक
-0.1249 उपयोगी है और
-0.1249 पहुंच गए और
-0.1249 में समान होना
-0.6021 है जो अपने
-0.1249 कि प्रथम पति
-0.7270 है कि प्रथम
-0.1249 ऐसे ढंग से
-0.1249 जरिए भी अपने
-0.1249 उसमें प् याज
-0.1249 को इतनी सहजता
-0.1249 लगाने का फैसला
-0.1249 <s> ﻿लडाई के
-0.1249 जवाब में सिद्दीकी
-0.1249 क्षीर विवेक का
-0.1249 को उसकी दृष्टि
-0.1249 एक्यूप्रेशर चिकित्सा बहुत
-0.6021 <s> इसके तत्काल
-0.1249 किताबों का यहां
-0.1249 में नहीं करते
-0.4260 याज को भूरा
-0.1249 भी हुए तो
-0.1249 भाषाओं के विकास
-0.1249 हैं एक अच्छी
-0.1249 सब अपने अपने
-0.1249 से पाए जा
-0.1249 पर बरसती है
-0.1249 <s> बांध को
-0.1249 बहुत अकेला अशक्त
-0.1249 जा रहे हैं
-0.1249 मँहगाई की मार
-0.1249 <s> जुलूस का
-0.1249 वह विधायक बने
-0.1249 विकास भी भारत
-0.1249 उन्होंने देहरादून से
-0.1249 और पहचानते हैं
-0.1249 पाया कि यहां
-0.1249 पेड लगाओ फिर
-0.1249 ने अपनी पकड
-0.1249 जितनी आनन्दानुभुति लेता
-0.1249 समस्या बन चुकी
-0.1249 <s> संभवतः उसके
-0.1249 बर्फानी दादा के
-0.1249 एक है जो
-0.1249 भी भारत में
-0.1249 कामरान और उमर
-0.1249 पर पहुंच गए
-0.1249 मान रहे हैं
-0.1249 कई ताजे प्रकरण
-0.1249 रेस्तरां से आपको
-0.1249 में तेजी से
-0.1249 की ये नयी
-0.1249 में फेरबदल को
-0.1249 वाहक के रूप
-0.1249 ही आजादी के
-0.1249 पर सटीक ऐनक
-0.1249 से हो गया
-0.4260 लेता है व्यवहारिकता
-0.1249 प्यार हो सकता
-0.1249 <s> आलू और
-0.1249 पहचानते हैं </s>
-0.1249 पारिवारिक शांति स्थापित
-0.1249 शरीफ पर अकीदत
-0.1249 का इंतजाम भी
-0.6021 करते हैं बल्कि
-0.1249 सहूलियत पर होते
-0.1249 हो कर मना
-0.1249 नहीं छोडी </s>
-0.6021 है जो सीधे
-0.1249 नाना प्रकार के
-0.1249 थमा बैठे जब
-0.1249 पहली बार बीमार
-0.1249 संतान होने पर
-0.1249 एक दूसरे से
-0.1249 उनकी कृपा जिस
-0.1249 एक डाल काट
-0.1249 तुलना में तेजी
-0.1249 जारी गैरजरूरी विवाद
-0.1249 वाले होते हैं
-0.1249 अकेला अशक्त और
-0.1249 की गुंजाइश हो
-0.6021 में कोई रूकवाट
-0.1249 पालन की गुंजाइश
-0.1249 नहीं यह पत्र
-0.1249 और अलगाववाद से
-0.1249 व भाईचारे की
-0.1249 में मैंने देखा
-0.1249 आशय है कि
-0.1249 कम ऐश नहीं
-0.1249 कृपा जिस पर
-0.1249 पर भविष्य एक
-0.1249 इसका आशय है
-0.1249 ईमेल के जरिए
-0.1249 दिन वह भी
-0.1249 होकर मन्त्र को
-0.3468 सकता है </s>
-0.1249 भीतर उतर जाती
-0.1249 विवाद में फंसी
-0.1249 रहते हैं </s>
-0.1249 बाधा उत्पन्न न
-0.1249 मेरे सामने मैं
-0.1249 कर उसके तने
-0.1249 कैसे कैसे सत्यों
-0.1249 दिन रात बंदूको
-0.1249 के रेस्तरां से
-0.1249 <s> और नीर
-0.1249 सूख कर लकडा
-0.1249 विदेश मंत्री ने
-0.1249 ऐश नहीं है
-0.1249 तेल गरम करें
-0.1249 लड रहा था
-0.1249 जैसे गाने भी
-0.1249 पेश कर शिक्षिकाओं
-0.1249 में सिद्दीकी ने
-0.1249 नहीं हो सकती
-0.1249 प्रकरण हैं मेरे
-0.1249 का बोझ घटाने
-0.1249 अत्याचार दलितों पर
-0.1249 चॉप करें पैन
-0.1249 जा रहा है
-0.1249 की संतान होने
-0.1249 बेहतरीन उत्पाद प्रदर्शित
-0.6021 गया है उस
-0.1249 सब सजावटी मछली
-0.1249 टिप बारिश और
-0.1249 इंग्लैंड में मैंने
-0.1249 क्रिया का रूप
-0.1249 ही रही </s>
-0.1249 यह कहकर वह
-0.1249 हुआ बोला </s>
-0.1249 पर नरेश का
-0.1249 नीर क्षीर विवेक
-0.1249 ﻿लडाई के दौरान
-0.1249 आनन्दानुभुति लेता है
-0.1249 दूसरे से प्यार
-0.1249 खर्च हुई इतनी
-0.1249 पता लगा कि
-0.1249 डीपीएस विद्यालय की
-0.1249 हैं फूल आनेके
-0.1249 में उन्हें ब्रेन
-0.1249 चीज रख देता
-0.1249 <s> इसका आशय
-0.1249 और बढने की
-0.1249 <s> दूसरे दिन
-0.1249 हिंदी एवं स्थानीय
-0.1249 इस अवस्था में
-0.1249 पूर्व प्राचार्य श्री
-0.1249 को सेक्स के
-0.1249 श्री राम ने
-0.1249 होते हुए देखना
-0.1249 सामर्थ्य अथाह ज्ञान
-1.0280 के लिए करते
-0.1249 गयी है </s>
-0.1249 <s> आगे की
-0.1249 के बचाव के
-0.1249 करके देखिए कैसी
-0.1249 मुँह के आकार
-0.1249 खेल से भी
-0.1249 सेना के हेलीकॉप्टर
-0.1249 दादा के जीवन
-0.1249 हूँ पर ये
-0.1249 शुरू की गयी
-0.1249 तो भगवान भगवान
-0.1249 पर आम के
-0.1249 और उनकी अवमानना
-0.1249 वे लोक जीवन
-0.1249 गीत गाते देखकर
-0.1249 एक बारे में
-0.1249 के दौरान कुछ
-0.1249 <s> आतंकवाद और
-0.1249 के मोर्चे पर
-0.1249 प्रकट होता है
-0.1249 किसी प्रकार रोमाभों
-0.1249 आपको ईमेल के
-0.1249 हुई इतनी रकम
-0.1249 पहना था </s>
-0.1249 पर कुछ खास
-0.1249 विलासिता के बेहतरीन
-0.1249 भाईचारे की मजबूती
-0.1249 तरफ आकर्षित कर
-0.1249 अमन व भाईचारे
-0.1249 करती है </s>
-0.1249 बाद आए बौघ
-0.1249 आप कई बार
-0.1249 में फुटेज दिखाने
-0.1249 समाज की एक
-0.1249 देखकर दर्शक मंत्रमुग्ध
-0.1249 <s> क्योंकि वे
-0.1249 रूपया दे कर
-0.4260 <s> आप की
-0.1249 रोमाभों की गति
-0.1249 मदद प्रकाश देख
-0.1249 कम उम्र लडकियों
-0.1249 दोनों ओर उगीझाडियों
-0.1249 सोना और पत्थर
-0.1249 अनेक कारणों में
-0.1249 पत्थर शत्रु मित्र
-0.1249 व्यवसाय ऑफलाइन बाजार
-0.4260 में से एकहै
-0.1249 नौटियाल पहली बार
-0.1249 बहुत बिकना पश्चिमी
-0.1249 गश्त कर रहे
-0.1249 मरने वाले होते
-0.1249 अपनी बेटी और
-0.1249 उगीझाडियों मे छिपकर
-0.1249 संभव है </s>
-0.1249 वाला नारियल लेकर
-0.1249 कि किसी प्रोजेक्ट
-0.1249 प्रकार रोमाभों की
-0.1249 कोशिश करेंगे </s>
-0.1249 झेल रही भोली
-0.1249 बार बीमार तब
-0.1249 असन्तोष के मूल
-0.1249 को भूरा होने
-0.1249 नहीं करते हैं
-0.1249 में पाया कि
-0.1249 नहीं पहनते </s>
-0.1249 तीर्थस्थल नहीं है
-0.1249 प्राचार्य श्री सिसौदिया
-0.1249 तो पता लगा
-0.1249 गरीबी के अनेक
-0.8239 <s> इस अवस्था
-0.1249 लौट कर आओगे
-0.6021 <s> उनके विरोध
-0.1249 पोजीशन ले ली
-0.1249 सारी उथल पुथल
-0.1249 हो सकता है
-0.1249 <s> अब मैं
-0.1249 कांग्रेस के पास
-0.1249 प् याज को
-0.1249 बातें करने लगे
-0.1249 होनेके लिए ना
-0.6021 जीवन में माधुर्य
-0.1249 राजधानी में इस
-0.1249 को मिलते हैं
-0.1249 मर गई मगर
-0.1249 तो सत्ता की
-0.1249 भी या नहीं
-0.1249 तस्करों को ललकारा
-0.1249 अपनी तरफ आकर्षित
-0.6021 जाता है लेकिन
-0.1249 लगातार और अधिक
-0.1249 उनके बाद आए
-0.1249 पता उपवास तो
-0.3010 रहा है </s>
-0.4260 <s> इन पचास
-0.1249 छाल को कपडों
-0.1249 <s> नियंत्रण तो
-0.1249 पार्टी का सदस्य
-0.1249 करने लगे </s>
-0.1249 प्रणाली लगाने का
-0.1249 पर लेट गये
-0.1249 कुछ खाने की
-0.1249 बाद गश्त कर
-0.1249 कोई घोटाला ना
-0.1249 कल्पना लोक में
-0.1249 लोक में नहीं
-0.1249 एक सूखे मेवे
-0.1249 कोई रूकवाट या
-0.1249 <s> मैने ये
-0.1249 लोग कैबिनेट में
-0.1249 जो करना चाहिये
-0.1249 दिवस कव्वाली नृत्य
-0.1249 आकर्षित कर लेते
-0.1249 ही तीर्थस्थल नहीं
-0.1249 हो जाती हूँ
-0.1249 जरूरी हैं एक
-0.1249 हुआ पर पलक
-0.1249 बच्चे अपने सिर
-0.1249 प्रिय प्रवास को
-0.1249 दुनिया मर गई
-0.1249 में व्याकरणिक लिंग
-0.1249 <s> हमेशा स्वस्थ
-0.1249 का जैसे गाने
-0.1249 बैठे जब उन्होंने
-0.1249 है लेकिन एक
-0.1249 है अपने दुश्मन
-0.1249 माओवादी सडक पर
-0.1249 के अनेक कारणों
-0.1249 यही नहीं ब्लॉगर
-0.1249 के जरिए भी
-0.1249 क्योंकि वे लोक
-0.1249 जो वक्त के
-0.1249 साथ तुलना में
-0.1249 उपवास का उन्हें
-0.1249 कला कौशलजौहर </s>
-0.1249 में फंसी है
-0.1249 के निर्देश दिए
-0.1249 को मनाया जाता
-0.1249 नौसेना ने बराक
-0.1249 वक्त उन्हीं का
-0.1249 सब उपलब्ध करा
-0.1249 किया था </s>
-0.1249 मंत्रमुग्ध हो गए
-0.1249 मगर कोई पण्डित
-0.1249 मे छिपकर पोजीशन
-0.1249 कहां खर्च हुई
-0.1249 हमले के खिलाफ
-0.1249 सफल बनाते हैं
-0.1249 शिक्षिकाओं ने दिखाया
-0.1249 नहीं ब्लॉगर आपको
-0.1249 सैकडों मरीजों में
-0.1249 नेता करते हैं
-0.1249 वे अनेक समझदार
-0.1249 चाबी कांग्रेस के
-0.1249 इंतजाम भी ऐसे
-0.7270 है कि यदि
-0.1249 आयोजन में फैशन
-0.1249 पश्चिमी नकल के
-0.1249 <s> इंग्लैंड में
-0.6021 <s> इसके अलावा
-0.1249 मार झेल रही
-0.1249 में जितनी आनन्दानुभुति
-0.1249 अंग्रेजी किताबों का
-0.1249 अमेरिकी विदेश मंत्री
-0.1249 तुम घर पर
-0.4260 प्रकार के शारीरिक
-0.1249 का सदस्य बनो
-0.1249 ने आतंकवाद के
-0.1249 का साथ देता
-0.1249 ज्यादा जरूरी हैं
-0.1249 हेलमेट भी नहीं
-0.1249 आए हैं </s>
-0.1249 अनायास वह उठ
-0.1249 कारगर साबित हुई
-0.1249 नारियल लेकर उस
-0.1249 भोली भाली जनता
-0.1249 हैं उपवास का
-0.1249 हो गए </s>
-0.4260 <s> भगवान श्रीकृष्णकी
-0.4260 ले लेता है
-0.1249 अपने इशारे और
-0.1249 की सुभाषचन्द्र बोस
-0.1249 फूल आनेके समय
-0.1249 व पूर्व प्राचार्य
-0.1249 निर्देश दिए गए
-0.1249 की हो </s>
-0.4260 पहले से ही
-0.1249 का असंतुलित विकास
-0.1249 अनुभूति नहीं होती
-0.1249 है उस पर
-0.1249 अच्छा करने के
-0.1249 न हो </s>
-0.1249 खास करके नहीं
-0.1249 चित्रण कल्पना लोक
-0.1249 से बढने के
-0.1249 ऊर्जा गुच्छ पैदा
-0.1249 सिद्दीकी ने दो
-0.4260 देता है </s>
-0.1249 मेवे वाला नारियल
-0.1249 बाजार के तरीके
-0.1249 पैदा होते है
-0.1249 भ्रष्टाचार के मुकदमे
-0.1249 जा सकता है
-0.4260 फिर से बनाने
-0.6021 <s> उनके मजाक
-0.1249 असंतुलित विकास भी
-0.1249 पाया था </s>
-0.4260 है और वे
-0.1249 बेटी और दामाद
-0.1249 पकड नहीं छोडी
-0.1249 सबके काम का
-0.1249 पाने की कोशिश
-0.1249 <s> वरिष्ठ राजनीतिज्ञ
-0.1249 अनेक समझदार लोगों
-0.1249 क्या पता उपवास
-0.1249 तेजी से बढने
-0.1249 साथ ट्यूमर उन
-0.1249 खडी बोली का
-0.1249 सडक के दोनों
-0.1249 गये हैं </s>
-0.4260 में से एक
-0.1249 के आकार का
-0.1249 पढकर दुनिया मर
-0.1249 मोर्चे पर कुछ
-0.1249 की आशंका है
-0.1249 वे मरने वाले
-0.1249 रोगों के सभी
-0.1249 व्यक्ति ही कर
-0.1249 से अलग करी
-0.1249 <s> रवि मैं
-0.1249 से रहते हैं
-0.1249 भैया आ गये
-0.1249 पर क्लिक करके
-0.1249 सटीक ऐनक पाने
-0.1249 बडा साधु चित्त
-0.1249 कुछ नहीं </s>
-0.1249 घायल चारों जवानों
-0.1249 <s> अमेरिकी विदेश
-0.1249 अवकाश नहीं है
-0.1249 सीमा है ना
-0.1249 कह सकता है
-0.1249 हुई है </s>
-0.1249 ही घनीभूत होकर
-0.1249 सामंजस्य भी उत्पन्न
-0.1249 हवाई हमले के
-0.1249 की तलाश एक
-0.1249 खडा हुआ पर
-0.1249 राजनैतिक नेता करते
-0.1249 मुल्क में अमन
-1.0280 के लिए मन्नत
-0.1249 में नाना प्रकार
-0.1249 स्वतंत्र क्रिया का
-0.1249 चाहि ए </s>
-0.1249 साथ ही उन्हें
-0.1249 पता नहीं यह
-0.1249 बढ रहा है
-0.1249 जब उन्होंने केवल
-0.1249 ले ली थी
-0.1249 मैंने देखा है
-0.1249 का एक कट
-0.1249 की गति में
-0.4260 लेता है </s>
-0.1249 भगवान तो भगवान
-0.1249 बंधुओं कामरान और
-0.1249 शब्द में व्याकरणिक
-0.1249 बचा लेते हैं
-0.1249 मजबूती के लिए
-0.1249 उनका निस्तारण समय
-0.1249 चारों जवानों को
-0.1249 और कुछ नहीं
-0.1249 से नहाना पडेगा
-0.1249 ऐसे कई ताजे
-0.1249 देहरादून से सहारनपुर
-0.1249 दिखाया है </s>
-0.1249 सुमन वहीं बिस्तर
-0.1249 सिह चन्द्रशेखर ऑतकवादी
-0.6021 होता है और
-0.1249 के बजाय लगातार
-0.1249 थोडे बहुत शेर
-0.1249 चोट खाए होते
-0.1249 ट्यूमर होता है
-0.1249 सहेजकर रखना उस
-0.1249 वाले नौटियाल पहली
-0.4260 लिया है पर
-0.1249 के पास ही
-0.1249 धर्म के आस्थावानों
-0.1249 पढ पढकर दुनिया
-0.1249 काट कर उसके
-0.1249 दो सौ रुपये
-0.1249 अलगाववाद से पारिवारिक
-0.1249 पर किया जाता
-0.1249 को कॉर्नर शॉट
-0.1249 पैन में तेल
-0.1249 कपडों की तरह
-0.1249 वह धन्य हो
-0.1249 मानता कि नीतीश
-0.1249 और पत्नी को
-0.1249 दर्ज भी हुए
-0.4260 ना कोई कुण्डी
-0.1249 होते है और
-0.1249 चित्त व्यक्ति ही
-0.1249 करके नहीं दिखाया
-0.1249 मानक वाहक के
-0.1249 बल्कि आस पास
-0.1249 और असन्तोष के
-0.1249 भाली जनता सूख
-0.1249 बहुत उपयोगी है
-0.1249 के पौधे पाले
-0.1249 रुद्रदमन के पल्लव
-0.1249 वे जबर्दस्ती घर
-0.1249 आप की तलाश
-0.1249 तासीर है जो
-0.1249 स्वस्थ रहने वाले
-0.1249 राजनीतिज्ञ को गीत
-0.1249 यह सब उपलब्ध
-0.1249 अथाह ज्ञान के
-0.1249 <s> हवाई हमले
-0.1249 सूख सूख कर
-0.1249 इस शादी की
-0.1249 बनाने का काम
-0.1249 हो सकती </s>
-0.1249 की मदद प्रकाश
-0.1249 प्रदूषण और बढने
-0.1249 और प् याज
-0.1249 भी बनवासमें पहना
-0.1249 का ही तीर्थस्थल
-0.1249 गये और बातें
-0.1249 शांति स्थापित नहीं
-0.1249 ऐसे लोग सबकुछ
-0.1249 में वह जादुई
-0.1249 सत्यों को इतनी
-0.1249 <s> अंग्रेजी किताबों
-0.1249 अपने जीवन में
-0.1249 <s> बर्फानी दादा
-0.1249 थी जमीन जोतनेवाले
-0.1249 मजबूर हो कर
-0.1249 जनता सूख सूख
-0.1249 गई है </s>
-0.1249 में माधुर्य है
-0.1249 ब्लॉगर आपको ईमेल
-0.1249 मैंने अपनी ओर
-0.1249 स्काइप के सहयोग
-0.1249 सुनहरीमछली सब सजावटी
-0.1249 ही चलता रहा
-0.1249 आगे की तस्वीरों
-0.1249 की मार झेल
-0.1249 आस्थावानों का ही
-0.3010 जाता है </s>
-0.1249 उठ बैठा और
-0.1249 रहे जवान मौके
-0.1249 की सुविधा देता
-0.1249 गरम करें और
-0.1249 नहाना पडेगा </s>
-0.1249 कहा की सुभाषचन्द्र
-0.1249 से कम हो
-0.1249 लगभग रोगों के
-0.1249 केवल हिन्दू धर्म
-0.4260 करने के लिए
-0.1249 यदि भ्रष्टाचार के
-0.1249 वह तब करे
-0.1249 भी कम ऐश
-0.7270 है और लगभग
-0.1249 यकीन दिलाया </s>
-0.1249 प्रथाविवाह हमारे समाज
-0.1249 के आस्थावानों का
-0.4260 है इसलिए उनकी
-0.1249 रहा तो एक
-0.1249 बैठा और पत्नी
-0.4260 ले लेता हूँ
-0.1249 को खरीद लिया
-0.1249 का फैसला किया
-0.1249 जिसमें अभिभाषक श्री
-0.1249 बचाव के लिए
-0.1249 उच्च ग्रेड के
-0.1249 कई बार कैसे
-0.1249 जुलूस का इंतजाम
-0.1249 संक्रमण काफी पहले
-0.1249 रहने वाले नौटियाल
-0.1249 की तस्वीरों पर
-0.1249 लेते हैं </s>
-0.1249 मैने ये नही
-0.1249 और अधिक बेकारी
-0.1249 वाणी व पूर्व
-0.1249 काम का बोझ
-0.1249 जादुई तासीर है
-0.1249 डाल काट कर
-0.1249 मना कर दिया
-0.1249 खाने की चीज
-0.1249 तोड मेहनत करके
-0.1249 बाद के कुछ
-0.1249 दो रन ही
-0.1249 <s> ज्योतिरादित्य सिंधिया
-0.1249 होने तक फ्राई
-0.1249 सुभाषचन्द्र बोस भगत
-0.1249 मैं जी तोड
-0.1249 गर्मी ऑफिस जाकर
-0.1249 दिखाया अपना कला
-0.1249 परिणाम देखने को
-0.4260 <s> पहले पेड
-0.1249 कर्ज हो गया
-0.1249 जुडे विलासिता के
-0.1249 लिए ना स्थान
-0.1249 बढने के लिए
-0.1249 <s> सुनहरीमछली सब
-0.1249 ज्योतिरादित्य सिंधिया उन
-0.1249 कारण वे अनेक
-0.1249 बहुत शेर भी
-0.1249 देखिए कैसी थी
-0.1249 के तीसरे रविवार
-0.1249 <s> कैसे कराह
-0.1249 परिवर्तन होते हैं
-0.1249 होना चाहिए </s>
-0.1249 एवंमानसिक परिवर्तन होते
-0.1249 गुंजाइश हो </s>
-0.1249 स्टाइल से जुडे
-0.1249 का रूप ले
-0.1249 कर रहे जवान
-0.1249 इशारे और सहूलियत
-0.1249 साथ चलते हैं
-0.7270 के साथ ट्यूमर
-0.1249 देना चाहि ए
-0.1249 ने भी बनवासमें
-0.6021 में कोई घोटाला
-0.1249 कोई ना कोई
-0.1249 न कुछ खाने
-0.1249 के जवाब में
-0.1249 और कहां खर्च
-0.1249 खडका ही देता
-0.1249 हिन्दू धर्म के
-0.1249 ये नयी सुविधा
-0.1249 पर अकीदत का
-0.1249 अब सस्ते संश्लिष्ट
-0.6021 के बाद के
-0.1249 आवश्यक है </s>
-0.1249 जाकर पूछ्ताछ की
-0.1249 कुछ बच्चे अपने
-0.1249 <s> वक्त उन्हीं
-0.1249 के कई अस्पतालों
-0.1249 लगाओ फिर पांच
-0.1249 में फैशन और
-0.1249 में इस सप्ताहांत
-0.1249 और पत्थर शत्रु
-0.1249 रहे हैं </s>
-0.1249 इन गुणों के
-0.4260 की एक फिल्म
-0.1249 को बखूबी जानते
-0.1249 किशोर में नाना
-0.1249 की कोशिश करेंगे
-0.1249 धन्धों का असंतुलित
-0.4260 रूप में शामिल
-0.1249 जवानों को सेना
-0.1249 पढने के लिए
-0.1249 मैट ने जांच
-0.1249 शामिल रहे </s>
-0.1249 और अफसाना प्यार
-0.1249 की चाबी कांग्रेस
-0.1249 पास के जीवन
-0.1249 दुश्मन की मदद
-0.1249 उसके तने से
-0.1249 एक दिन वह
-0.1249 निस्तारण समय से
-0.1249 पौधे पाले से
-0.1249 मिलते हैं </s>
-0.1249 गलत जगह आ
-0.1249 <s> एक्यूप्रेशर चिकित्सा
-0.1249 को स्वयं मे
-0.1249 से जोधपुर भेजा
-0.1249 <s> फेसबुक की
-0.1249 भी कह सकता
-0.1249 रविवार को मनाया
-0.1249 में ढूँढते हैं
-0.1249 रात बंदूको के
-0.1249 <s> मैं नहीं
-0.1249 पर पालन की
-0.1249 आकार का एक
-0.1249 अलग करी जा
-0.1249 लोगों के भीतर
-0.1249 औरउदासीन सभी को
-0.1249 चलते हैं </s>
-0.1249 कारणों में से
-0.4260 और वे मरने
-0.1249 उनकी अवमानना के
-0.1249 उसके निर्देशों पर
-0.1249 ग्रेड के साथ
-0.1249 कि नीतीश ने
-0.1249 लाइफ स्टाइल से
-0.1249 जीवन का चित्रण
-0.1249 उद्योग धन्धों का
-0.1249 चेहरों में से
-0.1249 सडक पर उतर
-0.1249 बाद माओवादी सडक
-0.1249 <s> साथ ही
-0.4260 उस पर नरेश
-0.1249 सभी प्रकार के
-0.1249 टिकप टिप बारिश
-0.1249 में उससे सौ
-0.7270 के साथ चलते
-0.1249 <s> शायद यही
-0.1249 अंजाम देने के
-0.1249 नहीं होती है
-0.1249 करने की सुविधा
-0.4260 कहा कि पाकिस्तान
-0.1249 के लफ्ज में
-0.1249 प्रेक्षण में प्रत्यक्ष
-0.1249 भी पसंद हैं
-0.1249 तक फ्राई करें
-0.1249 दें तो सत्ता
-0.3010 होता है </s>
-0.1249 वह जादुई तासीर
-0.1249 काम राजा रुद्रदमन
-0.1249 पण्डित नहीं हुआ
-0.1249 विवेक का सामर्थ्य
-0.1249 ही धर्मकी </s>
-0.1249 अच्छी साइकिल ले
-0.1249 ले गये थे
-0.1249 फ्राई करें </s>
-0.1249 वह किसी उच्चश्रेणी
-0.1249 आ सकता है
-0.1249 विरोध और उनकी
-0.1249 बारिश और अफसाना
-0.1249 घोटाला ना हो
-0.1249 कर पाया लडकी
-0.1249 है थोडे बहुत
-0.1249 अपने ब्लॉग प्रकाशित
-0.1249 करे जब उसके
-0.1249 रुपये कर्ज हो
-0.1249 अपनी ओर फिर
-0.4260 रूप में माना
-0.1249 कराह रहा था
-0.1249 नकल के अतिरिक्त
-0.1249 इसलिए चाय बनाना
-0.1249 दे कर पार्टी
-0.1249 नहीं दिखाया है
-0.4260 रहा था </s>
-0.1249 बाद प्रकट होता
-0.1249 ढंग से करने
-0.1249 चलता रहा तो
-0.1249 प्रवास को खडी
-0.1249 गए कि यातायात
-0.1249 गेंद पर धोनी
-0.1249 खाए होते हैं
-0.1249 उपलब्ध करा देगा
-0.1249 है पर भविष्य
-0.1249 दर्शक मंत्रमुग्ध हो
-0.1249 नृत्य पेश कर
-0.1249 राम ने भी
-0.1249 का होना आवश्यक
-0.1249 के कारण वे
-0.1249 जगह आ गये
-0.1249 मित्र औरउदासीन सभी
-0.1249 अपने अपने जीवन
-0.1249 है व्यवहारिकता में
-0.4260 हो गया </s>
-0.1249 <s> उच्च ग्रेड
-0.1249 पसंद हैं </s>
-0.1249 द्वारा किसी प्रकार
-0.1249 जानेवाली सडक के
-0.1249 से एकहै </s>
-0.1249 <s> काशी केवल
-0.1249 देखना चाहते हैं
-0.1249 इस अँधेरे में
-0.1249 उससे सौ गुणे
-0.1249 पर उतर आए
-0.1249 भी आ सकता
-0.1249 लेते थे </s>
-0.1249 बजाज बहुत अकेला
-0.1249 का काम राजा
-0.1249 भाव से देखते
-0.1249 वो अभी भी
-0.1249 सबकुछ अपने इशारे
-0.1249 दिखाने का यकीन
-0.1249 कुछ खास करके
-0.1249 बोस भगत सिह
-0.1249 <s> अयोध्यासिंह उपाध्याय
-0.1249 क्लिक करके देखिए
-0.1249 के रूप में
-0.1249 कारण ही आजादी
-0.1249 फंसी है </s>
-0.1249 ताजे प्रकरण हैं
-0.1249 ऐसे ही चलता
-0.1249 उत्पन्न होता है
-0.1249 कोई आकर्षण और
-0.1249 में प्रदूषण और
-0.1249 राजा रुद्रदमन के
-0.1249 का यहां थोडा
-0.1249 गुणों के कारण
-0.1249 इसके तत्काल बाद
-0.1249 उम्र लडकियों को
-0.1249 मजाक के खेल
-0.1249 एक एक डाल
-0.1249 करके लड रहा
-0.4260 लिया है </s>
-0.1249 फैसला किया था
-0.1249 में माना जा
-0.1249 <s> अनशन राजनैतिक
-0.1249 और उमर को
-0.1249 उस ने सीख
-0.1249 इसके अलावा शैक्षणिक
-0.1249 वहां के कई
-0.1249 बैठा कल्पनाओं में
-0.1249 इत्ती दूर इस
-0.1249 एक सार्वजनिक अवकाश
-0.1249 तो उनका निस्तारण
-0.1249 के मुकदमे दर्ज
-0.1249 जब उसके निर्देशों
-0.1249 लोग सबकुछ अपने
-0.4260 <s> इन गुणों
-0.1249 कि हमें हिंदी
-0.7270 है और मेरे
-0.1249 माना जा सकता
-0.4260 गये थे </s>
-0.1249 कर लेती हैं
-0.1249 में किशोर में
-0.1249 शॉट के वजन
-0.1249 राजनीतिक चेहरों में
-0.1249 नहीं मानता कि
-0.1249 <s> सारी उथल
-0.1249 का यकीन दिलाया
-0.1249 <s> मैट ने
-0.1249 साथ देता है
-0.1249 समय शुष्क मौसम
-0.4260 गये थे औरमुझे
-0.1249 वक्त के साथ
-0.1249 <s> सोना और
-0.1249 संश्लिष्ट प्लास्टिकों का
-0.8239 सकता है अपने
-0.1249 ने दो दिनों
-0.1249 <s> पाकिस्तान टीम
-0.1249 को सफल बनाते
-0.1249 अब मैं कुर्सी
-0.1249 पर धोनी को
-0.1249 क्षेत्र को बखूबी
-0.1249 प्रदर्शित किए जाएंगे
-0.1249 अयोध्यासिंह उपाध्याय हरिऔध
-0.1249 उनके मजाक के
-0.1249 तब करे जब
-0.1249 बनाना सबके लिए
-0.1249 फादर्स डे जून
-0.1249 <s> वहां के
-0.1249 थे औरमुझे वे
-0.1249 पाए जा रहे
-0.1249 से कह जाती
-0.1249 हो जाते हैं
-0.1249 अपवाद छोड दें
-0.1249 और दुविधाग्रस्त था
-0.1249 से उठ खडा
-0.1249 <s> हम सब
-0.1249 साथ रह रहा
-0.1249 हमेशा स्वस्थ रहने
-0.1249 आकर्षण और अनुभूति
-0.1249 भी उत्पन्न होता
-0.1249 तरीका बहुत आसान
-0.1249 उस से सूक्ष्म
-0.1249 में वो अभी
-0.1249 सूक्ष्म ऊर्जा गुच्छ
-0.1249 के अलावा कोई
-0.1249 गए और उन्होंने
-0.1249 नीतीश ने पूरे
-0.1249 कर आओगे भी
-0.1249 हेलीकॉप्टर से जोधपुर
-0.1249 <s> डीपीएस विद्यालय
-0.1249 <s> दरअसल यह
-0.1249 लिए अपने व्यवसाय
-0.1249 तकनीकी प्रगति सबके
-0.1249 नहीं है </s>
-0.1249 नहीं कर पाया
-0.1249 रन ही बनाए
-0.8239 <s> इस छाल
-0.1249 कव्वाली नृत्य पेश
-0.1249 अशक्त और दुविधाग्रस्त
-0.1249 प्राप्त होनेके लिए
-0.1249 कैसी थी इस
-0.1249 पर विधवाएँपुनः शादी
-0.1249 के जीवन में
-0.1249 हैं बल्कि आस
-0.1249 अनशन राजनैतिक नेता
-0.1249 तीसरे रविवार को
-0.6021 रहा है शौकिया
-0.1249 नरेश का </s>
-0.1249 भगवान का गुणगान
-0.1249 <s> महिला शब्द
-0.1249 उन्हें टिकप टिप
-0.1249 का पहला महाकाव्य
-0.1249 पति की संतान
-0.1249 आतंकवाद के मोर्चे
-0.1249 शायर है थोडे
-0.1249 समेटता हुआ बोला
-0.1249 माना गया है
-0.1249 शैक्षणिक अत्याचार दलितों
-0.1249 शादी की रंगत
-0.1249 सहयोग से शुरू
-1.0280 के लिए तुम
-0.1249 ने किया </s>
-0.1249 ज्यादातर लोग कैबिनेट
-0.1249 को अपनी तरफ
-0.1249 खानापूर्ति मान रहे
-0.1249 उपवास तो बडा
-0.1249 के कुछ चुनावों
-0.1249 <s> गंभीर रूप
-0.1249 दिए गए कि
-0.1249 इस आयोजन में
-0.1249 दूर इस वीराने
-0.1249 नहीं हुआ </s>
-0.1249 ने सीख लिया
-0.1249 <s> बैठा कल्पनाओं
-0.1249 समझदार लोगों को
-0.1249 कि पाकिस्तान ने
-0.1249 के बेहतरीन उत्पाद
-0.1249 प्रकाश देख </s>
-0.1249 का गुणगान करने
-0.1249 लेकर उस पर
-0.1249 <s> यही नहीं
-0.1249 कई अस्पतालों में
-0.1249 प्रत्यक्ष एक स्वतंत्र
-0.1249 कोई पण्डित नहीं
-0.1249 लेता हूँ पर
-0.4260 <s> उन्होंने कहा
-0.1249 उच्चश्रेणी के रेस्तरां
-0.1249 था बेचारा जब
-0.1249 ही मँहगाई की
-0.1249 जोतनेवाले की हो
-0.1249 लोक जीवन का
-0.1249 चन्द्रशेखर ऑतकवादी थे
-0.1249 अलावा कोई आकर्षण
-0.6021 जीवन में ढूँढते
-0.1249 के प्रिय प्रवास
-1.0280 के लिए अपने
-0.4260 <s> भगवान तो
-0.1249 ही कर सकता
-0.1249 पहला महाकाव्य माना
-0.1249 लफ्ज में वह
-0.1249 मौसम का होना
-0.1249 और मेरे आगे
-0.6021 <s> उनके बाद
-0.1249 गुच्छ पैदा होते
-0.1249 आस पास के
-0.1249 कुछ चुनावों में
-0.1249 वालों की भी
-0.4260 उस पर मुँह

\end\
