\data\
ngram 1=873
ngram 2=2279
ngram 3=2449

\1-grams:
-1.2138 <s> -0.5222
-3.6029 दूसरे -0.6014
-2.8248 दिन -0.5970
-3.1258 सवेरे -0.5944
-2.1116 ही -0.5292
-2.1258 रमा -0.5807
-2.3725 ने -0.5874
-2.5615 रमेश -0.5928
-3.1258 बाबू -0.5935
-2.1405 के -0.5939
-2.6487 घर -0.5875
-2.0466 का -0.5827
-3.6029 रास्ता -0.6014
-2.8248 लिया -0.5615
-1.2138 </s> -0.6021
-3.6029 उनके -0.6013
-2.7578 यहां -0.5910
-2.1880 भी -0.5391
-3.6029 जन्माष्टमी -0.5966
-1.9040 में -0.5333
-3.1258 झांकी -0.6009
-2.8248 होती -0.5828
-2.5615 थी -0.5717
-2.7578 उन्हें -0.5896
-3.6029 स्वयं -0.5951
-1.7967 तो -0.5540
-2.9040 इससे -0.5926
-2.6487 कोई -0.5973
-3.6029 अनुराग -0.5970
-1.9402 न -0.5819
-2.3019 था -0.5570
-2.2050 पर -0.5778
-3.1258 उनकी -0.6015
-3.6029 स्त्री -0.6018
-3.3019 उत्सव -0.6018
-3.6029 मनाती -0.6009
-3.6029 उसी -0.5988
-2.1258 की -0.5578
-3.6029 यादगार -0.5966
-2.8248 अब -0.5915
-2.4568 तक -0.5757
-2.2807 यह -0.5876
-3.6029 मनाते -0.6012
-2.6998 जाते -0.5617
-2.6998 थे -0.5719
-2.3242 को -0.5991
-3.6029 देखकर -0.6020
-3.6029 बोले -0.6018
-3.3019 आओ -0.6003
-3.1258 जी -0.6006
-3.3019 रात -0.5989
-2.6029 क्यों -0.5870
-1.8248 नहीं -0.5354
-3.1258 आए -0.5740
-2.6998 मगर -0.5987
-3.6029 गरीबों -0.5989
-3.6029 आते -0.5747
-3.3019 सेठजी -0.5969
-3.0009 कैसे -0.6008
-3.1258 छोड़ -0.5943
-2.9040 देते -0.5605
-3.3019 खूब -0.6018
-3.6029 बहार -0.6017
-3.1258 रही -0.6001
-3.0009 होगी -0.5747
-3.3019 आपकी -0.6013
-3.1258 सी -0.6016
-3.6029 सजावट -0.5951
-2.8248 हां -0.5953
-2.1558 और -0.5828
-3.6029 सालों -0.5979
-2.0231 से -0.5739
-3.3019 अच्छी -0.5900
-3.1258 कई -0.6012
-3.6029 कत्थक -0.5990
-3.1258 वेश्याएं -0.5942
-3.6029 आई -0.6018
-3.3019 थीं -0.5744
-2.2412 मैं -0.5863
-3.0009 चला -0.5933
-3.0009 आया -0.5720
-3.6029 सुना -0.6020
-3.6029 रातभर -0.6020
-3.6029 गाना -0.6006
-2.4890 होता -0.5498
-2.6487 रहा -0.5574
-3.6029 वचन -0.6014
-2.8248 दिया -0.5656
-2.5237 कि -0.5908
-3.6029 आने -0.6020
-3.6029 पावेंगी -0.5747
-3.6029 फिर -0.5998
-2.4568 क्या -0.5556
-2.6998 किया -0.5698
-3.1258 इन -0.6017
-3.6029 मूर्खो -0.5989
-3.6029 हाथों -0.6020
-3.6029 हिन्दू -0.6018
-3.3019 धर्म -0.5979
-3.6029 सर्वनाश -0.5997
-2.2605 हो -0.5575
-3.6029 जायगा -0.5747
-2.4890 एक -0.5883
-3.6029 वेश्याआं -0.5981
-2.7578 नाम -0.5881
-3.1258 यों -0.5964
-2.9040 बुरा -0.5569
-2.9040 उस -0.5988
-3.6029 ठाकुरद्वारे -0.5966
-3.6029 छिः -0.6020
-3.6029 छिः, -0.5970
-2.8248 जाने -0.5887
-3.6029 गधों -0.6000
-3.6029 कब -0.6018
-3.3019 अक्ल -0.6014
-3.6029 आवेगी -0.5747
-2.9040 हों -0.5656
-3.6029 देखने -0.6017
-3.1258 जाय -0.5711
-3.1258 कौन -0.5700
-3.3019 सभी -0.5945
-3.0009 तरह -0.5970
-3.6029 योगी -0.6020
-3.6029 तपस्वी -0.5955
-1.6073 है -0.5377
-3.3019 मेरा -0.6016
-3.1258 वश -0.5967
-2.8248 चले -0.5940
-3.3019 कानून -0.5978
-3.6029 दुराचार -0.6018
-3.3019 बंद -0.6010
-2.6029 कर -0.5989
-3.6029 दूं -0.5747
-3.3019 खैर -0.6016
-3.6029 फुरसत -0.5997
-3.3019 आध -0.6017
-3.6029 बाज़ी -0.5997
-2.8248 रमानाथ -0.5963
-3.6029 किसलिए -0.6003
-2.3988 हूं -0.5568
-2.9040 आज -0.6002
-3.3019 आपको -0.6011
-3.0009 मेरे -0.6003
-3.3019 साथ -0.5981
-2.9040 ज़रा -0.5981
-3.3019 सराफे -0.6005
-3.6029 चलना -0.6018
-3.3019 पड़ेगा -0.5747
-2.9040 बडी -0.6009
-3.6029 कोठियों -0.5979
-3.6029 परिचय -0.5912
-3.6029 आपके -0.6020
-3.6029 रहने -0.5979
-2.7578 कुछ -0.5798
-2.5615 बात -0.5712
-3.6029 चलने -0.6000
-3.6029 चलूंगा -0.6012
-2.5615 इस -0.5962
-3.1258 विषय -0.5952
-2.9040 बिलकुल -0.5950
-3.6029 कोरा -0.6003
-3.6029 चीज -0.6020
-3.6029 बनवाई -0.5970
-3.6029 खरीदी -0.5747
-2.7578 तुम्हें -0.5857
-2.9040 लेना -0.5831
-3.0009 देना -0.5866
-3.1258 भाव -0.5978
-3.6029 ताव -0.6020
-3.6029 देखूंगा -0.5747
-3.3019 मालूम -0.6006
-3.6029 फटकार -0.6018
-3.3019 पड़ी -0.5910
-2.6029 वह -0.5913
-3.3019 जेवरों -0.5981
-3.3019 लेती -0.5728
-2.8248 कभी -0.5881
-3.6029 पूछता -0.5992
-3.3019 मना -0.5969
-3.6029 करती -0.5912
-2.6029 लेकिन -0.5963
-2.9040 अपना -0.5988
-3.3019 कर्तव्य -0.5953
-2.7578 जब -0.5920
-2.8248 गहने -0.5959
-3.6029 चोरी -0.6014
-2.6487 गए -0.5722
-3.3019 चीज़ -0.5991
-3.6029 बनी -0.5747
-3.6029 कमाने -0.5981
-3.6029 ढंग -0.6015
-2.9040 आ -0.5975
-2.5615 गया -0.5615
-3.6029 कायस्थ -0.5989
-3.6029 बच्चे -0.5997
-3.6029 कितने -0.6020
-3.6029 जोड़ -0.6012
-2.6998 लिए -0.5686
-2.5615 रूपये -0.5999
-3.6029 किसके -0.6018
-3.3019 पास -0.5902
-3.3019 वादे -0.5923
-3.3019 लूंगा -0.5747
-3.6029 ख़ब्त -0.5966
-3.6029 पड़ो -0.6013
-3.0009 हाथ -0.5894
-3.3019 बाज़ार -0.5984
-3.6029 तरफ -0.6020
-3.6029 जाओ -0.5987
-3.0009 मत -0.5740
-2.6487 गहनों -0.5874
-3.6029 बुड्ढे -0.6020
-3.6029 नई -0.6020
-3.6029 बीवियों -0.5981
-3.1258 दिल -0.5963
-3.6029 खुश -0.6012
-3.1258 करते -0.5630
-3.1258 उन -0.5991
-3.6029 बेचारों -0.5989
-3.6029 सिवा -0.6006
-3.6029 जवानों -0.5989
-2.8248 बहुत -0.5941
-3.6029 लटके -0.5912
-3.6029 चाहूं -0.5951
-2.7578 दो -0.5964
-3.1258 चार -0.6015
-3.6029 हज़ार -0.5981
-3.3019 माल -0.6018
-3.6029 दिलवा -0.6016
-3.0009 सकता -0.5701
-3.6029 भई -0.6017
-3.1258 कर्ज़ -0.5941
-3.6029 लत -0.6020
-3.6029 बुरी -0.5912
-3.6029 द -0.6016
-3.0009 तीन -0.6012
-3.6029 महीनों -0.5966
-3.3019 सब -0.6006
-3.3019 चुका -0.6017
-3.3019 दूंगा -0.5747
-2.8248 अगर -0.5934
-2.4890 मुझे -0.5890
-3.3019 इसका -0.6016
-3.1258 विश्वास -0.5930
-3.6029 जिक -0.5987
-3.6029 करता।’ -0.5747
-3.3019 महीने -0.5975
-3.6029 सब्र -0.6010
-3.3019 बडा -0.6018
-3.6029 पाप -0.6020
-3.6029 दूसरा -0.5955
-3.3019 विपत्ति -0.5989
-3.6029 दूसरी -0.5912
-3.0009 जहां -0.5990
-3.3019 बार -0.6018
-3.6029 धड़का -0.6020
-3.6029 खुला -0.6008
-2.9040 तुम -0.5996
-3.3019 सराफ -0.5988
-3.1258 दुकान -0.5939
-3.6029 खड़े -0.6020
-3.6029 नज़र -0.6020
-3.6029 आओगे -0.5747
-3.6029 मानना -0.5996
-3.0009 जानता -0.5699
-3.1258 तुम्हारी -0.6015
-3.6029 आमदनी -0.6018
-3.6029 भविष्य -0.5989
-3.6029 भरोसे -0.5993
-3.3019 चाहे -0.6004
-2.4568 जो -0.5946
-2.9040 काम -0.5899
-3.1258 करो -0.5735
-3.1258 कर्ज -0.5977
-3.6029 क़भी -0.6016
-3.6029 मर्ज़ -0.5970
-3.3019 दरिद्र -0.5904
-2.7578 देश -0.5835
-3.6029 फैल -0.6009
-3.6029 जिन -0.6018
-3.3019 लोगों -0.5956
-3.1258 भोजन -0.5920
-3.6029 ठिकाना -0.5955
-3.6029 वे -0.5992
-3.6029 पीछे -0.6020
-3.6029 प्राण -0.6015
-3.3019 हर -0.6013
-3.3019 साल -0.5996
-3.6029 अरबों -0.6009
-3.3019 केवल -0.6018
-3.6029 सोना -0.6020
-3.6029 चांदी -0.6020
-3.6029 खरीदने -0.5966
-3.6029 व्यय -0.5997
-3.6029 संसार -0.5989
-2.4890 किसी -0.5805
-3.6029 धातुआं -0.5988
-3.6029 इतनी -0.6020
-3.6029 खपत -0.5955
-3.6029 उन्नत -0.6020
-3.6029 देशों -0.5966
-2.9040 धन -0.6001
-3.6029 व्यापार -0.5966
-3.3019 लगता -0.5890
-3.6029 जिससे -0.6018
-3.6029 परवरिश -0.6014
-3.6029 बढ़ता -0.5912
-3.6029 ऋंगार -0.5966
-3.0009 खर्च -0.5980
-3.6029 उसमें -0.6020
-3.6029 उन्नित -0.5990
-3.6029 उपकार -0.5988
-3.6029 महान -0.6020
-3.6029 शक्तियां -0.5912
-3.6029 दोनों -0.5987
-3.3019 अंत -0.5926
-2.8248 जाता -0.5554
-3.0009 बस -0.6002
-3.0009 यही -0.6003
-3.1258 समझ -0.6005
-3.3019 लो -0.5733
-3.6029 जिस -0.6013
-2.9040 लोग -0.6010
-3.6029 जितने -0.6020
-3.6029 मूर्ख -0.6020
-3.6029 होंग -0.5747
-3.6029 प्रचार -0.5992
-3.6029 उतना -0.5987
-3.6029 अधिक -0.6018
-3.3019 होगा -0.5672
-3.1258 नाक -0.5964
-3.3019 कान -0.5980
-3.6029 छिदाकर -0.5987
-3.3019 रह -0.6004
-3.3019 ऐसे -0.6012
-3.6029 होंठ -0.6020
-3.6029 छेदिकर -0.6015
-3.6029 पहनते -0.5912
-3.6029 कौतूहल -0.5979
-2.6998 कहा -0.5530
-3.0009 समय -0.5974
-3.3019 ठीक -0.6010
-3.3019 याद -0.5921
-3.1258 आता -0.5601
-3.3019 शायद -0.6013
-3.6029 अफ्रीका -0.5997
-3.6029 हमें -0.5998
-3.6029 सुनकर -0.6020
-3.6029 अचंभा -0.6006
-3.6029 अन्य -0.6013
-3.6029 वालों -0.5989
-3.6029 छिदना -0.6013
-3.1258 कम -0.5954
-3.6029 अचंभे -0.5988
-3.6029 मरज -0.6020
-3.6029 है, -0.6014
-3.3019 होना -0.6015
-2.9040 चाहिए -0.5721
-3.6029 बाल -0.6018
-3.3019 बच्चों -0.5961
-3.3019 पेट -0.6018
-3.6029 काटकर -0.6011
-3.6029 भेंट -0.6010
-3.6029 दूध -0.5970
-3.6029 मिले -0.5970
-3.1258 सही -0.5740
-3.6029 घी -0.5988
-3.6029 गंध -0.6005
-3.6029 पहुंचे -0.5970
-3.6029 मेवों -0.5990
-3.6029 फलों -0.5989
-3.6029 दर्शन -0.6013
-3.6029 परवा -0.5955
-3.6029 देवीजी -0.6014
-3.1258 जरूर -0.6017
-3.6029 पहनेंगी -0.5990
-3.6029 स्वामीजी -0.6014
-3.6029 बनवाएंगे -0.5747
-3.3019 दस -0.6016
-3.3019 बीस -0.6006
-3.3019 पाने -0.6017
-3.1258 वाले -0.5988
-3.6029 क्लर्को -0.6000
-3.6029 देखता -0.6003
-3.6029 सड़ी -0.6018
-3.3019 हुई -0.6006
-3.6029 कोठरियों -0.5966
-3.6029 पशुआं -0.5988
-3.6029 भांति -0.6017
-3.1258 जीवन -0.5936
-3.6029 काटते -0.5912
-3.6029 जिन्हें -0.6017
-3.6029 जलपान -0.6005
-3.6029 मयस्सर -0.5955
-3.6029 सनक -0.6018
-3.3019 सवार -0.6017
-3.3019 रहती -0.5881
-3.6029 प्रथा -0.5979
-3.3019 हमारा -0.6017
-3.6029 सवर्चनाश -0.6006
-2.8248 जा -0.5998
-3.3019 कहता -0.5728
-3.6029 गुलामी -0.6020
-3.6029 पराधीनता -0.5979
-3.3019 कहीं -0.6009
-3.6029 बढ़कर -0.5912
-3.3019 इसके -0.6017
-3.6029 कारण -0.6018
-3.3019 कितना -0.6016
-3.6029 आत्मिक -0.6020
-3.6029 नैतिक -0.6020
-3.6029 दैहिक -0.6020
-3.6029 आर्थिक -0.5990
-3.6029 धामिक -0.6020
-3.6029 पतन -0.5997
-3.6029 अनुमान -0.6020
-3.6029 ब्रह्मा -0.5992
-3.3019 सकते -0.5721
-3.3019 समझता -0.6003
-3.1258 ऐसा -0.5939
-3.6029 स्त्रियां -0.6014
-3.6029 पहनती -0.6015
-3.3019 युरोप -0.5895
-3.6029 रिवाज -0.5955
-3.6029 तुम्हारा -0.6013
-3.6029 वहां -0.5989
-3.6029 धानी -0.5912
-3.6029 लुटाएं -0.5747
-3.3019 शोभा -0.6016
-3.0009 देता -0.5623
-3.3019 हम -0.6017
-3.6029 हमारी -0.6020
-3.6029 कमाई -0.5981
-3.3019 पैसा -0.5992
-3.6029 फजूल -0.5970
-3.6029 विवाद -0.5966
-3.6029 शतरंज -0.6018
-3.3019 भूल -0.6006
-3.6029 छुट्टी -0.5981
-3.3019 मिलने -0.6005
-3.6029 चुपके -0.5979
-3.6029 खिसक -0.6016
-3.6029 बहस -0.5966
-2.9040 ऐसी -0.6001
-3.1258 उसके -0.6012
-3.6029 बैठ -0.6013
-2.7578 गई -0.5593
-3.0009 उधार -0.5737
-2.9040 लेने -0.5850
-3.6029 विचार -0.6017
-3.1258 मन -0.5919
-3.1258 निकल -0.6001
-3.6029 जल्दी -0.6018
-3.3019 रूपया -0.5965
-3.6029 सका -0.5951
-3.3019 कितनी -0.6014
-3.3019 बदनामी -0.6010
-3.3019 अवश्य -0.5959
-3.6029 साहस -0.5970
-2.7578 हुआ -0.5589
-2.6487 उसने -0.5996
-3.6029 निश्चय -0.6012
-3.1258 अभी -0.5998
-3.6029 पहुंचा -0.5951
-3.1258 नौ -0.6014
-3.6029 बज -0.6011
-3.0009 दयानाथ -0.5966
-2.8248 उसे -0.5981
-3.3019 देखा -0.5937
-3.0009 पूछा -0.5735
-3.1258 कहां -0.5973
-3.6029 बडे -0.6017
-3.0009 दया -0.5996
-3.3019 घंटे -0.5987
-3.6029 पुस्तकालय -0.6010
-3.6029 जाया -0.6017
-3.6029 गप -0.6020
-3.6029 शप -0.5966
-3.6029 गंवा -0.6015
-3.3019 पढ़ने -0.6018
-3.6029 लिखने -0.5988
-3.6029 उम्र -0.5912
-3.6029 इम्तहान -0.5970
-2.9040 अपनी -0.6011
-3.6029 योग्यता -0.5951
-3.6029 बढ़ा -0.6018
-3.6029 सीधा -0.6020
-3.6029 सा -0.6020
-3.6029 खत -0.6018
-3.3019 लिखना -0.6013
-3.3019 पड़ -0.6009
-3.6029 बगलें -0.6020
-3.6029 झांकने -0.6020
-3.6029 लगते -0.5997
-3.6029 असली -0.6020
-3.6029 शिक्षा -0.6020
-3.6029 स्कूल -0.6018
-3.3019 छोड़ने -0.5989
-3.3019 बाद -0.5973
-3.6029 शुरू -0.6014
-3.6029 वही -0.6018
-3.3019 हमारे -0.6016
-3.3019 आती -0.5912
-3.0009 मैंने -0.5997
-3.0009 तुम्हारे -0.6002
-3.0009 बातें -0.6014
-3.6029 सुनी -0.5912
-3.6029 जिनसे -0.6006
-3.6029 खेद -0.6013
-3.3019 समझा -0.6010
-3.6029 हरगिज -0.5955
-2.9040 चाहता -0.5898
-3.3019 हराम -0.5948
-3.1258 कौड़ी -0.5968
-3.6029 नौकरी -0.6017
-3.6029 तीस -0.6018
-3.6029 हज़ारों -0.6009
-3.0009 जमा -0.5981
-3.3019 लेता -0.5747
-3.6029 कसम -0.6020
-3.6029 खाता -0.6003
-3.6029 तुममें -0.5998
-3.6029 आदत -0.6017
-2.9040 मेरी -0.6011
-3.6029 समझि -0.5966
-3.6029 बनावटी -0.6018
-3.3019 क्रोध -0.5991
-3.6029 दिखाकर -0.6012
-3.6029 किसने -0.6020
-3.6029 आपसे -0.6012
-3.0009 उसका -0.6002
-3.6029 बताइए -0.5747
-3.3019 मूंछें -0.6018
-3.3019 उखाड़ -0.6016
-3.1258 लूं -0.5978
-3.0009 उसकी -0.5737
-3.6029 मतलब -0.5955
-3.6029 लोगे -0.6020
-3.6029 इसिलए -0.6020
-3.6029 बताऊंगा -0.5955
-3.6029 सच -0.5912
-3.6029 या -0.6016
-3.0009 झूठ -0.5720
-3.1258 इतना -0.5920
-3.6029 पूछना -0.6015
-3.6029 दयान -0.6015
-3.0009 दस्तूरी -0.5928
-2.9040 लेते -0.5619
-3.3019 रिश्वत -0.5922
-3.3019 खुल्लम -0.6018
-3.3019 खुल्ला -0.6015
-3.3019 बिना -0.6018
-3.6029 मांग -0.6017
-3.1258 आप -0.5978
-3.6029 मांगने -0.5955
-3.6029 दयासभी -0.6018
-3.6029 मांगे -0.6015
-3.6029 बुराई -0.6017
-2.9040 जाती -0.5612
-3.3019 खुद -0.5970
-3.6029 चपरासी -0.5990
-3.6029 मुहरिर -0.5981
-3.6029 पकड़ -0.6016
-3.3019 आठ -0.6015
-3.6029 नौकर -0.6014
-3.6029 लें -0.5747
-3.6029 उनका -0.6015
-3.6029 चल -0.6016
-3.6029 रोक -0.5955
-3.6029 उदासीन -0.6017
-3.6029 अख्तयार -0.6013
-3.1258 कहते -0.5905
-3.3019 हुए -0.6015
-3.3019 दफ्तर -0.6005
-3.3019 साफ -0.6017
-3.6029 कह -0.6015
-2.9040 दे -0.5991
-3.3019 आपने -0.6014
-3.6029 निस्पृतह -0.6020
-3.6029 बनकर -0.6005
-3.3019 दोष -0.6011
-2.6487 रहे -0.5621
-3.3019 हमेशा -0.6015
-3.1258 पैसे -0.5996
-3.3019 मुहताज -0.6011
-3.6029 लड़कों -0.6000
-3.6029 पढ़ा -0.6005
-3.3019 सके -0.5747
-3.6029 जूते -0.6018
-3.3019 कपड़े -0.6004
-3.6029 पहना -0.6018
-3.6029 डींग -0.6020
-3.6029 मारना -0.6018
-3.3019 तब -0.5948
-3.6029 नीयत -0.5992
-3.6029 सुख -0.5979
-3.6029 कटता -0.5747
-3.6029 माता -0.6002
-3.3019 बेटा -0.5742
-3.6029 बाबूजी -0.6018
-3.3019 इसी -0.5990
-3.3019 बिगड़ -0.6011
-3.6029 उपदेश -0.6015
-3.6029 आत्मा -0.6020
-3.6029 दुर्बल -0.6014
-3.3019 जागेश्वरी -0.6011
-2.9040 तुमने -0.5987
-3.6029 ईमानदिारी -0.5988
-3.6029 झंडे -0.6020
-3.6029 गाड़ -0.6018
-3.3019 दिए -0.5747
-3.6029 सारी -0.6018
-3.3019 जिदगी -0.6017
-3.6029 पालते -0.6011
-3.6029 कहना -0.5951
-3.6029 चिढ़ -0.6012
-3.1258 जैसे -0.6015
-3.3019 वैसे -0.6002
-3.6029 बनाना -0.6020
-3.6029 चाहते -0.5912
-3.6029 शऊर -0.5951
-3.6029 दाल -0.5955
-3.6029 गलती -0.5951
-3.6029 भगत -0.6020
-3.6029 बन -0.6011
-3.6029 घोंघा -0.6020
-3.6029 बसंत -0.5955
-3.6029 बनयों -0.5979
-3.6029 एंठने -0.5989
-3.6029 दिल्लगी -0.5955
-3.6029 भगतपन -0.6012
-3.6029 बुद्धू -0.5912
-3.6029 तमीज -0.5955
-3.6029 करे -0.6020
-3.6029 बेचारा -0.6006
-3.3019 आंसू -0.5950
-3.6029 पोंछे -0.5747
-3.6029 जिसे -0.6015
-3.6029 आवेगा -0.6010
-3.6029 लेगा -0.5747
-3.6029 इन्हें -0.5951
-3.6029 बघारना -0.6017
-3.1258 सामने -0.5965
-3.3019 मुंह -0.5978
-3.6029 निकलती -0.5955
-3.6029 निकाल -0.6015
-3.6029 मुश्किल -0.5912
-3.6029 ऊपर -0.6018
-3.6029 पहनने -0.6009
-2.4268 जालपा -0.5767
-3.3019 लिफाफे -0.6016
-3.6029 डाक -0.5966
-3.1258 वक्त -0.5995
-3.0009 तीनों -0.5973
-3.1258 जेब -0.5966
-3.6029 डाल -0.6012
-3.6029 रास्ते -0.5966
-3.6029 खोलकर -0.6016
-3.0009 चिट्ठियां -0.5997
-3.6029 लगा -0.5747
-3.3019 वेदना -0.5872
-3.6029 करूण -0.6020
-3.6029 विलाप -0.5999
-3.3019 सहेलियों -0.5958
-3.6029 सुनाया -0.5999
-3.6029 भावों -0.5981
-3.6029 अंतर -0.5999
-3.6029 पहाड़ -0.5997
-3.6029 नींद -0.6018
-3.6029 आराम -0.5747
-3.6029 पितदेव -0.6000
-3.6029 प्रसन्न -0.6016
-3.0009 करने -0.5914
-3.6029 हंस -0.6020
-3.6029 बोल -0.6018
-3.3019 रोया -0.5744
-3.3019 करता -0.5912
-3.6029 दिखाती -0.6003
-3.3019 जान -0.5986
-3.6029 पड़ता -0.5912
-3.3019 शोक -0.6014
-3.6029 लेकर -0.6020
-3.6029 छोड़ेगा -0.5747
-2.6487 मुझसे -0.5964
-3.6029 रोज -0.6020
-3.6029 किए -0.6012
-3.6029 सुनार -0.6018
-3.6029 डिजाइन -0.6020
-3.6029 तय -0.6012
-3.3019 धोखा -0.5906
-3.3019 रख -0.6015
-3.6029 लीं -0.5747
-3.6029 डाकखाना -0.6017
-3.6029 छोडा -0.5747
-3.6029 ती -0.5912
-3.6029 इसे -0.6018
-3.6029 करूं -0.6016
-3.6029 दिलाऊं -0.5747
-3.3019 आभूषणों -0.5956
-3.6029 टोकरे -0.6018
-3.3019 भर -0.6002
-3.6029 बड़े -0.5747
-3.1258 ले -0.6008
-3.6029 जाकर -0.6018
-3.3019 चीजें -0.6017
-3.6029 लेनी -0.6015
-3.6029 अपार -0.6018
-3.6029 जिसने -0.6017
-3.6029 अपहरण -0.6010
-3.6029 उसको -0.6015
-3.6029 चोट -0.5981
-3.6029 सच्चा -0.6020
-3.6029 अनुभव -0.6013
-3.6029 झूठी -0.6020
-3.6029 मर्यादा -0.5988
-3.6029 रक्षा -0.5966
-3.6029 पहुंचाई -0.6009
-3.6029 अभिनय -0.5981
-3.6029 फल -0.6018
-3.6029 कदाचित् -0.6015
-3.6029 डींगों -0.5981
-3.1258 परदा -0.6017
-3.6029 खोल -0.6016
-3.1258 दशा -0.5934
-3.6029 ताप -0.5979
-3.6029 फुंकी -0.6014
-3.3019 संकोच -0.5962
-3.6029 जगह -0.6009
-3.3019 ह्रदिय -0.5977
-3.3019 कातर -0.5995
-3.6029 उठा -0.5747
-3.6029 पहली -0.6018
-3.6029 सच्चे -0.6018
-2.9040 ईश्वर -0.5948
-3.6029 याचना -0.5988
-3.6029 भगवन् -0.6006
-3.3019 रोम -0.5964
-3.6029 आत्मध्विन -0.6017
-3.6029 निकलने -0.6020
-3.6029 लगी -0.5747
-3.6029 दीन -0.6017
-3.6029 कही -0.5747
-3.6029 रखा -0.5990
-3.6029 रखकर -0.6015
-3.6029 दुखडा -0.6018
-3.6029 बरामदे -0.5966
-3.6029 तौला -0.6014
-3.6029 मेज़ -0.5993
-3.6029 रखे -0.6014
-3.0009 चिंता -0.5952
-3.6029 डूबा -0.6018
-3.3019 बैठा -0.6012
-3.6029 किससे -0.6018
-3.3019 सलाह -0.6016
-3.3019 विवाह -0.5983
-3.6029 सारा -0.6018
-3.6029 इंकार -0.5955
-3.3019 पहले -0.5977
-3.6029 उठकर -0.6016
-3.6029 देखते -0.5987
-3.6029 दिं -0.5747
-3.6029 बहाना -0.6012
-3.6029 अरे -0.6020
-3.6029 इनकी -0.5951
-3.6029 अच्छा -0.6013
-3.6029 लाओ -0.6006
-3.6029 भेजूंगी -0.5747
-3.6029 कल -0.6020
-3.6029 भेज -0.6018
-3.6029 भेजना -0.5987
-3.6029 लिख -0.6013
-3.3019 दी -0.6013
-3.1258 दुःख -0.5998
-3.3019 निंदा -0.5987
-3.6029 कहकर -0.6010
-3.6029 मुस्कराई -0.5747
-3.6029 दगाबाज -0.5912
-3.6029 धूर्त -0.5912
-3.6029 होनी -0.5987
-3.6029 व्यग्र -0.6020
-3.6029 होकर -0.6016
-3.6029 चिट्ठयां -0.6020
-3.6029 पढ़लीं -0.6005
-3.6029 निसंकोच -0.6017
-3.6029 अक्षम्य -0.6018
-3.3019 अपराध -0.5904
-3.3019 स्वर -0.5945
-3.6029 बोली -0.6018
-3.6029 नाराज -0.6020
-3.6029 होगे -0.5747
-3.6029 आंसुओं -0.5989
-3.6029 आवेग -0.5979
-3.6029 आवाज़ -0.6020
-3.6029 रूक -0.6013
-3.6029 क्षण -0.5966
-3.6029 संभालकर -0.6012
-3.6029 भारी -0.6018
-3.6029 सज़ा -0.6013
-3.1258 अप्रसन्न -0.5947
-3.6029 जानते -0.5912
-3.6029 कलम -0.5979
-3.6029 जानती -0.6009
-3.3019 मित्रों -0.5924
-3.6029 व्यथा -0.6017
-3.6029 बहुधा -0.6015
-3.6029 बढ़ाकर -0.6017
-3.6029 परदे -0.5988
-3.6029 समझी -0.6015
-3.6029 चर्चा -0.6016
-3.6029 अपनापन -0.6020
-3.6029 जाहिर -0.6006
-3.6029 मित्र -0.6020
-3.6029 समझते -0.5912
-3.3019 हमसे -0.6014
-3.6029 दुर्राव -0.5955
-3.6029 रखता -0.5990
-3.6029 सहानुभूति -0.5997
-3.6029 पोंछते -0.6018
-3.6029 बोला -0.5996
-3.3019 तुमसे -0.6015
-3.6029 प्रिये -0.5747
-3.1258 होने -0.5929
-3.6029 आशा -0.5981
-3.6029 विलंब -0.5987
-3.6029 दुर्राशा -0.5912
-3.6029 बनवा -0.6018
-3.6029 होतीं -0.5747
-3.6029 ली -0.5747
-3.6029 वैसा -0.5987
-3.6029 मेहमान -0.6000
-3.6029 पूछ -0.6020
-3.6029 पूछकर -0.6017
-3.6029 ध्यान -0.5970
-3.6029 आदमी -0.6020
-3.6029 इच्छा -0.6017
-3.6029 चाहा -0.5951
-3.6029 दिनों -0.6018
-3.3019 इंतजार -0.5915
-3.6029 करना -0.6018
-3.6029 लाओग -0.5747
-3.6029 लाने -0.5966
-3.6029 हर्ज -0.5955
-3.6029 सूद -0.5955
-3.6029 नगद -0.6018
-3.3019 ऋण -0.5913
-3.6029 दुनिया -0.5981
-3.6029 चलता -0.5912
-3.6029 अलल्ले -0.6020
-3.6029 तलल्ले -0.6016
-3.6029 सिर -0.5993
-3.6029 रहेगा -0.5747
-3.6029 रोके -0.6020
-3.6029 रहेगी -0.5747
-3.6029 डालना -0.6020
-3.6029 चाहती -0.6014
-3.6029 भूलकर -0.5992
-3.6029 लूंगी -0.5747
-3.6029 व्यर्थ -0.6017
-3.6029 डरती -0.5997
-3.6029 रहूंगा -0.5951
-3.6029 होंगे -0.5747
-3.6029 छोटी -0.6017
-3.6029 लाना -0.5747
-3.6029 करूंगा -0.5987
-3.6029 अंधेरा -0.5997
-3.6029 रहते -0.6014
-3.6029 संभव -0.5999
-3.6029 निगाह -0.6015
-3.6029 मुंशी -0.6016
-3.6029 देख -0.6015
-3.6029 मामले -0.6000
-3.6029 गुप्त -0.5987
-3.6029 रखना -0.6015

\2-grams:
-2.5141 <s> दूसरे 0.0000
-0.1249 दूसरे दिन -0.5441
-0.9031 दिन सवेरे -0.4771
-0.6021 सवेरे ही -0.5914
-1.6163 ही रमा -0.5315
-0.8239 रमा ने -0.4685
-1.3554 ने रमेश -0.5384
-0.8653 रमेश बाबू -0.3010
-0.6021 बाबू के -0.5670
-1.1102 के घर -0.4771
-1.0792 घर का -0.5929
-1.6812 का रास्ता 0.0000
-0.1249 रास्ता लिया -0.3979
-0.4260 लिया </s> -0.6021
-2.5141 <s> उनके 0.0000
-0.1249 उनके यहां -0.5528
-0.9700 यहां भी -0.5893
-1.5399 भी जन्माष्टमी 0.0000
-0.1249 जन्माष्टमी में -0.5955
-1.8239 में झांकी -0.4771
-0.6021 झांकी होती -0.5441
-0.9031 होती थी -0.2596
-0.2632 थी </s> -0.6021
-2.2131 <s> उन्हें -0.4973
-0.9700 उन्हें स्वयं 0.0000
-0.1249 स्वयं तो -0.5969
-1.9311 तो इससे -0.5315
-0.8239 इससे कोई -0.5643
-1.0792 कोई अनुराग 0.0000
-0.1249 अनुराग न -0.5949
-1.7877 न था -0.3424
-0.3468 था </s> -0.6021
-1.8151 <s> पर -0.5315
-1.5229 पर उनकी -0.4771
-0.6021 उनकी स्त्री 0.0000
-0.1249 स्त्री उत्सव -0.3979
-0.4260 उत्सव मनाती 0.0000
-0.1249 मनाती थी -0.2596
-2.5141 <s> उसी 0.0000
-0.1249 उसी की -0.5911
-1.6021 की यादगार 0.0000
-0.1249 यादगार में -0.5955
-1.8239 में अब -0.3979
-0.4260 अब तक -0.5260
-1.2711 तक यह -0.5863
-1.4472 यह उत्सव -0.3979
-0.4260 उत्सव मनाते 0.0000
-0.1249 मनाते जाते -0.5593
-1.0280 जाते थे -0.3979
-0.4260 थे </s> -0.6021
-1.0827 <s> रमा -0.0414
-1.1249 रमा को -0.5473
-1.4037 को देखकर 0.0000
-0.1249 देखकर बोले 0.0000
-0.1249 बोले आओ -0.3979
-0.4260 आओ जी -0.4771
-0.6021 जी रात -0.3979
-0.4260 रात क्यों -0.4914
-0.6478 क्यों नहीं -0.5740
-1.9031 नहीं आए -0.3010
-0.3010 आए </s> -0.6021
-1.9120 <s> मगर -0.3979
-1.0280 मगर यहां -0.5528
-0.9700 यहां गरीबों 0.0000
-0.1249 गरीबों के -0.5670
-1.0792 घर क्यों -0.5682
-1.1249 क्यों आते 0.0000
-0.1249 आते </s> -0.6021
-2.5141 <s> सेठजी -0.3979
-0.4260 सेठजी की -0.5911
-1.6021 की झांकी -0.4771
-0.6021 झांकी कैसे -0.5119
-0.7270 कैसे छोड़ -0.4771
-0.6021 छोड़ देते -0.5315
-0.8239 देते </s> -0.6021
-2.5141 <s> खूब -0.3979
-0.4260 खूब बहार 0.0000
-0.1249 बहार रही -0.4771
-0.6021 रही होगी 0.0000
-0.1249 होगी </s> -0.6021
-1.6021 रमा आपकी -0.3979
-0.4260 आपकी सी -0.4771
-0.6021 सी सजावट 0.0000
-0.1249 सजावट तो -0.5969
-1.9311 तो न -0.5949
-1.7877 न थी -0.2596
-2.5141 <s> हां -0.5441
-0.9031 हां और -0.5903
-1.5721 और सालों 0.0000
-0.1249 सालों से -0.5934
-1.7047 से अच्छी -0.3979
-0.4260 अच्छी थी -0.2596
-2.5141 <s> कई -0.4771
-0.6021 कई कत्थक 0.0000
-0.1249 कत्थक और -0.5903
-1.5721 और वेश्याएं -0.4771
-0.6021 वेश्याएं भी -0.5893
-1.5399 भी आई 0.0000
-0.1249 आई थीं -0.3979
-0.4260 थीं </s> -0.6021
-1.7360 <s> मैं -0.4708
-1.0095 मैं तो -0.5865
-1.9311 तो चला -0.5119
-0.7270 चला आया -0.5119
-0.7270 आया था -0.5855
-1.4260 था मगर -0.5593
-1.0280 मगर सुना 0.0000
-0.1249 सुना रातभर 0.0000
-0.1249 रातभर गाना 0.0000
-0.1249 गाना होता -0.5763
-1.2389 होता रहा -0.5643
-1.0792 रहा </s> -0.6021
-1.5141 <s> रमेश -0.0000
-1.1663 रमेश सेठजी -0.3979
-0.4260 सेठजी ने -0.5825
-1.3554 ने तो -0.5969
-1.9311 तो वचन 0.0000
-0.1249 वचन दिया -0.5441
-0.9031 दिया था -0.5855
-1.4260 था कि -0.5740
-1.2041 कि वेश्याएं -0.3010
-0.3010 वेश्याएं न -0.5728
-1.7877 न आने 0.0000
-0.1249 आने पावेंगी 0.0000
-0.1249 पावेंगी </s> -0.6021
-2.5141 <s> फिर 0.0000
-0.1249 फिर यह -0.5863
-1.4472 यह क्या -0.5781
-1.2711 क्या किया -0.5593
-1.0280 किया </s> -0.6021
-2.5141 <s> इन -0.4771
-0.6021 इन मूर्खो 0.0000
-0.1249 मूर्खो के -0.5907
-1.5873 के हाथों 0.0000
-0.1249 हाथों हिन्दू 0.0000
-0.1249 हिन्दू धर्म -0.3979
-0.4260 धर्म का -0.5929
-1.6812 का सर्वनाश 0.0000
-0.1249 सर्वनाश हो -0.5870
-1.4674 हो जायगा 0.0000
-0.1249 जायगा </s> -0.6021
-2.0370 <s> एक -0.5195
-1.2389 एक तो -0.5969
-1.9311 तो वेश्याआं 0.0000
-0.1249 वेश्याआं का -0.5643
-1.0792 का नाम -0.2688
-0.9700 नाम यों -0.4771
-0.6021 यों भी -0.5893
-1.5399 भी बुरा -0.5315
-0.8239 बुरा उस -0.4472
-0.5229 उस पर -0.5752
-1.5229 पर ठाकुरद्वारे 0.0000
-0.1249 ठाकुरद्वारे में -0.5955
-1.8239 में </s> -0.6021
-2.5141 <s> छिः 0.0000
-0.1249 छिः छिः, 0.0000
-0.1249 छिः, न -0.5803
-1.3106 न जाने -0.3979
-0.9031 जाने इन -0.4771
-0.6021 इन गधों 0.0000
-0.1249 गधों को -0.5846
-1.4037 को कब 0.0000
-0.1249 कब अक्ल -0.3979
-0.4260 अक्ल आवेगी 0.0000
-0.1249 आवेगी </s> -0.6021
-1.6021 रमा वेश्याएं -0.3010
-1.3106 न हों -0.3424
-0.8239 हों तो -0.5969
-1.9311 तो झांकी -0.4771
-0.6021 झांकी देखने 0.0000
-0.1249 देखने जाय -0.4771
-0.6021 जाय ही -0.5914
-1.6163 ही कौन -0.4771
-0.6021 कौन </s> -0.6021
-2.5141 <s> सभी -0.3979
-0.4260 सभी तो -0.5969
-1.9311 तो आपकी -0.3979
-0.4260 आपकी तरह -0.5119
-0.7270 तरह योगी 0.0000
-0.1249 योगी तपस्वी 0.0000
-0.1249 तपस्वी नहीं -0.5441
-0.9031 नहीं है -0.3203
-0.3282 है </s> -0.6021
-1.1663 रमेश मेरा -0.3979
-0.4260 मेरा वश -0.4771
-0.6021 वश चले -0.5441
-0.9031 चले तो -0.5918
-1.6301 तो मैं -0.5728
-1.4867 मैं कानून -0.3979
-0.4260 कानून से -0.5846
-1.4037 से यह -0.5699
-1.4472 यह दुराचार 0.0000
-0.1249 दुराचार बंद 0.0000
-0.1249 बंद कर -0.5315
-1.1249 कर दूं 0.0000
-0.1249 दूं </s> -0.6021
-2.5141 <s> खैर -0.3979
-0.4260 खैर फुरसत 0.0000
-0.1249 फुरसत हो -0.5870
-1.4674 हो तो -0.5969
-1.9311 तो आओ -0.3979
-0.4260 आओ एक -0.5763
-1.2389 एक आध -0.3979
-0.4260 आध बाज़ी 0.0000
-0.1249 बाज़ी हो -0.5870
-1.4674 हो जाय -0.3010
-0.3010 जाय </s> -0.6021
-1.7360 <s> रमानाथ 0.0000
-0.9031 रमानाथ और -0.5903
-1.5721 और आया -0.5119
-0.7270 आया किसलिए 0.0000
-0.1249 किसलिए हूं -0.5812
-1.3291 हूं मगर -0.5593
-1.0280 मगर आज -0.5315
-0.8239 आज आपको -0.3979
-0.4260 आपको मेरे -0.5119
-0.7270 मेरे साथ -0.3979
-0.4260 साथ ज़रा -0.5315
-0.8239 ज़रा सराफे 0.0000
-0.1249 सराफे तक -0.5528
-1.2711 तक चलना 0.0000
-0.1249 चलना पड़ेगा 0.0000
-0.1249 पड़ेगा </s> -0.6021
-2.2131 <s> यों -0.3010
-0.6021 यों कई -0.4771
-0.6021 कई बडी -0.5315
-0.8239 बडी बडी -0.5315
-0.8239 बडी कोठियों 0.0000
-0.1249 कोठियों से -0.5934
-1.7047 से मेरा -0.3979
-0.4260 मेरा परिचय 0.0000
-0.1249 परिचय है -0.3266
-1.0280 मगर आपके 0.0000
-0.1249 आपके रहने 0.0000
-0.1249 रहने से -0.5934
-1.7047 से कुछ -0.5528
-0.9700 कुछ और -0.5903
-1.5721 और ही -0.5914
-1.6163 ही बात -0.5714
-1.1663 बात होगी 0.0000
-1.1663 रमेश चलने 0.0000
-0.1249 चलने को -0.5846
-1.4037 को चला -0.5119
-0.7270 चला चलूंगा 0.0000
-0.1249 चलूंगा मगर -0.5593
-1.0280 मगर इस -0.5714
-1.1663 इस विषय -0.3010
-0.3010 विषय में -0.5888
-1.8239 में मैं -0.5877
-1.4867 मैं बिलकुल -0.5315
-0.8239 बिलकुल कोरा 0.0000
-0.1249 कोरा हूं -0.3979
-0.4260 हूं </s> -0.6021
-2.2131 <s> न -0.5877
-1.7877 न कोई -0.5643
-1.0792 कोई चीज 0.0000
-0.1249 चीज बनवाई 0.0000
-0.1249 बनवाई न -0.5949
-1.7877 न खरीदी 0.0000
-0.1249 खरीदी </s> -0.6021
-2.2131 <s> तुम्हें -0.4973
-0.9700 तुम्हें क्या -0.5781
-1.2711 क्या कुछ -0.5528
-0.9700 कुछ लेना -0.5315
-0.8239 लेना है -0.3266
-1.6021 रमा लेना -0.5315
-0.8239 लेना देना -0.5119
-0.7270 देना क्या -0.5260
-0.7939 क्या है -0.3140
-1.8195 है ज़रा -0.4472
-0.8239 ज़रा भाव -0.4771
-0.6021 भाव ताव 0.0000
-0.1249 ताव देखूंगा 0.0000
-0.1249 देखूंगा </s> -0.6021
-0.8653 रमेश मालूम 0.0000
-0.1249 मालूम होता -0.4543
-0.5399 होता है -0.3076
-2.1206 है घर -0.4260
-0.4771 घर में -0.5752
-1.8239 में फटकार 0.0000
-0.1249 फटकार पड़ी -0.3979
-0.4260 पड़ी है -0.3266
-0.9031 रमानाथ जी -0.4771
-0.6021 जी बिलकुल -0.5315
-0.8239 बिलकुल नहीं -0.5966
-1.9031 नहीं वह -0.5682
-1.1249 वह तो -0.5969
-1.9311 तो जेवरों 0.0000
-0.1249 जेवरों का -0.5543
-0.9700 नाम तक -0.5781
-1.2711 तक नहीं -0.5966
-1.9031 नहीं लेती -0.3979
-0.4260 लेती </s> -0.6021
-1.4867 मैं कभी -0.5441
-0.9031 कभी पूछता 0.0000
-0.1249 पूछता भी -0.5893
-1.5399 भी हूं -0.5812
-1.3291 हूं तो -0.5969
-1.9311 तो मना -0.3979
-0.4260 मना करती 0.0000
-0.1249 करती है -0.3266
-1.8151 <s> लेकिन -0.3979
-1.1249 लेकिन अपना -0.5315
-0.8239 अपना कर्तव्य -0.3979
-0.4260 कर्तव्य भी -0.5893
-1.5399 भी तो -0.5969
-1.9311 तो कुछ -0.5528
-0.9700 कुछ है -0.3266
-1.9120 <s> जब -0.3590
-0.9700 जब से -0.5934
-1.7047 से गहने -0.5441
-0.9031 गहने चोरी 0.0000
-0.1249 चोरी चले -0.3010
-0.3010 चले गए 0.0000
-1.0792 गए एक -0.5763
-1.2389 एक चीज़ -0.3979
-0.4260 चीज़ भी -0.5628
-1.0628 भी नहीं -0.5740
-1.9031 नहीं बनी 0.0000
-0.1249 बनी </s> -0.6021
-2.1206 है कमाने 0.0000
-0.1249 कमाने का -0.5929
-1.6812 का ढंग 0.0000
-0.1249 ढंग आ -0.5315
-0.8239 आ गया -0.4210
-0.4674 गया </s> -0.6021
-2.5141 <s> क्यों -0.5682
-1.1249 क्यों न -0.5949
-1.7877 न हो -0.5870
-1.4674 हो कायस्थ 0.0000
-0.1249 कायस्थ के -0.5907
-1.5873 के बच्चे 0.0000
-0.1249 बच्चे हो -0.5870
-1.4674 हो कितने 0.0000
-0.1249 कितने जोड़ 0.0000
-0.1249 जोड़ लिए -0.5593
-1.0280 लिए </s> -0.6021
-1.6021 रमा रूपये -0.5714
-1.1663 रूपये किसके 0.0000
-0.1249 किसके पास -0.3979
-0.4260 पास है -0.5988
-2.1206 है वादे -0.3979
-0.4260 वादे पर -0.5888
-1.5229 पर लूंगा 0.0000
-0.1249 लूंगा </s> -0.6021
-0.8653 रमेश इस -0.5384
-1.1663 इस ख़ब्त 0.0000
-0.1249 ख़ब्त में -0.5821
-1.3468 में न -0.5651
-1.7877 न पड़ो 0.0000
-0.1249 पड़ो जब -0.5528
-0.9700 जब तक -0.5781
-1.2711 तक रूपये -0.5714
-1.1663 रूपये हाथ -0.3979
-0.4260 हाथ में -0.5752
-0.8239 हों बाज़ार -0.3979
-0.4260 बाज़ार की -0.5911
-1.6021 की तरफ 0.0000
-0.1249 तरफ जाओ 0.0000
-0.1249 जाओ ही -0.5914
-1.6163 ही मत -0.2430
-0.2499 मत </s> -0.6021
-2.2131 <s> गहनों -0.3680
-1.0792 गहनों से -0.5934
-1.7047 से तो -0.5969
-1.9311 तो बुड्ढे 0.0000
-0.1249 बुड्ढे नई 0.0000
-0.1249 नई बीवियों 0.0000
-0.1249 बीवियों का -0.5929
-1.6812 का दिल -0.4771
-0.6021 दिल खुश 0.0000
-0.1249 खुश किया -0.5593
-1.0280 किया करते -0.4771
-0.6021 करते है -0.3266
-2.0370 <s> उन 0.0000
-0.6021 उन बेचारों 0.0000
-0.1249 बेचारों के -0.5907
-1.5873 के पास -0.3979
-0.4260 पास गहनों -0.5229
-0.7782 गहनों के -0.5790
-1.5873 के सिवा 0.0000
-0.1249 सिवा होता -0.5763
-1.2389 होता ही -0.5914
-1.6163 ही क्या -0.5260
-2.5141 <s> जवानों 0.0000
-0.1249 जवानों के -0.5288
-0.8092 के लिए -0.2430
-1.0280 लिए और -0.5903
-1.5721 और बहुत -0.5441
-0.9031 बहुत से -0.5934
-1.7047 से लटके 0.0000
-0.1249 लटके है -0.3266
-0.6021 यों मैं -0.5877
-1.4867 मैं चाहूं 0.0000
-0.1249 चाहूं तो -0.5918
-1.6301 तो दो -0.4337
-0.6690 दो चार -0.3010
-0.6021 चार हज़ार 0.0000
-0.1249 हज़ार का -0.5929
-1.6812 का माल -0.3979
-0.4260 माल दिलवा 0.0000
-0.1249 दिलवा सकता -0.5119
-0.7270 सकता हूं -0.3979
-1.0280 मगर भई 0.0000
-0.1249 भई कर्ज़ -0.4771
-0.6021 कर्ज़ की -0.5911
-1.6021 की लत 0.0000
-0.1249 लत बुरी 0.0000
-0.1249 बुरी है -0.3266
-1.3010 रमा मैं -0.5414
-1.4867 मैं द 0.0000
-0.1249 द तीन -0.5119
-0.7270 तीन महीनों 0.0000
-0.1249 महीनों में -0.5955
-1.8239 में सब -0.3979
-0.4260 सब रूपये -0.5714
-1.1663 रूपये चुका -0.3979
-0.4260 चुका दूंगा 0.0000
-0.1249 दूंगा </s> -0.6021
-1.8151 <s> अगर -0.1761
-0.9031 अगर मुझे -0.5763
-1.2389 मुझे इसका -0.3979
-0.4260 इसका विश्वास -0.4771
-0.6021 विश्वास न -0.5949
-1.7877 न होता -0.5195
-0.7618 होता तो -0.5758
-1.4867 मैं जिक 0.0000
-0.1249 जिक ही -0.5914
-1.6163 ही न -0.5949
-1.7877 न करता।’ 0.0000
-0.1249 करता।’ </s> -0.6021
-0.8653 रमेश तो -0.5865
-0.9700 दो तीन -0.5119
-0.7270 तीन महीने -0.3979
-0.4260 महीने और -0.5903
-1.5721 और सब्र 0.0000
-0.1249 सब्र क्यों -0.4914
-1.4260 नहीं कर -0.3979
-1.1249 कर जाते -0.5119
-0.7270 जाते </s> -0.6021
-2.5141 <s> कर्ज़ -0.4771
-0.6021 कर्ज़ से -0.5934
-1.7047 से बडा -0.3979
-0.4260 बडा पाप 0.0000
-0.1249 पाप दूसरा 0.0000
-0.1249 दूसरा नहीं -0.5502
-0.9488 नहीं </s> -0.6021
-1.7877 न इससे -0.5315
-0.8239 इससे बडी -0.5315
-0.8239 बडी विपत्ति -0.3979
-0.4260 विपत्ति दूसरी 0.0000
-0.1249 दूसरी है -0.3266
-2.2131 <s> जहां -0.3979
-0.7270 जहां एक -0.5763
-1.2389 एक बार -0.3979
-0.4260 बार धड़का 0.0000
-0.1249 धड़का खुला 0.0000
-0.1249 खुला कि -0.5740
-1.2041 कि तुम -0.5315
-0.8239 तुम आए -0.4771
-0.6021 आए दिन -0.5441
-0.9031 दिन सराफ 0.0000
-0.1249 सराफ की -0.5798
-1.3010 की दुकान -0.3010
-0.3010 दुकान पर -0.5752
-1.5229 पर खड़े 0.0000
-0.1249 खड़े नज़र 0.0000
-0.1249 नज़र आओगे 0.0000
-0.1249 आओगे </s> -0.6021
-2.2131 <s> बुरा -0.4472
-0.8239 बुरा न -0.5949
-1.7877 न मानना 0.0000
-0.1249 मानना मैं -0.5877
-1.4867 मैं जानता -0.5119
-0.7270 जानता हूं -0.5812
-1.3291 हूं तुम्हारी -0.4771
-0.6021 तुम्हारी आमदनी 0.0000
-0.1249 आमदनी अच्छी -0.3979
-0.4260 अच्छी है -0.3266
-1.5229 पर भविष्य 0.0000
-0.1249 भविष्य के -0.5907
-1.5873 के भरोसे 0.0000
-0.1249 भरोसे पर -0.5888
-1.5229 पर और -0.5903
-1.5721 और चाहे -0.3979
-0.4260 चाहे जो -0.5781
-1.2711 जो काम -0.5315
-0.8239 काम करो -0.4771
-0.6021 करो लेकिन -0.5682
-1.1249 लेकिन कर्ज -0.4771
-0.6021 कर्ज क़भी 0.0000
-0.1249 क़भी मत -0.2430
-0.4771 गहनों का -0.5441
-1.6812 का मर्ज़ 0.0000
-0.1249 मर्ज़ न -0.5803
-0.9031 जाने इस -0.5714
-1.1663 इस दरिद्र -0.3979
-0.4260 दरिद्र देश -0.4973
-0.6690 देश में -0.5888
-1.8239 में कैसे -0.5119
-0.7270 कैसे फैल 0.0000
-0.1249 फैल गया -0.4210
-2.5141 <s> जिन 0.0000
-0.1249 जिन लोगों -0.3979
-0.4260 लोगों के -0.5907
-1.5873 के भोजन -0.4771
-0.6021 भोजन का -0.5929
-1.6812 का ठिकाना 0.0000
-0.1249 ठिकाना नहीं -0.5966
-1.9031 नहीं वे 0.0000
-0.1249 वे भी -0.5628
-1.0628 भी गहनों -0.1249
-1.5873 के पीछे 0.0000
-0.1249 पीछे प्राण 0.0000
-0.1249 प्राण देते -0.3424
-0.3468 देते है -0.3266
-2.5141 <s> हर -0.3979
-0.4260 हर साल -0.3979
-0.4260 साल अरबों 0.0000
-0.1249 अरबों रूपये -0.5714
-1.1663 रूपये केवल -0.3979
-0.4260 केवल सोना 0.0000
-0.1249 सोना चांदी 0.0000
-0.1249 चांदी खरीदने 0.0000
-0.1249 खरीदने में -0.5955
-1.8239 में व्यय 0.0000
-0.1249 व्यय हो -0.5714
-1.1663 हो जाते -0.3979
-0.4260 जाते है -0.3203
-2.5141 <s> संसार 0.0000
-0.1249 संसार के -0.5907
-1.5873 के और -0.5781
-1.2711 और किसी -0.5195
-1.2389 किसी देश -0.4973
-1.8239 में इन -0.4771
-0.6021 इन धातुआं 0.0000
-0.1249 धातुआं की -0.5911
-1.6021 की इतनी 0.0000
-0.1249 इतनी खपत 0.0000
-0.1249 खपत नहीं -0.5502
-1.8151 <s> तो -0.5758
-1.9311 तो बात -0.5714
-1.1663 बात क्या -0.5260
-2.5141 <s> उन्नत 0.0000
-0.1249 उन्नत देशों 0.0000
-0.1249 देशों में -0.5955
-1.8239 में धन -0.5315
-0.8239 धन व्यापार 0.0000
-0.1249 व्यापार में -0.5955
-1.8239 में लगता -0.3979
-0.4260 लगता है -0.3266
-2.5141 <s> जिससे 0.0000
-0.1249 जिससे लोगों -0.3979
-0.4260 लोगों की -0.5911
-1.6021 की परवरिश 0.0000
-0.1249 परवरिश होती -0.3010
-0.3010 होती है -0.3010
-1.8151 <s> और -0.5260
-1.5721 और धन -0.5315
-0.8239 धन बढ़ता 0.0000
-0.1249 बढ़ता है -0.3266
-1.9120 <s> यहां -0.3590
-0.9700 यहां धन -0.5315
-0.8239 धन ऋंगार 0.0000
-0.1249 ऋंगार में -0.5888
-1.5229 में खर्च -0.2430
-0.7270 खर्च होता -0.4543
-2.5141 <s> उसमें 0.0000
-0.1249 उसमें उन्नित 0.0000
-0.1249 उन्नित और -0.5903
-1.5721 और उपकार 0.0000
-0.1249 उपकार की -0.5911
-1.6021 की जो -0.5781
-1.2711 जो दो -0.5528
-0.9700 दो महान 0.0000
-0.1249 महान शक्तियां 0.0000
-0.1249 शक्तियां है -0.3266
-0.6021 उन दोनों 0.0000
-0.1249 दोनों ही -0.5914
-1.6163 ही का -0.5836
-1.3802 का अंत 0.0000
-0.4260 अंत हो -0.5714
-1.1663 हो जाता -0.1761
-0.4260 जाता है -0.3140
-2.5141 <s> बस -0.3979
-0.4260 बस यही -0.2430
-0.4260 यही समझ -0.3010
-0.6021 समझ लो -0.3979
-0.4260 लो कि -0.5740
-1.2041 कि जिस 0.0000
-0.1249 जिस देश -0.5528
-0.9700 देश के -0.5790
-1.2863 के लोग -0.4472
-0.8239 लोग जितने 0.0000
-0.1249 जितने मूर्ख 0.0000
-0.1249 मूर्ख होंग 0.0000
-0.1249 होंग </s> -0.6021
-0.9700 यहां जेवरों 0.0000
-1.6812 का प्रचार 0.0000
-0.1249 प्रचार भी -0.5893
-1.5399 भी उतना 0.0000
-0.1249 उतना ही -0.5914
-1.6163 ही अधिक 0.0000
-0.1249 अधिक होगा -0.3979
-0.4260 होगा </s> -0.6021
-0.9700 यहां तो -0.5969
-1.9311 तो खैर -0.3979
-0.4260 खैर नाक -0.3010
-0.3010 नाक कान 0.0000
-0.4260 कान छिदाकर 0.0000
-0.1249 छिदाकर ही -0.5914
-1.6163 ही रह -0.3979
-0.4260 रह जाते -0.3979
-1.0280 मगर कई -0.4771
-0.6021 कई ऐसे -0.3979
-0.4260 ऐसे देश -0.5528
-0.9700 देश भी -0.5893
-1.5399 भी है -0.5988
-2.1206 है जहां -0.5119
-0.7270 जहां होंठ 0.0000
-0.1249 होंठ छेदिकर 0.0000
-0.1249 छेदिकर लोग -0.5315
-0.8239 लोग गहने -0.5441
-0.9031 गहने पहनते 0.0000
-0.1249 पहनते है -0.3266
-1.3554 ने कौतूहल 0.0000
-0.1249 कौतूहल से -0.5756
-1.2276 से कहा -0.3979
-0.7270 कहा </s> -0.6021
-1.1663 इस समय -0.5119
-0.7270 समय ठीक -0.3979
-0.4260 ठीक याद -0.3979
-0.4260 याद नहीं -0.5911
-1.6021 नहीं आता -0.3010
-0.6021 आता पर -0.5888
-1.5229 पर शायद -0.3979
-0.4260 शायद अफ्रीका 0.0000
-0.1249 अफ्रीका हो -0.5384
-0.8653 हो </s> -0.6021
-2.5141 <s> हमें 0.0000
-0.1249 हमें यह -0.5863
-1.4472 यह सुनकर 0.0000
-0.1249 सुनकर अचंभा 0.0000
-0.1249 अचंभा होता -0.4543
-2.1206 है लेकिन -0.5682
-1.1249 लेकिन अन्य 0.0000
-0.1249 अन्य देश -0.5528
-0.9700 देश वालों 0.0000
-0.1249 वालों के -0.5288
-1.0280 लिए नाक -0.3010
-0.4260 कान का -0.5929
-1.6812 का छिदना 0.0000
-0.1249 छिदना कुछ -0.5528
-0.9700 कुछ कम -0.4771
-0.6021 कम अचंभे 0.0000
-0.1249 अचंभे की -0.5798
-1.3010 की बात -0.5027
-1.1663 बात न -0.5949
-1.7877 न होगी 0.0000
-0.8239 बुरा मरज 0.0000
-0.1249 मरज है, 0.0000
-0.1249 है, बहुत -0.5441
-0.9031 बहुत ही -0.5914
-1.6163 ही बुरा -0.5315
-0.8239 बुरा </s> -0.6021
-2.2131 <s> वह -0.4472
-0.8239 वह धन -0.4472
-0.8239 धन जो -0.5781
-1.2711 जो भोजन -0.4771
-0.6021 भोजन में -0.5888
-0.4260 खर्च होना 0.0000
-0.1249 होना चाहिए -0.3424
-0.8239 चाहिए बाल 0.0000
-0.1249 बाल बच्चों -0.3979
-0.4260 बच्चों का -0.5929
-1.6812 का पेट -0.3979
-0.4260 पेट काटकर 0.0000
-0.1249 काटकर गहनों -0.5229
-0.7782 गहनों की -0.5798
-1.6021 की भेंट 0.0000
-0.1249 भेंट कर -0.4914
-0.6478 कर दिया -0.3979
-0.9031 दिया जाता -0.3979
-2.5141 <s> बच्चों -0.3979
-0.4260 बच्चों को -0.5846
-1.4037 को दूध 0.0000
-0.1249 दूध न -0.5949
-1.7877 न मिले 0.0000
-0.1249 मिले न -0.5803
-1.3106 न सही 0.0000
-0.6021 सही घी 0.0000
-0.1249 घी की -0.5911
-1.6021 की गंध 0.0000
-0.1249 गंध तक -0.5781
-1.2711 तक उनकी -0.4771
-0.6021 उनकी नाक -0.4771
-0.6021 नाक में -0.5821
-1.7877 न पहुंचे 0.0000
-0.1249 पहुंचे न -0.5803
-0.6021 सही </s> -0.6021
-2.5141 <s> मेवों 0.0000
-0.1249 मेवों और -0.5903
-1.5721 और फलों 0.0000
-0.1249 फलों के -0.5907
-1.5873 के दर्शन 0.0000
-0.1249 दर्शन उन्हें -0.5528
-0.9700 उन्हें न -0.5803
-0.8239 हों कोई -0.5643
-1.0792 कोई परवा 0.0000
-0.1249 परवा नहीं -0.5502
-1.5229 पर देवीजी 0.0000
-0.1249 देवीजी गहने -0.4771
-0.6021 गहने जरूर -0.3010
-0.6021 जरूर पहनेंगी 0.0000
-0.1249 पहनेंगी और -0.5903
-1.5721 और स्वामीजी 0.0000
-0.1249 स्वामीजी गहने -0.4771
-0.6021 जरूर बनवाएंगे 0.0000
-0.1249 बनवाएंगे </s> -0.6021
-2.5141 <s> दस -0.3979
-0.4260 दस दस -0.3979
-0.4260 दस बीस -0.3979
-0.4260 बीस बीस -0.3979
-0.4260 बीस रूपये -0.5714
-1.1663 रूपये पाने 0.0000
-0.1249 पाने वाले -0.3010
-0.6021 वाले क्लर्को 0.0000
-0.1249 क्लर्को को -0.5846
-1.4037 को देखता 0.0000
-0.1249 देखता हूं -0.3979
-1.8151 <s> जो -0.3979
-1.2711 जो सड़ी 0.0000
-0.1249 सड़ी हुई -0.3979
-0.4260 हुई कोठरियों 0.0000
-0.1249 कोठरियों में -0.5955
-1.8239 में पशुआं 0.0000
-0.1249 पशुआं की -0.5911
-1.6021 की भांति 0.0000
-0.1249 भांति जीवन -0.4771
-0.6021 जीवन काटते 0.0000
-0.1249 काटते है -0.3266
-2.5141 <s> जिन्हें 0.0000
-0.1249 जिन्हें सवेरे -0.4771
-0.6021 सवेरे का -0.5929
-1.6812 का जलपान 0.0000
-0.1249 जलपान तक -0.5781
-1.2711 तक मयस्सर 0.0000
-0.1249 मयस्सर नहीं -0.5966
-1.9031 नहीं होता -0.5488
-0.9379 होता </s> -0.6021
-0.6021 उन पर -0.5752
-1.2218 पर भी -0.5195
-1.6021 की सनक 0.0000
-0.1249 सनक सवार -0.3979
-0.4260 सवार रहती -0.3979
-0.4260 रहती है -0.3266
-2.0370 <s> इस -0.5027
-1.1663 इस प्रथा 0.0000
-0.1249 प्रथा से -0.5934
-1.7047 से हमारा -0.3979
-0.4260 हमारा सवर्चनाश 0.0000
-0.1249 सवर्चनाश होता -0.5763
-1.2389 होता जा -0.3010
-0.3010 जा रहा -0.3010
-0.4771 रहा है -0.3203
-1.9311 तो कहता -0.3979
-0.4260 कहता हूं -0.5812
-1.3291 हूं यह -0.5863
-1.4472 यह गुलामी 0.0000
-0.1249 गुलामी पराधीनता 0.0000
-0.1249 पराधीनता से -0.5934
-1.7047 से कहीं -0.3979
-0.4260 कहीं बढ़कर 0.0000
-0.1249 बढ़कर है -0.3266
-2.5141 <s> इसके -0.3979
-0.4260 इसके कारण 0.0000
-0.1249 कारण हमारा -0.3979
-0.4260 हमारा कितना -0.3979
-0.4260 कितना आत्मिक 0.0000
-0.1249 आत्मिक नैतिक 0.0000
-0.1249 नैतिक दैहिक 0.0000
-0.1249 दैहिक आर्थिक 0.0000
-0.1249 आर्थिक और -0.5903
-1.5721 और धामिक 0.0000
-0.1249 धामिक पतन 0.0000
-0.1249 पतन हो -0.5870
-1.4674 हो रहा -0.4260
-2.5141 <s> इसका -0.3979
-0.4260 इसका अनुमान 0.0000
-0.1249 अनुमान ब्रह्मा 0.0000
-0.1249 ब्रह्मा भी -0.5628
-1.1249 कर सकते -0.3979
-0.4260 सकते </s> -0.6021
-1.9311 तो समझता 0.0000
-0.1249 समझता हूं -0.3641
-1.3291 हूं ऐसा -0.4771
-0.6021 ऐसा कोई -0.5643
-1.0792 कोई भी -0.5893
-1.5399 भी देश -0.5528
-0.9700 देश नहीं -0.5966
-1.9031 नहीं जहां -0.5119
-0.7270 जहां स्त्रियां 0.0000
-0.1249 स्त्रियां गहने -0.5441
-0.9031 गहने न -0.5949
-1.7877 न पहनती 0.0000
-0.1249 पहनती हों -0.5315
-0.8239 हों </s> -0.6021
-2.0370 <s> क्या -0.5260
-1.2711 क्या युरोप -0.3979
-0.4260 युरोप में -0.5955
-1.8239 में गहनों -0.4260
-1.6812 का रिवाज 0.0000
-0.1249 रिवाज नहीं -0.5441
-1.9311 तो तुम्हारा 0.0000
-0.1249 तुम्हारा देश -0.5528
-0.9700 देश युरोप -0.3979
-0.4260 युरोप तो -0.5758
-1.2321 तो नहीं -0.5119
-2.5141 <s> वहां 0.0000
-0.1249 वहां के -0.5790
-0.8239 लोग धानी 0.0000
-0.1249 धानी है -0.5988
-2.1206 है वह -0.5315
-0.8239 धन लुटाएं 0.0000
-0.1249 लुटाएं </s> -0.6021
-0.9700 उन्हें शोभा 0.0000
-0.1249 शोभा देता -0.3979
-0.7270 देता है -0.5988
-2.1206 है हम -0.3979
-0.4260 हम दरिद्र -0.3979
-0.4260 दरिद्र है -0.3266
-2.5141 <s> हमारी 0.0000
-0.1249 हमारी कमाई 0.0000
-0.1249 कमाई का -0.5929
-1.6812 का एक -0.5488
-0.9379 एक पैसा 0.0000
-0.1249 पैसा भी -0.5763
-1.5399 भी </s> -0.6021
-2.5141 <s> फजूल 0.0000
-0.1249 फजूल न -0.5949
-1.7877 न खर्च -0.3979
-0.5229 चाहिए </s> -0.6021
-0.6021 बाबू इस -0.5714
-1.1663 इस बात -0.5714
-1.1663 बात विवाद 0.0000
-0.1249 विवाद में -0.5955
-1.8239 में शतरंज 0.0000
-0.1249 शतरंज भूल -0.3979
-0.4260 भूल गए -0.3680
-0.3802 गए </s> -0.6021
-2.5141 <s> छुट्टी 0.0000
-0.1249 छुट्टी का -0.5929
-1.6812 का दिन -0.5441
-0.9031 दिन था -0.5855
-1.4260 था ही -0.5914
-1.6163 ही दो -0.4973
-0.6021 चार मिलने -0.3979
-0.4260 मिलने वाले -0.4771
-0.6021 वाले और -0.5903
-1.5721 और आ -0.5315
-0.8239 आ गए -0.3680
-0.9031 रमानाथ चुपके 0.0000
-0.1249 चुपके से -0.5934
-1.7047 से खिसक 0.0000
-0.1249 खिसक आया -0.5119
-0.7270 आया </s> -0.6021
-1.1663 इस बहस 0.0000
-0.1249 बहस में -0.5955
-1.8239 में एक -0.5763
-1.2389 एक बात -0.5714
-1.1663 बात ऐसी -0.5315
-0.8239 ऐसी थी -0.5384
-0.8653 थी जो -0.5260
-1.2711 जो उसके -0.4771
-0.6021 उसके दिल -0.4771
-0.6021 दिल में -0.5955
-1.8239 में बैठ 0.0000
-0.1249 बैठ गई -0.3590
-0.3680 गई </s> -0.6021
-2.5141 <s> उधार -0.5119
-0.7270 उधार गहने -0.5441
-0.9031 गहने लेने -0.4472
-0.5229 लेने का -0.5836
-1.6812 का विचार 0.0000
-0.1249 विचार उसके -0.4771
-0.6021 उसके मन -0.4771
-0.6021 मन से -0.5846
-1.4037 से निकल -0.3010
-0.3010 निकल गया -0.3736
-2.5141 <s> कहीं -0.3979
-0.4260 कहीं वह -0.5682
-1.1249 वह जल्दी 0.0000
-0.1249 जल्दी रूपया -0.3979
-0.4260 रूपया न -0.5949
-1.7877 न चुका -0.3979
-0.4260 चुका सका 0.0000
-0.1249 सका तो -0.5969
-1.9311 तो कितनी -0.3979
-0.4260 कितनी बडी -0.5315
-0.8239 बडी बदनामी -0.3979
-0.4260 बदनामी होगी 0.0000
-2.5141 <s> सराफे 0.0000
-1.2711 तक गया -0.5714
-1.1663 गया अवश्य -0.3979
-0.4260 अवश्य पर -0.5888
-1.5229 पर किसी -0.5763
-1.2389 किसी दुकान -0.4771
-0.6021 दुकान में -0.5955
-1.8239 में जाने -0.5441
-0.9031 जाने का -0.5929
-1.6812 का साहस 0.0000
-0.1249 साहस न -0.5949
-1.7877 न हुआ -0.4973
-0.6690 हुआ </s> -0.6021
-2.2131 <s> उसने -0.5229
-1.0792 उसने निश्चय 0.0000
-0.1249 निश्चय किया -0.5593
-1.0280 किया अभी -0.4771
-0.6021 अभी तीन -0.5119
-0.7270 तीन चार -0.4771
-0.6021 चार महीने -0.3979
-0.4260 महीने तक -0.5781
-1.2711 तक गहनों -0.4260
-0.4929 नाम न -0.5803
-1.7877 न लूंगा 0.0000
-0.8239 वह घर -0.5229
-1.0792 घर पहुंचा 0.0000
-0.1249 पहुंचा तो -0.5969
-1.9311 तो नौ -0.4771
-0.6021 नौ बज 0.0000
-0.1249 बज गए -0.4771
-0.6021 गए थे -0.2430
-1.0280 थे दयानाथ -0.3979
-0.4260 दयानाथ ने -0.5177
-0.8783 ने उसे -0.3979
-0.9031 उसे देखा -0.3979
-0.4260 देखा तो -0.5969
-1.9311 तो पूछा -0.3979
-0.4260 पूछा </s> -0.6021
-2.0370 <s> आज -0.3424
-0.8239 आज सवेरे -0.4771
-0.6021 सवेरे कहां -0.3010
-0.3010 कहां चले -0.3010
-1.6021 रमा ज़रा -0.5315
-0.8239 ज़रा बडे 0.0000
-0.1249 बडे बाबू -0.4771
-0.6021 बाबू से -0.5934
-1.7047 से मिलने -0.3979
-0.4260 मिलने गया -0.5384
-0.8653 गया था -0.3118
-2.0370 <s> दया -0.2430
-0.7270 दया घंटे -0.3979
-0.4260 घंटे आध -0.3979
-0.4260 आध घंटे -0.3979
-0.4260 घंटे के -0.5288
-1.0280 लिए पुस्तकालय 0.0000
-0.1249 पुस्तकालय क्यों -0.4914
-1.9031 नहीं चले -0.5441
-0.9031 चले जाया 0.0000
-0.1249 जाया करते -0.4771
-0.6021 करते </s> -0.6021
-2.5141 <s> गप 0.0000
-0.1249 गप शप 0.0000
-0.1249 शप में -0.5955
-1.8239 में दिन -0.5441
-0.9031 दिन गंवा 0.0000
-0.1249 गंवा देते -0.5315
-0.8239 देते हो -0.5384
-2.5141 <s> अभी -0.4771
-0.6021 अभी तुम्हारी -0.4771
-0.6021 तुम्हारी पढ़ने -0.3979
-0.4260 पढ़ने लिखने 0.0000
-0.1249 लिखने की -0.5911
-1.6021 की उम्र 0.0000
-0.1249 उम्र है -0.3266
-2.5141 <s> इम्तहान 0.0000
-0.1249 इम्तहान न -0.5803
-0.6021 सही अपनी -0.5315
-0.8239 अपनी योग्यता 0.0000
-0.1249 योग्यता तो -0.5969
-1.9311 तो बढ़ा 0.0000
-0.1249 बढ़ा सकते -0.3979
-0.4260 सकते हो -0.5384
-1.2389 एक सीधा 0.0000
-0.1249 सीधा सा 0.0000
-0.1249 सा खत 0.0000
-0.1249 खत लिखना -0.3979
-0.4260 लिखना पड़ -0.3979
-0.4260 पड़ जाता -0.3979
-1.8195 है तो -0.5918
-1.9311 तो बगलें 0.0000
-0.1249 बगलें झांकने 0.0000
-0.1249 झांकने लगते 0.0000
-0.1249 लगते हो -0.5384
-2.5141 <s> असली 0.0000
-0.1249 असली शिक्षा 0.0000
-0.1249 शिक्षा स्कूल 0.0000
-0.1249 स्कूल छोड़ने 0.0000
-0.1249 छोड़ने के -0.5014
-1.2863 के बाद 0.0000
-0.4260 बाद ही -0.5914
-1.6163 ही शुरू 0.0000
-0.1249 शुरू होती -0.3010
-1.5721 और वही 0.0000
-0.1249 वही हमारे -0.3979
-0.4260 हमारे जीवन -0.4771
-0.6021 जीवन में -0.5955
-1.8239 में काम -0.5315
-0.8239 काम भी -0.5893
-1.5399 भी आती 0.0000
-0.1249 आती है -0.3076
-2.2131 <s> मैंने -0.3979
-0.7270 मैंने तुम्हारे -0.5119
-0.7270 तुम्हारे विषय -0.3010
-1.8239 में कुछ -0.4973
-0.6690 कुछ ऐसी -0.3424
-0.3468 ऐसी बातें -0.2430
-0.7270 बातें सुनी 0.0000
-0.1249 सुनी है -0.5988
-2.1206 है जिनसे 0.0000
-0.1249 जिनसे मुझे -0.5763
-1.2389 मुझे बहुत -0.5441
-0.9031 बहुत खेद 0.0000
-0.1249 खेद हुआ -0.4973
-0.6690 हुआ है -0.3266
-1.5721 और तुम्हें -0.5528
-0.9700 तुम्हें समझा -0.3979
-0.4260 समझा देना -0.5119
-0.7270 देना मैं -0.5877
-1.4867 मैं अपना -0.5315
-0.8239 अपना धर्म -0.3979
-0.4260 धर्म समझता 0.0000
-1.4867 मैं यह -0.5863
-1.4472 यह हरगिज 0.0000
-0.1249 हरगिज नहीं -0.5966
-1.9031 नहीं चाहता -0.5315
-0.8239 चाहता कि -0.5740
-1.2041 कि मेरे -0.5119
-0.7270 मेरे घर -0.4260
-1.8239 में हराम -0.3979
-0.4260 हराम की -0.5911
-1.6021 की एक -0.5763
-1.2389 एक कौड़ी -0.4771
-0.6021 कौड़ी भी -0.5893
-1.5399 भी आए -0.3010
-2.5141 <s> मुझे -0.5763
-1.2389 मुझे नौकरी 0.0000
-0.1249 नौकरी करते -0.4771
-0.6021 करते तीस 0.0000
-0.1249 तीस साल -0.3979
-0.4260 साल हो -0.5870
-1.4674 हो गए -0.3680
-2.5141 <s> चाहता -0.5315
-0.8239 चाहता तो -0.5918
-1.6301 तो अब -0.3979
-1.2711 तक हज़ारों 0.0000
-0.1249 हज़ारों रूपये -0.5027
-0.6892 रूपये जमा -0.2430
-0.7270 जमा कर -0.5682
-1.1249 कर लेता 0.0000
-0.1249 लेता </s> -0.6021
-1.1249 लेकिन मैं -0.5877
-1.4867 मैं कसम 0.0000
-0.1249 कसम खाता 0.0000
-0.1249 खाता हूं -0.5812
-1.3291 हूं कभी -0.5441
-0.9031 कभी एक -0.5488
-1.5399 भी हराम -0.3979
-0.4260 हराम का -0.5929
-1.6812 का नहीं -0.5911
-1.6021 नहीं लिया -0.3010
-2.5141 <s> तुममें 0.0000
-0.1249 तुममें यह -0.5863
-1.4472 यह आदत 0.0000
-0.1249 आदत कहां -0.4771
-0.6021 कहां से -0.5934
-1.7047 से आ -0.5315
-0.8239 आ गई -0.5528
-0.9700 गई यह -0.5863
-1.4472 यह मेरी -0.5315
-0.8239 मेरी समझि 0.0000
-0.1249 समझि में -0.5821
-1.3468 में नहीं -0.5798
-0.6021 आता </s> -0.6021
-1.3554 ने बनावटी 0.0000
-0.1249 बनावटी क्रोध -0.3979
-0.4260 क्रोध दिखाकर 0.0000
-0.1249 दिखाकर कहा -0.5119
-2.5141 <s> किसने 0.0000
-0.1249 किसने आपसे 0.0000
-0.1249 आपसे कहा -0.5593
-1.0280 कहा है -0.5954
-0.8239 ज़रा उसका -0.5119
-0.7270 उसका नाम -0.4973
-0.6690 नाम तो -0.5918
-1.9311 तो बताइए 0.0000
-0.1249 बताइए </s> -0.6021
-2.5141 <s> मूंछें 0.0000
-0.1249 मूंछें उखाड़ 0.0000
-0.4260 उखाड़ लूं -0.4771
-0.6021 लूं उसकी -0.5119
-0.7270 उसकी </s> -0.6021
-0.7270 दया किसी -0.5488
-0.9379 किसी ने -0.5619
-1.3554 ने भी -0.5893
-1.5399 भी कहा -0.5593
-1.0280 कहा इससे -0.5315
-0.8239 इससे तुम्हें -0.5528
-0.9700 तुम्हें कोई -0.5643
-1.0792 कोई मतलब 0.0000
-0.1249 मतलब नहीं -0.5502
-2.2131 <s> तुम -0.4472
-0.8239 तुम उसकी -0.5119
-0.7270 उसकी मूंछें 0.0000
-0.4260 उखाड़ लोगे 0.0000
-0.1249 लोगे इसिलए 0.0000
-0.1249 इसिलए बताऊंगा 0.0000
-0.1249 बताऊंगा नहीं -0.5502
-1.1249 लेकिन बात -0.5714
-1.1663 बात सच 0.0000
-0.1249 सच है -0.5988
-2.1206 है या 0.0000
-0.1249 या झूठ -0.5119
-0.7270 झूठ मैं -0.5728
-1.1856 मैं इतना -0.3010
-0.6021 इतना ही -0.5914
-1.6163 ही पूछना 0.0000
-0.1249 पूछना चाहता -0.5315
-0.8239 चाहता हूं -0.3979
-1.6021 रमा बिलकुल -0.3424
-0.3468 बिलकुल झूठ -0.2430
-0.2499 झूठ </s> -0.6021
-2.5141 <s> दयान 0.0000
-0.1249 दयान बिलकुल -0.3424
-1.6021 रमा जी -0.4771
-0.6021 जी हां -0.5441
-0.9031 हां बिलकुल -0.3424
-0.7270 दया तुम -0.5315
-0.8239 तुम दस्तूरी -0.5119
-0.7270 दस्तूरी नहीं -0.5966
-1.9031 नहीं लेते -0.5315
-0.8239 लेते </s> -0.6021
-1.3010 रमा दस्तूरी -0.3979
-0.7270 दस्तूरी रिश्वत -0.3979
-0.4260 रिश्वत नहीं -0.5441
-2.1206 है सभी -0.3979
-0.4260 सभी लेते -0.3424
-0.3468 लेते है -0.3010
-1.5185 है और -0.5528
-1.5721 और खुल्लम 0.0000
-0.1249 खुल्लम खुल्ला 0.0000
-0.1249 खुल्ला लेते -0.3424
-2.5141 <s> लोग -0.4472
-0.5229 लोग बिना 0.0000
-0.4260 बिना मांग 0.0000
-0.1249 मांग आप -0.4771
-0.6021 आप ही -0.5914
-1.6163 ही आप -0.4771
-0.6021 आप देते -0.3424
-1.4867 मैं किसी -0.5763
-1.2389 किसी से -0.5934
-1.7047 से मांगने 0.0000
-0.1249 मांगने नहीं -0.5966
-1.9031 नहीं जाता -0.4771
-0.6021 जाता </s> -0.6021
-2.5141 <s> दयासभी 0.0000
-0.1249 दयासभी खुल्लम 0.0000
-1.5721 और लोग -0.4472
-0.4260 बिना मांगे 0.0000
-0.1249 मांगे देते -0.3424
-2.2131 <s> इससे -0.4472
-0.8239 इससे तो -0.5969
-1.9311 तो रिश्वत -0.3979
-0.4260 रिश्वत की -0.5911
-1.6021 की बुराई 0.0000
-0.1249 बुराई कम -0.3010
-0.3010 कम नहीं -0.5315
-1.6021 नहीं हो -0.5384
-1.1663 हो जाती -0.2041
-0.5229 जाती </s> -0.6021
-0.7270 दस्तूरी को -0.5846
-1.4037 को बंद 0.0000
-1.1249 कर देना -0.5119
-0.7270 देना मेरे -0.5119
-0.7270 मेरे वश -0.4771
-0.6021 वश की -0.5798
-0.8653 बात नहीं -0.5441
-1.1856 मैं खुद 0.0000
-0.1249 खुद न -0.5877
-1.4867 न लूं -0.3010
-0.6021 लूं लेकिन -0.5682
-1.1249 लेकिन चपरासी 0.0000
-0.1249 चपरासी और -0.5903
-1.5721 और मुहरिर 0.0000
-0.1249 मुहरिर का -0.5929
-1.6812 का हाथ -0.5119
-0.7270 हाथ तो -0.5758
-1.9031 नहीं पकड़ 0.0000
-0.1249 पकड़ सकता -0.3979
-0.4260 सकता </s> -0.6021
-2.5141 <s> आठ -0.3979
-0.4260 आठ आठ -0.3979
-0.4260 आठ नौ -0.4771
-0.6021 नौ नौ -0.4771
-0.6021 नौ पाने 0.0000
-0.6021 वाले नौकर 0.0000
-0.1249 नौकर अगर -0.5441
-0.9031 अगर न -0.5949
-1.7877 न लें 0.0000
-0.1249 लें </s> -0.6021
-1.9311 तो उनका 0.0000
-0.1249 उनका काम -0.5315
-0.8239 काम ही -0.5579
-1.0142 ही नहीं -0.5315
-1.9031 नहीं चल 0.0000
-0.1249 चल सकता -0.5119
-0.7270 सकता मैं -0.5728
-0.6021 लूं पर -0.5888
-1.5229 पर उन्हें -0.5528
-0.9700 उन्हें रोक 0.0000
-0.1249 रोक नहीं -0.5966
-1.9031 नहीं सकता -0.3979
-2.5141 <s> दयानाथ -0.3979
-1.3554 ने उदासीन 0.0000
-0.1249 उदासीन भाव -0.3010
-0.3010 भाव से -0.5756
-1.0280 कहा मैंने -0.5119
-0.7270 मैंने समझा -0.3979
-0.4260 समझा दिया -0.5441
-0.9031 दिया का -0.5929
-1.6812 का अख्तयार 0.0000
-0.1249 अख्तयार तुम्हें -0.5528
-0.9700 तुम्हें है -0.3266
-1.8151 <s> यह -0.5166
-1.4472 यह कहते -0.4771
-0.6021 कहते हुए -0.3979
-0.4260 हुए दयानाथ -0.5119
-0.7270 दयानाथ दफ्तर -0.3979
-0.4260 दफ्तर चले -0.3010
-1.6021 रमा के -0.5907
-1.5873 के मन -0.4771
-0.6021 मन में -0.5955
-1.8239 में आया -0.5119
-0.7270 आया साफ -0.3979
-0.4260 साफ कह 0.0000
-0.1249 कह दे -0.5315
-0.8239 दे आपने -0.3979
-0.4260 आपने निस्पृतह 0.0000
-0.1249 निस्पृतह बनकर 0.0000
-0.1249 बनकर क्या -0.5781
-1.2711 क्या कर -0.5315
-0.8239 कर लिया -0.3010
-0.9700 जो मुझे -0.5488
-1.2389 मुझे दोष -0.3979
-0.4260 दोष दे -0.4472
-0.5229 दे रहे -0.3010
-0.7782 रहे है -0.3266
-2.5141 <s> हमेशा -0.3979
-0.4260 हमेशा पैसे -0.4771
-0.6021 पैसे पैसे -0.4771
-0.6021 पैसे को -0.5663
-1.1027 को मुहताज 0.0000
-0.1249 मुहताज रहे -0.4771
-0.6021 रहे </s> -0.6021
-2.5141 <s> लड़कों 0.0000
-0.1249 लड़कों को -0.5846
-1.4037 को पढ़ा 0.0000
-0.1249 पढ़ा तक -0.5528
-0.9700 तक न -0.5877
-1.7877 न सके 0.0000
-0.1249 सके </s> -0.6021
-2.5141 <s> जूते 0.0000
-0.1249 जूते कपड़े -0.3979
-0.4260 कपड़े तक -0.5528
-1.7877 न पहना 0.0000
-0.1249 पहना सके 0.0000
-1.4472 यह डींग 0.0000
-0.1249 डींग मारना 0.0000
-0.1249 मारना तब -0.3979
-0.4260 तब शोभा 0.0000
-0.7270 देता जब -0.5528
-0.9700 जब कि -0.5740
-1.2041 कि नीयत 0.0000
-0.1249 नीयत भी -0.5893
-1.5399 भी साफ -0.3979
-0.4260 साफ रहती -0.3979
-0.4260 रहती और -0.5903
-1.5721 और जीवन -0.4771
-0.6021 जीवन भी -0.5893
-1.5399 भी सुख 0.0000
-0.1249 सुख से -0.5934
-1.7047 से कटता 0.0000
-0.1249 कटता </s> -0.6021
-1.6021 रमा घर -0.4260
-1.8239 में गया -0.5714
-1.1663 गया तो -0.5969
-1.9311 तो माता 0.0000
-0.1249 माता ने -0.5825
-1.3554 ने पूछा -0.3979
-0.8239 आज कहां -0.3010
-1.0280 थे बेटा -0.3979
-0.4260 बेटा तुम्हारे -0.5119
-0.7270 तुम्हारे बाबूजी 0.0000
-0.1249 बाबूजी इसी -0.3979
-0.4260 इसी पर -0.5888
-1.5229 पर बिगड़ 0.0000
-0.1249 बिगड़ रहे -0.4260
-0.4771 रहे थे -0.2430
-1.6021 रमा इस -0.5714
-1.1663 इस पर -0.5888
-1.5229 पर तो -0.5758
-1.9031 नहीं बिगड़ 0.0000
-1.0280 थे हां -0.5441
-0.9031 हां उपदेश 0.0000
-0.1249 उपदेश दे -0.4472
-1.0280 थे कि -0.5740
-1.2041 कि दस्तूरी -0.5119
-0.7270 दस्तूरी मत -0.5119
-0.7270 मत लिया -0.5441
-0.9031 लिया करो -0.3010
-0.3010 करो </s> -0.6021
-0.8239 इससे आत्मा 0.0000
-0.1249 आत्मा दुर्बल 0.0000
-0.1249 दुर्बल होती -0.3010
-1.5721 और बदनामी -0.3979
-0.4260 बदनामी होती -0.3010
-2.2131 <s> जागेश्वरी 0.0000
-0.4260 जागेश्वरी तुमने -0.5315
-0.8239 तुमने कहा -0.5593
-1.0280 कहा नहीं -0.5966
-1.9031 नहीं आपने -0.3979
-0.4260 आपने बडी -0.5315
-0.8239 बडी ईमानदिारी 0.0000
-0.1249 ईमानदिारी की -0.5798
-1.3010 की तो -0.5918
-1.9311 तो कौन -0.4771
-0.6021 कौन से -0.5934
-1.7047 से झंडे 0.0000
-0.1249 झंडे गाड़ 0.0000
-0.1249 गाड़ दिए 0.0000
-0.1249 दिए </s> -0.6021
-2.5141 <s> सारी 0.0000
-0.1249 सारी जिदगी -0.3979
-0.4260 जिदगी पेट -0.3979
-0.4260 पेट पालते 0.0000
-0.1249 पालते रहे -0.4771
-0.9031 रमानाथ कहना 0.0000
-0.1249 कहना तो -0.5969
-1.9311 तो चाहता -0.4472
-0.5229 चाहता था -0.3118
-1.4260 था पर -0.5888
-1.5229 पर चिढ़ 0.0000
-0.1249 चिढ़ जाते -0.5119
-2.5141 <s> जैसे -0.4771
-0.6021 जैसे आप -0.4771
-0.6021 आप कौड़ी -0.4771
-0.6021 कौड़ी कौड़ी -0.4771
-0.6021 कौड़ी को -0.5663
-2.5141 <s> वैसे -0.3979
-0.4260 वैसे मुझे -0.5763
-1.2389 मुझे भी -0.5893
-1.5399 भी बनाना 0.0000
-0.1249 बनाना चाहते 0.0000
-0.1249 चाहते है -0.3266
-2.5141 <s> आपको -0.3979
-0.4260 आपको लेने -0.4472
-1.6812 का शऊर 0.0000
-0.1249 शऊर तो -0.5969
-1.9311 तो है -0.5988
-2.1206 है नहीं -0.5502
-0.9700 जब देखा -0.3979
-0.4260 देखा कि -0.5740
-1.2041 कि यहां -0.5528
-0.9700 यहां दाल 0.0000
-0.1249 दाल नहीं -0.5966
-1.9031 नहीं गलती 0.0000
-0.1249 गलती तो -0.5969
-1.9311 तो भगत 0.0000
-0.1249 भगत बन 0.0000
-0.1249 बन गए -0.3680
-0.9700 यहां ऐसे -0.3979
-0.4260 ऐसे घोंघा 0.0000
-0.1249 घोंघा बसंत 0.0000
-0.1249 बसंत नहीं -0.5441
-2.5141 <s> बनयों 0.0000
-0.1249 बनयों से -0.5934
-1.7047 से रूपये -0.5714
-1.1663 रूपये एंठने 0.0000
-0.1249 एंठने के -0.5288
-1.0280 लिए अक्ल -0.3979
-0.4260 अक्ल चाहिए -0.5315
-0.8239 चाहिए दिल्लगी 0.0000
-0.1249 दिल्लगी नहीं -0.5441
-0.7270 जहां किसी -0.5488
-1.3554 ने भगतपन 0.0000
-0.1249 भगतपन किया -0.5593
-1.0280 किया और -0.5903
-1.5721 और मैं -0.5877
-1.4867 मैं समझ -0.4771
-0.6021 समझ गया -0.5714
-1.1663 गया बुद्धू 0.0000
-0.1249 बुद्धू है -0.3266
-2.5141 <s> लेने -0.5315
-0.8239 लेने की -0.5911
-1.6021 की तमीज 0.0000
-0.1249 तमीज नहीं -0.5966
-1.9031 नहीं क्या -0.5781
-1.2711 क्या करे 0.0000
-0.1249 करे बेचारा 0.0000
-0.1249 बेचारा किसी -0.5488
-0.9379 किसी तरह -0.3979
-0.7270 तरह आंसू -0.3979
-0.4260 आंसू तो -0.5969
-1.9311 तो पोंछे 0.0000
-0.1249 पोंछे </s> -0.6021
-0.4260 जागेश्वरी बस -0.5119
-0.7270 बस बस -0.3979
-0.7270 यही बात -0.5714
-1.1663 बात है -0.5988
-2.1206 है बेटा -0.3979
-0.4260 बेटा </s> -0.6021
-2.5141 <s> जिसे 0.0000
-0.1249 जिसे लेना -0.5315
-0.8239 लेना आवेगा 0.0000
-0.1249 आवेगा वह -0.5682
-1.1249 वह जरूर -0.4771
-0.6021 जरूर लेगा 0.0000
-0.1249 लेगा </s> -0.6021
-2.5141 <s> इन्हें 0.0000
-0.1249 इन्हें तो -0.5969
-1.9311 तो बस -0.5119
-0.7270 बस घर -0.4260
-1.8239 में कानून -0.3979
-0.4260 कानून बघारना 0.0000
-0.1249 बघारना आता -0.4771
-0.6021 आता है -0.3266
-0.9379 किसी के -0.5419
-1.2863 के सामने -0.3010
-0.6021 सामने बात -0.5714
-1.1663 बात तक -0.5781
-1.2711 तक तो -0.5969
-1.9311 तो मुंह -0.3979
-0.4260 मुंह से -0.5934
-1.7047 से निकलती 0.0000
-0.1249 निकलती नहीं -0.5502
-2.5141 <s> रूपये -0.5714
-1.1663 रूपये निकाल 0.0000
-0.1249 निकाल लेना -0.5315
-0.8239 लेना तो -0.5969
-1.9311 तो मुश्किल 0.0000
-0.1249 मुश्किल है -0.3266
-1.6021 रमा दफ्तर -0.3979
-0.4260 दफ्तर जाते -0.5593
-1.0280 जाते समय -0.5119
-0.7270 समय ऊपर 0.0000
-0.1249 ऊपर कपड़े -0.3979
-0.4260 कपड़े पहनने 0.0000
-0.1249 पहनने गया -0.4210
-1.9311 तो जालपा -0.5051
-0.6990 जालपा ने -0.4938
-0.9031 उसे तीन -0.5119
-0.7270 तीन लिफाफे -0.3979
-0.4260 लिफाफे डाक 0.0000
-0.1249 डाक में -0.5955
-1.8239 में छोड़ने 0.0000
-1.0280 लिए दिए 0.0000
-1.1663 इस वक्त -0.4771
-0.6021 वक्त उसने -0.5643
-1.0792 उसने तीनों -0.5119
-0.7270 तीनों लिफाफे -0.3979
-0.4260 लिफाफे जेब 0.0000
-0.1249 जेब में -0.5821
-1.8239 में डाल 0.0000
-0.1249 डाल लिए -0.5593
-1.0280 लिए लेकिन -0.5682
-1.1249 लेकिन रास्ते 0.0000
-0.1249 रास्ते में -0.5955
-1.8239 में उन्हें -0.5528
-0.9700 उन्हें खोलकर 0.0000
-0.1249 खोलकर चिट्ठियां -0.5119
-0.7270 चिट्ठियां पढ़ने -0.3979
-0.4260 पढ़ने लगा 0.0000
-0.1249 लगा </s> -0.6021
-2.5141 <s> चिट्ठियां -0.5119
-0.7270 चिट्ठियां क्या -0.5781
-1.2711 क्या थीं -0.3979
-0.4260 थीं विपत्ति -0.3979
-0.4260 विपत्ति और -0.5903
-1.5721 और वेदना -0.3979
-0.4260 वेदना का -0.5929
-1.6812 का करूण 0.0000
-0.1249 करूण विलाप 0.0000
-0.1249 विलाप था -0.3424
-0.9700 जो उसने -0.5229
-1.0792 उसने अपनी -0.5315
-0.8239 अपनी तीनों -0.5119
-0.7270 तीनों सहेलियों -0.3979
-0.4260 सहेलियों को -0.5846
-1.4037 को सुनाया 0.0000
-0.1249 सुनाया था -0.3424
-2.5141 <s> तीनों -0.5119
-0.7270 तीनों का -0.5929
-1.6812 का विषय -0.4771
-0.6021 विषय एक -0.5763
-1.2389 एक ही -0.5914
-1.6163 ही था -0.5855
-1.4260 था केवल -0.3979
-0.4260 केवल भावों 0.0000
-0.1249 भावों का -0.5929
-1.6812 का अंतर 0.0000
-0.1249 अंतर था -0.3424
-2.5141 <s> जिदगी -0.3979
-0.4260 जिदगी पहाड़ 0.0000
-0.1249 पहाड़ हो -0.5870
-1.4674 हो गई -0.5528
-0.9700 गई है -0.5921
-1.6435 है न -0.5651
-1.7877 न रात -0.3979
-0.4260 रात को -0.5846
-1.4037 को नींद 0.0000
-0.1249 नींद आती 0.0000
-1.7877 न दिन -0.5441
-0.9031 दिन को -0.5846
-1.4037 को आराम 0.0000
-0.1249 आराम </s> -0.6021
-2.5141 <s> पितदेव 0.0000
-0.1249 पितदेव को -0.5846
-1.4037 को प्रसन्न 0.0000
-0.1249 प्रसन्न करने -0.5119
-0.7270 करने के -0.5288
-1.0280 लिए कभी -0.5441
-0.9031 कभी कभी -0.5441
-0.9031 कभी हंस 0.0000
-0.1249 हंस बोल 0.0000
-0.1249 बोल लेती -0.3979
-0.4260 लेती हूं -0.3979
-1.5229 पर दिल -0.4771
-0.6021 दिल हमेशा -0.3979
-0.4260 हमेशा रोया -0.3979
-0.4260 रोया करता 0.0000
-0.1249 करता है -0.3076
-1.3106 न किसी -0.4543
-1.0792 घर जाती -0.5315
-0.8239 जाती हूं -0.5812
-1.3291 हूं न -0.5803
-1.2389 किसी को -0.5846
-1.4037 को मुंह -0.3979
-0.4260 मुंह दिखाती 0.0000
-0.1249 दिखाती हूं -0.3979
-2.5141 <s> ऐसा -0.4771
-0.6021 ऐसा जान -0.3979
-0.4260 जान पड़ता 0.0000
-0.1249 पड़ता है -0.5954
-1.8195 है कि -0.5441
-1.2041 कि यह -0.5863
-1.4472 यह शोक -0.3979
-0.4260 शोक मेरी -0.5315
-0.8239 मेरी जान -0.3979
-0.4260 जान ही -0.5914
-1.6163 ही लेकर 0.0000
-0.1249 लेकर छोड़ेगा 0.0000
-0.1249 छोड़ेगा </s> -0.6021
-2.0370 <s> मुझसे -0.4771
-1.0792 मुझसे वादे -0.3979
-0.4260 वादे तो -0.5969
-1.9311 तो रोज 0.0000
-0.1249 रोज किए 0.0000
-0.1249 किए जाते -0.3979
-2.1206 है रूपये -0.5027
-0.7270 जमा हो -0.5870
-1.4674 हो रहे -0.5229
-2.5141 <s> सुनार 0.0000
-0.1249 सुनार ठीक -0.3979
-0.4260 ठीक किया -0.5119
-0.7270 किया जा -0.3010
-2.1206 है डिजाइन 0.0000
-0.1249 डिजाइन तय 0.0000
-0.1249 तय किया -0.5119
-1.5229 पर यह -0.5863
-1.4472 यह सब -0.3979
-0.4260 सब धोखा -0.3979
-0.4260 धोखा है -0.5887
-1.5721 और कुछ -0.5528
-0.9700 कुछ नहीं -0.5502
-1.3554 ने तीनों -0.5119
-0.7270 तीनों चिट्ठियां -0.5119
-0.7270 चिट्ठियां जेब 0.0000
-1.8239 में रख -0.3979
-0.4260 रख लीं 0.0000
-0.1249 लीं </s> -0.6021
-2.5141 <s> डाकखाना 0.0000
-0.1249 डाकखाना सामने -0.4771
-0.6021 सामने से -0.5846
-1.1663 गया पर -0.5888
-1.5229 पर उसने -0.5643
-1.0792 उसने उन्हें -0.5528
-0.9700 उन्हें नहीं -0.5966
-1.9031 नहीं छोडा 0.0000
-0.1249 छोडा </s> -0.6021
-1.4472 यह अभी -0.4771
-0.6021 अभी तक -0.5781
-1.2711 तक यही -0.3979
-0.6021 समझ ती 0.0000
-0.1249 ती है -0.5954
-1.2041 कि मैं -0.5877
-1.4867 मैं इसे 0.0000
-0.1249 इसे धोखा -0.3979
-0.4260 धोखा दे -0.5315
-0.8239 दे रहा -0.5643
-1.0792 रहा हूं -0.3979
-1.2711 क्या करूं 0.0000
-0.1249 करूं कैसे -0.5119
-0.7270 कैसे विश्वास -0.4771
-0.6021 विश्वास दिलाऊं 0.0000
-0.1249 दिलाऊं </s> -0.6021
-0.9031 अगर अपना -0.5315
-0.8239 अपना वश -0.4771
-0.6021 वश होता -0.5195
-1.9311 तो इसी -0.3979
-0.4260 इसी वक्त -0.4771
-0.6021 वक्त आभूषणों -0.3979
-0.4260 आभूषणों के -0.5907
-1.5873 के टोकरे 0.0000
-0.1249 टोकरे भर -0.3979
-0.4260 भर भर -0.3979
-0.4260 भर जालपा -0.5563
-1.0000 जालपा के -0.5670
-0.6021 सामने रख -0.3979
-0.4260 रख देता -0.3979
-0.4260 देता </s> -0.6021
-2.5141 <s> उसे -0.5441
-0.9031 उसे किसी -0.5763
-1.2389 किसी बड़े 0.0000
-0.1249 बड़े </s> -0.6021
-2.5141 <s> सराफ 0.0000
-1.5229 पर ले -0.4771
-0.6021 ले जाकर 0.0000
-0.1249 जाकर कहता -0.3979
-0.4260 कहता </s> -0.6021
-0.9700 तुम्हें जो -0.5781
-1.2711 जो जो -0.5781
-1.2711 जो चीजें -0.3979
-0.4260 चीजें लेनी 0.0000
-0.1249 लेनी हों -0.5315
-0.8239 हों ले -0.4771
-0.6021 ले लो -0.3979
-0.4260 लो </s> -0.6021
-2.5141 <s> कितनी -0.3979
-0.4260 कितनी अपार 0.0000
-0.1249 अपार वेदना -0.3979
-0.4260 वेदना है -0.5988
-2.1206 है जिसने 0.0000
-0.1249 जिसने विश्वास -0.4771
-0.6021 विश्वास का -0.5929
-1.6812 का भी -0.5893
-1.5399 भी अपहरण 0.0000
-0.1249 अपहरण कर -0.5315
-0.9031 लिया है -0.3266
-2.5141 <s> उसको 0.0000
-0.1249 उसको आज -0.5315
-0.8239 आज उस -0.5315
-0.8239 उस चोट 0.0000
-0.1249 चोट का -0.5929
-1.6812 का सच्चा 0.0000
-0.1249 सच्चा अनुभव 0.0000
-0.1249 अनुभव हुआ -0.5528
-0.9700 हुआ जो -0.5528
-1.0792 उसने झूठी 0.0000
-0.1249 झूठी मर्यादा 0.0000
-0.1249 मर्यादा की -0.5911
-1.6021 की रक्षा 0.0000
-0.1249 रक्षा में -0.5955
-1.8239 में उसे -0.5441
-0.9031 उसे पहुंचाई 0.0000
-0.1249 पहुंचाई थी -0.2596
-0.9031 अगर वह -0.5682
-1.1249 वह जानता -0.5119
-0.7270 जानता उस -0.5315
-0.8239 उस अभिनय 0.0000
-0.1249 अभिनय का -0.5929
-1.6812 का यह -0.5863
-1.4472 यह फल 0.0000
-0.1249 फल होगा -0.3979
-0.4260 होगा तो -0.5969
-1.9311 तो कदाचित् 0.0000
-0.1249 कदाचित् अपनी -0.5315
-0.8239 अपनी डींगों 0.0000
-0.1249 डींगों का -0.5929
-1.6812 का परदा -0.4771
-0.6021 परदा खोल 0.0000
-0.1249 खोल देता -0.3979
-1.2711 क्या ऐसी -0.5315
-0.8239 ऐसी दशा -0.4771
-0.6021 दशा में -0.5955
-1.8239 में भी -0.5893
-1.5399 भी जब -0.5528
-0.9700 जब जालपा -0.5798
-1.3010 जालपा इस -0.5714
-1.1663 इस शोक -0.3979
-0.4260 शोक ताप 0.0000
-0.1249 ताप से -0.5934
-1.7047 से फुंकी 0.0000
-0.1249 फुंकी जा -0.5441
-0.9031 जा रही -0.4771
-0.6021 रही थी -0.2596
-1.4037 को कर्ज़ -0.4771
-0.6021 कर्ज़ लेने -0.5315
-0.8239 लेने में -0.5955
-1.8239 में संकोच -0.3979
-0.4260 संकोच करने -0.5119
-0.7270 करने की -0.5911
-1.6021 की जगह 0.0000
-0.1249 जगह थी -0.2596
-2.5141 <s> उसका -0.5119
-0.7270 उसका ह्रदिय -0.3979
-0.4260 ह्रदिय कातर -0.3979
-0.4260 कातर हो -0.5870
-1.4674 हो उठा 0.0000
-0.1249 उठा </s> -0.6021
-1.0792 उसने पहली 0.0000
-0.1249 पहली बार -0.3979
-0.4260 बार सच्चे 0.0000
-0.1249 सच्चे ह्रदिय -0.3979
-0.4260 ह्रदिय से -0.5934
-1.7047 से ईश्वर -0.5315
-0.8239 ईश्वर से -0.5934
-1.7047 से याचना 0.0000
-0.1249 याचना की -0.5911
-1.6021 की </s> -0.6021
-2.5141 <s> भगवन् 0.0000
-0.1249 भगवन् मुझे -0.5763
-1.2389 मुझे हर -0.3979
-0.4260 हर लेना -0.5315
-0.8239 लेना उसके -0.4771
-0.6021 उसके रोम -0.3979
-0.4260 रोम रोम -0.3979
-0.4260 रोम में -0.5955
-1.8239 में आत्मध्विन 0.0000
-0.1249 आत्मध्विन सी -0.4771
-0.6021 सी निकलने 0.0000
-0.1249 निकलने लगी 0.0000
-0.1249 लगी </s> -0.6021
-2.0370 <s> ईश्वर -0.3424
-0.8239 ईश्वर ईश्वर -0.5315
-0.8239 ईश्वर मेरी -0.5315
-0.8239 मेरी दीन 0.0000
-0.1249 दीन दशा -0.4771
-0.6021 दशा पर -0.5888
-1.5229 पर दया -0.5119
-0.7270 दया करो -0.3010
-1.1249 लेकिन इसके -0.3979
-0.4260 इसके साथ -0.3979
-0.4260 साथ ही -0.5914
-1.6163 ही उसे -0.5441
-0.9031 उसे जालपा -0.5798
-1.3010 जालपा पर -0.5888
-1.5229 पर क्रोध -0.3979
-0.4260 क्रोध भी -0.5893
-1.5399 भी आ -0.5315
-0.8239 आ रहा -0.5229
-0.7782 रहा था -0.3424
-1.5599 <s> जालपा -0.3010
-1.3554 ने क्यों -0.5682
-1.1249 क्यों मुझसे -0.5643
-1.0792 मुझसे यह -0.5863
-1.4472 यह बात -0.5384
-1.9031 नहीं कही 0.0000
-0.1249 कही </s> -0.6021
-1.0792 मुझसे क्यों -0.5682
-1.1249 क्यों परदा -0.4771
-0.6021 परदा रखा 0.0000
-0.1249 रखा और -0.5903
-1.5721 और मुझसे -0.5643
-1.0792 मुझसे परदा -0.4771
-0.6021 परदा रखकर 0.0000
-0.1249 रखकर अपनी -0.5315
-0.8239 अपनी सहेलियों -0.3979
-0.4260 सहेलियों से -0.5846
-1.4472 यह दुखडा 0.0000
-0.1249 दुखडा रोया -0.3979
-0.4260 रोया </s> -0.6021
-2.5141 <s> बरामदे 0.0000
-0.1249 बरामदे में -0.5955
-1.8239 में माल -0.3979
-0.4260 माल तौला 0.0000
-0.1249 तौला जा -0.3010
-2.5141 <s> मेज़ 0.0000
-0.1249 मेज़ पर -0.5888
-1.5229 पर रूपये -0.5714
-1.1663 रूपये पैसे -0.4771
-0.6021 पैसे रखे 0.0000
-0.1249 रखे जा -0.5441
-0.9031 जा रहे -0.4260
-1.5721 और रमा -0.5911
-1.6021 रमा चिंता -0.3979
-0.4260 चिंता में -0.5752
-1.8239 में डूबा 0.0000
-0.1249 डूबा बैठा -0.3979
-0.4260 बैठा हुआ -0.5528
-0.9700 हुआ था -0.3424
-2.5141 <s> किससे 0.0000
-0.1249 किससे सलाह -0.3979
-0.4260 सलाह ले -0.4771
-0.6021 ले उसने -0.5229
-0.7782 उसने विवाह 0.0000
-0.4260 विवाह ही -0.5914
-1.6163 ही क्यों -0.5682
-1.1249 क्यों किया -0.5593
-1.0280 किया सारा 0.0000
-0.1249 सारा दोष -0.3979
-0.4260 दोष उसका -0.5119
-0.7270 उसका अपना -0.5315
-0.8239 अपना था -0.3424
-0.9700 जब वह -0.5315
-1.0792 घर की -0.5911
-1.6021 की दशा -0.4771
-0.6021 दशा जानता -0.5119
-0.7270 जानता था -0.5855
-1.4260 था तो -0.5969
-1.9311 तो क्यों -0.5682
-1.1249 क्यों उसने -0.5229
-0.4260 विवाह करने -0.3979
-0.4260 करने से -0.5846
-1.7047 से इंकार 0.0000
-0.1249 इंकार नहीं -0.5855
-0.9031 दिया </s> -0.6021
-0.8239 आज उसका -0.5119
-0.7270 उसका मन -0.4771
-0.6021 मन काम -0.5315
-0.8239 काम में -0.5821
-1.9031 नहीं लगता -0.3979
-0.4260 लगता था -0.3424
-2.5141 <s> समय -0.5119
-0.7270 समय से -0.5934
-1.7047 से पहले -0.3979
-0.4260 पहले ही -0.5914
-1.6163 ही उठकर 0.0000
-0.1249 उठकर चला -0.5119
-0.7270 चला गया -0.4210
-0.9031 उसे देखते 0.0000
-0.1249 देखते ही -0.5914
-1.6163 ही पूछा -0.5119
-0.7270 पूछा मेरी -0.5315
-0.8239 मेरी चिट्ठियां -0.5119
-0.7270 चिट्ठियां छोड़ -0.4771
-0.6021 छोड़ तो -0.5758
-1.9031 नहीं दिं 0.0000
-0.1249 दिं </s> -0.6021
-1.3554 ने बहाना 0.0000
-0.1249 बहाना किया -0.5593
-1.0280 किया अरे 0.0000
-0.1249 अरे इनकी 0.0000
-0.1249 इनकी तो -0.5969
-1.9311 तो याद -0.3979
-0.4260 याद ही -0.5579
-1.9031 नहीं रही -0.4771
-0.6021 रही जेब 0.0000
-1.8239 में पड़ी -0.3979
-0.4260 पड़ी रह -0.3979
-0.4260 रह गई -0.3590
-1.3010 जालपा यह -0.5863
-1.4472 यह बहुत -0.5441
-0.9031 बहुत अच्छा 0.0000
-0.1249 अच्छा हुआ -0.5528
-0.9700 हुआ लाओ 0.0000
-0.1249 लाओ मुझे -0.5763
-1.2389 मुझे दे -0.5315
-0.8239 दे दो -0.5528
-0.9700 दो अब -0.5441
-0.9031 अब न -0.5949
-1.7877 न भेजूंगी 0.0000
-0.1249 भेजूंगी </s> -0.6021
-1.6021 रमा क्यों -0.5682
-1.1249 क्यों कल 0.0000
-0.1249 कल भेज 0.0000
-0.1249 भेज दूंगा 0.0000
-1.3010 जालपा नहीं -0.5966
-1.9031 नहीं अब -0.5441
-0.9031 अब मुझे -0.5763
-1.2389 मुझे भेजना 0.0000
-0.1249 भेजना ही -0.5579
-2.5141 <s> कुछ -0.4973
-0.7270 बातें लिख 0.0000
-0.1249 लिख गई -0.5528
-0.9700 गई थी -0.5384
-1.2389 मुझे न -0.5949
-1.7877 न लिखना -0.3979
-0.4260 लिखना चाहिए -0.5315
-0.8239 चाहिए था -0.3424
-0.6021 अगर तुमने -0.4472
-0.8239 तुमने छोड़ -0.4771
-0.6021 छोड़ दी -0.3979
-0.4260 दी होती -0.5441
-0.9031 होती तो -0.5969
-1.9311 तो मुझे -0.5763
-1.2389 मुझे दुःख -0.4771
-0.6021 दुःख होता -0.5488
-0.7270 मैंने तुम्हारी -0.4771
-0.6021 तुम्हारी निंदा -0.3979
-0.4260 निंदा की -0.5911
-1.6021 की थी -0.2596
-1.4472 यह कहकर 0.0000
-0.1249 कहकर वह -0.5682
-1.1249 वह मुस्कराई 0.0000
-0.1249 मुस्कराई </s> -0.6021
-0.9031 रमानाथ जो -0.5781
-1.2711 जो बुरा -0.5315
-0.8239 बुरा है -0.5988
-2.1206 है दगाबाज 0.0000
-0.1249 दगाबाज है -0.5988
-2.1206 है धूर्त 0.0000
-0.1249 धूर्त है -0.5988
-2.1206 है उसकी -0.5119
-0.7270 उसकी निंदा -0.3979
-0.4260 निंदा होनी 0.0000
-0.1249 होनी ही -0.5914
-1.6163 ही चाहिए -0.4472
-1.3554 ने व्यग्र 0.0000
-0.1249 व्यग्र होकर 0.0000
-0.1249 होकर पूछा -0.5119
-0.7270 पूछा तुमने -0.5315
-0.8239 तुमने चिट्ठयां 0.0000
-0.1249 चिट्ठयां पढ़लीं 0.0000
-0.1249 पढ़लीं क्या -0.5781
-1.2711 क्या </s> -0.6021
-1.3554 ने निसंकोच 0.0000
-0.1249 निसंकोच भाव -0.3010
-1.0280 कहा हां -0.5441
-0.9031 हां यह -0.5863
-1.4472 यह कोई -0.5643
-1.0792 कोई अक्षम्य 0.0000
-0.1249 अक्षम्य अपराध -0.3979
-0.4260 अपराध है -0.3266
-1.3010 जालपा कातर -0.3979
-0.4260 कातर स्वर -0.3979
-0.4260 स्वर में -0.5955
-1.8239 में बोली 0.0000
-0.1249 बोली तब -0.3979
-0.4260 तब तो -0.5969
-1.9311 तो तुम -0.5315
-0.8239 तुम मुझसे -0.5643
-1.0792 मुझसे बहुत -0.5441
-0.9031 बहुत नाराज 0.0000
-0.1249 नाराज होगे 0.0000
-0.1249 होगे </s> -0.6021
-2.5141 <s> आंसुओं 0.0000
-0.1249 आंसुओं के -0.5907
-1.5873 के आवेग 0.0000
-0.1249 आवेग से -0.5934
-1.7047 से जालपा -0.5798
-1.3010 जालपा की -0.5911
-1.6021 की आवाज़ 0.0000
-0.1249 आवाज़ रूक 0.0000
-0.1249 रूक गई -0.3590
-1.2389 एक क्षण 0.0000
-0.1249 क्षण में -0.5955
-1.8239 में उसने -0.5643
-1.0792 उसने स्वर -0.3979
-0.4260 स्वर को -0.5846
-1.4037 को संभालकर 0.0000
-0.1249 संभालकर कहा -0.5593
-1.0280 कहा मुझसे -0.5643
-1.0792 मुझसे बडा -0.3979
-0.4260 बडा भारी 0.0000
-0.1249 भारी अपराध -0.3979
-0.4260 अपराध हुआ -0.4973
-1.2711 जो चाहे -0.3979
-0.4260 चाहे सज़ा 0.0000
-0.1249 सज़ा दो -0.5528
-0.9700 दो पर -0.5888
-1.5229 पर मुझसे -0.5643
-1.0792 मुझसे अप्रसन्न -0.4771
-0.6021 अप्रसन्न मत -0.2430
-0.8239 ईश्वर जानते 0.0000
-0.1249 जानते है -0.5988
-2.1206 है तुम्हारे -0.5119
-0.7270 तुम्हारे जाने -0.5441
-0.9031 जाने के -0.5790
-0.4260 बाद मुझे -0.5763
-1.2389 मुझे कितना -0.3979
-0.4260 कितना दुःख -0.4771
-0.6021 दुःख हुआ -0.4973
-2.5141 <s> मेरी -0.5315
-0.8239 मेरी कलम 0.0000
-0.1249 कलम से -0.5934
-1.7047 से न -0.5803
-0.9031 जाने कैसे -0.5119
-0.7270 कैसे ऐसी -0.3424
-0.7270 बातें निकल -0.4771
-0.6021 निकल गई -0.3590
-1.3010 जालपा जानती 0.0000
-0.1249 जानती थी -0.5714
-1.1663 थी कि -0.5740
-1.2041 कि रमा -0.5682
-1.4037 को आभूषणों -0.3979
-0.4260 आभूषणों की -0.5911
-1.6021 की चिंता -0.5119
-0.7270 चिंता मुझसे -0.5643
-1.0792 मुझसे कम -0.3010
-1.1249 लेकिन मित्रों -0.3979
-0.4260 मित्रों से -0.5934
-1.7047 से अपनी -0.5315
-0.8239 अपनी व्यथा 0.0000
-0.1249 व्यथा कहते -0.4771
-0.6021 कहते समय -0.5119
-0.7270 समय हम -0.3979
-0.4260 हम बहुधा 0.0000
-0.1249 बहुधा अपना -0.5315
-0.8239 अपना दुःख -0.4771
-0.6021 दुःख बढ़ाकर 0.0000
-0.1249 बढ़ाकर कहते -0.4771
-0.6021 कहते है -0.3266
-1.2711 जो बातें -0.5119
-0.7270 बातें परदे 0.0000
-0.1249 परदे की -0.5911
-1.6021 की समझी 0.0000
-0.1249 समझी जाती -0.4472
-0.5229 जाती है -0.3203
-2.1206 है उनकी -0.4771
-0.6021 उनकी चर्चा 0.0000
-0.1249 चर्चा करने -0.3979
-1.7047 से एक -0.5763
-1.2389 एक तरह -0.5119
-0.7270 तरह का -0.5929
-1.6812 का अपनापन 0.0000
-0.1249 अपनापन जाहिर 0.0000
-0.1249 जाहिर होता -0.4543
-2.5141 <s> हमारे -0.3979
-0.4260 हमारे मित्र 0.0000
-0.1249 मित्र समझते 0.0000
-0.1249 समझते है -0.5988
-2.1206 है हमसे -0.3979
-0.4260 हमसे ज़रा -0.5315
-0.8239 ज़रा भी -0.5893
-1.5399 भी दुर्राव 0.0000
-0.1249 दुर्राव नहीं -0.5966
-1.9031 नहीं रखता 0.0000
-0.1249 रखता और -0.5903
-1.5721 और उन्हें -0.5528
-0.9700 उन्हें हमसे -0.3979
-0.4260 हमसे सहानुभूति 0.0000
-0.1249 सहानुभूति हो -0.5714
-1.6021 रमा जालपा -0.5563
-1.5873 के आंसू -0.3979
-0.4260 आंसू पोंछते 0.0000
-0.1249 पोंछते हुए -0.3979
-0.4260 हुए बोला 0.0000
-0.1249 बोला मैं -0.5877
-1.4867 मैं तुमसे -0.3979
-0.4260 तुमसे अप्रसन्न -0.4771
-0.6021 अप्रसन्न नहीं -0.5966
-1.9031 नहीं हूं -0.5812
-1.3291 हूं प्रिये 0.0000
-0.1249 प्रिये </s> -0.6021
-2.5141 <s> अप्रसन्न -0.4771
-0.6021 अप्रसन्न होने -0.4771
-0.6021 होने की -0.5798
-1.9311 तो कोई -0.5643
-1.0792 कोई बात -0.5714
-1.1663 बात ही -0.5579
-2.5141 <s> आशा 0.0000
-0.1249 आशा का -0.5929
-1.6812 का विलंब 0.0000
-0.1249 विलंब ही -0.5914
-1.6163 ही दुर्राशा 0.0000
-0.1249 दुर्राशा है -0.5988
-2.1206 है क्या -0.5781
-1.2711 क्या मैं -0.5728
-0.6021 इतना नहीं -0.5966
-1.9031 नहीं जानता -0.5119
-0.7270 जानता </s> -0.6021
-0.8239 तुमने मुझे -0.5763
-1.2389 मुझे मना -0.3979
-0.4260 मना न -0.5949
-1.7877 न कर -0.4914
-0.9031 दिया होता -0.5195
-1.2711 तक मैंने -0.5119
-0.7270 मैंने किसी -0.5763
-1.2389 किसी न -0.5803
-0.7270 तरह दो -0.5528
-0.9700 दो एक -0.5763
-1.2389 एक चीजें -0.3979
-0.4260 चीजें अवश्य -0.3979
-0.4260 अवश्य ही -0.5914
-1.6163 ही बनवा 0.0000
-0.1249 बनवा दी -0.3979
-0.4260 दी होतीं 0.0000
-0.1249 होतीं </s> -0.6021
-1.0792 मुझसे भूल -0.3979
-0.4260 भूल यही -0.5119
-0.7270 यही हुई -0.3979
-0.4260 हुई कि -0.5740
-1.2041 कि तुमसे -0.3979
-0.4260 तुमसे सलाह -0.3979
-0.4260 सलाह ली 0.0000
-0.1249 ली </s> -0.6021
-1.4472 यह तो -0.5969
-1.9311 तो वैसा 0.0000
-0.1249 वैसा ही -0.5914
-1.6163 ही है -0.5988
-2.1206 है जैसे -0.4771
-0.6021 जैसे मेहमान 0.0000
-0.1249 मेहमान को -0.5846
-1.4037 को पूछ 0.0000
-0.1249 पूछ पूछकर 0.0000
-0.1249 पूछकर भोजन -0.4771
-0.6021 भोजन दिया -0.5441
-0.9031 दिया जाय -0.3010
-2.5141 <s> उस -0.5315
-0.8239 उस वक्त -0.4771
-0.6021 वक्त मुझे -0.5763
-1.2389 मुझे यह -0.5863
-1.4472 यह ध्यान 0.0000
-0.1249 ध्यान न -0.5949
-1.7877 न रहा -0.5643
-1.0792 रहा कि -0.5740
-1.2041 कि संकोच -0.3979
-0.4260 संकोच में -0.5955
-1.8239 में आदमी 0.0000
-0.1249 आदमी इच्छा 0.0000
-0.1249 इच्छा होने -0.4771
-0.6021 होने पर -0.5752
-1.9031 नहीं नहीं -0.5966
-1.9031 नहीं करता 0.0000
-0.8239 ईश्वर ने -0.5825
-1.3554 ने चाहा 0.0000
-0.1249 चाहा तो -0.5969
-1.9311 तो तुम्हें -0.5528
-0.9700 तुम्हें बहुत -0.5441
-0.9031 बहुत दिनों 0.0000
-0.1249 दिनों इंतजार -0.3979
-0.4260 इंतजार न -0.5949
-1.7877 न करना 0.0000
-0.1249 करना पड़ेगा 0.0000
-1.9311 तो क्या -0.5781
-1.2711 क्या उधार -0.5119
-0.7270 उधार लाओग 0.0000
-0.1249 लाओग </s> -0.6021
-1.6021 रमा हां -0.5441
-0.9031 हां उधार -0.5119
-0.7270 उधार लाने 0.0000
-0.1249 लाने में -0.5955
-1.8239 में कोई -0.5643
-1.0792 कोई हर्ज 0.0000
-0.1249 हर्ज नहीं -0.5441
-0.9700 जब सूद 0.0000
-0.1249 सूद नहीं -0.5966
-1.9031 नहीं देना -0.5119
-0.7270 देना है -0.5954
-1.9311 तो जैसे -0.4771
-0.6021 जैसे नगद 0.0000
-0.1249 नगद वैसे -0.3979
-0.4260 वैसे उधार -0.5119
-0.7270 उधार </s> -0.6021
-2.5141 <s> ऋण -0.3979
-0.4260 ऋण से -0.5934
-1.7047 से दुनिया 0.0000
-0.1249 दुनिया का -0.5929
-1.6812 का काम -0.5315
-0.8239 काम चलता 0.0000
-0.1249 चलता है -0.5988
-2.1206 है कौन -0.4771
-0.6021 कौन ऋण -0.3979
-0.4260 ऋण नहीं -0.5966
-1.9031 नहीं लेता 0.0000
-2.5141 <s> हाथ -0.3979
-1.8239 में रूपया -0.3979
-0.4260 रूपया आ -0.5315
-0.8239 आ जाने -0.5441
-0.9031 जाने से -0.5934
-1.7047 से अलल्ले 0.0000
-0.1249 अलल्ले तलल्ले 0.0000
-0.1249 तलल्ले खर्च -0.5119
-0.7270 खर्च हो -0.5714
-2.5141 <s> कर्ज -0.4771
-0.6021 कर्ज सिर 0.0000
-0.1249 सिर पर -0.5888
-1.5229 पर सवार -0.3979
-0.4260 सवार रहेगा 0.0000
-0.1249 रहेगा </s> -0.6021
-1.9311 तो उसकी -0.5119
-0.7270 उसकी चिंता -0.5119
-0.7270 चिंता हाथ -0.5119
-0.7270 हाथ रोके 0.0000
-0.1249 रोके रहेगी 0.0000
-0.1249 रहेगी </s> -0.6021
-1.3010 जालपा मैं -0.5877
-1.4867 मैं तुम्हें -0.5528
-0.9700 तुम्हें चिंता -0.3979
-1.9031 नहीं डालना 0.0000
-0.1249 डालना चाहती 0.0000
-0.1249 चाहती अब -0.5441
-0.9031 अब मैं -0.5877
-1.4867 मैं भूलकर 0.0000
-0.1249 भूलकर भी -0.5628
-1.7877 न लूंगी 0.0000
-0.1249 लूंगी </s> -0.6021
-1.6021 रमा नाम -0.4973
-1.9311 तो तुमने -0.5315
-0.8239 तुमने कभी -0.5441
-0.9031 कभी नहीं -0.5911
-0.9031 लिया लेकिन -0.5682
-1.1249 लेकिन तुम्हारे -0.5119
-0.7270 तुम्हारे नाम -0.4337
-1.7877 न लेने -0.5315
-0.8239 लेने से -0.5934
-1.7047 से मेरे -0.5119
-0.7270 मेरे कर्तव्य -0.3979
-0.4260 कर्तव्य का -0.5836
-0.4260 अंत तो -0.5758
-0.8239 तुम कर्ज -0.4771
-0.6021 कर्ज से -0.5934
-1.7047 से व्यर्थ 0.0000
-0.1249 व्यर्थ इतना -0.4771
-0.6021 इतना डरती 0.0000
-0.1249 डरती हो -0.5870
-1.4674 हो रूपये -0.5027
-0.7270 जमा होने -0.4771
-0.6021 होने के -0.5907
-1.5873 के इंतजार -0.3979
-0.4260 इंतजार में -0.5955
-1.8239 में बैठा -0.3979
-0.4260 बैठा रहूंगा 0.0000
-0.1249 रहूंगा तो -0.5969
-1.9311 तो शायद -0.3979
-0.4260 शायद कभी -0.5441
-0.9031 कभी न -0.5949
-1.7877 न जमा -0.5119
-0.7270 जमा होंगे 0.0000
-0.1249 होंगे </s> -0.6021
-1.3010 जालपा मगर -0.5593
-1.0280 मगर पहले -0.3979
-0.4260 पहले कोई -0.5643
-1.0792 कोई छोटी 0.0000
-0.1249 छोटी सी -0.4771
-0.6021 सी चीज़ -0.3979
-0.4260 चीज़ लाना 0.0000
-0.1249 लाना </s> -0.6021
-0.9031 रमानाथ हां -0.5441
-0.9031 हां ऐसा -0.4771
-0.6021 ऐसा तो -0.5969
-1.9311 तो करूंगा 0.0000
-0.1249 करूंगा ही -0.5914
-1.6163 ही </s> -0.6021
-1.6021 रमा बाज़ार -0.3979
-0.4260 बाज़ार चला -0.5119
-0.7270 चला तो -0.5969
-1.9311 तो खूब -0.3979
-0.4260 खूब अंधेरा 0.0000
-0.1249 अंधेरा हो -0.5870
-1.4674 हो गया -0.5384
-1.4260 था दिन -0.5441
-0.9031 दिन रहते 0.0000
-0.1249 रहते जाता -0.5441
-0.9031 जाता तो -0.5969
-1.9311 तो संभव 0.0000
-0.1249 संभव था -0.5855
-1.4260 था मित्रों -0.3979
-0.4260 मित्रों में -0.5955
-1.8239 में से -0.5934
-1.7047 से किसी -0.5763
-1.2389 किसी की -0.5911
-1.6021 की निगाह 0.0000
-0.1249 निगाह उस -0.4472
-1.5229 पर पड़ -0.3979
-0.4260 पड़ जाती -0.4472
-2.5141 <s> मुंशी 0.0000
-0.1249 मुंशी दयानाथ -0.5119
-0.7270 दयानाथ ही -0.5914
-1.6163 ही देख 0.0000
-0.1249 देख लेते -0.5315
-0.8239 लेते वह -0.5682
-1.1249 वह इस -0.5714
-1.1663 इस मामले 0.0000
-0.1249 मामले को -0.5846
-1.4037 को गुप्त 0.0000
-0.1249 गुप्त ही -0.5914
-1.6163 ही रखना 0.0000
-0.1249 रखना चाहता -0.4472

\3-grams:
-0.1249 <s> दूसरे दिन
-0.1249 दूसरे दिन सवेरे
-0.1249 दिन सवेरे ही
-0.1249 सवेरे ही रमा
-0.1249 ही रमा ने
-0.9031 रमा ने रमेश
-0.1249 ने रमेश बाबू
-0.4260 रमेश बाबू के
-0.1249 बाबू के घर
-0.6021 के घर का
-0.1249 घर का रास्ता
-0.1249 का रास्ता लिया
-0.1249 रास्ता लिया </s>
-0.1249 <s> उनके यहां
-0.1249 उनके यहां भी
-0.1249 यहां भी जन्माष्टमी
-0.1249 भी जन्माष्टमी में
-0.1249 जन्माष्टमी में झांकी
-0.1249 में झांकी होती
-0.1249 झांकी होती थी
-0.1249 होती थी </s>
-0.4260 <s> उन्हें स्वयं
-0.1249 उन्हें स्वयं तो
-0.1249 स्वयं तो इससे
-0.1249 तो इससे कोई
-0.1249 इससे कोई अनुराग
-0.1249 कोई अनुराग न
-0.1249 अनुराग न था
-0.1249 न था </s>
-0.8239 <s> पर उनकी
-0.1249 पर उनकी स्त्री
-0.1249 उनकी स्त्री उत्सव
-0.1249 स्त्री उत्सव मनाती
-0.1249 उत्सव मनाती थी
-0.1249 मनाती थी </s>
-0.1249 <s> उसी की
-0.1249 उसी की यादगार
-0.1249 की यादगार में
-0.1249 यादगार में अब
-0.1249 में अब तक
-0.6021 अब तक यह
-0.1249 तक यह उत्सव
-0.1249 यह उत्सव मनाते
-0.1249 उत्सव मनाते जाते
-0.1249 मनाते जाते थे
-0.1249 जाते थे </s>
-1.2553 <s> रमा को
-0.6021 रमा को देखकर
-0.1249 को देखकर बोले
-0.1249 देखकर बोले आओ
-0.1249 बोले आओ जी
-0.1249 आओ जी रात
-0.1249 जी रात क्यों
-0.1249 रात क्यों नहीं
-0.6021 क्यों नहीं आए
-0.1249 नहीं आए </s>
-0.7270 <s> मगर यहां
-0.1249 मगर यहां गरीबों
-0.1249 यहां गरीबों के
-0.1249 गरीबों के घर
-0.6021 के घर क्यों
-0.1249 घर क्यों आते
-0.1249 क्यों आते </s>
-0.1249 <s> सेठजी की
-0.1249 सेठजी की झांकी
-0.1249 की झांकी कैसे
-0.1249 झांकी कैसे छोड़
-0.1249 कैसे छोड़ देते
-0.1249 छोड़ देते </s>
-0.1249 <s> खूब बहार
-0.1249 खूब बहार रही
-0.1249 बहार रही होगी
-0.1249 रही होगी </s>
-1.5563 <s> रमा आपकी
-0.1249 रमा आपकी सी
-0.1249 आपकी सी सजावट
-0.1249 सी सजावट तो
-0.1249 सजावट तो न
-0.1249 तो न थी
-0.1249 न थी </s>
-0.1249 <s> हां और
-0.1249 हां और सालों
-0.1249 और सालों से
-0.1249 सालों से अच्छी
-0.1249 से अच्छी थी
-0.1249 अच्छी थी </s>
-0.1249 <s> कई कत्थक
-0.1249 कई कत्थक और
-0.1249 कत्थक और वेश्याएं
-0.1249 और वेश्याएं भी
-0.1249 वेश्याएं भी आई
-0.1249 भी आई थीं
-0.1249 आई थीं </s>
-0.6021 <s> मैं तो
-0.6021 मैं तो चला
-0.1249 तो चला आया
-0.1249 चला आया था
-0.1249 आया था मगर
-0.1249 था मगर सुना
-0.1249 मगर सुना रातभर
-0.1249 सुना रातभर गाना
-0.1249 रातभर गाना होता
-0.1249 गाना होता रहा
-0.1249 होता रहा </s>
-1.1249 <s> रमेश सेठजी
-0.1249 रमेश सेठजी ने
-0.1249 सेठजी ने तो
-0.1249 ने तो वचन
-0.1249 तो वचन दिया
-0.1249 वचन दिया था
-0.1249 दिया था कि
-0.1249 था कि वेश्याएं
-0.1249 कि वेश्याएं न
-0.4260 वेश्याएं न आने
-0.1249 न आने पावेंगी
-0.1249 आने पावेंगी </s>
-0.1249 <s> फिर यह
-0.1249 फिर यह क्या
-0.1249 यह क्या किया
-0.1249 क्या किया </s>
-0.1249 <s> इन मूर्खो
-0.1249 इन मूर्खो के
-0.1249 मूर्खो के हाथों
-0.1249 के हाथों हिन्दू
-0.1249 हाथों हिन्दू धर्म
-0.1249 हिन्दू धर्म का
-0.1249 धर्म का सर्वनाश
-0.1249 का सर्वनाश हो
-0.1249 सर्वनाश हो जायगा
-0.1249 हो जायगा </s>
-0.6021 <s> एक तो
-0.1249 एक तो वेश्याआं
-0.1249 तो वेश्याआं का
-0.1249 वेश्याआं का नाम
-0.7270 का नाम यों
-0.1249 नाम यों भी
-0.1249 यों भी बुरा
-0.1249 भी बुरा उस
-0.1249 बुरा उस पर
-0.4260 उस पर ठाकुरद्वारे
-0.1249 पर ठाकुरद्वारे में
-0.1249 ठाकुरद्वारे में </s>
-0.1249 <s> छिः छिः,
-0.1249 छिः छिः, न
-0.1249 छिः, न जाने
-0.6021 न जाने इन
-0.1249 जाने इन गधों
-0.1249 इन गधों को
-0.1249 गधों को कब
-0.1249 को कब अक्ल
-0.1249 कब अक्ल आवेगी
-0.1249 अक्ल आवेगी </s>
-1.5563 <s> रमा वेश्याएं
-0.1249 रमा वेश्याएं न
-0.4260 वेश्याएं न हों
-0.6021 न हों तो
-0.1249 हों तो झांकी
-0.1249 तो झांकी देखने
-0.1249 झांकी देखने जाय
-0.1249 देखने जाय ही
-0.1249 जाय ही कौन
-0.1249 ही कौन </s>
-0.1249 <s> सभी तो
-0.1249 सभी तो आपकी
-0.1249 तो आपकी तरह
-0.1249 आपकी तरह योगी
-0.1249 तरह योगी तपस्वी
-0.1249 योगी तपस्वी नहीं
-0.1249 तपस्वी नहीं है
-0.1707 नहीं है </s>
-1.1249 <s> रमेश मेरा
-0.1249 रमेश मेरा वश
-0.1249 मेरा वश चले
-0.1249 वश चले तो
-0.1249 चले तो मैं
-0.4260 तो मैं कानून
-0.1249 मैं कानून से
-0.1249 कानून से यह
-0.4260 से यह दुराचार
-0.1249 यह दुराचार बंद
-0.1249 दुराचार बंद कर
-0.4260 बंद कर दूं
-0.1249 कर दूं </s>
-0.1249 <s> खैर फुरसत
-0.1249 खैर फुरसत हो
-0.1249 फुरसत हो तो
-0.1249 हो तो आओ
-0.1249 तो आओ एक
-0.1249 आओ एक आध
-0.1249 एक आध बाज़ी
-0.1249 आध बाज़ी हो
-0.1249 बाज़ी हो जाय
-0.1249 हो जाय </s>
-0.9031 <s> रमानाथ और
-0.1249 रमानाथ और आया
-0.1249 और आया किसलिए
-0.1249 आया किसलिए हूं
-0.1249 किसलिए हूं मगर
-0.1249 हूं मगर आज
-0.1249 मगर आज आपको
-0.1249 आज आपको मेरे
-0.1249 आपको मेरे साथ
-0.1249 मेरे साथ ज़रा
-0.1249 साथ ज़रा सराफे
-0.1249 ज़रा सराफे तक
-0.4260 सराफे तक चलना
-0.1249 तक चलना पड़ेगा
-0.1249 चलना पड़ेगा </s>
-0.4260 <s> यों कई
-0.1249 यों कई बडी
-0.1249 कई बडी बडी
-0.1249 बडी बडी कोठियों
-0.1249 बडी कोठियों से
-0.1249 कोठियों से मेरा
-0.1249 से मेरा परिचय
-0.1249 मेरा परिचय है
-0.1249 परिचय है </s>
-0.7270 <s> मगर आपके
-0.1249 मगर आपके रहने
-0.1249 आपके रहने से
-0.1249 रहने से कुछ
-0.1249 से कुछ और
-0.1249 कुछ और ही
-0.1249 और ही बात
-0.1249 ही बात होगी
-0.1249 बात होगी </s>
-1.1249 <s> रमेश चलने
-0.1249 रमेश चलने को
-0.1249 चलने को चला
-0.1249 को चला चलूंगा
-0.1249 चला चलूंगा मगर
-0.1249 चलूंगा मगर इस
-0.1249 मगर इस विषय
-0.1249 इस विषय में
-0.4260 विषय में मैं
-0.1249 में मैं बिलकुल
-0.1249 मैं बिलकुल कोरा
-0.1249 बिलकुल कोरा हूं
-0.1249 कोरा हूं </s>
-0.4260 <s> न कोई
-0.1249 न कोई चीज
-0.1249 कोई चीज बनवाई
-0.1249 चीज बनवाई न
-0.1249 बनवाई न खरीदी
-0.1249 न खरीदी </s>
-0.4260 <s> तुम्हें क्या
-0.1249 तुम्हें क्या कुछ
-0.1249 क्या कुछ लेना
-0.1249 कुछ लेना है
-0.1249 लेना है </s>
-1.5563 <s> रमा लेना
-0.1249 रमा लेना देना
-0.1249 लेना देना क्या
-0.1249 देना क्या है
-0.6021 क्या है ज़रा
-0.4260 है ज़रा भाव
-0.1249 ज़रा भाव ताव
-0.1249 भाव ताव देखूंगा
-0.1249 ताव देखूंगा </s>
-0.8239 <s> रमेश मालूम
-0.1249 रमेश मालूम होता
-0.1249 मालूम होता है
-0.8239 होता है घर
-0.1249 है घर में
-0.7270 घर में फटकार
-0.1249 में फटकार पड़ी
-0.1249 फटकार पड़ी है
-0.1249 पड़ी है </s>
-0.9031 <s> रमानाथ जी
-0.1249 रमानाथ जी बिलकुल
-0.1249 जी बिलकुल नहीं
-0.1249 बिलकुल नहीं वह
-0.1249 नहीं वह तो
-0.1249 वह तो जेवरों
-0.1249 तो जेवरों का
-0.4260 जेवरों का नाम
-0.7270 का नाम तक
-0.1249 नाम तक नहीं
-0.1249 तक नहीं लेती
-0.1249 नहीं लेती </s>
-0.9031 <s> मैं कभी
-0.1249 मैं कभी पूछता
-0.1249 कभी पूछता भी
-0.1249 पूछता भी हूं
-0.1249 भी हूं तो
-0.1249 हूं तो मना
-0.1249 तो मना करती
-0.1249 मना करती है
-0.1249 करती है </s>
-0.8239 <s> लेकिन अपना
-0.1249 लेकिन अपना कर्तव्य
-0.1249 अपना कर्तव्य भी
-0.1249 कर्तव्य भी तो
-0.1249 भी तो कुछ
-0.1249 तो कुछ है
-0.1249 कुछ है </s>
-0.7270 <s> जब से
-0.1249 जब से गहने
-0.1249 से गहने चोरी
-0.1249 गहने चोरी चले
-0.1249 चोरी चले गए
-0.7270 चले गए एक
-0.1249 गए एक चीज़
-0.1249 एक चीज़ भी
-0.1249 चीज़ भी नहीं
-0.6021 भी नहीं बनी
-0.1249 नहीं बनी </s>
-0.8239 होता है कमाने
-0.1249 है कमाने का
-0.1249 कमाने का ढंग
-0.1249 का ढंग आ
-0.1249 ढंग आ गया
-0.1249 आ गया </s>
-0.1249 <s> क्यों न
-0.1249 क्यों न हो
-0.1249 न हो कायस्थ
-0.1249 हो कायस्थ के
-0.1249 कायस्थ के बच्चे
-0.1249 के बच्चे हो
-0.1249 बच्चे हो कितने
-0.1249 हो कितने जोड़
-0.1249 कितने जोड़ लिए
-0.1249 जोड़ लिए </s>
-1.5563 <s> रमा रूपये
-0.1249 रमा रूपये किसके
-0.1249 रूपये किसके पास
-0.1249 किसके पास है
-0.1249 पास है वादे
-0.1249 है वादे पर
-0.1249 वादे पर लूंगा
-0.1249 पर लूंगा </s>
-0.8239 <s> रमेश इस
-0.4260 रमेश इस ख़ब्त
-0.1249 इस ख़ब्त में
-0.1249 ख़ब्त में न
-0.6021 में न पड़ो
-0.1249 न पड़ो जब
-0.1249 पड़ो जब तक
-0.1249 जब तक रूपये
-0.1249 तक रूपये हाथ
-0.1249 रूपये हाथ में
-0.4260 हाथ में न
-0.6021 में न हों
-0.6021 न हों बाज़ार
-0.1249 हों बाज़ार की
-0.1249 बाज़ार की तरफ
-0.1249 की तरफ जाओ
-0.1249 तरफ जाओ ही
-0.1249 जाओ ही मत
-0.1249 ही मत </s>
-0.4260 <s> गहनों से
-0.1249 गहनों से तो
-0.1249 से तो बुड्ढे
-0.1249 तो बुड्ढे नई
-0.1249 बुड्ढे नई बीवियों
-0.1249 नई बीवियों का
-0.1249 बीवियों का दिल
-0.1249 का दिल खुश
-0.1249 दिल खुश किया
-0.1249 खुश किया करते
-0.1249 किया करते है
-0.1249 करते है </s>
-0.6021 <s> उन बेचारों
-0.1249 उन बेचारों के
-0.1249 बेचारों के पास
-0.1249 के पास गहनों
-0.1249 पास गहनों के
-0.4260 गहनों के सिवा
-0.1249 के सिवा होता
-0.1249 सिवा होता ही
-0.1249 होता ही क्या
-0.1249 ही क्या है
-0.3010 क्या है </s>
-0.1249 <s> जवानों के
-0.1249 जवानों के लिए
-0.9031 के लिए और
-0.1249 लिए और बहुत
-0.1249 और बहुत से
-0.1249 बहुत से लटके
-0.1249 से लटके है
-0.1249 लटके है </s>
-0.4260 <s> यों मैं
-0.1249 यों मैं चाहूं
-0.1249 मैं चाहूं तो
-0.1249 चाहूं तो दो
-0.4260 तो दो चार
-0.4260 दो चार हज़ार
-0.1249 चार हज़ार का
-0.1249 हज़ार का माल
-0.1249 का माल दिलवा
-0.1249 माल दिलवा सकता
-0.1249 दिलवा सकता हूं
-0.1249 सकता हूं </s>
-0.7270 <s> मगर भई
-0.1249 मगर भई कर्ज़
-0.1249 भई कर्ज़ की
-0.1249 कर्ज़ की लत
-0.1249 की लत बुरी
-0.1249 लत बुरी है
-0.1249 बुरी है </s>
-1.2553 <s> रमा मैं
-0.4260 रमा मैं द
-0.1249 मैं द तीन
-0.1249 द तीन महीनों
-0.1249 तीन महीनों में
-0.1249 महीनों में सब
-0.1249 में सब रूपये
-0.1249 सब रूपये चुका
-0.1249 रूपये चुका दूंगा
-0.1249 चुका दूंगा </s>
-0.8239 <s> अगर मुझे
-0.1249 अगर मुझे इसका
-0.1249 मुझे इसका विश्वास
-0.1249 इसका विश्वास न
-0.1249 विश्वास न होता
-0.1249 न होता तो
-0.6021 होता तो मैं
-0.4260 तो मैं जिक
-0.1249 मैं जिक ही
-0.1249 जिक ही न
-0.1249 ही न करता।’
-0.1249 न करता।’ </s>
-0.8239 <s> रमेश तो
-0.4260 रमेश तो दो
-0.4260 तो दो तीन
-0.1249 दो तीन महीने
-0.1249 तीन महीने और
-0.1249 महीने और सब्र
-0.1249 और सब्र क्यों
-0.1249 सब्र क्यों नहीं
-0.6021 क्यों नहीं कर
-0.6021 नहीं कर जाते
-0.1249 कर जाते </s>
-0.1249 <s> कर्ज़ से
-0.1249 कर्ज़ से बडा
-0.1249 से बडा पाप
-0.1249 बडा पाप दूसरा
-0.1249 पाप दूसरा नहीं
-0.1249 दूसरा नहीं </s>
-0.4260 <s> न इससे
-0.1249 न इससे बडी
-0.1249 इससे बडी विपत्ति
-0.1249 बडी विपत्ति दूसरी
-0.1249 विपत्ति दूसरी है
-0.1249 दूसरी है </s>
-0.4260 <s> जहां एक
-0.1249 जहां एक बार
-0.1249 एक बार धड़का
-0.1249 बार धड़का खुला
-0.1249 धड़का खुला कि
-0.1249 खुला कि तुम
-0.1249 कि तुम आए
-0.1249 तुम आए दिन
-0.1249 आए दिन सराफ
-0.1249 दिन सराफ की
-0.1249 सराफ की दुकान
-0.1249 की दुकान पर
-0.4260 दुकान पर खड़े
-0.1249 पर खड़े नज़र
-0.1249 खड़े नज़र आओगे
-0.1249 नज़र आओगे </s>
-0.4260 <s> बुरा न
-0.1249 बुरा न मानना
-0.1249 न मानना मैं
-0.1249 मानना मैं जानता
-0.1249 मैं जानता हूं
-0.1249 जानता हूं तुम्हारी
-0.1249 हूं तुम्हारी आमदनी
-0.1249 तुम्हारी आमदनी अच्छी
-0.1249 आमदनी अच्छी है
-0.1249 अच्छी है </s>
-0.8239 <s> पर भविष्य
-0.1249 पर भविष्य के
-0.1249 भविष्य के भरोसे
-0.1249 के भरोसे पर
-0.1249 भरोसे पर और
-0.1249 पर और चाहे
-0.1249 और चाहे जो
-0.1249 चाहे जो काम
-0.1249 जो काम करो
-0.1249 काम करो लेकिन
-0.1249 करो लेकिन कर्ज
-0.1249 लेकिन कर्ज क़भी
-0.1249 कर्ज क़भी मत
-0.1249 क़भी मत </s>
-0.4260 <s> गहनों का
-0.7270 गहनों का मर्ज़
-0.1249 का मर्ज़ न
-0.1249 मर्ज़ न जाने
-0.6021 न जाने इस
-0.1249 जाने इस दरिद्र
-0.1249 इस दरिद्र देश
-0.1249 दरिद्र देश में
-0.4260 देश में कैसे
-0.1249 में कैसे फैल
-0.1249 कैसे फैल गया
-0.1249 फैल गया </s>
-0.1249 <s> जिन लोगों
-0.1249 जिन लोगों के
-0.1249 लोगों के भोजन
-0.1249 के भोजन का
-0.1249 भोजन का ठिकाना
-0.1249 का ठिकाना नहीं
-0.1249 ठिकाना नहीं वे
-0.1249 नहीं वे भी
-0.1249 वे भी गहनों
-0.6021 भी गहनों के
-0.4260 गहनों के पीछे
-0.1249 के पीछे प्राण
-0.1249 पीछे प्राण देते
-0.1249 प्राण देते है
-0.1249 देते है </s>
-0.1249 <s> हर साल
-0.1249 हर साल अरबों
-0.1249 साल अरबों रूपये
-0.1249 अरबों रूपये केवल
-0.1249 रूपये केवल सोना
-0.1249 केवल सोना चांदी
-0.1249 सोना चांदी खरीदने
-0.1249 चांदी खरीदने में
-0.1249 खरीदने में व्यय
-0.1249 में व्यय हो
-0.1249 व्यय हो जाते
-0.1249 हो जाते है
-0.2499 जाते है </s>
-0.1249 <s> संसार के
-0.1249 संसार के और
-0.1249 के और किसी
-0.4260 और किसी देश
-0.1249 किसी देश में
-0.4260 देश में इन
-0.1249 में इन धातुआं
-0.1249 इन धातुआं की
-0.1249 धातुआं की इतनी
-0.1249 की इतनी खपत
-0.1249 इतनी खपत नहीं
-0.1249 खपत नहीं </s>
-0.8239 <s> तो बात
-0.1249 तो बात क्या
-0.1249 बात क्या है
-0.1249 <s> उन्नत देशों
-0.1249 उन्नत देशों में
-0.1249 देशों में धन
-0.1249 में धन व्यापार
-0.1249 धन व्यापार में
-0.1249 व्यापार में लगता
-0.1249 में लगता है
-0.1249 लगता है </s>
-0.1249 <s> जिससे लोगों
-0.1249 जिससे लोगों की
-0.1249 लोगों की परवरिश
-0.1249 की परवरिश होती
-0.1249 परवरिश होती है
-0.2499 होती है </s>
-0.8239 <s> और धन
-0.1249 और धन बढ़ता
-0.1249 धन बढ़ता है
-0.1249 बढ़ता है </s>
-0.7270 <s> यहां धन
-0.1249 यहां धन ऋंगार
-0.1249 धन ऋंगार में
-0.1249 ऋंगार में खर्च
-0.4260 में खर्च होता
-0.1249 खर्च होता है
-0.5229 होता है </s>
-0.1249 <s> उसमें उन्नित
-0.1249 उसमें उन्नित और
-0.1249 उन्नित और उपकार
-0.1249 और उपकार की
-0.1249 उपकार की जो
-0.1249 की जो दो
-0.1249 जो दो महान
-0.1249 दो महान शक्तियां
-0.1249 महान शक्तियां है
-0.1249 शक्तियां है </s>
-0.6021 <s> उन दोनों
-0.1249 उन दोनों ही
-0.1249 दोनों ही का
-0.1249 ही का अंत
-0.4260 का अंत हो
-0.1249 अंत हो जाता
-0.4260 हो जाता है
-0.3010 जाता है </s>
-0.1249 <s> बस यही
-0.4260 बस यही समझ
-0.4260 यही समझ लो
-0.1249 समझ लो कि
-0.1249 लो कि जिस
-0.1249 कि जिस देश
-0.1249 जिस देश के
-0.1249 देश के लोग
-0.4260 के लोग जितने
-0.1249 लोग जितने मूर्ख
-0.1249 जितने मूर्ख होंग
-0.1249 मूर्ख होंग </s>
-0.7270 <s> यहां जेवरों
-0.1249 यहां जेवरों का
-0.4260 जेवरों का प्रचार
-0.1249 का प्रचार भी
-0.1249 प्रचार भी उतना
-0.1249 भी उतना ही
-0.1249 उतना ही अधिक
-0.1249 ही अधिक होगा
-0.1249 अधिक होगा </s>
-0.7270 <s> यहां तो
-0.1249 यहां तो खैर
-0.1249 तो खैर नाक
-0.1249 खैर नाक कान
-0.4260 नाक कान छिदाकर
-0.1249 कान छिदाकर ही
-0.1249 छिदाकर ही रह
-0.1249 ही रह जाते
-0.1249 रह जाते है
-0.7270 <s> मगर कई
-0.1249 मगर कई ऐसे
-0.1249 कई ऐसे देश
-0.1249 ऐसे देश भी
-0.1249 देश भी है
-0.1249 भी है जहां
-0.1249 है जहां होंठ
-0.1249 जहां होंठ छेदिकर
-0.1249 होंठ छेदिकर लोग
-0.1249 छेदिकर लोग गहने
-0.1249 लोग गहने पहनते
-0.1249 गहने पहनते है
-0.1249 पहनते है </s>
-0.8573 <s> रमा ने
-0.9031 रमा ने कौतूहल
-0.1249 ने कौतूहल से
-0.1249 कौतूहल से कहा
-0.6021 से कहा </s>
-0.4260 रमेश इस समय
-0.1249 इस समय ठीक
-0.1249 समय ठीक याद
-0.1249 ठीक याद नहीं
-0.1249 याद नहीं आता
-0.4260 नहीं आता पर
-0.1249 आता पर शायद
-0.1249 पर शायद अफ्रीका
-0.1249 शायद अफ्रीका हो
-0.1249 अफ्रीका हो </s>
-0.1249 <s> हमें यह
-0.1249 हमें यह सुनकर
-0.1249 यह सुनकर अचंभा
-0.1249 सुनकर अचंभा होता
-0.1249 अचंभा होता है
-0.8239 होता है लेकिन
-0.1249 है लेकिन अन्य
-0.1249 लेकिन अन्य देश
-0.1249 अन्य देश वालों
-0.1249 देश वालों के
-0.1249 वालों के लिए
-0.9031 के लिए नाक
-0.1249 लिए नाक कान
-0.4260 नाक कान का
-0.1249 कान का छिदना
-0.1249 का छिदना कुछ
-0.1249 छिदना कुछ कम
-0.1249 कुछ कम अचंभे
-0.1249 कम अचंभे की
-0.1249 अचंभे की बात
-0.4260 की बात न
-0.1249 बात न होगी
-0.1249 न होगी </s>
-0.4260 <s> बुरा मरज
-0.1249 बुरा मरज है,
-0.1249 मरज है, बहुत
-0.1249 है, बहुत ही
-0.1249 बहुत ही बुरा
-0.1249 ही बुरा </s>
-0.4260 <s> वह धन
-0.4260 वह धन जो
-0.1249 धन जो भोजन
-0.1249 जो भोजन में
-0.1249 भोजन में खर्च
-0.4260 में खर्च होना
-0.1249 खर्च होना चाहिए
-0.4260 होना चाहिए बाल
-0.1249 चाहिए बाल बच्चों
-0.1249 बाल बच्चों का
-0.1249 बच्चों का पेट
-0.1249 का पेट काटकर
-0.1249 पेट काटकर गहनों
-0.1249 काटकर गहनों की
-0.4260 गहनों की भेंट
-0.1249 की भेंट कर
-0.1249 भेंट कर दिया
-0.6021 कर दिया जाता
-0.1249 दिया जाता है
-0.1249 <s> बच्चों को
-0.1249 बच्चों को दूध
-0.1249 को दूध न
-0.1249 दूध न मिले
-0.1249 न मिले न
-0.1249 मिले न सही
-0.6021 न सही घी
-0.1249 सही घी की
-0.1249 घी की गंध
-0.1249 की गंध तक
-0.1249 गंध तक उनकी
-0.1249 तक उनकी नाक
-0.1249 उनकी नाक में
-0.1249 नाक में न
-0.6021 में न पहुंचे
-0.1249 न पहुंचे न
-0.1249 पहुंचे न सही
-0.6021 न सही </s>
-0.1249 <s> मेवों और
-0.1249 मेवों और फलों
-0.1249 और फलों के
-0.1249 फलों के दर्शन
-0.1249 के दर्शन उन्हें
-0.1249 दर्शन उन्हें न
-0.1249 उन्हें न हों
-0.6021 न हों कोई
-0.1249 हों कोई परवा
-0.1249 कोई परवा नहीं
-0.1249 परवा नहीं </s>
-0.8239 <s> पर देवीजी
-0.1249 पर देवीजी गहने
-0.1249 देवीजी गहने जरूर
-0.4260 गहने जरूर पहनेंगी
-0.1249 जरूर पहनेंगी और
-0.1249 पहनेंगी और स्वामीजी
-0.1249 और स्वामीजी गहने
-0.1249 स्वामीजी गहने जरूर
-0.4260 गहने जरूर बनवाएंगे
-0.1249 जरूर बनवाएंगे </s>
-0.1249 <s> दस दस
-0.1249 दस दस बीस
-0.1249 दस बीस बीस
-0.1249 बीस बीस रूपये
-0.1249 बीस रूपये पाने
-0.1249 रूपये पाने वाले
-0.4260 पाने वाले क्लर्को
-0.1249 वाले क्लर्को को
-0.1249 क्लर्को को देखता
-0.1249 को देखता हूं
-0.1249 देखता हूं </s>
-0.8239 <s> जो सड़ी
-0.1249 जो सड़ी हुई
-0.1249 सड़ी हुई कोठरियों
-0.1249 हुई कोठरियों में
-0.1249 कोठरियों में पशुआं
-0.1249 में पशुआं की
-0.1249 पशुआं की भांति
-0.1249 की भांति जीवन
-0.1249 भांति जीवन काटते
-0.1249 जीवन काटते है
-0.1249 काटते है </s>
-0.1249 <s> जिन्हें सवेरे
-0.1249 जिन्हें सवेरे का
-0.1249 सवेरे का जलपान
-0.1249 का जलपान तक
-0.1249 जलपान तक मयस्सर
-0.1249 तक मयस्सर नहीं
-0.1249 मयस्सर नहीं होता
-0.1249 नहीं होता </s>
-0.6021 <s> उन पर
-0.1249 उन पर भी
-0.4260 पर भी गहनों
-0.6021 भी गहनों की
-0.4260 गहनों की सनक
-0.1249 की सनक सवार
-0.1249 सनक सवार रहती
-0.1249 सवार रहती है
-0.1249 रहती है </s>
-0.6021 <s> इस प्रथा
-0.1249 इस प्रथा से
-0.1249 प्रथा से हमारा
-0.1249 से हमारा सवर्चनाश
-0.1249 हमारा सवर्चनाश होता
-0.1249 सवर्चनाश होता जा
-0.1249 होता जा रहा
-0.2499 जा रहा है
-0.2499 रहा है </s>
-0.6021 मैं तो कहता
-0.1249 तो कहता हूं
-0.1249 कहता हूं यह
-0.1249 हूं यह गुलामी
-0.1249 यह गुलामी पराधीनता
-0.1249 गुलामी पराधीनता से
-0.1249 पराधीनता से कहीं
-0.1249 से कहीं बढ़कर
-0.1249 कहीं बढ़कर है
-0.1249 बढ़कर है </s>
-0.1249 <s> इसके कारण
-0.1249 इसके कारण हमारा
-0.1249 कारण हमारा कितना
-0.1249 हमारा कितना आत्मिक
-0.1249 कितना आत्मिक नैतिक
-0.1249 आत्मिक नैतिक दैहिक
-0.1249 नैतिक दैहिक आर्थिक
-0.1249 दैहिक आर्थिक और
-0.1249 आर्थिक और धामिक
-0.1249 और धामिक पतन
-0.1249 धामिक पतन हो
-0.1249 पतन हो रहा
-0.1249 हो रहा है
-0.1249 <s> इसका अनुमान
-0.1249 इसका अनुमान ब्रह्मा
-0.1249 अनुमान ब्रह्मा भी
-0.1249 ब्रह्मा भी नहीं
-0.6021 भी नहीं कर
-0.6021 नहीं कर सकते
-0.1249 कर सकते </s>
-0.4260 रमा मैं तो
-0.6021 मैं तो समझता
-0.1249 तो समझता हूं
-0.4260 समझता हूं ऐसा
-0.1249 हूं ऐसा कोई
-0.1249 ऐसा कोई भी
-0.1249 कोई भी देश
-0.1249 भी देश नहीं
-0.1249 देश नहीं जहां
-0.1249 नहीं जहां स्त्रियां
-0.1249 जहां स्त्रियां गहने
-0.1249 स्त्रियां गहने न
-0.1249 गहने न पहनती
-0.1249 न पहनती हों
-0.1249 पहनती हों </s>
-0.6021 <s> क्या युरोप
-0.1249 क्या युरोप में
-0.1249 युरोप में गहनों
-0.1249 में गहनों का
-0.7270 गहनों का रिवाज
-0.1249 का रिवाज नहीं
-0.1249 रिवाज नहीं है
-0.4260 रमेश तो तुम्हारा
-0.1249 तो तुम्हारा देश
-0.1249 तुम्हारा देश युरोप
-0.1249 देश युरोप तो
-0.1249 युरोप तो नहीं
-0.8239 तो नहीं है
-0.1249 <s> वहां के
-0.1249 वहां के लोग
-0.4260 के लोग धानी
-0.1249 लोग धानी है
-0.1249 धानी है वह
-0.1249 है वह धन
-0.4260 वह धन लुटाएं
-0.1249 धन लुटाएं </s>
-0.4260 <s> उन्हें शोभा
-0.1249 उन्हें शोभा देता
-0.4260 शोभा देता है
-0.1249 देता है हम
-0.1249 है हम दरिद्र
-0.1249 हम दरिद्र है
-0.1249 दरिद्र है </s>
-0.1249 <s> हमारी कमाई
-0.1249 हमारी कमाई का
-0.1249 कमाई का एक
-0.1249 का एक पैसा
-0.1249 एक पैसा भी
-0.4260 पैसा भी </s>
-0.1249 <s> फजूल न
-0.1249 फजूल न खर्च
-0.1249 न खर्च होना
-0.4260 होना चाहिए </s>
-1.1249 <s> रमेश बाबू
-0.4260 रमेश बाबू इस
-0.1249 बाबू इस बात
-0.1249 इस बात विवाद
-0.1249 बात विवाद में
-0.1249 विवाद में शतरंज
-0.1249 में शतरंज भूल
-0.1249 शतरंज भूल गए
-0.1249 भूल गए </s>
-0.1249 <s> छुट्टी का
-0.1249 छुट्टी का दिन
-0.1249 का दिन था
-0.1249 दिन था ही
-0.1249 था ही दो
-0.1249 ही दो चार
-0.4260 दो चार मिलने
-0.1249 चार मिलने वाले
-0.1249 मिलने वाले और
-0.1249 वाले और आ
-0.1249 और आ गए
-0.1249 आ गए </s>
-0.9031 <s> रमानाथ चुपके
-0.1249 रमानाथ चुपके से
-0.1249 चुपके से खिसक
-0.1249 से खिसक आया
-0.1249 खिसक आया </s>
-0.6021 <s> इस बहस
-0.1249 इस बहस में
-0.1249 बहस में एक
-0.1249 में एक बात
-0.1249 एक बात ऐसी
-0.1249 बात ऐसी थी
-0.1249 ऐसी थी जो
-0.4260 थी जो उसके
-0.1249 जो उसके दिल
-0.1249 उसके दिल में
-0.1249 दिल में बैठ
-0.1249 में बैठ गई
-0.1249 बैठ गई </s>
-0.1249 <s> उधार गहने
-0.1249 उधार गहने लेने
-0.1249 गहने लेने का
-0.4260 लेने का विचार
-0.1249 का विचार उसके
-0.1249 विचार उसके मन
-0.1249 उसके मन से
-0.1249 मन से निकल
-0.1249 से निकल गया
-0.4260 निकल गया </s>
-0.1249 <s> कहीं वह
-0.1249 कहीं वह जल्दी
-0.1249 वह जल्दी रूपया
-0.1249 जल्दी रूपया न
-0.1249 रूपया न चुका
-0.1249 न चुका सका
-0.1249 चुका सका तो
-0.1249 सका तो कितनी
-0.1249 तो कितनी बडी
-0.1249 कितनी बडी बदनामी
-0.1249 बडी बदनामी होगी
-0.1249 बदनामी होगी </s>
-0.1249 <s> सराफे तक
-0.4260 सराफे तक गया
-0.1249 तक गया अवश्य
-0.1249 गया अवश्य पर
-0.1249 अवश्य पर किसी
-0.1249 पर किसी दुकान
-0.1249 किसी दुकान में
-0.1249 दुकान में जाने
-0.1249 में जाने का
-0.1249 जाने का साहस
-0.1249 का साहस न
-0.1249 साहस न हुआ
-0.1249 न हुआ </s>
-0.4260 <s> उसने निश्चय
-0.1249 उसने निश्चय किया
-0.1249 निश्चय किया अभी
-0.1249 किया अभी तीन
-0.1249 अभी तीन चार
-0.1249 तीन चार महीने
-0.1249 चार महीने तक
-0.1249 महीने तक गहनों
-0.1249 तक गहनों का
-0.4260 गहनों का नाम
-0.4260 का नाम न
-0.6021 नाम न लूंगा
-0.1249 न लूंगा </s>
-0.4260 <s> वह घर
-0.4260 वह घर पहुंचा
-0.1249 घर पहुंचा तो
-0.1249 पहुंचा तो नौ
-0.1249 तो नौ बज
-0.1249 नौ बज गए
-0.1249 बज गए थे
-0.6021 गए थे दयानाथ
-0.1249 थे दयानाथ ने
-0.4260 दयानाथ ने उसे
-0.6021 ने उसे देखा
-0.1249 उसे देखा तो
-0.1249 देखा तो पूछा
-0.1249 तो पूछा </s>
-0.6021 <s> आज सवेरे
-0.1249 आज सवेरे कहां
-0.1249 सवेरे कहां चले
-0.1249 कहां चले गए
-0.4260 चले गए थे
-0.6021 गए थे </s>
-1.5563 <s> रमा ज़रा
-0.1249 रमा ज़रा बडे
-0.1249 ज़रा बडे बाबू
-0.1249 बडे बाबू से
-0.1249 बाबू से मिलने
-0.1249 से मिलने गया
-0.1249 मिलने गया था
-0.4260 गया था </s>
-0.6021 <s> दया घंटे
-0.1249 दया घंटे आध
-0.1249 घंटे आध घंटे
-0.1249 आध घंटे के
-0.1249 घंटे के लिए
-0.9031 के लिए पुस्तकालय
-0.1249 लिए पुस्तकालय क्यों
-0.1249 पुस्तकालय क्यों नहीं
-0.6021 क्यों नहीं चले
-0.1249 नहीं चले जाया
-0.1249 चले जाया करते
-0.1249 जाया करते </s>
-0.1249 <s> गप शप
-0.1249 गप शप में
-0.1249 शप में दिन
-0.1249 में दिन गंवा
-0.1249 दिन गंवा देते
-0.1249 गंवा देते हो
-0.1249 देते हो </s>
-0.1249 <s> अभी तुम्हारी
-0.1249 अभी तुम्हारी पढ़ने
-0.1249 तुम्हारी पढ़ने लिखने
-0.1249 पढ़ने लिखने की
-0.1249 लिखने की उम्र
-0.1249 की उम्र है
-0.1249 उम्र है </s>
-0.1249 <s> इम्तहान न
-0.1249 इम्तहान न सही
-0.6021 न सही अपनी
-0.1249 सही अपनी योग्यता
-0.1249 अपनी योग्यता तो
-0.1249 योग्यता तो बढ़ा
-0.1249 तो बढ़ा सकते
-0.1249 बढ़ा सकते हो
-0.1249 सकते हो </s>
-0.6021 <s> एक सीधा
-0.1249 एक सीधा सा
-0.1249 सीधा सा खत
-0.1249 सा खत लिखना
-0.1249 खत लिखना पड़
-0.1249 लिखना पड़ जाता
-0.1249 पड़ जाता है
-0.6021 जाता है तो
-0.4260 है तो बगलें
-0.1249 तो बगलें झांकने
-0.1249 बगलें झांकने लगते
-0.1249 झांकने लगते हो
-0.1249 लगते हो </s>
-0.1249 <s> असली शिक्षा
-0.1249 असली शिक्षा स्कूल
-0.1249 शिक्षा स्कूल छोड़ने
-0.1249 स्कूल छोड़ने के
-0.4260 छोड़ने के बाद
-0.4260 के बाद ही
-0.1249 बाद ही शुरू
-0.1249 ही शुरू होती
-0.1249 शुरू होती है
-0.8239 <s> और वही
-0.1249 और वही हमारे
-0.1249 वही हमारे जीवन
-0.1249 हमारे जीवन में
-0.1249 जीवन में काम
-0.1249 में काम भी
-0.1249 काम भी आती
-0.1249 भी आती है
-0.4260 आती है </s>
-0.4260 <s> मैंने तुम्हारे
-0.1249 मैंने तुम्हारे विषय
-0.1249 तुम्हारे विषय में
-0.4260 विषय में कुछ
-0.1249 में कुछ ऐसी
-0.1249 कुछ ऐसी बातें
-0.6021 ऐसी बातें सुनी
-0.1249 बातें सुनी है
-0.1249 सुनी है जिनसे
-0.1249 है जिनसे मुझे
-0.1249 जिनसे मुझे बहुत
-0.1249 मुझे बहुत खेद
-0.1249 बहुत खेद हुआ
-0.1249 खेद हुआ है
-0.1249 हुआ है </s>
-0.8239 <s> और तुम्हें
-0.1249 और तुम्हें समझा
-0.1249 तुम्हें समझा देना
-0.1249 समझा देना मैं
-0.1249 देना मैं अपना
-0.1249 मैं अपना धर्म
-0.1249 अपना धर्म समझता
-0.1249 धर्म समझता हूं
-0.4260 समझता हूं </s>
-0.9031 <s> मैं यह
-0.1249 मैं यह हरगिज
-0.1249 यह हरगिज नहीं
-0.1249 हरगिज नहीं चाहता
-0.1249 नहीं चाहता कि
-0.1249 चाहता कि मेरे
-0.1249 कि मेरे घर
-0.1249 मेरे घर में
-0.7270 घर में हराम
-0.1249 में हराम की
-0.1249 हराम की एक
-0.1249 की एक कौड़ी
-0.1249 एक कौड़ी भी
-0.1249 कौड़ी भी आए
-0.1249 भी आए </s>
-0.1249 <s> मुझे नौकरी
-0.1249 मुझे नौकरी करते
-0.1249 नौकरी करते तीस
-0.1249 करते तीस साल
-0.1249 तीस साल हो
-0.1249 साल हो गए
-0.1249 हो गए </s>
-0.1249 <s> चाहता तो
-0.1249 चाहता तो अब
-0.1249 तो अब तक
-0.6021 अब तक हज़ारों
-0.1249 तक हज़ारों रूपये
-0.1249 हज़ारों रूपये जमा
-0.6021 रूपये जमा कर
-0.1249 जमा कर लेता
-0.1249 कर लेता </s>
-0.8239 <s> लेकिन मैं
-0.1249 लेकिन मैं कसम
-0.1249 मैं कसम खाता
-0.1249 कसम खाता हूं
-0.1249 खाता हूं कभी
-0.1249 हूं कभी एक
-0.1249 कभी एक पैसा
-0.4260 पैसा भी हराम
-0.1249 भी हराम का
-0.1249 हराम का नहीं
-0.1249 का नहीं लिया
-0.4260 नहीं लिया </s>
-0.1249 <s> तुममें यह
-0.1249 तुममें यह आदत
-0.1249 यह आदत कहां
-0.1249 आदत कहां से
-0.1249 कहां से आ
-0.1249 से आ गई
-0.1249 आ गई यह
-0.1249 गई यह मेरी
-0.1249 यह मेरी समझि
-0.1249 मेरी समझि में
-0.1249 समझि में नहीं
-0.6021 में नहीं आता
-0.4260 नहीं आता </s>
-0.9031 रमा ने बनावटी
-0.1249 ने बनावटी क्रोध
-0.1249 बनावटी क्रोध दिखाकर
-0.1249 क्रोध दिखाकर कहा
-0.1249 दिखाकर कहा </s>
-0.1249 <s> किसने आपसे
-0.1249 किसने आपसे कहा
-0.1249 आपसे कहा है
-0.1249 कहा है ज़रा
-0.4260 है ज़रा उसका
-0.1249 ज़रा उसका नाम
-0.1249 उसका नाम तो
-0.4260 नाम तो बताइए
-0.1249 तो बताइए </s>
-0.1249 <s> मूंछें उखाड़
-0.4260 मूंछें उखाड़ लूं
-0.1249 उखाड़ लूं उसकी
-0.1249 लूं उसकी </s>
-0.6021 <s> दया किसी
-0.1249 दया किसी ने
-0.4260 किसी ने भी
-0.1249 ने भी कहा
-0.1249 भी कहा इससे
-0.1249 कहा इससे तुम्हें
-0.1249 इससे तुम्हें कोई
-0.1249 तुम्हें कोई मतलब
-0.1249 कोई मतलब नहीं
-0.1249 मतलब नहीं </s>
-0.4260 <s> तुम उसकी
