\data\
ngram 1=701
ngram 2=878
ngram 3=794

\1-grams:
-1.1223 <s> -0.5590
-3.1223 ಗೊರಿಲ್ಲಾ -0.6017
-3.1223 ಬದಲಿಗೆ -0.6017
-3.1223 ಬೇರೆ -0.6017
-3.1223 ಜೀವಿಗಳ -0.6017
-3.1223 ಬೇಟೆ -0.6017
-3.1223 ನಡೆಯುತ್ತದೆ -0.5680
-1.1223 </s> -0.6021
-3.1223 ಮರುಭೂಮಿ -0.6017
-3.1223 ಸೃಷ್ಟಿ -0.6014
-2.8213 ಎಂದರೆ -0.6011
-2.8213 ಅದು -0.6011
-3.1223 ನಿಧಾನವಾಗಿ -0.6017
-3.1223 ನಡೆಯುವ -0.6017
-3.1223 ಕ್ರಿಯೆ -0.5680
-3.1223 ಮುಖ್ಯವಾಗಿ -0.6017
-3.1223 ಕಡಿಮೆ -0.6017
-3.1223 ಮಳೆಬೀಳುವ -0.6017
-3.1223 ಒಣಭೂಮಿಯಲ್ಲಿ -0.6014
-2.8213 ಆರಂಭವಾಗುತ್ತದೆ -0.5680
-3.1223 ಹುಲ್ಲು -0.6017
-3.1223 ಬೆಳೆಯುವಂತೆ -0.6017
-3.1223 ತೃಣಧಾನ್ಯದ -0.6017
-3.1223 ಬೀಜಗಳನ್ನು -0.6017
-3.1223 ಬಿತ್ತನೆ -0.6017
-3.1223 ಮಾಡಬೇಕು -0.5680
-2.6452 ಅದರ -0.6004
-3.1223 ಬದಲು -0.6017
-3.1223 ಕುರಿ -0.6017
-3.1223 ಸಾಕರಣೆಯೇ -0.6017
-3.1223 ಮೇಲು -0.6011
-2.6452 ಏಕೆಂದರೆ -0.5971
-3.1223 ಅವು -0.6017
-3.1223 ಸಸ್ಯಗಳ -0.6017
-3.1223 ಚಿಗುರುಗಳನ್ನು -0.6017
-3.1223 ತಿನ್ನುವುದಿಲ್ಲ -0.5680
-3.1223 ವಾಹನ -0.6017
-3.1223 ಬದಿಗೆ -0.6017
-3.1223 ನಿಲ್ಲಿಸಿ -0.6017
-3.1223 ಅವನ -0.6017
-3.1223 ಕೈಗಾಡಿಯತ್ತ -0.6017
-3.1223 ಸಾಗಿದೆ -0.5680
-3.1223 ಇದೆಲ್ಲ -0.6017
-3.1223 ಏಕಮ್ಮಾ -0.6017
-3.1223 ಇದಕ್ಕೆ -0.6011
-2.6452 ಯಾವ -0.6007
-3.1223 ಅರ್ಥವೂ -0.6017
-3.1223 ಇಲ್ಲ -0.5680
-3.1223 ನಾನೀ -0.6017
-3.1223 ಹಳೇ -0.6017
-3.1223 ಸಂಪ್ರದಾಯಗಳನ್ನು -0.6017
-3.1223 ಅನುಸರಿಸೋದಿಕ್ಕೆ -0.6017
-3.1223 ಇಷ್ಟಪಡೋಲ್ಲ -0.6004
-2.4234 ಎಂದು -0.6004
-3.1223 ಕಡ್ಡಿ -0.6017
-3.1223 ಮುರಿದ -0.6017
-3.1223 ಹಾಗೆ -0.6017
-3.1223 ಹೇಳಿದ್ದಾನೆ -0.5680
-3.1223 ಹಿರಿಯರು -0.6017
-3.1223 ಸಹನೆ -0.6017
-3.1223 ಕಳೆದುಕೊಳ್ಳದೇ -0.6017
-3.1223 ಹಳೆಯದೆಲ್ಲ -0.6017
-3.1223 ತ್ಯಾಜ್ಯವಲ್ಲ -0.5680
-3.1223 ನೀನು -0.6017
-3.1223 ಚೆನ್ನಾಗಿ -0.6017
-3.1223 ಓದಿ -0.6017
-3.1223 ಇಂಜಿನೀಯರ್ -0.6017
-3.1223 ಆಗು -0.6017
-3.1223 ಡಾಕ್ಟರಾಗು -0.6004
-3.1223 ಹೇಳುವವರೇ -0.6014
-2.8213 ಹೆಚ್ಚು -0.5676
-3.1223 ಇದರ -0.6017
-3.1223 ಎಣ್ಣೆಯಿಂದ -0.6017
-3.1223 ಜೈವಿಕ -0.6017
-3.1223 ಡೀಸೆಲ್ -0.6017
-3.1223 ಉತ್ಪಾದಿಸಲಾಗುತ್ತಿದ್ದು -0.6014
-2.8213 ಇದನ್ನು -0.6001
-3.1223 ಹೆಂಪೋಲೈನ್ -0.6004
-2.4234 ಎಂಬ -0.6001
-3.1223 ಹೆಸರಿನಲ್ಲಿ -0.6017
-3.1223 ಗುರುತಿಸಲಾಗುತ್ತಿದೆ -0.5680
-3.1223 ಪುಂಡಿ -0.6017
-3.1223 ದಂಟನ್ನು -0.6017
-3.1223 ಉರುವಲಿನ -0.6017
-3.1223 ಇಂಧನವಾಗಿ -0.6017
-3.1223 ಅಲ್ಲದೇ -0.6017
-3.1223 ಕಾಗದ -0.6017
-3.1223 ತಯಾರಿಕಾ -0.6017
-3.1223 ಕಾರ್ಖಾನೆಯಲ್ಲೂ -0.6017
-3.1223 ಸಹ -0.6017
-3.1223 ಬಳಸುತ್ತಾರೆ -0.5680
-3.1223 ಕಣ್ಣು -0.5998
-2.2772 ಮತ್ತು -0.5998
-3.1223 ಕಿವಿ -0.6017
-3.1223 ತಜ್ಞ -0.6017
-3.1223 ವೈದ್ಯರನ್ನು -0.6017
-3.1223 ಕಾಣಬೇಕು -0.5680
-3.1223 ಅಜ್ಜನ -0.6014
-2.8213 ಮನೆಯ -0.6014
-3.1223 ಹಿಂಬದಿಗೆ -0.6017
-3.1223 ಗೇರುಹಣ್ಣಿನ -0.6017
-3.1223 ಮರಗಳಿದ್ದ -0.6011
-2.6452 ದೊಡ್ಡ -0.6011
-3.1223 ಹಾಡಿ -0.6017
-3.1223 ಇತ್ತು -0.5680
-3.1223 ಆಗ -0.6017
-3.1223 ಗೋಡಂಬಿಯ -0.6017
-3.1223 ಹಣ್ಣುಗಳು -0.6017
-3.1223 ಉದುರಿ -0.6017
-3.1223 ನೆಲದ -0.6017
-3.1223 ಮೇಲೆ -0.6017
-3.1223 ಬೀಳುತ್ತಿದ್ದುವು -0.5680
-3.1223 ಬೇಸಿಗೆಯ -0.6017
-3.1223 ಸಮಯ -0.6014
-3.1223 ಎದುರು -0.6017
-3.1223 ವಿಶಾಲವಾದ -0.6017
-3.1223 ಚಪ್ಪರಹಾಕಿ -0.6014
-2.8213 ಅದಕ್ಕೆ -0.6014
-3.1223 ತೆಂಗಿನ -0.6017
-3.1223 ಮಡಲು -0.6017
-3.1223 ಹೊಚ್ಚುತ್ತಾ -0.6017
-3.1223 ಇದ್ದರು -0.5680
-3.1223 ಇವುಗಳ -0.6017
-3.1223 ಬಗ್ಗೆಯೇ -0.6017
-3.1223 ಮುಂದಿನ -0.6017
-3.1223 ವರ್ಷದವರೆಗೂ -0.6017
-3.1223 ನಮ್ಮ -0.6017
-3.1223 ಹಳ್ಳಿಯ -0.6014
-2.8213 ಜನರು -0.6014
-3.1223 ಮಾತನಾಡುತ್ತಿದ್ದರು -0.5680
-3.1223 ಜಾತಿವಾದಿ -0.5998
-3.1223 ಕೋಮುವಾದಿ -0.6017
-3.1223 ಶಕ್ತಿಗಳು -0.6017
-3.1223 ಒಂದಾಗಿ -0.6011
-2.6452 ತಮ್ಮ -0.6011
-3.1223 ಆಧಿಪತ್ಯವನ್ನು -0.5978
-2.0084 ಈ -0.5968
-3.1223 ರಾಷ್ಟ್ರದಲ್ಲಿ -0.6017
-3.1223 ಸ್ಥಾಪಿಸಿಕೊಳ್ಳುತ್ತಿವೆ -0.5680
-2.6452 ಒಂದು -0.6007
-2.8213 ರೀತಿಯ -0.6014
-3.1223 ಬೆಳಗಾವಿ -0.6017
-3.1223 ಜಿಲ್ಲೆಯ -0.6017
-3.1223 ವೀರಶೈವಮಠಗಳಿಗೆ -0.6017
-3.1223 ಪರಂಪರೆಯ -0.6014
-2.8213 ಮೂಲ -0.6014
-3.1223 ಅರ್ಜುನವಾಡ -0.6017
-3.1223 ಹುಕ್ಕೇರಿ -0.5680
-3.1223 ಕವಿಳಾಸಪುರ -0.6014
-2.8213 ಈಗ -0.6014
-3.1223 ಹಾಳಾಗಿದ್ದು -0.6017
-3.1223 ಪ್ರಸ್ತುತ -0.6017
-3.1223 ಅರ್ಜುನವಾಡಿ -0.6017
-3.1223 ಗ್ರಾಮದ -0.6017
-3.1223 ಸೀಮೆಯಲ್ಲಿದೆ -0.5680
-3.1223 ಪ್ರಾಣಿ -0.6017
-3.1223 ಹಿಂಸೆಯನ್ನು -0.6017
-3.1223 ವಿರೋಧಿಸುತ್ತಿದ್ದ -0.6017
-3.1223 ತಿಪ್ಪಯ್ಯ -0.6017
-3.1223 ಮೂಢನಂಬಿಕೆ -0.6017
-3.1223 ಕಂದಾಚಾರಗಳನ್ನು -0.6017
-3.1223 ಲೆಕ್ಕಿಸುತ್ತಿರಲಿಲ್ಲ -0.5680
-3.1223 ದೊರೆ -0.6017
-3.1223 ಪರಿವಾರದವರು -0.6017
-3.1223 ಮನೆದೇವರಾದ -0.6017
-3.1223 ಶ್ರೀಶೈಲ -0.6017
-3.1223 ಮಲ್ಲಿಕಾರ್ಜುನನನ್ನು -0.6017
-3.1223 ಪೂಜಿಸಿದರು -0.5680
-3.1223 ಎಲ್ಲಾ -0.6017
-3.1223 ಜಾತಿ -0.6017
-3.1223 ಧರ್ಮೀಯರು -0.6017
-3.1223 ಮುಕ್ತವಾಗಿ -0.6017
-3.1223 ಪ್ರವೇಶಿಸುತ್ತಿದ್ದು -0.6017
-3.1223 ಮಾಂಸಹಾರವನ್ನು -0.5978
-3.1223 ದೇವಾಲಯದ -0.6017
-3.1223 ಹೊರಗೆ -0.6017
-3.1223 ಮಾಡುತ್ತಾರೆ -0.5680
-3.1223 ತೇರನ್ನು -0.6017
-3.1223 ಎಳೆಯುವ -0.6017
-3.1223 ಮುನ್ನ -0.6017
-3.1223 ಅಂಜನೇಯನ -0.6017
-3.1223 ಪೂಜೆ -0.6017
-3.1223 ಮಾಡುವರು -0.5680
-3.1223 ಹಿರೇಹಳ್ಳಿಯಲ್ಲಿ -0.6017
-3.1223 ಸೂರಿನಂದನ -0.6017
-3.1223 ಅಲಗನ್ನು -0.6017
-3.1223 ಪ್ರತಿಷ್ಠಾಪಿಸಿ -0.6017
-3.1223 ದಡ್ಡಿ -0.6017
-3.1223 ಸೂರನಾಕ -0.6017
-3.1223 ದೇವರೆಂದು -0.6017
-3.1223 ಕರೆದುಕೊಂಡರು -0.5680
-2.3442 ಇಲ್ಲಿ -0.5994
-3.1223 ಮ್ಯಾಸನಾಯಕ -0.6017
-3.1223 ಕುಲದೇವತೆ -0.6017
-3.1223 ಕಾಟಮ್ಮ -0.6017
-3.1223 ನೆಲೆಸಿರುವಳು -0.5680
-3.1223 ಚಳ್ಳಕೆರೆ -0.6017
-3.1223 ತಾಲೂಕಿನಲ್ಲಿ -0.6017
-3.1223 ಕಾಲುವೆಹಳ್ಳಿ -0.6004
-3.1223 ಗ್ರಾಮವಿದೆ -0.5680
-3.1223 ನಾಯಕನಹಟ್ಟಿ -0.6017
-3.1223 ಪಾಳೆಯಗಾರ -0.6017
-3.1223 ಬೋಡಿಮಲ್ಲಪ್ಪನಾಯಕ -0.5978
-3.1223 ಗ್ರಾಮವನ್ನು -0.6017
-3.1223 ಸ್ಥಾಪಿಸಿದನು -0.5680
-3.1223 ಯರಮಂಚಿನಾಯಕ -0.6011
-2.6452 ತನ್ನ -0.6011
-3.1223 ಜನಾಂಗದ -0.6017
-3.1223 ಅಭಿವೃದ್ಧಿ -0.6017
-3.1223 ಆಗಬೇಕಾದರೆ -0.6017
-3.1223 ಎಲ್ಲರೂ -0.6017
-3.1223 ಐಕ್ಯತೆಯಿಂದ -0.6017
-3.1223 ಇರಬೇಕು -0.6017
-3.1223 ಎನ್ನುತ್ತಾರೆ -0.5680
-3.1223 ಸಂಪ್ರದಾಯಗಳ -0.6017
-3.1223 ವಿರುದ್ಧವೇ -0.6017
-3.1223 ಮತ್ತೊಬ್ಬರು -0.6017
-3.1223 ಲೋಪ -0.6017
-3.1223 ಮಾಡುವುದುಂಟು -0.5680
-3.1223 ಕೊಡಗುಬೊಮ್ಮನಿಂದಲೇ -0.6017
-3.1223 ತಂಗಿ -0.6017
-3.1223 ದೇವಮ್ಮ -0.6017
-3.1223 ದುರಂತ -0.6017
-3.1223 ಸಾವನ್ನಪ್ಪುತ್ತಾಳೆ -0.5680
-3.1223 ಜಾಗತಿಕ -0.6014
-2.8213 ಯುದ್ಧ -0.6014
-3.1223 ಅದಕ್ಕೊಂದು -0.6017
-3.1223 ವೇದಿಕೆಯಾಗಿ -0.6011
-2.6452 ದೊರೆಯಿತು -0.5680
-3.1223 ಅಟ್ಟೋಮನ್ -0.6017
-3.1223 ಸಾಮ್ರಾಜ್ಯದ -0.6017
-3.1223 ಅಧೀನದಿಂದ -0.6017
-3.1223 ಸ್ವತಂತ್ರನಾಗುವ -0.6017
-3.1223 ಹೆಬ್ಬಯಕೆಯನ್ನು -0.6017
-3.1223 ವ್ಯಕ್ತಪಡಿಸುವುದರಿಂದ -0.6014
-2.8213 ಬ್ರಿಟಿಷರು -0.6014
-3.1223 ಅವನೊಂದಿಗೆ -0.6017
-3.1223 ರಾಜತಾಂತ್ರಿಕ -0.6017
-3.1223 ಮಾರ್ಗವನ್ನು -0.6017
-3.1223 ಪಾಲಿಸುತ್ತಾರೆ -0.5680
-3.1223 ಒಪ್ಪಂದದ -0.6017
-3.1223 ಪ್ರಕಾರ -0.6004
-2.4234 ಸೌದಿ -0.6004
-3.1223 ಅರಸನ -0.6017
-3.1223 ಅಸ್ತಿತ್ವವನ್ನು -0.6014
-3.1223 ಗೌರವಿಸಿದರು -0.5680
-3.1223 ಗೌರವವೂ -0.6017
-3.1223 ಕೂಡ -0.6017
-3.1223 ಅಂತಾರಾಷ್ಟ್ರೀಯವಾಗಿ -0.6017
-3.1223 ಬ್ರಿಟಿಷರ -0.6011
-2.6452 ಮೂಲಕ -0.6004
-3.1223 ಹಷಿಮೈಟ್ಗಳ -0.6014
-2.8213 ವಿರುದ್ಧ -0.6014
-3.1223 ಸಾಧಿಸಿದ -0.6017
-3.1223 ಜಯದೊಂದಿಗೆ -0.6014
-2.8213 ಎರಡು -0.6007
-2.8213 ಮುಖ್ಯ -0.6014
-3.1223 ಗುರಿಗಳನ್ನು -0.6017
-3.1223 ರೂಪಿಸಿಕೊಂಡ -0.5680
-3.1223 ನಾಲ್ಕು -0.6017
-3.1223 ಉದ್ದೇಶಗಳನ್ನು -0.6014
-2.8213 ಅವನು -0.6014
-3.1223 ಹೊಂದಿದ್ದನು -0.5680
-2.8213 ಯುರೋಪಿನ -0.6011
-2.8213 ವಸಾಹತುಶಾಹಿ -0.6011
-3.1223 ರಾಷ್ಟ್ರಗಳಿಂದ -0.6011
-3.1223 ಇರುವಿಕೆಯನ್ನು -0.6017
-3.1223 ಗುರುತಿಸಿಕೊಂಡು -0.6017
-3.1223 ಗೌರವಿಸಿಕೊಳ್ಳುವುದು -0.5680
-3.1223 ಇಡೀ -0.6004
-2.4234 ಅರಬ್ -0.6001
-3.1223 ಜಗತ್ತಿನಲ್ಲಿ -0.6017
-3.1223 ತಾನೆಯ -0.6017
-3.1223 ಸಾರ್ವ -0.6017
-3.1223 ಭೌಮಸ್ಥಳೀಯ -0.6017
-3.1223 ರಾಜಕೀಯದಲ್ಲಿ -0.6017
-3.1223 ಮಹಾನ್ -0.6017
-3.1223 ಶಕ್ತಿ -0.6004
-3.1223 ಗುರುತಿಸಿಕೊಳ್ಳಬೇಕಾಗಿದೆ -0.5680
-3.1223 ದೃಷ್ಟಿಯಿಂದ -0.6017
-3.1223 ಫ್ರೆಂಚ್ -0.5998
-3.1223 ಬ್ರಿಟಿಷರನ್ನು -0.6014
-3.1223 ಹತ್ತಿರ -0.6017
-3.1223 ಸೇರಿಸಿಕೊಳ್ಳುವುದು -0.6017
-3.1223 ತಪ್ಪಾಗುತ್ತದೆ -0.5680
-2.8213 ರಾಷ್ಟ್ರಗಳ -0.6007
-3.1223 ಅರಬರು -0.6017
-3.1223 ಸಾರ್ವತ್ರಿಕವಾಗಿ -0.6017
-3.1223 ರಾಷ್ಟ್ರೀಯ -0.6017
-3.1223 ಅಂದೋಲನವನ್ನೇ -0.6017
-3.1223 ಅರಂಭಿಸಿದ್ದಾರೆ -0.5680
-3.1223 ಸಮಾಜವಾದಿ -0.6004
-3.1223 ರಾಜ್ಯಗಳು -0.6004
-3.1223 ಸಾಮ್ರಾಜ್ಯದಲ್ಲಿ -0.6017
-3.1223 ಮುಂದುವರಿದಿರುವ -0.6017
-3.1223 ಅರಸೊತ್ತಿಗೆಗೆ -0.6017
-3.1223 ಸಮಾನ -0.6017
-3.1223 ಶಕ್ತಿಯಾಗಿ -0.6017
-3.1223 ಸ್ಪರ್ಧೆಗಿಳಿದವು -0.5680
-3.1223 ಪ್ರಾದೇಶಿಕವಾಗಿ -0.6014
-2.8213 ತೈಲ -0.6014
-3.1223 ಸಂಪನ್ಮೂಲದಿಂದ -0.6017
-3.1223 ಆದಾಯವನ್ನು -0.6017
-3.1223 ವೃದ್ದಿಸಿಕೊಳ್ಳಲು -0.6017
-3.1223 ಅಮೆರಿಕದಂತಹ -0.6014
-3.1223 ಕಂಪೆನಿಗಳೊಂದಿಗೆ -0.6017
-3.1223 ಒಡಂಬಡಿಕೆ -0.6017
-3.1223 ಮಾಡಿಕೊಂಡಿತ್ತು -0.5680
-3.1223 ಇದರಿಂದ -0.6004
-3.1223 ಖಜನೆಗೆ -0.6017
-3.1223 ನಿರಂತರ -0.6017
-3.1223 ವಾಗಿ -0.6017
-3.1223 ಸಂಪತ್ತು -0.6017
-3.1223 ಹರಿದು -0.6017
-3.1223 ಬರುವಂತಾಯಿತು -0.5680
-3.1223 ಇನ್ನೊಂದು -0.6017
-3.1223 ಪೂರ್ಣಪ್ರಮಾಣದ -0.6017
-3.1223 ಅರಬ್ಇಸ್ರೇಲಿ -0.6014
-3.1223 ಆರಂಭವಾಗುವುದನ್ನು -0.6017
-3.1223 ತಡೆಯುವುದು -0.5680
-2.8213 ಇಂತಹ -0.6014
-3.1223 ಪ್ರಮಾದ -0.6017
-3.1223 ಲಿಬಿಯಾದಿಂದ -0.6017
-3.1223 ಆಗುವ -0.6011
-2.6452 ಎಲ್ಲ -0.6011
-3.1223 ಲಕ್ಷಣಗಳಿದ್ದವು -0.5680
-3.1223 ಪ್ಯಾಲೇಸ್ತೀನಿ -0.6017
-3.1223 ಅರಬ್ರ -0.6017
-3.1223 ಜನ್ಮಸಿದ್ಧ -0.6017
-3.1223 ಹಕ್ಕನ್ನು -0.6017
-3.1223 ರಕ್ಷಿಸುವುದು -0.5680
-3.1223 ಪೂರ್ವ -0.6017
-3.1223 ಜೆರುಸಲೇಂನಲ್ಲಿ -0.6004
-3.1223 ಆಡಳಿತದ -0.6017
-3.1223 ಸ್ಥಾಪನೆ -0.6017
-3.1223 ಆರಂಭಿಸುವುದು -0.5680
-3.1223 ನಡುವೆ -0.6017
-3.1223 ಅನ್ವರ್ -0.6017
-3.1223 ಸಾಧತ್ನ -0.6017
-3.1223 ಅಕಾಲ -0.6017
-3.1223 ಮರಣವು -0.6004
-2.8213 ಜಗತ್ತಿನ -0.6014
-3.1223 ರಾಜಕೀಯ -0.6017
-3.1223 ವಲಯದಲ್ಲಿ -0.6017
-3.1223 ಬದಲಾವಣೆ -0.6017
-3.1223 ತಂದಿತು -0.5680
-3.1223 ನೇತೃತ್ವದಲ್ಲಿ -0.6004
-3.1223 ಸಮುದಾಯ -0.6017
-3.1223 ಖಂಡಿಸಿತ್ತು -0.5680
-3.1223 ಸರಕಾರವೇ -0.5978
-3.1223 ತರಹದ -0.6017
-3.1223 ಆಲೋಚನೆ -0.6017
-3.1223 ಮಾಡಿ -0.6017
-3.1223 ಅಲ್ಲಿಯ -0.6017
-3.1223 ರಾಜಕುಮಾರ -0.6017
-3.1223 ಸೌದ್ಅಲ್ಪೈಸಲ್ -0.6017
-3.1223 ಹೀಗೆ -0.6017
-3.1223 ಹೇಳುತ್ತಾನೆ -0.5680
-3.1223 ದೇಶಗಳು -0.6017
-3.1223 ಈಜಿಪ್ಟ್ -0.5998
-3.1223 ಅಮೆರಿಕಗಳಿಂದ -0.6017
-3.1223 ಶಾಂತಿ -0.6017
-3.1223 ಸಂಧಾನವನ್ನು -0.6017
-3.1223 ಒಪ್ಪಿಕೊಳ್ಳಲು -0.6017
-3.1223 ಒತ್ತಾಯ -0.6017
-3.1223 ಎದುರಿಸಬೇಕಾಯಿತು -0.5680
-2.8213 ಸಣ್ಣ -0.6004
-2.5203 ಹಾಗೂ -0.6001
-3.1223 ರಾಷ್ಟ್ರಗಳು -0.6017
-3.1223 ಸಂಘದ -0.6017
-3.1223 ವಿಶ್ವಾಸ -0.6017
-3.1223 ಕಳೆದುಕೊಂಡವು -0.5680
-3.1223 ಪ್ರತಿರೋಧಗಳನ್ನು -0.6017
-3.1223 ಮುರಿದು -0.6017
-3.1223 ಪೋಲೆಂಡಿನ -0.6017
-3.1223 ರಾಜಧಾನಿಯಾದ -0.6017
-3.1223 ವಾರ್ಸೊ -0.6017
-3.1223 ಜರ್ಮನಿಯ -0.6017
-3.1223 ವಶವಾಯಿತು -0.5680
-3.1223 ಹಿಟ್ಲರ್ನು -0.6017
-3.1223 ಭೀಕರ -0.6017
-3.1223 ವಾಯು -0.6017
-3.1223 ದಾಳಿಯಿಂದ -0.6017
-3.1223 ಬ್ರಿಟನ್ನಲ್ಲಿ -0.6017
-3.1223 ವ್ಯಾಪಕ -0.6017
-3.1223 ಕಷ್ಟನಷ್ಟಗಳನ್ನು -0.6017
-3.1223 ಉಂಟುಮಾಡಿದನು -0.5680
-3.1223 ಇಟಲಿ -0.6017
-3.1223 ಸೋಲಲಾರಂಭಿಸಿದಾಗ -0.6017
-3.1223 ಜರ್ಮನಿಯು -0.6011
-3.1223 ಸಹಾಯಕ್ಕೆ -0.6017
-3.1223 ನಿಂತು -0.6017
-3.1223 ಮೊದಮೊದಲಿಗೆ -0.6017
-3.1223 ಜಯಗಳಿಸಿತು -0.5680
-3.1223 ಪಲಾಯನಗೈದ -0.6017
-3.1223 ಮುಸ್ಸೊಲೊನಿಯು -0.6017
-3.1223 ಫ್ಯಾಸಿಸ್ಟ್ -0.6017
-3.1223 ವಿರೋಧಿಗಳಿಂದ -0.6017
-3.1223 ದಾರುಣವಾಗಿ -0.6017
-3.1223 ಕೊಲೆಯಾದನು -0.5680
-3.1223 ಆ -0.6017
-3.1223 ಬಳಿಕವೂ -0.6017
-3.1223 ಹಲವೆಡೆಗಳಲ್ಲಿ -0.6014
-3.1223 ಸಭೆಗಳು -0.6017
-3.1223 ನಡೆದು -0.6017
-3.1223 ವಿಶ್ವಸಂಸ್ಥೆಯ -0.6017
-3.1223 ರೂಪರೇಷೆ -0.6017
-3.1223 ಸಿದ್ಧವಾದವು -0.5680
-3.1223 ನಿಯಮದಂತೆ -0.6014
-2.8213 ಸಾಮಾನ್ಯ -0.6011
-3.1223 ಸಭೆಯು -0.6017
-3.1223 ವರ್ಷಕ್ಕೊಂದು -0.6017
-3.1223 ಬಾರಿ -0.6017
-3.1223 ಸಭೆ -0.6017
-3.1223 ಸೇರುತ್ತದೆ -0.5680
-3.1223 ರಷ್ಯಾದಲ್ಲಿ -0.6017
-3.1223 ಭೂಗತವಾಗಿ -0.6017
-3.1223 ಅಲ್ಪ -0.6017
-3.1223 ಪ್ರಮಾಣದಲ್ಲಿದ್ದ -0.6017
-3.1223 ಅಪರಾಧಭ್ರಷ್ಟಾಚಾರಗಳ -0.6017
-3.1223 ಉಭಯ -0.6017
-3.1223 ಕಂಟಕಗಳು -0.6014
-3.1223 ರಾಜಾರೋಷವಾಗಿ -0.6017
-3.1223 ವಿಜೃಂಭಿಸುತ್ತಿವೆ -0.5680
-3.1223 ಅಣು -0.6017
-3.1223 ಶಸ್ತ್ರಗಳ -0.6017
-3.1223 ಬಳಕೆಯ -0.6017
-3.1223 ಅಪಾಯ -0.6014
-3.1223 ವಿವಾದತಿಕ್ಕಾಟಗಳಲ್ಲೂ -0.6017
-3.1223 ಇನ್ನಷ್ಟು -0.6017
-3.1223 ಹೆಚ್ಚಿದೆ -0.5680
-3.1223 ಮಾರುಕಟ್ಟೆ -0.6017
-3.1223 ಆರ್ಥಿಕತೆ -0.6017
-3.1223 ಜಾರಿಗೆ -0.6017
-3.1223 ತರುವುದರಲ್ಲಿ -0.6017
-3.1223 ಬೆಲೆ -0.6017
-3.1223 ಸುಧಾರಣೆಗಳು -0.6017
-3.1223 ಅಗತ್ಯ -0.6017
-3.1223 ಮೊದಲ -0.6017
-3.1223 ಹೆಜ್ಜೆ -0.6017
-3.1223 ಎನ್ನಲಾಯಿತು -0.5680
-3.1223 ಚುನಾವಣೆಯ -0.6017
-3.1223 ಮೊದಲು -0.6017
-3.1223 ಸಮೀಕ್ಷೆಗಳನ್ನು -0.6017
-3.1223 ನಡೆಸಿ -0.6017
-3.1223 ಬೇಕಾದ -0.6017
-3.1223 ಫಲಿತಾಂಶಕ್ಕೆ -0.6017
-3.1223 ನಿರೀಕ್ಷೆ -0.6014
-3.1223 ಇಷ್ಟು -0.6017
-3.1223 ಹೊತ್ತಿಗೆ -0.6014
-3.1223 ಸುತ್ತ -0.5978
-3.1223 ಭಾವೀ -0.6017
-3.1223 ಕ್ರಾಂತಿಯ -0.6017
-3.1223 ನೆಯರ -0.6017
-3.1223 ಪ್ರಸಾರ -0.6017
-3.1223 ನಡೆಯುತ್ತಿರುತ್ತದೆ -0.5680
-3.1223 ಬಿಎವಿವೇಕ -0.6017
-3.1223 ರೈ -0.6017
-3.1223 ಅವರ -0.6017
-3.1223 ಮಾರ್ಗದರ್ಶನದಲ್ಲಿ -0.5998
-3.1223 ಚರಿತ್ರೆ -0.6017
-3.1223 ವಿಭಾಗದ -0.6017
-3.1223 ಮುಖ್ಯಸ್ಥರಾಗಿದ್ದ -0.6017
-3.1223 ಡಾ -0.5680
-3.1223 ಅಂದರೆ -0.6017
-3.1223 ದೇಸಿ -0.6017
-3.1223 ಬೇರುಗಳ -0.6017
-3.1223 ಗುರುತಿಸುವಿಕೆ -0.6014
-2.8213 ಕನ್ನಡ -0.6014
-3.1223 ಅಧ್ಯಯನದ -0.6014
-3.1223 ಭಿತ್ತಿಯಾಗಬೇಕಾಗಿದೆ -0.5680
-3.1223 ಅಮೆರಿಕದ -0.6017
-3.1223 ದಕ್ಷಿಣ -0.6017
-3.1223 ತುದಿಯನ್ನು -0.6017
-3.1223 ಸುತ್ತಿಕೊಂಡು -0.6017
-3.1223 ಕೊಲ್ಲಿಯ -0.6011
-3.1223 ಸಾಗಿದನು -0.5680
-3.1223 ಚರ್ಚಿನ -0.6017
-3.1223 ಸೇವೆಯಲ್ಲಿ -0.6017
-3.1223 ತರಬೇತಿ -0.6017
-3.1223 ಪಡೆದಿದ್ದವರ -0.6017
-3.1223 ನಾಯಕತ್ವವು -0.6017
-3.1223 ದೊರಕಿತು -0.5680
-3.1223 ಇಂದು -0.6017
-3.1223 ರಿನೈಸಾನ್ಸ್ -0.6017
-3.1223 ಇಟಲಿಯಿಂದ -0.6014
-3.1223 ಇತರ -0.6017
-3.1223 ಕೇಂದ್ರಗಳಿಗೆ -0.6011
-3.1223 ಆಸಕ್ತಿ -0.6017
-3.1223 ಯನ್ನು -0.6017
-3.1223 ವರ್ಗಾಯಿಸಿದೆ -0.5680
-3.1223 ಸರಕುಗಳ -0.6017
-3.1223 ಅಧಿಕ -0.6017
-3.1223 ಉತ್ಪಾದನೆ -0.6017
-3.1223 ನಡೆಯಿತು -0.5680
-3.1223 ಇದರಿಂದಾಗಿ -0.6017
-3.1223 ಹೊಸ -0.6017
-3.1223 ಶೋಧನೆಗೆ -0.5998
-3.1223 ಉದ್ಯಮಶೀಲತೆಗೆ -0.6017
-3.1223 ಸಾಕಷ್ಟು -0.6017
-3.1223 ಪ್ರತಿಫಲ -0.6011
-3.1223 ಕುಲೀನಸತ್ತೆ -0.6004
-3.1223 ಪದದ -0.6014
-3.1223 ಇಂಗ್ಲೀಷ್ -0.6017
-3.1223 ಶಬ್ದವು -0.6017
-3.1223 ಅರಿಸ್ಟಾಕ್ರಸಿ -0.5680
-3.1223 ಪರ್ಯಾಯವಾಗಿ -0.6017
-3.1223 ಹೇಳಬೇಕೆಂದರೆ -0.6017
-3.1223 ಕುಲೀನಸತ್ತೆಯನ್ನು -0.6017
-3.1223 ವಿಶೇಷವಾಗಿ -0.6017
-3.1223 ಆರಿಸಲ್ಪಟ್ಟ -0.6017
-3.1223 ಕೆಲವರ -0.6017
-3.1223 ಆಳ್ವಿಕೆ -0.6004
-3.1223 ಸುಲಭವಾಗಿ -0.6017
-3.1223 ವ್ಯಾಖ್ಯಾನಿಸಬಹುದು -0.5680
-2.8213 ಕುಲೀನಸತ್ತೆಯು -0.5968
-3.1223 ಕೆಳಗಿನ -0.6017
-3.1223 ವಿಶೇಷ -0.6017
-3.1223 ಗುಣಲಕ್ಷಣಗಳನ್ನು -0.6017
-3.1223 ಹೊಂದಿರುತ್ತದೆ -0.5680
-3.1223 ಸಾಮಾನ್ಯವಾದ -0.6007
-3.1223 ನೈಸರ್ಗಿಕ -0.6017
-3.1223 ಆಡಳಿತ -0.6017
-3.1223 ಪದ್ಧತಿಯೆಂದು -0.6017
-3.1223 ಪರಿಗಣಿಸಲ್ಪಟ್ಟಿದೆ -0.5680
-3.1223 ಕುಲೀನಸತ್ತೆಯ -0.6017
-3.1223 ಸರಕಾರವು -0.6017
-3.1223 ತೌಲನಿಕವಾಗಿ -0.6017
-3.1223 ಸ್ಥಿರವಾದ -0.6017
-3.1223 ಸರ್ಕಾರವಾಗಿರುತ್ತದೆ -0.5680
-3.1223 ಉದಾಹರಣೆಗೆ -0.6017
-3.1223 ಜವಾಬ್ದಾರಿಯ -0.6017
-3.1223 ಕೆಲಸಗಳಿಗೆ -0.6017
-3.1223 ಜನರನ್ನು -0.6017
-3.1223 ನೇಮಿಸುವಾಗ -0.6017
-3.1223 ಬಹುಮತದಂತಹ -0.6017
-3.1223 ನೀತಿ -0.6017
-3.1223 ಅನ್ವಯವಾಗುವುದಿಲ್ಲ -0.5680
-3.1223 ಹದಿನೇಳನೆಯ -0.6017
-3.1223 ಶತಮಾನ -0.6017
-3.1223 ನಿರಂಕುಶಪ್ರಭುತ್ವದ -0.6017
-3.1223 ಯುಗ -0.6017
-3.1223 ಎಂಬುದಾಗಿ -0.6017
-3.1223 ನಿರ್ಣಯವನ್ನು -0.6017
-3.1223 ಕೈಕೊಳ್ಳಲು -0.6017
-3.1223 ಸಾಧ್ಯವಿಲ್ಲ -0.5680
-3.1223 ಮಧ್ಯಮವರ್ಗದ -0.6014
-3.1223 ಅಪಾರ -0.6017
-3.1223 ಸಂಪತ್ತನ್ನು -0.6017
-3.1223 ಗಳಿಸಿ -0.6017
-3.1223 ಅಧಿಕಾರ -0.5998
-3.1223 ಸವಲತ್ತುಗಳನ್ನು -0.6017
-3.1223 ಪಡೆಯಲು -0.6017
-3.1223 ಹಂಬಲಿಸುತ್ತಿದ್ದರು -0.5680
-3.1223 ಇದರಿಂದಾಗಿಯೇ -0.6017
-3.1223 ಆಸ್ಟ್ರೀಯಾದ -0.6017
-3.1223 ರಾಣಿ -0.6017
-3.1223 ಮಾರಿಯಾ -0.6017
-3.1223 ತೆರೇಸಾ -0.6007
-3.1223 ಫ್ರೆಡ್ರಿಕ್ರೊಳಗೆ -0.6017
-3.1223 ಮನಸ್ತಾಪ -0.6017
-3.1223 ಉಂಟಾಗಿದ್ದು -0.5680
-3.1223 ಅವರು -0.6017
-3.1223 ಮನುಷ್ಯ -0.6017
-3.1223 ಮೂಲತಃ -0.6017
-3.1223 ಸಂಘಜೀವಿ -0.6004
-3.1223 ಮಾನವ -0.6017
-3.1223 ಸಮುದಾಯದ -0.6017
-3.1223 ಅತ್ಯಂತ -0.6017
-3.1223 ಪ್ರಾಚೀನ -0.6017
-3.1223 ತತ್ವವನ್ನು -0.6011
-3.1223 ಸಿದ್ಧಾಂತವಾಗಿಸಿಕೊಂಡರು -0.5680
-3.1223 ಹತ್ತೊಂಬತ್ತನೆಯ -0.6017
-3.1223 ಶತಮಾನದ -0.6017
-3.1223 ಕೊನೆಯ -0.6017
-3.1223 ಭಾಗದಲ್ಲಿ -0.6011
-3.1223 ವಿಶಿಷ್ಟ -0.6017
-3.1223 ಬಗೆಯ -0.6017
-3.1223 ಸಮಾಜವಾದ -0.6017
-3.1223 ಅಥವಾ -0.6017
-3.1223 ಕಮ್ಯೂನಿಸಂ -0.6017
-3.1223 ಕಂಡುಬಂತು -0.5680
-3.1223 ಮೇಲಾಗಿ -0.6017
-3.1223 ಇಂಗ್ಲೆಂಡಿಗೆ -0.6017
-3.1223 ಕೈಗಾರಿಕೆ -0.6007
-3.1223 ನೌಕಾಯಾನಗಳ -0.6017
-3.1223 ಯಶಸ್ಸಿನಿಂದ -0.6017
-3.1223 ಪ್ರಪಂಚದ -0.6017
-3.1223 ಮಾರುಕಟ್ಟೆಗಳಿಗೆ -0.6017
-3.1223 ಪ್ರವೇಶ -0.6017
-3.1223 ಲಭ್ಯವಿತ್ತು -0.5680
-3.1223 ಅವರಿಂದ -0.6017
-3.1223 ಶೋಷಣೆಗೆ -0.6011
-3.1223 ವಿರೋಧವೂ -0.6017
-3.1223 ಬರುವಂತಿರಲಿಲ್ಲ -0.5680
-3.1223 ಇವರಲ್ಲಿ -0.6017
-3.1223 ಬಹಳಷ್ಟು -0.6014
-2.8213 ಜನರಿಗೆ -0.6014
-3.1223 ಕನಿಷ್ಟ -0.6017
-3.1223 ಉಡಲು -0.6017
-3.1223 ಬಟ್ಟೆ -0.6017
-3.1223 ತಿನ್ನಲು -0.6017
-3.1223 ಆಹಾರವೂ -0.6017
-3.1223 ಸಿಗುತ್ತಿರಲಿಲ್ಲ -0.5680
-3.1223 ರೀತಿಯಾಗಿ -0.6014
-3.1223 ಸರಕಾರದಲ್ಲಿ -0.6011
-3.1223 ಅಸ್ತಿತ್ವ -0.6017
-3.1223 ಇರಲಿಲ್ಲ -0.5680
-3.1223 ಇಂಥ -0.6017
-3.1223 ಬುಡಕಟ್ಟುಗಳ -0.6017
-3.1223 ಸಂಸ್ಕೃತಿಯ -0.6017
-3.1223 ನಡುವೆಯೂ -0.6017
-3.1223 ಅನೇಕ -0.6017
-3.1223 ವ್ಯತ್ಯಾಸಗಳು -0.6017
-3.1223 ಗೋಚರಿಸುತ್ತವೆ -0.5680
-3.1223 ಇದು -0.6017
-3.1223 ಇತ್ತೀಚೆಗೆ -0.6017
-3.1223 ರಚಿತವಾದಂತೆ -0.6017
-3.1223 ಕಂಡು -0.6014
-2.8213 ಬರುತ್ತದೆ -0.5680
-3.1223 ಮಹಾರಾಷ್ಟ್ರದ -0.6017
-3.1223 ವಿದ್ವಾಂಸರು -0.5978
-3.1223 ಅಭಿಪ್ರಾಯವನ್ನು -0.6017
-3.1223 ಒಪ್ಪುತ್ತಾರೆ -0.5680
-3.1223 ಆತನ -0.6017
-3.1223 ಭಕ್ತದಲ್ಲಿ -0.6017
-3.1223 ಬೇರೂರಿರುವುದರಿಂದ -0.6017
-3.1223 ಶಿವನ -0.6017
-3.1223 ಪರಿವಾರವೆಲ್ಲ -0.6007
-2.5203 ಮೈಲಾರನ -0.6007
-3.1223 ಪರಿವಾರವಾಗಿ -0.6007
-3.1223 ದೇವಸ್ಥಾನಗಳಲ್ಲಿ -0.6017
-3.1223 ಎಡಪಡೆದು -0.6017
-3.1223 ಪೂಜೆಗೊಳ್ಳುತ್ತಿದೆ -0.5680
-3.1223 ಮೈಲಾರನೆಂಬ -0.6017
-3.1223 ದೇವತೆಯ -0.6017
-3.1223 ಒಟ್ಟು -0.6017
-3.1223 ಪರಿವಾರ -0.6017
-3.1223 ಹೀಗಿದೆ -0.5680
-3.1223 ಕುರುಬಿತಿ -0.6017
-3.1223 ಮಾಳಮ್ಮ -0.6017
-3.1223 ಪುರಾಣ -0.6007
-3.1223 ಎರಡನೆಯ -0.6017
-3.1223 ಪತ್ನಿ -0.6004
-3.1223 ಕಲ್ಪನೆ -0.6017
-3.1223 ಹೇಗೋ -0.6017
-3.1223 ಬೆಳೆದುಬಂದಿದೆ -0.5680
-3.1223 ನಸುಕು -0.6017
-3.1223 ಹರಿಯುವದರೊಳಗೆ -0.6017
-3.1223 ರಾವುತ -0.6017
-3.1223 ಮಾಳವ್ವರ -0.6017
-3.1223 ಮದುವೆಯಾಗಲಿಲ್ಲ -0.5680
-3.1223 ದೇವರ -0.6017
-3.1223 ಹಿಪ್ಪರಗಿಯ -0.6007
-3.1223 ದೇವಸ್ಥಾನ -0.6017
-3.1223 ಎದುರಿಗೆ -0.6017
-3.1223 ಹೆಗ್ಗಡೆ -0.6017
-3.1223 ಪ್ರಾಧಾನಿಯ -0.6017
-3.1223 ಗುಡಿ -0.6017
-3.1223 ಇದೆ -0.5680
-3.1223 ನಾಯಿಯನ್ನು -0.6017
-3.1223 ಮಲ್ಲಯ್ಯನೆಂದೇ -0.6017
-3.1223 ಉತ್ತರ -0.6017
-3.1223 ಕರ್ನಾಟಕದ -0.6017
-3.1223 ಕಡೆಗೆ -0.6017
-3.1223 ಸಂಭೋಧಿಸುತ್ತಾರೆ -0.5680
-3.1223 ಅನುಭಬ -0.6017
-3.1223 ಶಿಖಾಮಣಿಯ -0.6017
-3.1223 ಮೈಲಾರ -0.6017
-3.1223 ಲಿಂಗನ -0.6017
-3.1223 ಕಥೆಯಲ್ಲಿಯಂತೂ -0.6017
-3.1223 ನಾಯಿಗಳ -0.6017
-3.1223 ಉಲ್ಲೇಖ -0.6014
-2.8213 ಮತ್ತೆ -0.6007
-3.1223 ಐದು -0.6017
-3.1223 ಎತ್ತರದ -0.6017
-3.1223 ಗುಡ್ಡದಂತಿರುವ -0.6011
-3.1223 ದಿನ್ನೆಗಳುಂಟು -0.5680
-3.1223 ಕೆಲವರು -0.6017
-3.1223 ಭಕ್ತರು -0.6017
-3.1223 ಕೈಯಲ್ಲಿ -0.6017
-3.1223 ಪಂಜನ್ನು -0.6017
-3.1223 ಹಿಡಿದು -0.6017
-3.1223 ಕೊಂಡು -0.6017
-3.1223 ಸ್ವಾಮಿಯೊಡನೆ -0.6017
-3.1223 ಹೋಗುವರು -0.5680
-3.1223 ಅಮ್ಮನನ್ನು -0.6017
-3.1223 ಅಮ್ಮನ -0.6017
-3.1223 ಮರಡಿಯಲ್ಲಿ -0.6017
-3.1223 ಬಿಟ್ಟು -0.6017
-3.1223 ಅವಳೊಂದಿಗೆ -0.6017
-3.1223 ಬಂದಂತಹ -0.6017
-3.1223 ಭಕ್ತಾದಿಗಳು -0.6017
-3.1223 ಡೆಂಕನ -0.6017
-3.1223 ಮರಡಿಯ -0.6017
-3.1223 ಶಿಬಿರಕ್ಕೆ -0.6017
-3.1223 ಬರುತ್ತಾರೆ -0.5680
-3.1223 ಮರ್ತ್ಯಕ್ಕೆ -0.6017
-3.1223 ಮಬ್ಬುಗವಿಯಿತಲೇ -0.6017
-3.1223 ಪರಾಕು -0.6004
-3.1223 ಆಗಿದೆ -0.5680

\2-grams:
-2.1249 <s> ಗೊರಿಲ್ಲಾ 0.0000
-0.1249 ಗೊರಿಲ್ಲಾ ಬದಲಿಗೆ 0.0000
-0.1249 ಬದಲಿಗೆ ಬೇರೆ 0.0000
-0.1249 ಬೇರೆ ಜೀವಿಗಳ 0.0000
-0.1249 ಜೀವಿಗಳ ಬೇಟೆ 0.0000
-0.1249 ಬೇಟೆ ನಡೆಯುತ್ತದೆ 0.0000
-0.1249 ನಡೆಯುತ್ತದೆ </s> -0.6021
-2.1249 <s> ಮರುಭೂಮಿ 0.0000
-0.1249 ಮರುಭೂಮಿ ಸೃಷ್ಟಿ 0.0000
-0.1249 ಸೃಷ್ಟಿ ಎಂದರೆ -0.3979
-0.4260 ಎಂದರೆ ಅದು -0.3979
-0.4260 ಅದು ನಿಧಾನವಾಗಿ 0.0000
-0.1249 ನಿಧಾನವಾಗಿ ನಡೆಯುವ 0.0000
-0.1249 ನಡೆಯುವ ಕ್ರಿಯೆ 0.0000
-0.1249 ಕ್ರಿಯೆ </s> -0.6021
-2.1249 <s> ಮುಖ್ಯವಾಗಿ 0.0000
-0.1249 ಮುಖ್ಯವಾಗಿ ಕಡಿಮೆ 0.0000
-0.1249 ಕಡಿಮೆ ಮಳೆಬೀಳುವ 0.0000
-0.1249 ಮಳೆಬೀಳುವ ಒಣಭೂಮಿಯಲ್ಲಿ 0.0000
-0.1249 ಒಣಭೂಮಿಯಲ್ಲಿ ಅದು -0.3979
-0.4260 ಅದು ಆರಂಭವಾಗುತ್ತದೆ 0.0000
-0.1249 ಆರಂಭವಾಗುತ್ತದೆ </s> -0.6021
-2.1249 <s> ಹುಲ್ಲು 0.0000
-0.1249 ಹುಲ್ಲು ಬೆಳೆಯುವಂತೆ 0.0000
-0.1249 ಬೆಳೆಯುವಂತೆ ತೃಣಧಾನ್ಯದ 0.0000
-0.1249 ತೃಣಧಾನ್ಯದ ಬೀಜಗಳನ್ನು 0.0000
-0.1249 ಬೀಜಗಳನ್ನು ಬಿತ್ತನೆ 0.0000
-0.1249 ಬಿತ್ತನೆ ಮಾಡಬೇಕು 0.0000
-0.1249 ಮಾಡಬೇಕು </s> -0.6021
-1.8239 <s> ಅದರ -0.3010
-0.6021 ಅದರ ಬದಲು 0.0000
-0.1249 ಬದಲು ಕುರಿ 0.0000
-0.1249 ಕುರಿ ಸಾಕರಣೆಯೇ 0.0000
-0.1249 ಸಾಕರಣೆಯೇ ಮೇಲು 0.0000
-0.1249 ಮೇಲು ಏಕೆಂದರೆ -0.4771
-0.6021 ಏಕೆಂದರೆ ಅವು 0.0000
-0.1249 ಅವು ಸಸ್ಯಗಳ 0.0000
-0.1249 ಸಸ್ಯಗಳ ಚಿಗುರುಗಳನ್ನು 0.0000
-0.1249 ಚಿಗುರುಗಳನ್ನು ತಿನ್ನುವುದಿಲ್ಲ 0.0000
-0.1249 ತಿನ್ನುವುದಿಲ್ಲ </s> -0.6021
-2.1249 <s> ವಾಹನ 0.0000
-0.1249 ವಾಹನ ಬದಿಗೆ 0.0000
-0.1249 ಬದಿಗೆ ನಿಲ್ಲಿಸಿ 0.0000
-0.1249 ನಿಲ್ಲಿಸಿ ಅವನ 0.0000
-0.1249 ಅವನ ಕೈಗಾಡಿಯತ್ತ 0.0000
-0.1249 ಕೈಗಾಡಿಯತ್ತ ಸಾಗಿದೆ 0.0000
-0.1249 ಸಾಗಿದೆ </s> -0.6021
-2.1249 <s> ಇದೆಲ್ಲ 0.0000
-0.1249 ಇದೆಲ್ಲ ಏಕಮ್ಮಾ 0.0000
-0.1249 ಏಕಮ್ಮಾ ಇದಕ್ಕೆ 0.0000
-0.1249 ಇದಕ್ಕೆ ಯಾವ -0.4771
-0.6021 ಯಾವ ಅರ್ಥವೂ 0.0000
-0.1249 ಅರ್ಥವೂ ಇಲ್ಲ 0.0000
-0.1249 ಇಲ್ಲ </s> -0.6021
-2.1249 <s> ನಾನೀ 0.0000
-0.1249 ನಾನೀ ಹಳೇ 0.0000
-0.1249 ಹಳೇ ಸಂಪ್ರದಾಯಗಳನ್ನು 0.0000
-0.1249 ಸಂಪ್ರದಾಯಗಳನ್ನು ಅನುಸರಿಸೋದಿಕ್ಕೆ 0.0000
-0.1249 ಅನುಸರಿಸೋದಿಕ್ಕೆ ಇಷ್ಟಪಡೋಲ್ಲ 0.0000
-0.1249 ಇಷ್ಟಪಡೋಲ್ಲ ಎಂದು -0.5315
-0.8239 ಎಂದು ಕಡ್ಡಿ 0.0000
-0.1249 ಕಡ್ಡಿ ಮುರಿದ 0.0000
-0.1249 ಮುರಿದ ಹಾಗೆ 0.0000
-0.1249 ಹಾಗೆ ಹೇಳಿದ್ದಾನೆ 0.0000
-0.1249 ಹೇಳಿದ್ದಾನೆ </s> -0.6021
-2.1249 <s> ಹಿರಿಯರು 0.0000
-0.1249 ಹಿರಿಯರು ಸಹನೆ 0.0000
-0.1249 ಸಹನೆ ಕಳೆದುಕೊಳ್ಳದೇ 0.0000
-0.1249 ಕಳೆದುಕೊಳ್ಳದೇ ಹಳೆಯದೆಲ್ಲ 0.0000
-0.1249 ಹಳೆಯದೆಲ್ಲ ತ್ಯಾಜ್ಯವಲ್ಲ 0.0000
-0.1249 ತ್ಯಾಜ್ಯವಲ್ಲ </s> -0.6021
-2.1249 <s> ನೀನು 0.0000
-0.1249 ನೀನು ಚೆನ್ನಾಗಿ 0.0000
-0.1249 ಚೆನ್ನಾಗಿ ಓದಿ 0.0000
-0.1249 ಓದಿ ಇಂಜಿನೀಯರ್ 0.0000
-0.1249 ಇಂಜಿನೀಯರ್ ಆಗು 0.0000
-0.1249 ಆಗು ಡಾಕ್ಟರಾಗು 0.0000
-0.1249 ಡಾಕ್ಟರಾಗು ಎಂದು -0.5315
-0.8239 ಎಂದು ಹೇಳುವವರೇ 0.0000
-0.1249 ಹೇಳುವವರೇ ಹೆಚ್ಚು -0.3979
-0.4260 ಹೆಚ್ಚು </s> -0.6021
-2.1249 <s> ಇದರ 0.0000
-0.1249 ಇದರ ಎಣ್ಣೆಯಿಂದ 0.0000
-0.1249 ಎಣ್ಣೆಯಿಂದ ಜೈವಿಕ 0.0000
-0.1249 ಜೈವಿಕ ಡೀಸೆಲ್ 0.0000
-0.1249 ಡೀಸೆಲ್ ಉತ್ಪಾದಿಸಲಾಗುತ್ತಿದ್ದು 0.0000
-0.1249 ಉತ್ಪಾದಿಸಲಾಗುತ್ತಿದ್ದು ಇದನ್ನು -0.3979
-0.4260 ಇದನ್ನು ಹೆಂಪೋಲೈನ್ 0.0000
-0.1249 ಹೆಂಪೋಲೈನ್ ಎಂಬ -0.5315
-0.8239 ಎಂಬ ಹೆಸರಿನಲ್ಲಿ 0.0000
-0.1249 ಹೆಸರಿನಲ್ಲಿ ಗುರುತಿಸಲಾಗುತ್ತಿದೆ 0.0000
-0.1249 ಗುರುತಿಸಲಾಗುತ್ತಿದೆ </s> -0.6021
-2.1249 <s> ಪುಂಡಿ 0.0000
-0.1249 ಪುಂಡಿ ದಂಟನ್ನು 0.0000
-0.1249 ದಂಟನ್ನು ಉರುವಲಿನ 0.0000
-0.1249 ಉರುವಲಿನ ಇಂಧನವಾಗಿ 0.0000
-0.1249 ಇಂಧನವಾಗಿ ಅಲ್ಲದೇ 0.0000
-0.1249 ಅಲ್ಲದೇ ಕಾಗದ 0.0000
-0.1249 ಕಾಗದ ತಯಾರಿಕಾ 0.0000
-0.1249 ತಯಾರಿಕಾ ಕಾರ್ಖಾನೆಯಲ್ಲೂ 0.0000
-0.1249 ಕಾರ್ಖಾನೆಯಲ್ಲೂ ಸಹ 0.0000
-0.1249 ಸಹ ಬಳಸುತ್ತಾರೆ 0.0000
-0.1249 ಬಳಸುತ್ತಾರೆ </s> -0.6021
-2.1249 <s> ಕಣ್ಣು 0.0000
-0.1249 ಕಣ್ಣು ಮತ್ತು -0.5528
-0.9700 ಮತ್ತು ಕಿವಿ 0.0000
-0.1249 ಕಿವಿ ತಜ್ಞ 0.0000
-0.1249 ತಜ್ಞ ವೈದ್ಯರನ್ನು 0.0000
-0.1249 ವೈದ್ಯರನ್ನು ಕಾಣಬೇಕು 0.0000
-0.1249 ಕಾಣಬೇಕು </s> -0.6021
-2.1249 <s> ಅಜ್ಜನ 0.0000
-0.1249 ಅಜ್ಜನ ಮನೆಯ -0.3979
-0.4260 ಮನೆಯ ಹಿಂಬದಿಗೆ 0.0000
-0.1249 ಹಿಂಬದಿಗೆ ಗೇರುಹಣ್ಣಿನ 0.0000
-0.1249 ಗೇರುಹಣ್ಣಿನ ಮರಗಳಿದ್ದ 0.0000
-0.1249 ಮರಗಳಿದ್ದ ದೊಡ್ಡ -0.4771
-0.6021 ದೊಡ್ಡ ಹಾಡಿ 0.0000
-0.1249 ಹಾಡಿ ಇತ್ತು 0.0000
-0.1249 ಇತ್ತು </s> -0.6021
-2.1249 <s> ಆಗ 0.0000
-0.1249 ಆಗ ಗೋಡಂಬಿಯ 0.0000
-0.1249 ಗೋಡಂಬಿಯ ಹಣ್ಣುಗಳು 0.0000
-0.1249 ಹಣ್ಣುಗಳು ಉದುರಿ 0.0000
-0.1249 ಉದುರಿ ನೆಲದ 0.0000
-0.1249 ನೆಲದ ಮೇಲೆ 0.0000
-0.1249 ಮೇಲೆ ಬೀಳುತ್ತಿದ್ದುವು 0.0000
-0.1249 ಬೀಳುತ್ತಿದ್ದುವು </s> -0.6021
-2.1249 <s> ಬೇಸಿಗೆಯ 0.0000
-0.1249 ಬೇಸಿಗೆಯ ಸಮಯ 0.0000
-0.1249 ಸಮಯ ಮನೆಯ -0.3979
-0.4260 ಮನೆಯ ಎದುರು 0.0000
-0.1249 ಎದುರು ವಿಶಾಲವಾದ 0.0000
-0.1249 ವಿಶಾಲವಾದ ಚಪ್ಪರಹಾಕಿ 0.0000
-0.1249 ಚಪ್ಪರಹಾಕಿ ಅದಕ್ಕೆ -0.3979
-0.4260 ಅದಕ್ಕೆ ತೆಂಗಿನ 0.0000
-0.1249 ತೆಂಗಿನ ಮಡಲು 0.0000
-0.1249 ಮಡಲು ಹೊಚ್ಚುತ್ತಾ 0.0000
-0.1249 ಹೊಚ್ಚುತ್ತಾ ಇದ್ದರು 0.0000
-0.1249 ಇದ್ದರು </s> -0.6021
-2.1249 <s> ಇವುಗಳ 0.0000
-0.1249 ಇವುಗಳ ಬಗ್ಗೆಯೇ 0.0000
-0.1249 ಬಗ್ಗೆಯೇ ಮುಂದಿನ 0.0000
-0.1249 ಮುಂದಿನ ವರ್ಷದವರೆಗೂ 0.0000
-0.1249 ವರ್ಷದವರೆಗೂ ನಮ್ಮ 0.0000
-0.1249 ನಮ್ಮ ಹಳ್ಳಿಯ 0.0000
-0.1249 ಹಳ್ಳಿಯ ಜನರು -0.3979
-0.4260 ಜನರು ಮಾತನಾಡುತ್ತಿದ್ದರು 0.0000
-0.1249 ಮಾತನಾಡುತ್ತಿದ್ದರು </s> -0.6021
-1.8239 <s> ಏಕೆಂದರೆ -0.3010
-0.6021 ಏಕೆಂದರೆ ಜಾತಿವಾದಿ 0.0000
-0.1249 ಜಾತಿವಾದಿ ಮತ್ತು -0.5528
-0.9700 ಮತ್ತು ಕೋಮುವಾದಿ 0.0000
-0.1249 ಕೋಮುವಾದಿ ಶಕ್ತಿಗಳು 0.0000
-0.1249 ಶಕ್ತಿಗಳು ಒಂದಾಗಿ 0.0000
-0.1249 ಒಂದಾಗಿ ತಮ್ಮ -0.4771
-0.6021 ತಮ್ಮ ಆಧಿಪತ್ಯವನ್ನು 0.0000
-0.1249 ಆಧಿಪತ್ಯವನ್ನು ಈ -0.5763
-1.2389 ಈ ರಾಷ್ಟ್ರದಲ್ಲಿ 0.0000
-0.1249 ರಾಷ್ಟ್ರದಲ್ಲಿ ಸ್ಥಾಪಿಸಿಕೊಳ್ಳುತ್ತಿವೆ 0.0000
-0.1249 ಸ್ಥಾಪಿಸಿಕೊಳ್ಳುತ್ತಿವೆ </s> -0.6021
-2.1249 <s> ಒಂದು -0.4771
-0.6021 ಒಂದು ರೀತಿಯ -0.3979
-0.4260 ರೀತಿಯ ಬೆಳಗಾವಿ 0.0000
-0.1249 ಬೆಳಗಾವಿ ಜಿಲ್ಲೆಯ 0.0000
-0.1249 ಜಿಲ್ಲೆಯ ವೀರಶೈವಮಠಗಳಿಗೆ 0.0000
-0.1249 ವೀರಶೈವಮಠಗಳಿಗೆ ಪರಂಪರೆಯ 0.0000
-0.1249 ಪರಂಪರೆಯ ಮೂಲ -0.3979
-0.4260 ಮೂಲ ಅರ್ಜುನವಾಡ 0.0000
-0.1249 ಅರ್ಜುನವಾಡ ಹುಕ್ಕೇರಿ 0.0000
-0.1249 ಹುಕ್ಕೇರಿ </s> -0.6021
-2.1249 <s> ಕವಿಳಾಸಪುರ 0.0000
-0.1249 ಕವಿಳಾಸಪುರ ಈಗ -0.3979
-0.4260 ಈಗ ಹಾಳಾಗಿದ್ದು 0.0000
-0.1249 ಹಾಳಾಗಿದ್ದು ಪ್ರಸ್ತುತ 0.0000
-0.1249 ಪ್ರಸ್ತುತ ಅರ್ಜುನವಾಡಿ 0.0000
-0.1249 ಅರ್ಜುನವಾಡಿ ಗ್ರಾಮದ 0.0000
-0.1249 ಗ್ರಾಮದ ಸೀಮೆಯಲ್ಲಿದೆ 0.0000
-0.1249 ಸೀಮೆಯಲ್ಲಿದೆ </s> -0.6021
-2.1249 <s> ಪ್ರಾಣಿ 0.0000
-0.1249 ಪ್ರಾಣಿ ಹಿಂಸೆಯನ್ನು 0.0000
-0.1249 ಹಿಂಸೆಯನ್ನು ವಿರೋಧಿಸುತ್ತಿದ್ದ 0.0000
-0.1249 ವಿರೋಧಿಸುತ್ತಿದ್ದ ತಿಪ್ಪಯ್ಯ 0.0000
-0.1249 ತಿಪ್ಪಯ್ಯ ಮೂಢನಂಬಿಕೆ 0.0000
-0.1249 ಮೂಢನಂಬಿಕೆ ಕಂದಾಚಾರಗಳನ್ನು 0.0000
-0.1249 ಕಂದಾಚಾರಗಳನ್ನು ಲೆಕ್ಕಿಸುತ್ತಿರಲಿಲ್ಲ 0.0000
-0.1249 ಲೆಕ್ಕಿಸುತ್ತಿರಲಿಲ್ಲ </s> -0.6021
-2.1249 <s> ದೊರೆ 0.0000
-0.1249 ದೊರೆ ಪರಿವಾರದವರು 0.0000
-0.1249 ಪರಿವಾರದವರು ಮನೆದೇವರಾದ 0.0000
-0.1249 ಮನೆದೇವರಾದ ಶ್ರೀಶೈಲ 0.0000
-0.1249 ಶ್ರೀಶೈಲ ಮಲ್ಲಿಕಾರ್ಜುನನನ್ನು 0.0000
-0.1249 ಮಲ್ಲಿಕಾರ್ಜುನನನ್ನು ಪೂಜಿಸಿದರು 0.0000
-0.1249 ಪೂಜಿಸಿದರು </s> -0.6021
-2.1249 <s> ಎಲ್ಲಾ 0.0000
-0.1249 ಎಲ್ಲಾ ಜಾತಿ 0.0000
-0.1249 ಜಾತಿ ಧರ್ಮೀಯರು 0.0000
-0.1249 ಧರ್ಮೀಯರು ಮುಕ್ತವಾಗಿ 0.0000
-0.1249 ಮುಕ್ತವಾಗಿ ಪ್ರವೇಶಿಸುತ್ತಿದ್ದು 0.0000
-0.1249 ಪ್ರವೇಶಿಸುತ್ತಿದ್ದು ಮಾಂಸಹಾರವನ್ನು 0.0000
-0.1249 ಮಾಂಸಹಾರವನ್ನು ಈ -0.5763
-1.2389 ಈ ದೇವಾಲಯದ 0.0000
-0.1249 ದೇವಾಲಯದ ಹೊರಗೆ 0.0000
-0.1249 ಹೊರಗೆ ಮಾಡುತ್ತಾರೆ 0.0000
-0.1249 ಮಾಡುತ್ತಾರೆ </s> -0.6021
-2.1249 <s> ತೇರನ್ನು 0.0000
-0.1249 ತೇರನ್ನು ಎಳೆಯುವ 0.0000
-0.1249 ಎಳೆಯುವ ಮುನ್ನ 0.0000
-0.1249 ಮುನ್ನ ಅಂಜನೇಯನ 0.0000
-0.1249 ಅಂಜನೇಯನ ಪೂಜೆ 0.0000
-0.1249 ಪೂಜೆ ಮಾಡುವರು 0.0000
-0.1249 ಮಾಡುವರು </s> -0.6021
-1.4260 <s> ಈ -0.4543
-1.2389 ಈ ಹಿರೇಹಳ್ಳಿಯಲ್ಲಿ 0.0000
-0.1249 ಹಿರೇಹಳ್ಳಿಯಲ್ಲಿ ಸೂರಿನಂದನ 0.0000
-0.1249 ಸೂರಿನಂದನ ಅಲಗನ್ನು 0.0000
-0.1249 ಅಲಗನ್ನು ಪ್ರತಿಷ್ಠಾಪಿಸಿ 0.0000
-0.1249 ಪ್ರತಿಷ್ಠಾಪಿಸಿ ದಡ್ಡಿ 0.0000
-0.1249 ದಡ್ಡಿ ಸೂರನಾಕ 0.0000
-0.1249 ಸೂರನಾಕ ದೇವರೆಂದು 0.0000
-0.1249 ದೇವರೆಂದು ಕರೆದುಕೊಂಡರು 0.0000
-0.1249 ಕರೆದುಕೊಂಡರು </s> -0.6021
-1.3468 <s> ಇಲ್ಲಿ 0.0000
-0.9031 ಇಲ್ಲಿ ಮ್ಯಾಸನಾಯಕ 0.0000
-0.1249 ಮ್ಯಾಸನಾಯಕ ಕುಲದೇವತೆ 0.0000
-0.1249 ಕುಲದೇವತೆ ಕಾಟಮ್ಮ 0.0000
-0.1249 ಕಾಟಮ್ಮ ನೆಲೆಸಿರುವಳು 0.0000
-0.1249 ನೆಲೆಸಿರುವಳು </s> -0.6021
-2.1249 <s> ಚಳ್ಳಕೆರೆ 0.0000
-0.1249 ಚಳ್ಳಕೆರೆ ತಾಲೂಕಿನಲ್ಲಿ 0.0000
-0.1249 ತಾಲೂಕಿನಲ್ಲಿ ಕಾಲುವೆಹಳ್ಳಿ 0.0000
-0.1249 ಕಾಲುವೆಹಳ್ಳಿ ಎಂಬ -0.5315
-0.8239 ಎಂಬ ಗ್ರಾಮವಿದೆ 0.0000
-0.1249 ಗ್ರಾಮವಿದೆ </s> -0.6021
-2.1249 <s> ನಾಯಕನಹಟ್ಟಿ 0.0000
-0.1249 ನಾಯಕನಹಟ್ಟಿ ಪಾಳೆಯಗಾರ 0.0000
-0.1249 ಪಾಳೆಯಗಾರ ಬೋಡಿಮಲ್ಲಪ್ಪನಾಯಕ 0.0000
-0.1249 ಬೋಡಿಮಲ್ಲಪ್ಪನಾಯಕ ಈ -0.5763
-1.2389 ಈ ಗ್ರಾಮವನ್ನು 0.0000
-0.1249 ಗ್ರಾಮವನ್ನು ಸ್ಥಾಪಿಸಿದನು 0.0000
-0.1249 ಸ್ಥಾಪಿಸಿದನು </s> -0.6021
-2.1249 <s> ಯರಮಂಚಿನಾಯಕ 0.0000
-0.1249 ಯರಮಂಚಿನಾಯಕ ತನ್ನ -0.4771
-0.6021 ತನ್ನ ಜನಾಂಗದ 0.0000
-0.1249 ಜನಾಂಗದ ಅಭಿವೃದ್ಧಿ 0.0000
-0.1249 ಅಭಿವೃದ್ಧಿ ಆಗಬೇಕಾದರೆ 0.0000
-0.1249 ಆಗಬೇಕಾದರೆ ಎಲ್ಲರೂ 0.0000
-0.1249 ಎಲ್ಲರೂ ಐಕ್ಯತೆಯಿಂದ 0.0000
-0.1249 ಐಕ್ಯತೆಯಿಂದ ಇರಬೇಕು 0.0000
-0.1249 ಇರಬೇಕು ಎನ್ನುತ್ತಾರೆ 0.0000
-0.1249 ಎನ್ನುತ್ತಾರೆ </s> -0.6021
-0.9031 ಇಲ್ಲಿ ತಮ್ಮ -0.4771
-0.6021 ತಮ್ಮ ಸಂಪ್ರದಾಯಗಳ 0.0000
-0.1249 ಸಂಪ್ರದಾಯಗಳ ವಿರುದ್ಧವೇ 0.0000
-0.1249 ವಿರುದ್ಧವೇ ಮತ್ತೊಬ್ಬರು 0.0000
-0.1249 ಮತ್ತೊಬ್ಬರು ಲೋಪ 0.0000
-0.1249 ಲೋಪ ಮಾಡುವುದುಂಟು 0.0000
-0.1249 ಮಾಡುವುದುಂಟು </s> -0.6021
-2.1249 <s> ಕೊಡಗುಬೊಮ್ಮನಿಂದಲೇ 0.0000
-0.1249 ಕೊಡಗುಬೊಮ್ಮನಿಂದಲೇ ತಂಗಿ 0.0000
-0.1249 ತಂಗಿ ದೇವಮ್ಮ 0.0000
-0.1249 ದೇವಮ್ಮ ದುರಂತ 0.0000
-0.1249 ದುರಂತ ಸಾವನ್ನಪ್ಪುತ್ತಾಳೆ 0.0000
-0.1249 ಸಾವನ್ನಪ್ಪುತ್ತಾಳೆ </s> -0.6021
-2.1249 <s> ಜಾಗತಿಕ 0.0000
-0.1249 ಜಾಗತಿಕ ಯುದ್ಧ -0.3979
-0.4260 ಯುದ್ಧ ಅದಕ್ಕೊಂದು 0.0000
-0.1249 ಅದಕ್ಕೊಂದು ವೇದಿಕೆಯಾಗಿ 0.0000
-0.1249 ವೇದಿಕೆಯಾಗಿ ದೊರೆಯಿತು 0.0000
-0.1249 ದೊರೆಯಿತು </s> -0.6021
-2.1249 <s> ಅಟ್ಟೋಮನ್ 0.0000
-0.1249 ಅಟ್ಟೋಮನ್ ಸಾಮ್ರಾಜ್ಯದ 0.0000
-0.1249 ಸಾಮ್ರಾಜ್ಯದ ಅಧೀನದಿಂದ 0.0000
-0.1249 ಅಧೀನದಿಂದ ಸ್ವತಂತ್ರನಾಗುವ 0.0000
-0.1249 ಸ್ವತಂತ್ರನಾಗುವ ಹೆಬ್ಬಯಕೆಯನ್ನು 0.0000
-0.1249 ಹೆಬ್ಬಯಕೆಯನ್ನು ವ್ಯಕ್ತಪಡಿಸುವುದರಿಂದ 0.0000
-0.1249 ವ್ಯಕ್ತಪಡಿಸುವುದರಿಂದ ಬ್ರಿಟಿಷರು -0.3979
-0.4260 ಬ್ರಿಟಿಷರು ಅವನೊಂದಿಗೆ 0.0000
-0.1249 ಅವನೊಂದಿಗೆ ರಾಜತಾಂತ್ರಿಕ 0.0000
-0.1249 ರಾಜತಾಂತ್ರಿಕ ಮಾರ್ಗವನ್ನು 0.0000
-0.1249 ಮಾರ್ಗವನ್ನು ಪಾಲಿಸುತ್ತಾರೆ 0.0000
-0.1249 ಪಾಲಿಸುತ್ತಾರೆ </s> -0.6021
-2.1249 <s> ಒಪ್ಪಂದದ 0.0000
-0.1249 ಒಪ್ಪಂದದ ಪ್ರಕಾರ 0.0000
-0.1249 ಪ್ರಕಾರ ಸೌದಿ -0.5315
-0.8239 ಸೌದಿ ಅರಸನ 0.0000
-0.1249 ಅರಸನ ಅಸ್ತಿತ್ವವನ್ನು 0.0000
-0.1249 ಅಸ್ತಿತ್ವವನ್ನು ಬ್ರಿಟಿಷರು -0.3979
-0.4260 ಬ್ರಿಟಿಷರು ಗೌರವಿಸಿದರು 0.0000
-0.1249 ಗೌರವಿಸಿದರು </s> -0.6021
-2.1249 <s> ಅದಕ್ಕೆ -0.3979
-0.4260 ಅದಕ್ಕೆ ಗೌರವವೂ 0.0000
-0.1249 ಗೌರವವೂ ಕೂಡ 0.0000
-0.1249 ಕೂಡ ಅಂತಾರಾಷ್ಟ್ರೀಯವಾಗಿ 0.0000
-0.1249 ಅಂತಾರಾಷ್ಟ್ರೀಯವಾಗಿ ಬ್ರಿಟಿಷರ 0.0000
-0.1249 ಬ್ರಿಟಿಷರ ಮೂಲಕ -0.4771
-0.6021 ಮೂಲಕ ದೊರೆಯಿತು 0.0000
-2.1249 <s> ಹಷಿಮೈಟ್ಗಳ 0.0000
-0.1249 ಹಷಿಮೈಟ್ಗಳ ವಿರುದ್ಧ -0.3979
-0.4260 ವಿರುದ್ಧ ಸಾಧಿಸಿದ 0.0000
-0.1249 ಸಾಧಿಸಿದ ಜಯದೊಂದಿಗೆ 0.0000
-0.1249 ಜಯದೊಂದಿಗೆ ಎರಡು -0.3979
-0.4260 ಎರಡು ಮುಖ್ಯ -0.3979
-0.4260 ಮುಖ್ಯ ಗುರಿಗಳನ್ನು 0.0000
-0.1249 ಗುರಿಗಳನ್ನು ರೂಪಿಸಿಕೊಂಡ 0.0000
-0.1249 ರೂಪಿಸಿಕೊಂಡ </s> -0.6021
-0.9031 ಇಲ್ಲಿ ನಾಲ್ಕು 0.0000
-0.1249 ನಾಲ್ಕು ಉದ್ದೇಶಗಳನ್ನು 0.0000
-0.1249 ಉದ್ದೇಶಗಳನ್ನು ಅವನು -0.3979
-0.4260 ಅವನು ಹೊಂದಿದ್ದನು 0.0000
-0.1249 ಹೊಂದಿದ್ದನು </s> -0.6021
-2.1249 <s> ಯುರೋಪಿನ -0.3979
-0.4260 ಯುರೋಪಿನ ವಸಾಹತುಶಾಹಿ -0.3979
-0.4260 ವಸಾಹತುಶಾಹಿ ರಾಷ್ಟ್ರಗಳಿಂದ 0.0000
-0.1249 ರಾಷ್ಟ್ರಗಳಿಂದ ತನ್ನ -0.4771
-0.6021 ತನ್ನ ಇರುವಿಕೆಯನ್ನು 0.0000
-0.1249 ಇರುವಿಕೆಯನ್ನು ಗುರುತಿಸಿಕೊಂಡು 0.0000
-0.1249 ಗುರುತಿಸಿಕೊಂಡು ಗೌರವಿಸಿಕೊಳ್ಳುವುದು 0.0000
-0.1249 ಗೌರವಿಸಿಕೊಳ್ಳುವುದು </s> -0.6021
-2.1249 <s> ಅವನು -0.3979
-0.4260 ಅವನು ಇಡೀ 0.0000
-0.1249 ಇಡೀ ಅರಬ್ -0.5315
-0.8239 ಅರಬ್ ಜಗತ್ತಿನಲ್ಲಿ 0.0000
-0.1249 ಜಗತ್ತಿನಲ್ಲಿ ತಾನೆಯ 0.0000
-0.1249 ತಾನೆಯ ಸಾರ್ವ 0.0000
-0.1249 ಸಾರ್ವ ಭೌಮಸ್ಥಳೀಯ 0.0000
-0.1249 ಭೌಮಸ್ಥಳೀಯ ರಾಜಕೀಯದಲ್ಲಿ 0.0000
-0.1249 ರಾಜಕೀಯದಲ್ಲಿ ಮಹಾನ್ 0.0000
-0.1249 ಮಹಾನ್ ಶಕ್ತಿ 0.0000
-0.1249 ಶಕ್ತಿ ಎಂದು -0.5315
-0.8239 ಎಂದು ಗುರುತಿಸಿಕೊಳ್ಳಬೇಕಾಗಿದೆ 0.0000
-0.1249 ಗುರುತಿಸಿಕೊಳ್ಳಬೇಕಾಗಿದೆ </s> -0.6021
-1.2389 ಈ ದೃಷ್ಟಿಯಿಂದ 0.0000
-0.1249 ದೃಷ್ಟಿಯಿಂದ ಫ್ರೆಂಚ್ 0.0000
-0.1249 ಫ್ರೆಂಚ್ ಮತ್ತು -0.5528
-0.9700 ಮತ್ತು ಬ್ರಿಟಿಷರನ್ನು 0.0000
-0.1249 ಬ್ರಿಟಿಷರನ್ನು ಹೆಚ್ಚು -0.3979
-0.4260 ಹೆಚ್ಚು ಹತ್ತಿರ 0.0000
-0.1249 ಹತ್ತಿರ ಸೇರಿಸಿಕೊಳ್ಳುವುದು 0.0000
-0.1249 ಸೇರಿಸಿಕೊಳ್ಳುವುದು ತಪ್ಪಾಗುತ್ತದೆ 0.0000
-0.1249 ತಪ್ಪಾಗುತ್ತದೆ </s> -0.6021
-0.6021 ಏಕೆಂದರೆ ಈ -0.5763
-1.2389 ಈ ಎರಡು -0.3979
-0.4260 ಎರಡು ವಸಾಹತುಶಾಹಿ -0.3979
-0.4260 ವಸಾಹತುಶಾಹಿ ರಾಷ್ಟ್ರಗಳ -0.3979
-0.4260 ರಾಷ್ಟ್ರಗಳ ವಿರುದ್ಧ -0.3979
-0.4260 ವಿರುದ್ಧ ಅರಬರು 0.0000
-0.1249 ಅರಬರು ಸಾರ್ವತ್ರಿಕವಾಗಿ 0.0000
-0.1249 ಸಾರ್ವತ್ರಿಕವಾಗಿ ರಾಷ್ಟ್ರೀಯ 0.0000
-0.1249 ರಾಷ್ಟ್ರೀಯ ಅಂದೋಲನವನ್ನೇ 0.0000
-0.1249 ಅಂದೋಲನವನ್ನೇ ಅರಂಭಿಸಿದ್ದಾರೆ 0.0000
-0.1249 ಅರಂಭಿಸಿದ್ದಾರೆ </s> -0.6021
-2.1249 <s> ಸಮಾಜವಾದಿ 0.0000
-0.1249 ಸಮಾಜವಾದಿ ಅರಬ್ -0.5315
-0.8239 ಅರಬ್ ರಾಜ್ಯಗಳು 0.0000
-0.1249 ರಾಜ್ಯಗಳು ಸೌದಿ -0.5315
-0.8239 ಸೌದಿ ಸಾಮ್ರಾಜ್ಯದಲ್ಲಿ 0.0000
-0.1249 ಸಾಮ್ರಾಜ್ಯದಲ್ಲಿ ಮುಂದುವರಿದಿರುವ 0.0000
-0.1249 ಮುಂದುವರಿದಿರುವ ಅರಸೊತ್ತಿಗೆಗೆ 0.0000
-0.1249 ಅರಸೊತ್ತಿಗೆಗೆ ಸಮಾನ 0.0000
-0.1249 ಸಮಾನ ಶಕ್ತಿಯಾಗಿ 0.0000
-0.1249 ಶಕ್ತಿಯಾಗಿ ಸ್ಪರ್ಧೆಗಿಳಿದವು 0.0000
-0.1249 ಸ್ಪರ್ಧೆಗಿಳಿದವು </s> -0.6021
-2.1249 <s> ಪ್ರಾದೇಶಿಕವಾಗಿ 0.0000
-0.1249 ಪ್ರಾದೇಶಿಕವಾಗಿ ತೈಲ -0.3979
-0.4260 ತೈಲ ಸಂಪನ್ಮೂಲದಿಂದ 0.0000
-0.1249 ಸಂಪನ್ಮೂಲದಿಂದ ಆದಾಯವನ್ನು 0.0000
-0.1249 ಆದಾಯವನ್ನು ವೃದ್ದಿಸಿಕೊಳ್ಳಲು 0.0000
-0.1249 ವೃದ್ದಿಸಿಕೊಳ್ಳಲು ಅಮೆರಿಕದಂತಹ 0.0000
-0.1249 ಅಮೆರಿಕದಂತಹ ರಾಷ್ಟ್ರಗಳ -0.3979
-0.4260 ರಾಷ್ಟ್ರಗಳ ತೈಲ -0.3979
-0.4260 ತೈಲ ಕಂಪೆನಿಗಳೊಂದಿಗೆ 0.0000
-0.1249 ಕಂಪೆನಿಗಳೊಂದಿಗೆ ಒಡಂಬಡಿಕೆ 0.0000
-0.1249 ಒಡಂಬಡಿಕೆ ಮಾಡಿಕೊಂಡಿತ್ತು 0.0000
-0.1249 ಮಾಡಿಕೊಂಡಿತ್ತು </s> -0.6021
-2.1249 <s> ಇದರಿಂದ 0.0000
-0.1249 ಇದರಿಂದ ಸೌದಿ -0.5315
-0.8239 ಸೌದಿ ಖಜನೆಗೆ 0.0000
-0.1249 ಖಜನೆಗೆ ನಿರಂತರ 0.0000
-0.1249 ನಿರಂತರ ವಾಗಿ 0.0000
-0.1249 ವಾಗಿ ಸಂಪತ್ತು 0.0000
-0.1249 ಸಂಪತ್ತು ಹರಿದು 0.0000
-0.1249 ಹರಿದು ಬರುವಂತಾಯಿತು 0.0000
-0.1249 ಬರುವಂತಾಯಿತು </s> -0.6021
-2.1249 <s> ಇನ್ನೊಂದು 0.0000
-0.1249 ಇನ್ನೊಂದು ಪೂರ್ಣಪ್ರಮಾಣದ 0.0000
-0.1249 ಪೂರ್ಣಪ್ರಮಾಣದ ಅರಬ್ಇಸ್ರೇಲಿ 0.0000
-0.1249 ಅರಬ್ಇಸ್ರೇಲಿ ಯುದ್ಧ -0.3979
-0.4260 ಯುದ್ಧ ಆರಂಭವಾಗುವುದನ್ನು 0.0000
-0.1249 ಆರಂಭವಾಗುವುದನ್ನು ತಡೆಯುವುದು 0.0000
-0.1249 ತಡೆಯುವುದು </s> -0.6021
-2.1249 <s> ಇಂತಹ -0.3979
-0.4260 ಇಂತಹ ಪ್ರಮಾದ 0.0000
-0.1249 ಪ್ರಮಾದ ಲಿಬಿಯಾದಿಂದ 0.0000
-0.1249 ಲಿಬಿಯಾದಿಂದ ಆಗುವ 0.0000
-0.1249 ಆಗುವ ಎಲ್ಲ -0.4771
-0.6021 ಎಲ್ಲ ಲಕ್ಷಣಗಳಿದ್ದವು 0.0000
-0.1249 ಲಕ್ಷಣಗಳಿದ್ದವು </s> -0.6021
-2.1249 <s> ಪ್ಯಾಲೇಸ್ತೀನಿ 0.0000
-0.1249 ಪ್ಯಾಲೇಸ್ತೀನಿ ಅರಬ್ರ 0.0000
-0.1249 ಅರಬ್ರ ಜನ್ಮಸಿದ್ಧ 0.0000
-0.1249 ಜನ್ಮಸಿದ್ಧ ಹಕ್ಕನ್ನು 0.0000
-0.1249 ಹಕ್ಕನ್ನು ರಕ್ಷಿಸುವುದು 0.0000
-0.1249 ರಕ್ಷಿಸುವುದು </s> -0.6021
-2.1249 <s> ಪೂರ್ವ 0.0000
-0.1249 ಪೂರ್ವ ಜೆರುಸಲೇಂನಲ್ಲಿ 0.0000
-0.1249 ಜೆರುಸಲೇಂನಲ್ಲಿ ಅರಬ್ -0.5315
-0.8239 ಅರಬ್ ಆಡಳಿತದ 0.0000
-0.1249 ಆಡಳಿತದ ಸ್ಥಾಪನೆ 0.0000
-0.1249 ಸ್ಥಾಪನೆ ಆರಂಭಿಸುವುದು 0.0000
-0.1249 ಆರಂಭಿಸುವುದು </s> -0.6021
-1.2389 ಈ ನಡುವೆ 0.0000
-0.1249 ನಡುವೆ ಅನ್ವರ್ 0.0000
-0.1249 ಅನ್ವರ್ ಸಾಧತ್ನ 0.0000
-0.1249 ಸಾಧತ್ನ ಅಕಾಲ 0.0000
-0.1249 ಅಕಾಲ ಮರಣವು 0.0000
-0.1249 ಮರಣವು ಅರಬ್ -0.5315
-0.8239 ಅರಬ್ ಜಗತ್ತಿನ -0.3979
-0.4260 ಜಗತ್ತಿನ ರಾಜಕೀಯ 0.0000
-0.1249 ರಾಜಕೀಯ ವಲಯದಲ್ಲಿ 0.0000
-0.1249 ವಲಯದಲ್ಲಿ ಬದಲಾವಣೆ 0.0000
-0.1249 ಬದಲಾವಣೆ ತಂದಿತು 0.0000
-0.1249 ತಂದಿತು </s> -0.6021
-2.1249 <s> ಇದನ್ನು -0.3979
-0.4260 ಇದನ್ನು ಸೌದಿ -0.5315
-0.8239 ಸೌದಿ ನೇತೃತ್ವದಲ್ಲಿ 0.0000
-0.1249 ನೇತೃತ್ವದಲ್ಲಿ ಅರಬ್ -0.5315
-0.8239 ಅರಬ್ ಸಮುದಾಯ 0.0000
-0.1249 ಸಮುದಾಯ ಖಂಡಿಸಿತ್ತು 0.0000
-0.1249 ಖಂಡಿಸಿತ್ತು </s> -0.6021
-2.1249 <s> ಸೌದಿ -0.5315
-0.8239 ಸೌದಿ ಸರಕಾರವೇ 0.0000
-0.1249 ಸರಕಾರವೇ ಈ -0.5763
-1.2389 ಈ ತರಹದ 0.0000
-0.1249 ತರಹದ ಆಲೋಚನೆ 0.0000
-0.1249 ಆಲೋಚನೆ ಮಾಡಿ 0.0000
-0.1249 ಮಾಡಿ ಅಲ್ಲಿಯ 0.0000
-0.1249 ಅಲ್ಲಿಯ ರಾಜಕುಮಾರ 0.0000
-0.1249 ರಾಜಕುಮಾರ ಸೌದ್ಅಲ್ಪೈಸಲ್ 0.0000
-0.1249 ಸೌದ್ಅಲ್ಪೈಸಲ್ ಹೀಗೆ 0.0000
-0.1249 ಹೀಗೆ ಹೇಳುತ್ತಾನೆ 0.0000
-0.1249 ಹೇಳುತ್ತಾನೆ </s> -0.6021
-1.2389 ಈ ಎಲ್ಲ -0.4771
-0.6021 ಎಲ್ಲ ದೇಶಗಳು 0.0000
-0.1249 ದೇಶಗಳು ಈಜಿಪ್ಟ್ 0.0000
-0.1249 ಈಜಿಪ್ಟ್ ಮತ್ತು -0.5528
-0.9700 ಮತ್ತು ಅಮೆರಿಕಗಳಿಂದ 0.0000
-0.1249 ಅಮೆರಿಕಗಳಿಂದ ಶಾಂತಿ 0.0000
-0.1249 ಶಾಂತಿ ಸಂಧಾನವನ್ನು 0.0000
-0.1249 ಸಂಧಾನವನ್ನು ಒಪ್ಪಿಕೊಳ್ಳಲು 0.0000
-0.1249 ಒಪ್ಪಿಕೊಳ್ಳಲು ಒತ್ತಾಯ 0.0000
-0.1249 ಒತ್ತಾಯ ಎದುರಿಸಬೇಕಾಯಿತು 0.0000
-0.1249 ಎದುರಿಸಬೇಕಾಯಿತು </s> -0.6021
-2.1249 <s> ಸಣ್ಣ -0.3979
-0.4260 ಸಣ್ಣ ಹಾಗೂ -0.5119
-0.7270 ಹಾಗೂ ದೊಡ್ಡ -0.4771
-0.6021 ದೊಡ್ಡ ರಾಷ್ಟ್ರಗಳು 0.0000
-0.1249 ರಾಷ್ಟ್ರಗಳು ಸಂಘದ 0.0000
-0.1249 ಸಂಘದ ವಿಶ್ವಾಸ 0.0000
-0.1249 ವಿಶ್ವಾಸ ಕಳೆದುಕೊಂಡವು 0.0000
-0.1249 ಕಳೆದುಕೊಂಡವು </s> -0.6021
-2.1249 <s> ಎಲ್ಲ -0.4771
-0.6021 ಎಲ್ಲ ಪ್ರತಿರೋಧಗಳನ್ನು 0.0000
-0.1249 ಪ್ರತಿರೋಧಗಳನ್ನು ಮುರಿದು 0.0000
-0.1249 ಮುರಿದು ಪೋಲೆಂಡಿನ 0.0000
-0.1249 ಪೋಲೆಂಡಿನ ರಾಜಧಾನಿಯಾದ 0.0000
-0.1249 ರಾಜಧಾನಿಯಾದ ವಾರ್ಸೊ 0.0000
-0.1249 ವಾರ್ಸೊ ಜರ್ಮನಿಯ 0.0000
-0.1249 ಜರ್ಮನಿಯ ವಶವಾಯಿತು 0.0000
-0.1249 ವಶವಾಯಿತು </s> -0.6021
-2.1249 <s> ಹಿಟ್ಲರ್ನು 0.0000
-0.1249 ಹಿಟ್ಲರ್ನು ಭೀಕರ 0.0000
-0.1249 ಭೀಕರ ವಾಯು 0.0000
-0.1249 ವಾಯು ದಾಳಿಯಿಂದ 0.0000
-0.1249 ದಾಳಿಯಿಂದ ಬ್ರಿಟನ್ನಲ್ಲಿ 0.0000
-0.1249 ಬ್ರಿಟನ್ನಲ್ಲಿ ವ್ಯಾಪಕ 0.0000
-0.1249 ವ್ಯಾಪಕ ಕಷ್ಟನಷ್ಟಗಳನ್ನು 0.0000
-0.1249 ಕಷ್ಟನಷ್ಟಗಳನ್ನು ಉಂಟುಮಾಡಿದನು 0.0000
-0.1249 ಉಂಟುಮಾಡಿದನು </s> -0.6021
-0.9031 ಇಲ್ಲಿ ಇಟಲಿ 0.0000
-0.1249 ಇಟಲಿ ಸೋಲಲಾರಂಭಿಸಿದಾಗ 0.0000
-0.1249 ಸೋಲಲಾರಂಭಿಸಿದಾಗ ಜರ್ಮನಿಯು 0.0000
-0.1249 ಜರ್ಮನಿಯು ಅದರ -0.4771
-0.6021 ಅದರ ಸಹಾಯಕ್ಕೆ 0.0000
-0.1249 ಸಹಾಯಕ್ಕೆ ನಿಂತು 0.0000
-0.1249 ನಿಂತು ಮೊದಮೊದಲಿಗೆ 0.0000
-0.1249 ಮೊದಮೊದಲಿಗೆ ಜಯಗಳಿಸಿತು 0.0000
-0.1249 ಜಯಗಳಿಸಿತು </s> -0.6021
-2.1249 <s> ಪಲಾಯನಗೈದ 0.0000
-0.1249 ಪಲಾಯನಗೈದ ಮುಸ್ಸೊಲೊನಿಯು 0.0000
-0.1249 ಮುಸ್ಸೊಲೊನಿಯು ಫ್ಯಾಸಿಸ್ಟ್ 0.0000
-0.1249 ಫ್ಯಾಸಿಸ್ಟ್ ವಿರೋಧಿಗಳಿಂದ 0.0000
-0.1249 ವಿರೋಧಿಗಳಿಂದ ದಾರುಣವಾಗಿ 0.0000
-0.1249 ದಾರುಣವಾಗಿ ಕೊಲೆಯಾದನು 0.0000
-0.1249 ಕೊಲೆಯಾದನು </s> -0.6021
-2.1249 <s> ಆ 0.0000
-0.1249 ಆ ಬಳಿಕವೂ 0.0000
-0.1249 ಬಳಿಕವೂ ಹಲವೆಡೆಗಳಲ್ಲಿ 0.0000
-0.1249 ಹಲವೆಡೆಗಳಲ್ಲಿ ಇಂತಹ -0.3979
-0.4260 ಇಂತಹ ಸಭೆಗಳು 0.0000
-0.1249 ಸಭೆಗಳು ನಡೆದು 0.0000
-0.1249 ನಡೆದು ವಿಶ್ವಸಂಸ್ಥೆಯ 0.0000
-0.1249 ವಿಶ್ವಸಂಸ್ಥೆಯ ರೂಪರೇಷೆ 0.0000
-0.1249 ರೂಪರೇಷೆ ಸಿದ್ಧವಾದವು 0.0000
-0.1249 ಸಿದ್ಧವಾದವು </s> -0.6021
-2.1249 <s> ನಿಯಮದಂತೆ 0.0000
-0.1249 ನಿಯಮದಂತೆ ಸಾಮಾನ್ಯ -0.3979
-0.4260 ಸಾಮಾನ್ಯ ಸಭೆಯು 0.0000
-0.1249 ಸಭೆಯು ವರ್ಷಕ್ಕೊಂದು 0.0000
-0.1249 ವರ್ಷಕ್ಕೊಂದು ಬಾರಿ 0.0000
-0.1249 ಬಾರಿ ಸಭೆ 0.0000
-0.1249 ಸಭೆ ಸೇರುತ್ತದೆ 0.0000
-0.1249 ಸೇರುತ್ತದೆ </s> -0.6021
-2.1249 <s> ರಷ್ಯಾದಲ್ಲಿ 0.0000
-0.1249 ರಷ್ಯಾದಲ್ಲಿ ಭೂಗತವಾಗಿ 0.0000
-0.1249 ಭೂಗತವಾಗಿ ಅಲ್ಪ 0.0000
-0.1249 ಅಲ್ಪ ಪ್ರಮಾಣದಲ್ಲಿದ್ದ 0.0000
-0.1249 ಪ್ರಮಾಣದಲ್ಲಿದ್ದ ಅಪರಾಧಭ್ರಷ್ಟಾಚಾರಗಳ 0.0000
-0.1249 ಅಪರಾಧಭ್ರಷ್ಟಾಚಾರಗಳ ಉಭಯ 0.0000
-0.1249 ಉಭಯ ಕಂಟಕಗಳು 0.0000
-0.1249 ಕಂಟಕಗಳು ಈಗ -0.3979
-0.4260 ಈಗ ರಾಜಾರೋಷವಾಗಿ 0.0000
-0.1249 ರಾಜಾರೋಷವಾಗಿ ವಿಜೃಂಭಿಸುತ್ತಿವೆ 0.0000
-0.1249 ವಿಜೃಂಭಿಸುತ್ತಿವೆ </s> -0.6021
-2.1249 <s> ಅಣು 0.0000
-0.1249 ಅಣು ಶಸ್ತ್ರಗಳ 0.0000
-0.1249 ಶಸ್ತ್ರಗಳ ಬಳಕೆಯ 0.0000
-0.1249 ಬಳಕೆಯ ಅಪಾಯ 0.0000
-0.1249 ಅಪಾಯ ಸಣ್ಣ -0.3979
-0.4260 ಸಣ್ಣ ವಿವಾದತಿಕ್ಕಾಟಗಳಲ್ಲೂ 0.0000
-0.1249 ವಿವಾದತಿಕ್ಕಾಟಗಳಲ್ಲೂ ಇನ್ನಷ್ಟು 0.0000
-0.1249 ಇನ್ನಷ್ಟು ಹೆಚ್ಚಿದೆ 0.0000
-0.1249 ಹೆಚ್ಚಿದೆ </s> -0.6021
-2.1249 <s> ಮಾರುಕಟ್ಟೆ 0.0000
-0.1249 ಮಾರುಕಟ್ಟೆ ಆರ್ಥಿಕತೆ 0.0000
-0.1249 ಆರ್ಥಿಕತೆ ಜಾರಿಗೆ 0.0000
-0.1249 ಜಾರಿಗೆ ತರುವುದರಲ್ಲಿ 0.0000
-0.1249 ತರುವುದರಲ್ಲಿ ಬೆಲೆ 0.0000
-0.1249 ಬೆಲೆ ಸುಧಾರಣೆಗಳು 0.0000
-0.1249 ಸುಧಾರಣೆಗಳು ಅಗತ್ಯ 0.0000
-0.1249 ಅಗತ್ಯ ಮೊದಲ 0.0000
-0.1249 ಮೊದಲ ಹೆಜ್ಜೆ 0.0000
-0.1249 ಹೆಜ್ಜೆ ಎನ್ನಲಾಯಿತು 0.0000
-0.1249 ಎನ್ನಲಾಯಿತು </s> -0.6021
-2.1249 <s> ಚುನಾವಣೆಯ 0.0000
-0.1249 ಚುನಾವಣೆಯ ಮೊದಲು 0.0000
-0.1249 ಮೊದಲು ಸಮೀಕ್ಷೆಗಳನ್ನು 0.0000
-0.1249 ಸಮೀಕ್ಷೆಗಳನ್ನು ನಡೆಸಿ 0.0000
-0.1249 ನಡೆಸಿ ಬೇಕಾದ 0.0000
-0.1249 ಬೇಕಾದ ಫಲಿತಾಂಶಕ್ಕೆ 0.0000
-0.1249 ಫಲಿತಾಂಶಕ್ಕೆ ನಿರೀಕ್ಷೆ 0.0000
-0.1249 ನಿರೀಕ್ಷೆ ಆರಂಭವಾಗುತ್ತದೆ 0.0000
-2.1249 <s> ಇಷ್ಟು 0.0000
-0.1249 ಇಷ್ಟು ಹೊತ್ತಿಗೆ 0.0000
-0.1249 ಹೊತ್ತಿಗೆ ಜಗತ್ತಿನ -0.3979
-0.4260 ಜಗತ್ತಿನ ಸುತ್ತ 0.0000
-0.1249 ಸುತ್ತ ಈ -0.5763
-1.2389 ಈ ಭಾವೀ 0.0000
-0.1249 ಭಾವೀ ಕ್ರಾಂತಿಯ 0.0000
-0.1249 ಕ್ರಾಂತಿಯ ನೆಯರ 0.0000
-0.1249 ನೆಯರ ಪ್ರಸಾರ 0.0000
-0.1249 ಪ್ರಸಾರ ನಡೆಯುತ್ತಿರುತ್ತದೆ 0.0000
-0.1249 ನಡೆಯುತ್ತಿರುತ್ತದೆ </s> -0.6021
-2.1249 <s> ಬಿಎವಿವೇಕ 0.0000
-0.1249 ಬಿಎವಿವೇಕ ರೈ 0.0000
-0.1249 ರೈ ಅವರ 0.0000
-0.1249 ಅವರ ಮಾರ್ಗದರ್ಶನದಲ್ಲಿ 0.0000
-0.1249 ಮಾರ್ಗದರ್ಶನದಲ್ಲಿ ಮತ್ತು -0.5528
-0.9700 ಮತ್ತು ಚರಿತ್ರೆ 0.0000
-0.1249 ಚರಿತ್ರೆ ವಿಭಾಗದ 0.0000
-0.1249 ವಿಭಾಗದ ಮುಖ್ಯಸ್ಥರಾಗಿದ್ದ 0.0000
-0.1249 ಮುಖ್ಯಸ್ಥರಾಗಿದ್ದ ಡಾ 0.0000
-0.1249 ಡಾ </s> -0.6021
-2.1249 <s> ಅಂದರೆ 0.0000
-0.1249 ಅಂದರೆ ದೇಸಿ 0.0000
-0.1249 ದೇಸಿ ಬೇರುಗಳ 0.0000
-0.1249 ಬೇರುಗಳ ಗುರುತಿಸುವಿಕೆ 0.0000
-0.1249 ಗುರುತಿಸುವಿಕೆ ಕನ್ನಡ -0.3979
-0.4260 ಕನ್ನಡ ಅಧ್ಯಯನದ 0.0000
-0.1249 ಅಧ್ಯಯನದ ಮುಖ್ಯ -0.3979
-0.4260 ಮುಖ್ಯ ಭಿತ್ತಿಯಾಗಬೇಕಾಗಿದೆ 0.0000
-0.1249 ಭಿತ್ತಿಯಾಗಬೇಕಾಗಿದೆ </s> -0.6021
-0.6021 ಅದರ ಮೂಲಕ -0.4771
-0.6021 ಮೂಲಕ ಅಮೆರಿಕದ 0.0000
-0.1249 ಅಮೆರಿಕದ ದಕ್ಷಿಣ 0.0000
-0.1249 ದಕ್ಷಿಣ ತುದಿಯನ್ನು 0.0000
-0.1249 ತುದಿಯನ್ನು ಸುತ್ತಿಕೊಂಡು 0.0000
-0.1249 ಸುತ್ತಿಕೊಂಡು ಕೊಲ್ಲಿಯ 0.0000
-0.1249 ಕೊಲ್ಲಿಯ ಮೂಲಕ -0.4771
-0.6021 ಮೂಲಕ ಸಾಗಿದನು 0.0000
-0.1249 ಸಾಗಿದನು </s> -0.6021
-2.1249 <s> ಚರ್ಚಿನ 0.0000
-0.1249 ಚರ್ಚಿನ ಸೇವೆಯಲ್ಲಿ 0.0000
-0.1249 ಸೇವೆಯಲ್ಲಿ ತರಬೇತಿ 0.0000
-0.1249 ತರಬೇತಿ ಪಡೆದಿದ್ದವರ 0.0000
-0.1249 ಪಡೆದಿದ್ದವರ ನಾಯಕತ್ವವು 0.0000
-0.1249 ನಾಯಕತ್ವವು ದೊರಕಿತು 0.0000
-0.1249 ದೊರಕಿತು </s> -0.6021
-2.1249 <s> ಇಂದು 0.0000
-0.1249 ಇಂದು ರಿನೈಸಾನ್ಸ್ 0.0000
-0.1249 ರಿನೈಸಾನ್ಸ್ ಇಟಲಿಯಿಂದ 0.0000
-0.1249 ಇಟಲಿಯಿಂದ ಯುರೋಪಿನ -0.3979
-0.4260 ಯುರೋಪಿನ ಇತರ 0.0000
-0.1249 ಇತರ ಕೇಂದ್ರಗಳಿಗೆ 0.0000
-0.1249 ಕೇಂದ್ರಗಳಿಗೆ ತನ್ನ -0.4771
-0.6021 ತನ್ನ ಆಸಕ್ತಿ 0.0000
-0.1249 ಆಸಕ್ತಿ ಯನ್ನು 0.0000
-0.1249 ಯನ್ನು ವರ್ಗಾಯಿಸಿದೆ 0.0000
-0.1249 ವರ್ಗಾಯಿಸಿದೆ </s> -0.6021
-0.9031 ಇಲ್ಲಿ ಸರಕುಗಳ 0.0000
-0.1249 ಸರಕುಗಳ ಅಧಿಕ 0.0000
-0.1249 ಅಧಿಕ ಉತ್ಪಾದನೆ 0.0000
-0.1249 ಉತ್ಪಾದನೆ ನಡೆಯಿತು 0.0000
-0.1249 ನಡೆಯಿತು </s> -0.6021
-2.1249 <s> ಇದರಿಂದಾಗಿ 0.0000
-0.1249 ಇದರಿಂದಾಗಿ ಹೊಸ 0.0000
-0.1249 ಹೊಸ ಶೋಧನೆಗೆ 0.0000
-0.1249 ಶೋಧನೆಗೆ ಮತ್ತು -0.5528
-0.9700 ಮತ್ತು ಉದ್ಯಮಶೀಲತೆಗೆ 0.0000
-0.1249 ಉದ್ಯಮಶೀಲತೆಗೆ ಸಾಕಷ್ಟು 0.0000
-0.1249 ಸಾಕಷ್ಟು ಪ್ರತಿಫಲ 0.0000
-0.1249 ಪ್ರತಿಫಲ ದೊರೆಯಿತು 0.0000
-2.1249 <s> ಕುಲೀನಸತ್ತೆ 0.0000
-0.1249 ಕುಲೀನಸತ್ತೆ ಎಂಬ -0.5315
-0.8239 ಎಂಬ ಕನ್ನಡ -0.3979
-0.4260 ಕನ್ನಡ ಪದದ 0.0000
-0.1249 ಪದದ ಮೂಲ -0.3979
-0.4260 ಮೂಲ ಇಂಗ್ಲೀಷ್ 0.0000
-0.1249 ಇಂಗ್ಲೀಷ್ ಶಬ್ದವು 0.0000
-0.1249 ಶಬ್ದವು ಅರಿಸ್ಟಾಕ್ರಸಿ 0.0000
-0.1249 ಅರಿಸ್ಟಾಕ್ರಸಿ </s> -0.6021
-2.1249 <s> ಪರ್ಯಾಯವಾಗಿ 0.0000
-0.1249 ಪರ್ಯಾಯವಾಗಿ ಹೇಳಬೇಕೆಂದರೆ 0.0000
-0.1249 ಹೇಳಬೇಕೆಂದರೆ ಕುಲೀನಸತ್ತೆಯನ್ನು 0.0000
-0.1249 ಕುಲೀನಸತ್ತೆಯನ್ನು ವಿಶೇಷವಾಗಿ 0.0000
-0.1249 ವಿಶೇಷವಾಗಿ ಆರಿಸಲ್ಪಟ್ಟ 0.0000
-0.1249 ಆರಿಸಲ್ಪಟ್ಟ ಕೆಲವರ 0.0000
-0.1249 ಕೆಲವರ ಆಳ್ವಿಕೆ 0.0000
-0.1249 ಆಳ್ವಿಕೆ ಎಂದು -0.5315
-0.8239 ಎಂದು ಸುಲಭವಾಗಿ 0.0000
-0.1249 ಸುಲಭವಾಗಿ ವ್ಯಾಖ್ಯಾನಿಸಬಹುದು 0.0000
-0.1249 ವ್ಯಾಖ್ಯಾನಿಸಬಹುದು </s> -0.6021
-1.8239 <s> ಕುಲೀನಸತ್ತೆಯು 0.0000
-0.4260 ಕುಲೀನಸತ್ತೆಯು ಈ -0.5763
-1.2389 ಈ ಕೆಳಗಿನ 0.0000
-0.1249 ಕೆಳಗಿನ ವಿಶೇಷ 0.0000
-0.1249 ವಿಶೇಷ ಗುಣಲಕ್ಷಣಗಳನ್ನು 0.0000
-0.1249 ಗುಣಲಕ್ಷಣಗಳನ್ನು ಹೊಂದಿರುತ್ತದೆ 0.0000
-0.1249 ಹೊಂದಿರುತ್ತದೆ </s> -0.6021
-0.4260 ಕುಲೀನಸತ್ತೆಯು ಒಂದು -0.4771
-0.6021 ಒಂದು ಸಾಮಾನ್ಯವಾದ 0.0000
-0.1249 ಸಾಮಾನ್ಯವಾದ ಹಾಗೂ -0.5119
-0.7270 ಹಾಗೂ ನೈಸರ್ಗಿಕ 0.0000
-0.1249 ನೈಸರ್ಗಿಕ ಆಡಳಿತ 0.0000
-0.1249 ಆಡಳಿತ ಪದ್ಧತಿಯೆಂದು 0.0000
-0.1249 ಪದ್ಧತಿಯೆಂದು ಪರಿಗಣಿಸಲ್ಪಟ್ಟಿದೆ 0.0000
-0.1249 ಪರಿಗಣಿಸಲ್ಪಟ್ಟಿದೆ </s> -0.6021
-2.1249 <s> ಎಂದರೆ -0.3979
-0.4260 ಎಂದರೆ ಕುಲೀನಸತ್ತೆಯ 0.0000
-0.1249 ಕುಲೀನಸತ್ತೆಯ ಸರಕಾರವು 0.0000
-0.1249 ಸರಕಾರವು ತೌಲನಿಕವಾಗಿ 0.0000
-0.1249 ತೌಲನಿಕವಾಗಿ ಸ್ಥಿರವಾದ 0.0000
-0.1249 ಸ್ಥಿರವಾದ ಸರ್ಕಾರವಾಗಿರುತ್ತದೆ 0.0000
-0.1249 ಸರ್ಕಾರವಾಗಿರುತ್ತದೆ </s> -0.6021
-2.1249 <s> ಉದಾಹರಣೆಗೆ 0.0000
-0.1249 ಉದಾಹರಣೆಗೆ ಜವಾಬ್ದಾರಿಯ 0.0000
-0.1249 ಜವಾಬ್ದಾರಿಯ ಕೆಲಸಗಳಿಗೆ 0.0000
-0.1249 ಕೆಲಸಗಳಿಗೆ ಜನರನ್ನು 0.0000
-0.1249 ಜನರನ್ನು ನೇಮಿಸುವಾಗ 0.0000
-0.1249 ನೇಮಿಸುವಾಗ ಬಹುಮತದಂತಹ 0.0000
-0.1249 ಬಹುಮತದಂತಹ ನೀತಿ 0.0000
-0.1249 ನೀತಿ ಅನ್ವಯವಾಗುವುದಿಲ್ಲ 0.0000
-0.1249 ಅನ್ವಯವಾಗುವುದಿಲ್ಲ </s> -0.6021
-2.1249 <s> ಹದಿನೇಳನೆಯ 0.0000
-0.1249 ಹದಿನೇಳನೆಯ ಶತಮಾನ 0.0000
-0.1249 ಶತಮಾನ ನಿರಂಕುಶಪ್ರಭುತ್ವದ 0.0000
-0.1249 ನಿರಂಕುಶಪ್ರಭುತ್ವದ ಯುಗ 0.0000
-0.1249 ಯುಗ ಎಂಬುದಾಗಿ 0.0000
-0.1249 ಎಂಬುದಾಗಿ ನಿರ್ಣಯವನ್ನು 0.0000
-0.1249 ನಿರ್ಣಯವನ್ನು ಕೈಕೊಳ್ಳಲು 0.0000
-0.1249 ಕೈಕೊಳ್ಳಲು ಸಾಧ್ಯವಿಲ್ಲ 0.0000
-0.1249 ಸಾಧ್ಯವಿಲ್ಲ </s> -0.6021
-2.1249 <s> ಮಧ್ಯಮವರ್ಗದ 0.0000
-0.1249 ಮಧ್ಯಮವರ್ಗದ ಜನರು -0.3979
-0.4260 ಜನರು ಅಪಾರ 0.0000
-0.1249 ಅಪಾರ ಸಂಪತ್ತನ್ನು 0.0000
-0.1249 ಸಂಪತ್ತನ್ನು ಗಳಿಸಿ 0.0000
-0.1249 ಗಳಿಸಿ ಅಧಿಕಾರ 0.0000
-0.1249 ಅಧಿಕಾರ ಮತ್ತು -0.5528
-0.9700 ಮತ್ತು ಸವಲತ್ತುಗಳನ್ನು 0.0000
-0.1249 ಸವಲತ್ತುಗಳನ್ನು ಪಡೆಯಲು 0.0000
-0.1249 ಪಡೆಯಲು ಹಂಬಲಿಸುತ್ತಿದ್ದರು 0.0000
-0.1249 ಹಂಬಲಿಸುತ್ತಿದ್ದರು </s> -0.6021
-2.1249 <s> ಇದರಿಂದಾಗಿಯೇ 0.0000
-0.1249 ಇದರಿಂದಾಗಿಯೇ ಆಸ್ಟ್ರೀಯಾದ 0.0000
-0.1249 ಆಸ್ಟ್ರೀಯಾದ ರಾಣಿ 0.0000
-0.1249 ರಾಣಿ ಮಾರಿಯಾ 0.0000
-0.1249 ಮಾರಿಯಾ ತೆರೇಸಾ 0.0000
-0.1249 ತೆರೇಸಾ ಹಾಗೂ -0.5119
-0.7270 ಹಾಗೂ ಫ್ರೆಡ್ರಿಕ್ರೊಳಗೆ 0.0000
-0.1249 ಫ್ರೆಡ್ರಿಕ್ರೊಳಗೆ ಮನಸ್ತಾಪ 0.0000
-0.1249 ಮನಸ್ತಾಪ ಉಂಟಾಗಿದ್ದು 0.0000
-0.1249 ಉಂಟಾಗಿದ್ದು </s> -0.6021
-2.1249 <s> ಅವರು 0.0000
-0.1249 ಅವರು ಮನುಷ್ಯ 0.0000
-0.1249 ಮನುಷ್ಯ ಮೂಲತಃ 0.0000
-0.1249 ಮೂಲತಃ ಸಂಘಜೀವಿ 0.0000
-0.1249 ಸಂಘಜೀವಿ ಎಂಬ -0.5315
-0.8239 ಎಂಬ ಮಾನವ 0.0000
-0.1249 ಮಾನವ ಸಮುದಾಯದ 0.0000
-0.1249 ಸಮುದಾಯದ ಅತ್ಯಂತ 0.0000
-0.1249 ಅತ್ಯಂತ ಪ್ರಾಚೀನ 0.0000
-0.1249 ಪ್ರಾಚೀನ ತತ್ವವನ್ನು 0.0000
-0.1249 ತತ್ವವನ್ನು ತಮ್ಮ -0.4771
-0.6021 ತಮ್ಮ ಸಿದ್ಧಾಂತವಾಗಿಸಿಕೊಂಡರು 0.0000
-0.1249 ಸಿದ್ಧಾಂತವಾಗಿಸಿಕೊಂಡರು </s> -0.6021
-2.1249 <s> ಹತ್ತೊಂಬತ್ತನೆಯ 0.0000
-0.1249 ಹತ್ತೊಂಬತ್ತನೆಯ ಶತಮಾನದ 0.0000
-0.1249 ಶತಮಾನದ ಕೊನೆಯ 0.0000
-0.1249 ಕೊನೆಯ ಭಾಗದಲ್ಲಿ 0.0000
-0.1249 ಭಾಗದಲ್ಲಿ ಒಂದು -0.4771
-0.6021 ಒಂದು ವಿಶಿಷ್ಟ 0.0000
-0.1249 ವಿಶಿಷ್ಟ ಬಗೆಯ 0.0000
-0.1249 ಬಗೆಯ ಸಮಾಜವಾದ 0.0000
-0.1249 ಸಮಾಜವಾದ ಅಥವಾ 0.0000
-0.1249 ಅಥವಾ ಕಮ್ಯೂನಿಸಂ 0.0000
-0.1249 ಕಮ್ಯೂನಿಸಂ ಕಂಡುಬಂತು 0.0000
-0.1249 ಕಂಡುಬಂತು </s> -0.6021
-2.1249 <s> ಮೇಲಾಗಿ 0.0000
-0.1249 ಮೇಲಾಗಿ ಇಂಗ್ಲೆಂಡಿಗೆ 0.0000
-0.1249 ಇಂಗ್ಲೆಂಡಿಗೆ ಕೈಗಾರಿಕೆ 0.0000
-0.1249 ಕೈಗಾರಿಕೆ ಹಾಗೂ -0.5119
-0.7270 ಹಾಗೂ ನೌಕಾಯಾನಗಳ 0.0000
-0.1249 ನೌಕಾಯಾನಗಳ ಯಶಸ್ಸಿನಿಂದ 0.0000
-0.1249 ಯಶಸ್ಸಿನಿಂದ ಪ್ರಪಂಚದ 0.0000
-0.1249 ಪ್ರಪಂಚದ ಮಾರುಕಟ್ಟೆಗಳಿಗೆ 0.0000
-0.1249 ಮಾರುಕಟ್ಟೆಗಳಿಗೆ ಪ್ರವೇಶ 0.0000
-0.1249 ಪ್ರವೇಶ ಲಭ್ಯವಿತ್ತು 0.0000
-0.1249 ಲಭ್ಯವಿತ್ತು </s> -0.6021
-2.1249 <s> ಅವರಿಂದ 0.0000
-0.1249 ಅವರಿಂದ ಶೋಷಣೆಗೆ 0.0000
-0.1249 ಶೋಷಣೆಗೆ ಯಾವ -0.4771
-0.6021 ಯಾವ ವಿರೋಧವೂ 0.0000
-0.1249 ವಿರೋಧವೂ ಬರುವಂತಿರಲಿಲ್ಲ 0.0000
-0.1249 ಬರುವಂತಿರಲಿಲ್ಲ </s> -0.6021
-2.1249 <s> ಇವರಲ್ಲಿ 0.0000
-0.1249 ಇವರಲ್ಲಿ ಬಹಳಷ್ಟು 0.0000
-0.1249 ಬಹಳಷ್ಟು ಜನರಿಗೆ -0.3979
-0.4260 ಜನರಿಗೆ ಕನಿಷ್ಟ 0.0000
-0.1249 ಕನಿಷ್ಟ ಉಡಲು 0.0000
-0.1249 ಉಡಲು ಬಟ್ಟೆ 0.0000
-0.1249 ಬಟ್ಟೆ ತಿನ್ನಲು 0.0000
-0.1249 ತಿನ್ನಲು ಆಹಾರವೂ 0.0000
-0.1249 ಆಹಾರವೂ ಸಿಗುತ್ತಿರಲಿಲ್ಲ 0.0000
-0.1249 ಸಿಗುತ್ತಿರಲಿಲ್ಲ </s> -0.6021
-1.2389 ಈ ರೀತಿಯಾಗಿ 0.0000
-0.1249 ರೀತಿಯಾಗಿ ಸಾಮಾನ್ಯ -0.3979
-0.4260 ಸಾಮಾನ್ಯ ಜನರಿಗೆ -0.3979
-0.4260 ಜನರಿಗೆ ಸರಕಾರದಲ್ಲಿ 0.0000
-0.1249 ಸರಕಾರದಲ್ಲಿ ಯಾವ -0.4771
-0.6021 ಯಾವ ರೀತಿಯ -0.3979
-0.4260 ರೀತಿಯ ಅಸ್ತಿತ್ವ 0.0000
-0.1249 ಅಸ್ತಿತ್ವ ಇರಲಿಲ್ಲ 0.0000
-0.1249 ಇರಲಿಲ್ಲ </s> -0.6021
-2.1249 <s> ಇಂಥ 0.0000
-0.1249 ಇಂಥ ಬುಡಕಟ್ಟುಗಳ 0.0000
-0.1249 ಬುಡಕಟ್ಟುಗಳ ಸಂಸ್ಕೃತಿಯ 0.0000
-0.1249 ಸಂಸ್ಕೃತಿಯ ನಡುವೆಯೂ 0.0000
-0.1249 ನಡುವೆಯೂ ಅನೇಕ 0.0000
-0.1249 ಅನೇಕ ವ್ಯತ್ಯಾಸಗಳು 0.0000
-0.1249 ವ್ಯತ್ಯಾಸಗಳು ಗೋಚರಿಸುತ್ತವೆ 0.0000
-0.1249 ಗೋಚರಿಸುತ್ತವೆ </s> -0.6021
-2.1249 <s> ಇದು 0.0000
-0.1249 ಇದು ಇತ್ತೀಚೆಗೆ 0.0000
-0.1249 ಇತ್ತೀಚೆಗೆ ರಚಿತವಾದಂತೆ 0.0000
-0.1249 ರಚಿತವಾದಂತೆ ಕಂಡು 0.0000
-0.1249 ಕಂಡು ಬರುತ್ತದೆ 0.0000
-0.1249 ಬರುತ್ತದೆ </s> -0.6021
-2.1249 <s> ಮಹಾರಾಷ್ಟ್ರದ 0.0000
-0.1249 ಮಹಾರಾಷ್ಟ್ರದ ವಿದ್ವಾಂಸರು 0.0000
-0.1249 ವಿದ್ವಾಂಸರು ಈ -0.5763
-1.2389 ಈ ಅಭಿಪ್ರಾಯವನ್ನು 0.0000
-0.1249 ಅಭಿಪ್ರಾಯವನ್ನು ಒಪ್ಪುತ್ತಾರೆ 0.0000
-0.1249 ಒಪ್ಪುತ್ತಾರೆ </s> -0.6021
-2.1249 <s> ಆತನ 0.0000
-0.1249 ಆತನ ಭಕ್ತದಲ್ಲಿ 0.0000
-0.1249 ಭಕ್ತದಲ್ಲಿ ಬೇರೂರಿರುವುದರಿಂದ 0.0000
-0.1249 ಬೇರೂರಿರುವುದರಿಂದ ಶಿವನ 0.0000
-0.1249 ಶಿವನ ಪರಿವಾರವೆಲ್ಲ 0.0000
-0.1249 ಪರಿವಾರವೆಲ್ಲ ಮೈಲಾರನ -0.5119
-0.7270 ಮೈಲಾರನ ಪರಿವಾರವಾಗಿ 0.0000
-0.1249 ಪರಿವಾರವಾಗಿ ಮೈಲಾರನ -0.5119
-0.7270 ಮೈಲಾರನ ದೇವಸ್ಥಾನಗಳಲ್ಲಿ 0.0000
-0.1249 ದೇವಸ್ಥಾನಗಳಲ್ಲಿ ಎಡಪಡೆದು 0.0000
-0.1249 ಎಡಪಡೆದು ಪೂಜೆಗೊಳ್ಳುತ್ತಿದೆ 0.0000
-0.1249 ಪೂಜೆಗೊಳ್ಳುತ್ತಿದೆ </s> -0.6021
-2.1249 <s> ಮೈಲಾರನೆಂಬ 0.0000
-0.1249 ಮೈಲಾರನೆಂಬ ದೇವತೆಯ 0.0000
-0.1249 ದೇವತೆಯ ಒಟ್ಟು 0.0000
-0.1249 ಒಟ್ಟು ಪರಿವಾರ 0.0000
-0.1249 ಪರಿವಾರ ಹೀಗಿದೆ 0.0000
-0.1249 ಹೀಗಿದೆ </s> -0.6021
-2.1249 <s> ಕುರುಬಿತಿ 0.0000
-0.1249 ಕುರುಬಿತಿ ಮಾಳಮ್ಮ 0.0000
-0.1249 ಮಾಳಮ್ಮ ಪುರಾಣ 0.0000
-0.1249 ಪುರಾಣ ಮೈಲಾರನ -0.5119
-0.7270 ಮೈಲಾರನ ಎರಡನೆಯ 0.0000
-0.1249 ಎರಡನೆಯ ಪತ್ನಿ 0.0000
-0.1249 ಪತ್ನಿ ಎಂಬ -0.5315
-0.8239 ಎಂಬ ಕಲ್ಪನೆ 0.0000
-0.1249 ಕಲ್ಪನೆ ಹೇಗೋ 0.0000
-0.1249 ಹೇಗೋ ಬೆಳೆದುಬಂದಿದೆ 0.0000
-0.1249 ಬೆಳೆದುಬಂದಿದೆ </s> -0.6021
-2.1249 <s> ನಸುಕು 0.0000
-0.1249 ನಸುಕು ಹರಿಯುವದರೊಳಗೆ 0.0000
-0.1249 ಹರಿಯುವದರೊಳಗೆ ರಾವುತ 0.0000
-0.1249 ರಾವುತ ಮಾಳವ್ವರ 0.0000
-0.1249 ಮಾಳವ್ವರ ಮದುವೆಯಾಗಲಿಲ್ಲ 0.0000
-0.1249 ಮದುವೆಯಾಗಲಿಲ್ಲ </s> -0.6021
-2.1249 <s> ದೇವರ 0.0000
-0.1249 ದೇವರ ಹಿಪ್ಪರಗಿಯ 0.0000
-0.1249 ಹಿಪ್ಪರಗಿಯ ಮೈಲಾರನ -0.5119
-0.7270 ಮೈಲಾರನ ದೇವಸ್ಥಾನ 0.0000
-0.1249 ದೇವಸ್ಥಾನ ಎದುರಿಗೆ 0.0000
-0.1249 ಎದುರಿಗೆ ಹೆಗ್ಗಡೆ 0.0000
-0.1249 ಹೆಗ್ಗಡೆ ಪ್ರಾಧಾನಿಯ 0.0000
-0.1249 ಪ್ರಾಧಾನಿಯ ಗುಡಿ 0.0000
-0.1249 ಗುಡಿ ಇದೆ 0.0000
-0.1249 ಇದೆ </s> -0.6021
-2.1249 <s> ನಾಯಿಯನ್ನು 0.0000
-0.1249 ನಾಯಿಯನ್ನು ಮಲ್ಲಯ್ಯನೆಂದೇ 0.0000
-0.1249 ಮಲ್ಲಯ್ಯನೆಂದೇ ಉತ್ತರ 0.0000
-0.1249 ಉತ್ತರ ಕರ್ನಾಟಕದ 0.0000
-0.1249 ಕರ್ನಾಟಕದ ಕಡೆಗೆ 0.0000
-0.1249 ಕಡೆಗೆ ಸಂಭೋಧಿಸುತ್ತಾರೆ 0.0000
-0.1249 ಸಂಭೋಧಿಸುತ್ತಾರೆ </s> -0.6021
-2.1249 <s> ಅನುಭಬ 0.0000
-0.1249 ಅನುಭಬ ಶಿಖಾಮಣಿಯ 0.0000
-0.1249 ಶಿಖಾಮಣಿಯ ಮೈಲಾರ 0.0000
-0.1249 ಮೈಲಾರ ಲಿಂಗನ 0.0000
-0.1249 ಲಿಂಗನ ಕಥೆಯಲ್ಲಿಯಂತೂ 0.0000
-0.1249 ಕಥೆಯಲ್ಲಿಯಂತೂ ನಾಯಿಗಳ 0.0000
-0.1249 ನಾಯಿಗಳ ಉಲ್ಲೇಖ 0.0000
-0.1249 ಉಲ್ಲೇಖ ಮತ್ತೆ -0.3979
-0.4260 ಮತ್ತೆ ಮತ್ತೆ -0.3979
-0.4260 ಮತ್ತೆ ಬರುತ್ತದೆ 0.0000
-0.9031 ಇಲ್ಲಿ ಐದು 0.0000
-0.1249 ಐದು ಎತ್ತರದ 0.0000
-0.1249 ಎತ್ತರದ ಗುಡ್ಡದಂತಿರುವ 0.0000
-0.1249 ಗುಡ್ಡದಂತಿರುವ ದೊಡ್ಡ -0.4771
-0.6021 ದೊಡ್ಡ ದಿನ್ನೆಗಳುಂಟು 0.0000
-0.1249 ದಿನ್ನೆಗಳುಂಟು </s> -0.6021
-2.1249 <s> ಕೆಲವರು 0.0000
-0.1249 ಕೆಲವರು ಭಕ್ತರು 0.0000
-0.1249 ಭಕ್ತರು ಕೈಯಲ್ಲಿ 0.0000
-0.1249 ಕೈಯಲ್ಲಿ ಪಂಜನ್ನು 0.0000
-0.1249 ಪಂಜನ್ನು ಹಿಡಿದು 0.0000
-0.1249 ಹಿಡಿದು ಕೊಂಡು 0.0000
-0.1249 ಕೊಂಡು ಸ್ವಾಮಿಯೊಡನೆ 0.0000
-0.1249 ಸ್ವಾಮಿಯೊಡನೆ ಹೋಗುವರು 0.0000
-0.1249 ಹೋಗುವರು </s> -0.6021
-2.1249 <s> ಅಮ್ಮನನ್ನು 0.0000
-0.1249 ಅಮ್ಮನನ್ನು ಅಮ್ಮನ 0.0000
-0.1249 ಅಮ್ಮನ ಮರಡಿಯಲ್ಲಿ 0.0000
-0.1249 ಮರಡಿಯಲ್ಲಿ ಬಿಟ್ಟು 0.0000
-0.1249 ಬಿಟ್ಟು ಅವಳೊಂದಿಗೆ 0.0000
-0.1249 ಅವಳೊಂದಿಗೆ ಬಂದಂತಹ 0.0000
-0.1249 ಬಂದಂತಹ ಭಕ್ತಾದಿಗಳು 0.0000
-0.1249 ಭಕ್ತಾದಿಗಳು ಡೆಂಕನ 0.0000
-0.1249 ಡೆಂಕನ ಮರಡಿಯ 0.0000
-0.1249 ಮರಡಿಯ ಶಿಬಿರಕ್ಕೆ 0.0000
-0.1249 ಶಿಬಿರಕ್ಕೆ ಬರುತ್ತಾರೆ 0.0000
-0.1249 ಬರುತ್ತಾರೆ </s> -0.6021
-2.1249 <s> ಮರ್ತ್ಯಕ್ಕೆ 0.0000
-0.1249 ಮರ್ತ್ಯಕ್ಕೆ ಮಬ್ಬುಗವಿಯಿತಲೇ 0.0000
-0.1249 ಮಬ್ಬುಗವಿಯಿತಲೇ ಪರಾಕು 0.0000
-0.1249 ಪರಾಕು ಎಂದು -0.5315
-0.8239 ಎಂದು ಆಗಿದೆ 0.0000
-0.1249 ಆಗಿದೆ </s> -0.6021

\3-grams:
-0.1249 <s> ಗೊರಿಲ್ಲಾ ಬದಲಿಗೆ
-0.1249 ಗೊರಿಲ್ಲಾ ಬದಲಿಗೆ ಬೇರೆ
-0.1249 ಬದಲಿಗೆ ಬೇರೆ ಜೀವಿಗಳ
-0.1249 ಬೇರೆ ಜೀವಿಗಳ ಬೇಟೆ
-0.1249 ಜೀವಿಗಳ ಬೇಟೆ ನಡೆಯುತ್ತದೆ
-0.1249 ಬೇಟೆ ನಡೆಯುತ್ತದೆ </s>
-0.1249 <s> ಮರುಭೂಮಿ ಸೃಷ್ಟಿ
-0.1249 ಮರುಭೂಮಿ ಸೃಷ್ಟಿ ಎಂದರೆ
-0.1249 ಸೃಷ್ಟಿ ಎಂದರೆ ಅದು
-0.1249 ಎಂದರೆ ಅದು ನಿಧಾನವಾಗಿ
-0.1249 ಅದು ನಿಧಾನವಾಗಿ ನಡೆಯುವ
-0.1249 ನಿಧಾನವಾಗಿ ನಡೆಯುವ ಕ್ರಿಯೆ
-0.1249 ನಡೆಯುವ ಕ್ರಿಯೆ </s>
-0.1249 <s> ಮುಖ್ಯವಾಗಿ ಕಡಿಮೆ
-0.1249 ಮುಖ್ಯವಾಗಿ ಕಡಿಮೆ ಮಳೆಬೀಳುವ
-0.1249 ಕಡಿಮೆ ಮಳೆಬೀಳುವ ಒಣಭೂಮಿಯಲ್ಲಿ
-0.1249 ಮಳೆಬೀಳುವ ಒಣಭೂಮಿಯಲ್ಲಿ ಅದು
-0.1249 ಒಣಭೂಮಿಯಲ್ಲಿ ಅದು ಆರಂಭವಾಗುತ್ತದೆ
-0.1249 ಅದು ಆರಂಭವಾಗುತ್ತದೆ </s>
-0.1249 <s> ಹುಲ್ಲು ಬೆಳೆಯುವಂತೆ
-0.1249 ಹುಲ್ಲು ಬೆಳೆಯುವಂತೆ ತೃಣಧಾನ್ಯದ
-0.1249 ಬೆಳೆಯುವಂತೆ ತೃಣಧಾನ್ಯದ ಬೀಜಗಳನ್ನು
-0.1249 ತೃಣಧಾನ್ಯದ ಬೀಜಗಳನ್ನು ಬಿತ್ತನೆ
-0.1249 ಬೀಜಗಳನ್ನು ಬಿತ್ತನೆ ಮಾಡಬೇಕು
-0.1249 ಬಿತ್ತನೆ ಮಾಡಬೇಕು </s>
-0.4260 <s> ಅದರ ಬದಲು
-0.1249 ಅದರ ಬದಲು ಕುರಿ
-0.1249 ಬದಲು ಕುರಿ ಸಾಕರಣೆಯೇ
-0.1249 ಕುರಿ ಸಾಕರಣೆಯೇ ಮೇಲು
-0.1249 ಸಾಕರಣೆಯೇ ಮೇಲು ಏಕೆಂದರೆ
-0.1249 ಮೇಲು ಏಕೆಂದರೆ ಅವು
-0.1249 ಏಕೆಂದರೆ ಅವು ಸಸ್ಯಗಳ
-0.1249 ಅವು ಸಸ್ಯಗಳ ಚಿಗುರುಗಳನ್ನು
-0.1249 ಸಸ್ಯಗಳ ಚಿಗುರುಗಳನ್ನು ತಿನ್ನುವುದಿಲ್ಲ
-0.1249 ಚಿಗುರುಗಳನ್ನು ತಿನ್ನುವುದಿಲ್ಲ </s>
-0.1249 <s> ವಾಹನ ಬದಿಗೆ
-0.1249 ವಾಹನ ಬದಿಗೆ ನಿಲ್ಲಿಸಿ
-0.1249 ಬದಿಗೆ ನಿಲ್ಲಿಸಿ ಅವನ
-0.1249 ನಿಲ್ಲಿಸಿ ಅವನ ಕೈಗಾಡಿಯತ್ತ
-0.1249 ಅವನ ಕೈಗಾಡಿಯತ್ತ ಸಾಗಿದೆ
-0.1249 ಕೈಗಾಡಿಯತ್ತ ಸಾಗಿದೆ </s>
-0.1249 <s> ಇದೆಲ್ಲ ಏಕಮ್ಮಾ
-0.1249 ಇದೆಲ್ಲ ಏಕಮ್ಮಾ ಇದಕ್ಕೆ
-0.1249 ಏಕಮ್ಮಾ ಇದಕ್ಕೆ ಯಾವ
-0.1249 ಇದಕ್ಕೆ ಯಾವ ಅರ್ಥವೂ
-0.1249 ಯಾವ ಅರ್ಥವೂ ಇಲ್ಲ
-0.1249 ಅರ್ಥವೂ ಇಲ್ಲ </s>
-0.1249 <s> ನಾನೀ ಹಳೇ
-0.1249 ನಾನೀ ಹಳೇ ಸಂಪ್ರದಾಯಗಳನ್ನು
-0.1249 ಹಳೇ ಸಂಪ್ರದಾಯಗಳನ್ನು ಅನುಸರಿಸೋದಿಕ್ಕೆ
-0.1249 ಸಂಪ್ರದಾಯಗಳನ್ನು ಅನುಸರಿಸೋದಿಕ್ಕೆ ಇಷ್ಟಪಡೋಲ್ಲ
-0.1249 ಅನುಸರಿಸೋದಿಕ್ಕೆ ಇಷ್ಟಪಡೋಲ್ಲ ಎಂದು
-0.1249 ಇಷ್ಟಪಡೋಲ್ಲ ಎಂದು ಕಡ್ಡಿ
-0.1249 ಎಂದು ಕಡ್ಡಿ ಮುರಿದ
-0.1249 ಕಡ್ಡಿ ಮುರಿದ ಹಾಗೆ
-0.1249 ಮುರಿದ ಹಾಗೆ ಹೇಳಿದ್ದಾನೆ
-0.1249 ಹಾಗೆ ಹೇಳಿದ್ದಾನೆ </s>
-0.1249 <s> ಹಿರಿಯರು ಸಹನೆ
-0.1249 ಹಿರಿಯರು ಸಹನೆ ಕಳೆದುಕೊಳ್ಳದೇ
-0.1249 ಸಹನೆ ಕಳೆದುಕೊಳ್ಳದೇ ಹಳೆಯದೆಲ್ಲ
-0.1249 ಕಳೆದುಕೊಳ್ಳದೇ ಹಳೆಯದೆಲ್ಲ ತ್ಯಾಜ್ಯವಲ್ಲ
-0.1249 ಹಳೆಯದೆಲ್ಲ ತ್ಯಾಜ್ಯವಲ್ಲ </s>
-0.1249 <s> ನೀನು ಚೆನ್ನಾಗಿ
-0.1249 ನೀನು ಚೆನ್ನಾಗಿ ಓದಿ
-0.1249 ಚೆನ್ನಾಗಿ ಓದಿ ಇಂಜಿನೀಯರ್
-0.1249 ಓದಿ ಇಂಜಿನೀಯರ್ ಆಗು
-0.1249 ಇಂಜಿನೀಯರ್ ಆಗು ಡಾಕ್ಟರಾಗು
-0.1249 ಆಗು ಡಾಕ್ಟರಾಗು ಎಂದು
-0.1249 ಡಾಕ್ಟರಾಗು ಎಂದು ಹೇಳುವವರೇ
-0.1249 ಎಂದು ಹೇಳುವವರೇ ಹೆಚ್ಚು
-0.1249 ಹೇಳುವವರೇ ಹೆಚ್ಚು </s>
-0.1249 <s> ಇದರ ಎಣ್ಣೆಯಿಂದ
-0.1249 ಇದರ ಎಣ್ಣೆಯಿಂದ ಜೈವಿಕ
-0.1249 ಎಣ್ಣೆಯಿಂದ ಜೈವಿಕ ಡೀಸೆಲ್
-0.1249 ಜೈವಿಕ ಡೀಸೆಲ್ ಉತ್ಪಾದಿಸಲಾಗುತ್ತಿದ್ದು
-0.1249 ಡೀಸೆಲ್ ಉತ್ಪಾದಿಸಲಾಗುತ್ತಿದ್ದು ಇದನ್ನು
-0.1249 ಉತ್ಪಾದಿಸಲಾಗುತ್ತಿದ್ದು ಇದನ್ನು ಹೆಂಪೋಲೈನ್
-0.1249 ಇದನ್ನು ಹೆಂಪೋಲೈನ್ ಎಂಬ
-0.1249 ಹೆಂಪೋಲೈನ್ ಎಂಬ ಹೆಸರಿನಲ್ಲಿ
-0.1249 ಎಂಬ ಹೆಸರಿನಲ್ಲಿ ಗುರುತಿಸಲಾಗುತ್ತಿದೆ
-0.1249 ಹೆಸರಿನಲ್ಲಿ ಗುರುತಿಸಲಾಗುತ್ತಿದೆ </s>
-0.1249 <s> ಪುಂಡಿ ದಂಟನ್ನು
-0.1249 ಪುಂಡಿ ದಂಟನ್ನು ಉರುವಲಿನ
-0.1249 ದಂಟನ್ನು ಉರುವಲಿನ ಇಂಧನವಾಗಿ
-0.1249 ಉರುವಲಿನ ಇಂಧನವಾಗಿ ಅಲ್ಲದೇ
-0.1249 ಇಂಧನವಾಗಿ ಅಲ್ಲದೇ ಕಾಗದ
-0.1249 ಅಲ್ಲದೇ ಕಾಗದ ತಯಾರಿಕಾ
-0.1249 ಕಾಗದ ತಯಾರಿಕಾ ಕಾರ್ಖಾನೆಯಲ್ಲೂ
-0.1249 ತಯಾರಿಕಾ ಕಾರ್ಖಾನೆಯಲ್ಲೂ ಸಹ
-0.1249 ಕಾರ್ಖಾನೆಯಲ್ಲೂ ಸಹ ಬಳಸುತ್ತಾರೆ
-0.1249 ಸಹ ಬಳಸುತ್ತಾರೆ </s>
-0.1249 <s> ಕಣ್ಣು ಮತ್ತು
-0.1249 ಕಣ್ಣು ಮತ್ತು ಕಿವಿ
-0.1249 ಮತ್ತು ಕಿವಿ ತಜ್ಞ
-0.1249 ಕಿವಿ ತಜ್ಞ ವೈದ್ಯರನ್ನು
-0.1249 ತಜ್ಞ ವೈದ್ಯರನ್ನು ಕಾಣಬೇಕು
-0.1249 ವೈದ್ಯರನ್ನು ಕಾಣಬೇಕು </s>
-0.1249 <s> ಅಜ್ಜನ ಮನೆಯ
-0.1249 ಅಜ್ಜನ ಮನೆಯ ಹಿಂಬದಿಗೆ
-0.1249 ಮನೆಯ ಹಿಂಬದಿಗೆ ಗೇರುಹಣ್ಣಿನ
-0.1249 ಹಿಂಬದಿಗೆ ಗೇರುಹಣ್ಣಿನ ಮರಗಳಿದ್ದ
-0.1249 ಗೇರುಹಣ್ಣಿನ ಮರಗಳಿದ್ದ ದೊಡ್ಡ
-0.1249 ಮರಗಳಿದ್ದ ದೊಡ್ಡ ಹಾಡಿ
-0.1249 ದೊಡ್ಡ ಹಾಡಿ ಇತ್ತು
-0.1249 ಹಾಡಿ ಇತ್ತು </s>
-0.1249 <s> ಆಗ ಗೋಡಂಬಿಯ
-0.1249 ಆಗ ಗೋಡಂಬಿಯ ಹಣ್ಣುಗಳು
-0.1249 ಗೋಡಂಬಿಯ ಹಣ್ಣುಗಳು ಉದುರಿ
-0.1249 ಹಣ್ಣುಗಳು ಉದುರಿ ನೆಲದ
-0.1249 ಉದುರಿ ನೆಲದ ಮೇಲೆ
-0.1249 ನೆಲದ ಮೇಲೆ ಬೀಳುತ್ತಿದ್ದುವು
-0.1249 ಮೇಲೆ ಬೀಳುತ್ತಿದ್ದುವು </s>
-0.1249 <s> ಬೇಸಿಗೆಯ ಸಮಯ
-0.1249 ಬೇಸಿಗೆಯ ಸಮಯ ಮನೆಯ
-0.1249 ಸಮಯ ಮನೆಯ ಎದುರು
-0.1249 ಮನೆಯ ಎದುರು ವಿಶಾಲವಾದ
-0.1249 ಎದುರು ವಿಶಾಲವಾದ ಚಪ್ಪರಹಾಕಿ
-0.1249 ವಿಶಾಲವಾದ ಚಪ್ಪರಹಾಕಿ ಅದಕ್ಕೆ
-0.1249 ಚಪ್ಪರಹಾಕಿ ಅದಕ್ಕೆ ತೆಂಗಿನ
-0.1249 ಅದಕ್ಕೆ ತೆಂಗಿನ ಮಡಲು
-0.1249 ತೆಂಗಿನ ಮಡಲು ಹೊಚ್ಚುತ್ತಾ
-0.1249 ಮಡಲು ಹೊಚ್ಚುತ್ತಾ ಇದ್ದರು
-0.1249 ಹೊಚ್ಚುತ್ತಾ ಇದ್ದರು </s>
-0.1249 <s> ಇವುಗಳ ಬಗ್ಗೆಯೇ
-0.1249 ಇವುಗಳ ಬಗ್ಗೆಯೇ ಮುಂದಿನ
-0.1249 ಬಗ್ಗೆಯೇ ಮುಂದಿನ ವರ್ಷದವರೆಗೂ
-0.1249 ಮುಂದಿನ ವರ್ಷದವರೆಗೂ ನಮ್ಮ
-0.1249 ವರ್ಷದವರೆಗೂ ನಮ್ಮ ಹಳ್ಳಿಯ
-0.1249 ನಮ್ಮ ಹಳ್ಳಿಯ ಜನರು
-0.1249 ಹಳ್ಳಿಯ ಜನರು ಮಾತನಾಡುತ್ತಿದ್ದರು
-0.1249 ಜನರು ಮಾತನಾಡುತ್ತಿದ್ದರು </s>
-0.4260 <s> ಏಕೆಂದರೆ ಜಾತಿವಾದಿ
-0.1249 ಏಕೆಂದರೆ ಜಾತಿವಾದಿ ಮತ್ತು
-0.1249 ಜಾತಿವಾದಿ ಮತ್ತು ಕೋಮುವಾದಿ
-0.1249 ಮತ್ತು ಕೋಮುವಾದಿ ಶಕ್ತಿಗಳು
-0.1249 ಕೋಮುವಾದಿ ಶಕ್ತಿಗಳು ಒಂದಾಗಿ
-0.1249 ಶಕ್ತಿಗಳು ಒಂದಾಗಿ ತಮ್ಮ
-0.1249 ಒಂದಾಗಿ ತಮ್ಮ ಆಧಿಪತ್ಯವನ್ನು
-0.1249 ತಮ್ಮ ಆಧಿಪತ್ಯವನ್ನು ಈ
-0.1249 ಆಧಿಪತ್ಯವನ್ನು ಈ ರಾಷ್ಟ್ರದಲ್ಲಿ
-0.1249 ಈ ರಾಷ್ಟ್ರದಲ್ಲಿ ಸ್ಥಾಪಿಸಿಕೊಳ್ಳುತ್ತಿವೆ
-0.1249 ರಾಷ್ಟ್ರದಲ್ಲಿ ಸ್ಥಾಪಿಸಿಕೊಳ್ಳುತ್ತಿವೆ </s>
-0.1249 <s> ಒಂದು ರೀತಿಯ
-0.1249 ಒಂದು ರೀತಿಯ ಬೆಳಗಾವಿ
-0.1249 ರೀತಿಯ ಬೆಳಗಾವಿ ಜಿಲ್ಲೆಯ
-0.1249 ಬೆಳಗಾವಿ ಜಿಲ್ಲೆಯ ವೀರಶೈವಮಠಗಳಿಗೆ
-0.1249 ಜಿಲ್ಲೆಯ ವೀರಶೈವಮಠಗಳಿಗೆ ಪರಂಪರೆಯ
-0.1249 ವೀರಶೈವಮಠಗಳಿಗೆ ಪರಂಪರೆಯ ಮೂಲ
-0.1249 ಪರಂಪರೆಯ ಮೂಲ ಅರ್ಜುನವಾಡ
-0.1249 ಮೂಲ ಅರ್ಜುನವಾಡ ಹುಕ್ಕೇರಿ
-0.1249 ಅರ್ಜುನವಾಡ ಹುಕ್ಕೇರಿ </s>
-0.1249 <s> ಕವಿಳಾಸಪುರ ಈಗ
-0.1249 ಕವಿಳಾಸಪುರ ಈಗ ಹಾಳಾಗಿದ್ದು
-0.1249 ಈಗ ಹಾಳಾಗಿದ್ದು ಪ್ರಸ್ತುತ
-0.1249 ಹಾಳಾಗಿದ್ದು ಪ್ರಸ್ತುತ ಅರ್ಜುನವಾಡಿ
-0.1249 ಪ್ರಸ್ತುತ ಅರ್ಜುನವಾಡಿ ಗ್ರಾಮದ
-0.1249 ಅರ್ಜುನವಾಡಿ ಗ್ರಾಮದ ಸೀಮೆಯಲ್ಲಿದೆ
-0.1249 ಗ್ರಾಮದ ಸೀಮೆಯಲ್ಲಿದೆ </s>
-0.1249 <s> ಪ್ರಾಣಿ ಹಿಂಸೆಯನ್ನು
-0.1249 ಪ್ರಾಣಿ ಹಿಂಸೆಯನ್ನು ವಿರೋಧಿಸುತ್ತಿದ್ದ
-0.1249 ಹಿಂಸೆಯನ್ನು ವಿರೋಧಿಸುತ್ತಿದ್ದ ತಿಪ್ಪಯ್ಯ
-0.1249 ವಿರೋಧಿಸುತ್ತಿದ್ದ ತಿಪ್ಪಯ್ಯ ಮೂಢನಂಬಿಕೆ
-0.1249 ತಿಪ್ಪಯ್ಯ ಮೂಢನಂಬಿಕೆ ಕಂದಾಚಾರಗಳನ್ನು
-0.1249 ಮೂಢನಂಬಿಕೆ ಕಂದಾಚಾರಗಳನ್ನು ಲೆಕ್ಕಿಸುತ್ತಿರಲಿಲ್ಲ
-0.1249 ಕಂದಾಚಾರಗಳನ್ನು ಲೆಕ್ಕಿಸುತ್ತಿರಲಿಲ್ಲ </s>
-0.1249 <s> ದೊರೆ ಪರಿವಾರದವರು
-0.1249 ದೊರೆ ಪರಿವಾರದವರು ಮನೆದೇವರಾದ
-0.1249 ಪರಿವಾರದವರು ಮನೆದೇವರಾದ ಶ್ರೀಶೈಲ
-0.1249 ಮನೆದೇವರಾದ ಶ್ರೀಶೈಲ ಮಲ್ಲಿಕಾರ್ಜುನನನ್ನು
-0.1249 ಶ್ರೀಶೈಲ ಮಲ್ಲಿಕಾರ್ಜುನನನ್ನು ಪೂಜಿಸಿದರು
-0.1249 ಮಲ್ಲಿಕಾರ್ಜುನನನ್ನು ಪೂಜಿಸಿದರು </s>
-0.1249 <s> ಎಲ್ಲಾ ಜಾತಿ
-0.1249 ಎಲ್ಲಾ ಜಾತಿ ಧರ್ಮೀಯರು
-0.1249 ಜಾತಿ ಧರ್ಮೀಯರು ಮುಕ್ತವಾಗಿ
-0.1249 ಧರ್ಮೀಯರು ಮುಕ್ತವಾಗಿ ಪ್ರವೇಶಿಸುತ್ತಿದ್ದು
-0.1249 ಮುಕ್ತವಾಗಿ ಪ್ರವೇಶಿಸುತ್ತಿದ್ದು ಮಾಂಸಹಾರವನ್ನು
-0.1249 ಪ್ರವೇಶಿಸುತ್ತಿದ್ದು ಮಾಂಸಹಾರವನ್ನು ಈ
-0.1249 ಮಾಂಸಹಾರವನ್ನು ಈ ದೇವಾಲಯದ
-0.1249 ಈ ದೇವಾಲಯದ ಹೊರಗೆ
-0.1249 ದೇವಾಲಯದ ಹೊರಗೆ ಮಾಡುತ್ತಾರೆ
-0.1249 ಹೊರಗೆ ಮಾಡುತ್ತಾರೆ </s>
-0.1249 <s> ತೇರನ್ನು ಎಳೆಯುವ
-0.1249 ತೇರನ್ನು ಎಳೆಯುವ ಮುನ್ನ
-0.1249 ಎಳೆಯುವ ಮುನ್ನ ಅಂಜನೇಯನ
-0.1249 ಮುನ್ನ ಅಂಜನೇಯನ ಪೂಜೆ
-0.1249 ಅಂಜನೇಯನ ಪೂಜೆ ಮಾಡುವರು
-0.1249 ಪೂಜೆ ಮಾಡುವರು </s>
-0.8239 <s> ಈ ಹಿರೇಹಳ್ಳಿಯಲ್ಲಿ
-0.1249 ಈ ಹಿರೇಹಳ್ಳಿಯಲ್ಲಿ ಸೂರಿನಂದನ
-0.1249 ಹಿರೇಹಳ್ಳಿಯಲ್ಲಿ ಸೂರಿನಂದನ ಅಲಗನ್ನು
-0.1249 ಸೂರಿನಂದನ ಅಲಗನ್ನು ಪ್ರತಿಷ್ಠಾಪಿಸಿ
-0.1249 ಅಲಗನ್ನು ಪ್ರತಿಷ್ಠಾಪಿಸಿ ದಡ್ಡಿ
-0.1249 ಪ್ರತಿಷ್ಠಾಪಿಸಿ ದಡ್ಡಿ ಸೂರನಾಕ
-0.1249 ದಡ್ಡಿ ಸೂರನಾಕ ದೇವರೆಂದು
-0.1249 ಸೂರನಾಕ ದೇವರೆಂದು ಕರೆದುಕೊಂಡರು
-0.1249 ದೇವರೆಂದು ಕರೆದುಕೊಂಡರು </s>
-0.9031 <s> ಇಲ್ಲಿ ಮ್ಯಾಸನಾಯಕ
-0.1249 ಇಲ್ಲಿ ಮ್ಯಾಸನಾಯಕ ಕುಲದೇವತೆ
-0.1249 ಮ್ಯಾಸನಾಯಕ ಕುಲದೇವತೆ ಕಾಟಮ್ಮ
-0.1249 ಕುಲದೇವತೆ ಕಾಟಮ್ಮ ನೆಲೆಸಿರುವಳು
-0.1249 ಕಾಟಮ್ಮ ನೆಲೆಸಿರುವಳು </s>
-0.1249 <s> ಚಳ್ಳಕೆರೆ ತಾಲೂಕಿನಲ್ಲಿ
-0.1249 ಚಳ್ಳಕೆರೆ ತಾಲೂಕಿನಲ್ಲಿ ಕಾಲುವೆಹಳ್ಳಿ
-0.1249 ತಾಲೂಕಿನಲ್ಲಿ ಕಾಲುವೆಹಳ್ಳಿ ಎಂಬ
-0.1249 ಕಾಲುವೆಹಳ್ಳಿ ಎಂಬ ಗ್ರಾಮವಿದೆ
-0.1249 ಎಂಬ ಗ್ರಾಮವಿದೆ </s>
-0.1249 <s> ನಾಯಕನಹಟ್ಟಿ ಪಾಳೆಯಗಾರ
-0.1249 ನಾಯಕನಹಟ್ಟಿ ಪಾಳೆಯಗಾರ ಬೋಡಿಮಲ್ಲಪ್ಪನಾಯಕ
-0.1249 ಪಾಳೆಯಗಾರ ಬೋಡಿಮಲ್ಲಪ್ಪನಾಯಕ ಈ
-0.1249 ಬೋಡಿಮಲ್ಲಪ್ಪನಾಯಕ ಈ ಗ್ರಾಮವನ್ನು
-0.1249 ಈ ಗ್ರಾಮವನ್ನು ಸ್ಥಾಪಿಸಿದನು
-0.1249 ಗ್ರಾಮವನ್ನು ಸ್ಥಾಪಿಸಿದನು </s>
-0.1249 <s> ಯರಮಂಚಿನಾಯಕ ತನ್ನ
-0.1249 ಯರಮಂಚಿನಾಯಕ ತನ್ನ ಜನಾಂಗದ
-0.1249 ತನ್ನ ಜನಾಂಗದ ಅಭಿವೃದ್ಧಿ
-0.1249 ಜನಾಂಗದ ಅಭಿವೃದ್ಧಿ ಆಗಬೇಕಾದರೆ
-0.1249 ಅಭಿವೃದ್ಧಿ ಆಗಬೇಕಾದರೆ ಎಲ್ಲರೂ
-0.1249 ಆಗಬೇಕಾದರೆ ಎಲ್ಲರೂ ಐಕ್ಯತೆಯಿಂದ
-0.1249 ಎಲ್ಲರೂ ಐಕ್ಯತೆಯಿಂದ ಇರಬೇಕು
-0.1249 ಐಕ್ಯತೆಯಿಂದ ಇರಬೇಕು ಎನ್ನುತ್ತಾರೆ
-0.1249 ಇರಬೇಕು ಎನ್ನುತ್ತಾರೆ </s>
-0.9031 <s> ಇಲ್ಲಿ ತಮ್ಮ
-0.1249 ಇಲ್ಲಿ ತಮ್ಮ ಸಂಪ್ರದಾಯಗಳ
-0.1249 ತಮ್ಮ ಸಂಪ್ರದಾಯಗಳ ವಿರುದ್ಧವೇ
-0.1249 ಸಂಪ್ರದಾಯಗಳ ವಿರುದ್ಧವೇ ಮತ್ತೊಬ್ಬರು
-0.1249 ವಿರುದ್ಧವೇ ಮತ್ತೊಬ್ಬರು ಲೋಪ
-0.1249 ಮತ್ತೊಬ್ಬರು ಲೋಪ ಮಾಡುವುದುಂಟು
-0.1249 ಲೋಪ ಮಾಡುವುದುಂಟು </s>
-0.1249 <s> ಕೊಡಗುಬೊಮ್ಮನಿಂದಲೇ ತಂಗಿ
-0.1249 ಕೊಡಗುಬೊಮ್ಮನಿಂದಲೇ ತಂಗಿ ದೇವಮ್ಮ
-0.1249 ತಂಗಿ ದೇವಮ್ಮ ದುರಂತ
-0.1249 ದೇವಮ್ಮ ದುರಂತ ಸಾವನ್ನಪ್ಪುತ್ತಾಳೆ
-0.1249 ದುರಂತ ಸಾವನ್ನಪ್ಪುತ್ತಾಳೆ </s>
-0.1249 <s> ಜಾಗತಿಕ ಯುದ್ಧ
-0.1249 ಜಾಗತಿಕ ಯುದ್ಧ ಅದಕ್ಕೊಂದು
-0.1249 ಯುದ್ಧ ಅದಕ್ಕೊಂದು ವೇದಿಕೆಯಾಗಿ
-0.1249 ಅದಕ್ಕೊಂದು ವೇದಿಕೆಯಾಗಿ ದೊರೆಯಿತು
-0.1249 ವೇದಿಕೆಯಾಗಿ ದೊರೆಯಿತು </s>
-0.1249 <s> ಅಟ್ಟೋಮನ್ ಸಾಮ್ರಾಜ್ಯದ
-0.1249 ಅಟ್ಟೋಮನ್ ಸಾಮ್ರಾಜ್ಯದ ಅಧೀನದಿಂದ
-0.1249 ಸಾಮ್ರಾಜ್ಯದ ಅಧೀನದಿಂದ ಸ್ವತಂತ್ರನಾಗುವ
-0.1249 ಅಧೀನದಿಂದ ಸ್ವತಂತ್ರನಾಗುವ ಹೆಬ್ಬಯಕೆಯನ್ನು
-0.1249 ಸ್ವತಂತ್ರನಾಗುವ ಹೆಬ್ಬಯಕೆಯನ್ನು ವ್ಯಕ್ತಪಡಿಸುವುದರಿಂದ
-0.1249 ಹೆಬ್ಬಯಕೆಯನ್ನು ವ್ಯಕ್ತಪಡಿಸುವುದರಿಂದ ಬ್ರಿಟಿಷರು
-0.1249 ವ್ಯಕ್ತಪಡಿಸುವುದರಿಂದ ಬ್ರಿಟಿಷರು ಅವನೊಂದಿಗೆ
-0.1249 ಬ್ರಿಟಿಷರು ಅವನೊಂದಿಗೆ ರಾಜತಾಂತ್ರಿಕ
-0.1249 ಅವನೊಂದಿಗೆ ರಾಜತಾಂತ್ರಿಕ ಮಾರ್ಗವನ್ನು
-0.1249 ರಾಜತಾಂತ್ರಿಕ ಮಾರ್ಗವನ್ನು ಪಾಲಿಸುತ್ತಾರೆ
-0.1249 ಮಾರ್ಗವನ್ನು ಪಾಲಿಸುತ್ತಾರೆ </s>
-0.1249 <s> ಒಪ್ಪಂದದ ಪ್ರಕಾರ
-0.1249 ಒಪ್ಪಂದದ ಪ್ರಕಾರ ಸೌದಿ
-0.1249 ಪ್ರಕಾರ ಸೌದಿ ಅರಸನ
-0.1249 ಸೌದಿ ಅರಸನ ಅಸ್ತಿತ್ವವನ್ನು
-0.1249 ಅರಸನ ಅಸ್ತಿತ್ವವನ್ನು ಬ್ರಿಟಿಷರು
-0.1249 ಅಸ್ತಿತ್ವವನ್ನು ಬ್ರಿಟಿಷರು ಗೌರವಿಸಿದರು
-0.1249 ಬ್ರಿಟಿಷರು ಗೌರವಿಸಿದರು </s>
-0.1249 <s> ಅದಕ್ಕೆ ಗೌರವವೂ
-0.1249 ಅದಕ್ಕೆ ಗೌರವವೂ ಕೂಡ
-0.1249 ಗೌರವವೂ ಕೂಡ ಅಂತಾರಾಷ್ಟ್ರೀಯವಾಗಿ
-0.1249 ಕೂಡ ಅಂತಾರಾಷ್ಟ್ರೀಯವಾಗಿ ಬ್ರಿಟಿಷರ
-0.1249 ಅಂತಾರಾಷ್ಟ್ರೀಯವಾಗಿ ಬ್ರಿಟಿಷರ ಮೂಲಕ
-0.1249 ಬ್ರಿಟಿಷರ ಮೂಲಕ ದೊರೆಯಿತು
-0.1249 ಮೂಲಕ ದೊರೆಯಿತು </s>
-0.1249 <s> ಹಷಿಮೈಟ್ಗಳ ವಿರುದ್ಧ
-0.1249 ಹಷಿಮೈಟ್ಗಳ ವಿರುದ್ಧ ಸಾಧಿಸಿದ
-0.1249 ವಿರುದ್ಧ ಸಾಧಿಸಿದ ಜಯದೊಂದಿಗೆ
-0.1249 ಸಾಧಿಸಿದ ಜಯದೊಂದಿಗೆ ಎರಡು
-0.1249 ಜಯದೊಂದಿಗೆ ಎರಡು ಮುಖ್ಯ
-0.1249 ಎರಡು ಮುಖ್ಯ ಗುರಿಗಳನ್ನು
-0.1249 ಮುಖ್ಯ ಗುರಿಗಳನ್ನು ರೂಪಿಸಿಕೊಂಡ
-0.1249 ಗುರಿಗಳನ್ನು ರೂಪಿಸಿಕೊಂಡ </s>
-0.9031 <s> ಇಲ್ಲಿ ನಾಲ್ಕು
-0.1249 ಇಲ್ಲಿ ನಾಲ್ಕು ಉದ್ದೇಶಗಳನ್ನು
-0.1249 ನಾಲ್ಕು ಉದ್ದೇಶಗಳನ್ನು ಅವನು
-0.1249 ಉದ್ದೇಶಗಳನ್ನು ಅವನು ಹೊಂದಿದ್ದನು
-0.1249 ಅವನು ಹೊಂದಿದ್ದನು </s>
-0.1249 <s> ಯುರೋಪಿನ ವಸಾಹತುಶಾಹಿ
-0.1249 ಯುರೋಪಿನ ವಸಾಹತುಶಾಹಿ ರಾಷ್ಟ್ರಗಳಿಂದ
-0.1249 ವಸಾಹತುಶಾಹಿ ರಾಷ್ಟ್ರಗಳಿಂದ ತನ್ನ
-0.1249 ರಾಷ್ಟ್ರಗಳಿಂದ ತನ್ನ ಇರುವಿಕೆಯನ್ನು
-0.1249 ತನ್ನ ಇರುವಿಕೆಯನ್ನು ಗುರುತಿಸಿಕೊಂಡು
-0.1249 ಇರುವಿಕೆಯನ್ನು ಗುರುತಿಸಿಕೊಂಡು ಗೌರವಿಸಿಕೊಳ್ಳುವುದು
-0.1249 ಗುರುತಿಸಿಕೊಂಡು ಗೌರವಿಸಿಕೊಳ್ಳುವುದು </s>
-0.1249 <s> ಅವನು ಇಡೀ
-0.1249 ಅವನು ಇಡೀ ಅರಬ್
-0.1249 ಇಡೀ ಅರಬ್ ಜಗತ್ತಿನಲ್ಲಿ
-0.1249 ಅರಬ್ ಜಗತ್ತಿನಲ್ಲಿ ತಾನೆಯ
-0.1249 ಜಗತ್ತಿನಲ್ಲಿ ತಾನೆಯ ಸಾರ್ವ
-0.1249 ತಾನೆಯ ಸಾರ್ವ ಭೌಮಸ್ಥಳೀಯ
-0.1249 ಸಾರ್ವ ಭೌಮಸ್ಥಳೀಯ ರಾಜಕೀಯದಲ್ಲಿ
-0.1249 ಭೌಮಸ್ಥಳೀಯ ರಾಜಕೀಯದಲ್ಲಿ ಮಹಾನ್
-0.1249 ರಾಜಕೀಯದಲ್ಲಿ ಮಹಾನ್ ಶಕ್ತಿ
-0.1249 ಮಹಾನ್ ಶಕ್ತಿ ಎಂದು
-0.1249 ಶಕ್ತಿ ಎಂದು ಗುರುತಿಸಿಕೊಳ್ಳಬೇಕಾಗಿದೆ
-0.1249 ಎಂದು ಗುರುತಿಸಿಕೊಳ್ಳಬೇಕಾಗಿದೆ </s>
-0.8239 <s> ಈ ದೃಷ್ಟಿಯಿಂದ
-0.1249 ಈ ದೃಷ್ಟಿಯಿಂದ ಫ್ರೆಂಚ್
-0.1249 ದೃಷ್ಟಿಯಿಂದ ಫ್ರೆಂಚ್ ಮತ್ತು
-0.1249 ಫ್ರೆಂಚ್ ಮತ್ತು ಬ್ರಿಟಿಷರನ್ನು
-0.1249 ಮತ್ತು ಬ್ರಿಟಿಷರನ್ನು ಹೆಚ್ಚು
-0.1249 ಬ್ರಿಟಿಷರನ್ನು ಹೆಚ್ಚು ಹತ್ತಿರ
-0.1249 ಹೆಚ್ಚು ಹತ್ತಿರ ಸೇರಿಸಿಕೊಳ್ಳುವುದು
-0.1249 ಹತ್ತಿರ ಸೇರಿಸಿಕೊಳ್ಳುವುದು ತಪ್ಪಾಗುತ್ತದೆ
-0.1249 ಸೇರಿಸಿಕೊಳ್ಳುವುದು ತಪ್ಪಾಗುತ್ತದೆ </s>
-0.4260 <s> ಏಕೆಂದರೆ ಈ
-0.1249 ಏಕೆಂದರೆ ಈ ಎರಡು
-0.1249 ಈ ಎರಡು ವಸಾಹತುಶಾಹಿ
-0.1249 ಎರಡು ವಸಾಹತುಶಾಹಿ ರಾಷ್ಟ್ರಗಳ
-0.1249 ವಸಾಹತುಶಾಹಿ ರಾಷ್ಟ್ರಗಳ ವಿರುದ್ಧ
-0.1249 ರಾಷ್ಟ್ರಗಳ ವಿರುದ್ಧ ಅರಬರು
-0.1249 ವಿರುದ್ಧ ಅರಬರು ಸಾರ್ವತ್ರಿಕವಾಗಿ
-0.1249 ಅರಬರು ಸಾರ್ವತ್ರಿಕವಾಗಿ ರಾಷ್ಟ್ರೀಯ
-0.1249 ಸಾರ್ವತ್ರಿಕವಾಗಿ ರಾಷ್ಟ್ರೀಯ ಅಂದೋಲನವನ್ನೇ
-0.1249 ರಾಷ್ಟ್ರೀಯ ಅಂದೋಲನವನ್ನೇ ಅರಂಭಿಸಿದ್ದಾರೆ
-0.1249 ಅಂದೋಲನವನ್ನೇ ಅರಂಭಿಸಿದ್ದಾರೆ </s>
-0.1249 <s> ಸಮಾಜವಾದಿ ಅರಬ್
-0.1249 ಸಮಾಜವಾದಿ ಅರಬ್ ರಾಜ್ಯಗಳು
-0.1249 ಅರಬ್ ರಾಜ್ಯಗಳು ಸೌದಿ
-0.1249 ರಾಜ್ಯಗಳು ಸೌದಿ ಸಾಮ್ರಾಜ್ಯದಲ್ಲಿ
-0.1249 ಸೌದಿ ಸಾಮ್ರಾಜ್ಯದಲ್ಲಿ ಮುಂದುವರಿದಿರುವ
-0.1249 ಸಾಮ್ರಾಜ್ಯದಲ್ಲಿ ಮುಂದುವರಿದಿರುವ ಅರಸೊತ್ತಿಗೆಗೆ
-0.1249 ಮುಂದುವರಿದಿರುವ ಅರಸೊತ್ತಿಗೆಗೆ ಸಮಾನ
-0.1249 ಅರಸೊತ್ತಿಗೆಗೆ ಸಮಾನ ಶಕ್ತಿಯಾಗಿ
-0.1249 ಸಮಾನ ಶಕ್ತಿಯಾಗಿ ಸ್ಪರ್ಧೆಗಿಳಿದವು
-0.1249 ಶಕ್ತಿಯಾಗಿ ಸ್ಪರ್ಧೆಗಿಳಿದವು </s>
-0.1249 <s> ಪ್ರಾದೇಶಿಕವಾಗಿ ತೈಲ
-0.1249 ಪ್ರಾದೇಶಿಕವಾಗಿ ತೈಲ ಸಂಪನ್ಮೂಲದಿಂದ
-0.1249 ತೈಲ ಸಂಪನ್ಮೂಲದಿಂದ ಆದಾಯವನ್ನು
-0.1249 ಸಂಪನ್ಮೂಲದಿಂದ ಆದಾಯವನ್ನು ವೃದ್ದಿಸಿಕೊಳ್ಳಲು
-0.1249 ಆದಾಯವನ್ನು ವೃದ್ದಿಸಿಕೊಳ್ಳಲು ಅಮೆರಿಕದಂತಹ
-0.1249 ವೃದ್ದಿಸಿಕೊಳ್ಳಲು ಅಮೆರಿಕದಂತಹ ರಾಷ್ಟ್ರಗಳ
-0.1249 ಅಮೆರಿಕದಂತಹ ರಾಷ್ಟ್ರಗಳ ತೈಲ
-0.1249 ರಾಷ್ಟ್ರಗಳ ತೈಲ ಕಂಪೆನಿಗಳೊಂದಿಗೆ
-0.1249 ತೈಲ ಕಂಪೆನಿಗಳೊಂದಿಗೆ ಒಡಂಬಡಿಕೆ
-0.1249 ಕಂಪೆನಿಗಳೊಂದಿಗೆ ಒಡಂಬಡಿಕೆ ಮಾಡಿಕೊಂಡಿತ್ತು
-0.1249 ಒಡಂಬಡಿಕೆ ಮಾಡಿಕೊಂಡಿತ್ತು </s>
-0.1249 <s> ಇದರಿಂದ ಸೌದಿ
-0.1249 ಇದರಿಂದ ಸೌದಿ ಖಜನೆಗೆ
-0.1249 ಸೌದಿ ಖಜನೆಗೆ ನಿರಂತರ
-0.1249 ಖಜನೆಗೆ ನಿರಂತರ ವಾಗಿ
-0.1249 ನಿರಂತರ ವಾಗಿ ಸಂಪತ್ತು
-0.1249 ವಾಗಿ ಸಂಪತ್ತು ಹರಿದು
-0.1249 ಸಂಪತ್ತು ಹರಿದು ಬರುವಂತಾಯಿತು
-0.1249 ಹರಿದು ಬರುವಂತಾಯಿತು </s>
-0.1249 <s> ಇನ್ನೊಂದು ಪೂರ್ಣಪ್ರಮಾಣದ
-0.1249 ಇನ್ನೊಂದು ಪೂರ್ಣಪ್ರಮಾಣದ ಅರಬ್ಇಸ್ರೇಲಿ
-0.1249 ಪೂರ್ಣಪ್ರಮಾಣದ ಅರಬ್ಇಸ್ರೇಲಿ ಯುದ್ಧ
-0.1249 ಅರಬ್ಇಸ್ರೇಲಿ ಯುದ್ಧ ಆರಂಭವಾಗುವುದನ್ನು
-0.1249 ಯುದ್ಧ ಆರಂಭವಾಗುವುದನ್ನು ತಡೆಯುವುದು
-0.1249 ಆರಂಭವಾಗುವುದನ್ನು ತಡೆಯುವುದು </s>
-0.1249 <s> ಇಂತಹ ಪ್ರಮಾದ
-0.1249 ಇಂತಹ ಪ್ರಮಾದ ಲಿಬಿಯಾದಿಂದ
-0.1249 ಪ್ರಮಾದ ಲಿಬಿಯಾದಿಂದ ಆಗುವ
-0.1249 ಲಿಬಿಯಾದಿಂದ ಆಗುವ ಎಲ್ಲ
-0.1249 ಆಗುವ ಎಲ್ಲ ಲಕ್ಷಣಗಳಿದ್ದವು
-0.1249 ಎಲ್ಲ ಲಕ್ಷಣಗಳಿದ್ದವು </s>
-0.1249 <s> ಪ್ಯಾಲೇಸ್ತೀನಿ ಅರಬ್ರ
-0.1249 ಪ್ಯಾಲೇಸ್ತೀನಿ ಅರಬ್ರ ಜನ್ಮಸಿದ್ಧ
-0.1249 ಅರಬ್ರ ಜನ್ಮಸಿದ್ಧ ಹಕ್ಕನ್ನು
-0.1249 ಜನ್ಮಸಿದ್ಧ ಹಕ್ಕನ್ನು ರಕ್ಷಿಸುವುದು
-0.1249 ಹಕ್ಕನ್ನು ರಕ್ಷಿಸುವುದು </s>
-0.1249 <s> ಪೂರ್ವ ಜೆರುಸಲೇಂನಲ್ಲಿ
-0.1249 ಪೂರ್ವ ಜೆರುಸಲೇಂನಲ್ಲಿ ಅರಬ್
-0.1249 ಜೆರುಸಲೇಂನಲ್ಲಿ ಅರಬ್ ಆಡಳಿತದ
-0.1249 ಅರಬ್ ಆಡಳಿತದ ಸ್ಥಾಪನೆ
-0.1249 ಆಡಳಿತದ ಸ್ಥಾಪನೆ ಆರಂಭಿಸುವುದು
-0.1249 ಸ್ಥಾಪನೆ ಆರಂಭಿಸುವುದು </s>
-0.8239 <s> ಈ ನಡುವೆ
-0.1249 ಈ ನಡುವೆ ಅನ್ವರ್
-0.1249 ನಡುವೆ ಅನ್ವರ್ ಸಾಧತ್ನ
-0.1249 ಅನ್ವರ್ ಸಾಧತ್ನ ಅಕಾಲ
-0.1249 ಸಾಧತ್ನ ಅಕಾಲ ಮರಣವು
-0.1249 ಅಕಾಲ ಮರಣವು ಅರಬ್
-0.1249 ಮರಣವು ಅರಬ್ ಜಗತ್ತಿನ
-0.1249 ಅರಬ್ ಜಗತ್ತಿನ ರಾಜಕೀಯ
-0.1249 ಜಗತ್ತಿನ ರಾಜಕೀಯ ವಲಯದಲ್ಲಿ
-0.1249 ರಾಜಕೀಯ ವಲಯದಲ್ಲಿ ಬದಲಾವಣೆ
-0.1249 ವಲಯದಲ್ಲಿ ಬದಲಾವಣೆ ತಂದಿತು
-0.1249 ಬದಲಾವಣೆ ತಂದಿತು </s>
-0.1249 <s> ಇದನ್ನು ಸೌದಿ
-0.1249 ಇದನ್ನು ಸೌದಿ ನೇತೃತ್ವದಲ್ಲಿ
-0.1249 ಸೌದಿ ನೇತೃತ್ವದಲ್ಲಿ ಅರಬ್
-0.1249 ನೇತೃತ್ವದಲ್ಲಿ ಅರಬ್ ಸಮುದಾಯ
-0.1249 ಅರಬ್ ಸಮುದಾಯ ಖಂಡಿಸಿತ್ತು
-0.1249 ಸಮುದಾಯ ಖಂಡಿಸಿತ್ತು </s>
-0.1249 <s> ಸೌದಿ ಸರಕಾರವೇ
-0.1249 ಸೌದಿ ಸರಕಾರವೇ ಈ
-0.1249 ಸರಕಾರವೇ ಈ ತರಹದ
-0.1249 ಈ ತರಹದ ಆಲೋಚನೆ
-0.1249 ತರಹದ ಆಲೋಚನೆ ಮಾಡಿ
-0.1249 ಆಲೋಚನೆ ಮಾಡಿ ಅಲ್ಲಿಯ
-0.1249 ಮಾಡಿ ಅಲ್ಲಿಯ ರಾಜಕುಮಾರ
-0.1249 ಅಲ್ಲಿಯ ರಾಜಕುಮಾರ ಸೌದ್ಅಲ್ಪೈಸಲ್
-0.1249 ರಾಜಕುಮಾರ ಸೌದ್ಅಲ್ಪೈಸಲ್ ಹೀಗೆ
-0.1249 ಸೌದ್ಅಲ್ಪೈಸಲ್ ಹೀಗೆ ಹೇಳುತ್ತಾನೆ
-0.1249 ಹೀಗೆ ಹೇಳುತ್ತಾನೆ </s>
-0.8239 <s> ಈ ಎಲ್ಲ
-0.1249 ಈ ಎಲ್ಲ ದೇಶಗಳು
-0.1249 ಎಲ್ಲ ದೇಶಗಳು ಈಜಿಪ್ಟ್
-0.1249 ದೇಶಗಳು ಈಜಿಪ್ಟ್ ಮತ್ತು
-0.1249 ಈಜಿಪ್ಟ್ ಮತ್ತು ಅಮೆರಿಕಗಳಿಂದ
-0.1249 ಮತ್ತು ಅಮೆರಿಕಗಳಿಂದ ಶಾಂತಿ
-0.1249 ಅಮೆರಿಕಗಳಿಂದ ಶಾಂತಿ ಸಂಧಾನವನ್ನು
-0.1249 ಶಾಂತಿ ಸಂಧಾನವನ್ನು ಒಪ್ಪಿಕೊಳ್ಳಲು
-0.1249 ಸಂಧಾನವನ್ನು ಒಪ್ಪಿಕೊಳ್ಳಲು ಒತ್ತಾಯ
-0.1249 ಒಪ್ಪಿಕೊಳ್ಳಲು ಒತ್ತಾಯ ಎದುರಿಸಬೇಕಾಯಿತು
-0.1249 ಒತ್ತಾಯ ಎದುರಿಸಬೇಕಾಯಿತು </s>
-0.1249 <s> ಸಣ್ಣ ಹಾಗೂ
-0.1249 ಸಣ್ಣ ಹಾಗೂ ದೊಡ್ಡ
-0.1249 ಹಾಗೂ ದೊಡ್ಡ ರಾಷ್ಟ್ರಗಳು
-0.1249 ದೊಡ್ಡ ರಾಷ್ಟ್ರಗಳು ಸಂಘದ
-0.1249 ರಾಷ್ಟ್ರಗಳು ಸಂಘದ ವಿಶ್ವಾಸ
-0.1249 ಸಂಘದ ವಿಶ್ವಾಸ ಕಳೆದುಕೊಂಡವು
-0.1249 ವಿಶ್ವಾಸ ಕಳೆದುಕೊಂಡವು </s>
-0.1249 <s> ಎಲ್ಲ ಪ್ರತಿರೋಧಗಳನ್ನು
-0.1249 ಎಲ್ಲ ಪ್ರತಿರೋಧಗಳನ್ನು ಮುರಿದು
-0.1249 ಪ್ರತಿರೋಧಗಳನ್ನು ಮುರಿದು ಪೋಲೆಂಡಿನ
-0.1249 ಮುರಿದು ಪೋಲೆಂಡಿನ ರಾಜಧಾನಿಯಾದ
-0.1249 ಪೋಲೆಂಡಿನ ರಾಜಧಾನಿಯಾದ ವಾರ್ಸೊ
-0.1249 ರಾಜಧಾನಿಯಾದ ವಾರ್ಸೊ ಜರ್ಮನಿಯ
-0.1249 ವಾರ್ಸೊ ಜರ್ಮನಿಯ ವಶವಾಯಿತು
-0.1249 ಜರ್ಮನಿಯ ವಶವಾಯಿತು </s>
-0.1249 <s> ಹಿಟ್ಲರ್ನು ಭೀಕರ
-0.1249 ಹಿಟ್ಲರ್ನು ಭೀಕರ ವಾಯು
-0.1249 ಭೀಕರ ವಾಯು ದಾಳಿಯಿಂದ
-0.1249 ವಾಯು ದಾಳಿಯಿಂದ ಬ್ರಿಟನ್ನಲ್ಲಿ
-0.1249 ದಾಳಿಯಿಂದ ಬ್ರಿಟನ್ನಲ್ಲಿ ವ್ಯಾಪಕ
-0.1249 ಬ್ರಿಟನ್ನಲ್ಲಿ ವ್ಯಾಪಕ ಕಷ್ಟನಷ್ಟಗಳನ್ನು
-0.1249 ವ್ಯಾಪಕ ಕಷ್ಟನಷ್ಟಗಳನ್ನು ಉಂಟುಮಾಡಿದನು
-0.1249 ಕಷ್ಟನಷ್ಟಗಳನ್ನು ಉಂಟುಮಾಡಿದನು </s>
-0.9031 <s> ಇಲ್ಲಿ ಇಟಲಿ
-0.1249 ಇಲ್ಲಿ ಇಟಲಿ ಸೋಲಲಾರಂಭಿಸಿದಾಗ
-0.1249 ಇಟಲಿ ಸೋಲಲಾರಂಭಿಸಿದಾಗ ಜರ್ಮನಿಯು
-0.1249 ಸೋಲಲಾರಂಭಿಸಿದಾಗ ಜರ್ಮನಿಯು ಅದರ
-0.1249 ಜರ್ಮನಿಯು ಅದರ ಸಹಾಯಕ್ಕೆ
-0.1249 ಅದರ ಸಹಾಯಕ್ಕೆ ನಿಂತು
-0.1249 ಸಹಾಯಕ್ಕೆ ನಿಂತು ಮೊದಮೊದಲಿಗೆ
-0.1249 ನಿಂತು ಮೊದಮೊದಲಿಗೆ ಜಯಗಳಿಸಿತು
-0.1249 ಮೊದಮೊದಲಿಗೆ ಜಯಗಳಿಸಿತು </s>
-0.1249 <s> ಪಲಾಯನಗೈದ ಮುಸ್ಸೊಲೊನಿಯು
-0.1249 ಪಲಾಯನಗೈದ ಮುಸ್ಸೊಲೊನಿಯು ಫ್ಯಾಸಿಸ್ಟ್
-0.1249 ಮುಸ್ಸೊಲೊನಿಯು ಫ್ಯಾಸಿಸ್ಟ್ ವಿರೋಧಿಗಳಿಂದ
-0.1249 ಫ್ಯಾಸಿಸ್ಟ್ ವಿರೋಧಿಗಳಿಂದ ದಾರುಣವಾಗಿ
-0.1249 ವಿರೋಧಿಗಳಿಂದ ದಾರುಣವಾಗಿ ಕೊಲೆಯಾದನು
-0.1249 ದಾರುಣವಾಗಿ ಕೊಲೆಯಾದನು </s>
-0.1249 <s> ಆ ಬಳಿಕವೂ
-0.1249 ಆ ಬಳಿಕವೂ ಹಲವೆಡೆಗಳಲ್ಲಿ
-0.1249 ಬಳಿಕವೂ ಹಲವೆಡೆಗಳಲ್ಲಿ ಇಂತಹ
-0.1249 ಹಲವೆಡೆಗಳಲ್ಲಿ ಇಂತಹ ಸಭೆಗಳು
-0.1249 ಇಂತಹ ಸಭೆಗಳು ನಡೆದು
-0.1249 ಸಭೆಗಳು ನಡೆದು ವಿಶ್ವಸಂಸ್ಥೆಯ
-0.1249 ನಡೆದು ವಿಶ್ವಸಂಸ್ಥೆಯ ರೂಪರೇಷೆ
-0.1249 ವಿಶ್ವಸಂಸ್ಥೆಯ ರೂಪರೇಷೆ ಸಿದ್ಧವಾದವು
-0.1249 ರೂಪರೇಷೆ ಸಿದ್ಧವಾದವು </s>
-0.1249 <s> ನಿಯಮದಂತೆ ಸಾಮಾನ್ಯ
-0.1249 ನಿಯಮದಂತೆ ಸಾಮಾನ್ಯ ಸಭೆಯು
-0.1249 ಸಾಮಾನ್ಯ ಸಭೆಯು ವರ್ಷಕ್ಕೊಂದು
-0.1249 ಸಭೆಯು ವರ್ಷಕ್ಕೊಂದು ಬಾರಿ
-0.1249 ವರ್ಷಕ್ಕೊಂದು ಬಾರಿ ಸಭೆ
-0.1249 ಬಾರಿ ಸಭೆ ಸೇರುತ್ತದೆ
-0.1249 ಸಭೆ ಸೇರುತ್ತದೆ </s>
-0.1249 <s> ರಷ್ಯಾದಲ್ಲಿ ಭೂಗತವಾಗಿ
-0.1249 ರಷ್ಯಾದಲ್ಲಿ ಭೂಗತವಾಗಿ ಅಲ್ಪ
-0.1249 ಭೂಗತವಾಗಿ ಅಲ್ಪ ಪ್ರಮಾಣದಲ್ಲಿದ್ದ
-0.1249 ಅಲ್ಪ ಪ್ರಮಾಣದಲ್ಲಿದ್ದ ಅಪರಾಧಭ್ರಷ್ಟಾಚಾರಗಳ
-0.1249 ಪ್ರಮಾಣದಲ್ಲಿದ್ದ ಅಪರಾಧಭ್ರಷ್ಟಾಚಾರಗಳ ಉಭಯ
-0.1249 ಅಪರಾಧಭ್ರಷ್ಟಾಚಾರಗಳ ಉಭಯ ಕಂಟಕಗಳು
-0.1249 ಉಭಯ ಕಂಟಕಗಳು ಈಗ
-0.1249 ಕಂಟಕಗಳು ಈಗ ರಾಜಾರೋಷವಾಗಿ
-0.1249 ಈಗ ರಾಜಾರೋಷವಾಗಿ ವಿಜೃಂಭಿಸುತ್ತಿವೆ
-0.1249 ರಾಜಾರೋಷವಾಗಿ ವಿಜೃಂಭಿಸುತ್ತಿವೆ </s>
-0.1249 <s> ಅಣು ಶಸ್ತ್ರಗಳ
-0.1249 ಅಣು ಶಸ್ತ್ರಗಳ ಬಳಕೆಯ
-0.1249 ಶಸ್ತ್ರಗಳ ಬಳಕೆಯ ಅಪಾಯ
-0.1249 ಬಳಕೆಯ ಅಪಾಯ ಸಣ್ಣ
-0.1249 ಅಪಾಯ ಸಣ್ಣ ವಿವಾದತಿಕ್ಕಾಟಗಳಲ್ಲೂ
-0.1249 ಸಣ್ಣ ವಿವಾದತಿಕ್ಕಾಟಗಳಲ್ಲೂ ಇನ್ನಷ್ಟು
-0.1249 ವಿವಾದತಿಕ್ಕಾಟಗಳಲ್ಲೂ ಇನ್ನಷ್ಟು ಹೆಚ್ಚಿದೆ
-0.1249 ಇನ್ನಷ್ಟು ಹೆಚ್ಚಿದೆ </s>
-0.1249 <s> ಮಾರುಕಟ್ಟೆ ಆರ್ಥಿಕತೆ
-0.1249 ಮಾರುಕಟ್ಟೆ ಆರ್ಥಿಕತೆ ಜಾರಿಗೆ
-0.1249 ಆರ್ಥಿಕತೆ ಜಾರಿಗೆ ತರುವುದರಲ್ಲಿ
-0.1249 ಜಾರಿಗೆ ತರುವುದರಲ್ಲಿ ಬೆಲೆ
-0.1249 ತರುವುದರಲ್ಲಿ ಬೆಲೆ ಸುಧಾರಣೆಗಳು
-0.1249 ಬೆಲೆ ಸುಧಾರಣೆಗಳು ಅಗತ್ಯ
-0.1249 ಸುಧಾರಣೆಗಳು ಅಗತ್ಯ ಮೊದಲ
-0.1249 ಅಗತ್ಯ ಮೊದಲ ಹೆಜ್ಜೆ
-0.1249 ಮೊದಲ ಹೆಜ್ಜೆ ಎನ್ನಲಾಯಿತು
-0.1249 ಹೆಜ್ಜೆ ಎನ್ನಲಾಯಿತು </s>
-0.1249 <s> ಚುನಾವಣೆಯ ಮೊದಲು
-0.1249 ಚುನಾವಣೆಯ ಮೊದಲು ಸಮೀಕ್ಷೆಗಳನ್ನು
-0.1249 ಮೊದಲು ಸಮೀಕ್ಷೆಗಳನ್ನು ನಡೆಸಿ
-0.1249 ಸಮೀಕ್ಷೆಗಳನ್ನು ನಡೆಸಿ ಬೇಕಾದ
-0.1249 ನಡೆಸಿ ಬೇಕಾದ ಫಲಿತಾಂಶಕ್ಕೆ
-0.1249 ಬೇಕಾದ ಫಲಿತಾಂಶಕ್ಕೆ ನಿರೀಕ್ಷೆ
-0.1249 ಫಲಿತಾಂಶಕ್ಕೆ ನಿರೀಕ್ಷೆ ಆರಂಭವಾಗುತ್ತದೆ
-0.1249 ನಿರೀಕ್ಷೆ ಆರಂಭವಾಗುತ್ತದೆ </s>
-0.1249 <s> ಇಷ್ಟು ಹೊತ್ತಿಗೆ
-0.1249 ಇಷ್ಟು ಹೊತ್ತಿಗೆ ಜಗತ್ತಿನ
-0.1249 ಹೊತ್ತಿಗೆ ಜಗತ್ತಿನ ಸುತ್ತ
-0.1249 ಜಗತ್ತಿನ ಸುತ್ತ ಈ
-0.1249 ಸುತ್ತ ಈ ಭಾವೀ
-0.1249 ಈ ಭಾವೀ ಕ್ರಾಂತಿಯ
-0.1249 ಭಾವೀ ಕ್ರಾಂತಿಯ ನೆಯರ
-0.1249 ಕ್ರಾಂತಿಯ ನೆಯರ ಪ್ರಸಾರ
-0.1249 ನೆಯರ ಪ್ರಸಾರ ನಡೆಯುತ್ತಿರುತ್ತದೆ
-0.1249 ಪ್ರಸಾರ ನಡೆಯುತ್ತಿರುತ್ತದೆ </s>
-0.1249 <s> ಬಿಎವಿವೇಕ ರೈ
-0.1249 ಬಿಎವಿವೇಕ ರೈ ಅವರ
-0.1249 ರೈ ಅವರ ಮಾರ್ಗದರ್ಶನದಲ್ಲಿ
-0.1249 ಅವರ ಮಾರ್ಗದರ್ಶನದಲ್ಲಿ ಮತ್ತು
-0.1249 ಮಾರ್ಗದರ್ಶನದಲ್ಲಿ ಮತ್ತು ಚರಿತ್ರೆ
-0.1249 ಮತ್ತು ಚರಿತ್ರೆ ವಿಭಾಗದ
-0.1249 ಚರಿತ್ರೆ ವಿಭಾಗದ ಮುಖ್ಯಸ್ಥರಾಗಿದ್ದ
-0.1249 ವಿಭಾಗದ ಮುಖ್ಯಸ್ಥರಾಗಿದ್ದ ಡಾ
-0.1249 ಮುಖ್ಯಸ್ಥರಾಗಿದ್ದ ಡಾ </s>
-0.1249 <s> ಅಂದರೆ ದೇಸಿ
-0.1249 ಅಂದರೆ ದೇಸಿ ಬೇರುಗಳ
-0.1249 ದೇಸಿ ಬೇರುಗಳ ಗುರುತಿಸುವಿಕೆ
-0.1249 ಬೇರುಗಳ ಗುರುತಿಸುವಿಕೆ ಕನ್ನಡ
-0.1249 ಗುರುತಿಸುವಿಕೆ ಕನ್ನಡ ಅಧ್ಯಯನದ
-0.1249 ಕನ್ನಡ ಅಧ್ಯಯನದ ಮುಖ್ಯ
-0.1249 ಅಧ್ಯಯನದ ಮುಖ್ಯ ಭಿತ್ತಿಯಾಗಬೇಕಾಗಿದೆ
-0.1249 ಮುಖ್ಯ ಭಿತ್ತಿಯಾಗಬೇಕಾಗಿದೆ </s>
-0.4260 <s> ಅದರ ಮೂಲಕ
-0.1249 ಅದರ ಮೂಲಕ ಅಮೆರಿಕದ
-0.1249 ಮೂಲಕ ಅಮೆರಿಕದ ದಕ್ಷಿಣ
-0.1249 ಅಮೆರಿಕದ ದಕ್ಷಿಣ ತುದಿಯನ್ನು
-0.1249 ದಕ್ಷಿಣ ತುದಿಯನ್ನು ಸುತ್ತಿಕೊಂಡು
-0.1249 ತುದಿಯನ್ನು ಸುತ್ತಿಕೊಂಡು ಕೊಲ್ಲಿಯ
-0.1249 ಸುತ್ತಿಕೊಂಡು ಕೊಲ್ಲಿಯ ಮೂಲಕ
-0.1249 ಕೊಲ್ಲಿಯ ಮೂಲಕ ಸಾಗಿದನು
-0.1249 ಮೂಲಕ ಸಾಗಿದನು </s>
-0.1249 <s> ಚರ್ಚಿನ ಸೇವೆಯಲ್ಲಿ
-0.1249 ಚರ್ಚಿನ ಸೇವೆಯಲ್ಲಿ ತರಬೇತಿ
-0.1249 ಸೇವೆಯಲ್ಲಿ ತರಬೇತಿ ಪಡೆದಿದ್ದವರ
-0.1249 ತರಬೇತಿ ಪಡೆದಿದ್ದವರ ನಾಯಕತ್ವವು
-0.1249 ಪಡೆದಿದ್ದವರ ನಾಯಕತ್ವವು ದೊರಕಿತು
-0.1249 ನಾಯಕತ್ವವು ದೊರಕಿತು </s>
-0.1249 <s> ಇಂದು ರಿನೈಸಾನ್ಸ್
-0.1249 ಇಂದು ರಿನೈಸಾನ್ಸ್ ಇಟಲಿಯಿಂದ
-0.1249 ರಿನೈಸಾನ್ಸ್ ಇಟಲಿಯಿಂದ ಯುರೋಪಿನ
-0.1249 ಇಟಲಿಯಿಂದ ಯುರೋಪಿನ ಇತರ
-0.1249 ಯುರೋಪಿನ ಇತರ ಕೇಂದ್ರಗಳಿಗೆ
-0.1249 ಇತರ ಕೇಂದ್ರಗಳಿಗೆ ತನ್ನ
-0.1249 ಕೇಂದ್ರಗಳಿಗೆ ತನ್ನ ಆಸಕ್ತಿ
-0.1249 ತನ್ನ ಆಸಕ್ತಿ ಯನ್ನು
-0.1249 ಆಸಕ್ತಿ ಯನ್ನು ವರ್ಗಾಯಿಸಿದೆ
-0.1249 ಯನ್ನು ವರ್ಗಾಯಿಸಿದೆ </s>
-0.9031 <s> ಇಲ್ಲಿ ಸರಕುಗಳ
-0.1249 ಇಲ್ಲಿ ಸರಕುಗಳ ಅಧಿಕ
-0.1249 ಸರಕುಗಳ ಅಧಿಕ ಉತ್ಪಾದನೆ
-0.1249 ಅಧಿಕ ಉತ್ಪಾದನೆ ನಡೆಯಿತು
-0.1249 ಉತ್ಪಾದನೆ ನಡೆಯಿತು </s>
-0.1249 <s> ಇದರಿಂದಾಗಿ ಹೊಸ
-0.1249 ಇದರಿಂದಾಗಿ ಹೊಸ ಶೋಧನೆಗೆ
-0.1249 ಹೊಸ ಶೋಧನೆಗೆ ಮತ್ತು
-0.1249 ಶೋಧನೆಗೆ ಮತ್ತು ಉದ್ಯಮಶೀಲತೆಗೆ
-0.1249 ಮತ್ತು ಉದ್ಯಮಶೀಲತೆಗೆ ಸಾಕಷ್ಟು
-0.1249 ಉದ್ಯಮಶೀಲತೆಗೆ ಸಾಕಷ್ಟು ಪ್ರತಿಫಲ
-0.1249 ಸಾಕಷ್ಟು ಪ್ರತಿಫಲ ದೊರೆಯಿತು
-0.1249 ಪ್ರತಿಫಲ ದೊರೆಯಿತು </s>
-0.1249 <s> ಕುಲೀನಸತ್ತೆ ಎಂಬ
-0.1249 ಕುಲೀನಸತ್ತೆ ಎಂಬ ಕನ್ನಡ
-0.1249 ಎಂಬ ಕನ್ನಡ ಪದದ
-0.1249 ಕನ್ನಡ ಪದದ ಮೂಲ
-0.1249 ಪದದ ಮೂಲ ಇಂಗ್ಲೀಷ್
-0.1249 ಮೂಲ ಇಂಗ್ಲೀಷ್ ಶಬ್ದವು
-0.1249 ಇಂಗ್ಲೀಷ್ ಶಬ್ದವು ಅರಿಸ್ಟಾಕ್ರಸಿ
-0.1249 ಶಬ್ದವು ಅರಿಸ್ಟಾಕ್ರಸಿ </s>
-0.1249 <s> ಪರ್ಯಾಯವಾಗಿ ಹೇಳಬೇಕೆಂದರೆ
-0.1249 ಪರ್ಯಾಯವಾಗಿ ಹೇಳಬೇಕೆಂದರೆ ಕುಲೀನಸತ್ತೆಯನ್ನು
-0.1249 ಹೇಳಬೇಕೆಂದರೆ ಕುಲೀನಸತ್ತೆಯನ್ನು ವಿಶೇಷವಾಗಿ
-0.1249 ಕುಲೀನಸತ್ತೆಯನ್ನು ವಿಶೇಷವಾಗಿ ಆರಿಸಲ್ಪಟ್ಟ
-0.1249 ವಿಶೇಷವಾಗಿ ಆರಿಸಲ್ಪಟ್ಟ ಕೆಲವರ
-0.1249 ಆರಿಸಲ್ಪಟ್ಟ ಕೆಲವರ ಆಳ್ವಿಕೆ
-0.1249 ಕೆಲವರ ಆಳ್ವಿಕೆ ಎಂದು
-0.1249 ಆಳ್ವಿಕೆ ಎಂದು ಸುಲಭವಾಗಿ
-0.1249 ಎಂದು ಸುಲಭವಾಗಿ ವ್ಯಾಖ್ಯಾನಿಸಬಹುದು
-0.1249 ಸುಲಭವಾಗಿ ವ್ಯಾಖ್ಯಾನಿಸಬಹುದು </s>
-0.4260 <s> ಕುಲೀನಸತ್ತೆಯು ಈ
-0.1249 ಕುಲೀನಸತ್ತೆಯು ಈ ಕೆಳಗಿನ
-0.1249 ಈ ಕೆಳಗಿನ ವಿಶೇಷ
-0.1249 ಕೆಳಗಿನ ವಿಶೇಷ ಗುಣಲಕ್ಷಣಗಳನ್ನು
-0.1249 ವಿಶೇಷ ಗುಣಲಕ್ಷಣಗಳನ್ನು ಹೊಂದಿರುತ್ತದೆ
-0.1249 ಗುಣಲಕ್ಷಣಗಳನ್ನು ಹೊಂದಿರುತ್ತದೆ </s>
-0.4260 <s> ಕುಲೀನಸತ್ತೆಯು ಒಂದು
-0.1249 ಕುಲೀನಸತ್ತೆಯು ಒಂದು ಸಾಮಾನ್ಯವಾದ
-0.1249 ಒಂದು ಸಾಮಾನ್ಯವಾದ ಹಾಗೂ
-0.1249 ಸಾಮಾನ್ಯವಾದ ಹಾಗೂ ನೈಸರ್ಗಿಕ
-0.1249 ಹಾಗೂ ನೈಸರ್ಗಿಕ ಆಡಳಿತ
-0.1249 ನೈಸರ್ಗಿಕ ಆಡಳಿತ ಪದ್ಧತಿಯೆಂದು
-0.1249 ಆಡಳಿತ ಪದ್ಧತಿಯೆಂದು ಪರಿಗಣಿಸಲ್ಪಟ್ಟಿದೆ
-0.1249 ಪದ್ಧತಿಯೆಂದು ಪರಿಗಣಿಸಲ್ಪಟ್ಟಿದೆ </s>
-0.1249 <s> ಎಂದರೆ ಕುಲೀನಸತ್ತೆಯ
-0.1249 ಎಂದರೆ ಕುಲೀನಸತ್ತೆಯ ಸರಕಾರವು
-0.1249 ಕುಲೀನಸತ್ತೆಯ ಸರಕಾರವು ತೌಲನಿಕವಾಗಿ
-0.1249 ಸರಕಾರವು ತೌಲನಿಕವಾಗಿ ಸ್ಥಿರವಾದ
-0.1249 ತೌಲನಿಕವಾಗಿ ಸ್ಥಿರವಾದ ಸರ್ಕಾರವಾಗಿರುತ್ತದೆ
-0.1249 ಸ್ಥಿರವಾದ ಸರ್ಕಾರವಾಗಿರುತ್ತದೆ </s>
-0.1249 <s> ಉದಾಹರಣೆಗೆ ಜವಾಬ್ದಾರಿಯ
-0.1249 ಉದಾಹರಣೆಗೆ ಜವಾಬ್ದಾರಿಯ ಕೆಲಸಗಳಿಗೆ
-0.1249 ಜವಾಬ್ದಾರಿಯ ಕೆಲಸಗಳಿಗೆ ಜನರನ್ನು
-0.1249 ಕೆಲಸಗಳಿಗೆ ಜನರನ್ನು ನೇಮಿಸುವಾಗ
-0.1249 ಜನರನ್ನು ನೇಮಿಸುವಾಗ ಬಹುಮತದಂತಹ
-0.1249 ನೇಮಿಸುವಾಗ ಬಹುಮತದಂತಹ ನೀತಿ
-0.1249 ಬಹುಮತದಂತಹ ನೀತಿ ಅನ್ವಯವಾಗುವುದಿಲ್ಲ
-0.1249 ನೀತಿ ಅನ್ವಯವಾಗುವುದಿಲ್ಲ </s>
-0.1249 <s> ಹದಿನೇಳನೆಯ ಶತಮಾನ
-0.1249 ಹದಿನೇಳನೆಯ ಶತಮಾನ ನಿರಂಕುಶಪ್ರಭುತ್ವದ
-0.1249 ಶತಮಾನ ನಿರಂಕುಶಪ್ರಭುತ್ವದ ಯುಗ
-0.1249 ನಿರಂಕುಶಪ್ರಭುತ್ವದ ಯುಗ ಎಂಬುದಾಗಿ
-0.1249 ಯುಗ ಎಂಬುದಾಗಿ ನಿರ್ಣಯವನ್ನು
-0.1249 ಎಂಬುದಾಗಿ ನಿರ್ಣಯವನ್ನು ಕೈಕೊಳ್ಳಲು
-0.1249 ನಿರ್ಣಯವನ್ನು ಕೈಕೊಳ್ಳಲು ಸಾಧ್ಯವಿಲ್ಲ
-0.1249 ಕೈಕೊಳ್ಳಲು ಸಾಧ್ಯವಿಲ್ಲ </s>
-0.1249 <s> ಮಧ್ಯಮವರ್ಗದ ಜನರು
-0.1249 ಮಧ್ಯಮವರ್ಗದ ಜನರು ಅಪಾರ
-0.1249 ಜನರು ಅಪಾರ ಸಂಪತ್ತನ್ನು
-0.1249 ಅಪಾರ ಸಂಪತ್ತನ್ನು ಗಳಿಸಿ
-0.1249 ಸಂಪತ್ತನ್ನು ಗಳಿಸಿ ಅಧಿಕಾರ
-0.1249 ಗಳಿಸಿ ಅಧಿಕಾರ ಮತ್ತು
-0.1249 ಅಧಿಕಾರ ಮತ್ತು ಸವಲತ್ತುಗಳನ್ನು
-0.1249 ಮತ್ತು ಸವಲತ್ತುಗಳನ್ನು ಪಡೆಯಲು
-0.1249 ಸವಲತ್ತುಗಳನ್ನು ಪಡೆಯಲು ಹಂಬಲಿಸುತ್ತಿದ್ದರು
-0.1249 ಪಡೆಯಲು ಹಂಬಲಿಸುತ್ತಿದ್ದರು </s>
-0.1249 <s> ಇದರಿಂದಾಗಿಯೇ ಆಸ್ಟ್ರೀಯಾದ
-0.1249 ಇದರಿಂದಾಗಿಯೇ ಆಸ್ಟ್ರೀಯಾದ ರಾಣಿ
-0.1249 ಆಸ್ಟ್ರೀಯಾದ ರಾಣಿ ಮಾರಿಯಾ
-0.1249 ರಾಣಿ ಮಾರಿಯಾ ತೆರೇಸಾ
-0.1249 ಮಾರಿಯಾ ತೆರೇಸಾ ಹಾಗೂ
-0.1249 ತೆರೇಸಾ ಹಾಗೂ ಫ್ರೆಡ್ರಿಕ್ರೊಳಗೆ
-0.1249 ಹಾಗೂ ಫ್ರೆಡ್ರಿಕ್ರೊಳಗೆ ಮನಸ್ತಾಪ
-0.1249 ಫ್ರೆಡ್ರಿಕ್ರೊಳಗೆ ಮನಸ್ತಾಪ ಉಂಟಾಗಿದ್ದು
-0.1249 ಮನಸ್ತಾಪ ಉಂಟಾಗಿದ್ದು </s>
-0.1249 <s> ಅವರು ಮನುಷ್ಯ
-0.1249 ಅವರು ಮನುಷ್ಯ ಮೂಲತಃ
-0.1249 ಮನುಷ್ಯ ಮೂಲತಃ ಸಂಘಜೀವಿ
-0.1249 ಮೂಲತಃ ಸಂಘಜೀವಿ ಎಂಬ
-0.1249 ಸಂಘಜೀವಿ ಎಂಬ ಮಾನವ
-0.1249 ಎಂಬ ಮಾನವ ಸಮುದಾಯದ
-0.1249 ಮಾನವ ಸಮುದಾಯದ ಅತ್ಯಂತ
-0.1249 ಸಮುದಾಯದ ಅತ್ಯಂತ ಪ್ರಾಚೀನ
-0.1249 ಅತ್ಯಂತ ಪ್ರಾಚೀನ ತತ್ವವನ್ನು
-0.1249 ಪ್ರಾಚೀನ ತತ್ವವನ್ನು ತಮ್ಮ
-0.1249 ತತ್ವವನ್ನು ತಮ್ಮ ಸಿದ್ಧಾಂತವಾಗಿಸಿಕೊಂಡರು
-0.1249 ತಮ್ಮ ಸಿದ್ಧಾಂತವಾಗಿಸಿಕೊಂಡರು </s>
-0.1249 <s> ಹತ್ತೊಂಬತ್ತನೆಯ ಶತಮಾನದ
-0.1249 ಹತ್ತೊಂಬತ್ತನೆಯ ಶತಮಾನದ ಕೊನೆಯ
-0.1249 ಶತಮಾನದ ಕೊನೆಯ ಭಾಗದಲ್ಲಿ
-0.1249 ಕೊನೆಯ ಭಾಗದಲ್ಲಿ ಒಂದು
-0.1249 ಭಾಗದಲ್ಲಿ ಒಂದು ವಿಶಿಷ್ಟ
-0.1249 ಒಂದು ವಿಶಿಷ್ಟ ಬಗೆಯ
-0.1249 ವಿಶಿಷ್ಟ ಬಗೆಯ ಸಮಾಜವಾದ
-0.1249 ಬಗೆಯ ಸಮಾಜವಾದ ಅಥವಾ
-0.1249 ಸಮಾಜವಾದ ಅಥವಾ ಕಮ್ಯೂನಿಸಂ
-0.1249 ಅಥವಾ ಕಮ್ಯೂನಿಸಂ ಕಂಡುಬಂತು
-0.1249 ಕಮ್ಯೂನಿಸಂ ಕಂಡುಬಂತು </s>
-0.1249 <s> ಮೇಲಾಗಿ ಇಂಗ್ಲೆಂಡಿಗೆ
-0.1249 ಮೇಲಾಗಿ ಇಂಗ್ಲೆಂಡಿಗೆ ಕೈಗಾರಿಕೆ
-0.1249 ಇಂಗ್ಲೆಂಡಿಗೆ ಕೈಗಾರಿಕೆ ಹಾಗೂ
-0.1249 ಕೈಗಾರಿಕೆ ಹಾಗೂ ನೌಕಾಯಾನಗಳ
-0.1249 ಹಾಗೂ ನೌಕಾಯಾನಗಳ ಯಶಸ್ಸಿನಿಂದ
-0.1249 ನೌಕಾಯಾನಗಳ ಯಶಸ್ಸಿನಿಂದ ಪ್ರಪಂಚದ
-0.1249 ಯಶಸ್ಸಿನಿಂದ ಪ್ರಪಂಚದ ಮಾರುಕಟ್ಟೆಗಳಿಗೆ
-0.1249 ಪ್ರಪಂಚದ ಮಾರುಕಟ್ಟೆಗಳಿಗೆ ಪ್ರವೇಶ
-0.1249 ಮಾರುಕಟ್ಟೆಗಳಿಗೆ ಪ್ರವೇಶ ಲಭ್ಯವಿತ್ತು
-0.1249 ಪ್ರವೇಶ ಲಭ್ಯವಿತ್ತು </s>
-0.1249 <s> ಅವರಿಂದ ಶೋಷಣೆಗೆ
-0.1249 ಅವರಿಂದ ಶೋಷಣೆಗೆ ಯಾವ
-0.1249 ಶೋಷಣೆಗೆ ಯಾವ ವಿರೋಧವೂ
-0.1249 ಯಾವ ವಿರೋಧವೂ ಬರುವಂತಿರಲಿಲ್ಲ
-0.1249 ವಿರೋಧವೂ ಬರುವಂತಿರಲಿಲ್ಲ </s>
-0.1249 <s> ಇವರಲ್ಲಿ ಬಹಳಷ್ಟು
-0.1249 ಇವರಲ್ಲಿ ಬಹಳಷ್ಟು ಜನರಿಗೆ
-0.1249 ಬಹಳಷ್ಟು ಜನರಿಗೆ ಕನಿಷ್ಟ
-0.1249 ಜನರಿಗೆ ಕನಿಷ್ಟ ಉಡಲು
-0.1249 ಕನಿಷ್ಟ ಉಡಲು ಬಟ್ಟೆ
-0.1249 ಉಡಲು ಬಟ್ಟೆ ತಿನ್ನಲು
-0.1249 ಬಟ್ಟೆ ತಿನ್ನಲು ಆಹಾರವೂ
-0.1249 ತಿನ್ನಲು ಆಹಾರವೂ ಸಿಗುತ್ತಿರಲಿಲ್ಲ
-0.1249 ಆಹಾರವೂ ಸಿಗುತ್ತಿರಲಿಲ್ಲ </s>
-0.8239 <s> ಈ ರೀತಿಯಾಗಿ
-0.1249 ಈ ರೀತಿಯಾಗಿ ಸಾಮಾನ್ಯ
-0.1249 ರೀತಿಯಾಗಿ ಸಾಮಾನ್ಯ ಜನರಿಗೆ
-0.1249 ಸಾಮಾನ್ಯ ಜನರಿಗೆ ಸರಕಾರದಲ್ಲಿ
-0.1249 ಜನರಿಗೆ ಸರಕಾರದಲ್ಲಿ ಯಾವ
-0.1249 ಸರಕಾರದಲ್ಲಿ ಯಾವ ರೀತಿಯ
-0.1249 ಯಾವ ರೀತಿಯ ಅಸ್ತಿತ್ವ
-0.1249 ರೀತಿಯ ಅಸ್ತಿತ್ವ ಇರಲಿಲ್ಲ
-0.1249 ಅಸ್ತಿತ್ವ ಇರಲಿಲ್ಲ </s>
-0.1249 <s> ಇಂಥ ಬುಡಕಟ್ಟುಗಳ
-0.1249 ಇಂಥ ಬುಡಕಟ್ಟುಗಳ ಸಂಸ್ಕೃತಿಯ
-0.1249 ಬುಡಕಟ್ಟುಗಳ ಸಂಸ್ಕೃತಿಯ ನಡುವೆಯೂ
-0.1249 ಸಂಸ್ಕೃತಿಯ ನಡುವೆಯೂ ಅನೇಕ
-0.1249 ನಡುವೆಯೂ ಅನೇಕ ವ್ಯತ್ಯಾಸಗಳು
-0.1249 ಅನೇಕ ವ್ಯತ್ಯಾಸಗಳು ಗೋಚರಿಸುತ್ತವೆ
-0.1249 ವ್ಯತ್ಯಾಸಗಳು ಗೋಚರಿಸುತ್ತವೆ </s>
-0.1249 <s> ಇದು ಇತ್ತೀಚೆಗೆ
-0.1249 ಇದು ಇತ್ತೀಚೆಗೆ ರಚಿತವಾದಂತೆ
-0.1249 ಇತ್ತೀಚೆಗೆ ರಚಿತವಾದಂತೆ ಕಂಡು
-0.1249 ರಚಿತವಾದಂತೆ ಕಂಡು ಬರುತ್ತದೆ
-0.1249 ಕಂಡು ಬರುತ್ತದೆ </s>
-0.1249 <s> ಮಹಾರಾಷ್ಟ್ರದ ವಿದ್ವಾಂಸರು
-0.1249 ಮಹಾರಾಷ್ಟ್ರದ ವಿದ್ವಾಂಸರು ಈ
-0.1249 ವಿದ್ವಾಂಸರು ಈ ಅಭಿಪ್ರಾಯವನ್ನು
-0.1249 ಈ ಅಭಿಪ್ರಾಯವನ್ನು ಒಪ್ಪುತ್ತಾರೆ
-0.1249 ಅಭಿಪ್ರಾಯವನ್ನು ಒಪ್ಪುತ್ತಾರೆ </s>
-0.1249 <s> ಆತನ ಭಕ್ತದಲ್ಲಿ
-0.1249 ಆತನ ಭಕ್ತದಲ್ಲಿ ಬೇರೂರಿರುವುದರಿಂದ
-0.1249 ಭಕ್ತದಲ್ಲಿ ಬೇರೂರಿರುವುದರಿಂದ ಶಿವನ
-0.1249 ಬೇರೂರಿರುವುದರಿಂದ ಶಿವನ ಪರಿವಾರವೆಲ್ಲ
-0.1249 ಶಿವನ ಪರಿವಾರವೆಲ್ಲ ಮೈಲಾರನ
-0.1249 ಪರಿವಾರವೆಲ್ಲ ಮೈಲಾರನ ಪರಿವಾರವಾಗಿ
-0.1249 ಮೈಲಾರನ ಪರಿವಾರವಾಗಿ ಮೈಲಾರನ
-0.1249 ಪರಿವಾರವಾಗಿ ಮೈಲಾರನ ದೇವಸ್ಥಾನಗಳಲ್ಲಿ
-0.1249 ಮೈಲಾರನ ದೇವಸ್ಥಾನಗಳಲ್ಲಿ ಎಡಪಡೆದು
-0.1249 ದೇವಸ್ಥಾನಗಳಲ್ಲಿ ಎಡಪಡೆದು ಪೂಜೆಗೊಳ್ಳುತ್ತಿದೆ
-0.1249 ಎಡಪಡೆದು ಪೂಜೆಗೊಳ್ಳುತ್ತಿದೆ </s>
-0.1249 <s> ಮೈಲಾರನೆಂಬ ದೇವತೆಯ
-0.1249 ಮೈಲಾರನೆಂಬ ದೇವತೆಯ ಒಟ್ಟು
-0.1249 ದೇವತೆಯ ಒಟ್ಟು ಪರಿವಾರ
-0.1249 ಒಟ್ಟು ಪರಿವಾರ ಹೀಗಿದೆ
-0.1249 ಪರಿವಾರ ಹೀಗಿದೆ </s>
-0.1249 <s> ಕುರುಬಿತಿ ಮಾಳಮ್ಮ
-0.1249 ಕುರುಬಿತಿ ಮಾಳಮ್ಮ ಪುರಾಣ
-0.1249 ಮಾಳಮ್ಮ ಪುರಾಣ ಮೈಲಾರನ
-0.1249 ಪುರಾಣ ಮೈಲಾರನ ಎರಡನೆಯ
-0.1249 ಮೈಲಾರನ ಎರಡನೆಯ ಪತ್ನಿ
-0.1249 ಎರಡನೆಯ ಪತ್ನಿ ಎಂಬ
-0.1249 ಪತ್ನಿ ಎಂಬ ಕಲ್ಪನೆ
-0.1249 ಎಂಬ ಕಲ್ಪನೆ ಹೇಗೋ
-0.1249 ಕಲ್ಪನೆ ಹೇಗೋ ಬೆಳೆದುಬಂದಿದೆ
-0.1249 ಹೇಗೋ ಬೆಳೆದುಬಂದಿದೆ </s>
-0.1249 <s> ನಸುಕು ಹರಿಯುವದರೊಳಗೆ
-0.1249 ನಸುಕು ಹರಿಯುವದರೊಳಗೆ ರಾವುತ
-0.1249 ಹರಿಯುವದರೊಳಗೆ ರಾವುತ ಮಾಳವ್ವರ
-0.1249 ರಾವುತ ಮಾಳವ್ವರ ಮದುವೆಯಾಗಲಿಲ್ಲ
-0.1249 ಮಾಳವ್ವರ ಮದುವೆಯಾಗಲಿಲ್ಲ </s>
-0.1249 <s> ದೇವರ ಹಿಪ್ಪರಗಿಯ
-0.1249 ದೇವರ ಹಿಪ್ಪರಗಿಯ ಮೈಲಾರನ
-0.1249 ಹಿಪ್ಪರಗಿಯ ಮೈಲಾರನ ದೇವಸ್ಥಾನ
-0.1249 ಮೈಲಾರನ ದೇವಸ್ಥಾನ ಎದುರಿಗೆ
-0.1249 ದೇವಸ್ಥಾನ ಎದುರಿಗೆ ಹೆಗ್ಗಡೆ
-0.1249 ಎದುರಿಗೆ ಹೆಗ್ಗಡೆ ಪ್ರಾಧಾನಿಯ
-0.1249 ಹೆಗ್ಗಡೆ ಪ್ರಾಧಾನಿಯ ಗುಡಿ
-0.1249 ಪ್ರಾಧಾನಿಯ ಗುಡಿ ಇದೆ
-0.1249 ಗುಡಿ ಇದೆ </s>
-0.1249 <s> ನಾಯಿಯನ್ನು ಮಲ್ಲಯ್ಯನೆಂದೇ
-0.1249 ನಾಯಿಯನ್ನು ಮಲ್ಲಯ್ಯನೆಂದೇ ಉತ್ತರ
-0.1249 ಮಲ್ಲಯ್ಯನೆಂದೇ ಉತ್ತರ ಕರ್ನಾಟಕದ
-0.1249 ಉತ್ತರ ಕರ್ನಾಟಕದ ಕಡೆಗೆ
-0.1249 ಕರ್ನಾಟಕದ ಕಡೆಗೆ ಸಂಭೋಧಿಸುತ್ತಾರೆ
-0.1249 ಕಡೆಗೆ ಸಂಭೋಧಿಸುತ್ತಾರೆ </s>
-0.1249 <s> ಅನುಭಬ ಶಿಖಾಮಣಿಯ
-0.1249 ಅನುಭಬ ಶಿಖಾಮಣಿಯ ಮೈಲಾರ
-0.1249 ಶಿಖಾಮಣಿಯ ಮೈಲಾರ ಲಿಂಗನ
-0.1249 ಮೈಲಾರ ಲಿಂಗನ ಕಥೆಯಲ್ಲಿಯಂತೂ
-0.1249 ಲಿಂಗನ ಕಥೆಯಲ್ಲಿಯಂತೂ ನಾಯಿಗಳ
-0.1249 ಕಥೆಯಲ್ಲಿಯಂತೂ ನಾಯಿಗಳ ಉಲ್ಲೇಖ
-0.1249 ನಾಯಿಗಳ ಉಲ್ಲೇಖ ಮತ್ತೆ
-0.1249 ಉಲ್ಲೇಖ ಮತ್ತೆ ಮತ್ತೆ
-0.1249 ಮತ್ತೆ ಮತ್ತೆ ಬರುತ್ತದೆ
-0.1249 ಮತ್ತೆ ಬರುತ್ತದೆ </s>
-0.9031 <s> ಇಲ್ಲಿ ಐದು
-0.1249 ಇಲ್ಲಿ ಐದು ಎತ್ತರದ
-0.1249 ಐದು ಎತ್ತರದ ಗುಡ್ಡದಂತಿರುವ
-0.1249 ಎತ್ತರದ ಗುಡ್ಡದಂತಿರುವ ದೊಡ್ಡ
-0.1249 ಗುಡ್ಡದಂತಿರುವ ದೊಡ್ಡ ದಿನ್ನೆಗಳುಂಟು
-0.1249 ದೊಡ್ಡ ದಿನ್ನೆಗಳುಂಟು </s>
-0.1249 <s> ಕೆಲವರು ಭಕ್ತರು
-0.1249 ಕೆಲವರು ಭಕ್ತರು ಕೈಯಲ್ಲಿ
-0.1249 ಭಕ್ತರು ಕೈಯಲ್ಲಿ ಪಂಜನ್ನು
-0.1249 ಕೈಯಲ್ಲಿ ಪಂಜನ್ನು ಹಿಡಿದು
-0.1249 ಪಂಜನ್ನು ಹಿಡಿದು ಕೊಂಡು
-0.1249 ಹಿಡಿದು ಕೊಂಡು ಸ್ವಾಮಿಯೊಡನೆ
-0.1249 ಕೊಂಡು ಸ್ವಾಮಿಯೊಡನೆ ಹೋಗುವರು
-0.1249 ಸ್ವಾಮಿಯೊಡನೆ ಹೋಗುವರು </s>
-0.1249 <s> ಅಮ್ಮನನ್ನು ಅಮ್ಮನ
-0.1249 ಅಮ್ಮನನ್ನು ಅಮ್ಮನ ಮರಡಿಯಲ್ಲಿ
-0.1249 ಅಮ್ಮನ ಮರಡಿಯಲ್ಲಿ ಬಿಟ್ಟು
-0.1249 ಮರಡಿಯಲ್ಲಿ ಬಿಟ್ಟು ಅವಳೊಂದಿಗೆ
-0.1249 ಬಿಟ್ಟು ಅವಳೊಂದಿಗೆ ಬಂದಂತಹ
-0.1249 ಅವಳೊಂದಿಗೆ ಬಂದಂತಹ ಭಕ್ತಾದಿಗಳು
-0.1249 ಬಂದಂತಹ ಭಕ್ತಾದಿಗಳು ಡೆಂಕನ
-0.1249 ಭಕ್ತಾದಿಗಳು ಡೆಂಕನ ಮರಡಿಯ
-0.1249 ಡೆಂಕನ ಮರಡಿಯ ಶಿಬಿರಕ್ಕೆ
-0.1249 ಮರಡಿಯ ಶಿಬಿರಕ್ಕೆ ಬರುತ್ತಾರೆ
-0.1249 ಶಿಬಿರಕ್ಕೆ ಬರುತ್ತಾರೆ </s>
-0.1249 <s> ಮರ್ತ್ಯಕ್ಕೆ ಮಬ್ಬುಗವಿಯಿತಲೇ
-0.1249 ಮರ್ತ್ಯಕ್ಕೆ ಮಬ್ಬುಗವಿಯಿತಲೇ ಪರಾಕು
-0.1249 ಮಬ್ಬುಗವಿಯಿತಲೇ ಪರಾಕು ಎಂದು
-0.1249 ಪರಾಕು ಎಂದು ಆಗಿದೆ
-0.1249 ಎಂದು ಆಗಿದೆ </s>

\end\
