\data\
ngram 1=858
ngram 2=2081
ngram 3=2210

\1-grams:
-1.1269 <s> -0.5069
-3.2777 प्रियतम -0.5991
-2.3000 को -0.5504
-2.3483 एक -0.5961
-3.2777 वर्ष -0.5965
-2.1016 की -0.5638
-3.5787 सजा -0.5993
-2.1985 हो -0.5511
-2.8006 गयी -0.5659
-1.1269 </s> -0.6021
-2.2777 और -0.5554
-3.1016 अपराध -0.5975
-3.2777 केवल -0.6011
-2.8006 इतना -0.5987
-2.2170 था -0.5572
-2.5373 कि -0.5897
-2.9767 तीन -0.6006
-2.6245 दिन -0.5931
-2.9767 पहले -0.6000
-3.2777 जेठ -0.5986
-3.5787 तपती -0.6019
-3.5787 दोपहरी -0.5973
-1.9659 में -0.5267
-2.8797 उन्होंने -0.5995
-3.5787 राष्ट्र -0.5985
-2.0874 के -0.5914
-3.5787 कई -0.6019
-3.5787 सेवकों -0.6000
-2.3234 का -0.5917
-3.5787 शर्बत -0.6019
-3.5787 पान -0.5965
-1.8975 से -0.5350
-3.1016 सत्कार -0.6008
-2.9767 किया -0.5650
-2.1016 मैं -0.5785
-2.8006 उस -0.5962
-2.9767 वक्त -0.5985
-3.1016 अदालत -0.5572
-3.1016 खड़ी -0.5992
-2.2363 थी -0.5609
-2.9767 कमरे -0.5916
-3.1016 बाहर -0.6003
-3.5787 सारे -0.6019
-3.5787 नगर -0.5986
-3.5787 राजनैतिक -0.6019
-3.5787 चेतना -0.6014
-2.8006 किसी -0.5947
-3.5787 बंदी -0.6019
-3.5787 पशु -0.5986
-3.5787 भांति -0.6017
-3.5787 चीत्कार -0.6011
-2.6756 कर -0.5995
-2.6756 रही -0.5908
-2.3746 मेरे -0.5969
-3.5787 प्राणधन -0.6019
-3.5787 हथकड़ियों -0.5965
-3.5787 जकड़े -0.6011
-2.6756 हुए -0.5949
-3.5787 लाये -0.6018
-3.2777 गए -0.5654
-3.5787 चारों -0.6014
-2.8006 ओर -0.5944
-3.5787 सन्नाटा -0.6019
-3.5787 छा -0.6013
-2.7336 गया -0.5684
-2.9767 भीतर -0.5942
-3.5787 हाहाकार -0.6019
-3.5787 मचा -0.6015
-2.8797 हुआ -0.5949
-2.9767 मानो -0.5986
-3.1016 प्राण -0.6016
-3.5787 पिघला -0.6018
-3.2777 जा -0.6007
-2.9767 रहा -0.5935
-3.5787 आवेश -0.5986
-3.5787 लहरें -0.6018
-3.2777 सी -0.6015
-3.5787 उठ -0.6019
-3.5787 उठकर -0.6019
-3.5787 समस्त -0.6019
-3.5787 शरीर -0.5999
-3.5787 रोमांचित -0.6019
-3.5787 किये -0.6019
-3.5787 देती -0.6010
-2.6245 थीं -0.5646
-3.5787 ओह -0.6014
-3.2777 गर्व -0.5970
-2.4326 मुझे -0.5930
-2.9767 कभी -0.5981
-2.0602 नहीं -0.5491
-2.5787 वह -0.5929
-3.5787 कुरसी -0.5986
-2.1016 पर -0.5845
-3.1016 बैठा -0.6007
-3.5787 अंग्रेज -0.6019
-3.5787 अफसर -0.6019
-3.5787 लाल -0.6019
-3.5787 जरीदार -0.6019
-3.5787 पगड़ियाँ -0.6019
-3.5787 बाँधे -0.6011
-3.1016 पुलिस -0.5952
-3.5787 कर्मचारी -0.5684
-2.9767 सब -0.5963
-2.4995 मेरी -0.5985
-3.5787 आँखो -0.5973
-3.5787 तुच्छ -0.6017
-3.1016 जान -0.5984
-3.5787 पड़ते -0.6007
-2.4995 थे -0.5670
-2.7336 बार -0.5986
-2.9767 जी -0.5934
-3.5787 आता -0.5994
-3.5787 दौड़कर -0.6019
-3.5787 जीवन -0.6019
-3.5787 धन -0.5985
-3.5787 चरणों -0.5973
-3.5787 लिपट -0.6019
-3.5787 जाऊँ -0.5998
-2.9767 उसी -0.5980
-3.2777 दशा -0.5973
-3.2777 त्याग -0.6009
-3.5787 दूँ -0.5684
-3.1016 कितनी -0.6017
-3.5787 शान्त -0.6019
-3.5787 अविचलित -0.6019
-3.5787 तेज -0.5998
-3.5787 स्वाभिमान -0.5965
-3.5787 प्रदीप्त -0.6019
-3.5787 मूर्ति -0.5995
-3.5787 ग्लानि -0.6019
-3.5787 विषाद -0.6016
-2.9767 या -0.5986
-3.5787 शोक -0.5986
-3.5787 छाया -0.5995
-2.2363 भी -0.5806
-2.1016 न -0.5508
-3.5787 उन -0.6019
-3.5787 ओठों -0.5986
-3.5787 स्फूर्ति -0.5965
-3.5787 भरी -0.6013
-2.7336 हुई -0.5665
-3.5787 मनोहारिणी -0.6019
-3.5787 ओजस्वी -0.6019
-3.5787 मुस्कान -0.5995
-2.6245 इस -0.5993
-2.8006 लिए -0.5649
-3.5787 कठिन -0.6019
-3.5787 कारावास -0.5684
-3.5787 वाह -0.6019
-3.5787 रे -0.6019
-3.5787 न्याय -0.6018
-3.2777 तेरी -0.6018
-3.5787 बलिहारी -0.5990
-2.1474 है -0.5654
-3.2777 ऐसे -0.6018
-3.5787 हजार -0.6017
-2.7336 करने -0.5902
-3.2777 तैयार -0.5981
-3.5787 प्राणनाथ -0.5988
-2.1316 ने -0.5915
-3.5787 चलते -0.6018
-3.2777 समय -0.5663
-2.7336 देखा -0.5619
-2.4648 कुछ -0.5900
-3.5787 मुस्कराये -0.6010
-2.6245 फिर -0.5938
-2.9767 उनकी -0.6011
-3.5787 मुद्रा -0.6015
-2.8797 कठोर -0.5896
-2.8006 गई -0.5615
-3.1016 लौटकर -0.5984
-2.1985 मैंने -0.5928
-3.5787 पाँच -0.6019
-3.5787 रुपये -0.5986
-3.5787 मिठाई -0.6019
-3.5787 मँगवाई -0.5998
-3.1016 स्वयंसेवकों -0.5942
-3.1016 बुलाकर -0.6014
-3.5787 खिलाया -0.5684
-3.5787 संध्या -0.6018
-3.2777 पहली -0.6013
-2.9767 कांग्रेस -0.5984
-3.5787 जलसे -0.5973
-3.2777 शरीक -0.5996
-2.4326 ही -0.5892
-3.5787 मंच -0.5986
-2.7336 जाकर -0.5978
-3.1016 बोली -0.5658
-3.5787 सत्याग्रह -0.5986
-3.5787 प्रतिज्ञा -0.6019
-3.5787 ले -0.6019
-3.5787 ली -0.5684
-3.2777 आत्मा -0.5972
-2.8797 इतनी -0.6013
-3.5787 शक्ति -0.6016
-2.9767 कहाँ -0.5618
-2.9767 आ -0.6001
-2.5787 कह -0.5951
-2.8006 सकती -0.5636
-3.5787 सर्वस्व -0.6019
-3.5787 लुट -0.6014
-2.8006 जाने -0.5582
-3.2777 बाद -0.5983
-3.5787 किसकी -0.6016
-2.9767 शंका -0.5972
-3.5787 किसका -0.6016
-2.9767 डर -0.5594
-3.5787 विधाता -0.6000
-3.5787 आघात -0.5995
-2.8006 अब -0.5904
-2.8006 मेरा -0.5984
-2.1985 क्या -0.5534
-3.5787 अहित -0.6011
-3.1016 सकता -0.5630
-3.1016 दूसरे -0.6010
-2.6245 दो -0.5669
-3.2777 तार -0.5999
-3.5787 दिए -0.5684
-2.9767 पिताजी -0.5957
-3.2777 दूसरा -0.5978
-2.9767 ससुरजी -0.5621
-3.1016 पेंशन -0.5963
-3.5787 पाते -0.6007
-3.5787 जंगल -0.5985
-3.5787 महकमे -0.5973
-3.5787 अच्छे -0.6019
-3.5787 पद -0.5986
-3.2777 सारा -0.6007
-3.2777 गुजर -0.6013
-2.7336 जवाब -0.5941
-3.5787 नदारद -0.5684
-2.4026 कोई -0.5956
-3.5787 तीसरे -0.6010
-2.5787 दोनों -0.5956
-3.5787 महाशयों -0.5985
-2.9767 पत्र -0.5976
-3.1016 आये -0.5629
-3.5787 जामे -0.5965
-2.8797 लिखा -0.5653
-3.2777 आशा -0.5961
-2.8006 तुम -0.5977
-3.5787 लोग -0.6019
-3.5787 बुढ़ापे -0.5973
-3.5787 पालन -0.6019
-3.5787 करोगे -0.5684
-3.1016 तुमने -0.5983
-3.5787 पानी -0.6018
-3.2777 फेर -0.6008
-2.6245 दिया -0.5586
-3.2777 चाहती -0.5654
-3.5787 भिक्षा -0.6019
-3.5787 माँगूँ -0.5684
-3.5787 सरकार -0.5965
-3.5787 पाता -0.6015
-2.8797 हूँ -0.5684
-2.8797 तुम्हें -0.5975
-3.5787 आश्रय -0.6019
-3.5787 देकर -0.5986
-2.8797 अपनी -0.6008
-2.9767 हाथ -0.5975
-3.5787 धो -0.6017
-3.5787 शब्द -0.6019
-3.5787 इतने -0.6015
-3.1016 भाव -0.5964
-3.5787 लगभग -0.6018
-3.2777 ऐसा -0.6003
-3.5787 इसी -0.6019
-3.5787 साल -0.6013
-2.7336 उन्हें -0.5965
-3.2777 ग्रेड -0.5964
-3.5787 मिलनेवाला -0.5994
-3.5787 बुलायेंगे -0.5970
-1.9353 तो -0.5374
-3.5787 सम्भव -0.5990
-3.5787 वंचित -0.6019
-3.5787 होना -0.6015
-2.8797 पड़े -0.5653
-2.8006 हाँ -0.5977
-3.5787 सहायता -0.6019
-3.5787 मौखिक -0.6018
-3.2777 रूप -0.5957
-3.5787 फाड़कर -0.6019
-3.5787 फेंक -0.6018
-3.2777 दिये -0.5659
-3.5787 हा -0.6018
-3.2777 स्वार्थ -0.5971
-3.5787 माया -0.6017
-3.5787 प्रबल -0.5990
-3.2777 अपना -0.6002
-3.5787 पिता -0.6018
-3.5787 बाधा -0.6019
-3.5787 पड़ने -0.5985
-3.5787 भय -0.5965
-3.5787 लड़की -0.5986
-3.5787 तरफ -0.5965
-3.5787 निर्दय -0.5993
-3.1016 जाय -0.5684
-3.2777 ससुर -0.6013
-3.5787 बहू -0.5986
-3.5787 उदासीन -0.5993
-2.8006 मगर -0.5986
-2.7336 अभी -0.5929
-3.2777 उम्र -0.6003
-3.5787 सारी -0.6019
-3.5787 दुनिया -0.6019
-3.5787 देखने -0.5999
-3.1016 पड़ी -0.5976
-2.8797 तक -0.5910
-2.9767 अपने -0.6003
-3.5787 विषय -0.5973
-3.5787 निश्चिन्त -0.5995
-3.2777 लेकिन -0.5999
-2.3234 यह -0.5894
-3.5787 नई -0.6017
-3.1016 चिन्ता -0.5979
-3.2777 सवार -0.5675
-3.5787 निर्जन -0.6010
-2.6245 घर -0.5888
-3.5787 निराधार -0.6019
-3.5787 निराश्रय -0.6018
-3.2777 कैसे -0.6014
-3.5787 रहूँगी -0.5684
-3.5787 जाऊँगी -0.6016
-3.5787 अगर -0.6003
-3.5787 मर्द -0.6016
-2.9767 होती -0.5913
-3.5787 आश्रम -0.5973
-3.2777 चली -0.5681
-3.2777 जाती -0.5991
-3.5787 मजूरी -0.6011
-3.2777 लेती -0.5684
-3.5787 पैरों -0.5973
-3.1016 नारीत्व -0.5986
-3.5787 बेड़ियाँ -0.6017
-3.2777 रक्षा -0.5986
-3.2777 जितनी -0.6010
-3.5787 फिक्र -0.5986
-3.5787 आँख -0.5995
-3.5787 उठनी -0.6019
-3.5787 चाहिए -0.5684
-3.5787 आहट -0.6019
-3.5787 पाकर -0.5993
-3.1016 नीचे -0.6001
-2.9767 आदमी -0.5994
-2.7336 खड़े -0.5941
-3.1016 आया -0.5665
-3.5787 पूछूँ -0.6014
-3.1016 कौन -0.5966
-2.6245 यहाँ -0.5909
-2.7336 क्यों -0.5626
-3.5787 खयाल -0.6017
-3.5787 पूछने -0.6000
-3.5787 हक -0.5684
-3.5787 आम -0.6019
-3.5787 रास्ता -0.5990
-3.2777 जिसका -0.6011
-3.5787 चाहे -0.6018
-3.2777 खड़ा -0.5992
-3.5787 खटका -0.5993
-2.8797 तरह -0.5882
-3.5787 दिल -0.5965
-3.2777 निकाल -0.6003
-3.5787 चिनगारी -0.5986
-3.5787 भाँति -0.6019
-3.5787 ह्रदय -0.5985
-3.5787 अन्दर -0.6019
-3.5787 समा -0.6014
-3.5787 गरमी -0.5965
-3.5787 देह -0.6019
-3.5787 फुँकी -0.6018
-2.8797 द्वार -0.5923
-3.5787 बन्द -0.6011
-2.7336 लिया -0.5625
-3.2777 बड़ा -0.6018
-3.5787 सा -0.6019
-3.5787 चाकू -0.5994
-3.1016 उसे -0.6011
-3.5787 निकालकर -0.6019
-3.5787 सिरहाने -0.6017
-3.1016 रख -0.6011
-3.2777 सामने -0.5985
-3.5787 बैठी -0.6019
-3.5787 घूरती -0.6013
-3.1016 मालूम -0.6009
-3.5787 पुकारा -0.5684
-3.5787 रोयें -0.6013
-3.2777 कान -0.6017
-3.5787 लगाया -0.5684
-3.1016 कुण्डी -0.6017
-3.2777 खटखटा -0.6011
-3.5787 कलेजा -0.6018
-3.2777 धक् -0.6010
-3.1016 लगा -0.5664
-3.2777 वही -0.6007
-3.2777 बदमाश -0.6005
-2.8797 होंगे -0.5684
-2.9767 रहे -0.5973
-2.3483 हैं -0.5640
-2.9767 मुझसे -0.5983
-3.1016 काम -0.5952
-3.5787 झुँझलाहट -0.6016
-3.5787 खोला -0.5998
-3.2777 छज्जे -0.5986
-3.2777 होकर -0.6015
-3.2777 जोर -0.5957
-3.5787 क़ौन -0.6017
-3.5787 खड़खड़ा -0.6016
-3.5787 आवाज -0.6019
-3.5787 सुनकर -0.6007
-3.5787 शांत -0.5993
-3.2777 कितना -0.6018
-3.5787 ढाढ़स -0.5993
-2.4026 बाबू -0.5880
-3.5787 ज्ञानचंद -0.6007
-3.2777 पति -0.5929
-3.5787 मित्रों -0.5973
-3.5787 इनसे -0.6019
-3.5787 ज्यादा -0.6019
-3.5787 सज्जन -0.6018
-3.5787 खोल -0.6010
-2.8797 स्त्री -0.5879
-3.5787 मिसेज़ -0.6019
-3.5787 ज्ञानचन्द -0.6010
-3.5787 बड़ी -0.6010
-3.5787 पहल -0.6002
-3.5787 आई -0.6010
-2.9767 उनके -0.6015
-3.5787 चरण -0.6019
-3.5787 स्पर्श -0.6019
-3.5787 किए -0.5684
-3.5787 हमारे -0.6016
-2.9767 वहाँ -0.5921
-3.5787 मित्रता -0.6019
-3.5787 मर्दों -0.6005
-3.5787 रहती -0.5990
-3.5787 औरतों -0.6015
-3.5787 पाती -0.5684
-3.5787 जने -0.6018
-3.2777 ऊपर -0.5981
-2.4995 ज्ञान -0.6003
-3.5787 स्कूल -0.5973
-2.9767 मास्टर -0.5998
-3.5787 बड़े -0.6005
-3.2777 उदार -0.6018
-3.5787 विद्वान -0.6019
-3.5787 निष्कपट -0.5684
-3.2777 आज -0.5977
-3.5787 पथ -0.6019
-3.5787 प्रदर्शिका -0.6016
-3.5787 दोहरे -0.6019
-3.5787 बदन -0.5986
-3.5787 प्रतिभाशाली -0.6019
-3.5787 महिला -0.6010
-3.5787 चेहरे -0.5986
-3.5787 रोब -0.5994
-3.5787 रानी -0.6018
-3.2777 हों -0.5684
-2.9767 सिर -0.5882
-3.5787 पाँव -0.6015
-3.5787 गहनों -0.5965
-3.5787 लदी -0.6018
-3.2777 हुईं -0.5684
-3.1016 मुख -0.5985
-3.5787 सुन्दर -0.5986
-3.5787 होने -0.5986
-3.5787 आकर्षक -0.5994
-3.2777 शायद -0.5983
-3.5787 कहीं -0.5998
-3.5787 देखती -0.5970
-2.9767 मुँह -0.5975
-3.5787 सजीव -0.6019
-3.5787 प्रतिमा -0.6010
-3.5787 उतनी -0.6005
-3.5787 दयाल -0.5684
-3.2777 प्रश्न -0.5994
-3.5787 हिचकते -0.6011
-2.1808 कहा -0.5638
-3.5787 लेने -0.6016
-3.2777 पास -0.6010
-3.2777 रखना -0.6015
-3.1016 चाहते -0.5986
-3.2777 यहीं -0.6009
-3.5787 चलतीं -0.5684
-3.5787 अकेले -0.5970
-3.5787 रहने -0.6019
-3.5787 दूँगी -0.5684
-3.1016 खुफिया -0.5952
-3.5787 डटे -0.6011
-2.9767 समझ -0.6006
-3.5787 पत्नी -0.5986
-3.5787 देखकर -0.6016
-3.2777 उसकी -0.6014
-3.5787 आज्ञा -0.5965
-3.5787 ताँगा -0.6019
-3.5787 लाऊँ -0.5684
-2.5373 देवीजी -0.5870
-3.1016 साहब -0.6016
-3.5787 चुपके -0.5965
-3.1016 चले -0.5676
-3.5787 ठहरो -0.6008
-2.9767 बोलीं -0.5681
-3.5787 क़ै -0.6017
-3.1016 ताँगे -0.5937
-3.5787 लाओगे -0.5684
-3.5787 घबड़ा -0.6018
-3.2777 गये -0.5684
-3.5787 कै -0.6001
-3.5787 सवारियाँ -0.6005
-3.5787 बैठेंगी -0.5684
-3.5787 सन्दूक -0.6019
-3.5787 बिछावन -0.6019
-3.5787 बरतन -0.6019
-3.5787 भाँडे -0.5993
-3.5787 जायेंगे -0.5684
-3.2777 लेता -0.6017
-3.5787 आऊँगा -0.6016
-3.2777 डरते -0.6014
-2.9767 बोले -0.5676
-3.5787 सामान -0.6016
-2.9767 भर -0.5999
-3.5787 दोगे -0.5684
-3.2777 आऊँ -0.5684
-3.5787 अरे -0.5970
-3.5787 जाओगे -0.5995
-3.2777 जरा -0.6017
-2.9767 बात -0.5921
-3.5787 घंटा -0.6016
-3.5787 कहने -0.5986
-3.5787 पाई -0.5995
-3.5787 चल -0.6018
-3.5787 सकुचाते -0.6011
-2.8797 बहन -0.5928
-3.2777 कष्ट -0.5984
-2.8797 होगा -0.5586
-3.5787 तीक्ष्ण -0.6019
-3.5787 स्वर -0.5973
-3.5787 अवश्य -0.5684
-3.5787 जून -0.5973
-3.5787 पाव -0.6016
-3.5787 आटा -0.6019
-3.5787 खाओगी -0.6016
-3.5787 कोने -0.5973
-3.5787 अड्डा -0.6019
-3.5787 जमा -0.6019
-3.5787 लोगी -0.5684
-3.5787 आने -0.6000
-3.5787 तेल -0.6019
-3.5787 डालोगी -0.5684
-3.5787 थोड़ा -0.6018
-3.5787 झेंपते -0.6011
-3.2777 आप -0.5969
-3.5787 बना -0.6011
-3.2777 सदय -0.6015
-3.5787 कंधा -0.6019
-3.5787 पकड़कर -0.5992
-2.9767 जब -0.5983
-3.2777 तुम्हारे -0.6013
-3.5787 बाबूजी -0.6019
-3.5787 लौट -0.6019
-3.5787 आवें -0.5970
-3.5787 मेहमान -0.6017
-3.5787 लेना -0.5684
-3.5787 घाटा -0.6019
-3.5787 पूरा -0.5993
-3.5787 जायगा -0.5684
-3.5787 राजी -0.6013
-3.5787 चलो -0.6019
-3.5787 असबाब -0.6019
-3.5787 बाँधो -0.5684
-3.5787 खाट -0.6019
-3.5787 वाट -0.6018
-3.2777 कल -0.6008
-3.5787 मँगवा -0.6019
-3.5787 लेंगे -0.5684
-3.2777 ऐसी -0.6016
-3.5787 मीठी -0.6018
-3.2777 बातें -0.6017
-3.5787 करनेवाली -0.6015
-3.5787 देखी -0.5684
-3.5787 छोटी -0.6015
-3.1016 इससे -0.5994
-3.5787 अच्छी -0.6015
-3.5787 रखतीं -0.5684
-3.5787 क्रोध -0.5999
-3.1016 जैसे -0.6008
-3.1016 जीत -0.5675
-3.5787 सदैव -0.6016
-3.5787 मधुर -0.6019
-3.5787 विनोद -0.6019
-3.5787 खेला -0.6018
-3.2777 करता -0.5988
-3.5787 लड़का -0.6019
-3.5787 बाला -0.5986
-3.5787 दुखी -0.5983
-3.5787 लौंडा -0.6017
-3.5787 खुद -0.6019
-3.5787 करतीं -0.5684
-3.5787 कम -0.6019
-3.5787 खाकर -0.5998
-3.5787 मेहनत -0.6018
-3.2777 करके -0.5999
-3.5787 ह्रष्ट -0.6019
-3.5787 पुष्ट -0.6010
-3.5787 विश्राम -0.5970
-3.5787 भाग्य -0.5973
-3.5787 दुपहरी -0.5973
-3.5787 लेटती -0.6010
-3.5787 देतीं -0.5684
-3.5787 देखो -0.6006
-3.5787 खिलाने -0.5999
-3.5787 बस -0.6017
-3.1016 यही -0.5945
-3.5787 तकलीफ -0.5995
-3.5787 आठ -0.6005
-3.5787 गुजरे -0.6007
-3.5787 उन्हीं -0.6009
-3.2777 खुफियों -0.5978
-3.5787 माथा -0.6019
-3.5787 ठनका -0.5684
-3.5787 अभागे -0.6010
-3.2777 पीछे -0.6015
-3.5787 तुरन्त -0.6018
-3.2777 बहनजी -0.5624
-3.5787 वे -0.6009
-3.5787 मँडरा -0.6016
-3.5787 हिकारत -0.5965
-3.5787 क़ुत्ते -0.6001
-3.5787 फिरने -0.6010
-3.5787 चिन्तित -0.6018
-3.5787 क़ोई -0.6019
-3.5787 स्वांग -0.5986
-3.5787 करें -0.5684
-3.5787 बेपरवाही -0.5965
-3.5787 भूँकने -0.5985
-3.5787 सिवा -0.5998
-3.2777 सकते -0.6001
-3.5787 क़ाट -0.5995
-3.5787 हँसकर -0.6016
-3.5787 इसके -0.6016
-3.5787 भाग -0.5970
-3.2777 जाता -0.5646
-3.5787 दाल -0.5973
-3.5787 मक्खी -0.6019
-3.5787 पड़ -0.6014
-3.5787 टहलते -0.6018
-3.2777 देख -0.6013
-3.5787 आती -0.5684
-3.5787 आखिर -0.5986
-3.5787 नौकरशाही -0.6000
-3.5787 बिगाड़ -0.6014
-3.5787 सामर्थ्य -0.6005
-3.5787 भगाने -0.5986
-3.5787 तुले -0.6001
-3.5787 मिलेगा -0.5684
-3.2777 मारी -0.6017
-3.5787 फिरूँ -0.5684
-3.5787 नीची -0.6019
-3.5787 तबियत -0.5990
-3.5787 हफ्ता -0.5998
-3.5787 पिंड -0.5986
-3.5787 छोड़ा -0.5684
-3.5787 सूखते -0.6017
-3.1016 जाते -0.5669
-3.5787 रहना -0.6005
-3.5787 अनुचित -0.6017
-3.5787 होता -0.5994
-3.2777 शाम -0.5999
-3.5787 घबड़ाये -0.6011
-3.5787 बरामदे -0.5973
-3.5787 परवल -0.6019
-3.5787 छील -0.6011
-3.5787 इशारे -0.5965
-3.2777 बुलाया -0.5680
-2.9767 बैठे -0.5987
-3.5787 कपड़े -0.6019
-3.5787 वपड़े -0.6019
-3.5787 उतारो -0.6016
-3.5787 धोओ -0.6006
-3.5787 खाओ -0.6010
-2.9767 जो -0.6007
-2.8797 कहना -0.5958
-3.5787 देना -0.5684
-3.2777 ञान -0.6003
-3.5787 धैर्य -0.6016
-3.5787 पेट -0.5973
-3.5787 गन्ध -0.6015
-3.5787 पचती -0.5995
-3.5787 आग्रह -0.5965
-3.1016 तुमसे -0.5963
-3.5787 उठा -0.5983
-3.5787 आफत -0.5973
-2.6245 देवी -0.5952
-3.5787 कहते -0.6013
-3.5787 आओ -0.5684
-3.2777 पकड़ -0.6011
-3.5787 छुड़ा -0.6019
-3.5787 सकी -0.5684
-3.5787 सब्र -0.5995
-3.5787 देर -0.6019
-3.5787 रुक -0.6017
-2.8006 प्रिन्सिपल -0.5910
-3.2777 लड़ाई -0.5992
-3.5787 बनावटी -0.6019
-3.5787 गम्भीरता -0.5965
-3.5787 सच -0.6017
-3.5787 खूब -0.6019
-3.5787 पीटा -0.5986
-3.5787 दिल्लगी -0.6019
-3.5787 सूझती -0.5990
-3.5787 नौकरी -0.6018
-3.5787 लड़े -0.6013
-3.5787 थोड़े -0.6005
-3.5787 लड़ा -0.6016
-3.5787 डाँटा -0.5684
-3.5787 बेकसूर -0.5684
-3.2777 कहूँ -0.5684
-3.2777 पर्दा -0.5643
-3.1016 चुकी -0.5988
-3.5787 इन्हीं -0.5985
-3.5787 बारे -0.5973
-3.2777 पहेली -0.5999
-3.5787 बूझकर -0.5992
-3.2777 अच्छा -0.6015
-3.5787 झगड़ा -0.6015
-3.5787 शिकायत -0.5986
-3.5787 होगी -0.5684
-3.5787 आसानी -0.5965
-3.5787 बूझा -0.6019
-3.5787 जाना -0.6019
-3.5787 स्वीकार -0.5986
-3.2777 हाकिम -0.6018
-3.2777 जिला -0.5929
-3.5787 उसने -0.6014
-3.5787 तलब -0.6013
-3.5787 हुक्म -0.6010
-3.5787 अन्दाज -0.5965
-3.5787 लो -0.5684
-3.5787 कहता -0.5684
-3.5787 आड़े -0.6019
-3.5787 हाथों -0.6013
-3.5787 ज़िस -0.6018
-3.5787 उसमें -0.6018
-3.2777 सोच -0.5992
-3.5787 विचार -0.6019
-3.5787 कैसा -0.5684
-3.5787 सिटपिटाकर -0.6016
-3.5787 सोचना -0.5970
-3.5787 जरूरी -0.5994
-3.5787 त्योरियाँ -0.6019
-3.5787 बदल -0.6019
-3.5787 गयीं -0.5684
-3.5787 उनका -0.6000
-3.5787 छोड़ -0.6017
-3.5787 माने -0.5970
-3.1016 इस्तीफा -0.6017
-3.2777 दे -0.6000
-3.5787 जाओ -0.6017
-3.5787 धोना -0.5684
-3.5787 रोकर -0.5992
-3.5787 डाँट -0.6019
-3.5787 बतायी -0.5684
-2.9767 तू -0.6009
-3.5787 चुप -0.6019
-3.5787 रह -0.5983
-3.5787 लूँगी -0.5684
-3.5787 बीच -0.5973
-3.5787 कूदती -0.5990
-3.2777 रहेंगे -0.5968
-3.1016 साथ -0.6014
-3.2777 मरेंगे -0.5629
-3.5787 मर्दुए -0.5999
-3.5787 आधी -0.6018
-3.5787 बीत -0.6014
-3.5787 करना -0.5986
-3.5787 लगता -0.5993
-3.5787 खिसियाकर -0.5992
-3.5787 दूँगा -0.6010
-3.5787 रात -0.6016
-3.5787 नींद -0.5983
-3.5787 आयी -0.5684
-3.2777 बाप -0.5992
-3.5787 देखना -0.6017
-3.5787 उसका -0.6000
-3.5787 आदर -0.5684
-3.5787 राह -0.5986
-3.5787 भिखारिन -0.6000
-3.5787 सम्मान -0.5684
-3.5787 सचमुच -0.6010
-3.5787 फ़ैसला -0.6018
-3.5787 आना -0.5684
-3.5787 सोचकर -0.6013
-3.5787 देने -0.5986
-3.5787 जरूरत -0.6015
-3.5787 अन्याय -0.6011
-3.5787 कारण -0.6015
-3.5787 विपत्ति -0.6019
-3.5787 झेलनी -0.6015
-3.5787 हास्य -0.6017
-3.5787 क़ह -0.6017
-3.5787 बहुत -0.6006
-3.5787 कहूँगी -0.5684
-3.5787 बता -0.6019
-3.5787 तेरे -0.6018
-3.2777 जेल -0.5971
-3.5787 इसीलिए -0.5970
-3.5787 स्वयंसेवक -0.6017
-3.2777 हमारी -0.6018
-3.5787 सेना -0.5985
-3.5787 वीर -0.6001
-3.5787 लड़ाइयाँ -0.6019
-3.5787 लड़ -0.6016
-3.5787 बाल -0.6019
-3.5787 बच्चे -0.6015
-3.5787 माँ -0.6018
-3.5787 कारोबार -0.6019
-3.5787 करते -0.6015
-3.5787 देश -0.5986
-3.5787 लड़ने -0.5985
-3.5787 वीरों -0.6000
-3.5787 डाल -0.6010
-3.5787 दर्शनों -0.5965
-3.5787 पवित्र -0.6016
-3.5787 तुझ -0.5986
-3.2777 एहसान -0.5973
-3.5787 मुझ -0.5986
-3.5787 दया -0.6019
-3.5787 सागर -0.5973
-3.5787 डुबकियाँ -0.6019
-3.5787 खाने -0.6019
-3.5787 लगी -0.6019
-3.5787 बोलती -0.5993
-3.5787 लौटे -0.5970
-3.5787 विजय -0.6000
-3.5787 आनन्द -0.5994
-3.5787 पूछा -0.6019
-3.5787 हार -0.6008
-3.5787 अकड़कर -0.5992
-3.5787 चक्कर -0.5973
-3.5787 मोटर -0.5986
-3.5787 बैठकर -0.6009
-3.5787 बोला -0.6018
-3.5787 पोलिटिकल -0.6019
-3.5787 जलसों -0.5973
-3.5787 क़भी -0.6019
-3.5787 भूलकर -0.5995
-3.1016 मेम्बर -0.5921
-3.5787 दोस्त -0.5995
-3.5787 फंड -0.5973
-3.5787 चन्दा -0.5970
-3.5787 देते -0.5684
-3.5787 कानी -0.6019
-3.5787 कौड़ी -0.5995
-3.5787 देता -0.5684
-3.5787 हमें -0.6019
-3.5787 आपसे -0.6006
-3.5787 आपका -0.6017
-3.5787 वापस -0.6018
-3.5787 गले -0.6017

\2-grams:
-2.5767 <s> प्रियतम -0.3979
-0.4260 प्रियतम को -0.5846
-1.4037 को एक -0.5619
-1.0544 एक वर्ष 0.0000
-0.4260 वर्ष की -0.5911
-1.6021 की सजा 0.0000
-0.1249 सजा हो -0.5740
-1.2041 हो गयी -0.1761
-0.2041 गयी </s> -0.6021
-2.0996 <s> और -0.5502
-1.4260 और अपराध -0.4771
-0.6021 अपराध केवल -0.3979
-0.4260 केवल इतना -0.5441
-0.9031 इतना था -0.1823
-0.2079 था </s> -0.6021
-2.5767 <s> कि -0.5714
-1.1663 कि तीन -0.5119
-0.7270 तीन दिन -0.5643
-1.0792 दिन पहले -0.5119
-0.7270 पहले जेठ 0.0000
-0.1249 जेठ की -0.5798
-1.6021 की तपती 0.0000
-0.1249 तपती दोपहरी 0.0000
-0.1249 दोपहरी में -0.5940
-1.7377 में </s> -0.6021
-2.2757 <s> उन्होंने -0.4472
-0.8239 उन्होंने राष्ट्र 0.0000
-0.1249 राष्ट्र के -0.5914
-1.6163 के कई 0.0000
-0.1249 कई सेवकों 0.0000
-0.1249 सेवकों का -0.5836
-1.3802 का शर्बत 0.0000
-0.1249 शर्बत पान 0.0000
-0.1249 पान से -0.5952
-1.8062 से सत्कार -0.3010
-0.3010 सत्कार किया -0.3979
-0.4260 किया था -0.1823
-1.2980 <s> मैं -0.3222
-1.6021 मैं उस -0.5441
-0.9031 उस वक्त -0.5119
-0.7270 वक्त अदालत -0.4771
-0.6021 अदालत में -0.5940
-1.7377 में खड़ी -0.4771
-0.6021 खड़ी थी -0.2596
-0.2632 थी </s> -0.6021
-2.5767 <s> कमरे -0.3979
-0.4260 कमरे के -0.5805
-1.6163 के बाहर -0.4771
-0.6021 बाहर सारे 0.0000
-0.1249 सारे नगर 0.0000
-0.1249 नगर की -0.5911
-1.6021 की राजनैतिक 0.0000
-0.1249 राजनैतिक चेतना 0.0000
-0.1249 चेतना किसी -0.5441
-0.9031 किसी बंदी 0.0000
-0.1249 बंदी पशु 0.0000
-0.1249 पशु की -0.5911
-1.6021 की भांति 0.0000
-0.1249 भांति खड़ी -0.4771
-0.6021 खड़ी चीत्कार 0.0000
-0.1249 चीत्कार कर -0.3979
-0.4260 कर रही -0.2430
-0.7270 रही थी -0.2596
-1.7986 <s> मेरे -0.4586
-1.3291 मेरे प्राणधन 0.0000
-0.1249 प्राणधन हथकड़ियों 0.0000
-0.1249 हथकड़ियों से -0.5952
-1.8062 से जकड़े 0.0000
-0.1249 जकड़े हुए -0.5593
-1.0280 हुए लाये 0.0000
-0.1249 लाये गए -0.3979
-0.4260 गए </s> -0.6021
-2.5767 <s> चारों 0.0000
-0.1249 चारों ओर -0.5441
-0.9031 ओर सन्नाटा 0.0000
-0.1249 सन्नाटा छा 0.0000
-0.1249 छा गया 0.0000
-0.1249 गया </s> -0.6021
-1.3291 मेरे भीतर -0.5119
-0.7270 भीतर हाहाकार 0.0000
-0.1249 हाहाकार मचा 0.0000
-0.1249 मचा हुआ -0.4472
-0.5229 हुआ था -0.1823
-2.5767 <s> मानो -0.5119
-0.7270 मानो प्राण -0.4771
-0.6021 प्राण पिघला 0.0000
-0.1249 पिघला जा -0.3979
-0.4260 जा रहा -0.5119
-0.7270 रहा हो -0.5283
-0.8062 हो </s> -0.6021
-2.5767 <s> आवेश 0.0000
-0.1249 आवेश की -0.5911
-1.6021 की लहरें 0.0000
-0.1249 लहरें सी -0.3979
-0.4260 सी उठ 0.0000
-0.1249 उठ उठकर 0.0000
-0.1249 उठकर समस्त 0.0000
-0.1249 समस्त शरीर 0.0000
-0.1249 शरीर को -0.5846
-1.4037 को रोमांचित 0.0000
-0.1249 रोमांचित किये 0.0000
-0.1249 किये देती 0.0000
-0.1249 देती थीं -0.1249
-0.1761 थीं </s> -0.6021
-2.5767 <s> ओह 0.0000
-0.1249 ओह इतना -0.5441
-0.9031 इतना गर्व -0.3979
-0.4260 गर्व मुझे -0.5781
-1.2711 मुझे कभी -0.2430
-0.2499 कभी नहीं -0.5714
-1.6435 नहीं हुआ -0.4472
-1.6736 <s> वह -0.2041
-1.1249 वह अदालत -0.4771
-0.6021 अदालत </s> -0.6021
-2.5767 <s> कुरसी 0.0000
-0.1249 कुरसी पर -0.5911
-1.6021 पर बैठा -0.3010
-0.3010 बैठा हुआ -0.4472
-0.8239 हुआ अंग्रेज 0.0000
-0.1249 अंग्रेज अफसर 0.0000
-0.1249 अफसर लाल 0.0000
-0.1249 लाल जरीदार 0.0000
-0.1249 जरीदार पगड़ियाँ 0.0000
-0.1249 पगड़ियाँ बाँधे 0.0000
-0.1249 बाँधे हुए -0.5593
-1.0280 हुए पुलिस -0.4771
-0.6021 पुलिस के -0.5914
-1.6163 के कर्मचारी 0.0000
-0.1249 कर्मचारी </s> -0.6021
-2.5767 <s> सब -0.5119
-0.7270 सब मेरी -0.5740
-1.2041 मेरी आँखो 0.0000
-0.1249 आँखो में -0.5940
-1.7377 में तुच्छ 0.0000
-0.1249 तुच्छ जान -0.4771
-0.6021 जान पड़ते 0.0000
-0.1249 पड़ते थे -0.0969
-0.1627 थे </s> -0.6021
-2.2757 <s> बार -0.4973
-0.6690 बार बार -0.4973
-0.9700 बार जी -0.3979
-0.4260 जी में -0.5859
-1.7377 में आता 0.0000
-0.1249 आता था -0.1823
-2.5767 <s> दौड़कर 0.0000
-0.1249 दौड़कर जीवन 0.0000
-0.1249 जीवन धन 0.0000
-0.1249 धन के -0.5914
-1.6163 के चरणों 0.0000
-0.1249 चरणों में -0.5940
-1.7377 में लिपट 0.0000
-0.1249 लिपट जाऊँ 0.0000
-0.1249 जाऊँ और -0.5855
-1.4260 और उसी -0.5119
-0.7270 उसी दशा 0.0000
-0.1249 दशा में -0.5859
-1.7377 में प्राण -0.4771
-0.6021 प्राण त्याग -0.3979
-0.4260 त्याग दूँ 0.0000
-0.1249 दूँ </s> -0.6021
-2.2757 <s> कितनी -0.3010
-0.6021 कितनी शान्त 0.0000
-0.1249 शान्त अविचलित 0.0000
-0.1249 अविचलित तेज 0.0000
-0.1249 तेज और -0.5855
-1.4260 और स्वाभिमान 0.0000
-0.1249 स्वाभिमान से -0.5952
-1.8062 से प्रदीप्त 0.0000
-0.1249 प्रदीप्त मूर्ति 0.0000
-0.1249 मूर्ति थी -0.2596
-2.5767 <s> ग्लानि 0.0000
-0.1249 ग्लानि विषाद 0.0000
-0.1249 विषाद या -0.5119
-0.7270 या शोक 0.0000
-0.1249 शोक की -0.5911
-1.6021 की छाया 0.0000
-0.1249 छाया भी -0.5209
-0.7684 भी न -0.5051
-1.1249 न थी -0.2258
-2.5767 <s> नहीं -0.5921
-1.6435 नहीं उन 0.0000
-0.1249 उन ओठों 0.0000
-0.1249 ओठों पर -0.5911
-1.6021 पर एक -0.5825
-1.3554 एक स्फूर्ति 0.0000
-0.1249 स्फूर्ति से -0.5952
-1.8062 से भरी 0.0000
-0.1249 भरी हुई -0.5528
-0.9700 हुई मनोहारिणी 0.0000
-0.1249 मनोहारिणी ओजस्वी 0.0000
-0.1249 ओजस्वी मुस्कान 0.0000
-0.1249 मुस्कान थी -0.2596
-2.0996 <s> इस -0.4771
-1.0792 इस अपराध -0.4771
-0.6021 अपराध के -0.5461
-0.9173 के लिए -0.1761
-0.9031 लिए एक -0.5619
-0.4260 वर्ष का -0.5836
-1.3802 का कठिन 0.0000
-0.1249 कठिन कारावास 0.0000
-0.1249 कारावास </s> -0.6021
-2.5767 <s> वाह 0.0000
-0.1249 वाह रे 0.0000
-0.1249 रे न्याय 0.0000
-0.1249 न्याय तेरी -0.3979
-0.4260 तेरी बलिहारी 0.0000
-0.1249 बलिहारी है -0.2218
-0.2341 है </s> -0.6021
-1.6021 मैं ऐसे -0.3979
-0.4260 ऐसे हजार 0.0000
-0.1249 हजार अपराध -0.4771
-0.6021 अपराध करने -0.4973
-0.6690 करने को -0.5663
-1.1027 को तैयार 0.0000
-0.4260 तैयार थी -0.2596
-2.5767 <s> प्राणनाथ 0.0000
-0.1249 प्राणनाथ ने -0.5903
-1.5721 ने चलते 0.0000
-0.1249 चलते समय -0.3979
-0.4260 समय एक -0.5825
-1.3554 एक बार -0.5528
-0.9700 बार मेरी -0.5740
-1.2041 मेरी ओर -0.5441
-0.9031 ओर देखा -0.3590
-0.3680 देखा </s> -0.6021
-2.2757 <s> कुछ -0.5488
-1.2389 कुछ मुस्कराये 0.0000
-0.1249 मुस्कराये फिर -0.5643
-1.0792 फिर उनकी -0.5119
-0.7270 उनकी मुद्रा 0.0000
-0.1249 मुद्रा कठोर -0.5315
-0.8239 कठोर हो -0.5740
-1.2041 हो गई -0.3979
-0.4260 गई </s> -0.6021
-2.5767 <s> अदालत -0.4771
-0.6021 अदालत से -0.5952
-1.8062 से लौटकर -0.4771
-0.6021 लौटकर मैंने -0.5883
-1.5051 मैंने पाँच 0.0000
-0.1249 पाँच रुपये 0.0000
-0.1249 रुपये की -0.5911
-1.6021 की मिठाई 0.0000
-0.1249 मिठाई मँगवाई 0.0000
-0.1249 मँगवाई और -0.5855
-1.4260 और स्वयंसेवकों -0.4771
-0.6021 स्वयंसेवकों को -0.5663
-1.1027 को बुलाकर -0.3010
-0.6021 बुलाकर खिलाया 0.0000
-0.1249 खिलाया </s> -0.6021
-1.4260 और संध्या 0.0000
-0.1249 संध्या समय -0.3979
-0.4260 समय </s> -0.6021
-1.6021 मैं पहली 0.0000
-0.1249 पहली बार -0.4973
-0.9700 बार कांग्रेस -0.2430
-0.2499 कांग्रेस के -0.5693
-1.6163 के जलसे 0.0000
-0.1249 जलसे में -0.5940
-1.7377 में शरीक -0.3979
-0.4260 शरीक हुई -0.4973
-0.6690 हुई </s> -0.6021
-2.5767 <s> शरीक -0.3979
-0.4260 शरीक ही -0.5528
-0.9700 ही नहीं -0.5819
-1.6435 नहीं हुई -0.5528
-0.9700 हुई मंच 0.0000
-0.1249 मंच पर -0.5798
-1.3010 पर जाकर -0.4973
-0.9700 जाकर बोली -0.4771
-0.6021 बोली और -0.5855
-1.4260 और सत्याग्रह 0.0000
-0.1249 सत्याग्रह की -0.5911
-1.6021 की प्रतिज्ञा 0.0000
-0.1249 प्रतिज्ञा ले 0.0000
-0.1249 ले ली 0.0000
-0.1249 ली </s> -0.6021
-2.0996 <s> मेरी -0.5119
-1.2041 मेरी आत्मा -0.3979
-0.4260 आत्मा में -0.5940
-1.7377 में इतनी -0.5315
-0.8239 इतनी शक्ति 0.0000
-0.1249 शक्ति कहाँ -0.5119
-0.7270 कहाँ से -0.5952
-1.8062 से आ -0.3979
-0.4260 आ गई -0.3010
-0.9031 गई नहीं -0.5819
-1.3424 नहीं कह -0.5315
-0.8239 कह सकती -0.4771
-0.6021 सकती </s> -0.6021
-2.5767 <s> सर्वस्व 0.0000
-0.1249 सर्वस्व लुट 0.0000
-0.1249 लुट जाने -0.4771
-0.6021 जाने के -0.5805
-1.3153 के बाद 0.0000
-0.4260 बाद फिर -0.5643
-1.0792 फिर किसकी 0.0000
-0.1249 किसकी शंका -0.5119
-0.7270 शंका और -0.5855
-1.4260 और किसका 0.0000
-0.1249 किसका डर -0.5119
-0.7270 डर </s> -0.6021
-2.5767 <s> विधाता 0.0000
-0.1249 विधाता का -0.5836
-1.3802 का कठोर -0.5315
-0.8239 कठोर से -0.5952
-1.8062 से कठोर -0.5315
-0.8239 कठोर आघात 0.0000
-0.1249 आघात भी -0.5870
-1.4674 भी अब -0.5441
-0.9031 अब मेरा -0.5441
-0.9031 मेरा क्या -0.5883
-1.5051 क्या अहित 0.0000
-0.1249 अहित कर -0.5593
-1.0280 कर सकता -0.4771
-0.6021 सकता था -0.1823
-2.0996 <s> दूसरे 0.0000
-0.1249 दूसरे दिन -0.4260
-0.7782 दिन मैंने -0.5740
-1.5051 मैंने दो -0.5643
-1.0792 दो तार -0.3979
-0.4260 तार दिए 0.0000
-0.1249 दिए </s> -0.6021
-1.9747 <s> एक -0.4685
-1.3554 एक पिताजी -0.5119
-0.7270 पिताजी को -0.5846
-1.4037 को दूसरा -0.3979
-0.4260 दूसरा ससुरजी -0.5119
-0.7270 ससुरजी को -0.5846
-1.4037 को </s> -0.6021
-2.2757 <s> ससुरजी -0.3979
-0.7270 ससुरजी पेंशन -0.4771
-0.6021 पेंशन पाते 0.0000
-0.1249 पाते थे -0.0969
-2.2757 <s> पिताजी -0.3979
-0.7270 पिताजी जंगल 0.0000
-0.1249 जंगल के -0.5914
-1.6163 के महकमे 0.0000
-0.1249 महकमे में -0.5940
-1.7377 में अच्छे 0.0000
-0.1249 अच्छे पद 0.0000
-0.1249 पद पर -0.5911
-1.6021 पर थे -0.0969
-1.6736 <s> पर -0.5051
-1.6021 पर सारा -0.3979
-0.4260 सारा दिन -0.5643
-1.0792 दिन गुजर 0.0000
-0.1249 गुजर गया 0.0000
-2.5767 <s> तार -0.3979
-0.4260 तार का -0.5836
-1.3802 का जवाब -0.5528
-0.9700 जवाब नदारद 0.0000
-0.1249 नदारद </s> -0.6021
-1.0792 दिन भी -0.5870
-1.4674 भी कोई -0.5563
-1.0000 कोई जवाब -0.4973
-0.6690 जवाब नहीं -0.5497
-1.0414 नहीं </s> -0.6021
-2.5767 <s> तीसरे 0.0000
-0.1249 तीसरे दिन -0.5643
-1.0792 दिन दोनों -0.5682
-1.1249 दोनों महाशयों 0.0000
-0.1249 महाशयों के -0.5914
-1.6163 के पत्र -0.5119
-0.7270 पत्र आये -0.3010
-0.3010 आये </s> -0.6021
-2.2757 <s> दोनों -0.5315
-1.1249 दोनों जामे 0.0000
-0.1249 जामे से -0.5952
-1.8062 से बाहर -0.4771
-0.6021 बाहर थे -0.0969
-0.7270 ससुरजी ने -0.5903
-1.5721 ने लिखा -0.5315
-0.8239 लिखा आशा -0.3979
-0.4260 आशा थी -0.5870
-1.4674 थी तुम -0.5441
-0.9031 तुम लोग 0.0000
-0.1249 लोग बुढ़ापे 0.0000
-0.1249 बुढ़ापे में -0.5940
-1.7377 में मेरा -0.5441
-0.9031 मेरा पालन 0.0000
-0.1249 पालन करोगे 0.0000
-0.1249 करोगे </s> -0.6021
-2.5767 <s> तुमने -0.4771
-0.6021 तुमने उस -0.5441
-0.9031 उस आशा -0.3979
-0.4260 आशा पर -0.5911
-1.6021 पर पानी 0.0000
-0.1249 पानी फेर -0.3979
-0.4260 फेर दिया -0.3680
-0.3802 दिया </s> -0.6021
-1.9747 <s> अब -0.3010
-0.9031 अब क्या -0.5883
-1.5051 क्या चाहती -0.3979
-0.4260 चाहती हो -0.5883
-1.5051 हो मैं -0.5911
-1.6021 मैं भिक्षा 0.0000
-0.1249 भिक्षा माँगूँ 0.0000
-0.1249 माँगूँ </s> -0.6021
-1.6021 मैं सरकार 0.0000
-0.1249 सरकार से -0.5952
-1.8062 से पेंशन -0.4771
-0.6021 पेंशन पाता 0.0000
-0.1249 पाता हूँ 0.0000
-0.1249 हूँ </s> -0.6021
-2.2757 <s> तुम्हें -0.4472
-0.8239 तुम्हें आश्रय 0.0000
-0.1249 आश्रय देकर 0.0000
-0.1249 देकर मैं -0.5911
-1.6021 मैं अपनी -0.5315
-0.8239 अपनी पेंशन -0.4771
-0.6021 पेंशन से -0.5952
-1.8062 से हाथ -0.5119
-0.7270 हाथ नहीं -0.5921
-1.6435 नहीं धो 0.0000
-0.1249 धो सकता -0.4771
-0.6021 सकता </s> -0.6021
-0.7270 पिताजी के -0.5914
-1.6163 के शब्द 0.0000
-0.1249 शब्द इतने 0.0000
-0.1249 इतने कठोर -0.5315
-0.8239 कठोर न -0.5911
-1.6021 न थे -0.0969
-1.6021 पर भाव -0.4771
-0.6021 भाव लगभग 0.0000
-0.1249 लगभग ऐसा -0.3979
-0.4260 ऐसा ही -0.5781
-1.2711 ही था -0.1823
-2.5767 <s> इसी 0.0000
-0.1249 इसी साल 0.0000
-0.1249 साल उन्हें -0.5528
-0.9700 उन्हें ग्रेड -0.3979
-0.4260 ग्रेड मिलनेवाला 0.0000
-0.1249 मिलनेवाला था -0.1823
-1.1249 वह मुझे -0.5781
-1.2711 मुझे बुलायेंगे 0.0000
-0.1249 बुलायेंगे तो -0.5946
-1.7684 तो सम्भव 0.0000
-0.1249 सम्भव है -0.5898
-1.5563 है ग्रेड -0.3979
-0.4260 ग्रेड से -0.5952
-1.8062 से वंचित 0.0000
-0.1249 वंचित होना 0.0000
-0.1249 होना पड़े -0.3424
-0.3468 पड़े </s> -0.6021
-1.8778 <s> हाँ -0.1761
-0.9031 हाँ वह -0.5682
-1.1249 वह मेरी -0.5740
-1.2041 मेरी सहायता 0.0000
-0.1249 सहायता मौखिक 0.0000
-0.1249 मौखिक रूप -0.3979
-0.4260 रूप से -0.5952
-1.8062 से करने -0.4973
-0.4260 तैयार थे -0.0969
-1.4006 <s> मैंने -0.2430
-1.5051 मैंने दोनों -0.5682
-1.1249 दोनों पत्र -0.5119
-0.7270 पत्र फाड़कर 0.0000
-0.1249 फाड़कर फेंक 0.0000
-0.1249 फेंक दिये -0.3979
-0.4260 दिये और -0.5855
-1.4260 और उन्हें -0.5528
-0.9700 उन्हें कोई -0.5563
-1.0000 कोई पत्र -0.3979
-0.7270 पत्र न -0.5911
-1.6021 न लिखा -0.4472
-0.5229 लिखा </s> -0.6021
-2.5767 <s> हा 0.0000
-0.1249 हा स्वार्थ -0.3979
-0.4260 स्वार्थ तेरी -0.3979
-0.4260 तेरी माया 0.0000
-0.1249 माया कितनी -0.4771
-0.6021 कितनी प्रबल 0.0000
-0.1249 प्रबल है -0.2218
-2.2757 <s> अपना 0.0000
-0.4260 अपना ही -0.5781
-1.2711 ही पिता 0.0000
-0.1249 पिता केवल -0.3979
-0.4260 केवल स्वार्थ -0.3979
-0.4260 स्वार्थ में -0.5940
-1.7377 में बाधा 0.0000
-0.1249 बाधा पड़ने 0.0000
-0.1249 पड़ने के -0.5914
-1.6163 के भय 0.0000
-0.1249 भय से -0.5952
-1.8062 से </s> -0.6021
-2.5767 <s> लड़की 0.0000
-0.1249 लड़की की -0.5911
-1.6021 की तरफ 0.0000
-0.1249 तरफ से -0.5883
-1.5051 से इतना -0.4771
-0.9031 इतना निर्दय 0.0000
-0.1249 निर्दय हो -0.5740
-1.2041 हो जाय 0.0000
-0.1249 जाय </s> -0.6021
-0.4260 अपना ससुर -0.3979
-0.4260 ससुर अपनी -0.5315
-0.8239 अपनी बहू 0.0000
-0.1249 बहू की -0.5563
-1.0000 की ओर -0.3010
-0.9031 ओर से -0.5883
-0.9031 इतना उदासीन 0.0000
-0.1249 उदासीन हो -0.5740
-1.8778 <s> मगर 0.0000
-0.6021 मगर अभी -0.4973
-0.9700 अभी मेरी -0.5740
-1.2041 मेरी उम्र -0.3979
-0.4260 उम्र ही -0.5528
-0.9700 ही क्या -0.5740
-1.2041 क्या है -0.1919
-1.5563 है अभी -0.4973
-0.6690 अभी तो -0.5870
-1.7684 तो सारी 0.0000
-0.1249 सारी दुनिया 0.0000
-0.1249 दुनिया देखने 0.0000
-0.1249 देखने को -0.5846
-1.4037 को पड़ी -0.4771
-0.6021 पड़ी है -0.2218
-0.9031 अब तक -0.5315
-0.8239 तक मैं -0.5911
-1.6021 मैं अपने -0.5119
-0.7270 अपने विषय 0.0000
-0.1249 विषय में -0.5940
-1.7377 में निश्चिन्त 0.0000
-0.1249 निश्चिन्त थी -0.2596
-2.2757 <s> लेकिन 0.0000
-0.4260 लेकिन अब -0.5441
-0.9031 अब यह -0.5836
-1.3802 यह नई 0.0000
-0.1249 नई चिन्ता -0.4771
-0.6021 चिन्ता सवार -0.3979
-0.4260 सवार हुई -0.4973
-1.0792 इस निर्जन 0.0000
-0.1249 निर्जन घर -0.4771
-0.6021 घर में -0.5775
-1.7377 में निराधार 0.0000
-0.1249 निराधार निराश्रय 0.0000
-0.1249 निराश्रय कैसे -0.3979
-0.4260 कैसे रहूँगी 0.0000
-0.1249 रहूँगी </s> -0.6021
-0.9031 मगर जाऊँगी 0.0000
-0.1249 जाऊँगी कहाँ -0.3979
-0.4260 कहाँ </s> -0.6021
-2.5767 <s> अगर 0.0000
-0.1249 अगर कोई -0.5798
-1.3010 कोई मर्द 0.0000
-0.1249 मर्द होती -0.3979
-0.4260 होती तो -0.5870
-1.7684 तो कांग्रेस -0.2430
-1.6163 के आश्रम 0.0000
-0.1249 आश्रम में -0.5940
-1.7377 में चली -0.3979
-0.4260 चली जाती -0.3979
-0.4260 जाती या -0.5119
-0.7270 या कोई -0.5798
-1.3010 कोई मजूरी 0.0000
-0.1249 मजूरी कर -0.5593
-1.0280 कर लेती 0.0000
-0.1249 लेती </s> -0.6021
-1.3291 मेरे पैरों 0.0000
-0.1249 पैरों में -0.5940
-1.7377 में नारीत्व 0.0000
-0.1249 नारीत्व की -0.5315
-1.6021 की बेड़ियाँ 0.0000
-0.1249 बेड़ियाँ पड़ी -0.4771
-0.6021 पड़ी हुई -0.5528
-0.9700 हुई थीं -0.1249
-2.2757 <s> अपनी -0.4472
-0.8239 अपनी रक्षा 0.0000
-0.1249 रक्षा की -0.5798
-1.6021 की इतनी -0.5315
-0.8239 इतनी चिन्ता -0.4771
-0.6021 चिन्ता न -0.5682
-1.4674 थी जितनी -0.3979
-0.4260 जितनी अपने -0.5119
-0.7270 अपने नारीत्व 0.0000
-1.6021 की रक्षा 0.0000
-1.6021 की </s> -0.6021
-0.8239 अपनी जान -0.4771
-0.6021 जान की -0.5911
-1.6021 की फिक्र 0.0000
-0.1249 फिक्र न -0.5682
-1.6021 पर नारीत्व 0.0000
-0.9031 ओर किसी -0.4771
-0.6021 किसी की -0.5798
-1.6021 की आँख 0.0000
-0.1249 आँख भी -0.5209
-1.6021 न उठनी 0.0000
-0.1249 उठनी चाहिए 0.0000
-0.1249 चाहिए </s> -0.6021
-2.2757 <s> किसी -0.3979
-1.6021 की आहट 0.0000
-0.1249 आहट पाकर 0.0000
-0.1249 पाकर मैंने -0.5740
-1.2041 मैंने नीचे -0.3010
-0.6021 नीचे देखा -0.3590
-2.5767 <s> दो -0.5229
-0.7782 दो आदमी -0.3979
-0.7270 आदमी खड़े -0.5528
-0.9700 खड़े थे -0.0969
-2.5767 <s> जी -0.3979
-1.7377 में आया -0.4771
-0.6021 आया पूछूँ 0.0000
-0.1249 पूछूँ तुम -0.5441
-0.9031 तुम कौन -0.4771
-0.6021 कौन हो -0.5883
-1.5051 हो यहाँ -0.5643
-1.0792 यहाँ क्यों -0.5528
-0.9700 क्यों खड़े -0.4337
-0.4929 खड़े हो -0.5119
-0.9031 मगर फिर -0.5643
-1.0792 फिर खयाल 0.0000
-0.1249 खयाल आया -0.4771
-0.6021 आया मुझे -0.5781
-1.2711 मुझे यह -0.5836
-1.3802 यह पूछने 0.0000
-0.1249 पूछने का -0.5643
-1.0792 का क्या -0.5740
-1.5051 क्या हक 0.0000
-0.1249 हक </s> -0.6021
-2.5767 <s> आम 0.0000
-0.1249 आम रास्ता 0.0000
-0.1249 रास्ता है -0.5898
-1.5563 है जिसका -0.3979
-0.4260 जिसका जी -0.5119
-0.7270 जी चाहे 0.0000
-0.1249 चाहे खड़ा -0.3979
-0.4260 खड़ा हो -0.5283
-1.6021 पर मुझे -0.5781
-1.2711 मुझे खटका 0.0000
-0.1249 खटका हो -0.5740
-1.2041 हो गया 0.0000
-2.2757 <s> उस -0.4771
-0.9031 उस शंका -0.5119
-0.7270 शंका को -0.5846
-1.4037 को किसी -0.4771
-0.6021 किसी तरह -0.4472
-0.8239 तरह दिल 0.0000
-0.1249 दिल से -0.5952
-1.8062 से न -0.5911
-1.6021 न निकाल -0.3979
-0.4260 निकाल सकती -0.4771
-0.6021 सकती थी -0.2596
-1.1249 वह एक -0.5825
-1.3554 एक चिनगारी 0.0000
-0.1249 चिनगारी की -0.5911
-1.6021 की भाँति 0.0000
-0.1249 भाँति ह्रदय 0.0000
-0.1249 ह्रदय के -0.5914
-1.6163 के अन्दर 0.0000
-0.1249 अन्दर समा 0.0000
-0.1249 समा गई -0.4771
-0.6021 गई थी -0.2258
-2.5767 <s> गरमी 0.0000
-0.1249 गरमी से -0.5952
-1.8062 से देह 0.0000
-0.1249 देह फुँकी 0.0000
-0.1249 फुँकी जाती -0.3979
-0.4260 जाती थी -0.5870
-1.4674 थी पर -0.5798
-1.3010 पर मैंने -0.5740
-1.5051 मैंने कमरे -0.5119
-0.7270 कमरे का -0.5836
-1.3802 का द्वार -0.5315
-0.8239 द्वार भीतर -0.5119
-0.7270 भीतर से -0.5952
-1.8062 से बन्द 0.0000
-0.1249 बन्द कर -0.5593
-1.0280 कर लिया -0.2688
-0.2711 लिया </s> -0.6021
-2.2757 <s> घर -0.4260
-1.7377 में एक -0.5825
-1.3554 एक बड़ा -0.3979
-0.4260 बड़ा सा 0.0000
-0.1249 सा चाकू 0.0000
-0.1249 चाकू था -0.1823
-2.5767 <s> उसे -0.4771
-0.6021 उसे निकालकर 0.0000
-0.1249 निकालकर सिरहाने 0.0000
-0.1249 सिरहाने रख -0.3010
-0.3010 रख लिया -0.1549
-1.1249 वह शंका -0.5119
-0.7270 शंका सामने -0.3979
-0.4260 सामने बैठी 0.0000
-0.1249 बैठी घूरती 0.0000
-0.1249 घूरती हुई -0.5528
-0.9700 हुई मालूम -0.4771
-0.6021 मालूम होती -0.5119
-0.7270 होती थी -0.2596
-0.9031 किसी ने -0.5903
-1.5721 ने पुकारा 0.0000
-0.1249 पुकारा </s> -0.6021
-1.3291 मेरे रोयें 0.0000
-0.1249 रोयें खड़े -0.4337
-1.5051 हो गए -0.3979
-0.4260 गए मैंने -0.5740
-1.2041 मैंने द्वार -0.4472
-0.8239 द्वार से -0.5952
-1.8062 से कान -0.3979
-0.4260 कान लगाया 0.0000
-0.1249 लगाया </s> -0.6021
-2.0996 <s> कोई -0.5315
-1.3010 कोई मेरी -0.5740
-1.2041 मेरी कुण्डी -0.3010
-0.3010 कुण्डी खटखटा 0.0000
-0.4260 खटखटा रहा -0.5119
-0.7270 रहा था -0.1823
-2.5767 <s> कलेजा 0.0000
-0.1249 कलेजा धक् -0.3979
-0.4260 धक् धक् -0.3979
-0.4260 धक् करने -0.5528
-0.9700 करने लगा -0.4771
-0.6021 लगा </s> -0.6021
-2.5767 <s> वही -0.3979
-0.4260 वही दोनों -0.5315
-0.8239 दोनों बदमाश 0.0000
-0.4260 बदमाश होंगे 0.0000
-0.1249 होंगे </s> -0.6021
-2.5767 <s> क्यों -0.5528
-0.9700 क्यों कुण्डी -0.3010
-0.4260 खटखटा रहे -0.2430
-0.2499 रहे हैं -0.1845
-0.2093 हैं </s> -0.6021
-2.5767 <s> मुझसे -0.5119
-0.7270 मुझसे क्या -0.5883
-1.5051 क्या काम -0.4771
-0.6021 काम है -0.2218
-2.2757 <s> मुझे -0.5260
-1.2711 मुझे झुँझलाहट 0.0000
-0.1249 झुँझलाहट आ -0.3979
-0.8239 द्वार खोला 0.0000
-0.1249 खोला और -0.5855
-1.4260 और छज्जे 0.0000
-0.1249 छज्जे पर -0.5682
-1.6021 पर खड़ी -0.4771
-0.6021 खड़ी होकर -0.3979
-0.4260 होकर जोर -0.3979
-0.4260 जोर से -0.5952
-1.8062 से बोली -0.4771
-0.6021 बोली </s> -0.6021
-2.5767 <s> क़ौन 0.0000
-0.1249 क़ौन कुण्डी -0.4771
-0.6021 कुण्डी खड़खड़ा 0.0000
-0.1249 खड़खड़ा रहा -0.3979
-0.4260 रहा है -0.1919
-2.5767 <s> आवाज 0.0000
-0.1249 आवाज सुनकर 0.0000
-0.1249 सुनकर मेरी -0.5740
-1.2041 मेरी शंका -0.5119
-0.7270 शंका शांत 0.0000
-0.1249 शांत हो -0.5740
-2.5767 <s> कितना -0.3979
-0.4260 कितना ढाढ़स 0.0000
-0.1249 ढाढ़स हो -0.5740
-1.6736 <s> यह -0.3979
-1.3802 यह बाबू -0.5798
-1.3010 बाबू ज्ञानचंद 0.0000
-0.1249 ज्ञानचंद थे -0.0969
-1.3291 मेरे पति -0.3979
-0.4260 पति के -0.5914
-1.6163 के मित्रों 0.0000
-0.1249 मित्रों में -0.5940
-1.7377 में इनसे 0.0000
-0.1249 इनसे ज्यादा 0.0000
-0.1249 ज्यादा सज्जन 0.0000
-0.1249 सज्जन दूसरा -0.3979
-0.4260 दूसरा नहीं -0.5921
-1.6435 नहीं है -0.2218
-0.6021 नीचे जाकर -0.5528
-0.9700 जाकर द्वार -0.5315
-0.8239 द्वार खोल 0.0000
-0.1249 खोल दिया -0.3680
-2.5767 <s> देखा -0.5528
-0.9700 देखा तो -0.5946
-1.7684 तो एक -0.5825
-1.3554 एक स्त्री -0.5315
-0.8239 स्त्री भी -0.5870
-1.4674 भी थी -0.2596
-1.1249 वह मिसेज़ 0.0000
-0.1249 मिसेज़ ज्ञानचन्द 0.0000
-0.1249 ज्ञानचन्द थीं -0.1249
-1.3802 यह मुझसे -0.5119
-0.7270 मुझसे बड़ी 0.0000
-0.1249 बड़ी थीं -0.1249
-2.2757 <s> पहले -0.3979
-0.7270 पहले पहल 0.0000
-0.1249 पहल मेरे -0.5593
-1.0280 मेरे घर -0.5229
-1.0792 घर आई 0.0000
-0.1249 आई थीं -0.1249
-1.5051 मैंने उनके -0.5119
-0.7270 उनके चरण 0.0000
-0.1249 चरण स्पर्श 0.0000
-0.1249 स्पर्श किए 0.0000
-0.1249 किए </s> -0.6021
-2.5767 <s> हमारे 0.0000
-0.1249 हमारे वहाँ -0.5119
-0.7270 वहाँ मित्रता 0.0000
-0.1249 मित्रता मर्दों 0.0000
-0.1249 मर्दों ही -0.5781
-1.2711 ही तक -0.5315
-0.8239 तक रहती 0.0000
-0.1249 रहती है -0.2218
-2.5767 <s> औरतों 0.0000
-0.1249 औरतों तक -0.5315
-0.8239 तक नहीं -0.5921
-1.6435 नहीं जाने -0.5441
-0.9031 जाने पाती 0.0000
-0.1249 पाती </s> -0.6021
-1.1249 दोनों जने 0.0000
-0.1249 जने ऊपर -0.3979
-0.4260 ऊपर आये -0.3010
-1.6736 <s> ज्ञान 0.0000
-0.1249 ज्ञान बाबू -0.1461
-1.3010 बाबू एक -0.5825
-1.3554 एक स्कूल 0.0000
-0.1249 स्कूल में -0.5940
-1.7377 में मास्टर -0.5119
-0.7270 मास्टर हैं -0.1845
-2.5767 <s> बड़े 0.0000
-0.1249 बड़े ही -0.5781
-1.2711 ही उदार -0.3979
-0.4260 उदार विद्वान 0.0000
-0.1249 विद्वान निष्कपट 0.0000
-0.1249 निष्कपट </s> -0.6021
-1.6021 पर आज -0.3979
-0.4260 आज मुझे -0.5781
-1.2711 मुझे मालूम -0.4771
-0.6021 मालूम हुआ -0.5315
-0.8239 हुआ कि -0.5714
-1.1663 कि उनकी -0.5119
-0.7270 उनकी पथ 0.0000
-0.1249 पथ प्रदर्शिका 0.0000
-0.1249 प्रदर्शिका उनकी -0.5119
-0.7270 उनकी स्त्री -0.5315
-0.8239 स्त्री हैं -0.1845
-1.1249 वह दोहरे 0.0000
-0.1249 दोहरे बदन 0.0000
-0.1249 बदन की -0.5911
-1.6021 की प्रतिभाशाली 0.0000
-0.1249 प्रतिभाशाली महिला 0.0000
-0.1249 महिला थीं -0.1249
-2.5767 <s> चेहरे 0.0000
-0.1249 चेहरे पर -0.5911
-1.6021 पर ऐसा -0.3979
-0.4260 ऐसा रोब 0.0000
-0.1249 रोब था -0.5877
-1.4867 था मानो -0.5119
-0.7270 मानो कोई -0.5798
-1.3010 कोई रानी 0.0000
-0.1249 रानी हों 0.0000
-0.1249 हों </s> -0.6021
-2.2757 <s> सिर -0.3979
-0.7270 सिर से -0.5952
-1.8062 से पाँव 0.0000
-0.1249 पाँव तक -0.5315
-0.8239 तक गहनों 0.0000
-0.1249 गहनों से -0.5952
-1.8062 से लदी 0.0000
-0.1249 लदी हुईं 0.0000
-0.1249 हुईं </s> -0.6021
-2.5767 <s> मुख -0.4771
-0.6021 मुख सुन्दर 0.0000
-0.1249 सुन्दर न -0.5911
-1.6021 न होने 0.0000
-0.1249 होने पर -0.5798
-1.3010 पर भी -0.5027
-1.4674 भी आकर्षक 0.0000
-0.1249 आकर्षक था -0.1823
-2.5767 <s> शायद -0.3979
-0.4260 शायद मैं -0.5911
-1.6021 मैं उन्हें -0.5528
-0.9700 उन्हें कहीं 0.0000
-0.1249 कहीं और -0.5855
-1.4260 और देखती 0.0000
-0.1249 देखती तो -0.5946
-1.7684 तो मुँह -0.5119
-0.7270 मुँह फेर -0.3979
-0.4260 फेर लेती 0.0000
-2.5767 <s> गर्व -0.3979
-0.4260 गर्व की -0.5911
-1.6021 की सजीव 0.0000
-0.1249 सजीव प्रतिमा 0.0000
-0.1249 प्रतिमा थीं -0.1249
-1.1249 वह बाहर -0.4771
-0.6021 बाहर जितनी -0.3979
-0.4260 जितनी कठोर -0.5315
-0.8239 कठोर भीतर -0.5119
-0.7270 भीतर उतनी 0.0000
-0.1249 उतनी ही -0.5781
-1.2711 ही दयाल 0.0000
-0.1249 दयाल </s> -0.6021
-1.0792 घर कोई -0.5563
-0.7270 पत्र लिखा -0.4472
-1.3802 यह प्रश्न -0.3979
-0.4260 प्रश्न उन्होंने -0.5315
-0.8239 उन्होंने कुछ -0.5763
-1.2389 कुछ हिचकते 0.0000
-0.1249 हिचकते हुए -0.5593
-1.0280 हुए किया -0.5119
-0.7270 किया </s> -0.6021
-0.7270 मैंने कहा -0.3655
-1.5229 कहा हाँ -0.5441
-0.9031 हाँ लिखा -0.4472
-0.5229 लिखा था -0.1823
-1.3010 कोई लेने 0.0000
-0.1249 लेने आ -0.5119
-0.7270 आ रहा -0.3979
-1.5563 है जी -0.5119
-0.7270 जी नहीं -0.5607
-2.5767 <s> न -0.5911
-1.6021 न पिताजी -0.5119
-0.7270 पिताजी अपने -0.5119
-0.7270 अपने पास -0.3979
-0.4260 पास रखना -0.3979
-0.4260 रखना चाहते -0.4771
-0.6021 चाहते हैं -0.5825
-1.3554 हैं न -0.5911
-1.6021 न ससुरजी -0.5119
-0.7270 ससुरजी </s> -0.6021
-1.5767 <s> तो -0.5119
-1.7684 तो फिर -0.5643
-1.0792 फिर फिर -0.5643
-1.0792 फिर क्या -0.5740
-1.2041 क्या अभी -0.4337
-1.7684 तो यहीं -0.3979
-0.4260 यहीं पड़ी -0.4771
-0.6021 पड़ी हूँ 0.0000
-1.7684 तो मेरे -0.5593
-1.0792 घर क्यों -0.4973
-0.6690 क्यों नहीं -0.5819
-1.6435 नहीं चलतीं 0.0000
-0.1249 चलतीं </s> -0.6021
-2.5767 <s> अकेले 0.0000
-0.1249 अकेले तो -0.5946
-1.7684 तो इस -0.5643
-1.0792 इस घर -0.4771
-1.7377 में मैं -0.5911
-1.6021 मैं न -0.5911
-1.6021 न रहने 0.0000
-0.1249 रहने दूँगी 0.0000
-0.1249 दूँगी </s> -0.6021
-2.2757 <s> खुफिया 0.0000
-0.3010 खुफिया के -0.5805
-1.6163 के दो -0.5229
-0.7270 आदमी इस -0.5229
-0.7782 इस वक्त -0.3979
-0.7270 वक्त भी -0.5870
-1.4674 भी डटे 0.0000
-0.1249 डटे हुए -0.5119
-0.7270 हुए हैं -0.1845
-1.6021 मैं पहले -0.5119
-0.7270 पहले ही -0.5781
-1.2711 ही समझ -0.5119
-0.7270 समझ गई -0.4771
-1.4674 थी दोनों -0.5682
-1.1249 दोनों खुफिया -0.3010
-1.6163 के आदमी -0.5119
-0.7270 आदमी होंगे 0.0000
-0.6021 बाबू ने -0.5396
-1.5721 ने पत्नी 0.0000
-0.1249 पत्नी की -0.5563
-0.9031 ओर देखकर 0.0000
-0.1249 देखकर मानो -0.5119
-0.7270 मानो उसकी -0.3979
-0.4260 उसकी आज्ञा 0.0000
-0.1249 आज्ञा से -0.5518
-0.9611 से कहा -0.3874
-0.5686 कहा </s> -0.6021
-1.4674 तो मैं -0.5798
-1.3010 मैं जाकर -0.4337
-0.9700 जाकर ताँगा 0.0000
-0.1249 ताँगा लाऊँ 0.0000
-0.1249 लाऊँ </s> -0.6021
-1.6736 <s> देवीजी -0.2596
-0.3212 देवीजी ने -0.4823
-1.5721 ने इस -0.5229
-0.7782 इस तरह -0.4472
-0.8239 तरह देखा -0.5528
-0.9700 देखा मानो -0.5119
-0.7270 मानो कह -0.5682
-1.1249 कह रही -0.5593
-1.0280 रही हों 0.0000
-2.0996 <s> क्या -0.5441
-0.9700 अभी तुम -0.5441
-0.9031 तुम यहीं -0.3979
-0.4260 यहीं खड़े -0.4337
-2.2757 <s> मास्टर -0.2430
-0.2499 मास्टर साहब 0.0000
-0.6021 साहब चुपके 0.0000
-0.1249 चुपके से -0.5952
-1.8062 से द्वार -0.5315
-0.8239 द्वार की -0.5563
-0.9031 ओर चले -0.3010
-0.3010 चले </s> -0.6021
-2.5767 <s> ठहरो 0.0000
-0.1249 ठहरो देवीजी -0.5714
-1.1663 देवीजी बोलीं -0.5119
-0.7270 बोलीं क़ै 0.0000
-0.1249 क़ै ताँगे -0.4771
-0.6021 ताँगे लाओगे 0.0000
-0.1249 लाओगे </s> -0.6021
-0.6021 साहब घबड़ा 0.0000
-0.1249 घबड़ा गये 0.0000
-0.1249 गये </s> -0.6021
-0.9031 हाँ कै 0.0000
-0.1249 कै एक -0.5619
-1.0544 एक ताँगे -0.3010
-0.6021 ताँगे पर -0.5911
-1.6021 पर तीन -0.5119
-0.7270 तीन सवारियाँ 0.0000
-0.1249 सवारियाँ ही -0.5781
-1.2711 ही बैठेंगी 0.0000
-0.1249 बैठेंगी </s> -0.6021
-2.5767 <s> सन्दूक 0.0000
-0.1249 सन्दूक बिछावन 0.0000
-0.1249 बिछावन बरतन 0.0000
-0.1249 बरतन भाँडे 0.0000
-0.1249 भाँडे क्या -0.5883
-1.5051 क्या मेरे -0.5812
-1.3291 मेरे सिर -0.3979
-0.4260 सिर पर -0.5798
-1.6021 पर जायेंगे 0.0000
-0.1249 जायेंगे </s> -0.6021
-1.7684 तो दो -0.5643
-1.0792 दो लेता -0.3979
-0.4260 लेता आऊँगा 0.0000
-0.1249 आऊँगा मास्टर -0.2430
-0.6021 साहब डरते -0.3979
-0.4260 डरते डरते -0.3979
-0.4260 डरते बोले -0.2430
-0.2499 बोले </s> -0.6021
-0.6021 ताँगे में -0.5940
-1.7377 में कितना -0.3979
-0.4260 कितना सामान 0.0000
-0.1249 सामान भर -0.5119
-0.7270 भर दोगे 0.0000
-0.1249 दोगे </s> -0.6021
-1.7684 तो तीन -0.5119
-0.7270 तीन लेता -0.3979
-0.4260 लेता आऊँ 0.0000
-0.1249 आऊँ </s> -0.6021
-2.5767 <s> अरे 0.0000
-0.1249 अरे तो -0.5946
-1.7684 तो जाओगे 0.0000
-0.1249 जाओगे भी -0.5870
-1.4674 भी जरा -0.3979
-0.4260 जरा सी -0.3979
-0.4260 सी बात -0.5119
-0.7270 बात के -0.5461
-0.9031 लिए घंटा 0.0000
-0.1249 घंटा भर -0.5119
-0.7270 भर लगा -0.4771
-0.6021 लगा दिया -0.3680
-1.6021 मैं कुछ -0.5763
-1.2389 कुछ कहने 0.0000
-0.1249 कहने न -0.5911
-1.6021 न पाई 0.0000
-0.1249 पाई थी -0.5870
-1.4674 थी कि -0.5714
-1.1663 कि ज्ञान 0.0000
-1.3010 बाबू चल 0.0000
-0.1249 चल दिये -0.3979
-0.4260 दिये </s> -0.6021
-1.5051 मैंने सकुचाते 0.0000
-0.1249 सकुचाते हुए -0.5119
-0.7270 हुए कहा -0.5611
-1.2218 कहा बहन -0.4472
-0.8239 बहन तुम्हें -0.5315
-0.8239 तुम्हें मेरे -0.5812
-1.3291 मेरे जाने -0.5441
-0.9031 जाने से -0.5952
-1.8062 से कष्ट -0.3979
-0.4260 कष्ट होगा -0.5315
-0.8239 होगा और -0.5855
-1.4260 और </s> -0.6021
-1.5721 ने तीक्ष्ण 0.0000
-0.1249 तीक्ष्ण स्वर 0.0000
-0.1249 स्वर में -0.5940
-1.7377 में कहा -0.4654
-0.9031 हाँ होगा -0.5315
-0.8239 होगा तो -0.5946
-1.7684 तो अवश्य 0.0000
-0.1249 अवश्य </s> -0.6021
-2.0996 <s> तुम -0.3979
-0.9031 तुम दोनों -0.5682
-1.1249 दोनों जून 0.0000
-0.1249 जून में -0.5940
-1.7377 में दो -0.5643
-1.0792 दो तीन -0.5119
-0.7270 तीन पाव 0.0000
-0.1249 पाव भर -0.5119
-0.7270 भर आटा 0.0000
-0.1249 आटा खाओगी 0.0000
-0.1249 खाओगी कमरे -0.3979
-1.6163 के एक -0.5825
-1.3554 एक कोने 0.0000
-0.1249 कोने में -0.5940
-1.7377 में अड्डा 0.0000
-0.1249 अड्डा जमा 0.0000
-0.1249 जमा लोगी 0.0000
-0.1249 लोगी </s> -0.6021
-0.7270 सिर में -0.5940
-1.7377 में आने 0.0000
-0.1249 आने का -0.5836
-1.3802 का तेल 0.0000
-0.1249 तेल डालोगी 0.0000
-0.1249 डालोगी </s> -0.6021
-1.3802 यह क्या -0.5883
-1.5051 क्या थोड़ा 0.0000
-0.1249 थोड़ा कष्ट -0.3979
-0.4260 कष्ट है -0.2218
-1.5051 मैंने झेंपते 0.0000
-0.1249 झेंपते हुए -0.5119
-1.5229 कहा आप -0.3979
-0.4260 आप तो -0.5946
-1.7684 तो बना 0.0000
-0.1249 बना रही -0.5593
-1.0280 रही हैं -0.1845
-1.5721 ने सदय -0.3979
-0.4260 सदय भाव -0.3010
-0.3010 भाव से -0.5441
-1.8062 से मेरा -0.5441
-0.9031 मेरा कंधा 0.0000
-0.1249 कंधा पकड़कर 0.0000
-0.1249 पकड़कर कहा -0.4654
-2.2757 <s> जब -0.3979
-0.7270 जब तुम्हारे -0.3979
-0.4260 तुम्हारे बाबूजी 0.0000
-0.1249 बाबूजी लौट 0.0000
-0.1249 लौट आवें 0.0000
-0.1249 आवें तो -0.5946
-1.7684 तो मुझे -0.5781
-1.2711 मुझे भी -0.5870
-1.4674 भी अपने -0.5119
-0.7270 अपने घर -0.5643
-1.0792 घर मेहमान 0.0000
-0.1249 मेहमान रख -0.4771
-0.6021 रख लेना 0.0000
-0.1249 लेना </s> -0.6021
-2.2757 <s> मेरा -0.4771
-0.9031 मेरा घाटा 0.0000
-0.1249 घाटा पूरा 0.0000
-0.1249 पूरा हो -0.5883
-1.5051 हो जायगा 0.0000
-0.1249 जायगा </s> -0.6021
-0.9031 अब तो -0.5946
-1.7684 तो राजी 0.0000
-0.1249 राजी हुई -0.5528
-0.9700 हुई चलो 0.0000
-0.1249 चलो असबाब 0.0000
-0.1249 असबाब बाँधो 0.0000
-0.1249 बाँधो </s> -0.6021
-2.5767 <s> खाट 0.0000
-0.1249 खाट वाट 0.0000
-0.1249 वाट कल -0.3979
-0.4260 कल मँगवा 0.0000
-0.1249 मँगवा लेंगे 0.0000
-0.1249 लेंगे </s> -0.6021
-1.5051 मैंने ऐसी -0.3979
-0.4260 ऐसी सदय -0.3979
-0.4260 सदय उदार -0.3979
-0.4260 उदार मीठी 0.0000
-0.1249 मीठी बातें -0.3979
-0.4260 बातें करनेवाली 0.0000
-0.1249 करनेवाली स्त्री -0.5315
-0.8239 स्त्री नहीं -0.5921
-1.6435 नहीं देखी 0.0000
-0.1249 देखी </s> -0.6021
-1.6021 मैं उनकी -0.5119
-0.7270 उनकी छोटी 0.0000
-0.1249 छोटी बहन -0.5315
-0.8239 बहन होती -0.3979
-1.7684 तो भी -0.5870
-1.4674 भी शायद -0.3979
-0.4260 शायद इससे -0.4771
-0.6021 इससे अच्छी 0.0000
-0.1249 अच्छी तरह -0.5315
-0.8239 तरह न -0.5911
-1.6021 न रखतीं 0.0000
-0.1249 रखतीं </s> -0.6021
-2.5767 <s> चिन्ता -0.4771
-0.6021 चिन्ता या -0.5119
-0.7270 या क्रोध 0.0000
-0.1249 क्रोध को -0.5846
-1.4037 को तो -0.5870
-1.4674 तो जैसे -0.3010
-0.6021 जैसे उन्होंने -0.5315
-0.8239 उन्होंने जीत -0.4771
-0.6021 जीत लिया -0.5528
-0.9700 लिया हो -0.5283
-2.5767 <s> सदैव 0.0000
-0.1249 सदैव उनके -0.3979
-0.4260 उनके मुख -0.3010
-0.3010 मुख पर -0.5798
-1.6021 पर मधुर 0.0000
-0.1249 मधुर विनोद 0.0000
-0.1249 विनोद खेला 0.0000
-0.1249 खेला करता -0.3979
-0.4260 करता था -0.1823
-1.3010 कोई लड़का 0.0000
-0.1249 लड़का बाला 0.0000
-0.1249 बाला न -0.5798
-1.3010 न था -0.5728
-1.4867 था पर -0.5798
-1.5051 मैंने उन्हें -0.5528
-0.9700 उन्हें कभी -0.5119
-0.7270 कभी दुखी 0.0000
-0.1249 दुखी नहीं -0.5921
-1.6435 नहीं देखा -0.3590
-2.5767 <s> ऊपर -0.3979
-0.4260 ऊपर के -0.5914
-1.6163 के काम -0.4771
-0.6021 काम के -0.5461
-0.9031 लिए लौंडा 0.0000
-0.1249 लौंडा रख -0.3010
-0.9700 लिया था -0.1823
-2.5767 <s> भीतर -0.5119
-0.7270 भीतर का -0.5836
-1.3802 का सारा -0.3979
-0.4260 सारा काम -0.4771
-0.6021 काम खुद 0.0000
-0.1249 खुद करतीं 0.0000
-0.1249 करतीं </s> -0.6021
-2.5767 <s> इतना -0.5441
-0.9031 इतना कम 0.0000
-0.1249 कम खाकर 0.0000
-0.1249 खाकर और -0.5855
-1.4260 और इतनी -0.5315
-0.8239 इतनी मेहनत 0.0000
-0.1249 मेहनत करके -0.3979
-0.4260 करके वह -0.5682
-1.1249 वह कैसे -0.3979
-0.4260 कैसे इतनी -0.5315
-0.8239 इतनी ह्रष्ट 0.0000
-0.1249 ह्रष्ट पुष्ट 0.0000
-0.1249 पुष्ट थीं -0.5643
-1.0792 थीं मैं -0.5911
-1.6021 मैं नहीं -0.5819
-2.5767 <s> विश्राम 0.0000
-0.1249 विश्राम तो -0.5870
-0.6021 जैसे उनके -0.5119
-0.7270 उनके भाग्य 0.0000
-0.1249 भाग्य में -0.5940
-1.7377 में ही -0.5528
-1.6435 नहीं लिखा -0.4472
-2.5767 <s> जेठ 0.0000
-1.6021 की दुपहरी 0.0000
-0.1249 दुपहरी में -0.5940
-1.7377 में भी -0.5209
-1.6021 न लेटती 0.0000
-0.1249 लेटती थीं -0.1249
-0.9031 हाँ मुझे -0.5781
-1.2711 मुझे कुछ -0.5763
-1.2389 कुछ न -0.5911
-1.6021 न करने -0.5528
-0.9700 करने देतीं 0.0000
-0.1249 देतीं </s> -0.6021
-0.9031 उस पर -0.5911
-1.6021 पर जब -0.5119
-0.7270 जब देखो 0.0000
-0.1249 देखो कुछ -0.5763
-1.2389 कुछ खिलाने 0.0000
-0.1249 खिलाने को -0.5846
-1.4037 को सिर -0.3979
-1.6021 पर सवार -0.3979
-0.4260 सवार </s> -0.6021
-0.9700 मुझे यहाँ -0.5229
-1.0792 यहाँ बस 0.0000
-0.1249 बस यही -0.4771
-0.6021 यही एक -0.5825
-1.3554 एक तकलीफ 0.0000
-0.1249 तकलीफ थी -0.2596
-0.9031 मगर आठ 0.0000
-0.1249 आठ ही -0.5781
-1.2711 ही दिन -0.5643
-1.0792 दिन गुजरे 0.0000
-0.1249 गुजरे थे -0.5740
-1.2041 थे कि -0.5714
-1.1663 कि एक -0.5619
-1.0544 एक दिन -0.4771
-1.5051 मैंने उन्हीं 0.0000
-0.1249 उन्हीं दोनों -0.5682
-1.1249 दोनों खुफियों -0.3979
-0.4260 खुफियों को -0.5846
-1.4037 को नीचे -0.4771
-0.6021 नीचे बैठा -0.4771
-0.6021 बैठा देखा -0.3590
-0.9031 मेरा माथा 0.0000
-0.1249 माथा ठनका 0.0000
-0.1249 ठनका </s> -0.6021
-1.3802 यह अभागे 0.0000
-0.1249 अभागे यहाँ -0.5229
-0.7782 यहाँ भी -0.5714
-1.4674 भी मेरे -0.5593
-1.0280 मेरे पीछे 0.0000
-0.1249 पीछे पड़े -0.4472
-0.8239 पड़े हैं -0.1845
-1.5051 मैंने तुरन्त 0.0000
-0.1249 तुरन्त बहनजी -0.3979
-0.4260 बहनजी से -0.5518
-1.5229 कहा वे 0.0000
-0.1249 वे दोनों -0.5315
-0.4260 बदमाश यहाँ -0.5229
-1.4674 भी मँडरा 0.0000
-0.1249 मँडरा रहे -0.2430
-0.8239 उन्होंने हिकारत 0.0000
-0.1249 हिकारत से -0.5518
-1.5229 कहा क़ुत्ते 0.0000
-0.1249 क़ुत्ते हैं -0.5825
-1.3554 हैं फिरने 0.0000
-0.1249 फिरने दो -0.4260
-0.4771 दो </s> -0.6021
-1.6021 मैं चिन्तित 0.0000
-0.1249 चिन्तित होकर -0.3979
-0.4260 होकर बोली -0.4771
-0.6021 बोली क़ोई 0.0000
-0.1249 क़ोई स्वांग 0.0000
-0.1249 स्वांग न -0.5911
-1.6021 न खड़ा -0.3979
-0.4260 खड़ा करें 0.0000
-0.1249 करें </s> -0.6021
-2.2757 <s> उसी -0.3979
-0.7270 उसी बेपरवाही 0.0000
-0.1249 बेपरवाही से -0.5952
-1.8062 से बोलीं -0.3979
-0.4260 बोलीं </s> -0.6021
-2.5767 <s> भूँकने 0.0000
-0.1249 भूँकने के -0.5914
-1.6163 के सिवा 0.0000
-0.1249 सिवा और -0.5855
-1.4260 और क्या -0.5883
-1.5051 क्या कर -0.5593
-1.0280 कर सकते 0.0000
-0.1249 सकते हैं -0.1845
-1.5229 कहा क़ाट 0.0000
-0.1249 क़ाट भी -0.5552
-0.9902 भी तो -0.5793
-1.7684 तो सकते 0.0000
-2.5767 <s> हँसकर 0.0000
-0.1249 हँसकर बोलीं -0.5119
-0.7270 बोलीं इसके 0.0000
-0.1249 इसके डर -0.5119
-0.7270 डर से -0.5952
-1.8062 से कोई -0.5798
-1.3010 कोई भाग 0.0000
-0.1249 भाग तो -0.5714
-1.1663 तो नहीं -0.5497
-1.3424 नहीं जाता 0.0000
-0.4260 जाता न -0.5798
-1.3010 न </s> -0.6021
-0.9031 मगर मेरी -0.5740
-1.2041 मेरी दाल 0.0000
-0.1249 दाल में -0.5940
-1.7377 में मक्खी 0.0000
-0.1249 मक्खी पड़ 0.0000
-0.1249 पड़ गयी -0.1761
-0.9700 बार छज्जे 0.0000
-0.9700 जाकर उन्हें -0.5528
-0.9700 उन्हें टहलते 0.0000
-0.1249 टहलते देख -0.3979
-0.4260 देख आती 0.0000
-0.1249 आती </s> -0.6021
-1.0792 यह सब -0.3979
-0.7270 सब मेरे -0.5593
-0.8239 पड़े हुए -0.5119
-2.5767 <s> आखिर 0.0000
-0.1249 आखिर मैं -0.5911
-1.6021 मैं नौकरशाही 0.0000
-0.1249 नौकरशाही का -0.5643
-1.5051 क्या बिगाड़ 0.0000
-0.1249 बिगाड़ सकती -0.5441
-0.9031 सकती हूँ 0.0000
-1.2041 मेरी सामर्थ्य 0.0000
-0.1249 सामर्थ्य ही -0.5528
-1.5051 क्या यह -0.5643
-0.7270 सब इस -0.5229
-0.8239 तरह से -0.5952
-1.8062 से मुझे -0.5528
-1.0792 यहाँ से -0.5952
-1.8062 से भगाने 0.0000
-0.1249 भगाने पर -0.5911
-1.6021 पर तुले 0.0000
-0.1249 तुले हैं -0.1845
-2.5767 <s> इससे -0.4771
-0.6021 इससे उन्हें -0.5528
-0.9700 उन्हें क्या -0.5883
-1.5051 क्या मिलेगा 0.0000
-0.1249 मिलेगा </s> -0.6021
-2.5767 <s> यही -0.4771
-0.6021 यही तो -0.5870
-1.4674 तो कि -0.5384
-1.1663 कि मैं -0.5911
-1.6021 मैं मारी -0.3979
-0.4260 मारी मारी -0.3979
-0.4260 मारी फिरूँ 0.0000
-0.1249 फिरूँ </s> -0.6021
-0.6021 कितनी नीची 0.0000
-0.1249 नीची तबियत 0.0000
-0.1249 तबियत है -0.2218
-1.3554 एक हफ्ता 0.0000
-0.1249 हफ्ता और -0.5855
-1.4260 और गुजर 0.0000
-0.6021 खुफिया ने -0.5903
-1.5721 ने पिंड 0.0000
-0.1249 पिंड न -0.5911
-1.6021 न छोड़ा 0.0000
-0.1249 छोड़ा </s> -0.6021
-1.3291 मेरे प्राण -0.4771
-0.6021 प्राण सूखते 0.0000
-0.1249 सूखते जाते -0.4771
-0.6021 जाते थे -0.0969
-2.5767 <s> ऐसी -0.3979
-0.4260 ऐसी दशा 0.0000
-1.7377 में यहाँ -0.5643
-1.0792 यहाँ रहना 0.0000
-0.1249 रहना मुझे -0.5781
-1.2711 मुझे अनुचित 0.0000
-0.1249 अनुचित मालूम -0.4771
-0.6021 मालूम होता 0.0000
-0.1249 होता था -0.1823
-1.6021 पर देवीजी -0.5714
-1.1663 देवीजी से -0.5952
-1.8062 से कुछ -0.5763
-1.2389 कुछ कह -0.5682
-1.1249 कह न -0.5911
-1.6021 न सकती -0.4771
-1.0792 दिन शाम 0.0000
-0.1249 शाम को -0.5663
-1.4037 को ज्ञान 0.0000
-1.3010 बाबू आये -0.4771
-0.6021 आये तो -0.5946
-1.7684 तो घबड़ाये 0.0000
-0.1249 घबड़ाये हुए -0.5593
-1.0280 हुए थे -0.0969
-1.6021 मैं बरामदे 0.0000
-0.1249 बरामदे में -0.5940
-1.7377 में थी -0.5870
-1.4674 थी परवल 0.0000
-0.1249 परवल छील 0.0000
-0.1249 छील रही -0.5119
-1.5721 ने कमरे -0.5119
-0.7270 कमरे में -0.5940
-1.7377 में जाकर -0.5528
-0.9700 जाकर देवीजी -0.5714
-1.1663 देवीजी को -0.5846
-1.4037 को इशारे 0.0000
-0.1249 इशारे से -0.5883
-1.5051 से बुलाया 0.0000
-0.4260 बुलाया </s> -0.6021
-1.2711 ने बैठे -0.3979
-0.4260 बैठे बैठे -0.3979
-0.4260 बैठे कहा -0.4654
-0.7270 पहले कपड़े 0.0000
-0.1249 कपड़े वपड़े 0.0000
-0.1249 वपड़े उतारो 0.0000
-0.1249 उतारो मुँह -0.5119
-0.7270 मुँह हाथ -0.5119
-0.7270 हाथ धोओ 0.0000
-0.1249 धोओ कुछ -0.5763
-1.2389 कुछ खाओ 0.0000
-0.1249 खाओ फिर -0.5643
-1.0792 फिर जो -0.5119
-0.7270 जो कहना -0.5315
-0.8239 कहना हो -0.5883
-1.5051 हो कह -0.5682
-1.1249 कह देना 0.0000
-0.1249 देना </s> -0.6021
-2.2757 <s> ञान 0.0000
-0.1249 ञान बाबू -0.4472
-1.3010 बाबू को -0.5846
-1.4037 को धैर्य 0.0000
-0.1249 धैर्य कहाँ -0.3979
-2.5767 <s> पेट 0.0000
-0.1249 पेट में -0.5940
-1.7377 में बात -0.5119
-0.7270 बात की -0.5911
-1.6021 की गन्ध 0.0000
-0.1249 गन्ध तक -0.5315
-0.8239 तक न -0.5911
-1.6021 न पचती 0.0000
-0.1249 पचती थी -0.2596
-2.5767 <s> आग्रह 0.0000
-0.1249 आग्रह से -0.5883
-0.4260 बुलाया तुमसे -0.4771
-0.6021 तुमसे उठा 0.0000
-0.1249 उठा नहीं -0.5819
-0.4260 जाता </s> -0.6021
-1.2041 मेरी जान -0.4771
-0.6021 जान आफत 0.0000
-0.1249 आफत में -0.5940
-1.7377 में है -0.2218
-1.7316 <s> देवी -0.1249
-0.2341 देवी ने -0.4973
-1.7684 तो कहते 0.0000
-0.1249 कहते क्यों -0.4973
-1.6435 नहीं क्या -0.5883
-1.5051 क्या कहना -0.3424
-0.3468 कहना है -0.1597
-1.2553 है यहाँ -0.5229
-1.0792 यहाँ आओ 0.0000
-0.1249 आओ </s> -0.6021
-1.5051 क्या यहाँ -0.5643
-1.0792 यहाँ कोई -0.5798
-1.3010 कोई और -0.5855
-1.4260 और बैठा -0.3010
-0.8239 हुआ है -0.2218
-1.6021 मैं वहाँ -0.5119
-0.7270 वहाँ से -0.5952
-1.8062 से चली -0.3979
-0.4260 चली </s> -0.6021
-2.5767 <s> बहन -0.5315
-0.8239 बहन ने -0.5903
-1.5721 ने मेरा -0.5441
-0.9031 मेरा हाथ -0.5119
-0.7270 हाथ पकड़ -0.3979
-0.4260 पकड़ लिया -0.2688
-1.6021 मैं जोर -0.3979
-0.4260 जोर करने -0.5528
-0.9700 करने पर -0.5798
-1.6021 न छुड़ा 0.0000
-0.1249 छुड़ा सकी 0.0000
-0.1249 सकी </s> -0.6021
-1.3010 बाबू मेरे -0.5812
-1.3291 मेरे सामने -0.3979
-0.4260 सामने न -0.5911
-1.6021 न कहना -0.5315
-0.8239 कहना चाहते -0.4771
-0.6021 चाहते थे -0.0969
-1.6021 पर इतना -0.5441
-0.9031 इतना सब्र 0.0000
-0.1249 सब्र भी -0.5209
-1.4867 था कि -0.5714
-1.1663 कि जरा -0.3979
-0.4260 जरा देर 0.0000
-0.1249 देर रुक 0.0000
-0.1249 रुक जाते -0.3010
-0.3010 जाते </s> -0.6021
-2.5767 <s> बोले -0.5119
-0.7270 बोले प्रिन्सिपल -0.3010
-0.3010 प्रिन्सिपल से -0.5740
-1.8062 से मेरी -0.5740
-1.2041 मेरी लड़ाई -0.3979
-0.4260 लड़ाई हो -0.5740
-1.5721 ने बनावटी 0.0000
-0.1249 बनावटी गम्भीरता 0.0000
-0.1249 गम्भीरता से -0.5518
-1.5229 कहा सच 0.0000
-0.1249 सच तुमने -0.4771
-0.6021 तुमने उसे -0.4771
-0.6021 उसे खूब 0.0000
-0.1249 खूब पीटा 0.0000
-0.1249 पीटा न -0.5798
-0.8239 तुम्हें दिल्लगी 0.0000
-0.1249 दिल्लगी सूझती 0.0000
-0.1249 सूझती है -0.5772
-1.0792 यहाँ नौकरी 0.0000
-0.1249 नौकरी जा -0.3979
-0.4260 जा रही -0.5119
-0.7270 रही है -0.2218
-0.7270 जब यह -0.5836
-1.3802 यह डर -0.5119
-0.7270 डर था -0.5877
-1.4867 था तो -0.5946
-1.7684 तो लड़े 0.0000
-0.1249 लड़े क्यों -0.5528
-0.9700 क्यों </s> -0.6021
-1.6021 मैं थोड़े 0.0000
-0.1249 थोड़े ही -0.5781
-1.2711 ही लड़ा 0.0000
-0.1249 लड़ा उसी -0.5119
-0.7270 उसी ने -0.5781
-1.2711 ने मुझे -0.5528
-1.2711 मुझे बुलाकर -0.4771
-0.6021 बुलाकर डाँटा 0.0000
-0.1249 डाँटा </s> -0.6021
-2.5767 <s> बेकसूर 0.0000
-0.1249 बेकसूर </s> -0.6021
-0.9031 अब तुमसे -0.4771
-0.6021 तुमसे क्या -0.5740
-1.2041 क्या कहूँ 0.0000
-0.1249 कहूँ </s> -0.6021
-2.5767 <s> फिर -0.5643
-1.0792 फिर वही -0.3979
-0.4260 वही पर्दा -0.3979
-0.4260 पर्दा </s> -0.6021
-1.6021 मैं कह -0.5315
-0.8239 कह चुकी -0.3010
-0.6021 चुकी यह -0.5836
-1.3802 यह मेरी -0.5740
-1.2041 मेरी बहन -0.5315
-0.8239 बहन है -0.2218
-1.6021 मैं इससे -0.4771
-0.6021 इससे कोई -0.5798
-1.3010 कोई पर्दा -0.3979
-0.4260 पर्दा नहीं -0.5921
-1.6435 नहीं रखना -0.3979
-0.4260 रखना चाहती -0.3979
-0.4260 चाहती </s> -0.6021
-1.4260 और जो -0.5119
-0.7270 जो इन्हीं 0.0000
-0.1249 इन्हीं के -0.5914
-1.6163 के बारे 0.0000
-0.1249 बारे में -0.5940
-1.7377 में कोई -0.5798
-1.3010 कोई बात -0.5119
-0.7270 बात हो -0.5740
-1.2041 हो तो -0.5793
-1.7684 तो </s> -0.6021
-1.5721 ने जैसे -0.4771
-0.6021 जैसे पहेली -0.3979
-0.4260 पहेली बूझकर 0.0000
-0.1249 बूझकर कहा -0.5888
-1.5229 कहा अच्छा -0.3979
-0.4260 अच्छा समझ -0.3979
-0.4260 समझ गयी -0.1761
-1.2389 कुछ खुफियों -0.3979
-0.4260 खुफियों का -0.5836
-1.3802 का झगड़ा 0.0000
-0.1249 झगड़ा होगा -0.5315
-0.8239 होगा </s> -0.6021
-2.2757 <s> पुलिस -0.3010
-0.3010 पुलिस ने -0.5781
-1.5721 ने तुम्हारे -0.3979
-0.4260 तुम्हारे प्रिन्सिपल -0.3010
-1.8062 से शिकायत 0.0000
-0.1249 शिकायत की -0.5911
-1.6021 की होगी 0.0000
-0.1249 होगी </s> -0.6021
-1.5721 ने इतनी -0.5315
-0.8239 इतनी आसानी 0.0000
-0.1249 आसानी से -0.5952
-1.8062 से अपनी -0.5315
-0.8239 अपनी पहेली -0.3979
-0.4260 पहेली का -0.5836
-1.3802 का बूझा 0.0000
-0.1249 बूझा जाना 0.0000
-0.1249 जाना स्वीकार 0.0000
-0.1249 स्वीकार न -0.5911
-1.6021 न किया -0.5119
-0.7270 किया बोले -0.2430
-1.5721 ने प्रिन्सिपल -0.3010
-1.8062 से नहीं -0.5921
-1.6435 नहीं हाकिम 0.0000
-0.1249 हाकिम जिला 0.0000
-0.4260 जिला से -0.5518
-2.5767 <s> उसने 0.0000
-0.1249 उसने प्रिन्सिपल -0.5441
-0.9031 प्रिन्सिपल को -0.5663
-0.6021 बुलाकर मुझसे -0.5119
-0.7270 मुझसे जवाब -0.5528
-0.9700 जवाब तलब 0.0000
-0.1249 तलब करने -0.5528
-0.9700 करने का -0.5836
-1.3802 का हुक्म 0.0000
-0.1249 हुक्म दिया -0.3680
-1.5721 ने अन्दाज 0.0000
-0.1249 अन्दाज से -0.5518
-1.5229 कहा समझ -0.3979
-2.5767 <s> प्रिन्सिपल -0.5441
-0.9031 प्रिन्सिपल ने -0.5903
-1.5721 ने तुमसे -0.4771
-0.6021 तुमसे कहा -0.5888
-1.5229 कहा होगा -0.5315
-0.8239 होगा कि -0.5714
-1.1663 कि उस -0.5441
-0.9031 उस स्त्री -0.5315
-0.8239 स्त्री को -0.5846
-1.4037 को घर -0.5643
-1.0792 घर से -0.5952
-1.8062 से निकाल -0.3979
-0.4260 निकाल दो -0.4260
-0.9031 हाँ यही -0.4771
-0.6021 यही समझ -0.5119
-0.7270 समझ लो 0.0000
-0.1249 लो </s> -0.6021
-1.7684 तो तुमने -0.4771
-0.6021 तुमने क्या -0.5883
-1.5051 क्या जवाब -0.5528
-0.9700 जवाब दिया -0.3680
-2.2757 <s> अभी -0.4973
-0.9700 अभी कोई -0.5563
-1.6435 नहीं दिया -0.5643
-1.0792 दिया वहाँ -0.5119
-0.7270 वहाँ खड़े -0.5528
-0.9700 खड़े खड़े -0.5528
-0.9700 खड़े क्या -0.5883
-1.5051 क्या कहता 0.0000
-0.1249 कहता </s> -0.6021
-1.5721 ने उन्हें -0.5528
-0.9700 उन्हें आड़े 0.0000
-0.1249 आड़े हाथों 0.0000
-0.1249 हाथों लिया -0.2688
-2.5767 <s> ज़िस 0.0000
-0.1249 ज़िस प्रश्न -0.3979
-0.4260 प्रश्न का -0.5836
-1.3802 का एक -0.5825
-1.3554 एक ही -0.5781
-1.2711 ही जवाब -0.5528
-0.9700 जवाब हो -0.5883
-1.5051 हो उसमें 0.0000
-0.1249 उसमें सोच -0.3979
-0.4260 सोच विचार 0.0000
-0.1249 विचार कैसा 0.0000
-0.1249 कैसा </s> -0.6021
-1.3010 बाबू सिटपिटाकर 0.0000
-0.1249 सिटपिटाकर बोले -0.2430
-0.4260 लेकिन कुछ -0.5763
-1.2389 कुछ सोचना 0.0000
-0.1249 सोचना तो -0.5946
-1.7684 तो जरूरी 0.0000
-0.1249 जरूरी था -0.1823
-1.1663 देवीजी की -0.5911
-1.6021 की त्योरियाँ 0.0000
-0.1249 त्योरियाँ बदल 0.0000
-0.1249 बदल गयीं 0.0000
-0.1249 गयीं </s> -0.6021
-2.5767 <s> आज -0.3979
-0.4260 आज मैंने -0.5883
-1.5051 मैंने पहली 0.0000
-0.9700 बार उनका 0.0000
-0.1249 उनका यह -0.5836
-1.3802 यह रूप -0.3979
-0.4260 रूप देखा -0.5528
-0.9700 देखा बोलीं -0.3979
-0.9031 तुम उस -0.5441
-0.9031 उस प्रिन्सिपल -0.3010
-1.8062 से जाकर -0.4973
-0.6690 जाकर कह -0.5315
-1.1249 कह दो -0.4260
-1.6021 मैं उसे -0.4771
-0.6021 उसे किसी -0.4771
-0.8239 तरह नहीं -0.5921
-1.6435 नहीं छोड़ 0.0000
-0.1249 छोड़ सकता -0.4771
-0.6021 सकता और -0.5855
-1.4260 और न -0.5911
-1.6021 न माने 0.0000
-0.1249 माने तो -0.5946
-1.7684 तो इस्तीफा -0.3010
-0.3010 इस्तीफा दे 0.0000
-0.4260 दे दो -0.4260
-0.9700 अभी जाओ 0.0000
-0.1249 जाओ लौटकर -0.4771
-0.6021 लौटकर हाथ -0.5119
-0.7270 हाथ मुँह -0.5119
-0.7270 मुँह धोना 0.0000
-0.1249 धोना </s> -0.6021
-1.5051 मैंने रोकर 0.0000
-0.1249 रोकर कहा -0.5752
-0.8239 बहन मेरे -0.5812
-1.3291 मेरे लिए -0.5441
-0.9031 लिए </s> -0.6021
-1.5721 ने डाँट 0.0000
-0.1249 डाँट बतायी 0.0000
-0.1249 बतायी </s> -0.6021
-2.0996 <s> तू -0.2430
-0.7270 तू चुप 0.0000
-0.1249 चुप रह 0.0000
-0.1249 रह नहीं -0.5921
-1.6435 नहीं कान -0.3979
-0.4260 कान पकड़ -0.3979
-0.4260 पकड़ लूँगी 0.0000
-0.1249 लूँगी </s> -0.6021
-0.7270 तू क्यों -0.5528
-0.9700 क्यों बीच 0.0000
-0.1249 बीच में -0.5940
-1.7377 में कूदती 0.0000
-0.1249 कूदती है -0.2218
-2.5767 <s> रहेंगे -0.3979
-0.4260 रहेंगे तो -0.5870
-1.4674 तो साथ -0.3010
-0.6021 साथ रहेंगे -0.3979
-0.4260 रहेंगे मरेंगे -0.3979
-0.4260 मरेंगे तो -0.5870
-0.6021 साथ मरेंगे -0.3979
-0.4260 मरेंगे </s> -0.6021
-1.0792 इस मर्दुए 0.0000
-0.1249 मर्दुए को -0.5846
-1.4037 को मैं -0.5911
-1.6021 मैं क्या -0.5740
-2.5767 <s> आधी 0.0000
-0.1249 आधी उम्र -0.3979
-0.4260 उम्र बीत 0.0000
-0.1249 बीत गयी -0.5441
-0.9031 गयी और -0.5855
-1.4260 और बात -0.5119
-0.7270 बात करना 0.0000
-0.1249 करना न -0.5911
-1.6021 न आया -0.4771
-0.6021 आया </s> -0.6021
-2.5767 <s> पति -0.3979
-0.4260 पति से -0.5952
-1.8062 से खड़े -0.5528
-0.9700 खड़े सोच -0.3979
-0.4260 सोच क्या -0.5883
-1.5051 क्या रहे -0.5119
-0.7270 रहे हो -0.5883
-1.5051 हो तुम्हें -0.5315
-0.8239 तुम्हें डर -0.5119
-0.7270 डर लगता 0.0000
-0.1249 लगता हो -0.5740
-1.1249 कह आऊँ 0.0000
-1.5721 ने खिसियाकर 0.0000
-0.1249 खिसियाकर कहा -0.4654
-1.7684 तो कल -0.3979
-0.4260 कल कह -0.5682
-1.1249 कह दूँगा 0.0000
-0.1249 दूँगा इस -0.5229
-0.7270 वक्त कहाँ -0.5119
-0.7270 कहाँ होगा -0.5315
-0.8239 होगा कौन -0.4771
-0.6021 कौन जाने -0.5441
-0.9031 जाने </s> -0.6021
-2.5767 <s> रात 0.0000
-0.1249 रात भर -0.5119
-0.7270 भर मुझे -0.5781
-1.2711 मुझे नींद 0.0000
-0.1249 नींद नहीं -0.5921
-1.6435 नहीं आयी 0.0000
-0.1249 आयी </s> -0.6021
-2.5767 <s> बाप -0.3979
-0.4260 बाप और -0.5855
-1.4260 और ससुर -0.3979
-0.4260 ससुर जिसका -0.3979
-0.4260 जिसका मुँह -0.5119
-0.7270 मुँह नहीं -0.5921
-1.6435 नहीं देखना 0.0000
-0.1249 देखना चाहते -0.4771
-0.6021 चाहते उसका 0.0000
-0.1249 उसका यह -0.5836
-1.3802 यह आदर 0.0000
-0.1249 आदर </s> -0.6021
-2.5767 <s> राह 0.0000
-0.1249 राह की -0.5911
-1.6021 की भिखारिन 0.0000
-0.1249 भिखारिन का -0.5836
-1.3802 का यह -0.5836
-1.3802 यह सम्मान 0.0000
-0.1249 सम्मान </s> -0.6021
-1.0792 देवी तू -0.5119
-0.7270 तू सचमुच 0.0000
-0.1249 सचमुच देवी -0.5643
-1.0792 देवी है -0.2218
-1.0792 दिन ज्ञान 0.0000
-1.3010 बाबू चले -0.3010
-1.7684 तो देवी -0.2218
-1.5721 ने फिर -0.5643
-1.0792 फिर कहा -0.5888
-1.5229 कहा फ़ैसला 0.0000
-0.1249 फ़ैसला करके -0.3979
-0.4260 करके घर -0.5643
-1.0792 घर आना 0.0000
-0.1249 आना </s> -0.6021
-1.3802 यह न -0.5911
-1.6021 न हो -0.5883
-1.5051 हो कि -0.5714
-1.1663 कि फिर -0.5643
-1.0792 फिर सोचकर 0.0000
-0.1249 सोचकर जवाब -0.5528
-0.9700 जवाब देने 0.0000
-0.1249 देने की -0.5911
-1.6021 की जरूरत 0.0000
-0.1249 जरूरत पड़े -0.3424
-1.3010 बाबू के -0.5914
-1.6163 के चले -0.4771
-0.6021 चले जाने -0.4771
-0.4260 बाद मैंने -0.5119
-0.9031 तुम मेरे -0.5812
-1.3291 मेरे साथ -0.4771
-0.6021 साथ बड़ा -0.3979
-0.4260 बड़ा अन्याय 0.0000
-0.1249 अन्याय कर -0.3979
-1.0280 रही हो -0.5883
-1.5051 हो बहनजी -0.3979
-0.4260 बहनजी </s> -0.6021
-1.6021 मैं यह -0.5836
-1.3802 यह कभी -0.2430
-1.6435 नहीं देख -0.3979
-0.4260 देख सकती -0.5441
-0.9031 सकती कि -0.5714
-1.1663 कि मेरे -0.5812
-1.3291 मेरे कारण 0.0000
-0.1249 कारण तुम्हें -0.5315
-0.8239 तुम्हें यह -0.5836
-1.3802 यह विपत्ति 0.0000
-0.1249 विपत्ति झेलनी 0.0000
-0.1249 झेलनी पड़े -0.3424
-1.5721 ने हास्य 0.0000
-0.1249 हास्य भाव -0.3010
-2.5767 <s> क़ह 0.0000
-0.1249 क़ह चुकी -0.4771
-0.6021 चुकी या -0.5119
-0.7270 या कुछ -0.5763
-1.2389 कुछ और -0.5855
-1.4260 और कहना -0.3424
-2.5767 <s> कह -0.5315
-0.6021 चुकी मगर -0.4771
-0.9700 अभी बहुत 0.0000
-0.1249 बहुत कुछ -0.5763
-1.2389 कुछ कहूँगी 0.0000
-0.1249 कहूँगी </s> -0.6021
-2.5767 <s> अच्छा -0.3979
-0.4260 अच्छा बता 0.0000
-0.1249 बता तेरे 0.0000
-0.1249 तेरे प्रियतम -0.3979
-0.4260 प्रियतम क्यों -0.5528
-0.9700 क्यों जेल -0.3979
-0.4260 जेल गये 0.0000
-2.5767 <s> इसीलिए 0.0000
-0.1249 इसीलिए तो -0.5870
-1.1663 कि स्वयंसेवकों -0.4771
-0.6021 स्वयंसेवकों का -0.5643
-1.0792 का सत्कार 0.0000
-2.5767 <s> स्वयंसेवक 0.0000
-0.1249 स्वयंसेवक कौन -0.4771
-0.6021 कौन हैं -0.1845
-1.3802 यह हमारी -0.3979
-0.4260 हमारी सेना 0.0000
-0.1249 सेना के -0.5914
-1.6163 के वीर 0.0000
-0.1249 वीर हैं -0.5825
-1.3554 हैं जो -0.5119
-0.7270 जो हमारी -0.3979
-0.4260 हमारी लड़ाइयाँ 0.0000
-0.1249 लड़ाइयाँ लड़ 0.0000
-0.1249 लड़ रहे -0.2430
-2.5767 <s> स्वयंसेवकों -0.4771
-0.6021 स्वयंसेवकों के -0.5914
-1.6163 के भी -0.5552
-1.7684 तो बाल 0.0000
-0.1249 बाल बच्चे 0.0000
-0.1249 बच्चे होंगे 0.0000
-2.5767 <s> माँ 0.0000
-0.1249 माँ बाप -0.3979
-0.4260 बाप होंगे 0.0000
-1.1249 वह भी -0.5552
-1.7684 तो कोई -0.5798
-1.3010 कोई कारोबार 0.0000
-0.1249 कारोबार करते 0.0000
-0.1249 करते होंगे 0.0000
-1.6021 पर देश 0.0000
-0.1249 देश की -0.5911
-1.6021 की लड़ाई -0.3979
-0.4260 लड़ाई लड़ने 0.0000
-0.1249 लड़ने के -0.5461
-0.9031 लिए उन्होंने -0.5315
-0.8239 उन्होंने सब -0.5119
-0.7270 सब कुछ -0.5763
-1.2389 कुछ त्याग -0.3979
-0.4260 त्याग दिया -0.5643
-1.0792 दिया है -0.2218
-2.5767 <s> ऐसे -0.3979
-0.4260 ऐसे वीरों 0.0000
-0.1249 वीरों का -0.5643
-0.6021 सत्कार करने -0.5528
-0.9700 करने के -0.5461
-0.9031 लिए जो -0.5119
-0.7270 जो आदमी -0.5119
-0.7270 आदमी जेल -0.3979
-0.4260 जेल में -0.5940
-1.7377 में डाल 0.0000
-0.1249 डाल दिया -0.5643
-1.0792 दिया जाय 0.0000
-2.5767 <s> उसकी -0.3979
-0.4260 उसकी स्त्री -0.5315
-0.8239 स्त्री के -0.5914
-1.6163 के दर्शनों 0.0000
-0.1249 दर्शनों से -0.5952
-1.8062 से भी -0.5870
-1.4674 भी आत्मा -0.3979
-0.4260 आत्मा पवित्र 0.0000
-0.1249 पवित्र होती -0.5119
-0.7270 होती है -0.2218
-1.6021 मैं तुझ 0.0000
-0.1249 तुझ पर -0.5798
-1.3010 पर एहसान 0.0000
-0.4260 एहसान नहीं -0.5921
-1.6435 नहीं कर -0.3979
-1.0280 रही हूँ 0.0000
-0.7270 तू मुझ 0.0000
-0.1249 मुझ पर -0.5798
-0.4260 एहसान कर -0.3979
-1.6021 मैं इस -0.5643
-1.0792 इस दया 0.0000
-0.1249 दया सागर 0.0000
-0.1249 सागर में -0.5940
-1.7377 में डुबकियाँ 0.0000
-0.1249 डुबकियाँ खाने 0.0000
-0.1249 खाने लगी 0.0000
-0.1249 लगी बोलती 0.0000
-0.1249 बोलती क्या -0.5883
-1.5051 क्या </s> -0.6021
-2.5767 <s> शाम 0.0000
-1.4037 को जब -0.5119
-0.7270 जब ज्ञान 0.0000
-1.3010 बाबू लौटे 0.0000
-0.1249 लौटे तो -0.5946
-1.7684 तो उनके -0.3979
-1.6021 पर विजय 0.0000
-0.1249 विजय का -0.5836
-1.3802 का आनन्द 0.0000
-0.1249 आनन्द था -0.1823
-1.5721 ने पूछा 0.0000
-0.1249 पूछा हार 0.0000
-0.1249 हार कि -0.5714
-1.1663 कि जीत -0.3010
-0.3010 जीत </s> -0.6021
-1.5721 ने अकड़कर 0.0000
-0.1249 अकड़कर कहा -0.5888
-1.5229 कहा जीत -0.3010
-1.5051 मैंने इस्तीफा -0.3010
-0.4260 दे दिया -0.5643
-1.0792 दिया तो -0.5946
-1.7684 तो चक्कर 0.0000
-0.1249 चक्कर में -0.5940
-1.7377 में आ -0.5119
-0.7270 आ गया 0.0000
-0.7270 उसी वक्त -0.5119
-0.7270 वक्त हाकिम 0.0000
-0.4260 जिला के -0.5914
-1.6163 के पास -0.3979
-0.4260 पास गया 0.0000
-2.5767 <s> वहाँ -0.5119
-0.7270 वहाँ न -0.5911
-1.6021 न जाने -0.5441
-0.9031 जाने मोटर 0.0000
-0.1249 मोटर पर -0.5911
-1.6021 पर बैठकर 0.0000
-0.1249 बैठकर दोनों -0.5682
-1.1249 दोनों में -0.5940
-1.7377 में क्या -0.5883
-1.5051 क्या बातें -0.3979
-0.4260 बातें हुईं 0.0000
-2.5767 <s> लौटकर -0.4771
-0.6021 लौटकर मुझसे -0.5119
-0.7270 मुझसे बोला 0.0000
-0.1249 बोला आप -0.3979
-0.4260 आप पोलिटिकल 0.0000
-0.1249 पोलिटिकल जलसों 0.0000
-0.1249 जलसों में -0.5940
-1.7377 में तो -0.5714
-1.6435 नहीं जाते -0.3010
-1.5229 कहा क़भी 0.0000
-0.1249 क़भी भूलकर 0.0000
-0.1249 भूलकर भी -0.5714
-1.1663 भी नहीं -0.5607
-2.2757 <s> कांग्रेस 0.0000
-1.6163 के मेम्बर -0.4771
-0.6021 मेम्बर तो -0.5714
-1.6435 नहीं हैं -0.1845
-1.5229 कहा मेम्बर -0.4771
-0.6021 मेम्बर क्या -0.5883
-1.5051 क्या मेम्बर -0.4771
-0.6021 मेम्बर का -0.5836
-1.3802 का दोस्त 0.0000
-0.1249 दोस्त भी -0.5714
-0.7270 कांग्रेस फंड 0.0000
-0.1249 फंड में -0.5940
-1.7377 में चन्दा 0.0000
-0.1249 चन्दा तो -0.5714
-1.6435 नहीं देते 0.0000
-0.1249 देते </s> -0.6021
-1.5229 कहा कानी 0.0000
-0.1249 कानी कौड़ी 0.0000
-0.1249 कौड़ी भी -0.5870
-1.4674 भी कभी -0.2430
-1.6435 नहीं देता 0.0000
-0.1249 देता </s> -0.6021
-1.7684 तो हमें 0.0000
-0.1249 हमें आपसे 0.0000
-0.1249 आपसे कुछ -0.5763
-1.2389 कुछ नहीं -0.5921
-1.6435 नहीं कहना -0.3424
-1.6021 मैं आपका 0.0000
-0.1249 आपका इस्तीफा -0.4771
-0.6021 इस्तीफा वापस 0.0000
-0.1249 वापस करता -0.3979
-0.4260 करता हूँ 0.0000
-1.2711 मुझे गले 0.0000
-0.1249 गले लगा -0.4771
-0.6021 लगा लिया -0.2688

\3-grams:
-0.1249 <s> प्रियतम को
-0.1249 प्रियतम को एक
-0.1249 को एक वर्ष
-0.4260 एक वर्ष की
-0.1249 वर्ष की सजा
-0.1249 की सजा हो
-0.1249 सजा हो गयी
-0.1249 हो गयी </s>
-0.6021 <s> और अपराध
-0.1249 और अपराध केवल
-0.1249 अपराध केवल इतना
-0.1249 केवल इतना था
-0.1249 इतना था </s>
-0.1249 <s> कि तीन
-0.1249 कि तीन दिन
-0.1249 तीन दिन पहले
-0.1249 दिन पहले जेठ
-0.1249 पहले जेठ की
-0.4260 जेठ की तपती
-0.1249 की तपती दोपहरी
-0.1249 तपती दोपहरी में
-0.1249 दोपहरी में </s>
-0.4260 <s> उन्होंने राष्ट्र
-0.1249 उन्होंने राष्ट्र के
-0.1249 राष्ट्र के कई
-0.1249 के कई सेवकों
-0.1249 कई सेवकों का
-0.1249 सेवकों का शर्बत
-0.1249 का शर्बत पान
-0.1249 शर्बत पान से
-0.1249 पान से सत्कार
-0.1249 से सत्कार किया
-0.1249 सत्कार किया था
-0.1249 किया था </s>
-1.4037 <s> मैं उस
-0.1249 मैं उस वक्त
-0.1249 उस वक्त अदालत
-0.1249 वक्त अदालत में
-0.1249 अदालत में खड़ी
-0.1249 में खड़ी थी
-0.1249 खड़ी थी </s>
-0.1249 <s> कमरे के
-0.4260 कमरे के बाहर
-0.1249 के बाहर सारे
-0.1249 बाहर सारे नगर
-0.1249 सारे नगर की
-0.1249 नगर की राजनैतिक
-0.1249 की राजनैतिक चेतना
-0.1249 राजनैतिक चेतना किसी
-0.1249 चेतना किसी बंदी
-0.1249 किसी बंदी पशु
-0.1249 बंदी पशु की
-0.1249 पशु की भांति
-0.1249 की भांति खड़ी
-0.1249 भांति खड़ी चीत्कार
-0.1249 खड़ी चीत्कार कर
-0.1249 चीत्कार कर रही
-0.7270 कर रही थी
-0.1249 रही थी </s>
-0.9031 <s> मेरे प्राणधन
-0.1249 मेरे प्राणधन हथकड़ियों
-0.1249 प्राणधन हथकड़ियों से
-0.1249 हथकड़ियों से जकड़े
-0.1249 से जकड़े हुए
-0.1249 जकड़े हुए लाये
-0.1249 हुए लाये गए
-0.1249 लाये गए </s>
-0.1249 <s> चारों ओर
-0.1249 चारों ओर सन्नाटा
-0.1249 ओर सन्नाटा छा
-0.1249 सन्नाटा छा गया
-0.1249 छा गया </s>
-0.9031 <s> मेरे भीतर
-0.1249 मेरे भीतर हाहाकार
-0.1249 भीतर हाहाकार मचा
-0.1249 हाहाकार मचा हुआ
-0.1249 मचा हुआ था
-0.1249 हुआ था </s>
-0.1249 <s> मानो प्राण
-0.1249 मानो प्राण पिघला
-0.1249 प्राण पिघला जा
-0.1249 पिघला जा रहा
-0.1249 जा रहा हो
-0.1249 रहा हो </s>
-0.1249 <s> आवेश की
-0.1249 आवेश की लहरें
-0.1249 की लहरें सी
-0.1249 लहरें सी उठ
-0.1249 सी उठ उठकर
-0.1249 उठ उठकर समस्त
-0.1249 उठकर समस्त शरीर
-0.1249 समस्त शरीर को
-0.1249 शरीर को रोमांचित
-0.1249 को रोमांचित किये
-0.1249 रोमांचित किये देती
-0.1249 किये देती थीं
-0.1249 देती थीं </s>
-0.1249 <s> ओह इतना
-0.1249 ओह इतना गर्व
-0.1249 इतना गर्व मुझे
-0.1249 गर्व मुझे कभी
-0.1249 मुझे कभी नहीं
-0.6021 कभी नहीं हुआ
-0.1249 नहीं हुआ था
-1.0280 <s> वह अदालत
-0.1249 वह अदालत </s>
-0.1249 <s> कुरसी पर
-0.1249 कुरसी पर बैठा
-0.1249 पर बैठा हुआ
-0.4260 बैठा हुआ अंग्रेज
-0.1249 हुआ अंग्रेज अफसर
-0.1249 अंग्रेज अफसर लाल
-0.1249 अफसर लाल जरीदार
-0.1249 लाल जरीदार पगड़ियाँ
-0.1249 जरीदार पगड़ियाँ बाँधे
-0.1249 पगड़ियाँ बाँधे हुए
-0.1249 बाँधे हुए पुलिस
-0.1249 हुए पुलिस के
-0.1249 पुलिस के कर्मचारी
-0.1249 के कर्मचारी </s>
-0.1249 <s> सब मेरी
-0.1249 सब मेरी आँखो
-0.1249 मेरी आँखो में
-0.1249 आँखो में तुच्छ
-0.1249 में तुच्छ जान
-0.1249 तुच्छ जान पड़ते
-0.1249 जान पड़ते थे
-0.1249 पड़ते थे </s>
-0.1249 <s> बार बार
-0.4260 बार बार जी
-0.1249 बार जी में
-0.4260 जी में आता
-0.1249 में आता था
-0.1249 आता था </s>
-0.1249 <s> दौड़कर जीवन
-0.1249 दौड़कर जीवन धन
-0.1249 जीवन धन के
-0.1249 धन के चरणों
-0.1249 के चरणों में
-0.1249 चरणों में लिपट
-0.1249 में लिपट जाऊँ
-0.1249 लिपट जाऊँ और
-0.1249 जाऊँ और उसी
-0.1249 और उसी दशा
-0.1249 उसी दशा में
-0.4260 दशा में प्राण
-0.1249 में प्राण त्याग
-0.1249 प्राण त्याग दूँ
-0.1249 त्याग दूँ </s>
-0.4260 <s> कितनी शान्त
-0.1249 कितनी शान्त अविचलित
-0.1249 शान्त अविचलित तेज
-0.1249 अविचलित तेज और
-0.1249 तेज और स्वाभिमान
-0.1249 और स्वाभिमान से
-0.1249 स्वाभिमान से प्रदीप्त
-0.1249 से प्रदीप्त मूर्ति
-0.1249 प्रदीप्त मूर्ति थी
-0.1249 मूर्ति थी </s>
-0.1249 <s> ग्लानि विषाद
-0.1249 ग्लानि विषाद या
-0.1249 विषाद या शोक
-0.1249 या शोक की
-0.1249 शोक की छाया
-0.1249 की छाया भी
-0.1249 छाया भी न
-0.8239 भी न थी
-0.3010 न थी </s>
-0.1249 <s> नहीं उन
-0.1249 नहीं उन ओठों
-0.1249 उन ओठों पर
-0.1249 ओठों पर एक
-0.1249 पर एक स्फूर्ति
-0.1249 एक स्फूर्ति से
-0.1249 स्फूर्ति से भरी
-0.1249 से भरी हुई
-0.1249 भरी हुई मनोहारिणी
-0.1249 हुई मनोहारिणी ओजस्वी
-0.1249 मनोहारिणी ओजस्वी मुस्कान
-0.1249 ओजस्वी मुस्कान थी
-0.1249 मुस्कान थी </s>
-0.6021 <s> इस अपराध
-0.1249 इस अपराध के
-0.1249 अपराध के लिए
-0.8239 के लिए एक
-0.1249 लिए एक वर्ष
-0.4260 एक वर्ष का
-0.1249 वर्ष का कठिन
-0.1249 का कठिन कारावास
-0.1249 कठिन कारावास </s>
-0.1249 <s> वाह रे
-0.1249 वाह रे न्याय
-0.1249 रे न्याय तेरी
-0.1249 न्याय तेरी बलिहारी
-0.1249 तेरी बलिहारी है
-0.1249 बलिहारी है </s>
-1.4037 <s> मैं ऐसे
-0.1249 मैं ऐसे हजार
-0.1249 ऐसे हजार अपराध
-0.1249 हजार अपराध करने
-0.1249 अपराध करने को
-0.1249 करने को तैयार
-0.4260 को तैयार थी
-0.1249 तैयार थी </s>
-0.1249 <s> प्राणनाथ ने
-0.1249 प्राणनाथ ने चलते
-0.1249 ने चलते समय
-0.1249 चलते समय एक
-0.1249 समय एक बार
-0.1249 एक बार मेरी
-0.1249 बार मेरी ओर
-0.1249 मेरी ओर देखा
-0.1249 ओर देखा </s>
-0.4260 <s> कुछ मुस्कराये
-0.1249 कुछ मुस्कराये फिर
-0.1249 मुस्कराये फिर उनकी
-0.1249 फिर उनकी मुद्रा
-0.1249 उनकी मुद्रा कठोर
-0.1249 मुद्रा कठोर हो
-0.1249 कठोर हो गई
-0.1249 हो गई </s>
-0.1249 <s> अदालत से
-0.1249 अदालत से लौटकर
-0.1249 से लौटकर मैंने
-0.1249 लौटकर मैंने पाँच
-0.1249 मैंने पाँच रुपये
-0.1249 पाँच रुपये की
-0.1249 रुपये की मिठाई
-0.1249 की मिठाई मँगवाई
-0.1249 मिठाई मँगवाई और
-0.1249 मँगवाई और स्वयंसेवकों
-0.1249 और स्वयंसेवकों को
-0.1249 स्वयंसेवकों को बुलाकर
-0.4260 को बुलाकर खिलाया
-0.1249 बुलाकर खिलाया </s>
-0.6021 <s> और संध्या
-0.1249 और संध्या समय
-0.1249 संध्या समय </s>
-1.4037 <s> मैं पहली
-0.1249 मैं पहली बार
-0.4260 पहली बार कांग्रेस
-0.1249 बार कांग्रेस के
-0.6021 कांग्रेस के जलसे
-0.1249 के जलसे में
-0.1249 जलसे में शरीक
-0.1249 में शरीक हुई
-0.1249 शरीक हुई </s>
-0.1249 <s> शरीक ही
-0.1249 शरीक ही नहीं
-0.4260 ही नहीं हुई
-0.1249 नहीं हुई मंच
-0.1249 हुई मंच पर
-0.1249 मंच पर जाकर
-0.4260 पर जाकर बोली
-0.1249 जाकर बोली और
-0.1249 बोली और सत्याग्रह
-0.1249 और सत्याग्रह की
-0.1249 सत्याग्रह की प्रतिज्ञा
-0.1249 की प्रतिज्ञा ले
-0.1249 प्रतिज्ञा ले ली
-0.1249 ले ली </s>
-0.6021 <s> मेरी आत्मा
-0.1249 मेरी आत्मा में
-0.1249 आत्मा में इतनी
-0.1249 में इतनी शक्ति
-0.1249 इतनी शक्ति कहाँ
-0.1249 शक्ति कहाँ से
-0.1249 कहाँ से आ
-0.1249 से आ गई
-0.4260 आ गई नहीं
-0.1249 गई नहीं कह
-0.1249 नहीं कह सकती
-0.1249 कह सकती </s>
-0.1249 <s> सर्वस्व लुट
-0.1249 सर्वस्व लुट जाने
-0.1249 लुट जाने के
-0.1249 जाने के बाद
-0.4260 के बाद फिर
-0.1249 बाद फिर किसकी
-0.1249 फिर किसकी शंका
-0.1249 किसकी शंका और
-0.1249 शंका और किसका
-0.1249 और किसका डर
-0.1249 किसका डर </s>
-0.1249 <s> विधाता का
-0.1249 विधाता का कठोर
-0.1249 का कठोर से
-0.1249 कठोर से कठोर
-0.1249 से कठोर आघात
-0.1249 कठोर आघात भी
-0.1249 आघात भी अब
-0.1249 भी अब मेरा
-0.1249 अब मेरा क्या
-0.1249 मेरा क्या अहित
-0.1249 क्या अहित कर
-0.1249 अहित कर सकता
-0.1249 कर सकता था
-0.1249 सकता था </s>
-0.1249 <s> दूसरे दिन
-0.6021 दूसरे दिन मैंने
-0.4260 दिन मैंने दो
-0.1249 मैंने दो तार
-0.1249 दो तार दिए
-0.1249 तार दिए </s>
-0.7270 <s> एक पिताजी
-0.1249 एक पिताजी को
-0.1249 पिताजी को दूसरा
-0.1249 को दूसरा ससुरजी
-0.1249 दूसरा ससुरजी को
-0.1249 ससुरजी को </s>
-0.4260 <s> ससुरजी पेंशन
-0.1249 ससुरजी पेंशन पाते
-0.1249 पेंशन पाते थे
-0.1249 पाते थे </s>
-0.4260 <s> पिताजी जंगल
-0.1249 पिताजी जंगल के
-0.1249 जंगल के महकमे
-0.1249 के महकमे में
-0.1249 महकमे में अच्छे
-0.1249 में अच्छे पद
-0.1249 अच्छे पद पर
-0.1249 पद पर थे
-0.1249 पर थे </s>
-1.0280 <s> पर सारा
-0.1249 पर सारा दिन
-0.1249 सारा दिन गुजर
-0.1249 दिन गुजर गया
-0.1249 गुजर गया </s>
-0.1249 <s> तार का
-0.1249 तार का जवाब
-0.1249 का जवाब नदारद
-0.1249 जवाब नदारद </s>
-0.6021 दूसरे दिन भी
-0.1249 दिन भी कोई
-0.1249 भी कोई जवाब
-0.1249 कोई जवाब नहीं
-0.4260 जवाब नहीं </s>
-0.1249 <s> तीसरे दिन
-0.1249 तीसरे दिन दोनों
-0.1249 दिन दोनों महाशयों
-0.1249 दोनों महाशयों के
-0.1249 महाशयों के पत्र
-0.1249 के पत्र आये
-0.1249 पत्र आये </s>
-0.4260 <s> दोनों जामे
-0.1249 दोनों जामे से
-0.1249 जामे से बाहर
-0.1249 से बाहर थे
-0.1249 बाहर थे </s>
-0.4260 <s> ससुरजी ने
-0.1249 ससुरजी ने लिखा
-0.1249 ने लिखा आशा
-0.1249 लिखा आशा थी
-0.1249 आशा थी तुम
-0.1249 थी तुम लोग
-0.1249 तुम लोग बुढ़ापे
-0.1249 लोग बुढ़ापे में
-0.1249 बुढ़ापे में मेरा
-0.1249 में मेरा पालन
-0.1249 मेरा पालन करोगे
-0.1249 पालन करोगे </s>
-0.1249 <s> तुमने उस
-0.1249 तुमने उस आशा
-0.1249 उस आशा पर
-0.1249 आशा पर पानी
-0.1249 पर पानी फेर
-0.1249 पानी फेर दिया
-0.1249 फेर दिया </s>
-0.7270 <s> अब क्या
-0.1249 अब क्या चाहती
-0.1249 क्या चाहती हो
-0.1249 चाहती हो मैं
-0.1249 हो मैं भिक्षा
-0.1249 मैं भिक्षा माँगूँ
-0.1249 भिक्षा माँगूँ </s>
-1.4037 <s> मैं सरकार
-0.1249 मैं सरकार से
-0.1249 सरकार से पेंशन
-0.1249 से पेंशन पाता
-0.1249 पेंशन पाता हूँ
-0.1249 पाता हूँ </s>
-0.4260 <s> तुम्हें आश्रय
-0.1249 तुम्हें आश्रय देकर
-0.1249 आश्रय देकर मैं
-0.1249 देकर मैं अपनी
-0.1249 मैं अपनी पेंशन
-0.1249 अपनी पेंशन से
-0.1249 पेंशन से हाथ
-0.1249 से हाथ नहीं
-0.1249 हाथ नहीं धो
-0.1249 नहीं धो सकता
-0.1249 धो सकता </s>
-0.4260 <s> पिताजी के
-0.1249 पिताजी के शब्द
-0.1249 के शब्द इतने
-0.1249 शब्द इतने कठोर
-0.1249 इतने कठोर न
-0.1249 कठोर न थे
-0.1249 न थे </s>
-1.0280 <s> पर भाव
-0.1249 पर भाव लगभग
-0.1249 भाव लगभग ऐसा
-0.1249 लगभग ऐसा ही
-0.1249 ऐसा ही था
-0.1249 ही था </s>
-0.1249 <s> इसी साल
-0.1249 इसी साल उन्हें
-0.1249 साल उन्हें ग्रेड
-0.1249 उन्हें ग्रेड मिलनेवाला
-0.1249 ग्रेड मिलनेवाला था
-0.1249 मिलनेवाला था </s>
-1.0280 <s> वह मुझे
-0.1249 वह मुझे बुलायेंगे
-0.1249 मुझे बुलायेंगे तो
-0.1249 बुलायेंगे तो सम्भव
-0.1249 तो सम्भव है
-0.1249 सम्भव है ग्रेड
-0.1249 है ग्रेड से
-0.1249 ग्रेड से वंचित
-0.1249 से वंचित होना
-0.1249 वंचित होना पड़े
-0.1249 होना पड़े </s>
-0.8239 <s> हाँ वह
-0.1249 हाँ वह मेरी
-0.1249 वह मेरी सहायता
-0.1249 मेरी सहायता मौखिक
-0.1249 सहायता मौखिक रूप
-0.1249 मौखिक रूप से
-0.1249 रूप से करने
-0.1249 से करने को
-0.4260 को तैयार थे
-0.1249 तैयार थे </s>
-1.3010 <s> मैंने दोनों
-0.1249 मैंने दोनों पत्र
-0.1249 दोनों पत्र फाड़कर
-0.1249 पत्र फाड़कर फेंक
-0.1249 फाड़कर फेंक दिये
-0.1249 फेंक दिये और
-0.1249 दिये और उन्हें
-0.1249 और उन्हें कोई
-0.1249 उन्हें कोई पत्र
-0.4260 कोई पत्र न
-0.1249 पत्र न लिखा
-0.1249 न लिखा </s>
-0.1249 <s> हा स्वार्थ
-0.1249 हा स्वार्थ तेरी
-0.1249 स्वार्थ तेरी माया
-0.1249 तेरी माया कितनी
-0.1249 माया कितनी प्रबल
-0.1249 कितनी प्रबल है
-0.1249 प्रबल है </s>
-0.4260 <s> अपना ही
-0.1249 अपना ही पिता
-0.1249 ही पिता केवल
-0.1249 पिता केवल स्वार्थ
-0.1249 केवल स्वार्थ में
-0.1249 स्वार्थ में बाधा
-0.1249 में बाधा पड़ने
-0.1249 बाधा पड़ने के
-0.1249 पड़ने के भय
-0.1249 के भय से
-0.1249 भय से </s>
-0.1249 <s> लड़की की
-0.1249 लड़की की तरफ
-0.1249 की तरफ से
-0.1249 तरफ से इतना
-0.4260 से इतना निर्दय
-0.1249 इतना निर्दय हो
-0.1249 निर्दय हो जाय
-0.1249 हो जाय </s>
-0.4260 <s> अपना ससुर
-0.1249 अपना ससुर अपनी
-0.1249 ससुर अपनी बहू
-0.1249 अपनी बहू की
-0.1249 बहू की ओर
-0.7270 की ओर से
-0.1249 ओर से इतना
-0.4260 से इतना उदासीन
-0.1249 इतना उदासीन हो
-0.1249 उदासीन हो जाय
-0.8239 <s> मगर अभी
-0.4260 मगर अभी मेरी
-0.1249 अभी मेरी उम्र
-0.1249 मेरी उम्र ही
-0.1249 उम्र ही क्या
-0.1249 ही क्या है
-0.4260 क्या है अभी
-0.1249 है अभी तो
-0.4260 अभी तो सारी
-0.1249 तो सारी दुनिया
-0.1249 सारी दुनिया देखने
-0.1249 दुनिया देखने को
-0.1249 देखने को पड़ी
-0.1249 को पड़ी है
-0.1249 पड़ी है </s>
-0.7270 <s> अब तक
-0.1249 अब तक मैं
-0.1249 तक मैं अपने
-0.1249 मैं अपने विषय
-0.1249 अपने विषय में
-0.1249 विषय में निश्चिन्त
-0.1249 में निश्चिन्त थी
-0.1249 निश्चिन्त थी </s>
-0.4260 <s> लेकिन अब
-0.1249 लेकिन अब यह
-0.1249 अब यह नई
-0.1249 यह नई चिन्ता
-0.1249 नई चिन्ता सवार
-0.1249 चिन्ता सवार हुई
-0.1249 सवार हुई </s>
-0.6021 <s> इस निर्जन
-0.1249 इस निर्जन घर
-0.1249 निर्जन घर में
-0.6021 घर में निराधार
-0.1249 में निराधार निराश्रय
-0.1249 निराधार निराश्रय कैसे
-0.1249 निराश्रय कैसे रहूँगी
-0.1249 कैसे रहूँगी </s>
-0.8239 <s> मगर जाऊँगी
-0.1249 मगर जाऊँगी कहाँ
-0.1249 जाऊँगी कहाँ </s>
-0.1249 <s> अगर कोई
-0.1249 अगर कोई मर्द
-0.1249 कोई मर्द होती
-0.1249 मर्द होती तो
-0.4260 होती तो कांग्रेस
-0.1249 तो कांग्रेस के
-0.6021 कांग्रेस के आश्रम
-0.1249 के आश्रम में
-0.1249 आश्रम में चली
-0.1249 में चली जाती
-0.1249 चली जाती या
-0.1249 जाती या कोई
-0.1249 या कोई मजूरी
-0.1249 कोई मजूरी कर
-0.1249 मजूरी कर लेती
-0.1249 कर लेती </s>
-0.9031 <s> मेरे पैरों
-0.1249 मेरे पैरों में
-0.1249 पैरों में नारीत्व
-0.1249 में नारीत्व की
-0.6021 नारीत्व की बेड़ियाँ
-0.1249 की बेड़ियाँ पड़ी
-0.1249 बेड़ियाँ पड़ी हुई
-0.1249 पड़ी हुई थीं
-0.1249 हुई थीं </s>
-0.4260 <s> अपनी रक्षा
-0.1249 अपनी रक्षा की
-0.4260 रक्षा की इतनी
-0.1249 की इतनी चिन्ता
-0.1249 इतनी चिन्ता न
-0.1249 चिन्ता न थी
-0.6021 न थी जितनी
-0.1249 थी जितनी अपने
-0.1249 जितनी अपने नारीत्व
-0.1249 अपने नारीत्व की
-0.6021 नारीत्व की रक्षा
-0.1249 की रक्षा की
-0.4260 रक्षा की </s>
-0.4260 <s> अपनी जान
-0.1249 अपनी जान की
-0.1249 जान की फिक्र
-0.1249 की फिक्र न
-0.1249 फिक्र न थी
-1.0280 <s> पर नारीत्व
-0.1249 पर नारीत्व की
-0.6021 नारीत्व की ओर
-0.7270 की ओर किसी
-0.1249 ओर किसी की
-0.4260 किसी की आँख
-0.1249 की आँख भी
-0.1249 आँख भी न
-0.8239 भी न उठनी
-0.1249 न उठनी चाहिए
-0.1249 उठनी चाहिए </s>
-0.4260 <s> किसी की
-0.4260 किसी की आहट
-0.1249 की आहट पाकर
-0.1249 आहट पाकर मैंने
-0.1249 पाकर मैंने नीचे
-0.4260 मैंने नीचे देखा
-0.1249 नीचे देखा </s>
-0.1249 <s> दो आदमी
-0.4260 दो आदमी खड़े
-0.1249 आदमी खड़े थे
-0.1249 खड़े थे </s>
-0.1249 <s> जी में
-0.4260 जी में आया
-0.1249 में आया पूछूँ
-0.1249 आया पूछूँ तुम
-0.1249 पूछूँ तुम कौन
-0.1249 तुम कौन हो
-0.1249 कौन हो यहाँ
-0.1249 हो यहाँ क्यों
-0.1249 यहाँ क्यों खड़े
-0.1249 क्यों खड़े हो
-0.3010 खड़े हो </s>
-0.8239 <s> मगर फिर
-0.1249 मगर फिर खयाल
-0.1249 फिर खयाल आया
-0.1249 खयाल आया मुझे
-0.1249 आया मुझे यह
-0.1249 मुझे यह पूछने
-0.1249 यह पूछने का
-0.1249 पूछने का क्या
-0.4260 का क्या हक
-0.1249 क्या हक </s>
-0.1249 <s> आम रास्ता
-0.1249 आम रास्ता है
-0.1249 रास्ता है जिसका
-0.1249 है जिसका जी
-0.1249 जिसका जी चाहे
-0.1249 जी चाहे खड़ा
-0.1249 चाहे खड़ा हो
-0.1249 खड़ा हो </s>
-1.0280 <s> पर मुझे
-0.1249 पर मुझे खटका
-0.1249 मुझे खटका हो
-0.1249 खटका हो गया
-0.1249 हो गया </s>
-0.4260 <s> उस शंका
-0.1249 उस शंका को
-0.1249 शंका को किसी
-0.1249 को किसी तरह
-0.4260 किसी तरह दिल
-0.1249 तरह दिल से
-0.1249 दिल से न
-0.1249 से न निकाल
-0.1249 न निकाल सकती
-0.1249 निकाल सकती थी
-0.1249 सकती थी </s>
-1.0280 <s> वह एक
-0.1249 वह एक चिनगारी
-0.1249 एक चिनगारी की
-0.1249 चिनगारी की भाँति
-0.1249 की भाँति ह्रदय
-0.1249 भाँति ह्रदय के
-0.1249 ह्रदय के अन्दर
-0.1249 के अन्दर समा
-0.1249 अन्दर समा गई
-0.1249 समा गई थी
-0.4260 गई थी </s>
-0.1249 <s> गरमी से
-0.1249 गरमी से देह
-0.1249 से देह फुँकी
-0.1249 देह फुँकी जाती
-0.1249 फुँकी जाती थी
-0.1249 जाती थी पर
-0.1249 थी पर मैंने
-0.4260 पर मैंने कमरे
-0.1249 मैंने कमरे का
-0.1249 कमरे का द्वार
-0.1249 का द्वार भीतर
-0.1249 द्वार भीतर से
-0.1249 भीतर से बन्द
-0.1249 से बन्द कर
-0.1249 बन्द कर लिया
-0.1249 कर लिया </s>
-0.4260 <s> घर में
-0.6021 घर में एक
-0.1249 में एक बड़ा
-0.1249 एक बड़ा सा
-0.1249 बड़ा सा चाकू
-0.1249 सा चाकू था
-0.1249 चाकू था </s>
-0.1249 <s> उसे निकालकर
-0.1249 उसे निकालकर सिरहाने
-0.1249 निकालकर सिरहाने रख
-0.1249 सिरहाने रख लिया
-0.4260 रख लिया </s>
-1.0280 <s> वह शंका
-0.1249 वह शंका सामने
-0.1249 शंका सामने बैठी
-0.1249 सामने बैठी घूरती
-0.1249 बैठी घूरती हुई
-0.1249 घूरती हुई मालूम
-0.1249 हुई मालूम होती
-0.1249 मालूम होती थी
-0.1249 होती थी </s>
-0.4260 <s> किसी ने
-0.1249 किसी ने पुकारा
-0.1249 ने पुकारा </s>
-0.9031 <s> मेरे रोयें
-0.1249 मेरे रोयें खड़े
-0.1249 रोयें खड़े हो
-0.6021 खड़े हो गए
-0.1249 हो गए मैंने
-0.1249 गए मैंने द्वार
-0.4260 मैंने द्वार से
-0.1249 द्वार से कान
-0.1249 से कान लगाया
-0.1249 कान लगाया </s>
-0.6021 <s> कोई मेरी
-0.1249 कोई मेरी कुण्डी
-0.1249 मेरी कुण्डी खटखटा
-0.4260 कुण्डी खटखटा रहा
-0.1249 खटखटा रहा था
-0.1249 रहा था </s>
-0.1249 <s> कलेजा धक्
-0.1249 कलेजा धक् धक्
-0.1249 धक् धक् करने
-0.1249 धक् करने लगा
-0.1249 करने लगा </s>
-0.1249 <s> वही दोनों
-0.1249 वही दोनों बदमाश
-0.4260 दोनों बदमाश होंगे
-0.1249 बदमाश होंगे </s>
-0.1249 <s> क्यों कुण्डी
-0.1249 क्यों कुण्डी खटखटा
-0.4260 कुण्डी खटखटा रहे
-0.1249 खटखटा रहे हैं
-0.1249 रहे हैं </s>
-0.1249 <s> मुझसे क्या
-0.1249 मुझसे क्या काम
-0.1249 क्या काम है
-0.1249 काम है </s>
-0.4260 <s> मुझे झुँझलाहट
-0.1249 मुझे झुँझलाहट आ
-0.1249 झुँझलाहट आ गई
-0.4260 आ गई </s>
-1.3010 <s> मैंने द्वार
-0.4260 मैंने द्वार खोला
-0.1249 द्वार खोला और
-0.1249 खोला और छज्जे
-0.1249 और छज्जे पर
-0.4260 छज्जे पर खड़ी
-0.1249 पर खड़ी होकर
-0.1249 खड़ी होकर जोर
-0.1249 होकर जोर से
-0.1249 जोर से बोली
-0.1249 से बोली </s>
-0.1249 <s> क़ौन कुण्डी
-0.1249 क़ौन कुण्डी खड़खड़ा
-0.1249 कुण्डी खड़खड़ा रहा
-0.1249 खड़खड़ा रहा है
-0.4260 रहा है </s>
-0.1249 <s> आवाज सुनकर
-0.1249 आवाज सुनकर मेरी
-0.1249 सुनकर मेरी शंका
-0.1249 मेरी शंका शांत
-0.1249 शंका शांत हो
-0.1249 शांत हो गई
-0.1249 <s> कितना ढाढ़स
-0.1249 कितना ढाढ़स हो
-0.1249 ढाढ़स हो गया
-1.0280 <s> यह बाबू
-0.1249 यह बाबू ज्ञानचंद
-0.1249 बाबू ज्ञानचंद थे
-0.1249 ज्ञानचंद थे </s>
-0.9031 <s> मेरे पति
-0.1249 मेरे पति के
-0.1249 पति के मित्रों
-0.1249 के मित्रों में
-0.1249 मित्रों में इनसे
-0.1249 में इनसे ज्यादा
-0.1249 इनसे ज्यादा सज्जन
-0.1249 ज्यादा सज्जन दूसरा
-0.1249 सज्जन दूसरा नहीं
-0.1249 दूसरा नहीं है
-0.1249 नहीं है </s>
-1.3010 <s> मैंने नीचे
-0.4260 मैंने नीचे जाकर
-0.1249 नीचे जाकर द्वार
-0.1249 जाकर द्वार खोल
-0.1249 द्वार खोल दिया
-0.1249 खोल दिया </s>
-0.1249 <s> देखा तो
-0.1249 देखा तो एक
-0.1249 तो एक स्त्री
-0.1249 एक स्त्री भी
-0.1249 स्त्री भी थी
-0.1249 भी थी </s>
-1.0280 <s> वह मिसेज़
-0.1249 वह मिसेज़ ज्ञानचन्द
-0.1249 मिसेज़ ज्ञानचन्द थीं
-0.1249 ज्ञानचन्द थीं </s>
-1.0280 <s> यह मुझसे
-0.1249 यह मुझसे बड़ी
-0.1249 मुझसे बड़ी थीं
-0.1249 बड़ी थीं </s>
-0.4260 <s> पहले पहल
-0.1249 पहले पहल मेरे
-0.1249 पहल मेरे घर
-0.4260 मेरे घर आई
-0.1249 घर आई थीं
-0.1249 आई थीं </s>
-1.3010 <s> मैंने उनके
-0.1249 मैंने उनके चरण
-0.1249 उनके चरण स्पर्श
-0.1249 चरण स्पर्श किए
-0.1249 स्पर्श किए </s>
-0.1249 <s> हमारे वहाँ
-0.1249 हमारे वहाँ मित्रता
-0.1249 वहाँ मित्रता मर्दों
-0.1249 मित्रता मर्दों ही
-0.1249 मर्दों ही तक
-0.1249 ही तक रहती
-0.1249 तक रहती है
-0.1249 रहती है </s>
-0.1249 <s> औरतों तक
-0.1249 औरतों तक नहीं
-0.1249 तक नहीं जाने
-0.1249 नहीं जाने पाती
-0.1249 जाने पाती </s>
-0.4260 <s> दोनों जने
-0.1249 दोनों जने ऊपर
-0.1249 जने ऊपर आये
-0.1249 ऊपर आये </s>
-0.1249 <s> ज्ञान बाबू
-1.2041 ज्ञान बाबू एक
-0.1249 बाबू एक स्कूल
-0.1249 एक स्कूल में
-0.1249 स्कूल में मास्टर
-0.1249 में मास्टर हैं
-0.1249 मास्टर हैं </s>
-0.1249 <s> बड़े ही
-0.1249 बड़े ही उदार
-0.1249 ही उदार विद्वान
-0.1249 उदार विद्वान निष्कपट
-0.1249 विद्वान निष्कपट </s>
-1.0280 <s> पर आज
-0.1249 पर आज मुझे
-0.1249 आज मुझे मालूम
-0.1249 मुझे मालूम हुआ
-0.1249 मालूम हुआ कि
-0.1249 हुआ कि उनकी
-0.1249 कि उनकी पथ
-0.1249 उनकी पथ प्रदर्शिका
-0.1249 पथ प्रदर्शिका उनकी
-0.1249 प्रदर्शिका उनकी स्त्री
-0.1249 उनकी स्त्री हैं
-0.1249 स्त्री हैं </s>
-1.0280 <s> वह दोहरे
-0.1249 वह दोहरे बदन
-0.1249 दोहरे बदन की
-0.1249 बदन की प्रतिभाशाली
-0.1249 की प्रतिभाशाली महिला
-0.1249 प्रतिभाशाली महिला थीं
-0.1249 महिला थीं </s>
-0.1249 <s> चेहरे पर
-0.1249 चेहरे पर ऐसा
-0.1249 पर ऐसा रोब
-0.1249 ऐसा रोब था
-0.1249 रोब था मानो
-0.1249 था मानो कोई
-0.1249 मानो कोई रानी
-0.1249 कोई रानी हों
-0.1249 रानी हों </s>
-0.4260 <s> सिर से
-0.1249 सिर से पाँव
-0.1249 से पाँव तक
-0.1249 पाँव तक गहनों
-0.1249 तक गहनों से
-0.1249 गहनों से लदी
-0.1249 से लदी हुईं
-0.1249 लदी हुईं </s>
-0.1249 <s> मुख सुन्दर
-0.1249 मुख सुन्दर न
-0.1249 सुन्दर न होने
-0.1249 न होने पर
-0.1249 होने पर भी
-0.4260 पर भी आकर्षक
-0.1249 भी आकर्षक था
-0.1249 आकर्षक था </s>
-0.1249 <s> शायद मैं
-0.1249 शायद मैं उन्हें
-0.1249 मैं उन्हें कहीं
-0.1249 उन्हें कहीं और
-0.1249 कहीं और देखती
-0.1249 और देखती तो
-0.1249 देखती तो मुँह
-0.1249 तो मुँह फेर
-0.1249 मुँह फेर लेती
-0.1249 फेर लेती </s>
-0.1249 <s> गर्व की
-0.1249 गर्व की सजीव
-0.1249 की सजीव प्रतिमा
-0.1249 सजीव प्रतिमा थीं
-0.1249 प्रतिमा थीं </s>
-1.0280 <s> वह बाहर
-0.1249 वह बाहर जितनी
-0.1249 बाहर जितनी कठोर
-0.1249 जितनी कठोर भीतर
-0.1249 कठोर भीतर उतनी
-0.1249 भीतर उतनी ही
-0.1249 उतनी ही दयाल
-0.1249 ही दयाल </s>
-0.4260 <s> घर कोई
-0.1249 घर कोई पत्र
-0.4260 कोई पत्र लिखा
-0.1249 पत्र लिखा </s>
-1.0280 <s> यह प्रश्न
-0.1249 यह प्रश्न उन्होंने
-0.1249 प्रश्न उन्होंने कुछ
-0.1249 उन्होंने कुछ हिचकते
-0.1249 कुछ हिचकते हुए
-0.1249 हिचकते हुए किया
-0.1249 हुए किया </s>
-0.6021 <s> मैंने कहा
-0.9031 मैंने कहा हाँ
-0.1249 कहा हाँ लिखा
-0.1249 हाँ लिखा था
-0.1249 लिखा था </s>
-0.6021 <s> कोई लेने
-0.1249 कोई लेने आ
-0.1249 लेने आ रहा
-0.1249 आ रहा है
-0.4260 रहा है जी
-0.1249 है जी नहीं
-0.1249 जी नहीं </s>
-0.1249 <s> न पिताजी
-0.1249 न पिताजी अपने
-0.1249 पिताजी अपने पास
-0.1249 अपने पास रखना
-0.1249 पास रखना चाहते
-0.1249 रखना चाहते हैं
-0.1249 चाहते हैं न
-0.1249 हैं न ससुरजी
-0.1249 न ससुरजी </s>
-1.1249 <s> तो फिर
-0.1249 तो फिर फिर
-0.1249 फिर फिर क्या
-0.1249 फिर क्या अभी
-0.4260 क्या अभी तो
-0.4260 अभी तो यहीं
-0.1249 तो यहीं पड़ी
-0.1249 यहीं पड़ी हूँ
-0.1249 पड़ी हूँ </s>
-1.1249 <s> तो मेरे
-0.1249 तो मेरे घर
-0.4260 मेरे घर क्यों
-0.1249 घर क्यों नहीं
-0.4260 क्यों नहीं चलतीं
-0.1249 नहीं चलतीं </s>
-0.1249 <s> अकेले तो
-0.1249 अकेले तो इस
-0.1249 तो इस घर
-0.1249 इस घर में
-0.6021 घर में मैं
-0.1249 में मैं न
-0.1249 मैं न रहने
-0.1249 न रहने दूँगी
-0.1249 रहने दूँगी </s>
-0.4260 <s> खुफिया के
-0.4260 खुफिया के दो
-0.1249 के दो आदमी
-0.4260 दो आदमी इस
-0.1249 आदमी इस वक्त
-0.4260 इस वक्त भी
-0.1249 वक्त भी डटे
-0.1249 भी डटे हुए
-0.1249 डटे हुए हैं
-0.1249 हुए हैं </s>
-1.4037 <s> मैं पहले
-0.1249 मैं पहले ही
-0.1249 पहले ही समझ
-0.1249 ही समझ गई
-0.1249 समझ गई थी
-0.4260 गई थी दोनों
-0.1249 थी दोनों खुफिया
-0.1249 दोनों खुफिया के
-0.4260 खुफिया के आदमी
-0.1249 के आदमी होंगे
-0.1249 आदमी होंगे </s>
-0.6021 ज्ञान बाबू ने
-0.8239 बाबू ने पत्नी
-0.1249 ने पत्नी की
-0.1249 पत्नी की ओर
-0.7270 की ओर देखकर
-0.1249 ओर देखकर मानो
-0.1249 देखकर मानो उसकी
-0.1249 मानो उसकी आज्ञा
-0.1249 उसकी आज्ञा से
-0.1249 आज्ञा से कहा
-0.4929 से कहा </s>
-1.1249 <s> तो मैं
-0.1249 तो मैं जाकर
-0.4260 मैं जाकर ताँगा
-0.1249 जाकर ताँगा लाऊँ
-0.1249 ताँगा लाऊँ </s>
-0.1829 <s> देवीजी ने
-0.9700 देवीजी ने इस
-0.1249 ने इस तरह
-0.4260 इस तरह देखा
-0.1249 तरह देखा मानो
-0.1249 देखा मानो कह
-0.1249 मानो कह रही
-0.1249 कह रही हों
-0.1249 रही हों </s>
-0.6021 <s> क्या अभी
-0.4260 क्या अभी तुम
-0.1249 अभी तुम यहीं
-0.1249 तुम यहीं खड़े
-0.1249 यहीं खड़े हो
-0.1249 <s> मास्टर साहब
-0.6021 मास्टर साहब चुपके
-0.1249 साहब चुपके से
-0.1249 चुपके से द्वार
-0.1249 से द्वार की
-0.1249 द्वार की ओर
-0.7270 की ओर चले
-0.1249 ओर चले </s>
-0.1249 <s> ठहरो देवीजी
-0.1249 ठहरो देवीजी बोलीं
-0.1249 देवीजी बोलीं क़ै
-0.1249 बोलीं क़ै ताँगे
-0.1249 क़ै ताँगे लाओगे
-0.1249 ताँगे लाओगे </s>
-0.6021 मास्टर साहब घबड़ा
-0.1249 साहब घबड़ा गये
-0.1249 घबड़ा गये </s>
-0.8239 <s> हाँ कै
-0.1249 हाँ कै एक
-0.1249 कै एक ताँगे
-0.4260 एक ताँगे पर
-0.1249 ताँगे पर तीन
-0.1249 पर तीन सवारियाँ
-0.1249 तीन सवारियाँ ही
-0.1249 सवारियाँ ही बैठेंगी
-0.1249 ही बैठेंगी </s>
-0.1249 <s> सन्दूक बिछावन
-0.1249 सन्दूक बिछावन बरतन
-0.1249 बिछावन बरतन भाँडे
-0.1249 बरतन भाँडे क्या
-0.1249 भाँडे क्या मेरे
-0.1249 क्या मेरे सिर
-0.1249 मेरे सिर पर
-0.4260 सिर पर जायेंगे
-0.1249 पर जायेंगे </s>
-1.1249 <s> तो दो
-0.1249 तो दो लेता
-0.1249 दो लेता आऊँगा
-0.1249 लेता आऊँगा मास्टर
-0.1249 आऊँगा मास्टर साहब
-0.6021 मास्टर साहब डरते
-0.1249 साहब डरते डरते
-0.1249 डरते डरते बोले
-0.1249 डरते बोले </s>
-0.7270 <s> एक ताँगे
-0.4260 एक ताँगे में
-0.1249 ताँगे में कितना
-0.1249 में कितना सामान
-0.1249 कितना सामान भर
-0.1249 सामान भर दोगे
-0.1249 भर दोगे </s>
-1.1249 <s> तो तीन
-0.1249 तो तीन लेता
-0.1249 तीन लेता आऊँ
-0.1249 लेता आऊँ </s>
-0.1249 <s> अरे तो
-0.1249 अरे तो जाओगे
-0.1249 तो जाओगे भी
-0.1249 जाओगे भी जरा
-0.1249 भी जरा सी
-0.1249 जरा सी बात
-0.1249 सी बात के
-0.1249 बात के लिए
-0.8239 के लिए घंटा
-0.1249 लिए घंटा भर
-0.1249 घंटा भर लगा
-0.1249 भर लगा दिया
-0.1249 लगा दिया </s>
-1.4037 <s> मैं कुछ
-0.1249 मैं कुछ कहने
-0.1249 कुछ कहने न
-0.1249 कहने न पाई
-0.1249 न पाई थी
-0.1249 पाई थी कि
-0.1249 थी कि ज्ञान
-0.1249 कि ज्ञान बाबू
-1.2041 ज्ञान बाबू चल
-0.1249 बाबू चल दिये
-0.1249 चल दिये </s>
-1.3010 <s> मैंने सकुचाते
-0.1249 मैंने सकुचाते हुए
-0.1249 सकुचाते हुए कहा
-0.4260 हुए कहा बहन
-0.4260 कहा बहन तुम्हें
-0.1249 बहन तुम्हें मेरे
-0.1249 तुम्हें मेरे जाने
-0.1249 मेरे जाने से
-0.1249 जाने से कष्ट
-0.1249 से कष्ट होगा
-0.1249 कष्ट होगा और
-0.1249 होगा और </s>
-0.9700 देवीजी ने तीक्ष्ण
-0.1249 ने तीक्ष्ण स्वर
-0.1249 तीक्ष्ण स्वर में
-0.1249 स्वर में कहा
-0.1249 में कहा </s>
-0.8239 <s> हाँ होगा
-0.1249 हाँ होगा तो
-0.1249 होगा तो अवश्य
-0.1249 तो अवश्य </s>
-0.6021 <s> तुम दोनों
-0.1249 तुम दोनों जून
-0.1249 दोनों जून में
-0.1249 जून में दो
-0.1249 में दो तीन
-0.1249 दो तीन पाव
-0.1249 तीन पाव भर
-0.1249 पाव भर आटा
-0.1249 भर आटा खाओगी
-0.1249 आटा खाओगी कमरे
-0.1249 खाओगी कमरे के
-0.4260 कमरे के एक
-0.1249 के एक कोने
-0.1249 एक कोने में
-0.1249 कोने में अड्डा
-0.1249 में अड्डा जमा
-0.1249 अड्डा जमा लोगी
-0.1249 जमा लोगी </s>
-0.4260 <s> सिर में
-0.1249 सिर में आने
-0.1249 में आने का
-0.1249 आने का तेल
-0.1249 का तेल डालोगी
-0.1249 तेल डालोगी </s>
-1.0280 <s> यह क्या
-0.1249 यह क्या थोड़ा
-0.1249 क्या थोड़ा कष्ट
-0.1249 थोड़ा कष्ट है
-0.1249 कष्ट है </s>
-1.3010 <s> मैंने झेंपते
-0.1249 मैंने झेंपते हुए
-0.1249 झेंपते हुए कहा
-0.4260 हुए कहा आप
-0.1249 कहा आप तो
-0.1249 आप तो बना
-0.1249 तो बना रही
-0.1249 बना रही हैं
-0.1249 रही हैं </s>
-0.9700 देवीजी ने सदय
-0.1249 ने सदय भाव
-0.1249 सदय भाव से
-0.4260 भाव से मेरा
-0.1249 से मेरा कंधा
-0.1249 मेरा कंधा पकड़कर
-0.1249 कंधा पकड़कर कहा
-0.1249 पकड़कर कहा </s>
-0.4260 <s> जब तुम्हारे
-0.1249 जब तुम्हारे बाबूजी
-0.1249 तुम्हारे बाबूजी लौट
-0.1249 बाबूजी लौट आवें
-0.1249 लौट आवें तो
-0.1249 आवें तो मुझे
-0.1249 तो मुझे भी
-0.1249 मुझे भी अपने
-0.1249 भी अपने घर
-0.1249 अपने घर मेहमान
-0.1249 घर मेहमान रख
-0.1249 मेहमान रख लेना
-0.1249 रख लेना </s>
-0.4260 <s> मेरा घाटा
-0.1249 मेरा घाटा पूरा
-0.1249 घाटा पूरा हो
-0.1249 पूरा हो जायगा
-0.1249 हो जायगा </s>
-0.7270 <s> अब तो
-0.1249 अब तो राजी
-0.1249 तो राजी हुई
-0.1249 राजी हुई चलो
-0.1249 हुई चलो असबाब
-0.1249 चलो असबाब बाँधो
-0.1249 असबाब बाँधो </s>
-0.1249 <s> खाट वाट
-0.1249 खाट वाट कल
-0.1249 वाट कल मँगवा
-0.1249 कल मँगवा लेंगे
-0.1249 मँगवा लेंगे </s>
-1.3010 <s> मैंने ऐसी
-0.1249 मैंने ऐसी सदय
-0.1249 ऐसी सदय उदार
-0.1249 सदय उदार मीठी
-0.1249 उदार मीठी बातें
-0.1249 मीठी बातें करनेवाली
-0.1249 बातें करनेवाली स्त्री
-0.1249 करनेवाली स्त्री नहीं
-0.1249 स्त्री नहीं देखी
-0.1249 नहीं देखी </s>
-1.4037 <s> मैं उनकी
-0.1249 मैं उनकी छोटी
-0.1249 उनकी छोटी बहन
-0.1249 छोटी बहन होती
-0.1249 बहन होती तो
-0.4260 होती तो भी
-0.1249 तो भी शायद
-0.1249 भी शायद इससे
-0.1249 शायद इससे अच्छी
-0.1249 इससे अच्छी तरह
-0.1249 अच्छी तरह न
-0.1249 तरह न रखतीं
-0.1249 न रखतीं </s>
-0.1249 <s> चिन्ता या
-0.1249 चिन्ता या क्रोध
-0.1249 या क्रोध को
-0.1249 क्रोध को तो
-0.1249 को तो जैसे
-0.4260 तो जैसे उन्होंने
-0.1249 जैसे उन्होंने जीत
-0.1249 उन्होंने जीत लिया
-0.1249 जीत लिया हो
-0.1249 लिया हो </s>
-0.1249 <s> सदैव उनके
-0.1249 सदैव उनके मुख
-0.1249 उनके मुख पर
-0.4260 मुख पर मधुर
-0.1249 पर मधुर विनोद
-0.1249 मधुर विनोद खेला
-0.1249 विनोद खेला करता
-0.1249 खेला करता था
-0.1249 करता था </s>
-0.6021 <s> कोई लड़का
-0.1249 कोई लड़का बाला
-0.1249 लड़का बाला न
-0.1249 बाला न था
-0.4260 न था पर
-0.1249 था पर मैंने
-0.4260 पर मैंने उन्हें
-0.1249 मैंने उन्हें कभी
-0.1249 उन्हें कभी दुखी
-0.1249 कभी दुखी नहीं
-0.1249 दुखी नहीं देखा
-0.1249 नहीं देखा </s>
-0.1249 <s> ऊपर के
-0.1249 ऊपर के काम
-0.1249 के काम के
-0.1249 काम के लिए
-0.8239 के लिए लौंडा
-0.1249 लिए लौंडा रख
-0.1249 लौंडा रख लिया
-0.4260 रख लिया था
-0.1249 लिया था </s>
-0.1249 <s> भीतर का
-0.1249 भीतर का सारा
-0.1249 का सारा काम
-0.1249 सारा काम खुद
-0.1249 काम खुद करतीं
-0.1249 खुद करतीं </s>
-0.1249 <s> इतना कम
-0.1249 इतना कम खाकर
-0.1249 कम खाकर और
-0.1249 खाकर और इतनी
-0.1249 और इतनी मेहनत
-0.1249 इतनी मेहनत करके
-0.1249 मेहनत करके वह
-0.1249 करके वह कैसे
-0.1249 वह कैसे इतनी
-0.1249 कैसे इतनी ह्रष्ट
-0.1249 इतनी ह्रष्ट पुष्ट
-0.1249 ह्रष्ट पुष्ट थीं
-0.1249 पुष्ट थीं मैं
-0.1249 थीं मैं नहीं
-0.1249 मैं नहीं कह
-0.1249 <s> विश्राम तो
-0.1249 विश्राम तो जैसे
-0.4260 तो जैसे उनके
-0.1249 जैसे उनके भाग्य
-0.1249 उनके भाग्य में
-0.1249 भाग्य में ही
-0.1249 में ही नहीं
-0.4260 ही नहीं लिखा
-0.1249 नहीं लिखा था
-0.1249 <s> जेठ की
-0.4260 जेठ की दुपहरी
-0.1249 की दुपहरी में
-0.1249 दुपहरी में भी
-0.1249 में भी न
-0.8239 भी न लेटती
-0.1249 न लेटती थीं
-0.1249 लेटती थीं </s>
-0.8239 <s> हाँ मुझे
-0.1249 हाँ मुझे कुछ
-0.1249 मुझे कुछ न
-0.1249 कुछ न करने
-0.1249 न करने देतीं
-0.1249 करने देतीं </s>
-0.4260 <s> उस पर
-0.1249 उस पर जब
-0.1249 पर जब देखो
-0.1249 जब देखो कुछ
-0.1249 देखो कुछ खिलाने
-0.1249 कुछ खिलाने को
-0.1249 खिलाने को सिर
-0.1249 को सिर पर
-0.4260 सिर पर सवार
-0.1249 पर सवार </s>
-0.4260 <s> मुझे यहाँ
-0.4260 मुझे यहाँ बस
-0.1249 यहाँ बस यही
-0.1249 बस यही एक
-0.1249 यही एक तकलीफ
-0.1249 एक तकलीफ थी
-0.1249 तकलीफ थी </s>
-0.8239 <s> मगर आठ
-0.1249 मगर आठ ही
-0.1249 आठ ही दिन
-0.1249 ही दिन गुजरे
-0.1249 दिन गुजरे थे
-0.1249 गुजरे थे कि
-0.1249 थे कि एक
-0.1249 कि एक दिन
-0.4260 एक दिन मैंने
-0.4260 दिन मैंने उन्हीं
-0.1249 मैंने उन्हीं दोनों
-0.1249 उन्हीं दोनों खुफियों
-0.1249 दोनों खुफियों को
-0.1249 खुफियों को नीचे
-0.1249 को नीचे बैठा
-0.1249 नीचे बैठा देखा
-0.1249 बैठा देखा </s>
-0.4260 <s> मेरा माथा
-0.1249 मेरा माथा ठनका
-0.1249 माथा ठनका </s>
-1.0280 <s> यह अभागे
-0.1249 यह अभागे यहाँ
-0.1249 अभागे यहाँ भी
-0.4260 यहाँ भी मेरे
-0.1249 भी मेरे पीछे
-0.1249 मेरे पीछे पड़े
-0.4260 पीछे पड़े हैं
-0.1249 पड़े हैं </s>
-1.3010 <s> मैंने तुरन्त
-0.1249 मैंने तुरन्त बहनजी
-0.1249 तुरन्त बहनजी से
-0.1249 बहनजी से कहा
-0.9700 से कहा वे
-0.1249 कहा वे दोनों
-0.1249 वे दोनों बदमाश
-0.4260 दोनों बदमाश यहाँ
-0.1249 बदमाश यहाँ भी
-0.4260 यहाँ भी मँडरा
-0.1249 भी मँडरा रहे
-0.1249 मँडरा रहे हैं
-0.4260 <s> उन्होंने हिकारत
-0.1249 उन्होंने हिकारत से
-0.1249 हिकारत से कहा
-0.9700 से कहा क़ुत्ते
-0.1249 कहा क़ुत्ते हैं
