\data\
ngram 1=3096
ngram 2=5686
ngram 3=5260

\1-grams:
-4.0509 इमारत -0.6020
-4.0509 गोर्बाचेव -0.6020
-4.0509 मनुस्मृति -0.5494
-4.0509 lord -0.6012
-4.0509 easy -0.6018
-4.0509 क्रोध -0.6020
-4.0509 मानकर -0.6014
-3.7498 into -0.6019
-4.0509 खुशबू -0.5494
-4.0509 वुमैन -0.6019
-4.0509 अर्थव्यवस्था -0.5494
-4.0509 प्रत -0.6014
-3.7498 blue -0.5494
-4.0509 बुद्धिजीवी -0.6020
-3.2058 क्या -0.6007
-4.0509 मोटो -0.6020
-3.7498 पीछे -0.6019
-4.0509 गद्दा -0.6020
-3.7498 बाढ़ -0.6019
-4.0509 अनेक -0.6020
-3.7498 तीज़ेन -0.6020
-3.7498 ब्लेज़र -0.5494
-4.0509 उन्हीं -0.6007
-3.7498 चित्र -0.6018
-3.4488 led -0.6018
-3.7498 समझ -0.6019
-4.0509 gear -0.5494
-4.0509 वुमेन्स -0.6020
-4.0509 रखती -0.5985
-4.0509 कीजिये -0.5494
-3.7498 युद्ध -0.6012
-3.7498 वाला -0.5493
-4.0509 सोनीगरा -0.6020
-3.5737 मेमोरी -0.6019
-4.0509 आयरन -0.6020
-4.0509 इंकजेट -0.6020
-3.7498 जिनका -0.5985
-4.0509 prefection -0.6019
-4.0509 shavers -0.5494
-4.0509 स्लो -0.6020
-4.0509 रामनाथ -0.6020
-4.0509 यूनीफॉर्म -0.5494
-4.0509 saowl -0.5494
-3.7498 बच्चा -0.5983
-4.0509 जानी -0.6019
-4.0509 clamorize -0.6020
-3.7498 पैंट -0.5494
-4.0509 हर्बल -0.6020
-4.0509 extra -0.6020
-3.7498 रतन -0.5494
-4.0509 musketeers -0.5494
-4.0509 चीन -0.6014
-4.0509 प्रक्रियाओं -0.6020
-4.0509 पच्चीस -0.5494
-4.0509 पेड़ -0.5982
-4.0509 mattresses -0.5494
-4.0509 pack -0.6012
-4.0509 motorcycle -0.6020
-4.0509 जीम -0.6020
-3.7498 शार्पनर -0.5494
-4.0509 दृष्टिकोण -0.6008
-3.5737 राऊ -0.5492
-4.0509 एचडी -0.6020
-4.0509 para -0.6020
-4.0509 introduction -0.5494
-3.7498 पैंसिल -0.6020
-4.0509 करूंगा -0.5494
-3.7498 ऑफर्ज़ -0.5494
-4.0509 नाग -0.6020
-4.0509 ethno -0.6020
-4.0509 सभी -0.6020
-3.7498 बड़ा -0.6019
-3.2727 लिया -0.5454
-4.0509 फ़िल्मों -0.5995
-4.0509 एलीफेंट -0.6020
-4.0509 राशियाँ -0.5982
-4.0509 खात्मा -0.6018
-3.7498 nature -0.5494
-4.0509 जिसकी -0.6019
-3.5737 तौर -0.6010
-3.7498 chemical -0.6020
-4.0509 मित्र -0.6018
-4.0509 भरण -0.6020
-4.0509 religion -0.6006
-3.7498 जॉन -0.6020
-4.0509 learn -0.6020
-4.0509 घरेलू -0.6020
-3.5737 फ़ोटो -0.5494
-4.0509 series -0.5494
-4.0509 airis -0.6020
-4.0509 micromanagement -0.5494
-3.7498 पेन -0.5494
-3.4488 कार्ड -0.5485
-4.0509 विवाद -0.6019
-4.0509 affenty -0.6020
-3.7498 काइट्स -0.5493
-3.7498 सबके -0.6017
-3.4488 रेडियो -0.5455
-4.0509 soft -0.6019
-4.0509 जटायु -0.5987
-4.0509 यू -0.6020
-4.0509 source -0.6012
-3.5737 खेत -0.5948
-4.0509 empire -0.5494
-3.7498 morpankh -0.6018
-4.0509 yoga -0.6006
-4.0509 गोदरेज -0.6020
-4.0509 अक्चान्छा -0.6020
-4.0509 हनुमान -0.6020
-4.0509 आज्ञा -0.6020
-4.0509 पौंड्स -0.5494
-4.0509 corner -0.6020
-4.0509 complaint -0.5494
-4.0509 उपयोगी -0.5985
-3.7498 फोर -0.5994
-3.7498 gandhi -0.6020
-3.3519 गाउन -0.5492
-3.3519 चनिया -0.5492
-3.4488 docomo -0.6005
-4.0509 रुप -0.5998
-4.0509 gift -0.6020
-4.0509 औसीलेटर -0.6020
-4.0509 हालत -0.6018
-3.7498 जिनके -0.6018
-3.7498 निकालेंगे -0.5987
-4.0509 गले -0.5998
-3.7498 player -0.5493
-4.0509 संक्रामक -0.6020
-4.0509 फैसला -0.6020
-4.0509 रोगियों -0.6007
-4.0509 soafs -0.6017
-4.0509 राजपूत -0.6020
-4.0509 बरतन -0.5494
-4.0509 उनको -0.6020
-4.0509 जैतून -0.6000
-4.0509 कुआं -0.6020
-4.0509 aventures -0.6006
-4.0509 वंडरशेफ -0.6020
-4.0509 cdma -0.5494
-4.0509 van -0.5494
-3.5737 in -0.6006
-4.0509 फॉग -0.5494
-4.0509 मछरदानी -0.6020
-4.0509 forwardly -0.5494
-3.7498 कंपनी -0.6012
-4.0509 figures -0.5494
-4.0509 धोबी -0.5987
-4.0509 नीरो -0.6020
-4.0509 स्पोर्ट् -0.6019
-4.0509 sleepwell -0.6020
-4.0509 गादी -0.5494
-4.0509 गावों -0.5998
-4.0509 इयरफोन्स -0.5494
-4.0509 products -0.5494
-4.0509 stabilizers -0.5494
-4.0509 solved -0.6020
-4.0509 everything -0.5494
-4.0509 वरदान -0.5985
-2.8467 हो -0.5481
-4.0509 जिऔलॉजिकल -0.6020
-4.0509 blankets -0.5494
-3.5737 वाटर -0.6018
-3.4488 एयर -0.6018
-4.0509 पान -0.6020
-3.7498 विलियम -0.6020
-3.7498 कवर्स -0.5494
-4.0509 sky -0.6015
-4.0509 पीतल -0.5982
-3.7498 डेटा -0.6020
-4.0509 शपथ -0.6020
-4.0509 जैन -0.6020
-4.0509 लगाता -0.5494
-4.0509 तनाव -0.5987
-3.1478 वह -0.6013
-4.0509 feature -0.6016
-3.2727 घर -0.5988
-4.0509 ड्रीम -0.6020
-3.5737 उनके -0.6006
-4.0509 quantitative -0.6020
-3.4488 vodafone -0.6005
-2.7084 मोबाइल -0.5481
-4.0509 असाढ़ -0.5995
-4.0509 sunglasses -0.5494
-4.0509 कूकीज़ -0.5494
-4.0509 glozzy -0.6018
-4.0509 बंद -0.6014
-3.4488 जमीन -0.5970
-4.0509 implementing -0.6020
-4.0509 षड़यंत्र -0.6020
-2.6359 the -0.6005
-3.7498 विद्युत -0.6020
-3.7498 theory -0.5485
-4.0509 दवाईयां -0.5494
-4.0509 used -0.6020
-4.0509 टयूबलैस -0.6020
-4.0509 नोवाफिट -0.6020
-3.7498 विज्ञान -0.5987
-4.0509 उसमें -0.6018
-3.7498 an -0.6019
-4.0509 by -0.6020
-4.0509 फ़िल्टर -0.5494
-4.0509 वॉटर -0.6020
-3.7498 साड़ीयाँ -0.5494
-4.0509 रैंच -0.6020
-3.4488 धीरे -0.6006
-4.0509 चाह -0.6019
-4.0509 लेटेस्ट -0.6020
-4.0509 फिल्म -0.6020
-4.0509 videocon -0.6015
-3.5737 उत्पादन -0.6018
-4.0509 lamp -0.5494
-4.0509 सैट्स -0.5494
-3.4488 बस -0.6018
-4.0509 our -0.6020
-4.0509 monica -0.6018
-3.5737 कहा -0.6012
-4.0509 सरल -0.6019
-3.7498 इंच -0.6020
-4.0509 रहस्य -0.5494
-4.0509 pripherals -0.5494
-2.1164 और -0.5949
-4.0509 वाज़ -0.6018
-3.5737 living -0.6016
-4.0509 platinum -0.5494
-2.7287 of -0.5998
-3.7498 सोना -0.6018
-4.0509 lovely -0.6020
-4.0509 फर्श -0.6019
-2.9717 यह -0.5974
-4.0509 अमरीका -0.5987
-3.7498 टेम्पल -0.6019
-4.0509 लाभ -0.6006
-4.0509 ईश्वर -0.5995
-4.0509 softler -0.6020
-4.0509 billion -0.6020
-4.0509 कमर -0.6020
-4.0509 उदयपुर -0.6019
-4.0509 वंडरशैफ -0.6020
-4.0509 बुकिंग -0.6017
-4.0509 चमत्कारिक -0.6014
-4.0509 वर्ण -0.6019
-4.0509 अरब -0.6020
-3.7498 चलती -0.6003
-3.3519 सौ -0.6015
-4.0509 पसंद -0.6011
-3.7498 रनिंग -0.6018
-4.0509 स्कूल -0.5982
-4.0509 एडिडास -0.6020
-4.0509 chicken -0.6020
-4.0509 toy -0.6020
-4.0509 very -0.6020
-3.7498 तवा -0.6020
-4.0509 मीनू -0.5985
-3.7498 लोक -0.5990
-4.0509 मृतुन्जय -0.5494
-4.0509 चश्मे -0.5494
-4.0509 सीधा -0.6017
-4.0509 wine -0.5494
-4.0509 रात -0.6020
-4.0509 एक्वागार्ड -0.5494
-4.0509 बोली -0.6020
-4.0509 सिद्धनाथ -0.5995
-4.0509 नूडल्स -0.6020
-4.0509 पोस्टपेड -0.6020
-3.7498 बाग -0.6019
-4.0509 लौरियल -0.6020
-3.5737 bedroom -0.6019
-4.0509 बहादुरी -0.6008
-4.0509 पुत्र -0.6020
-4.0509 ठाक -0.6019
-3.7498 चाहिए -0.5494
-3.7498 जंगल -0.5998
-4.0509 वेबसाइट -0.6020
-4.0509 जल्द -0.6014
-4.0509 moylee -0.5494
-4.0509 नेहरू -0.6019
-4.0509 ब्रिगेडियर -0.6020
-3.4488 costing -0.6010
-3.7498 बेचते -0.6006
-3.4488 होते -0.6006
-4.0509 चौरासी -0.6020
-4.0509 cellphone -0.5494
-4.0509 काफी -0.6020
-3.7498 गरीब -0.5994
-4.0509 मिल्खासिंह -0.6020
-3.5737 शूज -0.5494
-3.5737 मेन -0.5494
-3.7498 ढोलक -0.6020
-4.0509 वातानुकूलित -0.5494
-4.0509 zoom -0.6020
-4.0509 spirituality -0.5494
-3.7498 कह -0.6011
-3.7498 पीसने -0.5995
-4.0509 प्लेयर -0.5494
-3.7498 bazaar -0.5494
-4.0509 पर्फ्यूम्स -0.6018
-4.0509 मैदान -0.6014
-4.0509 चाहते -0.6020
-4.0509 रहता -0.6020
-2.6707 नहीं -0.5405
-3.4488 आ -0.6018
-4.0509 ऐ -0.5494
-3.4488 साड़ी -0.5491
-3.5737 एक्स्टेंडेड -0.6019
-4.0509 रिमूवर -0.6018
-3.7498 रेडमी -0.6020
-4.0509 टी -0.6019
-4.0509 जॉर्जट -0.6020
-4.0509 thirteen -0.6020
-4.0509 इन्स्ट्रुमेंट्स -0.6019
-4.0509 शौपिंग -0.6018
-4.0509 बयान -0.5985
-4.0509 टॉप -0.6020
-3.2058 शूज़ -0.5493
-4.0509 शाइन -0.6020
-3.7498 फक्त -0.6020
-4.0509 ipad -0.5494
-4.0509 कौटन -0.5494
-4.0509 इनका -0.6019
-3.7498 कर्ज़ -0.5997
-4.0509 pottery -0.6020
-4.0509 callmate -0.6019
-4.0509 कॉफ़ी -0.6020
-3.5737 essential -0.5491
-3.5737 हमें -0.6013
-4.0509 मुर्गी -0.6020
-3.7498 व -0.6017
-4.0509 he -0.6020
-4.0509 अभिप्राय -0.6016
-4.0509 साइकल -0.5494
-4.0509 उसी -0.5998
-4.0509 चॉकलेट -0.5494
-3.7498 mp -0.5485
-3.7498 वक्ता -0.6006
-4.0509 shyam -0.6020
-3.7498 early -0.6020
-4.0509 एफ़ -0.6020
-4.0509 निराशा -0.5995
-4.0509 थाली -0.6000
-4.0509 urdu -0.5494
-4.0509 बल्कि -0.6020
-4.0509 रोकटोक -0.6019
-3.5737 electro -0.6019
-4.0509 इडियन -0.6019
-4.0509 steriods -0.5494
-4.0509 बिडिओकॉन -0.6020
-4.0509 हिंदुस्तान -0.6020
-4.0509 साधारण -0.6020
-4.0509 नेस्कैफ -0.6020
-3.4488 अधिक -0.6018
-4.0509 वायर -0.5494
-3.7498 शब्द -0.6019
-3.7498 speaker -0.6006
-4.0509 ethentic -0.6020
-4.0509 कॉफ़ी -0.5494
-4.0509 कौरोरैड -0.6020
-4.0509 लेते -0.6006
-4.0509 गिद्ध -0.6020
-4.0509 सेना -0.6020
-3.5737 bike -0.6017
-2.5457 से -0.5447
-4.0509 मोटर्स -0.6020
-4.0509 मेन्स -0.6020
-4.0509 सबेरे -0.6020
-4.0509 जिस्ट -0.5494
-3.7498 वाली -0.6020
-4.0509 डाली -0.5985
-3.7498 पर्यवेक्षक -0.6019
-3.7498 उतनी -0.6014
-3.3519 it -0.5489
-4.0509 be -0.6020
-4.0509 keetions -0.5494
-4.0509 thrillers -0.5494
-4.0509 नाम -0.6020
-4.0509 movies -0.6006
-4.0509 डाबर -0.6020
-4.0509 चसका -0.6020
-4.0509 दीवार -0.6010
-2.9717 thousand -0.5481
-4.0509 वॉक्स -0.5494
-3.7498 पाउडर -0.5493
-3.7498 संसदीय -0.6020
-3.5737 ऑर्डर -0.6015
-4.0509 gaubert -0.5494
-4.0509 पाँव -0.6019
-4.0509 misconnecterizing -0.5494
-4.0509 इससे -0.6019
-4.0509 पनीर -0.5494
-4.0509 grand -0.6020
-4.0509 दिनरात -0.6018
-4.0509 दिखावटी -0.6020
-4.0509 बनी -0.5985
-4.0509 ज़हन्नुम -0.5998
-4.0509 क्रुद्ध -0.6020
-3.5737 डैम -0.6017
-3.5737 बूट -0.5494
-4.0509 पंजाबी -0.6019
-4.0509 हेरीकाप्टर -0.6020
-4.0509 ignou -0.6019
-3.7498 लड्डू -0.5494
-3.7498 car -0.6005
-4.0509 dth -0.6015
-4.0509 my -0.6020
-4.0509 affairs -0.5494
-4.0509 नक़्शे -0.5998
-4.0509 ठंडाई -0.6020
-4.0509 प्रेशर -0.6016
-4.0509 डेनिम -0.6020
-4.0509 mala -0.6019
-3.7498 प्योर -0.6018
-4.0509 thief -0.5494
-4.0509 sultan -0.5494
-4.0509 धब्बों -0.5995
-4.0509 मिल्क -0.6020
-3.5737 bsnl -0.6008
-4.0509 सोच -0.6018
-4.0509 doxy -0.6020
-4.0509 एअरपोर्ट -0.5995
-4.0509 cloth -0.6019
-4.0509 शाम -0.6020
-4.0509 डायपर -0.5494
-4.0509 मिलकर -0.6017
-3.7498 पॉइंट -0.6019
-4.0509 higher -0.6020
-4.0509 अधूरे -0.6019
-4.0509 नसीब -0.6019
-4.0509 कसरत -0.5982
-3.1478 फोन -0.5454
-4.0509 potter -0.5494
-4.0509 ब्रशेज -0.5494
-4.0509 पास्टा -0.5494
-4.0509 जैसा -0.6012
-4.0509 paper -0.5494
-3.7498 kitchenware -0.5494
-4.0509 मानते -0.6006
-4.0509 स्थान -0.6018
-3.7498 वीडियोकॉन -0.5484
-4.0509 देव -0.6020
-3.7498 both -0.6020
-4.0509 ड्रि्ल -0.6016
-3.4488 अपना -0.6000
-4.0509 महत्वपूर्ड़ -0.5985
-4.0509 चप्पल्स -0.5494
-4.0509 वैक्स -0.5494
-4.0509 जाकर -0.6020
-3.7498 digital -0.5494
-4.0509 इन्शुरन्स -0.5494
-3.7498 ईनर -0.5494
-4.0509 हज़ -0.6020
-4.0509 veera -0.6020
-3.7498 बोल -0.6018
-4.0509 शरबत -0.6020
-3.4488 डी -0.5491
-4.0509 बहत्तर -0.6020
-3.7498 कम्पनी -0.5468
-4.0509 बोलते -0.6006
-4.0509 सिनेमा -0.6020
-4.0509 चेहरे -0.6010
-4.0509 मैन -0.5494
-4.0509 पैबल -0.6020
-4.0509 क्रॉकरी -0.6020
-4.0509 आने -0.6020
-3.7498 आदमी -0.5981
-4.0509 जॉगिंग -0.6019
-4.0509 ट्रीट्मेंट -0.6020
-3.7498 linen -0.5494
-4.0509 अप्पो -0.6012
-4.0509 vivek -0.6020
-3.7498 counter -0.6020
-3.2727 फिर -0.6012
-4.0509 wonderful -0.5494
-3.5737 ले -0.6016
-4.0509 ए -0.6019
-4.0509 बॉय्ज -0.5494
-4.0509 helmet -0.6006
-3.3519 non -0.6018
-4.0509 आये -0.5494
-4.0509 pseudo -0.6020
-4.0509 विमान -0.6007
-3.0095 five -0.6005
-4.0509 कादंबरी -0.5494
-3.4488 मोबाईल -0.5489
-3.7498 टॉय्ज़ -0.5494
-3.4488 आदि -0.6006
-4.0509 शक्ति -0.5494
-3.7498 mts -0.6013
-4.0509 nilkanth -0.6019
-4.0509 सुल्तानी -0.6019
-4.0509 ऐक्टिव -0.6019
-4.0509 इक्विपमेंट -0.5494
-4.0509 शूज़़ -0.6020
-3.3519 उसके -0.6014
-2.4598 हैं -0.5444
-3.2727 प्राइम -0.5483
-4.0509 वी -0.6020
-3.7498 कृषि -0.6020
-4.0509 भुगतना -0.6014
-3.2727 tv -0.5484
-4.0509 safety -0.6019
-3.7498 बनाया -0.6014
-4.0509 चूड़ीदार -0.5494
-4.0509 daily -0.6020
-4.0509 सर्विसेज़ -0.5494
-4.0509 bean -0.6020
-4.0509 गर्मी -0.6014
-4.0509 kids -0.6020
-4.0509 लीला -0.6020
-4.0509 बक्सा -0.5494
-4.0509 बनवाने -0.6000
-4.0509 garments -0.6020
-3.5737 टोपी -0.6017
-4.0509 वैल्डिंग -0.6019
-4.0509 electromagnet -0.6020
-4.0509 गूगल्स -0.5494
-4.0509 मालिश -0.6020
-4.0509 stickers -0.5494
-4.0509 साउंड -0.6020
-4.0509 ट्रेन -0.5987
-4.0509 कण्ट्रोल -0.6020
-4.0509 reasoning -0.6019
-4.0509 eastern -0.6018
-4.0509 charger -0.6018
-4.0509 टैरेन -0.5494
-4.0509 musical -0.6019
-3.5737 new -0.6019
-3.4488 अपने -0.6018
-4.0509 लगेज -0.5494
-4.0509 जन -0.6020
-4.0509 great -0.6020
-4.0509 faster -0.6020
-4.0509 गैहने -0.6019
-3.5737 sim -0.6017
-4.0509 यात्रा -0.5998
-4.0509 लालजी -0.6020
-4.0509 जिसे -0.6020
-4.0509 स्टोव -0.6020
-4.0509 tradisnan -0.5494
-4.0509 माल -0.6020
-4.0509 buy -0.6020
-3.7498 jhakir -0.6020
-4.0509 तकनीकी -0.5995
-4.0509 हैयर -0.6020
-3.7498 analog -0.6020
-4.0509 area -0.6020
-4.0509 सम्मानित -0.6020
-4.0509 model -0.6013
-4.0509 लेखिका -0.5987
-3.7498 ऑल -0.6012
-4.0509 जीवनी -0.6019
-4.0509 दिखाइए -0.5494
-4.0509 मिखाइल -0.6020
-4.0509 अखबार -0.6020
-3.7498 ट्रैवल -0.6017
-3.5737 विडियो -0.6017
-4.0509 moon -0.6011
-4.0509 चीज़ें -0.6014
-3.7498 harry -0.6020
-3.7498 ड्रेसेज -0.6017
-4.0509 engineering -0.6019
-4.0509 ओर्गेनिक -0.6020
-3.7498 ऐसा -0.6016
-4.0509 प्रत्येक -0.6020
-4.0509 कम्पैटिबल -0.5494
-3.7498 लोमड़ी -0.5494
-4.0509 medical -0.6019
-4.0509 मरुन -0.6020
-4.0509 शुटिंग -0.5494
-4.0509 वुल्स्टन -0.6020
-4.0509 पड़ा -0.6014
-4.0509 लो -0.6020
-3.5737 आपके -0.6016
-4.0509 जबानी -0.5987
-3.7498 कार्बन -0.6020
-4.0509 games -0.5494
-4.0509 वॉरंटी -0.5987
-4.0509 लस्सी -0.5987
-3.7498 पूजा -0.6020
-3.2727 आम -0.5999
-4.0509 ट्यूज़डे -0.6007
-4.0509 नागाज़ -0.5494
-4.0509 घोषणा -0.5982
-4.0509 जिन्होंने -0.6018
-4.0509 ईनटैक्स -0.6020
-3.7498 मुरब्बा -0.5493
-4.0509 factory -0.6020
-3.2058 health -0.5992
-3.7498 हाउस -0.6019
-4.0509 डिस्क्स -0.5494
-4.0509 टाइमेक्स -0.6020
-3.4488 pre -0.6019
-4.0509 मेंजू -0.6020
-3.4488 पुस्तक -0.5493
-4.0509 चाहीए -0.5494
-4.0509 थैंक -0.6020
-3.5737 कैनवास -0.6016
-4.0509 कुर्ता -0.5494
-4.0509 तहत -0.6018
-4.0509 फ्री -0.6020
-4.0509 गन्ने -0.6000
-4.0509 ten -0.5494
-3.7498 पाऊच -0.5494
-3.7498 प्लस -0.5494
-4.0509 विधान -0.6020
-4.0509 डब्बा -0.5494
-3.7498 नरेश -0.6012
-4.0509 देशी -0.6020
-4.0509 डेस्कटॉप -0.6020
-4.0509 कागज -0.6010
-3.4488 camera -0.5491
-4.0509 घंटे -0.6020
-4.0509 waving -0.6020
-4.0509 बॉय -0.6015
-3.7498 आलोचना -0.6014
-3.1478 कवर -0.5488
-4.0509 सिखा -0.6018
-4.0509 नेता -0.5494
-3.7498 मात्रा -0.5998
-4.0509 volume -0.5494
-4.0509 सुनाई -0.6020
-4.0509 पब्लिकेशन -0.5494
-3.7498 ऑर्गन -0.5987
-4.0509 प्रश्नपत्र -0.6020
-3.7498 मुलतानी -0.6019
-4.0509 एप्सन -0.6020
-4.0509 गुब्बारे -0.5494
-4.0509 selection -0.5494
-3.7498 आविष्कार -0.5450
-4.0509 ऍब्डोमिनल -0.6020
-4.0509 स्पर्धा -0.6018
-3.5737 प्राप्त -0.5985
-4.0509 वंशावली -0.5494
-3.2727 जाता -0.5985
-4.0509 फॉर्म -0.6019
-4.0509 उपकरण -0.5494
-4.0509 केंद्र -0.6020
-3.4488 भारतीय -0.6012
-4.0509 ऐक्सक्ल्यूज़िव -0.6019
-3.3519 साड़ी -0.5493
-4.0509 marketing -0.6020
-4.0509 flying -0.6020
-4.0509 octa -0.6019
-4.0509 गार्ड -0.6020
-4.0509 टाइटेनियम -0.6019
-4.0509 wristband -0.5494
-3.7498 ठीक -0.5985
-4.0509 words -0.6006
-4.0509 पेरी -0.6020
-4.0509 पढ़ा -0.6020
-4.0509 limit -0.6020
-3.2058 flip -0.6012
-4.0509 नारे -0.6020
-4.0509 तुलना -0.5998
-4.0509 सस्ती -0.5494
-3.7498 शीट्स -0.5456
-4.0509 लाओ -0.5494
-4.0509 बिहार -0.5494
-4.0509 उपयोग -0.5995
-3.7498 कॉम्बो -0.6017
-3.7498 इडली -0.6019
-4.0509 मोटर -0.6020
-3.5737 hd -0.6018
-3.7498 बराबर -0.6018
-3.7498 टैलीविज़न -0.6014
-3.7498 दूसरे -0.6015
-4.0509 foot -0.6020
-3.5737 air -0.6019
-4.0509 कार्तिकेय -0.6000
-4.0509 कार्यरत -0.5985
-4.0509 यूपीएस -0.6020
-4.0509 rainbow -0.6018
-4.0509 joke -0.6020
-3.5737 ड्राइव -0.5494
-4.0509 मिताशि -0.6019
-2.9717 तो -0.5991
-3.7498 khan -0.6020
-3.3519 न -0.6019
-4.0509 वोह -0.6020
-4.0509 pillows -0.5494
-4.0509 swallowed -0.6011
-3.7498 वारंटी -0.5987
-4.0509 चाल -0.6020
-4.0509 हैरान -0.6019
-3.7498 डैल -0.5489
-4.0509 निकटतम -0.6020
-3.7498 मामले -0.5998
-4.0509 individualistic -0.6020
-4.0509 लूट -0.6000
-4.0509 वायुपुत्राची -0.5494
-4.0509 मैंजु -0.6020
-2.7956 payment -0.5494
-3.7498 सर्दी -0.5982
-3.4488 bluetooth -0.6019
-4.0509 राजेन्द्र -0.6019
-4.0509 लिवाइस -0.6018
-3.1478 हिन्दी -0.5979
-4.0509 बीजगणित -0.6020
-4.0509 लिपस्टिक -0.6020
-3.7498 मिट्टी -0.5450
-4.0509 रंगोली -0.6020
-3.7498 रोलेक्स -0.6020
-3.7498 क्यों -0.6019
-4.0509 गेम्स -0.5494
-4.0509 आगे -0.6019
-4.0509 steroids -0.5494
-4.0509 टावर -0.6020
-3.7498 रहते -0.6017
-3.2727 बच्चे -0.5974
-4.0509 yellow -0.6020
-4.0509 microwaves -0.5494
-4.0509 पिजन -0.6020
-4.0509 एसेन्स -0.6020
-4.0509 इंडिगो -0.6020
-4.0509 exploration -0.5494
-4.0509 सुर -0.6019
-4.0509 औन -0.6020
-4.0509 ब्रा -0.5494
-4.0509 operating -0.6020
-4.0509 pardi -0.6020
-4.0509 लेहेंगा -0.5494
-3.5737 पैन -0.6019
-4.0509 quantum -0.6019
-3.7498 ओरिज्नल -0.6019
-3.2058 थे -0.5494
-4.0509 herringshaw -0.6006
-3.2727 पांच -0.6017
-3.7498 चाइनीज़ -0.6020
-4.0509 tagore -0.6020
-3.4488 लगे -0.5472
-4.0509 देवी -0.6019
-3.0966 करने -0.5934
-4.0509 set -0.6020
-3.5737 कुर्तीज -0.5456
-4.0509 रतलाम -0.6020
-3.5737 कार -0.6018
-4.0509 चलायी -0.6019
-4.0509 multimedia -0.6020
-4.0509 mechanics -0.5494
-4.0509 प्रश्नोतरी -0.6020
-4.0509 premium -0.6018
-4.0509 आए -0.6020
-4.0509 लाइन -0.5494
-4.0509 देता -0.5494
-3.7498 mahaveer -0.6018
-4.0509 सिर -0.6020
-4.0509 झंडु -0.6020
-4.0509 मैन्स -0.6019
-4.0509 जाए -0.5494
-4.0509 निष्ठा -0.5985
-4.0509 संपूर्ण -0.6020
-3.7498 फ़िलीप्स -0.5492
-4.0509 साड़ीज़ -0.5494
-3.7498 single -0.6018
-4.0509 brand -0.6019
-4.0509 रट -0.6020
-3.5737 bed -0.6018
-4.0509 bbc -0.6020
-4.0509 multificational -0.6020
-4.0509 refrigerator -0.6020
-4.0509 मुहांसों -0.5995
-4.0509 सोलर -0.6020
-3.7498 jewellers -0.5493
-4.0509 तीन -0.6020
-4.0509 आपका -0.6020
-4.0509 wealth -0.6020
-3.4488 furniture -0.5493
-3.7498 technology -0.5494
-4.0509 माइक्रोमेक्स -0.6020
-4.0509 कुकवेयर -0.6020
-4.0509 डेकोरेशन -0.5494
-4.0509 एसूस -0.6016
-3.4488 super -0.6019
-4.0509 युरेका -0.6018
-4.0509 स्किल्स -0.6020
-4.0509 चेन -0.5494
-4.0509 activities -0.5494
-3.7498 biology -0.5493
-3.5737 toys -0.5494
-4.0509 थर्मस -0.5494
-4.0509 इन्टरनेट -0.6020
-4.0509 pad -0.6020
-4.0509 साबुन -0.5494
-4.0509 मॉनिटर -0.5494
-3.5737 best -0.6012
-3.4488 reliance -0.6014
-3.7498 स्क्रैच -0.6020
-2.0918 है -0.5433
-3.5737 शर्ट्स -0.5490
-3.7498 सुंडा -0.6006
-4.0509 मुफ्ती -0.5494
-4.0509 आयुर्वेदिक -0.6020
-4.0509 सपना -0.6020
-4.0509 literature -0.6006
-3.7498 फौजदारी -0.6020
-4.0509 गए -0.6006
-4.0509 sheets -0.5494
-3.7498 book -0.5493
-4.0509 एजुकेशनल -0.6020
-3.4488 देंगे -0.5485
-4.0509 एक्स्पीरिया -0.5494
-4.0509 ocean -0.5494
-4.0509 bright -0.6020
-3.7498 रुपये -0.6020
-4.0509 बबूल -0.6020
-4.0509 xtra -0.6019
-4.0509 भाग्य -0.5985
-4.0509 अच्छी -0.6011
-4.0509 विक्टोरी -0.5494
-4.0509 बाजार -0.5494
-3.7498 इसमें -0.6018
-4.0509 विविधकलाओं -0.5995
-4.0509 children -0.6020
-3.7498 कोर -0.6018
-4.0509 एकड़ -0.6019
-3.3519 बेबी -0.5455
-4.0509 mill -0.5494
-4.0509 ऑईल -0.6020
-3.7498 ऑटो -0.6019
-4.0509 mitashi -0.6020
-4.0509 psychotherapy -0.5494
-3.7498 जुते -0.6020
-4.0509 प्रथमतः -0.6020
-4.0509 outdroo -0.6020
-4.0509 ishta -0.6020
-3.7498 asus -0.6020
-4.0509 posters -0.5494
-4.0509 सुलतानी -0.6020
-2.2800 में -0.5377
-4.0509 टच -0.6019
-4.0509 trader -0.5494
-3.7498 computers -0.5494
-4.0509 निस्कंद -0.6012
-4.0509 पंक्चर -0.5494
-3.7498 डोसा -0.6020
-4.0509 सुधा -0.6020
-4.0509 दैनिक -0.6020
-4.0509 minister -0.5494
-4.0509 कन्दावरी -0.6020
-4.0509 कैटाविल -0.5494
-4.0509 सूत -0.6019
-4.0509 मारूति -0.6020
-3.1478 data -0.6017
-3.7498 six -0.6017
-4.0509 after -0.6019
-4.0509 exams -0.5494
-4.0509 मैरून -0.6020
-4.0509 मजबूर -0.6018
-4.0509 संघ -0.5982
-3.7498 tools -0.5478
-4.0509 कागजात -0.6006
-3.5737 ब्राउन -0.6019
-4.0509 periphenals -0.5494
-4.0509 पैकिंग -0.6016
-3.7498 memory -0.6017
-3.7498 इस्त्री -0.5486
-3.7498 शिव -0.6020
-4.0509 महल -0.6020
-3.7498 tech -0.6020
-4.0509 टकाबी -0.6020
-3.7498 आधे -0.5997
-4.0509 chowky -0.6013
-4.0509 beens -0.5494
-4.0509 कामन्स -0.5982
-4.0509 सेंडविच -0.6020
-4.0509 विवो -0.6019
-4.0509 प्रोजेटर -0.5494
-4.0509 डिक्सी -0.6020
-4.0509 दीजिये -0.5494
-4.0509 रिचार्ज -0.5987
-4.0509 सुखमय -0.6019
-4.0509 खड़े -0.6020
-4.0509 मैहूला -0.6016
-3.7498 africa -0.5494
-3.3519 सोने -0.5961
-4.0509 फैमिली -0.6020
-3.7498 silk -0.6019
-3.7498 महापुराण -0.5987
-4.0509 पता -0.6020
-3.4488 पड़ता -0.5978
-4.0509 optoelectronics -0.5494
-3.7498 बिना -0.6014
-4.0509 heritage -0.5494
-4.0509 लड़कों -0.6000
-4.0509 बल -0.6008
-4.0509 जितना -0.6020
-4.0509 raj -0.6020
-4.0509 creativity -0.6020
-4.0509 अपराध -0.6020
-3.7498 उत्तीर्ण -0.5995
-4.0509 बास्केट्बॉल -0.5494
-4.0509 टीशर्ट्स -0.5494
-3.7498 वीमेन -0.5494
-4.0509 छुपाने -0.6000
-4.0509 ओटीजी -0.6020
-4.0509 गजेल -0.5494
-3.5737 कपडे -0.5493
-4.0509 सारीज़ -0.5494
-4.0509 रिमुवल -0.5494
-4.0509 kurlon -0.6020
-3.7498 pixels -0.6006
-4.0509 paint -0.6020
-3.7498 बॉक्स -0.5493
-3.7498 तुलसी -0.6020
-3.5737 फूल -0.6019
-4.0509 विठोबा -0.6020
-3.5737 आई -0.5493
-3.2727 samsung -0.6018
-4.0509 कैल्कुलेटर -0.5494
-3.7498 दादाओं -0.5982
-4.0509 ibm -0.6020
-4.0509 rulal -0.6018
-4.0509 premier -0.5494
-4.0509 समाधि -0.5985
-4.0509 डिजाइनर -0.5494
-4.0509 moto -0.6019
-3.7498 इसी -0.5959
-4.0509 ट्रिम्स -0.6018
-4.0509 भौतिकवादी -0.6020
-3.5737 दस -0.5981
-4.0509 लगी -0.5985
-4.0509 एशियन -0.6018
-4.0509 responsible -0.5494
-4.0509 नाइन -0.6020
-3.5737 पर्याय -0.6018
-3.5737 वैक्यूम -0.6019
-3.0966 मैं -0.6012
-4.0509 ओटो -0.6020
-4.0509 इंटेल -0.5494
-3.1478 india -0.5492
-4.0509 कॉलेज -0.6019
-4.0509 मालिक -0.6019
-4.0509 सैर -0.6017
-4.0509 राजकोट -0.5494
-4.0509 ऑफिसियल -0.6018
-4.0509 झूंटे -0.6020
-3.7498 चलाना -0.6019
-3.5737 हज़ार -0.6019
-4.0509 top -0.6020
-4.0509 शाओमी -0.6020
-4.0509 फलसफा -0.6020
-3.7498 हुए -0.5986
-4.0509 शेम्पू -0.5494
-3.7498 खरीद -0.6018
-4.0509 room -0.6019
-4.0509 टिफिन्स -0.5494
-4.0509 tizen -0.6020
-4.0509 हॉबीज -0.6019
-4.0509 दुनिया -0.5995
-3.5737 लैहेंगा -0.5491
-3.7498 दाग -0.5987
-4.0509 fuel -0.5494
-4.0509 jumbo -0.6020
-4.0509 बिगड़ -0.6017
-4.0509 jhao -0.6006
-3.7498 माउथ -0.6020
-4.0509 अंतिम -0.6020
-3.7498 wall -0.6020
-4.0509 differential -0.6020
-4.0509 मुख्य -0.6018
-4.0509 उफ -0.6011
-4.0509 फैक्ट्रियों -0.5998
-4.0509 डिज़ाइन -0.6020
-4.0509 rhymes -0.5494
-4.0509 footwear -0.5494
-3.4488 करता -0.5454
-4.0509 tvs -0.6020
-3.4488 aircel -0.6005
-4.0509 बैंक -0.5494
-3.7498 compartmentalized -0.5494
-4.0509 ग्रेट -0.6018
-3.5737 खाना -0.6019
-4.0509 दस्तखत -0.6019
-4.0509 zebronix -0.6019
-4.0509 कामताप्रसाद -0.6012
-4.0509 कितना -0.6020
-4.0509 केशवलाल -0.6020
-4.0509 princess -0.6020
-4.0509 विद्यार्थी -0.6020
-4.0509 day -0.5494
-4.0509 वूलन -0.6019
-3.2058 जो -0.6007
-3.2058 सूट -0.5454
-3.7498 जंबो -0.6019
-4.0509 tommy -0.6020
-4.0509 ग्लूकोस -0.6020
-4.0509 पोंछा -0.6020
-3.5737 entrance -0.5493
-4.0509 mills -0.6020
-4.0509 cleaners -0.5494
-4.0509 कहीं -0.6020
-4.0509 गूजरों -0.6007
-3.7498 खोज -0.5979
-4.0509 school -0.6019
-4.0509 इन्श्यूरैंस -0.5494
-4.0509 त्रिफला -0.6020
-4.0509 world -0.6011
-4.0509 are -0.5494
-4.0509 एसी -0.5494
-3.7498 meditation -0.6020
-4.0509 करिए -0.6020
-4.0509 कप्तान -0.5985
-3.7498 love -0.6020
-4.0509 स्लीपिंग -0.6018
-4.0509 ब -0.6020
-4.0509 हैडसैट -0.5494
-3.7498 ग्रैंड -0.6018
-3.5737 ऑफ़ -0.6019
-4.0509 प्रधान -0.6020
-3.7498 हाफ -0.6019
-4.0509 एमडीएच -0.6020
-3.7498 हल -0.5492
-4.0509 पैलेस -0.5494
-4.0509 गुरूजी -0.6012
-4.0509 सजावटी -0.6020
-4.0509 गुस्सा -0.5987
-4.0509 hypo -0.6020
-3.7498 शादी -0.5995
-4.0509 बॉन्ड्स -0.5494
-4.0509 अन्य -0.6014
-4.0509 इलेक्ट्रिक -0.6019
-4.0509 हासिल -0.6017
-3.5737 संगीत -0.5986
-3.7498 cameras -0.5478
-4.0509 संसार -0.5995
-4.0509 स्कैटबोर्ड्स -0.6020
-4.0509 मॉइस्चराइजर -0.5494
-4.0509 फासट्रैक -0.6020
-3.7498 टीशर्ट -0.5494
-4.0509 smarter -0.6020
-4.0509 fertilizing -0.5494
-4.0509 अंग्रेज़ी -0.6008
-4.0509 इन्सान -0.5494
-3.7498 इंडिया -0.5493
-4.0509 box -0.5494
-4.0509 हर -0.6020
-4.0509 उज्जैन -0.6020
-3.5737 आग -0.6019
-4.0509 child -0.6020
-4.0509 बाथरूम -0.6020
-3.4488 आज -0.6009
-4.0509 प्रश्न -0.6018
-4.0509 औरेलिया -0.6019
-4.0509 cable -0.6020
-4.0509 मजदूर -0.5987
-3.7498 हार -0.5493
-4.0509 समर्थन -0.6020
-3.7498 हार्ड -0.6019
-4.0509 ओपल -0.6020
-3.7498 कौन -0.6020
-3.7498 जाना -0.6019
-4.0509 वे -0.6014
-4.0509 प्रिंटेड -0.6019
-4.0509 gym -0.6020
-4.0509 पतसंस्था -0.6020
-3.2727 परीक्षा -0.6018
-4.0509 cross -0.6020
-4.0509 clothings -0.6020
-4.0509 प्रूफ़ -0.6020
-4.0509 मुँह -0.6020
-4.0509 अपमानजनक -0.5985
-3.4488 idea -0.6005
-4.0509 टीवीएस -0.6020
-3.7498 लगाई -0.5494
-4.0509 marshal -0.6020
-4.0509 आया -0.5494
-3.7498 offer -0.6020
-4.0509 system -0.5494
-4.0509 supply -0.6020
-4.0509 हात -0.6020
-3.7498 what -0.6017
-4.0509 दिखने -0.5982
-4.0509 windows -0.6019
-4.0509 मृत्यूंजय -0.6020
-3.3519 enterprise -0.5490
-4.0509 एम् -0.6019
-4.0509 सूप -0.6018
-3.7498 रैड -0.6020
-3.7498 decorative -0.6020
-4.0509 oyster -0.6020
-4.0509 भगवान -0.6020
-4.0509 फ्रॉग -0.5494
-4.0509 लिबर्टी -0.6018
-3.5737 inter -0.6019
-3.5737 इस्तेमाल -0.5992
-4.0509 गर्ल्ज -0.6020
-4.0509 पेंटिंग -0.6020
-4.0509 कैबिनेट -0.5494
-3.5737 inches -0.5494
-3.7498 मोज़े -0.5456
-4.0509 खड़ाऊँ -0.5494
-4.0509 mission -0.6019
-4.0509 औरेविला -0.6019
-3.3519 i -0.6019
-3.5737 दो -0.5493
-4.0509 टु -0.6020
-4.0509 fluid -0.6020
-4.0509 managing -0.6019
-3.5737 computer -0.6019
-3.7498 decoratives -0.6020
-4.0509 परफ्यूम -0.5494
-3.7498 चार -0.6020
-4.0509 टायर -0.5494
-4.0509 sympathetic -0.5494
-4.0509 aviator -0.6020
-4.0509 डे -0.6019
-4.0509 तमाम -0.6020
-4.0509 यहीं -0.6019
-4.0509 वीवो -0.6020
-4.0509 गंभीरता -0.6008
-3.7498 शायद -0.6018
-4.0509 रचनाओं -0.5998
-4.0509 दार -0.6019
-3.7498 प्रोडक्ट्स -0.5494
-4.0509 गोल्फ -0.6020
-4.0509 निकल -0.6014
-4.0509 curtains -0.5494
-4.0509 सीखने -0.6020
-3.7498 कला -0.5997
-4.0509 thinking -0.5494
-4.0509 services -0.5494
-4.0509 बिल्लियां -0.6007
-4.0509 dish -0.6018
-3.4488 आप -0.6018
-4.0509 मुर्दाबाद -0.5982
-4.0509 tring -0.5494
-4.0509 was -0.6014
-3.7498 शुद्ध -0.6018
-4.0509 चुराने -0.6020
-0.9423 <s> -0.5123
-4.0509 कई -0.6020
-3.7498 rajiv -0.6020
-4.0509 सुजोक -0.6020
-3.7498 फ्रॉक -0.5492
-4.0509 phrases -0.5494
-4.0509 चांदी -0.6018
-4.0509 राष्ट्राध्यक्ष -0.6018
-4.0509 थर्टीन -0.6020
-4.0509 ऐसेसीरीज़ -0.5494
-4.0509 objective -0.6018
-4.0509 लेलैंड -0.5494
-4.0509 insurance -0.5494
-4.0509 जीवित -0.6019
-4.0509 analysis -0.6006
-4.0509 पेश -0.6018
-4.0509 रसोइ -0.6018
-4.0509 झीओमी -0.6020
-4.0509 apprenterize -0.5494
-4.0509 चंद -0.6020
-3.5737 पूरी -0.6019
-3.5737 फल -0.5989
-4.0509 लिक्विड -0.6020
-4.0509 dreams -0.6012
-4.0509 कलक्टरसाहब -0.6012
-4.0509 जिंदाबाद -0.6020
-4.0509 intervention -0.5494
-4.0509 हौंडा -0.5494
-4.0509 पंचारिष्ट -0.5987
-4.0509 membership -0.5494
-4.0509 गाएँ -0.5494
-3.5737 enterprises -0.5491
-4.0509 मेजर -0.6020
-4.0509 रिमोट -0.6020
-2.9717 लैपटॉप -0.5451
-4.0509 उठा -0.6019
-4.0509 सामिग्री -0.5494
-3.7498 हमेशा -0.5980
-4.0509 प्रीमियम -0.6018
-4.0509 mughal -0.6020
-4.0509 picture -0.6019
-4.0509 बारिश -0.5998
-4.0509 हेलमेट -0.6019
-4.0509 सोसाइटी -0.5998
-4.0509 आक्रमण -0.6019
-4.0509 इंडिको -0.6020
-4.0509 फैंगशुई -0.6020
-3.7498 washing -0.6020
-3.5737 guide -0.5489
-4.0509 शेरवानी -0.6018
-3.7498 बुक -0.5494
-3.7498 जमाने -0.6008
-3.7498 technologies -0.5494
-4.0509 equations -0.5494
-4.0509 एक्सएल -0.5494
-4.0509 चरबी -0.6020
-4.0509 स्वान -0.6012
-4.0509 बालों -0.6007
-4.0509 म्यूजिक -0.6020
-4.0509 टैटू -0.6020
-3.3519 उसकी -0.6019
-4.0509 जुलाहों -0.5998
-3.7498 bottles -0.5494
-4.0509 मंगलवार -0.6019
-4.0509 जासूसी -0.6020
-4.0509 राजेश्वर -0.6020
-4.0509 अंग -0.5982
-4.0509 wrench -0.6019
-4.0509 victor -0.6020
-4.0509 चिल्ड्रन -0.5494
-3.4488 कुकर -0.5494
-4.0509 principle -0.6012
-4.0509 band -0.6020
-4.0509 practice -0.6019
-4.0509 ब्लड -0.6020
-3.7498 पालना -0.5494
-4.0509 load -0.6020
-4.0509 read -0.6020
-3.5737 अमेरिकन -0.6019
-3.3519 अंग्रेजी -0.6018
-4.0509 अख़बारों -0.5998
-4.0509 मैट -0.6020
-4.0509 should -0.6020
-4.0509 काश्तकारी -0.6020
-4.0509 रूप -0.6020
-4.0509 स्टैच्यू -0.5494
-4.0509 लावा -0.6020
-4.0509 keith -0.6020
-4.0509 अपर -0.6019
-4.0509 मुकाम -0.6017
-4.0509 तैयारी -0.6020
-4.0509 uncostitutionally -0.5494
-3.5737 from -0.6009
-4.0509 word -0.6020
-4.0509 jai -0.6020
-4.0509 सोलंकी -0.6020
-3.5737 दाम -0.6018
-2.8204 a -0.6000
-4.0509 newyork -0.6020
-3.7498 डायनामो -0.5492
-4.0509 स्टिच्ड -0.6018
-3.7498 बाद -0.6012
-4.0509 मफलर -0.5494
-4.0509 साहनी -0.5494
-3.5737 सकता -0.5985
-4.0509 फ्लिप -0.6020
-4.0509 सीखें -0.5494
-4.0509 मनोरंजन -0.6016
-3.7498 silver -0.6020
-3.7498 personal -0.6019
-4.0509 नयी -0.6020
-4.0509 powerful -0.6020
-4.0509 हैवी -0.6020
-4.0509 धुप -0.5982
-3.7498 टोटल -0.6019
-4.0509 वगैरह -0.5494
-4.0509 पुरूष -0.6020
-3.7498 सप्लाई -0.6020
-3.5737 designer -0.5493
-4.0509 education -0.6020
-4.0509 अठासी -0.5494
-4.0509 धोती -0.5494
-3.7498 companies -0.6012
-4.0509 घड़ी -0.5494
-4.0509 इटालियन -0.6020
-3.0509 बहुत -0.6013
-4.0509 स्टैप -0.6019
-4.0509 दही -0.6020
-4.0509 अग्रवाल -0.5494
-4.0509 दुखी -0.5985
-3.7498 बीमार -0.5999
-4.0509 investment -0.6020
-4.0509 जुर्राब -0.5987
-4.0509 निकोबार -0.6020
-4.0509 ऑडीयो -0.6020
-4.0509 iit -0.6020
-3.3519 studies -0.5490
-4.0509 crime -0.6020
-4.0509 वेस्टर्न -0.6020
-3.7498 रामायण -0.5987
-3.7498 स्पार्क्स -0.6020
-4.0509 fit -0.6020
-4.0509 मोटापा -0.6018
-3.7498 baby -0.6018
-4.0509 शिवाजी -0.6020
-3.7498 डायना -0.5982
-4.0509 lamps -0.5494
-4.0509 एट -0.6020
-2.4827 and -0.5991
-4.0509 छत -0.5982
-4.0509 स्प्लिट -0.6020
-4.0509 बताना -0.5494
-3.5737 किट -0.5456
-4.0509 प्राइस -0.6018
-4.0509 real -0.6020
-4.0509 रिकव -0.6019
-3.7498 इसका -0.6019
-3.5737 size -0.6016
-4.0509 सौन्दर्यशास्त्र -0.6020
-4.0509 arihant -0.6019
-4.0509 फुटवियर -0.5494
-3.5737 गिटार -0.5494
-4.0509 डिवाइन -0.6020
-4.0509 फ्लॉपी -0.6020
-3.7498 हुवर -0.6012
-4.0509 explosive -0.6020
-4.0509 जीबी -0.6019
-4.0509 धीमे -0.6020
-4.0509 फुग्गे -0.5987
-4.0509 forty -0.6020
-3.7498 इन्डोवैस्टर्न -0.6020
-3.7498 न्यू -0.6020
-3.2727 हम -0.5981
-3.5737 शूज़ -0.5494
-3.1478 फॉर -0.6017
-3.2058 tata -0.6018
-3.7498 रिमुवर्स -0.6019
-3.7498 आसपास -0.6019
-4.0509 कृपा -0.6020
-4.0509 पेमेन्ट -0.5494
-3.5737 रेलवे -0.6019
-4.0509 gopal -0.6020
-3.7498 साऊथ -0.6019
-4.0509 बेगम -0.6020
-3.7498 डिज़ाइनर -0.6019
-4.0509 कलर -0.5494
-4.0509 वैशाली -0.6020
-3.7498 पार्टी -0.6006
-4.0509 थोड़ा -0.6017
-4.0509 मचा -0.6019
-4.0509 पैट्रॉल -0.6020
-4.0509 केवल -0.6020
-4.0509 exchange -0.5494
-4.0509 इन्टरेज़ -0.6020
-3.7498 टैक्सी -0.6007
-4.0509 पकाने -0.5982
-4.0509 सन -0.6020
-3.7498 ग्रामर -0.5494
-4.0509 आकाश -0.6020
-4.0509 टिपटॉप -0.5494
-4.0509 मार्गदर्शक -0.5494
-3.7498 soil -0.6020
-4.0509 busy -0.6017
-4.0509 अध्यक्ष -0.5982
-4.0509 अंकगणित -0.6019
-3.5737 सोनी -0.5493
-4.0509 लट्ठम -0.6020
-4.0509 सॉफ्टवेयर -0.6010
-4.0509 mblaze -0.5494
-3.5737 हमारा -0.6016
-3.7498 above -0.5494
-4.0509 वोल्टेज -0.6020
-4.0509 धौली -0.6020
-4.0509 philosophy -0.6020
-3.7498 उदाहरण -0.5982
-3.3519 हुआ -0.5454
-4.0509 बनाई -0.5985
-4.0509 आइपैड -0.5494
-4.0509 रहो -0.6020
-4.0509 bring -0.6020
-3.5737 घागरा -0.5492
-4.0509 तेईस -0.6020
-4.0509 cabinets -0.5494
-3.7498 south -0.6020
-4.0509 cookbook -0.5494
-3.5737 दूर -0.5982
-4.0509 ऊँट -0.5995
-4.0509 गुलामगिरी -0.5494
-4.0509 powereye -0.6019
-4.0509 तुम्हारा -0.6018
-4.0509 जून -0.5494
-4.0509 वोल्टास -0.6020
-2.9717 लोगों -0.5922
-4.0509 सबकुछ -0.6020
-4.0509 धनुआ -0.6020
-4.0509 हैंडबैग -0.6020
-4.0509 दिग्विजय -0.6020
-4.0509 shreenathji -0.6018
-4.0509 kreetions -0.5494
-3.7498 लेदर -0.6017
-3.7498 लैक्मे -0.6020
-4.0509 tipu -0.6020
-3.7498 मना -0.5976
-4.0509 crown -0.6020
-4.0509 police -0.6020
-4.0509 ordinary -0.6020
-4.0509 everlasting -0.6020
-4.0509 ट्रैकसूट -0.6020
-3.7498 आदर -0.6017
-4.0509 मिला -0.6020
-4.0509 बवाल -0.6020
-4.0509 ज़िन्दगी -0.6000
-2.5068 को -0.5971
-4.0509 नेगेटिव -0.6008
-4.0509 स्कैनर -0.5494
-4.0509 coolers -0.5494
-4.0509 checker -0.6020
-4.0509 खिलता -0.6019
-4.0509 पावर -0.6020
-4.0509 इंग्लैंड -0.5494
-3.7498 गीत -0.6020
-4.0509 ट्राम -0.6020
-4.0509 बॉश -0.6020
-4.0509 center -0.6018
-3.4488 फिटनेस -0.5493
-4.0509 रिपेलैल्ट -0.5494
-3.1478 काम -0.6012
-4.0509 straight -0.6020
-3.7498 dual -0.6018
-4.0509 viz -0.6020
-4.0509 एडिशन -0.5494
-4.0509 design -0.6020
-4.0509 thanked -0.6020
-3.5737 हों -0.5456
-4.0509 govind -0.6020
-4.0509 अप्रैल -0.6020
-4.0509 लिंक -0.6020
-4.0509 वुल्यैन -0.6019
-3.4488 आटा -0.6019
-4.0509 पाकिस्तान -0.6000
-3.2058 तब -0.6010
-4.0509 पोषण -0.6019
-3.4488 self -0.6019
-4.0509 भेज -0.6019
-4.0509 जींस -0.5494
-4.0509 skateboards -0.6020
-4.0509 पीना -0.5494
-4.0509 जाऊंगा -0.5494
-3.4488 थी -0.5491
-4.0509 गुल -0.6020
-4.0509 पर्दे -0.5494
-4.0509 milton -0.6020
-4.0509 अधिनियम -0.5494
-4.0509 मैसूर -0.6020
-4.0509 धातु -0.6020
-3.7498 gmat -0.5493
-4.0509 as -0.6014
-4.0509 exports -0.6020
-4.0509 jewelry -0.5494
-4.0509 कुर्सियों -0.6010
-4.0509 resourcefulness -0.5494
-4.0509 उजागर -0.6018
-4.0509 ऐंड -0.6020
-3.7498 बोलचाल -0.5995
-4.0509 poetry -0.6012
-3.7498 we -0.6020
-3.7498 creation -0.6019
-4.0509 appliance -0.5494
-4.0509 आयोजन -0.5995
-3.7498 कहते -0.6006
-4.0509 commercelezization -0.5494
-4.0509 तीव्र -0.6014
-4.0509 सिंथेटिक -0.6020
-4.0509 कावासाकी -0.6020
-4.0509 पोर्टोनिक्स -0.6020
-4.0509 build -0.6020
-4.0509 वाचेज़ -0.5494
-4.0509 georgette -0.6020
-4.0509 about -0.6020
-4.0509 प्रॉमिज़ -0.5494
-4.0509 कभी -0.6020
-4.0509 बुरे -0.6000
-3.7498 ganesh -0.6020
-4.0509 ओल्ड -0.6020
-4.0509 दफनाया -0.6017
-4.0509 सम्पुर्ण -0.6020
-4.0509 डॉयर -0.5494
-4.0509 exam -0.6019
-3.7498 प्रति -0.6016
-3.7498 केबल -0.5491
-4.0509 जहाज़ -0.5998
-4.0509 डॉक्टरों -0.5998
-4.0509 असुर -0.6020
-3.7498 छीलने -0.5982
-4.0509 housekeeping -0.6020
-4.0509 craaid -0.6013
-3.2058 तक -0.5467
-4.0509 अक्ल -0.6020
-3.7498 vision -0.6012
-4.0509 जैमस्टोन -0.5494
-4.0509 use -0.5494
-4.0509 पिछले -0.6020
-4.0509 सफाई -0.6020
-4.0509 songs -0.6012
-4.0509 पढ़ाते -0.6019
-4.0509 खोजते -0.6006
-4.0509 shark -0.6020
-4.0509 शास्त्र -0.6007
-4.0509 फ्लीट -0.6018
-3.7498 network -0.5493
-4.0509 ss -0.6020
-4.0509 शेरो -0.6020
-4.0509 आइलैंड -0.5494
-4.0509 मटिया -0.6020
-4.0509 देगा -0.5494
-4.0509 purifiers -0.5494
-3.7498 utronix -0.6019
-4.0509 amritsar -0.6020
-4.0509 बाबा -0.6020
-4.0509 सप्लीमेंट -0.5494
-4.0509 यूरोपीय -0.6019
-4.0509 टूथपेस्ट -0.5987
-4.0509 रामचन्द्र -0.6020
-4.0509 सूचना -0.6020
-3.7498 किसान -0.5999
-3.7498 बड़े -0.6016
-4.0509 ब्याह -0.6020
-4.0509 vidyapati -0.5494
-3.5737 पहले -0.6015
-4.0509 bindass -0.6020
-4.0509 एम्ब्रायडरी -0.6020
-3.7498 भागवत -0.6005
-4.0509 व्हाइलपुल -0.6020
-4.0509 वॉलीबाल -0.6000
-3.4488 galaxy -0.6018
-4.0509 साबित -0.6014
-3.7498 बैंजो -0.6019
-4.0509 seven -0.5494
-3.1478 जीन्स -0.5493
-3.4488 हाथ -0.5997
-4.0509 encourage -0.6017
-4.0509 लुक -0.6020
-4.0509 क्लास -0.5982
-4.0509 allerjgenics -0.5494
-4.0509 सप्टेम्बर -0.6020
-3.7498 धोने -0.5995
-3.0509 card -0.5480
-4.0509 white -0.5494
-4.0509 dont -0.6020
-3.7498 वालों -0.5956
-4.0509 कैसिओ -0.6020
-4.0509 किलिनर -0.6020
-4.0509 एक्ज़िक्यूट -0.5494
-4.0509 कपड़ों -0.5982
-3.7498 upto -0.6014
-4.0509 दौड़ा -0.6020
-4.0509 वरन -0.6020
-4.0509 आजकल -0.6020
-4.0509 priolty -0.6020
-4.0509 फाइबर -0.6020
-4.0509 लाख -0.6020
-4.0509 न्यूज़ -0.6020
-3.7498 संहिता -0.5494
-4.0509 stitch -0.5494
-4.0509 multi -0.6019
-4.0509 अभ्यास -0.6017
-4.0509 आधार -0.6018
-4.0509 पैनासोनिक -0.6012
-4.0509 खर्च -0.6020
-4.0509 आशा -0.6018
-4.0509 ऍड्वेंचर -0.6019
-4.0509 शिकंजी -0.5494
-4.0509 स्लिपर -0.5494
-4.0509 अशोक -0.6020
-3.4488 टीवी -0.5492
-4.0509 बैड -0.6020
-4.0509 मेलुहाचे -0.6020
-4.0509 बुद्धिमत्ता -0.5987
-4.0509 बलाऊज -0.5494
-3.7498 want -0.5494
-4.0509 sting -0.6020
-4.0509 लक्ष्य -0.6020
-4.0509 बी -0.6020
-4.0509 prachi -0.6020
-4.0509 traders -0.6020
-4.0509 एयरलाइनर -0.5494
-4.0509 onida -0.6020
-4.0509 कॉम्प्लान -0.5494
-4.0509 can -0.6020
-4.0509 friend -0.5494
-3.7498 देश -0.5969
-4.0509 office -0.5494
-4.0509 पशुओं -0.6008
-3.7498 wear -0.5493
-4.0509 मसाले -0.5494
-3.7498 सैट -0.6020
-4.0509 कलफ -0.6020
-4.0509 quantitavely -0.5494
-4.0509 जोवेन -0.6019
-4.0509 मौसम -0.6020
-4.0509 साइकिल -0.5494
-3.7498 इंटेक्स -0.5484
-4.0509 कपड़ा -0.6020
-3.7498 इसलिए -0.6003
-4.0509 mastering -0.6020
-4.0509 सप्लमेंट -0.5494
-4.0509 स्क्रीन -0.6019
-4.0509 vevacity -0.6018
-4.0509 might -0.6020
-3.7498 आता -0.5978
-4.0509 स्वयं -0.6020
-4.0509 development -0.5494
-4.0509 poems -0.6019
-3.7498 मल्होत्रा -0.6012
-4.0509 सस्ते -0.6019
-4.0509 him -0.6018
-3.7498 सबसे -0.6019
-4.0509 lek -0.5494
-4.0509 एक्सटेंडेड -0.6020
-4.0509 कमीज़ -0.6010
-4.0509 deal -0.5494
-4.0509 रिबॉक -0.6019
-3.7498 सफल -0.6019
-3.7498 परंपरा -0.5987
-4.0509 manjari -0.6020
-4.0509 साहब -0.6017
-4.0509 स्पीकर -0.5494
-4.0509 एफ़ -0.6020
-4.0509 max -0.5494
-3.2727 अ -0.6012
-4.0509 बिंदु -0.5985
-4.0509 टुकड़े -0.6019
-4.0509 बृहद -0.6020
-4.0509 समाचार -0.6020
-4.0509 टूरिस्ट्स -0.5494
-3.7498 साहित्य -0.6020
-4.0509 ज़्यादातर -0.6020
-4.0509 ली -0.6018
-4.0509 औषध -0.6020
-3.3519 कपड़े -0.5464
-4.0509 तांत्रिक -0.6020
-4.0509 देखने -0.5982
-3.7498 secondary -0.6020
-4.0509 मछली -0.6020
-4.0509 official -0.6019
-4.0509 irons -0.5494
-3.7498 सीमित -0.6013
-3.5737 पॉवर -0.6019
-4.0509 चटनी -0.6020
-4.0509 चरण -0.5998
-3.2058 गोल्ड -0.5490
-4.0509 यूनो -0.5494
-4.0509 compatible -0.5494
-3.2058 बैग -0.5493
-3.2058 कैमरा -0.5491
-3.7498 warrior -0.6020
-3.4488 जाते -0.5477
-3.4488 वन -0.5493
-3.5737 books -0.5494
-4.0509 मिली -0.6020
-4.0509 दिन -0.6020
-4.0509 त्रिपाठी -0.6020
-3.0966 you -0.5483
-4.0509 मैमरी -0.6019
-4.0509 नोइडा -0.5998
-4.0509 पाताल -0.6010
-4.0509 headphone -0.5494
-4.0509 शेल्व्स -0.6018
-4.0509 science -0.5494
-3.3519 जब -0.6009
-2.6037 पर -0.5941
-2.6195 लिए -0.5422
-4.0509 अनायास -0.6020
-4.0509 hawkins -0.6020
-4.0509 यंत -0.5494
-4.0509 academy -0.6019
-4.0509 गुढ़मुक्खा -0.6020
-4.0509 रक्त -0.6020
-4.0509 फ्लोर -0.6020
-4.0509 भेजी -0.6020
-3.5737 sets -0.5494
-3.3519 वहां -0.6005
-4.0509 गेनर -0.6020
-3.4488 बॉडी -0.6016
-4.0509 fall -0.6012
-4.0509 भरपूर -0.6020
-3.7498 has -0.6014
-4.0509 बूटेदार -0.6019
-3.7498 लुमिया -0.6012
-4.0509 दर्शन -0.5982
-4.0509 नीरज -0.6012
-4.0509 वहीं -0.6019
-4.0509 मरो -0.6020
-3.5737 chinese -0.6019
-3.7498 handi -0.6018
-4.0509 पेट -0.5995
-4.0509 competitive -0.6020
-4.0509 ponds -0.6018
-4.0509 रिबोक -0.5494
-4.0509 personification -0.6020
-4.0509 बोर्ड -0.6020
-4.0509 बीन -0.6019
-3.7498 इन्वर्टर -0.6018
-4.0509 स्टेशन -0.6020
-4.0509 throws -0.6020
-3.2727 accessories -0.5493
-4.0509 खयाल -0.6008
-4.0509 कपड़ा -0.5494
-4.0509 पेस्ट -0.6020
-4.0509 रूपल्ली -0.6000
-4.0509 करा -0.6020
-3.7498 case -0.5490
-3.5737 फोन्स -0.5494
-3.5737 ias -0.5492
-4.0509 अन्ताक्षरी -0.5494
-4.0509 वीकली -0.6020
-3.2058 किया -0.5976
-4.0509 कृष्णा -0.6020
-4.0509 झुमके -0.5494
-4.0509 killing -0.6020
-3.0095 phones -0.5491
-3.5737 covers -0.5494
-4.0509 दिखाई -0.6011
-4.0509 दफह -0.5995
-3.7498 pratiyogita -0.6020
-4.0509 काम्याख -0.6000
-3.7498 उनका -0.6020
-4.0509 लैंप -0.5494
-4.0509 हटाने -0.6020
-4.0509 टेक्नोलॉजी -0.6020
-4.0509 बयार -0.6020
-4.0509 पत्नी -0.5995
-4.0509 पक्षियों -0.5982
-3.7498 नदी -0.6010
-4.0509 लघुता -0.6000
-4.0509 थिएटर -0.5987
-4.0509 काजल -0.6020
-3.5737 श्मशान -0.5997
-4.0509 नकली -0.6020
-4.0509 कड़ी -0.5998
-3.7498 हूं -0.5494
-3.7498 स्पीकर्स -0.6018
-3.7498 have -0.6020
-4.0509 कमज़ोर -0.5985
-4.0509 dependent -0.5494
-3.7498 view -0.5490
-4.0509 celluarly -0.5494
-3.7498 उसका -0.6019
-3.7498 वुडरफ -0.6020
-3.4488 ज़मीन -0.6010
-3.3519 three -0.6011
-4.0509 इलेक्ट्रिप -0.6020
-4.0509 डमरू -0.6020
-4.0509 उल्लू -0.6007
-4.0509 mart -0.6018
-4.0509 कंप्यूटर -0.5494
-3.4488 केयर -0.5493
-4.0509 चैरी -0.6020
-4.0509 फोकस -0.5494
-4.0509 यशस्वी -0.6020
-4.0509 पीअर्स -0.6020
-4.0509 audio -0.6006
-4.0509 प्रॉपर्टीज़ -0.5494
-4.0509 संभावना -0.6020
-4.0509 चाहूँगा -0.5494
-4.0509 नौकरी -0.6019
-2.3349 का -0.5915
-3.7498 sareez -0.5493
-3.7498 फीचर्स -0.5494
-4.0509 imaging -0.6011
-3.2727 गये -0.5489
-4.0509 ग़ज़ल -0.6020
-4.0509 उड़ाने -0.6007
-3.2727 mobile -0.5477
-3.3519 shree -0.6019
-4.0509 प्रेओशा -0.6020
-4.0509 bedding -0.5494
-3.7498 वॉशिंग -0.6016
-4.0509 थामकर -0.6020
-4.0509 tablet -0.6020
-4.0509 वूड -0.5494
-3.7498 पेंडुलम -0.5494
-4.0509 went -0.6013
-4.0509 register -0.6014
-4.0509 principles -0.6012
-4.0509 praseen -0.6020
-3.7498 होती -0.5985
-4.0509 रानी -0.6020
-3.7498 ज़रा -0.6018
-4.0509 तैयार -0.6019
-4.0509 शौकिया -0.6019
-4.0509 चुप -0.6020
-4.0509 brokeraenges -0.5494
-3.5737 चार्जर -0.5493
-4.0509 access -0.6013
-4.0509 वॉचेज़ -0.5987
-4.0509 फाड़ -0.6019
-3.7498 item -0.6020
-4.0509 प्रशनसंच -0.5494
-3.1478 अपनी -0.6016
-4.0509 भौमवार -0.6014
-3.5737 हेयर -0.6019
-4.0509 गुहा -0.5494
-4.0509 पैम्पर्ज़ -0.6020
-4.0509 जिंस -0.5494
-4.0509 intelligence -0.5494
-4.0509 बेस्ट -0.6020
-4.0509 घरों -0.5998
-4.0509 centimeter -0.6019
-4.0509 pardhi -0.6020
-4.0509 आउट्डोर -0.5987
-4.0509 sixty -0.6018
-2.8204 भी -0.5982
-4.0509 अलवर -0.6020
-4.0509 महसूल -0.6020
-3.7498 ऐनक -0.6019
-4.0509 mister -0.6020
-3.7498 कमीज -0.6000
-4.0509 आपको -0.6019
-3.4488 रहे -0.5467
-4.0509 आत्मा -0.5998
-4.0509 विचारक -0.6020
-2.7498 to -0.6001
-3.4488 one -0.6007
-4.0509 mathematics -0.6006
-4.0509 city -0.6020
-3.7498 हाथी -0.6020
-4.0509 vacuum -0.6020
-4.0509 घंटी -0.6014
-4.0509 सम्मेलन -0.5494
-3.4488 रहा -0.5978
-4.0509 backpacks -0.5494
-4.0509 गुज़ारा -0.5494
-3.5737 महाभारत -0.5493
-3.5737 फैंसी -0.6019
-3.7498 positive -0.6020
-3.7498 वाटरप्रूफ -0.6020
-4.0509 डुअल -0.6020
-4.0509 click -0.6018
-4.0509 transferable -0.5494
-4.0509 आनंदित -0.6020
-4.0509 think -0.6017
-3.7498 शेर -0.6020
-3.3519 साफ़ -0.6014
-4.0509 सिंह -0.5494
-4.0509 थियेटर -0.5494
-4.0509 होने -0.5982
-4.0509 perfect -0.6018
-4.0509 हॉर्लिक्स -0.6020
-4.0509 नाश्ता -0.6020
-4.0509 कर्टेन -0.6020
-4.0509 devoltion -0.5494
-3.7498 बाप -0.6019
-3.5737 लीड -0.5488
-4.0509 englishman -0.5494
-4.0509 धरी -0.5985
-4.0509 unicon -0.6020
-4.0509 pater -0.6020
-3.7498 चम्पकलाल -0.6012
-4.0509 थीं -0.5494
-4.0509 गुजारी -0.5494
-4.0509 खाक -0.6018
-4.0509 बंगाली -0.6020
-4.0509 जोलो -0.6020
-4.0509 चाँद -0.6020
-4.0509 मटिरीयल -0.5494
-4.0509 इलेक्टॉनिक्स -0.5494
-3.5737 full -0.6019
-4.0509 here -0.6018
-4.0509 shopping -0.6018
-4.0509 ब्लू -0.6019
-4.0509 patterns -0.5494
-4.0509 बौज़ -0.6019
-4.0509 पेंट -0.6020
-3.5737 पास -0.6019
-4.0509 कितनी -0.6019
-3.4488 शब्दावली -0.5974
-4.0509 पाटील -0.5995
-4.0509 thesaurus -0.6012
-4.0509 कृष्ण -0.6019
-4.0509 language -0.5494
-4.0509 बहाना -0.6020
-4.0509 technic -0.6020
-3.7498 good -0.6019
-4.0509 जानकारी -0.6011
-4.0509 जाकेट -0.5494
-4.0509 trans -0.6020
-4.0509 changer -0.6020
-4.0509 quad -0.6019
-3.7498 देसाई -0.6020
-4.0509 फोग्ग -0.6020
-3.0966 करना -0.5445
-3.1478 ब्लैक -0.6017
-4.0509 रूई -0.6000
-3.7498 नेमराज -0.6020
-4.0509 सर्वस्व -0.6014
-3.7498 लेडीज़ -0.5493
-4.0509 फाउंटेन -0.6020
-4.0509 स्वर -0.6020
-3.2058 rupees -0.5490
-4.0509 बनवा -0.6018
-4.0509 न्यूट्रियंस -0.5494
-4.0509 टॉडलर -0.6020
-4.0509 वेशभूषा -0.6020
-4.0509 महफ़िलों -0.5998
-4.0509 दुर्गेश -0.6020
-4.0509 skate -0.6020
-4.0509 लेडिज -0.6020
-4.0509 अनिकेत -0.5995
-4.0509 loyal -0.6019
-4.0509 दशकों -0.6018
-4.0509 ड्रिल -0.6020
-4.0509 relationship -0.5494
-3.7498 फेस -0.6016
-3.7498 टैलीफोन -0.6019
-3.3519 eight -0.6004
-4.0509 navel -0.6020
-3.0966 साथ -0.6011
-4.0509 फिक्र -0.6011
-3.7498 मसाला -0.6020
-3.7498 small -0.5494
-4.0509 heaters -0.5494
-3.7498 करेंगे -0.5494
-3.1478 with -0.6009
-4.0509 पाक -0.5494
-3.5737 जूता -0.5456
-4.0509 मिलेगा -0.5987
-4.0509 आभूषण -0.5494
-3.7498 fully -0.6020
-3.7498 जैकेट्स -0.5492
-4.0509 फिल्टर -0.5494
-4.0509 हुई -0.6018
-4.0509 so -0.6017
-4.0509 इम्ब्रेस -0.6019
-4.0509 tribal -0.6019
-4.0509 अर्बन -0.6020
-4.0509 device -0.5494
-4.0509 review -0.5494
-4.0509 अब -0.6020
-4.0509 joy -0.6020
-4.0509 energizing -0.6020
-4.0509 लकड़बग्घा -0.6019
-4.0509 इन्क्रिप्मेंट्स -0.5494
-4.0509 बूढ़े -0.6007
-4.0509 सिखाई -0.5987
-4.0509 फैब्रुअरी -0.6020
-3.4488 स्पोर्ट -0.5489
-4.0509 च्यवनप्राश -0.5494
-4.0509 बैक्टेक्स -0.6020
-4.0509 कॉस्ट -0.6020
-4.0509 यूएसबी -0.6019
-3.7498 s -0.5493
-4.0509 सांख्यिकी -0.6010
-4.0509 इमली -0.5995
-3.7498 माइक्रो -0.6019
-4.0509 श्लोक -0.5987
-3.7498 कोलगेट -0.6020
-4.0509 rests -0.5494
-4.0509 ब्लूटुथ -0.6020
-3.7498 चीता -0.6020
-4.0509 रबर -0.6020
-4.0509 celebration -0.6020
-4.0509 द -0.6020
-4.0509 मिक्स -0.5494
-4.0509 jee -0.6020
-3.7498 leather -0.6020
-4.0509 कार्टरिजेज़ -0.6018
-4.0509 पेटी -0.6020
-4.0509 पाकिट -0.5494
-4.0509 सकी -0.5494
-4.0509 टैंट -0.5494
-4.0509 awareness -0.5494
-4.0509 human -0.6020
-4.0509 होल्डर -0.5494
-3.7498 मैंने -0.6014
-4.0509 प्रेसीडेंट -0.5494
-3.3519 बढ़ -0.6012
-4.0509 फॅशन -0.6020
-4.0509 रे -0.6020
-3.2727 indian -0.6017
-3.7498 यहां -0.6018
-4.0509 इज़ -0.6018
-4.0509 musicologist -0.5494
-3.7498 प्रोसेसर -0.5494
-3.3519 airtel -0.6005
-4.0509 संरचना -0.6020
-3.7498 लेना -0.5493
-3.7498 बादाम -0.5982
-3.7498 नो -0.6020
-4.0509 प्रिंटर्स -0.5494
-4.0509 desks -0.5494
-3.7498 ब्रदर्स -0.5493
-4.0509 mens -0.6020
-4.0509 index -0.6020
-4.0509 परिचित -0.6019
-4.0509 लखानी -0.6020
-4.0509 विदेशी -0.6020
-4.0509 current -0.6020
-4.0509 एनसीआरटी -0.6020
-3.7498 पूरा -0.6020
-3.7498 auto -0.6018
-4.0509 like -0.6020
-4.0509 मेहँदी -0.6000
-4.0509 ओपेल -0.5494
-4.0509 ugc -0.6020
-4.0509 writing -0.5494
-4.0509 कैश -0.6020
-4.0509 चुनाव -0.6018
-4.0509 डिवाइस -0.5494
-4.0509 मुश्किलों -0.6007
-3.7498 प्रदर्शित -0.6020
-4.0509 प्रोत्साहित -0.6019
-4.0509 चंदानी -0.6020
-4.0509 मोटोरोला -0.6020
-3.7498 law -0.5485
-3.7498 माइक्रोमैक्स -0.6015
-4.0509 पद -0.6019
-3.7498 प्रयोगों -0.6019
-4.0509 माधव -0.6020
-4.0509 कायम -0.6020
-4.0509 इनरोड -0.5494
-4.0509 देखनेवाले -0.6020
-3.7498 समय -0.6011
-4.0509 roy -0.6020
-4.0509 डीवीडी -0.5494
-3.7498 cow -0.6020
-3.5737 screen -0.6019
-3.7498 दे -0.6019
-4.0509 chemicals -0.5494
-4.0509 wax -0.6020
-4.0509 किचन -0.6020
-3.7498 मैगापिक्सल -0.5493
-4.0509 nice -0.6020
-3.5737 all -0.6016
-4.0509 eighty -0.6020
-4.0509 bideo -0.5494
-4.0509 half -0.6020
-4.0509 रखकर -0.5494
-4.0509 पैनड्राईव -0.5494
-4.0509 caping -0.6020
-4.0509 बैल -0.6020
-4.0509 ऐसी -0.6020
-4.0509 आपने -0.6019
-4.0509 जामै -0.6020
-4.0509 वर्मा -0.6012
-3.7498 मैग्ना -0.6019
-4.0509 एलईडी -0.6019
-3.7498 डिस्क -0.5494
-3.5737 साइज़ -0.6018
-3.7498 वर्ष -0.6019
-4.0509 निराला -0.5494
-4.0509 शूस -0.5494
-3.4488 वॉट -0.5494
-4.0509 टूरिस्टर -0.5494
-4.0509 cisco -0.6019
-3.7498 dolls -0.5494
-2.7956 लोग -0.5476
-3.7498 scooters -0.5494
-4.0509 बैठा -0.6020
-4.0509 आफ्टर -0.6020
-4.0509 एक्सर्साइज -0.5494
-3.7498 containers -0.6006
-4.0509 पीटर -0.6020
-4.0509 मुक्तेश्वर -0.6012
-4.0509 रूट -0.6020
-4.0509 बाहर -0.6020
-4.0509 यूज़ -0.6018
-4.0509 मुबारक -0.6020
-4.0509 प्लीज -0.6020
-4.0509 पारंगत -0.6019
-4.0509 फेंगशुई -0.6020
-3.2727 creations -0.5493
-4.0509 जोड़ -0.6020
-4.0509 छह -0.6020
-4.0509 शीट -0.5494
-4.0509 जाय -0.5494
-3.3519 कोई -0.6018
-4.0509 gre -0.6020
-3.2727 इस -0.5997
-3.5737 storage -0.5493
-4.0509 examination -0.5494
-4.0509 जनता -0.6007
-4.0509 university -0.5494
-4.0509 लीड्ज -0.6018
-4.0509 sam -0.6020
-4.0509 बिलो -0.5494
-3.7498 बिल्कुल -0.6020
-3.5737 ओर -0.6019
-4.0509 हेड्फोन -0.5494
-4.0509 अधिकारी -0.6020
-4.0509 more -0.6020
-3.5737 राज़ -0.6012
-3.5737 क्रिकेट -0.6017
-4.0509 चश्मा -0.5494
-4.0509 जागतिक -0.6020
-4.0509 appitude -0.5494
-3.3519 मुझे -0.6009
-4.0509 एक्सर्साइजर -0.6019
-4.0509 googles -0.5494
-4.0509 भगवतराव -0.5494
-4.0509 biotechnological -0.5494
-4.0509 दूरदर्शन -0.6010
-3.7498 कठिन -0.6020
-3.7498 ramdev -0.6019
-3.7498 apple -0.6019
-4.0509 जिसके -0.6020
-4.0509 टपरी -0.6020
-2.8748 recharge -0.5494
-3.7498 कचरे -0.6007
-3.7498 किड्स -0.6020
-4.0509 बॉल -0.6020
-4.0509 net -0.6020
-4.0509 हेअर -0.6020
-4.0509 कोलोरैडो -0.6020
-4.0509 मंथ्रालय -0.6008
-3.5737 entertainment -0.6019
-4.0509 करेगा -0.5494
-4.0509 tables -0.6006
-4.0509 नाइट -0.6019
-4.0509 braayvia -0.5494
-4.0509 किसानों -0.6000
-3.7498 ज्वेलर्स -0.6020
-4.0509 व्यवस्थापन -0.5494
-4.0509 बुधवार -0.6020
-3.5737 sticks -0.5494
-4.0509 तरुण -0.6020
-4.0509 हाई -0.6020
-4.0509 मिल्टन -0.6020
-4.0509 nda -0.6020
-4.0509 किताबों -0.5998
-4.0509 हिल्टन -0.6020
-3.7498 पॉल -0.5995
-4.0509 पंचनामे -0.6014
-4.0509 स्टेप -0.6019
-4.0509 थक -0.6017
-3.7498 वूडन -0.6020
-4.0509 कर्ज़दार -0.6020
-3.7498 पति -0.6006
-3.7498 private -0.6020
-2.0509 के -0.5407
-4.0509 lcd -0.6018
-4.0509 devices -0.5494
-4.0509 नाहीं -0.6020
-3.7498 मन्दिर -0.5494
-4.0509 उनकी -0.6020
-4.0509 वाइब्रेटर -0.5494
-4.0509 पुड़ें -0.5998
-4.0509 ज्यादा -0.6020
-4.0509 uber -0.6020
-3.7498 government -0.6020
-3.7498 लगता -0.5985
-3.7498 ओला -0.6020
-4.0509 varieties -0.5494
-3.7498 सोडा -0.6016
-3.5737 club -0.5493
-3.7498 आईओएस -0.5987
-4.0509 सर्टिफिकेशन्स -0.5494
-4.0509 बुद्धि -0.5982
-4.0509 टर्बो -0.6020
-3.7498 चक्की -0.6019
-4.0509 सनग्लासेज़ -0.5494
-3.7498 गाँव -0.5997
-4.0509 स्वरोच्चता -0.6019
-4.0509 प्रीपेड -0.6020
-4.0509 सुप्रसिद्ध -0.6019
-2.7956 था -0.5493
-3.7498 iphone -0.6016
-4.0509 रैडी -0.6020
-4.0509 कोशिश -0.5995
-4.0509 क्राफ्ट -0.6015
-4.0509 ऐस -0.6020
-4.0509 सीख -0.6018
-3.7498 बड़ी -0.6019
-4.0509 एरा -0.5494
-3.7498 शेविंग -0.5489
-4.0509 आसान -0.5987
-4.0509 सहायता -0.6008
-4.0509 सोनू -0.6020
-4.0509 carpets -0.5494
-4.0509 chhobra -0.6019
-4.0509 being -0.6020
-4.0509 राठौड़ -0.6020
-3.7498 mattress -0.5494
-4.0509 चलता -0.6014
-4.0509 museum -0.5494
-4.0509 नागाज़ -0.6020
-4.0509 training -0.6020
-3.7498 टूल्स -0.5493
-4.0509 गौरव -0.6019
-4.0509 समर्पित -0.5985
-3.7498 sixteen -0.6016
-3.7498 sports -0.6019
-4.0509 प्रिंटर -0.5494
-4.0509 पौधे -0.5987
-3.7498 his -0.6020
-3.7498 घड़ी -0.5493
-4.0509 स्प्रे -0.6020
-4.0509 विवेचन -0.6018
-4.0509 तुम्हारे -0.6019
-4.0509 बनो -0.5494
-4.0509 houses -0.5494
-4.0509 बहौत -0.6020
-4.0509 गैस -0.6020
-4.0509 होकर -0.6020
-4.0509 अप -0.5494
-3.5737 चाहता -0.6019
-4.0509 ट्रिमर -0.6020
-3.2058 एंड -0.6016
-4.0509 कुर्ताज -0.5494
-4.0509 क्योंकि -0.6020
-3.7498 मनी -0.6020
-3.4488 ram -0.5494
-3.0509 गांव -0.5968
-3.7498 सिंगल -0.6019
-3.7498 टीम -0.6000
-4.0509 घबराएँ -0.6019
-3.7498 zenfone -0.6018
-4.0509 रख -0.6019
-3.4488 g -0.5492
-4.0509 नज़र -0.6020
-4.0509 discrete -0.6020
-4.0509 विटामिन -0.6020
-4.0509 पुडा -0.5494
-4.0509 खोजक -0.6020
-4.0509 inverters -0.5494
-4.0509 सुनाना -0.5494
-3.7498 लेखक -0.6020
-4.0509 dependence -0.5494
-3.7498 घड़ियाँ -0.5494
-4.0509 manures -0.5494
-4.0509 भूमि -0.5998
-3.7498 डेक्कन -0.6019
-3.1478 cover -0.5488
-4.0509 action -0.6020
-4.0509 नारायणदास -0.6020
-4.0509 उन्हें -0.6020
-4.0509 स्टेबलाइजर -0.6019
-4.0509 अंदमान -0.6020
-4.0509 ब्लॉसम -0.5494
-4.0509 सेलर्स -0.6019
-3.7498 रही -0.5985
-3.7498 लगाने -0.5980
-4.0509 rings -0.5494
-4.0509 तरफ -0.6020
-4.0509 उपक्रम -0.5985
-4.0509 मुनि -0.6006
-4.0509 फ्रैन्गेसेज -0.5494
-4.0509 हैन्डिक्राफ्ट्स -0.5494
-4.0509 धीरज -0.6007
-4.0509 were -0.6020
-4.0509 sun -0.6020
-4.0509 होंगे -0.6012
-3.7498 bath -0.6019
-3.7498 गई -0.5493
-4.0509 पैशनेट -0.6020
-4.0509 अमिश -0.6020
-4.0509 रिंग -0.5494
-4.0509 सँभाली -0.5494
-3.7498 years -0.6019
-4.0509 पुरूषों -0.5982
-3.5737 काला -0.6018
-4.0509 glossy -0.6018
-4.0509 outdoor -0.6019
-4.0509 gifts -0.5494
-3.2727 सिर्फ -0.6016
-4.0509 जैनुअरी -0.6020
-4.0509 these -0.6020
-3.0509 two -0.6002
-4.0509 खिंचते -0.6018
-4.0509 राधे -0.6020
-4.0509 रेट -0.5494
-4.0509 knowlegde -0.6006
-4.0509 cooking -0.6019
-3.4488 बन -0.6015
-4.0509 मीटिंग -0.5982
-4.0509 पण्ढरपुर -0.5998
-3.7498 खरीदना -0.5985
-4.0509 मॉइस्चराइज -0.5494
-3.5737 उसने -0.6012
-3.7498 विश्व -0.6019
-3.4488 बात -0.5961
-4.0509 water -0.6013
-4.0509 victory -0.5494
-4.0509 वुलेन -0.6019
-4.0509 स्टीरियो -0.6019
-4.0509 रोगों -0.5995
-3.2058 is -0.6011
-4.0509 देने -0.6000
-4.0509 वालपेपर -0.5494
-3.7498 नाइटी -0.5494
-3.7498 प्रक्रिया -0.6020
-3.7498 हमारे -0.6019
-4.0509 मैट्स -0.5494
-4.0509 चिन्तक -0.6020
-4.0509 नैरो -0.6018
-3.7498 fifteen -0.6016
-3.2727 कम -0.6004
-4.0509 mastery -0.6020
-4.0509 body -0.5494
-4.0509 सुनाता -0.5985
-3.7498 store -0.5491
-3.7498 सी -0.6020
-4.0509 नाथद्वारा -0.6020
-4.0509 नीक्कर -0.5987
-3.2727 four -0.6006
-3.7498 ever -0.5494
-3.2058 कर -0.5490
-3.7498 विकास -0.6020
-3.7498 star -0.5493
-4.0509 एम्पलीफायर -0.6020
-4.0509 धरती -0.5987
-4.0509 वेट -0.6020
-4.0509 गुजराती -0.6019
-3.4488 वॉच -0.5456
-4.0509 john -0.6020
-4.0509 केले -0.6000
-3.7498 गैलैक्सी -0.5493
-4.0509 हारमोनियम -0.5494
-4.0509 बढ़ने -0.6019
-4.0509 अफ्सादों -0.5987
-4.0509 भूगोल -0.6020
-4.0509 लट्ठा -0.6017
-4.0509 मोदी -0.6019
-4.0509 evolution -0.6012
-3.5737 वैज्ञानिक -0.6013
-3.7498 villa -0.5494
-4.0509 जायेंगे -0.5494
-3.7498 डिज़ाइन -0.5465
-4.0509 agriculture -0.6019
-3.7498 मानव -0.6012
-3.4488 retail -0.6010
-4.0509 representations -0.5494
-3.4488 point -0.6016
-3.7498 डबल -0.6019
-4.0509 दिगंबर -0.6020
-4.0509 लैमन -0.6019
-4.0509 गलती -0.6020
-3.7498 भर -0.5982
-3.7498 ready -0.6019
-4.0509 something -0.6020
-3.4488 ड्रेस -0.5493
-4.0509 किसी -0.6014
-4.0509 दूध -0.6000
-4.0509 shlok -0.6019
-4.0509 बटी -0.5494
-3.7498 within -0.6017
-4.0509 north -0.6020
-3.5737 आपकी -0.6019
-4.0509 तहखाने -0.5998
-4.0509 लंच -0.6020
-3.7498 सचमुच -0.6017
-4.0509 लगभग -0.6020
-3.7498 सीक्रेट -0.6019
-3.2058 खेती -0.5956
-3.7498 चप्पल -0.5450
-4.0509 narmadeshwar -0.6020
-4.0509 microwave -0.6020
-4.0509 शू -0.6020
-4.0509 conditioners -0.5494
-3.7498 बूट्स -0.5494
-3.7498 साधन -0.5494
-3.7498 conceptualization -0.6020
-4.0509 काँच -0.6019
-4.0509 समझते -0.6006
-4.0509 management -0.5494
-3.1478 क्रीम -0.5493
-4.0509 कानून -0.5982
-3.7498 dining -0.6019
-3.4488 कैसे -0.6016
-4.0509 gadgets -0.6018
-2.2313 की -0.5403
-4.0509 खुल्लर -0.5494
-4.0509 दिसम्बर -0.5494
-4.0509 kanoi -0.5494
-4.0509 j -0.6020
-4.0509 सफेद -0.5494
-4.0509 आदर्श -0.6020
-4.0509 कमान -0.6020
-4.0509 nursery -0.6020
-4.0509 allow -0.6020
-4.0509 स्वेटर -0.6020
-3.2727 home -0.6018
-3.7498 जालीदार -0.5493
-4.0509 लिटर -0.6019
-4.0509 ग्रे -0.6018
-4.0509 आत्मगत -0.6020
-4.0509 थैरपी -0.5494
-4.0509 bags -0.5494
-4.0509 ट्रिमर्स -0.6018
-4.0509 reference -0.6019
-3.7498 limited -0.5494
-4.0509 pathfinder -0.6017
-4.0509 choreographing -0.6020
-4.0509 रूचि -0.6011
-4.0509 भारती -0.6020
-4.0509 अच्छा -0.6020
-4.0509 papers -0.6018
-4.0509 प्राइमरी -0.6018
-4.0509 telenor -0.6015
-4.0509 तेरे -0.6020
-4.0509 गैलेक्सी -0.6020
-3.7498 तुम -0.6019
-4.0509 scientist -0.5494
-4.0509 operations -0.6020
-4.0509 निविआ -0.6020
-3.7498 netconnect -0.5486
-4.0509 गैजेट्स -0.5987
-4.0509 automatic -0.6020
-4.0509 woman -0.5494
-4.0509 टीवीऐस -0.6020
-4.0509 खेतों -0.5998
-4.0509 मैजिक -0.6020
-3.7498 एक्स्टर्नल -0.6020
-4.0509 विषय -0.6019
-3.5737 जीवन -0.6016
-4.0509 दूसरी -0.6019
-4.0509 अवसर -0.6020
-4.0509 सामान्य -0.6019
-4.0509 linear -0.6020
-3.4488 art -0.5476
-4.0509 modi -0.5494
-4.0509 nutrition -0.5494
-4.0509 एक्सचेंज -0.6019
-3.7498 नोकिआ -0.6020
-4.0509 लगाम -0.6019
-3.7498 लेडीज -0.6019
-4.0509 handloom -0.6020
-4.0509 rebounce -0.6020
-4.0509 combos -0.5494
-4.0509 mumbaistan -0.6020
-4.0509 laundry -0.5494
-3.7498 वियर -0.5986
-4.0509 yourself -0.6019
-4.0509 intergarden -0.5494
-3.7498 उपेक्षा -0.6011
-4.0509 bracelet -0.6020
-4.0509 reconsideration -0.5494
-3.7498 स्मार्टफोन -0.5494
-3.4488 कूलर -0.5494
-3.7498 थ्री -0.6019
-4.0509 girls -0.6020
-4.0509 ज्ञानोदय -0.6020
-4.0509 वायरलैस -0.6020
-3.7498 furnitures -0.5494
-4.0509 लेनोवो -0.5494
-4.0509 leether -0.6018
-4.0509 सींथेटिक -0.6020
-4.0509 mall -0.5494
-3.7498 chairs -0.5494
-3.5737 स्पाइस -0.6011
-3.5737 ऍंड्रॉइड -0.6016
-4.0509 मेट -0.6014
-4.0509 बच -0.6017
-3.7498 inch -0.6006
-4.0509 lollipop -0.6020
-4.0509 जोतने -0.5982
-3.4488 smart -0.6013
-3.7498 ईन -0.6019
-3.7498 cortico -0.6020
-4.0509 कागज़ -0.5982
-4.0509 हल्फ़ -0.6020
-4.0509 सैंट -0.6020
-4.0509 दी -0.5494
-4.0509 shriram -0.6020
-3.4488 रह -0.6012
-3.7498 finders -0.5494
-3.7498 collection -0.5494
-4.0509 machine -0.5494
-3.7498 सूर्यकांत -0.6020
-3.7498 primary -0.6019
-4.0509 चीज़ -0.6019
-4.0509 सागर -0.6020
-4.0509 नजदीक -0.5982
-3.7498 लेकर -0.6020
-3.5737 long -0.5493
-4.0509 होगा -0.5494
-4.0509 way -0.6013
-3.5737 आराम -0.6007
-4.0509 dynamis -0.6020
-4.0509 रामलाल -0.6019
-4.0509 ढंग -0.6008
-3.7498 पड़े -0.5486
-4.0509 शायरी -0.5987
-4.0509 खास -0.6020
-4.0509 फ़्लिप -0.6020
-3.7498 बीच -0.5997
-4.0509 चूर्ण -0.5494
-4.0509 टूटा -0.6020
-4.0509 mini -0.6020
-3.4488 जैकेट -0.5493
-4.0509 called -0.6020
-4.0509 शैली -0.5494
-4.0509 साटम -0.5494
-4.0509 चलो -0.6020
-3.7498 जाने -0.6005
-4.0509 कार्डिन -0.6020
-4.0509 kim -0.6020
-4.0509 पैरागौन -0.5494
-4.0509 texts -0.6020
-4.0509 ideas -0.6019
-4.0509 लोशन -0.5494
-4.0509 head -0.6014
-4.0509 कृपया -0.6018
-4.0509 dung -0.6018
-4.0509 बनाकर -0.6018
-4.0509 मशीनें -0.6020
-4.0509 टोस्टर -0.6014
-4.0509 manekeshaw -0.5494
-4.0509 representatives -0.5494
-4.0509 मृत -0.6020
-3.7498 कठैला -0.6020
-4.0509 नाई -0.6008
-3.3519 दिया -0.5494
-4.0509 भलाई -0.5985
-4.0509 ऑडिओ -0.6020
-4.0509 सिलीग -0.6020
-4.0509 सौन्दर्य -0.6007
-3.7498 glass -0.5494
-4.0509 मैहेंगा -0.6014
-4.0509 face -0.5494
-4.0509 misrepresentations -0.5494
-4.0509 डिब्बा -0.5987
-3.5737 food -0.5477
-2.7287 ने -0.5994
-3.7498 darpan -0.6018
-4.0509 narendra -0.6020
-4.0509 उन -0.6016
-4.0509 विकट -0.6014
-4.0509 विंडोज़ -0.6020
-4.0509 dryers -0.5494
-4.0509 ट्यूनिक्स -0.5494
-4.0509 त्रिवेदी -0.5494
-4.0509 रिंग्स -0.5494
-3.7498 धांय -0.6019
-3.7498 usb -0.6019
-4.0509 rakesh -0.6020
-4.0509 उत्कर्ष -0.6016
-4.0509 भांगलपुर -0.6019
-3.7498 पोलो -0.6019
-4.0509 प्युरीफायर -0.5494
-3.5737 पैदा -0.6015
-4.0509 जिंदगी -0.6020
-4.0509 सीम -0.6012
-4.0509 पॉलिश -0.5987
-4.0509 विंडोज -0.6020
-4.0509 oven -0.5494
-3.7498 चेक्स -0.5493
-4.0509 riding -0.6020
-4.0509 ईख -0.5494
-3.7498 mega -0.6020
-4.0509 bijoy -0.6020
-3.7498 जैसे -0.6018
-4.0509 ट्रैक -0.6018
-4.0509 विभा -0.6020
-4.0509 tort -0.5494
-4.0509 ग्लुकोज -0.5494
-4.0509 किनारी -0.6020
-4.0509 पाठमाला -0.6020
-3.7498 plaza -0.6020
-4.0509 पटपड़गंज -0.6020
-4.0509 surdas -0.6020
-4.0509 yashma -0.6018
-4.0509 शेव -0.6020
-3.5737 your -0.6019
-4.0509 राव -0.5494
-4.0509 ममींसा -0.6020
-3.4488 शब्दों -0.5980
-4.0509 बकुल -0.6020
-4.0509 प्रसारित -0.6014
-4.0509 field -0.6020
-3.4488 ऑफर -0.5491
-3.7498 होता -0.5492
-3.5737 barbie -0.6005
-4.0509 हॉल -0.5998
-4.0509 scripts -0.5494
-4.0509 ज़ूम -0.5494
-4.0509 जाऊँ -0.6016
-4.0509 nothing -0.6014
-4.0509 वामनराव -0.6020
-4.0509 embroidered -0.5494
-4.0509 पूर्ण -0.6020
-3.7498 जा -0.6018
-3.7498 अगस्त -0.5998
-3.7498 हॉट -0.6019
-3.7498 चकमा -0.6019
-3.7498 सिम्फनी -0.6019
-4.0509 बूढ़ी -0.6020
-4.0509 डेकोर -0.6020
-3.7498 वहाँ -0.5971
-4.0509 सीट्स -0.5494
-3.7498 मेकर -0.5494
-4.0509 items -0.5494
-4.0509 फ़िरोज़ -0.6020
-4.0509 वेरिको -0.6020
-4.0509 बातें -0.6017
-4.0509 aditya -0.6020
-4.0509 पंखे -0.5494
-4.0509 कालिया -0.6020
-4.0509 अनुभव -0.6019
-3.7498 back -0.6016
-4.0509 रॉड -0.6020
-3.7498 आरओ -0.6020
-3.7498 ट्वैल्व -0.6019
-4.0509 gulzar -0.5494
-4.0509 launches -0.5494
-3.3519 करते -0.6002
-4.0509 animation -0.6020
-4.0509 लाइट्स -0.5494
-3.7498 सिस्टम -0.5477
-4.0509 कील -0.6020
-4.0509 चुकाए -0.5494
-4.0509 zhang -0.6018
-4.0509 बडी़शोप -0.6020
-4.0509 मटिरियल -0.5494
-4.0509 डांसर -0.5494
-4.0509 national -0.6020
-3.7498 छोटे -0.6019
-4.0509 karni -0.6018
-4.0509 donated -0.6013
-4.0509 फेशिअल -0.6020
-4.0509 sony -0.6020
-3.0509 gb -0.5476
-4.0509 एम्लीफायर -0.5494
-4.0509 dental -0.6019
-3.7498 ऑपरेटिंग -0.6020
-4.0509 शीत -0.6020
-4.0509 रचा -0.6017
-4.0509 plete -0.6020
-4.0509 natural -0.6018
-4.0509 जलेसर -0.6020
-4.0509 change -0.5494
-4.0509 बिम्लानी -0.6020
-4.0509 कंडीशनर -0.5494
-3.7498 कुर्सी -0.5493
-3.3519 ब्लूटूथ -0.5492
-3.7498 बर्फी -0.5987
-4.0509 वर्काउट -0.6020
-3.5737 स्टैंड -0.5493
-4.0509 blackseed -0.6019
-4.0509 blackberry -0.6019
-4.0509 शंखपुष्पी -0.6019
-4.0509 rabindranath -0.6020
-4.0509 जोड़ा -0.5494
-4.0509 physics -0.5494
-3.5737 twenty -0.6014
-4.0509 ऍरोमा -0.6020
-4.0509 किले -0.5982
-3.3519 online -0.5492
-4.0509 बेर -0.6020
-4.0509 बजाता -0.5985
-4.0509 इत्तर -0.5494
-3.7498 lifestyle -0.6018
-4.0509 electric -0.6020
-4.0509 ऐलईडी -0.6019
-3.7498 बेबीज़ -0.6020
-4.0509 मेघा -0.6020
-4.0509 प्रेस्टीज -0.6020
-4.0509 देखते -0.6014
-4.0509 दिखा -0.6018
-4.0509 लगाना -0.5494
-4.0509 पिंपल -0.6018
-4.0509 देगी -0.5494
-4.0509 ज़ेब्रोनिक्स -0.6019
-4.0509 anaesthslogiogists -0.5494
-3.7498 photon -0.6019
-4.0509 क्वॉलिटी -0.6019
-4.0509 ऐसे -0.6014
-3.7498 लॉकेट -0.5493
-3.7498 फॉर्मल -0.5491
-4.0509 fitness -0.5494
-4.0509 क्षत्रिय -0.6020
-3.3519 या -0.6016
-4.0509 मिल -0.6019
-3.5737 सायकल -0.5456
-4.0509 चौबीस -0.6019
-3.7498 oil -0.6020
-3.5737 सब -0.6015
-3.7498 नोट -0.6018
-4.0509 देना -0.6020
-4.0509 choong -0.6020
-3.4488 मेरे -0.6008
-4.0509 खराब -0.6014
-3.7498 मोबाइल्स -0.5494
-4.0509 जिवानी -0.6019
-4.0509 dossier -0.6012
-4.0509 डेरी -0.6020
-4.0509 इंतज़ार -0.6017
-4.0509 नेताओं -0.6007
-4.0509 नाइक -0.6018
-4.0509 डूबे -0.6020
-3.7498 दीपावली -0.5982
-3.7498 clock -0.6020
-4.0509 लैवेंडर -0.6020
-4.0509 william -0.6020
-4.0509 panasonic -0.6020
-4.0509 सौंदर्य -0.6020
-4.0509 career -0.5494
-4.0509 दिमाग -0.5982
-4.0509 रैक -0.5494
-3.4488 बच्चों -0.5948
-4.0509 प्रगाढ़ -0.6020
-2.9717 हिंदी -0.5460
-4.0509 स्मार्टफोंस -0.5494
-4.0509 कतरनें -0.6020
-4.0509 टीपी -0.6020
-4.0509 improvement -0.6020
-4.0509 अभियान्त्रिकी -0.5494
-4.0509 शून्य -0.6014
-4.0509 मेल -0.6018
-4.0509 जेंट्स -0.6020
-4.0509 refrigerators -0.5494
-4.0509 चुम्बकीय -0.6020
-4.0509 सफ़ेद -0.6020
-4.0509 फूट -0.6020
-4.0509 प्रेसिडेंट -0.6020
-4.0509 इत्र -0.5494
-4.0509 केक -0.6018
-4.0509 गुरूवार -0.6008
-4.0509 सभा -0.6000
-4.0509 कनकौए -0.6020
-3.7498 ड्रैस -0.5450
-3.7498 विशारद -0.5995
-4.0509 rangeelo -0.6020
-3.7498 दुल्हन -0.5975
-4.0509 बैलेनो -0.6019
-3.7498 चलते -0.6006
-4.0509 दबाव -0.6019
-4.0509 साहेब -0.6018
-4.0509 संस्कृत -0.6008
-3.5737 टैबलेट -0.5981
-3.2727 सकते -0.5477
-3.7498 अधिकतर -0.6016
-4.0509 लक्षद्वीप -0.5494
-4.0509 शैम्पू -0.5987
-4.0509 ब्लु -0.6020
-3.7498 चार्ज -0.6019
-2.9047 एक -0.5443
-4.0509 आहुजा -0.6020
-4.0509 बिल -0.6020
-4.0509 वर्धक -0.6020
-4.0509 live -0.6019
-4.0509 सोचा -0.6016
-4.0509 लिखा -0.6020
-3.4488 उस -0.6006
-4.0509 educational -0.6020
-4.0509 गुलाब -0.6020
-4.0509 सफलता -0.6019
-3.4488 टू -0.6019
-3.5737 life -0.6011
-4.0509 साँप -0.6014
-3.7498 चुका -0.5976
-4.0509 हॉस -0.6020
-4.0509 स्टार -0.6019
-4.0509 शमशान -0.5995
-4.0509 बाल -0.6020
-3.7498 इकट्ठा -0.6014
-4.0509 ढाल -0.6017
-4.0509 shoe -0.6019
-3.7498 टाइगर -0.6020
-4.0509 short -0.6020
-4.0509 खपाता -0.6020
-4.0509 अग्निशन -0.5494
-4.0509 religions -0.6006
-3.5737 क्लीनर -0.5494
-4.0509 robot -0.5494
-4.0509 जनरल -0.6020
-3.7498 स्मार्ट -0.6018
-4.0509 सेंतमेंत -0.5998
-4.0509 बोलेगा -0.6012
-4.0509 चढ़ -0.6019
-4.0509 दोस्ताने -0.5998
-4.0509 realism -0.6018
-4.0509 ललित -0.6020
-4.0509 फ्राक -0.6019
-4.0509 grandfather -0.6020
-4.0509 callphone -0.5494
-3.7498 चाय -0.6020
-3.7498 खेतीबाड़ी -0.5995
-4.0509 परिवार -0.6020
-4.0509 औरंगाबाद -0.5494
-4.0509 chehak -0.6020
-4.0509 करनी -0.6020
-4.0509 गोलियों -0.5995
-4.0509 hidden -0.6020
-3.7498 फैन -0.5493
-3.4488 ज्वेलरी -0.5456
-3.2727 fashion -0.5489
-3.7498 ऍडम -0.6020
-3.0509 for -0.6004
-3.7498 इंडियन -0.6018
-4.0509 then -0.6017
-4.0509 डेढ़ -0.6019
-4.0509 schedule -0.5494
-4.0509 spanish -0.6020
-3.5737 एस -0.6018
-4.0509 able -0.6013
-3.7498 फुल -0.6019
-4.0509 तहसीलदार -0.6020
-3.4488 below -0.5486
-4.0509 टाईटन -0.6020
-4.0509 औज़ार -0.6020
-4.0509 डिलिवरी -0.6012
-4.0509 मदरबोर्ड -0.5494
-3.5737 fiction -0.5494
-4.0509 स्क्रिन -0.6019
-4.0509 उसको -0.6020
-4.0509 catch -0.6014
-3.5737 ये -0.6019
-4.0509 लेज़र -0.6020
-4.0509 हालात -0.6012
-4.0509 प्रोफेशनल -0.6020
-4.0509 विंडो -0.6020
-4.0509 बदले -0.5995
-4.0509 स्टैमिन -0.5982
-4.0509 पकड़ने -0.6019
-4.0509 गिरदावर -0.6019
-4.0509 डीलक्स -0.6020
-4.0509 बे -0.6020
-4.0509 lakshmi -0.6020
-4.0509 राघो -0.6020
-4.0509 हरदम -0.6020
-4.0509 म्यूजिकल -0.6020
-4.0509 आदमियों -0.5982
-4.0509 सामान -0.5494
-4.0509 पिंक -0.5494
-4.0509 stock -0.6020
-4.0509 verbal -0.5494
-3.7498 लॉस -0.6018
-4.0509 जायेगा -0.5494
-4.0509 जामुन -0.6020
-4.0509 सिक्सटीन -0.6020
-4.0509 enjoy -0.6020
-3.7498 भगवद्गीता -0.5494
-3.7498 सिरप -0.5494
-4.0509 reputed -0.6020
-4.0509 कामरुप -0.6020
-4.0509 planastly -0.5494
-4.0509 बीबीसी -0.6019
-4.0509 उड़ा -0.6019
-4.0509 otg -0.6020
-4.0509 regardless -0.6012
-3.0509 गया -0.5402
-4.0509 जनरेटर -0.5982
-4.0509 पटवारी -0.6020
-3.7498 srinidhi -0.6020
-4.0509 रोशनी -0.5987
-4.0509 अचार -0.5494
-4.0509 genius -0.6019
-4.0509 फ्लॉवर -0.5494
-4.0509 इत्यादि -0.5494
-4.0509 आनेकी -0.6010
-4.0509 दिवेकर -0.5494
-4.0509 नेल -0.6020
-2.8204 ही -0.5469
-3.5737 रेल्वे -0.5491
-4.0509 ios -0.5494
-4.0509 दवा -0.5494
-3.7498 outdoors -0.6006
-3.4488 करें -0.5494
-4.0509 रॉडज़ -0.5494
-4.0509 काउंटर -0.5494
-4.0509 international -0.5494
-3.4488 android -0.6016
-4.0509 powereyes -0.6019
-3.3519 how -0.6011
-4.0509 fans -0.5494
-4.0509 reebok -0.6020
-4.0509 दादा -0.6012
-3.7498 english -0.6020
-3.7498 लोफर -0.6020
-4.0509 सीबर्ड -0.6020
-4.0509 टॉकीज़ -0.5494
-4.0509 उस्तरे -0.6019
-4.0509 लेडीज़ -0.6019
-4.0509 अक्टूबर -0.6020
-3.3519 भाषा -0.5962
-4.0509 थैली -0.5494
-4.0509 कोर्स -0.6020
-4.0509 कक्षा -0.6019
-4.0509 bhadreshwara -0.6018
-3.7498 wireless -0.6020
-3.7498 इन्शुरैंस -0.5494
-4.0509 मूल्यांकनों -0.5982
-3.5737 तेल -0.5494
-3.7498 फ़ूड -0.6020
-4.0509 पचास -0.6020
-4.0509 अकादमी -0.5494
-4.0509 जोधपुरी -0.6020
-4.0509 गांगल -0.6020
-4.0509 सामने -0.6020
-4.0509 इंदौर -0.5494
-4.0509 गाड़ी -0.5982
-4.0509 पिन -0.6020
-4.0509 एगलैस -0.6020
-3.3519 किताब -0.5450
-4.0509 do -0.6019
-4.0509 clear -0.6020
-4.0509 बरसों -0.6008
-4.0509 इंजन -0.6020
-4.0509 परेशान -0.6017
-4.0509 game -0.6020
-4.0509 than -0.6019
-3.2727 general -0.6018
-4.0509 administrative -0.6020
-3.7498 माँ -0.5961
-4.0509 asian -0.6019
-4.0509 लगते -0.6006
-3.7498 टैलीग्राफ -0.6020
-4.0509 क्रेन -0.6020
-0.9423 </s> -0.6021
-4.0509 फॉलो -0.6020
-4.0509 डिझाईन -0.5494
-4.0509 बिकुल -0.5494
-4.0509 मैथमैटिक्स -0.5494
-4.0509 रिवोक -0.6019
-3.7498 मेरी -0.6019
-4.0509 सलवार -0.6018
-4.0509 gloves -0.5494
-4.0509 फ्रौग -0.6019
-4.0509 गाता -0.5985
-4.0509 cab -0.6006
-3.7498 लैदर -0.5997
-4.0509 बजाज -0.6020
-3.7498 सिद्ध -0.6020
-4.0509 गोल -0.6020
-4.0509 graph -0.6020
-3.7498 बैंगल्स -0.5456
-3.2058 भाव -0.5488
-4.0509 gagandeep -0.6020
-4.0509 matadi -0.6020
-4.0509 thirty -0.6017
-4.0509 nine -0.6020
-4.0509 जन्म -0.6020
-4.0509 दूसरा -0.6020
-4.0509 ऐड -0.6020
-4.0509 cushion -0.6019
-3.5737 हूँ -0.5494
-4.0509 valuation -0.6020
-4.0509 अमेरिका -0.6018
-4.0509 मैने -0.6020
-3.5737 selfie -0.6019
-4.0509 वाइजर -0.6020
-4.0509 megamart -0.6018
-4.0509 व्यक्तुत -0.5494
-3.3519 ऊपर -0.5945
-4.0509 scientific -0.6020
-4.0509 रिसेप्शन -0.6020
-3.7498 engineer -0.5494
-4.0509 सोवियत -0.6020
-4.0509 cracking -0.6020
-4.0509 बैट्री -0.5494
-3.7498 विंटर -0.6020
-3.7498 थोड़ी -0.6020
-4.0509 अहसास -0.5985
-3.5737 गयी -0.5480
-4.0509 संदेह -0.6011
-4.0509 धवन -0.6020
-4.0509 साइंस -0.6020
-3.7498 mtnl -0.6011
-3.4488 core -0.6012
-4.0509 भले -0.6020
-3.5737 मंशा -0.5454
-4.0509 कलेक्शन -0.6020
-3.3519 जूते -0.5494
-4.0509 हुयी -0.6011
-4.0509 सैफ्टी -0.6020
-3.7498 कैजुअल -0.6019
-4.0509 reaurthorization -0.5494
-4.0509 एसडी -0.6019
-4.0509 प्रमुख -0.6018
-4.0509 walter -0.6020
-3.7498 बेड -0.6020
-3.7498 लिये -0.6019
-4.0509 बोला -0.6020
-4.0509 राजेंद्र -0.6020
-3.7498 इतने -0.6019
-4.0509 बंसीलाल -0.6020
-4.0509 बनारस -0.6020
-4.0509 स्टे -0.6020
-4.0509 यंत्र -0.5494
-4.0509 gol -0.6020
-4.0509 machines -0.5494
-4.0509 गिरस्ती -0.6020
-4.0509 combo -0.6020
-3.5737 द्वारा -0.6019
-3.3519 चोली -0.5494
-4.0509 stlezner -0.6018
-3.7498 lighting -0.6006
-4.0509 poly -0.6020
-3.7498 nano -0.6019
-3.7498 टॉप्स -0.5456
-4.0509 चूल्हे -0.6014
-3.4488 जाती -0.5970
-3.5737 plus -0.5484
-4.0509 javascript -0.6020
-2.9717 मशीन -0.5455
-3.5737 सारे -0.6014
-4.0509 तहकीकात -0.5982
-4.0509 mukhopadhyay -0.6018
-4.0509 फैशन -0.6019
-4.0509 कुंदन -0.6020
-3.7498 भाग -0.6015
-3.7498 कनैक्ट -0.5494
-3.4488 होम -0.6019
-4.0509 मंडल -0.5982
-3.7498 डिजिटल -0.6019
-4.0509 counseling -0.6006
-4.0509 simple -0.6020
-3.3519 डोर -0.5493
-4.0509 रोक -0.6019
-4.0509 उसे -0.6020
-4.0509 कारण -0.6020
-4.0509 ट्रक -0.6020
-4.0509 जी -0.6020
-4.0509 भोपाल -0.5998
-4.0509 सैंडिल -0.5494
-3.7498 पीपल -0.6019
-3.7498 बनाने -0.5995
-4.0509 craft -0.6020
-4.0509 बगीचे -0.5998
-3.7498 बम्पर -0.6018
-4.0509 ना -0.6019
-4.0509 बदहवास -0.6019
-4.0509 तथा -0.6020
-4.0509 पावरबैंक -0.6020
-2.8204 बिजली -0.5913
-4.0509 मधुबनी -0.6020
-4.0509 बोलने -0.6000
-4.0509 just -0.6020
-4.0509 धर्मरक्षक -0.6019
-3.4488 phone -0.5494
-4.0509 दयालु -0.6006
-4.0509 आईरिस -0.5494
-4.0509 headline -0.6019
-4.0509 cctv -0.6020
-4.0509 music -0.6020
-3.0966 कुछ -0.5978
-4.0509 semiconductors -0.5494
-4.0509 पुलिस -0.6019
-4.0509 बापै -0.6019
-4.0509 काका -0.6020
-3.5737 बैग्स -0.5489
-4.0509 बर्नर -0.6020
-3.7498 चला -0.5493
-4.0509 भोलेनाथ -0.5995
-3.7498 फाइव -0.6020
-4.0509 अपडेट -0.6020
-4.0509 मफ्लर -0.6018
-4.0509 manyata -0.6020
-3.5737 भाषाओं -0.5985
-4.0509 hair -0.6020
-4.0509 डॉक्टर -0.6020
-3.7498 became -0.6006
-4.0509 नैकलेस -0.6020
-3.7498 फार्मूला -0.5494
-4.0509 व्हेल -0.6020
-4.0509 laxmi -0.6018
-4.0509 plain -0.6020
-4.0509 success -0.6020
-2.7956 bill -0.6014
-4.0509 टाईटेनियम -0.6020
-4.0509 cooper -0.6019
-3.3519 care -0.5492
-4.0509 शर्ट -0.6020
-4.0509 ज़ालिमों -0.6000
-4.0509 उम्र -0.6000
-4.0509 फ़ॉर्मूला -0.6019
-3.2058 इन -0.6009
-4.0509 शांत -0.5985
-4.0509 gave -0.6020
-4.0509 टूथ -0.6020
-4.0509 rabbit -0.6020
-4.0509 पॉजिटिव -0.5494
-4.0509 emporium -0.5494
-4.0509 ट्राऊज़र -0.5494
-3.7498 नाईट -0.5492
-4.0509 प्रीवियम -0.6018
-4.0509 उधर -0.6018
-4.0509 सबकी -0.6020
-4.0509 गरिमा -0.6020
-3.7498 खुराफात -0.6020
-4.0509 नूर -0.6020
-4.0509 बारहवीं -0.6020
-4.0509 r -0.6019
-3.5737 झूला -0.5492
-4.0509 get -0.6011
-4.0509 लिखी -0.6019
-3.7498 तीर्थयात्रा -0.5494
-4.0509 देकर -0.6018
-4.0509 माफ़ -0.6020
-4.0509 लक्ष्मीपति -0.6020
-2.7287 कि -0.5992
-4.0509 baaild -0.6020
-4.0509 diaries -0.5494
-4.0509 स्पाई -0.6018
-3.7498 लेकिन -0.6019
-4.0509 पर्स -0.5494
-2.7498 सैमसंग -0.5459
-4.0509 गयीं -0.5494
-4.0509 बार -0.5494
-4.0509 rajasthan -0.5494
-3.7498 जिम -0.5493
-3.5737 सीरप -0.5493
-4.0509 चूहा -0.6020
-4.0509 goa -0.6020
-4.0509 applition -0.5494
-4.0509 लिखित -0.6018
-4.0509 रेबन -0.6020
-4.0509 बांधें -0.5494
-4.0509 shoes -0.5494
-4.0509 देख -0.6020
-4.0509 जूतियाँ -0.5494
-4.0509 इट -0.6020
-4.0509 voyagaye -0.6019
-4.0509 boarding -0.5494
-3.5737 वाले -0.5476
-3.5737 स्पोर्ट्स -0.5491
-4.0509 trimmers -0.5494
-4.0509 यार्ड -0.6020
-4.0509 आँकड़ों -0.5987
-4.0509 jrf -0.6020
-3.5737 एच -0.6019
-3.7498 बैक -0.6017
-3.4488 मेरा -0.5977
-4.0509 ethzone -0.6020
-4.0509 मैडम -0.5494
-4.0509 वॉल -0.6020
-3.7498 ब्लोअर -0.5494
-4.0509 सैंडल -0.5494

\2-grams:
-0.1249 powereye full 0.0000
-0.9031 home entertainment -0.4771
-0.1249 देखने के -0.5237
-0.6021 द्वारा हमारे -0.3979
-2.9325 <s> पांच -0.4771
-0.7270 बॉडी कवर -0.3979
-0.1249 किनारी बाजार 0.0000
-0.8239 जब लालजी 0.0000
-0.1249 यहीं पैदा -0.4771
-0.7270 आदि से -0.5918
-3.2335 <s> ओपल 0.0000
-0.1249 बीन बैग्स -0.4771
-0.1249 पतसंस्था व्यवस्थापन 0.0000
-0.3010 टोपी फॉर -0.4586
-0.6690 भाव ज़रा 0.0000
-2.6314 <s> बेबी -0.2041
-0.1249 लाभ हैं -0.5936
-1.3291 हो जायेगा 0.0000
-0.1249 wine </s> -0.6021
-0.6021 home decoratives 0.0000
-1.3554 भी कोई -0.5315
-0.7270 galaxy grand 0.0000
-2.1249 के तहत 0.0000
-0.3680 flip cover -0.2430
-0.7270 smart phone 0.0000
-0.1249 मधुबनी पेंटिंग 0.0000
-0.1249 टाइटेनियम एस -0.4771
-0.1249 खुराफात निकालेंगे 0.0000
-0.3010 टैबलेट के -0.5955
-0.1249 उदाहरण के -0.5237
-1.0280 फोन और -0.5983
-3.2335 <s> टोपी -0.4771
-0.6021 गयी तो -0.5740
-0.1249 कलर </s> -0.6021
-1.6435 की </s> -0.6021
-0.1249 संस्कृत से -0.5918
-0.1249 पास्टा </s> -0.6021
-0.4260 इसलिए नहीं -0.5883
-0.1249 जैसा कि -0.5863
-1.5051 नहीं बताना 0.0000
-0.1249 by manjari 0.0000
-0.6021 रेल्वे भारती 0.0000
-3.2335 <s> religions 0.0000
-0.4260 गीत गाता 0.0000
-3.2335 <s> anaesthslogiogists 0.0000
-3.2335 <s> नेस्कैफ 0.0000
-0.1249 सैंडिल </s> -0.6021
-3.2335 <s> कोलगेट -0.3979
-0.1249 सीक्रेट ऑफ़ -0.3010
-0.4260 चला </s> -0.6021
-0.1249 सीखें </s> -0.6021
-0.7270 aircel recharge 0.0000
-0.7270 super shopping 0.0000
-0.4260 क्यों गरीब -0.3979
-2.0594 और ब्राउन -0.4771
-0.6021 ऑर्डर दिया 0.0000
-0.1249 फ़िरोज़ व्हेल 0.0000
-0.1249 स्कूल के -0.5988
-0.1249 than twenty -0.3010
-0.7270 आप नसीब 0.0000
-0.1249 खपाता रहता 0.0000
-0.1249 उपक्रम है -0.2451
-1.9445 की तुलना 0.0000
-1.6301 से पहले -0.4771
-0.1249 microwave oven 0.0000
-0.1249 टपरी उड़ा 0.0000
-1.4472 कि धर्मरक्षक 0.0000
-1.4260 to fifteen 0.0000
-0.1249 वर्ण होते 0.0000
-0.1249 improvement tools -0.3979
-0.1249 बनो </s> -0.6021
-0.6690 खेती का -0.5893
-0.4260 बाग उनके -0.4771
-2.1921 <s> the -0.4363
-0.1249 fluid mechanics 0.0000
-3.2335 <s> डीलक्स 0.0000
-0.9700 जो लोग -0.5836
-0.1249 महसूल विषय 0.0000
-0.4260 लेदर शूज़ -0.1549
-0.1249 celluarly </s> -0.6021
-1.8409 का कप्तान 0.0000
-0.1249 खरीद लिया -0.3979
-2.1249 के पंचनामे 0.0000
-3.2335 <s> chinese -0.4771
-0.1249 language </s> -0.6021
-0.1249 टैलीफोन रेडियो -0.3979
-0.1249 पिन वाला -0.3979
-1.9445 की चटनी 0.0000
-0.1249 religion and -0.5932
-0.1249 callmate selfie 0.0000
-0.1249 ऐक्सक्ल्यूज़िव ऑफर -0.3979
-3.2335 <s> मैमरी 0.0000
-0.1249 दिमाग के -0.5237
-1.1249 for nda 0.0000
-0.8239 कपड़े की -0.5971
-0.1249 implementing an -0.3979
-0.4260 ड्रेसेज फोर -0.3979
-3.2335 <s> ढोलक -0.3979
-0.1249 songs of -0.5863
-0.4260 player </s> -0.6021
-0.4260 cortico steroids 0.0000
-0.1249 responsible </s> -0.6021
-1.4472 of tipu 0.0000
-0.1249 स्टार स्पोर्ट -0.5119
-1.5721 पर हिंदी -0.5740
-0.4260 माँ के -0.5988
-0.1249 भगवतराव </s> -0.6021
-2.0594 और राशियाँ 0.0000
-0.9700 किया था -0.5836
-0.1249 tablet body 0.0000
-0.1249 साहेब फिर -0.5441
-1.0280 with usb -0.3979
-0.1249 anaesthslogiogists </s> -0.6021
-0.1249 सैर करने -0.5229
-0.3010 entertainment small 0.0000
-0.1249 गुज़ारा </s> -0.6021
-2.0594 और अन्ताक्षरी 0.0000
-0.1249 skate scooters 0.0000
-0.4260 ड्रैस </s> -0.6021
-2.7564 <s> क्रिकेट 0.0000
-3.2335 <s> बहत्तर 0.0000
-1.2711 एक फैंसी 0.0000
-3.2335 <s> सबेरे 0.0000
-2.0594 और उनके -0.4771
-0.1249 कोशिश की -0.5921
-0.1249 वाज़ अ -0.5441
-0.4260 below </s> -0.6021
-3.2335 <s> सलवार 0.0000
-0.8239 care device 0.0000
-2.5345 <s> i 0.0000
-3.2335 <s> inverters 0.0000
-1.8409 का राज़ -0.4771
-0.1249 मनुस्मृति </s> -0.6021
-1.6690 को शुद्ध 0.0000
-0.1249 इयरफोन्स </s> -0.6021
-0.1249 पशुओं से -0.5812
-0.6021 हमारा काम -0.5593
-0.1249 जीबी मेमोरी 0.0000
-0.1249 ऑईल कम्पनी -0.3979
-3.2335 <s> hawkins 0.0000
-0.4260 गाँव गूजरों 0.0000
-0.1249 केले का -0.5958
-0.1249 टकाबी दे -0.3979
-3.2335 <s> ड्रिल 0.0000
-0.1249 बनी है -0.2451
-3.2335 <s> personification 0.0000
-0.6021 रेलवे लाइन 0.0000
-0.6021 chinese heritage 0.0000
-0.1249 झुमके </s> -0.6021
-0.8239 डोर सिंगल 0.0000
-1.4674 मोबाइल ट्रैक 0.0000
-0.4260 मना नहीं -0.5883
-0.7270 करता </s> -0.6021
-3.2335 <s> बॉय 0.0000
-0.1249 selection </s> -0.6021
-0.1249 सबेरे शाम 0.0000
-0.9031 four to -0.5855
-0.1249 समझते हैं -0.0902
-3.2335 <s> पैनासोनिक 0.0000
-0.1249 दूरदर्शन पर -0.5903
-0.1249 सीख लिया -0.3979
-0.1249 shopping india -0.1383
-0.4260 कॉम्बो जीन्स -0.1383
-0.7270 अधिक बोली 0.0000
-3.2335 <s> बृहद 0.0000
-3.2335 <s> priolty 0.0000
-1.3554 a star -0.3979
-0.4260 morpankh enterprises -0.4771
-2.1249 के खेत -0.4771
-0.1249 मिला होता -0.3979
-3.2335 <s> kim 0.0000
-0.1249 यूनो </s> -0.6021
-0.1249 संघ के -0.5988
-0.8239 अंग्रेजी बोलते 0.0000
-2.9325 <s> बराबर 0.0000
-0.1249 पैरागौन </s> -0.6021
-0.4260 समय फेस -0.3979
-1.6690 को स्वरोच्चता 0.0000
-1.3554 a source 0.0000
-0.7270 ब्लैक रनिंग 0.0000
-0.1249 अभ्यास करना -0.5643
-0.1249 ios </s> -0.6021
-1.8958 में दफनाया 0.0000
-3.2335 <s> अर्बन 0.0000
-1.1249 बहुत दयालु 0.0000
-0.1249 प्रशनसंच </s> -0.6021
-0.1249 आया </s> -0.6021
-0.9700 कर देता 0.0000
-2.0594 और बरसों 0.0000
-0.4260 harry potter 0.0000
-3.2335 <s> रिकव 0.0000
-0.8239 enterprise outdoor 0.0000
-0.4260 ब्रदर्स पोलो -0.3979
-2.9325 <s> कॉम्बो 0.0000
-3.2335 <s> पान 0.0000
-0.4260 होता रहा -0.5119
-1.0280 अपनी कुर्सी -0.3979
-0.1249 khan became 0.0000
-3.2335 <s> बाप -0.3979
-0.1249 जंबो टैबलेट -0.3010
-0.1249 कृपया अपनी -0.5593
-1.8409 का गद्दा 0.0000
-0.1249 bracelet wristband 0.0000
-0.1249 अमेरिका जीन्स -0.1383
-0.1249 एक्सर्साइज </s> -0.6021
-0.1249 आयुर्वेदिक औषध 0.0000
-0.1249 बम्पर कवर -0.5119
-1.3291 से अपना -0.3979
-0.1249 मरो बोला 0.0000
-1.3554 ही सीमित -0.3979
-0.8239 बहुत बढ़ -0.4472
-0.6690 किया है -0.2369
-0.1249 glass </s> -0.6021
-2.9325 <s> plaza 0.0000
-1.1249 सैमसंग ओरिज्नल 0.0000
-0.1249 चोली </s> -0.6021
-0.4260 वाला </s> -0.6021
-0.4260 परंपरा का -0.5958
-0.1249 माफ़ कीजिये 0.0000
-0.1249 बंद हो -0.5362
-3.2335 <s> national 0.0000
-1.6931 and phrases 0.0000
-0.4260 single sim -0.3010
-1.4260 to change 0.0000
-0.7782 कुछ कह 0.0000
-0.1249 वाइब्रेटर </s> -0.6021
-0.1249 सप्लमेंट </s> -0.6021
-1.5721 पर मुकाम 0.0000
-0.1249 मौसम खराब 0.0000
-1.5563 लिए एक -0.5528
-0.1249 used as 0.0000
-0.4260 माइक्रोमैक्स लैपटॉप -0.4771
-0.6021 खाना पीना 0.0000
-3.2335 <s> just 0.0000
-0.1249 पेमेन्ट </s> -0.6021
-0.1249 शूज़़ ऑफर्ज़ 0.0000
-0.3468 किताब </s> -0.6021
-0.1249 craft villa 0.0000
-0.1249 मैग्ना एच 0.0000
-0.7270 smart band 0.0000
-1.6690 को हटाने 0.0000
-0.1249 after it -0.5315
-0.1249 टैटू रिमूवर 0.0000
-0.1249 सोलंकी क्रेन 0.0000
-0.9031 अ हल्फ़ 0.0000
-0.1249 डेक्कन बस -0.3979
-0.1249 इंग्लैंड </s> -0.6021
-0.1249 action figures 0.0000
-0.1249 पान अमेरिका 0.0000
-1.1461 of south 0.0000
-0.1249 गिद्ध मृत 0.0000
-0.4260 ट्रैवल बैग -0.1549
-1.8409 का मनोरंजन 0.0000
-3.2335 <s> पटवारी 0.0000
-0.1249 पर्दे </s> -0.6021
-0.1249 सेंतमेंत में -0.5909
-2.9325 <s> सोना 0.0000
-3.2335 <s> सफल -0.3979
-0.1249 apprenterize </s> -0.6021
-0.1249 तीन घंटे 0.0000
-0.1249 अफ्सादों और -0.5983
-0.1249 electromagnet semiconductors 0.0000
-2.0594 और सफ़ेद 0.0000
-0.6021 शर्ट्स फॉर -0.5593
-0.1249 grandfather mahaveer -0.3979
-0.1249 van </s> -0.6021
-0.4260 मोबाईल </s> -0.6021
-0.4260 शायद बोलेगा 0.0000
-0.1249 ट्राम तथा 0.0000
-3.2335 <s> कलक्टरसाहब 0.0000
-0.1249 टाईटेनियम ऐस 0.0000
-0.1249 ऐस फाइव 0.0000
-2.9325 <s> टैलीग्राफ 0.0000
-0.4260 ऑफर इन -0.4973
-1.8958 में पड़े -0.3979
-0.7270 मेरे खयाल 0.0000
-0.1249 jhao and -0.5932
-2.0594 और विचारक 0.0000
-3.2335 <s> हज़ 0.0000
-0.1249 सींथेटिक लेदर -0.3979
-0.1249 पुरूषों के -0.5237
-0.4260 cameras </s> -0.6021
-0.4260 case </s> -0.6021
-0.1249 पारंगत होते 0.0000
-0.1249 वामनराव अब 0.0000
-0.5229 two thousand -0.2430
-2.9325 <s> लेडीज़ 0.0000
-3.2335 <s> ias -0.4771
-0.1249 एक्सटेंडेड इन्श्यूरैंस 0.0000
-3.2335 <s> ज्वेलरी -0.5119
-0.1249 जाना चाहता -0.3010
-3.2335 <s> affenty 0.0000
-0.1249 सोनीगरा भांगलपुर 0.0000
-0.1249 ऍड्वेंचर स्पोर्ट्स -0.4771
-0.7270 art factory 0.0000
-1.7160 हैं कि -0.5699
-0.1249 ugc net 0.0000
-0.1249 वरदान है -0.2451
-0.4260 बच्चा क्या -0.5528
-1.5399 the personal 0.0000
-0.1249 soft toys 0.0000
-0.1249 mills georgette 0.0000
-0.4260 आदि भर 0.0000
-0.1249 अलवर रतलाम 0.0000
-0.4260 क्यों जा -0.3979
-0.1249 चम्पकलाल ने -0.5699
-0.1249 विविधकलाओं की -0.5971
-0.1249 पैट्रॉल पार्टी -0.3979
-1.3554 भी चलती -0.3979
-1.9445 की लगाम 0.0000
-0.4260 केबल </s> -0.6021
-0.1249 जुर्राब और -0.5983
-0.1249 टॉप बॉक्स -0.3979
-1.8409 का अनुभव 0.0000
-0.8239 वहां मरो 0.0000
-0.1249 टैरेन </s> -0.6021
-0.1249 रामनाथ अग्रवाल 0.0000
-1.8958 में लिया -0.3979
-3.2335 <s> तेईस 0.0000
-0.4260 लेकिन लगता 0.0000
-0.9700 तब सफलता 0.0000
-0.1249 करिए नोइडा 0.0000
-0.6021 हमारा पूर्ण 0.0000
-1.4472 ने एक -0.5781
-3.2335 <s> do 0.0000
-0.1249 खड़ाऊँ </s> -0.6021
-2.9325 <s> पैन 0.0000
-0.1249 प्रक्रियाओं अफ्सादों 0.0000
-3.2335 <s> वेट 0.0000
-0.7270 रह गया -0.4914
-0.1249 encourage you -0.5643
-0.1249 jhakir khan 0.0000
-0.9700 जो किताबों 0.0000
-0.1249 transferable </s> -0.6021
-3.2335 <s> buy 0.0000
-0.4260 हुए और -0.5983
-0.1249 analysis and -0.5932
-1.6931 and riding 0.0000
-0.3010 इस्तेमाल करना -0.5229
-1.1663 मोबाइल वाटरप्रूफ 0.0000
-1.8958 में सिर 0.0000
-0.8239 enterprise lifestyle -0.3979
-0.1249 ऐड बिलो 0.0000
-0.1249 माउथ ऑर्गन 0.0000
-1.3554 भी प्रदर्शित 0.0000
-0.1249 source of -0.5863
-2.0594 और अंकगणित 0.0000
-0.1249 लावा आईरिस 0.0000
-0.1249 दूसरी भाषाओं -0.3010
-3.2335 <s> लैवेंडर 0.0000
-0.4260 नोकिआ आशा 0.0000
-0.7270 vodafone data 0.0000
-0.1249 skateboards wrench 0.0000
-0.1249 लेते हैं -0.0902
-3.2335 <s> प्रेस्टीज 0.0000
-0.1249 charger with -0.5593
-0.1249 देव लोक -0.3979
-0.1249 पुडा </s> -0.6021
-3.2335 <s> curtains 0.0000
-3.2335 <s> हर्बल 0.0000
-3.2335 <s> आयरन 0.0000
-2.1249 के उस्तरे 0.0000
-2.0594 और हमें -0.4771
-0.1249 लिबर्टी शूज़ -0.5528
-0.1249 रबर डिजिटल -0.3979
-2.7564 <s> मुझे -0.3424
-0.1249 लेनोवो </s> -0.6021
-0.1249 गैस स्टोव 0.0000
-0.1249 प्रधान रोगियों 0.0000
-1.4260 सैमसंग का -0.5958
-0.6021 दस जन 0.0000
-0.1249 प्रोत्साहित करते -0.4472
-1.4472 कि उन्हें 0.0000
-0.1249 दफह की -0.5819
-1.2041 यह बात -0.5119
-0.1249 रख दिया 0.0000
-3.2335 <s> pater 0.0000
-3.2335 <s> android -0.5119
-0.4260 दाग धब्बों 0.0000
-0.1249 beens </s> -0.6021
-3.2335 <s> पैरागौन 0.0000
-0.1249 करें </s> -0.6021
-0.1249 सभी मिलकर 0.0000
-0.1249 डिब्बा और -0.5983
-0.1249 रट लगाता 0.0000
-0.4260 मानव ने -0.5863
-0.1249 स्पर्धा परीक्षा -0.5441
-0.9700 कैमरा एट 0.0000
-3.2335 <s> linear 0.0000
-0.1249 राठौड़ ब्रदर्स -0.3979
-2.9325 <s> दुल्हन 0.0000
-0.1249 कमान सँभाली 0.0000
-0.1249 इज़ गोल्ड -0.4973
-0.1249 डिक्सी ओपेल 0.0000
-0.1249 changer narendra 0.0000
-0.1249 जनता को -0.5927
-0.1249 riding gear 0.0000
-0.1249 plain back -0.3979
-1.4674 मोबाइल टीवी -0.5119
-0.8239 non verbal 0.0000
-0.1249 कोर प्राइम -0.3979
-0.9700 तब हमारा -0.4771
-0.4260 काइट्स </s> -0.6021
-0.4260 नरेश ने -0.5863
-1.6931 and sports -0.3979
-2.0594 और बैंगल्स -0.3979
-0.4260 सिद्ध चमत्कारिक 0.0000
-0.1249 ट्रिम्स ब्लैक -0.5119
-0.1249 डायना के -0.5955
-0.1249 फैसला सुनाना 0.0000
-0.1249 उम्र का -0.5893
-1.1249 गया क्योंकि 0.0000
-3.2335 <s> thirty 0.0000
-0.1249 ठाक बन -0.5119
-3.2335 <s> शू 0.0000
-3.2335 <s> action 0.0000
-0.7270 अधिक परिचित 0.0000
-0.6021 झूला </s> -0.6021
-0.1249 वंशावली </s> -0.6021
-0.1249 बोलचाल की -0.5921
-0.1249 लेडीज सायकल 0.0000
-0.1249 जैन मुनि 0.0000
-0.7270 ड्रेस </s> -0.6021
-0.1249 keetions </s> -0.6021
-0.1249 varieties </s> -0.6021
-1.6435 की भाषा -0.2041
-0.4260 car and -0.5932
-0.1249 प्रदर्शित करेंगे 0.0000
-2.1249 के मजदूर 0.0000
-0.1249 नज़र रखती 0.0000
-0.1249 मुहांसों की -0.5921
-0.4260 cameras and -0.5932
-3.2335 <s> वोह 0.0000
-0.4260 cow dung 0.0000
-1.0280 अपनी आत्मा 0.0000
-0.9031 परीक्षा संपूर्ण 0.0000
-0.9700 health mission 0.0000
-0.1249 तरुण आदर्श 0.0000
-1.4472 of tort 0.0000
-3.2335 <s> housekeeping 0.0000
-3.2335 <s> फैन -0.3979
-0.1249 genius smart -0.5119
-2.0594 और उस -0.5119
-0.7270 टू डे 0.0000
-2.0594 और तकनीकी 0.0000
-0.1249 स्टैच्यू </s> -0.6021
-0.4260 bluetooth item 0.0000
-0.1249 प्रत्येक चरण 0.0000
-0.1249 hypo allerjgenics 0.0000
-2.3884 <s> tata 0.0000
-0.1249 भुगतना ही -0.5825
-0.7270 कैसे पेश 0.0000
-0.7270 अपना नहीं -0.5593
-1.4472 of administrative 0.0000
-0.1249 wealth case -0.3979
-2.0594 और लॉकेट -0.3979
-0.1249 सस्ती </s> -0.6021
-1.4260 to two -0.4914
-0.4260 mts mblaze 0.0000
-3.2335 <s> मालिश 0.0000
-0.1249 अन्ताक्षरी </s> -0.6021
-0.1249 एम्पलीफायर औसीलेटर 0.0000
-1.9445 की बड़ी -0.3979
-0.1249 ब्लूटुथ स्पीकर्स -0.3979
-0.2798 गांव के -0.5786
-1.0792 मैं जाऊंगा 0.0000
-0.1249 कामरुप काम्याख 0.0000
-2.9325 <s> मल्होत्रा 0.0000
-0.1249 रोशनी और -0.5983
-0.1249 डिजाइनर </s> -0.6021
-0.1249 cracking iit 0.0000
-3.2335 <s> killing 0.0000
-0.1249 reasoning non -0.5315
-1.0280 कवर फॉर -0.5593
-0.5229 साफ़ साफ़ -0.4472
-1.4260 to read 0.0000
-0.3010 चार्जर </s> -0.6021
-0.1249 ओल्ड इज़ 0.0000
-3.2335 <s> प्रश्न 0.0000
-0.1249 कहा कि -0.5166
-3.2335 <s> नाइटी 0.0000
-0.1249 साबुन </s> -0.6021
-0.1249 उधर फिर -0.5441
-0.1249 j seven 0.0000
-3.2335 <s> एनसीआरटी 0.0000
-0.1249 मारूति बैलेनो 0.0000
-3.2335 <s> टीवीएस 0.0000
-0.4260 शादी की -0.5971
-0.1249 quad core -0.3979
-3.2335 <s> ये -0.4771
-0.1249 एलीफेंट कम्पनी -0.3979
-0.1249 शूस </s> -0.6021
-1.3554 ही चलते 0.0000
-1.1249 बहुत सीख 0.0000
-0.1249 मोटोरोला मोटो 0.0000
-0.1249 धर्मरक्षक आपके -0.4771
-0.1249 चुनाव किया -0.4973
-0.1249 misconnecterizing </s> -0.6021
-3.2335 <s> लीड्ज 0.0000
-2.0594 और यूएसबी 0.0000
-0.7270 धीरे बढ़ने 0.0000
-0.1249 सनग्लासेज़ </s> -0.6021
-0.1249 मेहँदी का -0.5893
-0.1249 arihant art -0.5119
-2.9325 <s> स्क्रैच 0.0000
-0.1249 ट्रक अशोक 0.0000
-0.6021 designer stickers 0.0000
-0.1249 संहिता </s> -0.6021
-0.1249 जलेसर क्यों -0.3979
-0.1249 animation mastery 0.0000
-0.4260 शब्द दूसरी 0.0000
-0.1249 सिरप </s> -0.6021
-0.4260 इंच ऐड 0.0000
-1.4472 कि ईश्वर 0.0000
-3.2335 <s> इसका -0.3979
-0.1249 शैम्पू और -0.5983
-0.1249 ऑडीयो प्लेयर 0.0000
-0.1249 टूथपेस्ट और -0.5983
-0.1249 bill payment 0.0000
-0.1249 टॉकीज़ </s> -0.6021
-1.3554 a club -0.4771
-0.1249 अनुभव हुआ -0.2041
-0.6021 विडियो सिनेमा 0.0000
-0.1249 बेचते हैं -0.0902
-0.1249 बाबा सिद्धनाथ 0.0000
-0.9031 fashion indian -0.5441
-0.1249 चाल ढाल 0.0000
-0.1249 पालना </s> -0.6021
-3.2335 <s> रिबॉक 0.0000
-1.1249 card recharge 0.0000
-0.1249 लाइन </s> -0.6021
-0.4260 दुल्हन का -0.5958
-0.1249 trans technology 0.0000
-3.2335 <s> गुलामगिरी 0.0000
-0.1249 net set 0.0000
-0.1249 ऑपरेटिंग सिस्टम 0.0000
-0.4260 बस स्टैंड -0.3010
-0.1249 manures </s> -0.6021
-0.4260 सिस्टम </s> -0.6021
-0.9031 परीक्षा प्रश्नपत्र 0.0000
-3.2335 <s> पेरी 0.0000
-0.7782 लिए </s> -0.6021
-2.0594 और साउंड 0.0000
-0.4260 जैकेट </s> -0.6021
-0.4260 हार्ड डिस्क 0.0000
-0.1249 हॉल में -0.5965
-0.4260 इंटेक्स मोबाइल -0.5552
-0.6021 ले गई -0.3979
-0.1249 practice sets 0.0000
-1.5823 और गांव -0.1139
-0.9700 health the -0.5893
-0.4260 किसान को -0.5927
-0.4260 furniture </s> -0.6021
-3.2335 <s> five -0.5027
-0.7270 लैपटॉप एक्स्टेंडेड 0.0000
-0.6021 inter dependence 0.0000
-3.2335 <s> engineering 0.0000
-1.6690 को बैल 0.0000
-0.1249 solved papers 0.0000
-1.7584 और महाभारत -0.3010
-0.1249 प्रमुख ब्लैक -0.5593
-0.1249 एयरलाइनर </s> -0.6021
-3.2335 <s> दूर -0.4771
-0.1249 intelligence </s> -0.6021
-0.1249 housekeeping laundry 0.0000
-0.1249 technic use 0.0000
-0.1249 बिल्लियां को -0.5927
-3.2335 <s> स्वेटर 0.0000
-0.4260 चित्र या -0.5315
-0.1249 individualistic reconsideration 0.0000
-0.7270 आप दादाओं 0.0000
-2.9325 <s> अंग्रेजी -0.4472
-0.1249 इटालियन किचन 0.0000
-0.1249 फर्श साफ़ -0.5315
-0.9031 अ अ -0.5441
-0.9700 तक कि -0.5863
-0.1249 परफ्यूम </s> -0.6021
-1.8409 का मोबाईल -0.5119
-0.1249 जुते चाइनीज़ 0.0000
-0.1249 पेरी कार्डिन 0.0000
-3.2335 <s> blackberry 0.0000
-0.1249 सपना डांसर 0.0000
-3.2335 <s> game 0.0000
-3.2335 <s> कनकौए 0.0000
-2.5345 <s> phones -0.4210
-0.8239 उसकी तरफ 0.0000
-0.1249 म्यूजिक सपना 0.0000
-0.1249 स्लो इलेक्ट्रिक 0.0000
-3.2335 <s> pardhi 0.0000
-0.1249 धोने की -0.5819
-0.8239 how to -0.5855
-0.7270 costing more 0.0000
-0.8239 for ias -0.3010
-3.2335 <s> मफ्लर 0.0000
-1.8409 का जीवन -0.4771
-3.2335 <s> रात 0.0000
-2.9325 <s> नाईट 0.0000
-3.2335 <s> tommy 0.0000
-0.1249 semiconductors </s> -0.6021
-3.2335 <s> विमान 0.0000
-0.1249 अंतिम राष्ट्राध्यक्ष 0.0000
-1.3554 भी था -0.0669
-0.4260 तुम समझ -0.3979
-0.1249 बापै ऊपर -0.5315
-2.7564 <s> bedroom 0.0000
-1.6301 से चलते 0.0000
-0.4260 फेस कवर -0.3979
-0.1249 आसपास सोने -0.2041
-0.7270 जमीन पर -0.5903
-1.0280 वह ऑईल 0.0000
-0.1249 टयूबलैस पंक्चर 0.0000
-0.1249 gol tring 0.0000
-0.2499 point five -0.3736
-0.3010 पॉवर सप्लाई 0.0000
-0.4260 इंडियन टैरेन 0.0000
-1.5399 the indian -0.5441
-1.0280 वह सिद्ध -0.3979
-1.6301 से डिजिटल -0.3979
-0.1249 मित्र थे 0.0000
-1.8958 में वह -0.5593
-3.2335 <s> एक्सचेंज 0.0000
-0.1249 खास फीचर्स 0.0000
-0.1249 थोड़ी मात्रा 0.0000
-0.1249 तहसीलदार दूसरे -0.3979
-3.2335 <s> प्रीपेड 0.0000
-1.3554 a very 0.0000
-0.8239 ब्लूटूथ </s> -0.6021
-3.2335 <s> electromagnet 0.0000
-2.9325 <s> बेबीज़ 0.0000
-0.1249 न्यूज़ अपडेट 0.0000
-0.1249 लगते हैं -0.0902
-0.8239 सौ वर्ष 0.0000
-3.2335 <s> combo 0.0000
-0.1249 mitashi eighty 0.0000
-0.1249 ऐसी गंभीरता 0.0000
-2.0594 और उनका -0.3979
-0.1249 वायरलैस स्टीरियो 0.0000
-3.2335 <s> जटायु 0.0000
-0.6021 राऊ पुस्तक -0.2430
-0.6021 आपकी जबानी 0.0000
-0.2499 पुस्तक </s> -0.6021
-1.6301 से काम -0.5593
-0.1249 पैबल यार्ड 0.0000
-0.4260 jewellers allow 0.0000
-3.2335 <s> एप्सन 0.0000
-1.5051 नहीं करनी 0.0000
-1.4472 of bluetooth -0.5119
-0.8783 बिजली से -0.5704
-0.1249 सामिग्री </s> -0.6021
-2.0594 और बिजली -0.4130
-0.1249 मोटर्स इलेक्ट्रिप 0.0000
-0.1249 बूढ़े को -0.5927
-1.5051 नहीं </s> -0.6021
-0.1249 बाथरूम ऐसेसीरीज़ 0.0000
-0.1249 awareness </s> -0.6021
-0.4260 फैन </s> -0.6021
-0.1249 सिद्धनाथ की -0.5971
-0.1249 कप्तान है -0.2451
-0.9700 तक हमारे -0.3979
-2.1249 के लैंप 0.0000
-0.1249 क्वॉलिटी कपडे -0.4771
-0.1249 रचा गया -0.4914
-0.4260 चप्पल </s> -0.6021
-0.1249 वीमेन </s> -0.6021
-1.4472 of english -0.3979
-0.1249 कंपनी ने -0.5699
-0.1249 मेन </s> -0.6021
-0.1249 बोलेगा कि -0.5863
-0.6021 रेलवे स्टेशन 0.0000
-3.2335 <s> praseen 0.0000
-0.6021 श्मशान भूमि 0.0000
-0.9700 तक </s> -0.6021
-3.2335 <s> mister 0.0000
-0.1249 रेट </s> -0.6021
-0.1249 ideas galaxy -0.5119
-0.1249 एफ़ एम् 0.0000
-0.1249 तेरे संसार 0.0000
-3.2335 <s> ब्लूटुथ 0.0000
-0.9031 प्राइम फ्लिप 0.0000
-1.1530 से </s> -0.6021
-0.1249 इमली की -0.5971
-0.9031 सिर्फ अंग्रेजी -0.5315
-0.2499 पड़ता था -0.0669
-0.1249 औज़ार इंजन 0.0000
-2.7564 <s> उसकी -0.3424
-1.3554 ही पड़ता -0.5119
-0.8239 how busy 0.0000
-3.2335 <s> लैमन 0.0000
-3.2335 <s> he 0.0000
-3.2335 <s> then 0.0000
-0.7270 बन सकी 0.0000
-0.4260 बॉक्स </s> -0.6021
-0.1249 examination </s> -0.6021
-2.0594 और ऍड्वेंचर 0.0000
-1.8239 के लड्डू 0.0000
-3.2335 <s> cooking 0.0000
-0.1249 फ्लीट जीन्स -0.1383
-0.1249 फ्लॉपी डिस्क 0.0000
-0.1249 केक एंड -0.5528
-0.4260 फोर की -0.5971
-0.1249 सुर संगीत -0.4771
-0.1249 trimmers </s> -0.6021
-0.2499 वॉच </s> -0.6021
-0.1249 dont get 0.0000
-0.9031 हिंदी की -0.5870
-3.2335 <s> living -0.4771
-0.1249 चलो मौसम 0.0000
-0.1249 खड़े होकर 0.0000
-0.1249 गूगल्स </s> -0.6021
-0.6021 chinese englishman 0.0000
-1.0792 you should 0.0000
-0.6021 in the -0.5893
-0.6478 two gb -0.2041
-0.7270 self energizing 0.0000
-3.2335 <s> राज़ -0.4771
-3.2335 <s> milton 0.0000
-0.1249 pseudo scientific 0.0000
-0.1249 texts like 0.0000
-3.2335 <s> school 0.0000
-1.5721 पर लगाना 0.0000
-0.4260 cover </s> -0.6021
-1.5721 पर हम -0.5441
-0.4260 देंगे कुछ -0.5229
-0.1249 ब्लड प्रेशर 0.0000
-0.6021 करना </s> -0.6021
-3.2335 <s> रक्त 0.0000
-0.1249 वोह समझ -0.3979
-0.4260 चाय पुडा 0.0000
-2.9325 <s> sixteen 0.0000
-0.1249 पिछले असाढ़ 0.0000
-0.1249 गोलियों की -0.5971
-0.1249 learn both -0.3979
-0.7270 फिटनेस बॉन्ड्स 0.0000
-0.4260 बाग बनवाने 0.0000
-3.2335 <s> वरन 0.0000
-0.1249 कन्दावरी शिवाजी 0.0000
-1.5563 लिए धुप 0.0000
-0.4260 inch multimedia 0.0000
-3.2335 <s> उसको 0.0000
-0.1249 लगाई </s> -0.6021
-3.2335 <s> कृपया 0.0000
-3.2335 <s> किसी 0.0000
-0.9700 कैमरा डेटा 0.0000
-0.1249 राशियाँ के -0.5988
-1.0792 करना चाहता -0.4771
-1.6931 and posters 0.0000
-0.9031 फिर राघो 0.0000
-3.2335 <s> कामरुप 0.0000
-3.2335 <s> realism 0.0000
-0.1249 बनवाने का -0.5958
-0.4260 रनिंग स्पोर्ट -0.5119
-0.6021 पास फीचर्स 0.0000
-1.0792 करना चाहिए 0.0000
-0.9700 एंड पास्टा 0.0000
-0.1249 अवसर मिला 0.0000
-1.1249 बहुत मजबूर 0.0000
-1.9445 की एक -0.5781
-3.2335 <s> आनंदित 0.0000
-3.2335 <s> जैतून 0.0000
-2.0594 और त्रिफला 0.0000
-0.1249 wrench sets 0.0000
-0.1249 मीनू है -0.2451
-0.1249 सुनाता है -0.2451
-0.4260 चाय लाओ 0.0000
-2.0594 और जूते 0.0000
-0.1249 पनीर </s> -0.6021
-0.1249 धुप के -0.5988
-0.1249 वुडरफ डायना 0.0000
-0.1249 secondary bazaar 0.0000
-1.0280 अपनी चार -0.3979
-0.1249 लेज़र प्रिंटर 0.0000
-0.1249 फलसफा पढ़ाते 0.0000
-3.2335 <s> पीटर 0.0000
-0.6021 air conditioners 0.0000
-0.1249 बर्नर गैस 0.0000
-3.2335 <s> महाभारत -0.4771
-0.1249 हज़ न्यूज़ 0.0000
-0.1249 हेड्फोन </s> -0.6021
-0.1249 तांत्रिक रहस्य 0.0000
-3.2335 <s> इस -0.5441
-0.4260 core phones -0.3736
-3.2335 <s> ugc 0.0000
-0.1249 ग्रामर </s> -0.6021
-3.2335 <s> limit 0.0000
-3.2335 <s> raj 0.0000
-0.5229 shree ganesh 0.0000
-0.3010 सायकल </s> -0.6021
-0.1249 चेहरे पर -0.5903
-0.7270 आज बेगम 0.0000
-0.1249 fertilizing </s> -0.6021
-0.1249 वॉशिंग मशीन -0.3010
-0.1249 जटायु और -0.5983
-0.4260 लगे </s> -0.6021
-3.2335 <s> shavers 0.0000
-0.1249 ethno musicologist 0.0000
-0.1249 लगेज </s> -0.6021
-3.2335 <s> blackseed 0.0000
-0.1249 मिल्टन हिल्टन 0.0000
-0.6021 ले जाता 0.0000
-0.4260 बस अपने -0.3979
-0.9700 गोल्ड रेट 0.0000
-0.4260 bath linen 0.0000
-0.7270 कैसे कम -0.5441
-3.2335 <s> प्रमुख 0.0000
-0.1249 मोटर साइकल 0.0000
-0.4260 जैकेट्स ऑफर -0.3979
-0.1249 यूनीफॉर्म </s> -0.6021
-0.1249 bring meditation 0.0000
-0.1249 वॉटर फिल्टर 0.0000
-0.8239 shree karni 0.0000
-0.1249 होने के -0.5988
-0.1249 हेरीकाप्टर टॉय्ज़ 0.0000
-0.1249 fit meditation 0.0000
-0.4260 कोलगेट प्रॉमिज़ 0.0000
-1.9445 की सबसे -0.3979
-0.1249 यूज़ किया -0.5528
-0.1249 नैकलेस कुंदन 0.0000
-2.9325 <s> pratiyogita 0.0000
-0.1249 स्टेशन दिखा 0.0000
-0.1249 गुढ़मुक्खा गाँव -0.3979
-0.6021 life of -0.5863
-0.1249 सूचना भेजी 0.0000
-0.1249 heritage </s> -0.6021
-0.1249 रिवोक जूते 0.0000
-1.8958 में गले 0.0000
-0.1249 busy you -0.5643
-3.2335 <s> ग्रे 0.0000
-0.1249 सैट्स </s> -0.6021
-0.1249 प्युरीफायर </s> -0.6021
-0.4260 जा रही 0.0000
-3.2335 <s> भागवत -0.3979
-0.1249 चक्की आटा -0.3979
-0.1249 लेलैंड </s> -0.6021
-3.2335 <s> एम्ब्रायडरी 0.0000
-3.2335 <s> स्पोर्ट्स -0.4771
-3.2335 <s> जामै 0.0000
-0.1249 टीपी लिंक 0.0000
-0.9031 परीक्षा तैयारी 0.0000
-0.3010 hd ready 0.0000
-0.4260 दुल्हन की -0.5971
-1.0792 करना मना -0.3979
-0.1249 पैकिंग मशीन -0.3010
-0.1249 डाली है -0.2451
-0.4260 आदमी शुटिंग 0.0000
-0.1249 गोल्फ कोर्स 0.0000
-3.2335 <s> principles 0.0000
-1.8239 के आविष्कार 0.0000
-0.1249 यू माफ़ 0.0000
-0.1249 अप्रैल जून 0.0000
-0.1249 शपथ वायुपुत्राची 0.0000
-0.1249 अगस्त में -0.5909
-0.1249 jewelry </s> -0.6021
-0.1249 सेंडविच मेकर 0.0000
-0.7270 शब्दावली ज़्यादातर 0.0000
-1.8958 में खोजते 0.0000
-0.1249 भरपूर विद्युत -0.3979
-3.2335 <s> गुरूजी 0.0000
-0.1249 बादाम के -0.5955
-2.9325 <s> लैक्मे 0.0000
-0.9031 tv recharge 0.0000
-0.1249 औषध दवाईयां 0.0000
-1.9445 की संभावना 0.0000
-1.8958 में चलती -0.3979
-0.1249 हाई क्वॉलिटी 0.0000
-0.1249 तहत वह -0.5593
-0.1249 फोग्ग परफ्यूम 0.0000
-0.1249 असाढ़ की -0.5971
-3.2335 <s> quantum 0.0000
-0.6021 ये सारे -0.4771
-2.0594 और टॉप्स -0.3979
-3.2335 <s> कपड़े -0.5315
-0.1249 javascript design 0.0000
-0.1249 मालिक बन -0.5119
-0.1249 जिसकी शब्दावली -0.5119
-0.4260 स्पीकर्स होम -0.5119
-0.1249 विशारद की -0.5921
-1.6931 and engineer 0.0000
-1.5721 पर ही -0.5825
-0.1249 machines </s> -0.6021
-1.8409 का यंत्र 0.0000
-0.1249 photon plus -0.3010
-3.2335 <s> मोटापा 0.0000
-0.1249 गजेल </s> -0.6021
-0.1249 powerful way 0.0000
-0.1249 डेस्कटॉप कंप्यूटर 0.0000
-0.6021 new launches 0.0000
-0.7270 होम डेकोर 0.0000
-0.4260 विकास धीमे 0.0000
-3.2335 <s> fiction 0.0000
-0.1249 कमर व -0.3979
-0.1249 differential equations 0.0000
-0.7270 आप धीरे -0.5119
-3.2335 <s> हैवी 0.0000
-3.2335 <s> कैसिओ 0.0000
-0.4260 चित्र बनाने 0.0000
-0.1249 तहकीकात के -0.5988
-0.7270 android phone 0.0000
-0.1249 ट्यूज़डे को -0.5927
-0.4260 ऐसा अवसर 0.0000
-3.2335 <s> paint 0.0000
-1.0280 ब्लैक रबर 0.0000
-2.7564 <s> online -0.3424
-0.1249 पाटील की -0.5971
-0.1249 pottery by 0.0000
-0.1249 रिमुवल </s> -0.6021
-0.1249 उसे कागज 0.0000
-0.4260 स्पीकर्स टू -0.5119
-0.1249 शेरवानी फॉर -0.5593
-0.6892 five inches 0.0000
-1.0280 क्रीम कलर 0.0000
-0.1249 hawkins kitchenware 0.0000
-0.1249 धातु खोजक 0.0000
-3.2335 <s> पीअर्स 0.0000
-0.7270 bluetooth cameras -0.3979
-2.1249 के दूध 0.0000
-3.2335 <s> सूत 0.0000
-0.1249 समाधि है -0.2451
-3.2335 <s> कार -0.4771
-3.2335 <s> असुर 0.0000
-2.1249 के अन्य 0.0000
-0.1249 विमान को -0.5927
-0.1249 shyam selection 0.0000
-0.1249 कावासाकी हौंडा 0.0000
-0.1249 औरेलिया कुर्तीज -0.3010
-2.0594 और चनिया -0.2041
-0.4260 usb player -0.3979
-0.4260 विद्युत जनरेटर 0.0000
-0.2499 जाती है -0.2369
-0.1249 nice girls 0.0000
-0.1249 वी गार्ड 0.0000
-0.8239 online education 0.0000
-2.9325 <s> इन्वर्टर 0.0000
-0.1249 प्रीपेड रिचार्ज 0.0000
-0.6021 बैग्स </s> -0.6021
-0.1249 बुद्धिमत्ता और -0.5983
-0.4260 mtnl bill 0.0000
-0.1249 प्रूफ़ बैड 0.0000
-0.6021 fashion </s> -0.6021
-3.2335 <s> पार्टी -0.3979
-3.2335 <s> कार्टरिजेज़ 0.0000
-2.9325 <s> जॉन 0.0000
-1.7584 और बादाम 0.0000
-0.9031 प्राइम फ़्लिप 0.0000
-1.5051 नहीं करते -0.4472
-2.6314 <s> क्या -0.3590
-0.1249 बडी़शोप डब्बा 0.0000
-0.3010 कैनवास लैपटॉप -0.5119
-0.1249 अपमानजनक है -0.2451
-0.1249 निष्ठा है -0.2451
-1.5563 लिए यह -0.5740
-0.1249 sony braayvia 0.0000
-0.1249 एनसीआरटी जिस्ट 0.0000
-0.9700 flip phones -0.3736
-0.1249 वूडन टेम्पल 0.0000
-1.5051 नहीं कि -0.5699
-0.1249 पावर वैक्स 0.0000
-0.1249 गुल मेहँदी 0.0000
-0.3010 किट </s> -0.6021
-0.1249 साबित हो -0.5812
-1.5721 पर कम -0.5441
-0.6021 गयी कि -0.5528
-0.1249 दार घागरा -0.3010
-0.1249 लिक्विड काजल 0.0000
-0.1249 जूते </s> -0.6021
-1.5399 the mughal 0.0000
-0.1249 जीम टोटल -0.3979
-0.1249 अनेक चीज़ें 0.0000
-0.1249 इक्विपमेंट </s> -0.6021
-0.1249 ब्लेज़र </s> -0.6021
-1.0280 हिन्दी दुनिया 0.0000
-0.1249 band sports -0.3979
-0.1249 पुड़ें में -0.5965
-1.0792 करने लगे -0.5119
-0.9031 indian online -0.5315
-0.1249 स्पीकर </s> -0.6021
-0.9700 गोल्ड ज्वेलरी -0.5119
-0.1249 investment valuation 0.0000
-3.2335 <s> tvs 0.0000
-3.2335 <s> चप्पल -0.3979
-0.6021 आई </s> -0.6021
-0.1249 साइकिल </s> -0.6021
-1.0792 कुछ अच्छी 0.0000
-0.1249 पौंड्स </s> -0.6021
-0.1249 ओटीजी कम्पैटिबल 0.0000
-0.4260 फुल टीशर्ट 0.0000
-0.4260 बराबर आप -0.5119
-0.7270 docomo data 0.0000
-0.1249 टाइगर चीता 0.0000
-0.1249 ऍरोमा मैजिक 0.0000
-0.8519 हो जाता 0.0000
-0.1249 georgette embroidered 0.0000
-0.4260 शब्दावली की -0.5921
-0.4260 हाउस ऑफ़ -0.4771
-0.4260 स्पार्क्स ब्लू 0.0000
-2.9325 <s> कार्बन 0.0000
-0.1249 quantitative review 0.0000
-0.1249 सबके साथ -0.5229
-0.1249 कूलर </s> -0.6021
-0.1249 मेघा वर्धक 0.0000
-0.9031 कम इन्टरनेट 0.0000
-0.4260 back cover -0.5593
-0.3010 श्मशान में -0.5909
-0.1249 हर्बल एसेन्स 0.0000
-0.4260 एयर कूलर 0.0000
-2.9325 <s> काला -0.3010
-0.1249 steriods </s> -0.6021
-0.4260 हल </s> -0.6021
-2.7564 <s> मैं -0.4771
-3.2335 <s> cross 0.0000
-0.4260 ऑटो अग्निशन 0.0000
-0.6021 hd led 0.0000
-0.3010 best digital 0.0000
-0.4260 रहा है -0.2451
-0.9031 samsung clear 0.0000
-0.1249 फ़ोटो </s> -0.6021
-0.1249 जिनके बच्चे -0.4771
-0.1249 इमारत कमज़ोर 0.0000
-0.6021 आग ज़ालिमों 0.0000
-3.2335 <s> आयुर्वेदिक 0.0000
-1.8958 में दादा 0.0000
-0.1249 stabilizers </s> -0.6021
-0.1249 पौधे और -0.5983
-0.1249 gaubert </s> -0.6021
-3.2335 <s> कर्ज़दार 0.0000
-0.4260 विश्व लोक -0.3979
-3.2335 <s> marketing 0.0000
-0.1249 imaging the -0.5893
-0.1249 अब शांत 0.0000
-0.1249 टेम्पल ओर -0.3010
-0.3010 आग चम्पकलाल 0.0000
-0.1249 रिबोक </s> -0.6021
-0.4260 खोज के -0.5988
-0.1249 आयरन जीम 0.0000
-3.2335 <s> अक्ल 0.0000
-0.7270 g three -0.5315
-0.1249 coolers </s> -0.6021
-0.7270 फिटनेस इक्विपमेंट 0.0000
-0.4260 वालों की -0.5971
-0.1249 वॉलीबाल का -0.5958
-0.1249 headline from -0.4771
-0.6021 हमें हिंदी -0.5441
-0.1249 इंडिको जिंस 0.0000
-1.9445 की सहायता 0.0000
-0.4260 law of -0.5863
-1.2389 का भाव -0.3590
-0.1249 महफ़िलों में -0.5965
-0.1249 जाऊंगा </s> -0.6021
-0.1249 pillows </s> -0.6021
-3.2335 <s> रिसेप्शन 0.0000
-0.4260 बाद ही -0.5825
-0.9031 indian gift 0.0000
-0.1249 हुयी नहीं -0.5883
-0.9031 samsung uber 0.0000
-0.1249 आकाश धरती 0.0000
-2.9325 <s> फिर -0.4771
-2.9325 <s> cortico 0.0000
-0.1249 इत्तर </s> -0.6021
-0.1249 दूध का -0.5958
-0.3010 एक्स्टेंडेड वारंटी 0.0000
-0.1249 जन्म देने 0.0000
-0.1249 easy is -0.5528
-2.9325 <s> पीपल 0.0000
-0.4260 mahaveer creations -0.3010
-0.1249 enjoy everything 0.0000
-0.1249 जिन्होंने अपनी -0.5593
-0.1249 multificational resourcefulness 0.0000
-0.1249 मात्रा में -0.5909
-0.4260 सचमुच अपनी -0.5593
-0.7270 मोबाईल चार्जर -0.4771
-0.7270 डी मेमोरी 0.0000
-0.1249 चुप करा 0.0000
-0.1249 लगी है -0.2451
-1.3554 ही प्राप्त -0.3010
-0.1249 दादाओं के -0.5955
-0.1249 auto accessories -0.1761
-0.1249 warrior within 0.0000
-0.1249 जनरल साइंस 0.0000
-0.1249 अंदमान निकोबार 0.0000
-0.1249 दवा </s> -0.6021
-0.4260 सकते हैं -0.0902
-3.2335 <s> मैहूला 0.0000
-0.1249 थिएटर और -0.5983
-2.9325 <s> इन -0.4973
-3.2335 <s> मेजर 0.0000
-0.4260 व पेट 0.0000
-3.2335 <s> उसमें 0.0000
-0.4260 टूल्स </s> -0.6021
-0.1249 aviator sunglasses 0.0000
-0.1249 chowky to -0.5855
-0.1249 blackberry phone 0.0000
-0.5229 airtel recharge 0.0000
-0.1249 शरबत शिकंजी 0.0000
-0.1249 blackseed smart -0.5119
-1.8409 का अचार 0.0000
-3.2335 <s> ऑफिसियल 0.0000
-0.1249 संक्रामक रोगों 0.0000
-0.1249 फ़िल्टर </s> -0.6021
-0.4260 टीम आँकड़ों 0.0000
-3.2335 <s> love -0.3979
-2.1249 के अंतिम 0.0000
-3.2335 <s> शपथ 0.0000
-0.1249 वैल्डिंग करते -0.5315
-0.8239 उसके हाथ -0.5119
-3.2335 <s> अनिकेत 0.0000
-1.9445 की यात्रा 0.0000
-3.2335 <s> न -0.5315
-0.1249 टिपटॉप </s> -0.6021
-1.3554 ही ट्रेन 0.0000
-1.6931 and personal 0.0000
-0.4260 फोर वीमेन 0.0000
-1.0792 you can 0.0000
-2.1249 के ड्रैस -0.3979
-1.9445 की ऐसी 0.0000
-0.1249 ज़मीन पर -0.5528
-1.3554 भी नहीं -0.5883
-0.1249 ss star -0.3979
-1.3291 हो सकता 0.0000
-0.1249 representations </s> -0.6021
-0.1249 मालिश वाली -0.3979
